~o
<STREAMINFO> 1 39
<VECSIZE> 39<NULLD><MFCC_E_D_A_Z><DIAGC>
~h "eight"
<BEGINHMM>
<NUMSTATES> 8
<STATE> 2
<NUMMIXES> 16
<MIXTURE> 1 8.408979e-002
<MEAN> 39
 1.686048e-001 -1.794383e+000 -8.433239e-001 7.011094e-001 7.807277e-001 -1.604629e-001 1.187008e+000 -1.942940e-001 -1.881633e-001 -1.433755e+000 -9.463468e-001 1.519097e-001 8.241663e-001 1.797915e+000 1.392156e+000 1.242183e+000 2.969576e-001 5.393020e-001 1.343374e-001 3.756977e-001 2.501313e-001 7.894531e-001 3.005404e-001 -2.750302e-001 -7.911813e-001 2.273458e+000 1.403703e+000 2.025671e-001 4.265518e-001 -1.198212e+000 -7.184941e-001 -4.930225e-001 -9.007194e-001 7.039008e-002 6.961648e-002 5.217790e-001 -7.171358e-002 -8.070637e-001 1.413482e+000
<VARIANCE> 39
 4.636221e-001 3.831286e-001 8.494021e-001 1.133217e+000 1.307079e+000 2.121758e+000 1.921900e+000 2.121836e+000 2.208595e+000 1.203062e+000 1.277952e+000 2.049599e+000 3.597837e-001 9.087152e-001 1.247564e+000 1.812533e+000 2.221012e+000 2.102853e+000 2.081352e+000 3.192005e+000 1.838410e+000 1.797716e+000 8.688267e-001 1.432730e+000 2.354433e+000 2.156127e+000 1.105269e+000 2.235493e+000 2.437727e+000 9.689336e-001 2.715208e+000 2.556933e+000 1.835899e+000 2.297879e+000 2.652654e+000 1.148050e+000 1.894503e+000 1.753451e+000 1.612154e+000
<GCONST> 8.838159e+001
<MIXTURE> 2 1.046076e-001
<MEAN> 39
 5.277552e-001 -1.438111e+000 -9.104240e-001 -1.393076e-001 1.769334e-001 -1.187865e+000 -8.886958e-001 -1.686797e+000 -1.245881e+000 -1.529272e+000 -1.506717e+000 -1.227224e+000 1.417663e+000 1.911261e+000 -9.007756e-001 -1.894690e+000 -1.205868e+000 -1.010868e+000 -1.113571e+000 -3.175292e-001 -7.715920e-001 -1.269270e+000 -7.928128e-001 -1.141168e+000 -8.945910e-001 2.227498e+000 -1.271677e+000 -1.294030e+000 -1.391147e-001 1.745863e-001 6.029979e-001 8.871678e-001 1.337057e+000 1.453094e+000 8.217601e-001 1.338815e+000 1.143533e+000 1.085674e+000 -9.285658e-001
<VARIANCE> 39
 1.102745e+000 4.972684e-001 1.347032e+000 1.718771e+000 2.670586e+000 1.196940e+000 2.517990e+000 1.452211e+000 1.856393e+000 1.377063e+000 8.975829e-001 9.244001e-001 3.266745e-001 1.624135e+000 2.437474e+000 2.705924e+000 3.108865e+000 3.036766e+000 2.482610e+000 2.655339e+000 2.330645e+000 3.019939e+000 3.279752e+000 3.011964e+000 2.398858e+000 1.395179e+000 1.920227e+000 1.991658e+000 2.681149e+000 2.280466e+000 3.125772e+000 1.868410e+000 1.649176e+000 1.602633e+000 1.840510e+000 1.697878e+000 1.872644e+000 1.296335e+000 2.167000e+000
<GCONST> 9.464812e+001
<MIXTURE> 3 9.993216e-002
<MEAN> 39
 -3.207990e-001 -2.418449e+000 -1.242288e+000 -9.468207e-001 4.826204e-001 -3.780989e-001 1.082433e-001 4.782979e-002 -1.040344e+000 -9.171341e-001 -8.314793e-001 4.979835e-001 6.133347e-001 -1.542106e-001 -6.083837e-001 -1.271378e-001 -1.901440e-001 4.634667e-001 -9.858453e-002 4.019951e-001 -3.709276e-001 -9.470887e-001 -7.743611e-001 -6.741634e-001 -1.052963e-001 1.573083e+000 1.016670e+000 2.159000e+000 1.072878e+000 1.459436e+000 1.146161e-001 1.265661e-001 2.730121e-002 5.119178e-003 6.383041e-001 2.879269e-001 1.742318e-001 -7.747141e-001 -2.837453e-001
<VARIANCE> 39
 4.597008e-001 2.803309e-001 6.975054e-001 5.262583e-001 2.143558e+000 1.900140e+000 1.965625e+000 2.128902e+000 3.731486e+000 1.560791e+000 3.136841e+000 1.792711e+000 1.024935e-001 4.406472e-001 2.180109e+000 1.684482e+000 1.948438e+000 1.744057e+000 2.869464e+000 2.377856e+000 1.729385e+000 2.246074e+000 1.693203e+000 2.864108e+000 2.594794e+000 1.068289e+000 1.523627e+000 1.234167e+000 2.598428e+000 1.659974e+000 2.310007e+000 2.714800e+000 1.729849e+000 1.681351e+000 3.039769e+000 2.133890e+000 4.530588e+000 2.702544e+000 2.884945e+000
<GCONST> 9.068421e+001
<MIXTURE> 4 6.574607e-002
<MEAN> 39
 1.115471e+000 -2.025338e+000 -1.497311e+000 1.354571e+000 1.240460e+000 -1.761018e+000 2.450601e+000 -5.053348e-001 -5.196958e-001 -1.092187e+000 -5.093879e-001 -2.200140e+000 2.026586e+000 1.613156e-001 5.392410e-002 -1.624456e-001 9.726852e-002 -4.379755e-001 -8.283858e-002 4.972412e-002 3.092021e-001 2.556119e-001 -3.229322e-002 -1.838315e-001 -1.851741e-004 3.291576e-001 -4.531694e-001 4.930872e-001 4.420766e-001 -6.973775e-002 1.615468e-001 1.325132e-001 -3.849618e-001 1.091851e-001 1.413403e-002 -8.970982e-002 7.282688e-002 5.566322e-001 -7.761211e-001
<VARIANCE> 39
 9.088365e-001 7.112542e-001 7.779912e-001 1.827252e+000 1.579390e+000 1.005147e-001 3.904850e-001 2.550694e+000 1.413846e+000 8.877715e-001 1.690354e+000 8.416773e-001 5.510027e-002 1.572520e-001 1.968110e+000 2.186708e+000 2.149661e+000 1.033549e+000 3.187856e-001 1.127494e+000 1.876451e+000 2.048358e+000 2.742359e+000 2.354220e+000 2.432541e+000 3.377047e-001 1.496032e+000 2.485601e+000 2.442527e+000 3.389155e+000 8.759289e-001 9.517202e-001 9.381028e-001 1.981598e+000 2.937243e+000 3.365021e+000 2.325499e+000 1.743362e+000 1.883295e+000
<GCONST> 7.801762e+001
<MIXTURE> 5 9.328954e-002
<MEAN> 39
 -5.750971e-001 -1.934810e+000 4.008389e-001 4.018705e-001 1.274306e+000 3.275437e-001 -2.474352e-002 1.647248e-002 -2.195100e-001 -2.514216e-001 4.333655e-001 4.529684e-001 7.566248e-001 1.785259e+000 6.473781e-001 -6.620747e-001 -4.612494e-001 -5.808224e-001 -8.073145e-001 -1.132655e+000 -1.796736e+000 -1.575201e+000 -1.884605e+000 -1.732212e+000 -1.272344e+000 1.766720e+000 2.019142e+000 3.938176e-001 -1.344753e+000 -1.304612e+000 -1.525930e+000 -1.108351e+000 -5.172196e-001 -6.571008e-001 -7.870518e-001 -8.371599e-001 -1.454903e+000 -1.229672e+000 1.337421e+000
<VARIANCE> 39
 8.138937e-001 6.393690e-001 2.338047e+000 1.435546e+000 1.706138e+000 1.237510e+000 1.500916e+000 1.261770e+000 1.276795e+000 1.483984e+000 1.664793e+000 1.645281e+000 3.366333e-001 1.597091e+000 1.352899e+000 1.940193e+000 2.358671e+000 3.005923e+000 2.136904e+000 2.268782e+000 1.543894e+000 1.929741e+000 2.136885e+000 2.378351e+000 2.555890e+000 1.991317e+000 1.888934e+000 2.689707e+000 2.070958e+000 2.652834e+000 1.120902e+000 1.894857e+000 2.066675e+000 2.042600e+000 1.609165e+000 2.245716e+000 2.231396e+000 2.323977e+000 1.546028e+000
<GCONST> 9.238276e+001
<MIXTURE> 6 8.431569e-002
<MEAN> 39
 -1.048045e+000 -1.814466e-003 1.144902e+000 -1.101441e+000 -1.539915e+000 -1.549421e+000 -3.341070e-001 1.516096e+000 -3.780809e-001 -1.068620e+000 1.045718e+000 3.456092e-001 1.068960e+000 -4.757002e-001 4.202148e-001 9.654320e-001 -2.360252e-001 3.536471e-001 6.449127e-001 -2.532078e-001 1.493567e-001 2.317569e-002 3.231431e-001 6.601081e-001 1.525697e-001 6.047416e-001 2.522893e-001 -2.876391e-001 -3.241020e-001 3.357450e-001 7.423111e-001 6.270908e-001 3.558669e-001 -4.485054e-001 -2.679141e-001 6.961218e-002 -1.797627e-001 -3.618445e-001 -8.672060e-002
<VARIANCE> 39
 9.391331e-001 2.067742e+000 1.718885e+000 3.013749e+000 1.870475e+000 1.526584e+000 2.028939e+000 1.944449e+000 1.099532e+000 2.110368e+000 1.275864e+000 2.725764e+000 3.294722e-001 3.501069e+000 3.130062e+000 1.927571e+000 4.812385e+000 4.154411e+000 5.374145e+000 3.477193e+000 3.055555e+000 1.857966e+000 1.854939e+000 2.298798e+000 3.510353e+000 2.008403e+000 3.760607e+000 2.310446e+000 1.376196e+000 3.445612e+000 4.283582e+000 6.125959e+000 3.640236e+000 2.799247e+000 2.701667e+000 3.935318e+000 2.661380e+000 3.742306e+000 2.605000e+000
<GCONST> 1.064256e+002
<MIXTURE> 8 5.535443e-002
<MEAN> 39
 1.563725e+000 -3.288137e+000 -2.463037e+000 -8.655909e-002 -1.919302e+000 -1.269306e-001 -1.596378e+000 -6.315643e-001 -2.275996e+000 -2.216623e+000 -1.422448e+000 -1.246663e+000 2.852804e+000 -9.802228e-002 -1.887986e-001 1.966953e-001 -2.545611e-001 -2.350205e-001 4.337502e-001 2.049124e-001 -8.182310e-002 1.344195e-001 -5.660617e-001 6.770180e-002 2.985814e-001 1.691079e-001 -2.349876e-001 8.860141e-001 8.174205e-001 -2.093071e-001 3.664893e-001 -4.864918e-001 3.552490e-002 2.087506e-001 -1.500021e-001 6.850258e-002 6.397381e-002 1.363105e-001 -3.825492e-001
<VARIANCE> 39
 2.186907e-001 2.660304e-001 1.799900e+000 1.666733e+000 1.218820e+000 2.122599e+000 2.335075e+000 2.543328e+000 3.310024e-001 3.166310e-001 4.932078e-001 1.310134e+000 4.571484e-002 2.884119e-001 2.154313e+000 1.728305e+000 1.106861e+000 6.024220e-001 1.171998e+000 9.032390e-001 1.208680e+000 1.289544e+000 8.105761e-001 7.419942e-001 8.168942e-001 2.909915e-001 5.920808e-001 1.026644e+000 1.277490e+000 1.043553e+000 6.598927e-001 1.382968e+000 6.331114e-001 1.138048e+000 1.497851e+000 1.204077e+000 5.109078e-001 6.661475e-001 2.133683e-001
<GCONST> 6.244522e+001
<MIXTURE> 9 5.926581e-002
<MEAN> 39
 -2.192338e-001 -1.272831e+000 2.338871e-001 2.201062e-001 8.793369e-001 3.773143e-001 7.852060e-001 1.367802e+000 1.173283e-001 -7.199911e-001 3.974562e-001 1.009290e+000 3.606698e-002 -7.924529e-001 -2.760712e+000 -3.300104e-001 -1.346761e+000 4.882112e-001 3.251219e-001 4.859873e-001 4.476031e-001 -2.230397e-001 -5.875965e-001 1.370566e-002 -2.693964e-001 1.520531e+000 3.219132e-001 1.124176e+000 -8.918788e-001 -9.318363e-002 -6.297498e-001 5.426633e-002 -4.783268e-001 -1.146309e+000 3.338158e-001 9.844279e-001 2.364162e-002 -7.388412e-001 2.818349e-001
<VARIANCE> 39
 2.065347e-001 4.108379e-001 9.918306e-001 7.289491e-001 6.377008e-001 1.556773e+000 1.971560e+000 8.427739e-001 4.624266e-001 4.629481e-001 1.389565e+000 8.214355e-001 1.198645e-001 4.964237e-001 2.325618e+000 1.481394e+000 1.187956e+000 1.250174e+000 1.255186e+000 1.541689e+000 1.451939e+000 2.040069e+000 2.504788e+000 1.840025e+000 1.170134e+000 1.715098e+000 1.643910e+000 2.219975e+000 1.047976e+000 1.669882e+000 1.045123e+000 1.744512e+000 2.402414e+000 1.477648e+000 1.118820e+000 1.909228e+000 1.545537e+000 1.272659e+000 2.750396e+000
<GCONST> 7.692768e+001
<MIXTURE> 10 4.113555e-002
<MEAN> 39
 1.721884e+000 -2.018562e+000 1.499688e+000 1.761982e-001 6.004559e-001 -4.062953e-001 -1.346771e-001 1.390425e+000 -1.150580e+000 -5.245512e-001 2.156221e-001 -7.524520e-001 9.602571e-001 8.364580e-002 -2.782137e+000 2.363220e-001 -3.523713e-001 7.829512e-001 3.387183e-001 3.720636e-001 1.149886e-001 -9.792376e-001 -9.421738e-002 -2.304498e-001 1.085538e-001 2.618660e+000 -2.227579e+000 1.299219e+000 -2.274271e+000 1.938286e-001 -9.784564e-001 8.298729e-001 8.143496e-002 -1.438186e+000 5.574889e-001 1.642477e-001 1.319823e-001 4.031117e-001 -1.285771e+000
<VARIANCE> 39
 1.213231e+000 9.205350e-001 2.688998e-001 1.910186e+000 5.482602e-001 1.021486e+000 1.878115e+000 1.955320e+000 2.114646e+000 1.650279e+000 2.590016e+000 1.853399e+000 6.118678e-001 4.907894e+000 2.326355e+000 3.409380e+000 4.299092e+000 1.862432e+000 1.567819e+000 5.210012e+000 2.847308e+000 4.005162e+000 2.789074e+000 4.189182e+000 3.742483e+000 1.457330e+000 3.192441e+000 3.821505e+000 2.076473e+000 3.492211e+000 1.252705e+000 8.229818e-001 3.215262e+000 3.828502e+000 7.302696e+000 3.337138e+000 3.305566e+000 2.613406e+000 2.636032e+000
<GCONST> 1.019430e+002
<MIXTURE> 11 8.622650e-002
<MEAN> 39
 8.236554e-001 -1.735422e+000 -1.024527e+000 -7.697462e-001 1.986846e-001 -7.678720e-001 -3.466100e-001 -7.629952e-001 -6.938137e-001 -6.536107e-001 -1.408205e+000 -6.520151e-001 1.443358e+000 9.272596e-002 -1.037125e+000 -5.207931e-001 -7.559979e-001 -1.953346e-001 -1.174960e-001 -1.104756e-001 4.960144e-001 -4.801144e-001 9.380395e-002 -2.387082e-001 2.316983e-001 7.710119e-001 -8.158354e-001 7.647711e-001 5.864021e-001 1.027351e+000 1.504647e-001 5.077680e-001 4.198098e-001 -5.885897e-002 5.121442e-001 5.125700e-003 7.082675e-001 2.780323e-001 -1.192725e+000
<VARIANCE> 39
 3.143620e-001 4.533842e-001 7.332215e-001 9.306895e-001 1.002291e+000 9.966986e-001 1.677387e+000 1.463594e+000 1.883033e+000 9.952300e-001 6.152729e-001 1.604764e+000 1.885113e-001 2.951339e-001 8.958822e-001 5.753809e-001 1.245750e+000 8.613906e-001 6.982017e-001 1.583305e+000 8.692527e-001 5.309195e-001 6.686801e-001 7.468965e-001 1.175390e+000 2.027411e-001 8.282424e-001 2.298704e+000 7.467698e-001 7.498615e-001 1.226518e+000 9.498500e-001 1.398865e+000 8.459267e-001 8.488140e-001 4.811124e-001 7.227805e-001 9.412708e-001 3.901067e-001
<GCONST> 6.273978e+001
<MIXTURE> 12 1.504634e-001
<MEAN> 39
 -7.456176e-001 -1.321458e+000 -1.836349e-001 4.408323e-001 8.247874e-001 3.532022e-001 1.136501e+000 3.168041e-001 2.773315e-001 3.898833e-001 4.223845e-001 1.876386e-002 4.156842e-001 -3.774712e-001 -6.994032e-001 -3.773839e-001 1.716517e-001 1.059314e-001 -3.004834e-001 -2.964439e-001 -2.966637e-001 -1.986363e-001 1.949200e-002 2.239101e-001 7.576936e-002 6.632421e-001 6.628214e-001 6.218282e-001 1.204940e-001 1.471887e-001 -1.240467e-001 -4.038039e-001 -4.236544e-001 -6.592037e-002 -2.999052e-001 -3.365818e-001 -1.158095e-001 2.298313e-001 -1.343587e-001
<VARIANCE> 39
 6.231102e-001 5.854441e-001 1.253615e+000 8.696845e-001 6.616166e-001 1.061247e+000 1.106071e+000 8.170142e-001 1.057282e+000 1.362388e+000 1.189305e+000 1.175148e+000 1.680067e-001 4.321981e-001 5.232255e-001 1.057365e+000 1.134949e+000 8.452928e-001 9.759793e-001 7.886680e-001 1.311083e+000 1.381864e+000 1.080972e+000 1.945089e+000 2.333159e+000 6.149619e-001 7.547464e-001 1.405212e+000 9.709952e-001 1.693441e+000 1.326789e+000 1.078424e+000 6.977824e-001 1.379266e+000 1.537924e+000 8.470021e-001 1.956312e+000 2.519354e+000 7.705122e-001
<GCONST> 7.165551e+001
<MIXTURE> 13 1.096627e-002
<MEAN> 39
 -1.137368e-001 -2.680801e+000 6.220101e-001 -9.079980e-001 1.098655e+000 -3.946930e-001 -9.946497e-001 9.151367e-001 -8.771126e-001 2.171907e+000 2.388291e+000 -1.058365e+000 9.755459e-001 9.362916e-001 -3.646190e+000 2.422256e+000 -9.078928e-001 3.265285e+000 -5.701462e-001 -1.796550e-001 1.869685e+000 -6.514214e-001 1.104173e+000 5.451931e-001 7.345892e-001 4.015037e+000 1.024234e+000 4.595823e+000 1.903824e-001 1.478622e+000 -2.297273e-001 -1.396844e-001 9.388278e-001 -1.396327e+000 4.484581e-001 -2.391889e+000 -3.045783e+000 1.132594e+000 -2.625032e+000
<VARIANCE> 39
 1.294583e+000 9.061499e-001 1.342149e+000 3.173570e-001 2.194412e+000 8.222557e-001 2.471894e+000 2.260067e+000 6.991804e-001 6.195745e-001 1.417045e+000 1.107290e+000 1.551732e-001 1.519895e+001 3.459498e+000 3.142267e+000 5.804826e-001 2.060742e+000 1.294777e+000 2.761553e+000 1.030420e+001 1.287939e+000 1.128061e+000 7.067714e-001 1.228061e+000 9.924703e-001 4.259387e+000 1.171773e+000 2.407433e+000 2.084072e+000 5.783988e+000 1.486064e+000 5.055250e+000 4.084775e+000 9.519061e-001 1.860512e+000 4.622998e-001 4.306378e+000 8.162065e-001
<GCONST> 8.961869e+001
<MIXTURE> 14 5.341383e-003
<MEAN> 39
 3.702339e-001 -1.224192e+000 -3.125838e-001 4.861189e-002 9.691312e-001 3.842064e-001 2.171267e-001 9.982783e-001 -2.213910e-001 3.545669e-001 -2.039902e-001 8.548844e-001 5.358876e-001 -7.496231e-001 -4.779577e+000 -3.079913e-001 -2.319927e-001 1.783387e-001 -2.405234e-001 -8.336041e-001 -1.546616e+000 -4.194916e+000 -2.571916e+000 -2.134337e-001 1.163908e-001 5.065119e-002 -2.185566e+000 -9.425399e-001 1.088129e+000 -1.000976e+000 -4.991536e-001 -1.096361e-002 -5.690578e-001 -2.603943e-001 7.968043e-002 8.462610e-001 6.839342e-001 -1.353604e+000 8.087999e-001
<VARIANCE> 39
 1.376400e-001 6.948146e-001 1.253047e+000 2.686052e-001 5.405660e-002 4.051495e-001 1.292354e+000 8.310227e-001 8.376946e-002 7.100986e-002 6.765520e-001 1.848094e-001 8.355945e-002 2.970325e-001 3.713063e+000 6.912708e-001 1.144562e-001 1.953512e-001 1.654030e+000 3.758866e-001 8.449450e-001 1.964219e+000 9.999961e-003 8.570570e-001 7.575920e-001 2.030936e+000 6.650471e-002 3.584642e+000 2.707249e+000 1.756415e+000 2.328577e-001 4.799651e-001 1.757550e-001 5.971644e-001 1.326723e+000 5.053692e-001 1.462446e+000 5.034594e-001 5.005341e-001
<GCONST> 4.071802e+001
<MIXTURE> 15 5.392443e-002
<MEAN> 39
 1.477633e+000 -9.060036e-001 1.492676e-001 3.609221e-001 7.518367e-001 7.658257e-002 1.007268e+000 2.982339e-001 1.117711e-002 -1.007978e+000 -7.668869e-001 -9.147896e-001 1.577327e+000 1.598778e+000 -8.893809e-002 8.569415e-002 -1.297661e+000 -6.185876e-001 -3.391468e-001 -6.947950e-001 -3.613705e-001 5.855035e-001 4.948921e-001 -3.170010e-001 -8.911021e-001 2.041867e+000 -1.374558e+000 -1.994852e+000 -1.303440e+000 -9.179342e-001 -3.259493e-001 -4.986531e-001 -5.635439e-001 -5.738741e-002 -7.592990e-001 1.745836e-001 -1.459095e-001 4.629184e-001 -1.455803e+000
<VARIANCE> 39
 6.170909e-001 7.842066e-001 1.196658e+000 1.308856e+000 8.302173e-001 1.139166e+000 1.242234e+000 2.366053e+000 1.519634e+000 5.883048e-001 9.561622e-001 1.328662e+000 2.273050e-001 8.574656e-001 2.306572e+000 1.784368e+000 1.717327e+000 1.513692e+000 1.586892e+000 1.295300e+000 2.106162e+000 1.924513e+000 6.028023e-001 1.311757e+000 9.712368e-001 8.578987e-001 5.444729e-001 9.146196e-001 1.647503e+000 1.680220e+000 1.853427e+000 7.003039e-001 8.920951e-001 1.633488e+000 7.278015e-001 6.605592e-001 7.996829e-001 7.450179e-001 9.411228e-001
<GCONST> 7.463483e+001
<MIXTURE> 16 5.341400e-003
<MEAN> 39
 -1.242691e+000 -6.480023e-001 4.409415e-001 -7.354342e-001 -6.393796e-001 -1.651194e+000 8.661323e-001 1.439739e+000 -4.283667e-001 -4.340446e-001 9.096268e-001 5.658498e-001 7.213962e-001 5.050022e-001 -2.855386e+000 4.642657e+000 -1.985194e+000 -4.057442e+000 -1.864672e+000 -3.802740e-001 2.928159e+000 -5.411375e+000 -5.629499e+000 -2.474451e+000 -2.206777e+000 3.485783e+000 3.222489e+000 5.497218e-001 -1.089676e-001 -6.792806e-001 4.329659e-002 2.370739e+000 -2.300282e+000 -1.253508e+000 -5.103716e-001 1.424229e-001 -2.567640e+000 -6.527163e-001 -4.260172e+000
<VARIANCE> 39
 2.580937e-001 8.640250e-002 5.468857e-001 1.391618e+000 2.756809e+000 8.031392e-001 1.612792e+000 1.107029e+000 2.544026e+000 6.076065e+000 2.786402e-001 5.668003e-001 8.976363e-002 5.569856e+000 6.539900e+000 2.222632e-001 1.191362e+000 1.602797e+001 2.408253e+000 2.531991e+000 2.431612e+000 1.113590e+000 4.750025e+000 4.649583e+000 2.051862e+000 7.060012e+000 3.191317e+000 1.129539e+000 3.261137e+000 4.284267e+000 7.972213e+000 2.183302e-001 6.922420e-001 2.665931e+000 3.637856e+000 1.196986e+001 5.736756e-001 3.559777e-001 3.879573e+000
<GCONST> 8.969759e+001
<STATE> 3
<NUMMIXES> 16
<MIXTURE> 1 1.324915e-001
<MEAN> 39
 1.063218e-001 6.830167e-001 2.140542e+000 7.587272e-001 4.379195e-001 -4.397194e-001 6.004525e-001 1.712143e+000 -1.988789e+000 -6.519367e-001 2.088262e+000 -2.481265e-001 1.988585e+000 5.126853e-002 6.918845e-002 -2.492328e-002 -2.305075e-002 -2.183946e-003 -5.750754e-002 1.638023e-001 -5.861545e-002 4.112394e-002 -5.163351e-003 -1.156337e-001 -3.009840e-002 7.649243e-002 -2.682096e-002 3.179319e-002 4.944624e-003 -3.344355e-002 9.219566e-003 8.512428e-002 -5.636353e-003 3.174744e-002 1.348559e-001 -5.685180e-002 -2.333518e-002 -7.772103e-003 -1.462389e-002
<VARIANCE> 39
 5.140147e-002 9.681144e-002 1.849375e-001 1.873509e+000 6.794073e-001 1.059048e+000 5.924025e-001 7.409932e-001 1.120608e+000 2.983275e+000 6.504614e-001 2.815892e+000 1.000004e-002 2.190365e-001 3.181934e-001 1.730533e+000 2.301269e+000 1.086382e+000 2.418041e+000 3.315876e+000 2.895659e+000 3.116501e+000 2.794388e+000 2.876536e+000 2.835170e+000 9.999961e-003 2.562190e-001 4.613497e-001 2.143236e+000 2.331413e+000 8.782073e-001 2.722438e+000 3.694363e+000 3.165604e+000 3.170286e+000 2.742126e+000 2.969367e+000 2.967796e+000 9.999896e-003
<GCONST> 6.551033e+001
<MIXTURE> 2 1.253828e-001
<MEAN> 39
 7.134444e-002 -2.585906e+000 -1.062182e+000 -1.090396e+000 2.319818e-001 -1.346832e+000 -8.232240e-002 -1.882476e+000 -1.565450e+000 -1.848800e+000 -8.435463e-001 -1.260010e+000 2.317470e+000 5.554992e-002 3.137166e-001 2.394356e-001 -4.304340e-001 -7.970225e-001 1.634775e-001 6.785079e-001 -4.182918e-002 5.656603e-002 -3.097231e-002 -3.385014e-002 -1.662526e-001 -1.679837e-001 2.644191e-001 6.269148e-001 7.138316e-002 -3.291220e-001 -6.545165e-001 7.746022e-002 -1.460506e-001 8.383905e-002 -3.194624e-001 -4.296203e-001 -3.051546e-001 2.729095e-002 -5.204508e-001
<VARIANCE> 39
 7.985817e-001 8.778435e-002 2.133775e+000 1.299852e+000 2.164840e+000 1.892671e+000 2.632049e+000 7.924432e-001 6.286637e-001 5.649817e-001 2.991215e+000 2.110931e+000 7.237530e-002 2.762580e-001 4.902565e-001 7.293462e-001 1.924577e+000 1.422227e+000 1.809044e+000 1.560144e+000 1.254182e+000 1.462746e+000 1.677014e+000 1.742659e+000 1.816420e+000 2.250845e-001 4.628348e-001 8.538694e-001 9.629955e-001 2.041584e+000 1.145386e+000 1.310159e+000 1.343736e+000 1.216093e+000 1.468876e+000 1.175438e+000 1.378345e+000 1.845827e+000 2.098494e-001
<GCONST> 7.144456e+001
<MIXTURE> 3 1.924553e-001
<MEAN> 39
 9.926037e-001 -9.978766e-001 -8.905615e-001 -3.596432e-002 -7.746173e-001 3.173230e-001 -3.366346e-001 -5.182713e-001 -1.440547e-001 -9.192971e-001 -9.762679e-001 -5.013186e-001 1.094217e+000 -1.654037e-002 1.445466e-001 1.659753e-002 -9.997600e-002 -1.592267e-001 1.181145e-001 -3.354645e-002 1.461789e-002 -2.072673e-002 -1.477754e-001 3.876977e-002 -3.995456e-002 4.180354e-002 -6.651043e-002 5.006478e-002 9.926373e-003 -8.030977e-002 -1.407859e-002 -4.802914e-002 9.991673e-002 -1.950729e-002 -3.316984e-002 -2.903573e-002 -1.860217e-002 2.570803e-002 -1.383614e-003
<VARIANCE> 39
 1.242583e-001 1.839580e-001 5.210437e-001 2.868080e-001 2.553987e-001 6.198146e-001 1.082585e+000 5.388049e-001 8.250601e-001 3.468818e-001 2.507951e-001 7.002407e-001 2.606604e-002 5.000453e-002 4.383007e-001 3.544765e-001 4.104626e-001 2.765757e-001 3.147803e-001 4.720770e-001 3.842289e-001 6.265274e-001 4.440287e-001 3.731661e-001 4.231659e-001 4.561673e-002 8.521928e-002 3.385154e-001 3.742816e-001 4.024668e-001 3.087189e-001 3.485964e-001 3.857401e-001 3.626358e-001 6.161950e-001 4.512106e-001 3.823099e-001 4.030973e-001 7.844872e-002
<GCONST> 2.553883e+001
<MIXTURE> 5 3.397429e-003
<MEAN> 39
 -1.954011e+000 1.018774e+000 -5.336835e-001 -2.605696e+000 2.179419e-001 -1.250902e+000 2.994059e-001 2.048996e+000 -8.733987e-001 -2.207100e+000 -2.118423e+000 -1.854429e+000 1.546349e+000 -2.205662e+000 6.934006e-001 4.983272e-001 -1.090120e+000 -7.356686e-001 4.650563e-001 -3.581262e-001 -4.920943e-001 -3.874941e-001 -4.394479e-001 -3.841233e-001 -1.561305e+000 2.973102e-001 2.876659e+000 -1.611640e+000 4.984089e-001 2.497410e+000 -1.177295e+000 -6.202851e-001 -4.200005e-001 -1.924755e+000 -4.389496e-001 8.932964e-001 9.278171e-002 6.550059e-002 3.189581e-001
<VARIANCE> 39
 1.000004e-002 1.147698e-002 8.564967e-002 3.552270e-002 8.033732e-002 3.682484e-001 1.000001e-002 2.530122e-002 5.049827e-002 9.999962e-003 9.999943e-003 2.375754e-002 1.000004e-002 2.973612e-001 2.918530e-002 8.124910e-002 6.989835e-001 1.000000e-002 9.999997e-003 4.610277e-002 8.747170e-001 4.410058e-001 7.033008e-002 1.472832e-002 3.402540e-001 9.999961e-003 1.532378e-001 5.049945e-001 9.999952e-003 5.639412e-001 2.033985e-001 7.269512e-001 9.999976e-003 1.550090e-002 2.817040e-001 3.157347e-001 2.506381e-001 6.110891e-002 4.807037e-002
<GCONST> -3.699917e+001
<MIXTURE> 6 1.189199e-002
<MEAN> 39
 8.134341e-001 -1.397319e+000 1.144601e+000 -2.120382e+000 -1.896824e+000 -8.012253e-001 1.226256e+000 7.453346e-001 -1.372775e+000 1.178377e-001 -2.472139e+000 3.701283e-002 1.657526e+000 -3.782245e-001 1.465161e+000 9.330378e-001 1.013531e+000 1.361083e+000 -1.382408e+000 -7.009717e-001 -1.338557e-002 1.880734e+000 -5.119715e-001 1.463132e+000 3.649924e-001 -6.380275e-001 -2.137035e+000 1.329123e+000 -2.031845e+000 1.772519e+000 1.254247e+000 9.943267e-001 -6.237833e-001 -1.135111e+000 9.011373e-001 6.660903e-002 1.551824e+000 1.327952e+000 -6.618432e-001
<VARIANCE> 39
 1.491268e+000 9.623441e-001 1.992500e+000 4.188439e-001 1.094163e+000 2.779140e-001 1.571331e-001 1.900202e+000 5.798572e-001 4.087589e+000 6.328382e-001 4.737990e-001 6.657059e-002 1.676294e+000 2.088946e+000 1.800020e+000 3.169190e+000 4.084690e+000 7.693757e-001 1.354370e+000 1.323927e+000 3.453048e-001 3.387424e+000 3.022292e+000 2.372467e+000 2.496857e-001 1.826610e+000 3.754314e+000 8.804386e-001 1.024417e+000 2.957573e+000 6.663331e-001 8.843141e-001 1.125006e+000 4.529780e-001 4.264867e+000 2.245755e+000 3.017461e+000 4.878177e-001
<GCONST> 7.621964e+001
<MIXTURE> 8 1.019249e-002
<MEAN> 39
 3.698604e-001 1.522304e-002 1.119723e+000 -1.565353e+000 -1.421441e+000 -1.708034e+000 5.226020e-001 -1.362174e+000 2.019299e+000 -3.292326e+000 -9.757221e-001 8.027693e-001 1.662951e+000 -7.366993e-001 3.668514e-001 2.251801e+000 1.613378e+000 -1.073629e+000 -6.002446e-002 -1.358031e+000 1.676665e+000 -3.919420e-001 -1.014594e+000 7.415684e-001 7.686055e-001 -5.847651e-001 -1.064330e+000 -7.872256e-001 -2.902948e-001 2.931500e-001 1.340999e-001 2.253037e-001 -4.084901e-002 4.868911e-001 -4.485666e-001 1.500475e+000 -4.839360e-001 -2.886381e-001 -1.556990e-002
<VARIANCE> 39
 1.000004e-002 3.206964e-002 8.209566e-001 4.087658e-001 2.192408e-001 1.412159e-002 8.564286e-001 8.263004e-001 3.173952e-001 3.623403e+000 2.847698e-001 2.791257e+000 1.084572e-002 4.069971e-001 2.319645e-001 5.304927e-001 2.301218e-001 6.573378e-001 1.407904e-001 8.976680e-001 9.918728e-001 1.441820e+000 4.311780e+000 1.149828e+000 3.912523e+000 2.959825e-002 1.426587e+000 3.785208e-001 2.809749e+000 1.168039e-001 1.290048e+000 3.964914e-002 2.943658e+000 2.287706e+000 2.504803e+000 9.348832e+000 8.153838e-001 6.882049e+000 1.800347e-001
<GCONST> 4.502228e+001
<MIXTURE> 9 6.794873e-003
<MEAN> 39
 8.432367e-001 -8.493403e-001 -9.202578e-001 1.143896e+000 -1.388532e+000 1.814175e-001 -3.085499e-001 -5.819252e-002 -2.733613e+000 -2.308059e+000 -2.183556e+000 1.363901e-001 1.714517e+000 -3.152596e+000 2.754195e+000 3.622477e-001 -2.083246e+000 4.012039e+000 7.646079e-004 2.460668e+000 -6.051460e-001 3.845968e-001 3.216235e-002 -1.208732e-001 6.316137e-001 -9.596043e-001 -3.669303e+000 1.788860e+000 -6.480864e-001 -3.348018e+000 9.410460e-003 -5.225587e-001 2.200641e-001 8.906136e-001 9.151645e-001 1.782148e+000 1.399030e+000 -1.059735e+000 9.132530e-002
<VARIANCE> 39
 7.852235e-001 1.001864e+000 2.706582e-001 2.940901e-001 6.249366e-001 2.445925e-001 4.790602e-001 1.932353e-001 6.558445e-002 2.484805e-001 9.904686e-001 2.061687e+000 2.473473e-001 9.936208e-001 1.063207e+000 1.244336e-001 1.458092e+000 6.859632e-001 8.137822e-001 1.650748e-001 9.383721e-002 3.191172e-001 1.598075e+000 7.997531e-001 3.671942e-001 3.544991e-001 3.696536e-001 6.394899e-001 1.652963e-001 3.074493e-001 2.230966e+000 5.509531e-001 1.524889e+000 2.678554e-001 5.903990e-001 9.383778e-001 1.432381e-001 9.186848e-001 1.593860e-001
<GCONST> 4.094454e+001
<MIXTURE> 10 6.794854e-003
<MEAN> 39
 -6.049638e-001 4.724181e-001 -9.460321e-001 -1.256768e+000 -8.433015e-003 -2.015522e+000 6.777381e-001 5.444917e-001 -7.300689e-001 -1.948243e+000 -2.044440e+000 2.810279e-001 1.389550e+000 -4.846303e+000 3.311558e+000 3.408814e-001 -4.430682e+000 2.069710e+000 -9.384642e-001 2.854759e-001 1.538752e+000 1.177759e+000 1.271166e+000 8.048253e-001 -2.941057e-001 -4.158832e-001 7.415167e-001 -1.618997e+000 1.264175e-001 4.030990e-001 -2.574869e+000 6.922380e-001 -1.614600e+000 7.578868e-001 -1.031424e+000 -1.057978e-001 -4.055602e-001 -1.626965e+000 1.218420e+000
<VARIANCE> 39
 5.908822e-001 1.983313e-001 5.062758e-002 3.966724e-001 3.056280e-001 2.933524e-001 1.638565e-001 1.056768e+000 3.246262e-001 1.722837e-001 2.247427e-001 3.267681e+000 2.879764e-002 2.496559e-001 1.223039e+000 6.843372e-002 1.379780e+000 7.456219e-001 1.412616e+000 1.971753e-001 3.387330e-002 2.269521e+000 1.081843e+000 6.653773e-001 8.455867e-001 2.984851e-001 2.728296e+000 2.274530e+000 4.803082e-002 3.852057e+000 4.470465e-001 1.270615e+000 5.172801e-001 2.090160e+000 8.035256e-001 3.041527e+000 7.970040e-001 8.432739e-001 4.297048e-002
<GCONST> 4.233069e+001
<MIXTURE> 11 2.566285e-001
<MEAN> 39
 1.677880e+000 -2.214236e+000 -4.523223e-001 -1.280807e+000 2.229791e-001 -6.255502e-001 -1.108279e-001 6.969847e-001 -2.559150e-001 -1.042948e+000 -7.351913e-001 -1.701785e+000 2.119632e+000 -8.533946e-002 7.117574e-002 2.571417e-001 -8.231542e-002 -5.160860e-001 -4.083641e-001 -4.198502e-002 3.001987e-001 2.282968e-001 4.846479e-002 -1.566959e-001 1.596384e-002 9.380060e-002 -2.197498e-002 3.565313e-001 2.290748e-001 2.232172e-001 -3.030104e-001 -6.151162e-002 -1.142226e-002 3.397137e-002 2.178215e-001 5.317328e-002 2.689829e-002 2.504563e-001 -1.998610e-001
<VARIANCE> 39
 7.974052e-001 1.757691e-001 1.072132e+000 6.306400e-001 2.413205e+000 2.281898e+000 2.238746e+000 1.872170e+000 2.144268e+000 1.522857e+000 1.382712e+000 1.240638e+000 1.768706e-001 1.384368e-001 1.939853e-001 8.148763e-001 6.562186e-001 6.609548e-001 6.346909e-001 7.072013e-001 6.745526e-001 8.049974e-001 5.250158e-001 7.480938e-001 7.508699e-001 5.678067e-002 2.186277e-001 3.338606e-001 8.419991e-001 5.239386e-001 5.623306e-001 5.615615e-001 7.206591e-001 6.400143e-001 5.615751e-001 4.717864e-001 6.241765e-001 8.776309e-001 9.313434e-002
<GCONST> 5.262572e+001
<MIXTURE> 12 2.039133e-002
<MEAN> 39
 2.323316e-001 -8.561805e-001 2.867581e-001 -7.195805e-001 -2.567986e+000 -1.603625e+000 -1.264320e+000 1.440530e+000 -1.399329e+000 -3.452121e-001 -4.173250e-001 9.409907e-002 1.619319e+000 -8.091125e-001 1.512939e+000 2.574772e-001 1.006843e+000 1.179293e+000 -5.261912e-001 5.256147e-001 -1.268002e+000 2.892459e-001 -1.353252e-001 -3.892655e-001 2.635909e-001 -4.489441e-001 -1.603193e+000 1.707864e+000 -1.433540e+000 -8.001716e-001 1.894100e+000 1.183992e+000 2.167190e+000 -1.137853e+000 7.667493e-001 -9.380273e-001 -7.502005e-001 -5.968101e-001 -2.689812e-001
<VARIANCE> 39
 1.337618e+000 1.559384e+000 1.284711e+000 7.833196e-001 1.159001e+000 3.769904e-001 8.493313e-001 3.275088e+000 1.017041e+000 1.534307e+000 2.363382e+000 1.398661e+000 1.713428e-001 1.515696e+000 1.982774e+000 1.816689e+000 1.223001e+000 3.155400e+000 3.061905e+000 2.160525e+000 1.782333e+000 1.706140e+000 2.023905e+000 1.856867e+000 1.456134e+000 3.370588e-001 1.488479e+000 1.324917e+000 8.451897e-001 3.121493e+000 2.954361e+000 1.083218e+000 2.117113e+000 3.098707e+000 1.375030e+000 1.592097e+000 3.251313e+000 1.539657e+000 8.244684e-001
<GCONST> 8.604644e+001
<MIXTURE> 13 3.574464e-002
<MEAN> 39
 2.236048e+000 -2.693792e+000 -5.671218e-001 -1.115807e+000 -8.404973e-001 3.193517e-001 -8.128008e-002 6.617895e-001 1.259736e+000 -1.157684e+000 -9.218516e-001 -1.437945e+000 2.890655e+000 1.048962e+000 -1.366152e+000 1.929755e-001 -1.261323e+000 -6.745026e-001 -2.334930e-001 -5.384405e-001 5.400565e-001 -1.709624e-001 -2.840438e-001 1.051606e-001 -1.303236e+000 2.106760e+000 -2.000578e+000 5.181783e-001 4.471477e-001 4.866418e-001 4.215117e-001 8.319977e-002 4.049885e-001 1.695113e-001 -2.374013e-001 -4.366244e-001 7.842313e-002 7.015075e-001 -2.341022e+000
<VARIANCE> 39
 3.692416e-001 7.980481e-001 1.585063e+000 1.236516e+000 2.480665e-001 1.883105e+000 4.167528e+000 1.871106e+000 4.149418e-001 3.620672e-001 1.349046e+000 1.417504e+000 7.193974e-001 2.851501e+000 9.229122e-001 1.889807e+000 5.912908e-001 8.204060e-001 7.520444e-001 6.764343e-001 1.275127e+000 3.384753e-001 5.558494e-001 1.160655e+000 1.815824e+000 3.932106e+000 1.515836e+000 1.867993e+000 1.852067e+000 9.685245e-001 5.150535e-001 6.644093e-001 6.674241e-001 1.530985e+000 7.658650e-001 1.338383e-001 7.920164e-001 7.314497e-001 1.482666e+000
<GCONST> 6.988085e+001
<MIXTURE> 14 3.060967e-002
<MEAN> 39
 6.457703e-001 -2.786235e+000 -6.816863e-001 -8.419324e-001 -6.562768e-001 -8.252292e-001 -1.116293e+000 -2.031703e+000 -2.294022e+000 -3.158586e+000 -1.330786e+000 -9.106245e-001 2.360179e+000 1.692792e-001 -1.378678e+000 -2.031833e-001 -4.952972e-001 -3.498190e-001 -3.304786e-001 8.784498e-001 -9.135263e-001 -2.446643e-001 -2.920092e-001 -1.280371e+000 -9.622194e-001 2.093869e+000 -1.434124e+000 9.590515e-001 1.613199e+000 6.087352e-001 1.334280e+000 4.818262e-001 6.129922e-001 2.220505e+000 1.779832e+000 2.065083e+000 1.481464e+000 6.874735e-001 -2.304494e+000
<VARIANCE> 39
 1.241130e+000 2.676461e-001 1.600124e+000 5.756668e-001 1.314989e+000 5.598330e+000 1.751062e+000 1.672174e+000 3.784403e-001 8.651275e-001 4.957611e+000 2.169075e+000 1.574815e-001 2.009026e+000 2.600909e+000 2.993942e+000 1.591870e+000 2.629049e+000 1.710682e+000 2.353837e+000 3.037266e+000 1.471045e+000 2.443936e+000 3.272383e+000 3.615391e+000 1.355927e+000 6.751567e-001 3.479381e+000 8.959988e-001 9.854061e-001 1.468723e+000 3.447622e+000 3.874093e+000 2.669036e+000 9.179109e-001 9.570364e-001 2.148133e+000 2.669091e+000 1.287317e+000
<GCONST> 9.027111e+001
<MIXTURE> 15 1.189062e-002
<MEAN> 39
 -6.411744e-001 -1.333409e+000 -6.307217e-001 1.882531e-001 8.381049e-002 -9.635375e-001 -1.266470e+000 -1.411239e+000 -1.324591e+000 -1.808960e+000 6.926358e-001 5.517934e-002 1.377260e+000 1.760633e+000 -1.139336e+000 -9.564203e-001 -1.640293e+000 -2.497878e+000 -2.806583e+000 -2.503089e+000 -4.080235e+000 -2.395031e+000 -2.635901e+000 -1.515103e+000 -1.562728e-002 2.446403e+000 -4.631686e-001 -2.810751e+000 -1.979557e-001 4.871377e-001 -7.207569e-002 -4.585145e-001 4.723639e-001 4.477165e-001 6.442254e-001 1.449283e+000 9.569252e-002 5.806711e-001 6.402282e-001
<VARIANCE> 39
 4.230992e-001 1.543030e-001 4.629159e+000 1.160936e+000 1.746333e+000 1.702782e+000 2.383882e+000 2.223316e-001 3.310547e-001 1.700972e-001 2.288389e+000 1.022477e+000 5.260637e-002 4.015213e-001 1.447047e+000 9.843215e-001 6.918545e-001 1.934842e+000 3.214465e+000 4.918450e-001 7.935184e-001 8.550735e-001 7.337459e-001 1.493814e+000 5.930583e+000 7.946144e-001 2.170362e+000 1.368723e+000 4.326076e+000 2.841838e+000 6.041547e+000 4.765882e+000 4.452799e+000 3.021608e+000 1.539287e+000 7.247540e-001 1.947733e+000 2.194847e+000 8.836450e-001
<GCONST> 7.855392e+001
<MIXTURE> 16 1.553340e-001
<MEAN> 39
 8.227059e-001 -1.554222e+000 -1.707018e+000 -1.963568e-001 -1.500221e+000 -7.227594e-001 4.233628e-001 -1.281500e+000 -1.052423e+000 -1.106115e+000 -1.533488e+000 5.748696e-001 1.751235e+000 -7.988100e-002 3.345228e-001 3.917814e-001 -3.187583e-001 -4.804870e-001 -2.320800e-001 2.705042e-001 2.542991e-002 1.645813e-001 -2.431715e-002 1.401268e-001 -3.804102e-002 -4.747110e-002 5.899312e-002 3.606697e-001 3.760454e-001 -6.586573e-002 2.804291e-001 -2.784987e-001 -3.765153e-002 6.383780e-002 4.914549e-002 -7.859734e-002 1.792402e-001 -4.801675e-001 -1.849478e-001
<VARIANCE> 39
 6.130350e-001 2.052539e-001 4.474764e-001 1.597792e+000 1.109445e+000 1.386063e+000 2.363457e+000 8.483229e-001 1.954542e+000 8.767459e-001 1.643834e+000 1.347596e+000 1.350111e-001 2.425293e-001 8.610603e-001 5.825272e-001 7.737477e-001 1.204026e+000 1.304573e+000 1.401188e+000 8.771291e-001 1.089909e+000 1.129252e+000 8.648226e-001 1.156440e+000 7.075451e-002 3.583921e-001 8.827761e-001 7.086564e-001 7.942293e-001 1.594682e+000 1.458478e+000 1.168144e+000 8.775226e-001 1.123433e+000 1.552288e+000 1.043191e+000 8.534024e-001 7.808892e-002
<GCONST> 6.261348e+001
<STATE> 4
<NUMMIXES> 16
<MIXTURE> 1 7.948787e-003
<MEAN> 39
 -1.764561e+000 -3.445878e-002 2.217636e-001 -6.689403e-001 -4.146185e-001 -9.838012e-001 2.370217e-001 1.699447e-001 -7.566813e-001 7.024034e-001 -3.869245e-002 -1.913566e+000 1.433878e+000 -1.351887e+000 -1.616691e+000 -1.573599e+000 -1.194644e-001 1.169157e+000 1.130800e-001 2.690471e-001 -2.902731e-001 -1.364632e-002 8.433849e-001 1.192887e-001 -4.185280e-001 4.512675e-001 1.039527e+000 1.588962e+000 9.890655e-001 -1.172834e+000 -4.745867e-001 5.509003e-001 -8.016713e-001 7.316234e-001 2.244215e+000 -2.018604e+000 8.636707e-001 1.972628e+000 3.573822e-001
<VARIANCE> 39
 8.456964e-002 2.052473e+000 1.729215e+000 1.929113e+000 1.309718e+000 5.069125e-001 3.603367e-002 2.716536e-001 2.136871e+000 1.245728e+000 5.719595e-001 1.517489e+000 1.172654e-002 2.297695e+000 4.693854e-001 5.955825e-001 1.389452e-001 3.549296e-001 1.840839e-001 5.791310e-001 6.348611e-002 1.745133e+000 5.698922e-001 5.175319e+000 6.104608e-001 1.062737e-001 2.455045e+000 4.425355e-001 6.969603e-001 3.837076e-001 4.551280e-001 7.326918e-002 1.533418e-001 5.106483e-001 2.993854e-001 3.503427e+000 1.796851e+000 8.971377e-002 6.719724e-002
<GCONST> 4.128022e+001
<MIXTURE> 2 1.503771e-001
<MEAN> 39
 6.702790e-001 -1.469983e+000 -8.323466e-001 -9.719670e-001 -9.978454e-001 -9.433969e-001 -2.072744e-001 -1.242757e+000 -1.621525e+000 -4.998563e-001 -8.097194e-001 -1.110750e+000 1.543182e+000 1.282962e-002 4.865882e-001 4.773325e-001 -4.823797e-001 -2.660417e-001 7.036476e-002 1.645020e-001 2.266051e-001 -1.651228e-001 9.597341e-002 -1.345634e-001 -1.929556e-001 -1.550759e-001 6.964681e-002 2.191581e-001 1.838793e-001 -5.674737e-002 -1.375638e-001 1.648225e-002 -1.201039e-001 1.035008e-001 1.743719e-001 -4.689155e-002 -1.645299e-001 5.235241e-002 -6.207410e-002
<VARIANCE> 39
 1.055191e-001 6.158822e-001 1.325853e+000 2.812397e-001 4.637839e-001 4.573680e-001 6.091343e-001 4.023282e-001 3.380724e-001 1.373649e+000 4.991510e-001 1.162064e+000 7.735510e-002 5.854009e-002 3.051967e-001 7.645177e-001 6.180580e-001 3.980293e-001 4.104638e-001 9.171191e-001 8.189051e-001 1.080291e+000 5.128968e-001 7.048835e-001 1.187380e+000 5.569576e-002 1.062637e-001 4.417637e-001 7.234531e-001 6.060004e-001 3.825144e-001 4.759541e-001 1.024189e+000 6.765471e-001 1.197327e+000 4.885918e-001 6.920185e-001 9.252468e-001 5.836030e-002
<GCONST> 4.082374e+001
<MIXTURE> 3 2.816778e-001
<MEAN> 39
 -2.264829e+000 1.574422e+000 8.548741e-001 -1.943868e+000 -2.643658e-001 1.200050e-001 6.552916e-002 1.087016e-001 -7.168343e-001 -1.030257e+000 -2.773097e-001 -2.940173e-001 1.546407e+000 -4.522809e-001 1.098863e-001 5.206240e-001 3.072088e-001 2.923663e-001 4.183213e-001 -5.165835e-002 -5.046985e-002 2.809690e-001 2.848414e-001 2.710473e-001 1.146335e-001 -2.456247e-002 3.682499e-001 -5.942682e-002 -3.081610e-001 1.527619e-001 1.227648e-001 -2.298510e-001 1.211188e-002 -4.456253e-002 7.953468e-002 2.286300e-001 -2.051946e-002 1.262795e-002 -1.642998e-001
<VARIANCE> 39
 3.822327e-001 3.180395e-001 2.089066e+000 4.178066e-001 1.407415e+000 1.445925e+000 1.846186e+000 1.257774e+000 1.064568e+000 1.122677e+000 1.775712e+000 1.389884e+000 3.600328e-002 2.714801e-001 5.232238e-001 1.205770e+000 8.581288e-001 8.764701e-001 1.239251e+000 1.586877e+000 1.326320e+000 1.469065e+000 1.730705e+000 1.440653e+000 1.306925e+000 7.149397e-002 3.322487e-001 7.551861e-001 1.327922e+000 1.085803e+000 1.056124e+000 1.246398e+000 1.785615e+000 1.288401e+000 1.127025e+000 1.667004e+000 1.660590e+000 1.236912e+000 1.565850e-001
<GCONST> 6.616911e+001
<MIXTURE> 4 1.332059e-001
<MEAN> 39
 1.604103e+000 -2.042259e+000 4.240430e-001 -1.211219e+000 -1.225764e+000 -1.175560e+000 2.369618e-001 1.439551e+000 1.078471e+000 -1.167493e+000 -1.175128e+000 -1.115979e+000 2.371098e+000 -2.755171e-001 1.463359e+000 9.339046e-001 4.353671e-001 -7.841407e-001 -6.160792e-001 -7.797385e-002 -1.368160e-001 1.814121e-001 4.517267e-001 5.020239e-001 9.474835e-001 -6.479805e-001 -1.574259e-001 1.008236e+000 1.608434e-001 1.833050e-001 4.554286e-001 3.452236e-001 -1.062153e-001 -6.472655e-001 -3.713037e-001 2.629979e-001 3.226424e-001 1.993389e-001 -5.478326e-001
<VARIANCE> 39
 5.827256e-001 9.526479e-001 1.135076e+000 6.097217e-001 1.794900e+000 2.213006e+000 3.318738e+000 2.232947e+000 1.506784e+000 9.126908e-001 9.646354e-001 1.717129e+000 7.336078e-001 2.243056e-001 9.715092e-001 1.783850e+000 8.193927e-001 1.484537e+000 9.110167e-001 1.814800e+000 1.458323e+000 5.536940e-001 1.537692e+000 9.229459e-001 1.424697e+000 2.038760e-001 4.958749e-001 8.306909e-001 1.480816e+000 6.347783e-001 1.277252e+000 1.089647e+000 1.598000e+000 1.327877e+000 6.530302e-001 1.511736e+000 7.592068e-001 1.759781e+000 1.823538e-001
<GCONST> 7.197920e+001
<MIXTURE> 5 1.801891e-002
<MEAN> 39
 1.139761e+000 -3.884806e-001 2.362883e+000 -8.483341e-001 -1.965807e+000 -1.956316e+000 -1.175848e+000 7.990183e-001 -8.101398e-001 1.680438e+000 -1.352633e+000 1.204003e-001 1.691389e+000 -2.825531e+000 3.501907e+000 6.575789e-002 1.377704e+000 1.255671e+000 4.694909e-001 2.329970e+000 -2.670287e+000 1.646692e+000 -8.123855e-001 1.498100e+000 1.375549e-001 -1.032399e+000 -3.228325e+000 7.124187e-001 -2.400095e+000 -9.700418e-001 1.778674e+000 1.544454e+000 1.475487e+000 6.053761e-001 8.703756e-001 -1.935594e+000 7.376638e-001 -1.088660e+000 -1.409429e-001
<VARIANCE> 39
 6.830662e-001 4.110199e-001 8.620694e-001 5.248445e-001 1.173132e+000 4.287884e-001 1.207410e+000 7.025095e-001 1.256253e+000 3.575327e+000 9.002383e-001 4.711829e-001 1.270607e-001 8.976700e-001 1.122287e+000 2.783483e+000 2.752166e+000 2.131922e+000 7.666975e-001 8.634828e-001 8.585905e-001 2.156901e+000 2.079126e+000 1.968395e+000 8.091539e-001 1.895196e-001 8.937166e-001 1.360023e+000 8.808827e-001 1.469756e+000 1.301744e+000 7.394685e-001 1.718805e+000 1.439750e+000 7.264730e-001 1.494157e+000 3.882673e-001 1.054911e+000 4.591736e-001
<GCONST> 6.961449e+001
<MIXTURE> 6 9.402026e-002
<MEAN> 39
 7.533591e-001 -1.194424e+000 -4.923198e-001 -2.230268e+000 -2.045459e+000 -1.589005e+000 5.360565e-001 -1.891979e+000 -1.600799e+000 -1.887209e+000 -1.696138e+000 -1.322168e+000 1.590692e+000 1.182153e-001 2.542286e+000 9.300452e-001 -7.328521e-001 -8.875347e-001 -4.420116e-001 -4.733494e-001 1.730319e-002 1.332653e-001 4.832769e-002 -5.359118e-001 -2.227100e-001 -7.699639e-001 -9.994555e-001 7.295795e-001 4.487220e-002 7.776895e-001 1.066792e+000 7.106954e-001 -7.106357e-001 -4.386528e-002 -2.608666e-001 7.186275e-001 5.814961e-001 3.391089e-001 -1.676170e-001
<VARIANCE> 39
 8.434764e-001 5.893335e-001 7.345821e-001 7.066542e-001 1.452685e+000 1.043493e+000 1.662526e+000 5.529028e-001 8.643974e-001 1.162806e+000 1.102480e+000 9.399446e-001 9.618970e-002 5.023248e-001 1.323072e+000 1.274654e+000 2.399131e+000 1.671720e+000 1.665305e+000 2.262455e+000 1.162426e+000 2.547707e+000 1.636149e+000 2.705250e+000 9.705400e-001 3.586389e-001 1.154803e+000 1.919361e+000 1.126940e+000 1.101578e+000 1.707140e+000 2.615166e+000 1.680734e+000 1.206308e+000 2.121230e+000 1.715186e+000 2.219943e+000 1.822895e+000 3.513612e-001
<GCONST> 7.727966e+001
<MIXTURE> 7 7.948798e-003
<MEAN> 39
 9.070629e-001 -1.159303e+000 1.388024e+000 -1.996770e+000 -1.704458e+000 1.045815e+000 1.057351e+000 -1.373600e+000 -2.076648e+000 -2.318353e+000 -2.048035e+000 -2.654468e+000 1.903937e+000 -8.821238e-001 6.944845e-001 2.968709e+000 -4.263130e-001 1.279622e+000 -3.958311e-001 2.794360e+000 -2.132346e-002 -1.000583e-001 3.678531e+000 -3.893338e-001 -9.384087e-001 -6.876958e-001 -1.117242e+000 -2.858161e-001 7.746480e-001 1.073018e+000 6.703004e-001 -1.991996e+000 -2.230001e+000 1.290282e+000 2.144996e+000 1.497073e+000 2.134097e+000 1.189553e+000 -1.217230e+000
<VARIANCE> 39
 5.631296e-001 1.090308e+000 1.225548e-001 1.047147e-001 1.002532e+000 3.364065e-001 1.913130e+000 4.326964e+000 7.004939e-001 7.618532e-001 2.660776e-001 2.363415e+000 3.823814e-001 1.587358e-001 1.656037e+000 1.175047e+000 3.750980e-001 2.585348e-001 1.283184e-001 1.281745e+000 7.275782e-001 1.425259e+000 5.593966e-001 8.818763e-001 1.596164e+000 3.439471e-002 5.952095e-001 4.131573e-001 2.510086e+000 1.975228e+000 1.188245e-001 2.247604e-001 1.582820e+000 1.656952e+000 8.161978e-002 2.465016e+000 1.782609e+000 3.598999e+000 2.982049e-001
<GCONST> 5.350648e+001
<MIXTURE> 8 8.372754e-002
<MEAN> 39
 -1.593783e+000 1.220317e+000 -4.468558e-001 -1.736662e+000 2.062555e-002 -5.737472e-001 1.085001e+000 -1.604876e-001 -3.249988e-001 -7.239099e-001 -1.118182e+000 -5.021557e-001 1.382042e+000 -2.346759e+000 1.306426e+000 -5.417545e-001 -1.654150e+000 4.754731e-001 3.338212e-001 -4.725228e-001 6.523606e-001 4.144942e-001 3.291426e-001 4.331494e-001 4.709259e-002 3.017110e-001 2.037100e+000 -1.992661e+000 1.485499e+000 5.506105e-001 -1.017450e+000 -5.795941e-001 -8.814010e-001 3.330685e-002 -7.833660e-001 -1.204404e-001 1.054322e-001 2.150884e-001 5.755104e-001
<VARIANCE> 39
 2.826970e-001 5.418465e-001 2.578962e+000 8.565432e-001 1.142682e+000 1.314711e+000 1.339590e+000 1.600402e+000 2.762252e+000 8.232636e-001 8.662154e-001 2.529755e+000 6.149854e-002 1.560297e+000 1.652878e+000 2.000501e+000 1.640090e+000 1.767905e+000 1.333137e+000 1.916623e+000 1.836657e+000 1.641413e+000 2.691709e+000 1.215648e+000 2.402236e+000 2.905624e-001 8.522953e-001 1.371945e+000 1.377792e+000 3.403631e+000 1.333432e+000 1.565926e+000 2.125208e+000 3.198054e+000 2.743925e+000 1.894345e+000 2.073629e+000 2.627188e+000 7.552248e-001
<GCONST> 8.357050e+001
<MIXTURE> 9 4.716576e-002
<MEAN> 39
 2.443944e-001 5.805343e-002 2.534529e-001 -1.732022e+000 -1.354416e+000 -1.309283e+000 -1.169441e-001 -1.742916e+000 -2.130006e+000 -1.283023e+000 -1.308000e+000 -1.010427e+000 1.208438e+000 -3.016230e+000 2.765656e+000 -8.756448e-002 7.037316e-001 1.189285e+000 2.016762e+000 -2.578216e-001 1.788295e+000 -6.075366e-002 8.655218e-001 7.889067e-001 -2.700630e-001 -9.483872e-001 -1.304364e+000 -7.632050e-001 -9.107847e-001 -4.852916e-001 9.607364e-002 2.452950e-001 6.485077e-001 7.430329e-001 9.022241e-001 8.982230e-002 -3.306958e-001 1.966737e-001 6.348894e-001
<VARIANCE> 39
 7.979043e-001 5.278539e-001 1.358669e+000 1.204685e+000 8.979084e-001 8.014477e-001 2.447859e+000 1.245756e+000 8.724624e-001 8.361633e-001 6.962978e-001 1.598294e+000 3.874991e-001 6.622174e-001 1.200364e+000 4.887943e+000 3.276643e+000 1.731741e+000 1.146950e+000 3.419859e+000 1.088323e+000 2.491513e+000 1.741205e+000 2.016539e+000 1.000375e+000 5.110872e-001 1.748129e+000 1.578358e+000 3.833170e+000 2.710342e+000 1.067057e+000 2.491158e+000 3.660252e+000 1.458604e+000 1.469114e+000 1.122268e+000 1.388711e+000 9.553289e-001 5.809249e-001
<GCONST> 8.322514e+001
<MIXTURE> 10 1.987128e-002
<MEAN> 39
 6.645032e-001 8.088393e-001 1.561497e+000 -1.196120e+000 -6.559879e-001 -9.151626e-001 3.911349e-002 9.182546e-001 1.714393e+000 2.906884e-001 -1.250024e+000 -9.582229e-001 1.760952e+000 -4.088594e+000 1.363945e+000 1.692463e+000 -9.729604e-001 -9.499667e-001 2.788805e+000 -2.661734e-001 5.398959e-001 2.120719e-001 8.412905e-001 -4.357532e-001 -3.505765e-001 -6.857754e-001 -1.133829e+000 -1.774608e+000 -6.171485e-001 -1.493687e-001 -4.031675e-002 -4.108776e-001 1.312112e+000 -1.315498e+000 -4.131521e-002 -4.026842e-001 1.128592e+000 -6.625464e-001 1.132674e+000
<VARIANCE> 39
 1.404345e+000 1.250414e-001 5.314209e-001 2.070241e-001 4.073577e-001 2.171398e+000 7.915049e-001 5.171942e-001 7.647884e-001 5.137972e-001 4.309480e-001 1.413948e+000 3.923137e-002 1.987861e+000 1.450106e+000 6.797959e-001 2.786533e-001 2.934941e+000 7.573449e-001 3.140667e+000 2.021468e+000 7.847958e-001 8.776870e-001 2.184695e+000 2.002016e+000 7.832887e-001 5.745801e+000 3.037700e-001 1.521172e+000 1.000802e+000 1.431828e+000 2.119141e+000 1.554713e+000 1.867337e+000 9.381380e-001 7.170642e-001 1.000113e+000 2.929492e+000 5.295005e-001
<GCONST> 6.814320e+001
<MIXTURE> 11 3.597795e-002
<MEAN> 39
 -7.914906e-003 -3.443865e-001 1.012017e+000 -1.022418e+000 -3.325753e-001 -1.135332e+000 1.116782e+000 5.388346e-001 1.283088e-001 -9.924027e-001 -9.161247e-001 4.268736e-001 1.457168e+000 -4.040113e+000 2.446223e+000 -1.104990e+000 -1.215731e+000 1.635034e+000 7.467365e-001 1.434929e+000 -1.614881e+000 1.216828e+000 -6.290348e-001 3.987622e-001 -1.863394e-001 -9.994151e-001 -9.022029e-001 -5.924762e-001 -4.059589e-001 -1.363976e+000 -9.623952e-001 4.824010e-001 -8.294910e-001 4.640377e-001 -2.833023e-001 2.059060e-001 -1.827833e-001 -4.974601e-001 1.089948e+000
<VARIANCE> 39
 6.511070e-001 1.516985e+000 1.416558e+000 8.808674e-001 1.503995e+000 1.561977e+000 1.429106e+000 2.197624e+000 1.885913e+000 1.188789e+000 1.361816e+000 9.859915e-001 1.254316e-001 8.987783e-001 1.636321e+000 1.424247e+000 8.753573e-001 2.179646e+000 1.708488e+000 2.127757e+000 2.039168e+000 1.987408e+000 3.033194e+000 2.949235e+000 1.723304e+000 4.059266e-001 1.712596e+000 2.073514e+000 1.929487e+000 2.602268e+000 1.163654e+000 7.900130e-001 1.351727e+000 1.981334e+000 1.468393e+000 1.499587e+000 8.958794e-001 4.304790e-001 5.570014e-001
<GCONST> 8.185336e+001
<MIXTURE> 12 5.053507e-002
<MEAN> 39
 2.133226e+000 -6.284314e-001 9.405651e-001 -5.219352e-001 -1.554339e+000 -2.088375e+000 4.709615e-001 1.661281e-001 8.979189e-001 -7.666462e-001 6.168197e-001 -5.690324e-001 1.973876e+000 -4.730428e-001 1.666804e+000 1.570163e+000 5.672840e-001 6.237537e-001 9.204698e-001 -1.234432e+000 -3.357759e-001 -4.157570e-001 4.727412e-001 4.257641e-001 7.228920e-001 -1.227296e+000 -2.187696e+000 -3.825164e-001 -3.963796e-002 -7.427648e-001 8.102955e-001 7.728004e-001 -1.037102e-001 5.497195e-001 -3.909520e-001 -2.319338e-001 -1.373813e+000 -5.363480e-001 -1.901276e-001
<VARIANCE> 39
 4.956895e-001 6.068906e-001 1.537215e+000 1.145432e+000 1.820012e+000 8.898793e-001 2.693921e+000 1.964880e+000 1.672431e+000 4.786975e-001 2.028268e+000 1.065367e+000 1.894746e-001 6.806924e-001 2.061669e+000 2.278136e+000 1.065231e+000 2.778507e+000 1.141536e+000 1.078717e+000 2.228603e+000 4.842101e-001 1.226166e+000 1.795454e+000 2.059443e+000 4.653511e-001 1.844943e+000 6.855300e-001 1.589423e+000 3.804106e+000 2.449782e+000 1.482313e+000 1.634542e+000 1.694173e+000 7.821029e-001 9.148461e-001 1.225783e+000 1.597659e+000 7.176628e-001
<GCONST> 7.970129e+001
<MIXTURE> 13 1.391170e-002
<MEAN> 39
 8.787588e-001 -6.664925e-001 1.903166e+000 -2.829131e-001 -1.931274e+000 -2.520517e-001 -1.616050e+000 6.039515e-001 1.081565e+000 -1.057006e+000 -1.532352e+000 -1.605637e-001 2.152407e+000 -3.713547e+000 7.848560e-001 2.546550e-001 -1.378400e-001 1.616379e+000 2.287915e-001 3.246532e-001 -4.716505e-001 -6.287556e-001 3.057356e-001 -5.834722e-002 -1.662932e+000 -1.215744e+000 -2.223229e+000 -1.589010e+000 -1.311509e+000 -1.779792e+000 4.873336e-001 -6.205922e-001 1.399817e+000 2.513701e-001 5.383625e-003 -5.437846e-001 5.221199e-001 -1.069896e+000 3.753985e-001
<VARIANCE> 39
 9.959644e-001 9.781849e-001 7.451265e-001 6.208007e-001 3.431226e-001 1.516556e+000 2.452099e+000 1.301976e+000 7.000253e-001 1.547870e+000 2.508718e+000 7.391348e-001 2.671584e-001 2.404527e+000 3.915272e+000 2.315973e+000 2.165898e+000 9.329114e-001 1.412982e+000 6.645308e-001 7.332184e-001 2.161061e+000 1.306182e+001 1.085325e+000 2.271523e+000 7.735269e-001 1.656375e+000 3.969033e-001 1.213845e+000 1.512091e-001 3.507268e+000 2.085417e-001 1.061740e+000 2.276935e+000 4.745938e-001 2.639395e+000 1.438792e+000 2.703492e+000 4.088127e-001
<GCONST> 7.730791e+001
<MIXTURE> 14 3.971557e-002
<MEAN> 39
 1.697499e+000 -2.544948e+000 -4.050258e-001 -1.123009e+000 -2.529119e+000 -1.185254e+000 -9.147701e-001 1.042683e+000 -2.940020e+000 -2.273525e+000 -2.516302e+000 -2.289904e+000 2.724042e+000 1.243457e-001 1.267455e+000 4.285564e-001 -7.412727e-001 -1.780112e-001 -3.349582e-001 3.459138e-001 1.025847e+000 -2.761773e-002 -1.891613e-001 5.492420e-001 4.594163e-001 -4.134999e-001 -6.476916e-001 9.254920e-001 7.100003e-001 5.695392e-001 8.913580e-001 2.788604e-001 5.443423e-001 -1.000878e+000 8.958046e-001 3.666031e-001 7.976284e-002 4.079611e-001 -4.781251e-001
<VARIANCE> 39
 3.121291e-001 8.772408e-001 2.293936e+000 5.133821e-001 1.188817e+000 4.728643e-001 4.133488e+000 1.255628e+000 4.672677e-001 6.059181e-001 4.651575e-001 1.390831e+000 2.662224e-001 6.258006e-001 1.469666e+000 2.826352e+000 3.285708e+000 1.727023e+000 2.762268e+000 3.346379e+000 2.075274e+000 1.768677e+000 1.923826e+000 7.321720e-001 1.853696e+000 1.680324e-001 6.741699e-001 9.137033e-001 1.843135e+000 2.222974e+000 1.681639e+000 9.030282e-001 4.006976e+000 2.206574e+000 8.377497e-001 2.972653e+000 1.336931e+000 5.968581e-001 3.627027e-001
<GCONST> 7.718270e+001
<MIXTURE> 15 7.948794e-003
<MEAN> 39
 1.391056e+000 -1.900552e+000 2.012279e+000 -1.489904e+000 6.296378e-001 -1.758201e+000 3.117109e-001 2.133126e+000 -1.909655e+000 -1.209208e+000 -2.363495e+000 8.026186e-001 2.358308e+000 -1.122171e+000 6.285303e-001 3.265245e+000 -4.877802e-001 2.764179e+000 -2.690823e+000 -1.464630e+000 -7.945113e-001 2.140056e-001 2.910470e+000 -4.823104e-001 9.952375e-001 -1.053863e+000 -1.828549e+000 -6.415465e-001 -1.185976e+000 -1.874675e-001 8.862723e-001 7.426323e-001 2.478853e+000 4.227960e-001 -7.378176e-001 1.318598e+000 6.236148e-001 4.296656e-001 -4.185666e-001
<VARIANCE> 39
 2.852414e-001 1.130233e-001 3.208132e-001 1.188445e-001 4.118107e-001 2.104542e+000 5.055728e+000 6.171846e-001 3.043398e-001 3.123602e-001 4.007137e-001 2.816556e-001 1.078693e-002 7.723317e-001 3.730931e-001 3.609548e-001 8.218684e-001 1.636344e-001 1.461249e-001 6.745162e+000 1.799587e+000 1.072274e+000 3.175707e-001 4.604789e-001 4.254338e-002 7.360170e-002 1.862836e-001 3.607975e-001 3.690949e+000 9.076681e-001 5.447204e-001 2.064051e+000 3.948894e+000 1.709766e+000 8.949087e-001 1.497554e+000 5.685160e-001 2.217017e-002 4.804670e-002
<GCONST> 3.901041e+001
<MIXTURE> 16 7.948783e-003
<MEAN> 39
 -2.705775e-001 -1.899499e+000 -4.900049e-001 -2.379611e+000 -1.368340e+000 -6.176700e-001 2.480179e+000 -3.271398e+000 -1.730320e+000 -3.196055e+000 -1.372817e+000 -1.453730e+000 1.856058e+000 -3.876109e-001 9.884037e-001 2.161427e+000 -5.521957e-001 -2.061646e+000 1.180905e+000 1.571254e+000 -1.197839e+000 4.888968e-001 -5.241163e-002 -6.172017e-001 -4.722889e+000 -9.978878e-001 -2.897702e-001 1.678094e+000 -4.390743e-001 9.864705e-001 1.414791e+000 -2.256567e+000 -1.950640e+000 1.495602e+000 1.294490e-001 3.504224e+000 2.995784e-001 8.910350e-001 -3.007646e-001
<VARIANCE> 39
 1.974284e-001 1.417293e+000 5.868329e-001 3.992649e-001 1.129369e+000 3.817272e-002 1.664063e+000 1.098716e-001 2.944771e-001 9.635996e-001 3.132139e-001 2.676578e+000 9.215331e-002 4.233029e-001 1.209700e+000 2.190988e-002 3.651395e-001 2.597260e+000 1.593912e+000 4.337296e-001 1.550630e+000 9.048696e-001 3.190015e+000 1.010643e+000 1.904899e+000 1.003246e-001 2.347805e-001 5.596330e+000 4.756796e-001 4.323196e-001 1.554904e+000 5.544600e-001 3.099924e+000 4.713745e-001 1.003073e+000 4.100842e-001 1.342391e+000 8.947049e+000 4.081381e-002
<GCONST> 5.255219e+001
<STATE> 5
<NUMMIXES> 16
<MIXTURE> 1 1.230856e-001
<MEAN> 39
 -1.935601e+000 -6.963998e-001 9.207954e-001 -1.540167e-001 -2.034091e-002 4.891402e-001 1.395063e+000 -7.071561e-001 9.028800e-001 7.938326e-002 9.472983e-001 -1.804249e-001 1.481113e+000 -1.719962e-001 3.300387e-001 9.620059e-002 -5.214829e-002 3.138309e-001 1.685364e-001 -3.915161e-001 -8.414643e-002 -3.851114e-001 -2.219738e-001 1.139200e-001 7.914237e-002 -8.436055e-002 3.714486e-001 2.638866e-001 -5.265455e-001 -2.736166e-001 1.323649e-001 2.897024e-001 -2.610969e-001 3.301181e-001 -2.482696e-001 -2.874899e-001 -3.927768e-001 -2.376103e-001 -2.878278e-001
<VARIANCE> 39
 3.509088e-001 3.430508e+000 3.814764e+000 1.516460e+000 3.544148e+000 2.799031e+000 2.030472e+000 1.194887e+000 9.712050e-001 1.833715e+000 1.059113e+000 1.710185e+000 1.810972e-001 3.581658e-001 6.880724e-001 1.372473e+000 1.779995e+000 1.385348e+000 2.241588e+000 1.921950e+000 1.741372e+000 1.672290e+000 1.587999e+000 2.461811e+000 1.719878e+000 2.071177e-001 7.902325e-001 9.153227e-001 1.579280e+000 1.678339e+000 1.310096e+000 2.130059e+000 2.048991e+000 2.131902e+000 2.182290e+000 1.849033e+000 2.598017e+000 1.636757e+000 4.471341e-001
<GCONST> 8.412946e+001
<MIXTURE> 2 4.565987e-002
<MEAN> 39
 5.789752e-001 -7.343494e-001 -6.179683e-001 -7.177767e-001 1.078359e-001 9.376886e-003 -3.485848e-001 4.716109e-001 -1.013716e+000 9.076137e-001 -1.004375e+000 3.719292e-001 6.435460e-001 -2.841156e-002 -5.208746e-002 7.942796e-002 7.144547e-002 -1.079537e-001 -2.618408e-001 -1.847677e-002 2.147575e-001 -1.695533e-001 -1.442546e-002 -1.714241e-001 1.619755e-001 -2.693428e-002 -1.434176e-002 5.155744e-002 7.160184e-002 3.378237e-002 -4.982291e-002 -1.248375e-001 7.692035e-003 6.394992e-004 9.503682e-002 -7.176293e-002 -2.248600e-002 -6.476480e-002 3.155287e-002
<VARIANCE> 39
 4.599810e-002 2.846940e-002 4.692966e-002 1.890792e-001 2.367753e-001 2.785734e-001 3.371283e-001 5.231935e-001 1.560920e-001 2.748649e-001 1.295707e-001 3.622796e-001 2.455648e-002 3.233206e-002 2.152727e-001 2.451782e-001 2.623919e-001 1.465196e-001 4.313594e-001 1.565886e-001 2.743291e-001 6.041808e-001 5.419707e-001 7.762896e-001 4.101178e-001 2.630028e-002 2.620491e-002 2.507662e-001 3.428232e-001 3.016593e-001 1.739077e-001 2.818419e-001 1.707237e-001 2.885521e-001 7.135594e-001 5.051066e-001 1.323968e+000 4.893616e-001 2.573824e-002
<GCONST> 7.992305e+000
<MIXTURE> 3 1.922977e-001
<MEAN> 39
 -5.709069e-001 7.327468e-001 5.913554e-001 -3.286632e-001 5.747726e-001 1.281293e-001 -2.884907e-001 1.725374e-001 2.768464e-001 -2.418416e-001 2.054655e-001 -3.329626e-001 -4.345610e-002 7.388009e-001 -6.699705e-001 -1.779238e-001 2.295202e-001 -5.400707e-003 -3.362783e-001 2.568082e-001 1.642362e-003 1.908836e-001 2.084060e-002 1.985261e-001 1.276021e-001 -6.251234e-001 -1.094110e+000 1.177429e-001 -7.911693e-002 -4.797371e-001 -1.268356e-001 -4.141515e-001 3.391748e-001 -9.998458e-003 -2.051972e-001 3.161877e-001 -4.708111e-002 1.517051e-001 1.401054e+000
<VARIANCE> 39
 4.093831e-001 4.401607e-001 7.260482e-001 9.816521e-001 1.135863e+000 9.574525e-001 1.026672e+000 8.832715e-001 9.253804e-001 8.286848e-001 1.092186e+000 9.977620e-001 3.131835e-001 1.579592e+000 1.052789e+000 1.599129e+000 1.598388e+000 1.532270e+000 1.319760e+000 1.463108e+000 1.248239e+000 1.707829e+000 1.377719e+000 1.222454e+000 1.539899e+000 1.781899e+000 9.425200e-001 1.184118e+000 1.796102e+000 1.331512e+000 1.459265e+000 1.384563e+000 1.431993e+000 1.443063e+000 1.973983e+000 1.359043e+000 1.289980e+000 1.800585e+000 1.332411e+000
<GCONST> 7.761737e+001
<MIXTURE> 5 1.721440e-002
<MEAN> 39
 5.064455e-001 7.483777e-002 1.371547e+000 -8.210383e-001 -1.154621e+000 -1.494122e+000 4.841712e-001 6.004605e-001 -8.187484e-001 -3.699942e-001 -1.176469e+000 -1.207700e+000 1.014637e+000 -1.553913e+000 1.293935e+000 1.014878e+000 7.335290e-001 8.142030e-001 2.115579e-001 -6.394493e-002 -4.783806e-001 1.671771e+000 6.903436e-001 2.298537e+000 -2.033533e-002 -1.187183e+000 -1.536796e+000 -4.543059e-001 -7.619259e-001 -3.002279e-001 -3.385403e-001 6.397287e-001 -2.523286e-001 -8.326035e-001 1.126079e+000 -1.728683e-002 4.559506e-001 5.211502e-001 -2.457397e-001
<VARIANCE> 39
 2.794212e-001 4.782032e-001 4.887655e-001 4.435570e-001 1.173935e+000 3.001013e+000 1.735346e+000 1.893319e+000 1.188318e+000 1.672353e+000 4.840382e-001 2.197287e+000 3.942847e-001 1.387409e+000 1.265677e+000 1.711514e+000 1.624993e+000 1.949254e+000 1.528071e+000 1.862385e+000 2.593347e+000 1.493187e+000 3.181982e+000 1.779283e+000 3.372661e+000 7.536420e-001 1.710573e+000 1.027217e+000 1.293275e+000 1.921281e+000 3.476481e+000 2.438322e+000 3.468197e+000 1.229729e+000 1.164487e+000 3.534152e+000 2.214996e+000 3.220447e+000 8.713351e-001
<GCONST> 8.602531e+001
<MIXTURE> 6 1.313674e-002
<MEAN> 39
 1.695706e+000 4.194544e-001 1.091658e+000 -2.605398e+000 -3.341559e+000 -1.669021e+000 -8.076722e-001 -1.376764e+000 -2.734112e-001 -3.009058e-001 -1.245938e+000 -1.557661e+000 1.420722e+000 -9.186187e-001 1.861347e+000 3.976067e-001 9.762471e-001 9.088849e-001 -3.757433e-001 -9.301351e-001 -3.395091e-001 6.052888e-001 6.104675e-001 9.315754e-002 7.234131e-001 -1.154639e+000 -2.288354e+000 -2.372646e-001 -1.679777e+000 1.364587e+000 2.443356e+000 1.305334e+000 1.287304e+000 2.622962e-001 -8.846012e-001 -3.236006e-001 1.464482e-001 4.058796e-001 -1.059120e+000
<VARIANCE> 39
 1.149626e+000 4.818637e-001 6.622010e-001 7.539943e-001 2.140229e-001 6.165438e-001 9.609772e-001 1.385927e-001 4.603164e-001 8.974400e-001 1.186383e+000 2.682650e-001 1.540101e-001 3.621798e+000 1.995801e+000 3.571165e+000 1.165527e+000 1.967947e+000 2.878669e+000 2.697555e+000 4.426605e-001 2.089688e+000 1.855862e+000 1.717477e+000 1.765716e-001 6.726035e-001 1.113443e+000 2.185168e+000 5.618851e-001 6.871298e-001 1.022512e+000 1.900406e+000 1.902813e+000 2.704598e-001 1.411407e+000 2.621285e+000 1.521057e+000 5.451292e-001 6.883399e-001
<GCONST> 6.821734e+001
<MIXTURE> 7 2.673237e-001
<MEAN> 39
 -1.953657e+000 1.295150e+000 8.494987e-001 -1.265432e+000 6.538406e-001 5.200328e-002 -1.962525e-001 3.708235e-001 -1.726448e-001 3.469936e-001 1.754496e-001 -3.424625e-001 8.494720e-001 3.852110e-001 1.629710e-001 -3.538457e-001 3.274847e-001 4.042500e-001 4.559034e-002 -9.670934e-002 2.593305e-001 1.541619e-001 1.140271e-001 -1.319609e-001 1.356680e-001 -6.176778e-001 8.130433e-001 -4.263545e-001 3.869417e-002 1.908628e-001 -3.255853e-001 -9.372362e-002 -9.322259e-002 -1.414441e-001 -8.875996e-003 -2.043271e-001 4.453897e-002 -1.755477e-002 -5.347149e-001
<VARIANCE> 39
 4.892958e-001 2.513387e-001 1.196917e+000 5.038522e-001 9.632672e-001 9.814694e-001 1.084694e+000 9.501441e-001 7.987942e-001 4.857218e-001 1.050422e+000 6.392193e-001 1.875881e-001 1.227279e+000 6.742516e-001 1.485608e+000 9.370739e-001 9.896355e-001 1.088428e+000 1.181732e+000 1.166734e+000 1.207179e+000 9.497167e-001 1.107800e+000 8.951129e-001 8.819755e-001 9.985302e-001 8.796719e-001 1.126520e+000 1.047104e+000 1.071338e+000 9.896505e-001 9.466123e-001 1.149973e+000 9.874515e-001 1.046414e+000 1.057224e+000 9.885559e-001 6.978409e-001
<GCONST> 6.646681e+001
<MIXTURE> 8 1.534544e-001
<MEAN> 39
 -1.547336e+000 -2.937908e-001 9.653803e-001 -1.230445e+000 1.058214e+000 1.795284e-001 -2.467045e-001 6.429003e-001 -2.602049e-001 2.140386e-001 2.020587e-001 -1.865384e-001 1.184313e+000 9.302182e-003 -1.135469e-001 -9.067048e-001 1.865011e-001 -2.295824e-002 -2.978784e-001 -5.480446e-002 1.694751e-001 1.901986e-003 4.059987e-001 -1.298649e-001 8.622268e-003 -6.744289e-001 5.321357e-001 -7.254651e-002 1.204619e-001 5.850787e-001 -4.027124e-001 -1.397329e-001 3.579662e-001 -1.862912e-001 3.328820e-001 -1.105036e-002 1.033171e-001 1.496036e-001 -8.340216e-001
<VARIANCE> 39
 1.780611e+000 2.738949e+000 3.261906e+000 2.904570e+000 3.859782e+000 4.159758e+000 3.468856e+000 2.218046e+000 2.302456e+000 2.808852e+000 2.458146e+000 3.107633e+000 4.205397e-001 3.189677e+000 3.546910e+000 4.206699e+000 3.614651e+000 3.459449e+000 4.102012e+000 2.793704e+000 3.128053e+000 2.633778e+000 2.818882e+000 2.581763e+000 3.658303e+000 3.708303e+000 2.633249e+000 4.034625e+000 3.928094e+000 3.731708e+000 4.369387e+000 4.347987e+000 2.424590e+000 3.270636e+000 3.200840e+000 2.776416e+000 3.193120e+000 3.624384e+000 3.588409e+000
<GCONST> 1.148636e+002
<MIXTURE> 9 1.184988e-001
<MEAN> 39
 -2.222430e+000 2.106160e-001 1.725716e+000 -1.847257e+000 -1.299711e+000 -2.774211e-002 5.640294e-002 -1.304223e-001 1.095283e+000 -6.833826e-001 -4.158850e-002 -6.825748e-001 1.297856e+000 -9.292348e-001 1.645502e-001 3.886023e-001 -2.084742e-002 3.138547e-002 2.060464e-001 1.942735e-001 -3.425029e-001 -1.211555e-001 2.166989e-001 6.178907e-001 2.875096e-001 3.634952e-002 1.000450e+000 2.373053e-001 6.177615e-002 5.342040e-001 5.926372e-001 -3.499470e-001 6.425831e-002 1.266888e-001 -2.908362e-001 2.184016e-001 -2.248382e-002 1.642011e-001 -2.126409e-002
<VARIANCE> 39
 9.080278e-001 7.805281e-001 7.243866e-001 3.692313e-001 1.520452e+000 1.331004e+000 1.651137e+000 1.243066e+000 1.387077e+000 1.379242e+000 1.368439e+000 1.016575e+000 2.044202e-001 1.060745e+000 6.199887e-001 6.964141e-001 1.108568e+000 1.347711e+000 1.090248e+000 9.877912e-001 1.465115e+000 1.153176e+000 8.233957e-001 8.202165e-001 9.720873e-001 1.907462e-001 1.158738e+000 8.102316e-001 9.194222e-001 1.102910e+000 1.390391e+000 1.138399e+000 1.324961e+000 1.477789e+000 1.155034e+000 8.257719e-001 1.033206e+000 9.901488e-001 2.821416e-001
<GCONST> 6.876303e+001
<MIXTURE> 10 4.061750e-003
<MEAN> 39
 -5.909264e-001 -1.647128e+000 2.649506e+000 -2.713962e+000 1.018930e+000 1.404156e-001 -7.918691e-001 1.348341e+000 -2.502282e+000 5.580497e-001 -5.387236e-001 -6.119547e-001 2.061363e+000 -3.555663e+000 1.257844e+000 7.663245e-001 -2.414086e+000 1.025254e+000 -7.910893e-001 -2.882552e+000 3.965163e-001 -1.009034e+000 -1.163642e-001 1.526195e+000 5.535914e-001 -1.865510e+000 3.343194e-001 -6.185474e-001 -2.916648e+000 -1.836403e-003 -1.765073e+000 -8.736982e-001 -3.240943e-001 8.356930e-002 -1.722938e+000 -3.008759e+000 -3.320858e-001 -1.411716e+000 1.557612e+000
<VARIANCE> 39
 1.049675e+000 6.231336e-002 9.999958e-003 3.541874e-001 2.480464e-001 5.784560e-001 7.718328e-001 1.435833e-001 1.629502e-001 2.197987e-001 1.856773e-001 6.647069e-001 3.332414e-002 5.404066e-001 1.247064e-002 1.605642e+000 9.208797e-002 1.643778e+000 2.285199e+000 6.554734e-001 1.861966e-001 3.347082e+000 3.609335e+000 7.391778e-001 2.786747e+000 5.800340e-001 2.138454e+000 2.518021e-001 1.917744e+000 2.111505e+000 4.048070e-001 4.164125e-001 5.828708e+000 3.995205e-001 3.145124e+000 1.115568e+000 2.060638e-001 1.018483e+000 3.287304e+000
<GCONST> 4.604950e+001
<MIXTURE> 11 3.082498e-002
<MEAN> 39
 -1.233323e+000 6.840212e-001 1.005625e-001 -1.675765e+000 -7.104347e-001 -9.180544e-001 3.531530e-001 -8.660105e-001 -8.145738e-001 1.608034e-001 -2.883896e-001 -8.375508e-001 5.969781e-001 -3.172940e+000 7.127053e-001 -8.891914e-001 7.928581e-001 1.963540e+000 6.753119e-001 7.969075e-001 1.093417e+000 1.239164e+000 1.231388e+000 1.139551e+000 6.386268e-001 -4.166133e-001 1.197237e+000 -1.031517e+000 4.819428e-001 -3.383168e-001 -6.755272e-001 1.369794e-001 -5.482075e-001 -7.796610e-002 1.816251e-001 -9.109266e-001 -5.417634e-001 -1.750551e-001 1.371163e+000
<VARIANCE> 39
 5.102155e-001 3.139248e-001 2.052920e+000 7.804685e-001 1.135070e+000 5.093877e-001 1.595289e+000 5.489840e-001 6.459077e-001 9.684219e-001 8.502902e-001 5.990527e-001 1.669484e-001 6.921569e-001 1.094075e+000 1.128814e+000 2.173943e+000 1.479491e+000 1.832768e+000 2.198860e+000 8.937317e-001 2.122791e+000 2.457616e+000 1.102556e+000 9.123488e-001 1.150990e+000 1.455156e+000 1.477332e+000 2.420407e+000 9.231487e-001 2.407801e+000 1.558823e+000 2.801370e+000 9.613581e-001 2.618878e+000 1.774318e+000 1.190302e+000 6.385373e-001 5.821259e-001
<GCONST> 7.539741e+001
<MIXTURE> 12 3.046282e-003
<MEAN> 39
 9.918082e-001 7.929336e-001 2.621597e+000 -5.339615e-001 7.141380e-001 -1.887077e+000 -5.384952e-001 4.277164e-001 1.706984e-001 -1.355055e+000 -1.309507e+000 -1.656647e+000 1.725359e+000 -5.534773e+000 -2.506380e-001 -5.032399e-002 -3.794383e+000 -6.068047e-001 -8.249193e-001 7.212007e-001 6.796527e-001 -2.126765e+000 3.166533e-002 -6.648891e-001 -7.136247e-001 -1.499978e+000 2.124859e-001 -8.305668e-001 -2.734280e-001 -5.188324e-001 -2.342489e+000 2.095096e-001 5.456741e-001 1.349918e+000 6.850281e-001 8.889081e-001 1.789494e+000 1.160297e+000 1.622452e+000
<VARIANCE> 39
 9.826831e-001 7.243112e-002 3.609417e-001 1.014965e+000 9.170048e-001 3.151780e-001 3.970269e+000 1.474075e-001 1.084080e+000 3.373132e-001 4.629248e-001 3.106871e-002 1.556362e-002 1.125774e-001 6.335546e-001 4.839074e-001 7.821274e-001 4.800725e-001 2.190919e+000 9.262426e-001 4.484158e-001 2.486599e+000 5.588757e-001 1.630794e+000 1.354393e+000 2.246900e-001 3.087638e+000 1.180592e+000 2.097133e+000 2.126520e+000 1.348835e+000 2.935307e-001 1.140078e+000 1.346027e-001 9.629668e-001 1.728183e-002 1.902737e-001 4.519137e-001 1.045490e+000
<GCONST> 4.551381e+001
<MIXTURE> 13 8.115449e-003
<MEAN> 39
 1.590013e-001 -8.865590e-001 -3.360446e-001 -1.976808e+000 -1.602730e+000 1.970641e-002 4.146048e-001 -1.481700e+000 -1.146902e+000 -2.873846e+000 -2.092832e+000 -1.790002e+000 1.260696e+000 7.693422e-001 1.438523e+000 5.265576e-001 -5.114304e-002 -7.236763e-001 -1.320570e+000 -6.951681e-001 -3.432430e-001 5.427038e-001 9.440095e-001 2.785242e-002 3.241469e-001 -8.958714e-001 -6.403252e-001 1.293302e+000 1.897428e-001 4.628431e-001 1.877577e+000 -3.721808e-001 -1.026090e+000 -2.596224e-001 8.750143e-001 2.716712e+000 2.696360e+000 5.663039e-001 6.687623e-001
<VARIANCE> 39
 9.888596e-001 8.128896e-001 1.814709e+000 1.233902e+000 6.727473e-001 4.469088e-001 9.521601e-001 1.008293e+000 9.586722e-001 4.502397e-001 1.868409e+000 5.005695e-001 6.512089e-001 3.007691e-001 3.080731e+000 8.589211e-001 1.811338e+000 4.634513e+000 8.948826e-001 8.458917e-001 8.445745e-001 3.661832e-001 3.944425e+000 1.476248e+000 7.997791e-001 1.996447e-001 7.363315e-001 7.189732e-001 9.402855e-001 1.744933e+000 5.275925e-001 1.434760e+000 1.353426e+000 9.361191e-001 1.958918e-001 1.179317e+000 1.328883e-001 1.453415e+000 6.041035e-001
<GCONST> 6.626458e+001
<MIXTURE> 14 6.092620e-003
<MEAN> 39
 9.408032e-001 1.589849e-001 -8.995674e-002 -6.259536e-001 -2.074237e+000 -9.887584e-001 -1.365684e+000 -1.918610e+000 4.000846e-001 -1.973757e+000 -1.018284e+000 -5.575264e-001 1.273185e+000 -1.991297e+000 2.605986e+000 7.996700e-001 -1.401113e-001 3.738202e+000 -1.331588e+000 1.457323e+000 5.956582e-001 -5.983109e-001 1.298606e+000 -2.067498e-001 1.132152e+000 -1.666198e+000 -2.263437e+000 -7.058371e-001 4.380116e-001 -1.630695e+000 1.058667e+000 2.004610e-001 6.870189e-001 1.669136e+000 -2.093552e-001 1.386763e+000 -9.815710e-002 -4.160563e-001 2.236199e-001
<VARIANCE> 39
 1.450709e-001 2.247171e-001 1.347165e+000 6.493239e-002 1.168968e+000 3.093882e-001 8.028557e-001 6.033285e-001 1.477126e+000 5.806252e-001 4.699463e-001 1.202189e+000 2.365126e-001 1.519123e+000 4.414500e-001 1.999057e+000 8.449219e-001 4.856756e-001 9.340748e-001 2.339511e-001 2.311561e+000 2.567533e+000 2.345472e+000 3.962201e-001 1.708285e+000 4.807693e-002 8.222226e-001 7.727365e-001 2.393447e+000 1.325191e+000 1.799577e+000 1.068902e+000 1.442680e+000 1.506417e+000 1.076866e+000 5.260400e-001 4.229835e-001 1.640337e+000 4.308181e-001
<GCONST> 5.935403e+001
<MIXTURE> 15 6.094164e-003
<MEAN> 39
 7.278711e-001 -3.258030e-001 1.779523e+000 5.374193e-002 2.983420e-002 -8.274152e-001 1.429675e+000 4.591829e-001 2.183140e+000 -1.609751e+000 1.898156e-001 -1.164737e+000 1.494875e+000 -3.078580e+000 2.029108e-001 5.948023e-001 -1.572166e+000 -8.178535e-001 1.357825e+000 -1.385659e+000 -3.255487e-001 8.867776e-001 -1.084539e+000 -8.726562e-001 -3.586531e-001 -1.010195e+000 -2.175464e+000 -1.035702e+000 -1.025075e+000 -2.158647e+000 -1.379327e+000 -7.754990e-001 -4.334929e-001 -6.867640e-001 -8.771768e-001 8.914515e-001 -3.004663e-001 4.600469e-001 7.496772e-002
<VARIANCE> 39
 1.027812e+000 2.264836e-001 1.866478e-001 9.490244e-001 2.484058e+000 7.566558e-001 4.547099e-001 7.052912e-001 1.356552e+000 7.581659e-001 3.409771e+000 4.959366e-001 6.877163e-002 2.890438e-001 2.118068e-001 1.259319e+000 9.742414e-001 8.418602e+000 1.506414e+000 8.770795e-001 1.452139e+000 6.937406e+000 1.763509e+000 2.194813e+000 1.568317e+000 4.752768e-001 1.176378e+000 3.527002e-001 6.439815e-001 1.786429e+000 3.876810e+000 7.598318e-001 1.774327e+000 1.334952e+000 2.242440e+000 1.181492e+000 2.833627e+000 1.582178e+000 1.808933e-001
<GCONST> 7.101667e+001
<MIXTURE> 16 1.109355e-002
<MEAN> 39
 -1.037207e-001 4.946253e-001 7.384255e-001 -2.350110e+000 -1.711496e+000 -3.666928e-001 -1.392946e+000 -1.090373e+000 -2.416943e+000 -1.286112e+000 -1.908381e+000 -1.831588e+000 1.176950e+000 -1.508030e+000 1.076362e+000 2.049159e-001 3.223968e-001 2.284388e+000 6.893309e-001 -7.299268e-001 6.051382e-001 -4.041066e-001 1.240184e+000 8.956715e-001 5.989425e-001 -1.338130e+000 -1.319990e+000 -1.660203e+000 -1.781674e+000 9.581065e-001 1.197120e+000 9.207886e-001 1.918205e+000 9.096203e-001 2.150507e+000 9.174377e-001 1.726427e+000 5.047035e-001 -8.567335e-001
<VARIANCE> 39
 5.936503e-001 2.970539e-001 2.049645e+000 2.308489e+000 1.623742e+000 1.609535e+000 9.733030e-001 1.482430e+000 5.651835e-001 8.672054e-001 6.308989e-001 8.452500e-002 1.442689e-001 8.371752e-001 1.657527e+000 2.661719e+000 8.395764e-001 1.463721e+000 7.308077e-001 1.971982e+000 9.189852e-001 1.261133e+000 3.770688e+000 2.657633e+000 8.448340e-001 3.820866e-001 4.343171e-001 9.670967e-001 2.123184e+000 2.449310e+000 2.412112e+000 8.096555e-001 9.883068e-001 3.055496e+000 5.763441e-001 3.090937e+000 1.574861e+000 6.220108e-001 1.977336e+000
<GCONST> 7.423698e+001
<STATE> 6
<NUMMIXES> 16
<MIXTURE> 5 1.000000e+000
<MEAN> 39
 -1.087350e+000 6.270972e-001 -3.522272e-001 -6.171526e-001 4.271621e-001 -1.153126e+000 5.143180e-001 9.198657e-002 2.753544e-001 2.733055e-001 4.193509e-001 4.601156e-001 5.201358e-001 5.809869e-001 -4.505318e-001 6.820932e-002 3.405489e-001 -1.269668e-001 -3.890928e-002 -1.162617e-001 5.093685e-002 2.097074e-002 7.221328e-002 1.262724e-001 1.108948e-001 -6.982780e-001 7.587356e-001 -8.648315e-002 1.910699e-001 3.169549e-001 -6.708565e-002 6.770090e-001 -2.133828e-001 6.854370e-003 1.177397e-002 -2.277120e-001 -1.034660e-001 -1.350137e-001 -8.777125e-001
<VARIANCE> 39
 4.546253e-001 7.618655e-001 1.298309e+000 1.213791e+000 1.220973e+000 1.540084e+000 1.782137e+000 1.985527e+000 1.184500e+000 1.167007e+000 1.128946e+000 1.661283e+000 2.289461e-001 2.053948e+000 1.663527e+000 2.445138e+000 2.032267e+000 2.204045e+000 2.289204e+000 2.449235e+000 2.552725e+000 1.889817e+000 1.693589e+000 2.110945e+000 2.190031e+000 2.287797e+000 2.504047e+000 2.454559e+000 2.681950e+000 2.017394e+000 2.217252e+000 2.572890e+000 2.439053e+000 2.753917e+000 2.045318e+000 1.502738e+000 2.055700e+000 2.229481e+000 1.994382e+000
<GCONST> 9.273635e+001
<STATE> 7
<NUMMIXES> 16
<MIXTURE> 11 1.000000e+000
<MEAN> 39
 -5.993479e-001 6.242825e-002 2.211923e-001 -3.563568e-001 3.274647e-001 -8.555312e-001 -2.888897e-001 2.710454e-001 1.001986e-001 1.357948e-001 2.472922e-001 2.142473e-001 -5.013292e-002 2.235190e+000 -6.494857e-002 -1.148799e-001 1.344947e+000 -6.387390e-001 1.294250e+000 8.952475e-002 -1.339586e-001 1.100209e-001 -6.361156e-002 4.897756e-002 1.559024e-001 -2.797286e+000 3.071856e-001 5.762004e-001 -2.065362e-001 -2.653171e-001 4.956787e-002 8.636313e-001 4.882817e-001 1.728085e-002 4.122651e-001 1.245659e-001 3.831527e-002 -4.632148e-003 2.881249e-001
<VARIANCE> 39
 4.815929e-001 6.734037e-001 2.033264e+000 9.356642e-001 1.605552e+000 1.763585e+000 2.565069e+000 1.259452e+000 1.037026e+000 2.065768e+000 9.072877e-001 1.465485e+000 2.117270e-001 4.087641e+000 3.868325e+000 2.788919e+000 3.408341e+000 4.600754e+000 4.180042e+000 2.164378e+000 3.466860e+000 2.085424e+000 1.895201e+000 3.201256e+000 1.760131e+000 3.175714e+000 1.723695e+000 2.315745e+000 2.213696e+000 1.606409e+000 1.798421e+000 1.963304e+000 2.406991e+000 1.182300e+000 1.838565e+000 2.671906e+000 1.179110e+000 1.602502e+000 1.785964e+000
<GCONST> 9.491371e+001
<TRANSP> 8
 0.000000e+000 1.000000e+000 0.000000e+000 0.000000e+000 0.000000e+000 0.000000e+000 0.000000e+000 0.000000e+000
 0.000000e+000 9.216607e-001 7.833933e-002 0.000000e+000 0.000000e+000 0.000000e+000 0.000000e+000 0.000000e+000
 0.000000e+000 0.000000e+000 9.252571e-001 7.474284e-002 0.000000e+000 0.000000e+000 0.000000e+000 0.000000e+000
 0.000000e+000 0.000000e+000 0.000000e+000 9.125640e-001 8.743598e-002 0.000000e+000 0.000000e+000 0.000000e+000
 0.000000e+000 0.000000e+000 0.000000e+000 0.000000e+000 9.553214e-001 4.467853e-002 0.000000e+000 0.000000e+000
 0.000000e+000 0.000000e+000 0.000000e+000 0.000000e+000 0.000000e+000 8.346240e-001 1.653760e-001 0.000000e+000
 0.000000e+000 0.000000e+000 0.000000e+000 0.000000e+000 0.000000e+000 0.000000e+000 0.000000e+000 1.000000e+000
 0.000000e+000 0.000000e+000 0.000000e+000 0.000000e+000 0.000000e+000 0.000000e+000 0.000000e+000 0.000000e+000
<ENDHMM>
~h "one"
<BEGINHMM>
<NUMSTATES> 8
<STATE> 2
<NUMMIXES> 15
<MIXTURE> 1 7.931294e-002
<MEAN> 39
 1.810656e-001 3.605418e-001 3.234769e+000 -2.461389e+000 -1.574309e+000 -1.885172e+000 -1.227157e+000 -9.907215e-001 -1.355646e+000 1.142610e+000 -1.483860e+000 -7.689741e-001 2.378366e+000 -3.341370e-001 -1.378913e+000 1.215172e-001 -5.962985e-001 -1.711313e+000 -9.808581e-001 1.569387e-001 2.185075e-001 5.925899e-002 1.938659e+000 7.199998e-001 4.697402e-001 8.723200e-001 6.260196e-001 -1.924742e-001 -1.946006e+000 8.978350e-001 3.459619e-001 7.896602e-001 -3.495595e-001 3.873640e-002 2.014123e-001 -8.824587e-001 5.471635e-001 5.515651e-001 -3.345487e-001
<VARIANCE> 39
 7.865249e-001 1.871358e+000 4.960798e-001 5.968819e-001 1.201626e+000 1.875667e+000 1.138960e+000 1.774919e+000 1.659361e+000 2.913950e+000 2.677566e+000 3.061373e+000 4.827287e-001 4.354727e-001 1.378072e+000 1.695368e+000 7.747000e-001 2.246543e+000 1.367626e+000 2.326037e+000 2.326972e+000 8.555834e-001 1.032040e+000 1.751817e+000 1.881720e+000 1.863259e-001 2.781390e-001 1.841810e+000 1.550755e+000 9.914088e-001 2.668673e+000 2.713963e+000 2.196089e+000 2.422796e+000 1.338914e+000 1.728454e+000 1.852651e+000 2.727801e+000 2.259980e-001
<GCONST> 8.166076e+001
<MIXTURE> 2 3.455365e-002
<MEAN> 39
 -3.688203e-001 1.160787e+000 -1.105872e+000 3.612269e-001 6.376618e-001 -5.615665e-002 9.893970e-001 -1.159805e+000 1.704999e+000 -1.516870e+000 -3.993342e-001 -1.718649e+000 1.057519e+000 4.009419e-001 1.046176e+000 1.468942e+000 9.824410e-002 3.902206e-001 2.348404e-001 -4.017809e-001 -3.329804e-001 1.269071e-001 -4.360332e-001 -4.444890e-001 -8.204265e-001 1.629904e+000 4.395519e-001 -1.030773e-001 5.065905e-001 -9.700025e-001 -1.145530e+000 -5.325091e-001 -1.732079e+000 -2.338440e-001 -1.652465e+000 5.631284e-001 -2.890560e-001 4.727791e-001 -5.726853e-001
<VARIANCE> 39
 3.847818e-001 4.190693e-001 4.439931e+000 6.698671e-001 2.892732e-001 3.851610e+000 1.170460e+000 1.678130e+000 2.506165e+000 1.521766e+000 1.238894e+000 1.651400e+000 1.856449e-001 9.265754e-001 8.803635e-001 1.298392e+000 2.028368e+000 2.143694e+000 2.337485e+000 4.237770e+000 1.761251e+000 3.992171e+000 1.547969e+000 1.245653e+000 2.795113e+000 3.203450e+000 8.897136e-001 1.635285e+000 2.525224e+000 1.740276e+000 7.936220e-001 4.173218e+000 2.374994e+000 1.583032e+000 1.406994e+000 1.025649e+000 1.996855e+000 2.490124e+000 2.882683e+000
<GCONST> 8.812209e+001
<MIXTURE> 3 6.939662e-002
<MEAN> 39
 7.952679e-001 3.678215e-001 2.844855e+000 -3.210301e-001 -2.006993e+000 -8.363710e-001 -5.872151e-001 -1.574138e+000 -1.003435e+000 -2.551709e+000 7.881504e-001 7.436674e-002 2.507943e+000 -1.082173e-001 -6.460180e-001 -6.555644e-001 2.454855e-001 -2.186049e-001 -6.266742e-001 1.909524e-001 -1.406670e-001 1.153508e-001 2.558527e-001 1.549482e-001 -3.246553e-001 5.116471e-001 6.711812e-002 2.600298e-002 -9.511768e-001 2.958928e-003 7.348376e-001 1.243843e-001 -1.860376e-002 1.322198e-001 -6.328062e-002 5.959583e-001 -1.423111e-001 -3.427798e-002 -6.796626e-001
<VARIANCE> 39
 4.713213e-001 2.039250e+000 2.842592e-001 1.501672e+000 9.079908e-001 9.130526e-001 1.415034e+000 1.448421e+000 5.014195e-001 2.726673e-001 6.234142e-001 3.099122e+000 9.202877e-002 4.858129e-001 8.819687e-001 1.219311e+000 8.477867e-001 1.352453e+000 4.916757e-001 1.001424e+000 1.130030e+000 2.885417e-001 9.701422e-001 4.954576e-001 5.107858e-001 1.189712e-001 7.183085e-001 3.692701e-001 8.584536e-001 1.539834e+000 1.528671e+000 7.285039e-001 1.002880e+000 1.680651e+000 5.458118e-001 1.104836e+000 4.920838e-001 7.872123e-001 5.713368e-001
<GCONST> 5.929240e+001
<MIXTURE> 4 1.091722e-001
<MEAN> 39
 -5.501580e-001 7.636057e-001 2.446385e-001 4.317909e-001 4.019971e-001 1.354127e-001 -5.433562e-001 -4.398088e-001 -8.004546e-001 -1.075657e+000 -5.249613e-001 -2.793338e-001 5.310087e-001 3.288413e-001 2.825028e+000 2.825265e+000 -1.388423e+000 -1.785532e+000 -2.517828e+000 -2.706167e+000 -2.665931e+000 -2.620231e+000 -1.961762e+000 -1.473271e+000 -1.129520e+000 4.076957e+000 1.733815e+000 3.168945e-001 1.033881e+000 -1.232997e+000 -9.333186e-001 -4.517500e-001 -4.205107e-001 -1.325745e-001 2.873855e-001 3.821549e-001 -1.630446e-001 2.215148e-002 -5.503091e-001
<VARIANCE> 39
 7.321588e-001 7.914243e-001 9.650736e-001 3.684401e-001 6.251296e-001 1.029245e+000 1.435483e+000 1.085794e+000 1.349759e+000 2.002647e+000 1.341791e+000 2.788236e+000 3.353176e-001 5.230822e+000 1.139268e+000 2.880176e+000 2.883444e+000 3.561929e+000 2.220948e+000 3.709450e+000 3.949876e+000 2.911933e+000 3.665657e+000 4.473086e+000 4.131031e+000 1.311059e+000 2.031501e+000 1.889323e+000 3.279122e+000 1.939028e+000 2.583320e+000 2.630493e+000 3.461685e+000 2.852776e+000 2.544368e+000 2.852880e+000 2.639339e+000 4.419401e+000 4.766715e+000
<GCONST> 9.893281e+001
<MIXTURE> 5 1.107631e-001
<MEAN> 39
 9.200454e-001 2.192163e+000 1.245489e+000 -4.227600e-001 -2.116558e-001 -2.927896e-001 -1.829813e+000 -1.187612e+000 -1.242319e+000 -1.417932e+000 -5.879046e-002 -4.696078e-001 1.063522e+000 1.192370e+000 1.717375e+000 2.358968e+000 -1.898034e+000 -1.516515e+000 -5.910989e-001 -1.766394e+000 -7.844674e-001 -6.994355e-001 -1.176993e+000 1.444049e-001 -3.390507e-001 2.567517e+000 -1.380147e+000 -2.044201e+000 -8.955781e-001 3.430866e-001 5.277220e-002 6.097286e-001 1.367271e+000 6.274264e-001 1.143510e+000 1.011533e+000 -8.851551e-002 1.124700e-001 -2.331244e+000
<VARIANCE> 39
 1.474458e+000 6.407138e-001 9.117721e-001 1.249773e+000 7.934583e-001 1.882087e+000 8.966525e-001 1.241262e+000 9.751883e-001 9.946741e-001 1.829464e+000 1.456995e+000 2.659653e-001 1.780756e+000 1.129308e+000 2.454690e+000 2.766259e+000 2.672422e+000 1.478039e+000 2.375573e+000 1.914436e+000 1.322317e+000 1.621307e+000 2.789583e+000 2.660545e+000 1.763297e+000 2.676955e+000 1.391202e+000 1.636710e+000 2.665808e+000 2.398880e+000 2.451286e+000 1.859832e+000 1.510612e+000 2.564339e+000 1.589856e+000 2.409347e+000 1.446480e+000 1.171800e+000
<GCONST> 8.912630e+001
<MIXTURE> 6 4.550545e-002
<MEAN> 39
 -4.121170e-001 3.293637e+000 1.942252e+000 -1.437571e+000 8.558802e-001 -2.220424e+000 -2.832372e+000 -2.552212e+000 -1.302800e+000 -3.004274e+000 -1.441350e+000 -1.845101e+000 1.744238e+000 -9.191858e-001 3.140619e-001 2.115849e+000 -1.768517e+000 4.213085e-001 -5.401753e-001 -4.615580e-001 3.885916e-002 3.236569e-001 -3.371483e-001 -7.530242e-001 -1.063830e+000 1.065245e+000 -6.618252e-002 -2.872477e+000 -1.694316e+000 2.037071e+000 1.011997e-001 2.234604e+000 2.159815e+000 1.912026e+000 9.600680e-001 2.197531e+000 1.273984e+000 1.854265e+000 -1.956710e+000
<VARIANCE> 39
 1.346201e+000 4.245462e-001 1.040583e+000 1.128761e+000 3.782100e+000 4.613140e-001 1.024057e+000 8.551679e-001 1.501247e+000 2.408782e-001 2.362537e+000 8.193707e-001 5.820331e-002 1.201832e+000 1.865211e+000 2.753977e+000 1.673900e+000 5.614156e+000 3.697395e+000 4.546285e+000 1.900974e+000 1.950274e+000 2.572339e+000 3.684788e+000 3.611015e+000 7.316593e-001 1.732809e+000 1.109662e+000 1.621618e+000 4.689370e+000 6.477982e+000 4.022766e+000 3.425349e+000 3.596623e+000 2.680022e+000 8.489432e-001 1.810395e+000 2.349439e+000 1.421373e+000
<GCONST> 9.099119e+001
<MIXTURE> 7 9.608845e-003
<MEAN> 39
 -7.993009e-001 3.208320e+000 1.239306e+000 -8.699800e-001 -5.363246e-001 -2.158919e+000 -3.338626e+000 -3.091137e+000 -1.818443e+000 -1.750120e+000 8.549013e-001 -5.598285e-002 1.682325e+000 -1.372381e+000 2.834895e+000 3.299669e+000 -4.714532e+000 1.268590e+000 -4.915580e+000 -4.028313e+000 -3.958374e+000 -1.557633e+000 -4.154742e+000 -2.136777e+000 -3.582175e+000 2.909141e+000 8.383207e-001 -2.222903e+000 6.702203e-001 5.321714e-001 2.499813e+000 3.217228e+000 2.808664e+000 3.685992e+000 2.261650e+000 1.222424e+000 -2.007584e+000 -1.248450e+000 -3.370472e+000
<VARIANCE> 39
 3.905640e-001 4.414977e-001 5.508537e-001 3.072549e-001 1.352337e+000 1.515795e-001 3.595452e+000 6.711468e-001 1.871447e-001 5.163064e-001 4.975218e+000 8.261973e-001 1.334590e-001 5.307368e+000 5.561020e-001 2.556148e-001 2.318211e-001 5.853498e+000 7.477855e-001 2.221466e+000 3.613668e+000 5.679022e-001 1.201905e+000 1.293807e+000 3.364344e-001 2.408075e+000 7.988405e-001 1.337030e+000 9.247736e-001 2.356360e+000 2.133664e+000 1.236927e+000 5.172449e+000 2.341288e+000 3.960913e-001 3.292063e+000 8.857366e+000 2.537806e+000 1.213812e+000
<GCONST> 7.386374e+001
<MIXTURE> 8 1.681581e-002
<MEAN> 39
 -4.558240e-001 1.740740e+000 3.484834e+000 -1.580061e+000 -1.492403e+000 -1.354182e+000 -2.985750e+000 -3.687320e+000 5.571365e-002 -7.749043e-001 -2.952079e+000 1.912073e+000 1.478122e+000 -4.126481e-001 -1.080189e+000 2.276224e+000 -3.141809e+000 -1.823197e+000 -1.702748e+000 2.182237e-001 -1.208595e+000 -1.178523e-001 1.609176e+000 -1.817888e+000 2.001988e+000 1.717122e+000 -1.373059e-001 -2.586682e+000 -3.972178e+000 1.438199e+000 2.011355e+000 1.371827e+000 2.211208e+000 3.770903e+000 -1.272403e+000 3.164132e+000 2.597688e+000 -1.158167e+000 -2.172125e+000
<VARIANCE> 39
 1.071161e-001 1.309595e+000 1.705742e-001 5.364783e-001 2.931148e-001 1.051503e+000 1.121236e+000 7.214090e-001 1.640666e+000 1.566228e+000 3.779165e-001 2.005316e+000 8.752137e-002 4.227491e-001 4.580642e+000 3.665560e+000 1.896252e+000 3.886855e+000 5.709003e+000 2.167318e+000 5.855621e+000 4.056492e+000 5.986647e+000 4.106380e+000 1.725882e+000 9.374942e-001 8.686501e-001 4.615380e+000 4.982749e-001 1.615529e+000 2.690104e+000 3.049270e+000 2.848902e+000 1.461392e+000 1.197325e+000 1.776883e+000 1.216806e+000 1.246458e+000 9.134448e-001
<GCONST> 8.327055e+001
<MIXTURE> 9 9.698829e-002
<MEAN> 39
 -8.397319e-001 2.488059e+000 1.360469e+000 -1.030429e+000 9.690142e-002 -9.343758e-001 -2.018280e+000 -1.836109e+000 -2.059311e+000 -2.648879e+000 -1.831329e+000 -1.442456e+000 1.512858e+000 -5.928454e-001 -2.552730e-001 9.305038e-001 -8.404623e-001 -8.014797e-001 -5.939708e-001 2.185385e-001 -5.363326e-001 2.793721e-001 4.788965e-001 2.936295e-001 1.950561e-001 3.070776e-001 1.581540e-001 -9.759089e-001 1.060322e-001 -1.398574e-001 -1.232382e+000 -6.274544e-001 4.576513e-001 2.295098e-002 8.727591e-001 7.904812e-001 5.312858e-001 -1.809790e-001 -6.507519e-002
<VARIANCE> 39
 7.354251e-002 5.999279e-001 1.016311e+000 4.515288e-001 4.632537e-001 7.086101e-001 1.118701e+000 9.102207e-001 1.746031e+000 6.589957e-001 1.784649e+000 1.456781e+000 9.211520e-002 3.771625e-001 2.044704e+000 2.597172e+000 3.959684e+000 2.903521e+000 2.598871e+000 2.196054e+000 9.553370e-001 4.174371e+000 1.935292e+000 2.355275e+000 1.677831e+000 7.492148e-002 6.846899e-001 1.884816e+000 2.071214e+000 3.290503e+000 1.843742e+000 2.846903e+000 2.810714e+000 1.874815e+000 3.151861e+000 2.158630e+000 2.565196e+000 2.557470e+000 2.324713e-001
<GCONST> 7.893115e+001
<MIXTURE> 10 9.782141e-002
<MEAN> 39
 1.813619e-001 2.351653e+000 2.310215e+000 -7.019063e-003 -3.938813e-001 -7.722579e-001 -9.019437e-001 -1.546907e+000 -4.948246e-001 -1.150585e+000 -8.097139e-001 -1.098905e+000 1.222905e+000 -2.172420e-001 -4.054006e-001 1.353494e-001 -5.861302e-001 -1.032209e+000 -6.307034e-001 8.469222e-002 -4.269299e-001 -1.908481e-001 1.277000e-001 5.183873e-002 -2.502458e-002 8.157831e-001 3.915578e-001 -9.745147e-001 -8.293732e-001 -2.128237e-001 -4.615731e-001 2.338801e-002 -3.423066e-001 6.625820e-002 -1.250739e-001 5.760865e-001 8.995655e-001 2.478623e-001 8.122883e-002
<VARIANCE> 39
 1.840905e+000 3.924108e-001 6.729373e-001 1.367506e+000 7.793532e-001 4.187511e-001 1.077201e+000 1.000036e+000 1.198269e+000 2.204127e+000 7.950401e-001 6.921787e-001 1.026308e-001 5.956381e-001 6.955705e-001 1.378262e+000 1.108196e+000 1.582933e+000 5.808098e-001 4.078251e-001 1.234596e+000 1.307193e+000 1.974852e+000 1.836313e+000 1.682284e+000 1.868396e-001 4.308703e-001 5.734499e-001 8.088747e-001 1.292692e+000 1.777587e+000 7.282746e-001 4.395289e-001 2.439740e+000 1.465009e+000 2.253860e+000 7.844419e-001 9.951403e-001 6.066710e-001
<GCONST> 6.691350e+001
<MIXTURE> 11 3.360680e-002
<MEAN> 39
 2.882342e-001 -8.431582e-001 2.813393e+000 -2.357059e+000 -1.928984e+000 -2.914257e+000 -3.478505e+000 -6.157803e-001 -3.372818e+000 1.353618e+000 -1.824445e+000 -4.343069e-001 2.338747e+000 1.663480e-001 -1.904427e+000 2.039620e-001 -9.120509e-001 -3.978494e-001 7.763989e-002 -4.398004e-001 1.653676e-001 -1.044364e+000 2.266622e-001 -9.087677e-001 -2.576303e-001 1.801481e+000 3.088699e-001 1.265272e-001 -1.119228e+000 9.496159e-001 6.459498e-002 9.746265e-001 1.158882e+000 9.059306e-002 1.770245e+000 -1.665789e+000 1.992542e-001 -2.546875e-001 -5.444368e-001
<VARIANCE> 39
 9.916602e-001 3.178605e-001 2.674345e-001 1.986002e-001 2.672859e-001 1.603348e+000 4.764113e-001 1.115338e+000 6.995726e-001 3.759855e+000 1.651041e+000 4.505585e+000 3.048657e-001 7.221189e-001 2.648704e+000 2.917042e+000 1.943838e+000 5.136833e-001 1.340953e+000 2.930538e+000 2.084859e+000 3.130131e+000 8.200700e+000 3.465528e+000 1.107151e+000 5.914420e-001 8.044693e-001 1.163304e+000 1.068023e+000 3.362468e+000 1.887215e+000 1.816421e+000 1.573500e+000 8.004868e-001 1.368169e+000 5.098765e+000 2.474340e+000 1.062981e+000 7.230235e-001
<GCONST> 8.103938e+001
<MIXTURE> 12 1.186028e-001
<MEAN> 39
 7.463368e-001 1.739315e+000 -9.322751e-002 -2.426340e-001 -4.592250e-001 -1.209354e+000 -1.328988e+000 -1.467133e+000 -1.255584e+000 -1.303646e+000 -9.352062e-001 -4.285421e-001 9.071076e-001 8.265545e-002 1.637132e-001 1.011228e-001 -1.318362e-001 -1.293246e-001 -5.039776e-002 2.203689e-002 3.028766e-002 2.020492e-001 5.413933e-002 -1.008298e-001 -1.721117e-002 2.675273e-001 -1.752344e-001 -1.275899e-001 3.024985e-002 -1.119332e-001 -2.059832e-001 4.601299e-002 1.548572e-001 1.713102e-001 -1.861799e-002 1.742589e-002 3.990168e-002 1.604363e-001 1.911540e-002
<VARIANCE> 39
 3.416485e-001 3.111250e-001 1.683326e+000 1.338640e-001 2.094700e-001 1.892887e-001 5.387130e-001 2.921887e-001 3.890758e-001 9.450160e-001 2.258881e-001 2.459647e-001 3.788391e-002 3.722301e-001 7.262576e-001 1.122754e+000 3.637122e-001 1.202104e+000 5.689243e-001 6.285243e-001 9.826664e-001 4.460626e-001 7.401705e-001 5.260466e-001 6.182250e-001 1.623784e-001 6.775454e-001 8.353243e-001 9.861509e-001 5.203021e-001 1.227274e+000 6.601272e-001 6.186332e-001 1.262733e+000 6.575651e-001 8.202876e-001 7.140208e-001 5.339771e-001 3.441845e-001
<GCONST> 4.424799e+001
<MIXTURE> 13 8.085117e-002
<MEAN> 39
 1.148313e+000 1.478398e+000 2.898892e+000 -9.877105e-001 -1.369402e+000 -3.939245e-001 -1.228128e+000 -7.310143e-001 -1.201703e+000 -1.343722e+000 4.288830e-001 -9.027143e-001 2.005243e+000 7.483943e-001 -1.567341e+000 2.516510e+000 -1.098753e+000 -2.543157e+000 -1.088539e+000 -1.197413e+000 -7.140096e-002 -1.226308e+000 1.409852e-001 1.168705e-001 -6.434193e-001 2.352384e+000 -1.444465e+000 -1.774168e+000 -3.003863e+000 5.924243e-001 1.783067e+000 7.235629e-001 6.430404e-001 8.084709e-001 5.807538e-001 1.122147e+000 -3.174380e-001 8.937004e-001 -2.694093e+000
<VARIANCE> 39
 8.757076e-001 1.737466e+000 4.902681e-001 1.182773e+000 5.449033e-001 1.147977e+000 3.401154e+000 1.921848e+000 8.637083e-001 2.301217e+000 1.157659e+000 1.617100e+000 1.691007e-001 1.717126e+000 2.495782e+000 3.541870e+000 3.617932e+000 2.529611e+000 2.514985e+000 3.246138e+000 2.679690e+000 1.840157e+000 2.412418e+000 1.428834e+000 1.661445e+000 1.355275e+000 2.559040e+000 2.599000e+000 2.857928e+000 2.164308e+000 1.389367e+000 1.638473e+000 3.382065e+000 2.291216e+000 5.383868e-001 1.590794e+000 7.984214e-001 1.503403e+000 1.706912e+000
<GCONST> 9.032474e+001
<MIXTURE> 14 8.499345e-002
<MEAN> 39
 8.947381e-001 2.050925e+000 1.580000e+000 -5.751659e-001 -9.243385e-001 -3.942609e-001 -2.472179e+000 -1.743274e+000 -9.459051e-001 -5.262640e-001 -8.487763e-002 -3.513793e-001 1.553858e+000 -5.500283e-002 -1.065112e+000 2.731350e-001 -1.191888e+000 -9.020358e-001 2.711752e-001 1.104119e-001 6.101997e-001 -1.618988e-001 5.685667e-001 4.719763e-001 2.134401e-001 6.951548e-001 -1.102468e+000 -1.150258e+000 -6.914870e-001 4.228488e-001 6.110945e-001 2.686937e-002 1.878066e+000 1.167210e+000 -5.765938e-002 -6.403641e-002 -4.214354e-001 -1.145277e-001 -9.745904e-001
<VARIANCE> 39
 1.081205e+000 9.199353e-001 3.522169e-001 6.435192e-001 6.106686e-001 2.424990e+000 1.143634e+000 1.164577e+000 5.150965e-001 5.335269e-001 1.945935e+000 2.360169e+000 2.584337e-001 5.378442e-001 1.609865e+000 2.502821e+000 1.698423e+000 8.853191e-001 7.627789e-001 1.230158e+000 1.336206e+000 1.959092e+000 1.205902e+000 1.734171e+000 1.134284e+000 3.817607e-001 7.482497e-001 1.171434e+000 1.199606e+000 1.776859e+000 1.536231e+000 1.292927e+000 9.235835e-001 1.138617e+000 1.313540e+000 7.933427e-001 2.270103e+000 1.656775e+000 7.831531e-001
<GCONST> 7.421027e+001
<MIXTURE> 15 1.200735e-002
<MEAN> 39
 1.180552e+000 3.295180e-001 2.502286e+000 -1.087111e+000 2.137579e-001 -1.923012e+000 -2.411301e+000 -1.518645e+000 -3.309045e+000 -4.656990e-001 -3.617912e+000 -1.924677e+000 2.193059e+000 5.123337e-001 -3.738639e-001 4.178402e+000 -3.228302e+000 -1.356147e+000 -2.791336e+000 -2.424928e-001 3.629288e-001 -1.196196e+000 3.448425e+000 -3.415564e+000 -1.875189e+000 2.376465e+000 -2.093303e+000 -3.558432e-001 -3.279274e+000 1.139838e+000 -5.782787e-001 1.056618e+000 3.431544e+000 1.867947e+000 3.769862e+000 1.896256e+000 3.122577e+000 1.270755e+000 -3.763320e+000
<VARIANCE> 39
 9.528159e-001 9.693991e-001 6.206643e-001 2.955976e-001 3.234360e+000 1.222126e+000 4.348496e-001 1.207888e+000 8.639975e-001 2.434726e+000 1.032440e+000 1.488971e+000 1.642721e-001 6.733374e+000 1.441486e+000 2.191888e+000 1.604071e+000 5.955950e-001 3.947482e+000 4.526230e+000 6.655319e+000 6.250692e+000 4.228374e+000 4.528654e+000 1.313629e+000 1.819702e+000 3.266380e+000 2.214055e+000 1.334159e+000 1.883312e+000 5.299432e+000 9.784694e-001 3.597397e+000 2.019462e+000 6.178495e+000 2.180011e+000 1.676710e+000 1.948692e+000 1.387249e+000
<GCONST> 9.408711e+001
<STATE> 3
<NUMMIXES> 15
<MIXTURE> 1 8.187857e-002
<MEAN> 39
 -7.570382e-002 4.217972e-001 1.079056e+000 1.797838e-001 8.463395e-001 1.510491e+000 1.716249e+000 1.777689e+000 5.427310e-001 -3.161951e-003 -1.662984e+000 -2.036225e+000 1.241962e+000 -2.428184e-001 -2.275482e-001 -1.247711e-001 -1.032882e-001 1.970388e-001 -1.748730e-002 -1.196578e-001 1.609114e-001 -3.511142e-001 1.631397e-001 7.536614e-002 1.085079e-001 -1.730920e-001 -1.362448e-001 1.046949e-001 -7.222563e-002 -3.155601e-001 -1.610467e-001 4.959441e-002 -1.322741e-001 2.209296e-002 4.369238e-002 6.533255e-002 2.437007e-001 3.156004e-001 -1.105328e-001
<VARIANCE> 39
 7.234684e-002 2.417682e-001 5.652766e-001 2.543171e+000 7.104533e-001 1.906362e-001 2.742990e-001 1.017286e+000 2.296434e+000 5.192281e-001 6.187779e-001 6.525757e-001 3.584787e-002 5.613532e-001 8.582498e-001 1.202391e+000 2.868640e+000 1.230415e+000 5.216194e-001 2.067789e+000 1.439412e+000 1.659565e+000 1.219436e+000 1.765668e+000 2.409747e+000 2.314437e-001 2.449313e-001 2.128581e+000 1.626683e+000 2.210238e+000 1.514951e+000 6.840247e-001 2.554294e+000 1.072004e+000 1.965374e+000 1.524498e+000 1.999120e+000 2.579194e+000 1.285557e-001
<GCONST> 6.486121e+001
<MIXTURE> 2 5.890281e-002
<MEAN> 39
 1.658268e+000 3.464288e-001 2.192840e+000 -3.968705e-001 -2.835398e+000 -1.198438e+000 -1.035392e+000 6.683480e-001 -1.561390e+000 -7.684431e-001 1.997561e+000 -9.482613e-001 2.383949e+000 2.333810e-001 -9.181607e-001 -6.902963e-001 -2.128167e-002 -2.324579e-002 -1.217763e+000 5.753207e-001 7.907113e-001 -1.999010e-002 3.046733e-001 1.465555e-001 -2.681159e-001 8.371221e-002 -3.337510e-001 4.563253e-001 -7.817730e-002 -2.861212e-001 1.258624e+000 4.668396e-001 -2.697277e-002 -4.223595e-001 6.488327e-001 -3.363215e-002 -4.054726e-001 -1.641611e-001 -4.799856e-001
<VARIANCE> 39
 8.997430e-001 3.399426e-001 1.968552e-001 1.144967e+000 9.885146e-002 5.602773e-001 7.955347e-001 1.274455e+000 1.536432e+000 2.654324e+000 1.719031e-001 6.850685e-001 6.585520e-002 2.550738e-001 7.285321e-001 2.092350e-001 7.654281e-001 1.102527e+000 1.340479e+000 6.244882e-001 8.764116e-001 1.034250e+000 8.250431e-001 7.605794e-001 6.549076e-001 1.088911e-001 3.016887e-001 3.659734e-001 6.683390e-001 8.018730e-001 2.561921e-001 1.149251e+000 7.943310e-001 1.192348e+000 5.717348e-001 1.017465e+000 3.359965e-001 3.991349e-001 1.066086e-001
<GCONST> 4.697580e+001
<MIXTURE> 3 8.035922e-002
<MEAN> 39
 1.337457e+000 -2.745419e+000 2.101137e+000 -2.523025e+000 -1.913644e+000 -2.192022e+000 -4.182908e-001 2.085293e+000 -1.666043e+000 2.278921e+000 2.598169e-001 2.875921e-001 2.637109e+000 3.342365e-001 -1.049533e-001 -1.995608e-001 1.317443e-001 2.277504e-001 -3.364149e-001 6.551257e-001 1.020641e-001 3.516293e-002 1.274895e-001 -4.077090e-001 8.547445e-002 -2.758229e-001 -9.423547e-002 1.057510e+000 4.412306e-001 6.081531e-001 -5.194043e-003 4.882008e-001 -4.587128e-001 -6.904534e-001 -1.630330e-001 -2.897939e-001 3.549748e-002 -3.789406e-001 -3.809040e-001
<VARIANCE> 39
 6.757183e-001 5.700868e-001 1.055520e-001 3.551588e-001 2.864049e-001 1.750070e-001 1.998831e+000 5.729324e-001 6.125438e-001 9.993317e-001 9.342352e-001 2.813305e+000 1.325125e-001 2.384163e-001 2.061076e+000 7.262312e-001 6.172498e-001 3.760744e-001 3.731515e-001 9.438562e-001 4.645484e-001 5.248114e-001 5.736208e-001 4.348278e-001 3.988993e-001 2.340375e-001 5.116500e-001 2.074291e+000 4.135660e-001 8.714972e-001 7.830837e-001 1.747388e-001 5.864131e-001 4.349963e-001 3.574446e-001 6.374162e-001 5.689433e-001 5.111595e-001 9.421322e-002
<GCONST> 4.493813e+001
<MIXTURE> 4 9.033031e-002
<MEAN> 39
 6.331352e-001 1.121278e+000 2.178420e+000 -6.803049e-001 -1.229827e+000 -1.777110e-001 -1.756981e+000 -8.699976e-001 -1.801616e+000 -1.722432e+000 3.654035e-001 -6.046600e-001 1.851962e+000 3.202970e-001 -1.602822e+000 -1.738144e-001 -1.758215e-001 -1.229360e+000 -1.182578e+000 4.100781e-001 7.624298e-001 -6.492264e-001 6.731941e-001 3.929169e-001 9.716859e-001 5.919202e-001 5.235015e-001 -5.453950e-001 -6.550481e-001 3.231810e-001 -1.307183e-001 -4.054939e-001 1.986496e-001 1.810951e-001 4.168977e-001 8.119920e-001 5.142538e-001 2.104132e-001 -1.202089e-001
<VARIANCE> 39
 7.926707e-001 1.361818e+000 1.220620e-001 9.777208e-001 3.051228e-001 9.487241e-001 1.241220e+000 7.333670e-001 2.897387e-001 6.789624e-001 1.617293e+000 1.223552e+000 2.597039e-001 3.325565e-001 8.117283e-001 9.016139e-001 1.040937e+000 7.824417e-001 1.565526e+000 7.534158e-001 9.419868e-001 8.609884e-001 2.160098e+000 1.201058e+000 6.935666e-001 1.245965e-001 1.869690e-001 8.872760e-001 8.863848e-001 8.587679e-001 1.211321e+000 6.996728e-001 8.721226e-001 9.153486e-001 9.795045e-001 8.654560e-001 7.916592e-001 1.232370e+000 1.219664e-001
<GCONST> 5.809079e+001
<MIXTURE> 5 6.932274e-002
<MEAN> 39
 -7.471686e-001 7.144807e-001 2.150775e+000 -2.516301e+000 -4.606183e-002 -2.660359e+000 -9.887808e-001 -2.306835e+000 6.943118e-001 -1.930113e+000 -1.297350e+000 -1.550370e+000 2.068906e+000 -1.114009e-001 -2.310207e+000 -1.357198e+000 -7.783222e-001 -1.788131e+000 2.601363e-001 2.040357e+000 1.239543e+000 1.645598e+000 8.737594e-001 -3.498151e-001 -9.731424e-001 6.592560e-001 6.338084e-001 1.295568e-001 -9.906451e-001 1.151672e+000 -3.617125e-002 6.648965e-001 3.961272e-001 6.531854e-001 -3.204603e-001 4.102804e-001 1.540772e-001 -6.083091e-001 2.834919e-001
<VARIANCE> 39
 1.860980e+000 1.530130e+000 5.884990e-001 1.037345e-001 3.713455e+000 3.256341e-001 2.845240e+000 4.398744e-001 9.179334e-001 7.933462e-001 1.014565e+000 5.332974e-001 5.669193e-002 2.219189e-001 3.371687e-001 3.263209e-001 1.055978e+000 1.742276e+000 9.109343e-001 1.588642e+000 1.342455e+000 1.944004e+000 1.308516e+000 1.771932e+000 2.159390e+000 2.738818e-001 1.972768e-001 7.470481e-001 9.349244e-001 6.830581e-001 2.163901e+000 1.124909e+000 1.862785e+000 1.489433e+000 2.344601e+000 2.079157e+000 1.411610e+000 1.306630e+000 4.008958e-001
<GCONST> 6.591123e+001
<MIXTURE> 6 8.995303e-002
<MEAN> 39
 -5.677539e-001 -7.884918e-001 1.227316e+000 -1.585783e+000 -2.442877e+000 -2.430878e+000 8.016641e-001 -1.227898e+000 5.185000e-001 3.406166e-001 -2.463717e-001 -9.109064e-001 1.924921e+000 2.530019e-002 -7.683826e-001 -5.857544e-001 1.732348e-001 8.892878e-002 4.018412e-001 7.479584e-001 3.105043e-001 1.546798e-001 1.626506e-001 7.403905e-002 6.442171e-001 1.423698e-001 -1.485596e-001 1.050147e+000 7.237940e-001 5.848266e-001 9.943684e-001 8.975109e-001 -7.961312e-001 -3.735593e-001 -9.204693e-001 -9.728659e-001 -6.979098e-001 1.220203e-001 -3.710950e-001
<VARIANCE> 39
 7.148337e-001 4.773854e-001 1.018806e+000 3.051449e+000 3.854274e-001 1.598193e-001 1.538281e+000 3.261315e-001 2.200249e+000 2.072798e+000 2.179414e+000 3.171852e+000 1.027070e-001 1.554312e-001 1.199698e+000 1.094610e+000 7.426625e-001 8.753693e-001 1.272922e+000 3.133942e+000 1.652882e+000 2.141910e+000 2.250275e+000 2.509095e+000 2.436563e+000 2.449456e-001 1.932309e-001 6.887432e-001 5.313763e-001 1.419781e+000 1.279974e+000 7.064102e-001 1.775511e+000 7.242962e-001 1.508775e+000 2.011100e+000 2.070447e+000 2.900759e+000 4.002962e-001
<GCONST> 7.111679e+001
<MIXTURE> 7 1.342885e-001
<MEAN> 39
