~o
<STREAMINFO> 1 39
<VECSIZE> 39<NULLD><MFCC_E_D_A_Z><DIAGC>
~h "eight"
<BEGINHMM>
<NUMSTATES> 8
<STATE> 2
<NUMMIXES> 16
<MIXTURE> 1 8.430072e-002
<MEAN> 39
 1.674603e-001 -1.794559e+000 -8.423936e-001 7.001101e-001 7.840213e-001 -1.633846e-001 1.188467e+000 -1.996580e-001 -1.906790e-001 -1.433584e+000 -9.483259e-001 1.498312e-001 8.252056e-001 1.795379e+000 1.391907e+000 1.243554e+000 3.017674e-001 5.361531e-001 1.399738e-001 3.789199e-001 2.504784e-001 7.940885e-001 2.972292e-001 -2.690749e-001 -7.868218e-001 2.269119e+000 1.400437e+000 2.047683e-001 4.276524e-001 -1.197193e+000 -7.179649e-001 -4.931919e-001 -9.033477e-001 7.237973e-002 7.125967e-002 5.222858e-001 -7.484844e-002 -8.073906e-001 1.409891e+000
<VARIANCE> 39
 4.628494e-001 3.836614e-001 8.523343e-001 1.130620e+000 1.305655e+000 2.120031e+000 1.916806e+000 2.136863e+000 2.213177e+000 1.205564e+000 1.282112e+000 2.046499e+000 3.587660e-001 9.099436e-001 1.245073e+000 1.810007e+000 2.225630e+000 2.107253e+000 2.090977e+000 3.209713e+000 1.837363e+000 1.806438e+000 8.691864e-001 1.435181e+000 2.358588e+000 2.156449e+000 1.109292e+000 2.240802e+000 2.449195e+000 9.704030e-001 2.731909e+000 2.552442e+000 1.831938e+000 2.304002e+000 2.648171e+000 1.147348e+000 1.903728e+000 1.747932e+000 1.613518e+000
<GCONST> 8.842594e+001
<MIXTURE> 2 1.061358e-001
<MEAN> 39
 5.391271e-001 -1.433800e+000 -8.988940e-001 -1.405389e-001 1.841961e-001 -1.182617e+000 -8.747362e-001 -1.678826e+000 -1.231024e+000 -1.528173e+000 -1.497879e+000 -1.210744e+000 1.418352e+000 1.917100e+000 -8.951011e-001 -1.892630e+000 -1.215774e+000 -1.008459e+000 -1.107942e+000 -3.220450e-001 -7.488160e-001 -1.243523e+000 -7.550822e-001 -1.128077e+000 -8.817335e-001 2.236875e+000 -1.275986e+000 -1.296067e+000 -1.491792e-001 1.693787e-001 5.766284e-001 8.694320e-001 1.323156e+000 1.451162e+000 7.920529e-001 1.310521e+000 1.119822e+000 1.057710e+000 -9.141702e-001
<VARIANCE> 39
 1.110442e+000 4.966998e-001 1.372840e+000 1.705069e+000 2.653553e+000 1.236454e+000 2.513982e+000 1.442386e+000 1.860775e+000 1.360836e+000 8.908285e-001 9.316698e-001 3.299609e-001 1.649399e+000 2.434336e+000 2.749256e+000 3.083433e+000 3.114532e+000 2.508734e+000 2.639743e+000 2.317429e+000 3.084693e+000 3.210430e+000 2.993687e+000 2.450163e+000 1.429238e+000 1.859501e+000 1.990931e+000 2.636343e+000 2.259449e+000 3.136781e+000 1.853413e+000 1.652060e+000 1.587375e+000 1.874544e+000 1.725708e+000 1.903844e+000 1.311718e+000 2.162767e+000
<GCONST> 9.475841e+001
<MIXTURE> 3 1.022455e-001
<MEAN> 39
 -3.369421e-001 -2.419571e+000 -1.198040e+000 -9.530494e-001 5.041078e-001 -3.675298e-001 1.097189e-001 7.724316e-002 -1.044166e+000 -8.703860e-001 -8.197367e-001 4.887719e-001 6.240620e-001 -1.740873e-001 -6.202621e-001 -1.320546e-001 -2.103543e-001 4.664438e-001 -7.827290e-002 3.924696e-001 -3.750457e-001 -9.495032e-001 -7.430242e-001 -6.595876e-001 -8.294006e-002 1.583876e+000 1.026847e+000 2.151774e+000 1.012279e+000 1.459727e+000 9.350397e-002 1.113091e-001 -1.122434e-002 -1.460483e-002 6.534665e-001 2.452273e-001 1.606417e-001 -7.513562e-001 -2.857213e-001
<VARIANCE> 39
 4.618065e-001 2.780449e-001 8.038377e-001 5.170692e-001 2.170129e+000 1.902485e+000 1.932119e+000 2.144517e+000 3.658176e+000 1.644307e+000 3.103011e+000 1.801423e+000 1.099792e-001 4.499454e-001 2.158096e+000 1.676396e+000 1.955581e+000 1.696778e+000 2.825803e+000 2.344946e+000 1.731118e+000 2.211604e+000 1.717229e+000 2.842848e+000 2.621658e+000 1.063982e+000 1.510024e+000 1.222432e+000 2.712088e+000 1.623328e+000 2.286421e+000 2.675292e+000 1.799807e+000 1.690928e+000 3.038999e+000 2.240105e+000 4.496788e+000 2.718071e+000 2.835020e+000
<GCONST> 9.090804e+001
<MIXTURE> 4 6.578552e-002
<MEAN> 39
 1.116824e+000 -2.025679e+000 -1.496493e+000 1.352206e+000 1.240175e+000 -1.760756e+000 2.450933e+000 -5.064601e-001 -5.194628e-001 -1.092061e+000 -5.108846e-001 -2.198592e+000 2.026828e+000 1.612320e-001 5.241818e-002 -1.611359e-001 9.591950e-002 -4.375401e-001 -8.328027e-002 4.999786e-002 3.091939e-001 2.562245e-001 -3.314025e-002 -1.836241e-001 -1.008279e-003 3.293073e-001 -4.545264e-001 4.934041e-001 4.415100e-001 -6.910522e-002 1.613492e-001 1.324148e-001 -3.855748e-001 1.099339e-001 1.394414e-002 -9.017618e-002 7.323124e-002 5.568693e-001 -7.768644e-001
<VARIANCE> 39
 9.104190e-001 7.108387e-001 7.782671e-001 1.831886e+000 1.578368e+000 1.005394e-001 3.904524e-001 2.550271e+000 1.412650e+000 8.872041e-001 1.691438e+000 8.442635e-001 5.510014e-002 1.571554e-001 1.969537e+000 2.185488e+000 2.150626e+000 1.033206e+000 3.191587e-001 1.126680e+000 1.875124e+000 2.047333e+000 2.740931e+000 2.352478e+000 2.431505e+000 3.374317e-001 1.497185e+000 2.483891e+000 2.441088e+000 3.386769e+000 8.752965e-001 9.508765e-001 9.380139e-001 1.980686e+000 2.934579e+000 3.362788e+000 2.323982e+000 1.741848e+000 1.882905e+000
<GCONST> 7.801298e+001
<MIXTURE> 5 9.177759e-002
<MEAN> 39
 -5.727947e-001 -1.934360e+000 3.910050e-001 4.253807e-001 1.279709e+000 3.211979e-001 -2.242937e-002 1.867883e-002 -2.202662e-001 -2.625717e-001 4.438265e-001 4.467654e-001 7.562032e-001 1.802485e+000 6.921195e-001 -6.283777e-001 -4.518776e-001 -6.117257e-001 -8.036108e-001 -1.142419e+000 -1.808815e+000 -1.577233e+000 -1.913411e+000 -1.758783e+000 -1.296747e+000 1.734918e+000 2.023656e+000 3.907387e-001 -1.336960e+000 -1.332012e+000 -1.527838e+000 -1.126718e+000 -5.020440e-001 -6.638725e-001 -7.748504e-001 -8.230969e-001 -1.455026e+000 -1.220782e+000 1.349846e+000
<VARIANCE> 39
 8.090146e-001 6.383962e-001 2.310077e+000 1.433211e+000 1.704266e+000 1.213557e+000 1.527245e+000 1.233708e+000 1.275286e+000 1.435210e+000 1.667541e+000 1.660168e+000 3.342044e-001 1.530661e+000 1.283215e+000 1.876692e+000 2.388282e+000 2.992797e+000 2.121574e+000 2.294222e+000 1.547348e+000 1.902063e+000 2.088434e+000 2.391199e+000 2.431400e+000 1.943324e+000 1.912481e+000 2.678435e+000 2.072514e+000 2.614747e+000 1.135052e+000 1.896537e+000 2.053679e+000 2.022535e+000 1.610005e+000 2.210901e+000 2.235746e+000 2.396512e+000 1.532130e+000
<GCONST> 9.208420e+001
<MIXTURE> 6 8.495934e-002
<MEAN> 39
 -1.057442e+000 -3.635443e-003 1.134593e+000 -1.081879e+000 -1.524037e+000 -1.525730e+000 -3.288818e-001 1.525108e+000 -3.621253e-001 -1.065739e+000 1.048873e+000 3.683671e-001 1.055493e+000 -4.773406e-001 3.685802e-001 9.674428e-001 -2.333360e-001 3.871575e-001 6.430228e-001 -2.243367e-001 1.730302e-001 3.691757e-003 2.899122e-001 6.437899e-001 1.426787e-001 5.902430e-001 2.818078e-001 -2.988891e-001 -3.115993e-001 3.190418e-001 7.514923e-001 6.161051e-001 3.551505e-001 -4.671048e-001 -2.697621e-001 9.337649e-002 -1.839140e-001 -3.736801e-001 -1.070992e-001
<VARIANCE> 39
 9.033992e-001 2.058063e+000 1.722281e+000 3.048429e+000 1.901593e+000 1.555771e+000 2.022508e+000 1.935103e+000 1.158444e+000 2.091337e+000 1.260303e+000 2.770967e+000 3.297899e-001 3.480916e+000 3.198415e+000 1.929772e+000 4.754503e+000 3.982326e+000 5.355620e+000 3.458421e+000 3.073368e+000 1.858452e+000 1.907685e+000 2.332053e+000 3.498156e+000 2.008083e+000 3.778060e+000 2.314093e+000 1.399912e+000 3.467201e+000 4.227010e+000 6.119669e+000 3.639949e+000 2.816827e+000 2.730310e+000 3.958378e+000 2.647354e+000 3.745220e+000 2.634548e+000
<GCONST> 1.065144e+002
<MIXTURE> 8 5.519599e-002
<MEAN> 39
 1.565321e+000 -3.288802e+000 -2.462889e+000 -8.156894e-002 -1.920965e+000 -1.258886e-001 -1.593152e+000 -6.256629e-001 -2.274895e+000 -2.215243e+000 -1.428447e+000 -1.249754e+000 2.853149e+000 -9.817133e-002 -1.913289e-001 1.961458e-001 -2.532479e-001 -2.396082e-001 4.336935e-001 2.061603e-001 -8.163153e-002 1.343627e-001 -5.653134e-001 6.272940e-002 3.009248e-001 1.687725e-001 -2.356254e-001 8.894980e-001 8.186991e-001 -2.128073e-001 3.676614e-001 -4.855464e-001 3.373533e-002 2.048359e-001 -1.516918e-001 6.799506e-002 6.660696e-002 1.374341e-001 -3.827126e-001
<VARIANCE> 39
 2.183549e-001 2.660661e-001 1.804811e+000 1.662026e+000 1.221110e+000 2.126582e+000 2.337648e+000 2.536831e+000 3.314599e-001 3.160398e-001 4.789960e-001 1.309685e+000 4.578935e-002 2.891434e-001 2.154358e+000 1.729202e+000 1.108930e+000 5.946193e-001 1.174783e+000 9.049706e-001 1.211388e+000 1.293061e+000 8.123803e-001 7.345536e-001 8.170866e-001 2.915492e-001 5.922112e-001 1.023611e+000 1.279724e+000 1.041874e+000 6.611567e-001 1.385890e+000 6.336663e-001 1.134036e+000 1.500559e+000 1.206164e+000 5.077258e-001 6.670093e-001 2.139139e-001
<GCONST> 6.241290e+001
<MIXTURE> 9 5.910247e-002
<MEAN> 39
 -2.058490e-001 -1.279061e+000 2.413592e-001 2.255117e-001 8.779666e-001 3.867822e-001 8.204463e-001 1.360864e+000 1.035240e-001 -7.060652e-001 3.964429e-001 9.728338e-001 3.793363e-002 -7.831509e-001 -2.748360e+000 -3.401680e-001 -1.345225e+000 4.597705e-001 3.717993e-001 5.297519e-001 3.952925e-001 -2.315501e-001 -5.507194e-001 1.120315e-002 -2.602713e-001 1.519819e+000 2.669107e-001 1.114831e+000 -9.011896e-001 -1.013915e-001 -6.315094e-001 3.331441e-002 -5.271349e-001 -1.148838e+000 3.420225e-001 9.720852e-001 1.877891e-002 -6.904609e-001 2.921375e-001
<VARIANCE> 39
 2.062495e-001 4.069727e-001 9.982063e-001 7.343729e-001 6.183055e-001 1.552521e+000 1.961463e+000 8.556525e-001 4.491966e-001 4.688698e-001 1.362956e+000 8.240315e-001 1.286873e-001 4.599231e-001 2.294956e+000 1.443595e+000 1.189475e+000 1.244349e+000 1.215807e+000 1.491281e+000 1.498858e+000 2.109440e+000 2.408605e+000 1.824252e+000 1.163756e+000 1.647433e+000 1.609375e+000 2.224429e+000 1.065370e+000 1.659097e+000 1.022254e+000 1.750149e+000 2.340352e+000 1.463102e+000 1.138141e+000 1.934236e+000 1.552552e+000 1.346973e+000 2.726266e+000
<GCONST> 7.675178e+001
<MIXTURE> 10 4.025023e-002
<MEAN> 39
 1.777506e+000 -1.999276e+000 1.500156e+000 2.124821e-001 5.782368e-001 -4.021341e-001 -1.129331e-001 1.371798e+000 -1.136367e+000 -5.232334e-001 2.383474e-001 -7.710711e-001 9.477072e-001 1.160751e-001 -2.800919e+000 2.301418e-001 -3.006923e-001 7.886495e-001 3.417531e-001 3.403092e-001 1.351997e-001 -9.328194e-001 -1.133330e-001 -2.129205e-001 1.006117e-001 2.606623e+000 -2.296060e+000 1.300733e+000 -2.286226e+000 1.960054e-001 -9.962137e-001 8.734541e-001 1.184411e-001 -1.467835e+000 4.968674e-001 1.487691e-001 1.239245e-001 3.908418e-001 -1.310775e+000
<VARIANCE> 39
 1.100509e+000 9.477465e-001 2.724972e-001 1.909467e+000 5.360183e-001 1.040747e+000 1.895497e+000 1.971446e+000 2.157404e+000 1.685830e+000 2.612592e+000 1.872113e+000 6.256471e-001 4.958209e+000 2.369705e+000 3.475455e+000 4.292845e+000 1.902269e+000 1.598813e+000 5.301436e+000 2.887907e+000 3.982971e+000 2.825443e+000 4.264543e+000 3.808087e+000 1.483234e+000 3.076476e+000 3.913226e+000 2.112123e+000 3.545126e+000 1.263921e+000 7.593884e-001 3.216531e+000 3.857296e+000 7.313643e+000 3.385407e+000 3.359868e+000 2.649515e+000 2.646240e+000
<GCONST> 1.021672e+002
<MIXTURE> 11 8.606873e-002
<MEAN> 39
 8.199208e-001 -1.738526e+000 -1.024942e+000 -7.766852e-001 2.020036e-001 -7.716524e-001 -3.533148e-001 -7.613984e-001 -6.969107e-001 -6.524907e-001 -1.407531e+000 -6.581707e-001 1.444744e+000 9.030144e-002 -1.034739e+000 -5.151986e-001 -7.591748e-001 -1.878260e-001 -1.169503e-001 -1.078959e-001 4.947226e-001 -4.813094e-001 9.063157e-002 -2.343045e-001 2.233461e-001 7.673897e-001 -8.096775e-001 7.732436e-001 5.864359e-001 1.029704e+000 1.432075e-001 5.101218e-001 4.256796e-001 -6.261615e-002 5.111008e-001 4.167689e-003 7.103872e-001 2.755873e-001 -1.192703e+000
<VARIANCE> 39
 3.133198e-001 4.545759e-001 7.348168e-001 9.190543e-001 9.993566e-001 9.978057e-001 1.680697e+000 1.464052e+000 1.889179e+000 1.002503e+000 6.158375e-001 1.604519e+000 1.887622e-001 2.925433e-001 8.988555e-001 5.678709e-001 1.242405e+000 8.458049e-001 6.996800e-001 1.585248e+000 8.705216e-001 5.296621e-001 6.673982e-001 7.479295e-001 1.159612e+000 2.007055e-001 8.221741e-001 2.296197e+000 7.481439e-001 7.488945e-001 1.222395e+000 9.489748e-001 1.400820e+000 8.454174e-001 8.490970e-001 4.821392e-001 7.211791e-001 9.404792e-001 3.903917e-001
<GCONST> 6.266925e+001
<MIXTURE> 12 1.494071e-001
<MEAN> 39
 -7.464287e-001 -1.308662e+000 -1.746491e-001 4.491461e-001 8.251588e-001 3.670791e-001 1.140724e+000 3.222979e-001 2.926009e-001 4.009357e-001 4.351266e-001 2.956844e-002 4.187441e-001 -3.822463e-001 -6.970404e-001 -3.640342e-001 1.841498e-001 1.126066e-001 -3.128895e-001 -2.997272e-001 -2.968119e-001 -1.878629e-001 2.485392e-002 2.378642e-001 7.819881e-002 6.611167e-001 6.702436e-001 6.121945e-001 1.208310e-001 1.366616e-001 -1.250220e-001 -4.040510e-001 -4.276698e-001 -6.882235e-002 -3.090821e-001 -3.439911e-001 -1.263105e-001 2.170497e-001 -1.510491e-001
<VARIANCE> 39
 6.237683e-001 5.950069e-001 1.258214e+000 8.631017e-001 6.464483e-001 1.053083e+000 1.098261e+000 8.166519e-001 1.045372e+000 1.365472e+000 1.181809e+000 1.169799e+000 1.678333e-001 4.414591e-001 5.146390e-001 1.107245e+000 1.149363e+000 8.523396e-001 9.588653e-001 7.794333e-001 1.299311e+000 1.390681e+000 1.091320e+000 1.992258e+000 2.342464e+000 6.170435e-001 7.548581e-001 1.411638e+000 9.759710e-001 1.704439e+000 1.329004e+000 1.082976e+000 6.899521e-001 1.374970e+000 1.524912e+000 8.372079e-001 1.953490e+000 2.537677e+000 8.337274e-001
<GCONST> 7.176209e+001
<MIXTURE> 13 1.082092e-002
<MEAN> 39
 -1.006326e-001 -2.678297e+000 6.051571e-001 -8.988064e-001 1.073702e+000 -4.216922e-001 -1.005330e+000 8.972411e-001 -8.744449e-001 2.164982e+000 2.427982e+000 -1.088340e+000 9.677398e-001 9.633026e-001 -3.684040e+000 2.476965e+000 -9.011612e-001 3.299513e+000 -5.861582e-001 -1.704444e-001 1.919560e+000 -6.516392e-001 1.105926e+000 5.496097e-001 6.997412e-001 4.040561e+000 1.009241e+000 4.621912e+000 2.289006e-001 1.467896e+000 -2.043005e-001 -1.378107e-001 9.950310e-001 -1.383843e+000 4.488913e-001 -2.373474e+000 -3.051395e+000 1.163238e+000 -2.648765e+000
<VARIANCE> 39
 1.298728e+000 9.177176e-001 1.338121e+000 3.151498e-001 2.176113e+000 7.775792e-001 2.495843e+000 2.265429e+000 7.078800e-001 6.241550e-001 1.315906e+000 1.053375e+000 1.525486e-001 1.534559e+001 3.396356e+000 2.956019e+000 5.847643e-001 1.998929e+000 1.292454e+000 2.791727e+000 1.025164e+001 1.304856e+000 1.142790e+000 7.146869e-001 1.151153e+000 9.560831e-001 4.298929e+000 1.135509e+000 2.325944e+000 2.102924e+000 5.811539e+000 1.505561e+000 4.881215e+000 4.126816e+000 9.645005e-001 1.859413e+000 4.660252e-001 4.291996e+000 7.841854e-001
<GCONST> 8.921970e+001
<MIXTURE> 14 5.340610e-003
<MEAN> 39
 3.702310e-001 -1.224197e+000 -3.125752e-001 4.860790e-002 9.691330e-001 3.842073e-001 2.171178e-001 9.982841e-001 -2.213930e-001 3.545655e-001 -2.039944e-001 8.548872e-001 5.358894e-001 -7.496254e-001 -4.779562e+000 -3.079880e-001 -2.319929e-001 1.783369e-001 -2.405134e-001 -8.335994e-001 -1.546623e+000 -4.194927e+000 -2.571916e+000 -2.134407e-001 1.163903e-001 5.066239e-002 -2.185564e+000 -9.425426e-001 1.088116e+000 -1.000987e+000 -4.991574e-001 -1.096860e-002 -5.690584e-001 -2.603940e-001 7.967435e-002 8.462629e-001 6.839434e-001 -1.353609e+000 8.088040e-001
<VARIANCE> 39
 1.376408e-001 6.948145e-001 1.253054e+000 2.686065e-001 5.405686e-002 4.051473e-001 1.292361e+000 8.310241e-001 8.376966e-002 7.100979e-002 6.765512e-001 1.848097e-001 8.355954e-002 2.970319e-001 3.713084e+000 6.912688e-001 1.144556e-001 1.953506e-001 1.654039e+000 3.758885e-001 8.449493e-001 1.964230e+000 9.999961e-003 8.570611e-001 7.575877e-001 2.030946e+000 6.650507e-002 3.584623e+000 2.707264e+000 1.756424e+000 2.328589e-001 4.799668e-001 1.757540e-001 5.971610e-001 1.326722e+000 5.053670e-001 1.462453e+000 5.034620e-001 5.005344e-001
<GCONST> 4.071809e+001
<MIXTURE> 15 5.326869e-002
<MEAN> 39
 1.480821e+000 -9.065823e-001 1.513481e-001 3.662071e-001 7.317820e-001 9.563302e-002 1.008333e+000 3.121947e-001 2.263052e-002 -1.008596e+000 -7.651191e-001 -9.052272e-001 1.579012e+000 1.583321e+000 -7.765156e-002 7.506014e-002 -1.301345e+000 -6.206934e-001 -3.583508e-001 -6.971450e-001 -3.736764e-001 5.726023e-001 5.061061e-001 -3.007630e-001 -8.730381e-001 2.024597e+000 -1.379379e+000 -1.989298e+000 -1.304469e+000 -9.322842e-001 -3.217375e-001 -5.095178e-001 -5.660999e-001 -7.269114e-002 -7.665762e-001 1.873167e-001 -1.490513e-001 4.638472e-001 -1.468181e+000
<VARIANCE> 39
 6.189148e-001 7.939081e-001 1.205743e+000 1.320854e+000 8.216306e-001 1.113022e+000 1.260981e+000 2.356078e+000 1.534861e+000 5.927808e-001 9.632592e-001 1.337614e+000 2.320503e-001 8.404748e-001 2.302239e+000 1.787654e+000 1.702406e+000 1.524084e+000 1.547603e+000 1.304640e+000 2.107752e+000 1.915632e+000 5.991100e-001 1.246052e+000 9.596106e-001 8.304718e-001 5.508540e-001 9.098157e-001 1.670605e+000 1.656629e+000 1.867759e+000 6.888496e-001 8.877642e-001 1.620015e+000 7.253317e-001 6.478237e-001 7.809508e-001 7.483729e-001 9.418736e-001
<GCONST> 7.449340e+001
<MIXTURE> 16 5.340694e-003
<MEAN> 39
 -1.242692e+000 -6.480027e-001 4.409408e-001 -7.354321e-001 -6.393793e-001 -1.651193e+000 8.661338e-001 1.439738e+000 -4.283676e-001 -4.340466e-001 9.096262e-001 5.658494e-001 7.213967e-001 5.050061e-001 -2.855391e+000 4.642656e+000 -1.985196e+000 -4.057435e+000 -1.864670e+000 -3.802759e-001 2.928161e+000 -5.411377e+000 -5.629496e+000 -2.474454e+000 -2.206780e+000 3.485787e+000 3.222492e+000 5.497200e-001 -1.089662e-001 -6.792843e-001 4.329914e-002 2.370739e+000 -2.300283e+000 -1.253506e+000 -5.103713e-001 1.424273e-001 -2.567640e+000 -6.527165e-001 -4.260169e+000
<VARIANCE> 39
 2.580940e-001 8.640250e-002 5.468855e-001 1.391619e+000 2.756805e+000 8.031399e-001 1.612792e+000 1.107029e+000 2.544024e+000 6.076061e+000 2.786402e-001 5.667997e-001 8.976374e-002 5.569860e+000 6.539907e+000 2.222634e-001 1.191363e+000 1.602799e+001 2.408254e+000 2.531991e+000 2.431613e+000 1.113592e+000 4.750029e+000 4.649586e+000 2.051865e+000 7.060013e+000 3.191321e+000 1.129541e+000 3.261135e+000 4.284272e+000 7.972208e+000 2.183299e-001 6.922421e-001 2.665933e+000 3.637852e+000 1.196986e+001 5.736750e-001 3.559774e-001 3.879578e+000
<GCONST> 8.969759e+001
<STATE> 3
<NUMMIXES> 16
<MIXTURE> 1 1.324214e-001
<MEAN> 39
 1.063100e-001 6.830028e-001 2.140548e+000 7.588060e-001 4.379015e-001 -4.397431e-001 6.003988e-001 1.712136e+000 -1.988840e+000 -6.519456e-001 2.088335e+000 -2.481089e-001 1.988580e+000 5.126941e-002 6.914788e-002 -2.491227e-002 -2.305961e-002 -2.182818e-003 -5.758722e-002 1.638311e-001 -5.861640e-002 4.101104e-002 -5.100780e-003 -1.156518e-001 -3.005440e-002 7.649539e-002 -2.681255e-002 3.180528e-002 5.029997e-003 -3.346390e-002 9.172985e-003 8.511862e-002 -5.615681e-003 3.170594e-002 1.348765e-001 -5.685389e-002 -2.344154e-002 -7.729603e-003 -1.461573e-002
<VARIANCE> 39
 5.139725e-002 9.680544e-002 1.849415e-001 1.873348e+000 6.794155e-001 1.059058e+000 5.923210e-001 7.410084e-001 1.120548e+000 2.983353e+000 6.502973e-001 2.815951e+000 1.000004e-002 2.190421e-001 3.181443e-001 1.730565e+000 2.301308e+000 1.086405e+000 2.417893e+000 3.315935e+000 2.895740e+000 3.116155e+000 2.794335e+000 2.876576e+000 2.835181e+000 9.999961e-003 2.562225e-001 4.613470e-001 2.143049e+000 2.331464e+000 8.781473e-001 2.722499e+000 3.694441e+000 3.165635e+000 3.170341e+000 2.742197e+000 2.969064e+000 2.967811e+000 9.999896e-003
<GCONST> 6.550943e+001
<MIXTURE> 2 1.251898e-001
<MEAN> 39
 7.222503e-002 -2.586974e+000 -1.062087e+000 -1.090521e+000 2.311926e-001 -1.345756e+000 -8.336491e-002 -1.884428e+000 -1.565471e+000 -1.848754e+000 -8.388759e-001 -1.257949e+000 2.319264e+000 5.553030e-002 3.160791e-001 2.410241e-001 -4.294150e-001 -7.934235e-001 1.636005e-001 6.782196e-001 -4.092912e-002 5.743992e-002 -3.114130e-002 -3.214188e-002 -1.672065e-001 -1.686427e-001 2.653800e-001 6.238655e-001 7.123031e-002 -3.297391e-001 -6.551484e-001 7.628559e-002 -1.476427e-001 8.699243e-002 -3.202374e-001 -4.306550e-001 -3.061896e-001 2.589891e-002 -5.203303e-001
<VARIANCE> 39
 8.008676e-001 8.803675e-002 2.137259e+000 1.303167e+000 2.168415e+000 1.894983e+000 2.633891e+000 7.938165e-001 6.300266e-001 5.665274e-001 2.996012e+000 2.114415e+000 7.183020e-002 2.765278e-001 4.890316e-001 7.306238e-001 1.924503e+000 1.428759e+000 1.810644e+000 1.561599e+000 1.254471e+000 1.463486e+000 1.678003e+000 1.747903e+000 1.817063e+000 2.254085e-001 4.629180e-001 8.517328e-001 9.637886e-001 2.043984e+000 1.142376e+000 1.311391e+000 1.339616e+000 1.218925e+000 1.466998e+000 1.176483e+000 1.377700e+000 1.847208e+000 2.097228e-001
<GCONST> 7.146955e+001
<MIXTURE> 3 1.923038e-001
<MEAN> 39
 9.926300e-001 -9.980705e-001 -8.903918e-001 -3.577000e-002 -7.743838e-001 3.173535e-001 -3.366584e-001 -5.180667e-001 -1.440130e-001 -9.192135e-001 -9.761947e-001 -5.014388e-001 1.094241e+000 -1.635859e-002 1.443640e-001 1.648674e-002 -9.974819e-002 -1.591275e-001 1.183099e-001 -3.368552e-002 1.460051e-002 -2.060504e-002 -1.479430e-001 3.894651e-002 -3.958200e-002 4.182306e-002 -6.651675e-002 5.006754e-002 9.576796e-003 -8.053422e-002 -1.418893e-002 -4.808719e-002 9.971736e-002 -1.972585e-002 -3.326901e-002 -2.921729e-002 -1.862578e-002 2.605838e-002 -1.382664e-003
<VARIANCE> 39
 1.242874e-001 1.838302e-001 5.209897e-001 2.867337e-001 2.550958e-001 6.199405e-001 1.082819e+000 5.387467e-001 8.252836e-001 3.469187e-001 2.508065e-001 7.003521e-001 2.606892e-002 4.990222e-002 4.382655e-001 3.545028e-001 4.103679e-001 2.766277e-001 3.145444e-001 4.720234e-001 3.842189e-001 6.266638e-001 4.440105e-001 3.731854e-001 4.224450e-001 4.562653e-002 8.521874e-002 3.384864e-001 3.737768e-001 4.023907e-001 3.087473e-001 3.486185e-001 3.856230e-001 3.625016e-001 6.163232e-001 4.512197e-001 3.824157e-001 4.027624e-001 7.844488e-002
<GCONST> 2.553103e+001
<MIXTURE> 5 3.395737e-003
<MEAN> 39
 -1.954011e+000 1.018774e+000 -5.336835e-001 -2.605696e+000 2.179419e-001 -1.250902e+000 2.994059e-001 2.048996e+000 -8.733987e-001 -2.207101e+000 -2.118423e+000 -1.854429e+000 1.546349e+000 -2.205662e+000 6.934006e-001 4.983272e-001 -1.090120e+000 -7.356687e-001 4.650563e-001 -3.581262e-001 -4.920943e-001 -3.874941e-001 -4.394479e-001 -3.841233e-001 -1.561305e+000 2.973102e-001 2.876659e+000 -1.611640e+000 4.984089e-001 2.497410e+000 -1.177295e+000 -6.202851e-001 -4.200005e-001 -1.924755e+000 -4.389496e-001 8.932963e-001 9.278168e-002 6.550059e-002 3.189581e-001
<VARIANCE> 39
 1.000004e-002 1.147698e-002 8.564966e-002 3.552270e-002 8.033732e-002 3.682484e-001 1.000001e-002 2.530122e-002 5.049827e-002 9.999962e-003 9.999943e-003 2.375754e-002 1.000004e-002 2.973612e-001 2.918530e-002 8.124910e-002 6.989834e-001 1.000000e-002 9.999997e-003 4.610277e-002 8.747170e-001 4.410058e-001 7.033008e-002 1.472832e-002 3.402540e-001 9.999961e-003 1.532378e-001 5.049945e-001 9.999952e-003 5.639412e-001 2.033985e-001 7.269512e-001 9.999976e-003 1.550090e-002 2.817041e-001 3.157347e-001 2.506381e-001 6.110891e-002 4.807037e-002
<GCONST> -3.699917e+001
<MIXTURE> 6 1.188624e-002
<MEAN> 39
 8.134173e-001 -1.397305e+000 1.144582e+000 -2.120390e+000 -1.896834e+000 -8.012291e-001 1.226256e+000 7.453160e-001 -1.372773e+000 1.178122e-001 -2.472136e+000 3.701354e-002 1.657522e+000 -3.782399e-001 1.465154e+000 9.330419e-001 1.013533e+000 1.361109e+000 -1.382411e+000 -7.009856e-001 -1.338031e-002 1.880731e+000 -5.119851e-001 1.463147e+000 3.650056e-001 -6.380308e-001 -2.137029e+000 1.329100e+000 -2.031842e+000 1.772524e+000 1.254251e+000 9.943227e-001 -6.237878e-001 -1.135104e+000 9.011315e-001 6.662865e-002 1.551820e+000 1.327952e+000 -6.618397e-001
<VARIANCE> 39
 1.491262e+000 9.623402e-001 1.992494e+000 4.188421e-001 1.094158e+000 2.779156e-001 1.571347e-001 1.900197e+000 5.798635e-001 4.087582e+000 6.328431e-001 4.738033e-001 6.657051e-002 1.676288e+000 2.088926e+000 1.800014e+000 3.169209e+000 4.084682e+000 7.693835e-001 1.354364e+000 1.323926e+000 3.453018e-001 3.387430e+000 3.022291e+000 2.372477e+000 2.496871e-001 1.826582e+000 3.754318e+000 8.804464e-001 1.024418e+000 2.957595e+000 6.663356e-001 8.843166e-001 1.125016e+000 4.529796e-001 4.264866e+000 2.245776e+000 3.017496e+000 4.878216e-001
<GCONST> 7.621965e+001
<MIXTURE> 8 1.018740e-002
<MEAN> 39
 3.698602e-001 1.522339e-002 1.119725e+000 -1.565352e+000 -1.421442e+000 -1.708033e+000 5.226005e-001 -1.362172e+000 2.019300e+000 -3.292330e+000 -9.757226e-001 8.027720e-001 1.662950e+000 -7.367010e-001 3.668505e-001 2.251800e+000 1.613379e+000 -1.073629e+000 -6.002351e-002 -1.358029e+000 1.676665e+000 -3.919427e-001 -1.014589e+000 7.415668e-001 7.686026e-001 -5.847652e-001 -1.064332e+000 -7.872271e-001 -2.902986e-001 2.931494e-001 1.341028e-001 2.253036e-001 -4.084579e-002 4.868878e-001 -4.485700e-001 1.500480e+000 -4.839345e-001 -2.886437e-001 -1.556883e-002
<VARIANCE> 39
 1.000004e-002 3.206984e-002 8.209583e-001 4.087667e-001 2.192412e-001 1.412159e-002 8.564295e-001 8.263023e-001 3.173956e-001 3.623412e+000 2.847697e-001 2.791260e+000 1.084575e-002 4.069989e-001 2.319650e-001 5.304925e-001 2.301223e-001 6.573370e-001 1.407911e-001 8.976688e-001 9.918728e-001 1.441819e+000 4.311793e+000 1.149829e+000 3.912523e+000 2.959823e-002 1.426590e+000 3.785225e-001 2.809756e+000 1.168041e-001 1.290051e+000 3.964916e-002 2.943663e+000 2.287711e+000 2.504808e+000 9.348845e+000 8.153844e-001 6.882061e+000 1.800354e-001
<GCONST> 4.502232e+001
<MIXTURE> 9 6.791477e-003
<MEAN> 39
 8.432371e-001 -8.493407e-001 -9.202580e-001 1.143896e+000 -1.388533e+000 1.814173e-001 -3.085499e-001 -5.819233e-002 -2.733613e+000 -2.308059e+000 -2.183556e+000 1.363893e-001 1.714517e+000 -3.152596e+000 2.754196e+000 3.622476e-001 -2.083246e+000 4.012038e+000 7.641906e-004 2.460668e+000 -6.051461e-001 3.845970e-001 3.216286e-002 -1.208728e-001 6.316137e-001 -9.596046e-001 -3.669303e+000 1.788860e+000 -6.480864e-001 -3.348019e+000 9.410878e-003 -5.225588e-001 2.200641e-001 8.906136e-001 9.151648e-001 1.782148e+000 1.399030e+000 -1.059735e+000 9.132522e-002
<VARIANCE> 39
 7.852237e-001 1.001864e+000 2.706581e-001 2.940901e-001 6.249366e-001 2.445925e-001 4.790601e-001 1.932353e-001 6.558444e-002 2.484805e-001 9.904687e-001 2.061687e+000 2.473473e-001 9.936208e-001 1.063207e+000 1.244336e-001 1.458091e+000 6.859633e-001 8.137822e-001 1.650749e-001 9.383724e-002 3.191173e-001 1.598075e+000 7.997532e-001 3.671942e-001 3.544991e-001 3.696535e-001 6.394900e-001 1.652964e-001 3.074493e-001 2.230966e+000 5.509531e-001 1.524889e+000 2.678554e-001 5.903990e-001 9.383776e-001 1.432381e-001 9.186847e-001 1.593861e-001
<GCONST> 4.094454e+001
<MIXTURE> 10 6.791485e-003
<MEAN> 39
 -6.049637e-001 4.724180e-001 -9.460322e-001 -1.256768e+000 -8.433028e-003 -2.015522e+000 6.777380e-001 5.444921e-001 -7.300688e-001 -1.948243e+000 -2.044440e+000 2.810272e-001 1.389550e+000 -4.846303e+000 3.311558e+000 3.408815e-001 -4.430682e+000 2.069710e+000 -9.384640e-001 2.854759e-001 1.538752e+000 1.177760e+000 1.271165e+000 8.048255e-001 -2.941055e-001 -4.158832e-001 7.415168e-001 -1.618997e+000 1.264176e-001 4.030995e-001 -2.574869e+000 6.922385e-001 -1.614600e+000 7.578863e-001 -1.031424e+000 -1.057985e-001 -4.055605e-001 -1.626964e+000 1.218420e+000
<VARIANCE> 39
 5.908822e-001 1.983313e-001 5.062757e-002 3.966724e-001 3.056281e-001 2.933524e-001 1.638565e-001 1.056767e+000 3.246262e-001 1.722837e-001 2.247427e-001 3.267680e+000 2.879763e-002 2.496559e-001 1.223039e+000 6.843369e-002 1.379780e+000 7.456219e-001 1.412616e+000 1.971753e-001 3.387330e-002 2.269520e+000 1.081843e+000 6.653772e-001 8.455865e-001 2.984851e-001 2.728297e+000 2.274529e+000 4.803080e-002 3.852058e+000 4.470464e-001 1.270614e+000 5.172800e-001 2.090160e+000 8.035256e-001 3.041526e+000 7.970039e-001 8.432736e-001 4.297047e-002
<GCONST> 4.233069e+001
<MIXTURE> 11 2.566101e-001
<MEAN> 39
 1.677036e+000 -2.214445e+000 -4.522254e-001 -1.280827e+000 2.226989e-001 -6.260516e-001 -1.118129e-001 6.968476e-001 -2.565423e-001 -1.043314e+000 -7.359447e-001 -1.701358e+000 2.119374e+000 -8.525945e-002 7.155919e-002 2.571579e-001 -8.300330e-002 -5.163175e-001 -4.084914e-001 -4.191783e-002 3.002720e-001 2.285662e-001 4.831605e-002 -1.561371e-001 1.549053e-002 9.366328e-002 -2.204173e-002 3.569582e-001 2.287781e-001 2.234136e-001 -3.031081e-001 -6.140063e-002 -1.073863e-002 3.305639e-002 2.176060e-001 5.339942e-002 2.685109e-002 2.505580e-001 -1.997981e-001
<VARIANCE> 39
 7.980714e-001 1.756080e-001 1.071510e+000 6.302316e-001 2.411679e+000 2.280619e+000 2.238824e+000 1.872360e+000 2.143354e+000 1.521831e+000 1.382213e+000 1.240672e+000 1.768839e-001 1.383519e-001 1.941543e-001 8.146743e-001 6.565241e-001 6.610103e-001 6.346326e-001 7.072777e-001 6.743174e-001 8.054299e-001 5.249936e-001 7.483357e-001 7.509778e-001 5.668039e-002 2.184300e-001 3.340013e-001 8.419061e-001 5.237432e-001 5.623866e-001 5.612475e-001 7.219095e-001 6.402807e-001 5.612739e-001 4.718684e-001 6.233761e-001 8.778235e-001 9.296509e-002
<GCONST> 5.261893e+001
<MIXTURE> 12 2.038141e-002
<MEAN> 39
 2.323109e-001 -8.561625e-001 2.867547e-001 -7.195734e-001 -2.567999e+000 -1.603638e+000 -1.264314e+000 1.440512e+000 -1.399319e+000 -3.452357e-001 -4.172808e-001 9.409247e-002 1.619312e+000 -8.091356e-001 1.512954e+000 2.574370e-001 1.006837e+000 1.179334e+000 -5.261561e-001 5.256327e-001 -1.268052e+000 2.892935e-001 -1.353523e-001 -3.892823e-001 2.635961e-001 -4.489594e-001 -1.603191e+000 1.707846e+000 -1.433564e+000 -8.002017e-001 1.894098e+000 1.184015e+000 2.167184e+000 -1.137833e+000 7.667663e-001 -9.380251e-001 -7.502496e-001 -5.968401e-001 -2.689688e-001
<VARIANCE> 39
 1.337619e+000 1.559418e+000 1.284700e+000 7.833130e-001 1.158989e+000 3.769806e-001 8.493755e-001 3.275050e+000 1.017041e+000 1.534258e+000 2.363472e+000 1.398667e+000 1.713416e-001 1.515703e+000 1.982827e+000 1.816700e+000 1.223021e+000 3.155323e+000 3.061926e+000 2.160573e+000 1.782401e+000 1.706186e+000 2.023977e+000 1.856857e+000 1.456120e+000 3.370714e-001 1.488520e+000 1.324975e+000 8.451716e-001 3.121549e+000 2.954365e+000 1.083166e+000 2.117194e+000 3.098668e+000 1.375036e+000 1.592086e+000 3.251410e+000 1.539692e+000 8.244745e-001
<GCONST> 8.604674e+001
<MIXTURE> 13 3.615406e-002
<MEAN> 39
 2.234611e+000 -2.721713e+000 -5.662394e-001 -1.128159e+000 -8.531347e-001 3.404939e-001 -1.318316e-001 7.007368e-001 1.244270e+000 -1.159847e+000 -9.280494e-001 -1.464859e+000 2.913002e+000 1.019674e+000 -1.340297e+000 1.846356e-001 -1.235006e+000 -6.574385e-001 -2.456574e-001 -5.186328e-001 5.263293e-001 -1.594937e-001 -2.981724e-001 1.108796e-001 -1.289019e+000 2.065303e+000 -1.975455e+000 5.469310e-001 4.317596e-001 4.938039e-001 4.333058e-001 8.006198e-002 4.201088e-001 1.624366e-001 -2.167271e-001 -4.304294e-001 7.008226e-002 7.156340e-001 -2.320163e+000
<VARIANCE> 39
 3.651100e-001 8.328213e-001 1.564023e+000 1.238515e+000 2.493224e-001 1.855935e+000 4.174534e+000 1.897000e+000 4.161287e-001 3.580557e-001 1.337218e+000 1.415580e+000 7.424259e-001 2.840746e+000 9.577909e-001 1.868900e+000 6.229872e-001 8.295375e-001 7.543292e-001 6.957512e-001 1.272527e+000 3.457702e-001 5.492497e-001 1.119493e+000 1.809325e+000 3.942312e+000 1.532538e+000 1.851340e+000 1.832932e+000 9.577401e-001 5.032711e-001 6.539384e-001 6.525029e-001 1.509176e+000 7.790998e-001 1.346349e-001 7.861720e-001 7.304108e-001 1.492878e+000
<GCONST> 6.993191e+001
<MIXTURE> 14 3.059075e-002
<MEAN> 39
 6.456530e-001 -2.786280e+000 -6.815733e-001 -8.420532e-001 -6.561003e-001 -8.250237e-001 -1.116522e+000 -2.031721e+000 -2.294033e+000 -3.158626e+000 -1.330898e+000 -9.105761e-001 2.360190e+000 1.691348e-001 -1.378562e+000 -2.031234e-001 -4.951133e-001 -3.498891e-001 -3.301988e-001 8.786073e-001 -9.137364e-001 -2.443395e-001 -2.921097e-001 -1.280416e+000 -9.621967e-001 2.093776e+000 -1.434119e+000 9.592723e-001 1.613103e+000 6.087311e-001 1.334399e+000 4.819364e-001 6.132939e-001 2.220620e+000 1.780037e+000 2.065211e+000 1.481765e+000 6.875043e-001 -2.304667e+000
<VARIANCE> 39
 1.241100e+000 2.676412e-001 1.600342e+000 5.755513e-001 1.314744e+000 5.599264e+000 1.751106e+000 1.672345e+000 3.784482e-001 8.652197e-001 4.958389e+000 2.169020e+000 1.574866e-001 2.009002e+000 2.601537e+000 2.994223e+000 1.591824e+000 2.629769e+000 1.710794e+000 2.353775e+000 3.037215e+000 1.470365e+000 2.444800e+000 3.273831e+000 3.616124e+000 1.355862e+000 6.752248e-001 3.478949e+000 8.961731e-001 9.854928e-001 1.468699e+000 3.447821e+000 3.874543e+000 2.669209e+000 9.176656e-001 9.571731e-001 2.148044e+000 2.669186e+000 1.287143e+000
<GCONST> 9.027271e+001
<MIXTURE> 15 1.188440e-002
<MEAN> 39
 -6.411610e-001 -1.333403e+000 -6.306989e-001 1.882327e-001 8.382230e-002 -9.635630e-001 -1.266476e+000 -1.411240e+000 -1.324591e+000 -1.808955e+000 6.926284e-001 5.519385e-002 1.377258e+000 1.760636e+000 -1.139352e+000 -9.564307e-001 -1.640291e+000 -2.497881e+000 -2.806559e+000 -2.503094e+000 -4.080241e+000 -2.395052e+000 -2.635902e+000 -1.515124e+000 -1.567618e-002 2.446423e+000 -4.631985e-001 -2.810771e+000 -1.979551e-001 4.871450e-001 -7.204702e-002 -4.584738e-001 4.723915e-001 4.477429e-001 6.442441e-001 1.449279e+000 9.569848e-002 5.806701e-001 6.402079e-001
<VARIANCE> 39
 4.230990e-001 1.543047e-001 4.629239e+000 1.160930e+000 1.746349e+000 1.702747e+000 2.383874e+000 2.223317e-001 3.310471e-001 1.700973e-001 2.288433e+000 1.022482e+000 5.260645e-002 4.015220e-001 1.447029e+000 9.843338e-001 6.918675e-001 1.934880e+000 3.214507e+000 4.918497e-001 7.935091e-001 8.550701e-001 7.337576e-001 1.493821e+000 5.930589e+000 7.946034e-001 2.170350e+000 1.368740e+000 4.326170e+000 2.841851e+000 6.041564e+000 4.765736e+000 4.452683e+000 3.021608e+000 1.539302e+000 7.247655e-001 1.947773e+000 2.194852e+000 8.836393e-001
<GCONST> 7.855402e+001
<MIXTURE> 16 1.554120e-001
<MEAN> 39
 8.226314e-001 -1.555031e+000 -1.707340e+000 -1.979731e-001 -1.498006e+000 -7.228967e-001 4.228780e-001 -1.282072e+000 -1.052606e+000 -1.107229e+000 -1.533711e+000 5.738685e-001 1.751418e+000 -8.008678e-002 3.325786e-001 3.910934e-001 -3.186409e-001 -4.815457e-001 -2.311725e-001 2.707287e-001 2.436564e-002 1.633356e-001 -2.411505e-002 1.397082e-001 -3.594981e-002 -4.701451e-002 5.812517e-002 3.617955e-001 3.758934e-001 -6.474292e-002 2.800156e-001 -2.782964e-001 -3.741616e-002 6.361207e-002 4.903257e-002 -7.772736e-002 1.776637e-001 -4.789074e-001 -1.854493e-001
<VARIANCE> 39
 6.126872e-001 2.051519e-001 4.468857e-001 1.598334e+000 1.111878e+000 1.385097e+000 2.363858e+000 8.477778e-001 1.953844e+000 8.772033e-001 1.643531e+000 1.350525e+000 1.347060e-001 2.418998e-001 8.612493e-001 5.824705e-001 7.741598e-001 1.204804e+000 1.303271e+000 1.400767e+000 8.770665e-001 1.090677e+000 1.129088e+000 8.641413e-001 1.154843e+000 7.079414e-002 3.580345e-001 8.816002e-001 7.075911e-001 7.931125e-001 1.595223e+000 1.458426e+000 1.167416e+000 8.775415e-001 1.124147e+000 1.549049e+000 1.046228e+000 8.536853e-001 7.783272e-002
<GCONST> 6.260161e+001
<STATE> 4
<NUMMIXES> 16
<MIXTURE> 1 7.966451e-003
<MEAN> 39
 -1.764561e+000 -3.445869e-002 2.217636e-001 -6.689403e-001 -4.146184e-001 -9.838012e-001 2.370217e-001 1.699447e-001 -7.566813e-001 7.024033e-001 -3.869247e-002 -1.913566e+000 1.433878e+000 -1.351887e+000 -1.616691e+000 -1.573599e+000 -1.194645e-001 1.169157e+000 1.130800e-001 2.690471e-001 -2.902731e-001 -1.364632e-002 8.433848e-001 1.192887e-001 -4.185280e-001 4.512675e-001 1.039527e+000 1.588962e+000 9.890655e-001 -1.172834e+000 -4.745867e-001 5.509003e-001 -8.016713e-001 7.316234e-001 2.244215e+000 -2.018603e+000 8.636707e-001 1.972628e+000 3.573822e-001
<VARIANCE> 39
 8.456964e-002 2.052473e+000 1.729215e+000 1.929113e+000 1.309717e+000 5.069126e-001 3.603367e-002 2.716536e-001 2.136871e+000 1.245728e+000 5.719595e-001 1.517489e+000 1.172654e-002 2.297695e+000 4.693854e-001 5.955825e-001 1.389452e-001 3.549297e-001 1.840839e-001 5.791309e-001 6.348611e-002 1.745133e+000 5.698922e-001 5.175319e+000 6.104608e-001 1.062737e-001 2.455045e+000 4.425355e-001 6.969603e-001 3.837076e-001 4.551280e-001 7.326918e-002 1.533418e-001 5.106483e-001 2.993854e-001 3.503428e+000 1.796851e+000 8.971377e-002 6.719724e-002
<GCONST> 4.128022e+001
<MIXTURE> 2 1.508628e-001
<MEAN> 39
 6.699024e-001 -1.465883e+000 -8.308917e-001 -9.738005e-001 -1.001274e+000 -9.405973e-001 -2.042114e-001 -1.240021e+000 -1.621102e+000 -5.006348e-001 -8.114523e-001 -1.113127e+000 1.541895e+000 1.231689e-002 4.889659e-001 4.792744e-001 -4.835063e-001 -2.679325e-001 6.955915e-002 1.620997e-001 2.280891e-001 -1.636961e-001 9.895661e-002 -1.357608e-001 -1.940583e-001 -1.553172e-001 6.932481e-002 2.179052e-001 1.871477e-001 -5.415032e-002 -1.360400e-001 1.512879e-002 -1.225468e-001 1.038821e-001 1.751410e-001 -4.753189e-002 -1.622398e-001 5.220519e-002 -6.167856e-002
<VARIANCE> 39
 1.053081e-001 6.195954e-001 1.328770e+000 2.832134e-001 4.645042e-001 4.584657e-001 6.079196e-001 4.075141e-001 3.387981e-001 1.371903e+000 4.992709e-001 1.158372e+000 7.772002e-002 5.899810e-002 3.064411e-001 7.664581e-001 6.174323e-001 3.977743e-001 4.101439e-001 9.218279e-001 8.201453e-001 1.079000e+000 5.188355e-001 7.031606e-001 1.188109e+000 5.563108e-002 1.068409e-001 4.426192e-001 7.303685e-001 6.103790e-001 3.824758e-001 4.751607e-001 1.023584e+000 6.753743e-001 1.196508e+000 4.907129e-001 6.933294e-001 9.287661e-001 5.815152e-002
<GCONST> 4.090600e+001
<MIXTURE> 3 2.828389e-001
<MEAN> 39
 -2.262875e+000 1.568830e+000 8.605270e-001 -1.947458e+000 -2.624282e-001 1.158069e-001 7.151607e-002 1.141491e-001 -7.178776e-001 -1.027408e+000 -2.728517e-001 -2.982960e-001 1.546624e+000 -4.524515e-001 1.073852e-001 5.170130e-001 3.064739e-001 2.911186e-001 4.166008e-001 -5.141757e-002 -5.181495e-002 2.787179e-001 2.837936e-001 2.721829e-001 1.150929e-001 -2.433340e-002 3.671038e-001 -5.472288e-002 -3.086821e-001 1.543915e-001 1.217919e-001 -2.297165e-001 8.315354e-003 -4.904203e-002 8.038315e-002 2.298962e-001 -1.819488e-002 1.275699e-002 -1.644817e-001
<VARIANCE> 39
 3.834738e-001 3.176457e-001 2.088775e+000 4.147149e-001 1.397808e+000 1.438853e+000 1.824430e+000 1.246849e+000 1.064714e+000 1.123755e+000 1.780205e+000 1.389704e+000 3.592804e-002 2.709300e-001 5.248829e-001 1.208952e+000 8.563115e-001 8.754544e-001 1.238501e+000 1.579210e+000 1.308278e+000 1.463266e+000 1.732589e+000 1.440153e+000 1.301954e+000 7.208987e-002 3.319047e-001 7.588212e-001 1.325456e+000 1.083202e+000 1.042947e+000 1.242827e+000 1.772471e+000 1.277688e+000 1.127875e+000 1.667578e+000 1.662931e+000 1.233944e+000 1.575726e-001
<GCONST> 6.608995e+001
<MIXTURE> 4 1.328682e-001
<MEAN> 39
 1.603058e+000 -2.030364e+000 4.301648e-001 -1.204356e+000 -1.227258e+000 -1.189762e+000 2.475289e-001 1.431619e+000 1.086175e+000 -1.165640e+000 -1.166096e+000 -1.105521e+000 2.361513e+000 -2.753733e-001 1.467965e+000 9.384170e-001 4.377744e-001 -7.876440e-001 -6.089917e-001 -8.196779e-002 -1.397562e-001 1.771033e-001 4.592279e-001 5.079761e-001 9.571347e-001 -6.516992e-001 -1.568482e-001 1.005380e+000 1.629738e-001 1.781293e-001 4.549616e-001 3.464221e-001 -1.081018e-001 -6.495401e-001 -3.788795e-001 2.648095e-001 3.230239e-001 1.913888e-001 -5.467729e-001
<VARIANCE> 39
 5.820083e-001 9.258052e-001 1.133251e+000 6.085171e-001 1.807134e+000 2.196411e+000 3.289909e+000 2.240972e+000 1.496996e+000 9.178953e-001 9.795820e-001 1.714484e+000 7.172182e-001 2.261223e-001 9.725895e-001 1.784846e+000 8.222817e-001 1.490862e+000 9.146518e-001 1.818077e+000 1.458957e+000 5.526946e-001 1.533475e+000 9.263206e-001 1.420209e+000 2.030846e-001 5.047854e-001 8.306137e-001 1.484467e+000 6.322280e-001 1.281121e+000 1.094792e+000 1.596048e+000 1.334782e+000 6.456558e-001 1.515939e+000 7.609304e-001 1.759318e+000 1.827501e-001
<GCONST> 7.196955e+001
<MIXTURE> 5 1.805447e-002
<MEAN> 39
 1.139796e+000 -3.884180e-001 2.363262e+000 -8.483286e-001 -1.965692e+000 -1.956381e+000 -1.176166e+000 7.991663e-001 -8.099051e-001 1.681369e+000 -1.352449e+000 1.206401e-001 1.691267e+000 -2.825392e+000 3.502255e+000 6.539165e-002 1.378230e+000 1.255337e+000 4.694840e-001 2.330212e+000 -2.670455e+000 1.646404e+000 -8.126335e-001 1.498236e+000 1.373653e-001 -1.032263e+000 -3.228538e+000 7.125531e-001 -2.400159e+000 -9.700713e-001 1.778832e+000 1.544582e+000 1.475981e+000 6.057453e-001 8.706211e-001 -1.935966e+000 7.378047e-001 -1.088937e+000 -1.408956e-001
<VARIANCE> 39
 6.831641e-001 4.110887e-001 8.615671e-001 5.249593e-001 1.173245e+000 4.288745e-001 1.207264e+000 7.025726e-001 1.256195e+000 3.572686e+000 9.003296e-001 4.710668e-001 1.270158e-001 8.972598e-001 1.122077e+000 2.782960e+000 2.751700e+000 2.131965e+000 7.668666e-001 8.634657e-001 8.585348e-001 2.157059e+000 2.079323e+000 1.968773e+000 8.092104e-001 1.893764e-001 8.937047e-001 1.360286e+000 8.809813e-001 1.469964e+000 1.301603e+000 7.395806e-001 1.718112e+000 1.439445e+000 7.262018e-001 1.493861e+000 3.882809e-001 1.054786e+000 4.591643e-001
<GCONST> 6.961146e+001
<MIXTURE> 6 9.413423e-002
<MEAN> 39
 7.534124e-001 -1.195631e+000 -4.922385e-001 -2.229377e+000 -2.045568e+000 -1.590569e+000 5.366855e-001 -1.893074e+000 -1.600790e+000 -1.888363e+000 -1.696494e+000 -1.321005e+000 1.590994e+000 1.187935e-001 2.544168e+000 9.288341e-001 -7.326106e-001 -8.880707e-001 -4.436955e-001 -4.716088e-001 1.665519e-002 1.322620e-001 4.605296e-002 -5.364924e-001 -2.238821e-001 -7.702714e-001 -9.990312e-001 7.301008e-001 4.312220e-002 7.757612e-001 1.067740e+000 7.123463e-001 -7.107556e-001 -4.388589e-002 -2.619516e-001 7.192200e-001 5.816045e-001 3.387125e-001 -1.666750e-001
<VARIANCE> 39
 8.436800e-001 5.868034e-001 7.347678e-001 7.089170e-001 1.453573e+000 1.041667e+000 1.663029e+000 5.509163e-001 8.646978e-001 1.162460e+000 1.103307e+000 9.402148e-001 9.596726e-002 5.030792e-001 1.321576e+000 1.274981e+000 2.401085e+000 1.673835e+000 1.667420e+000 2.262235e+000 1.162728e+000 2.549717e+000 1.631744e+000 2.707228e+000 9.741117e-001 3.584972e-001 1.157738e+000 1.920204e+000 1.122034e+000 1.104148e+000 1.707028e+000 2.615168e+000 1.680820e+000 1.206821e+000 2.122145e+000 1.716483e+000 2.221477e+000 1.823572e+000 3.519738e-001
<GCONST> 7.728495e+001
<MIXTURE> 7 7.966463e-003
<MEAN> 39
 9.070629e-001 -1.159303e+000 1.388024e+000 -1.996770e+000 -1.704458e+000 1.045815e+000 1.057351e+000 -1.373600e+000 -2.076648e+000 -2.318353e+000 -2.048035e+000 -2.654468e+000 1.903937e+000 -8.821238e-001 6.944845e-001 2.968709e+000 -4.263130e-001 1.279622e+000 -3.958311e-001 2.794360e+000 -2.132346e-002 -1.000583e-001 3.678531e+000 -3.893338e-001 -9.384087e-001 -6.876958e-001 -1.117242e+000 -2.858161e-001 7.746480e-001 1.073018e+000 6.703004e-001 -1.991996e+000 -2.230001e+000 1.290282e+000 2.144996e+000 1.497073e+000 2.134097e+000 1.189553e+000 -1.217230e+000
<VARIANCE> 39
 5.631295e-001 1.090308e+000 1.225548e-001 1.047147e-001 1.002532e+000 3.364065e-001 1.913130e+000 4.326964e+000 7.004940e-001 7.618531e-001 2.660776e-001 2.363415e+000 3.823814e-001 1.587358e-001 1.656037e+000 1.175047e+000 3.750980e-001 2.585348e-001 1.283184e-001 1.281745e+000 7.275783e-001 1.425259e+000 5.593966e-001 8.818763e-001 1.596164e+000 3.439471e-002 5.952095e-001 4.131573e-001 2.510086e+000 1.975228e+000 1.188245e-001 2.247603e-001 1.582820e+000 1.656952e+000 8.161978e-002 2.465016e+000 1.782609e+000 3.598999e+000 2.982049e-001
<GCONST> 5.350647e+001
<MIXTURE> 8 8.376141e-002
<MEAN> 39
 -1.596992e+000 1.221313e+000 -4.465074e-001 -1.736853e+000 2.340801e-002 -5.711510e-001 1.085208e+000 -1.626603e-001 -3.223874e-001 -7.235967e-001 -1.117191e+000 -5.002526e-001 1.381703e+000 -2.346398e+000 1.306217e+000 -5.434114e-001 -1.655256e+000 4.768353e-001 3.317249e-001 -4.734597e-001 6.499321e-001 4.141138e-001 3.301351e-001 4.345531e-001 4.884162e-002 3.034378e-001 2.037965e+000 -1.995175e+000 1.484705e+000 5.478070e-001 -1.019925e+000 -5.813857e-001 -8.828163e-001 3.717062e-002 -7.860147e-001 -1.177227e-001 1.082608e-001 2.129823e-001 5.746282e-001
<VARIANCE> 39
 2.783861e-001 5.424580e-001 2.583175e+000 8.582408e-001 1.141885e+000 1.312519e+000 1.342113e+000 1.602608e+000 2.760941e+000 8.246009e-001 8.669061e-001 2.533871e+000 6.147901e-002 1.563332e+000 1.655889e+000 2.000605e+000 1.642054e+000 1.770363e+000 1.332488e+000 1.919782e+000 1.834241e+000 1.643774e+000 2.695577e+000 1.217573e+000 2.405518e+000 2.893134e-001 8.531263e-001 1.370962e+000 1.380432e+000 3.406105e+000 1.332961e+000 1.567316e+000 2.128871e+000 3.198146e+000 2.745490e+000 1.894155e+000 2.071484e+000 2.631217e+000 7.559909e-001
<GCONST> 8.357896e+001
<MIXTURE> 9 4.744969e-002
<MEAN> 39
 2.448490e-001 5.801664e-002 2.501596e-001 -1.731019e+000 -1.353806e+000 -1.311510e+000 -1.123220e-001 -1.732804e+000 -2.128066e+000 -1.281743e+000 -1.308908e+000 -1.009933e+000 1.210088e+000 -3.014795e+000 2.760552e+000 -8.847645e-002 6.956559e-001 1.182949e+000 2.016093e+000 -2.581072e-001 1.789414e+000 -5.677092e-002 8.619286e-001 7.852525e-001 -2.709894e-001 -9.478142e-001 -1.297597e+000 -7.600061e-001 -9.001400e-001 -4.791201e-001 9.595486e-002 2.465770e-001 6.461250e-001 7.343507e-001 9.021502e-001 8.360513e-002 -3.345698e-001 1.990077e-001 6.376358e-001
<VARIANCE> 39
 7.958390e-001 5.324352e-001 1.355989e+000 1.200599e+000 8.946406e-001 8.013247e-001 2.444323e+000 1.268976e+000 8.743615e-001 8.334704e-001 6.940057e-001 1.596194e+000 3.865995e-001 6.604258e-001 1.203362e+000 4.869446e+000 3.281459e+000 1.736570e+000 1.143132e+000 3.409209e+000 1.085494e+000 2.486274e+000 1.739734e+000 2.012752e+000 9.984018e-001 5.093582e-001 1.767687e+000 1.577387e+000 3.846631e+000 2.721140e+000 1.063010e+000 2.483365e+000 3.648184e+000 1.474671e+000 1.463809e+000 1.128725e+000 1.389507e+000 9.543461e-001 5.814734e-001
<GCONST> 8.323338e+001
<MIXTURE> 10 1.991539e-002
<MEAN> 39
 6.645089e-001 8.088384e-001 1.561499e+000 -1.196120e+000 -6.559905e-001 -9.151658e-001 3.911112e-002 9.182554e-001 1.714390e+000 2.906846e-001 -1.250025e+000 -9.582276e-001 1.760954e+000 -4.088595e+000 1.363947e+000 1.692461e+000 -9.729614e-001 -9.499622e-001 2.788804e+000 -2.661751e-001 5.398967e-001 2.120678e-001 8.412899e-001 -4.357533e-001 -3.505763e-001 -6.857795e-001 -1.133835e+000 -1.774605e+000 -6.171414e-001 -1.493705e-001 -4.031274e-002 -4.108741e-001 1.312115e+000 -1.315493e+000 -4.131050e-002 -4.026808e-001 1.128592e+000 -6.625449e-001 1.132675e+000
<VARIANCE> 39
 1.404352e+000 1.250416e-001 5.314195e-001 2.070238e-001 4.073569e-001 2.171396e+000 7.915038e-001 5.171934e-001 7.647883e-001 5.138007e-001 4.309472e-001 1.413945e+000 3.923142e-002 1.987858e+000 1.450106e+000 6.797969e-001 2.786528e-001 2.934932e+000 7.573444e-001 3.140664e+000 2.021468e+000 7.847950e-001 8.776870e-001 2.184695e+000 2.002009e+000 7.832962e-001 5.745821e+000 3.037703e-001 1.521176e+000 1.000804e+000 1.431831e+000 2.119134e+000 1.554713e+000 1.867343e+000 9.381430e-001 7.170680e-001 1.000111e+000 2.929480e+000 5.294997e-001
<GCONST> 6.814322e+001
<MIXTURE> 11 3.385112e-002
<MEAN> 39
 -5.736221e-002 -2.277164e-001 1.101747e+000 -1.020182e+000 -2.790517e-001 -1.208498e+000 1.127600e+000 4.651539e-001 8.979921e-002 -9.613144e-001 -9.349088e-001 3.577755e-001 1.452346e+000 -4.075578e+000 2.508613e+000 -1.202622e+000 -1.200440e+000 1.788330e+000 6.435864e-001 1.620713e+000 -1.751994e+000 1.252711e+000 -5.501130e-001 4.250785e-001 -2.021739e-001 -1.024566e+000 -8.234884e-001 -7.223476e-001 -5.459626e-001 -1.331428e+000 -1.065703e+000 5.502946e-001 -9.098325e-001 5.672134e-001 -3.306162e-001 2.755505e-001 -2.151106e-001 -4.960615e-001 1.056898e+000
<VARIANCE> 39
 6.353243e-001 1.381665e+000 1.351144e+000 9.370714e-001 1.553206e+000 1.553753e+000 1.511202e+000 2.238855e+000 1.973522e+000 1.226407e+000 1.431807e+000 9.511625e-001 1.328404e-001 9.109359e-001 1.656220e+000 1.286506e+000 9.219705e-001 1.886258e+000 1.612707e+000 1.668725e+000 1.849943e+000 2.095633e+000 3.065041e+000 3.122474e+000 1.799544e+000 4.084482e-001 1.660979e+000 1.922480e+000 1.715808e+000 2.730939e+000 1.048722e+000 7.489229e-001 1.330701e+000 1.917603e+000 1.513945e+000 1.475149e+000 9.279741e-001 4.454562e-001 5.567952e-001
<GCONST> 8.130451e+001
<MIXTURE> 12 5.055465e-002
<MEAN> 39
 2.132778e+000 -6.290732e-001 9.406255e-001 -5.230541e-001 -1.547977e+000 -2.085893e+000 4.782127e-001 1.719960e-001 8.973939e-001 -7.676701e-001 6.090503e-001 -5.679742e-001 1.973118e+000 -4.819146e-001 1.668596e+000 1.569054e+000 5.626721e-001 6.244523e-001 9.227615e-001 -1.235820e+000 -3.324142e-001 -4.155222e-001 4.679127e-001 4.205009e-001 7.200679e-001 -1.228991e+000 -2.201066e+000 -3.837185e-001 -3.918617e-002 -7.507466e-001 8.090274e-001 7.729872e-001 -1.048994e-001 5.479443e-001 -3.879882e-001 -2.366682e-001 -1.374997e+000 -5.330554e-001 -1.817632e-001
<VARIANCE> 39
 4.971654e-001 6.122342e-001 1.540413e+000 1.147392e+000 1.813850e+000 8.945729e-001 2.691729e+000 1.971450e+000 1.673891e+000 4.759356e-001 2.033603e+000 1.066834e+000 1.899974e-001 6.946962e-001 2.061920e+000 2.289249e+000 1.072038e+000 2.784826e+000 1.147519e+000 1.078848e+000 2.235025e+000 4.855661e-001 1.232325e+000 1.794328e+000 2.059650e+000 4.651473e-001 1.820157e+000 6.867099e-001 1.594556e+000 3.809170e+000 2.454646e+000 1.484684e+000 1.635257e+000 1.699399e+000 7.873462e-001 9.214284e-001 1.227226e+000 1.596286e+000 7.259440e-001
<GCONST> 7.979760e+001
<MIXTURE> 13 1.394273e-002
<MEAN> 39
 8.787503e-001 -6.665011e-001 1.903140e+000 -2.829189e-001 -1.931266e+000 -2.520495e-001 -1.616030e+000 6.039575e-001 1.081563e+000 -1.057021e+000 -1.532337e+000 -1.605462e-001 2.152397e+000 -3.713561e+000 7.848557e-001 2.546636e-001 -1.378608e-001 1.616366e+000 2.288142e-001 3.246359e-001 -4.716406e-001 -6.287457e-001 3.057120e-001 -5.834366e-002 -1.662922e+000 -1.215731e+000 -2.223223e+000 -1.588983e+000 -1.311476e+000 -1.779796e+000 4.873351e-001 -6.205953e-001 1.399813e+000 2.513488e-001 5.383689e-003 -5.437720e-001 5.221212e-001 -1.069887e+000 3.754126e-001
<VARIANCE> 39
 9.959592e-001 9.781865e-001 7.451902e-001 6.208015e-001 3.431257e-001 1.516544e+000 2.452130e+000 1.301970e+000 7.000186e-001 1.547859e+000 2.508712e+000 7.391684e-001 2.671571e-001 2.404471e+000 3.915227e+000 2.315967e+000 2.165898e+000 9.329268e-001 1.413026e+000 6.645666e-001 7.332155e-001 2.161063e+000 1.306182e+001 1.085317e+000 2.271521e+000 7.735297e-001 1.656368e+000 3.969764e-001 1.213936e+000 1.512027e-001 3.507236e+000 2.085411e-001 1.061728e+000 2.276946e+000 4.745909e-001 2.639357e+000 1.438783e+000 2.703459e+000 4.088206e-001
<GCONST> 7.730827e+001
<MIXTURE> 14 3.990066e-002
<MEAN> 39
 1.697284e+000 -2.545336e+000 -4.012315e-001 -1.123971e+000 -2.524397e+000 -1.181812e+000 -9.060206e-001 1.046288e+000 -2.938591e+000 -2.271533e+000 -2.515852e+000 -2.284001e+000 2.723457e+000 1.244870e-001 1.269328e+000 4.287935e-001 -7.405562e-001 -1.788223e-001 -3.411334e-001 3.462919e-001 1.026523e+000 -2.646381e-002 -1.897234e-001 5.475969e-001 4.582274e-001 -4.135306e-001 -6.468546e-001 9.251392e-001 7.097437e-001 5.705208e-001 8.913648e-001 2.793455e-001 5.382804e-001 -1.002158e+000 8.958760e-001 3.651732e-001 8.193395e-002 4.062538e-001 -4.781048e-001
<VARIANCE> 39
 3.121781e-001 8.766469e-001 2.294789e+000 5.125491e-001 1.196680e+000 4.781289e-001 4.157013e+000 1.258466e+000 4.676078e-001 6.065062e-001 4.643376e-001 1.402540e+000 2.662428e-001 6.247180e-001 1.467642e+000 2.820664e+000 3.278172e+000 1.724082e+000 2.777617e+000 3.340456e+000 2.075888e+000 1.765193e+000 1.919971e+000 7.327761e-001 1.851109e+000 1.677967e-001 6.735579e-001 9.127789e-001 1.840790e+000 2.218855e+000 1.680193e+000 9.017125e-001 4.013848e+000 2.203399e+000 8.359866e-001 2.971335e+000 1.336399e+000 5.976470e-001 3.619332e-001
<GCONST> 7.719307e+001
<MIXTURE> 15 7.966459e-003
<MEAN> 39
 1.391055e+000 -1.900552e+000 2.012280e+000 -1.489904e+000 6.296384e-001 -1.758201e+000 3.117083e-001 2.133125e+000 -1.909654e+000 -1.209208e+000 -2.363495e+000 8.026186e-001 2.358308e+000 -1.122172e+000 6.285302e-001 3.265244e+000 -4.877797e-001 2.764180e+000 -2.690824e+000 -1.464628e+000 -7.945099e-001 2.140053e-001 2.910470e+000 -4.823096e-001 9.952376e-001 -1.053864e+000 -1.828549e+000 -6.415465e-001 -1.185978e+000 -1.874688e-001 8.862716e-001 7.426329e-001 2.478856e+000 4.227979e-001 -7.378191e-001 1.318597e+000 6.236151e-001 4.296657e-001 -4.185666e-001
<VARIANCE> 39
 2.852412e-001 1.130232e-001 3.208133e-001 1.188443e-001 4.118108e-001 2.104543e+000 5.055725e+000 6.171841e-001 3.043397e-001 3.123603e-001 4.007140e-001 2.816559e-001 1.078693e-002 7.723308e-001 3.730935e-001 3.609543e-001 8.218689e-001 1.636344e-001 1.461249e-001 6.745164e+000 1.799587e+000 1.072275e+000 3.175706e-001 4.604785e-001 4.254341e-002 7.360169e-002 1.862837e-001 3.607978e-001 3.690947e+000 9.076668e-001 5.447202e-001 2.064052e+000 3.948888e+000 1.709764e+000 8.949073e-001 1.497554e+000 5.685164e-001 2.217016e-002 4.804675e-002
<GCONST> 3.901040e+001
<MIXTURE> 16 7.966318e-003
<MEAN> 39
 -2.705731e-001 -1.899487e+000 -4.899985e-001 -2.379605e+000 -1.368346e+000 -6.176707e-001 2.480167e+000 -3.271396e+000 -1.730318e+000 -3.196048e+000 -1.372816e+000 -1.453726e+000 1.856055e+000 -3.876172e-001 9.883990e-001 2.161427e+000 -5.522005e-001 -2.061632e+000 1.180907e+000 1.571253e+000 -1.197843e+000 4.888891e-001 -5.240248e-002 -6.172037e-001 -4.722881e+000 -9.978852e-001 -2.897705e-001 1.678074e+000 -4.390720e-001 9.864694e-001 1.414793e+000 -2.256561e+000 -1.950623e+000 1.495602e+000 1.294505e-001 3.504225e+000 2.995756e-001 8.910262e-001 -3.007645e-001
<VARIANCE> 39
 1.974306e-001 1.417308e+000 5.868352e-001 3.992687e-001 1.129366e+000 3.817265e-002 1.664081e+000 1.098714e-001 2.944767e-001 9.636065e-001 3.132124e-001 2.676569e+000 9.215423e-002 4.233075e-001 1.209700e+000 2.190978e-002 3.651421e-001 2.597277e+000 1.593905e+000 4.337274e-001 1.550628e+000 9.048761e-001 3.190001e+000 1.010639e+000 1.904899e+000 1.003256e-001 2.347793e-001 5.596383e+000 4.756787e-001 4.323179e-001 1.554895e+000 5.544644e-001 3.099959e+000 4.713723e-001 1.003068e+000 4.100821e-001 1.342387e+000 8.947027e+000 4.081358e-002
<GCONST> 5.255224e+001
<STATE> 5
<NUMMIXES> 16
<MIXTURE> 1 1.271420e-001
<MEAN> 39
 -1.895687e+000 -6.130207e-001 8.636007e-001 -1.529931e-001 9.556718e-003 4.383303e-001 1.349330e+000 -6.808406e-001 8.283740e-001 7.838351e-002 9.359739e-001 -1.351955e-001 1.455907e+000 -1.623767e-001 3.013501e-001 1.196599e-001 -5.169427e-002 2.851385e-001 1.624722e-001 -3.550738e-001 -7.763907e-002 -3.577656e-001 -1.823294e-001 1.165991e-001 6.488279e-002 -8.549511e-002 3.232330e-001 2.621104e-001 -4.967946e-001 -2.844810e-001 1.371498e-001 2.470072e-001 -2.554070e-001 3.140917e-001 -2.263148e-001 -2.606590e-001 -4.234590e-001 -2.627741e-001 -2.631000e-001
<VARIANCE> 39
 3.818096e-001 3.434874e+000 3.805869e+000 1.520187e+000 3.440133e+000 2.801024e+000 2.088691e+000 1.237973e+000 1.054173e+000 1.797401e+000 1.096418e+000 1.716185e+000 1.905104e-001 3.577940e-001 7.053726e-001 1.341141e+000 1.726992e+000 1.379256e+000 2.242011e+000 1.900538e+000 1.747387e+000 1.655666e+000 1.610409e+000 2.421666e+000 1.687242e+000 1.975952e-001 8.145001e-001 9.279662e-001 1.642234e+000 1.637444e+000 1.355169e+000 2.183769e+000 2.021659e+000 2.118613e+000 2.152907e+000 1.810594e+000 2.599197e+000 1.648781e+000 4.265099e-001
<GCONST> 8.430389e+001
<MIXTURE> 2 4.519919e-002
<MEAN> 39
 5.789785e-001 -7.343461e-001 -6.179556e-001 -7.177643e-001 1.078132e-001 9.383066e-003 -3.485837e-001 4.716572e-001 -1.013736e+000 9.076385e-001 -1.004398e+000 3.719481e-001 6.435356e-001 -2.840449e-002 -5.209985e-002 7.940325e-002 7.144493e-002 -1.079902e-001 -2.618704e-001 -1.848420e-002 2.147404e-001 -1.695720e-001 -1.444200e-002 -1.714744e-001 1.619661e-001 -2.693176e-002 -1.433798e-002 5.157411e-002 7.158847e-002 3.380708e-002 -4.980116e-002 -1.248305e-001 7.695209e-003 6.544359e-004 9.505719e-002 -7.174677e-002 -2.245741e-002 -6.478704e-002 3.155197e-002
<VARIANCE> 39
 4.599945e-002 2.846986e-002 4.692608e-002 1.890804e-001 2.367690e-001 2.785771e-001 3.371387e-001 5.231431e-001 1.560860e-001 2.748587e-001 1.295604e-001 3.622753e-001 2.455422e-002 3.233189e-002 2.152754e-001 2.451711e-001 2.624016e-001 1.464894e-001 4.313379e-001 1.565910e-001 2.743314e-001 6.041918e-001 5.419685e-001 7.762509e-001 4.101304e-001 2.630109e-002 2.620553e-002 2.507661e-001 3.428306e-001 3.016535e-001 1.739019e-001 2.818485e-001 1.707299e-001 2.885568e-001 7.135723e-001 5.051167e-001 1.323997e+000 4.893636e-001 2.573916e-002
<GCONST> 7.991933e+000
<MIXTURE> 3 1.800827e-001
<MEAN> 39
 -5.462087e-001 7.034914e-001 5.827876e-001 -3.395869e-001 5.849872e-001 1.133552e-001 -2.728273e-001 1.910503e-001 2.704453e-001 -2.418844e-001 1.924615e-001 -3.348417e-001 -5.966761e-002 7.219169e-001 -6.435018e-001 -1.559655e-001 2.188765e-001 1.167930e-002 -3.239745e-001 2.647436e-001 4.840641e-002 1.941147e-001 2.018140e-002 2.083397e-001 1.199402e-001 -6.041263e-001 -1.109757e+000 1.697513e-001 -7.110636e-002 -4.678570e-001 -9.339630e-002 -4.114612e-001 3.144344e-001 -1.253996e-002 -1.990142e-001 3.261938e-001 -5.289458e-002 1.352624e-001 1.405069e+000
<VARIANCE> 39
 3.912147e-001 4.205600e-001 7.205533e-001 9.398736e-001 1.147976e+000 9.447188e-001 1.007336e+000 8.735055e-001 9.130051e-001 8.351252e-001 1.012881e+000 1.013255e+000 3.159440e-001 1.469268e+000 1.066285e+000 1.491506e+000 1.486902e+000 1.526986e+000 1.273928e+000 1.364343e+000 1.096360e+000 1.564630e+000 1.350166e+000 1.231918e+000 1.471216e+000 1.629734e+000 9.638926e-001 1.111044e+000 1.731980e+000 1.315257e+000 1.391508e+000 1.335604e+000 1.434630e+000 1.385370e+000 1.941309e+000 1.294039e+000 1.249833e+000 1.778200e+000 1.348820e+000
<GCONST> 7.640047e+001
<MIXTURE> 5 1.630811e-002
<MEAN> 39
 4.981817e-001 8.765245e-002 1.451736e+000 -8.733289e-001 -1.186809e+000 -1.385909e+000 5.083848e-001 5.298452e-001 -8.278824e-001 -3.759259e-001 -1.171190e+000 -1.365165e+000 1.034409e+000 -1.627166e+000 1.242980e+000 9.768270e-001 7.530206e-001 8.968807e-001 2.344859e-001 -3.530125e-002 -4.832444e-001 1.731802e+000 7.524818e-001 2.421450e+000 5.044801e-002 -1.264219e+000 -1.622189e+000 -5.044398e-001 -8.672985e-001 -3.059447e-001 -3.254820e-001 5.276005e-001 -2.977487e-001 -8.331137e-001 1.191704e+000 -6.986532e-002 4.120836e-001 6.144844e-001 -2.334501e-001
<VARIANCE> 39
 2.947623e-001 4.923903e-001 4.189033e-001 4.291332e-001 1.213070e+000 3.219502e+000 1.806437e+000 1.936384e+000 1.249783e+000 1.748178e+000 5.103273e-001 1.769390e+000 4.038879e-001 1.358309e+000 1.310616e+000 1.793426e+000 1.691053e+000 1.852133e+000 1.520918e+000 1.954063e+000 2.723748e+000 1.554987e+000 3.216214e+000 1.600525e+000 3.504657e+000 7.634172e-001 1.626014e+000 1.010307e+000 1.162785e+000 2.020677e+000 3.660488e+000 2.535626e+000 3.571183e+000 1.279460e+000 1.113539e+000 3.607705e+000 2.238359e+000 3.123936e+000 9.342261e-001
<GCONST> 8.624180e+001
<MIXTURE> 6 1.217495e-002
<MEAN> 39
 1.695680e+000 3.479422e-001 1.092525e+000 -2.621950e+000 -3.321510e+000 -1.671784e+000 -7.957751e-001 -1.389770e+000 -3.184698e-001 -2.211469e-001 -1.192206e+000 -1.555162e+000 1.412512e+000 -6.301520e-001 1.735005e+000 6.143960e-001 8.432873e-001 7.193692e-001 -5.025987e-001 -1.152199e+000 -4.072308e-001 8.025501e-001 7.421445e-001 2.332409e-001 7.331758e-001 -1.090580e+000 -2.295135e+000 -6.835429e-002 -1.755276e+000 1.470565e+000 2.551516e+000 1.396675e+000 1.317095e+000 2.492516e-001 -9.638356e-001 -4.820529e-001 3.406227e-002 4.238481e-001 -1.209998e+000
<VARIANCE> 39
 1.228066e+000 4.349257e-001 7.073958e-001 8.013012e-001 2.224862e-001 6.585369e-001 1.024443e+000 1.454401e-001 4.602505e-001 8.590188e-001 1.222234e+000 2.864566e-001 1.634818e-001 2.569302e+000 1.882412e+000 3.082584e+000 9.694241e-001 1.541000e+000 2.822745e+000 2.110492e+000 4.015448e-001 1.624007e+000 1.710694e+000 1.528996e+000 1.871095e-001 6.544797e-001 1.188671e+000 1.888612e+000 5.109261e-001 5.580624e-001 9.094985e-001 1.899160e+000 2.018598e+000 2.862606e-001 1.409220e+000 2.406552e+000 1.427087e+000 5.775712e-001 3.797888e-001
<GCONST> 6.580314e+001
<MIXTURE> 7 2.678865e-001
<MEAN> 39
 -1.946973e+000 1.304363e+000 8.241650e-001 -1.259560e+000 6.526439e-001 4.375460e-002 -1.997385e-001 3.739713e-001 -1.657727e-001 3.442499e-001 1.631554e-001 -3.365338e-001 8.453969e-001 4.077910e-001 1.463428e-001 -3.531768e-001 3.433959e-001 3.899510e-001 4.153048e-002 -1.170643e-001 2.579055e-001 1.649708e-001 1.005509e-001 -1.227093e-001 1.288075e-001 -6.361856e-001 8.072926e-001 -4.437965e-001 5.956623e-002 1.881760e-001 -3.434243e-001 -8.558235e-002 -9.164746e-002 -1.466057e-001 -1.282924e-002 -2.089043e-001 5.119950e-002 -1.808600e-002 -5.149245e-001
<VARIANCE> 39
 4.839288e-001 2.555076e-001 1.208070e+000 5.089094e-001 9.626083e-001 9.917535e-001 1.083863e+000 9.632045e-001 8.010355e-001 4.856161e-001 1.062508e+000 6.382213e-001 1.893566e-001 1.316098e+000 7.120537e-001 1.525659e+000 9.487209e-001 1.002589e+000 1.086031e+000 1.196433e+000 1.179074e+000 1.232124e+000 9.630639e-001 1.121109e+000 9.317777e-001 9.160474e-001 1.014447e+000 8.988615e-001 1.134528e+000 1.052428e+000 1.094372e+000 9.940748e-001 9.738409e-001 1.171111e+000 1.007039e+000 1.048620e+000 1.066994e+000 9.788028e-001 7.349430e-001
<GCONST> 6.705211e+001
<MIXTURE> 8 1.656036e-001
<MEAN> 39
 -1.493086e+000 -1.981818e-001 8.583800e-001 -1.170099e+000 9.885265e-001 8.066285e-002 -2.214908e-001 5.545414e-001 -2.409056e-001 2.151232e-001 2.088249e-001 -1.686966e-001 1.140566e+000 -2.475566e-004 -1.022649e-001 -8.975316e-001 1.836806e-001 -7.678594e-002 -2.842758e-001 -7.768656e-003 8.846653e-002 2.529789e-002 3.708669e-001 -1.077589e-001 8.404049e-002 -6.240876e-001 4.486345e-001 -7.284254e-002 1.345969e-001 4.855906e-001 -3.798213e-001 -8.748023e-002 3.619741e-001 -1.448877e-001 2.982226e-001 -1.489677e-002 1.276652e-001 1.322031e-001 -6.867967e-001
<VARIANCE> 39
 1.738544e+000 2.762961e+000 3.282774e+000 2.775708e+000 3.736491e+000 4.158231e+000 3.342204e+000 2.208198e+000 2.199653e+000 2.735475e+000 2.407414e+000 3.099589e+000 4.418150e-001 3.221733e+000 3.510497e+000 4.051846e+000 3.565409e+000 3.264189e+000 4.118716e+000 2.855426e+000 3.160420e+000 2.630731e+000 2.747113e+000 2.596644e+000 3.652770e+000 3.623056e+000 2.644981e+000 3.998456e+000 3.996404e+000 3.735479e+000 4.209526e+000 4.344121e+000 2.439311e+000 3.205968e+000 3.081049e+000 2.795311e+000 3.121138e+000 3.621114e+000 3.603815e+000
<GCONST> 1.144801e+002
<MIXTURE> 9 1.174266e-001
<MEAN> 39
 -2.227463e+000 2.211936e-001 1.736499e+000 -1.845607e+000 -1.295876e+000 -1.060138e-002 5.606812e-002 -1.344482e-001 1.110874e+000 -6.725482e-001 -2.956170e-002 -6.886672e-001 1.298070e+000 -9.242954e-001 1.635539e-001 3.797940e-001 -2.343605e-002 4.708797e-002 2.087924e-001 1.996794e-001 -3.427473e-001 -1.304320e-001 2.158497e-001 6.106321e-001 2.801723e-001 3.139203e-002 9.903461e-001 2.276668e-001 3.862676e-002 5.199071e-001 5.851665e-001 -3.595392e-001 6.018940e-002 1.254057e-001 -2.976392e-001 2.124813e-001 -2.967565e-002 1.774443e-001 -2.601862e-002
<VARIANCE> 39
 9.021985e-001 7.719871e-001 7.048719e-001 3.547929e-001 1.513470e+000 1.316767e+000 1.636283e+000 1.212422e+000 1.355437e+000 1.382669e+000 1.392825e+000 1.009506e+000 2.027559e-001 1.063988e+000 6.081248e-001 6.970501e-001 1.109824e+000 1.354795e+000 1.090157e+000 9.836659e-001 1.458228e+000 1.157477e+000 8.177086e-001 8.233636e-001 9.645617e-001 1.882586e-001 1.167114e+000 8.023864e-001 9.013659e-001 1.103199e+000 1.394297e+000 1.141097e+000 1.298666e+000 1.455047e+000 1.137215e+000 8.280467e-001 1.049485e+000 9.765653e-001 2.842023e-001
<GCONST> 6.851655e+001
<MIXTURE> 10 4.020927e-003
<MEAN> 39
 -5.909264e-001 -1.647128e+000 2.649506e+000 -2.713962e+000 1.018930e+000 1.404156e-001 -7.918690e-001 1.348341e+000 -2.502282e+000 5.580497e-001 -5.387236e-001 -6.119547e-001 2.061363e+000 -3.555663e+000 1.257844e+000 7.663245e-001 -2.414087e+000 1.025254e+000 -7.910892e-001 -2.882552e+000 3.965163e-001 -1.009034e+000 -1.163641e-001 1.526194e+000 5.535914e-001 -1.865510e+000 3.343194e-001 -6.185474e-001 -2.916648e+000 -1.836403e-003 -1.765073e+000 -8.736982e-001 -3.240944e-001 8.356932e-002 -1.722938e+000 -3.008759e+000 -3.320858e-001 -1.411716e+000 1.557612e+000
<VARIANCE> 39
 1.049675e+000 6.231336e-002 9.999958e-003 3.541874e-001 2.480464e-001 5.784560e-001 7.718328e-001 1.435833e-001 1.629502e-001 2.197987e-001 1.856773e-001 6.647068e-001 3.332414e-002 5.404066e-001 1.247064e-002 1.605642e+000 9.208797e-002 1.643778e+000 2.285199e+000 6.554734e-001 1.861966e-001 3.347082e+000 3.609335e+000 7.391778e-001 2.786747e+000 5.800340e-001 2.138454e+000 2.518021e-001 1.917744e+000 2.111505e+000 4.048069e-001 4.164125e-001 5.828708e+000 3.995205e-001 3.145124e+000 1.115568e+000 2.060638e-001 1.018483e+000 3.287304e+000
<GCONST> 4.604950e+001
<MIXTURE> 11 3.079102e-002
<MEAN> 39
 -1.140613e+000 6.977382e-001 6.942644e-002 -1.763806e+000 -8.537124e-001 -9.546754e-001 2.663626e-001 -9.127983e-001 -8.624264e-001 4.699837e-002 -3.874327e-001 -8.958332e-001 6.311411e-001 -3.259689e+000 7.942029e-001 -1.011582e+000 8.793569e-001 2.067941e+000 7.136815e-001 8.870867e-001 1.126526e+000 1.166450e+000 1.317472e+000 1.119378e+000 6.022630e-001 -5.250273e-001 1.039385e+000 -1.136504e+000 4.112349e-001 -2.609629e-001 -5.931776e-001 1.670476e-001 -4.125705e-001 -3.511520e-002 2.874219e-001 -7.627365e-001 -4.467793e-001 -1.844810e-001 1.404868e+000
<VARIANCE> 39
 7.068233e-001 3.115118e-001 1.991227e+000 7.377296e-001 1.275919e+000 4.960489e-001 1.653493e+000 5.225076e-001 7.375315e-001 1.091742e+000 9.507368e-001 6.391079e-001 1.846018e-001 7.399853e-001 1.279386e+000 1.197552e+000 2.191462e+000 1.478179e+000 1.791047e+000 2.054166e+000 8.520417e-001 2.352184e+000 2.640345e+000 1.391158e+000 9.108791e-001 1.158594e+000 1.750720e+000 1.505409e+000 2.502934e+000 9.324926e-001 2.285329e+000 1.538523e+000 3.072578e+000 9.462882e-001 2.746318e+000 2.011622e+000 1.353054e+000 6.165887e-001 5.646847e-001
<GCONST> 7.729199e+001
<MIXTURE> 12 3.015653e-003
<MEAN> 39
 9.918054e-001 7.929343e-001 2.621597e+000 -5.339636e-001 7.141355e-001 -1.887075e+000 -5.385012e-001 4.277153e-001 1.706993e-001 -1.355057e+000 -1.309508e+000 -1.656646e+000 1.725359e+000 -5.534774e+000 -2.506356e-001 -5.032210e-002 -3.794380e+000 -6.068032e-001 -8.249148e-001 7.212036e-001 6.796519e-001 -2.126760e+000 3.166338e-002 -6.648929e-001 -7.136281e-001 -1.499977e+000 2.124896e-001 -8.305696e-001 -2.734317e-001 -5.188310e-001 -2.342491e+000 2.095088e-001 5.456774e-001 1.349917e+000 6.850269e-001 8.889084e-001 1.789493e+000 1.160295e+000 1.622450e+000
<VARIANCE> 39
 9.826843e-001 7.243115e-002 3.609409e-001 1.014965e+000 9.170056e-001 3.151783e-001 3.970277e+000 1.474077e-001 1.084078e+000 3.373136e-001 4.629244e-001 3.106877e-002 1.556361e-002 1.125777e-001 6.335557e-001 4.839081e-001 7.821291e-001 4.800725e-001 2.190924e+000 9.262445e-001 4.484150e-001 2.486604e+000 5.588763e-001 1.630798e+000 1.354395e+000 2.246898e-001 3.087637e+000 1.180593e+000 2.097135e+000 2.126516e+000 1.348835e+000 2.935303e-001 1.140080e+000 1.346029e-001 9.629652e-001 1.728183e-002 1.902736e-001 4.519141e-001 1.045490e+000
<GCONST> 4.551382e+001
<MIXTURE> 13 8.034025e-003
<MEAN> 39
 1.589010e-001 -8.864543e-001 -3.360716e-001 -1.976679e+000 -1.602657e+000 1.975016e-002 4.145606e-001 -1.481680e+000 -1.146807e+000 -2.873869e+000 -2.092729e+000 -1.789935e+000 1.260600e+000 7.693167e-001 1.438439e+000 5.265527e-001 -5.100687e-002 -7.233790e-001 -1.320467e+000 -6.951988e-001 -3.432736e-001 5.427271e-001 9.438801e-001 2.796596e-002 3.241760e-001 -8.958555e-001 -6.404038e-001 1.293291e+000 1.897024e-001 4.627047e-001 1.877586e+000 -3.721298e-001 -1.026011e+000 -2.595536e-001 8.750474e-001 2.716770e+000 2.696370e+000 5.663115e-001 6.688014e-001
<VARIANCE> 39
 9.888856e-001 8.129646e-001 1.814636e+000 1.233912e+000 6.727562e-001 4.469337e-001 9.521632e-001 1.008291e+000 9.587555e-001 4.502229e-001 1.868735e+000 5.005245e-001 6.512501e-001 3.007671e-001 3.080784e+000 8.588861e-001 1.811091e+000 4.635001e+000 8.949301e-001 8.458622e-001 8.445112e-001 3.661835e-001 3.944801e+000 1.476133e+000 7.998293e-001 1.996425e-001 7.362612e-001 7.189851e-001 9.403390e-001 1.745088e+000 5.275540e-001 1.434659e+000 1.353405e+000 9.361517e-001 1.959280e-001 1.179246e+000 1.328858e-001 1.453437e+000 6.041251e-001
<GCONST> 6.626499e+001
<MIXTURE> 14 6.031319e-003
<MEAN> 39
 9.408019e-001 1.589791e-001 -8.996790e-002 -6.259503e-001 -2.074249e+000 -9.887627e-001 -1.365695e+000 -1.918607e+000 4.000972e-001 -1.973765e+000 -1.018294e+000 -5.575256e-001 1.273192e+000 -1.991293e+000 2.605988e+000 7.996705e-001 -1.401171e-001 3.738198e+000 -1.331599e+000 1.457320e+000 5.956599e-001 -5.983151e-001 1.298596e+000 -2.067591e-001 1.132140e+000 -1.666196e+000 -2.263426e+000 -7.058434e-001 4.380274e-001 -1.630711e+000 1.058668e+000 2.004675e-001 6.870100e-001 1.669132e+000 -2.093549e-001 1.386770e+000 -9.815416e-002 -4.160551e-001 2.236154e-001
<VARIANCE> 39
 1.450722e-001 2.247161e-001 1.347169e+000 6.493146e-002 1.168963e+000 3.093894e-001 8.028547e-001 6.033333e-001 1.477128e+000 5.806225e-001 4.699430e-001 1.202200e+000 2.365108e-001 1.519131e+000 4.414545e-001 1.999079e+000 8.449281e-001 4.856779e-001 9.340757e-001 2.339479e-001 2.311583e+000 2.567560e+000 2.345488e+000 3.962165e-001 1.708291e+000 4.807664e-002 8.222206e-001 7.727385e-001 2.393450e+000 1.325183e+000 1.799584e+000 1.068906e+000 1.442685e+000 1.506432e+000 1.076877e+000 5.260336e-001 4.229852e-001 1.640349e+000 4.308127e-001
<GCONST> 5.935408e+001
<MIXTURE> 15 6.032868e-003
<MEAN> 39
 7.278838e-001 -3.258016e-001 1.779519e+000 5.374997e-002 2.983059e-002 -8.274112e-001 1.429680e+000 4.591931e-001 2.183139e+000 -1.609746e+000 1.898183e-001 -1.164737e+000 1.494877e+000 -3.078572e+000 2.029092e-001 5.948077e-001 -1.572157e+000 -8.178691e-001 1.357836e+000 -1.385662e+000 -3.255434e-001 8.867874e-001 -1.084543e+000 -8.726596e-001 -3.586615e-001 -1.010203e+000 -2.175483e+000 -1.035706e+000 -1.025072e+000 -2.158670e+000 -1.379331e+000 -7.755038e-001 -4.335133e-001 -6.867654e-001 -8.771812e-001 8.914544e-001 -3.004869e-001 4.600502e-001 7.496445e-002
<VARIANCE> 39
 1.027786e+000 2.264842e-001 1.866476e-001 9.490149e-001 2.484076e+000 7.566582e-001 4.547088e-001 7.052836e-001 1.356564e+000 7.581678e-001 3.409797e+000 4.959410e-001 6.877141e-002 2.890383e-001 2.118080e-001 1.259325e+000 9.742409e-001 8.418633e+000 1.506411e+000 8.770847e-001 1.452146e+000 6.937440e+000 1.763521e+000 2.194828e+000 1.568318e+000 4.752686e-001 1.176326e+000 3.526998e-001 6.439852e-001 1.786353e+000 3.876835e+000 7.598339e-001 1.774284e+000 1.334958e+000 2.242454e+000 1.181501e+000 2.833599e+000 1.582187e+000 1.808923e-001
<GCONST> 7.101660e+001
<MIXTURE> 16 1.025041e-002
<MEAN> 39
 -3.677269e-002 4.983842e-001 8.342881e-001 -2.310291e+000 -1.687020e+000 -3.159043e-001 -1.393098e+000 -1.049470e+000 -2.387210e+000 -1.237976e+000 -1.913875e+000 -1.808693e+000 1.205066e+000 -1.380449e+000 1.128241e+000 3.928325e-001 2.412032e-001 2.236373e+000 6.481854e-001 -8.029082e-001 4.996272e-001 -5.256143e-001 9.900503e-001 7.347705e-001 6.725576e-001 -1.334450e+000 -1.368214e+000 -1.614544e+000 -1.797066e+000 9.166690e-001 1.295068e+000 8.971302e-001 1.826232e+000 8.907940e-001 2.070775e+000 8.945311e-001 1.776323e+000 5.710761e-001 -1.071145e+000
<VARIANCE> 39
 5.690392e-001 3.195447e-001 2.078751e+000 2.455393e+000 1.730574e+000 1.691642e+000 1.044164e+000 1.564567e+000 5.969694e-001 8.947926e-001 6.755543e-001 8.330787e-002 1.440225e-001 6.601028e-001 1.736025e+000 2.325592e+000 8.062586e-001 1.536932e+000 7.593686e-001 2.033067e+000 8.186944e-001 1.136167e+000 3.134616e+000 2.478878e+000 8.240123e-001 4.093327e-001 4.304411e-001 1.005513e+000 2.276740e+000 2.602632e+000 2.441173e+000 8.594277e-001 9.345661e-001 3.269681e+000 5.251358e-001 3.303948e+000 1.651022e+000 6.047559e-001 1.447926e+000
<GCONST> 7.396482e+001
<STATE> 6
<NUMMIXES> 16
<MIXTURE> 5 1.000000e+000
<MEAN> 39
 -1.077814e+000 5.938021e-001 -2.984583e-001 -6.087580e-001 4.165649e-001 -1.123284e+000 5.095290e-001 1.149413e-001 3.109564e-001 2.528072e-001 4.232838e-001 4.551481e-001 4.965887e-001 5.907285e-001 -4.763463e-001 9.193245e-002 3.407455e-001 -9.911761e-002 -3.807037e-002 -1.433497e-001 6.477182e-002 1.811664e-003 5.950330e-002 1.126189e-001 8.847976e-002 -7.276098e-001 7.964895e-001 -9.066195e-002 1.671575e-001 3.362618e-001 -7.673432e-002 6.751435e-001 -2.049917e-001 -6.892967e-003 3.526808e-003 -2.325712e-001 -1.089392e-001 -1.111358e-001 -9.143638e-001
<VARIANCE> 39
 4.640235e-001 7.423348e-001 1.286240e+000 1.247728e+000 1.215413e+000 1.529554e+000 1.789163e+000 1.994915e+000 1.181926e+000 1.139401e+000 1.103020e+000 1.591177e+000 2.209841e-001 2.062624e+000 1.592802e+000 2.454068e+000 2.063015e+000 2.274998e+000 2.219075e+000 2.444472e+000 2.577822e+000 1.934906e+000 1.718309e+000 2.040848e+000 2.137777e+000 2.365713e+000 2.487638e+000 2.377288e+000 2.606745e+000 2.006123e+000 2.209012e+000 2.489844e+000 2.420930e+000 2.780316e+000 2.086606e+000 1.484815e+000 1.987736e+000 2.185048e+000 2.032188e+000
<GCONST> 9.248588e+001
<STATE> 7
<NUMMIXES> 16
<MIXTURE> 11 1.000000e+000
<MEAN> 39
 -6.012554e-001 5.138182e-002 2.238472e-001 -3.572728e-001 3.259377e-001 -8.554479e-001 -2.928681e-001 2.811002e-001 7.891086e-002 1.233495e-001 2.268984e-001 2.220538e-001 -5.361485e-002 2.231488e+000 -5.564380e-002 -1.163830e-001 1.348031e+000 -6.285202e-001 1.296166e+000 8.903874e-002 -1.431871e-001 1.237789e-001 -4.860448e-002 5.350605e-002 1.734501e-001 -2.796864e+000 3.067306e-001 5.846919e-001 -1.942689e-001 -2.586595e-001 6.582352e-002 8.597694e-001 4.886798e-001 2.576808e-002 4.359106e-001 1.410986e-001 6.450592e-002 -7.563716e-003 3.021939e-001
<VARIANCE> 39
 4.792714e-001 6.535169e-001 2.021746e+000 9.293991e-001 1.601973e+000 1.775553e+000 2.543442e+000 1.271151e+000 1.028414e+000 2.080451e+000 8.864322e-001 1.451066e+000 2.116190e-001 4.089461e+000 3.852763e+000 2.797945e+000 3.414981e+000 4.611546e+000 4.183447e+000 2.172024e+000 3.462802e+000 2.048854e+000 1.849081e+000 3.164724e+000 1.752265e+000 3.163176e+000 1.723546e+000 2.320697e+000 2.148244e+000 1.590250e+000 1.806185e+000 1.986564e+000 2.383860e+000 1.174394e+000 1.881257e+000 2.709962e+000 1.175340e+000 1.600816e+000 1.815146e+000
<GCONST> 9.479247e+001
<TRANSP> 8
 0.000000e+000 1.000000e+000 0.000000e+000 0.000000e+000 0.000000e+000 0.000000e+000 0.000000e+000 0.000000e+000
 0.000000e+000 9.216713e-001 7.832878e-002 0.000000e+000 0.000000e+000 0.000000e+000 0.000000e+000 0.000000e+000
 0.000000e+000 0.000000e+000 9.252946e-001 7.470541e-002 0.000000e+000 0.000000e+000 0.000000e+000 0.000000e+000
 0.000000e+000 0.000000e+000 0.000000e+000 9.123700e-001 8.763006e-002 0.000000e+000 0.000000e+000 0.000000e+000
 0.000000e+000 0.000000e+000 0.000000e+000 0.000000e+000 9.557706e-001 4.422941e-002 0.000000e+000 0.000000e+000
 0.000000e+000 0.000000e+000 0.000000e+000 0.000000e+000 0.000000e+000 8.288991e-001 1.711009e-001 0.000000e+000
 0.000000e+000 0.000000e+000 0.000000e+000 0.000000e+000 0.000000e+000 0.000000e+000 0.000000e+000 1.000000e+000
 0.000000e+000 0.000000e+000 0.000000e+000 0.000000e+000 0.000000e+000 0.000000e+000 0.000000e+000 0.000000e+000
<ENDHMM>
~h "one"
<BEGINHMM>
<NUMSTATES> 8
<STATE> 2
<NUMMIXES> 15
<MIXTURE> 1 7.970279e-002
<MEAN> 39
 1.816616e-001 3.607935e-001 3.233952e+000 -2.460304e+000 -1.572738e+000 -1.880398e+000 -1.224537e+000 -9.865865e-001 -1.357570e+000 1.143029e+000 -1.481225e+000 -7.681043e-001 2.378022e+000 -3.331985e-001 -1.379480e+000 1.233311e-001 -5.975370e-001 -1.710444e+000 -9.813018e-001 1.527398e-001 2.198439e-001 5.708579e-002 1.938301e+000 7.197082e-001 4.722288e-001 8.720084e-001 6.229174e-001 -1.904364e-001 -1.944406e+000 8.988820e-001 3.455407e-001 7.862380e-001 -3.509412e-001 3.558919e-002 2.034211e-001 -8.808249e-001 5.462590e-001 5.535698e-001 -3.349491e-001
<VARIANCE> 39
 7.851933e-001 1.870088e+000 4.962952e-001 5.983844e-001 1.202451e+000 1.883081e+000 1.147259e+000 1.777735e+000 1.654921e+000 2.910766e+000 2.679832e+000 3.056591e+000 4.825374e-001 4.372331e-001 1.378787e+000 1.696766e+000 7.747968e-001 2.243359e+000 1.365522e+000 2.336877e+000 2.327202e+000 8.587226e-001 1.031440e+000 1.750286e+000 1.884622e+000 1.861448e-001 2.853515e-001 1.842157e+000 1.552343e+000 9.943535e-001 2.666485e+000 2.713820e+000 2.196971e+000 2.416224e+000 1.337724e+000 1.728451e+000 1.850347e+000 2.727495e+000 2.261987e-001
<GCONST> 8.170522e+001
<MIXTURE> 2 3.602048e-002
<MEAN> 39
 -3.260422e-001 1.141716e+000 -1.038302e+000 3.580731e-001 6.107036e-001 -3.701421e-003 1.026489e+000 -1.135639e+000 1.612527e+000 -1.482557e+000 -3.895363e-001 -1.711370e+000 1.039438e+000 4.201960e-001 1.074801e+000 1.543372e+000 7.033215e-002 3.398769e-001 2.772823e-001 -3.811028e-001 -3.211465e-001 1.193324e-001 -4.105856e-001 -4.224944e-001 -8.138515e-001 1.723320e+000 4.320911e-001 -6.404063e-002 4.618157e-001 -9.965647e-001 -1.146061e+000 -5.589640e-001 -1.767796e+000 -2.704711e-001 -1.594857e+000 5.397163e-001 -2.654277e-001 4.942136e-001 -4.873300e-001
<VARIANCE> 39
 4.175231e-001 4.126669e-001 4.403288e+000 6.487554e-001 2.995619e-001 3.798991e+000 1.268281e+000 1.631961e+000 2.640236e+000 1.492315e+000 1.216576e+000 1.629033e+000 1.875961e-001 9.061854e-001 8.808458e-001 1.482401e+000 1.979019e+000 2.173582e+000 2.539948e+000 4.131880e+000 1.694677e+000 3.851073e+000 1.547532e+000 1.216336e+000 2.692405e+000 3.395194e+000 9.247248e-001 1.620831e+000 2.522203e+000 1.730753e+000 7.711715e-001 4.058913e+000 2.340074e+000 1.553865e+000 1.458081e+000 9.970805e-001 1.964742e+000 2.478100e+000 2.978087e+000
<GCONST> 8.826480e+001
<MIXTURE> 3 6.966507e-002
<MEAN> 39
 7.950842e-001 3.680448e-001 2.844761e+000 -3.213190e-001 -2.006934e+000 -8.366249e-001 -5.871941e-001 -1.573345e+000 -1.003855e+000 -2.551491e+000 7.880699e-001 7.467791e-002 2.507818e+000 -1.082115e-001 -6.455730e-001 -6.557588e-001 2.454801e-001 -2.179558e-001 -6.265824e-001 1.909010e-001 -1.410270e-001 1.153824e-001 2.561150e-001 1.544910e-001 -3.246542e-001 5.114501e-001 6.723766e-002 2.626253e-002 -9.513096e-001 3.692153e-003 7.344394e-001 1.244076e-001 -1.829908e-002 1.314635e-001 -6.309503e-002 5.956246e-001 -1.423260e-001 -3.413246e-002 -6.793976e-001
<VARIANCE> 39
 4.713771e-001 2.039371e+000 2.843083e-001 1.501975e+000 9.079581e-001 9.133173e-001 1.414857e+000 1.450209e+000 5.010697e-001 2.729772e-001 6.234143e-001 3.099764e+000 9.206837e-002 4.856480e-001 8.816351e-001 1.219012e+000 8.475599e-001 1.352159e+000 4.915887e-001 1.001211e+000 1.130221e+000 2.884277e-001 9.699343e-001 4.955526e-001 5.108306e-001 1.189854e-001 7.180374e-001 3.692262e-001 8.588434e-001 1.540731e+000 1.529040e+000 7.280697e-001 1.002910e+000 1.681520e+000 5.457899e-001 1.104892e+000 4.921618e-001 7.871600e-001 5.709690e-001
<GCONST> 5.929368e+001
<MIXTURE> 4 1.063932e-001
<MEAN> 39
 -5.383199e-001 8.793469e-001 2.843739e-001 4.041127e-001 4.915206e-001 1.322720e-001 -5.579464e-001 -4.912660e-001 -7.879441e-001 -1.101863e+000 -5.645140e-001 -3.131829e-001 5.774848e-001 4.438576e-001 2.875996e+000 2.867737e+000 -1.417493e+000 -1.565136e+000 -2.476213e+000 -2.565006e+000 -2.589488e+000 -2.651874e+000 -2.042261e+000 -1.427146e+000 -1.322348e+000 4.166538e+000 1.763179e+000 1.618057e-001 9.016712e-001 -1.210699e+000 -9.750326e-001 -3.355532e-001 -3.471313e-001 -2.442679e-002 2.797538e-001 4.464817e-001 -5.147646e-002 1.590000e-002 -7.605267e-001
<VARIANCE> 39
 8.103547e-001 9.155627e-001 1.006514e+000 3.778903e-001 8.155923e-001 9.922966e-001 1.413919e+000 1.062290e+000 1.356489e+000 2.108869e+000 1.302479e+000 2.739852e+000 3.087721e-001 4.860100e+000 1.081695e+000 2.764976e+000 2.727509e+000 3.901918e+000 2.131307e+000 3.951062e+000 4.011261e+000 3.011128e+000 3.681574e+000 4.821606e+000 4.058300e+000 1.480957e+000 2.055947e+000 2.297232e+000 3.290135e+000 1.987419e+000 2.684430e+000 2.364678e+000 3.473404e+000 2.731982e+000 2.672765e+000 2.704948e+000 2.689597e+000 4.402222e+000 4.577370e+000
<GCONST> 9.958814e+001
<MIXTURE> 5 1.107751e-001
<MEAN> 39
 9.499220e-001 2.217847e+000 1.244588e+000 -3.938053e-001 -1.756669e-001 -2.965600e-001 -1.794752e+000 -1.129904e+000 -1.236572e+000 -1.420524e+000 -1.106335e-002 -4.703171e-001 1.087721e+000 1.235109e+000 1.749754e+000 2.374130e+000 -1.890630e+000 -1.484322e+000 -5.726394e-001 -1.740016e+000 -7.090591e-001 -6.980207e-001 -1.151448e+000 2.070246e-001 -3.407243e-001 2.623230e+000 -1.435839e+000 -2.051426e+000 -8.729937e-001 3.067651e-001 -4.481720e-002 6.458458e-001 1.286881e+000 6.283587e-001 1.120872e+000 1.006612e+000 -8.137510e-002 6.711574e-002 -2.379215e+000
<VARIANCE> 39
 1.444792e+000 6.103292e-001 8.659422e-001 1.285288e+000 8.013513e-001 1.907245e+000 9.576316e-001 1.213973e+000 9.938356e-001 9.924109e-001 1.687480e+000 1.412471e+000 2.627245e-001 1.682338e+000 1.145554e+000 2.331044e+000 2.804399e+000 2.638674e+000 1.472408e+000 2.267859e+000 1.789352e+000 1.313491e+000 1.556425e+000 2.820842e+000 2.680732e+000 1.874365e+000 2.651847e+000 1.380301e+000 1.686526e+000 2.791195e+000 2.489385e+000 2.306460e+000 1.990293e+000 1.497305e+000 2.584415e+000 1.586630e+000 2.405026e+000 1.442222e+000 1.091212e+000
<GCONST> 8.883787e+001
<MIXTURE> 6 4.519584e-002
<MEAN> 39
 -4.231362e-001 3.291806e+000 1.936284e+000 -1.430146e+000 8.432543e-001 -2.215438e+000 -2.838804e+000 -2.548096e+000 -1.310765e+000 -3.005145e+000 -1.457514e+000 -1.855580e+000 1.742681e+000 -9.255127e-001 3.299238e-001 2.134124e+000 -1.777543e+000 4.270154e-001 -5.318027e-001 -4.661990e-001 5.105134e-002 3.368320e-001 -3.478475e-001 -7.657233e-001 -1.088691e+000 1.065942e+000 -7.224382e-002 -2.874003e+000 -1.694062e+000 2.050014e+000 1.196369e-001 2.246859e+000 2.182502e+000 1.924044e+000 9.707653e-001 2.209953e+000 1.286321e+000 1.878549e+000 -1.967541e+000
<VARIANCE> 39
 1.344978e+000 4.279401e-001 1.046562e+000 1.132454e+000 3.804755e+000 4.614149e-001 1.030388e+000 8.601174e-001 1.506022e+000 2.426878e-001 2.354193e+000 8.124074e-001 5.826838e-002 1.210124e+000 1.858447e+000 2.742626e+000 1.679316e+000 5.669144e+000 3.724617e+000 4.590222e+000 1.903535e+000 1.949174e+000 2.586765e+000 3.707123e+000 3.584694e+000 7.389422e-001 1.746320e+000 1.119229e+000 1.636705e+000 4.718788e+000 6.511045e+000 4.050300e+000 3.407567e+000 3.620047e+000 2.696496e+000 8.422399e-001 1.812376e+000 2.311691e+000 1.424221e+000
<GCONST> 9.109927e+001
<MIXTURE> 7 9.643813e-003
<MEAN> 39
 -7.993009e-001 3.208320e+000 1.239306e+000 -8.699801e-001 -5.363246e-001 -2.158919e+000 -3.338626e+000 -3.091137e+000 -1.818443e+000 -1.750120e+000 8.549011e-001 -5.598285e-002 1.682325e+000 -1.372381e+000 2.834895e+000 3.299669e+000 -4.714532e+000 1.268590e+000 -4.915580e+000 -4.028313e+000 -3.958374e+000 -1.557633e+000 -4.154742e+000 -2.136776e+000 -3.582175e+000 2.909141e+000 8.383207e-001 -2.222903e+000 6.702203e-001 5.321714e-001 2.499813e+000 3.217228e+000 2.808664e+000 3.685992e+000 2.261650e+000 1.222424e+000 -2.007584e+000 -1.248450e+000 -3.370472e+000
<VARIANCE> 39
 3.905640e-001 4.414977e-001 5.508537e-001 3.072549e-001 1.352337e+000 1.515795e-001 3.595452e+000 6.711468e-001 1.871447e-001 5.163065e-001 4.975218e+000 8.261972e-001 1.334590e-001 5.307367e+000 5.561020e-001 2.556148e-001 2.318211e-001 5.853498e+000 7.477855e-001 2.221466e+000 3.613668e+000 5.679022e-001 1.201905e+000 1.293807e+000 3.364344e-001 2.408075e+000 7.988405e-001 1.337030e+000 9.247736e-001 2.356360e+000 2.133664e+000 1.236927e+000 5.172449e+000 2.341288e+000 3.960913e-001 3.292063e+000 8.857367e+000 2.537806e+000 1.213812e+000
<GCONST> 7.386374e+001
<MIXTURE> 8 1.687721e-002
<MEAN> 39
 -4.558300e-001 1.740745e+000 3.484824e+000 -1.580068e+000 -1.492403e+000 -1.354146e+000 -2.985738e+000 -3.687317e+000 5.571610e-002 -7.749045e-001 -2.952084e+000 1.912074e+000 1.478111e+000 -4.126638e-001 -1.080148e+000 2.276294e+000 -3.141806e+000 -1.823237e+000 -1.702761e+000 2.181506e-001 -1.208641e+000 -1.178445e-001 1.609101e+000 -1.817888e+000 2.001975e+000 1.717163e+000 -1.372677e-001 -2.586685e+000 -3.972142e+000 1.438188e+000 2.011363e+000 1.371759e+000 2.211213e+000 3.770858e+000 -1.272383e+000 3.164088e+000 2.597668e+000 -1.158151e+000 -2.172103e+000
<VARIANCE> 39
 1.071164e-001 1.309579e+000 1.705801e-001 5.364736e-001 2.931098e-001 1.051585e+000 1.121234e+000 7.214001e-001 1.640641e+000 1.566206e+000 3.779130e-001 2.005285e+000 8.752847e-002 4.227617e-001 4.580689e+000 3.665802e+000 1.896228e+000 3.886894e+000 5.708919e+000 2.167663e+000 5.855637e+000 4.056422e+000 5.986924e+000 4.106328e+000 1.725873e+000 9.375877e-001 8.687261e-001 4.615304e+000 4.983633e-001 1.615508e+000 2.690074e+000 3.049567e+000 2.848861e+000 1.461524e+000 1.197333e+000 1.777008e+000 1.216812e+000 1.246456e+000 9.134688e-001
<GCONST> 8.327151e+001
<MIXTURE> 9 9.795278e-002
<MEAN> 39
 -8.381155e-001 2.488525e+000 1.358585e+000 -1.028812e+000 1.007068e-001 -9.319705e-001 -2.009961e+000 -1.830781e+000 -2.060680e+000 -2.647303e+000 -1.826278e+000 -1.438807e+000 1.510218e+000 -5.922456e-001 -2.500324e-001 9.260655e-001 -8.332027e-001 -8.017166e-001 -5.922873e-001 2.167517e-001 -5.315452e-001 2.788801e-001 4.755498e-001 2.879154e-001 1.916790e-001 3.082021e-001 1.502140e-001 -9.766775e-001 9.932332e-002 -1.305824e-001 -1.225765e+000 -6.256849e-001 4.596885e-001 1.431601e-002 8.767858e-001 7.941354e-001 5.299885e-001 -1.813535e-001 -6.802209e-002
<VARIANCE> 39
 7.365761e-002 5.967495e-001 1.012578e+000 4.567665e-001 4.642715e-001 7.122917e-001 1.130457e+000 9.128681e-001 1.737987e+000 6.578496e-001 1.791226e+000 1.454220e+000 9.319030e-002 3.751924e-001 2.036858e+000 2.587668e+000 3.948149e+000 2.886756e+000 2.584279e+000 2.186186e+000 9.560415e-001 4.153862e+000 1.937985e+000 2.348698e+000 1.671506e+000 7.466917e-002 6.936014e-001 1.875130e+000 2.070339e+000 3.315915e+000 1.846554e+000 2.852925e+000 2.823703e+000 1.890406e+000 3.151062e+000 2.159683e+000 2.551905e+000 2.544480e+000 2.344231e-001
<GCONST> 7.894874e+001
<MIXTURE> 10 9.742328e-002
<MEAN> 39
 1.878236e-001 2.354285e+000 2.315723e+000 -5.677700e-003 -3.937303e-001 -7.701219e-001 -9.022635e-001 -1.550483e+000 -4.882436e-001 -1.158782e+000 -8.037785e-001 -1.101375e+000 1.224735e+000 -2.178799e-001 -4.092675e-001 1.423249e-001 -5.908974e-001 -1.037312e+000 -6.350971e-001 8.388863e-002 -4.255023e-001 -1.985331e-001 1.230398e-001 5.372929e-002 -2.490808e-002 8.210142e-001 3.959590e-001 -9.802250e-001 -8.312099e-001 -2.116022e-001 -4.637578e-001 1.768713e-002 -3.422027e-001 6.491937e-002 -1.236636e-001 5.818046e-001 9.065552e-001 2.444045e-001 8.189505e-002
<VARIANCE> 39
 1.851361e+000 3.959275e-001 6.681937e-001 1.379465e+000 7.866352e-001 4.243594e-001 1.076140e+000 1.006716e+000 1.192475e+000 2.188911e+000 7.940643e-001 6.937563e-001 1.038160e-001 5.986333e-001 6.938397e-001 1.374914e+000 1.110960e+000 1.582978e+000 5.846254e-001 4.036697e-001 1.234890e+000 1.306410e+000 1.980319e+000 1.844911e+000 1.684642e+000 1.856176e-001 4.295030e-001 5.798094e-001 8.105713e-001 1.298079e+000 1.789059e+000 7.247968e-001 4.359742e-001 2.437576e+000 1.469804e+000 2.254142e+000 7.719900e-001 1.000379e+000 6.107223e-001
<GCONST> 6.696564e+001
<MIXTURE> 11 3.373232e-002
<MEAN> 39
 2.883944e-001 -8.431525e-001 2.813420e+000 -2.356947e+000 -1.929052e+000 -2.914098e+000 -3.478417e+000 -6.157179e-001 -3.372745e+000 1.353399e+000 -1.824177e+000 -4.344629e-001 2.338759e+000 1.663710e-001 -1.904792e+000 2.041994e-001 -9.121452e-001 -3.978750e-001 7.759656e-002 -4.399794e-001 1.656622e-001 -1.044490e+000 2.269078e-001 -9.087712e-001 -2.575582e-001 1.801534e+000 3.088122e-001 1.265458e-001 -1.119274e+000 9.496715e-001 6.467135e-002 9.745646e-001 1.158903e+000 9.054372e-002 1.770084e+000 -1.665632e+000 1.993055e-001 -2.547015e-001 -5.445600e-001
<VARIANCE> 39
 9.918104e-001 3.178283e-001 2.674136e-001 1.986990e-001 2.673057e-001 1.603378e+000 4.764469e-001 1.115266e+000 6.995145e-001 3.759923e+000 1.651524e+000 4.505387e+000 3.048324e-001 7.220516e-001 2.649499e+000 2.917111e+000 1.943735e+000 5.136144e-001 1.340849e+000 2.930568e+000 2.085467e+000 3.129938e+000 8.200503e+000 3.465192e+000 1.107073e+000 5.913700e-001 8.044130e-001 1.163182e+000 1.067937e+000 3.362113e+000 1.887068e+000 1.816211e+000 1.573306e+000 8.004330e-001 1.368268e+000 5.098497e+000 2.474037e+000 1.062879e+000 7.230816e-001
<GCONST> 8.103904e+001
<MIXTURE> 12 1.194473e-001
<MEAN> 39
 7.396399e-001 1.742580e+000 -8.332139e-002 -2.459186e-001 -4.587500e-001 -1.211002e+000 -1.331489e+000 -1.466422e+000 -1.251852e+000 -1.293033e+000 -9.341599e-001 -4.288178e-001 9.082744e-001 8.230499e-002 1.604816e-001 9.479936e-002 -1.308173e-001 -1.278566e-001 -5.076946e-002 2.498645e-002 2.846016e-002 2.087955e-001 5.504834e-002 -1.000104e-001 -1.498754e-002 2.662474e-001 -1.707007e-001 -1.286162e-001 2.791604e-002 -1.119462e-001 -2.091911e-001 4.791636e-002 1.546705e-001 1.712635e-001 -2.422535e-002 1.316177e-002 3.680285e-002 1.633543e-001 2.069680e-002
<VARIANCE> 39
 3.479215e-001 3.103121e-001 1.703713e+000 1.356266e-001 2.085036e-001 1.874811e-001 5.389293e-001 2.933261e-001 3.915608e-001 9.668267e-001 2.257331e-001 2.468466e-001 3.772549e-002 3.717902e-001 7.275746e-001 1.129505e+000 3.634879e-001 1.201567e+000 5.671174e-001 6.316513e-001 9.896216e-001 4.454402e-001 7.408850e-001 5.281251e-001 6.249470e-001 1.618620e-001 6.720667e-001 8.340443e-001 9.906858e-001 5.206218e-001 1.218953e+000 6.609226e-001 6.163180e-001 1.262807e+000 6.589727e-001 8.181703e-001 7.200161e-001 5.352926e-001 3.410905e-001
<GCONST> 4.431977e+001
<MIXTURE> 13 7.930141e-002
<MEAN> 39
 1.147200e+000 1.489794e+000 2.913209e+000 -9.820902e-001 -1.379755e+000 -4.017052e-001 -1.210045e+000 -7.350223e-001 -1.197881e+000 -1.355195e+000 4.355718e-001 -8.939827e-001 2.015129e+000 7.316953e-001 -1.613670e+000 2.479577e+000 -1.069427e+000 -2.507512e+000 -1.063995e+000 -1.188392e+000 -2.833628e-002 -1.213287e+000 1.641250e-001 1.086166e-001 -6.194652e-001 2.317657e+000 -1.434503e+000 -1.786292e+000 -3.062548e+000 5.869579e-001 1.822165e+000 7.608315e-001 6.117492e-001 8.331320e-001 5.963313e-001 1.150456e+000 -3.176653e-001 8.844796e-001 -2.725882e+000
<VARIANCE> 39
 8.935486e-001 1.739025e+000 4.809342e-001 1.198972e+000 5.481266e-001 1.139318e+000 3.388260e+000 1.928382e+000 8.748347e-001 2.312359e+000 1.175168e+000 1.642617e+000 1.632056e-001 1.713177e+000 2.410900e+000 3.479509e+000 3.518124e+000 2.436052e+000 2.451982e+000 3.251405e+000 2.567939e+000 1.859980e+000 2.317371e+000 1.408959e+000 1.612455e+000 1.297069e+000 2.590109e+000 2.619161e+000 2.743623e+000 2.177819e+000 1.342514e+000 1.611382e+000 3.309699e+000 2.273413e+000 5.309675e-001 1.582458e+000 7.952505e-001 1.492225e+000 1.670779e+000
<GCONST> 8.989976e+001
<MIXTURE> 14 8.581719e-002
<MEAN> 39
 8.973870e-001 2.049045e+000 1.576512e+000 -5.761199e-001 -9.256141e-001 -3.976909e-001 -2.467945e+000 -1.743292e+000 -9.463631e-001 -5.334061e-001 -9.375884e-002 -3.485822e-001 1.549110e+000 -5.342672e-002 -1.061894e+000 2.764705e-001 -1.196000e+000 -9.051910e-001 2.724847e-001 1.078321e-001 6.086861e-001 -1.660033e-001 5.677249e-001 4.619549e-001 2.154072e-001 6.962947e-001 -1.107549e+000 -1.154664e+000 -6.943501e-001 4.280140e-001 6.178008e-001 3.407132e-002 1.877475e+000 1.170079e+000 -5.005372e-002 -5.367587e-002 -4.109230e-001 -1.153989e-001 -9.803849e-001
<VARIANCE> 39
 1.074030e+000 9.193772e-001 3.534974e-001 6.425713e-001 6.078769e-001 2.416232e+000 1.141451e+000 1.158750e+000 5.129452e-001 5.382208e-001 1.946901e+000 2.349983e+000 2.613074e-001 5.344971e-001 1.604819e+000 2.490135e+000 1.703558e+000 8.856409e-001 7.603806e-001 1.228200e+000 1.339436e+000 1.950246e+000 1.200861e+000 1.744461e+000 1.129211e+000 3.792014e-001 7.509266e-001 1.169899e+000 1.193707e+000 1.775708e+000 1.533263e+000 1.300025e+000 9.292886e-001 1.139041e+000 1.313473e+000 8.068845e-001 2.277796e+000 1.646613e+000 7.851735e-001
<GCONST> 7.419787e+001
<MIXTURE> 15 1.205229e-002
<MEAN> 39
 1.180458e+000 3.295787e-001 2.502300e+000 -1.087070e+000 2.136672e-001 -1.922886e+000 -2.411316e+000 -1.518772e+000 -3.308958e+000 -4.658135e-001 -3.617751e+000 -1.924557e+000 2.192990e+000 5.124013e-001 -3.737693e-001 4.178401e+000 -3.228280e+000 -1.356164e+000 -2.791136e+000 -2.426030e-001 3.624839e-001 -1.196048e+000 3.448176e+000 -3.415550e+000 -1.875058e+000 2.376428e+000 -2.093115e+000 -3.557504e-001 -3.279207e+000 1.139778e+000 -5.780602e-001 1.056592e+000 3.431549e+000 1.868130e+000 3.769705e+000 1.896218e+000 3.122426e+000 1.270701e+000 -3.763355e+000
<VARIANCE> 39
 9.528233e-001 9.693580e-001 6.206138e-001 2.955915e-001 3.234149e+000 1.222221e+000 4.348155e-001 1.207997e+000 8.639985e-001 2.434705e+000 1.032626e+000 1.488992e+000 1.643076e-001 6.732786e+000 1.441454e+000 2.191686e+000 1.603936e+000 5.955487e-001 3.947592e+000 4.525942e+000 6.656837e+000 6.250371e+000 4.228665e+000 4.528261e+000 1.313688e+000 1.819544e+000 3.266488e+000 2.213969e+000 1.334100e+000 1.883175e+000 5.299449e+000 9.783949e-001 3.597064e+000 2.019681e+000 6.178205e+000 2.179904e+000 1.676813e+000 1.948563e+000 1.387149e+000
<GCONST> 9.408678e+001
<STATE> 3
<NUMMIXES> 15
<MIXTURE> 1 8.179763e-002
<MEAN> 39
 -7.570287e-002 4.217983e-001 1.079059e+000 1.797829e-001 8.463361e-001 1.510489e+000 1.716246e+000 1.777688e+000 5.427324e-001 -3.163316e-003 -1.662980e+000 -2.036222e+000 1.241964e+000 -2.428165e-001 -2.275508e-001 -1.247671e-001 -1.032877e-001 1.970387e-001 -1.749191e-002 -1.196628e-001 1.609137e-001 -3.511148e-001 1.631425e-001 7.536250e-002 1.085073e-001 -1.730894e-001 -1.362480e-001 1.046969e-001 -7.222942e-002 -3.155597e-001 -1.610507e-001 4.959061e-002 -1.322768e-001 2.208870e-002 4.368980e-002 6.533803e-002 2.437011e-001 3.156037e-001 -1.105359e-001
<VARIANCE> 39
 7.234680e-002 2.417672e-001 5.652777e-001 2.543163e+000 7.104586e-001 1.906366e-001 2.743000e-001 1.017284e+000 2.296451e+000 5.192304e-001 6.187808e-001 6.525776e-001 3.584867e-002 5.613530e-001 8.582579e-001 1.202392e+000 2.868633e+000 1.230414e+000 5.216245e-001 2.067805e+000 1.439413e+000 1.659564e+000 1.219436e+000 1.765669e+000 2.409766e+000 2.314441e-001 2.449372e-001 2.128572e+000 1.626683e+000 2.210227e+000 1.514957e+000 6.840274e-001 2.554286e+000 1.072005e+000 1.965376e+000 1.524506e+000 1.999114e+000 2.579190e+000 1.285602e-001
<GCONST> 6.486137e+001
<MIXTURE> 2 5.903566e-002
<MEAN> 39
 1.659903e+000 3.422270e-001 2.191885e+000 -3.929714e-001 -2.835420e+000 -1.198155e+000 -1.035535e+000 6.666254e-001 -1.554703e+000 -7.733771e-001 1.999473e+000 -9.500358e-001 2.384256e+000 2.331175e-001 -9.190950e-001 -6.895231e-001 -2.274432e-002 -2.034688e-002 -1.213629e+000 5.782409e-001 7.914951e-001 -1.845623e-002 3.042398e-001 1.448456e-001 -2.701363e-001 8.203493e-002 -3.325611e-001 4.570256e-001 -7.636836e-002 -2.856610e-001 1.257183e+000 4.638405e-001 -2.669005e-002 -4.200589e-001 6.448962e-001 -3.199192e-002 -4.065550e-001 -1.634278e-001 -4.791173e-001
<VARIANCE> 39
 8.976544e-001 3.446978e-001 1.965489e-001 1.148886e+000 9.863371e-002 5.587186e-001 7.957267e-001 1.272797e+000 1.548673e+000 2.655314e+000 1.727564e-001 6.869310e-001 6.571551e-002 2.549583e-001 7.264895e-001 2.087588e-001 7.651738e-001 1.102388e+000 1.342037e+000 6.314989e-001 8.739784e-001 1.033921e+000 8.225191e-001 7.595780e-001 6.566423e-001 1.096954e-001 3.013500e-001 3.652744e-001 6.675760e-001 7.997395e-001 2.562874e-001 1.148754e+000 7.925151e-001 1.190019e+000 5.751793e-001 1.016233e+000 3.355681e-001 3.984772e-001 1.065620e-001
<GCONST> 4.699618e+001
<MIXTURE> 3 8.031514e-002
<MEAN> 39
 1.337730e+000 -2.745187e+000 2.101179e+000 -2.522823e+000 -1.913770e+000 -2.191903e+000 -4.190422e-001 2.084743e+000 -1.666256e+000 2.278293e+000 2.606140e-001 2.869590e-001 2.637073e+000 3.342462e-001 -1.055937e-001 -1.999595e-001 1.310148e-001 2.279169e-001 -3.368393e-001 6.559105e-001 1.023327e-001 3.581178e-002 1.273212e-001 -4.076527e-001 8.537327e-002 -2.756841e-001 -9.408455e-002 1.057089e+000 4.413347e-001 6.080157e-001 -4.999811e-003 4.882582e-001 -4.585754e-001 -6.902982e-001 -1.626669e-001 -2.902710e-001 3.527527e-002 -3.796083e-001 -3.808416e-001
<VARIANCE> 39
 6.756625e-001 5.699815e-001 1.055043e-001 3.551036e-001 2.863148e-001 1.749655e-001 1.999467e+000 5.733486e-001 6.123924e-001 9.996017e-001 9.351808e-001 2.813030e+000 1.324603e-001 2.383142e-001 2.061112e+000 7.262464e-001 6.182551e-001 3.759981e-001 3.734198e-001 9.449490e-001 4.645180e-001 5.255476e-001 5.734426e-001 4.346122e-001 3.988152e-001 2.339741e-001 5.114877e-001 2.073896e+000 4.134412e-001 8.712387e-001 7.828315e-001 1.746684e-001 5.861916e-001 4.348289e-001 3.575932e-001 6.376763e-001 5.688624e-001 5.119612e-001 9.418213e-002
<GCONST> 4.494055e+001
<MIXTURE> 4 9.019712e-002
<MEAN> 39
 6.325147e-001 1.120541e+000 2.178448e+000 -6.801095e-001 -1.229713e+000 -1.783679e-001 -1.756601e+000 -8.700991e-001 -1.802459e+000 -1.722792e+000 3.661022e-001 -6.060742e-001 1.852201e+000 3.207173e-001 -1.603098e+000 -1.738969e-001 -1.753401e-001 -1.229129e+000 -1.183773e+000 4.097105e-001 7.619792e-001 -6.492796e-001 6.733674e-001 3.930412e-001 9.718897e-001 5.919814e-001 5.237830e-001 -5.449548e-001 -6.557936e-001 3.232025e-001 -1.307764e-001 -4.053332e-001 1.986007e-001 1.814164e-001 4.175192e-001 8.121538e-001 5.146744e-001 2.108003e-001 -1.203957e-001
<VARIANCE> 39
 7.928281e-001 1.361583e+000 1.221050e-001 9.780958e-001 3.051528e-001 9.482887e-001 1.241370e+000 7.336298e-001 2.886161e-001 6.791249e-001 1.617121e+000 1.221106e+000 2.596712e-001 3.323201e-001 8.118834e-001 9.019173e-001 1.040811e+000 7.823275e-001 1.564027e+000 7.534832e-001 9.416158e-001 8.613854e-001 2.161153e+000 1.201609e+000 6.937825e-001 1.247676e-001 1.868448e-001 8.873086e-001 8.863915e-001 8.593988e-001 1.212082e+000 7.000061e-001 8.724459e-001 9.154526e-001 9.793165e-001 8.658897e-001 7.918493e-001 1.233101e+000 1.219340e-001
<GCONST> 5.808976e+001
<MIXTURE> 5 6.953625e-002
<MEAN> 39
 -7.399188e-001 7.264010e-001 2.153065e+000 -2.515360e+000 -3.742209e-002 -2.661670e+000 -9.940581e-001 -2.310529e+000 6.900091e-001 -1.934606e+000 -1.290373e+000 -1.546204e+000 2.068449e+000 -1.123631e-001 -2.306560e+000 -1.351291e+000 -7.784134e-001 -1.780635e+000 2.528167e-001 2.032235e+000 1.228777e+000 1.634236e+000 8.723828e-001 -3.474124e-001 -9.631279e-001 6.609830e-001 6.336115e-001 1.168510e-001 -9.938859e-001 1.151154e+000 -4.276781e-002 6.673935e-001 3.944875e-001 6.545383e-001 -3.195433e-001 4.114277e-001 1.533309e-001 -6.091812e-001 2.780313e-001
<VARIANCE> 39
 1.864732e+000 1.555620e+000 5.871380e-001 1.035156e-001 3.719309e+000 3.248111e-001 2.840222e+000 4.408055e-001 9.185804e-001 7.937386e-001 1.021955e+000 5.347822e-001 5.652753e-002 2.210756e-001 3.396900e-001 3.331601e-001 1.051226e+000 1.748967e+000 9.204011e-001 1.597415e+000 1.364289e+000 1.966725e+000 1.301993e+000 1.764830e+000 2.174370e+000 2.734278e-001 1.964119e-001 7.796208e-001 9.323671e-001 6.802384e-001 2.164500e+000 1.122069e+000 1.858225e+000 1.484492e+000 2.334991e+000 2.074412e+000 1.405567e+000 1.300860e+000 4.057505e-001
<GCONST> 6.601695e+001
<MIXTURE> 6 8.986215e-002
<MEAN> 39
 -5.680993e-001 -7.884564e-001 1.227338e+000 -1.586469e+000 -2.442785e+000 -2.430987e+000 8.010961e-001 -1.227986e+000 5.191404e-001 3.404184e-001 -2.467584e-001 -9.114590e-001 1.924912e+000 2.535086e-002 -7.686016e-001 -5.859109e-001 1.733426e-001 8.852936e-002 4.016939e-001 7.484629e-001 3.103633e-001 1.550943e-001 1.633719e-001 7.452748e-002 6.443583e-001 1.425339e-001 -1.484951e-001 1.050354e+000 7.237384e-001 5.849336e-001 9.945593e-001 8.973166e-001 -7.955506e-001 -3.739462e-001 -9.205991e-001 -9.723759e-001 -6.976742e-001 1.222387e-001 -3.708376e-001
<VARIANCE> 39
 7.148276e-001 4.775365e-001 1.018844e+000 3.050547e+000 3.854820e-001 1.597130e-001 1.539247e+000 3.261312e-001 2.199779e+000 2.072593e+000 2.179824e+000 3.171624e+000 1.026843e-001 1.554361e-001 1.199840e+000 1.094384e+000 7.424769e-001 8.757963e-001 1.273032e+000 3.133934e+000 1.653071e+000 2.142961e+000 2.251845e+000 2.510101e+000 2.436815e+000 2.450244e-001 1.932325e-001 6.884398e-001 5.312823e-001 1.419557e+000 1.280026e+000 7.067095e-001 1.775762e+000 7.238235e-001 1.508420e+000 2.011800e+000 2.070927e+000 2.900164e+000 4.005607e-001
<GCONST> 7.111891e+001
<MIXTURE> 7 1.339988e-001
<MEAN> 39
