~o
<STREAMINFO> 1 39
<VECSIZE> 39<NULLD><MFCC_E_D_A_Z><DIAGC>
~h "eight"
<BEGINHMM>
<NUMSTATES> 8
<STATE> 2
<NUMMIXES> 16
<MIXTURE> 1 8.267280e-002
<MEAN> 39
 1.689500e-001 -1.800034e+000 -8.547754e-001 7.018006e-001 7.672129e-001 -1.482704e-001 1.189526e+000 -1.637449e-001 -1.732718e-001 -1.432606e+000 -9.404952e-001 1.781688e-001 8.159044e-001 1.794960e+000 1.395939e+000 1.249861e+000 2.748527e-001 5.727521e-001 1.152582e-001 3.800085e-001 2.510234e-001 7.497070e-001 3.172718e-001 -3.050891e-001 -8.024222e-001 2.284055e+000 1.432709e+000 2.078438e-001 4.421707e-001 -1.188076e+000 -7.320629e-001 -4.872910e-001 -8.987560e-001 4.795692e-002 6.455276e-002 5.238610e-001 -4.780142e-002 -8.266190e-001 1.442034e+000
<VARIANCE> 39
 4.676985e-001 3.814305e-001 8.260053e-001 1.150293e+000 1.310449e+000 2.141821e+000 1.950812e+000 2.012081e+000 2.192772e+000 1.192454e+000 1.281680e+000 2.056002e+000 3.637833e-001 9.018167e-001 1.261093e+000 1.803516e+000 2.212044e+000 2.068557e+000 2.038761e+000 3.146218e+000 1.835788e+000 1.749466e+000 8.620075e-001 1.415100e+000 2.327724e+000 2.169551e+000 1.075604e+000 2.223680e+000 2.343934e+000 9.730433e-001 2.621497e+000 2.588734e+000 1.842172e+000 2.252090e+000 2.694030e+000 1.153217e+000 1.834000e+000 1.762696e+000 1.591789e+000
<GCONST> 8.810931e+001
<MIXTURE> 2 1.020785e-001
<MEAN> 39
 5.230349e-001 -1.449530e+000 -9.377716e-001 -1.504355e-001 1.707332e-001 -1.213552e+000 -9.082689e-001 -1.704928e+000 -1.277194e+000 -1.536805e+000 -1.518715e+000 -1.244284e+000 1.425779e+000 1.897936e+000 -9.185888e-001 -1.909772e+000 -1.195910e+000 -1.001286e+000 -1.099833e+000 -2.959603e-001 -7.835917e-001 -1.293719e+000 -8.202963e-001 -1.154218e+000 -8.892361e-001 2.197681e+000 -1.302143e+000 -1.296953e+000 -1.202437e-001 2.022485e-001 6.460149e-001 9.165262e-001 1.357752e+000 1.462329e+000 8.661729e-001 1.376479e+000 1.166429e+000 1.117947e+000 -9.549942e-001
<VARIANCE> 39
 1.104768e+000 4.979113e-001 1.303363e+000 1.734587e+000 2.717932e+000 1.125452e+000 2.544900e+000 1.460579e+000 1.840371e+000 1.396170e+000 9.132169e-001 9.172333e-001 3.212263e-001 1.593319e+000 2.383054e+000 2.661496e+000 3.155162e+000 2.962142e+000 2.454400e+000 2.675267e+000 2.359263e+000 2.965967e+000 3.308793e+000 3.031485e+000 2.338044e+000 1.317366e+000 1.905452e+000 2.007544e+000 2.717507e+000 2.288429e+000 3.111328e+000 1.881059e+000 1.643891e+000 1.617749e+000 1.802078e+000 1.684884e+000 1.837499e+000 1.272230e+000 2.183470e+000
<GCONST> 9.441816e+001
<MIXTURE> 3 9.702379e-002
<MEAN> 39
 -2.942307e-001 -2.425812e+000 -1.276927e+000 -9.390700e-001 4.510865e-001 -3.773130e-001 7.136863e-002 4.665090e-002 -1.067875e+000 -1.007088e+000 -8.868253e-001 5.261492e-001 6.105686e-001 -1.304952e-001 -6.028287e-001 -1.476775e-001 -1.702601e-001 4.417705e-001 -1.181889e-001 4.447187e-001 -3.407398e-001 -9.194096e-001 -7.976664e-001 -6.875317e-001 -9.056175e-002 1.563853e+000 1.011887e+000 2.177394e+000 1.136757e+000 1.463933e+000 1.542029e-001 1.392855e-001 4.832205e-002 1.099763e-002 6.481791e-001 3.714758e-001 1.957957e-001 -8.284143e-001 -2.816350e-001
<VARIANCE> 39
 4.538566e-001 2.849205e-001 6.708183e-001 5.494912e-001 2.118435e+000 1.917625e+000 1.974868e+000 2.198924e+000 3.792997e+000 1.425072e+000 3.017154e+000 1.754960e+000 1.030192e-001 4.378667e-001 2.217732e+000 1.688108e+000 1.974607e+000 1.755921e+000 2.890534e+000 2.401600e+000 1.700269e+000 2.317118e+000 1.671679e+000 2.857159e+000 2.675562e+000 1.088562e+000 1.562745e+000 1.242068e+000 2.604704e+000 1.736024e+000 2.423749e+000 2.754773e+000 1.728456e+000 1.728887e+000 2.976107e+000 1.947584e+000 4.517808e+000 2.641346e+000 2.958632e+000
<GCONST> 9.075092e+001
<MIXTURE> 4 6.596513e-002
<MEAN> 39
 1.114079e+000 -2.024867e+000 -1.498432e+000 1.356688e+000 1.240184e+000 -1.761489e+000 2.450902e+000 -5.055227e-001 -5.198026e-001 -1.092231e+000 -5.079195e-001 -2.201276e+000 2.026430e+000 1.612717e-001 5.594566e-002 -1.634969e-001 9.785673e-002 -4.378824e-001 -8.331241e-002 4.986155e-002 3.086445e-001 2.550796e-001 -3.118706e-002 -1.839407e-001 9.131886e-004 3.286534e-001 -4.514987e-001 4.924741e-001 4.425945e-001 -7.044698e-002 1.619473e-001 1.329193e-001 -3.846889e-001 1.087963e-001 1.453649e-002 -8.946724e-002 7.175230e-002 5.563146e-001 -7.744517e-001
<VARIANCE> 39
 9.074914e-001 7.116420e-001 7.770915e-001 1.823531e+000 1.580110e+000 1.002728e-001 3.899654e-001 2.550722e+000 1.414963e+000 8.883882e-001 1.689188e+000 8.404471e-001 5.510306e-002 1.572377e-001 1.965019e+000 2.187529e+000 2.150066e+000 1.033920e+000 3.173855e-001 1.128305e+000 1.877256e+000 2.049814e+000 2.743333e+000 2.356307e+000 2.433398e+000 3.376253e-001 1.494047e+000 2.487105e+000 2.444254e+000 3.391501e+000 8.764597e-001 9.521923e-001 9.385246e-001 1.982849e+000 2.939501e+000 3.367882e+000 2.325569e+000 1.744802e+000 1.880661e+000
<GCONST> 7.801161e+001
<MIXTURE> 5 9.433095e-002
<MEAN> 39
 -5.644416e-001 -1.906889e+000 3.631927e-001 4.197671e-001 1.230946e+000 3.017074e-001 -2.257588e-002 -5.533986e-002 -1.840648e-001 -2.862343e-001 4.478873e-001 4.362978e-001 7.383202e-001 1.829552e+000 6.308925e-001 -6.563897e-001 -4.644291e-001 -5.731007e-001 -8.724650e-001 -1.130709e+000 -1.789665e+000 -1.587425e+000 -1.915380e+000 -1.762469e+000 -1.355668e+000 1.812608e+000 2.001537e+000 3.448465e-001 -1.313325e+000 -1.344031e+000 -1.506221e+000 -1.086731e+000 -4.698487e-001 -5.982089e-001 -8.312804e-001 -8.017814e-001 -1.416742e+000 -1.221346e+000 1.367363e+000
<VARIANCE> 39
 8.302446e-001 6.307143e-001 2.361161e+000 1.381644e+000 1.658281e+000 1.271409e+000 1.517154e+000 1.216993e+000 1.321646e+000 1.402366e+000 1.780480e+000 1.653424e+000 3.309025e-001 1.562919e+000 1.439667e+000 2.070004e+000 2.339874e+000 3.109094e+000 2.167225e+000 2.276668e+000 1.562770e+000 1.987570e+000 2.053380e+000 2.335505e+000 2.267564e+000 2.094920e+000 1.902145e+000 2.662531e+000 2.069354e+000 2.484815e+000 1.119310e+000 1.963933e+000 1.971322e+000 2.055747e+000 1.632053e+000 2.179134e+000 2.374368e+000 2.309910e+000 1.476496e+000
<GCONST> 9.234815e+001
<MIXTURE> 6 8.319263e-002
<MEAN> 39
 -1.048230e+000 -3.090965e-003 1.166953e+000 -1.150201e+000 -1.545184e+000 -1.586455e+000 -3.311896e-001 1.499981e+000 -3.867023e-001 -1.064359e+000 1.045580e+000 2.908532e-001 1.094106e+000 -4.892736e-001 5.166521e-001 9.401796e-001 -2.316641e-001 3.102156e-001 6.824061e-001 -3.083653e-001 1.148926e-001 5.235707e-002 3.870127e-001 7.161506e-001 1.767863e-001 6.326547e-001 1.979504e-001 -2.626277e-001 -3.358905e-001 3.782588e-001 7.085030e-001 6.268713e-001 3.292795e-001 -3.994686e-001 -2.829535e-001 1.237218e-002 -1.842967e-001 -3.363583e-001 -4.144123e-002
<VARIANCE> 39
 9.686919e-001 2.097625e+000 1.715466e+000 2.919456e+000 1.908595e+000 1.509469e+000 2.066063e+000 1.967007e+000 1.101821e+000 2.132910e+000 1.286589e+000 2.641044e+000 3.256284e-001 3.540882e+000 2.958416e+000 1.924635e+000 4.922410e+000 4.397296e+000 5.380786e+000 3.499779e+000 3.028179e+000 1.873789e+000 1.733993e+000 2.210801e+000 3.552969e+000 1.996837e+000 3.698420e+000 2.298894e+000 1.371654e+000 3.377593e+000 4.423362e+000 6.243152e+000 3.659058e+000 2.749717e+000 2.713514e+000 3.832529e+000 2.689231e+000 3.772193e+000 2.541885e+000
<GCONST> 1.063585e+002
<MIXTURE> 8 5.635331e-002
<MEAN> 39
 1.555591e+000 -3.287081e+000 -2.463243e+000 -1.123792e-001 -1.911415e+000 -1.284243e-001 -1.612682e+000 -6.635342e-001 -2.281353e+000 -2.226184e+000 -1.387845e+000 -1.229058e+000 2.851324e+000 -9.797025e-002 -1.704472e-001 2.053655e-001 -2.627535e-001 -2.081622e-001 4.320247e-001 1.999530e-001 -8.043493e-002 1.345485e-001 -5.684313e-001 9.431402e-002 2.873725e-001 1.694164e-001 -2.282384e-001 8.723251e-001 8.085783e-001 -1.924434e-001 3.604229e-001 -4.934713e-001 4.439616e-002 2.320231e-001 -1.434513e-001 7.429072e-002 4.642760e-002 1.285567e-001 -3.813385e-001
<VARIANCE> 39
 2.205149e-001 2.628687e-001 1.775468e+000 1.692571e+000 1.206802e+000 2.094982e+000 2.322728e+000 2.583526e+000 3.285990e-001 3.194951e-001 5.752162e-001 1.315202e+000 4.525872e-002 2.845359e-001 2.151953e+000 1.712862e+000 1.096958e+000 6.478962e-001 1.156584e+000 8.928901e-001 1.192886e+000 1.272041e+000 8.001322e-001 7.836713e-001 8.149607e-001 2.871818e-001 5.882626e-001 1.027295e+000 1.266271e+000 1.050101e+000 6.536592e-001 1.368123e+000 6.302378e-001 1.163051e+000 1.480859e+000 1.190953e+000 5.278486e-001 6.618201e-001 2.105972e-001
<GCONST> 6.257393e+001
<MIXTURE> 9 5.474100e-002
<MEAN> 39
 -2.366929e-001 -1.198645e+000 2.627957e-001 3.098234e-001 8.531323e-001 3.050696e-001 8.353531e-001 1.384565e+000 1.013226e-001 -8.422127e-001 4.437824e-001 1.125139e+000 6.659410e-004 -7.651273e-001 -2.637784e+000 -2.631224e-001 -1.406089e+000 4.255429e-001 2.721926e-001 5.005882e-001 3.636956e-001 -1.781906e-001 -5.970439e-001 -1.659344e-002 -3.046556e-001 1.331864e+000 4.241985e-001 1.067120e+000 -9.392899e-001 -1.712581e-001 -7.090903e-001 1.714838e-001 -4.630448e-001 -1.264686e+000 3.927906e-001 1.119676e+000 9.222536e-003 -7.501552e-001 3.557419e-001
<VARIANCE> 39
 2.194361e-001 4.094034e-001 9.770270e-001 6.914160e-001 7.404892e-001 1.574628e+000 1.947597e+000 8.646837e-001 4.163312e-001 4.251703e-001 1.379595e+000 8.853462e-001 8.631776e-002 5.988846e-001 2.104541e+000 1.631157e+000 1.211903e+000 1.220177e+000 1.434624e+000 1.648815e+000 8.588225e-001 1.905401e+000 2.739919e+000 2.023655e+000 1.217743e+000 1.682190e+000 1.789078e+000 2.150603e+000 1.001357e+000 1.635880e+000 1.039459e+000 1.782287e+000 2.611967e+000 1.422975e+000 9.885814e-001 1.933420e+000 1.592983e+000 1.183344e+000 2.748154e+000
<GCONST> 7.652715e+001
<MIXTURE> 10 4.148678e-002
<MEAN> 39
 1.622132e+000 -2.116232e+000 1.512971e+000 9.525521e-002 6.328608e-001 -4.155648e-001 -1.885436e-001 1.398504e+000 -1.202547e+000 -5.033565e-001 2.051850e-001 -7.272266e-001 1.012002e+000 3.837428e-002 -2.719265e+000 2.115824e-001 -4.430074e-001 7.446144e-001 3.860918e-001 4.739111e-001 3.357631e-002 -1.083358e+000 -6.745590e-002 -2.712234e-001 9.794331e-002 2.656661e+000 -2.095495e+000 1.382524e+000 -2.244766e+000 2.028468e-001 -9.787756e-001 7.505389e-001 6.240318e-002 -1.373060e+000 6.852385e-001 1.507450e-001 1.379383e-001 3.762809e-001 -1.281738e+000
<VARIANCE> 39
 1.403353e+000 7.385050e-001 2.645179e-001 1.922141e+000 5.572468e-001 1.014041e+000 1.881299e+000 1.969914e+000 2.057237e+000 1.616632e+000 2.604604e+000 1.898228e+000 5.599219e-001 4.950144e+000 2.232568e+000 3.342760e+000 4.343819e+000 1.798315e+000 1.518172e+000 5.083393e+000 2.862419e+000 4.233432e+000 2.780200e+000 4.139173e+000 3.742634e+000 1.448899e+000 3.322795e+000 3.402383e+000 2.082127e+000 3.474152e+000 1.239983e+000 9.745807e-001 3.251282e+000 3.973785e+000 7.406669e+000 3.263753e+000 3.320162e+000 2.594286e+000 2.634239e+000
<GCONST> 1.017917e+002
<MIXTURE> 11 8.637654e-002
<MEAN> 39
 8.296292e-001 -1.729617e+000 -1.021454e+000 -7.623167e-001 1.973957e-001 -7.601554e-001 -3.350286e-001 -7.616339e-001 -6.857717e-001 -6.529261e-001 -1.409075e+000 -6.424429e-001 1.441466e+000 9.408540e-002 -1.043736e+000 -5.267970e-001 -7.547897e-001 -2.023213e-001 -1.191299e-001 -1.137732e-001 4.973280e-001 -4.818743e-001 9.745836e-002 -2.457496e-001 2.396752e-001 7.758477e-001 -8.238354e-001 7.520642e-001 5.884774e-001 1.026323e+000 1.610846e-001 5.058643e-001 4.107453e-001 -5.343087e-002 5.125729e-001 6.179019e-003 7.067938e-001 2.805454e-001 -1.193923e+000
<VARIANCE> 39
 3.144426e-001 4.515006e-001 7.334726e-001 9.444187e-001 1.004144e+000 9.966496e-001 1.667927e+000 1.465598e+000 1.877648e+000 9.816007e-001 6.169956e-001 1.604739e+000 1.886640e-001 2.981336e-001 8.921811e-001 5.829797e-001 1.251492e+000 8.767465e-001 6.987683e-001 1.585121e+000 8.703949e-001 5.323577e-001 6.722171e-001 7.449695e-001 1.191102e+000 2.041864e-001 8.343092e-001 2.299604e+000 7.472116e-001 7.517753e-001 1.229184e+000 9.525962e-001 1.391535e+000 8.473524e-001 8.509225e-001 4.815887e-001 7.266858e-001 9.440704e-001 3.911489e-001
<GCONST> 6.283256e+001
<MIXTURE> 12 1.562954e-001
<MEAN> 39
 -7.304124e-001 -1.347534e+000 -2.027027e-001 4.228112e-001 8.260866e-001 3.187215e-001 1.131409e+000 3.052903e-001 2.456921e-001 3.676885e-001 3.891954e-001 -3.848497e-003 4.106896e-001 -3.742462e-001 -7.124109e-001 -3.847838e-001 1.574782e-001 1.186469e-001 -2.642712e-001 -2.881059e-001 -3.009249e-001 -2.282061e-001 1.573929e-002 2.067492e-001 6.232468e-002 6.814959e-001 6.404393e-001 6.519119e-001 1.242831e-001 1.633541e-001 -1.329054e-001 -3.986304e-001 -4.082102e-001 -6.438326e-002 -2.747205e-001 -3.264343e-001 -9.124182e-002 2.482959e-001 -1.231576e-001
<VARIANCE> 39
 6.231717e-001 5.650493e-001 1.222853e+000 8.820415e-001 6.991585e-001 1.073257e+000 1.115495e+000 8.278818e-001 1.066755e+000 1.377126e+000 1.171565e+000 1.163595e+000 1.684076e-001 4.143571e-001 5.649605e-001 9.957348e-001 1.136180e+000 8.527410e-001 1.013034e+000 8.222314e-001 1.353415e+000 1.383183e+000 1.054760e+000 1.880319e+000 2.289163e+000 6.047084e-001 7.506611e-001 1.390373e+000 9.364519e-001 1.630255e+000 1.311978e+000 1.061879e+000 7.084475e-001 1.378493e+000 1.544005e+000 9.005585e-001 1.904502e+000 2.457213e+000 7.011687e-001
<GCONST> 7.151329e+001
<MIXTURE> 13 1.257057e-002
<MEAN> 39
 -2.353229e-001 -2.702393e+000 7.708724e-001 -9.932805e-001 1.328024e+000 -1.486255e-001 -8.869557e-001 1.071481e+000 -8.978969e-001 2.235344e+000 2.024528e+000 -7.879394e-001 1.044594e+000 6.852263e-001 -3.295041e+000 1.917150e+000 -9.702911e-001 2.951423e+000 -4.192740e-001 -2.707783e-001 1.402020e+000 -6.578425e-001 1.084019e+000 5.040444e-001 1.043219e+000 3.777550e+000 1.160883e+000 4.352557e+000 -1.563551e-001 1.572166e+000 -4.608047e-001 -1.591962e-001 4.285084e-001 -1.501620e+000 4.404800e-001 -2.560958e+000 -2.990632e+000 8.538467e-001 -2.405017e+000
<VARIANCE> 39
 1.238791e+000 7.979748e-001 1.351776e+000 3.295023e-001 2.297336e+000 1.156581e+000 2.267069e+000 2.182293e+000 6.203507e-001 5.716090e-001 2.186253e+000 1.508319e+000 1.734926e-001 1.376171e+001 3.903221e+000 4.562244e+000 5.361176e-001 2.508482e+000 1.296056e+000 2.485960e+000 1.057622e+001 1.148403e+000 9.957001e-001 6.311738e-001 1.819843e+000 1.268314e+000 3.866212e+000 1.445029e+000 3.000124e+000 1.898739e+000 5.455181e+000 1.305686e+000 6.319800e+000 3.691245e+000 8.389487e-001 1.833740e+000 4.288426e-001 4.334520e+000 1.057593e+000
<GCONST> 9.135436e+001
<MIXTURE> 14 5.364119e-003
<MEAN> 39
 3.702342e-001 -1.224192e+000 -3.125846e-001 4.861221e-002 9.691311e-001 3.842064e-001 2.171274e-001 9.982778e-001 -2.213909e-001 3.545670e-001 -2.039899e-001 8.548842e-001 5.358874e-001 -7.496229e-001 -4.779579e+000 -3.079915e-001 -2.319927e-001 1.783388e-001 -2.405242e-001 -8.336045e-001 -1.546615e+000 -4.194915e+000 -2.571916e+000 -2.134330e-001 1.163909e-001 5.065023e-002 -2.185566e+000 -9.425396e-001 1.088130e+000 -1.000975e+000 -4.991533e-001 -1.096323e-002 -5.690577e-001 -2.603943e-001 7.968098e-002 8.462608e-001 6.839334e-001 -1.353603e+000 8.087995e-001
<VARIANCE> 39
 1.376400e-001 6.948145e-001 1.253047e+000 2.686051e-001 5.405658e-002 4.051497e-001 1.292354e+000 8.310225e-001 8.376944e-002 7.100987e-002 6.765520e-001 1.848094e-001 8.355944e-002 2.970326e-001 3.713062e+000 6.912708e-001 1.144563e-001 1.953512e-001 1.654029e+000 3.758864e-001 8.449447e-001 1.964218e+000 9.999961e-003 8.570566e-001 7.575922e-001 2.030935e+000 6.650468e-002 3.584644e+000 2.707248e+000 1.756414e+000 2.328576e-001 4.799650e-001 1.757550e-001 5.971646e-001 1.326723e+000 5.053694e-001 1.462445e+000 5.034592e-001 5.005340e-001
<GCONST> 4.071801e+001
<MIXTURE> 15 5.618440e-002
<MEAN> 39
 1.453658e+000 -9.134434e-001 1.465970e-001 3.583538e-001 7.873931e-001 5.096364e-002 1.007977e+000 2.477123e-001 -1.076129e-003 -1.005673e+000 -7.764590e-001 -9.286109e-001 1.569832e+000 1.641218e+000 -7.143821e-002 1.112435e-001 -1.238798e+000 -6.349269e-001 -3.033417e-001 -6.930989e-001 -3.482118e-001 6.213555e-001 4.685766e-001 -2.974162e-001 -9.136912e-001 2.077364e+000 -1.352250e+000 -1.983132e+000 -1.308748e+000 -9.305452e-001 -3.457220e-001 -4.984537e-001 -5.715907e-001 -2.213982e-002 -7.316079e-001 1.629804e-001 -1.694823e-001 4.637906e-001 -1.425245e+000
<VARIANCE> 39
 6.225225e-001 7.617824e-001 1.172322e+000 1.281131e+000 8.460738e-001 1.141620e+000 1.226556e+000 2.493663e+000 1.513108e+000 5.877461e-001 9.460202e-001 1.310048e+000 2.239319e-001 8.835299e-001 2.288600e+000 1.812065e+000 1.895128e+000 1.496753e+000 1.685536e+000 1.289441e+000 2.074091e+000 2.002236e+000 6.370049e-001 1.401934e+000 1.013167e+000 8.829446e-001 5.534793e-001 9.248154e-001 1.636869e+000 1.681495e+000 1.826849e+000 7.074964e-001 9.510138e-001 1.712074e+000 7.486328e-001 6.587968e-001 8.989217e-001 7.333095e-001 9.467341e-001
<GCONST> 7.524719e+001
<MIXTURE> 16 5.364134e-003
<MEAN> 39
 -1.242692e+000 -6.480029e-001 4.409402e-001 -7.354326e-001 -6.393769e-001 -1.651194e+000 8.661318e-001 1.439737e+000 -4.283649e-001 -4.340424e-001 9.096271e-001 5.658507e-001 7.213966e-001 5.050027e-001 -2.855390e+000 4.642657e+000 -1.985196e+000 -4.057437e+000 -1.864672e+000 -3.802733e-001 2.928162e+000 -5.411376e+000 -5.629496e+000 -2.474452e+000 -2.206779e+000 3.485788e+000 3.222491e+000 5.497210e-001 -1.089645e-001 -6.792828e-001 4.329420e-002 2.370738e+000 -2.300282e+000 -1.253506e+000 -5.103744e-001 1.424213e-001 -2.567641e+000 -6.527173e-001 -4.260171e+000
<VARIANCE> 39
 2.580938e-001 8.640241e-002 5.468850e-001 1.391618e+000 2.756807e+000 8.031401e-001 1.612794e+000 1.107028e+000 2.544026e+000 6.076069e+000 2.786405e-001 5.668004e-001 8.976369e-002 5.569863e+000 6.539902e+000 2.222634e-001 1.191362e+000 1.602798e+001 2.408256e+000 2.531994e+000 2.431610e+000 1.113592e+000 4.750023e+000 4.649589e+000 2.051863e+000 7.060005e+000 3.191318e+000 1.129540e+000 3.261133e+000 4.284270e+000 7.972218e+000 2.183301e-001 6.922429e-001 2.665931e+000 3.637855e+000 1.196987e+001 5.736756e-001 3.559774e-001 3.879577e+000
<GCONST> 8.969760e+001
<STATE> 3
<NUMMIXES> 16
<MIXTURE> 1 1.326289e-001
<MEAN> 39
 1.063835e-001 6.830924e-001 2.140512e+000 7.583624e-001 4.380000e-001 -4.396062e-001 6.006855e-001 1.712192e+000 -1.988549e+000 -6.518819e-001 2.087930e+000 -2.482353e-001 1.988605e+000 5.125766e-002 6.935631e-002 -2.500528e-002 -2.296639e-002 -2.163965e-003 -5.715245e-002 1.636506e-001 -5.860073e-002 4.164559e-002 -5.437052e-003 -1.155035e-001 -3.031109e-002 7.647862e-002 -2.686864e-002 3.170950e-002 4.564994e-003 -3.334859e-002 9.458228e-003 8.511472e-002 -5.698464e-003 3.193890e-002 1.347237e-001 -5.682090e-002 -2.287997e-002 -7.935999e-003 -1.466310e-002
<VARIANCE> 39
 5.142724e-002 9.685030e-002 1.849206e-001 1.874274e+000 6.793660e-001 1.059007e+000 5.927375e-001 7.409286e-001 1.120900e+000 2.982908e+000 6.512092e-001 2.815649e+000 1.000004e-002 2.190102e-001 3.183730e-001 1.730403e+000 2.301108e+000 1.086268e+000 2.418675e+000 3.315635e+000 2.895281e+000 3.118163e+000 2.794586e+000 2.876392e+000 2.835147e+000 9.999961e-003 2.562066e-001 4.613814e-001 2.144044e+000 2.331171e+000 8.785661e-001 2.722133e+000 3.693942e+000 3.165463e+000 3.170070e+000 2.741789e+000 2.970562e+000 2.967635e+000 9.999896e-003
<GCONST> 6.551453e+001
<MIXTURE> 2 1.252844e-001
<MEAN> 39
 6.597187e-002 -2.581769e+000 -1.057066e+000 -1.085567e+000 2.385016e-001 -1.353926e+000 -7.175525e-002 -1.875033e+000 -1.560957e+000 -1.844185e+000 -8.598554e-001 -1.268614e+000 2.312263e+000 5.646097e-002 3.063738e-001 2.339416e-001 -4.302424e-001 -8.118392e-001 1.627036e-001 6.814355e-001 -4.260307e-002 5.522484e-002 -2.768154e-002 -4.413681e-002 -1.639295e-001 -1.680967e-001 2.621911e-001 6.366552e-001 7.101120e-002 -3.328551e-001 -6.573490e-001 8.445867e-002 -1.448678e-001 6.982672e-002 -3.202704e-001 -4.322506e-001 -2.979385e-001 3.048668e-002 -5.221839e-001
<VARIANCE> 39
 7.942026e-001 8.590403e-002 2.127185e+000 1.297401e+000 2.157150e+000 1.889691e+000 2.613937e+000 7.871244e-001 6.243469e-001 5.592675e-001 2.975865e+000 2.104890e+000 7.311898e-002 2.767192e-001 4.896442e-001 7.278852e-001 1.929579e+000 1.389278e+000 1.812603e+000 1.561170e+000 1.257970e+000 1.466200e+000 1.678728e+000 1.722697e+000 1.820592e+000 2.249051e-001 4.644716e-001 8.631310e-001 9.650624e-001 2.038831e+000 1.151756e+000 1.307273e+000 1.357964e+000 1.201814e+000 1.475368e+000 1.174217e+000 1.380589e+000 1.849137e+000 2.108079e-001
<GCONST> 7.138387e+001
<MIXTURE> 3 1.928839e-001
<MEAN> 39
 9.925429e-001 -9.971088e-001 -8.914872e-001 -3.674956e-002 -7.755460e-001 3.170592e-001 -3.366595e-001 -5.192863e-001 -1.441718e-001 -9.195154e-001 -9.766694e-001 -5.006648e-001 1.094109e+000 -1.721430e-002 1.451651e-001 1.725433e-002 -1.007567e-001 -1.594675e-001 1.172820e-001 -3.327559e-002 1.490979e-002 -2.107353e-002 -1.469374e-001 3.811882e-002 -4.178765e-002 4.168159e-002 -6.650326e-002 4.995654e-002 1.177217e-002 -7.923726e-002 -1.356183e-002 -4.763104e-002 1.007786e-001 -1.848158e-002 -3.275582e-002 -2.842290e-002 -1.843838e-002 2.418930e-002 -1.350191e-003
<VARIANCE> 39
 1.241180e-001 1.844149e-001 5.214099e-001 2.870559e-001 2.565948e-001 6.193386e-001 1.081605e+000 5.390912e-001 8.240298e-001 3.466742e-001 2.507620e-001 6.997001e-001 2.605062e-002 5.052230e-002 4.383471e-001 3.545485e-001 4.107889e-001 2.762755e-001 3.156147e-001 4.719753e-001 3.840632e-001 6.260857e-001 4.441561e-001 3.731769e-001 4.264081e-001 4.561285e-002 8.526602e-002 3.385540e-001 3.769893e-001 4.029411e-001 3.086290e-001 3.483853e-001 3.863693e-001 3.632283e-001 6.155787e-001 4.509979e-001 3.819235e-001 4.045844e-001 7.847692e-002
<GCONST> 2.557435e+001
<MIXTURE> 5 3.400368e-003
<MEAN> 39
 -1.954011e+000 1.018774e+000 -5.336835e-001 -2.605696e+000 2.179419e-001 -1.250902e+000 2.994059e-001 2.048996e+000 -8.733987e-001 -2.207101e+000 -2.118423e+000 -1.854429e+000 1.546349e+000 -2.205662e+000 6.934006e-001 4.983272e-001 -1.090120e+000 -7.356687e-001 4.650563e-001 -3.581262e-001 -4.920943e-001 -3.874941e-001 -4.394479e-001 -3.841233e-001 -1.561305e+000 2.973102e-001 2.876659e+000 -1.611640e+000 4.984089e-001 2.497410e+000 -1.177295e+000 -6.202851e-001 -4.200005e-001 -1.924755e+000 -4.389496e-001 8.932963e-001 9.278168e-002 6.550059e-002 3.189581e-001
<VARIANCE> 39
 1.000004e-002 1.147698e-002 8.564967e-002 3.552270e-002 8.033732e-002 3.682483e-001 1.000001e-002 2.530122e-002 5.049827e-002 9.999962e-003 9.999943e-003 2.375754e-002 1.000004e-002 2.973612e-001 2.918530e-002 8.124910e-002 6.989835e-001 1.000000e-002 9.999997e-003 4.610277e-002 8.747171e-001 4.410058e-001 7.033008e-002 1.472832e-002 3.402540e-001 9.999961e-003 1.532378e-001 5.049945e-001 9.999952e-003 5.639412e-001 2.033985e-001 7.269512e-001 9.999976e-003 1.550090e-002 2.817040e-001 3.157347e-001 2.506381e-001 6.110891e-002 4.807037e-002
<GCONST> -3.699918e+001
<MIXTURE> 6 1.190299e-002
<MEAN> 39
 8.134187e-001 -1.397307e+000 1.144583e+000 -2.120389e+000 -1.896831e+000 -8.012276e-001 1.226254e+000 7.453185e-001 -1.372774e+000 1.178137e-001 -2.472135e+000 3.701499e-002 1.657523e+000 -3.782372e-001 1.465150e+000 9.330453e-001 1.013529e+000 1.361108e+000 -1.382412e+000 -7.009817e-001 -1.337905e-002 1.880730e+000 -5.119827e-001 1.463144e+000 3.650032e-001 -6.380301e-001 -2.137024e+000 1.329101e+000 -2.031840e+000 1.772523e+000 1.254248e+000 9.943217e-001 -6.237876e-001 -1.135104e+000 9.011307e-001 6.663249e-002 1.551817e+000 1.327950e+000 -6.618391e-001
<VARIANCE> 39
 1.491260e+000 9.623415e-001 1.992490e+000 4.188425e-001 1.094158e+000 2.779170e-001 1.571355e-001 1.900195e+000 5.798635e-001 4.087576e+000 6.328421e-001 4.738037e-001 6.657054e-002 1.676290e+000 2.088926e+000 1.800015e+000 3.169213e+000 4.084677e+000 7.693827e-001 1.354373e+000 1.323923e+000 3.453009e-001 3.387428e+000 3.022294e+000 2.372477e+000 2.496869e-001 1.826592e+000 3.754314e+000 8.804476e-001 1.024416e+000 2.957589e+000 6.663338e-001 8.843145e-001 1.125013e+000 4.529790e-001 4.264861e+000 2.245778e+000 3.017494e+000 4.878213e-001
<GCONST> 7.621968e+001
<MIXTURE> 8 1.020172e-002
<MEAN> 39
 3.698604e-001 1.522308e-002 1.119723e+000 -1.565353e+000 -1.421441e+000 -1.708034e+000 5.226020e-001 -1.362174e+000 2.019299e+000 -3.292326e+000 -9.757220e-001 8.027695e-001 1.662951e+000 -7.366993e-001 3.668514e-001 2.251801e+000 1.613378e+000 -1.073629e+000 -6.002446e-002 -1.358031e+000 1.676665e+000 -3.919421e-001 -1.014594e+000 7.415684e-001 7.686056e-001 -5.847651e-001 -1.064330e+000 -7.872257e-001 -2.902948e-001 2.931500e-001 1.340998e-001 2.253038e-001 -4.084885e-002 4.868911e-001 -4.485665e-001 1.500475e+000 -4.839361e-001 -2.886381e-001 -1.556990e-002
<VARIANCE> 39
 1.000004e-002 3.206962e-002 8.209565e-001 4.087657e-001 2.192408e-001 1.412159e-002 8.564286e-001 8.263004e-001 3.173952e-001 3.623403e+000 2.847698e-001 2.791258e+000 1.084572e-002 4.069971e-001 2.319646e-001 5.304927e-001 2.301218e-001 6.573380e-001 1.407905e-001 8.976678e-001 9.918725e-001 1.441820e+000 4.311780e+000 1.149828e+000 3.912524e+000 2.959825e-002 1.426587e+000 3.785208e-001 2.809750e+000 1.168039e-001 1.290048e+000 3.964911e-002 2.943658e+000 2.287706e+000 2.504803e+000 9.348834e+000 8.153836e-001 6.882050e+000 1.800348e-001
<GCONST> 4.502229e+001
<MIXTURE> 9 6.800879e-003
<MEAN> 39
 8.432193e-001 -8.493218e-001 -9.202474e-001 1.143888e+000 -1.388519e+000 1.814263e-001 -3.085469e-001 -5.820014e-002 -2.733609e+000 -2.308050e+000 -2.183537e+000 1.364187e-001 1.714507e+000 -3.152599e+000 2.754177e+000 3.622546e-001 -2.083250e+000 4.012051e+000 7.807611e-004 2.460663e+000 -6.051414e-001 3.845892e-001 3.214255e-002 -1.208873e-001 6.316178e-001 -9.595925e-001 -3.669297e+000 1.788846e+000 -6.480835e-001 -3.348010e+000 9.389598e-003 -5.225498e-001 2.200650e-001 8.906122e-001 9.151508e-001 1.782163e+000 1.399023e+000 -1.059750e+000 9.132919e-002
<VARIANCE> 39
 7.852232e-001 1.001864e+000 2.706582e-001 2.940918e-001 6.249374e-001 2.445935e-001 4.790668e-001 1.932360e-001 6.558456e-002 2.484799e-001 9.904669e-001 2.061686e+000 2.473468e-001 9.936234e-001 1.063203e+000 1.244335e-001 1.458103e+000 6.859595e-001 8.137847e-001 1.650742e-001 9.383681e-002 3.191145e-001 1.598080e+000 7.997484e-001 3.671929e-001 3.544990e-001 3.696587e-001 6.394864e-001 1.652934e-001 3.074469e-001 2.230976e+000 5.509604e-001 1.524899e+000 2.678553e-001 5.904012e-001 9.383829e-001 1.432388e-001 9.186903e-001 1.593848e-001
<GCONST> 4.094456e+001
<MIXTURE> 10 6.800804e-003
<MEAN> 39
 -6.049706e-001 4.724212e-001 -9.460296e-001 -1.256764e+000 -8.431518e-003 -2.015516e+000 6.777414e-001 5.444763e-001 -7.300752e-001 -1.948247e+000 -2.044445e+000 2.810567e-001 1.389547e+000 -4.846300e+000 3.311553e+000 3.408773e-001 -4.430679e+000 2.069713e+000 -9.384686e-001 2.854781e-001 1.538753e+000 1.177742e+000 1.271178e+000 8.048170e-001 -2.941148e-001 -4.158791e-001 7.415152e-001 -1.618977e+000 1.264140e-001 4.030817e-001 -2.574876e+000 6.922197e-001 -1.614610e+000 7.579020e-001 -1.031420e+000 -1.057690e-001 -4.055488e-001 -1.626979e+000 1.218418e+000
<VARIANCE> 39
 5.908807e-001 1.983301e-001 5.062773e-002 3.966698e-001 3.056252e-001 2.933525e-001 1.638562e-001 1.056782e+000 3.246265e-001 1.722836e-001 2.247434e-001 3.267736e+000 2.879803e-002 2.496542e-001 1.223028e+000 6.843472e-002 1.379767e+000 7.456149e-001 1.412603e+000 1.971738e-001 3.387310e-002 2.269525e+000 1.081848e+000 6.653779e-001 8.455858e-001 2.984836e-001 2.728268e+000 2.274549e+000 4.803159e-002 3.852048e+000 4.470457e-001 1.270636e+000 5.172844e-001 2.090162e+000 8.035192e-001 3.041583e+000 7.970098e-001 8.432875e-001 4.297070e-002
<GCONST> 4.233076e+001
<MIXTURE> 11 2.563792e-001
<MEAN> 39
 1.679249e+000 -2.213766e+000 -4.531831e-001 -1.280912e+000 2.248565e-001 -6.235587e-001 -1.084371e-001 6.970083e-001 -2.559991e-001 -1.042013e+000 -7.330040e-001 -1.702879e+000 2.120062e+000 -8.549364e-002 6.927300e-002 2.568822e-001 -8.159152e-002 -5.145255e-001 -4.079897e-001 -4.101302e-002 2.996595e-001 2.266211e-001 4.907219e-002 -1.585927e-001 1.674771e-002 9.443720e-002 -2.162944e-002 3.549462e-001 2.302705e-001 2.226928e-001 -3.028653e-001 -6.165039e-002 -1.303690e-002 3.627463e-002 2.193008e-001 5.201530e-002 2.661696e-002 2.494940e-001 -1.998537e-001
<VARIANCE> 39
 7.958835e-001 1.760294e-001 1.074580e+000 6.314007e-001 2.415913e+000 2.285281e+000 2.237367e+000 1.871512e+000 2.146734e+000 1.526360e+000 1.384002e+000 1.240960e+000 1.768641e-001 1.385549e-001 1.932231e-001 8.145871e-001 6.554950e-001 6.606076e-001 6.349050e-001 7.066169e-001 6.751568e-001 8.035926e-001 5.254161e-001 7.474089e-001 7.498961e-001 5.694210e-002 2.191229e-001 3.331546e-001 8.421954e-001 5.246723e-001 5.627206e-001 5.623903e-001 7.167963e-001 6.388446e-001 5.625368e-001 4.710498e-001 6.263733e-001 8.768427e-001 9.346661e-002
<GCONST> 5.263311e+001
<MIXTURE> 12 2.040451e-002
<MEAN> 39
 2.323293e-001 -8.560585e-001 2.867528e-001 -7.196835e-001 -2.567775e+000 -1.603529e+000 -1.264722e+000 1.440250e+000 -1.399386e+000 -3.449968e-001 -4.176863e-001 9.439261e-002 1.619386e+000 -8.090050e-001 1.512594e+000 2.579138e-001 1.007316e+000 1.178830e+000 -5.267835e-001 5.250185e-001 -1.267304e+000 2.886262e-001 -1.345672e-001 -3.889005e-001 2.634982e-001 -4.485907e-001 -1.603125e+000 1.708258e+000 -1.433309e+000 -7.997447e-001 1.894028e+000 1.183885e+000 2.167938e+000 -1.137700e+000 7.664162e-001 -9.383751e-001 -7.497238e-001 -5.966079e-001 -2.691165e-001
<VARIANCE> 39
 1.337990e+000 1.559749e+000 1.285073e+000 7.835513e-001 1.159268e+000 3.770816e-001 8.489381e-001 3.275741e+000 1.017316e+000 1.534683e+000 2.363580e+000 1.398780e+000 1.713730e-001 1.516089e+000 1.982926e+000 1.816643e+000 1.222516e+000 3.155821e+000 3.061503e+000 2.160083e+000 1.781151e+000 1.705310e+000 2.022441e+000 1.857038e+000 1.456519e+000 3.367581e-001 1.488893e+000 1.324739e+000 8.453080e-001 3.121950e+000 2.955209e+000 1.083586e+000 2.115587e+000 3.099489e+000 1.375063e+000 1.592052e+000 3.251335e+000 1.539932e+000 8.246241e-001
<GCONST> 8.604687e+001
<MIXTURE> 13 3.568767e-002
<MEAN> 39
 2.236623e+000 -2.689000e+000 -5.670518e-001 -1.113142e+000 -8.379725e-001 3.162399e-001 -7.351428e-002 6.552708e-001 1.261442e+000 -1.157174e+000 -9.205052e-001 -1.433790e+000 2.886429e+000 1.052951e+000 -1.371478e+000 1.946985e-001 -1.265969e+000 -6.772987e-001 -2.316294e-001 -5.417560e-001 5.423808e-001 -1.731800e-001 -2.824381e-001 1.057281e-001 -1.306414e+000 2.112586e+000 -2.005309e+000 5.144023e-001 4.494332e-001 4.855727e-001 4.203475e-001 8.322404e-002 4.027922e-001 1.702698e-001 -2.408932e-001 -4.379714e-001 7.991365e-002 6.993198e-001 -2.344733e+000
<VARIANCE> 39
 3.700986e-001 7.916061e-001 1.588074e+000 1.236593e+000 2.484467e-001 1.886764e+000 4.162861e+000 1.867037e+000 4.145789e-001 3.629667e-001 1.351677e+000 1.416896e+000 7.153530e-001 2.851554e+000 9.166837e-001 1.894017e+000 5.855979e-001 8.190487e-001 7.519602e-001 6.734362e-001 1.276050e+000 3.372287e-001 5.560777e-001 1.163436e+000 1.816566e+000 3.927809e+000 1.512130e+000 1.867360e+000 1.854566e+000 9.702864e-001 5.158374e-001 6.657534e-001 6.694929e-001 1.534668e+000 7.635257e-001 1.336877e-001 7.932440e-001 7.315453e-001 1.481138e+000
<GCONST> 6.985929e+001
<MIXTURE> 14 3.063834e-002
<MEAN> 39
 6.457899e-001 -2.786208e+000 -6.816214e-001 -8.419101e-001 -6.563289e-001 -8.251282e-001 -1.116281e+000 -2.031681e+000 -2.294053e+000 -3.158634e+000 -1.330833e+000 -9.106203e-001 2.360164e+000 1.693969e-001 -1.378593e+000 -2.032207e-001 -4.953370e-001 -3.499558e-001 -3.304314e-001 8.784356e-001 -9.135684e-001 -2.447194e-001 -2.922286e-001 -1.280610e+000 -9.623883e-001 2.093959e+000 -1.434096e+000 9.589405e-001 1.613161e+000 6.086485e-001 1.334275e+000 4.818020e-001 6.130024e-001 2.220529e+000 1.779836e+000 2.065103e+000 1.481465e+000 6.875186e-001 -2.304396e+000
<VARIANCE> 39
 1.241078e+000 2.676435e-001 1.600061e+000 5.756204e-001 1.314829e+000 5.598321e+000 1.751059e+000 1.672100e+000 3.783928e-001 8.651471e-001 4.957593e+000 2.169056e+000 1.574767e-001 2.009350e+000 2.601026e+000 2.993893e+000 1.591845e+000 2.629317e+000 1.710665e+000 2.353738e+000 3.037120e+000 1.471129e+000 2.444265e+000 3.273201e+000 3.615949e+000 1.356041e+000 6.751462e-001 3.479590e+000 8.959846e-001 9.854227e-001 1.468565e+000 3.447510e+000 3.874131e+000 2.668869e+000 9.178981e-001 9.570330e-001 2.148163e+000 2.669004e+000 1.287482e+000
<GCONST> 9.027142e+001
<MIXTURE> 15 1.190135e-002
<MEAN> 39
 -6.411746e-001 -1.333409e+000 -6.307229e-001 1.882607e-001 8.381931e-002 -9.635261e-001 -1.266457e+000 -1.411238e+000 -1.324601e+000 -1.808959e+000 6.926317e-001 5.517708e-002 1.377259e+000 1.760626e+000 -1.139323e+000 -9.564146e-001 -1.640295e+000 -2.497873e+000 -2.806573e+000 -2.503086e+000 -4.080223e+000 -2.395027e+000 -2.635906e+000 -1.515108e+000 -1.563645e-002 2.446395e+000 -4.631630e-001 -2.810754e+000 -1.979572e-001 4.871208e-001 -7.209342e-002 -4.585425e-001 4.723366e-001 4.477111e-001 6.442332e-001 1.449278e+000 9.569708e-002 5.806859e-001 6.402305e-001
<VARIANCE> 39
 4.230998e-001 1.543032e-001 4.629153e+000 1.160952e+000 1.746320e+000 1.702800e+000 2.383876e+000 2.223292e-001 3.310550e-001 1.700954e-001 2.288383e+000 1.022478e+000 5.260575e-002 4.015227e-001 1.447064e+000 9.843300e-001 6.918530e-001 1.934846e+000 3.214449e+000 4.918448e-001 7.935253e-001 8.550790e-001 7.337447e-001 1.493804e+000 5.930546e+000 7.946284e-001 2.170378e+000 1.368722e+000 4.326076e+000 2.841853e+000 6.041592e+000 4.765968e+000 4.452847e+000 3.021613e+000 1.539279e+000 7.247531e-001 1.947732e+000 2.194845e+000 8.836496e-001
<GCONST> 7.855400e+001
<MIXTURE> 16 1.550851e-001
<MEAN> 39
 8.230942e-001 -1.552985e+000 -1.707031e+000 -1.942067e-001 -1.503815e+000 -7.222835e-001 4.241278e-001 -1.280633e+000 -1.052244e+000 -1.104077e+000 -1.533757e+000 5.772066e-001 1.751023e+000 -7.943452e-002 3.370411e-001 3.927881e-001 -3.188502e-001 -4.797387e-001 -2.333930e-001 2.697729e-001 2.640335e-002 1.668903e-001 -2.456891e-002 1.404947e-001 -4.026766e-002 -4.799884e-002 6.026845e-002 3.591409e-001 3.764553e-001 -6.713166e-002 2.813338e-001 -2.791351e-001 -3.726258e-002 6.441893e-002 4.886011e-002 -8.004675e-002 1.816518e-001 -4.818926e-001 -1.842953e-001
<VARIANCE> 39
 6.135373e-001 2.053103e-001 4.481994e-001 1.597657e+000 1.106537e+000 1.388546e+000 2.364583e+000 8.493264e-001 1.956289e+000 8.763342e-001 1.645029e+000 1.342987e+000 1.354256e-001 2.434027e-001 8.612754e-001 5.830582e-001 7.733007e-001 1.203276e+000 1.306633e+000 1.401888e+000 8.776326e-001 1.088657e+000 1.129880e+000 8.660882e-001 1.158285e+000 7.071554e-002 3.590325e-001 8.841677e-001 7.102708e-001 7.959075e-001 1.594640e+000 1.459614e+000 1.169549e+000 8.778725e-001 1.122158e+000 1.556486e+000 1.039051e+000 8.532866e-001 7.836175e-002
<GCONST> 6.263688e+001
<STATE> 4
<NUMMIXES> 16
<MIXTURE> 1 8.113240e-003
<MEAN> 39
 -1.764561e+000 -3.446033e-002 2.217647e-001 -6.689394e-001 -4.146193e-001 -9.838017e-001 2.370215e-001 1.699442e-001 -7.566802e-001 7.024028e-001 -3.869319e-002 -1.913565e+000 1.433878e+000 -1.351887e+000 -1.616690e+000 -1.573598e+000 -1.194645e-001 1.169156e+000 1.130796e-001 2.690459e-001 -2.902730e-001 -1.364673e-002 8.433840e-001 1.192916e-001 -4.185275e-001 4.512679e-001 1.039528e+000 1.588962e+000 9.890666e-001 -1.172833e+000 -4.745877e-001 5.509002e-001 -8.016715e-001 7.316231e-001 2.244214e+000 -2.018605e+000 8.636715e-001 1.972628e+000 3.573819e-001
<VARIANCE> 39
 8.456956e-002 2.052474e+000 1.729214e+000 1.929112e+000 1.309717e+000 5.069124e-001 3.603365e-002 2.716537e-001 2.136870e+000 1.245727e+000 5.719596e-001 1.517488e+000 1.172655e-002 2.297693e+000 4.693851e-001 5.955836e-001 1.389451e-001 3.549298e-001 1.840839e-001 5.791320e-001 6.348606e-002 1.745132e+000 5.698922e-001 5.175323e+000 6.104605e-001 1.062738e-001 2.455047e+000 4.425353e-001 6.969608e-001 3.837081e-001 4.551286e-001 7.326912e-002 1.533417e-001 5.106479e-001 2.993852e-001 3.503425e+000 1.796850e+000 8.971388e-002 6.719725e-002
<GCONST> 4.128022e+001
<MIXTURE> 2 1.532705e-001
<MEAN> 39
 6.704144e-001 -1.481563e+000 -8.315766e-001 -9.678550e-001 -9.895070e-001 -9.510918e-001 -2.137270e-001 -1.245353e+000 -1.624521e+000 -5.000305e-001 -8.072771e-001 -1.104924e+000 1.546718e+000 1.503575e-002 4.823820e-001 4.713575e-001 -4.808955e-001 -2.622621e-001 7.143346e-002 1.728073e-001 2.247196e-001 -1.673414e-001 8.713298e-002 -1.305728e-001 -1.910307e-001 -1.542910e-001 7.121537e-002 2.243339e-001 1.722659e-001 -6.144119e-002 -1.410821e-001 1.859310e-002 -1.135047e-001 9.980438e-002 1.738826e-001 -4.515406e-002 -1.679814e-001 5.052527e-002 -6.310003e-002
<VARIANCE> 39
 1.059667e-001 6.041322e-001 1.326600e+000 2.765291e-001 4.620319e-001 4.535756e-001 6.151170e-001 3.996892e-001 3.349232e-001 1.379062e+000 4.995503e-001 1.166767e+000 7.603461e-002 5.757302e-002 3.034570e-001 7.587548e-001 6.197200e-001 3.986144e-001 4.113908e-001 9.047428e-001 8.196422e-001 1.082621e+000 4.968939e-001 7.091282e-001 1.184571e+000 5.590741e-002 1.046147e-001 4.428947e-001 7.034876e-001 5.999800e-001 3.837944e-001 4.772224e-001 1.024085e+000 6.808303e-001 1.199696e+000 4.867004e-001 6.926733e-001 9.179222e-001 5.875134e-002
<GCONST> 4.066625e+001
<MIXTURE> 3 2.657372e-001
<MEAN> 39
 -2.314278e+000 1.626802e+000 7.422790e-001 -1.924009e+000 -3.225387e-001 1.795356e-001 7.083257e-002 9.365308e-002 -6.900916e-001 -1.104198e+000 -3.583495e-001 -2.472816e-001 1.558113e+000 -4.647777e-001 1.551974e-001 5.636836e-001 3.082849e-001 2.758437e-001 4.260818e-001 -6.745276e-002 -7.754645e-002 2.980489e-001 2.806695e-001 2.446709e-001 1.229775e-001 -3.657255e-002 3.893214e-001 -8.359201e-002 -2.966472e-001 1.536808e-001 1.288335e-001 -2.333685e-001 8.244657e-003 -5.832137e-002 6.584776e-002 2.353462e-001 -4.404512e-003 3.920726e-003 -1.672265e-001
<VARIANCE> 39
 3.662770e-001 2.937701e-001 2.079635e+000 4.329722e-001 1.454303e+000 1.511596e+000 1.967679e+000 1.314254e+000 1.076255e+000 1.121492e+000 1.764409e+000 1.461511e+000 3.557117e-002 2.816871e-001 4.901481e-001 1.219497e+000 8.834924e-001 9.069489e-001 1.279031e+000 1.675838e+000 1.362722e+000 1.515366e+000 1.771438e+000 1.483323e+000 1.385403e+000 5.898582e-002 3.258626e-001 7.332515e-001 1.407565e+000 1.131392e+000 1.104348e+000 1.272243e+000 1.881592e+000 1.332573e+000 1.139681e+000 1.689617e+000 1.663671e+000 1.319689e+000 1.297954e-001
<GCONST> 6.651900e+001
<MIXTURE> 4 1.344588e-001
<MEAN> 39
 1.612776e+000 -2.066797e+000 4.020995e-001 -1.220528e+000 -1.204426e+000 -1.188446e+000 2.441386e-001 1.429032e+000 1.087704e+000 -1.179347e+000 -1.215038e+000 -1.136523e+000 2.390295e+000 -2.606359e-001 1.452239e+000 9.393212e-001 4.409602e-001 -8.247019e-001 -6.339589e-001 -9.239596e-002 -1.203209e-001 1.839654e-001 4.324484e-001 4.851435e-001 9.368821e-001 -6.447722e-001 -1.223986e-001 9.950668e-001 1.658212e-001 1.819018e-001 4.529953e-001 3.631757e-001 -1.114789e-001 -6.301506e-001 -3.836059e-001 2.762479e-001 3.474083e-001 2.076909e-001 -5.470436e-001
<VARIANCE> 39
 5.865731e-001 9.497728e-001 1.113869e+000 6.147553e-001 1.802119e+000 2.209986e+000 3.392247e+000 2.205929e+000 1.536675e+000 9.145644e-001 9.169264e-001 1.719491e+000 7.280790e-001 2.081948e-001 9.654389e-001 1.795679e+000 8.238266e-001 1.379354e+000 9.383026e-001 1.799963e+000 1.491832e+000 5.670275e-001 1.552621e+000 9.294280e-001 1.447427e+000 2.074612e-001 3.853089e-001 8.231257e-001 1.492465e+000 6.429050e-001 1.292189e+000 1.077176e+000 1.631470e+000 1.311083e+000 6.471577e-001 1.521811e+000 7.371453e-001 1.773431e+000 1.827940e-001
<GCONST> 7.167021e+001
<MIXTURE> 5 1.839346e-002
<MEAN> 39
 1.139541e+000 -3.883944e-001 2.363044e+000 -8.482292e-001 -1.965558e+000 -1.956240e+000 -1.175571e+000 7.988393e-001 -8.099191e-001 1.679934e+000 -1.352721e+000 1.202617e-001 1.691326e+000 -2.826180e+000 3.501816e+000 6.522838e-002 1.377355e+000 1.255940e+000 4.696152e-001 2.329918e+000 -2.670537e+000 1.646966e+000 -8.125138e-001 1.497892e+000 1.375730e-001 -1.032721e+000 -3.228064e+000 7.124117e-001 -2.400326e+000 -9.703494e-001 1.778128e+000 1.544470e+000 1.475014e+000 6.055238e-001 8.699188e-001 -1.935186e+000 7.376566e-001 -1.088326e+000 -1.406845e-001
<VARIANCE> 39
 6.830271e-001 4.109238e-001 8.612084e-001 5.247838e-001 1.172701e+000 4.287741e-001 1.207822e+000 7.026132e-001 1.255552e+000 3.577456e+000 9.002355e-001 4.713179e-001 1.269562e-001 8.979821e-001 1.122260e+000 2.781105e+000 2.752954e+000 2.132260e+000 7.666210e-001 8.634163e-001 8.580382e-001 2.157189e+000 2.078542e+000 1.968396e+000 8.090529e-001 1.897627e-001 8.939843e-001 1.359882e+000 8.806187e-001 1.469466e+000 1.302078e+000 7.393531e-001 1.720091e+000 1.438910e+000 7.271028e-001 1.494967e+000 3.882092e-001 1.055392e+000 4.589657e-001
<GCONST> 6.961400e+001
<MIXTURE> 6 9.645362e-002
<MEAN> 39
 7.526538e-001 -1.187131e+000 -4.928944e-001 -2.230411e+000 -2.045703e+000 -1.580945e+000 5.352345e-001 -1.885952e+000 -1.599112e+000 -1.881475e+000 -1.693033e+000 -1.326367e+000 1.588083e+000 1.165650e-001 2.535144e+000 9.359298e-001 -7.323436e-001 -8.857474e-001 -4.376485e-001 -4.801127e-001 1.885422e-002 1.361160e-001 5.730658e-002 -5.321116e-001 -2.209142e-001 -7.679250e-001 -9.992391e-001 7.256666e-001 5.352553e-002 7.816540e-001 1.063329e+000 7.037910e-001 -7.122152e-001 -4.439177e-002 -2.583802e-001 7.141264e-001 5.804461e-001 3.433300e-001 -1.703252e-001
<VARIANCE> 39
 8.407941e-001 5.998948e-001 7.324746e-001 7.022886e-001 1.446616e+000 1.051459e+000 1.656118e+000 5.606634e-001 8.610961e-001 1.165478e+000 1.099328e+000 9.383255e-001 9.746981e-002 5.001139e-001 1.325444e+000 1.274855e+000 2.387905e+000 1.664298e+000 1.660495e+000 2.259908e+000 1.159477e+000 2.536952e+000 1.650236e+000 2.696055e+000 9.633890e-001 3.584365e-001 1.147412e+000 1.914459e+000 1.147355e+000 1.096044e+000 1.707232e+000 2.609835e+000 1.679240e+000 1.201267e+000 2.111779e+000 1.715994e+000 2.209528e+000 1.818808e+000 3.512274e-001
<GCONST> 7.726614e+001
<MIXTURE> 7 8.113240e-003
<MEAN> 39
 9.070629e-001 -1.159303e+000 1.388024e+000 -1.996770e+000 -1.704458e+000 1.045815e+000 1.057351e+000 -1.373600e+000 -2.076648e+000 -2.318353e+000 -2.048035e+000 -2.654468e+000 1.903937e+000 -8.821238e-001 6.944845e-001 2.968709e+000 -4.263129e-001 1.279622e+000 -3.958311e-001 2.794360e+000 -2.132344e-002 -1.000583e-001 3.678531e+000 -3.893338e-001 -9.384087e-001 -6.876958e-001 -1.117242e+000 -2.858161e-001 7.746480e-001 1.073018e+000 6.703005e-001 -1.991996e+000 -2.230001e+000 1.290282e+000 2.144996e+000 1.497073e+000 2.134097e+000 1.189553e+000 -1.217230e+000
<VARIANCE> 39
 5.631296e-001 1.090308e+000 1.225548e-001 1.047146e-001 1.002532e+000 3.364065e-001 1.913130e+000 4.326964e+000 7.004939e-001 7.618531e-001 2.660776e-001 2.363415e+000 3.823814e-001 1.587358e-001 1.656037e+000 1.175047e+000 3.750980e-001 2.585348e-001 1.283184e-001 1.281745e+000 7.275783e-001 1.425259e+000 5.593966e-001 8.818763e-001 1.596164e+000 3.439471e-002 5.952095e-001 4.131573e-001 2.510086e+000 1.975229e+000 1.188245e-001 2.247603e-001 1.582820e+000 1.656952e+000 8.161977e-002 2.465016e+000 1.782609e+000 3.598999e+000 2.982049e-001
<GCONST> 5.350648e+001
<MIXTURE> 8 8.618070e-002
<MEAN> 39
 -1.581038e+000 1.215797e+000 -4.487610e-001 -1.736163e+000 1.076876e-002 -5.854347e-001 1.083009e+000 -1.547069e-001 -3.337786e-001 -7.238006e-001 -1.122922e+000 -5.105979e-001 1.383370e+000 -2.347054e+000 1.308866e+000 -5.350698e-001 -1.651631e+000 4.714644e-001 3.430530e-001 -4.689565e-001 6.640821e-001 4.176562e-001 3.284011e-001 4.291925e-001 4.125477e-002 2.947997e-001 2.032170e+000 -1.979737e+000 1.486895e+000 5.621328e-001 -1.008275e+000 -5.719171e-001 -8.735508e-001 2.035996e-002 -7.751746e-001 -1.324853e-001 9.322444e-002 2.224261e-001 5.791044e-001
<VARIANCE> 39
 3.004429e-001 5.394985e-001 2.556982e+000 8.496023e-001 1.143261e+000 1.321743e+000 1.326453e+000 1.590431e+000 2.766718e+000 8.174431e-001 8.621556e-001 2.508917e+000 6.148142e-002 1.549745e+000 1.639083e+000 1.997160e+000 1.629265e+000 1.755381e+000 1.334095e+000 1.903023e+000 1.842841e+000 1.633433e+000 2.672518e+000 1.207530e+000 2.388273e+000 2.953926e-001 8.504452e-001 1.381402e+000 1.365613e+000 3.390848e+000 1.330550e+000 1.561879e+000 2.110909e+000 3.192837e+000 2.741301e+000 1.895521e+000 2.079036e+000 2.606304e+000 7.523430e-001
<GCONST> 8.350904e+001
<MIXTURE> 9 4.758213e-002
<MEAN> 39
 2.456011e-001 5.008616e-002 2.659400e-001 -1.734251e+000 -1.354849e+000 -1.297453e+000 -1.327505e-001 -1.773699e+000 -2.129618e+000 -1.287028e+000 -1.301744e+000 -1.004212e+000 1.202339e+000 -3.023085e+000 2.781264e+000 -8.722413e-002 7.337129e-001 1.208786e+000 2.021631e+000 -2.613923e-001 1.780584e+000 -7.704876e-002 8.759688e-001 8.014109e-001 -2.643574e-001 -9.520141e-001 -1.338258e+000 -7.697971e-001 -9.461795e-001 -5.167658e-001 9.554763e-002 2.404888e-001 6.589558e-001 7.745049e-001 9.046537e-001 1.096809e-001 -3.143921e-001 1.841131e-001 6.281014e-001
<VARIANCE> 39
 8.076742e-001 5.287677e-001 1.364695e+000 1.218846e+000 9.091403e-001 8.004861e-001 2.461709e+000 1.182139e+000 8.827607e-001 8.449745e-001 7.060869e-001 1.615003e+000 3.902039e-001 6.712825e-001 1.195424e+000 4.946979e+000 3.255271e+000 1.733984e+000 1.159699e+000 3.460894e+000 1.097483e+000 2.505349e+000 1.759956e+000 2.028277e+000 1.010195e+000 5.166438e-001 1.672589e+000 1.601348e+000 3.783203e+000 2.660563e+000 1.081113e+000 2.519653e+000 3.696600e+000 1.393362e+000 1.488268e+000 1.103131e+000 1.383214e+000 9.564632e-001 5.845496e-001
<GCONST> 8.328980e+001
<MIXTURE> 10 2.028248e-002
<MEAN> 39
 6.645159e-001 8.088366e-001 1.561496e+000 -1.196120e+000 -6.559915e-001 -9.151723e-001 3.910826e-002 9.182522e-001 1.714390e+000 2.906789e-001 -1.250022e+000 -9.582291e-001 1.760954e+000 -4.088587e+000 1.363954e+000 1.692455e+000 -9.729593e-001 -9.499623e-001 2.788806e+000 -2.661786e-001 5.399039e-001 2.120668e-001 8.412907e-001 -4.357581e-001 -3.505814e-001 -6.857868e-001 -1.133849e+000 -1.774603e+000 -6.171356e-001 -1.493750e-001 -4.030716e-002 -4.108685e-001 1.312119e+000 -1.315484e+000 -4.130442e-002 -4.026752e-001 1.128588e+000 -6.625535e-001 1.132671e+000
<VARIANCE> 39
 1.404361e+000 1.250417e-001 5.314175e-001 2.070228e-001 4.073572e-001 2.171399e+000 7.915042e-001 5.171918e-001 7.647848e-001 5.138080e-001 4.309457e-001 1.413944e+000 3.923165e-002 1.987856e+000 1.450107e+000 6.798016e-001 2.786518e-001 2.934925e+000 7.573403e-001 3.140651e+000 2.021464e+000 7.847948e-001 8.776815e-001 2.184684e+000 2.002007e+000 7.833042e-001 5.745826e+000 3.037715e-001 1.521188e+000 1.000802e+000 1.431833e+000 2.119140e+000 1.554711e+000 1.867354e+000 9.381500e-001 7.170722e-001 1.000109e+000 2.929480e+000 5.294988e-001
<GCONST> 6.814323e+001
<MIXTURE> 11 3.868880e-002
<MEAN> 39
 3.385690e-002 -3.792536e-001 1.062611e+000 -1.024387e+000 -4.063587e-001 -1.043853e+000 1.081265e+000 6.720918e-001 1.088920e-001 -9.761054e-001 -8.532575e-001 4.109663e-001 1.448751e+000 -3.918179e+000 2.446539e+000 -1.034297e+000 -1.182908e+000 1.658595e+000 6.813752e-001 1.427326e+000 -1.564713e+000 1.173766e+000 -5.415103e-001 4.324633e-001 -1.259255e-001 -9.792859e-001 -9.966522e-001 -4.651538e-001 -4.112260e-001 -1.276075e+000 -8.880039e-001 4.088378e-001 -8.061476e-001 3.341956e-001 -2.302735e-001 1.643523e-001 -2.315973e-001 -4.608377e-001 1.019731e+000
<VARIANCE> 39
 6.645467e-001 1.468163e+000 1.406071e+000 8.459558e-001 1.532279e+000 1.640186e+000 1.381417e+000 2.429912e+000 1.809334e+000 1.142712e+000 1.367290e+000 9.451362e-001 1.208683e-001 1.153971e+000 1.556771e+000 1.450156e+000 8.719662e-001 2.104297e+000 1.730885e+000 2.059638e+000 1.985002e+000 1.921604e+000 3.060498e+000 2.823911e+000 1.709003e+000 3.944850e-001 1.849885e+000 2.292110e+000 1.838191e+000 2.618523e+000 1.212441e+000 8.521748e-001 1.302504e+000 2.204323e+000 1.455917e+000 1.465209e+000 8.992943e-001 4.407099e-001 6.268190e-001
<GCONST> 8.223356e+001
<MIXTURE> 12 5.221459e-002
<MEAN> 39
 2.130167e+000 -6.394017e-001 9.307560e-001 -5.197495e-001 -1.572783e+000 -2.086200e+000 4.546297e-001 1.581287e-001 8.941926e-001 -7.644647e-001 6.309453e-001 -5.594069e-001 1.973399e+000 -4.640011e-001 1.653922e+000 1.556208e+000 5.661538e-001 6.064897e-001 9.262807e-001 -1.232668e+000 -3.343183e-001 -4.097568e-001 4.766507e-001 4.364629e-001 7.330105e-001 -1.221499e+000 -2.152469e+000 -3.652783e-001 -2.357447e-002 -7.288657e-001 8.099518e-001 7.675385e-001 -9.492227e-002 5.464376e-001 -3.895436e-001 -2.277986e-001 -1.360075e+000 -5.465959e-001 -1.986622e-001
<VARIANCE> 39
 4.910796e-001 6.110588e-001 1.526250e+000 1.131899e+000 1.827804e+000 8.765442e-001 2.692378e+000 1.944111e+000 1.653069e+000 4.857269e-001 2.020359e+000 1.066076e+000 1.874221e-001 6.819347e-001 2.054607e+000 2.272884e+000 1.066015e+000 2.769642e+000 1.131818e+000 1.065488e+000 2.202480e+000 4.833042e-001 1.214751e+000 1.791398e+000 2.046274e+000 4.626570e-001 1.916393e+000 7.060848e-001 1.589997e+000 3.782470e+000 2.425411e+000 1.465810e+000 1.624772e+000 1.673680e+000 7.726238e-001 9.090095e-001 1.229626e+000 1.591766e+000 7.256572e-001
<GCONST> 7.959649e+001
<MIXTURE> 13 1.419979e-002
<MEAN> 39
 8.787718e-001 -6.665267e-001 1.903155e+000 -2.829272e-001 -1.931273e+000 -2.520345e-001 -1.616022e+000 6.039710e-001 1.081579e+000 -1.056978e+000 -1.532364e+000 -1.605329e-001 2.152426e+000 -3.713483e+000 7.849190e-001 2.546678e-001 -1.378017e-001 1.616325e+000 2.287978e-001 3.246281e-001 -4.716710e-001 -6.287417e-001 3.057265e-001 -5.835102e-002 -1.662919e+000 -1.215757e+000 -2.223212e+000 -1.588990e+000 -1.311516e+000 -1.779767e+000 4.873600e-001 -6.205893e-001 1.399776e+000 2.513821e-001 5.384800e-003 -5.438351e-001 5.221124e-001 -1.069944e+000 3.753851e-001
<VARIANCE> 39
 9.959557e-001 9.782347e-001 7.451197e-001 6.208017e-001 3.431159e-001 1.516548e+000 2.452096e+000 1.301973e+000 7.000236e-001 1.547888e+000 2.508679e+000 7.391712e-001 2.671740e-001 2.404697e+000 3.915420e+000 2.315939e+000 2.165919e+000 9.330420e-001 1.412953e+000 6.645530e-001 7.332296e-001 2.161035e+000 1.306160e+001 1.085304e+000 2.271495e+000 7.735239e-001 1.656365e+000 3.969189e-001 1.213824e+000 1.512394e-001 3.507231e+000 2.085382e-001 1.061814e+000 2.276902e+000 4.745862e-001 2.639482e+000 1.438769e+000 2.703547e+000 4.088158e-001
<GCONST> 7.730849e+001
<MIXTURE> 14 4.008526e-002
<MEAN> 39
 1.696049e+000 -2.539373e+000 -4.217522e-001 -1.118356e+000 -2.554312e+000 -1.205057e+000 -9.603758e-001 1.025524e+000 -2.944093e+000 -2.284012e+000 -2.517016e+000 -2.318157e+000 2.725036e+000 1.226932e-001 1.258529e+000 4.289373e-001 -7.444952e-001 -1.724415e-001 -2.978127e-001 3.428517e-001 1.018674e+000 -3.325187e-002 -1.835053e-001 5.600864e-001 4.631321e-001 -4.129006e-001 -6.520942e-001 9.265737e-001 7.110925e-001 5.670725e-001 8.919002e-001 2.765555e-001 5.745476e-001 -9.970807e-001 8.948121e-001 3.761025e-001 6.913590e-002 4.133768e-001 -4.774079e-001
<VARIANCE> 39
 3.138824e-001 8.805370e-001 2.294264e+000 5.171670e-001 1.140785e+000 4.383857e-001 3.989553e+000 1.242631e+000 4.693695e-001 6.014871e-001 4.701643e-001 1.329076e+000 2.681136e-001 6.319481e-001 1.478693e+000 2.856777e+000 3.319674e+000 1.742254e+000 2.652958e+000 3.376597e+000 2.076956e+000 1.784902e+000 1.941756e+000 7.261524e-001 1.868385e+000 1.696721e-001 6.788402e-001 9.211969e-001 1.859746e+000 2.246431e+000 1.694070e+000 9.112825e-001 3.969078e+000 2.224551e+000 8.455191e-001 2.982682e+000 1.340228e+000 5.996016e-001 3.664835e-001
<GCONST> 7.712876e+001
<MIXTURE> 15 8.113235e-003
<MEAN> 39
 1.391056e+000 -1.900552e+000 2.012279e+000 -1.489904e+000 6.296378e-001 -1.758201e+000 3.117108e-001 2.133126e+000 -1.909655e+000 -1.209208e+000 -2.363495e+000 8.026187e-001 2.358308e+000 -1.122171e+000 6.285303e-001 3.265245e+000 -4.877802e-001 2.764179e+000 -2.690823e+000 -1.464630e+000 -7.945114e-001 2.140056e-001 2.910470e+000 -4.823104e-001 9.952375e-001 -1.053863e+000 -1.828549e+000 -6.415465e-001 -1.185976e+000 -1.874674e-001 8.862724e-001 7.426322e-001 2.478853e+000 4.227960e-001 -7.378176e-001 1.318598e+000 6.236148e-001 4.296656e-001 -4.185666e-001
<VARIANCE> 39
 2.852414e-001 1.130233e-001 3.208132e-001 1.188445e-001 4.118108e-001 2.104541e+000 5.055727e+000 6.171846e-001 3.043398e-001 3.123602e-001 4.007137e-001 2.816556e-001 1.078693e-002 7.723317e-001 3.730931e-001 3.609548e-001 8.218684e-001 1.636344e-001 1.461249e-001 6.745162e+000 1.799587e+000 1.072274e+000 3.175707e-001 4.604789e-001 4.254338e-002 7.360170e-002 1.862836e-001 3.607975e-001 3.690948e+000 9.076681e-001 5.447204e-001 2.064051e+000 3.948894e+000 1.709766e+000 8.949087e-001 1.497554e+000 5.685160e-001 2.217017e-002 4.804670e-002
<GCONST> 3.901041e+001
<MIXTURE> 16 8.112997e-003
<MEAN> 39
 -2.705695e-001 -1.899478e+000 -4.899936e-001 -2.379601e+000 -1.368350e+000 -6.176713e-001 2.480156e+000 -3.271395e+000 -1.730316e+000 -3.196041e+000 -1.372815e+000 -1.453721e+000 1.856052e+000 -3.876224e-001 9.883940e-001 2.161427e+000 -5.522047e-001 -2.061621e+000 1.180910e+000 1.571252e+000 -1.197848e+000 4.888825e-001 -5.239667e-002 -6.172064e-001 -4.722875e+000 -9.978828e-001 -2.897713e-001 1.678056e+000 -4.390694e-001 9.864680e-001 1.414794e+000 -2.256556e+000 -1.950609e+000 1.495602e+000 1.294528e-001 3.504225e+000 2.995719e-001 8.910158e-001 -3.007646e-001
<VARIANCE> 39
 1.974324e-001 1.417321e+000 5.868375e-001 3.992719e-001 1.129364e+000 3.817257e-002 1.664095e+000 1.098712e-001 2.944760e-001 9.636120e-001 3.132112e-001 2.676561e+000 9.215504e-002 4.233114e-001 1.209699e+000 2.190969e-002 3.651443e-001 2.597292e+000 1.593900e+000 4.337254e-001 1.550626e+000 9.048812e-001 3.189993e+000 1.010636e+000 1.904898e+000 1.003263e-001 2.347783e-001 5.596425e+000 4.756780e-001 4.323162e-001 1.554888e+000 5.544679e-001 3.099988e+000 4.713701e-001 1.003065e+000 4.100802e-001 1.342384e+000 8.947008e+000 4.081339e-002
<GCONST> 5.255227e+001
<STATE> 5
<NUMMIXES> 16
<MIXTURE> 1 1.178541e-001
<MEAN> 39
 -1.948159e+000 -7.551115e-001 9.325744e-001 -1.543454e-001 -1.651545e-002 5.232038e-001 1.421867e+000 -7.242330e-001 9.409952e-001 7.424078e-002 9.492278e-001 -1.989362e-001 1.506177e+000 -1.620941e-001 3.479241e-001 7.666626e-002 -5.655416e-002 3.124458e-001 1.952894e-001 -3.939323e-001 -9.275855e-002 -4.087121e-001 -2.525485e-001 1.012094e-001 5.540328e-002 -8.974478e-002 3.613043e-001 2.731570e-001 -5.532357e-001 -2.753499e-001 1.214071e-001 3.026598e-001 -2.480000e-001 3.403963e-001 -2.246551e-001 -2.950793e-001 -3.860766e-001 -2.136109e-001 -3.088729e-001
<VARIANCE> 39
 3.412506e-001 3.471991e+000 3.872084e+000 1.487262e+000 3.593294e+000 2.790888e+000 2.005245e+000 1.175195e+000 9.480913e-001 1.868267e+000 1.075412e+000 1.728416e+000 1.678463e-001 3.465352e-001 6.753460e-001 1.409245e+000 1.813214e+000 1.364665e+000 2.190209e+000 1.896430e+000 1.749960e+000 1.693976e+000 1.571028e+000 2.520720e+000 1.776501e+000 2.117245e-001 7.892952e-001 9.062635e-001 1.567136e+000 1.684450e+000 1.299949e+000 2.123301e+000 2.091013e+000 2.168899e+000 2.067202e+000 1.888168e+000 2.649421e+000 1.624008e+000 4.596176e-001
<GCONST> 8.407938e+001
<MIXTURE> 2 4.547429e-002
<MEAN> 39
 5.788972e-001 -7.346243e-001 -6.182712e-001 -7.182648e-001 1.079806e-001 1.079721e-002 -3.494311e-001 4.704787e-001 -1.013460e+000 9.077413e-001 -1.004395e+000 3.706849e-001 6.436140e-001 -2.808104e-002 -5.302429e-002 7.865947e-002 7.133734e-002 -1.085617e-001 -2.602524e-001 -1.783544e-002 2.145363e-001 -1.707959e-001 -1.244951e-002 -1.724148e-001 1.621542e-001 -2.684855e-002 -1.437338e-002 5.111931e-002 7.084430e-002 3.379039e-002 -4.892640e-002 -1.254813e-001 7.961780e-003 1.056088e-003 9.447838e-002 -7.190800e-002 -2.170313e-002 -6.427936e-002 3.160867e-002
<VARIANCE> 39
 4.602882e-002 2.840049e-002 4.685922e-002 1.889547e-001 2.369454e-001 2.763780e-001 3.365449e-001 5.221299e-001 1.561422e-001 2.750618e-001 1.296772e-001 3.607413e-001 2.457246e-002 3.222639e-002 2.143915e-001 2.446515e-001 2.625937e-001 1.461887e-001 4.287317e-001 1.562282e-001 2.744891e-001 6.027926e-001 5.377578e-001 7.757313e-001 4.104164e-001 2.631303e-002 2.622380e-002 2.507498e-001 3.424112e-001 3.019123e-001 1.730403e-001 2.815653e-001 1.707621e-001 2.885722e-001 7.137720e-001 5.054312e-001 1.324267e+000 4.894944e-001 2.575563e-002
<GCONST> 7.943943e+000
<MIXTURE> 3 2.064410e-001
<MEAN> 39
 -5.995399e-001 7.697518e-001 6.087810e-001 -3.447558e-001 5.716798e-001 1.854073e-001 -3.236619e-001 1.524220e-001 2.609487e-001 -2.253227e-001 2.542487e-001 -3.333908e-001 -1.525324e-002 7.690902e-001 -7.150716e-001 -2.482809e-001 2.443437e-001 -5.178826e-002 -3.805710e-001 2.572525e-001 -5.588473e-002 1.342439e-001 3.210586e-002 2.000752e-001 1.454019e-001 -6.480151e-001 -1.062930e+000 5.160957e-002 -9.972144e-002 -4.904446e-001 -1.789591e-001 -4.746145e-001 3.461700e-001 -4.237124e-003 -1.936820e-001 2.754884e-001 -5.565289e-002 1.554115e-001 1.382126e+000
<VARIANCE> 39
 4.494212e-001 4.535287e-001 7.446886e-001 1.037403e+000 1.142735e+000 9.544020e-001 1.048762e+000 8.548777e-001 9.727473e-001 8.315480e-001 1.172372e+000 9.622203e-001 3.169029e-001 1.683714e+000 1.032308e+000 1.803607e+000 1.633693e+000 1.572130e+000 1.463094e+000 1.646166e+000 1.395417e+000 1.958621e+000 1.473165e+000 1.364429e+000 1.629654e+000 2.068860e+000 9.387767e-001 1.346961e+000 1.823455e+000 1.353562e+000 1.595021e+000 1.499133e+000 1.424846e+000 1.450426e+000 1.972079e+000 1.385118e+000 1.327780e+000 1.766089e+000 1.325327e+000
<GCONST> 7.932393e+001
<MIXTURE> 5 1.669879e-002
<MEAN> 39
 5.833114e-001 3.720117e-002 1.130947e+000 -6.955252e-001 -1.238802e+000 -2.111652e+000 5.946414e-001 8.479967e-001 -6.649144e-001 -2.768758e-001 -1.200075e+000 -8.911596e-001 1.033996e+000 -1.404121e+000 1.574352e+000 1.230268e+000 7.561607e-001 6.580362e-001 6.532808e-002 -1.344405e-001 -5.618289e-001 1.396220e+000 3.620182e-001 1.983255e+000 -3.421570e-001 -8.445680e-001 -1.535247e+000 -4.555184e-001 -4.570827e-001 -2.381677e-001 -1.913998e-001 1.135271e+000 -4.047398e-001 -8.334053e-001 9.844183e-001 7.387294e-003 5.206040e-001 4.937689e-001 -2.727179e-001
<VARIANCE> 39
 2.306670e-001 5.028184e-001 5.721219e-001 4.878417e-001 8.896130e-001 7.827880e-001 1.446998e+000 1.691031e+000 8.863502e-001 1.636251e+000 4.399182e-001 2.988011e+000 3.855191e-001 1.477869e+000 6.859624e-001 1.522502e+000 1.625436e+000 2.176273e+000 1.687073e+000 1.745755e+000 2.455282e+000 1.199129e+000 2.988957e+000 2.285979e+000 2.823002e+000 3.213359e-001 1.804795e+000 1.081386e+000 1.477400e+000 1.865475e+000 2.840050e+000 1.154947e+000 3.180555e+000 1.268503e+000 1.276019e+000 3.650986e+000 2.031481e+000 3.391386e+000 6.707732e-001
<GCONST> 8.148812e+001
<MIXTURE> 6 1.309585e-002
<MEAN> 39
 1.697973e+000 4.243471e-001 1.093823e+000 -2.609028e+000 -3.344947e+000 -1.671375e+000 -8.111261e-001 -1.375503e+000 -2.683651e-001 -2.991647e-001 -1.250058e+000 -1.557727e+000 1.422155e+000 -9.367325e-001 1.868508e+000 3.801115e-001 9.864056e-001 9.197682e-001 -3.758704e-001 -9.186060e-001 -3.331884e-001 5.943556e-001 6.076058e-001 8.151144e-002 7.233706e-001 -1.159461e+000 -2.290296e+000 -2.479062e-001 -1.677024e+000 1.361571e+000 2.436579e+000 1.305626e+000 1.286395e+000 2.636658e-001 -8.845357e-001 -3.232458e-001 1.512243e-001 4.011222e-001 -1.049658e+000
<VARIANCE> 39
 1.147737e+000 4.845682e-001 6.606011e-001 7.477763e-001 2.125020e-001 6.144841e-001 9.583081e-001 1.380738e-001 4.592028e-001 8.908244e-001 1.187645e+000 2.681114e-001 1.536966e-001 3.676205e+000 2.006467e+000 3.589911e+000 1.173745e+000 1.992300e+000 2.875308e+000 2.732490e+000 4.431461e-001 2.116289e+000 1.863922e+000 1.724212e+000 1.765609e-001 6.746107e-001 1.111734e+000 2.203459e+000 5.656808e-001 6.936584e-001 1.030158e+000 1.899114e+000 1.903129e+000 2.702997e-001 1.411063e+000 2.620118e+000 1.529799e+000 5.406517e-001 7.031552e-001
<GCONST> 6.831105e+001
<MIXTURE> 7 2.690951e-001
<MEAN> 39
 -1.958749e+000 1.266576e+000 9.365364e-001 -1.299937e+000 6.337742e-001 3.898301e-002 -1.794823e-001 3.559816e-001 -2.010068e-001 3.417544e-001 2.165906e-001 -3.624477e-001 8.768623e-001 3.120498e-001 1.743812e-001 -3.207997e-001 3.039804e-001 4.312564e-001 5.176469e-002 -5.871085e-002 2.672641e-001 1.564546e-001 1.450740e-001 -1.170702e-001 1.431474e-001 -5.390279e-001 7.804855e-001 -3.571060e-001 -2.214541e-002 1.939959e-001 -2.659918e-001 -1.178647e-001 -8.975837e-002 -1.270970e-001 2.839095e-003 -1.876704e-001 1.852230e-002 -1.623350e-002 -5.387919e-001
<VARIANCE> 39
 5.055328e-001 2.446865e-001 1.237744e+000 5.127732e-001 9.489371e-001 9.771671e-001 1.081328e+000 9.107233e-001 8.290244e-001 4.766601e-001 1.035809e+000 6.450942e-001 1.897069e-001 1.036033e+000 6.382492e-001 1.408807e+000 9.047142e-001 9.821603e-001 1.081873e+000 1.112798e+000 1.107134e+000 1.095987e+000 9.408736e-001 1.102778e+000 8.606773e-001 7.772665e-001 9.633738e-001 8.336865e-001 1.076002e+000 1.003604e+000 9.667960e-001 9.759821e-001 8.946936e-001 1.108906e+000 9.840584e-001 1.029805e+000 1.066384e+000 9.915957e-001 6.266927e-001
<GCONST> 6.526627e+001
<MIXTURE> 8 1.390146e-001
<MEAN> 39
 -1.664892e+000 -3.480554e-001 1.053978e+000 -1.319985e+000 1.181919e+000 2.486591e-001 -2.194436e-001 7.355162e-001 -3.306747e-001 2.163007e-001 1.604529e-001 -1.947563e-001 1.287020e+000 4.282605e-002 -7.218377e-002 -7.915156e-001 2.845691e-001 1.645154e-001 -1.237427e-001 -1.385227e-001 2.603528e-001 4.035248e-002 4.382990e-001 -1.453888e-001 -5.748690e-002 -8.362823e-001 7.121400e-001 -1.668268e-001 7.448811e-002 6.300585e-001 -4.572478e-001 -1.508829e-001 3.385212e-001 -2.105364e-001 4.320932e-001 1.246529e-002 6.782109e-002 1.609731e-001 -1.028412e+000
<VARIANCE> 39
 1.731528e+000 2.919081e+000 3.280454e+000 2.856690e+000 3.900846e+000 4.258755e+000 3.643806e+000 2.276751e+000 2.398842e+000 2.999241e+000 2.507225e+000 3.295518e+000 3.250700e-001 3.325509e+000 3.685421e+000 4.073275e+000 3.513241e+000 3.340026e+000 3.947625e+000 2.647518e+000 3.069719e+000 2.521580e+000 2.834347e+000 2.526240e+000 3.706636e+000 3.595092e+000 2.444893e+000 4.020020e+000 3.700624e+000 3.410556e+000 4.379444e+000 4.237152e+000 2.499230e+000 3.446574e+000 3.255770e+000 2.816022e+000 3.193715e+000 3.764849e+000 3.482653e+000
<GCONST> 1.145922e+002
<MIXTURE> 9 1.184483e-001
<MEAN> 39
 -2.204884e+000 1.915198e-001 1.716061e+000 -1.850147e+000 -1.303519e+000 -7.065080e-002 6.645114e-002 -9.648424e-002 1.066373e+000 -7.079740e-001 -5.599447e-002 -6.916000e-001 1.307715e+000 -9.267061e-001 1.512741e-001 3.833213e-001 -1.794611e-002 1.419288e-002 1.987198e-001 1.906895e-001 -3.274179e-001 -1.201108e-001 2.134712e-001 6.409927e-001 2.959776e-001 4.414494e-002 9.949434e-001 2.695931e-001 1.051252e-001 5.664523e-001 6.264582e-001 -3.148759e-001 5.571902e-002 1.126029e-001 -2.970575e-001 2.563348e-001 8.521834e-003 1.545531e-001 -1.807959e-002
<VARIANCE> 39
 8.881388e-001 7.985001e-001 7.435763e-001 4.180252e-001 1.537786e+000 1.327878e+000 1.668491e+000 1.336729e+000 1.465752e+000 1.369544e+000 1.346660e+000 9.980275e-001 2.008698e-001 1.042058e+000 6.138250e-001 7.077033e-001 1.093984e+000 1.322156e+000 1.082716e+000 9.760785e-001 1.468634e+000 1.157050e+000 8.474090e-001 8.107671e-001 9.717674e-001 1.894466e-001 1.146464e+000 8.227969e-001 9.137047e-001 1.110381e+000 1.362599e+000 1.163651e+000 1.350043e+000 1.501276e+000 1.176984e+000 8.629498e-001 1.019340e+000 9.948780e-001 2.825647e-001
<GCONST> 6.905210e+001
<MIXTURE> 10 4.048565e-003
<MEAN> 39
 -5.909265e-001 -1.647128e+000 2.649506e+000 -2.713962e+000 1.018930e+000 1.404156e-001 -7.918690e-001 1.348341e+000 -2.502282e+000 5.580497e-001 -5.387236e-001 -6.119548e-001 2.061363e+000 -3.555663e+000 1.257844e+000 7.663245e-001 -2.414086e+000 1.025254e+000 -7.910893e-001 -2.882552e+000 3.965163e-001 -1.009034e+000 -1.163642e-001 1.526195e+000 5.535915e-001 -1.865510e+000 3.343194e-001 -6.185474e-001 -2.916648e+000 -1.836433e-003 -1.765073e+000 -8.736982e-001 -3.240943e-001 8.356932e-002 -1.722938e+000 -3.008759e+000 -3.320858e-001 -1.411716e+000 1.557612e+000
<VARIANCE> 39
 1.049675e+000 6.231336e-002 9.999958e-003 3.541874e-001 2.480464e-001 5.784559e-001 7.718328e-001 1.435833e-001 1.629502e-001 2.197987e-001 1.856773e-001 6.647069e-001 3.332414e-002 5.404066e-001 1.247064e-002 1.605642e+000 9.208798e-002 1.643778e+000 2.285199e+000 6.554734e-001 1.861966e-001 3.347082e+000 3.609335e+000 7.391778e-001 2.786746e+000 5.800340e-001 2.138454e+000 2.518021e-001 1.917744e+000 2.111505e+000 4.048070e-001 4.164125e-001 5.828708e+000 3.995205e-001 3.145124e+000 1.115568e+000 2.060638e-001 1.018483e+000 3.287304e+000
<GCONST> 4.604950e+001
<MIXTURE> 11 3.571126e-002
<MEAN> 39
 -1.289833e+000 6.882094e-001 1.614148e-001 -1.520961e+000 -6.422575e-001 -9.140261e-001 3.604821e-001 -8.575431e-001 -6.975675e-001 1.909020e-001 -2.093600e-001 -8.234767e-001 6.043487e-001 -3.001210e+000 6.270819e-001 -7.613644e-001 6.730007e-001 1.765038e+000 6.024213e-001 5.471665e-001 9.833497e-001 1.265076e+000 1.090464e+000 1.143039e+000 6.934484e-001 -3.561898e-001 1.269948e+000 -9.702196e-001 4.590700e-001 -4.601656e-001 -7.243659e-001 1.900531e-001 -5.197182e-001 -8.622821e-002 -3.436945e-002 -9.332215e-001 -5.693924e-001 -2.009188e-001 1.288642e+000
<VARIANCE> 39
 4.794247e-001 3.147102e-001 2.100952e+000 9.441955e-001 1.197127e+000 5.746984e-001 1.521454e+000 6.188085e-001 6.889106e-001 9.229354e-001 9.044765e-001 5.604850e-001 1.552632e-001 8.152953e-001 1.085554e+000 1.132762e+000 2.136277e+000 1.627781e+000 1.995848e+000 2.844909e+000 1.076944e+000 2.049645e+000 2.466710e+000 1.078091e+000 8.705572e-001 1.092924e+000 1.455114e+000 1.404424e+000 2.277166e+000 1.063326e+000 2.512711e+000 1.586408e+000 2.544673e+000 1.006105e+000 2.875441e+000 1.656580e+000 1.264159e+000 7.168399e-001 5.651438e-001
<GCONST> 7.656112e+001
<MIXTURE> 12 3.036424e-003
<MEAN> 39
 9.918156e-001 7.929319e-001 2.621596e+000 -5.339560e-001 7.141448e-001 -1.887081e+000 -5.384789e-001 4.277194e-001 1.706960e-001 -1.355051e+000 -1.309503e+000 -1.656649e+000 1.725359e+000 -5.534770e+000 -2.506445e-001 -5.032934e-002 -3.794390e+000 -6.068089e-001 -8.249317e-001 7.211926e-001 6.796546e-001 -2.126778e+000 3.167069e-002 -6.648784e-001 -7.136150e-001 -1.499980e+000 2.124757e-001 -8.305594e-001 -2.734180e-001 -5.188363e-001 -2.342483e+000 2.095118e-001 5.456653e-001 1.349921e+000 6.850314e-001 8.889073e-001 1.789496e+000 1.160302e+000 1.622458e+000
<VARIANCE> 39
 9.826795e-001 7.243102e-002 3.609437e-001 1.014966e+000 9.170024e-001 3.151770e-001 3.970248e+000 1.474069e-001 1.084086e+000 3.373120e-001 4.629259e-001 3.106852e-002 1.556366e-002 1.125768e-001 6.335514e-001 4.839055e-001 7.821228e-001 4.800724e-001 2.190906e+000 9.262371e-001 4.484178e-001 2.486584e+000 5.588741e-001 1.630784e+000 1.354385e+000 2.246905e-001 3.087638e+000 1.180590e+000 2.097129e+000 2.126531e+000 1.348837e+000 2.935317e-001 1.140071e+000 1.346022e-001 9.629706e-001 1.728181e-002 1.902740e-001 4.519123e-001 1.045489e+000
<GCONST> 4.551375e+001
<MIXTURE> 13 8.090206e-003
<MEAN> 39
 1.588596e-001 -8.863840e-001 -3.359820e-001 -1.976650e+000 -1.602625e+000 1.979151e-002 4.145320e-001 -1.481704e+000 -1.146744e+000 -2.873831e+000 -2.092535e+000 -1.789964e+000 1.260550e+000 7.692935e-001 1.438360e+000 5.266219e-001 -5.107392e-002 -7.232049e-001 -1.320405e+000 -6.951720e-001 -3.431528e-001 5.427499e-001 9.437263e-001 2.795199e-002 3.241926e-001 -8.958461e-001 -6.403646e-001 1.293201e+000 1.896242e-001 4.626098e-001 1.877462e+000 -3.722126e-001 -1.025995e+000 -2.594899e-001 8.750926e-001 2.716709e+000 2.696368e+000 5.665075e-001 6.688558e-001
<VARIANCE> 39
 9.889221e-001 8.130527e-001 1.814539e+000 1.233987e+000 6.727598e-001 4.469295e-001 9.520816e-001 1.008179e+000 9.587586e-001 4.502451e-001 1.869006e+000 5.005347e-001 6.513129e-001 3.007509e-001 3.080521e+000 8.588367e-001 1.811233e+000 4.635994e+000 8.950049e-001 8.457896e-001 8.445447e-001 3.661521e-001 3.945031e+000 1.476205e+000 7.997836e-001 1.996260e-001 7.362777e-001 7.189691e-001 9.403156e-001 1.745172e+000 5.276241e-001 1.434601e+000 1.353335e+000 9.361362e-001 1.959545e-001 1.179263e+000 1.329177e-001 1.453586e+000 6.040875e-001
<GCONST> 6.626575e+001
<MIXTURE> 14 6.072920e-003
<MEAN> 39
 9.408011e-001 1.589838e-001 -8.993924e-002 -6.259540e-001 -2.074246e+000 -9.887625e-001 -1.365675e+000 -1.918578e+000 4.000777e-001 -1.973751e+000 -1.018293e+000 -5.575591e-001 1.273185e+000 -1.991301e+000 2.605983e+000 7.996578e-001 -1.400919e-001 3.738206e+000 -1.331577e+000 1.457301e+000 5.956230e-001 -5.982578e-001 1.298622e+000 -2.067275e-001 1.132146e+000 -1.666195e+000 -2.263456e+000 -7.058452e-001 4.379961e-001 -1.630710e+000 1.058686e+000 2.004599e-001 6.870352e-001 1.669123e+000 -2.093604e-001 1.386774e+000 -9.816480e-002 -4.160123e-001 2.236119e-001
<VARIANCE> 39
 1.450693e-001 2.247149e-001 1.347171e+000 6.493185e-002 1.168966e+000 3.093858e-001 8.028514e-001 6.034048e-001 1.477111e+000 5.806209e-001 4.699484e-001 1.202266e+000 2.365103e-001 1.519105e+000 4.414450e-001 1.999043e+000 8.449408e-001 4.856705e-001 9.340727e-001 2.339918e-001 2.311637e+000 2.567731e+000 2.345461e+000 3.962541e-001 1.708268e+000 4.807762e-002 8.222389e-001 7.727322e-001 2.393434e+000 1.325200e+000 1.799591e+000 1.068888e+000 1.442682e+000 1.506413e+000 1.076854e+000 5.260487e-001 4.229831e-001 1.640484e+000 4.308217e-001
<GCONST> 5.935464e+001
<MIXTURE> 15 6.074717e-003
<MEAN> 39
 7.277685e-001 -3.258171e-001 1.779542e+000 5.367537e-002 2.985022e-002 -8.274492e-001 1.429634e+000 4.591123e-001 2.183148e+000 -1.609789e+000 1.898074e-001 -1.164742e+000 1.494862e+000 -3.078634e+000 2.029236e-001 5.947719e-001 -1.572225e+000 -8.177463e-001 1.357758e+000 -1.385636e+000 -3.255846e-001 8.867192e-001 -1.084509e+000 -8.726282e-001 -3.585863e-001 -1.010133e+000 -2.175321e+000 -1.035667e+000 -1.025094e+000 -2.158473e+000 -1.379286e+000 -7.754613e-001 -4.333456e-001 -6.867668e-001 -8.771381e-001 8.914298e-001 -3.003283e-001 4.600184e-001 7.499515e-002
<VARIANCE> 39
 1.027987e+000 2.264774e-001 1.866457e-001 9.490792e-001 2.483939e+000 7.566419e-001 4.547202e-001 7.053462e-001 1.356480e+000 7.581516e-001 3.409598e+000 4.959114e-001 6.877241e-002 2.890862e-001 2.117987e-001 1.259275e+000 9.742550e-001 8.418370e+000 1.506419e+000 8.770439e-001 1.452093e+000 6.937110e+000 1.763430e+000 2.194720e+000 1.568322e+000 4.753340e-001 1.176741e+000 3.527058e-001 6.439543e-001 1.786971e+000 3.876648e+000 7.598226e-001 1.774645e+000 1.334893e+000 2.242360e+000 1.181440e+000 2.833834e+000 1.582116e+000 1.809001e-001
<GCONST> 7.101741e+001
<MIXTURE> 16 1.084372e-002
<MEAN> 39
 -7.059439e-002 4.644514e-001 6.502082e-001 -2.400606e+000 -1.709958e+000 -4.127195e-001 -1.423144e+000 -1.108034e+000 -2.465525e+000 -1.288388e+000 -1.917274e+000 -1.845235e+000 1.155481e+000 -1.540697e+000 1.065922e+000 2.109602e-001 3.594906e-001 2.315948e+000 7.116269e-001 -7.339222e-001 6.048040e-001 -3.724446e-001 1.318714e+000 9.656068e-001 6.250257e-001 -1.346871e+000 -1.340559e+000 -1.667394e+000 -1.728264e+000 9.994401e-001 1.201403e+000 9.288964e-001 1.934041e+000 8.799374e-001 2.173868e+000 9.011163e-001 1.713601e+000 4.696441e-001 -8.053629e-001
<VARIANCE> 39
 5.487691e-001 2.650560e-001 1.811556e+000 2.257436e+000 1.656345e+000 1.565917e+000 9.541252e-001 1.503497e+000 4.848596e-001 8.861734e-001 6.397348e-001 8.029972e-002 1.314895e-001 8.413426e-001 1.690735e+000 2.730936e+000 8.181278e-001 1.459928e+000 7.301610e-001 2.011958e+000 9.449232e-001 1.276609e+000 3.737663e+000 2.584409e+000 8.261846e-001 3.868381e-001 4.210810e-001 9.873568e-001 2.044307e+000 2.434632e+000 2.464702e+000 8.250163e-001 1.010955e+000 3.072699e+000 5.792583e-001 3.138011e+000 1.603118e+000 5.969096e-001 1.996293e+000
<GCONST> 7.367875e+001
<STATE> 6
<NUMMIXES> 16
<MIXTURE> 5 1.000000e+000
<MEAN> 39
 -1.074802e+000 6.159118e-001 -3.642232e-001 -6.287826e-001 4.193544e-001 -1.136668e+000 4.982677e-001 8.544768e-002 2.715017e-001 2.758833e-001 3.948382e-001 4.488543e-001 5.134328e-001 5.613613e-001 -4.324079e-001 -1.281543e-002 3.047276e-001 -1.886082e-001 -8.359527e-002 -9.455658e-002 4.420352e-002 2.499268e-002 7.949716e-002 1.203350e-001 1.263914e-001 -6.735566e-001 7.148343e-001 -4.860239e-002 2.336431e-001 3.539835e-001 -6.393670e-002 6.815310e-001 -1.955503e-001 1.035117e-002 5.884504e-003 -2.306712e-001 -6.398409e-002 -1.368582e-001 -8.646461e-001
<VARIANCE> 39
 4.654565e-001 7.660968e-001 1.320548e+000 1.260676e+000 1.257225e+000 1.615896e+000 1.784641e+000 1.964488e+000 1.173730e+000 1.153054e+000 1.148177e+000 1.663051e+000 2.349751e-001 2.069857e+000 1.678746e+000 2.667418e+000 2.163088e+000 2.274017e+000 2.367156e+000 2.441525e+000 2.549790e+000 1.916689e+000 1.696740e+000 2.109401e+000 2.185344e+000 2.284694e+000 2.586187e+000 2.520018e+000 2.871531e+000 2.194093e+000 2.307653e+000 2.630482e+000 2.473971e+000 2.722461e+000 2.037825e+000 1.523394e+000 2.126819e+000 2.216738e+000 1.975450e+000
<GCONST> 9.345399e+001
<STATE> 7
<NUMMIXES> 16
<MIXTURE> 11 1.000000e+000
<MEAN> 39
 -6.064039e-001 6.755367e-002 2.039175e-001 -3.487395e-001 2.874776e-001 -8.854095e-001 -2.970119e-001 2.437473e-001 9.699121e-002 1.516074e-001 2.701003e-001 2.197455e-001 -4.921594e-002 2.242742e+000 -4.184503e-002 -9.430097e-002 1.365884e+000 -6.303549e-001 1.263236e+000 6.344097e-002 -1.144181e-001 1.153595e-001 -8.572956e-002 3.242722e-002 1.587278e-001 -2.787643e+000 3.193957e-001 5.616621e-001 -1.744578e-001 -2.879837e-001 7.610703e-002 8.883740e-001 4.597776e-001 4.745157e-002 4.163908e-001 1.037425e-001 2.237809e-002 -1.291056e-002 2.814204e-001
<VARIANCE> 39
 4.843439e-001 6.876718e-001 2.045272e+000 9.135486e-001 1.635488e+000 1.687339e+000 2.570786e+000 1.254639e+000 1.065259e+000 2.061136e+000 9.544374e-001 1.466429e+000 2.131010e-001 4.075196e+000 3.925678e+000 2.707491e+000 3.457362e+000 4.563066e+000 4.255577e+000 2.103139e+000 3.429010e+000 2.079130e+000 1.887615e+000 3.213777e+000 1.720280e+000 3.211197e+000 1.715146e+000 2.321862e+000 2.291330e+000 1.542864e+000 1.820988e+000 1.868505e+000 2.450172e+000 1.212350e+000 1.838227e+000 2.677821e+000 1.206351e+000 1.621436e+000 1.788355e+000
<GCONST> 9.496441e+001
<TRANSP> 8
 0.000000e+000 1.000000e+000 0.000000e+000 0.000000e+000 0.000000e+000 0.000000e+000 0.000000e+000 0.000000e+000
 0.000000e+000 9.213273e-001 7.867274e-002 0.000000e+000 0.000000e+000 0.000000e+000 0.000000e+000 0.000000e+000
 0.000000e+000 0.000000e+000 9.251895e-001 7.481050e-002 0.000000e+000 0.000000e+000 0.000000e+000 0.000000e+000
 0.000000e+000 0.000000e+000 0.000000e+000 9.107551e-001 8.924491e-002 0.000000e+000 0.000000e+000 0.000000e+000
 0.000000e+000 0.000000e+000 0.000000e+000 0.000000e+000 9.554663e-001 4.453366e-002 0.000000e+000 0.000000e+000
 0.000000e+000 0.000000e+000 0.000000e+000 0.000000e+000 0.000000e+000 8.392334e-001 1.607666e-001 0.000000e+000
 0.000000e+000 0.000000e+000 0.000000e+000 0.000000e+000 0.000000e+000 0.000000e+000 0.000000e+000 1.000000e+000
 0.000000e+000 0.000000e+000 0.000000e+000 0.000000e+000 0.000000e+000 0.000000e+000 0.000000e+000 0.000000e+000
<ENDHMM>
~h "one"
<BEGINHMM>
<NUMSTATES> 8
<STATE> 2
<NUMMIXES> 15
<MIXTURE> 1 7.877409e-002
<MEAN> 39
 1.810176e-001 3.601070e-001 3.235024e+000 -2.461714e+000 -1.574967e+000 -1.884888e+000 -1.226379e+000 -9.903933e-001 -1.355372e+000 1.143116e+000 -1.483818e+000 -7.690255e-001 2.378579e+000 -3.344953e-001 -1.378987e+000 1.220272e-001 -5.961034e-001 -1.710774e+000 -9.806355e-001 1.570529e-001 2.183904e-001 6.002354e-002 1.938175e+000 7.196416e-001 4.694488e-001 8.724291e-001 6.258928e-001 -1.924242e-001 -1.946651e+000 8.987551e-001 3.465023e-001 7.898903e-001 -3.497278e-001 3.867220e-002 2.017007e-001 -8.830846e-001 5.469170e-001 5.520129e-001 -3.350230e-001
<VARIANCE> 39
 7.863188e-001 1.868875e+000 4.958646e-001 5.969163e-001 1.199041e+000 1.876152e+000 1.139405e+000 1.774765e+000 1.659787e+000 2.910746e+000 2.676427e+000 3.060985e+000 4.824702e-001 4.357530e-001 1.378595e+000 1.696753e+000 7.745374e-001 2.247122e+000 1.367137e+000 2.326149e+000 2.326654e+000 8.555068e-001 1.032210e+000 1.751879e+000 1.881394e+000 1.862330e-001 2.781810e-001 1.840301e+000 1.551236e+000 9.940799e-001 2.667102e+000 2.713635e+000 2.197419e+000 2.423912e+000 1.339133e+000 1.727946e+000 1.852087e+000 2.727458e+000 2.266153e-001
<GCONST> 8.166100e+001
<MIXTURE> 2 3.278333e-002
<MEAN> 39
 -4.904035e-001 1.241440e+000 -1.191449e+000 3.685515e-001 7.315379e-001 -2.572764e-001 9.198537e-001 -1.175769e+000 1.770323e+000 -1.729409e+000 -4.749259e-001 -1.760816e+000 1.118235e+000 2.943413e-001 1.086271e+000 1.339153e+000 1.164651e-001 5.878755e-001 1.408238e-001 -2.552526e-001 -5.431007e-001 6.983082e-002 -7.582040e-001 -5.841013e-001 -9.282483e-001 1.414191e+000 4.123419e-001 -3.226278e-001 5.050398e-001 -9.250398e-001 -1.175103e+000 -3.225402e-001 -1.596116e+000 -2.293750e-002 -1.647415e+000 7.564572e-001 -3.517362e-001 5.307322e-001 -9.778192e-001
<VARIANCE> 39
 2.519335e-001 4.332058e-001 4.442263e+000 6.773812e-001 2.372528e-001 3.847681e+000 9.363087e-001 1.752014e+000 2.540619e+000 1.552278e+000 1.363513e+000 1.587877e+000 1.555794e-001 9.000990e-001 1.002459e+000 9.121167e-001 2.067925e+000 1.752832e+000 1.792330e+000 4.658580e+000 2.416342e+000 4.240495e+000 1.935713e+000 1.309565e+000 3.024362e+000 2.690524e+000 7.179264e-001 1.583022e+000 2.583813e+000 1.701063e+000 8.436017e-001 4.242299e+000 2.476109e+000 1.684050e+000 1.505300e+000 1.253677e+000 1.929282e+000 2.462343e+000 2.364910e+000
<GCONST> 8.718575e+001
<MIXTURE> 3 6.869461e-002
<MEAN> 39
 7.993643e-001 3.697374e-001 2.847887e+000 -3.242573e-001 -2.005955e+000 -8.298448e-001 -5.898276e-001 -1.577523e+000 -1.002434e+000 -2.556690e+000 7.915317e-001 6.474029e-002 2.508336e+000 -1.085232e-001 -6.492709e-001 -6.539725e-001 2.465958e-001 -2.245749e-001 -6.298764e-001 1.924663e-001 -1.361402e-001 1.148643e-001 2.528768e-001 1.586086e-001 -3.221090e-001 5.143694e-001 6.692871e-002 2.390909e-002 -9.535668e-001 -1.698131e-003 7.427469e-001 1.252866e-001 -2.306988e-002 1.355853e-001 -6.435981e-002 6.014935e-001 -1.453280e-001 -3.459765e-002 -6.826010e-001
<VARIANCE> 39
 4.702036e-001 2.048651e+000 2.830282e-001 1.506241e+000 9.102673e-001 9.100467e-001 1.418856e+000 1.451890e+000 5.039554e-001 2.683762e-001 6.244287e-001 3.093412e+000 9.234958e-002 4.875546e-001 8.831853e-001 1.223310e+000 8.508698e-001 1.352988e+000 4.917713e-001 1.004053e+000 1.127599e+000 2.894377e-001 9.719014e-001 4.939123e-001 5.110112e-001 1.181212e-001 7.212994e-001 3.698335e-001 8.632475e-001 1.540629e+000 1.522603e+000 7.313101e-001 1.000551e+000 1.684755e+000 5.473824e-001 1.102907e+000 4.935630e-001 7.899063e-001 5.742136e-001
<GCONST> 5.932231e+001
<MIXTURE> 4 1.106715e-001
<MEAN> 39
 -5.011385e-001 6.444815e-001 1.987503e-001 3.957474e-001 4.226965e-001 3.092679e-001 -5.750315e-001 -3.247666e-001 -6.964307e-001 -8.940544e-001 -4.449835e-001 -2.515411e-001 4.896408e-001 3.431930e-001 2.732822e+000 2.840806e+000 -1.600545e+000 -1.798577e+000 -2.478084e+000 -3.054822e+000 -2.678215e+000 -2.589055e+000 -1.880024e+000 -1.335610e+000 -1.220659e+000 4.171037e+000 1.634320e+000 5.195251e-001 1.231998e+000 -1.331616e+000 -9.344218e-001 -8.267278e-001 -4.382811e-001 -3.962329e-001 2.420104e-002 9.195554e-002 -2.330109e-001 -1.174319e-001 -2.714892e-001
<VARIANCE> 39
 7.701421e-001 6.417536e-001 8.898097e-001 3.248850e-001 5.806836e-001 9.122987e-001 1.314159e+000 1.223995e+000 1.299564e+000 2.075645e+000 9.579640e-001 2.596429e+000 3.654549e-001 5.896755e+000 1.256329e+000 2.971149e+000 2.892977e+000 3.392870e+000 2.744108e+000 3.146441e+000 4.169475e+000 2.813616e+000 3.899748e+000 4.846968e+000 3.762961e+000 1.250465e+000 2.240376e+000 1.734231e+000 2.868724e+000 2.034477e+000 2.718678e+000 2.864895e+000 3.484036e+000 3.218569e+000 2.190249e+000 3.494856e+000 2.506548e+000 4.540411e+000 4.599571e+000
<GCONST> 9.853408e+001
<MIXTURE> 5 1.100011e-001
<MEAN> 39
 7.695588e-001 2.129514e+000 1.202274e+000 -4.157405e-001 -2.382906e-001 -3.896313e-001 -1.814004e+000 -1.221179e+000 -1.280444e+000 -1.348550e+000 -2.168250e-001 -4.381052e-001 1.004554e+000 1.145416e+000 1.769158e+000 2.219265e+000 -1.935797e+000 -1.448899e+000 -6.397347e-001 -1.704633e+000 -8.775619e-001 -7.779653e-001 -1.062379e+000 -1.031752e-001 -3.380512e-001 2.441607e+000 -1.220358e+000 -1.975892e+000 -9.253334e-001 3.833596e-001 1.749412e-001 7.084556e-001 1.380000e+000 6.552587e-001 1.336665e+000 1.026758e+000 -1.166169e-002 1.475333e-001 -2.310293e+000
<VARIANCE> 39
 1.675877e+000 6.532548e-001 8.745394e-001 1.286582e+000 7.786909e-001 1.847616e+000 9.716074e-001 1.210502e+000 1.025618e+000 1.204097e+000 2.173785e+000 1.524154e+000 2.316806e-001 1.829926e+000 1.288867e+000 2.227672e+000 2.455685e+000 2.501639e+000 1.564814e+000 2.425365e+000 1.965979e+000 1.574549e+000 1.773351e+000 2.654746e+000 2.714471e+000 1.564809e+000 2.969663e+000 1.387476e+000 1.578784e+000 2.451206e+000 2.262103e+000 2.542470e+000 1.984742e+000 1.588205e+000 2.770032e+000 1.688237e+000 2.704233e+000 1.478478e+000 1.190326e+000
<GCONST> 9.006113e+001
<MIXTURE> 6 4.545147e-002
<MEAN> 39
 -4.080377e-001 3.293962e+000 1.946406e+000 -1.442627e+000 8.565657e-001 -2.220464e+000 -2.825437e+000 -2.551429e+000 -1.296214e+000 -3.001047e+000 -1.429179e+000 -1.841717e+000 1.744734e+000 -9.188098e-001 3.014619e-001 2.110319e+000 -1.761638e+000 4.162205e-001 -5.419095e-001 -4.558311e-001 3.727087e-002 3.186062e-001 -3.272469e-001 -7.469128e-001 -1.058960e+000 1.065344e+000 -6.168927e-002 -2.872212e+000 -1.697191e+000 2.035161e+000 9.758980e-002 2.225736e+000 2.143998e+000 1.905914e+000 9.550753e-001 2.192852e+000 1.266691e+000 1.844984e+000 -1.949037e+000
<VARIANCE> 39
 1.344384e+000 4.223627e-001 1.034918e+000 1.124831e+000 3.775081e+000 4.629636e-001 1.029768e+000 8.550824e-001 1.495490e+000 2.424278e-001 2.375807e+000 8.208128e-001 5.796891e-002 1.195735e+000 1.877294e+000 2.755642e+000 1.668872e+000 5.585212e+000 3.679135e+000 4.523808e+000 1.897437e+000 1.945197e+000 2.574311e+000 3.670185e+000 3.613034e+000 7.275513e-001 1.724958e+000 1.104954e+000 1.611834e+000 4.666943e+000 6.459715e+000 4.012987e+000 3.451695e+000 3.582297e+000 2.668862e+000 8.506171e-001 1.807462e+000 2.358577e+000 1.420199e+000
<GCONST> 9.093793e+001
<MIXTURE> 7 9.542313e-003
<MEAN> 39
 -7.993072e-001 3.208254e+000 1.239193e+000 -8.698748e-001 -5.360901e-001 -2.158813e+000 -3.338266e+000 -3.091043e+000 -1.818429e+000 -1.750260e+000 8.545458e-001 -5.585923e-002 1.682265e+000 -1.372228e+000 2.834957e+000 3.299575e+000 -4.714562e+000 1.268425e+000 -4.915566e+000 -4.028149e+000 -3.958538e+000 -1.557774e+000 -4.154679e+000 -2.136982e+000 -3.582138e+000 2.909114e+000 8.383668e-001 -2.222822e+000 6.703951e-001 5.319346e-001 2.499522e+000 3.216973e+000 2.808207e+000 3.685864e+000 2.261516e+000 1.222400e+000 -2.007297e+000 -1.248578e+000 -3.370348e+000
<VARIANCE> 39
 3.905276e-001 4.415014e-001 5.509369e-001 3.073434e-001 1.352792e+000 1.516856e-001 3.596486e+000 6.711763e-001 1.871291e-001 5.164669e-001 4.976088e+000 8.262813e-001 1.334846e-001 5.307117e+000 5.560910e-001 2.556838e-001 2.318087e-001 5.853237e+000 7.477170e-001 2.221540e+000 3.613612e+000 5.680600e-001 1.201834e+000 1.294132e+000 3.364178e-001 2.407856e+000 7.987878e-001 1.336974e+000 9.250107e-001 2.356733e+000 2.134361e+000 1.237501e+000 5.174179e+000 2.341243e+000 3.962458e-001 3.291759e+000 8.857403e+000 2.537742e+000 1.213860e+000
<GCONST> 7.386825e+001
<MIXTURE> 8 1.669757e-002
<MEAN> 39
 -4.558198e-001 1.740740e+000 3.484844e+000 -1.580056e+000 -1.492403e+000 -1.354217e+000 -2.985764e+000 -3.687328e+000 5.571432e-002 -7.749004e-001 -2.952074e+000 1.912077e+000 1.478132e+000 -4.126352e-001 -1.080223e+000 2.276170e+000 -3.141818e+000 -1.823172e+000 -1.702742e+000 2.182837e-001 -1.208564e+000 -1.178555e-001 1.609239e+000 -1.817893e+000 2.002006e+000 1.717090e+000 -1.373356e-001 -2.586688e+000 -3.972207e+000 1.438205e+000 2.011347e+000 1.371890e+000 2.211205e+000 3.770945e+000 -1.272422e+000 3.164172e+000 2.597702e+000 -1.158182e+000 -2.172144e+000
<VARIANCE> 39
 1.071151e-001 1.309611e+000 1.705690e-001 5.364817e-001 2.931184e-001 1.051434e+000 1.121237e+000 7.214146e-001 1.640683e+000 1.566247e+000 3.779198e-001 2.005337e+000 8.751541e-002 4.227374e-001 4.580600e+000 3.665359e+000 1.896280e+000 3.886837e+000 5.709068e+000 2.167034e+000 5.855610e+000 4.056540e+000 5.986413e+000 4.106440e+000 1.725894e+000 9.374138e-001 8.685839e-001 4.615423e+000 4.982024e-001 1.615548e+000 2.690130e+000 3.049027e+000 2.848935e+000 1.461287e+000 1.197319e+000 1.776770e+000 1.216805e+000 1.246459e+000 9.134210e-001
<GCONST> 8.326973e+001
<MIXTURE> 9 9.459911e-002
<MEAN> 39
 -8.448445e-001 2.487717e+000 1.366932e+000 -1.035207e+000 8.676282e-002 -9.424945e-001 -2.043010e+000 -1.855564e+000 -2.054211e+000 -2.653073e+000 -1.847136e+000 -1.454500e+000 1.521347e+000 -5.942596e-001 -2.709965e-001 9.459895e-001 -8.633874e-001 -8.002475e-001 -5.996014e-001 2.232711e-001 -5.501902e-001 2.800452e-001 4.888042e-001 3.102803e-001 2.053550e-001 3.038295e-001 1.830413e-001 -9.741347e-001 1.237367e-001 -1.681500e-001 -1.254308e+000 -6.315263e-001 4.508652e-001 5.394801e-002 8.597358e-001 7.817087e-001 5.346836e-001 -1.774250e-001 -5.701150e-002
<VARIANCE> 39
 7.322536e-002 6.098166e-001 1.029440e+000 4.365719e-001 4.620396e-001 6.972998e-001 1.083232e+000 9.007413e-001 1.772411e+000 6.615383e-001 1.760666e+000 1.465238e+000 8.866626e-002 3.832279e-001 2.067760e+000 2.627198e+000 3.989669e+000 2.953764e+000 2.640748e+000 2.225633e+000 9.532822e-001 4.238510e+000 1.923889e+000 2.376867e+000 1.695014e+000 7.566784e-002 6.557516e-001 1.911366e+000 2.081880e+000 3.204195e+000 1.832867e+000 2.824234e+000 2.773288e+000 1.826269e+000 3.147945e+000 2.158801e+000 2.606096e+000 2.598039e+000 2.261480e-001
<GCONST> 7.886166e+001
<MIXTURE> 10 1.006890e-001
<MEAN> 39
 1.576543e-001 2.344523e+000 2.294830e+000 -2.592572e-002 -3.886192e-001 -7.896371e-001 -9.178828e-001 -1.534803e+000 -5.119465e-001 -1.109025e+000 -8.222367e-001 -1.085935e+000 1.217411e+000 -2.124138e-001 -3.967811e-001 1.021117e-001 -5.658031e-001 -1.004615e+000 -6.169184e-001 9.023245e-002 -4.344999e-001 -1.553730e-001 1.498188e-001 5.005638e-002 -1.766455e-002 7.943307e-001 3.773121e-001 -9.567006e-001 -8.252568e-001 -2.126858e-001 -4.562914e-001 4.660689e-002 -3.317014e-001 7.146258e-002 -1.362922e-001 5.437487e-001 8.599997e-001 2.612417e-001 7.668611e-002
<VARIANCE> 39
 1.792038e+000 3.821529e-001 6.812381e-001 1.336806e+000 7.630134e-001 4.118629e-001 1.083740e+000 9.819401e-001 1.196378e+000 2.271848e+000 7.928466e-001 6.851701e-001 9.965945e-002 5.838046e-001 6.939425e-001 1.387313e+000 1.090399e+000 1.584359e+000 5.657244e-001 4.240244e-001 1.244341e+000 1.311270e+000 1.943124e+000 1.794199e+000 1.677272e+000 1.931384e-001 4.304571e-001 5.616563e-001 8.081876e-001 1.267535e+000 1.725793e+000 7.398157e-001 4.498076e-001 2.437614e+000 1.445456e+000 2.231100e+000 8.497806e-001 9.780362e-001 5.888871e-001
<GCONST> 6.674477e+001
<MIXTURE> 11 3.337396e-002
<MEAN> 39
 2.883633e-001 -8.431531e-001 2.813423e+000 -2.356970e+000 -1.929039e+000 -2.914143e+000 -3.478421e+000 -6.157233e-001 -3.372776e+000 1.353451e+000 -1.824241e+000 -4.344436e-001 2.338767e+000 1.663752e-001 -1.904690e+000 2.041195e-001 -9.121345e-001 -3.978556e-001 7.760593e-002 -4.399756e-001 1.656008e-001 -1.044452e+000 2.268653e-001 -9.087690e-001 -2.575840e-001 1.801504e+000 3.088308e-001 1.265367e-001 -1.119258e+000 9.496409e-001 6.464371e-002 9.746012e-001 1.158877e+000 9.055116e-002 1.770121e+000 -1.665667e+000 1.992715e-001 -2.547032e-001 -5.445284e-001
<VARIANCE> 39
 9.917667e-001 3.178319e-001 2.674213e-001 1.986749e-001 2.672978e-001 1.603363e+000 4.764525e-001 1.115274e+000 6.995350e-001 3.759856e+000 1.651390e+000 4.505398e+000 3.048452e-001 7.220633e-001 2.649328e+000 2.917127e+000 1.943742e+000 5.136400e-001 1.340858e+000 2.930626e+000 2.085305e+000 3.129960e+000 8.200455e+000 3.465225e+000 1.107085e+000 5.914066e-001 8.044173e-001 1.163203e+000 1.067946e+000 3.362188e+000 1.887084e+000 1.816275e+000 1.573366e+000 8.004357e-001 1.368229e+000 5.098488e+000 2.474137e+000 1.062890e+000 7.230620e-001
<GCONST> 8.103904e+001
<MIXTURE> 12 1.148855e-001
<MEAN> 39
 7.769586e-001 1.729076e+000 -1.507501e-001 -2.280282e-001 -4.582956e-001 -1.207972e+000 -1.315837e+000 -1.472069e+000 -1.275560e+000 -1.358512e+000 -9.404669e-001 -4.245338e-001 9.035968e-001 8.337816e-002 1.791897e-001 1.290572e-001 -1.348867e-001 -1.324797e-001 -4.587156e-002 8.834404e-003 4.715719e-002 1.782692e-001 4.082689e-002 -1.038535e-001 -3.087655e-002 2.704829e-001 -1.851084e-001 -1.182067e-001 4.986722e-002 -1.130888e-001 -2.034491e-001 3.658309e-002 1.493739e-001 1.619070e-001 -1.385740e-003 3.247261e-002 5.544411e-002 1.457234e-001 2.079848e-002
<VARIANCE> 39
 3.092050e-001 3.119013e-001 1.579870e+000 1.254315e-001 2.143964e-001 1.929834e-001 5.404769e-001 2.867995e-001 3.801240e-001 8.402581e-001 2.284949e-001 2.434909e-001 3.820294e-002 3.770028e-001 7.264686e-001 1.101087e+000 3.662165e-001 1.207963e+000 5.817649e-001 6.185603e-001 9.457138e-001 4.343568e-001 7.341653e-001 5.169711e-001 5.911058e-001 1.647187e-001 6.885403e-001 8.459665e-001 9.641308e-001 5.235636e-001 1.251848e+000 6.602081e-001 6.302709e-001 1.244588e+000 6.396467e-001 8.291392e-001 6.885490e-001 5.283070e-001 3.500281e-001
<GCONST> 4.379848e+001
<MIXTURE> 13 8.875921e-002
<MEAN> 39
 1.175602e+000 1.517891e+000 2.842555e+000 -9.741984e-001 -1.297393e+000 -3.382914e-001 -1.312804e+000 -7.374262e-001 -1.180035e+000 -1.344978e+000 4.192933e-001 -9.063842e-001 1.968637e+000 8.267970e-001 -1.328238e+000 2.695549e+000 -1.111054e+000 -2.756863e+000 -1.165181e+000 -1.271892e+000 -2.157398e-001 -1.254279e+000 -5.387183e-002 2.318189e-001 -7.223101e-001 2.514308e+000 -1.476990e+000 -1.817942e+000 -2.838818e+000 6.357024e-001 1.580467e+000 5.891802e-001 8.023841e-001 7.260425e-001 4.996153e-001 1.005027e+000 -3.037488e-001 8.667742e-001 -2.648863e+000
<VARIANCE> 39
 8.107676e-001 1.823272e+000 5.062146e-001 1.097425e+000 5.760645e-001 1.211416e+000 3.379781e+000 1.829489e+000 8.300813e-001 2.156181e+000 1.072249e+000 1.536021e+000 1.847316e-001 1.672010e+000 2.864241e+000 3.716413e+000 3.975438e+000 2.847301e+000 2.701561e+000 3.124024e+000 3.026526e+000 1.763673e+000 2.834726e+000 1.628992e+000 1.699727e+000 1.507866e+000 2.521307e+000 2.516362e+000 3.071368e+000 2.159023e+000 1.680901e+000 1.695823e+000 3.524776e+000 2.238865e+000 5.624501e-001 1.588163e+000 7.949709e-001 1.588982e+000 1.851497e+000
<GCONST> 9.150840e+001
<MIXTURE> 14 8.316927e-002
<MEAN> 39
 8.839673e-001 2.043373e+000 1.585024e+000 -5.617244e-001 -9.220620e-001 -3.838983e-001 -2.470018e+000 -1.740624e+000 -9.475242e-001 -5.009546e-001 -5.867658e-002 -3.586168e-001 1.565683e+000 -5.558276e-002 -1.062609e+000 2.551593e-001 -1.161183e+000 -8.829553e-001 2.591096e-001 1.259296e-001 5.962402e-001 -1.527722e-001 5.666837e-001 5.063568e-001 2.058808e-001 6.914207e-001 -1.085948e+000 -1.127573e+000 -6.759894e-001 3.947402e-001 5.977546e-001 8.601815e-005 1.859901e+000 1.160147e+000 -7.620751e-002 -9.961104e-002 -4.576759e-001 -1.118909e-001 -9.547733e-001
<VARIANCE> 39
 1.102256e+000 9.288933e-001 3.534598e-001 6.467823e-001 6.203861e-001 2.442184e+000 1.166741e+000 1.177366e+000 5.220724e-001 5.044662e-001 1.922256e+000 2.391884e+000 2.528354e-001 5.474448e-001 1.632948e+000 2.518756e+000 1.661292e+000 8.775685e-001 7.668266e-001 1.230124e+000 1.335880e+000 1.985516e+000 1.221054e+000 1.672998e+000 1.150908e+000 3.887867e-001 7.357834e-001 1.162091e+000 1.212481e+000 1.763871e+000 1.546958e+000 1.246529e+000 9.037586e-001 1.141934e+000 1.321110e+000 7.303283e-001 2.218076e+000 1.675559e+000 7.703186e-001
<GCONST> 7.409811e+001
<MIXTURE> 15 1.190792e-002
<MEAN> 39
 1.181897e+000 3.283761e-001 2.502233e+000 -1.087642e+000 2.147256e-001 -1.924821e+000 -2.410997e+000 -1.516832e+000 -3.310168e+000 -4.641385e-001 -3.620146e+000 -1.926625e+000 2.194105e+000 5.111062e-001 -3.754914e-001 4.178275e+000 -3.228608e+000 -1.355908e+000 -2.794167e+000 -2.408184e-001 3.695496e-001 -1.198506e+000 3.451946e+000 -3.415651e+000 -1.876965e+000 2.376876e+000 -2.095895e+000 -3.570023e-001 -3.280242e+000 1.140451e+000 -5.810437e-001 1.056974e+000 3.431165e+000 1.865250e+000 3.771659e+000 1.896668e+000 3.124589e+000 1.271883e+000 -3.762534e+000
<VARIANCE> 39
 9.525828e-001 9.702805e-001 6.215993e-001 2.957208e-001 3.238012e+000 1.220758e+000 4.354209e-001 1.206394e+000 8.640480e-001 2.435340e+000 1.029828e+000 1.488682e+000 1.637813e-001 6.741405e+000 1.442147e+000 2.194677e+000 1.605934e+000 5.962584e-001 3.945637e+000 4.530135e+000 6.632031e+000 6.254486e+000 4.223673e+000 4.534039e+000 1.312706e+000 1.821889e+000 3.264790e+000 2.215694e+000 1.335096e+000 1.885627e+000 5.299882e+000 9.795168e-001 3.602646e+000 2.015987e+000 6.183757e+000 2.181974e+000 1.675464e+000 1.950944e+000 1.389012e+000
<GCONST> 9.409417e+001
<STATE> 3
<NUMMIXES> 15
<MIXTURE> 1 8.193046e-002
<MEAN> 39
 -7.570265e-002 4.218002e-001 1.079056e+000 1.797460e-001 8.463241e-001 1.510487e+000 1.716251e+000 1.777685e+000 5.427149e-001 -3.156481e-003 -1.662982e+000 -2.036221e+000 1.241964e+000 -2.428131e-001 -2.275482e-001 -1.247716e-001 -1.032919e-001 1.970151e-001 -1.748612e-002 -1.196536e-001 1.609245e-001 -3.511072e-001 1.631229e-001 7.537721e-002 1.085171e-001 -1.730899e-001 -1.362441e-001 1.046816e-001 -7.221162e-002 -3.155221e-001 -1.610267e-001 4.959520e-002 -1.322975e-001 2.209253e-002 4.370123e-002 6.532313e-002 2.437159e-001 3.155938e-001 -1.105323e-001
<VARIANCE> 39
 7.234632e-002 2.417672e-001 5.652690e-001 2.543212e+000 7.104656e-001 1.906375e-001 2.742959e-001 1.017281e+000 2.296438e+000 5.192107e-001 6.187729e-001 6.525699e-001 3.584773e-002 5.613492e-001 8.582415e-001 1.202382e+000 2.868608e+000 1.230463e+000 5.216147e-001 2.067777e+000 1.439415e+000 1.659563e+000 1.219422e+000 1.765635e+000 2.409714e+000 2.314423e-001 2.449297e-001 2.128579e+000 1.626634e+000 2.210293e+000 1.514930e+000 6.840179e-001 2.554310e+000 1.071997e+000 1.965363e+000 1.524466e+000 1.999146e+000 2.579170e+000 1.285546e-001
<GCONST> 6.486104e+001
<MIXTURE> 2 5.877245e-002
<MEAN> 39
 1.657091e+000 3.498346e-001 2.193376e+000 -3.974766e-001 -2.835858e+000 -1.199048e+000 -1.032558e+000 6.679106e-001 -1.564504e+000 -7.666074e-001 1.996653e+000 -9.496984e-001 2.384004e+000 2.349301e-001 -9.173878e-001 -6.911854e-001 -1.798029e-002 -2.643003e-002 -1.220546e+000 5.770048e-001 7.900938e-001 -2.378160e-002 3.052427e-001 1.472980e-001 -2.690347e-001 8.438314e-002 -3.346269e-001 4.566808e-001 -7.876717e-002 -2.875952e-001 1.260656e+000 4.701318e-001 -2.845356e-002 -4.245034e-001 6.514268e-001 -3.320419e-002 -4.051620e-001 -1.637201e-001 -4.810976e-001
<VARIANCE> 39
 9.018021e-001 3.365506e-001 1.972708e-001 1.144799e+000 9.894906e-002 5.615281e-001 7.923608e-001 1.275993e+000 1.533937e+000 2.658208e+000 1.718205e-001 6.829461e-001 6.598961e-002 2.541785e-001 7.303380e-001 2.095283e-001 7.619123e-001 1.101189e+000 1.341039e+000 6.183061e-001 8.786327e-001 1.029549e+000 8.272164e-001 7.621536e-001 6.537226e-001 1.087718e-001 3.021590e-001 3.665763e-001 6.697412e-001 8.029202e-001 2.551535e-001 1.148347e+000 7.951862e-001 1.194229e+000 5.706198e-001 1.018939e+000 3.366496e-001 3.996921e-001 1.063947e-001
<GCONST> 4.695877e+001
<MIXTURE> 3 8.032315e-002
<MEAN> 39
 1.336872e+000 -2.745968e+000 2.101028e+000 -2.523431e+000 -1.913348e+000 -2.192319e+000 -4.166158e-001 2.086577e+000 -1.665555e+000 2.280230e+000 2.581143e-001 2.889539e-001 2.637187e+000 3.342004e-001 -1.034597e-001 -1.986269e-001 1.333492e-001 2.273895e-001 -3.354289e-001 6.533245e-001 1.014269e-001 3.367512e-002 1.278448e-001 -4.078906e-001 8.577491e-002 -2.761719e-001 -9.456744e-002 1.058516e+000 4.409775e-001 6.084707e-001 -5.700301e-003 4.880765e-001 -4.590534e-001 -6.907657e-001 -1.639211e-001 -2.886343e-001 3.596654e-002 -3.773750e-001 -3.810497e-001
<VARIANCE> 39
 6.757879e-001 5.703261e-001 1.056378e-001 3.552912e-001 2.866164e-001 1.750857e-001 1.997402e+000 5.719450e-001 6.128960e-001 9.985390e-001 9.319593e-001 2.813834e+000 1.326229e-001 2.386592e-001 2.060998e+000 7.261731e-001 6.148593e-001 3.762332e-001 3.725115e-001 9.412867e-001 4.645989e-001 5.231368e-001 5.740067e-001 4.352581e-001 3.991139e-001 2.341670e-001 5.120506e-001 2.075244e+000 4.138635e-001 8.720721e-001 7.835138e-001 1.748995e-001 5.868908e-001 4.353609e-001 3.570586e-001 6.366223e-001 5.691910e-001 5.092973e-001 9.428761e-002
<GCONST> 4.493056e+001
<MIXTURE> 4 9.051361e-002
<MEAN> 39
 6.345943e-001 1.123259e+000 2.178279e+000 -6.809444e-001 -1.230136e+000 -1.756952e-001 -1.758193e+000 -8.695796e-001 -1.799245e+000 -1.721566e+000 3.634008e-001 -6.007947e-001 1.851138e+000 3.190632e-001 -1.602361e+000 -1.733446e-001 -1.770695e-001 -1.230323e+000 -1.179178e+000 4.111402e-001 7.638013e-001 -6.490922e-001 6.728623e-001 3.926796e-001 9.713125e-001 5.919533e-001 5.226520e-001 -5.465030e-001 -6.532562e-001 3.235070e-001 -1.301812e-001 -4.063927e-001 1.990542e-001 1.799507e-001 4.152081e-001 8.117057e-001 5.132724e-001 2.096982e-001 -1.196441e-001
<VARIANCE> 39
 7.924942e-001 1.362260e+000 1.219338e-001 9.767005e-001 3.048510e-001 9.496490e-001 1.240585e+000 7.324852e-001 2.930363e-001 6.783855e-001 1.617602e+000 1.230486e+000 2.598604e-001 3.332046e-001 8.108994e-001 9.006445e-001 1.040581e+000 7.825475e-001 1.570507e+000 7.531368e-001 9.424030e-001 8.598547e-001 2.157271e+000 1.199360e+000 6.927451e-001 1.242962e-001 1.873176e-001 8.871467e-001 8.868303e-001 8.578052e-001 1.209493e+000 6.990490e-001 8.711578e-001 9.152282e-001 9.799569e-001 8.642203e-001 7.913093e-001 1.230689e+000 1.219845e-001
<GCONST> 5.809415e+001
<MIXTURE> 5 6.934116e-002
<MEAN> 39
 -7.480959e-001 7.133472e-001 2.150375e+000 -2.516401e+000 -4.652161e-002 -2.659976e+000 -9.882311e-001 -2.306310e+000 6.946598e-001 -1.929684e+000 -1.297954e+000 -1.550828e+000 2.068908e+000 -1.112097e-001 -2.310298e+000 -1.357715e+000 -7.781985e-001 -1.789137e+000 2.606415e-001 2.041100e+000 1.240605e+000 1.646514e+000 8.741469e-001 -3.497019e-001 -9.740140e-001 6.590808e-001 6.338202e-001 1.308832e-001 -9.900996e-001 1.151625e+000 -3.564342e-002 6.641906e-001 3.958595e-001 6.524975e-001 -3.206088e-001 4.107643e-001 1.543069e-001 -6.081039e-001 2.842786e-001
<VARIANCE> 39
 1.860273e+000 1.528329e+000 5.885060e-001 1.037526e-001 3.712415e+000 3.255046e-001 2.845600e+000 4.396885e-001 9.179282e-001 7.936915e-001 1.013999e+000 5.331723e-001 5.670694e-002 2.220138e-001 3.370541e-001 3.258218e-001 1.056586e+000 1.740368e+000 9.104275e-001 1.588077e+000 1.340280e+000 1.942677e+000 1.309675e+000 1.773551e+000 2.158300e+000 2.739222e-001 1.973721e-001 7.443527e-001 9.352979e-001 6.833664e-001 2.164220e+000 1.124520e+000 1.862431e+000 1.489257e+000 2.345442e+000 2.078433e+000 1.412244e+000 1.307333e+000 4.000319e-001
<GCONST> 6.590110e+001
<MIXTURE> 6 9.028997e-002
<MEAN> 39
 -5.652055e-001 -7.858266e-001 1.228236e+000 -1.576318e+000 -2.442801e+000 -2.429396e+000 8.044010e-001 -1.229984e+000 5.130314e-001 3.383520e-001 -2.438104e-001 -9.042897e-001 1.925989e+000 2.503856e-002 -7.687816e-001 -5.826737e-001 1.717491e-001 8.973799e-002 4.019141e-001 7.444304e-001 3.122367e-001 1.558740e-001 1.615353e-001 7.304893e-002 6.417187e-001 1.415383e-001 -1.491339e-001 1.047929e+000 7.242678e-001 5.811592e-001 9.939495e-001 8.963601e-001 -8.009130e-001 -3.672791e-001 -9.178396e-001 -9.724727e-001 -6.961697e-001 1.216125e-001 -3.706302e-001
<VARIANCE> 39
 7.139652e-001 4.777868e-001 1.015911e+000 3.065967e+000 3.842931e-001 1.601156e-001 1.539424e+000 3.271828e-001 2.202544e+000 2.071985e+000 2.172467e+000 3.172482e+000 1.027610e-001 1.551535e-001 1.195969e+000 1.097343e+000 7.423135e-001 8.725212e-001 1.268966e+000 3.133698e+000 1.647898e+000 2.134656e+000 2.243613e+000 2.500957e+000 2.430816e+000 2.443511e-001 1.926102e-001 6.881626e-001 5.313010e-001 1.419755e+000 1.276063e+000 7.045844e-001 1.776720e+000 7.330506e-001 1.509378e+000 2.005827e+000 2.065667e+000 2.895187e+000 3.992008e-001
<GCONST> 7.108627e+001
<MIXTURE> 7 1.366583e-001
<MEAN> 39
