~o
<STREAMINFO> 1 39
<VECSIZE> 39<NULLD><MFCC_E_D_A_Z><DIAGC>
~h "eight"
<BEGINHMM>
<NUMSTATES> 8
<STATE> 2
<NUMMIXES> 16
<MIXTURE> 1 7.823978e-002
<MEAN> 39
 1.651419e-001 -1.821298e+000 -8.854052e-001 7.134084e-001 7.568882e-001 -1.200742e-001 1.250828e+000 -8.101261e-002 -1.704011e-001 -1.403932e+000 -8.809107e-001 2.615484e-001 7.855629e-001 1.784447e+000 1.389528e+000 1.283678e+000 2.566741e-001 6.729468e-001 1.358397e-001 4.564115e-001 2.383500e-001 6.534926e-001 3.401975e-001 -3.780492e-001 -7.575303e-001 2.292418e+000 1.512502e+000 2.295698e-001 4.912583e-001 -1.141614e+000 -7.798935e-001 -4.401697e-001 -9.594855e-001 -1.019293e-002 8.277317e-002 5.126112e-001 -4.317221e-002 -9.005448e-001 1.526557e+000
<VARIANCE> 39
 4.681575e-001 3.703200e-001 7.274911e-001 1.201593e+000 1.329980e+000 2.192464e+000 1.998617e+000 1.512897e+000 1.969589e+000 1.157053e+000 1.285358e+000 2.060903e+000 3.715517e-001 8.665135e-001 1.275019e+000 1.677798e+000 2.239610e+000 1.941953e+000 1.789192e+000 2.646767e+000 1.818238e+000 1.635024e+000 8.443484e-001 1.419767e+000 2.081425e+000 2.189018e+000 1.018802e+000 2.158918e+000 1.962068e+000 9.520101e-001 2.245559e+000 2.610581e+000 1.829616e+000 2.017383e+000 2.774227e+000 1.179782e+000 1.864594e+000 1.770846e+000 1.535903e+000
<GCONST> 8.650125e+001
<MIXTURE> 2 1.000836e-001
<MEAN> 39
 5.245593e-001 -1.476783e+000 -9.608427e-001 -1.832931e-001 1.568449e-001 -1.233203e+000 -9.527709e-001 -1.674140e+000 -1.338491e+000 -1.555834e+000 -1.516140e+000 -1.238872e+000 1.433042e+000 1.891485e+000 -9.632528e-001 -1.943893e+000 -1.188072e+000 -1.004870e+000 -1.054105e+000 -2.643892e-001 -8.010168e-001 -1.277337e+000 -8.665006e-001 -1.192008e+000 -8.569738e-001 2.174700e+000 -1.308503e+000 -1.254244e+000 -5.779996e-002 2.569052e-001 6.710187e-001 9.585039e-001 1.357635e+000 1.467617e+000 9.405503e-001 1.393556e+000 1.217844e+000 1.131317e+000 -9.611182e-001
<VARIANCE> 39
 1.135651e+000 4.921706e-001 1.286068e+000 1.734152e+000 2.791053e+000 1.120072e+000 2.527855e+000 1.463101e+000 1.711180e+000 1.361046e+000 9.414014e-001 8.927532e-001 3.253394e-001 1.633682e+000 2.361948e+000 2.642094e+000 3.146956e+000 2.958753e+000 2.360701e+000 2.642554e+000 2.321375e+000 3.004988e+000 3.290637e+000 3.023073e+000 2.302730e+000 1.316781e+000 1.954342e+000 2.007165e+000 2.663098e+000 2.251947e+000 3.136917e+000 1.872669e+000 1.546585e+000 1.564016e+000 1.694030e+000 1.730426e+000 1.824048e+000 1.267542e+000 2.235570e+000
<GCONST> 9.415704e+001
<MIXTURE> 3 9.486895e-002
<MEAN> 39
 -2.761488e-001 -2.429161e+000 -1.296925e+000 -9.049886e-001 3.990526e-001 -3.719098e-001 2.352620e-002 6.163988e-002 -1.201091e+000 -1.153836e+000 -9.305004e-001 5.427217e-001 6.230152e-001 -8.407379e-002 -5.479576e-001 -1.891103e-001 -1.226983e-001 3.881194e-001 -6.079162e-002 5.338808e-001 -2.493850e-001 -9.046589e-001 -7.747931e-001 -6.168526e-001 -4.521722e-002 1.529881e+000 9.899202e-001 2.157713e+000 1.168007e+000 1.428617e+000 2.312423e-001 8.381938e-002 4.367426e-002 -6.192109e-004 7.827032e-001 5.031291e-001 1.669881e-001 -9.138060e-001 -2.342941e-001
<VARIANCE> 39
 4.567843e-001 2.938919e-001 6.998547e-001 6.069160e-001 2.122863e+000 1.965564e+000 1.947511e+000 2.279355e+000 3.545491e+000 1.283059e+000 2.662138e+000 1.760825e+000 1.060649e-001 4.058955e-001 2.195442e+000 1.685643e+000 2.024298e+000 1.611484e+000 2.930757e+000 2.518267e+000 1.755108e+000 2.329397e+000 1.692215e+000 2.757679e+000 2.791223e+000 1.116115e+000 1.569448e+000 1.204282e+000 2.650956e+000 1.828191e+000 2.658261e+000 2.674309e+000 1.724787e+000 1.691293e+000 2.266648e+000 1.732581e+000 4.126044e+000 2.483947e+000 3.023417e+000
<GCONST> 9.026926e+001
<MIXTURE> 4 6.673459e-002
<MEAN> 39
 1.114197e+000 -2.024811e+000 -1.498338e+000 1.356569e+000 1.240355e+000 -1.761374e+000 2.450870e+000 -5.052130e-001 -5.196655e-001 -1.092299e+000 -5.080143e-001 -2.201053e+000 2.026446e+000 1.613186e-001 5.601200e-002 -1.637245e-001 9.778439e-002 -4.380124e-001 -8.330788e-002 4.967115e-002 3.086475e-001 2.548801e-001 -3.116371e-002 -1.839474e-001 8.535744e-004 3.286777e-001 -4.517632e-001 4.924190e-001 4.426397e-001 -7.066689e-002 1.617165e-001 1.325266e-001 -3.848385e-001 1.085519e-001 1.421388e-002 -8.930611e-002 7.185562e-002 5.561166e-001 -7.747502e-001
<VARIANCE> 39
 9.076884e-001 7.115429e-001 7.770895e-001 1.823996e+000 1.580078e+000 1.003126e-001 3.899656e-001 2.551007e+000 1.414870e+000 8.883296e-001 1.689148e+000 8.406248e-001 5.511464e-002 1.572549e-001 1.965366e+000 2.188350e+000 2.149801e+000 1.033530e+000 3.174752e-001 1.128761e+000 1.877393e+000 2.049788e+000 2.743220e+000 2.356177e+000 2.433894e+000 3.376553e-001 1.493813e+000 2.487153e+000 2.444102e+000 3.391809e+000 8.767428e-001 9.521535e-001 9.383269e-001 1.982868e+000 2.939043e+000 3.367737e+000 2.325570e+000 1.744818e+000 1.880746e+000
<GCONST> 7.801363e+001
<MIXTURE> 5 9.666358e-002
<MEAN> 39
 -5.794550e-001 -1.904908e+000 3.211035e-001 4.105793e-001 1.227675e+000 2.676790e-001 -1.670750e-002 -6.729704e-002 -1.709809e-001 -2.522403e-001 4.868589e-001 4.464665e-001 7.309639e-001 1.789143e+000 6.063502e-001 -6.224020e-001 -4.739353e-001 -5.402202e-001 -9.077372e-001 -1.126380e+000 -1.805630e+000 -1.612968e+000 -1.928025e+000 -1.773889e+000 -1.332875e+000 1.810711e+000 1.995072e+000 3.601091e-001 -1.289122e+000 -1.312522e+000 -1.492383e+000 -1.048102e+000 -4.811318e-001 -6.058115e-001 -8.533581e-001 -8.328814e-001 -1.444816e+000 -1.209104e+000 1.374827e+000
<VARIANCE> 39
 8.189652e-001 6.270549e-001 2.369623e+000 1.373726e+000 1.642747e+000 1.299987e+000 1.540352e+000 1.214693e+000 1.340278e+000 1.461650e+000 1.918629e+000 1.650917e+000 3.297761e-001 1.622281e+000 1.479619e+000 2.140679e+000 2.316676e+000 3.263334e+000 2.189432e+000 2.230964e+000 1.554104e+000 1.948336e+000 2.037351e+000 2.334630e+000 2.258598e+000 2.067440e+000 1.892755e+000 2.711799e+000 2.087149e+000 2.517851e+000 1.125375e+000 2.048320e+000 1.984225e+000 2.003714e+000 1.679618e+000 2.282756e+000 2.468082e+000 2.312276e+000 1.459389e+000
<GCONST> 9.272029e+001
<MIXTURE> 6 8.466551e-002
<MEAN> 39
 -1.041864e+000 -4.705511e-003 1.159363e+000 -1.138325e+000 -1.528950e+000 -1.586298e+000 -3.250087e-001 1.495556e+000 -3.916647e-001 -1.071718e+000 1.036782e+000 2.930520e-001 1.099697e+000 -4.851216e-001 5.324245e-001 9.353554e-001 -2.315347e-001 2.987955e-001 6.612295e-001 -3.190947e-001 1.023765e-001 4.792999e-002 3.932322e-001 7.193520e-001 1.850012e-001 6.296490e-001 1.961075e-001 -2.546332e-001 -3.382315e-001 3.683179e-001 6.806777e-001 6.165365e-001 3.271143e-001 -3.999677e-001 -2.761279e-001 1.942597e-002 -1.745168e-001 -3.380745e-001 -3.383849e-002
<VARIANCE> 39
 9.688457e-001 2.086747e+000 1.722713e+000 2.932108e+000 1.933692e+000 1.505069e+000 2.057145e+000 1.958400e+000 1.096857e+000 2.114738e+000 1.306798e+000 2.625636e+000 3.307479e-001 3.513033e+000 2.966700e+000 1.919521e+000 4.928205e+000 4.416394e+000 5.407240e+000 3.496989e+000 3.017946e+000 1.888708e+000 1.718990e+000 2.188060e+000 3.542202e+000 1.978359e+000 3.659000e+000 2.292590e+000 1.377339e+000 3.362117e+000 4.507503e+000 6.232163e+000 3.643518e+000 2.727605e+000 2.711469e+000 3.822291e+000 2.697655e+000 3.743498e+000 2.525430e+000
<GCONST> 1.063272e+002
<MIXTURE> 8 5.758465e-002
<MEAN> 39
 1.549595e+000 -3.286798e+000 -2.463305e+000 -1.314787e-001 -1.905759e+000 -1.286708e-001 -1.624671e+000 -6.875356e-001 -2.285238e+000 -2.233827e+000 -1.361410e+000 -1.215703e+000 2.850299e+000 -9.807325e-002 -1.556955e-001 2.130764e-001 -2.691047e-001 -1.875899e-001 4.302464e-001 1.966167e-001 -7.883727e-002 1.345724e-001 -5.698287e-001 1.141783e-001 2.792651e-001 1.693131e-001 -2.224857e-001 8.630892e-001 8.015323e-001 -1.802074e-001 3.558852e-001 -4.991156e-001 5.090224e-002 2.498890e-001 -1.390903e-001 7.930087e-002 3.251538e-002 1.224115e-001 -3.803722e-001
<VARIANCE> 39
 2.217991e-001 2.598845e-001 1.757460e+000 1.711433e+000 1.197772e+000 2.073006e+000 2.313468e+000 2.613472e+000 3.267901e-001 3.214700e-001 6.366539e-001 1.319194e+000 4.490306e-002 2.816429e-001 2.149289e+000 1.698942e+000 1.089698e+000 6.818603e-001 1.144951e+000 8.849136e-001 1.180822e+000 1.259227e+000 7.921444e-001 8.143763e-001 8.132037e-001 2.841572e-001 5.846619e-001 1.024419e+000 1.257955e+000 1.054248e+000 6.491360e-001 1.357116e+000 6.280696e-001 1.181866e+000 1.467547e+000 1.180679e+000 5.402995e-001 6.585752e-001 2.085465e-001
<GCONST> 6.263395e+001
<MIXTURE> 9 5.188865e-002
<MEAN> 39
 -2.448630e-001 -1.194961e+000 2.436758e-001 3.236541e-001 8.705944e-001 3.466643e-001 7.037399e-001 1.465154e+000 9.081899e-002 -8.484607e-001 4.826480e-001 1.172979e+000 1.263162e-002 -7.258081e-001 -2.600690e+000 -2.662207e-001 -1.409870e+000 3.440783e-001 2.853403e-001 4.045251e-001 3.845026e-001 -1.329931e-001 -5.689595e-001 2.993893e-002 -3.209848e-001 1.251141e+000 4.285311e-001 1.066458e+000 -9.137377e-001 -2.299562e-001 -7.568312e-001 1.385324e-001 -3.393362e-001 -1.339921e+000 4.426978e-001 1.142035e+000 -1.543907e-002 -7.351810e-001 3.510949e-001
<VARIANCE> 39
 2.250002e-001 4.288097e-001 1.019151e+000 6.888868e-001 7.832149e-001 1.534054e+000 1.650698e+000 7.746866e-001 4.217339e-001 4.313922e-001 1.434012e+000 8.821374e-001 8.581576e-002 5.720026e-001 2.100033e+000 1.725405e+000 1.237056e+000 1.130226e+000 1.443736e+000 1.473652e+000 8.504862e-001 1.981297e+000 2.887690e+000 2.100256e+000 1.188694e+000 1.619781e+000 1.874005e+000 2.278576e+000 1.034032e+000 1.611716e+000 1.064243e+000 1.755847e+000 2.390346e+000 1.328017e+000 9.946379e-001 1.993154e+000 1.584454e+000 1.232040e+000 2.868452e+000
<GCONST> 7.643813e+001
<MIXTURE> 10 4.182316e-002
<MEAN> 39
 1.620313e+000 -2.124166e+000 1.513408e+000 9.303164e-002 6.325641e-001 -4.171979e-001 -1.927103e-001 1.397627e+000 -1.206244e+000 -5.022562e-001 2.085741e-001 -7.293674e-001 1.014602e+000 3.530452e-002 -2.716218e+000 2.073403e-001 -4.427238e-001 7.398052e-001 3.921276e-001 4.813044e-001 2.961770e-002 -1.085594e+000 -6.946654e-002 -2.726858e-001 9.862596e-002 2.657357e+000 -2.090051e+000 1.397517e+000 -2.242908e+000 2.094381e-001 -9.806074e-001 7.488882e-001 6.635918e-002 -1.373512e+000 6.902222e-001 1.437481e-001 1.332958e-001 3.730950e-001 -1.285460e+000
<VARIANCE> 39
 1.408453e+000 7.265598e-001 2.655204e-001 1.925038e+000 5.577475e-001 1.016410e+000 1.883906e+000 1.975346e+000 2.058822e+000 1.618572e+000 2.610466e+000 1.904504e+000 5.572479e-001 4.959558e+000 2.231887e+000 3.348164e+000 4.349438e+000 1.799972e+000 1.515818e+000 5.080620e+000 2.865842e+000 4.250424e+000 2.782145e+000 4.147444e+000 3.756113e+000 1.452492e+000 3.333511e+000 3.361451e+000 2.092191e+000 3.475100e+000 1.240889e+000 9.803040e-001 3.261871e+000 3.988219e+000 7.424170e+000 3.263027e+000 3.327945e+000 2.600178e+000 2.624105e+000
<GCONST> 1.018243e+002
<MIXTURE> 11 8.691606e-002
<MEAN> 39
 8.341073e-001 -1.723827e+000 -1.014954e+000 -7.579649e-001 1.986424e-001 -7.479705e-001 -3.236718e-001 -7.573922e-001 -6.776983e-001 -6.489801e-001 -1.410543e+000 -6.414323e-001 1.440809e+000 9.296145e-002 -1.051565e+000 -5.259929e-001 -7.570530e-001 -2.049432e-001 -1.211050e-001 -1.202738e-001 4.965500e-001 -4.835593e-001 1.036608e-001 -2.467200e-001 2.382750e-001 7.773398e-001 -8.302012e-001 7.429968e-001 5.893439e-001 1.028116e+000 1.695540e-001 5.018572e-001 4.002390e-001 -5.151413e-002 5.102639e-001 5.921934e-003 7.070905e-001 2.833502e-001 -1.197656e+000
<VARIANCE> 39
 3.128052e-001 4.509510e-001 7.437055e-001 9.518564e-001 1.003096e+000 1.007799e+000 1.668267e+000 1.469517e+000 1.878491e+000 9.696118e-001 6.193188e-001 1.588844e+000 1.888888e-001 2.991094e-001 8.864962e-001 5.844694e-001 1.254515e+000 8.773434e-001 7.002283e-001 1.573122e+000 8.736945e-001 5.357062e-001 6.732299e-001 7.395241e-001 1.194918e+000 2.041150e-001 8.288361e-001 2.304989e+000 7.527419e-001 7.513932e-001 1.232235e+000 9.518824e-001 1.377327e+000 8.483783e-001 8.543814e-001 4.819708e-001 7.294465e-001 9.425765e-001 3.898325e-001
<GCONST> 6.284698e+001
<MIXTURE> 12 1.531287e-001
<MEAN> 39
 -6.853754e-001 -1.463400e+000 -2.515243e-001 3.677699e-001 8.379346e-001 2.024158e-001 1.202611e+000 3.116066e-001 1.659210e-001 2.849262e-001 2.981720e-001 -1.669377e-002 4.028901e-001 -3.901707e-001 -7.780487e-001 -3.568816e-001 2.219173e-001 1.519813e-001 -2.474548e-001 -2.839799e-001 -3.073921e-001 -2.481533e-001 4.230976e-002 2.305370e-001 9.250187e-002 8.023204e-001 6.075742e-001 7.276139e-001 1.841489e-001 2.135154e-001 -1.214566e-001 -3.761579e-001 -4.522605e-001 -9.758100e-002 -2.239833e-001 -3.222398e-001 -4.274702e-002 1.684727e-001 -1.165020e-001
<VARIANCE> 39
 6.705445e-001 4.152010e-001 1.192455e+000 8.926758e-001 7.415885e-001 1.018801e+000 1.089318e+000 9.147525e-001 1.030856e+000 1.316327e+000 1.111872e+000 1.174013e+000 1.728472e-001 4.025807e-001 6.578078e-001 9.760444e-001 1.147949e+000 8.857723e-001 1.087541e+000 8.831393e-001 1.441203e+000 1.425332e+000 1.056735e+000 1.857831e+000 2.307741e+000 4.397190e-001 7.720811e-001 1.406025e+000 7.958002e-001 1.518976e+000 1.333929e+000 1.095644e+000 6.983665e-001 1.468531e+000 1.579304e+000 9.104480e-001 1.702980e+000 2.246874e+000 5.942127e-001
<GCONST> 7.088703e+001
<MIXTURE> 13 1.272459e-002
<MEAN> 39
 -2.357894e-001 -2.702237e+000 7.701764e-001 -9.936146e-001 1.328543e+000 -1.483617e-001 -8.850866e-001 1.070512e+000 -8.973394e-001 2.235438e+000 2.023769e+000 -7.880721e-001 1.044294e+000 6.842080e-001 -3.293599e+000 1.915450e+000 -9.705333e-001 2.950686e+000 -4.182915e-001 -2.720706e-001 1.399350e+000 -6.593068e-001 1.083225e+000 5.038599e-001 1.042043e+000 3.776435e+000 1.161003e+000 4.351360e+000 -1.559380e-001 1.571566e+000 -4.608648e-001 -1.596240e-001 4.283609e-001 -1.500238e+000 4.397844e-001 -2.561347e+000 -2.989873e+000 8.535994e-001 -2.404130e+000
<VARIANCE> 39
 1.238390e+000 7.975199e-001 1.351587e+000 3.294960e-001 2.296238e+000 1.155915e+000 2.270925e+000 2.182269e+000 6.204941e-001 5.712603e-001 2.185644e+000 1.507521e+000 1.735096e-001 1.375406e+001 3.903732e+000 4.563664e+000 5.358764e-001 2.507838e+000 1.296640e+000 2.486867e+000 1.057990e+001 1.150842e+000 9.959845e-001 6.308144e-001 1.820809e+000 1.269320e+000 3.863663e+000 1.446208e+000 2.998372e+000 1.898024e+000 5.451528e+000 1.305089e+000 6.315598e+000 3.691625e+000 8.391425e-001 1.832740e+000 4.294220e-001 4.331866e+000 1.058058e+000
<GCONST> 9.135474e+001
<MIXTURE> 14 5.426211e-003
<MEAN> 39
 3.702343e-001 -1.224192e+000 -3.125848e-001 4.861230e-002 9.691311e-001 3.842063e-001 2.171277e-001 9.982777e-001 -2.213908e-001 3.545670e-001 -2.039899e-001 8.548842e-001 5.358874e-001 -7.496228e-001 -4.779579e+000 -3.079916e-001 -2.319927e-001 1.783388e-001 -2.405245e-001 -8.336046e-001 -1.546615e+000 -4.194915e+000 -2.571916e+000 -2.134329e-001 1.163909e-001 5.064999e-002 -2.185566e+000 -9.425396e-001 1.088130e+000 -1.000975e+000 -4.991533e-001 -1.096311e-002 -5.690577e-001 -2.603943e-001 7.968106e-002 8.462607e-001 6.839333e-001 -1.353603e+000 8.087994e-001
<VARIANCE> 39
 1.376399e-001 6.948145e-001 1.253047e+000 2.686051e-001 5.405657e-002 4.051497e-001 1.292353e+000 8.310225e-001 8.376943e-002 7.100987e-002 6.765521e-001 1.848093e-001 8.355943e-002 2.970326e-001 3.713061e+000 6.912709e-001 1.144563e-001 1.953512e-001 1.654029e+000 3.758864e-001 8.449445e-001 1.964218e+000 9.999961e-003 8.570564e-001 7.575923e-001 2.030934e+000 6.650466e-002 3.584644e+000 2.707247e+000 1.756414e+000 2.328575e-001 4.799649e-001 1.757550e-001 5.971647e-001 1.326723e+000 5.053694e-001 1.462445e+000 5.034591e-001 5.005340e-001
<GCONST> 4.071802e+001
<MIXTURE> 15 6.382571e-002
<MEAN> 39
 1.344173e+000 -9.152732e-001 1.468420e-001 3.701919e-001 8.292469e-001 2.486342e-002 9.371923e-001 3.532867e-002 7.829614e-002 -1.010904e+000 -8.790401e-001 -9.593762e-001 1.533072e+000 1.735794e+000 5.904358e-002 1.358512e-001 -1.145372e+000 -6.898657e-001 -4.475105e-001 -8.091263e-001 -3.351231e-001 5.770122e-001 4.401460e-001 -2.142788e-001 -1.100121e+000 2.196951e+000 -1.255517e+000 -1.960535e+000 -1.377061e+000 -1.043934e+000 -4.099473e-001 -5.686488e-001 -4.508609e-001 7.880493e-002 -7.411930e-001 1.856583e-001 -1.532509e-001 4.835043e-001 -1.331295e+000
<VARIANCE> 39
 6.705990e-001 6.937794e-001 1.182580e+000 1.205587e+000 8.169194e-001 1.116772e+000 1.206192e+000 3.237745e+000 1.813652e+000 6.574806e-001 9.734825e-001 1.308804e+000 2.194789e-001 9.016033e-001 2.295417e+000 2.031093e+000 2.130791e+000 1.539016e+000 2.193440e+000 1.691683e+000 2.039134e+000 2.284895e+000 7.508529e-001 1.427960e+000 1.366493e+000 9.485512e-001 6.428983e-001 9.302945e-001 1.714993e+000 1.666824e+000 1.803909e+000 8.285000e-001 1.353522e+000 2.142288e+000 8.091869e-001 6.243185e-001 9.006971e-001 7.296951e-001 9.440548e-001
<GCONST> 7.808430e+001
<MIXTURE> 16 5.426211e-003
<MEAN> 39
 -1.242692e+000 -6.480027e-001 4.409407e-001 -7.354321e-001 -6.393793e-001 -1.651192e+000 8.661339e-001 1.439738e+000 -4.283677e-001 -4.340468e-001 9.096262e-001 5.658494e-001 7.213968e-001 5.050061e-001 -2.855391e+000 4.642656e+000 -1.985196e+000 -4.057434e+000 -1.864670e+000 -3.802761e-001 2.928162e+000 -5.411377e+000 -5.629496e+000 -2.474455e+000 -2.206780e+000 3.485787e+000 3.222492e+000 5.497198e-001 -1.089662e-001 -6.792846e-001 4.329920e-002 2.370739e+000 -2.300283e+000 -1.253506e+000 -5.103713e-001 1.424274e-001 -2.567640e+000 -6.527165e-001 -4.260169e+000
<VARIANCE> 39
 2.580940e-001 8.640249e-002 5.468854e-001 1.391619e+000 2.756805e+000 8.031399e-001 1.612792e+000 1.107028e+000 2.544024e+000 6.076060e+000 2.786402e-001 5.667996e-001 8.976375e-002 5.569860e+000 6.539908e+000 2.222634e-001 1.191363e+000 1.602799e+001 2.408254e+000 2.531991e+000 2.431613e+000 1.113592e+000 4.750029e+000 4.649586e+000 2.051865e+000 7.060013e+000 3.191321e+000 1.129541e+000 3.261135e+000 4.284273e+000 7.972207e+000 2.183299e-001 6.922421e-001 2.665933e+000 3.637851e+000 1.196986e+001 5.736749e-001 3.559773e-001 3.879578e+000
<GCONST> 8.969759e+001
<STATE> 3
<NUMMIXES> 16
<MIXTURE> 1 1.327194e-001
<MEAN> 39
 1.065673e-001 6.833276e-001 2.140424e+000 7.574465e-001 4.381904e-001 -4.393054e-001 6.012114e-001 1.712385e+000 -1.987940e+000 -6.516951e-001 2.087124e+000 -2.486153e-001 1.988646e+000 5.120441e-002 6.970071e-002 -2.533381e-002 -2.258360e-002 -2.016251e-003 -5.631059e-002 1.631926e-001 -5.852253e-002 4.295641e-002 -6.066338e-003 -1.149916e-001 -3.088273e-002 7.644337e-002 -2.702296e-002 3.138929e-002 3.667935e-003 -3.310611e-002 1.015217e-002 8.494806e-002 -5.723371e-003 3.242448e-002 1.342439e-001 -5.666032e-002 -2.187586e-002 -8.221160e-003 -1.476760e-002
<VARIANCE> 39
 5.151807e-002 9.699449e-002 1.848871e-001 1.876354e+000 6.792682e-001 1.058962e+000 5.934317e-001 7.408121e-001 1.121726e+000 2.982082e+000 6.530733e-001 2.815217e+000 1.000004e-002 2.189502e-001 3.186492e-001 1.730194e+000 2.300835e+000 1.085992e+000 2.420171e+000 3.315257e+000 2.894390e+000 3.122654e+000 2.794970e+000 2.876305e+000 2.835295e+000 9.999961e-003 2.562011e-001 4.615560e-001 2.145933e+000 2.330627e+000 8.798166e-001 2.721358e+000 3.692776e+000 3.165222e+000 3.169794e+000 2.741007e+000 2.972838e+000 2.966957e+000 9.999896e-003
<GCONST> 6.552649e+001
<MIXTURE> 2 1.250723e-001
<MEAN> 39
 6.107679e-002 -2.578731e+000 -1.053131e+000 -1.081014e+000 2.434392e-001 -1.360070e+000 -6.380095e-002 -1.868920e+000 -1.557037e+000 -1.840382e+000 -8.725891e-001 -1.274825e+000 2.308314e+000 5.718004e-002 3.008355e-001 2.293193e-001 -4.302041e-001 -8.231593e-001 1.620288e-001 6.839647e-001 -4.267069e-002 5.429634e-002 -2.513671e-002 -5.194707e-002 -1.631553e-001 -1.681902e-001 2.604774e-001 6.444091e-001 7.063638e-002 -3.360105e-001 -6.607195e-001 9.064373e-002 -1.434581e-001 5.802889e-002 -3.207847e-001 -4.353292e-001 -2.917397e-001 3.272633e-002 -5.237467e-001
<VARIANCE> 39
 7.904480e-001 8.439871e-002 2.122769e+000 1.296544e+000 2.152387e+000 1.887912e+000 2.600087e+000 7.825882e-001 6.211275e-001 5.546930e-001 2.963285e+000 2.101171e+000 7.365100e-002 2.772402e-001 4.883973e-001 7.267389e-001 1.933975e+000 1.363105e+000 1.816238e+000 1.563025e+000 1.261183e+000 1.469582e+000 1.680595e+000 1.707918e+000 1.824064e+000 2.246419e-001 4.658924e-001 8.713343e-001 9.673455e-001 2.037779e+000 1.155906e+000 1.304479e+000 1.370195e+000 1.190778e+000 1.480345e+000 1.173319e+000 1.381878e+000 1.852747e+000 2.116136e-001
<GCONST> 7.133946e+001
<MIXTURE> 3 1.934930e-001
<MEAN> 39
 9.926056e-001 -9.959831e-001 -8.920420e-001 -3.767949e-002 -7.770618e-001 3.173242e-001 -3.354572e-001 -5.205626e-001 -1.440061e-001 -9.195790e-001 -9.778903e-001 -4.993210e-001 1.094056e+000 -1.791792e-002 1.456226e-001 1.861172e-002 -1.014852e-001 -1.597251e-001 1.157268e-001 -3.315853e-002 1.516010e-002 -2.089902e-002 -1.448629e-001 3.727699e-002 -4.526447e-002 4.176931e-002 -6.684928e-002 4.890142e-002 1.439832e-002 -7.747675e-002 -1.183261e-002 -4.708496e-002 1.016528e-001 -1.685414e-002 -3.225376e-002 -2.718499e-002 -1.767807e-002 2.169316e-002 -1.921449e-003
<VARIANCE> 39
 1.238364e-001 1.850177e-001 5.238792e-001 2.873239e-001 2.581616e-001 6.195000e-001 1.082255e+000 5.394213e-001 8.220193e-001 3.461653e-001 2.509592e-001 6.985137e-001 2.603207e-002 5.142498e-002 4.387252e-001 3.548602e-001 4.112658e-001 2.756052e-001 3.166546e-001 4.716819e-001 3.836833e-001 6.255850e-001 4.449575e-001 3.729789e-001 4.315872e-001 4.578562e-002 8.553553e-002 3.396275e-001 3.823311e-001 4.036197e-001 3.098993e-001 3.478600e-001 3.874434e-001 3.639957e-001 6.141903e-001 4.505903e-001 3.815635e-001 4.066684e-001 7.917939e-002
<GCONST> 2.565873e+001
<MIXTURE> 5 3.401756e-003
<MEAN> 39
 -1.954011e+000 1.018774e+000 -5.336835e-001 -2.605696e+000 2.179419e-001 -1.250902e+000 2.994059e-001 2.048996e+000 -8.733987e-001 -2.207101e+000 -2.118423e+000 -1.854429e+000 1.546349e+000 -2.205662e+000 6.934006e-001 4.983272e-001 -1.090120e+000 -7.356687e-001 4.650563e-001 -3.581262e-001 -4.920943e-001 -3.874941e-001 -4.394479e-001 -3.841233e-001 -1.561305e+000 2.973102e-001 2.876659e+000 -1.611640e+000 4.984089e-001 2.497410e+000 -1.177295e+000 -6.202851e-001 -4.200005e-001 -1.924755e+000 -4.389496e-001 8.932963e-001 9.278168e-002 6.550059e-002 3.189581e-001
<VARIANCE> 39
 1.000004e-002 1.147698e-002 8.564967e-002 3.552269e-002 8.033732e-002 3.682484e-001 1.000001e-002 2.530122e-002 5.049827e-002 9.999962e-003 9.999943e-003 2.375754e-002 1.000004e-002 2.973612e-001 2.918529e-002 8.124909e-002 6.989834e-001 1.000000e-002 9.999997e-003 4.610277e-002 8.747169e-001 4.410057e-001 7.033008e-002 1.472832e-002 3.402540e-001 9.999961e-003 1.532378e-001 5.049945e-001 9.999952e-003 5.639411e-001 2.033985e-001 7.269512e-001 9.999976e-003 1.550090e-002 2.817040e-001 3.157347e-001 2.506381e-001 6.110891e-002 4.807037e-002
<GCONST> -3.699918e+001
<MIXTURE> 6 1.190740e-002
<MEAN> 39
 8.134214e-001 -1.397310e+000 1.144584e+000 -2.120386e+000 -1.896829e+000 -8.012253e-001 1.226252e+000 7.453222e-001 -1.372775e+000 1.178173e-001 -2.472135e+000 3.701638e-002 1.657524e+000 -3.782343e-001 1.465148e+000 9.330476e-001 1.013525e+000 1.361104e+000 -1.382412e+000 -7.009762e-001 -1.337953e-002 1.880731e+000 -5.119819e-001 1.463140e+000 3.649993e-001 -6.380292e-001 -2.137020e+000 1.329101e+000 -2.031836e+000 1.772520e+000 1.254246e+000 9.943202e-001 -6.237867e-001 -1.135103e+000 9.011306e-001 6.663423e-002 1.551813e+000 1.327948e+000 -6.618385e-001
<VARIANCE> 39
 1.491259e+000 9.623423e-001 1.992486e+000 4.188440e-001 1.094157e+000 2.779186e-001 1.571366e-001 1.900195e+000 5.798628e-001 4.087572e+000 6.328408e-001 4.738039e-001 6.657054e-002 1.676290e+000 2.088933e+000 1.800020e+000 3.169218e+000 4.084672e+000 7.693812e-001 1.354383e+000 1.323922e+000 3.453009e-001 3.387421e+000 3.022294e+000 2.372477e+000 2.496867e-001 1.826611e+000 3.754306e+000 8.804525e-001 1.024418e+000 2.957582e+000 6.663345e-001 8.843130e-001 1.125010e+000 4.529783e-001 4.264860e+000 2.245780e+000 3.017488e+000 4.878206e-001
<GCONST> 7.621973e+001
<MIXTURE> 8 1.020546e-002
<MEAN> 39
 3.698602e-001 1.522343e-002 1.119725e+000 -1.565353e+000 -1.421442e+000 -1.708034e+000 5.226011e-001 -1.362173e+000 2.019300e+000 -3.292329e+000 -9.757219e-001 8.027712e-001 1.662950e+000 -7.367002e-001 3.668508e-001 2.251800e+000 1.613379e+000 -1.073629e+000 -6.002389e-002 -1.358031e+000 1.676666e+000 -3.919427e-001 -1.014592e+000 7.415675e-001 7.686045e-001 -5.847652e-001 -1.064332e+000 -7.872267e-001 -2.902967e-001 2.931496e-001 1.341006e-001 2.253039e-001 -4.084714e-002 4.868894e-001 -4.485679e-001 1.500478e+000 -4.839360e-001 -2.886406e-001 -1.556931e-002
<VARIANCE> 39
 1.000004e-002 3.206962e-002 8.209574e-001 4.087660e-001 2.192411e-001 1.412158e-002 8.564293e-001 8.263015e-001 3.173955e-001 3.623408e+000 2.847694e-001 2.791259e+000 1.084573e-002 4.069982e-001 2.319648e-001 5.304924e-001 2.301221e-001 6.573377e-001 1.407908e-001 8.976672e-001 9.918707e-001 1.441820e+000 4.311788e+000 1.149829e+000 3.912524e+000 2.959824e-002 1.426589e+000 3.785215e-001 2.809754e+000 1.168040e-001 1.290049e+000 3.964902e-002 2.943662e+000 2.287709e+000 2.504806e+000 9.348841e+000 8.153830e-001 6.882058e+000 1.800351e-001
<GCONST> 4.502230e+001
<MIXTURE> 9 6.803528e-003
<MEAN> 39
 8.432364e-001 -8.493400e-001 -9.202576e-001 1.143896e+000 -1.388532e+000 1.814177e-001 -3.085498e-001 -5.819263e-002 -2.733613e+000 -2.308059e+000 -2.183555e+000 1.363905e-001 1.714517e+000 -3.152596e+000 2.754195e+000 3.622478e-001 -2.083246e+000 4.012039e+000 7.649063e-004 2.460667e+000 -6.051459e-001 3.845967e-001 3.216204e-002 -1.208734e-001 6.316139e-001 -9.596040e-001 -3.669303e+000 1.788860e+000 -6.480863e-001 -3.348018e+000 9.410103e-003 -5.225585e-001 2.200642e-001 8.906136e-001 9.151643e-001 1.782149e+000 1.399030e+000 -1.059736e+000 9.132538e-002
<VARIANCE> 39
 7.852235e-001 1.001864e+000 2.706581e-001 2.940902e-001 6.249367e-001 2.445925e-001 4.790603e-001 1.932353e-001 6.558445e-002 2.484805e-001 9.904686e-001 2.061687e+000 2.473473e-001 9.936209e-001 1.063207e+000 1.244336e-001 1.458092e+000 6.859632e-001 8.137823e-001 1.650748e-001 9.383722e-002 3.191172e-001 1.598075e+000 7.997531e-001 3.671941e-001 3.544991e-001 3.696537e-001 6.394898e-001 1.652963e-001 3.074492e-001 2.230966e+000 5.509534e-001 1.524889e+000 2.678554e-001 5.903991e-001 9.383778e-001 1.432382e-001 9.186848e-001 1.593860e-001
<GCONST> 4.094453e+001
<MIXTURE> 10 6.803512e-003
<MEAN> 39
 -6.049638e-001 4.724182e-001 -9.460322e-001 -1.256768e+000 -8.432662e-003 -2.015521e+000 6.777379e-001 5.444918e-001 -7.300692e-001 -1.948243e+000 -2.044440e+000 2.810274e-001 1.389550e+000 -4.846303e+000 3.311558e+000 3.408814e-001 -4.430682e+000 2.069710e+000 -9.384643e-001 2.854759e-001 1.538752e+000 1.177759e+000 1.271166e+000 8.048255e-001 -2.941059e-001 -4.158831e-001 7.415169e-001 -1.618997e+000 1.264175e-001 4.030991e-001 -2.574870e+000 6.922381e-001 -1.614600e+000 7.578868e-001 -1.031424e+000 -1.057980e-001 -4.055604e-001 -1.626964e+000 1.218420e+000
<VARIANCE> 39
 5.908819e-001 1.983311e-001 5.062756e-002 3.966721e-001 3.056281e-001 2.933523e-001 1.638566e-001 1.056768e+000 3.246261e-001 1.722837e-001 2.247427e-001 3.267682e+000 2.879763e-002 2.496558e-001 1.223038e+000 6.843371e-002 1.379780e+000 7.456214e-001 1.412615e+000 1.971752e-001 3.387329e-002 2.269520e+000 1.081843e+000 6.653773e-001 8.455862e-001 2.984849e-001 2.728294e+000 2.274529e+000 4.803082e-002 3.852056e+000 4.470463e-001 1.270615e+000 5.172800e-001 2.090159e+000 8.035251e-001 3.041527e+000 7.970040e-001 8.432740e-001 4.297051e-002
<GCONST> 4.233068e+001
<MIXTURE> 11 2.560583e-001
<MEAN> 39
 1.681420e+000 -2.213442e+000 -4.532833e-001 -1.280848e+000 2.250041e-001 -6.227810e-001 -1.067131e-001 6.963990e-001 -2.555715e-001 -1.041934e+000 -7.297797e-001 -1.704273e+000 2.121039e+000 -8.564746e-002 6.746579e-002 2.577588e-001 -8.063625e-002 -5.132273e-001 -4.072531e-001 -4.058741e-002 2.988100e-001 2.249602e-001 4.962504e-002 -1.601088e-001 1.785173e-002 9.461810e-002 -2.130394e-002 3.535590e-001 2.314460e-001 2.216724e-001 -3.029596e-001 -6.191159e-002 -1.383225e-002 3.833430e-002 2.210052e-001 5.062375e-002 2.640346e-002 2.479624e-001 -1.998418e-001
<VARIANCE> 39
 7.939250e-001 1.765159e-001 1.076486e+000 6.323878e-001 2.422506e+000 2.288577e+000 2.235604e+000 1.870504e+000 2.149555e+000 1.529425e+000 1.383618e+000 1.241165e+000 1.767554e-001 1.385955e-001 1.918133e-001 8.152231e-001 6.552047e-001 6.599751e-001 6.348399e-001 7.069287e-001 6.753567e-001 8.007172e-001 5.256999e-001 7.468187e-001 7.495883e-001 5.717375e-002 2.197322e-001 3.329483e-001 8.432827e-001 5.251380e-001 5.628357e-001 5.631160e-001 7.125736e-001 6.379518e-001 5.623325e-001 4.701633e-001 6.276163e-001 8.746799e-001 9.380143e-002
<GCONST> 5.263431e+001
<MIXTURE> 12 2.040478e-002
<MEAN> 39
 2.323542e-001 -8.559089e-001 2.867433e-001 -7.198180e-001 -2.567496e+000 -1.603392e+000 -1.265292e+000 1.439892e+000 -1.399479e+000 -3.447122e-001 -4.182183e-001 9.478036e-002 1.619490e+000 -8.088357e-001 1.512110e+000 2.585462e-001 1.007958e+000 1.178180e+000 -5.276060e-001 5.242002e-001 -1.266326e+000 2.877508e-001 -1.335167e-001 -3.884039e-001 2.633878e-001 -4.481069e-001 -1.603043e+000 1.708796e+000 -1.432989e+000 -7.991271e-001 1.893953e+000 1.183728e+000 2.168970e+000 -1.137503e+000 7.659562e-001 -9.388359e-001 -7.490248e-001 -5.963064e-001 -2.693191e-001
<VARIANCE> 39
 1.338521e+000 1.560249e+000 1.285578e+000 7.838843e-001 1.159614e+000 3.772077e-001 8.484150e-001 3.276594e+000 1.017678e+000 1.535264e+000 2.363887e+000 1.398929e+000 1.714204e-001 1.516588e+000 1.983093e+000 1.816543e+000 1.221817e+000 3.156404e+000 3.060929e+000 2.159457e+000 1.779523e+000 1.704142e+000 2.020399e+000 1.857255e+000 1.457029e+000 3.363407e-001 1.489472e+000 1.324475e+000 8.454757e-001 3.122530e+000 2.956299e+000 1.084106e+000 2.113460e+000 3.100523e+000 1.375108e+000 1.592022e+000 3.251333e+000 1.540280e+000 8.248190e-001
<GCONST> 8.604726e+001
<MIXTURE> 13 3.571175e-002
<MEAN> 39
 2.236800e+000 -2.688128e+000 -5.668836e-001 -1.111950e+000 -8.380317e-001 3.154832e-001 -7.314017e-002 6.558157e-001 1.260935e+000 -1.157672e+000 -9.199228e-001 -1.433227e+000 2.885823e+000 1.052443e+000 -1.372469e+000 1.947611e-001 -1.265833e+000 -6.773712e-001 -2.325955e-001 -5.414436e-001 5.417408e-001 -1.727793e-001 -2.821166e-001 1.059148e-001 -1.306275e+000 2.112381e+000 -2.005358e+000 5.141463e-001 4.504542e-001 4.847765e-001 4.206603e-001 8.322403e-002 4.024454e-001 1.700193e-001 -2.418121e-001 -4.380167e-001 8.012038e-002 6.989079e-001 -2.344183e+000
<VARIANCE> 39
 3.699444e-001 7.918791e-001 1.587428e+000 1.238456e+000 2.483598e-001 1.886891e+000 4.160827e+000 1.867001e+000 4.147966e-001 3.633454e-001 1.351843e+000 1.416348e+000 7.152207e-001 2.851405e+000 9.168261e-001 1.893379e+000 5.854165e-001 8.186411e-001 7.534092e-001 6.734697e-001 1.276673e+000 3.375271e-001 5.559745e-001 1.163118e+000 1.815977e+000 3.926485e+000 1.511295e+000 1.866472e+000 1.854631e+000 9.704668e-001 5.159099e-001 6.653855e-001 6.694247e-001 1.533976e+000 7.641491e-001 1.336129e-001 7.929282e-001 7.314515e-001 1.481679e+000
<GCONST> 6.986016e+001
<MIXTURE> 14 3.064438e-002
<MEAN> 39
 6.458198e-001 -2.786316e+000 -6.815190e-001 -8.418130e-001 -6.562255e-001 -8.251612e-001 -1.116295e+000 -2.031849e+000 -2.294012e+000 -3.158774e+000 -1.330629e+000 -9.108274e-001 2.360243e+000 1.693928e-001 -1.378665e+000 -2.031143e-001 -4.953125e-001 -3.500006e-001 -3.303117e-001 8.784680e-001 -9.139717e-001 -2.445813e-001 -2.920813e-001 -1.280573e+000 -9.624733e-001 2.094070e+000 -1.434218e+000 9.588485e-001 1.613113e+000 6.085937e-001 1.334565e+000 4.820561e-001 6.130407e-001 2.220770e+000 1.779824e+000 2.065210e+000 1.481529e+000 6.877514e-001 -2.304611e+000
<VARIANCE> 39
 1.241136e+000 2.675508e-001 1.600070e+000 5.754905e-001 1.314343e+000 5.599120e+000 1.751204e+000 1.672115e+000 3.782890e-001 8.650761e-001 4.958004e+000 2.168414e+000 1.574154e-001 2.009397e+000 2.601346e+000 2.994238e+000 1.591992e+000 2.629514e+000 1.710661e+000 2.353900e+000 3.036305e+000 1.471140e+000 2.443733e+000 3.273126e+000 3.615987e+000 1.355902e+000 6.751240e-001 3.479690e+000 8.959643e-001 9.854097e-001 1.468076e+000 3.447474e+000 3.874545e+000 2.668835e+000 9.178172e-001 9.570175e-001 2.148405e+000 2.668782e+000 1.287344e+000
<GCONST> 9.026925e+001
<MIXTURE> 15 1.190582e-002
<MEAN> 39
 -6.411797e-001 -1.333412e+000 -6.307341e-001 1.882656e-001 8.380987e-002 -9.635192e-001 -1.266459e+000 -1.411238e+000 -1.324598e+000 -1.808962e+000 6.926377e-001 5.517272e-002 1.377260e+000 1.760627e+000 -1.139321e+000 -9.564129e-001 -1.640296e+000 -2.497874e+000 -2.806587e+000 -2.503086e+000 -4.080225e+000 -2.395019e+000 -2.635903e+000 -1.515096e+000 -1.561318e-002 2.446389e+000 -4.631536e-001 -2.810745e+000 -1.979551e-001 4.871242e-001 -7.209673e-002 -4.585505e-001 4.723352e-001 4.477029e-001 6.442231e-001 1.449282e+000 9.569235e-002 5.806808e-001 6.402376e-001
<VARIANCE> 39
 4.230998e-001 1.543024e-001 4.629112e+000 1.160949e+000 1.746314e+000 1.702808e+000 2.383881e+000 2.223300e-001 3.310581e-001 1.700961e-001 2.288363e+000 1.022475e+000 5.260587e-002 4.015217e-001 1.447065e+000 9.843233e-001 6.918469e-001 1.934830e+000 3.214436e+000 4.918433e-001 7.935269e-001 8.550770e-001 7.337386e-001 1.493803e+000 5.930557e+000 7.946283e-001 2.170377e+000 1.368716e+000 4.326032e+000 2.841842e+000 6.041564e+000 4.765999e+000 4.452878e+000 3.021611e+000 1.539277e+000 7.247494e-001 1.947716e+000 2.194844e+000 8.836507e-001
<GCONST> 7.855392e+001
<MIXTURE> 16 1.548688e-001
<MEAN> 39
 8.235542e-001 -1.552556e+000 -1.707222e+000 -1.931191e-001 -1.505353e+000 -7.225705e-001 4.252524e-001 -1.280651e+000 -1.051310e+000 -1.103421e+000 -1.534018e+000 5.777739e-001 1.751347e+000 -7.942505e-002 3.379328e-001 3.934255e-001 -3.185930e-001 -4.798872e-001 -2.335090e-001 2.693715e-001 2.568435e-002 1.683548e-001 -2.453299e-002 1.414340e-001 -3.971739e-002 -4.825139e-002 6.079425e-002 3.582461e-001 3.760091e-001 -6.788054e-002 2.820374e-001 -2.796565e-001 -3.673964e-002 6.499990e-002 4.765745e-002 -8.016742e-002 1.826897e-001 -4.822024e-001 -1.841263e-001
<VARIANCE> 39
 6.138126e-001 2.052692e-001 4.487435e-001 1.598417e+000 1.105840e+000 1.390617e+000 2.366002e+000 8.505410e-001 1.959152e+000 8.766336e-001 1.646033e+000 1.341574e+000 1.354265e-001 2.433602e-001 8.608406e-001 5.840446e-001 7.730533e-001 1.203307e+000 1.307398e+000 1.401903e+000 8.767828e-001 1.087619e+000 1.129359e+000 8.665015e-001 1.158566e+000 7.062559e-002 3.592893e-001 8.845751e-001 7.101884e-001 7.964401e-001 1.595489e+000 1.460317e+000 1.170040e+000 8.784321e-001 1.120682e+000 1.558941e+000 1.038029e+000 8.537049e-001 7.822209e-002
<GCONST> 6.264324e+001
<STATE> 4
<NUMMIXES> 16
<MIXTURE> 1 8.191224e-003
<MEAN> 39
 -1.764561e+000 -3.445878e-002 2.217636e-001 -6.689404e-001 -4.146185e-001 -9.838012e-001 2.370217e-001 1.699447e-001 -7.566813e-001 7.024034e-001 -3.869245e-002 -1.913566e+000 1.433878e+000 -1.351887e+000 -1.616691e+000 -1.573599e+000 -1.194645e-001 1.169157e+000 1.130800e-001 2.690471e-001 -2.902731e-001 -1.364625e-002 8.433848e-001 1.192888e-001 -4.185280e-001 4.512675e-001 1.039527e+000 1.588962e+000 9.890655e-001 -1.172834e+000 -4.745867e-001 5.509003e-001 -8.016713e-001 7.316234e-001 2.244215e+000 -2.018604e+000 8.636707e-001 1.972628e+000 3.573822e-001
<VARIANCE> 39
 8.456964e-002 2.052474e+000 1.729215e+000 1.929113e+000 1.309718e+000 5.069125e-001 3.603367e-002 2.716536e-001 2.136871e+000 1.245728e+000 5.719595e-001 1.517489e+000 1.172654e-002 2.297695e+000 4.693854e-001 5.955826e-001 1.389453e-001 3.549296e-001 1.840839e-001 5.791310e-001 6.348612e-002 1.745134e+000 5.698922e-001 5.175319e+000 6.104608e-001 1.062737e-001 2.455045e+000 4.425355e-001 6.969603e-001 3.837076e-001 4.551280e-001 7.326917e-002 1.533418e-001 5.106483e-001 2.993854e-001 3.503427e+000 1.796851e+000 8.971377e-002 6.719724e-002
<GCONST> 4.128022e+001
<MIXTURE> 2 1.545373e-001
<MEAN> 39
 6.697757e-001 -1.490777e+000 -8.296472e-001 -9.660764e-001 -9.826819e-001 -9.575598e-001 -2.182527e-001 -1.246388e+000 -1.628200e+000 -4.991857e-001 -8.052523e-001 -1.102920e+000 1.549671e+000 1.733244e-002 4.795579e-001 4.675757e-001 -4.793631e-001 -2.597977e-001 7.318979e-002 1.772647e-001 2.234101e-001 -1.678398e-001 8.130740e-002 -1.266339e-001 -1.877238e-001 -1.537671e-001 7.165789e-002 2.285823e-001 1.630090e-001 -6.481075e-002 -1.443179e-001 1.914226e-002 -1.103810e-001 9.542935e-002 1.731080e-001 -4.511666e-002 -1.704063e-001 5.146443e-002 -6.453537e-002
<VARIANCE> 39
 1.062761e-001 5.962013e-001 1.326542e+000 2.740136e-001 4.611398e-001 4.504781e-001 6.206677e-001 3.983130e-001 3.304744e-001 1.383179e+000 4.995317e-001 1.169152e+000 7.491329e-002 5.635396e-002 3.025883e-001 7.557990e-001 6.210228e-001 3.992403e-001 4.113150e-001 8.987487e-001 8.205549e-001 1.084656e+000 4.883134e-001 7.125165e-001 1.179317e+000 5.610809e-002 1.038586e-001 4.440969e-001 6.897368e-001 5.965261e-001 3.845891e-001 4.781910e-001 1.024948e+000 6.838197e-001 1.201496e+000 4.856494e-001 6.929854e-001 9.115518e-001 5.912686e-002
<GCONST> 4.055690e+001
<MIXTURE> 3 2.579782e-001
<MEAN> 39
 -2.327352e+000 1.634183e+000 6.974961e-001 -1.905503e+000 -3.280388e-001 2.181158e-001 7.558989e-002 8.240148e-002 -6.899371e-001 -1.127815e+000 -3.723629e-001 -2.235391e-001 1.560258e+000 -4.807500e-001 1.610839e-001 5.757362e-001 3.061191e-001 2.572334e-001 4.301507e-001 -6.394924e-002 -4.215400e-002 3.163168e-001 2.887640e-001 2.423361e-001 1.183051e-001 -2.434276e-002 3.815117e-001 -1.188293e-001 -2.912698e-001 1.241139e-001 1.142595e-001 -2.550188e-001 -2.178351e-002 -5.563807e-002 5.483263e-002 2.285962e-001 -4.267486e-003 2.353460e-003 -1.585003e-001
<VARIANCE> 39
 3.550201e-001 3.025212e-001 2.098249e+000 4.225962e-001 1.484752e+000 1.512413e+000 2.019094e+000 1.336801e+000 1.091161e+000 1.128722e+000 1.798924e+000 1.497592e+000 3.445872e-002 2.818273e-001 4.960748e-001 1.228746e+000 8.985414e-001 9.191182e-001 1.318830e+000 1.713835e+000 1.343196e+000 1.528693e+000 1.826993e+000 1.524309e+000 1.416174e+000 5.689560e-002 3.187257e-001 7.038895e-001 1.414558e+000 1.094230e+000 1.113882e+000 1.305988e+000 1.913907e+000 1.336534e+000 1.179841e+000 1.731432e+000 1.705926e+000 1.360465e+000 1.198759e-001
<GCONST> 6.673812e+001
<MIXTURE> 4 1.364328e-001
<MEAN> 39
 1.611285e+000 -2.084333e+000 4.114471e-001 -1.234470e+000 -1.170268e+000 -1.155255e+000 2.887840e-001 1.464740e+000 1.042346e+000 -1.181786e+000 -1.263354e+000 -1.132361e+000 2.396234e+000 -2.593555e-001 1.469199e+000 9.396984e-001 4.269634e-001 -8.250164e-001 -6.952155e-001 -7.640447e-002 -9.359113e-002 1.912068e-001 4.140335e-001 4.622248e-001 9.173864e-001 -6.401487e-001 -1.309667e-001 9.910033e-001 1.598848e-001 1.884836e-001 4.551682e-001 3.638618e-001 -1.450380e-001 -6.469715e-001 -3.690896e-001 2.669266e-001 3.614561e-001 2.225899e-001 -5.417919e-001
<VARIANCE> 39
 5.884644e-001 9.629932e-001 1.114947e+000 6.069805e-001 1.771760e+000 2.239673e+000 3.478798e+000 2.170102e+000 1.703807e+000 9.029238e-001 8.527932e-001 1.719280e+000 7.266889e-001 2.086100e-001 9.497990e-001 1.792392e+000 8.298357e-001 1.375506e+000 1.023027e+000 1.798427e+000 1.548952e+000 5.734409e-001 1.558043e+000 9.244381e-001 1.445929e+000 2.081185e-001 3.780134e-001 8.204681e-001 1.481184e+000 6.442683e-001 1.289765e+000 1.075337e+000 1.675591e+000 1.305152e+000 6.659877e-001 1.539357e+000 7.365995e-001 1.750358e+000 1.784598e-001
<GCONST> 7.181258e+001
<MIXTURE> 5 1.851259e-002
<MEAN> 39
 1.137980e+000 -3.865592e-001 2.370716e+000 -8.471417e-001 -1.961351e+000 -1.956564e+000 -1.178055e+000 7.994917e-001 -8.039542e-001 1.690026e+000 -1.350634e+000 1.227848e-001 1.688770e+000 -2.830234e+000 3.506517e+000 5.423284e-002 1.382424e+000 1.253166e+000 4.706743e-001 2.333288e+000 -2.675728e+000 1.644986e+000 -8.177884e-001 1.498084e+000 1.347367e-001 -1.033681e+000 -3.228989e+000 7.145013e-001 -2.403616e+000 -9.737922e-001 1.775419e+000 1.546712e+000 1.478407e+000 6.128548e-001 8.694157e-001 -1.937242e+000 7.398471e-001 -1.089498e+000 -1.374410e-001
<VARIANCE> 39
 6.842314e-001 4.110779e-001 8.446127e-001 5.259998e-001 1.170388e+000 4.300629e-001 1.209511e+000 7.046079e-001 1.247680e+000 3.555703e+000 9.016326e-001 4.707267e-001 1.252071e-001 8.943351e-001 1.118634e+000 2.749399e+000 2.753158e+000 2.136336e+000 7.685943e-001 8.624399e-001 8.516921e-001 2.162539e+000 2.075881e+000 1.974425e+000 8.089738e-001 1.898122e-001 8.963869e-001 1.362686e+000 8.796477e-001 1.469893e+000 1.303024e+000 7.400197e-001 1.721458e+000 1.425821e+000 7.288453e-001 1.498033e+000 3.878642e-001 1.058057e+000 4.567634e-001
<GCONST> 6.955843e+001
<MIXTURE> 6 9.776048e-002
<MEAN> 39
 7.521359e-001 -1.182211e+000 -4.944305e-001 -2.229804e+000 -2.045414e+000 -1.574557e+000 5.349764e-001 -1.881204e+000 -1.597639e+000 -1.876568e+000 -1.690158e+000 -1.329285e+000 1.586109e+000 1.160021e-001 2.529770e+000 9.399974e-001 -7.325541e-001 -8.857974e-001 -4.364221e-001 -4.843559e-001 2.083416e-002 1.374894e-001 6.411081e-002 -5.300500e-001 -2.210483e-001 -7.662514e-001 -9.973624e-001 7.224147e-001 6.181153e-002 7.832221e-001 1.059847e+000 6.982608e-001 -7.145654e-001 -4.462915e-002 -2.571255e-001 7.090248e-001 5.788466e-001 3.463504e-001 -1.711298e-001
<VARIANCE> 39
 8.386607e-001 6.077075e-001 7.304115e-001 7.006898e-001 1.441830e+000 1.057438e+000 1.651618e+000 5.673922e-001 8.593400e-001 1.167606e+000 1.097807e+000 9.370486e-001 9.852313e-002 4.988768e-001 1.327003e+000 1.274788e+000 2.379441e+000 1.657935e+000 1.655817e+000 2.256756e+000 1.156353e+000 2.528457e+000 1.659705e+000 2.687809e+000 9.614770e-001 3.584570e-001 1.143974e+000 1.910956e+000 1.161320e+000 1.094519e+000 1.705660e+000 2.605037e+000 1.676611e+000 1.197375e+000 2.103570e+000 1.717807e+000 2.202697e+000 1.814968e+000 3.503890e-001
<GCONST> 7.726035e+001
<MIXTURE> 7 8.191200e-003
<MEAN> 39
 9.070629e-001 -1.159303e+000 1.388024e+000 -1.996770e+000 -1.704458e+000 1.045815e+000 1.057351e+000 -1.373600e+000 -2.076648e+000 -2.318353e+000 -2.048035e+000 -2.654468e+000 1.903937e+000 -8.821238e-001 6.944844e-001 2.968709e+000 -4.263129e-001 1.279622e+000 -3.958311e-001 2.794360e+000 -2.132343e-002 -1.000583e-001 3.678531e+000 -3.893338e-001 -9.384087e-001 -6.876958e-001 -1.117242e+000 -2.858161e-001 7.746480e-001 1.073018e+000 6.703005e-001 -1.991996e+000 -2.230001e+000 1.290282e+000 2.144996e+000 1.497073e+000 2.134097e+000 1.189553e+000 -1.217230e+000
<VARIANCE> 39
 5.631297e-001 1.090308e+000 1.225548e-001 1.047147e-001 1.002532e+000 3.364065e-001 1.913130e+000 4.326964e+000 7.004940e-001 7.618531e-001 2.660776e-001 2.363415e+000 3.823814e-001 1.587358e-001 1.656037e+000 1.175047e+000 3.750980e-001 2.585348e-001 1.283184e-001 1.281745e+000 7.275782e-001 1.425259e+000 5.593966e-001 8.818763e-001 1.596164e+000 3.439470e-002 5.952095e-001 4.131573e-001 2.510086e+000 1.975229e+000 1.188245e-001 2.247604e-001 1.582820e+000 1.656952e+000 8.161978e-002 2.465016e+000 1.782609e+000 3.598999e+000 2.982049e-001
<GCONST> 5.350648e+001
<MIXTURE> 8 8.739509e-002
<MEAN> 39
 -1.566948e+000 1.210360e+000 -4.517538e-001 -1.730405e+000 -2.455835e-003 -5.967106e-001 1.084874e+000 -1.527330e-001 -3.521442e-001 -7.295445e-001 -1.126459e+000 -5.230082e-001 1.385075e+000 -2.354875e+000 1.316169e+000 -5.312877e-001 -1.644167e+000 4.691264e-001 3.541385e-001 -4.592579e-001 6.785684e-001 4.246690e-001 3.252321e-001 4.262056e-001 3.143471e-002 2.868666e-001 2.030937e+000 -1.975569e+000 1.490382e+000 5.675853e-001 -1.004390e+000 -5.624134e-001 -8.671284e-001 1.137553e-002 -7.572727e-001 -1.444768e-001 8.013128e-002 2.362569e-001 5.889142e-001
<VARIANCE> 39
 3.203335e-001 5.357051e-001 2.539743e+000 8.405758e-001 1.145914e+000 1.333315e+000 1.317197e+000 1.585726e+000 2.778056e+000 8.106656e-001 8.602179e-001 2.496380e+000 6.173399e-002 1.532997e+000 1.613516e+000 1.996421e+000 1.622638e+000 1.746554e+000 1.342590e+000 1.888206e+000 1.856015e+000 1.617360e+000 2.646269e+000 1.201178e+000 2.378249e+000 3.018903e-001 8.430896e-001 1.375689e+000 1.359636e+000 3.376385e+000 1.320215e+000 1.562008e+000 2.103085e+000 3.197122e+000 2.734918e+000 1.901878e+000 2.092062e+000 2.591792e+000 7.442749e-001
<GCONST> 8.346377e+001
<MIXTURE> 9 4.734999e-002
<MEAN> 39
 2.486999e-001 4.022014e-002 2.775666e-001 -1.735863e+000 -1.355441e+000 -1.285242e+000 -1.487430e-001 -1.809558e+000 -2.129999e+000 -1.293587e+000 -1.296733e+000 -9.966164e-001 1.196999e+000 -3.027752e+000 2.799528e+000 -8.900307e-002 7.666184e-001 1.229698e+000 2.028297e+000 -2.662778e-001 1.773379e+000 -9.460279e-002 8.875830e-001 8.150856e-001 -2.583563e-001 -9.567712e-001 -1.379984e+000 -7.731220e-001 -9.829454e-001 -5.513476e-001 9.601722e-002 2.364817e-001 6.693920e-001 8.125722e-001 9.080984e-001 1.337319e-001 -2.961352e-001 1.697043e-001 6.201545e-001
<VARIANCE> 39
 8.179834e-001 5.295932e-001 1.369917e+000 1.235756e+000 9.224266e-001 8.001651e-001 2.478980e+000 1.109786e+000 8.950798e-001 8.538540e-001 7.155284e-001 1.633998e+000 3.927116e-001 6.795048e-001 1.190983e+000 5.009710e+000 3.232231e+000 1.733673e+000 1.172422e+000 3.514045e+000 1.105975e+000 2.522715e+000 1.778324e+000 2.044482e+000 1.020890e+000 5.222597e-001 1.580204e+000 1.622419e+000 3.722444e+000 2.606815e+000 1.098325e+000 2.556909e+000 3.742020e+000 1.315616e+000 1.509835e+000 1.081399e+000 1.374229e+000 9.581936e-001 5.888598e-001
<GCONST> 8.333156e+001
<MIXTURE> 10 2.047743e-002
<MEAN> 39
 6.645171e-001 8.088362e-001 1.561496e+000 -1.196120e+000 -6.559919e-001 -9.151742e-001 3.910824e-002 9.182516e-001 1.714389e+000 2.906779e-001 -1.250021e+000 -9.582290e-001 1.760954e+000 -4.088585e+000 1.363955e+000 1.692455e+000 -9.729589e-001 -9.499618e-001 2.788807e+000 -2.661799e-001 5.399051e-001 2.120662e-001 8.412909e-001 -4.357587e-001 -3.505812e-001 -6.857881e-001 -1.133851e+000 -1.774602e+000 -6.171346e-001 -1.493759e-001 -4.030660e-002 -4.108665e-001 1.312120e+000 -1.315482e+000 -4.130299e-002 -4.026744e-001 1.128587e+000 -6.625554e-001 1.132670e+000
<VARIANCE> 39
 1.404362e+000 1.250417e-001 5.314172e-001 2.070227e-001 4.073571e-001 2.171400e+000 7.915047e-001 5.171916e-001 7.647842e-001 5.138092e-001 4.309455e-001 1.413945e+000 3.923169e-002 1.987857e+000 1.450109e+000 6.798025e-001 2.786518e-001 2.934922e+000 7.573401e-001 3.140649e+000 2.021463e+000 7.847946e-001 8.776808e-001 2.184683e+000 2.002007e+000 7.833058e-001 5.745827e+000 3.037716e-001 1.521190e+000 1.000802e+000 1.431834e+000 2.119142e+000 1.554711e+000 1.867357e+000 9.381512e-001 7.170731e-001 1.000109e+000 2.929483e+000 5.294989e-001
<GCONST> 6.814326e+001
<MIXTURE> 11 3.912873e-002
<MEAN> 39
 3.595882e-002 -3.771251e-001 1.064475e+000 -1.021647e+000 -4.054298e-001 -1.042644e+000 1.081629e+000 6.751494e-001 1.088270e-001 -9.754812e-001 -8.492333e-001 4.077954e-001 1.449531e+000 -3.910897e+000 2.443655e+000 -1.035917e+000 -1.178938e+000 1.660658e+000 6.818707e-001 1.429131e+000 -1.563284e+000 1.173808e+000 -5.412517e-001 4.350786e-001 -1.266566e-001 -9.790364e-001 -9.996923e-001 -4.648956e-001 -4.149961e-001 -1.275377e+000 -8.830833e-001 4.081461e-001 -8.046477e-001 3.329603e-001 -2.310370e-001 1.644779e-001 -2.331690e-001 -4.587076e-001 1.016719e+000
<VARIANCE> 39
 6.634329e-001 1.467911e+000 1.404993e+000 8.446329e-001 1.534645e+000 1.638934e+000 1.381153e+000 2.431910e+000 1.808413e+000 1.140924e+000 1.375659e+000 9.473542e-001 1.213510e-001 1.174671e+000 1.562070e+000 1.449935e+000 8.743305e-001 2.098678e+000 1.732928e+000 2.051403e+000 1.985324e+000 1.920903e+000 3.060194e+000 2.829203e+000 1.708953e+000 3.939816e-001 1.846743e+000 2.297788e+000 1.840830e+000 2.614666e+000 1.225146e+000 8.520337e-001 1.302709e+000 2.205152e+000 1.460428e+000 1.464781e+000 9.014708e-001 4.417952e-001 6.311088e-001
<GCONST> 8.228568e+001
<MIXTURE> 12 5.451671e-002
<MEAN> 39
 2.116143e+000 -6.673021e-001 9.176490e-001 -5.147077e-001 -1.612628e+000 -2.074155e+000 4.038899e-001 1.420656e-001 8.785782e-001 -7.558008e-001 6.741607e-001 -5.447813e-001 1.965580e+000 -4.611284e-001 1.615775e+000 1.520480e+000 5.344034e-001 5.831695e-001 9.296420e-001 -1.229379e+000 -3.285269e-001 -4.031201e-001 4.833752e-001 4.526073e-001 7.499071e-001 -1.203914e+000 -2.078796e+000 -3.131447e-001 7.126689e-003 -7.157997e-001 8.057898e-001 7.513077e-001 -6.727647e-002 5.352887e-001 -3.819686e-001 -2.228633e-001 -1.330807e+000 -5.550213e-001 -1.952696e-001
<VARIANCE> 39
 4.834120e-001 6.165510e-001 1.500888e+000 1.096595e+000 1.827797e+000 8.576770e-001 2.718232e+000 1.902201e+000 1.609870e+000 5.161698e-001 2.027140e+000 1.055819e+000 1.872974e-001 7.079008e-001 2.040582e+000 2.250805e+000 1.171398e+000 2.758920e+000 1.115605e+000 1.039737e+000 2.133069e+000 4.872761e-001 1.185322e+000 1.792989e+000 2.010956e+000 4.570977e-001 2.040612e+000 7.717409e-001 1.577045e+000 3.735365e+000 2.352431e+000 1.426236e+000 1.611979e+000 1.625523e+000 7.509669e-001 8.985241e-001 1.235028e+000 1.569761e+000 7.943502e-001
<GCONST> 7.960674e+001
<MIXTURE> 13 1.433646e-002
<MEAN> 39
 8.787825e-001 -6.665816e-001 1.903136e+000 -2.829479e-001 -1.931274e+000 -2.520048e-001 -1.615970e+000 6.040095e-001 1.081607e+000 -1.056939e+000 -1.532397e+000 -1.604957e-001 2.152450e+000 -3.713389e+000 7.849843e-001 2.546651e-001 -1.377548e-001 1.616253e+000 2.287892e-001 3.245968e-001 -4.716899e-001 -6.287234e-001 3.057160e-001 -5.834423e-002 -1.662912e+000 -1.215776e+000 -2.223182e+000 -1.588964e+000 -1.311520e+000 -1.779739e+000 4.874061e-001 -6.205834e-001 1.399714e+000 2.513825e-001 5.384060e-003 -5.438974e-001 5.221185e-001 -1.069983e+000 3.753715e-001
<VARIANCE> 39
 9.959430e-001 9.782955e-001 7.451120e-001 6.208085e-001 3.431057e-001 1.516545e+000 2.452080e+000 1.301966e+000 7.000198e-001 1.547919e+000 2.508627e+000 7.392168e-001 2.671946e-001 2.404899e+000 3.915594e+000 2.315876e+000 2.165952e+000 9.331957e-001 1.412913e+000 6.645842e-001 7.332360e-001 2.161017e+000 1.306138e+001 1.085271e+000 2.271443e+000 7.735263e-001 1.656339e+000 3.969412e-001 1.213801e+000 1.512774e-001 3.507161e+000 2.085351e-001 1.061903e+000 2.276845e+000 4.745767e-001 2.639602e+000 1.438723e+000 2.703609e+000 4.088191e-001
<GCONST> 7.730922e+001
<MIXTURE> 14 3.880941e-002
<MEAN> 39
 1.688108e+000 -2.511851e+000 -4.880548e-001 -1.099874e+000 -2.659348e+000 -1.287521e+000 -1.142416e+000 9.562073e-001 -2.959583e+000 -2.325316e+000 -2.518529e+000 -2.433481e+000 2.726811e+000 1.147228e-001 1.225377e+000 4.322304e-001 -7.531022e-001 -1.487355e-001 -1.459132e-001 3.286748e-001 9.835466e-001 -5.006669e-002 -1.592851e-001 6.059117e-001 4.736092e-001 -4.103952e-001 -6.746020e-001 9.292374e-001 7.122272e-001 5.582028e-001 8.993536e-001 2.680106e-001 6.948722e-001 -9.857519e-001 8.936560e-001 4.147355e-001 2.665352e-002 4.351337e-001 -4.763674e-001
<VARIANCE> 39
 3.223639e-001 8.979859e-001 2.285571e+000 5.307862e-001 9.284948e-001 2.875566e-001 3.356213e+000 1.181303e+000 4.772457e-001 5.804606e-001 4.900171e-001 1.060894e+000 2.776791e-001 6.582364e-001 1.514595e+000 2.988395e+000 3.458610e+000 1.807002e+000 2.167157e+000 3.494093e+000 2.087360e+000 1.858873e+000 2.010716e+000 6.972868e-001 1.940755e+000 1.760934e-001 7.037179e-001 9.508007e-001 1.928337e+000 2.337286e+000 1.751172e+000 9.430730e-001 3.791004e+000 2.298847e+000 8.799487e-001 3.018632e+000 1.348482e+000 6.119109e-001 3.824785e-001
<GCONST> 7.663156e+001
<MIXTURE> 15 8.191220e-003
<MEAN> 39
 1.391056e+000 -1.900552e+000 2.012279e+000 -1.489904e+000 6.296378e-001 -1.758201e+000 3.117108e-001 2.133126e+000 -1.909655e+000 -1.209208e+000 -2.363495e+000 8.026187e-001 2.358308e+000 -1.122171e+000 6.285303e-001 3.265245e+000 -4.877802e-001 2.764179e+000 -2.690823e+000 -1.464630e+000 -7.945114e-001 2.140056e-001 2.910469e+000 -4.823104e-001 9.952375e-001 -1.053863e+000 -1.828549e+000 -6.415465e-001 -1.185976e+000 -1.874674e-001 8.862724e-001 7.426322e-001 2.478853e+000 4.227960e-001 -7.378176e-001 1.318598e+000 6.236148e-001 4.296656e-001 -4.185666e-001
<VARIANCE> 39
 2.852414e-001 1.130233e-001 3.208133e-001 1.188445e-001 4.118108e-001 2.104542e+000 5.055727e+000 6.171846e-001 3.043398e-001 3.123602e-001 4.007137e-001 2.816556e-001 1.078693e-002 7.723317e-001 3.730931e-001 3.609548e-001 8.218684e-001 1.636344e-001 1.461249e-001 6.745162e+000 1.799587e+000 1.072274e+000 3.175707e-001 4.604788e-001 4.254338e-002 7.360171e-002 1.862836e-001 3.607975e-001 3.690948e+000 9.076681e-001 5.447204e-001 2.064051e+000 3.948894e+000 1.709766e+000 8.949087e-001 1.497554e+000 5.685160e-001 2.217017e-002 4.804670e-002
<GCONST> 3.901041e+001
<MIXTURE> 16 8.191166e-003
<MEAN> 39
 -2.705760e-001 -1.899495e+000 -4.900024e-001 -2.379609e+000 -1.368343e+000 -6.176702e-001 2.480175e+000 -3.271398e+000 -1.730319e+000 -3.196053e+000 -1.372817e+000 -1.453730e+000 1.856057e+000 -3.876130e-001 9.884028e-001 2.161427e+000 -5.521971e-001 -2.061641e+000 1.180905e+000 1.571253e+000 -1.197839e+000 4.888944e-001 -5.240698e-002 -6.172017e-001 -4.722886e+000 -9.978871e-001 -2.897698e-001 1.678089e+000 -4.390741e-001 9.864706e-001 1.414793e+000 -2.256565e+000 -1.950634e+000 1.495602e+000 1.294488e-001 3.504225e+000 2.995786e-001 8.910346e-001 -3.007644e-001
<VARIANCE> 39
 1.974291e-001 1.417298e+000 5.868334e-001 3.992662e-001 1.129367e+000 3.817273e-002 1.664069e+000 1.098715e-001 2.944772e-001 9.636022e-001 3.132134e-001 2.676575e+000 9.215360e-002 4.233044e-001 1.209700e+000 2.190986e-002 3.651405e-001 2.597265e+000 1.593910e+000 4.337291e-001 1.550629e+000 9.048721e-001 3.190008e+000 1.010642e+000 1.904899e+000 1.003250e-001 2.347800e-001 5.596349e+000 4.756792e-001 4.323191e-001 1.554900e+000 5.544617e-001 3.099936e+000 4.713741e-001 1.003071e+000 4.100836e-001 1.342389e+000 8.947042e+000 4.081373e-002
<GCONST> 5.255220e+001
<STATE> 5
<NUMMIXES> 16
<MIXTURE> 1 1.162262e-001
<MEAN> 39
 -1.934886e+000 -7.835587e-001 9.094461e-001 -1.344332e-001 4.906346e-002 5.364285e-001 1.434968e+000 -7.192004e-001 9.552423e-001 8.755217e-002 9.402608e-001 -1.741875e-001 1.524863e+000 -1.471201e-001 3.617011e-001 5.322408e-002 -7.138619e-002 3.045213e-001 1.806910e-001 -4.059599e-001 -1.223911e-001 -4.422527e-001 -2.633885e-001 7.400846e-002 2.444171e-002 -1.000624e-001 3.192366e-001 2.601132e-001 -5.773230e-001 -3.161986e-001 1.095697e-001 3.354919e-001 -2.348515e-001 3.488287e-001 -2.355136e-001 -3.100864e-001 -3.853741e-001 -2.227520e-001 -3.026003e-001
<VARIANCE> 39
 3.468882e-001 3.530176e+000 3.908450e+000 1.486200e+000 3.578214e+000 2.864100e+000 2.044486e+000 1.203675e+000 9.662170e-001 1.857082e+000 1.110156e+000 1.711150e+000 1.568684e-001 3.424524e-001 6.749524e-001 1.398852e+000 1.811094e+000 1.390432e+000 2.231841e+000 1.905243e+000 1.731421e+000 1.650776e+000 1.597950e+000 2.575857e+000 1.737307e+000 2.090620e-001 7.549808e-001 9.253340e-001 1.514614e+000 1.658516e+000 1.324108e+000 2.135997e+000 2.132235e+000 2.217268e+000 2.065429e+000 1.876849e+000 2.729377e+000 1.611256e+000 4.636500e-001
<GCONST> 8.415789e+001
<MIXTURE> 2 4.615614e-002
<MEAN> 39
 5.784628e-001 -7.361954e-001 -6.199773e-001 -7.210100e-001 1.087269e-001 1.885128e-002 -3.542446e-001 4.641060e-001 -1.012053e+000 9.085050e-001 -1.004574e+000 3.636538e-001 6.439823e-001 -2.619171e-002 -5.836578e-002 7.421999e-002 7.073086e-002 -1.120882e-001 -2.512767e-001 -1.421725e-002 2.132597e-001 -1.779168e-001 -1.232948e-003 -1.781412e-001 1.631580e-001 -2.635827e-002 -1.454636e-002 4.867718e-002 6.651480e-002 3.387914e-002 -4.374173e-002 -1.291292e-001 9.503384e-003 3.469948e-003 9.137370e-002 -7.272965e-002 -1.712862e-002 -6.157616e-002 3.192144e-002
<VARIANCE> 39
 4.620623e-002 2.800264e-002 4.645536e-002 1.882464e-001 2.379178e-001 2.639155e-001 3.332175e-001 5.159497e-001 1.564348e-001 2.762145e-001 1.302672e-001 3.519470e-001 2.465944e-002 3.162191e-002 2.093488e-001 2.415916e-001 2.637577e-001 1.442392e-001 4.136413e-001 1.541870e-001 2.754172e-001 5.948071e-001 5.135617e-001 7.724406e-001 4.121312e-001 2.638666e-002 2.633601e-002 2.506659e-001 3.400535e-001 3.033340e-001 1.680571e-001 2.800229e-001 1.710279e-001 2.886840e-001 7.150450e-001 5.074216e-001 1.325978e+000 4.902585e-001 2.585639e-002
<GCONST> 7.661655e+000
<MIXTURE> 3 1.980214e-001
<MEAN> 39
 -6.222280e-001 8.194377e-001 6.261523e-001 -4.112287e-001 5.150082e-001 1.993034e-001 -3.465311e-001 1.400938e-001 2.518843e-001 -2.312202e-001 2.741260e-001 -3.902798e-001 -4.396966e-003 7.756873e-001 -7.455250e-001 -2.249579e-001 3.041103e-001 -4.026670e-002 -3.836507e-001 2.723461e-001 -4.800081e-002 1.414283e-001 1.739685e-002 2.336704e-001 1.431347e-001 -7.048687e-001 -1.071077e+000 2.016084e-002 -5.771734e-002 -4.727432e-001 -1.678795e-001 -5.019660e-001 3.559899e-001 -1.784251e-002 -1.980363e-001 2.757182e-001 -5.966119e-002 1.652941e-001 1.479347e+000
<VARIANCE> 39
 4.843114e-001 4.770186e-001 7.803223e-001 1.069264e+000 1.125847e+000 1.000355e+000 1.114454e+000 8.984408e-001 1.029238e+000 8.819396e-001 1.232404e+000 9.536012e-001 3.276109e-001 1.824321e+000 1.022950e+000 1.848079e+000 1.465141e+000 1.648734e+000 1.604803e+000 1.728606e+000 1.467398e+000 1.980156e+000 1.527567e+000 1.452222e+000 1.617049e+000 2.203043e+000 9.646057e-001 1.395018e+000 1.809433e+000 1.330291e+000 1.663063e+000 1.584259e+000 1.516525e+000 1.539098e+000 1.957468e+000 1.441445e+000 1.393296e+000 1.764351e+000 1.241015e+000
<GCONST> 8.051836e+001
<MIXTURE> 5 1.670060e-002
<MEAN> 39
 6.128587e-001 2.434210e-002 1.106887e+000 -6.765687e-001 -1.214849e+000 -2.149553e+000 6.021330e-001 9.103979e-001 -6.826632e-001 -2.337636e-001 -1.207342e+000 -8.414844e-001 1.028619e+000 -1.365380e+000 1.585630e+000 1.250114e+000 7.860820e-001 6.608419e-001 2.390935e-002 -9.894343e-002 -5.724151e-001 1.385839e+000 3.054191e-001 1.984738e+000 -3.705885e-001 -8.338569e-001 -1.554274e+000 -4.542585e-001 -4.203596e-001 -2.343069e-001 -2.159972e-001 1.154938e+000 -4.203054e-001 -8.242775e-001 9.868198e-001 7.813467e-003 5.471873e-001 4.816899e-001 -2.916491e-001
<VARIANCE> 39
 2.053682e-001 5.059162e-001 5.549882e-001 4.888242e-001 9.097057e-001 7.301623e-001 1.434098e+000 1.602152e+000 8.878209e-001 1.627024e+000 4.280353e-001 3.117549e+000 3.935205e-001 1.419065e+000 6.876488e-001 1.465985e+000 1.598832e+000 2.184876e+000 1.754320e+000 1.691965e+000 2.425015e+000 1.157758e+000 3.082753e+000 2.278126e+000 2.836934e+000 3.119897e-001 1.768079e+000 1.090325e+000 1.483628e+000 1.824789e+000 2.831448e+000 1.112394e+000 3.219286e+000 1.268298e+000 1.291636e+000 3.687756e+000 1.999553e+000 3.421398e+000 6.378002e-001
<GCONST> 8.105166e+001
<MIXTURE> 6 1.335595e-002
<MEAN> 39
 1.697779e+000 4.245563e-001 1.093822e+000 -2.609136e+000 -3.344923e+000 -1.671219e+000 -8.111997e-001 -1.375234e+000 -2.683385e-001 -2.988282e-001 -1.250114e+000 -1.557871e+000 1.422089e+000 -9.369051e-001 1.868260e+000 3.804139e-001 9.865650e-001 9.194574e-001 -3.763566e-001 -9.187748e-001 -3.332292e-001 5.940409e-001 6.077272e-001 8.141636e-002 7.233760e-001 -1.159395e+000 -2.290259e+000 -2.480986e-001 -1.677005e+000 1.361531e+000 2.436668e+000 1.305476e+000 1.286363e+000 2.635410e-001 -8.846278e-001 -3.236544e-001 1.512073e-001 4.011627e-001 -1.049507e+000
<VARIANCE> 39
 1.148020e+000 4.845901e-001 6.605467e-001 7.474843e-001 2.124953e-001 6.147081e-001 9.581449e-001 1.383066e-001 4.591117e-001 8.902522e-001 1.187546e+000 2.681900e-001 1.537334e-001 3.675747e+000 2.006721e+000 3.590870e+000 1.173466e+000 1.992850e+000 2.874569e+000 2.732500e+000 4.431472e-001 2.116414e+000 1.863624e+000 1.723851e+000 1.765512e-001 6.746325e-001 1.111697e+000 2.203266e+000 5.656652e-001 6.936469e-001 1.030188e+000 1.899352e+000 1.903035e+000 2.704055e-001 1.410798e+000 2.619061e+000 1.529706e+000 5.406398e-001 7.030547e-001
<GCONST> 6.831157e+001
<MIXTURE> 7 2.725064e-001
<MEAN> 39
 -1.972611e+000 1.239474e+000 9.845355e-001 -1.327999e+000 6.006108e-001 2.077584e-002 -1.895471e-001 3.555792e-001 -1.866297e-001 3.410213e-001 2.284375e-001 -3.726546e-001 8.923537e-001 2.366447e-001 1.896373e-001 -2.794658e-001 2.726438e-001 4.329453e-001 3.049079e-002 -6.199163e-003 2.616375e-001 1.709074e-001 1.656660e-001 -9.637844e-002 1.605401e-001 -4.671465e-001 7.298770e-001 -2.830378e-001 -9.802981e-002 1.993663e-001 -2.153329e-001 -1.138550e-001 -4.475440e-002 -1.344645e-001 -2.364542e-003 -1.593520e-001 8.675137e-003 -8.023065e-003 -5.128657e-001
<VARIANCE> 39
 5.390782e-001 2.414739e-001 1.251228e+000 4.915488e-001 9.228762e-001 1.003259e+000 1.071332e+000 8.770738e-001 8.265294e-001 4.689565e-001 1.021126e+000 6.368135e-001 1.904930e-001 8.706597e-001 6.066316e-001 1.297572e+000 8.581794e-001 9.823132e-001 1.021326e+000 1.053688e+000 1.087280e+000 1.094741e+000 9.331508e-001 1.086329e+000 8.607281e-001 6.382089e-001 9.169953e-001 7.751445e-001 1.001632e+000 9.575928e-001 8.872916e-001 9.516231e-001 8.475327e-001 1.051618e+000 9.846270e-001 1.009409e+000 1.032350e+000 9.859470e-001 5.466728e-001
<GCONST> 6.383052e+001
<MIXTURE> 8 1.410430e-001
<MEAN> 39
 -1.789372e+000 -2.688527e-001 1.156024e+000 -1.403222e+000 1.250736e+000 3.054589e-001 -2.069305e-001 7.366745e-001 -3.689924e-001 2.072243e-001 8.791152e-002 -1.742339e-001 1.333298e+000 2.330954e-001 -8.568705e-002 -8.029053e-001 3.738514e-001 3.184775e-001 4.755772e-002 -2.262749e-001 2.720326e-001 3.962553e-002 4.436803e-001 -1.701275e-001 -5.610674e-002 -1.051513e+000 8.820010e-001 -3.197382e-001 -6.634089e-003 6.438543e-001 -5.578797e-001 -1.953115e-001 3.183316e-001 -1.979915e-001 4.925617e-001 5.903471e-003 1.029692e-001 8.401298e-002 -1.053522e+000
<VARIANCE> 39
 1.561315e+000 3.095065e+000 3.143956e+000 2.666817e+000 3.793097e+000 4.135695e+000 3.634935e+000 2.340600e+000 2.354559e+000 3.032314e+000 2.360014e+000 3.199818e+000 2.865619e-001 3.223216e+000 3.499350e+000 3.769485e+000 3.427525e+000 2.914133e+000 3.658768e+000 2.661255e+000 3.075953e+000 2.444198e+000 2.627937e+000 2.373645e+000 3.468017e+000 3.082899e+000 2.093698e+000 3.860273e+000 3.440535e+000 3.320865e+000 4.022798e+000 4.127098e+000 2.492413e+000 3.523482e+000 3.191972e+000 2.774971e+000 3.065554e+000 3.575157e+000 3.214226e+000
<GCONST> 1.128059e+002
<MIXTURE> 9 1.169149e-001
<MEAN> 39
 -2.180498e+000 1.838449e-001 1.722841e+000 -1.828055e+000 -1.398681e+000 -8.086324e-002 1.178726e-001 -1.089088e-001 1.087915e+000 -7.588003e-001 -6.347296e-002 -7.240562e-001 1.322124e+000 -9.339746e-001 1.139175e-001 4.163254e-001 -1.856606e-002 -7.402807e-003 1.966628e-001 1.668059e-001 -3.476144e-001 -1.658208e-001 1.689386e-001 6.463681e-001 3.023697e-001 4.895667e-002 1.004022e+000 3.097939e-001 1.566250e-001 6.477942e-001 6.841522e-001 -3.093325e-001 4.368417e-002 1.183685e-001 -3.006741e-001 2.889191e-001 2.986657e-002 1.689481e-001 -3.280018e-002
<VARIANCE> 39
 8.472503e-001 8.535424e-001 7.065316e-001 5.636768e-001 1.462390e+000 1.292395e+000 1.609280e+000 1.353791e+000 1.481691e+000 1.361413e+000 1.357393e+000 9.913008e-001 1.959424e-001 1.038849e+000 6.096138e-001 6.967053e-001 1.144108e+000 1.309912e+000 1.070542e+000 9.985807e-001 1.466173e+000 1.072291e+000 8.299235e-001 8.208606e-001 9.641529e-001 1.825046e-001 1.138175e+000 8.249836e-001 8.562691e-001 1.163577e+000 1.329302e+000 1.181630e+000 1.328260e+000 1.521129e+000 1.152928e+000 8.749601e-001 9.823222e-001 1.013767e+000 2.816294e-001
<GCONST> 6.902619e+001
<MIXTURE> 10 4.128732e-003
<MEAN> 39
 -5.909264e-001 -1.647128e+000 2.649506e+000 -2.713962e+000 1.018930e+000 1.404156e-001 -7.918690e-001 1.348341e+000 -2.502282e+000 5.580497e-001 -5.387236e-001 -6.119547e-001 2.061363e+000 -3.555663e+000 1.257844e+000 7.663245e-001 -2.414087e+000 1.025254e+000 -7.910893e-001 -2.882552e+000 3.965163e-001 -1.009034e+000 -1.163642e-001 1.526195e+000 5.535914e-001 -1.865510e+000 3.343194e-001 -6.185474e-001 -2.916648e+000 -1.836373e-003 -1.765073e+000 -8.736982e-001 -3.240943e-001 8.356932e-002 -1.722938e+000 -3.008759e+000 -3.320858e-001 -1.411716e+000 1.557612e+000
<VARIANCE> 39
 1.049675e+000 6.231336e-002 9.999958e-003 3.541874e-001 2.480464e-001 5.784559e-001 7.718328e-001 1.435833e-001 1.629502e-001 2.197987e-001 1.856773e-001 6.647069e-001 3.332414e-002 5.404066e-001 1.247064e-002 1.605642e+000 9.208798e-002 1.643778e+000 2.285199e+000 6.554734e-001 1.861966e-001 3.347082e+000 3.609335e+000 7.391778e-001 2.786747e+000 5.800340e-001 2.138454e+000 2.518021e-001 1.917744e+000 2.111505e+000 4.048070e-001 4.164125e-001 5.828708e+000 3.995205e-001 3.145124e+000 1.115568e+000 2.060638e-001 1.018483e+000 3.287304e+000
<GCONST> 4.604950e+001
<MIXTURE> 11 4.089043e-002
<MEAN> 39
 -1.339731e+000 6.809731e-001 1.769922e-001 -1.506967e+000 -6.170047e-001 -8.422757e-001 3.366427e-001 -8.240895e-001 -6.395428e-001 1.635308e-001 -1.997155e-001 -8.297161e-001 6.235705e-001 -2.852705e+000 5.983195e-001 -6.243323e-001 5.881530e-001 1.642954e+000 6.530539e-001 4.236028e-001 8.390325e-001 1.258848e+000 1.084572e+000 1.081892e+000 7.206452e-001 -3.036546e-001 1.363957e+000 -8.928136e-001 4.974718e-001 -4.198770e-001 -7.727588e-001 1.319084e-001 -5.423195e-001 -1.015544e-001 -8.898512e-002 -9.537783e-001 -5.669912e-001 -1.760536e-001 1.212306e+000
<VARIANCE> 39
 5.138968e-001 3.131945e-001 2.016925e+000 9.228086e-001 1.158484e+000 7.029778e-001 1.702835e+000 5.931839e-001 7.886072e-001 8.800362e-001 9.186381e-001 6.051401e-001 1.601246e-001 9.820887e-001 1.068879e+000 1.323689e+000 2.047179e+000 1.614440e+000 1.840039e+000 2.835327e+000 1.400783e+000 2.018344e+000 2.301937e+000 1.065022e+000 8.767037e-001 1.060027e+000 1.495709e+000 1.467279e+000 2.315113e+000 1.165433e+000 2.367874e+000 1.516071e+000 2.474799e+000 9.843112e-001 2.754476e+000 1.541571e+000 1.295660e+000 7.038625e-001 5.819194e-001
<GCONST> 7.729087e+001
<MIXTURE> 12 3.096515e-003
<MEAN> 39
 9.918274e-001 7.929291e-001 2.621595e+000 -5.339470e-001 7.141557e-001 -1.887087e+000 -5.384525e-001 4.277242e-001 1.706922e-001 -1.355044e+000 -1.309499e+000 -1.656651e+000 1.725358e+000 -5.534766e+000 -2.506547e-001 -5.033788e-002 -3.794402e+000 -6.068156e-001 -8.249515e-001 7.211797e-001 6.796578e-001 -2.126799e+000 3.167926e-002 -6.648614e-001 -7.135996e-001 -1.499984e+000 2.124593e-001 -8.305475e-001 -2.734022e-001 -5.188424e-001 -2.342473e+000 2.095152e-001 5.456510e-001 1.349925e+000 6.850367e-001 8.889059e-001 1.789500e+000 1.160309e+000 1.622468e+000
<VARIANCE> 39
 9.826740e-001 7.243086e-002 3.609470e-001 1.014967e+000 9.169987e-001 3.151754e-001 3.970212e+000 1.474059e-001 1.084095e+000 3.373101e-001 4.629277e-001 3.106823e-002 1.556373e-002 1.125757e-001 6.335462e-001 4.839024e-001 7.821154e-001 4.800723e-001 2.190886e+000 9.262285e-001 4.484210e-001 2.486561e+000 5.588716e-001 1.630769e+000 1.354373e+000 2.246913e-001 3.087639e+000 1.180586e+000 2.097122e+000 2.126547e+000 1.348841e+000 2.935331e-001 1.140061e+000 1.346015e-001 9.629768e-001 1.728179e-002 1.902744e-001 4.519102e-001 1.045489e+000
<GCONST> 4.551362e+001
<MIXTURE> 13 8.249740e-003
<MEAN> 39
 1.589881e-001 -8.865340e-001 -3.360297e-001 -1.976791e+000 -1.602709e+000 1.970904e-002 4.145964e-001 -1.481692e+000 -1.146871e+000 -2.873804e+000 -2.092790e+000 -1.790014e+000 1.260672e+000 7.693297e-001 1.438482e+000 5.265862e-001 -5.117719e-002 -7.236238e-001 -1.320542e+000 -6.951469e-001 -3.432038e-001 5.427101e-001 9.440152e-001 2.786707e-002 3.241180e-001 -8.958707e-001 -6.403192e-001 1.293277e+000 1.897326e-001 4.628053e-001 1.877525e+000 -3.722008e-001 -1.026080e+000 -2.595891e-001 8.750120e-001 2.716660e+000 2.696339e+000 5.663637e-001 6.687916e-001
<VARIANCE> 39
 9.888558e-001 8.129045e-001 1.814664e+000 1.233932e+000 6.727534e-001 4.468972e-001 9.521159e-001 1.008259e+000 9.586750e-001 4.502801e-001 1.868420e+000 5.005720e-001 6.512293e-001 3.007625e-001 3.080620e+000 8.588948e-001 1.811381e+000 4.634747e+000 8.949076e-001 8.458591e-001 8.445879e-001 3.661660e-001 3.944446e+000 1.476313e+000 7.997947e-001 1.996366e-001 7.363465e-001 7.189595e-001 9.402579e-001 1.744937e+000 5.276204e-001 1.434736e+000 1.353391e+000 9.361137e-001 1.958993e-001 1.179358e+000 1.329202e-001 1.453447e+000 6.040921e-001
<GCONST> 6.626489e+001
<MIXTURE> 14 6.193214e-003
<MEAN> 39
 9.408002e-001 1.589831e-001 -8.993325e-002 -6.259540e-001 -2.074250e+000 -9.887642e-001 -1.365673e+000 -1.918566e+000 4.000756e-001 -1.973749e+000 -1.018297e+000 -5.575715e-001 1.273186e+000 -1.991301e+000 2.605981e+000 7.996532e-001 -1.400849e-001 3.738207e+000 -1.331573e+000 1.457293e+000 5.956097e-001 -5.982381e-001 1.298627e+000 -2.067195e-001 1.132144e+000 -1.666193e+000 -2.263462e+000 -7.058484e-001 4.379908e-001 -1.630717e+000 1.058694e+000 2.004596e-001 6.870411e-001 1.669117e+000 -2.093625e-001 1.386778e+000 -9.816772e-002 -4.159955e-001 2.236083e-001
<VARIANCE> 39
 1.450689e-001 2.247141e-001 1.347173e+000 6.493156e-002 1.168964e+000 3.093850e-001 8.028496e-001 6.034335e-001 1.477105e+000 5.806189e-001 4.699491e-001 1.202295e+000 2.365092e-001 1.519098e+000 4.414433e-001 1.999039e+000 8.449482e-001 4.856686e-001 9.340721e-001 2.340069e-001 2.311666e+000 2.567806e+000 2.345457e+000 3.962667e-001 1.708261e+000 4.807786e-002 8.222450e-001 7.727308e-001 2.393430e+000 1.325202e+000 1.799597e+000 1.068883e+000 1.442684e+000 1.506412e+000 1.076851e+000 5.260513e-001 4.229832e-001 1.640540e+000 4.308225e-001
<GCONST> 5.935484e+001
<MIXTURE> 15 6.195299e-003
<MEAN> 39
 7.276701e-001 -3.258303e-001 1.779559e+000 5.360952e-002 2.986520e-002 -8.274845e-001 1.429595e+000 4.590496e-001 2.183151e+000 -1.609821e+000 1.898057e-001 -1.164745e+000 1.494849e+000 -3.078684e+000 2.029349e-001 5.947425e-001 -1.572278e+000 -8.176531e-001 1.357700e+000 -1.385613e+000 -3.256219e-001 8.866764e-001 -1.084485e+000 -8.725947e-001 -3.585274e-001 -1.010074e+000 -2.175185e+000 -1.035636e+000 -1.025108e+000 -2.158306e+000 -1.379251e+000 -7.754216e-001 -4.332115e-001 -6.867707e-001 -8.770979e-001 8.914085e-001 -3.002043e-001 4.599902e-001 7.502064e-002
<VARIANCE> 39
 1.028147e+000 2.264707e-001 1.866429e-001 9.491272e-001 2.483822e+000 7.566322e-001 4.547293e-001 7.053992e-001 1.356420e+000 7.581378e-001 3.409441e+000 4.958877e-001 6.877286e-002 2.891270e-001 2.117908e-001 1.259229e+000 9.742750e-001 8.418141e+000 1.506421e+000 8.770131e-001 1.452048e+000 6.936833e+000 1.763362e+000 2.194640e+000 1.568330e+000 4.753863e-001 1.177081e+000 3.527119e-001 6.439291e-001 1.787477e+000 3.876497e+000 7.598190e-001 1.774950e+000 1.334831e+000 2.242286e+000 1.181390e+000 2.834035e+000 1.582056e+000 1.809063e-001
<GCONST> 7.101804e+001
<MIXTURE> 16 1.032146e-002
<MEAN> 39
 4.405787e-002 3.738821e-001 4.011283e-001 -2.546278e+000 -1.701482e+000 -5.420147e-001 -1.514216e+000 -1.152880e+000 -2.606632e+000 -1.285333e+000 -1.945143e+000 -1.882326e+000 1.095910e+000 -1.614847e+000 1.045574e+000 2.665026e-001 4.558306e-001 2.401543e+000 7.713981e-001 -7.599787e-001 5.844178e-001 -3.025423e-001 1.505897e+000 1.144225e+000 7.189940e-001 -1.371598e+000 -1.412897e+000 -1.680244e+000 -1.566956e+000 1.117637e+000 1.234841e+000 9.483999e-001 1.962950e+000 7.840289e-001 2.228068e+000 8.460723e-001 1.682932e+000 3.751211e-001 -6.907119e-001
<VARIANCE> 39
 3.921215e-001 1.613333e-001 1.011813e+000 2.100958e+000 1.774118e+000 1.427116e+000 8.980190e-001 1.580791e+000 2.219375e-001 9.494556e-001 6.737748e-001 6.550283e-002 8.788678e-002 8.190331e-001 1.805769e+000 2.880656e+000 7.374352e-001 1.454267e+000 7.289219e-001 2.145533e+000 1.006340e+000 1.295841e+000 3.479996e+000 2.291428e+000 7.542662e-001 4.057832e-001 3.728599e-001 1.055683e+000 1.803765e+000 2.400015e+000 2.625338e+000 8.791897e-001 1.070723e+000 3.157719e+000 5.765816e-001 3.317405e+000 1.704389e+000 5.066683e-001 1.941856e+000
<GCONST> 7.071810e+001
<STATE> 6
<NUMMIXES> 16
<MIXTURE> 5 1.000000e+000
<MEAN> 39
 -1.067097e+000 6.017443e-001 -3.419631e-001 -6.003900e-001 4.134107e-001 -1.079898e+000 4.940215e-001 9.179302e-002 2.716241e-001 2.673047e-001 4.236214e-001 4.160343e-001 5.185622e-001 5.163699e-001 -3.936767e-001 -6.571204e-002 3.119828e-001 -2.328497e-001 -1.365791e-001 -8.718717e-002 2.828949e-002 1.586675e-002 6.908947e-002 1.037756e-001 1.112482e-001 -6.182892e-001 6.721310e-001 -2.140738e-002 2.343041e-001 3.156421e-001 -4.469990e-002 6.319733e-001 -2.166246e-001 9.996948e-003 -1.835728e-002 -2.364406e-001 -8.713567e-002 -8.982000e-002 -8.952329e-001
<VARIANCE> 39
 4.852569e-001 7.705751e-001 1.347824e+000 1.281836e+000 1.313160e+000 1.641323e+000 1.757622e+000 1.925667e+000 1.170045e+000 1.140518e+000 1.205247e+000 1.716471e+000 2.256270e-001 2.189121e+000 1.764334e+000 2.858703e+000 2.124196e+000 2.406320e+000 2.393213e+000 2.418553e+000 2.526853e+000 1.961479e+000 1.776294e+000 2.134727e+000 2.305901e+000 2.496226e+000 2.711750e+000 2.556192e+000 2.990708e+000 2.023171e+000 2.464400e+000 2.570302e+000 2.431488e+000 2.692401e+000 2.013249e+000 1.543515e+000 2.168148e+000 2.297124e+000 2.065888e+000
<GCONST> 9.415292e+001
<STATE> 7
<NUMMIXES> 16
<MIXTURE> 11 1.000000e+000
<MEAN> 39
 -6.487817e-001 9.487288e-002 2.047136e-001 -3.128039e-001 2.378542e-001 -9.798633e-001 -3.971415e-001 1.806365e-001 9.666591e-002 1.246587e-001 3.199962e-001 2.288854e-001 -4.219729e-002 2.342396e+000 -7.543190e-002 -1.691174e-001 1.288070e+000 -5.960559e-001 1.051853e+000 -9.709495e-002 -1.375729e-001 8.058714e-002 -1.577302e-001 -2.885255e-002 2.453613e-001 -2.811908e+000 2.959612e-001 5.361783e-001 -1.242960e-001 -3.852904e-001 1.023105e-001 9.801780e-001 4.692996e-001 1.551766e-001 4.525341e-001 1.089504e-001 1.763266e-003 1.554792e-002 2.717043e-001
<VARIANCE> 39
 4.810805e-001 7.345192e-001 2.077203e+000 8.144890e-001 1.794885e+000 1.646762e+000 2.434745e+000 1.298733e+000 1.100800e+000 2.148241e+000 1.024539e+000 1.400123e+000 2.159640e-001 3.812366e+000 4.113825e+000 2.464096e+000 3.504977e+000 4.506583e+000 4.159591e+000 1.650595e+000 3.239070e+000 2.047475e+000 1.801538e+000 3.047216e+000 1.532314e+000 3.012048e+000 1.739603e+000 2.402047e+000 2.291811e+000 1.352093e+000 1.886523e+000 1.740219e+000 2.335609e+000 1.291431e+000 1.969362e+000 2.748420e+000 1.347279e+000 1.620494e+000 1.843163e+000
<GCONST> 9.448624e+001
<TRANSP> 8
 0.000000e+000 1.000000e+000 0.000000e+000 0.000000e+000 0.000000e+000 0.000000e+000 0.000000e+000 0.000000e+000
 0.000000e+000 9.204165e-001 7.958347e-002 0.000000e+000 0.000000e+000 0.000000e+000 0.000000e+000 0.000000e+000
 0.000000e+000 0.000000e+000 9.251618e-001 7.483815e-002 0.000000e+000 0.000000e+000 0.000000e+000 0.000000e+000
 0.000000e+000 0.000000e+000 0.000000e+000 9.098974e-001 9.010261e-002 0.000000e+000 0.000000e+000 0.000000e+000
 0.000000e+000 0.000000e+000 0.000000e+000 0.000000e+000 9.545845e-001 4.541546e-002 0.000000e+000 0.000000e+000
 0.000000e+000 0.000000e+000 0.000000e+000 0.000000e+000 0.000000e+000 8.439904e-001 1.560096e-001 0.000000e+000
 0.000000e+000 0.000000e+000 0.000000e+000 0.000000e+000 0.000000e+000 0.000000e+000 0.000000e+000 1.000000e+000
 0.000000e+000 0.000000e+000 0.000000e+000 0.000000e+000 0.000000e+000 0.000000e+000 0.000000e+000 0.000000e+000
<ENDHMM>
~h "one"
<BEGINHMM>
<NUMSTATES> 8
<STATE> 2
<NUMMIXES> 15
<MIXTURE> 1 8.002384e-002
<MEAN> 39
 1.811164e-001 3.601072e-001 3.235115e+000 -2.462054e+000 -1.574809e+000 -1.884697e+000 -1.225757e+000 -9.901133e-001 -1.355246e+000 1.143333e+000 -1.483812e+000 -7.690158e-001 2.378775e+000 -3.348387e-001 -1.378952e+000 1.226206e-001 -5.961489e-001 -1.710680e+000 -9.808566e-001 1.570444e-001 2.181319e-001 6.026026e-002 1.937998e+000 7.194753e-001 4.691963e-001 8.725905e-001 6.258205e-001 -1.927987e-001 -1.946875e+000 8.994080e-001 3.464360e-001 7.898262e-001 -3.501124e-001 3.812929e-002 2.019055e-001 -8.832101e-001 5.466761e-001 5.522979e-001 -3.352676e-001
<VARIANCE> 39
 7.861300e-001 1.868848e+000 4.957436e-001 5.968892e-001 1.198889e+000 1.875996e+000 1.139908e+000 1.774517e+000 1.659674e+000 2.910952e+000 2.675595e+000 3.060852e+000 4.822867e-001 4.359705e-001 1.378716e+000 1.697838e+000 7.743990e-001 2.246397e+000 1.366935e+000 2.325644e+000 2.327001e+000 8.555417e-001 1.032168e+000 1.751573e+000 1.881193e+000 1.862184e-001 2.781417e-001 1.840200e+000 1.551541e+000 9.959597e-001 2.666393e+000 2.712807e+000 2.197384e+000 2.423746e+000 1.339152e+000 1.727987e+000 1.851586e+000 2.727395e+000 2.269005e-001
<GCONST> 8.166219e+001
<MIXTURE> 2 2.750777e-002
<MEAN> 39
 -6.045568e-001 1.410160e+000 -1.377413e+000 1.167668e-001 6.495222e-001 -9.153770e-001 8.839003e-001 -1.317066e+000 1.780629e+000 -2.213748e+000 -1.769372e-001 -2.074758e+000 1.263251e+000 6.698350e-002 1.089917e+000 1.181282e+000 2.259770e-002 3.416516e-001 -3.514257e-001 -3.269249e-001 -7.029840e-001 -6.296838e-003 -5.373753e-001 -4.767309e-001 -1.016253e+000 8.726682e-001 1.889808e-001 -4.674424e-001 4.918678e-001 -9.022747e-001 -1.292081e+000 2.924287e-001 -1.497139e+000 1.021879e-001 -1.709941e+000 1.058958e+000 -6.863062e-001 7.760717e-001 -8.911496e-001
<VARIANCE> 39
 2.363437e-001 3.779727e-001 5.162575e+000 4.591977e-001 1.607112e-001 2.587044e+000 1.068465e+000 1.852468e+000 3.284960e+000 8.432363e-001 1.281515e+000 1.273430e+000 2.955115e-002 3.827692e-001 1.016250e+000 9.938641e-001 2.386854e+000 1.499436e+000 1.099476e+000 4.677445e+000 2.157885e+000 3.940765e+000 2.209432e+000 1.509178e+000 3.474135e+000 1.851447e+000 5.577114e-001 1.810433e+000 3.031943e+000 1.544841e+000 8.977276e-001 3.347779e+000 2.782855e+000 2.034239e+000 1.666394e+000 1.316971e+000 1.561388e+000 2.460649e+000 2.503219e+000
<GCONST> 8.252283e+001
<MIXTURE> 3 6.834077e-002
<MEAN> 39
 8.192834e-001 3.729279e-001 2.863887e+000 -3.380745e-001 -1.999478e+000 -7.989503e-001 -6.037852e-001 -1.600254e+000 -9.951936e-001 -2.581856e+000 8.070295e-001 1.780062e-002 2.511168e+000 -1.103949e-001 -6.663887e-001 -6.477849e-001 2.506169e-001 -2.538176e-001 -6.463878e-001 2.042153e-001 -1.091161e-001 1.114401e-001 2.380812e-001 1.795381e-001 -3.085639e-001 5.276547e-001 6.853934e-002 1.209534e-002 -9.599229e-001 -2.922909e-002 7.808949e-001 1.296106e-001 -4.777405e-002 1.571055e-001 -7.317607e-002 6.285091e-001 -1.569490e-001 -3.838633e-002 -6.933216e-001
<VARIANCE> 39
 4.632147e-001 2.091743e+000 2.767693e-001 1.529011e+000 9.256383e-001 8.880591e-001 1.438711e+000 1.458412e+000 5.148550e-001 2.445984e-001 6.278392e-001 3.058183e+000 9.387751e-002 4.977236e-001 8.903588e-001 1.247223e+000 8.678617e-001 1.345895e+000 4.904934e-001 1.016805e+000 1.116222e+000 2.952885e-001 9.824799e-001 4.855271e-001 5.124237e-001 1.125448e-001 7.364680e-001 3.717260e-001 8.810496e-001 1.538848e+000 1.487941e+000 7.466842e-001 9.886675e-001 1.700795e+000 5.552998e-001 1.093175e+000 4.979208e-001 8.058649e-001 5.822821e-001
<GCONST> 5.938985e+001
<MIXTURE> 4 1.022628e-001
<MEAN> 39
 -4.307801e-001 6.770462e-001 2.148496e-001 3.679735e-001 4.223106e-001 3.240494e-001 -6.262648e-001 -3.785088e-001 -7.455993e-001 -9.309083e-001 -5.172610e-001 -3.403895e-001 4.706323e-001 5.316620e-001 2.679282e+000 2.937283e+000 -1.722322e+000 -1.825267e+000 -2.461221e+000 -3.363667e+000 -2.649955e+000 -2.633536e+000 -1.961745e+000 -1.198854e+000 -1.243798e+000 4.130480e+000 1.585635e+000 3.829218e-001 1.214025e+000 -1.318019e+000 -8.723971e-001 -8.076129e-001 -3.860878e-001 -2.617248e-001 7.273151e-002 6.514520e-002 -1.070799e-001 -7.917739e-002 -2.011714e-001
<VARIANCE> 39
 8.620703e-001 6.685098e-001 8.351694e-001 2.811585e-001 5.625507e-001 8.792055e-001 1.286209e+000 1.301042e+000 1.188101e+000 2.203548e+000 9.438260e-001 2.714228e+000 3.900285e-001 5.998482e+000 1.365419e+000 3.134907e+000 2.902446e+000 3.113399e+000 2.886049e+000 2.243427e+000 4.377318e+000 2.771207e+000 3.638551e+000 5.218583e+000 3.678627e+000 1.203867e+000 2.559542e+000 1.693391e+000 2.713143e+000 1.915085e+000 2.645917e+000 2.828025e+000 3.336994e+000 3.002696e+000 1.631441e+000 3.614476e+000 2.361853e+000 4.369870e+000 4.761870e+000
<GCONST> 9.779273e+001
<MIXTURE> 5 1.131506e-001
<MEAN> 39
 6.785915e-001 2.056492e+000 1.182304e+000 -3.586282e-001 -2.358657e-001 -4.065235e-001 -1.807829e+000 -1.232314e+000 -1.309002e+000 -1.327616e+000 -2.703386e-001 -3.842759e-001 9.759996e-001 1.115443e+000 1.822284e+000 2.121011e+000 -1.909905e+000 -1.383374e+000 -6.851189e-001 -1.598988e+000 -9.710149e-001 -7.959516e-001 -1.102651e+000 -2.397874e-001 -3.376280e-001 2.408763e+000 -1.083479e+000 -1.873266e+000 -9.024941e-001 3.167586e-001 2.154629e-001 7.082010e-001 1.423470e+000 6.689336e-001 1.409878e+000 1.010886e+000 6.334096e-003 1.086160e-001 -2.276705e+000
<VARIANCE> 39
 1.705508e+000 6.177131e-001 8.653942e-001 1.350258e+000 8.266799e-001 1.837257e+000 9.504386e-001 1.183713e+000 1.083449e+000 1.197454e+000 2.132062e+000 1.574140e+000 2.155658e-001 1.809576e+000 1.274153e+000 2.008797e+000 2.398372e+000 2.624868e+000 1.659906e+000 2.589797e+000 2.026508e+000 1.620182e+000 2.035656e+000 2.584339e+000 2.721311e+000 1.463995e+000 3.276170e+000 1.278492e+000 1.521772e+000 2.442081e+000 2.121213e+000 2.554011e+000 1.909168e+000 1.584114e+000 2.599241e+000 1.660418e+000 2.689521e+000 1.502976e+000 1.066345e+000
<GCONST> 8.988474e+001
<MIXTURE> 6 4.646433e-002
<MEAN> 39
 -4.060893e-001 3.292530e+000 1.948850e+000 -1.447152e+000 8.473938e-001 -2.215216e+000 -2.813970e+000 -2.545707e+000 -1.289188e+000 -2.995211e+000 -1.413402e+000 -1.842066e+000 1.743922e+000 -9.211442e-001 2.866639e-001 2.113808e+000 -1.754833e+000 4.065350e-001 -5.399830e-001 -4.478514e-001 4.015371e-002 3.132068e-001 -3.131431e-001 -7.410122e-001 -1.064316e+000 1.067629e+000 -5.711068e-002 -2.874441e+000 -1.699989e+000 2.040549e+000 1.047681e-001 2.214615e+000 2.123534e+000 1.900553e+000 9.523717e-001 2.193369e+000 1.261181e+000 1.842054e+000 -1.941439e+000
<VARIANCE> 39
 1.338169e+000 4.202527e-001 1.028621e+000 1.119083e+000 3.775252e+000 4.683917e-001 1.046367e+000 8.589099e-001 1.488594e+000 2.467269e-001 2.397165e+000 8.188012e-001 5.783145e-002 1.189614e+000 1.897552e+000 2.752803e+000 1.662621e+000 5.564812e+000 3.659677e+000 4.505697e+000 1.892190e+000 1.938560e+000 2.587856e+000 3.652308e+000 3.604250e+000 7.241831e-001 1.716127e+000 1.099409e+000 1.603213e+000 4.640778e+000 6.437670e+000 4.007205e+000 3.496078e+000 3.564222e+000 2.653837e+000 8.488189e-001 1.799999e+000 2.353402e+000 1.419401e+000
<GCONST> 9.090832e+001
<MIXTURE> 7 9.692135e-003
<MEAN> 39
 -7.993064e-001 3.208263e+000 1.239207e+000 -8.698881e-001 -5.361198e-001 -2.158826e+000 -3.338312e+000 -3.091055e+000 -1.818431e+000 -1.750242e+000 8.545909e-001 -5.587493e-002 1.682273e+000 -1.372247e+000 2.834949e+000 3.299587e+000 -4.714558e+000 1.268445e+000 -4.915567e+000 -4.028170e+000 -3.958517e+000 -1.557757e+000 -4.154687e+000 -2.136956e+000 -3.582142e+000 2.909117e+000 8.383610e-001 -2.222832e+000 6.703730e-001 5.319645e-001 2.499559e+000 3.217005e+000 2.808265e+000 3.685880e+000 2.261533e+000 1.222403e+000 -2.007334e+000 -1.248562e+000 -3.370364e+000
<VARIANCE> 39
 3.905322e-001 4.415009e-001 5.509264e-001 3.073322e-001 1.352735e+000 1.516721e-001 3.596355e+000 6.711726e-001 1.871311e-001 5.164467e-001 4.975977e+000 8.262706e-001 1.334813e-001 5.307148e+000 5.560923e-001 2.556751e-001 2.318102e-001 5.853269e+000 7.477257e-001 2.221531e+000 3.613619e+000 5.680400e-001 1.201843e+000 1.294091e+000 3.364199e-001 2.407883e+000 7.987944e-001 1.336981e+000 9.249806e-001 2.356686e+000 2.134273e+000 1.237428e+000 5.173960e+000 2.341248e+000 3.962262e-001 3.291797e+000 8.857397e+000 2.537750e+000 1.213854e+000
<GCONST> 7.386765e+001
<MIXTURE> 8 1.695998e-002
<MEAN> 39
 -4.558181e-001 1.740736e+000 3.484843e+000 -1.580054e+000 -1.492401e+000 -1.354212e+000 -2.985763e+000 -3.687324e+000 5.570959e-002 -7.749059e-001 -2.952074e+000 1.912070e+000 1.478131e+000 -4.126339e-001 -1.080217e+000 2.276168e+000 -3.141814e+000 -1.823164e+000 -1.702741e+000 2.182851e-001 -1.208563e+000 -1.178515e-001 1.609234e+000 -1.817890e+000 2.002001e+000 1.717086e+000 -1.373392e-001 -2.586676e+000 -3.972208e+000 1.438203e+000 2.011348e+000 1.371884e+000 2.211208e+000 3.770943e+000 -1.272420e+000 3.164168e+000 2.597702e+000 -1.158178e+000 -2.172146e+000
<VARIANCE> 39
 1.071161e-001 1.309610e+000 1.705690e-001 5.364819e-001 2.931182e-001 1.051437e+000 1.121236e+000 7.214173e-001 1.640683e+000 1.566247e+000 3.779185e-001 2.005348e+000 8.751518e-002 4.227370e-001 4.580607e+000 3.665351e+000 1.896275e+000 3.886836e+000 5.709058e+000 2.167028e+000 5.855584e+000 4.056526e+000 5.986401e+000 4.106431e+000 1.725899e+000 9.374171e-001 8.685888e-001 4.615456e+000 4.982023e-001 1.615540e+000 2.690125e+000 3.049025e+000 2.848930e+000 1.461285e+000 1.197319e+000 1.776789e+000 1.216798e+000 1.246460e+000 9.134197e-001
<GCONST> 8.326974e+001
<MIXTURE> 9 9.400138e-002
<MEAN> 39
 -8.487916e-001 2.489418e+000 1.380163e+000 -1.059644e+000 6.632213e-002 -9.333363e-001 -2.089133e+000 -1.877060e+000 -2.052164e+000 -2.646993e+000 -1.852707e+000 -1.456612e+000 1.529383e+000 -5.908120e-001 -2.921081e-001 9.638218e-001 -8.860946e-001 -8.039182e-001 -5.977110e-001 2.393170e-001 -5.522143e-001 2.883800e-001 4.653848e-001 3.202859e-001 2.281269e-001 3.009324e-001 1.995520e-001 -9.835786e-001 1.257024e-001 -1.517548e-001 -1.259370e+000 -6.834195e-001 4.873348e-001 7.162966e-002 8.869581e-001 7.920786e-001 5.354682e-001 -1.756941e-001 -6.419941e-002
<VARIANCE> 39
 7.329999e-002 6.216546e-001 1.041768e+000 4.135128e-001 4.524515e-001 7.018778e-001 1.000978e+000 8.986584e-001 1.803470e+000 6.650795e-001 1.723257e+000 1.488894e+000 8.698617e-002 3.926322e-001 2.094557e+000 2.667800e+000 4.044112e+000 3.011155e+000 2.691985e+000 2.258628e+000 9.720833e-001 4.323251e+000 1.929589e+000 2.421739e+000 1.703867e+000 7.681695e-002 6.499480e-001 1.945356e+000 2.115343e+000 3.204560e+000 1.848405e+000 2.741989e+000 2.753539e+000 1.805623e+000 3.156897e+000 2.175885e+000 2.656031e+000 2.651373e+000 2.204279e-001
<GCONST> 7.895195e+001
<MIXTURE> 10 1.154105e-001
<MEAN> 39
 8.501772e-002 2.333885e+000 2.252425e+000 -8.708596e-002 -3.822491e-001 -8.426751e-001 -1.013341e+000 -1.466941e+000 -5.534484e-001 -9.669151e-001 -8.478369e-001 -1.038898e+000 1.197778e+000 -1.992384e-001 -3.547548e-001 3.097097e-002 -5.006616e-001 -8.883099e-001 -5.599027e-001 8.781081e-002 -3.319929e-001 -6.866037e-002 2.190159e-001 6.840480e-002 -4.578196e-002 7.261810e-001 3.185334e-001 -8.802109e-001 -7.615696e-001 -2.467776e-001 -4.700410e-001 8.642346e-002 -2.296104e-001 1.955236e-002 -1.966913e-001 4.019125e-001 7.285889e-001 2.774558e-001 8.703653e-002
<VARIANCE> 39
 1.649990e+000 3.572443e-001 7.018410e-001 1.230882e+000 6.955932e-001 3.956429e-001 1.105416e+000 9.722997e-001 1.126775e+000 2.354067e+000 7.581779e-001 6.865172e-001 9.327086e-002 5.548968e-001 6.605759e-001 1.331854e+000 1.034026e+000 1.638218e+000 5.369180e-001 4.592810e-001 1.373741e+000 1.270878e+000 1.812574e+000 1.698962e+000 1.593912e+000 2.170190e-001 4.234423e-001 5.672457e-001 8.906507e-001 1.192358e+000 1.571370e+000 7.447625e-001 5.373451e-001 2.440581e+000 1.450878e+000 2.132467e+000 1.031292e+000 9.303377e-001 5.287447e-001
<GCONST> 6.627798e+001
<MIXTURE> 11 3.390463e-002
<MEAN> 39
 2.886427e-001 -8.431426e-001 2.813483e+000 -2.356777e+000 -1.929162e+000 -2.913897e+000 -3.478233e+000 -6.156069e-001 -3.372680e+000 1.353081e+000 -1.823796e+000 -4.347361e-001 2.338805e+000 1.664370e-001 -1.905288e+000 2.044923e-001 -9.123158e-001 -3.978726e-001 7.751982e-002 -4.403439e-001 1.661180e-001 -1.044657e+000 2.273119e-001 -9.087781e-001 -2.574736e-001 1.801571e+000 3.087428e-001 1.265520e-001 -1.119327e+000 9.497104e-001 6.475798e-002 9.745509e-001 1.158866e+000 9.045996e-002 1.769841e+000 -1.665401e+000 1.993192e-001 -2.547464e-001 -5.447361e-001
<VARIANCE> 39
 9.919972e-001 3.177656e-001 2.673903e-001 1.988386e-001 2.673261e-001 1.603382e+000 4.765459e-001 1.115125e+000 6.994497e-001 3.759877e+000 1.652143e+000 4.505004e+000 3.047962e-001 7.219381e-001 2.650736e+000 2.917309e+000 1.943534e+000 5.135452e-001 1.340642e+000 2.930803e+000 2.086326e+000 3.129597e+000 8.199993e+000 3.464548e+000 1.106942e+000 5.913101e-001 8.043063e-001 1.162966e+000 1.067769e+000 3.361581e+000 1.886799e+000 1.815914e+000 1.573068e+000 8.003272e-001 1.368381e+000 5.097908e+000 2.473686e+000 1.062686e+000 7.231572e-001
<GCONST> 8.103831e+001
<MIXTURE> 12 1.051201e-001
<MEAN> 39
 9.107133e-001 1.678208e+000 -3.943061e-001 -1.800742e-001 -4.584648e-001 -1.207012e+000 -1.249314e+000 -1.531713e+000 -1.345060e+000 -1.562781e+000 -9.488953e-001 -4.134297e-001 8.915129e-001 9.125552e-002 2.085125e-001 2.097540e-001 -1.498426e-001 -1.602369e-001 -4.075169e-002 -1.179114e-002 -9.162962e-004 1.199564e-001 -1.183860e-002 -1.411128e-001 -1.883135e-002 2.771972e-001 -1.985535e-001 -9.375598e-002 9.273416e-002 -7.852171e-002 -1.586774e-001 1.506362e-002 8.686423e-002 2.023729e-001 7.296687e-002 1.108646e-001 9.936757e-002 1.052806e-001 1.332479e-002
<VARIANCE> 39
 1.370992e-001 3.026533e-001 1.084694e+000 1.038909e-001 2.350777e-001 2.063349e-001 5.248210e-001 2.193491e-001 3.624998e-001 4.524145e-001 2.432127e-001 2.234138e-001 4.000107e-002 3.923081e-001 7.707219e-001 1.089480e+000 3.668472e-001 1.215162e+000 6.354254e-001 5.996036e-001 8.307879e-001 4.108826e-001 7.154294e-001 4.419436e-001 5.519519e-001 1.711950e-001 7.542733e-001 8.982357e-001 9.066461e-001 5.258042e-001 1.328276e+000 6.771280e-001 6.387308e-001 1.087272e+000 5.113707e-001 8.134995e-001 6.071905e-001 5.016739e-001 3.730240e-001
<GCONST> 4.106320e+001
<MIXTURE> 13 9.174722e-002
<MEAN> 39
 1.201371e+000 1.580585e+000 2.796762e+000 -9.562901e-001 -1.235610e+000 -2.772765e-001 -1.289359e+000 -7.510113e-001 -1.157062e+000 -1.358871e+000 4.076429e-001 -8.876215e-001 1.946139e+000 8.338858e-001 -1.279663e+000 2.861764e+000 -1.149551e+000 -2.826332e+000 -1.207713e+000 -1.350849e+000 -2.109560e-001 -1.268198e+000 -1.332150e-001 2.805845e-001 -7.511839e-001 2.571766e+000 -1.515643e+000 -1.875033e+000 -2.762431e+000 6.560348e-001 1.460946e+000 5.101317e-001 7.531101e-001 6.918865e-001 4.524783e-001 9.934958e-001 -2.853720e-001 8.274202e-001 -2.667292e+000
<VARIANCE> 39
 7.935796e-001 1.828467e+000 5.000685e-001 1.080919e+000 6.371499e-001 1.280694e+000 3.239828e+000 1.782972e+000 8.425533e-001 2.124874e+000 1.041218e+000 1.556510e+000 1.682689e-001 1.653210e+000 2.928752e+000 3.806289e+000 4.039657e+000 2.872777e+000 2.700334e+000 3.231495e+000 3.024482e+000 1.742477e+000 2.957936e+000 1.699811e+000 1.705706e+000 1.495465e+000 2.510098e+000 2.529730e+000 3.090555e+000 2.165608e+000 1.898810e+000 1.774539e+000 3.419780e+000 2.255494e+000 6.339017e-001 1.577284e+000 7.937628e-001 1.616137e+000 1.996300e+000
<GCONST> 9.196037e+001
<MIXTURE> 14 8.332201e-002
<MEAN> 39
 8.867907e-001 2.036198e+000 1.588268e+000 -5.564753e-001 -9.235162e-001 -3.794896e-001 -2.470896e+000 -1.744215e+000 -9.474661e-001 -4.904981e-001 -4.531514e-002 -3.554594e-001 1.572595e+000 -5.049757e-002 -1.064201e+000 2.430416e-001 -1.147243e+000 -8.794709e-001 2.545927e-001 1.316142e-001 5.841343e-001 -1.523581e-001 5.629695e-001 5.295771e-001 2.091189e-001 6.939394e-001 -1.083061e+000 -1.122638e+000 -6.746666e-001 3.881611e-001 5.993738e-001 -9.057135e-003 1.854375e+000 1.164311e+000 -7.707378e-002 -1.150108e-001 -4.694572e-001 -1.146408e-001 -9.532776e-001
<VARIANCE> 39
 1.102919e+000 9.360141e-001 3.530880e-001 6.496587e-001 6.272032e-001 2.460748e+000 1.176628e+000 1.180510e+000 5.260382e-001 4.881804e-001 1.922466e+000 2.405057e+000 2.509676e-001 5.500627e-001 1.647730e+000 2.537249e+000 1.651451e+000 8.693711e-001 7.720131e-001 1.229196e+000 1.339326e+000 1.998573e+000 1.225417e+000 1.636910e+000 1.159370e+000 3.896633e-001 7.306162e-001 1.156733e+000 1.205307e+000 1.750462e+000 1.548487e+000 1.228544e+000 8.975589e-001 1.139875e+000 1.319674e+000 7.018828e-001 2.204381e+000 1.687364e+000 7.560099e-001
<GCONST> 7.401832e+001
<MIXTURE> 15 1.209185e-002
<MEAN> 39
 1.182209e+000 3.281164e-001 2.502208e+000 -1.087773e+000 2.149521e-001 -1.925257e+000 -2.410939e+000 -1.516391e+000 -3.310421e+000 -4.637483e-001 -3.620647e+000 -1.927067e+000 2.194338e+000 5.108323e-001 -3.758569e-001 4.178242e+000 -3.228692e+000 -1.355864e+000 -2.794840e+000 -2.404548e-001 3.710625e-001 -1.199050e+000 3.452770e+000 -3.415652e+000 -1.877381e+000 2.376979e+000 -2.096513e+000 -3.572933e-001 -3.280445e+000 1.140600e+000 -5.816729e-001 1.057068e+000 3.431094e+000 1.864610e+000 3.772064e+000 1.896730e+000 3.125037e+000 1.272144e+000 -3.762351e+000
<VARIANCE> 39
 9.525264e-001 9.704689e-001 6.218109e-001 2.957480e-001 3.238836e+000 1.220451e+000 4.355573e-001 1.206069e+000 8.640719e-001 2.435514e+000 1.029274e+000 1.488602e+000 1.636726e-001 6.743236e+000 1.442282e+000 2.195325e+000 1.606374e+000 5.964261e-001 3.945199e+000 4.531080e+000 6.626659e+000 6.255364e+000 4.222561e+000 4.535344e+000 1.312483e+000 1.822387e+000 3.264402e+000 2.216064e+000 1.335363e+000 1.886141e+000 5.300035e+000 9.797683e-001 3.603824e+000 2.015193e+000 6.185033e+000 2.182588e+000 1.675252e+000 1.951455e+000 1.389416e+000
<GCONST> 9.409602e+001
<STATE> 3
<NUMMIXES> 15
<MIXTURE> 1 8.167611e-002
<MEAN> 39
 -7.570162e-002 4.217981e-001 1.079035e+000 1.796946e-001 8.463114e-001 1.510490e+000 1.716262e+000 1.777717e+000 5.426975e-001 -3.121693e-003 -1.662971e+000 -2.036207e+000 1.241964e+000 -2.428055e-001 -2.275666e-001 -1.247873e-001 -1.033220e-001 1.970039e-001 -1.747327e-002 -1.196779e-001 1.609344e-001 -3.511136e-001 1.630832e-001 7.542244e-002 1.085570e-001 -1.730914e-001 -1.362448e-001 1.046765e-001 -7.215261e-002 -3.154750e-001 -1.609794e-001 4.957207e-002 -1.323233e-001 2.208507e-002 4.371737e-002 6.527956e-002 2.437011e-001 3.155656e-001 -1.105268e-001
<VARIANCE> 39
 7.234740e-002 2.417706e-001 5.652522e-001 2.543214e+000 7.104825e-001 1.906400e-001 2.742947e-001 1.017229e+000 2.296475e+000 5.191541e-001 6.187769e-001 6.525701e-001 3.584835e-002 5.613561e-001 8.582342e-001 1.202385e+000 2.868603e+000 1.230507e+000 5.216132e-001 2.067770e+000 1.439442e+000 1.659586e+000 1.219381e+000 1.765563e+000 2.409672e+000 2.314456e-001 2.449333e-001 2.128617e+000 1.626487e+000 2.210312e+000 1.514867e+000 6.839954e-001 2.554350e+000 1.072010e+000 1.965386e+000 1.524392e+000 1.999165e+000 2.579167e+000 1.285548e-001
<GCONST> 6.486081e+001
<MIXTURE> 2 5.855941e-002
<MEAN> 39
 1.657204e+000 3.506707e-001 2.193249e+000 -3.983316e-001 -2.836074e+000 -1.199825e+000 -1.031816e+000 6.686167e-001 -1.566808e+000 -7.655361e-001 1.996640e+000 -9.503416e-001 2.384134e+000 2.356737e-001 -9.171071e-001 -6.913043e-001 -1.801041e-002 -2.669404e-002 -1.220707e+000 5.780545e-001 7.912200e-001 -2.461889e-002 3.056101e-001 1.469555e-001 -2.697977e-001 8.409926e-002 -3.357483e-001 4.566853e-001 -7.850037e-002 -2.875523e-001 1.260680e+000 4.705400e-001 -2.810576e-002 -4.254850e-001 6.526238e-001 -3.335378e-002 -4.055086e-001 -1.638005e-001 -4.811239e-001
<VARIANCE> 39
 9.025655e-001 3.365687e-001 1.973334e-001 1.143715e+000 9.892299e-002 5.603295e-001 7.915925e-001 1.273706e+000 1.531275e+000 2.656963e+000 1.718255e-001 6.829236e-001 6.609248e-002 2.545059e-001 7.303780e-001 2.096016e-001 7.610443e-001 1.100827e+000 1.341269e+000 6.184558e-001 8.803184e-001 1.029251e+000 8.280226e-001 7.618898e-001 6.538453e-001 1.087205e-001 3.026347e-001 3.666018e-001 6.700048e-001 8.031292e-001 2.554778e-001 1.149305e+000 7.961933e-001 1.193119e+000 5.705145e-001 1.018968e+000 3.364145e-001 3.995369e-001 1.063703e-001
<GCONST> 4.695907e+001
<MIXTURE> 3 8.017444e-002
<MEAN> 39
 1.337287e+000 -2.745383e+000 2.101233e+000 -2.522727e+000 -1.913770e+000 -2.192004e+000 -4.187719e-001 2.085325e+000 -1.666089e+000 2.278615e+000 2.603644e-001 2.879021e-001 2.637240e+000 3.341431e-001 -1.055308e-001 -1.997054e-001 1.315987e-001 2.275437e-001 -3.364369e-001 6.551260e-001 1.023844e-001 3.525375e-002 1.278085e-001 -4.076931e-001 8.598483e-002 -2.758036e-001 -9.396783e-002 1.057675e+000 4.410998e-001 6.080322e-001 -5.050573e-003 4.882001e-001 -4.585817e-001 -6.903328e-001 -1.631358e-001 -2.897950e-001 3.506071e-002 -3.788300e-001 -3.809897e-001
<VARIANCE> 39
 6.756439e-001 5.699449e-001 1.055592e-001 3.553661e-001 2.864265e-001 1.749683e-001 1.998606e+000 5.727305e-001 6.124137e-001 9.994147e-001 9.348439e-001 2.812957e+000 1.325599e-001 2.384132e-001 2.062141e+000 7.262106e-001 6.168364e-001 3.761670e-001 3.730321e-001 9.434590e-001 4.648519e-001 5.247081e-001 5.737234e-001 4.347554e-001 3.994189e-001 2.340089e-001 5.118400e-001 2.073908e+000 4.135336e-001 8.712125e-001 7.828821e-001 1.747143e-001 5.863748e-001 4.350115e-001 3.573060e-001 6.372357e-001 5.694100e-001 5.109270e-001 9.421831e-002
<GCONST> 4.493859e+001
<MIXTURE> 4 9.035493e-002
<MEAN> 39
 6.364722e-001 1.124885e+000 2.178066e+000 -6.818604e-001 -1.230379e+000 -1.730867e-001 -1.758704e+000 -8.682939e-001 -1.796172e+000 -1.720261e+000 3.604412e-001 -5.958573e-001 1.850173e+000 3.182195e-001 -1.602362e+000 -1.733264e-001 -1.788210e-001 -1.231279e+000 -1.175611e+000 4.119046e-001 7.632295e-001 -6.491045e-001 6.731543e-001 3.922884e-001 9.705848e-001 5.922790e-001 5.219190e-001 -5.469962e-001 -6.517637e-001 3.242794e-001 -1.279471e-001 -4.076106e-001 1.992864e-001 1.782455e-001 4.143456e-001 8.103209e-001 5.128607e-001 2.088685e-001 -1.196656e-001
<VARIANCE> 39
 7.924808e-001 1.362633e+000 1.219080e-001 9.761853e-001 3.046260e-001 9.503278e-001 1.240210e+000 7.303773e-001 2.966992e-001 6.773568e-001 1.620852e+000 1.235804e+000 2.602034e-001 3.331853e-001 8.100804e-001 8.998944e-001 1.042453e+000 7.835811e-001 1.576112e+000 7.527605e-001 9.428831e-001 8.588235e-001 2.155314e+000 1.198296e+000 6.928644e-001 1.239127e-001 1.877392e-001 8.866690e-001 8.875340e-001 8.579265e-001 1.205668e+000 6.985233e-001 8.697136e-001 9.160874e-001 9.799650e-001 8.634958e-001 7.916548e-001 1.228957e+000 1.220747e-001
<GCONST> 5.810480e+001
<MIXTURE> 5 6.913123e-002
<MEAN> 39
 -7.481880e-001 7.132740e-001 2.150344e+000 -2.516421e+000 -4.672261e-002 -2.659915e+000 -9.882283e-001 -2.306223e+000 6.946816e-001 -1.929479e+000 -1.298043e+000 -1.550855e+000 2.068891e+000 -1.111695e-001 -2.310305e+000 -1.357673e+000 -7.781231e-001 -1.789110e+000 2.605697e-001 2.041171e+000 1.240517e+000 1.646609e+000 8.743280e-001 -3.494794e-001 -9.738131e-001 6.590552e-001 6.337806e-001 1.310198e-001 -9.899629e-001 1.151605e+000 -3.546906e-002 6.640489e-001 3.958580e-001 6.522992e-001 -3.206411e-001 4.107885e-001 1.544445e-001 -6.079796e-001 2.843572e-001
<VARIANCE> 39
 1.860091e+000 1.528065e+000 5.884696e-001 1.037448e-001 3.712414e+000 3.254856e-001 2.845388e+000 4.397007e-001 9.178605e-001 7.941194e-001 1.013920e+000 5.331061e-001 5.670645e-002 2.220164e-001 3.370527e-001 3.258085e-001 1.056655e+000 1.740168e+000 9.104016e-001 1.587949e+000 1.340264e+000 1.942527e+000 1.310016e+000 1.774151e+000 2.158572e+000 2.739233e-001 1.973860e-001 7.442380e-001 9.353741e-001 6.833739e-001 2.164310e+000 1.124430e+000 1.862255e+000 1.489284e+000 2.345248e+000 2.078410e+000 1.412218e+000 1.307406e+000 3.999633e-001
<GCONST> 6.590099e+001
<MIXTURE> 6 9.120008e-002
<MEAN> 39
 -5.568222e-001 -7.733986e-001 1.232192e+000 -1.536465e+000 -2.443217e+000 -2.425543e+000 8.210135e-001 -1.240724e+000 4.901371e-001 3.227861e-001 -2.340054e-001 -8.767474e-001 1.930922e+000 2.290253e-002 -7.678039e-001 -5.654635e-001 1.620295e-001 9.556721e-002 4.006421e-001 7.222928e-001 3.169752e-001 1.603928e-001 1.619041e-001 7.086629e-002 6.297000e-001 1.377058e-001 -1.506942e-001 1.040601e+000 7.284432e-001 5.651796e-001 9.884913e-001 8.895524e-001 -8.214240e-001 -3.429644e-001 -9.020039e-001 -9.657468e-001 -6.851394e-001 1.261490e-001 -3.668166e-001
<VARIANCE> 39
 7.090405e-001 4.819307e-001 1.003703e+000 3.136771e+000 3.794942e-001 1.590977e-001 1.542154e+000 3.321269e-001 2.213752e+000 2.067258e+000 2.147269e+000 3.182090e+000 1.032196e-001 1.535995e-001 1.179717e+000 1.106907e+000 7.403712e-001 8.642283e-001 1.251983e+000 3.131990e+000 1.628013e+000 2.106416e+000 2.215150e+000 2.468289e+000 2.410744e+000 2.422358e-001 1.901143e-001 6.832443e-001 5.290897e-001 1.420850e+000 1.261104e+000 6.990457e-001 1.785877e+000 7.682853e-001 1.510466e+000 1.983907e+000 2.048608e+000 2.861439e+000 3.952743e-001
<GCONST> 7.095411e+001
<MIXTURE> 7 1.370141e-001
<MEAN> 39
