~o
<STREAMINFO> 1 39
<VECSIZE> 39<NULLD><MFCC_E_D_A_Z><DIAGC>
~h "eight"
<BEGINHMM>
<NUMSTATES> 8
<STATE> 2
<NUMMIXES> 16
<MIXTURE> 1 7.989317e-002
<MEAN> 39
 1.724517e-001 -1.807331e+000 -8.670065e-001 7.081457e-001 7.600409e-001 -1.317452e-001 1.218116e+000 -1.142753e-001 -1.584603e-001 -1.413309e+000 -9.086656e-001 2.242863e-001 8.024153e-001 1.792444e+000 1.400807e+000 1.269763e+000 2.542700e-001 6.268848e-001 1.081638e-001 4.000972e-001 2.364611e-001 6.884233e-001 3.306866e-001 -3.457957e-001 -7.867236e-001 2.293162e+000 1.474858e+000 2.166163e-001 4.566499e-001 -1.165751e+000 -7.745060e-001 -4.705476e-001 -9.235510e-001 1.131353e-002 7.426937e-002 5.165016e-001 -3.728400e-002 -8.643833e-001 1.482415e+000
<VARIANCE> 39
 4.688511e-001 3.766274e-001 7.698899e-001 1.178847e+000 1.316214e+000 2.167504e+000 1.983253e+000 1.727531e+000 2.072941e+000 1.158975e+000 1.284570e+000 2.055733e+000 3.707620e-001 8.878776e-001 1.277028e+000 1.730782e+000 2.232270e+000 2.013777e+000 1.923504e+000 2.916782e+000 1.816823e+000 1.668592e+000 8.565655e-001 1.408739e+000 2.203790e+000 2.180938e+000 1.042923e+000 2.175366e+000 2.140197e+000 9.670736e-001 2.366496e+000 2.607615e+000 1.845907e+000 2.112528e+000 2.748856e+000 1.159223e+000 1.832591e+000 1.770878e+000 1.570906e+000
<GCONST> 8.726527e+001
<MIXTURE> 2 1.012257e-001
<MEAN> 39
 5.232384e-001 -1.458357e+000 -9.498327e-001 -1.576658e-001 1.680752e-001 -1.221703e+000 -9.193415e-001 -1.695685e+000 -1.302679e+000 -1.548421e+000 -1.517334e+000 -1.242948e+000 1.428568e+000 1.896184e+000 -9.358004e-001 -1.915924e+000 -1.187784e+000 -9.977340e-001 -1.080323e+000 -2.796235e-001 -7.958207e-001 -1.293347e+000 -8.305283e-001 -1.169112e+000 -8.845827e-001 2.193404e+000 -1.305579e+000 -1.286464e+000 -9.921470e-002 2.212638e-001 6.498345e-001 9.280732e-001 1.349472e+000 1.457776e+000 8.895565e-001 1.384410e+000 1.182127e+000 1.119139e+000 -9.564347e-001
<VARIANCE> 39
 1.113725e+000 4.953252e-001 1.294022e+000 1.739678e+000 2.742706e+000 1.123676e+000 2.550462e+000 1.459630e+000 1.785705e+000 1.382531e+000 9.214811e-001 9.120298e-001 3.221522e-001 1.605066e+000 2.367054e+000 2.671023e+000 3.164809e+000 2.969218e+000 2.407449e+000 2.658981e+000 2.343329e+000 2.982593e+000 3.320282e+000 3.018622e+000 2.344982e+000 1.322749e+000 1.917717e+000 2.012848e+000 2.693792e+000 2.269148e+000 3.133612e+000 1.885765e+000 1.620868e+000 1.617713e+000 1.769915e+000 1.695471e+000 1.830958e+000 1.272506e+000 2.197691e+000
<GCONST> 9.436002e+001
<MIXTURE> 3 9.608705e-002
<MEAN> 39
 -2.839373e-001 -2.430305e+000 -1.293751e+000 -9.261350e-001 4.212606e-001 -3.777508e-001 4.640417e-002 3.128708e-002 -1.117585e+000 -1.091186e+000 -9.606183e-001 5.151708e-001 6.138914e-001 -1.163178e-001 -5.933565e-001 -1.818247e-001 -1.419899e-001 4.166832e-001 -8.271934e-002 5.073752e-001 -2.823406e-001 -8.619791e-001 -7.828102e-001 -6.668193e-001 -6.168225e-002 1.548375e+000 1.010051e+000 2.181863e+000 1.180805e+000 1.454086e+000 2.190576e-001 1.298456e-001 6.413161e-002 3.953097e-002 6.789592e-001 4.554719e-001 2.337904e-001 -8.471243e-001 -2.759031e-001
<VARIANCE> 39
 4.482976e-001 2.871072e-001 6.831287e-001 5.865628e-001 2.106584e+000 1.923789e+000 1.945566e+000 2.300457e+000 3.760863e+000 1.329043e+000 2.757193e+000 1.754259e+000 1.060113e-001 4.378689e-001 2.231728e+000 1.643975e+000 1.981711e+000 1.682211e+000 2.874435e+000 2.453548e+000 1.709410e+000 2.465114e+000 1.662916e+000 2.836578e+000 2.731881e+000 1.103374e+000 1.572528e+000 1.242671e+000 2.646372e+000 1.795075e+000 2.587272e+000 2.743893e+000 1.709116e+000 1.788293e+000 2.837302e+000 1.752659e+000 4.349532e+000 2.602985e+000 2.984687e+000
<GCONST> 9.070568e+001
<MIXTURE> 4 6.604467e-002
<MEAN> 39
 1.113775e+000 -2.024714e+000 -1.498771e+000 1.357097e+000 1.240036e+000 -1.761633e+000 2.451118e+000 -5.057924e-001 -5.197674e-001 -1.092251e+000 -5.075331e-001 -2.201423e+000 2.026414e+000 1.612206e-001 5.658869e-002 -1.638098e-001 9.779907e-002 -4.377803e-001 -8.367022e-002 4.993550e-002 3.083494e-001 2.549306e-001 -3.081103e-002 -1.839552e-001 1.188041e-003 3.284651e-001 -4.510771e-001 4.921941e-001 4.427498e-001 -7.072897e-002 1.620743e-001 1.330304e-001 -3.847394e-001 1.087693e-001 1.460525e-002 -8.941468e-002 7.131464e-002 5.561830e-001 -7.738850e-001
<VARIANCE> 39
 9.072999e-001 7.117098e-001 7.767404e-001 1.823097e+000 1.580253e+000 1.001783e-001 3.897653e-001 2.550665e+000 1.415242e+000 8.885573e-001 1.688818e+000 8.404707e-001 5.511431e-002 1.572387e-001 1.963791e+000 2.187891e+000 2.150429e+000 1.033943e+000 3.167963e-001 1.128597e+000 1.877314e+000 2.050244e+000 2.743360e+000 2.356834e+000 2.433709e+000 3.375396e-001 1.493279e+000 2.487457e+000 2.444697e+000 3.392064e+000 8.765963e-001 9.522281e-001 9.386690e-001 1.983284e+000 2.939930e+000 3.368630e+000 2.325149e+000 1.745161e+000 1.879243e+000
<GCONST> 7.800847e+001
<MIXTURE> 5 9.579986e-002
<MEAN> 39
 -5.712982e-001 -1.904439e+000 3.438018e-001 4.113628e-001 1.226286e+000 2.793718e-001 -9.338159e-003 -7.974859e-002 -1.558339e-001 -2.587568e-001 4.769416e-001 4.466572e-001 7.348044e-001 1.802638e+000 6.189796e-001 -6.218808e-001 -4.715132e-001 -5.398375e-001 -9.024450e-001 -1.132696e+000 -1.797170e+000 -1.588561e+000 -1.917777e+000 -1.766229e+000 -1.347722e+000 1.816674e+000 1.992367e+000 3.595702e-001 -1.308734e+000 -1.323189e+000 -1.495634e+000 -1.058471e+000 -4.781504e-001 -5.896588e-001 -8.577192e-001 -8.263359e-001 -1.437017e+000 -1.213323e+000 1.366820e+000
<VARIANCE> 39
 8.249689e-001 6.270480e-001 2.351666e+000 1.372136e+000 1.639016e+000 1.305721e+000 1.527584e+000 1.252561e+000 1.373541e+000 1.457950e+000 1.926793e+000 1.652793e+000 3.285873e-001 1.614428e+000 1.456101e+000 2.153347e+000 2.314957e+000 3.226603e+000 2.185834e+000 2.271075e+000 1.556335e+000 1.986543e+000 2.032100e+000 2.330686e+000 2.262060e+000 2.072186e+000 1.889943e+000 2.699897e+000 2.067797e+000 2.513463e+000 1.116192e+000 2.047053e+000 1.976922e+000 2.053995e+000 1.675627e+000 2.263832e+000 2.455202e+000 2.294751e+000 1.469817e+000
<GCONST> 9.275554e+001
<MIXTURE> 6 8.334035e-002
<MEAN> 39
 -1.050177e+000 -3.557081e-003 1.165037e+000 -1.151514e+000 -1.541344e+000 -1.586944e+000 -3.277999e-001 1.499040e+000 -3.882920e-001 -1.068256e+000 1.042340e+000 2.902853e-001 1.095391e+000 -4.897616e-001 5.233721e-001 9.356673e-001 -2.283257e-001 3.090567e-001 6.787997e-001 -3.130561e-001 1.092857e-001 5.179784e-002 3.909343e-001 7.192695e-001 1.791740e-001 6.328566e-001 1.964698e-001 -2.606331e-001 -3.399298e-001 3.774081e-001 7.016796e-001 6.240702e-001 3.246750e-001 -3.975017e-001 -2.833263e-001 1.549191e-002 -1.816957e-001 -3.372862e-001 -3.455542e-002
<VARIANCE> 39
 9.613971e-001 2.096593e+000 1.718502e+000 2.913422e+000 1.915929e+000 1.509312e+000 2.068156e+000 1.964597e+000 1.101218e+000 2.125202e+000 1.294324e+000 2.632803e+000 3.276093e-001 3.532008e+000 2.946876e+000 1.923353e+000 4.931220e+000 4.410256e+000 5.389382e+000 3.499087e+000 3.022581e+000 1.877646e+000 1.723931e+000 2.198965e+000 3.552363e+000 1.990337e+000 3.679527e+000 2.293587e+000 1.379739e+000 3.366505e+000 4.438389e+000 6.249743e+000 3.661108e+000 2.742368e+000 2.714985e+000 3.836018e+000 2.697064e+000 3.764933e+000 2.536289e+000
<GCONST> 1.063408e+002
<MIXTURE> 8 5.696275e-002
<MEAN> 39
 1.550074e+000 -3.286720e+000 -2.463326e+000 -1.299369e-001 -1.906179e+000 -1.288312e-001 -1.623724e+000 -6.855421e-001 -2.284946e+000 -2.233091e+000 -1.363701e+000 -1.216845e+000 2.850365e+000 -9.803686e-002 -1.571198e-001 2.121840e-001 -2.685367e-001 -1.893779e-001 4.305025e-001 1.968083e-001 -7.907949e-002 1.345967e-001 -5.697984e-001 1.125563e-001 2.798676e-001 1.693965e-001 -2.231090e-001 8.636451e-001 8.022074e-001 -1.811309e-001 3.562647e-001 -4.985594e-001 5.039092e-002 2.483351e-001 -1.393284e-001 7.874189e-002 3.382531e-002 1.229882e-001 -3.804680e-001
<VARIANCE> 39
 2.216984e-001 2.602576e-001 1.758893e+000 1.709817e+000 1.198514e+000 2.075070e+000 2.314161e+000 2.610837e+000 3.269358e-001 3.213209e-001 6.313040e-001 1.318766e+000 4.493462e-002 2.818782e-001 2.149642e+000 1.700583e+000 1.090244e+000 6.789227e-001 1.145937e+000 8.856115e-001 1.181853e+000 1.260228e+000 7.928326e-001 8.117987e-001 8.133927e-001 2.844442e-001 5.851145e-001 1.025299e+000 1.258612e+000 1.054001e+000 6.494560e-001 1.357982e+000 6.282316e-001 1.180199e+000 1.468780e+000 1.181604e+000 5.392254e-001 6.588309e-001 2.087112e-001
<GCONST> 6.263074e+001
<MIXTURE> 9 5.165800e-002
<MEAN> 39
 -2.452798e-001 -1.195515e+000 2.439524e-001 3.330778e-001 8.723450e-001 3.460267e-001 7.159370e-001 1.464579e+000 9.180938e-002 -8.497741e-001 4.805113e-001 1.168267e+000 1.308336e-002 -7.281011e-001 -2.592799e+000 -2.644001e-001 -1.404528e+000 3.525766e-001 2.971980e-001 4.026944e-001 3.689348e-001 -1.387589e-001 -5.641735e-001 2.770679e-002 -3.202778e-001 1.253539e+000 4.215436e-001 1.069079e+000 -9.172010e-001 -2.309473e-001 -7.554329e-001 1.378381e-001 -3.508182e-001 -1.340769e+000 4.383009e-001 1.134444e+000 -2.759813e-002 -7.325087e-001 3.435309e-001
<VARIANCE> 39
 2.257271e-001 4.226510e-001 1.012218e+000 6.837342e-001 7.693195e-001 1.542343e+000 1.662895e+000 7.726331e-001 4.237291e-001 4.274563e-001 1.429014e+000 8.785781e-001 8.577550e-002 5.698199e-001 2.093875e+000 1.720403e+000 1.242232e+000 1.123409e+000 1.454265e+000 1.467290e+000 8.622152e-001 1.976860e+000 2.863175e+000 2.080209e+000 1.183756e+000 1.615341e+000 1.862126e+000 2.244117e+000 1.031465e+000 1.602703e+000 1.056546e+000 1.754588e+000 2.398233e+000 1.324886e+000 1.000842e+000 1.987029e+000 1.594778e+000 1.230053e+000 2.854941e+000
<GCONST> 7.633672e+001
<MIXTURE> 10 4.139031e-002
<MEAN> 39
 1.620781e+000 -2.124643e+000 1.513767e+000 9.247301e-002 6.330010e-001 -4.174239e-001 -1.922487e-001 1.397105e+000 -1.207032e+000 -5.020532e-001 2.081673e-001 -7.299024e-001 1.015584e+000 3.727357e-002 -2.715275e+000 2.065987e-001 -4.434964e-001 7.392442e-001 3.915649e-001 4.814499e-001 2.974470e-002 -1.084674e+000 -6.894652e-002 -2.740538e-001 9.850959e-002 2.657441e+000 -2.090367e+000 1.397024e+000 -2.243372e+000 2.093067e-001 -9.814574e-001 7.494741e-001 6.612880e-002 -1.373633e+000 6.903903e-001 1.436887e-001 1.338020e-001 3.733553e-001 -1.287269e+000
<VARIANCE> 39
 1.408448e+000 7.247535e-001 2.655145e-001 1.925951e+000 5.584236e-001 1.016835e+000 1.884301e+000 1.976288e+000 2.058411e+000 1.619294e+000 2.611287e+000 1.903086e+000 5.569888e-001 4.961551e+000 2.231495e+000 3.347335e+000 4.351294e+000 1.797626e+000 1.516833e+000 5.083876e+000 2.868032e+000 4.250648e+000 2.783908e+000 4.148128e+000 3.755443e+000 1.451847e+000 3.331492e+000 3.363893e+000 2.090518e+000 3.475756e+000 1.240321e+000 9.795877e-001 3.261150e+000 3.988507e+000 7.426445e+000 3.261527e+000 3.328243e+000 2.599620e+000 2.625669e+000
<GCONST> 1.018238e+002
<MIXTURE> 11 8.622782e-002
<MEAN> 39
 8.315375e-001 -1.727230e+000 -1.019416e+000 -7.611021e-001 1.989327e-001 -7.561624e-001 -3.306814e-001 -7.595225e-001 -6.821892e-001 -6.511942e-001 -1.409223e+000 -6.411783e-001 1.441134e+000 9.349336e-002 -1.047545e+000 -5.275356e-001 -7.560666e-001 -2.033945e-001 -1.199548e-001 -1.160947e-001 4.976405e-001 -4.837727e-001 9.920186e-002 -2.473194e-001 2.401554e-001 7.770251e-001 -8.264689e-001 7.479784e-001 5.899490e-001 1.027653e+000 1.645312e-001 5.052916e-001 4.068312e-001 -5.217161e-002 5.120839e-001 6.041515e-003 7.068735e-001 2.819894e-001 -1.195352e+000
<VARIANCE> 39
 3.140255e-001 4.509889e-001 7.357973e-001 9.474337e-001 1.003729e+000 9.981666e-001 1.664438e+000 1.467815e+000 1.877796e+000 9.760436e-001 6.185581e-001 1.601191e+000 1.889030e-001 2.987621e-001 8.904797e-001 5.838658e-001 1.253221e+000 8.782102e-001 7.001928e-001 1.583525e+000 8.720394e-001 5.330392e-001 6.732692e-001 7.432650e-001 1.193616e+000 2.041339e-001 8.337333e-001 2.300086e+000 7.484152e-001 7.517593e-001 1.229132e+000 9.531598e-001 1.385697e+000 8.481792e-001 8.529242e-001 4.822659e-001 7.286815e-001 9.448806e-001 3.913358e-001
<GCONST> 6.284931e+001
<MIXTURE> 12 1.590568e-001
<MEAN> 39
 -7.110828e-001 -1.362143e+000 -2.102332e-001 4.158973e-001 8.194665e-001 2.944075e-001 1.137697e+000 3.136264e-001 2.389007e-001 3.598044e-001 3.691602e-001 -7.574612e-003 4.078180e-001 -3.743625e-001 -7.389410e-001 -3.846942e-001 1.606636e-001 1.265627e-001 -2.530375e-001 -2.832221e-001 -2.907919e-001 -2.391559e-001 1.314374e-002 1.951049e-001 6.179682e-002 6.978714e-001 6.192418e-001 6.691495e-001 1.291934e-001 1.730924e-001 -1.293142e-001 -3.868743e-001 -4.073783e-001 -7.644195e-002 -2.638196e-001 -3.252503e-001 -7.165262e-002 2.527912e-001 -1.159197e-001
<VARIANCE> 39
 6.350797e-001 5.442362e-001 1.196353e+000 8.789445e-001 7.100931e-001 1.078016e+000 1.110587e+000 8.522353e-001 1.059830e+000 1.362370e+000 1.138904e+000 1.145126e+000 1.681176e-001 4.038484e-001 6.098832e-001 9.722940e-001 1.150753e+000 8.525975e-001 1.024032e+000 8.331846e-001 1.376894e+000 1.383584e+000 1.041290e+000 1.845931e+000 2.269020e+000 5.882827e-001 7.508107e-001 1.377658e+000 9.098032e-001 1.577631e+000 1.290637e+000 1.062616e+000 7.076554e-001 1.387789e+000 1.540874e+000 9.030448e-001 1.843347e+000 2.404757e+000 6.662481e-001
<GCONST> 7.127858e+001
<MIXTURE> 13 1.260243e-002
<MEAN> 39
 -2.361392e-001 -2.702106e+000 7.697231e-001 -9.938632e-001 1.328908e+000 -1.482016e-001 -8.838225e-001 1.069859e+000 -8.969339e-001 2.235520e+000 2.023280e+000 -7.882226e-001 1.044101e+000 6.835676e-001 -3.292691e+000 1.914414e+000 -9.707161e-001 2.950282e+000 -4.176443e-001 -2.729452e-001 1.397578e+000 -6.602330e-001 1.082734e+000 5.037240e-001 1.041232e+000 3.775722e+000 1.161103e+000 4.350578e+000 -1.556841e-001 1.571158e+000 -4.609076e-001 -1.598908e-001 4.282495e-001 -1.499358e+000 4.393089e-001 -2.561598e+000 -2.989398e+000 8.534986e-001 -2.403560e+000
<VARIANCE> 39
 1.238085e+000 7.971941e-001 1.351477e+000 3.294723e-001 2.295537e+000 1.155473e+000 2.273564e+000 2.182296e+000 6.205585e-001 5.710191e-001 2.185254e+000 1.506826e+000 1.735211e-001 1.374906e+001 3.903948e+000 4.564104e+000 5.357062e-001 2.507012e+000 1.297047e+000 2.487526e+000 1.058255e+001 1.152328e+000 9.961043e-001 6.305786e-001 1.821479e+000 1.269944e+000 3.862007e+000 1.446998e+000 2.997224e+000 1.897580e+000 5.449179e+000 1.304689e+000 6.312898e+000 3.691818e+000 8.392867e-001 1.832094e+000 4.297555e-001 4.329941e+000 1.058355e+000
<GCONST> 9.135423e+001
<MIXTURE> 14 5.371796e-003
<MEAN> 39
 3.702348e-001 -1.224191e+000 -3.125864e-001 4.861305e-002 9.691308e-001 3.842061e-001 2.171292e-001 9.982765e-001 -2.213905e-001 3.545673e-001 -2.039890e-001 8.548837e-001 5.358871e-001 -7.496224e-001 -4.779582e+000 -3.079922e-001 -2.319927e-001 1.783392e-001 -2.405264e-001 -8.336055e-001 -1.546614e+000 -4.194912e+000 -2.571916e+000 -2.134315e-001 1.163910e-001 5.064785e-002 -2.185567e+000 -9.425390e-001 1.088133e+000 -1.000973e+000 -4.991526e-001 -1.096220e-002 -5.690576e-001 -2.603943e-001 7.968221e-002 8.462604e-001 6.839315e-001 -1.353602e+000 8.087986e-001
<VARIANCE> 39
 1.376398e-001 6.948145e-001 1.253045e+000 2.686048e-001 5.405652e-002 4.051501e-001 1.292352e+000 8.310222e-001 8.376938e-002 7.100989e-002 6.765522e-001 1.848093e-001 8.355942e-002 2.970327e-001 3.713058e+000 6.912712e-001 1.144564e-001 1.953513e-001 1.654028e+000 3.758861e-001 8.449438e-001 1.964216e+000 9.999961e-003 8.570556e-001 7.575932e-001 2.030932e+000 6.650460e-002 3.584648e+000 2.707244e+000 1.756412e+000 2.328573e-001 4.799646e-001 1.757552e-001 5.971653e-001 1.326723e+000 5.053698e-001 1.462444e+000 5.034586e-001 5.005340e-001
<GCONST> 4.071801e+001
<MIXTURE> 15 5.896742e-002
<MEAN> 39
 1.409824e+000 -9.161512e-001 1.555077e-001 3.557475e-001 8.119302e-001 4.217752e-002 9.850176e-001 1.847394e-001 2.512616e-002 -9.996341e-001 -8.197144e-001 -9.431891e-001 1.555222e+000 1.678151e+000 -1.123921e-002 1.395306e-001 -1.185338e+000 -6.703590e-001 -3.417211e-001 -7.393426e-001 -3.272689e-001 6.354047e-001 4.533875e-001 -2.460456e-001 -9.756778e-001 2.114103e+000 -1.314433e+000 -1.968953e+000 -1.327366e+000 -9.811363e-001 -3.715602e-001 -5.244153e-001 -5.290405e-001 1.109027e-002 -7.208326e-001 1.642445e-001 -1.652212e-001 4.793541e-001 -1.386662e+000
<VARIANCE> 39
 6.411168e-001 7.337770e-001 1.149137e+000 1.240994e+000 8.485451e-001 1.112151e+000 1.205781e+000 2.801702e+000 1.615019e+000 6.062459e-001 9.646311e-001 1.300068e+000 2.208475e-001 8.853896e-001 2.294359e+000 1.914877e+000 2.031272e+000 1.493725e+000 1.917814e+000 1.421800e+000 2.044888e+000 2.083150e+000 6.678342e-001 1.435390e+000 1.130181e+000 8.853425e-001 5.798129e-001 9.193119e-001 1.681291e+000 1.680261e+000 1.822256e+000 7.411271e-001 1.130754e+000 1.889737e+000 7.828103e-001 6.371686e-001 9.293590e-001 7.300475e-001 9.527857e-001
<GCONST> 7.634869e+001
<MIXTURE> 16 5.371790e-003
<MEAN> 39
 -1.242691e+000 -6.480023e-001 4.409414e-001 -7.354341e-001 -6.393795e-001 -1.651194e+000 8.661324e-001 1.439739e+000 -4.283667e-001 -4.340447e-001 9.096268e-001 5.658498e-001 7.213963e-001 5.050024e-001 -2.855387e+000 4.642657e+000 -1.985194e+000 -4.057441e+000 -1.864672e+000 -3.802741e-001 2.928159e+000 -5.411375e+000 -5.629499e+000 -2.474451e+000 -2.206777e+000 3.485784e+000 3.222489e+000 5.497217e-001 -1.089676e-001 -6.792809e-001 4.329674e-002 2.370739e+000 -2.300282e+000 -1.253508e+000 -5.103716e-001 1.424232e-001 -2.567640e+000 -6.527163e-001 -4.260172e+000
<VARIANCE> 39
 2.580937e-001 8.640250e-002 5.468856e-001 1.391618e+000 2.756808e+000 8.031393e-001 1.612792e+000 1.107029e+000 2.544026e+000 6.076065e+000 2.786402e-001 5.668002e-001 8.976364e-002 5.569856e+000 6.539900e+000 2.222632e-001 1.191362e+000 1.602797e+001 2.408253e+000 2.531991e+000 2.431612e+000 1.113590e+000 4.750025e+000 4.649583e+000 2.051863e+000 7.060012e+000 3.191317e+000 1.129539e+000 3.261137e+000 4.284267e+000 7.972212e+000 2.183302e-001 6.922420e-001 2.665931e+000 3.637856e+000 1.196986e+001 5.736755e-001 3.559777e-001 3.879574e+000
<GCONST> 8.969759e+001
<STATE> 3
<NUMMIXES> 16
<MIXTURE> 1 1.327391e-001
<MEAN> 39
 1.065255e-001 6.832739e-001 2.140444e+000 7.576519e-001 4.381479e-001 -4.393732e-001 6.010947e-001 1.712341e+000 -1.988077e+000 -6.517380e-001 2.087304e+000 -2.485277e-001 1.988637e+000 5.121693e-002 6.962514e-002 -2.525751e-002 -2.267303e-002 -2.051471e-003 -5.649815e-002 1.632969e-001 -5.854089e-002 4.266260e-002 -5.926675e-003 -1.151103e-001 -3.075384e-002 7.645129e-002 -2.698763e-002 3.146342e-002 3.867729e-003 -3.316056e-002 9.994624e-003 8.498833e-002 -5.720569e-003 3.231563e-002 1.343546e-001 -5.669804e-002 -2.209787e-002 -8.160025e-003 -1.474404e-002
<VARIANCE> 39
 5.149721e-002 9.696130e-002 1.848947e-001 1.875887e+000 6.792907e-001 1.058972e+000 5.932800e-001 7.408383e-001 1.121541e+000 2.982270e+000 6.526567e-001 2.815313e+000 1.000004e-002 2.189638e-001 3.185914e-001 1.730241e+000 2.300897e+000 1.086055e+000 2.419842e+000 3.315341e+000 2.894592e+000 3.121645e+000 2.794890e+000 2.876323e+000 2.835262e+000 9.999961e-003 2.562023e-001 4.615155e-001 2.145516e+000 2.330750e+000 8.795302e-001 2.721535e+000 3.693045e+000 3.165278e+000 3.169855e+000 2.741185e+000 2.972347e+000 2.967119e+000 9.999896e-003
<GCONST> 6.552384e+001
<MIXTURE> 2 1.250224e-001
<MEAN> 39
 6.168558e-002 -2.579014e+000 -1.052760e+000 -1.081488e+000 2.437081e-001 -1.359209e+000 -6.294253e-002 -1.869721e+000 -1.556946e+000 -1.840371e+000 -8.704110e-001 -1.274173e+000 2.309304e+000 5.708644e-002 3.017388e-001 2.301979e-001 -4.296167e-001 -8.223667e-001 1.621754e-001 6.841789e-001 -4.284594e-002 5.452209e-002 -2.522233e-002 -5.178441e-002 -1.630042e-001 -1.686293e-001 2.611120e-001 6.421985e-001 7.069658e-002 -3.367379e-001 -6.601585e-001 8.971761e-002 -1.453083e-001 6.006585e-002 -3.215496e-001 -4.354973e-001 -2.928666e-001 3.254389e-002 -5.234014e-001
<VARIANCE> 39
 7.918710e-001 8.453359e-002 2.124768e+000 1.297676e+000 2.153857e+000 1.889454e+000 2.598701e+000 7.836648e-001 6.215845e-001 5.556196e-001 2.966713e+000 2.103164e+000 7.326271e-002 2.773913e-001 4.884549e-001 7.275745e-001 1.934740e+000 1.366067e+000 1.817376e+000 1.563542e+000 1.261702e+000 1.470337e+000 1.681611e+000 1.710156e+000 1.825175e+000 2.248657e-001 4.659758e-001 8.683791e-001 9.678475e-001 2.038428e+000 1.155488e+000 1.305667e+000 1.366073e+000 1.191874e+000 1.479955e+000 1.174068e+000 1.381985e+000 1.853688e+000 2.115117e-001
<GCONST> 7.135258e+001
<MIXTURE> 3 1.932175e-001
<MEAN> 39
 9.925221e-001 -9.965228e-001 -8.922212e-001 -3.732941e-002 -7.762790e-001 3.168485e-001 -3.365998e-001 -5.200772e-001 -1.442183e-001 -9.196359e-001 -9.770638e-001 -5.000915e-001 1.094033e+000 -1.765853e-002 1.455937e-001 1.783121e-002 -1.012926e-001 -1.596269e-001 1.166019e-001 -3.314358e-002 1.516256e-002 -2.121261e-002 -1.461908e-001 3.765918e-002 -4.335470e-002 4.159822e-002 -6.653760e-002 4.979558e-002 1.332735e-002 -7.834915e-002 -1.310267e-002 -4.730291e-002 1.013839e-001 -1.767296e-002 -3.246951e-002 -2.795209e-002 -1.827437e-002 2.296284e-002 -1.362824e-003
<VARIANCE> 39
 1.239999e-001 1.847598e-001 5.218525e-001 2.872194e-001 2.574629e-001 6.190556e-001 1.080999e+000 5.393069e-001 8.231655e-001 3.464823e-001 2.507508e-001 6.992483e-001 2.603843e-002 5.096332e-002 4.384591e-001 3.547140e-001 4.110352e-001 2.760097e-001 3.161912e-001 4.719054e-001 3.838883e-001 6.258070e-001 4.443222e-001 3.731747e-001 4.290009e-001 4.563612e-002 8.533932e-002 3.386151e-001 3.793822e-001 4.033664e-001 3.086364e-001 3.481927e-001 3.869068e-001 3.636929e-001 6.150388e-001 4.508049e-001 3.816376e-001 4.057375e-001 7.854428e-002
<GCONST> 2.560569e+001
<MIXTURE> 5 3.402509e-003
<MEAN> 39
 -1.954011e+000 1.018774e+000 -5.336835e-001 -2.605696e+000 2.179419e-001 -1.250902e+000 2.994059e-001 2.048996e+000 -8.733987e-001 -2.207101e+000 -2.118423e+000 -1.854429e+000 1.546349e+000 -2.205662e+000 6.934006e-001 4.983272e-001 -1.090120e+000 -7.356687e-001 4.650563e-001 -3.581262e-001 -4.920943e-001 -3.874941e-001 -4.394479e-001 -3.841233e-001 -1.561305e+000 2.973102e-001 2.876659e+000 -1.611640e+000 4.984089e-001 2.497410e+000 -1.177295e+000 -6.202851e-001 -4.200005e-001 -1.924755e+000 -4.389496e-001 8.932963e-001 9.278168e-002 6.550059e-002 3.189581e-001
<VARIANCE> 39
 1.000004e-002 1.147697e-002 8.564966e-002 3.552270e-002 8.033732e-002 3.682483e-001 1.000001e-002 2.530122e-002 5.049826e-002 9.999962e-003 9.999943e-003 2.375754e-002 1.000004e-002 2.973612e-001 2.918530e-002 8.124910e-002 6.989834e-001 1.000000e-002 9.999997e-003 4.610277e-002 8.747169e-001 4.410058e-001 7.033008e-002 1.472832e-002 3.402540e-001 9.999961e-003 1.532378e-001 5.049945e-001 9.999952e-003 5.639412e-001 2.033985e-001 7.269512e-001 9.999976e-003 1.550090e-002 2.817041e-001 3.157347e-001 2.506381e-001 6.110891e-002 4.807037e-002
<GCONST> -3.699917e+001
<MIXTURE> 6 1.191003e-002
<MEAN> 39
 8.134225e-001 -1.397311e+000 1.144586e+000 -2.120386e+000 -1.896829e+000 -8.012261e-001 1.226253e+000 7.453235e-001 -1.372775e+000 1.178185e-001 -2.472136e+000 3.701575e-002 1.657524e+000 -3.782336e-001 1.465149e+000 9.330463e-001 1.013526e+000 1.361103e+000 -1.382411e+000 -7.009762e-001 -1.337941e-002 1.880732e+000 -5.119818e-001 1.463140e+000 3.650004e-001 -6.380294e-001 -2.137022e+000 1.329103e+000 -2.031838e+000 1.772521e+000 1.254246e+000 9.943219e-001 -6.237866e-001 -1.135104e+000 9.011309e-001 6.663276e-002 1.551816e+000 1.327949e+000 -6.618394e-001
<VARIANCE> 39
 1.491261e+000 9.623427e-001 1.992488e+000 4.188441e-001 1.094158e+000 2.779182e-001 1.571362e-001 1.900195e+000 5.798619e-001 4.087577e+000 6.328398e-001 4.738027e-001 6.657051e-002 1.676290e+000 2.088934e+000 1.800019e+000 3.169212e+000 4.084677e+000 7.693798e-001 1.354380e+000 1.323923e+000 3.453013e-001 3.387421e+000 3.022293e+000 2.372478e+000 2.496865e-001 1.826609e+000 3.754308e+000 8.804494e-001 1.024419e+000 2.957579e+000 6.663337e-001 8.843126e-001 1.125009e+000 4.529783e-001 4.264864e+000 2.245774e+000 3.017482e+000 4.878197e-001
<GCONST> 7.621970e+001
<MIXTURE> 8 1.020772e-002
<MEAN> 39
 3.698604e-001 1.522311e-002 1.119724e+000 -1.565353e+000 -1.421441e+000 -1.708034e+000 5.226020e-001 -1.362174e+000 2.019299e+000 -3.292326e+000 -9.757219e-001 8.027695e-001 1.662951e+000 -7.366993e-001 3.668513e-001 2.251801e+000 1.613378e+000 -1.073629e+000 -6.002445e-002 -1.358031e+000 1.676666e+000 -3.919421e-001 -1.014594e+000 7.415684e-001 7.686056e-001 -5.847651e-001 -1.064330e+000 -7.872258e-001 -2.902949e-001 2.931499e-001 1.340997e-001 2.253038e-001 -4.084893e-002 4.868911e-001 -4.485665e-001 1.500475e+000 -4.839363e-001 -2.886381e-001 -1.556990e-002
<VARIANCE> 39
 1.000004e-002 3.206960e-002 8.209566e-001 4.087657e-001 2.192408e-001 1.412159e-002 8.564287e-001 8.263004e-001 3.173952e-001 3.623403e+000 2.847697e-001 2.791258e+000 1.084572e-002 4.069972e-001 2.319646e-001 5.304926e-001 2.301218e-001 6.573380e-001 1.407905e-001 8.976675e-001 9.918721e-001 1.441820e+000 4.311780e+000 1.149828e+000 3.912524e+000 2.959825e-002 1.426587e+000 3.785208e-001 2.809750e+000 1.168039e-001 1.290048e+000 3.964910e-002 2.943658e+000 2.287706e+000 2.504803e+000 9.348834e+000 8.153835e-001 6.882051e+000 1.800348e-001
<GCONST> 4.502229e+001
<MIXTURE> 9 6.805022e-003
<MEAN> 39
 8.432369e-001 -8.493404e-001 -9.202577e-001 1.143896e+000 -1.388532e+000 1.814173e-001 -3.085494e-001 -5.819206e-002 -2.733613e+000 -2.308059e+000 -2.183555e+000 1.363895e-001 1.714517e+000 -3.152596e+000 2.754195e+000 3.622477e-001 -2.083247e+000 4.012037e+000 7.651447e-004 2.460668e+000 -6.051461e-001 3.845961e-001 3.216285e-002 -1.208735e-001 6.316138e-001 -9.596043e-001 -3.669303e+000 1.788861e+000 -6.480869e-001 -3.348018e+000 9.410162e-003 -5.225595e-001 2.200637e-001 8.906136e-001 9.151641e-001 1.782149e+000 1.399030e+000 -1.059736e+000 9.132510e-002
<VARIANCE> 39
 7.852242e-001 1.001865e+000 2.706582e-001 2.940903e-001 6.249377e-001 2.445922e-001 4.790605e-001 1.932352e-001 6.558453e-002 2.484806e-001 9.904682e-001 2.061688e+000 2.473475e-001 9.936213e-001 1.063206e+000 1.244335e-001 1.458092e+000 6.859637e-001 8.137827e-001 1.650749e-001 9.383740e-002 3.191170e-001 1.598072e+000 7.997519e-001 3.671937e-001 3.544989e-001 3.696541e-001 6.394908e-001 1.652965e-001 3.074489e-001 2.230970e+000 5.509524e-001 1.524889e+000 2.678553e-001 5.903994e-001 9.383783e-001 1.432384e-001 9.186863e-001 1.593863e-001
<GCONST> 4.094456e+001
<MIXTURE> 10 6.805014e-003
<MEAN> 39
 -6.049644e-001 4.724184e-001 -9.460319e-001 -1.256767e+000 -8.432934e-003 -2.015521e+000 6.777384e-001 5.444904e-001 -7.300695e-001 -1.948244e+000 -2.044441e+000 2.810304e-001 1.389550e+000 -4.846303e+000 3.311558e+000 3.408810e-001 -4.430681e+000 2.069710e+000 -9.384645e-001 2.854761e-001 1.538752e+000 1.177758e+000 1.271167e+000 8.048246e-001 -2.941065e-001 -4.158828e-001 7.415166e-001 -1.618995e+000 1.264172e-001 4.030975e-001 -2.574870e+000 6.922364e-001 -1.614601e+000 7.578880e-001 -1.031424e+000 -1.057953e-001 -4.055592e-001 -1.626966e+000 1.218420e+000
<VARIANCE> 39
 5.908821e-001 1.983312e-001 5.062759e-002 3.966722e-001 3.056278e-001 2.933524e-001 1.638564e-001 1.056769e+000 3.246262e-001 1.722837e-001 2.247428e-001 3.267686e+000 2.879767e-002 2.496557e-001 1.223038e+000 6.843381e-002 1.379779e+000 7.456213e-001 1.412615e+000 1.971752e-001 3.387329e-002 2.269521e+000 1.081843e+000 6.653773e-001 8.455866e-001 2.984850e-001 2.728294e+000 2.274531e+000 4.803089e-002 3.852057e+000 4.470464e-001 1.270617e+000 5.172805e-001 2.090160e+000 8.035251e-001 3.041532e+000 7.970046e-001 8.432750e-001 4.297050e-002
<GCONST> 4.233070e+001
<MIXTURE> 11 2.562081e-001
<MEAN> 39
 1.680241e+000 -2.213649e+000 -4.534333e-001 -1.280945e+000 2.258505e-001 -6.226898e-001 -1.074435e-001 6.965939e-001 -2.563530e-001 -1.041769e+000 -7.310479e-001 -1.703596e+000 2.120494e+000 -8.549274e-002 6.799812e-002 2.571671e-001 -8.138864e-002 -5.132815e-001 -4.076552e-001 -4.030480e-002 2.990710e-001 2.254561e-001 4.941403e-002 -1.596855e-001 1.715603e-002 9.472243e-002 -2.137444e-002 3.539315e-001 2.309565e-001 2.222423e-001 -3.029730e-001 -6.174819e-002 -1.343310e-002 3.753448e-002 2.204382e-001 5.109728e-002 2.624369e-002 2.484357e-001 -1.998436e-001
<VARIANCE> 39
 7.949082e-001 1.762010e-001 1.075898e+000 6.319429e-001 2.418255e+000 2.287387e+000 2.236403e+000 1.871307e+000 2.148629e+000 1.528379e+000 1.384190e+000 1.241438e+000 1.768409e-001 1.385588e-001 1.923512e-001 8.145880e-001 6.550319e-001 6.600687e-001 6.348242e-001 7.062414e-001 6.753284e-001 8.019927e-001 5.257098e-001 7.470382e-001 7.494338e-001 5.702477e-002 2.195010e-001 3.327780e-001 8.426048e-001 5.250618e-001 5.629134e-001 5.629008e-001 7.144328e-001 6.383802e-001 5.626027e-001 4.703798e-001 6.272840e-001 8.756983e-001 9.366187e-002
<GCONST> 5.263133e+001
<MIXTURE> 12 2.040981e-002
<MEAN> 39
 2.323416e-001 -8.559157e-001 2.867329e-001 -7.197911e-001 -2.567538e+000 -1.603413e+000 -1.265238e+000 1.439909e+000 -1.399464e+000 -3.447588e-001 -4.181546e-001 9.473831e-002 1.619477e+000 -8.088582e-001 1.512163e+000 2.584675e-001 1.007907e+000 1.178268e+000 -5.275210e-001 5.242971e-001 -1.266429e+000 2.878465e-001 -1.336248e-001 -3.884655e-001 2.634043e-001 -4.481613e-001 -1.603060e+000 1.708743e+000 -1.433032e+000 -7.992117e-001 1.893971e+000 1.183763e+000 2.168878e+000 -1.137510e+000 7.660072e-001 -9.388009e-001 -7.490980e-001 -5.963392e-001 -2.692983e-001
<VARIANCE> 39
 1.338466e+000 1.560203e+000 1.285523e+000 7.838387e-001 1.159571e+000 3.771927e-001 8.484724e-001 3.276496e+000 1.017645e+000 1.535181e+000 2.363863e+000 1.398921e+000 1.714160e-001 1.516548e+000 1.983087e+000 1.816543e+000 1.221873e+000 3.156307e+000 3.061006e+000 2.159512e+000 1.779689e+000 1.704266e+000 2.020615e+000 1.857230e+000 1.456987e+000 3.363822e-001 1.489411e+000 1.324508e+000 8.454486e-001 3.122444e+000 2.956205e+000 1.084026e+000 2.113672e+000 3.100423e+000 1.375105e+000 1.592028e+000 3.251355e+000 1.540254e+000 8.248069e-001
<GCONST> 8.604720e+001
<MIXTURE> 13 3.571345e-002
<MEAN> 39
 2.236704e+000 -2.688641e+000 -5.669965e-001 -1.112687e+000 -8.379579e-001 3.158628e-001 -7.328327e-002 6.554268e-001 1.261179e+000 -1.157371e+000 -9.203187e-001 -1.433499e+000 2.886166e+000 1.052731e+000 -1.371915e+000 1.947738e-001 -1.265942e+000 -6.772977e-001 -2.320390e-001 -5.416054e-001 5.421130e-001 -1.729830e-001 -2.823189e-001 1.058094e-001 -1.306382e+000 2.112487e+000 -2.005367e+000 5.142901e-001 4.498530e-001 4.852292e-001 4.204437e-001 8.324720e-002 4.025877e-001 1.701660e-001 -2.412756e-001 -4.380087e-001 8.001397e-002 6.991565e-001 -2.344523e+000
<VARIANCE> 39
 3.700203e-001 7.916878e-001 1.587759e+000 1.237290e+000 2.484789e-001 1.886883e+000 4.162219e+000 1.867171e+000 4.147190e-001 3.631182e-001 1.351779e+000 1.416688e+000 7.152829e-001 2.851440e+000 9.167166e-001 1.893737e+000 5.855171e-001 8.188934e-001 7.525369e-001 6.734694e-001 1.276293e+000 3.373949e-001 5.560436e-001 1.163295e+000 1.816254e+000 3.927197e+000 1.511731e+000 1.866961e+000 1.854545e+000 9.703237e-001 5.158437e-001 6.655655e-001 6.695498e-001 1.534337e+000 7.637620e-001 1.336555e-001 7.930950e-001 7.314931e-001 1.481311e+000
<GCONST> 6.985983e+001
<MIXTURE> 14 3.065434e-002
<MEAN> 39
 6.458101e-001 -2.786258e+000 -6.815583e-001 -8.418610e-001 -6.562705e-001 -8.251336e-001 -1.116292e+000 -2.031750e+000 -2.294032e+000 -3.158713e+000 -1.330748e+000 -9.107472e-001 2.360204e+000 1.694341e-001 -1.378614e+000 -2.031929e-001 -4.953191e-001 -3.500073e-001 -3.303595e-001 8.784402e-001 -9.137753e-001 -2.446585e-001 -2.921845e-001 -1.280638e+000 -9.624771e-001 2.094035e+000 -1.434154e+000 9.588649e-001 1.613123e+000 6.086071e-001 1.334413e+000 4.819461e-001 6.130419e-001 2.220652e+000 1.779821e+000 2.065166e+000 1.481505e+000 6.876497e-001 -2.304479e+000
<VARIANCE> 39
 1.241106e+000 2.676015e-001 1.600090e+000 5.755636e-001 1.314617e+000 5.598704e+000 1.751148e+000 1.672119e+000 3.783435e-001 8.651098e-001 4.957794e+000 2.168685e+000 1.574466e-001 2.009439e+000 2.601206e+000 2.994055e+000 1.591906e+000 2.629501e+000 1.710679e+000 2.353808e+000 3.036685e+000 1.471135e+000 2.444144e+000 3.273436e+000 3.616096e+000 1.355997e+000 6.751326e-001 3.479624e+000 8.959972e-001 9.854395e-001 1.468325e+000 3.447420e+000 3.874367e+000 2.668833e+000 9.178485e-001 9.570351e-001 2.148272e+000 2.668845e+000 1.287438e+000
<GCONST> 9.027068e+001
<MIXTURE> 15 1.190847e-002
<MEAN> 39
 -6.411788e-001 -1.333412e+000 -6.307326e-001 1.882652e-001 8.381201e-002 -9.635195e-001 -1.266459e+000 -1.411238e+000 -1.324599e+000 -1.808961e+000 6.926367e-001 5.517337e-002 1.377260e+000 1.760627e+000 -1.139321e+000 -9.564126e-001 -1.640296e+000 -2.497873e+000 -2.806585e+000 -2.503085e+000 -4.080224e+000 -2.395020e+000 -2.635903e+000 -1.515099e+000 -1.561763e-002 2.446390e+000 -4.631549e-001 -2.810746e+000 -1.979553e-001 4.871232e-001 -7.209693e-002 -4.585505e-001 4.723341e-001 4.477041e-001 6.442248e-001 1.449281e+000 9.569303e-002 5.806821e-001 6.402366e-001
<VARIANCE> 39
 4.230999e-001 1.543025e-001 4.629119e+000 1.160951e+000 1.746315e+000 1.702808e+000 2.383880e+000 2.223298e-001 3.310577e-001 1.700960e-001 2.288367e+000 1.022476e+000 5.260582e-002 4.015220e-001 1.447066e+000 9.843243e-001 6.918479e-001 1.934832e+000 3.214437e+000 4.918436e-001 7.935271e-001 8.550778e-001 7.337397e-001 1.493803e+000 5.930555e+000 7.946289e-001 2.170379e+000 1.368717e+000 4.326040e+000 2.841845e+000 6.041572e+000 4.765999e+000 4.452875e+000 3.021612e+000 1.539276e+000 7.247498e-001 1.947719e+000 2.194844e+000 8.836507e-001
<GCONST> 7.855394e+001
<MIXTURE> 16 1.549965e-001
<MEAN> 39
 8.233740e-001 -1.552689e+000 -1.707196e+000 -1.935106e-001 -1.504824e+000 -7.222120e-001 4.246781e-001 -1.280612e+000 -1.051811e+000 -1.103471e+000 -1.534073e+000 5.778221e-001 1.751133e+000 -7.936369e-002 3.376554e-001 3.931707e-001 -3.186688e-001 -4.797918e-001 -2.335516e-001 2.693951e-001 2.608370e-002 1.678573e-001 -2.450617e-002 1.408928e-001 -4.010165e-002 -4.813702e-002 6.061159e-002 3.586037e-001 3.762968e-001 -6.754566e-002 2.817601e-001 -2.795286e-001 -3.695142e-002 6.484535e-002 4.816475e-002 -8.034754e-002 1.824138e-001 -4.823319e-001 -1.841940e-001
<VARIANCE> 39
 6.136939e-001 2.053051e-001 4.484847e-001 1.598164e+000 1.105950e+000 1.389817e+000 2.365702e+000 8.501438e-001 1.957715e+000 8.764501e-001 1.645511e+000 1.341572e+000 1.354751e-001 2.434602e-001 8.611343e-001 5.835604e-001 7.730637e-001 1.203276e+000 1.307140e+000 1.402050e+000 8.772709e-001 1.088010e+000 1.129712e+000 8.663042e-001 1.158394e+000 7.067193e-002 3.592448e-001 8.843393e-001 7.103720e-001 7.963355e-001 1.595087e+000 1.460186e+000 1.169979e+000 8.782014e-001 1.121263e+000 1.557783e+000 1.038244e+000 8.532628e-001 7.831445e-002
<GCONST> 6.264157e+001
<STATE> 4
<NUMMIXES> 16
<MIXTURE> 1 8.155718e-003
<MEAN> 39
 -1.764561e+000 -3.445872e-002 2.217636e-001 -6.689403e-001 -4.146185e-001 -9.838012e-001 2.370217e-001 1.699447e-001 -7.566813e-001 7.024034e-001 -3.869246e-002 -1.913566e+000 1.433878e+000 -1.351887e+000 -1.616691e+000 -1.573599e+000 -1.194645e-001 1.169157e+000 1.130800e-001 2.690471e-001 -2.902731e-001 -1.364625e-002 8.433848e-001 1.192888e-001 -4.185280e-001 4.512675e-001 1.039527e+000 1.588962e+000 9.890655e-001 -1.172834e+000 -4.745867e-001 5.509003e-001 -8.016713e-001 7.316234e-001 2.244215e+000 -2.018604e+000 8.636707e-001 1.972628e+000 3.573822e-001
<VARIANCE> 39
 8.456964e-002 2.052473e+000 1.729215e+000 1.929113e+000 1.309718e+000 5.069125e-001 3.603367e-002 2.716536e-001 2.136871e+000 1.245728e+000 5.719594e-001 1.517489e+000 1.172654e-002 2.297695e+000 4.693854e-001 5.955826e-001 1.389453e-001 3.549296e-001 1.840839e-001 5.791310e-001 6.348612e-002 1.745134e+000 5.698922e-001 5.175319e+000 6.104608e-001 1.062737e-001 2.455045e+000 4.425355e-001 6.969603e-001 3.837076e-001 4.551280e-001 7.326917e-002 1.533418e-001 5.106483e-001 2.993854e-001 3.503427e+000 1.796851e+000 8.971377e-002 6.719724e-002
<GCONST> 4.128022e+001
<MIXTURE> 2 1.539578e-001
<MEAN> 39
 6.701953e-001 -1.487060e+000 -8.306913e-001 -9.664333e-001 -9.855009e-001 -9.548962e-001 -2.165080e-001 -1.246111e+000 -1.626501e+000 -4.998535e-001 -8.061172e-001 -1.103159e+000 1.548464e+000 1.626924e-002 4.806136e-001 4.689162e-001 -4.801033e-001 -2.606650e-001 7.226131e-002 1.760047e-001 2.239199e-001 -1.679416e-001 8.332713e-002 -1.283253e-001 -1.894558e-001 -1.539739e-001 7.167865e-002 2.267981e-001 1.666699e-001 -6.357705e-002 -1.428317e-001 1.914258e-002 -1.112316e-001 9.742829e-002 1.735720e-001 -4.473827e-002 -1.695342e-001 5.056440e-002 -6.381079e-002
<VARIANCE> 39
 1.061590e-001 5.989978e-001 1.326742e+000 2.748015e-001 4.613374e-001 4.516931e-001 6.181891e-001 3.988208e-001 3.326562e-001 1.381684e+000 4.996462e-001 1.168418e+000 7.536498e-002 5.694734e-002 3.028456e-001 7.566465e-001 6.205091e-001 3.989628e-001 4.115063e-001 9.004226e-001 8.201302e-001 1.083807e+000 4.908881e-001 7.111702e-001 1.182080e+000 5.601782e-002 1.040378e-001 4.435908e-001 6.947280e-001 5.976373e-001 3.844240e-001 4.777912e-001 1.024225e+000 6.826868e-001 1.200849e+000 4.862153e-001 6.929063e-001 9.142087e-001 5.895009e-002
<GCONST> 4.059748e+001
<MIXTURE> 3 2.612559e-001
<MEAN> 39
 -2.324081e+000 1.631387e+000 7.148570e-001 -1.915705e+000 -3.281009e-001 2.038996e-001 7.545421e-002 9.255756e-002 -6.879287e-001 -1.119293e+000 -3.660192e-001 -2.346243e-001 1.560063e+000 -4.751627e-001 1.566854e-001 5.714412e-001 3.048664e-001 2.656420e-001 4.280758e-001 -7.112628e-002 -5.872129e-002 3.081962e-001 2.851681e-001 2.445432e-001 1.202894e-001 -2.971279e-002 3.888799e-001 -9.871288e-002 -2.906495e-001 1.450053e-001 1.247306e-001 -2.473652e-001 -9.926927e-003 -6.378925e-002 5.714016e-002 2.324761e-001 -5.945333e-003 2.862226e-003 -1.659466e-001
<VARIANCE> 39
 3.578180e-001 2.985042e-001 2.090107e+000 4.316649e-001 1.474164e+000 1.511818e+000 1.996373e+000 1.328702e+000 1.086974e+000 1.124112e+000 1.777824e+000 1.483992e+000 3.482495e-002 2.800888e-001 4.946245e-001 1.223517e+000 8.929736e-001 9.158849e-001 1.300881e+000 1.699268e+000 1.354612e+000 1.521862e+000 1.801176e+000 1.507288e+000 1.404847e+000 5.782814e-002 3.221145e-001 7.209585e-001 1.414734e+000 1.123537e+000 1.115220e+000 1.289079e+000 1.897466e+000 1.331447e+000 1.160528e+000 1.716166e+000 1.688023e+000 1.344051e+000 1.233987e-001
<GCONST> 6.666584e+001
<MIXTURE> 4 1.363454e-001
<MEAN> 39
 1.613734e+000 -2.078893e+000 4.081349e-001 -1.228267e+000 -1.184748e+000 -1.164892e+000 2.780420e-001 1.447800e+000 1.048968e+000 -1.181121e+000 -1.241485e+000 -1.129124e+000 2.393694e+000 -2.575221e-001 1.460665e+000 9.371598e-001 4.303813e-001 -8.260923e-001 -6.761683e-001 -8.363893e-002 -9.747327e-002 1.894493e-001 4.180732e-001 4.706426e-001 9.251382e-001 -6.412111e-001 -1.263795e-001 9.921955e-001 1.649891e-001 1.870287e-001 4.543834e-001 3.627629e-001 -1.359931e-001 -6.386895e-001 -3.707919e-001 2.671594e-001 3.573432e-001 2.143498e-001 -5.442439e-001
<VARIANCE> 39
 5.854422e-001 9.594458e-001 1.110257e+000 6.087545e-001 1.786604e+000 2.230331e+000 3.456298e+000 2.186870e+000 1.670650e+000 9.048423e-001 8.934110e-001 1.719647e+000 7.242405e-001 2.087268e-001 9.554506e-001 1.788867e+000 8.265814e-001 1.369172e+000 1.028810e+000 1.797439e+000 1.533402e+000 5.686532e-001 1.552770e+000 9.294693e-001 1.441062e+000 2.069392e-001 3.794908e-001 8.182097e-001 1.480216e+000 6.407369e-001 1.284109e+000 1.071022e+000 1.659719e+000 1.302433e+000 6.599801e-001 1.529299e+000 7.351891e-001 1.754161e+000 1.799043e-001
<GCONST> 7.177692e+001
<MIXTURE> 5 1.846673e-002
<MEAN> 39
 1.138936e+000 -3.876709e-001 2.366089e+000 -8.478059e-001 -1.963903e+000 -1.956379e+000 -1.176585e+000 7.991161e-001 -8.075620e-001 1.683996e+000 -1.351885e+000 1.212804e-001 1.690314e+000 -2.827744e+000 3.503697e+000 6.088882e-002 1.379398e+000 1.254817e+000 4.700240e-001 2.331264e+000 -2.672589e+000 1.646159e+000 -8.146075e-001 1.497986e+000 1.364417e-001 -1.033078e+000 -3.228456e+000 7.132467e-001 -2.401620e+000 -9.716945e-001 1.777091e+000 1.545364e+000 1.476404e+000 6.084297e-001 8.697544e-001 -1.936040e+000 7.385306e-001 -1.088816e+000 -1.394151e-001
<VARIANCE> 39
 6.835095e-001 4.109925e-001 8.546680e-001 5.252709e-001 1.171823e+000 4.292905e-001 1.208459e+000 7.034009e-001 1.252481e+000 3.568650e+000 9.007899e-001 4.710725e-001 1.262690e-001 8.965052e-001 1.120822e+000 2.768675e+000 2.752977e+000 2.133862e+000 7.674159e-001 8.630370e-001 8.555526e-001 2.159297e+000 2.077531e+000 1.970794e+000 8.090301e-001 1.897638e-001 8.949192e-001 1.361016e+000 8.802537e-001 1.469659e+000 1.302428e+000 7.396265e-001 1.720534e+000 1.433777e+000 7.277491e-001 1.496121e+000 3.880778e-001 1.056415e+000 4.581059e-001
<GCONST> 6.959209e+001
<MIXTURE> 6 9.725007e-002
<MEAN> 39
 7.521803e-001 -1.183147e+000 -4.938536e-001 -2.230097e+000 -2.045519e+000 -1.576058e+000 5.349894e-001 -1.882185e+000 -1.598129e+000 -1.877645e+000 -1.690912e+000 -1.328584e+000 1.586540e+000 1.158793e-001 2.531135e+000 9.391646e-001 -7.322254e-001 -8.856801e-001 -4.366380e-001 -4.836390e-001 2.025012e-002 1.371899e-001 6.261601e-002 -5.304570e-001 -2.208748e-001 -7.666481e-001 -9.981083e-001 7.231712e-001 5.956848e-002 7.830738e-001 1.060671e+000 6.996496e-001 -7.139391e-001 -4.475820e-002 -2.572943e-001 7.102174e-001 5.793468e-001 3.456106e-001 -1.710347e-001
<VARIANCE> 39
 8.391994e-001 6.060584e-001 7.309554e-001 7.007640e-001 1.442994e+000 1.056109e+000 1.652520e+000 5.660315e-001 8.591579e-001 1.167411e+000 1.097976e+000 9.373009e-001 9.827557e-002 4.992217e-001 1.326538e+000 1.275295e+000 2.381483e+000 1.659462e+000 1.656849e+000 2.258340e+000 1.157116e+000 2.530306e+000 1.657263e+000 2.689564e+000 9.614878e-001 3.584093e-001 1.144561e+000 1.911780e+000 1.158000e+000 1.094513e+000 1.706062e+000 2.606670e+000 1.677170e+000 1.198437e+000 2.105758e+000 1.717489e+000 2.204072e+000 1.815930e+000 3.506280e-001
<GCONST> 7.726149e+001
<MIXTURE> 7 8.155698e-003
<MEAN> 39
 9.070647e-001 -1.159305e+000 1.388024e+000 -1.996770e+000 -1.704456e+000 1.045817e+000 1.057348e+000 -1.373595e+000 -2.076650e+000 -2.318354e+000 -2.048034e+000 -2.654465e+000 1.903939e+000 -8.821229e-001 6.944877e-001 2.968711e+000 -4.263131e-001 1.279623e+000 -3.958312e-001 2.794362e+000 -2.132362e-002 -1.000599e-001 3.678530e+000 -3.893339e-001 -9.384059e-001 -6.876955e-001 -1.117244e+000 -2.858156e-001 7.746517e-001 1.073015e+000 6.703005e-001 -1.991996e+000 -2.230002e+000 1.290279e+000 2.144997e+000 1.497075e+000 2.134094e+000 1.189549e+000 -1.217231e+000
<VARIANCE> 39
 5.631296e-001 1.090308e+000 1.225545e-001 1.047149e-001 1.002531e+000 3.364065e-001 1.913130e+000 4.326964e+000 7.004939e-001 7.618520e-001 2.660777e-001 2.363413e+000 3.823814e-001 1.587358e-001 1.656037e+000 1.175048e+000 3.750978e-001 2.585348e-001 1.283184e-001 1.281747e+000 7.275764e-001 1.425261e+000 5.593978e-001 8.818752e-001 1.596164e+000 3.439469e-002 5.952095e-001 4.131573e-001 2.510086e+000 1.975230e+000 1.188244e-001 2.247609e-001 1.582820e+000 1.656953e+000 8.161975e-002 2.465014e+000 1.782608e+000 3.598996e+000 2.982054e-001
<GCONST> 5.350649e+001
<MIXTURE> 8 8.704729e-002
<MEAN> 39
 -1.570794e+000 1.212533e+000 -4.499151e-001 -1.733633e+000 1.228180e-003 -5.945071e-001 1.083340e+000 -1.516948e-001 -3.457062e-001 -7.266903e-001 -1.126206e+000 -5.188195e-001 1.384617e+000 -2.350434e+000 1.311020e+000 -5.318222e-001 -1.648041e+000 4.682934e-001 3.511282e-001 -4.638083e-001 6.735815e-001 4.214547e-001 3.247956e-001 4.262791e-001 3.564956e-002 2.889507e-001 2.030385e+000 -1.973139e+000 1.488972e+000 5.687460e-001 -1.002667e+000 -5.641121e-001 -8.680516e-001 1.130563e-002 -7.635898e-001 -1.403464e-001 8.474863e-002 2.309249e-001 5.839990e-001
<VARIANCE> 39
 3.145622e-001 5.363547e-001 2.542718e+000 8.435931e-001 1.144569e+000 1.329463e+000 1.318292e+000 1.587151e+000 2.771958e+000 8.124124e-001 8.596333e-001 2.496462e+000 6.155439e-002 1.538790e+000 1.627982e+000 1.993576e+000 1.623167e+000 1.748254e+000 1.338122e+000 1.891715e+000 1.850826e+000 1.624027e+000 2.656650e+000 1.202660e+000 2.378857e+000 2.996888e-001 8.458119e-001 1.383198e+000 1.359347e+000 3.382206e+000 1.328472e+000 1.561911e+000 2.103428e+000 3.196814e+000 2.735079e+000 1.897784e+000 2.086224e+000 2.592866e+000 7.488115e-001
<GCONST> 8.347411e+001
<MIXTURE> 9 4.735734e-002
<MEAN> 39
 2.472731e-001 4.319003e-002 2.751074e-001 -1.735717e+000 -1.355378e+000 -1.288362e+000 -1.446182e-001 -1.799133e+000 -2.129584e+000 -1.291030e+000 -1.297684e+000 -9.991431e-001 1.198020e+000 -3.027333e+000 2.794104e+000 -8.748642e-002 7.572731e-001 1.223735e+000 2.025840e+000 -2.646362e-001 1.774806e+000 -8.968505e-002 8.839535e-001 8.113708e-001 -2.596895e-001 -9.550570e-001 -1.367251e+000 -7.733499e-001 -9.737378e-001 -5.420194e-001 9.565448e-002 2.371002e-001 6.667614e-001 8.011388e-001 9.066402e-001 1.264588e-001 -3.009153e-001 1.740368e-001 6.223663e-001
<VARIANCE> 39
 8.153480e-001 5.293495e-001 1.369160e+000 1.230758e+000 9.184541e-001 7.999703e-001 2.473372e+000 1.129931e+000 8.914902e-001 8.518282e-001 7.130086e-001 1.628744e+000 3.922053e-001 6.776100e-001 1.191835e+000 4.994226e+000 3.237983e+000 1.734079e+000 1.169593e+000 3.496781e+000 1.104460e+000 2.517043e+000 1.773777e+000 2.038963e+000 1.017941e+000 5.209572e-001 1.607387e+000 1.617611e+000 3.741359e+000 2.620854e+000 1.092917e+000 2.544733e+000 3.727771e+000 1.337948e+000 1.503811e+000 1.087299e+000 1.377248e+000 9.575237e-001 5.874574e-001
<GCONST> 8.332362e+001
<MIXTURE> 10 2.038866e-002
<MEAN> 39
 6.645172e-001 8.088362e-001 1.561496e+000 -1.196120e+000 -6.559919e-001 -9.151734e-001 3.910764e-002 9.182519e-001 1.714389e+000 2.906777e-001 -1.250022e+000 -9.582298e-001 1.760954e+000 -4.088586e+000 1.363955e+000 1.692454e+000 -9.729592e-001 -9.499618e-001 2.788807e+000 -2.661794e-001 5.399049e-001 2.120661e-001 8.412907e-001 -4.357587e-001 -3.505819e-001 -6.857882e-001 -1.133851e+000 -1.774602e+000 -6.171341e-001 -1.493758e-001 -4.030615e-002 -4.108675e-001 1.312120e+000 -1.315483e+000 -4.130318e-002 -4.026742e-001 1.128587e+000 -6.625541e-001 1.132671e+000
<VARIANCE> 39
 1.404362e+000 1.250417e-001 5.314171e-001 2.070226e-001 4.073572e-001 2.171399e+000 7.915040e-001 5.171915e-001 7.647843e-001 5.138091e-001 4.309454e-001 1.413944e+000 3.923168e-002 1.987855e+000 1.450107e+000 6.798023e-001 2.786515e-001 2.934923e+000 7.573398e-001 3.140649e+000 2.021464e+000 7.847947e-001 8.776808e-001 2.184683e+000 2.002006e+000 7.833061e-001 5.745829e+000 3.037716e-001 1.521190e+000 1.000802e+000 1.431834e+000 2.119140e+000 1.554711e+000 1.867356e+000 9.381513e-001 7.170731e-001 1.000108e+000 2.929479e+000 5.294986e-001
<GCONST> 6.814324e+001
<MIXTURE> 11 3.897579e-002
<MEAN> 39
 3.493733e-002 -3.788165e-001 1.063802e+000 -1.023360e+000 -4.070688e-001 -1.041369e+000 1.080753e+000 6.757036e-001 1.095314e-001 -9.763730e-001 -8.491553e-001 4.088176e-001 1.449356e+000 -3.912162e+000 2.444117e+000 -1.034063e+000 -1.180779e+000 1.659145e+000 6.822380e-001 1.426778e+000 -1.562879e+000 1.173159e+000 -5.417073e-001 4.350154e-001 -1.258723e-001 -9.783776e-001 -9.982036e-001 -4.641508e-001 -4.136944e-001 -1.273790e+000 -8.825016e-001 4.073130e-001 -8.036996e-001 3.316748e-001 -2.307577e-001 1.647177e-001 -2.331670e-001 -4.594954e-001 1.016841e+000
<VARIANCE> 39
 6.640017e-001 1.468350e+000 1.404525e+000 8.459553e-001 1.534962e+000 1.640884e+000 1.380514e+000 2.431687e+000 1.808204e+000 1.141265e+000 1.373552e+000 9.462143e-001 1.211365e-001 1.170065e+000 1.559505e+000 1.451356e+000 8.748241e-001 2.100446e+000 1.732161e+000 2.057752e+000 1.984511e+000 1.919881e+000 3.059278e+000 2.826050e+000 1.707939e+000 3.944761e-001 1.848928e+000 2.295732e+000 1.839004e+000 2.616937e+000 1.224627e+000 8.526046e-001 1.303873e+000 2.206068e+000 1.458465e+000 1.464049e+000 9.004747e-001 4.414993e-001 6.299842e-001
<GCONST> 8.227864e+001
<MIXTURE> 12 5.313749e-002
<MEAN> 39
 2.125558e+000 -6.500728e-001 9.235981e-001 -5.177271e-001 -1.589587e+000 -2.081954e+000 4.371205e-001 1.516316e-001 8.887446e-001 -7.615597e-001 6.460525e-001 -5.509863e-001 1.971516e+000 -4.590175e-001 1.640565e+000 1.541657e+000 5.598769e-001 5.943013e-001 9.300388e-001 -1.230397e+000 -3.320182e-001 -4.051988e-001 4.797707e-001 4.447665e-001 7.410823e-001 -1.215220e+000 -2.122015e+000 -3.464310e-001 -9.795447e-003 -7.191726e-001 8.086973e-001 7.612469e-001 -8.548931e-002 5.422211e-001 -3.871956e-001 -2.249650e-001 -1.347767e+000 -5.534468e-001 -2.027002e-001
<VARIANCE> 39
 4.877136e-001 6.144217e-001 1.516307e+000 1.118478e+000 1.831701e+000 8.680418e-001 2.695650e+000 1.927874e+000 1.634737e+000 4.945378e-001 2.016915e+000 1.063973e+000 1.863840e-001 6.873886e-001 2.048234e+000 2.266963e+000 1.084145e+000 2.762608e+000 1.124246e+000 1.056010e+000 2.175328e+000 4.834190e-001 1.203191e+000 1.788797e+000 2.032967e+000 4.603151e-001 1.973993e+000 7.302233e-001 1.587604e+000 3.762204e+000 2.399070e+000 1.451122e+000 1.617319e+000 1.655653e+000 7.642846e-001 9.039981e-001 1.232215e+000 1.583646e+000 7.415646e-001
<GCONST> 7.954782e+001
<MIXTURE> 13 1.427434e-002
<MEAN> 39
 8.787829e-001 -6.665627e-001 1.903143e+000 -2.829425e-001 -1.931272e+000 -2.520149e-001 -1.615992e+000 6.039928e-001 1.081594e+000 -1.056948e+000 -1.532379e+000 -1.605054e-001 2.152445e+000 -3.713421e+000 7.849770e-001 2.546758e-001 -1.377694e-001 1.616275e+000 2.287996e-001 3.246042e-001 -4.716905e-001 -6.287267e-001 3.057119e-001 -5.835245e-002 -1.662906e+000 -1.215771e+000 -2.223192e+000 -1.588969e+000 -1.311520e+000 -1.779744e+000 4.873837e-001 -6.205862e-001 1.399733e+000 2.513921e-001 5.386984e-003 -5.438849e-001 5.221084e-001 -1.069982e+000 3.753725e-001
<VARIANCE> 39
 9.959469e-001 9.782827e-001 7.451128e-001 6.208038e-001 3.431096e-001 1.516540e+000 2.452095e+000 1.301972e+000 7.000228e-001 1.547905e+000 2.508644e+000 7.392041e-001 2.671887e-001 2.404858e+000 3.915556e+000 2.315905e+000 2.165939e+000 9.331623e-001 1.412928e+000 6.645746e-001 7.332373e-001 2.161013e+000 1.306139e+001 1.085284e+000 2.271465e+000 7.735224e-001 1.656355e+000 3.969349e-001 1.213802e+000 1.512682e-001 3.507191e+000 2.085351e-001 1.061884e+000 2.276865e+000 4.745771e-001 2.639561e+000 1.438745e+000 2.703599e+000 4.088180e-001
<GCONST> 7.730905e+001
<MIXTURE> 14 3.892019e-002
<MEAN> 39
 1.688452e+000 -2.515988e+000 -4.756204e-001 -1.103141e+000 -2.640569e+000 -1.274177e+000 -1.111438e+000 9.704604e-001 -2.954807e+000 -2.319530e+000 -2.518338e+000 -2.412932e+000 2.725997e+000 1.161300e-001 1.231503e+000 4.310878e-001 -7.514541e-001 -1.529672e-001 -1.691472e-001 3.283220e-001 9.865880e-001 -4.908638e-002 -1.630190e-001 5.995263e-001 4.704779e-001 -4.108666e-001 -6.696805e-001 9.275774e-001 7.152268e-001 5.609560e-001 8.990610e-001 2.703992e-001 6.716682e-001 -9.903536e-001 8.929739e-001 4.131170e-001 3.333384e-002 4.314222e-001 -4.755453e-001
<VARIANCE> 39
 3.214843e-001 8.932361e-001 2.290509e+000 5.285961e-001 9.643028e-001 3.097003e-001 3.461532e+000 1.198046e+000 4.790157e-001 5.828434e-001 4.865865e-001 1.109705e+000 2.765857e-001 6.528370e-001 1.509121e+000 2.960304e+000 3.433995e+000 1.793104e+000 2.236986e+000 3.476656e+000 2.089664e+000 1.841754e+000 1.997667e+000 7.007442e-001 1.929270e+000 1.752205e-001 6.959554e-001 9.483081e-001 1.918193e+000 2.323606e+000 1.742839e+000 9.394628e-001 3.834139e+000 2.291646e+000 8.738561e-001 3.015621e+000 1.346972e+000 6.100659e-001 3.792961e-001
<GCONST> 7.674454e+001
<MIXTURE> 15 8.155715e-003
<MEAN> 39
 1.391056e+000 -1.900552e+000 2.012279e+000 -1.489904e+000 6.296378e-001 -1.758201e+000 3.117109e-001 2.133126e+000 -1.909655e+000 -1.209208e+000 -2.363495e+000 8.026187e-001 2.358308e+000 -1.122171e+000 6.285303e-001 3.265245e+000 -4.877802e-001 2.764179e+000 -2.690823e+000 -1.464630e+000 -7.945114e-001 2.140056e-001 2.910469e+000 -4.823104e-001 9.952375e-001 -1.053863e+000 -1.828549e+000 -6.415465e-001 -1.185976e+000 -1.874674e-001 8.862724e-001 7.426322e-001 2.478853e+000 4.227960e-001 -7.378176e-001 1.318598e+000 6.236148e-001 4.296656e-001 -4.185666e-001
<VARIANCE> 39
 2.852414e-001 1.130233e-001 3.208133e-001 1.188445e-001 4.118108e-001 2.104542e+000 5.055728e+000 6.171846e-001 3.043398e-001 3.123602e-001 4.007137e-001 2.816556e-001 1.078693e-002 7.723317e-001 3.730931e-001 3.609548e-001 8.218684e-001 1.636344e-001 1.461249e-001 6.745162e+000 1.799587e+000 1.072274e+000 3.175707e-001 4.604788e-001 4.254338e-002 7.360171e-002 1.862836e-001 3.607975e-001 3.690948e+000 9.076681e-001 5.447204e-001 2.064051e+000 3.948894e+000 1.709766e+000 8.949087e-001 1.497554e+000 5.685160e-001 2.217017e-002 4.804670e-002
<GCONST> 3.901041e+001
<MIXTURE> 16 8.155623e-003
<MEAN> 39
 -2.705763e-001 -1.899496e+000 -4.900029e-001 -2.379609e+000 -1.368343e+000 -6.176702e-001 2.480175e+000 -3.271398e+000 -1.730320e+000 -3.196054e+000 -1.372817e+000 -1.453730e+000 1.856057e+000 -3.876127e-001 9.884030e-001 2.161427e+000 -5.521969e-001 -2.061643e+000 1.180905e+000 1.571254e+000 -1.197839e+000 4.888957e-001 -5.240728e-002 -6.172019e-001 -4.722888e+000 -9.978873e-001 -2.897696e-001 1.678091e+000 -4.390746e-001 9.864703e-001 1.414793e+000 -2.256566e+000 -1.950636e+000 1.495602e+000 1.294489e-001 3.504225e+000 2.995794e-001 8.910358e-001 -3.007644e-001
<VARIANCE> 39
 1.974289e-001 1.417297e+000 5.868330e-001 3.992657e-001 1.129366e+000 3.817271e-002 1.664068e+000 1.098715e-001 2.944776e-001 9.636019e-001 3.132131e-001 2.676573e+000 9.215352e-002 4.233040e-001 1.209699e+000 2.190986e-002 3.651401e-001 2.597264e+000 1.593908e+000 4.337290e-001 1.550628e+000 9.048727e-001 3.190005e+000 1.010641e+000 1.904900e+000 1.003249e-001 2.347799e-001 5.596346e+000 4.756790e-001 4.323187e-001 1.554899e+000 5.544618e-001 3.099934e+000 4.713741e-001 1.003070e+000 4.100843e-001 1.342389e+000 8.947034e+000 4.081370e-002
<GCONST> 5.255220e+001
<STATE> 5
<NUMMIXES> 16
<MIXTURE> 1 1.173998e-001
<MEAN> 39
 -1.942273e+000 -7.671256e-001 9.273800e-001 -1.457768e-001 6.710123e-003 5.290542e-001 1.426696e+000 -7.229573e-001 9.493484e-001 8.066700e-002 9.446311e-001 -1.927461e-001 1.515119e+000 -1.574456e-001 3.547699e-001 6.489333e-002 -6.536117e-002 3.082999e-001 1.887796e-001 -4.003512e-001 -1.041633e-001 -4.224956e-001 -2.613692e-001 9.045399e-002 4.264041e-002 -9.450503e-002 3.439272e-001 2.650260e-001 -5.681818e-001 -2.940986e-001 1.176361e-001 3.181513e-001 -2.394504e-001 3.453636e-001 -2.322577e-001 -3.037084e-001 -3.856509e-001 -2.153407e-001 -3.088921e-001
<VARIANCE> 39
 3.434449e-001 3.497866e+000 3.894037e+000 1.481538e+000 3.587489e+000 2.823873e+000 2.020811e+000 1.185818e+000 9.550309e-001 1.861541e+000 1.093981e+000 1.720115e+000 1.635058e-001 3.455555e-001 6.744579e-001 1.406145e+000 1.816390e+000 1.375011e+000 2.205912e+000 1.896115e+000 1.735832e+000 1.676283e+000 1.578507e+000 2.550349e+000 1.764459e+000 2.112888e-001 7.762921e-001 9.158941e-001 1.550690e+000 1.670359e+000 1.308801e+000 2.128253e+000 2.108716e+000 2.191744e+000 2.059299e+000 1.886158e+000 2.686238e+000 1.618325e+000 4.640386e-001
<GCONST> 8.412861e+001
<MIXTURE> 2 4.587415e-002
<MEAN> 39
 5.787198e-001 -7.352688e-001 -6.189685e-001 -7.193889e-001 1.082822e-001 1.410523e-002 -3.514064e-001 4.678732e-001 -1.012888e+000 9.080622e-001 -1.004474e+000 3.678026e-001 6.437629e-001 -2.730407e-002 -5.522031e-002 7.683171e-002 7.108804e-002 -1.100168e-001 -2.565738e-001 -1.635165e-002 2.140090e-001 -1.737244e-001 -7.847354e-003 -1.747761e-001 1.625655e-001 -2.664676e-002 -1.444450e-002 5.012019e-002 6.906378e-002 3.383127e-002 -4.679430e-002 -1.269788e-001 8.593422e-003 2.049961e-003 9.320782e-002 -7.224477e-002 -1.982071e-002 -6.317431e-002 3.173679e-002
<VARIANCE> 39
 4.610201e-002 2.823772e-002 4.669273e-002 1.886661e-001 2.373448e-001 2.712784e-001 3.351869e-001 5.195875e-001 1.562616e-001 2.755312e-001 1.299178e-001 3.571418e-001 2.460769e-002 3.197906e-002 2.123280e-001 2.433984e-001 2.630737e-001 1.453854e-001 4.225517e-001 1.553939e-001 2.748713e-001 5.995268e-001 5.278522e-001 7.743810e-001 4.111236e-001 2.634350e-002 2.626994e-002 2.507174e-001 3.414489e-001 3.024954e-001 1.709983e-001 2.809364e-001 1.708733e-001 2.886206e-001 7.143022e-001 5.062537e-001 1.324980e+000 4.898106e-001 2.579724e-002
<GCONST> 7.829618e+000
<MIXTURE> 3 2.011527e-001
<MEAN> 39
 -6.164771e-001 8.004264e-001 6.208820e-001 -3.834733e-001 5.403849e-001 1.942140e-001 -3.416189e-001 1.415079e-001 2.577941e-001 -2.325206e-001 2.730430e-001 -3.733135e-001 -6.509271e-003 7.739362e-001 -7.449130e-001 -2.418986e-001 2.884277e-001 -4.137671e-002 -3.923268e-001 2.681332e-001 -5.367670e-002 1.261084e-001 2.087932e-002 2.155730e-001 1.516827e-001 -6.789600e-001 -1.076241e+000 3.602719e-002 -7.344363e-002 -4.763070e-001 -1.781799e-001 -4.903994e-001 3.576173e-001 -7.431510e-003 -1.941271e-001 2.813915e-001 -5.820828e-002 1.670395e-001 1.439178e+000
<VARIANCE> 39
 4.718212e-001 4.663406e-001 7.670891e-001 1.058313e+000 1.138358e+000 9.828447e-001 1.087670e+000 8.714062e-001 1.006163e+000 8.570520e-001 1.204246e+000 9.500754e-001 3.231038e-001 1.784481e+000 1.038047e+000 1.822234e+000 1.496096e+000 1.627186e+000 1.564224e+000 1.703201e+000 1.449478e+000 1.981002e+000 1.515396e+000 1.442329e+000 1.620440e+000 2.172238e+000 9.565015e-001 1.388423e+000 1.801444e+000 1.323389e+000 1.636303e+000 1.545915e+000 1.473110e+000 1.505121e+000 1.955249e+000 1.412269e+000 1.365647e+000 1.762298e+000 1.280943e+000
<GCONST> 8.006982e+001
<MIXTURE> 5 1.652198e-002
<MEAN> 39
 6.075774e-001 3.112570e-002 1.112533e+000 -6.831667e-001 -1.223105e+000 -2.145157e+000 5.899462e-001 9.001570e-001 -6.705782e-001 -2.535681e-001 -1.214013e+000 -8.606060e-001 1.033512e+000 -1.386278e+000 1.589175e+000 1.249965e+000 7.792137e-001 6.645965e-001 4.638022e-002 -9.947520e-002 -5.870997e-001 1.384704e+000 3.395416e-001 1.982870e+000 -3.681595e-001 -8.400003e-001 -1.553740e+000 -4.634933e-001 -4.376582e-001 -2.288261e-001 -2.201376e-001 1.155519e+000 -4.209103e-001 -8.353094e-001 9.910926e-001 9.288156e-003 5.538753e-001 4.955746e-001 -2.881589e-001
<VARIANCE> 39
 2.099072e-001 5.078182e-001 5.451406e-001 4.886707e-001 9.020623e-001 7.407607e-001 1.461407e+000 1.600245e+000 8.976851e-001 1.648708e+000 4.321683e-001 3.069513e+000 3.927968e-001 1.452708e+000 6.872594e-001 1.469842e+000 1.623759e+000 2.193454e+000 1.727232e+000 1.697603e+000 2.426710e+000 1.159737e+000 3.063330e+000 2.288775e+000 2.848065e+000 3.088986e-001 1.780010e+000 1.084777e+000 1.478822e+000 1.835251e+000 2.858281e+000 1.114986e+000 3.225021e+000 1.282571e+000 1.295000e+000 3.695571e+000 1.989311e+000 3.421912e+000 6.448712e-001
<GCONST> 8.116613e+001
<MIXTURE> 6 1.323750e-002
<MEAN> 39
 1.697792e+000 4.245472e-001 1.093824e+000 -2.609135e+000 -3.344927e+000 -1.671230e+000 -8.111998e-001 -1.375246e+000 -2.683362e-001 -2.988383e-001 -1.250113e+000 -1.557864e+000 1.422094e+000 -9.369004e-001 1.868274e+000 3.803908e-001 9.865611e-001 9.194744e-001 -3.763388e-001 -9.187655e-001 -3.332236e-001 5.940555e-001 6.077251e-001 8.141585e-002 7.233762e-001 -1.159400e+000 -2.290264e+000 -2.480910e-001 -1.677006e+000 1.361536e+000 2.436662e+000 1.305488e+000 1.286366e+000 2.635480e-001 -8.846290e-001 -3.236432e-001 1.512064e-001 4.011562e-001 -1.049513e+000
<VARIANCE> 39
 1.148008e+000 4.845893e-001 6.605501e-001 7.474941e-001 2.124945e-001 6.146973e-001 9.581539e-001 1.382949e-001 4.591151e-001 8.902716e-001 1.187555e+000 2.681872e-001 1.537317e-001 3.675775e+000 2.006715e+000 3.590819e+000 1.173479e+000 1.992827e+000 2.874599e+000 2.732507e+000 4.431452e-001 2.116413e+000 1.863640e+000 1.723867e+000 1.765520e-001 6.746332e-001 1.111701e+000 2.203281e+000 5.656674e-001 6.936476e-001 1.030189e+000 1.899339e+000 1.903047e+000 2.704009e-001 1.410811e+000 2.619103e+000 1.529717e+000 5.406376e-001 7.030592e-001
<GCONST> 6.831153e+001
<MIXTURE> 7 2.712491e-001
<MEAN> 39
 -1.966952e+000 1.253729e+000 9.657322e-001 -1.316234e+000 6.095134e-001 3.061022e-002 -1.852637e-001 3.562022e-001 -1.978942e-001 3.384114e-001 2.244033e-001 -3.703560e-001 8.857210e-001 2.727518e-001 1.797875e-001 -2.992017e-001 2.875147e-001 4.397036e-001 4.735066e-002 -2.868155e-002 2.687039e-001 1.654758e-001 1.567477e-001 -1.073631e-001 1.508209e-001 -4.981516e-001 7.524253e-001 -3.139117e-001 -6.254216e-002 1.960877e-001 -2.327295e-001 -1.166261e-001 -6.141672e-002 -1.314570e-001 2.795376e-003 -1.737352e-001 1.027494e-002 -9.228843e-003 -5.218394e-001
<VARIANCE> 39
 5.198867e-001 2.429980e-001 1.246392e+000 5.065936e-001 9.327686e-001 9.913480e-001 1.076848e+000 8.958771e-001 8.289903e-001 4.743683e-001 1.030720e+000 6.422539e-001 1.902083e-001 9.469467e-001 6.225027e-001 1.364832e+000 8.777378e-001 9.833820e-001 1.054421e+000 1.079256e+000 1.092713e+000 1.091147e+000 9.338343e-001 1.092508e+000 8.556816e-001 6.918956e-001 9.414434e-001 8.002362e-001 1.038870e+000 9.811578e-001 9.122148e-001 9.658161e-001 8.685815e-001 1.078707e+000 9.801794e-001 1.019790e+000 1.049595e+000 9.874424e-001 5.857930e-001
<GCONST> 6.450993e+001
<MIXTURE> 8 1.409591e-001
<MEAN> 39
 -1.713118e+000 -3.095122e-001 1.086310e+000 -1.364627e+000 1.197599e+000 2.536552e-001 -2.162983e-001 7.264642e-001 -3.511269e-001 2.090370e-001 1.474776e-001 -1.864986e-001 1.310562e+000 1.200388e-001 -4.451177e-002 -7.759428e-001 3.422795e-001 2.406702e-001 -4.125019e-002 -1.816262e-001 2.586300e-001 4.137597e-002 4.247567e-001 -1.351407e-001 -7.284002e-002 -9.239725e-001 7.877979e-001 -2.314389e-001 6.253839e-002 6.437739e-001 -4.899536e-001 -1.472296e-001 3.301086e-001 -1.872884e-001 4.691068e-001 2.489804e-002 6.585705e-002 1.319377e-001 -1.073223e+000
<VARIANCE> 39
 1.660112e+000 3.000610e+000 3.277516e+000 2.736223e+000 3.914925e+000 4.204809e+000 3.618371e+000 2.310293e+000 2.354223e+000 3.008389e+000 2.492309e+000 3.228275e+000 3.028583e-001 3.309952e+000 3.593373e+000 3.958776e+000 3.428707e+000 3.121252e+000 3.764438e+000 2.638640e+000 3.075606e+000 2.457543e+000 2.761231e+000 2.428797e+000 3.632104e+000 3.478713e+000 2.333353e+000 3.979160e+000 3.676620e+000 3.313603e+000 4.271426e+000 4.176867e+000 2.502565e+000 3.518646e+000 3.196746e+000 2.779260e+000 3.168675e+000 3.705156e+000 3.420083e+000
<GCONST> 1.138921e+002
<MIXTURE> 9 1.175469e-001
<MEAN> 39
 -2.198386e+000 1.829785e-001 1.714832e+000 -1.845944e+000 -1.344574e+000 -7.479320e-002 9.010085e-002 -9.959970e-002 1.076472e+000 -7.340053e-001 -6.382648e-002 -7.070786e-001 1.314835e+000 -9.284126e-001 1.346776e-001 3.931696e-001 -1.801838e-002 1.879233e-003 1.953845e-001 1.818354e-001 -3.352362e-001 -1.384433e-001 1.989511e-001 6.440294e-001 3.002178e-001 4.711612e-002 9.980414e-001 2.891636e-001 1.370572e-001 5.982426e-001 6.546779e-001 -3.112524e-001 4.507108e-002 1.163281e-001 -3.026864e-001 2.733765e-001 2.175076e-002 1.599914e-001 -2.003612e-002
<VARIANCE> 39
 8.714535e-001 8.235687e-001 7.326500e-001 4.679829e-001 1.513759e+000 1.311224e+000 1.651605e+000 1.353213e+000 1.484048e+000 1.370706e+000 1.351868e+000 9.931877e-001 1.994806e-001 1.040986e+000 6.084654e-001 7.086959e-001 1.111082e+000 1.317885e+000 1.082063e+000 9.830184e-001 1.465889e+000 1.132107e+000 8.430868e-001 8.131267e-001 9.680136e-001 1.866283e-001 1.145336e+000 8.285264e-001 8.915030e-001 1.133640e+000 1.349160e+000 1.176419e+000 1.355640e+000 1.510663e+000 1.175794e+000 8.679833e-001 1.002378e+000 1.005523e+000 2.819775e-001
<GCONST> 6.911684e+001
<MIXTURE> 10 4.092150e-003
<MEAN> 39
 -5.909264e-001 -1.647128e+000 2.649506e+000 -2.713962e+000 1.018930e+000 1.404156e-001 -7.918692e-001 1.348341e+000 -2.502282e+000 5.580497e-001 -5.387236e-001 -6.119547e-001 2.061363e+000 -3.555663e+000 1.257844e+000 7.663245e-001 -2.414087e+000 1.025254e+000 -7.910893e-001 -2.882552e+000 3.965163e-001 -1.009034e+000 -1.163642e-001 1.526195e+000 5.535914e-001 -1.865510e+000 3.343194e-001 -6.185474e-001 -2.916648e+000 -1.836433e-003 -1.765073e+000 -8.736982e-001 -3.240943e-001 8.356930e-002 -1.722938e+000 -3.008759e+000 -3.320858e-001 -1.411716e+000 1.557612e+000
<VARIANCE> 39
 1.049675e+000 6.231336e-002 9.999958e-003 3.541874e-001 2.480464e-001 5.784559e-001 7.718328e-001 1.435833e-001 1.629502e-001 2.197987e-001 1.856773e-001 6.647069e-001 3.332414e-002 5.404066e-001 1.247064e-002 1.605642e+000 9.208798e-002 1.643778e+000 2.285199e+000 6.554735e-001 1.861966e-001 3.347082e+000 3.609335e+000 7.391778e-001 2.786746e+000 5.800340e-001 2.138454e+000 2.518021e-001 1.917744e+000 2.111505e+000 4.048070e-001 4.164124e-001 5.828708e+000 3.995205e-001 3.145124e+000 1.115568e+000 2.060638e-001 1.018483e+000 3.287304e+000
<GCONST> 4.604950e+001
<MIXTURE> 11 3.821183e-002
<MEAN> 39
 -1.307154e+000 6.850260e-001 1.736591e-001 -1.509497e+000 -6.278374e-001 -8.980787e-001 3.394277e-001 -8.476039e-001 -6.645913e-001 1.692672e-001 -2.177143e-001 -8.190314e-001 6.178491e-001 -2.932963e+000 6.210231e-001 -6.947536e-001 6.235908e-001 1.694969e+000 6.172647e-001 4.622235e-001 9.032279e-001 1.254450e+000 1.082122e+000 1.114329e+000 7.123904e-001 -3.391089e-001 1.311064e+000 -9.456873e-001 4.672216e-001 -4.327875e-001 -7.542820e-001 1.746920e-001 -5.228396e-001 -8.730529e-002 -6.399986e-002 -9.428458e-001 -5.613123e-001 -1.967772e-001 1.254699e+000
<VARIANCE> 39
 4.869449e-001 3.122387e-001 2.065232e+000 9.250445e-001 1.186484e+000 6.182398e-001 1.605896e+000 6.076866e-001 7.399527e-001 9.055847e-001 9.015389e-001 5.748422e-001 1.565562e-001 8.835343e-001 1.064239e+000 1.207246e+000 2.094625e+000 1.640918e+000 1.917910e+000 2.917011e+000 1.266207e+000 2.043859e+000 2.385415e+000 1.090750e+000 8.698314e-001 1.075153e+000 1.495782e+000 1.405504e+000 2.304864e+000 1.136703e+000 2.461463e+000 1.548165e+000 2.516436e+000 9.874443e-001 2.814399e+000 1.608917e+000 1.310391e+000 7.098417e-001 5.654925e-001
<GCONST> 7.694006e+001
<MIXTURE> 12 3.069102e-003
<MEAN> 39
 9.918170e-001 7.929316e-001 2.621596e+000 -5.339549e-001 7.141461e-001 -1.887082e+000 -5.384757e-001 4.277200e-001 1.706956e-001 -1.355050e+000 -1.309503e+000 -1.656649e+000 1.725358e+000 -5.534770e+000 -2.506457e-001 -5.033037e-002 -3.794392e+000 -6.068097e-001 -8.249341e-001 7.211911e-001 6.796550e-001 -2.126781e+000 3.167171e-002 -6.648764e-001 -7.136132e-001 -1.499981e+000 2.124737e-001 -8.305580e-001 -2.734162e-001 -5.188369e-001 -2.342482e+000 2.095122e-001 5.456636e-001 1.349922e+000 6.850320e-001 8.889071e-001 1.789497e+000 1.160303e+000 1.622460e+000
<VARIANCE> 39
 9.826788e-001 7.243101e-002 3.609441e-001 1.014966e+000 9.170020e-001 3.151768e-001 3.970243e+000 1.474068e-001 1.084087e+000 3.373117e-001 4.629262e-001 3.106849e-002 1.556367e-002 1.125767e-001 6.335508e-001 4.839051e-001 7.821220e-001 4.800724e-001 2.190904e+000 9.262362e-001 4.484182e-001 2.486582e+000 5.588739e-001 1.630783e+000 1.354384e+000 2.246906e-001 3.087638e+000 1.180589e+000 2.097128e+000 2.126532e+000 1.348838e+000 2.935319e-001 1.140070e+000 1.346021e-001 9.629713e-001 1.728181e-002 1.902740e-001 4.519121e-001 1.045489e+000
<GCONST> 4.551371e+001
<MIXTURE> 13 8.177561e-003
<MEAN> 39
 1.588291e-001 -8.863475e-001 -3.359793e-001 -1.976611e+000 -1.602599e+000 1.980376e-002 4.145158e-001 -1.481697e+000 -1.146706e+000 -2.873821e+000 -2.092487e+000 -1.789953e+000 1.260517e+000 7.692825e-001 1.438322e+000 5.266353e-001 -5.105635e-002 -7.231094e-001 -1.320369e+000 -6.951710e-001 -3.431428e-001 5.427580e-001 9.436884e-001 2.798226e-002 3.241884e-001 -8.958423e-001 -6.403801e-001 1.293186e+000 1.896076e-001 4.625583e-001 1.877442e+000 -3.722105e-001 -1.025971e+000 -2.594587e-001 8.751019e-001 2.716705e+000 2.696365e+000 5.665376e-001 6.688778e-001
<VARIANCE> 39
 9.889275e-001 8.130792e-001 1.814500e+000 1.234005e+000 6.727632e-001 4.469317e-001 9.520630e-001 1.008164e+000 9.587826e-001 4.502505e-001 1.869101e+000 5.005258e-001 6.513326e-001 3.007464e-001 3.080486e+000 8.588167e-001 1.811199e+000 4.636233e+000 8.950273e-001 8.457677e-001 8.445365e-001 3.661439e-001 3.945133e+000 1.476202e+000 7.998025e-001 1.996217e-001 7.362683e-001 7.189662e-001 9.403177e-001 1.745215e+000 5.276268e-001 1.434569e+000 1.353315e+000 9.361401e-001 1.959673e-001 1.179252e+000 1.329258e-001 1.453610e+000 6.040879e-001
<GCONST> 6.626595e+001
<MIXTURE> 14 6.138322e-003
<MEAN> 39
 9.408005e-001 1.589834e-001 -8.993509e-002 -6.259540e-001 -2.074249e+000 -9.887636e-001 -1.365673e+000 -1.918570e+000 4.000762e-001 -1.973750e+000 -1.018295e+000 -5.575675e-001 1.273186e+000 -1.991301e+000 2.605982e+000 7.996547e-001 -1.400871e-001 3.738206e+000 -1.331574e+000 1.457296e+000 5.956139e-001 -5.982444e-001 1.298626e+000 -2.067220e-001 1.132145e+000 -1.666194e+000 -2.263460e+000 -7.058474e-001 4.379924e-001 -1.630715e+000 1.058692e+000 2.004596e-001 6.870393e-001 1.669119e+000 -2.093619e-001 1.386777e+000 -9.816682e-002 -4.160008e-001 2.236094e-001
<VARIANCE> 39
 1.450690e-001 2.247144e-001 1.347172e+000 6.493165e-002 1.168965e+000 3.093853e-001 8.028503e-001 6.034244e-001 1.477107e+000 5.806196e-001 4.699489e-001 1.202286e+000 2.365096e-001 1.519101e+000 4.414438e-001 1.999040e+000 8.449459e-001 4.856693e-001 9.340723e-001 2.340021e-001 2.311657e+000 2.567782e+000 2.345459e+000 3.962627e-001 1.708264e+000 4.807779e-002 8.222432e-001 7.727312e-001 2.393431e+000 1.325202e+000 1.799595e+000 1.068885e+000 1.442683e+000 1.506413e+000 1.076852e+000 5.260506e-001 4.229832e-001 1.640522e+000 4.308223e-001
<GCONST> 5.935477e+001
<MIXTURE> 15 6.140260e-003
<MEAN> 39
 7.277201e-001 -3.258231e-001 1.779552e+000 5.364317e-002 2.985980e-002 -8.274676e-001 1.429615e+000 4.590800e-001 2.183149e+000 -1.609806e+000 1.898068e-001 -1.164744e+000 1.494856e+000 -3.078660e+000 2.029295e-001 5.947562e-001 -1.572251e+000 -8.176963e-001 1.357727e+000 -1.385622e+000 -3.256043e-001 8.866953e-001 -1.084497e+000 -8.726106e-001 -3.585579e-001 -1.010103e+000 -2.175253e+000 -1.035652e+000 -1.025102e+000 -2.158390e+000 -1.379271e+000 -7.754403e-001 -4.332774e-001 -6.867667e-001 -8.771174e-001 8.914179e-001 -3.002644e-001 4.600045e-001 7.500739e-002
<VARIANCE> 39
 1.028072e+000 2.264743e-001 1.866448e-001 9.491064e-001 2.483878e+000 7.566379e-001 4.547244e-001 7.053741e-001 1.356450e+000 7.581443e-001 3.409520e+000 4.958987e-001 6.877280e-002 2.891071e-001 2.117943e-001 1.259251e+000 9.742664e-001 8.418247e+000 1.506424e+000 8.770291e-001 1.452069e+000 6.936979e+000 1.763395e+000 2.194681e+000 1.568327e+000 4.753611e-001 1.176917e+000 3.527092e-001 6.439418e-001 1.787233e+000 3.876572e+000 7.598219e-001 1.774801e+000 1.334864e+000 2.242323e+000 1.181413e+000 2.833940e+000 1.582084e+000 1.809034e-001
<GCONST> 7.101773e+001
<MIXTURE> 16 1.022936e-002
<MEAN> 39
 4.400657e-002 3.738889e-001 4.011063e-001 -2.546309e+000 -1.701528e+000 -5.421536e-001 -1.514251e+000 -1.152964e+000 -2.606624e+000 -1.285375e+000 -1.945160e+000 -1.882315e+000 1.095927e+000 -1.614915e+000 1.045596e+000 2.664238e-001 4.558889e-001 2.401630e+000 7.713937e-001 -7.599805e-001 5.843639e-001 -3.025033e-001 1.505957e+000 1.144283e+000 7.189238e-001 -1.371624e+000 -1.412925e+000 -1.680328e+000 -1.567083e+000 1.117613e+000 1.234873e+000 9.485145e-001 1.963027e+000 7.841930e-001 2.228122e+000 8.461288e-001 1.683028e+000 3.751777e-001 -6.907071e-001
<VARIANCE> 39
 3.921298e-001 1.613523e-001 1.011908e+000 2.101068e+000 1.774122e+000 1.426854e+000 8.980492e-001 1.580776e+000 2.219712e-001 9.494784e-001 6.738110e-001 6.550709e-002 8.789159e-002 8.189886e-001 1.805800e+000 2.880728e+000 7.374091e-001 1.454229e+000 7.289708e-001 2.145654e+000 1.006329e+000 1.295610e+000 3.480007e+000 2.291410e+000 7.542539e-001 4.056934e-001 3.728357e-001 1.055623e+000 1.803643e+000 2.400135e+000 2.625198e+000 8.789805e-001 1.070675e+000 3.157547e+000 5.765553e-001 3.317514e+000 1.704337e+000 5.066705e-001 1.941984e+000
<GCONST> 7.071770e+001
<STATE> 6
<NUMMIXES> 16
<MIXTURE> 5 1.000000e+000
<MEAN> 39
 -1.077511e+000 6.115263e-001 -3.422559e-001 -6.104417e-001 4.296444e-001 -1.090152e+000 5.031896e-001 9.196193e-002 2.713864e-001 2.753206e-001 3.995624e-001 4.348401e-001 5.152798e-001 5.521497e-001 -4.210077e-001 -4.966005e-002 3.145540e-001 -2.163776e-001 -1.001905e-001 -9.009892e-002 3.275567e-002 1.554214e-002 8.041153e-002 9.855931e-002 1.311061e-001 -6.682736e-001 7.033358e-001 -3.907508e-002 2.101805e-001 3.245346e-001 -6.820662e-002 6.349280e-001 -2.165237e-001 4.087328e-003 -7.455366e-003 -2.449801e-001 -7.207482e-002 -1.182357e-001 -8.680733e-001
<VARIANCE> 39
 4.649761e-001 7.636633e-001 1.327641e+000 1.266271e+000 1.276529e+000 1.656401e+000 1.771388e+000 1.948699e+000 1.171862e+000 1.144228e+000 1.162508e+000 1.693528e+000 2.306710e-001 2.103903e+000 1.702372e+000 2.755256e+000 2.147457e+000 2.339805e+000 2.361479e+000 2.439195e+000 2.539602e+000 1.950791e+000 1.721832e+000 2.118030e+000 2.227578e+000 2.338363e+000 2.610060e+000 2.519598e+000 2.877972e+000 2.074233e+000 2.366590e+000 2.603857e+000 2.442476e+000 2.698447e+000 2.033654e+000 1.534229e+000 2.133771e+000 2.227235e+000 1.978496e+000
<GCONST> 9.360520e+001
<STATE> 7
<NUMMIXES> 16
<MIXTURE> 11 1.000000e+000
<MEAN> 39
 -6.302405e-001 7.896644e-002 2.060302e-001 -3.072769e-001 2.462049e-001 -9.449135e-001 -3.648183e-001 1.943148e-001 7.234839e-002 1.426219e-001 2.997932e-001 2.498191e-001 -5.272487e-002 2.307357e+000 -3.778801e-002 -1.292000e-001 1.322369e+000 -6.117666e-001 1.100832e+000 -4.615020e-002 -1.330149e-001 1.180060e-001 -1.280755e-001 -3.664491e-002 2.057847e-001 -2.787253e+000 3.129418e-001 5.556227e-001 -1.225344e-001 -3.674332e-001 1.045525e-001 9.463105e-001 4.561539e-001 1.225694e-001 4.830874e-001 9.889613e-002 1.581917e-002 -1.941184e-002 3.050367e-001
<VARIANCE> 39
 4.735107e-001 7.113916e-001 2.040775e+000 8.376138e-001 1.778491e+000 1.603489e+000 2.439098e+000 1.266536e+000 1.110464e+000 2.118412e+000 1.003451e+000 1.420529e+000 2.172873e-001 3.875559e+000 4.029969e+000 2.480930e+000 3.484262e+000 4.502479e+000 4.201046e+000 1.747725e+000 3.289618e+000 2.046248e+000 1.814328e+000 3.125059e+000 1.586120e+000 3.124414e+000 1.689872e+000 2.359049e+000 2.307408e+000 1.374458e+000 1.887964e+000 1.753167e+000 2.367566e+000 1.265780e+000 1.956007e+000 2.730434e+000 1.290044e+000 1.628944e+000 1.873221e+000
<GCONST> 9.450778e+001
<TRANSP> 8
 0.000000e+000 1.000000e+000 0.000000e+000 0.000000e+000 0.000000e+000 0.000000e+000 0.000000e+000 0.000000e+000
 0.000000e+000 9.212145e-001 7.878545e-002 0.000000e+000 0.000000e+000 0.000000e+000 0.000000e+000 0.000000e+000
 0.000000e+000 0.000000e+000 9.251453e-001 7.485467e-002 0.000000e+000 0.000000e+000 0.000000e+000 0.000000e+000
 0.000000e+000 0.000000e+000 0.000000e+000 9.102878e-001 8.971224e-002 0.000000e+000 0.000000e+000 0.000000e+000
 0.000000e+000 0.000000e+000 0.000000e+000 0.000000e+000 9.549870e-001 4.501305e-002 0.000000e+000 0.000000e+000
 0.000000e+000 0.000000e+000 0.000000e+000 0.000000e+000 0.000000e+000 8.411542e-001 1.588458e-001 0.000000e+000
 0.000000e+000 0.000000e+000 0.000000e+000 0.000000e+000 0.000000e+000 0.000000e+000 0.000000e+000 1.000000e+000
 0.000000e+000 0.000000e+000 0.000000e+000 0.000000e+000 0.000000e+000 0.000000e+000 0.000000e+000 0.000000e+000
<ENDHMM>
~h "one"
<BEGINHMM>
<NUMSTATES> 8
<STATE> 2
<NUMMIXES> 15
<MIXTURE> 1 7.895553e-002
<MEAN> 39
 1.810762e-001 3.601781e-001 3.235085e+000 -2.461836e+000 -1.574856e+000 -1.884637e+000 -1.226174e+000 -9.901657e-001 -1.355246e+000 1.143021e+000 -1.483488e+000 -7.690335e-001 2.378673e+000 -3.346826e-001 -1.378950e+000 1.224173e-001 -5.960824e-001 -1.710648e+000 -9.807104e-001 1.569397e-001 2.181990e-001 6.014843e-002 1.937938e+000 7.194744e-001 4.692660e-001 8.725629e-001 6.258301e-001 -1.926977e-001 -1.946976e+000 8.991839e-001 3.465810e-001 7.898592e-001 -3.497717e-001 3.837888e-002 2.018691e-001 -8.830286e-001 5.466590e-001 5.522538e-001 -3.352453e-001
<VARIANCE> 39
 7.861532e-001 1.868770e+000 4.957880e-001 5.969170e-001 1.198911e+000 1.876136e+000 1.140062e+000 1.774622e+000 1.659583e+000 2.910854e+000 2.676445e+000 3.060677e+000 4.823292e-001 4.359129e-001 1.378571e+000 1.697457e+000 7.744195e-001 2.246553e+000 1.367044e+000 2.325811e+000 2.326797e+000 8.555338e-001 1.032282e+000 1.751656e+000 1.881209e+000 1.862318e-001 2.781632e-001 1.840298e+000 1.551605e+000 9.953787e-001 2.666607e+000 2.712976e+000 2.198000e+000 2.423629e+000 1.339068e+000 1.727994e+000 1.851748e+000 2.727206e+000 2.268585e-001
<GCONST> 8.166251e+001
<MIXTURE> 2 3.168853e-002
<MEAN> 39
 -5.016997e-001 1.277522e+000 -1.217403e+000 3.293835e-001 7.066304e-001 -3.786059e-001 9.150370e-001 -1.196410e+000 1.772286e+000 -1.833933e+000 -4.264765e-001 -1.818687e+000 1.156813e+000 2.406013e-001 1.069145e+000 1.302830e+000 7.344369e-002 5.671353e-001 5.872292e-002 -2.163068e-001 -5.149199e-001 6.266916e-002 -7.382413e-001 -5.486153e-001 -9.585453e-001 1.309548e+000 3.485027e-001 -3.668748e-001 5.007337e-001 -9.071855e-001 -1.192552e+000 -2.432375e-001 -1.582503e+000 -5.240287e-004 -1.620321e+000 8.298703e-001 -4.152479e-001 5.643783e-001 -1.020581e+000
<VARIANCE> 39
 2.579680e-001 4.282002e-001 4.582955e+000 6.650217e-001 2.210747e-001 3.672729e+000 9.691405e-001 1.795222e+000 2.677856e+000 1.384297e+000 1.356997e+000 1.550281e+000 1.185844e-001 8.354728e-001 1.012974e+000 9.170606e-001 2.096124e+000 1.772382e+000 1.729104e+000 4.724233e+000 2.400915e+000 4.322648e+000 2.026979e+000 1.319468e+000 3.112680e+000 2.543322e+000 6.391159e-001 1.612857e+000 2.676213e+000 1.717902e+000 8.683529e-001 4.257481e+000 2.560129e+000 1.754994e+000 1.544150e+000 1.229103e+000 1.885076e+000 2.512197e+000 2.371530e+000
<GCONST> 8.683279e+001
<MIXTURE> 3 6.833361e-002
<MEAN> 39
 8.064713e-001 3.710846e-001 2.853618e+000 -3.294014e-001 -2.003648e+000 -8.187871e-001 -5.946564e-001 -1.585412e+000 -9.999691e-001 -2.565752e+000 7.970822e-001 4.796191e-002 2.509290e+000 -1.092032e-001 -6.552762e-001 -6.517255e-001 2.479585e-001 -2.347916e-001 -6.357349e-001 1.964880e-001 -1.265526e-001 1.136809e-001 2.476830e-001 1.658988e-001 -3.172674e-001 5.191048e-001 6.747177e-002 1.977467e-002 -9.560100e-001 -1.126587e-002 7.564833e-001 1.269449e-001 -3.206386e-002 1.429799e-001 -6.737395e-002 6.111466e-001 -1.496433e-001 -3.589581e-002 -6.864475e-001
<VARIANCE> 39
 4.678049e-001 2.064240e+000 2.808388e-001 1.514620e+000 9.158740e-001 9.024706e-001 1.426390e+000 1.455028e+000 5.077293e-001 2.599539e-001 6.257479e-001 3.081723e+000 9.292162e-002 4.911550e-001 8.855823e-001 1.231791e+000 8.569695e-001 1.350775e+000 4.914834e-001 1.008971e+000 1.123670e+000 2.914898e-001 9.756994e-001 4.911023e-001 5.116929e-001 1.161707e-001 7.267320e-001 3.704746e-001 8.698004e-001 1.540521e+000 1.510311e+000 7.366759e-001 9.963382e-001 1.691050e+000 5.502751e-001 1.099486e+000 4.951963e-001 7.956057e-001 5.771451e-001
<GCONST> 5.935431e+001
<MIXTURE> 4 1.085975e-001
<MEAN> 39
 -4.738713e-001 6.451246e-001 1.653569e-001 3.721772e-001 4.329006e-001 3.405680e-001 -5.706059e-001 -3.309562e-001 -6.924031e-001 -8.768504e-001 -4.488647e-001 -2.906624e-001 4.773601e-001 3.540626e-001 2.722231e+000 2.870985e+000 -1.623184e+000 -1.754415e+000 -2.440184e+000 -3.152534e+000 -2.663346e+000 -2.614851e+000 -1.882894e+000 -1.306836e+000 -1.252292e+000 4.182455e+000 1.584800e+000 5.156161e-001 1.301509e+000 -1.331328e+000 -9.314367e-001 -8.671250e-001 -4.607756e-001 -3.984045e-001 -2.167514e-002 5.520273e-002 -2.408663e-001 -1.240857e-001 -2.162316e-001
<VARIANCE> 39
 8.027313e-001 6.492639e-001 8.521599e-001 2.919382e-001 5.537121e-001 8.614522e-001 1.296297e+000 1.251144e+000 1.267042e+000 2.108908e+000 9.635620e-001 2.569682e+000 3.665679e-001 6.015805e+000 1.314081e+000 3.032945e+000 2.901779e+000 3.188018e+000 2.831609e+000 2.847844e+000 4.206111e+000 2.801641e+000 3.820657e+000 4.956271e+000 3.652648e+000 1.259238e+000 2.348894e+000 1.824390e+000 2.768661e+000 2.020912e+000 2.674765e+000 2.794134e+000 3.444201e+000 3.210846e+000 2.165338e+000 3.545393e+000 2.536456e+000 4.599037e+000 4.573438e+000
<GCONST> 9.829343e+001
<MIXTURE> 5 1.110860e-001
<MEAN> 39
 7.137641e-001 2.084927e+000 1.192815e+000 -3.838440e-001 -2.486064e-001 -4.175347e-001 -1.800337e+000 -1.224052e+000 -1.278006e+000 -1.339789e+000 -2.497006e-001 -3.946653e-001 9.871308e-001 1.140903e+000 1.789580e+000 2.157971e+000 -1.923856e+000 -1.432531e+000 -6.676412e-001 -1.651555e+000 -9.389212e-001 -7.914619e-001 -1.053224e+000 -1.933193e-001 -3.310479e-001 2.430474e+000 -1.131682e+000 -1.919732e+000 -9.123899e-001 3.572475e-001 2.042419e-001 7.296491e-001 1.382526e+000 6.686579e-001 1.366726e+000 1.029865e+000 8.187324e-003 1.213041e-001 -2.282005e+000
<VARIANCE> 39
 1.698523e+000 6.307225e-001 8.656727e-001 1.345377e+000 7.960451e-001 1.856325e+000 9.641526e-001 1.200051e+000 1.073215e+000 1.209328e+000 2.164328e+000 1.574582e+000 2.213808e-001 1.826218e+000 1.300115e+000 2.075868e+000 2.388502e+000 2.561609e+000 1.642386e+000 2.476061e+000 1.987714e+000 1.600530e+000 1.876911e+000 2.602443e+000 2.745258e+000 1.543441e+000 3.148750e+000 1.335927e+000 1.532528e+000 2.437640e+000 2.205507e+000 2.563472e+000 2.022286e+000 1.586531e+000 2.719408e+000 1.676014e+000 2.707011e+000 1.497821e+000 1.096199e+000
<GCONST> 9.007151e+001
<MIXTURE> 6 4.570448e-002
<MEAN> 39
 -4.071614e-001 3.293153e+000 1.947892e+000 -1.445357e+000 8.505932e-001 -2.217293e+000 -2.818736e+000 -2.547991e+000 -1.291912e+000 -2.997493e+000 -1.419933e+000 -1.842175e+000 1.744276e+000 -9.205637e-001 2.928473e-001 2.112865e+000 -1.757508e+000 4.105605e-001 -5.406855e-001 -4.510283e-001 3.948084e-002 3.158563e-001 -3.189386e-001 -7.438653e-001 -1.063320e+000 1.066761e+000 -5.896346e-002 -2.873601e+000 -1.699011e+000 2.039228e+000 1.026761e-001 2.219404e+000 2.132298e+000 1.903111e+000 9.537579e-001 2.193530e+000 1.263634e+000 1.843990e+000 -1.944692e+000
<VARIANCE> 39
 1.340740e+000 4.211214e-001 1.031167e+000 1.121311e+000 3.776294e+000 4.661155e-001 1.040198e+000 8.574581e-001 1.491057e+000 2.451150e-001 2.389002e+000 8.194250e-001 5.784184e-002 1.192243e+000 1.889732e+000 2.753807e+000 1.665091e+000 5.574899e+000 3.668105e+000 4.514610e+000 1.894450e+000 1.941076e+000 2.583318e+000 3.660232e+000 3.606259e+000 7.257590e-001 1.720086e+000 1.101940e+000 1.607002e+000 4.651111e+000 6.447700e+000 4.010850e+000 3.478816e+000 3.572395e+000 2.660558e+000 8.493741e-001 1.803065e+000 2.354575e+000 1.419931e+000
<GCONST> 9.092359e+001
<MIXTURE> 7 9.562287e-003
<MEAN> 39
 -7.993073e-001 3.208253e+000 1.239191e+000 -8.698729e-001 -5.360859e-001 -2.158811e+000 -3.338260e+000 -3.091042e+000 -1.818429e+000 -1.750263e+000 8.545396e-001 -5.585708e-002 1.682264e+000 -1.372225e+000 2.834959e+000 3.299573e+000 -4.714562e+000 1.268422e+000 -4.915565e+000 -4.028146e+000 -3.958541e+000 -1.557777e+000 -4.154677e+000 -2.136986e+000 -3.582137e+000 2.909113e+000 8.383677e-001 -2.222820e+000 6.703982e-001 5.319303e-001 2.499517e+000 3.216968e+000 2.808199e+000 3.685862e+000 2.261513e+000 1.222399e+000 -2.007292e+000 -1.248581e+000 -3.370346e+000
<VARIANCE> 39
 3.905269e-001 4.415014e-001 5.509384e-001 3.073450e-001 1.352800e+000 1.516874e-001 3.596504e+000 6.711768e-001 1.871288e-001 5.164697e-001 4.976102e+000 8.262827e-001 1.334850e-001 5.307112e+000 5.560907e-001 2.556850e-001 2.318084e-001 5.853231e+000 7.477158e-001 2.221541e+000 3.613610e+000 5.680626e-001 1.201833e+000 1.294137e+000 3.364174e-001 2.407852e+000 7.987868e-001 1.336973e+000 9.250148e-001 2.356739e+000 2.134373e+000 1.237511e+000 5.174209e+000 2.341242e+000 3.962485e-001 3.291753e+000 8.857402e+000 2.537741e+000 1.213860e+000
<GCONST> 7.386831e+001
<MIXTURE> 8 1.673250e-002
<MEAN> 39
 -4.558191e-001 1.740736e+000 3.484845e+000 -1.580055e+000 -1.492401e+000 -1.354214e+000 -2.985763e+000 -3.687325e+000 5.570927e-002 -7.749058e-001 -2.952074e+000 1.912074e+000 1.478131e+000 -4.126327e-001 -1.080222e+000 2.276171e+000 -3.141815e+000 -1.823167e+000 -1.702745e+000 2.182860e-001 -1.208566e+000 -1.178519e-001 1.609234e+000 -1.817889e+000 2.002004e+000 1.717089e+000 -1.373360e-001 -2.586681e+000 -3.972210e+000 1.438203e+000 2.011346e+000 1.371886e+000 2.211209e+000 3.770943e+000 -1.272418e+000 3.164173e+000 2.597702e+000 -1.158179e+000 -2.172147e+000
<VARIANCE> 39
 1.071157e-001 1.309611e+000 1.705685e-001 5.364828e-001 2.931178e-001 1.051434e+000 1.121237e+000 7.214166e-001 1.640684e+000 1.566247e+000 3.779190e-001 2.005342e+000 8.751532e-002 4.227366e-001 4.580597e+000 3.665350e+000 1.896274e+000 3.886828e+000 5.709060e+000 2.167035e+000 5.855585e+000 4.056526e+000 5.986414e+000 4.106434e+000 1.725887e+000 9.374163e-001 8.685865e-001 4.615441e+000 4.982013e-001 1.615541e+000 2.690132e+000 3.049026e+000 2.848934e+000 1.461285e+000 1.197319e+000 1.776774e+000 1.216799e+000 1.246459e+000 9.134189e-001
<GCONST> 8.326970e+001
<MIXTURE> 9 9.407794e-002
<MEAN> 39
 -8.467187e-001 2.487900e+000 1.372056e+000 -1.044104e+000 7.965098e-002 -9.390758e-001 -2.059769e+000 -1.863486e+000 -2.051881e+000 -2.650563e+000 -1.845408e+000 -1.455242e+000 1.523815e+000 -5.929687e-001 -2.791162e-001 9.531129e-001 -8.699937e-001 -7.998708e-001 -6.003446e-001 2.293367e-001 -5.514053e-001 2.836511e-001 4.822064e-001 3.142065e-001 2.139864e-001 3.027376e-001 1.902613e-001 -9.777337e-001 1.263953e-001 -1.651188e-001 -1.258564e+000 -6.474838e-001 4.619614e-001 6.374379e-002 8.660668e-001 7.853181e-001 5.333491e-001 -1.775612e-001 -5.798752e-002
<VARIANCE> 39
 7.322074e-002 6.138865e-001 1.033674e+000 4.272971e-001 4.586844e-001 6.981738e-001 1.050865e+000 8.993101e-001 1.783386e+000 6.636903e-001 1.760003e+000 1.473596e+000 8.837078e-002 3.864439e-001 2.075980e+000 2.640072e+000 4.012059e+000 2.974993e+000 2.658991e+000 2.236178e+000 9.599014e-001 4.267640e+000 1.927359e+000 2.392143e+000 1.696812e+000 7.609569e-002 6.526347e-001 1.922892e+000 2.094813e+000 3.207422e+000 1.839810e+000 2.803097e+000 2.768984e+000 1.818521e+000 3.157614e+000 2.161939e+000 2.625170e+000 2.616957e+000 2.257531e-001
<GCONST> 7.891079e+001
<MIXTURE> 10 1.078225e-001
<MEAN> 39
 1.100880e-001 2.342396e+000 2.266307e+000 -5.929575e-002 -3.852598e-001 -8.174355e-001 -9.639593e-001 -1.491019e+000 -5.318725e-001 -1.025959e+000 -8.309395e-001 -1.069741e+000 1.207202e+000 -2.104206e-001 -3.755031e-001 6.830246e-002 -5.374928e-001 -9.380853e-001 -5.935704e-001 1.054664e-001 -4.071913e-001 -8.426798e-002 2.027169e-001 4.767659e-002 -3.660384e-002 7.519817e-001 3.483864e-001 -9.175963e-001 -7.903621e-001 -2.229335e-001 -4.518652e-001 6.513637e-002 -2.813598e-001 4.613103e-002 -1.684405e-001 4.749646e-001 7.754263e-001 2.875264e-001 7.681192e-002
<VARIANCE> 39
 1.721587e+000 3.690515e-001 6.991758e-001 1.280424e+000 7.254240e-001 4.012955e-001 1.089264e+000 9.828466e-001 1.149459e+000 2.313236e+000 7.653853e-001 6.771868e-001 9.557304e-002 5.647264e-001 6.742543e-001 1.337963e+000 1.052913e+000 1.616149e+000 5.398472e-001 4.517670e-001 1.284020e+000 1.317975e+000 1.889566e+000 1.758485e+000 1.629329e+000 2.126718e-001 4.226799e-001 5.705222e-001 8.882033e-001 1.228895e+000 1.638238e+000 7.479426e-001 4.864699e-001 2.445190e+000 1.467123e+000 2.173747e+000 9.941967e-001 9.594270e-001 5.614650e-001
<GCONST> 6.661044e+001
<MIXTURE> 11 3.344780e-002
<MEAN> 39
 2.885485e-001 -8.431470e-001 2.813463e+000 -2.356843e+000 -1.929119e+000 -2.913979e+000 -3.478299e+000 -6.156456e-001 -3.372714e+000 1.353207e+000 -1.823947e+000 -4.346363e-001 2.338793e+000 1.664146e-001 -1.905080e+000 2.043613e-001 -9.122514e-001 -3.978683e-001 7.755089e-002 -4.402166e-001 1.659388e-001 -1.044585e+000 2.271587e-001 -9.087695e-001 -2.575121e-001 1.801545e+000 3.087723e-001 1.265509e-001 -1.119306e+000 9.496843e-001 6.471873e-002 9.745640e-001 1.158871e+000 9.049109e-002 1.769940e+000 -1.665492e+000 1.993037e-001 -2.547288e-001 -5.446648e-001
<VARIANCE> 39
 9.919224e-001 3.177909e-001 2.674013e-001 1.987832e-001 2.673160e-001 1.603384e+000 4.765122e-001 1.115183e+000 6.994804e-001 3.759875e+000 1.651894e+000 4.505144e+000 3.048129e-001 7.219833e-001 2.650239e+000 2.917240e+000 1.943607e+000 5.135793e-001 1.340717e+000 2.930736e+000 2.085967e+000 3.129721e+000 8.200142e+000 3.464789e+000 1.106990e+000 5.913447e-001 8.043455e-001 1.163055e+000 1.067832e+000 3.361788e+000 1.886897e+000 1.816052e+000 1.573171e+000 8.003666e-001 1.368327e+000 5.098108e+000 2.473842e+000 1.062760e+000 7.231233e-001
<GCONST> 8.103860e+001
<MIXTURE> 12 1.086767e-001
<MEAN> 39
 8.590568e-001 1.694265e+000 -2.737996e-001 -2.058143e-001 -4.590925e-001 -1.209366e+000 -1.288567e+000 -1.510099e+000 -1.313412e+000 -1.470258e+000 -9.484729e-001 -4.026452e-001 8.955599e-001 9.730791e-002 1.971055e-001 1.639919e-001 -1.344227e-001 -1.494601e-001 -3.438697e-002 -1.837651e-002 4.664362e-002 1.241951e-001 -1.058238e-002 -1.080946e-001 -1.780014e-002 2.807581e-001 -1.952992e-001 -1.061010e-001 6.629214e-002 -9.886952e-002 -1.924883e-001 2.778831e-002 1.209554e-001 1.847787e-001 4.277964e-002 6.998277e-002 9.423321e-002 1.107638e-001 1.704116e-002
<VARIANCE> 39
 1.946550e-001 2.972771e-001 1.359886e+000 1.136103e-001 2.261025e-001 2.005434e-001 5.373541e-001 2.451201e-001 3.728814e-001 6.500214e-001 2.371761e-001 2.198766e-001 3.890814e-002 3.800698e-001 7.519748e-001 1.122714e+000 3.689908e-001 1.216792e+000 6.121957e-001 5.963908e-001 8.931112e-001 4.030221e-001 6.994674e-001 4.633278e-001 5.727705e-001 1.665001e-001 7.238367e-001 8.677921e-001 8.949322e-001 5.166152e-001 1.303964e+000 6.596681e-001 6.445299e-001 1.166970e+000 5.447983e-001 8.428679e-001 6.171248e-001 5.062966e-001 3.593685e-001
<GCONST> 4.214144e+001
<MIXTURE> 13 9.056707e-002
<MEAN> 39
 1.193040e+000 1.560240e+000 2.819760e+000 -9.606525e-001 -1.257863e+000 -2.997662e-001 -1.317793e+000 -7.433571e-001 -1.168184e+000 -1.352707e+000 4.151983e-001 -8.947371e-001 1.959134e+000 8.303553e-001 -1.284593e+000 2.785645e+000 -1.126876e+000 -2.801974e+000 -1.183622e+000 -1.315442e+000 -1.996645e-001 -1.260368e+000 -1.132266e-001 2.718531e-001 -7.302392e-001 2.546462e+000 -1.503301e+000 -1.855657e+000 -2.807765e+000 6.421376e-001 1.508257e+000 5.435160e-001 8.005238e-001 7.059432e-001 4.768472e-001 9.920197e-001 -2.962998e-001 8.394563e-001 -2.669515e+000
<VARIANCE> 39
 7.980374e-001 1.848310e+000 5.028207e-001 1.083327e+000 6.172124e-001 1.242405e+000 3.318070e+000 1.797895e+000 8.288835e-001 2.123281e+000 1.049833e+000 1.533659e+000 1.778189e-001 1.641369e+000 2.921829e+000 3.808941e+000 4.040873e+000 2.862008e+000 2.684422e+000 3.149491e+000 3.029774e+000 1.743847e+000 2.923589e+000 1.685697e+000 1.675304e+000 1.496339e+000 2.528281e+000 2.526104e+000 3.067785e+000 2.162269e+000 1.803771e+000 1.730137e+000 3.460244e+000 2.229175e+000 5.853891e-001 1.569629e+000 7.900428e-001 1.598928e+000 1.938699e+000
<GCONST> 9.169828e+001
<MIXTURE> 14 8.281599e-002
<MEAN> 39
 8.759739e-001 2.041605e+000 1.585264e+000 -5.542052e-001 -9.202836e-001 -3.808176e-001 -2.466572e+000 -1.739529e+000 -9.473670e-001 -4.880098e-001 -4.880812e-002 -3.635188e-001 1.570049e+000 -5.648517e-002 -1.058639e+000 2.445377e-001 -1.146032e+000 -8.721166e-001 2.527062e-001 1.362037e-001 5.908574e-001 -1.454401e-001 5.660061e-001 5.177898e-001 2.011887e-001 6.882504e-001 -1.077645e+000 -1.115008e+000 -6.645354e-001 3.789873e-001 5.914493e-001 -1.136610e-002 1.850226e+000 1.156895e+000 -8.778632e-002 -1.170719e-001 -4.754912e-001 -1.122206e-001 -9.431613e-001
<VARIANCE> 39
 1.117587e+000 9.337161e-001 3.552510e-001 6.470401e-001 6.243834e-001 2.447267e+000 1.178915e+000 1.180408e+000 5.248671e-001 4.921826e-001 1.910848e+000 2.405019e+000 2.503898e-001 5.519565e-001 1.643223e+000 2.520588e+000 1.642778e+000 8.754987e-001 7.687801e-001 1.229180e+000 1.335308e+000 1.997115e+000 1.224291e+000 1.651189e+000 1.159375e+000 3.932705e-001 7.304333e-001 1.161519e+000 1.227462e+000 1.759119e+000 1.548300e+000 1.223436e+000 8.946182e-001 1.140530e+000 1.330804e+000 7.013572e-001 2.195190e+000 1.678812e+000 7.666697e-001
<GCONST> 7.405788e+001
<MIXTURE> 15 1.193130e-002
<MEAN> 39
 1.182050e+000 3.282281e-001 2.502234e+000 -1.087701e+000 2.148135e-001 -1.925030e+000 -2.410959e+000 -1.516621e+000 -3.310286e+000 -4.639605e-001 -3.620393e+000 -1.926862e+000 2.194227e+000 5.109504e-001 -3.756937e-001 4.178250e+000 -3.228645e+000 -1.355883e+000 -2.794490e+000 -2.406254e-001 3.703179e-001 -1.198785e+000 3.452346e+000 -3.415649e+000 -1.877162e+000 2.376917e+000 -2.096187e+000 -3.571270e-001 -3.280349e+000 1.140505e+000 -5.813315e-001 1.057016e+000 3.431104e+000 1.864934e+000 3.771831e+000 1.896699e+000 3.124805e+000 1.272036e+000 -3.762424e+000
<VARIANCE> 39
 9.525470e-001 9.703983e-001 6.217198e-001 2.957370e-001 3.238470e+000 1.220603e+000 4.354926e-001 1.206232e+000 8.640606e-001 2.435437e+000 1.029544e+000 1.488646e+000 1.637276e-001 6.742287e+000 1.442233e+000 2.194988e+000 1.606143e+000 5.963367e-001 3.945407e+000 4.530571e+000 6.629274e+000 6.254862e+000 4.223095e+000 4.534647e+000 1.312594e+000 1.822131e+000 3.264603e+000 2.215908e+000 1.335218e+000 1.885912e+000 5.299992e+000 9.796368e-001 3.603270e+000 2.015570e+000 6.184445e+000 2.182259e+000 1.675353e+000 1.951228e+000 1.389236e+000
<GCONST> 9.409515e+001
<STATE> 3
<NUMMIXES> 15
<MIXTURE> 1 8.184085e-002
<MEAN> 39
 -7.570251e-002 4.218000e-001 1.079053e+000 1.797315e-001 8.463194e-001 1.510486e+000 1.716253e+000 1.777688e+000 5.427082e-001 -3.150514e-003 -1.662980e+000 -2.036218e+000 1.241964e+000 -2.428117e-001 -2.275509e-001 -1.247736e-001 -1.032981e-001 1.970081e-001 -1.748414e-002 -1.196566e-001 1.609282e-001 -3.511065e-001 1.631135e-001 7.538649e-002 1.085253e-001 -1.730902e-001 -1.362443e-001 1.046794e-001 -7.219999e-002 -3.155083e-001 -1.610162e-001 4.959233e-002 -1.323055e-001 2.209192e-002 4.370578e-002 6.531566e-002 2.437176e-001 3.155890e-001 -1.105314e-001
<VARIANCE> 39
 7.234652e-002 2.417680e-001 5.652651e-001 2.543223e+000 7.104712e-001 1.906381e-001 2.742953e-001 1.017272e+000 2.296444e+000 5.191991e-001 6.187723e-001 6.525683e-001 3.584790e-002 5.613506e-001 8.582392e-001 1.202380e+000 2.868604e+000 1.230479e+000 5.216133e-001 2.067774e+000 1.439420e+000 1.659565e+000 1.219412e+000 1.765617e+000 2.409702e+000 2.314429e-001 2.449300e-001 2.128588e+000 1.626603e+000 2.210311e+000 1.514917e+000 6.840129e-001 2.554319e+000 1.071997e+000 1.965365e+000 1.524449e+000 1.999154e+000 2.579163e+000 1.285544e-001
<GCONST> 6.486098e+001
<MIXTURE> 2 5.866092e-002
<MEAN> 39
 1.656864e+000 3.507276e-001 2.193421e+000 -3.974443e-001 -2.836092e+000 -1.199464e+000 -1.031361e+000 6.677787e-001 -1.565369e+000 -7.662433e-001 1.996569e+000 -9.505546e-001 2.384080e+000 2.356034e-001 -9.171255e-001 -6.914532e-001 -1.697874e-002 -2.724183e-002 -1.221059e+000 5.781652e-001 7.901871e-001 -2.510811e-002 3.054478e-001 1.472501e-001 -2.697778e-001 8.435430e-002 -3.350511e-001 4.568689e-001 -7.870076e-002 -2.880624e-001 1.261262e+000 4.711598e-001 -2.887832e-002 -4.252825e-001 6.521727e-001 -3.292285e-002 -4.052993e-001 -1.635192e-001 -4.814106e-001
<VARIANCE> 39
 9.024891e-001 3.358868e-001 1.974057e-001 1.144978e+000 9.895620e-002 5.614709e-001 7.910603e-001 1.275760e+000 1.533822e+000 2.659474e+000 1.718988e-001 6.823651e-001 6.604259e-002 2.538999e-001 7.307386e-001 2.096003e-001 7.604287e-001 1.100569e+000 1.341521e+000 6.169121e-001 8.794708e-001 1.027745e+000 8.278962e-001 7.625312e-001 6.535499e-001 1.088129e-001 3.023584e-001 3.667122e-001 6.702415e-001 8.031185e-001 2.548447e-001 1.148018e+000 7.955036e-001 1.194353e+000 5.705811e-001 1.019346e+000 3.367838e-001 3.997662e-001 1.063087e-001
<GCONST> 4.695450e+001
<MIXTURE> 3 8.023687e-002
<MEAN> 39
 1.336814e+000 -2.745982e+000 2.101056e+000 -2.523378e+000 -1.913370e+000 -2.192328e+000 -4.166422e-001 2.086610e+000 -1.665546e+000 2.280199e+000 2.581746e-001 2.890752e-001 2.637228e+000 3.341731e-001 -1.035476e-001 -1.986324e-001 1.333652e-001 2.273205e-001 -3.354004e-001 6.532657e-001 1.014769e-001 3.364857e-002 1.279198e-001 -4.078880e-001 8.590839e-002 -2.761814e-001 -9.452213e-002 1.058607e+000 4.409247e-001 6.084730e-001 -5.696322e-003 4.880790e-001 -4.590406e-001 -6.907428e-001 -1.639642e-001 -2.885912e-001 3.588754e-002 -3.773025e-001 -3.810750e-001
<VARIANCE> 39
 6.757578e-001 5.703043e-001 1.056443e-001 3.553578e-001 2.866256e-001 1.750764e-001 1.997426e+000 5.718820e-001 6.128732e-001 9.985290e-001 9.320927e-001 2.813725e+000 1.326400e-001 2.386643e-001 2.061258e+000 7.261575e-001 6.146721e-001 3.762618e-001 3.724591e-001 9.410974e-001 4.646807e-001 5.230563e-001 5.740586e-001 4.352501e-001 3.992518e-001 2.341620e-001 5.121179e-001 2.075198e+000 4.138750e-001 8.720693e-001 7.834945e-001 1.749016e-001 5.868958e-001 4.353723e-001 3.570195e-001 6.365474e-001 5.693356e-001 5.091768e-001 9.429028e-002
<GCONST> 4.493076e+001
<MIXTURE> 4 9.047734e-002
<MEAN> 39
 6.354082e-001 1.124260e+000 2.178180e+000 -6.813453e-001 -1.230222e+000 -1.743983e-001 -1.758767e+000 -8.692111e-001 -1.797830e+000 -1.721093e+000 3.621125e-001 -5.984251e-001 1.850638e+000 3.184247e-001 -1.602309e+000 -1.730958e-001 -1.778038e-001 -1.230954e+000 -1.177232e+000 4.116056e-001 7.642191e-001 -6.491219e-001 6.729059e-001 3.925584e-001 9.711479e-001 5.920728e-001 5.222436e-001 -5.469565e-001 -6.523654e-001 3.238656e-001 -1.296107e-001 -4.070361e-001 1.993372e-001 1.791740e-001 4.144956e-001 8.113418e-001 5.128285e-001 2.093642e-001 -1.194152e-001
<VARIANCE> 39
 7.924914e-001 1.362556e+000 1.218820e-001 9.762806e-001 3.046235e-001 9.501281e-001 1.240372e+000 7.317110e-001 2.949113e-001 6.778300e-001 1.618253e+000 1.233975e+000 2.600143e-001 3.334373e-001 8.102449e-001 9.001772e-001 1.040548e+000 7.826968e-001 1.573439e+000 7.529677e-001 9.424325e-001 8.592942e-001 2.156075e+000 1.198513e+000 6.923717e-001 1.241299e-001 1.875354e-001 8.870169e-001 8.872070e-001 8.576126e-001 1.208068e+000 6.987711e-001 8.704723e-001 9.154487e-001 9.800689e-001 8.637241e-001 7.913208e-001 1.229753e+000 1.219690e-001
<GCONST> 5.809663e+001
<MIXTURE> 5 6.926695e-002
<MEAN> 39
 -7.481356e-001 7.133223e-001 2.150364e+000 -2.516410e+000 -4.659717e-002 -2.659951e+000 -9.882272e-001 -2.306275e+000 6.946680e-001 -1.929604e+000 -1.297990e+000 -1.550836e+000 2.068901e+000 -1.111937e-001 -2.310303e+000 -1.357698e+000 -7.781682e-001 -1.789128e+000 2.606094e-001 2.041130e+000 1.240567e+000 1.646560e+000 8.742249e-001 -3.496078e-001 -9.739290e-001 6.590718e-001 6.338053e-001 1.309382e-001 -9.900445e-001 1.151617e+000 -3.557732e-002 6.641263e-001 3.958570e-001 6.524100e-001 -3.206169e-001 4.107790e-001 1.543668e-001 -6.080573e-001 2.843132e-001
<VARIANCE> 39
 1.860199e+000 1.528211e+000 5.884907e-001 1.037494e-001 3.712409e+000 3.254958e-001 2.845522e+000 4.396927e-001 9.178982e-001 7.938619e-001 1.013970e+000 5.331416e-001 5.670659e-002 2.220151e-001 3.370511e-001 3.258142e-001 1.056617e+000 1.740284e+000 9.104180e-001 1.588025e+000 1.340273e+000 1.942613e+000 1.309825e+000 1.773812e+000 2.158417e+000 2.739223e-001 1.973778e-001 7.443035e-001 9.353296e-001 6.833696e-001 2.164249e+000 1.124479e+000 1.862363e+000 1.489268e+000 2.345358e+000 2.078422e+000 1.412233e+000 1.307360e+000 4.000022e-001
<GCONST> 6.590102e+001
<MIXTURE> 6 9.069654e-002
<MEAN> 39
 -5.615257e-001 -7.805198e-001 1.229846e+000 -1.559059e+000 -2.442913e+000 -2.427679e+000 8.113651e-001 -1.234629e+000 5.032005e-001 3.319513e-001 -2.394914e-001 -8.925142e-001 1.928103e+000 2.412051e-002 -7.684745e-001 -5.752962e-001 1.676987e-001 9.201097e-002 4.013804e-001 7.352714e-001 3.145100e-001 1.578896e-001 1.615125e-001 7.216290e-002 6.367417e-001 1.399011e-001 -1.498535e-001 1.044732e+000 7.261923e-001 5.741280e-001 9.917690e-001 8.935188e-001 -8.097467e-001 -3.565555e-001 -9.111843e-001 -9.697468e-001 -6.914998e-001 1.233996e-001 -3.690321e-001
<VARIANCE> 39
 7.119226e-001 4.794407e-001 1.010607e+000 3.096846e+000 3.822265e-001 1.597232e-001 1.540901e+000 3.293958e-001 2.207640e+000 2.069635e+000 2.161477e+000 3.176085e+000 1.029545e-001 1.545046e-001 1.188971e+000 1.101792e+000 7.414702e-001 8.686481e-001 1.261725e+000 3.132802e+000 1.639275e+000 2.122464e+000 2.231416e+000 2.486933e+000 2.421807e+000 2.434509e-001 1.915277e-001 6.861420e-001 5.301440e-001 1.420313e+000 1.269586e+000 7.021613e-001 1.780981e+000 7.486247e-001 1.509894e+000 1.996454e+000 2.058377e+000 2.881049e+000 3.975270e-001
<GCONST> 7.103108e+001
<MIXTURE> 7 1.368630e-001
<MEAN> 39
