~o
<STREAMINFO> 1 39
<VECSIZE> 39<NULLD><MFCC_E_D_A_Z><DIAGC>
~h "eight"
<BEGINHMM>
<NUMSTATES> 8
<STATE> 2
<NUMMIXES> 16
<MIXTURE> 1 8.382244e-002
<MEAN> 39
 1.586938e-001 -1.798747e+000 -8.420174e-001 6.969644e-001 8.040093e-001 -1.693760e-001 1.207661e+000 -2.216026e-001 -1.947481e-001 -1.428265e+000 -9.683158e-001 1.555351e-001 8.284358e-001 1.783415e+000 1.407594e+000 1.267196e+000 3.177653e-001 5.278580e-001 1.537983e-001 3.899931e-001 2.351613e-001 7.945668e-001 2.749796e-001 -2.552689e-001 -7.924132e-001 2.253690e+000 1.399926e+000 2.089434e-001 4.326052e-001 -1.183974e+000 -7.389096e-001 -5.056370e-001 -9.257320e-001 5.210776e-002 7.570492e-002 5.285871e-001 -6.536641e-002 -8.283216e-001 1.400021e+000
<VARIANCE> 39
 4.636072e-001 3.892061e-001 8.621171e-001 1.141660e+000 1.294693e+000 2.126769e+000 1.898984e+000 2.180722e+000 2.247560e+000 1.230489e+000 1.320250e+000 2.032626e+000 3.497454e-001 9.102249e-001 1.227623e+000 1.793316e+000 2.260646e+000 2.125686e+000 2.153453e+000 3.326952e+000 1.883791e+000 1.836082e+000 8.659813e-001 1.467247e+000 2.335475e+000 2.163245e+000 1.128938e+000 2.269731e+000 2.491721e+000 9.834905e-001 2.768618e+000 2.533673e+000 1.804337e+000 2.290544e+000 2.661279e+000 1.169283e+000 1.948730e+000 1.739830e+000 1.610628e+000
<GCONST> 8.870792e+001
<MIXTURE> 2 1.066008e-001
<MEAN> 39
 6.146523e-001 -1.451565e+000 -8.944724e-001 -1.872822e-001 1.637832e-001 -1.202536e+000 -7.835195e-001 -1.674256e+000 -1.142960e+000 -1.523985e+000 -1.496868e+000 -1.171699e+000 1.456435e+000 1.954074e+000 -8.881564e-001 -1.841649e+000 -1.275629e+000 -9.734212e-001 -1.069500e+000 -3.029498e-001 -6.461669e-001 -1.134230e+000 -6.441717e-001 -1.092993e+000 -8.361524e-001 2.290560e+000 -1.361263e+000 -1.312877e+000 -1.146839e-001 2.161393e-001 5.593756e-001 8.613737e-001 1.284487e+000 1.478300e+000 7.337366e-001 1.261311e+000 1.093419e+000 1.009231e+000 -9.149571e-001
<VARIANCE> 39
 1.139524e+000 4.826173e-001 1.426872e+000 1.719448e+000 2.584815e+000 1.299932e+000 2.709452e+000 1.403718e+000 2.075938e+000 1.358557e+000 8.878936e-001 9.607645e-001 3.568911e-001 1.682911e+000 2.320267e+000 2.769524e+000 3.019463e+000 3.127895e+000 2.540901e+000 2.607258e+000 2.180089e+000 3.176022e+000 2.977242e+000 2.855109e+000 2.550916e+000 1.530616e+000 1.643532e+000 2.017240e+000 2.606106e+000 2.071233e+000 3.079380e+000 1.831851e+000 1.755167e+000 1.551703e+000 1.930935e+000 1.802214e+000 1.903473e+000 1.341563e+000 2.118838e+000
<GCONST> 9.487850e+001
<MIXTURE> 3 1.045205e-001
<MEAN> 39
 -3.800167e-001 -2.407702e+000 -1.137172e+000 -9.668114e-001 5.449617e-001 -3.457354e-001 1.241135e-001 1.179531e-001 -1.080383e+000 -7.886041e-001 -8.023428e-001 4.769529e-001 6.307555e-001 -1.997863e-001 -6.334457e-001 -1.903424e-001 -2.265130e-001 4.900470e-001 -6.628616e-002 3.716401e-001 -3.680924e-001 -9.309763e-001 -6.889336e-001 -6.668831e-001 -5.196901e-002 1.583470e+000 1.085002e+000 2.122916e+000 9.287926e-001 1.493995e+000 7.090281e-002 9.410643e-002 -7.552969e-002 -5.044680e-002 6.816368e-001 1.544068e-001 1.288446e-001 -7.461426e-001 -2.859635e-001
<VARIANCE> 39
 4.680119e-001 2.875944e-001 9.244790e-001 5.012438e-001 2.170659e+000 1.913937e+000 1.831150e+000 2.130648e+000 3.534330e+000 1.747314e+000 3.029812e+000 1.844416e+000 1.252536e-001 4.598995e-001 2.094862e+000 1.699949e+000 1.858202e+000 1.605723e+000 2.700077e+000 2.258093e+000 1.753122e+000 2.134407e+000 1.718155e+000 2.796693e+000 2.669609e+000 1.048210e+000 1.533140e+000 1.253293e+000 2.896036e+000 1.519954e+000 2.259472e+000 2.638267e+000 1.893368e+000 1.747813e+000 3.056587e+000 2.381189e+000 4.441586e+000 2.731499e+000 2.788389e+000
<GCONST> 9.108789e+001
<MIXTURE> 4 6.564922e-002
<MEAN> 39
 1.117636e+000 -2.025902e+000 -1.495913e+000 1.349832e+000 1.239999e+000 -1.760744e+000 2.451632e+000 -5.084948e-001 -5.192518e-001 -1.092434e+000 -5.117580e-001 -2.197217e+000 2.027060e+000 1.611246e-001 5.182471e-002 -1.597759e-001 9.404764e-002 -4.363166e-001 -8.464072e-002 5.068891e-002 3.083697e-001 2.568174e-001 -3.335632e-002 -1.831687e-001 -1.541671e-003 3.290587e-001 -4.548631e-001 4.933412e-001 4.409351e-001 -6.868198e-002 1.611555e-001 1.327060e-001 -3.862114e-001 1.107511e-001 1.439614e-002 -9.060553e-002 7.285453e-002 5.569419e-001 -7.763141e-001
<VARIANCE> 39
 9.120350e-001 7.105384e-001 7.775329e-001 1.837692e+000 1.577169e+000 1.003330e-001 3.905030e-001 2.549512e+000 1.411957e+000 8.864759e-001 1.691779e+000 8.476336e-001 5.512108e-002 1.569173e-001 1.968153e+000 2.184006e+000 2.152525e+000 1.033404e+000 3.181348e-001 1.126039e+000 1.873581e+000 2.046949e+000 2.739444e+000 2.351280e+000 2.430234e+000 3.369461e-001 1.496375e+000 2.482807e+000 2.440273e+000 3.384391e+000 8.755801e-001 9.494071e-001 9.385854e-001 1.980434e+000 2.933483e+000 3.361760e+000 2.321113e+000 1.740918e+000 1.879457e+000
<GCONST> 7.800014e+001
<MIXTURE> 5 8.693995e-002
<MEAN> 39
 -5.539061e-001 -1.949954e+000 3.414222e-001 4.621893e-001 1.354978e+000 3.392588e-001 -7.248367e-002 6.523290e-002 -2.573490e-001 -2.884879e-001 4.733346e-001 3.807284e-001 7.808510e-001 1.879125e+000 8.464586e-001 -5.608426e-001 -4.821364e-001 -7.714010e-001 -8.319232e-001 -1.177762e+000 -1.837451e+000 -1.575876e+000 -1.962607e+000 -1.899284e+000 -1.391914e+000 1.687560e+000 2.020942e+000 4.032328e-001 -1.260256e+000 -1.385148e+000 -1.573883e+000 -1.179073e+000 -4.456539e-001 -6.752727e-001 -6.600838e-001 -7.968786e-001 -1.457423e+000 -1.165534e+000 1.334252e+000
<VARIANCE> 39
 8.008751e-001 6.138068e-001 2.224706e+000 1.425230e+000 1.644556e+000 1.139933e+000 1.720822e+000 1.105196e+000 1.333363e+000 1.392514e+000 1.740147e+000 1.747946e+000 3.229375e-001 1.460372e+000 1.096692e+000 1.718030e+000 2.434389e+000 2.895483e+000 2.051258e+000 2.377009e+000 1.562385e+000 1.836875e+000 2.123789e+000 2.488784e+000 2.193751e+000 1.878731e+000 2.051123e+000 2.594860e+000 2.010967e+000 2.628922e+000 1.176396e+000 1.873525e+000 2.090418e+000 1.996138e+000 1.509498e+000 2.103784e+000 2.322020e+000 2.594923e+000 1.523044e+000
<GCONST> 9.160620e+001
<MIXTURE> 6 8.829404e-002
<MEAN> 39
 -1.082208e+000 -1.514489e-002 1.066924e+000 -9.880138e-001 -1.425373e+000 -1.442411e+000 -2.926302e-001 1.489974e+000 -2.452148e-001 -1.021058e+000 1.014336e+000 3.997797e-001 1.023873e+000 -5.160667e-001 2.434779e-001 9.593596e-001 -2.437011e-001 4.825585e-001 6.645972e-001 -1.274788e-001 1.718860e-001 -6.069161e-002 1.741649e-001 6.187142e-001 1.072371e-001 5.638690e-001 3.593357e-001 -3.247329e-001 -2.606663e-001 2.816912e-001 7.251342e-001 5.413263e-001 2.859235e-001 -4.673772e-001 -3.419043e-001 1.279406e-001 -1.952896e-001 -3.793445e-001 -1.870826e-001
<VARIANCE> 39
 8.168494e-001 1.968562e+000 1.784003e+000 3.145149e+000 2.196059e+000 1.688579e+000 1.976443e+000 1.938023e+000 1.602900e+000 2.050301e+000 1.238595e+000 2.867966e+000 3.151665e-001 3.465861e+000 3.208364e+000 1.924742e+000 4.598469e+000 3.630957e+000 5.351472e+000 3.383414e+000 3.072265e+000 1.880964e+000 2.052030e+000 2.421224e+000 3.447225e+000 1.987525e+000 3.741248e+000 2.250795e+000 1.585698e+000 3.492286e+000 4.156100e+000 6.194973e+000 3.624846e+000 2.805602e+000 3.051085e+000 4.017998e+000 2.620972e+000 3.810189e+000 2.794479e+000
<GCONST> 1.071351e+002
<MIXTURE> 8 5.465301e-002
<MEAN> 39
 1.569584e+000 -3.290929e+000 -2.462735e+000 -6.809256e-002 -1.924984e+000 -1.228210e-001 -1.584263e+000 -6.110626e-001 -2.271659e+000 -2.212224e+000 -1.442325e+000 -1.257456e+000 2.854230e+000 -9.864912e-002 -1.971786e-001 1.954250e-001 -2.490849e-001 -2.510367e-001 4.326575e-001 2.097715e-001 -7.904372e-002 1.345764e-001 -5.632639e-001 4.908416e-002 3.071864e-001 1.676416e-001 -2.366734e-001 8.990459e-001 8.217021e-001 -2.218450e-001 3.696109e-001 -4.837433e-001 2.922678e-002 1.960431e-001 -1.571056e-001 6.752520e-002 7.113395e-002 1.400639e-001 -3.836104e-001
<VARIANCE> 39
 2.175058e-001 2.657028e-001 1.818063e+000 1.649071e+000 1.227606e+000 2.136122e+000 2.344042e+000 2.524234e+000 3.324319e-001 3.148265e-001 4.485377e-001 1.309664e+000 4.594677e-002 2.910856e-001 2.154684e+000 1.729865e+000 1.112940e+000 5.759129e-001 1.182006e+000 9.093361e-001 1.216456e+000 1.302492e+000 8.170701e-001 7.129840e-001 8.176848e-001 2.929138e-001 5.922673e-001 1.013803e+000 1.285919e+000 1.038065e+000 6.645332e-001 1.394055e+000 6.354828e-001 1.127016e+000 1.506602e+000 1.211645e+000 5.014789e-001 6.694312e-001 2.150999e-001
<GCONST> 6.233867e+001
<MIXTURE> 9 5.865796e-002
<MEAN> 39
 -1.785078e-001 -1.237031e+000 2.436690e-001 2.980396e-001 8.846828e-001 3.918690e-001 8.848788e-001 1.319620e+000 5.703994e-002 -6.868185e-001 4.161766e-001 8.827377e-001 2.241422e-002 -7.623642e-001 -2.710065e+000 -3.033673e-001 -1.361787e+000 4.091363e-001 4.731617e-001 6.199657e-001 2.969258e-001 -2.643100e-001 -4.812341e-001 -4.883711e-003 -2.184380e-001 1.505511e+000 1.155316e-001 1.046932e+000 -9.217529e-001 -1.927986e-001 -6.481256e-001 2.928691e-002 -6.043420e-001 -1.160479e+000 3.749780e-001 9.537107e-001 2.169900e-002 -5.363131e-001 2.568494e-001
<VARIANCE> 39
 2.185175e-001 3.716164e-001 1.003036e+000 7.548986e-001 5.913660e-001 1.526849e+000 1.952607e+000 9.089053e-001 4.232815e-001 4.959650e-001 1.300224e+000 8.261619e-001 1.485430e-001 4.246804e-001 2.143589e+000 1.449731e+000 1.218464e+000 1.227167e+000 1.165336e+000 1.413586e+000 1.487962e+000 2.228254e+000 2.253658e+000 1.817045e+000 1.231461e+000 1.543901e+000 1.296742e+000 2.280836e+000 1.129151e+000 1.643624e+000 9.867180e-001 1.786789e+000 2.267701e+000 1.397284e+000 1.121251e+000 1.995710e+000 1.503815e+000 1.396269e+000 2.637216e+000
<GCONST> 7.633341e+001
<MIXTURE> 10 3.931578e-002
<MEAN> 39
 1.816390e+000 -1.990619e+000 1.499350e+000 2.426741e-001 5.615790e-001 -4.039630e-001 -9.583579e-002 1.358912e+000 -1.128582e+000 -5.264071e-001 2.521954e-001 -7.890861e-001 9.398611e-001 1.395607e-001 -2.815418e+000 2.245698e-001 -2.604979e-001 7.891488e-001 3.504727e-001 3.193932e-001 1.528355e-001 -9.028059e-001 -1.246828e-001 -2.064146e-001 8.997783e-002 2.597619e+000 -2.344605e+000 1.316774e+000 -2.297329e+000 1.953507e-001 -1.014265e+000 9.101259e-001 1.472433e-001 -1.488592e+000 4.565118e-001 1.406279e-001 1.209472e-001 3.838754e-001 -1.335843e+000
<VARIANCE> 39
 1.001216e+000 9.585335e-001 2.725443e-001 1.909131e+000 5.222470e-001 1.054603e+000 1.909208e+000 1.988522e+000 2.189763e+000 1.702194e+000 2.626173e+000 1.886993e+000 6.342018e-001 5.015532e+000 2.402434e+000 3.521514e+000 4.297639e+000 1.934860e+000 1.619781e+000 5.384063e+000 2.917653e+000 3.973242e+000 2.852796e+000 4.327750e+000 3.866130e+000 1.505088e+000 2.977631e+000 3.948586e+000 2.145653e+000 3.584829e+000 1.268055e+000 7.085626e-001 3.220151e+000 3.900341e+000 7.347678e+000 3.407681e+000 3.400507e+000 2.681839e+000 2.642871e+000
<GCONST> 1.022686e+002
<MIXTURE> 11 8.525052e-002
<MEAN> 39
 8.163058e-001 -1.745282e+000 -1.026066e+000 -7.916565e-001 1.995092e-001 -7.771346e-001 -3.736753e-001 -7.607281e-001 -7.053924e-001 -6.525959e-001 -1.406801e+000 -6.645673e-001 1.449117e+000 8.557078e-002 -1.031183e+000 -5.056276e-001 -7.669981e-001 -1.710167e-001 -1.111427e-001 -1.045407e-001 4.909179e-001 -4.889981e-001 8.798024e-002 -2.270270e-001 2.028117e-001 7.609565e-001 -8.000843e-001 7.912336e-001 5.857864e-001 1.033975e+000 1.340743e-001 5.144473e-001 4.422574e-001 -6.865866e-002 5.113235e-001 1.309041e-003 7.154155e-001 2.682349e-001 -1.193678e+000
<VARIANCE> 39
 3.041319e-001 4.581107e-001 7.389297e-001 8.972526e-001 9.783239e-001 1.004012e+000 1.696648e+000 1.469885e+000 1.908077e+000 1.016859e+000 6.154233e-001 1.599499e+000 1.888780e-001 2.885236e-001 9.064803e-001 5.596170e-001 1.234146e+000 8.111458e-001 7.038481e-001 1.588324e+000 8.719921e-001 5.217301e-001 6.633853e-001 7.518136e-001 1.119278e+000 1.973397e-001 8.129064e-001 2.301729e+000 7.496891e-001 7.484236e-001 1.205058e+000 9.468694e-001 1.411203e+000 8.473801e-001 8.472086e-001 4.849059e-001 7.196915e-001 9.336101e-001 3.915461e-001
<GCONST> 6.250366e+001
<MIXTURE> 12 1.524071e-001
<MEAN> 39
 -7.243708e-001 -1.217626e+000 -1.616722e-001 4.614577e-001 8.178609e-001 4.445451e-001 1.125047e+000 3.266794e-001 3.322792e-001 4.343044e-001 4.565738e-001 5.250067e-002 4.422714e-001 -3.644935e-001 -6.949505e-001 -4.063255e-001 1.719853e-001 1.608679e-001 -3.612254e-001 -2.556615e-001 -2.658198e-001 -2.089476e-001 1.062698e-002 2.228839e-001 1.105897e-001 6.256052e-001 6.927863e-001 4.244164e-001 9.638858e-002 7.728659e-002 -1.005982e-001 -4.649302e-001 -4.355628e-001 -8.712627e-002 -3.789918e-001 -3.659295e-001 -1.207410e-001 2.202316e-001 -2.258234e-001
<VARIANCE> 39
 6.260110e-001 6.888664e-001 1.286754e+000 8.215293e-001 6.316679e-001 1.081601e+000 1.079975e+000 7.986825e-001 1.003207e+000 1.370845e+000 1.120833e+000 1.192496e+000 1.676005e-001 5.276997e-001 5.619839e-001 1.164744e+000 1.126200e+000 8.802217e-001 9.515079e-001 8.497516e-001 1.377411e+000 1.449998e+000 1.057542e+000 1.978609e+000 2.326785e+000 6.353157e-001 7.595469e-001 1.983787e+000 1.057062e+000 1.666322e+000 1.289594e+000 1.146515e+000 7.318643e-001 1.350228e+000 1.477421e+000 8.155892e-001 1.863322e+000 2.516278e+000 1.000106e+000
<GCONST> 7.280910e+001
<MIXTURE> 13 1.066116e-002
<MEAN> 39
 -8.825756e-002 -2.675924e+000 5.891660e-001 -8.901289e-001 1.050095e+000 -4.472292e-001 -1.015357e+000 8.802777e-001 -8.718948e-001 2.158427e+000 2.465493e+000 -1.116704e+000 9.603375e-001 9.888781e-001 -3.719807e+000 2.528667e+000 -8.948117e-001 3.331862e+000 -6.012809e-001 -1.617749e-001 1.966674e+000 -6.518937e-001 1.107538e+000 5.537813e-001 6.667296e-001 4.064660e+000 9.950585e-001 4.646551e+000 2.653718e-001 1.457732e+000 -1.802109e-001 -1.360421e-001 1.048226e+000 -1.371972e+000 4.492676e-001 -2.356063e+000 -3.056679e+000 1.192225e+000 -2.671181e+000
<VARIANCE> 39
 1.302332e+000 9.286355e-001 1.333761e+000 3.129117e-001 2.157600e+000 7.339545e-001 2.518510e+000 2.269915e+000 7.161091e-001 6.283889e-001 1.217327e+000 1.000677e+000 1.499519e-001 1.548252e+001 3.334053e+000 2.774451e+000 5.887254e-001 1.938261e+000 1.289811e+000 2.820181e+000 1.019760e+001 1.320948e+000 1.156730e+000 7.221302e-001 1.076167e+000 9.205353e-001 4.335814e+000 1.100037e+000 2.246040e+000 2.120526e+000 5.836205e+000 1.523975e+000 4.710567e+000 4.166354e+000 9.764326e-001 1.857724e+000 4.695162e-001 4.276586e+000 7.528959e-001
<GCONST> 8.879088e+001
<MIXTURE> 14 5.327075e-003
<MEAN> 39
 3.702334e-001 -1.224193e+000 -3.125822e-001 4.861114e-002 9.691316e-001 3.842066e-001 2.171250e-001 9.982794e-001 -2.213914e-001 3.545666e-001 -2.039910e-001 8.548850e-001 5.358880e-001 -7.496235e-001 -4.779574e+000 -3.079907e-001 -2.319928e-001 1.783383e-001 -2.405216e-001 -8.336032e-001 -1.546617e+000 -4.194918e+000 -2.571916e+000 -2.134349e-001 1.163908e-001 5.065317e-002 -2.185566e+000 -9.425403e-001 1.088127e+000 -1.000978e+000 -4.991544e-001 -1.096455e-002 -5.690579e-001 -2.603942e-001 7.967927e-002 8.462613e-001 6.839359e-001 -1.353605e+000 8.088006e-001
<VARIANCE> 39
 1.376402e-001 6.948145e-001 1.253048e+000 2.686054e-001 5.405664e-002 4.051490e-001 1.292355e+000 8.310229e-001 8.376949e-002 7.100984e-002 6.765518e-001 1.848094e-001 8.355946e-002 2.970324e-001 3.713067e+000 6.912703e-001 1.144561e-001 1.953510e-001 1.654032e+000 3.758869e-001 8.449458e-001 1.964221e+000 9.999961e-003 8.570576e-001 7.575912e-001 2.030937e+000 6.650478e-002 3.584639e+000 2.707252e+000 1.756416e+000 2.328579e-001 4.799654e-001 1.757548e-001 5.971637e-001 1.326723e+000 5.053687e-001 1.462447e+000 5.034599e-001 5.005341e-001
<GCONST> 4.071803e+001
<MIXTURE> 15 5.257331e-002
<MEAN> 39
 1.480698e+000 -9.089966e-001 1.487865e-001 3.728343e-001 7.059494e-001 1.164579e-001 1.006080e+000 3.210236e-001 3.914287e-002 -1.009451e+000 -7.625851e-001 -9.004877e-001 1.579885e+000 1.565330e+000 -6.445110e-002 5.152037e-002 -1.302286e+000 -6.268036e-001 -3.864752e-001 -7.025288e-001 -3.883935e-001 5.590707e-001 5.196609e-001 -2.726152e-001 -8.509141e-001 2.001705e+000 -1.382137e+000 -1.976177e+000 -1.307334e+000 -9.528912e-001 -3.106994e-001 -5.214511e-001 -5.653912e-001 -8.545341e-002 -7.760460e-001 2.064402e-001 -1.592031e-001 4.707125e-001 -1.482661e+000
<VARIANCE> 39
 6.207076e-001 8.035831e-001 1.227709e+000 1.329904e+000 8.082644e-001 1.081412e+000 1.284633e+000 2.348930e+000 1.543122e+000 5.987825e-001 9.671686e-001 1.354451e+000 2.365118e-001 8.243309e-001 2.287740e+000 1.795916e+000 1.700376e+000 1.540751e+000 1.501992e+000 1.309514e+000 2.100956e+000 1.907152e+000 5.956336e-001 1.152551e+000 9.516966e-001 7.923036e-001 5.669706e-001 9.062234e-001 1.688977e+000 1.617388e+000 1.886709e+000 6.720616e-001 8.937237e-001 1.604600e+000 7.267730e-001 6.279811e-001 7.651598e-001 7.561039e-001 9.409939e-001
<GCONST> 7.432445e+001
<MIXTURE> 16 5.327098e-003
<MEAN> 39
 -1.242692e+000 -6.480032e-001 4.409392e-001 -7.354318e-001 -6.393743e-001 -1.651194e+000 8.661305e-001 1.439736e+000 -4.283627e-001 -4.340392e-001 9.096276e-001 5.658518e-001 7.213966e-001 5.050016e-001 -2.855391e+000 4.642657e+000 -1.985197e+000 -4.057435e+000 -1.864673e+000 -3.802717e-001 2.928163e+000 -5.411376e+000 -5.629494e+000 -2.474450e+000 -2.206779e+000 3.485791e+000 3.222492e+000 5.497209e-001 -1.089616e-001 -6.792834e-001 4.329064e-002 2.370737e+000 -2.300281e+000 -1.253505e+000 -5.103773e-001 1.424179e-001 -2.567642e+000 -6.527182e-001 -4.260170e+000
<VARIANCE> 39
 2.580937e-001 8.640230e-002 5.468843e-001 1.391617e+000 2.756805e+000 8.031409e-001 1.612795e+000 1.107026e+000 2.544028e+000 6.076073e+000 2.786408e-001 5.668006e-001 8.976368e-002 5.569868e+000 6.539900e+000 2.222635e-001 1.191361e+000 1.602797e+001 2.408258e+000 2.531996e+000 2.431608e+000 1.113592e+000 4.750019e+000 4.649593e+000 2.051863e+000 7.059997e+000 3.191317e+000 1.129541e+000 3.261130e+000 4.284270e+000 7.972225e+000 2.183301e-001 6.922436e-001 2.665929e+000 3.637855e+000 1.196989e+001 5.736758e-001 3.559771e-001 3.879578e+000
<GCONST> 8.969760e+001
<STATE> 3
<NUMMIXES> 16
<MIXTURE> 1 1.324645e-001
<MEAN> 39
 1.062319e-001 6.829289e-001 2.140589e+000 7.596557e-001 4.376875e-001 -4.399700e-001 5.997229e-001 1.712180e+000 -1.989388e+000 -6.519597e-001 2.089167e+000 -2.480981e-001 1.988510e+000 5.123584e-002 6.858250e-002 -2.499944e-002 -2.286931e-002 -2.008293e-003 -5.852690e-002 1.640109e-001 -5.855769e-002 3.979941e-002 -4.331330e-003 -1.155360e-001 -2.964461e-002 7.652623e-002 -2.677994e-002 3.175087e-002 6.041041e-003 -3.367594e-002 8.831820e-003 8.481820e-002 -5.174416e-003 3.127078e-002 1.348503e-001 -5.673816e-002 -2.481623e-002 -7.061731e-003 -1.453813e-002
<VARIANCE> 39
 5.139599e-002 9.682006e-002 1.850005e-001 1.871908e+000 6.795190e-001 1.059276e+000 5.912034e-001 7.412539e-001 1.120067e+000 2.984386e+000 6.485188e-001 2.816913e+000 1.000004e-002 2.191141e-001 3.173265e-001 1.731125e+000 2.301967e+000 1.086684e+000 2.416177e+000 3.316983e+000 2.896734e+000 3.112983e+000 2.793592e+000 2.877494e+000 2.835676e+000 9.999961e-003 2.563067e-001 4.614832e-001 2.140835e+000 2.332143e+000 8.780988e-001 2.723162e+000 3.695144e+000 3.166185e+000 3.171411e+000 2.743103e+000 2.964618e+000 2.967540e+000 9.999896e-003
<GCONST> 6.550272e+001
<MIXTURE> 2 1.244582e-001
<MEAN> 39
 7.488893e-002 -2.591871e+000 -1.058715e+000 -1.085138e+000 2.285885e-001 -1.340414e+000 -8.742361e-002 -1.896385e+000 -1.561696e+000 -1.842910e+000 -8.202232e-001 -1.249993e+000 2.327403e+000 5.665996e-002 3.284528e-001 2.492949e-001 -4.177960e-001 -7.696729e-001 1.648014e-001 6.765571e-001 -3.434907e-002 6.278352e-002 -2.734686e-002 -2.258003e-002 -1.684736e-001 -1.725657e-001 2.686708e-001 6.137458e-001 7.158684e-002 -3.356994e-001 -6.625153e-001 7.069130e-002 -1.543406e-001 1.028537e-001 -3.262859e-001 -4.406955e-001 -3.028505e-001 1.417016e-002 -5.220965e-001
<VARIANCE> 39
 8.142685e-001 8.815978e-002 2.154030e+000 1.329104e+000 2.192835e+000 1.906872e+000 2.643532e+000 7.998437e-001 6.386744e-001 5.723837e-001 3.011865e+000 2.127737e+000 6.886512e-002 2.783847e-001 4.778882e-001 7.366653e-001 1.914795e+000 1.442398e+000 1.823860e+000 1.573327e+000 1.258968e+000 1.466590e+000 1.684678e+000 1.765839e+000 1.819930e+000 2.275780e-001 4.658035e-001 8.510979e-001 9.683246e-001 2.059882e+000 1.128841e+000 1.320998e+000 1.329885e+000 1.222344e+000 1.458030e+000 1.179638e+000 1.377601e+000 1.858341e+000 2.101387e-001
<GCONST> 7.159243e+001
<MIXTURE> 3 1.923182e-001
<MEAN> 39
 9.926198e-001 -9.982356e-001 -8.900711e-001 -3.558479e-002 -7.740974e-001 3.175931e-001 -3.366204e-001 -5.178863e-001 -1.438020e-001 -9.192556e-001 -9.762080e-001 -5.020758e-001 1.094147e+000 -1.616101e-002 1.439184e-001 1.637188e-002 -9.940291e-002 -1.588624e-001 1.185369e-001 -3.392483e-002 1.465635e-002 -2.063759e-002 -1.483148e-001 3.922466e-002 -3.914922e-002 4.188036e-002 -6.655078e-002 5.000989e-002 9.288485e-003 -8.058922e-002 -1.436646e-002 -4.831920e-002 9.975927e-002 -1.982130e-002 -3.356578e-002 -2.932238e-002 -1.852170e-002 2.654298e-002 -1.325072e-003
<VARIANCE> 39
 1.243311e-001 1.836954e-001 5.207655e-001 2.864073e-001 2.544147e-001 6.198313e-001 1.083206e+000 5.387698e-001 8.257221e-001 3.469091e-001 2.507818e-001 6.991395e-001 2.602332e-002 4.982634e-002 4.381712e-001 3.543994e-001 4.101676e-001 2.767482e-001 3.140893e-001 4.712929e-001 3.839547e-001 6.265647e-001 4.438021e-001 3.734383e-001 4.216086e-001 4.563860e-002 8.520051e-002 3.382487e-001 3.734171e-001 4.025794e-001 3.088169e-001 3.485074e-001 3.854848e-001 3.622904e-001 6.164063e-001 4.511158e-001 3.826609e-001 4.025449e-001 7.841324e-002
<GCONST> 2.551328e+001
<MIXTURE> 5 3.398014e-003
<MEAN> 39
 -1.954011e+000 1.018774e+000 -5.336835e-001 -2.605696e+000 2.179419e-001 -1.250902e+000 2.994059e-001 2.048996e+000 -8.733987e-001 -2.207101e+000 -2.118423e+000 -1.854429e+000 1.546349e+000 -2.205662e+000 6.934006e-001 4.983272e-001 -1.090120e+000 -7.356687e-001 4.650563e-001 -3.581262e-001 -4.920943e-001 -3.874941e-001 -4.394479e-001 -3.841233e-001 -1.561305e+000 2.973102e-001 2.876659e+000 -1.611640e+000 4.984089e-001 2.497410e+000 -1.177295e+000 -6.202851e-001 -4.200005e-001 -1.924755e+000 -4.389496e-001 8.932963e-001 9.278168e-002 6.550059e-002 3.189581e-001
<VARIANCE> 39
 1.000004e-002 1.147697e-002 8.564966e-002 3.552270e-002 8.033732e-002 3.682484e-001 1.000001e-002 2.530122e-002 5.049826e-002 9.999962e-003 9.999943e-003 2.375754e-002 1.000004e-002 2.973612e-001 2.918530e-002 8.124910e-002 6.989834e-001 1.000000e-002 9.999997e-003 4.610277e-002 8.747171e-001 4.410058e-001 7.033008e-002 1.472832e-002 3.402540e-001 9.999961e-003 1.532378e-001 5.049946e-001 9.999952e-003 5.639412e-001 2.033985e-001 7.269512e-001 9.999976e-003 1.550090e-002 2.817040e-001 3.157347e-001 2.506381e-001 6.110891e-002 4.807037e-002
<GCONST> -3.699918e+001
<MIXTURE> 6 1.189426e-002
<MEAN> 39
 8.134181e-001 -1.397306e+000 1.144582e+000 -2.120389e+000 -1.896835e+000 -8.012285e-001 1.226256e+000 7.453165e-001 -1.372773e+000 1.178143e-001 -2.472136e+000 3.701339e-002 1.657522e+000 -3.782381e-001 1.465155e+000 9.330418e-001 1.013532e+000 1.361105e+000 -1.382411e+000 -7.009836e-001 -1.338089e-002 1.880731e+000 -5.119839e-001 1.463144e+000 3.650023e-001 -6.380299e-001 -2.137029e+000 1.329102e+000 -2.031840e+000 1.772522e+000 1.254253e+000 9.943213e-001 -6.237881e-001 -1.135103e+000 9.011323e-001 6.662494e-002 1.551821e+000 1.327952e+000 -6.618399e-001
<VARIANCE> 39
 1.491262e+000 9.623398e-001 1.992495e+000 4.188420e-001 1.094161e+000 2.779154e-001 1.571347e-001 1.900198e+000 5.798626e-001 4.087580e+000 6.328425e-001 4.738025e-001 6.657048e-002 1.676288e+000 2.088926e+000 1.800013e+000 3.169206e+000 4.084682e+000 7.693821e-001 1.354365e+000 1.323925e+000 3.453019e-001 3.387427e+000 3.022293e+000 2.372481e+000 2.496873e-001 1.826584e+000 3.754316e+000 8.804526e-001 1.024419e+000 2.957597e+000 6.663401e-001 8.843169e-001 1.125019e+000 4.529793e-001 4.264868e+000 2.245772e+000 3.017490e+000 4.878210e-001
<GCONST> 7.621966e+001
<MIXTURE> 8 1.019425e-002
<MEAN> 39
 3.698607e-001 1.522168e-002 1.119721e+000 -1.565356e+000 -1.421441e+000 -1.708033e+000 5.226034e-001 -1.362176e+000 2.019301e+000 -3.292323e+000 -9.757254e-001 8.027686e-001 1.662951e+000 -7.366992e-001 3.668526e-001 2.251797e+000 1.613378e+000 -1.073629e+000 -6.002497e-002 -1.358025e+000 1.676658e+000 -3.919399e-001 -1.014591e+000 7.415689e-001 7.686003e-001 -5.847645e-001 -1.064328e+000 -7.872241e-001 -2.902956e-001 2.931499e-001 1.341061e-001 2.253021e-001 -4.084948e-002 4.868901e-001 -4.485718e-001 1.500473e+000 -4.839299e-001 -2.886417e-001 -1.556987e-002
<VARIANCE> 39
 1.000004e-002 3.207047e-002 8.209585e-001 4.087681e-001 2.192406e-001 1.412164e-002 8.564287e-001 8.263003e-001 3.173946e-001 3.623406e+000 2.847721e-001 2.791252e+000 1.084577e-002 4.069966e-001 2.319647e-001 5.304942e-001 2.301216e-001 6.573371e-001 1.407905e-001 8.976768e-001 9.918879e-001 1.441820e+000 4.311769e+000 1.149827e+000 3.912519e+000 2.959832e-002 1.426588e+000 3.785220e-001 2.809745e+000 1.168037e-001 1.290054e+000 3.965002e-002 2.943655e+000 2.287703e+000 2.504799e+000 9.348824e+000 8.153910e-001 6.882037e+000 1.800345e-001
<GCONST> 4.502237e+001
<MIXTURE> 9 6.796036e-003
<MEAN> 39
 8.432373e-001 -8.493410e-001 -9.202583e-001 1.143897e+000 -1.388533e+000 1.814172e-001 -3.085499e-001 -5.819218e-002 -2.733614e+000 -2.308059e+000 -2.183557e+000 1.363889e-001 1.714517e+000 -3.152596e+000 2.754196e+000 3.622474e-001 -2.083246e+000 4.012038e+000 7.639525e-004 2.460668e+000 -6.051462e-001 3.845971e-001 3.216311e-002 -1.208726e-001 6.316136e-001 -9.596047e-001 -3.669303e+000 1.788861e+000 -6.480865e-001 -3.348019e+000 9.411295e-003 -5.225590e-001 2.200641e-001 8.906137e-001 9.151651e-001 1.782148e+000 1.399030e+000 -1.059735e+000 9.132515e-002
<VARIANCE> 39
 7.852236e-001 1.001864e+000 2.706581e-001 2.940900e-001 6.249365e-001 2.445925e-001 4.790599e-001 1.932353e-001 6.558444e-002 2.484805e-001 9.904686e-001 2.061687e+000 2.473473e-001 9.936206e-001 1.063207e+000 1.244336e-001 1.458091e+000 6.859634e-001 8.137821e-001 1.650748e-001 9.383723e-002 3.191174e-001 1.598075e+000 7.997532e-001 3.671942e-001 3.544991e-001 3.696534e-001 6.394900e-001 1.652965e-001 3.074493e-001 2.230965e+000 5.509529e-001 1.524889e+000 2.678554e-001 5.903989e-001 9.383775e-001 1.432381e-001 9.186845e-001 1.593861e-001
<GCONST> 4.094453e+001
<MIXTURE> 10 6.796033e-003
<MEAN> 39
 -6.049637e-001 4.724180e-001 -9.460322e-001 -1.256768e+000 -8.433404e-003 -2.015522e+000 6.777382e-001 5.444920e-001 -7.300686e-001 -1.948243e+000 -2.044440e+000 2.810275e-001 1.389550e+000 -4.846303e+000 3.311558e+000 3.408815e-001 -4.430681e+000 2.069710e+000 -9.384639e-001 2.854759e-001 1.538752e+000 1.177760e+000 1.271165e+000 8.048253e-001 -2.941053e-001 -4.158833e-001 7.415166e-001 -1.618997e+000 1.264176e-001 4.030994e-001 -2.574869e+000 6.922384e-001 -1.614600e+000 7.578862e-001 -1.031424e+000 -1.057983e-001 -4.055603e-001 -1.626964e+000 1.218420e+000
<VARIANCE> 39
 5.908824e-001 1.983314e-001 5.062758e-002 3.966726e-001 3.056280e-001 2.933524e-001 1.638564e-001 1.056767e+000 3.246262e-001 1.722838e-001 2.247427e-001 3.267679e+000 2.879763e-002 2.496559e-001 1.223040e+000 6.843371e-002 1.379781e+000 7.456224e-001 1.412617e+000 1.971754e-001 3.387332e-002 2.269521e+000 1.081843e+000 6.653773e-001 8.455870e-001 2.984852e-001 2.728298e+000 2.274529e+000 4.803081e-002 3.852059e+000 4.470465e-001 1.270614e+000 5.172801e-001 2.090161e+000 8.035261e-001 3.041525e+000 7.970039e-001 8.432734e-001 4.297044e-002
<GCONST> 4.233069e+001
<MIXTURE> 11 2.577701e-001
<MEAN> 39
 1.670969e+000 -2.214447e+000 -4.555420e-001 -1.280121e+000 2.215248e-001 -6.298277e-001 -1.121814e-001 6.900579e-001 -2.602310e-001 -1.047120e+000 -7.415250e-001 -1.699808e+000 2.117669e+000 -8.547658e-002 6.994384e-002 2.553635e-001 -8.892331e-002 -5.189545e-001 -4.064060e-001 -3.891784e-002 2.982669e-001 2.273857e-001 4.767556e-002 -1.558727e-001 1.407032e-002 9.364536e-002 -2.269602e-002 3.596667e-001 2.289062e-001 2.254423e-001 -3.011432e-001 -6.052796e-002 -8.425388e-003 2.997300e-002 2.176333e-001 5.453841e-002 2.703092e-002 2.514494e-001 -2.000022e-001
<VARIANCE> 39
 8.045396e-001 1.751605e-001 1.071159e+000 6.290187e-001 2.403329e+000 2.273519e+000 2.237942e+000 1.878181e+000 2.143399e+000 1.519364e+000 1.378782e+000 1.237804e+000 1.766465e-001 1.380203e-001 1.956680e-001 8.126770e-001 6.644250e-001 6.628934e-001 6.349816e-001 7.085657e-001 6.733696e-001 8.056826e-001 5.248031e-001 7.471198e-001 7.504514e-001 5.644628e-002 2.175466e-001 3.360770e-001 8.400879e-001 5.238836e-001 5.674339e-001 5.603510e-001 7.248639e-001 6.422214e-001 5.629660e-001 4.712183e-001 6.231709e-001 8.765332e-001 9.272357e-002
<GCONST> 5.263467e+001
<MIXTURE> 12 2.039388e-002
<MEAN> 39
 2.323122e-001 -8.561486e-001 2.867464e-001 -7.195769e-001 -2.567961e+000 -1.603616e+000 -1.264375e+000 1.440452e+000 -1.399319e+000 -3.452226e-001 -4.173501e-001 9.414093e-002 1.619322e+000 -8.091245e-001 1.512905e+000 2.574973e-001 1.006921e+000 1.179284e+000 -5.262328e-001 5.255578e-001 -1.267937e+000 2.891999e-001 -1.352408e-001 -3.892422e-001 2.635719e-001 -4.489071e-001 -1.603195e+000 1.707921e+000 -1.433533e+000 -8.001592e-001 1.894068e+000 1.183986e+000 2.167303e+000 -1.137790e+000 7.667010e-001 -9.380606e-001 -7.501670e-001 -5.968081e-001 -2.689843e-001
<VARIANCE> 39
 1.337678e+000 1.559453e+000 1.284753e+000 7.833413e-001 1.159037e+000 3.769972e-001 8.493004e-001 3.275158e+000 1.017088e+000 1.534325e+000 2.363444e+000 1.398701e+000 1.713484e-001 1.515773e+000 1.982850e+000 1.816708e+000 1.222958e+000 3.155387e+000 3.061890e+000 2.160442e+000 1.782197e+000 1.706056e+000 2.023752e+000 1.856879e+000 1.456204e+000 3.370252e-001 1.488538e+000 1.324921e+000 8.451893e-001 3.121550e+000 2.954518e+000 1.083223e+000 2.116944e+000 3.098820e+000 1.375050e+000 1.592082e+000 3.251380e+000 1.539717e+000 8.245031e-001
<GCONST> 8.604669e+001
<MIXTURE> 13 3.548371e-002
<MEAN> 39
 2.232697e+000 -2.799826e+000 -5.268974e-001 -1.130803e+000 -8.809891e-001 4.551117e-001 -3.427203e-001 8.387380e-001 1.167871e+000 -1.151183e+000 -9.163195e-001 -1.577422e+000 2.953753e+000 8.771403e-001 -1.315833e+000 1.684438e-001 -1.173449e+000 -6.134111e-001 -2.626268e-001 -4.850461e-001 4.990194e-001 -1.745653e-001 -3.809839e-001 2.414013e-001 -1.303987e+000 1.882673e+000 -1.912396e+000 7.096838e-001 3.457640e-001 5.362926e-001 5.188276e-001 2.574980e-002 5.113556e-001 9.717178e-002 -1.523527e-001 -4.266710e-001 5.040003e-002 7.710345e-001 -2.277508e+000
<VARIANCE> 39
 3.732275e-001 8.984295e-001 1.546393e+000 1.280940e+000 2.608510e-001 1.688884e+000 3.876909e+000 1.874323e+000 3.692113e-001 3.616646e-001 1.344141e+000 1.327218e+000 8.057338e-001 2.719758e+000 1.044692e+000 1.893969e+000 6.947769e-001 8.664862e-001 7.871884e-001 7.558131e-001 1.317665e+000 3.398779e-001 4.567405e-001 6.902648e-001 1.800152e+000 3.799305e+000 1.614079e+000 1.556108e+000 1.778551e+000 9.535653e-001 3.858516e-001 6.047735e-001 5.351411e-001 1.459996e+000 8.088213e-001 1.403879e-001 8.026969e-001 7.307199e-001 1.567993e+000
<GCONST> 6.889028e+001
<MIXTURE> 14 3.061265e-002
<MEAN> 39
 6.454244e-001 -2.786122e+000 -6.815568e-001 -8.419707e-001 -6.559874e-001 -8.246957e-001 -1.116699e+000 -2.031758e+000 -2.294057e+000 -3.158852e+000 -1.331266e+000 -9.104379e-001 2.360103e+000 1.694475e-001 -1.378237e+000 -2.032006e-001 -4.951631e-001 -3.501261e-001 -3.299088e-001 8.786609e-001 -9.136332e-001 -2.443920e-001 -2.927617e-001 -1.281065e+000 -9.624658e-001 2.093699e+000 -1.433930e+000 9.591122e-001 1.613007e+000 6.085255e-001 1.334370e+000 4.819018e-001 6.137845e-001 2.220859e+000 1.780147e+000 2.065436e+000 1.481939e+000 6.876481e-001 -2.304285e+000
<VARIANCE> 39
 1.240632e+000 2.676528e-001 1.600267e+000 5.754780e-001 1.315008e+000 5.599682e+000 1.751212e+000 1.672059e+000 3.783381e-001 8.653064e-001 4.958114e+000 2.169125e+000 1.574797e-001 2.009967e+000 2.602102e+000 2.994009e+000 1.591854e+000 2.631284e+000 1.710799e+000 2.353672e+000 3.036290e+000 1.470608e+000 2.446196e+000 3.276660e+000 3.617996e+000 1.355774e+000 6.751419e-001 3.479681e+000 8.961821e-001 9.858805e-001 1.468578e+000 3.447867e+000 3.874789e+000 2.668568e+000 9.176098e-001 9.571107e-001 2.148302e+000 2.669293e+000 1.287803e+000
<GCONST> 9.027583e+001
<MIXTURE> 15 1.188853e-002
<MEAN> 39
 -6.409373e-001 -1.333301e+000 -6.303586e-001 1.876693e-001 8.371690e-002 -9.643071e-001 -1.266980e+000 -1.411269e+000 -1.324297e+000 -1.808917e+000 6.926649e-001 5.550044e-002 1.377256e+000 1.760873e+000 -1.140009e+000 -9.567731e-001 -1.640212e+000 -2.498058e+000 -2.806494e+000 -2.503267e+000 -4.080702e+000 -2.395475e+000 -2.635750e+000 -1.515308e+000 -1.615535e-002 2.446958e+000 -4.638623e-001 -2.810984e+000 -1.978539e-001 4.877815e-001 -7.101777e-002 -4.570006e-001 4.736605e-001 4.483438e-001 6.443171e-001 1.449369e+000 9.565038e-002 5.802076e-001 6.398056e-001
<VARIANCE> 39
 4.230812e-001 1.543244e-001 4.630448e+000 1.160346e+000 1.746924e+000 1.701671e+000 2.383949e+000 2.224061e-001 3.309208e-001 1.701504e-001 2.289196e+000 1.022527e+000 5.262480e-002 4.014980e-001 1.446232e+000 9.843053e-001 6.920828e-001 1.935421e+000 3.215578e+000 4.919221e-001 7.931587e-001 8.548179e-001 7.339373e-001 1.494219e+000 5.931827e+000 7.940122e-001 2.169713e+000 1.369050e+000 4.327559e+000 2.841611e+000 6.040373e+000 4.760946e+000 4.449474e+000 3.021501e+000 1.539797e+000 7.249835e-001 1.948405e+000 2.194979e+000 8.834335e-001
<GCONST> 7.855324e+001
<MIXTURE> 16 1.555318e-001
<MEAN> 39
 8.234267e-001 -1.556883e+000 -1.709984e+000 -2.053850e-001 -1.491247e+000 -7.240326e-001 4.205368e-001 -1.280850e+000 -1.056369e+000 -1.109920e+000 -1.537173e+000 5.727083e-001 1.751645e+000 -7.902535e-002 3.246141e-001 3.873014e-001 -3.204911e-001 -4.911139e-001 -2.291199e-001 2.683827e-001 1.974798e-002 1.629474e-001 -2.702088e-002 1.367284e-001 -2.812363e-002 -4.493202e-002 5.483232e-002 3.662166e-001 3.759277e-001 -5.881670e-002 2.799237e-001 -2.778783e-001 -3.433277e-002 5.872422e-002 4.811150e-002 -7.441755e-002 1.716375e-001 -4.733823e-001 -1.876435e-001
<VARIANCE> 39
 6.113042e-001 2.038806e-001 4.442249e-001 1.601966e+000 1.124830e+000 1.386524e+000 2.369916e+000 8.419939e-001 1.947249e+000 8.801661e-001 1.646091e+000 1.365587e+000 1.336816e-001 2.403006e-001 8.660696e-001 5.849144e-001 7.818007e-001 1.211989e+000 1.298422e+000 1.399950e+000 8.818015e-001 1.093837e+000 1.131457e+000 8.626816e-001 1.150100e+000 7.121807e-002 3.568829e-001 8.757659e-001 7.079445e-001 7.869220e-001 1.598196e+000 1.458740e+000 1.167041e+000 8.800243e-001 1.124676e+000 1.536795e+000 1.056256e+000 8.554948e-001 7.669332e-002
<GCONST> 6.260468e+001
<STATE> 4
<NUMMIXES> 16
<MIXTURE> 1 7.993941e-003
<MEAN> 39
 -1.764561e+000 -3.445878e-002 2.217637e-001 -6.689402e-001 -4.146185e-001 -9.838012e-001 2.370217e-001 1.699447e-001 -7.566812e-001 7.024034e-001 -3.869250e-002 -1.913566e+000 1.433878e+000 -1.351887e+000 -1.616691e+000 -1.573599e+000 -1.194645e-001 1.169157e+000 1.130800e-001 2.690471e-001 -2.902731e-001 -1.364632e-002 8.433848e-001 1.192890e-001 -4.185280e-001 4.512675e-001 1.039527e+000 1.588962e+000 9.890656e-001 -1.172834e+000 -4.745868e-001 5.509003e-001 -8.016714e-001 7.316234e-001 2.244215e+000 -2.018604e+000 8.636708e-001 1.972628e+000 3.573822e-001
<VARIANCE> 39
 8.456964e-002 2.052474e+000 1.729215e+000 1.929113e+000 1.309718e+000 5.069126e-001 3.603367e-002 2.716537e-001 2.136871e+000 1.245728e+000 5.719594e-001 1.517489e+000 1.172654e-002 2.297695e+000 4.693854e-001 5.955827e-001 1.389453e-001 3.549297e-001 1.840839e-001 5.791311e-001 6.348611e-002 1.745134e+000 5.698922e-001 5.175319e+000 6.104608e-001 1.062737e-001 2.455045e+000 4.425355e-001 6.969603e-001 3.837076e-001 4.551280e-001 7.326919e-002 1.533418e-001 5.106483e-001 2.993855e-001 3.503428e+000 1.796851e+000 8.971377e-002 6.719726e-002
<GCONST> 4.128022e+001
<MIXTURE> 2 1.526574e-001
<MEAN> 39
 6.684434e-001 -1.458483e+000 -8.142915e-001 -9.783369e-001 -1.012031e+000 -9.342848e-001 -1.886906e-001 -1.218038e+000 -1.622687e+000 -5.089740e-001 -8.194094e-001 -1.113311e+000 1.539802e+000 1.352697e-002 4.998883e-001 4.787965e-001 -4.872757e-001 -2.738621e-001 6.248986e-002 1.663204e-001 2.415784e-001 -1.594924e-001 1.044265e-001 -1.349974e-001 -2.029237e-001 -1.542818e-001 7.094834e-002 2.227267e-001 1.864158e-001 -3.976721e-002 -1.340291e-001 1.001568e-002 -1.294299e-001 9.811493e-002 1.841122e-001 -5.111261e-002 -1.495357e-001 4.093672e-002 -6.093313e-002
<VARIANCE> 39
 1.047786e-001 6.195498e-001 1.370589e+000 2.877513e-001 4.646965e-001 4.573636e-001 6.124293e-001 4.623924e-001 3.380754e-001 1.370146e+000 5.009793e-001 1.147734e+000 7.774164e-002 6.148144e-002 3.140531e-001 7.653642e-001 6.143368e-001 3.977834e-001 4.128136e-001 9.298397e-001 8.366729e-001 1.073378e+000 5.270361e-001 6.977320e-001 1.188353e+000 5.565393e-002 1.075170e-001 4.547292e-001 7.384084e-001 6.408904e-001 3.847387e-001 4.728667e-001 1.012529e+000 6.747630e-001 1.194885e+000 5.034393e-001 7.133911e-001 9.463034e-001 5.738171e-002
<GCONST> 4.130878e+001
<MIXTURE> 3 2.845926e-001
<MEAN> 39
 -2.262361e+000 1.557495e+000 8.592342e-001 -1.959716e+000 -2.750655e-001 1.120518e-001 8.433869e-002 1.301373e-001 -7.157974e-001 -1.030837e+000 -2.670697e-001 -3.087673e-001 1.548631e+000 -4.564429e-001 1.072771e-001 5.140221e-001 2.960681e-001 2.881448e-001 4.182406e-001 -4.948613e-002 -7.065842e-002 2.693888e-001 2.717147e-001 2.650320e-001 1.191137e-001 -2.467562e-002 3.676235e-001 -4.975380e-002 -2.967589e-001 1.620389e-001 1.287385e-001 -2.320339e-001 -5.381530e-003 -7.294504e-002 8.251150e-002 2.360063e-001 -1.668189e-002 1.505083e-002 -1.631273e-001
<VARIANCE> 39
 3.865962e-001 3.117667e-001 2.099900e+000 4.021661e-001 1.386752e+000 1.432131e+000 1.738085e+000 1.213555e+000 1.065828e+000 1.117581e+000 1.785476e+000 1.386915e+000 3.633412e-002 2.715537e-001 5.237001e-001 1.214443e+000 8.549709e-001 8.860353e-001 1.233441e+000 1.552669e+000 1.273290e+000 1.452290e+000 1.751383e+000 1.437276e+000 1.293670e+000 7.122749e-002 3.362381e-001 7.694668e-001 1.352777e+000 1.069716e+000 1.013037e+000 1.234727e+000 1.714921e+000 1.268015e+000 1.118791e+000 1.658984e+000 1.659431e+000 1.225600e+000 1.624132e-001
<GCONST> 6.588988e+001
<MIXTURE> 4 1.311144e-001
<MEAN> 39
 1.608959e+000 -2.017042e+000 4.267453e-001 -1.190809e+000 -1.224115e+000 -1.220614e+000 2.579437e-001 1.412904e+000 1.118408e+000 -1.161997e+000 -1.151709e+000 -1.092130e+000 2.352137e+000 -2.775034e-001 1.473102e+000 9.524730e-001 4.497276e-001 -7.987363e-001 -5.966130e-001 -9.857315e-002 -1.553635e-001 1.681647e-001 4.689735e-001 5.186113e-001 9.862791e-001 -6.624758e-001 -1.541375e-001 9.958084e-001 1.734859e-001 1.554001e-001 4.590622e-001 3.558961e-001 -1.101407e-001 -6.483360e-001 -4.035204e-001 2.780716e-001 3.182454e-001 1.904512e-001 -5.484166e-001
<VARIANCE> 39
 5.748023e-001 8.790382e-001 1.118942e+000 6.090125e-001 1.841593e+000 2.175124e+000 3.261829e+000 2.267382e+000 1.438525e+000 9.338586e-001 1.007633e+000 1.720474e+000 6.865649e-001 2.243170e-001 9.791213e-001 1.788584e+000 8.251861e-001 1.496867e+000 9.311730e-001 1.824297e+000 1.438445e+000 5.559452e-001 1.535565e+000 9.349208e-001 1.394339e+000 1.993908e-001 5.067235e-001 8.291750e-001 1.498259e+000 6.046646e-001 1.286864e+000 1.103718e+000 1.607688e+000 1.351317e+000 6.220850e-001 1.523680e+000 7.496219e-001 1.745646e+000 1.833915e-001
<GCONST> 7.181389e+001
<MIXTURE> 5 1.810798e-002
<MEAN> 39
 1.139762e+000 -3.882440e-001 2.364143e+000 -8.482640e-001 -1.965325e+000 -1.956469e+000 -1.176694e+000 7.993844e-001 -8.092871e-001 1.683070e+000 -1.352106e+000 1.210681e-001 1.690978e+000 -2.825426e+000 3.502937e+000 6.435899e-002 1.379170e+000 1.254756e+000 4.695325e-001 2.330686e+000 -2.670940e+000 1.645927e+000 -8.132167e-001 1.498413e+000 1.369850e-001 -1.032144e+000 -3.228852e+000 7.128330e-001 -2.400408e+000 -9.702900e-001 1.778898e+000 1.544859e+000 1.476788e+000 6.065961e-001 8.709045e-001 -1.936535e+000 7.380964e-001 -1.089348e+000 -1.406619e-001
<VARIANCE> 39
 6.833564e-001 4.111853e-001 8.600760e-001 5.251687e-001 1.173256e+000 4.290506e-001 1.207189e+000 7.027531e-001 1.255699e+000 3.568211e+000 9.005224e-001 4.708869e-001 1.268666e-001 8.965644e-001 1.121631e+000 2.780666e+000 2.751132e+000 2.132235e+000 7.671799e-001 8.633897e-001 8.581418e-001 2.157551e+000 2.079433e+000 1.969576e+000 8.092799e-001 1.891996e-001 8.938208e-001 1.360753e+000 8.810632e-001 1.470252e+000 1.301476e+000 7.397616e-001 1.717321e+000 1.438365e+000 7.259530e-001 1.493659e+000 3.882790e-001 1.054777e+000 4.590361e-001
<GCONST> 6.960480e+001
<MIXTURE> 6 9.434464e-002
<MEAN> 39
 7.532550e-001 -1.197712e+000 -4.910992e-001 -2.222445e+000 -2.050046e+000 -1.589678e+000 5.382507e-001 -1.890146e+000 -1.596855e+000 -1.890221e+000 -1.695384e+000 -1.318670e+000 1.589535e+000 1.215043e-001 2.543700e+000 9.281805e-001 -7.322212e-001 -8.921325e-001 -4.515156e-001 -4.594347e-001 1.152623e-002 1.306999e-001 3.858609e-002 -5.423824e-001 -2.276931e-001 -7.697476e-001 -9.913271e-001 7.298772e-001 4.412368e-002 7.665943e-001 1.069449e+000 7.094855e-001 -7.135372e-001 -4.871403e-002 -2.724214e-001 7.152175e-001 5.854504e-001 3.434836e-001 -1.613630e-001
<VARIANCE> 39
 8.401955e-001 5.829242e-001 7.354749e-001 7.188882e-001 1.446097e+000 1.041252e+000 1.659203e+000 5.482604e-001 8.664168e-001 1.163946e+000 1.106058e+000 9.432016e-001 9.599695e-002 5.039889e-001 1.316870e+000 1.276617e+000 2.399982e+000 1.682065e+000 1.670176e+000 2.241265e+000 1.159862e+000 2.552014e+000 1.619587e+000 2.703649e+000 9.833354e-001 3.569917e-001 1.167245e+000 1.922524e+000 1.116635e+000 1.117427e+000 1.706366e+000 2.594324e+000 1.681404e+000 1.198822e+000 2.099644e+000 1.726490e+000 2.214715e+000 1.822819e+000 3.540196e-001
<GCONST> 7.727614e+001
<MIXTURE> 7 7.993950e-003
<MEAN> 39
 9.070629e-001 -1.159303e+000 1.388024e+000 -1.996770e+000 -1.704458e+000 1.045815e+000 1.057351e+000 -1.373600e+000 -2.076648e+000 -2.318352e+000 -2.048035e+000 -2.654470e+000 1.903937e+000 -8.821235e-001 6.944846e-001 2.968708e+000 -4.263118e-001 1.279622e+000 -3.958311e-001 2.794361e+000 -2.132232e-002 -1.000590e-001 3.678530e+000 -3.893333e-001 -9.384076e-001 -6.876959e-001 -1.117242e+000 -2.858150e-001 7.746482e-001 1.073019e+000 6.702998e-001 -1.991997e+000 -2.230001e+000 1.290282e+000 2.144996e+000 1.497072e+000 2.134097e+000 1.189554e+000 -1.217230e+000
<VARIANCE> 39
 5.631299e-001 1.090308e+000 1.225547e-001 1.047147e-001 1.002531e+000 3.364066e-001 1.913132e+000 4.326967e+000 7.004942e-001 7.618541e-001 2.660779e-001 2.363416e+000 3.823815e-001 1.587357e-001 1.656038e+000 1.175046e+000 3.750980e-001 2.585349e-001 1.283184e-001 1.281747e+000 7.275784e-001 1.425262e+000 5.593969e-001 8.818764e-001 1.596163e+000 3.439477e-002 5.952087e-001 4.131572e-001 2.510089e+000 1.975226e+000 1.188245e-001 2.247604e-001 1.582818e+000 1.656954e+000 8.161967e-002 2.465020e+000 1.782612e+000 3.599004e+000 2.982045e-001
<GCONST> 5.350650e+001
<MIXTURE> 8 8.296345e-002
<MEAN> 39
 -1.602864e+000 1.219741e+000 -4.283778e-001 -1.732075e+000 5.938728e-002 -5.932602e-001 1.101525e+000 -1.811623e-001 -3.020355e-001 -7.157918e-001 -1.116404e+000 -4.833125e-001 1.382144e+000 -2.354111e+000 1.313036e+000 -5.611871e-001 -1.661336e+000 4.996280e-001 3.251714e-001 -4.808802e-001 6.708150e-001 4.254694e-001 3.658097e-001 4.432766e-001 4.513799e-002 3.096201e-001 2.040046e+000 -2.000534e+000 1.465549e+000 5.395240e-001 -1.055260e+000 -5.706702e-001 -8.810108e-001 8.066531e-002 -7.919367e-001 -1.176401e-001 1.159818e-001 2.080162e-001 5.698788e-001
<VARIANCE> 39
 2.707939e-001 5.460318e-001 2.578239e+000 8.686693e-001 1.084019e+000 1.250798e+000 1.345493e+000 1.613792e+000 2.766188e+000 8.320165e-001 8.740813e-001 2.566321e+000 6.184996e-002 1.578924e+000 1.674074e+000 1.994585e+000 1.663047e+000 1.752387e+000 1.341157e+000 1.941528e+000 1.787155e+000 1.648163e+000 2.655241e+000 1.231812e+000 2.429478e+000 2.886699e-001 8.672791e-001 1.390081e+000 1.374660e+000 3.440524e+000 1.265676e+000 1.581490e+000 2.162873e+000 3.123345e+000 2.786234e+000 1.906741e+000 2.087283e+000 2.668432e+000 7.650004e-001
<GCONST> 8.357453e+001
<MIXTURE> 9 4.814605e-002
<MEAN> 39
 2.457218e-001 5.647798e-002 2.397746e-001 -1.731803e+000 -1.349117e+000 -1.320671e+000 -9.789464e-002 -1.714097e+000 -2.125144e+000 -1.281170e+000 -1.311400e+000 -1.007213e+000 1.215825e+000 -3.003113e+000 2.753129e+000 -9.031102e-002 6.791053e-001 1.161897e+000 2.009955e+000 -2.724854e-001 1.789750e+000 -4.849475e-002 8.582321e-001 7.828639e-001 -2.786411e-001 -9.455607e-001 -1.290109e+000 -7.472085e-001 -8.774456e-001 -4.623213e-001 9.384938e-002 2.634764e-001 6.378300e-001 7.222771e-001 9.101237e-001 7.496694e-002 -3.471049e-001 1.990605e-001 6.377354e-001
<VARIANCE> 39
 7.886447e-001 5.415483e-001 1.348381e+000 1.190148e+000 8.887500e-001 8.030961e-001 2.435534e+000 1.316098e+000 8.764243e-001 8.260174e-001 6.869588e-001 1.584772e+000 3.846063e-001 6.722240e-001 1.210101e+000 4.813841e+000 3.280163e+000 1.757394e+000 1.139917e+000 3.434628e+000 1.074980e+000 2.465808e+000 1.735538e+000 2.006587e+000 1.000771e+000 5.045922e-001 1.808431e+000 1.575314e+000 3.860774e+000 2.739242e+000 1.054083e+000 2.509979e+000 3.615046e+000 1.508881e+000 1.467404e+000 1.143919e+000 1.389272e+000 9.554996e-001 5.909141e-001
<GCONST> 8.330441e+001
<MIXTURE> 10 1.998460e-002
<MEAN> 39
 6.645410e-001 8.088307e-001 1.561494e+000 -1.196121e+000 -6.559998e-001 -9.151971e-001 3.909882e-002 9.182462e-001 1.714383e+000 2.906580e-001 -1.250018e+000 -9.582388e-001 1.760958e+000 -4.088567e+000 1.363974e+000 1.692438e+000 -9.729558e-001 -9.499541e-001 2.788809e+000 -2.661918e-001 5.399219e-001 2.120551e-001 8.412918e-001 -4.357662e-001 -3.505883e-001 -6.858115e-001 -1.133889e+000 -1.774593e+000 -6.171104e-001 -1.493872e-001 -4.028670e-002 -4.108438e-001 1.312134e+000 -1.315451e+000 -4.127757e-002 -4.026548e-001 1.128577e+000 -6.625765e-001 1.132661e+000
<VARIANCE> 39
 1.404395e+000 1.250421e-001 5.314103e-001 2.070192e-001 4.073552e-001 2.171408e+000 7.915050e-001 5.171860e-001 7.647765e-001 5.138317e-001 4.309410e-001 1.413940e+000 3.923227e-002 1.987854e+000 1.450117e+000 6.798143e-001 2.786500e-001 2.934885e+000 7.573339e-001 3.140609e+000 2.021455e+000 7.847919e-001 8.776682e-001 2.184655e+000 2.001992e+000 7.833390e-001 5.745872e+000 3.037741e-001 1.521225e+000 1.000799e+000 1.431841e+000 2.119147e+000 1.554708e+000 1.867392e+000 9.381758e-001 7.170880e-001 1.000104e+000 2.929471e+000 5.294962e-001
<GCONST> 6.814336e+001
<MIXTURE> 11 3.206065e-002
<MEAN> 39
 -1.037072e-001 -1.080580e-001 1.190850e+000 -1.010514e+000 -2.362594e-001 -1.258369e+000 1.137096e+000 4.049703e-001 4.890118e-002 -9.349464e-001 -9.306632e-001 3.036208e-001 1.445654e+000 -4.108683e+000 2.591173e+000 -1.268079e+000 -1.183541e+000 1.968163e+000 5.425684e-001 1.794606e+000 -1.890400e+000 1.293349e+000 -4.810844e-001 4.503160e-001 -2.221037e-001 -1.033046e+000 -7.496209e-001 -8.412381e-001 -6.879504e-001 -1.299972e+000 -1.138279e+000 5.934232e-001 -9.895208e-001 6.468061e-001 -3.801897e-001 3.494944e-001 -2.473309e-001 -5.006659e-001 1.008592e+000
<VARIANCE> 39
 5.855462e-001 1.198396e+000 1.295056e+000 9.783878e-001 1.610917e+000 1.584827e+000 1.569470e+000 2.303870e+000 2.051009e+000 1.261251e+000 1.504512e+000 9.349211e-001 1.399504e-001 9.427654e-001 1.618582e+000 1.220039e+000 9.714181e-001 1.429116e+000 1.503505e+000 1.204740e+000 1.591722e+000 2.185280e+000 3.147713e+000 3.274665e+000 1.864930e+000 4.170866e-001 1.538111e+000 1.757362e+000 1.453539e+000 2.832237e+000 9.618257e-001 7.388797e-001 1.293504e+000 1.906175e+000 1.542435e+000 1.382124e+000 9.659741e-001 4.628013e-001 5.531185e-001
<GCONST> 8.030934e+001
<MIXTURE> 12 4.991823e-002
<MEAN> 39
 2.143869e+000 -6.020555e-001 9.602855e-001 -5.113263e-001 -1.543199e+000 -2.093174e+000 4.792122e-001 1.688433e-001 9.084904e-001 -7.756374e-001 6.048936e-001 -5.961152e-001 1.976970e+000 -4.743445e-001 1.694646e+000 1.618307e+000 5.594337e-001 6.507894e-001 8.976467e-001 -1.235611e+000 -3.548792e-001 -4.192390e-001 4.769557e-001 4.257403e-001 7.164016e-001 -1.224826e+000 -2.203178e+000 -4.116825e-001 -6.363396e-002 -7.485015e-001 8.315856e-001 7.741650e-001 -1.200255e-001 5.475839e-001 -4.019032e-001 -2.216610e-001 -1.387288e+000 -5.363407e-001 -1.968383e-001
<VARIANCE> 39
 4.997573e-001 5.772567e-001 1.537576e+000 1.152364e+000 1.825742e+000 9.048215e-001 2.709815e+000 1.991894e+000 1.697125e+000 4.773112e-001 2.049204e+000 1.034456e+000 1.920169e-001 6.794792e-001 2.052163e+000 2.178077e+000 1.070881e+000 2.780164e+000 1.126996e+000 1.094743e+000 2.239168e+000 4.879709e-001 1.243599e+000 1.815348e+000 2.089146e+000 4.647729e-001 1.793296e+000 6.529357e-001 1.583343e+000 3.857709e+000 2.467217e+000 1.502000e+000 1.646154e+000 1.727492e+000 7.820094e-001 9.154485e-001 1.228898e+000 1.618881e+000 6.890159e-001
<GCONST> 7.967352e+001
<MIXTURE> 13 1.399061e-002
<MEAN> 39
 8.787525e-001 -6.664823e-001 1.903172e+000 -2.829067e-001 -1.931273e+000 -2.520625e-001 -1.616055e+000 6.039420e-001 1.081559e+000 -1.057010e+000 -1.532340e+000 -1.605659e-001 2.152401e+000 -3.713562e+000 7.848407e-001 2.546543e-001 -1.378398e-001 1.616385e+000 2.287967e-001 3.246609e-001 -4.716504e-001 -6.287676e-001 3.057596e-001 -5.834701e-002 -1.662936e+000 -1.215736e+000 -2.223227e+000 -1.589009e+000 -1.311514e+000 -1.779792e+000 4.873276e-001 -6.205912e-001 1.399823e+000 2.513664e-001 5.383230e-003 -5.437769e-001 5.221194e-001 -1.069896e+000 3.754031e-001
<VARIANCE> 39
 9.959700e-001 9.781781e-001 7.451264e-001 6.208006e-001 3.431231e-001 1.516550e+000 2.452113e+000 1.301974e+000 7.000263e-001 1.547866e+000 2.508717e+000 7.391319e-001 2.671571e-001 2.404500e+000 3.915281e+000 2.315992e+000 2.165898e+000 9.329006e-001 1.412984e+000 6.645270e-001 7.332187e-001 2.161071e+000 1.306190e+001 1.085330e+000 2.271537e+000 7.735289e-001 1.656386e+000 3.969015e-001 1.213850e+000 1.512049e-001 3.507277e+000 2.085413e-001 1.061737e+000 2.276950e+000 4.745976e-001 2.639389e+000 1.438802e+000 2.703494e+000 4.088145e-001
<GCONST> 7.730792e+001
<MIXTURE> 14 4.014370e-002
<MEAN> 39
 1.697334e+000 -2.545748e+000 -3.975811e-001 -1.124917e+000 -2.519187e+000 -1.178445e+000 -8.966754e-001 1.050697e+000 -2.936833e+000 -2.269776e+000 -2.515518e+000 -2.277375e+000 2.723133e+000 1.241141e-001 1.271644e+000 4.298717e-001 -7.395229e-001 -1.789378e-001 -3.471908e-001 3.457755e-001 1.025553e+000 -2.515227e-002 -1.903357e-001 5.464111e-001 4.573606e-001 -4.138775e-001 -6.466273e-001 9.238467e-001 7.103984e-001 5.711522e-001 8.927290e-001 2.805963e-001 5.309466e-001 -1.004474e+000 8.957311e-001 3.651161e-001 8.352970e-002 4.049785e-001 -4.781688e-001
<VARIANCE> 39
 3.117008e-001 8.757136e-001 2.294047e+000 5.115613e-001 1.205413e+000 4.831184e-001 4.181096e+000 1.263028e+000 4.683192e-001 6.067190e-001 4.632362e-001 1.415952e+000 2.657904e-001 6.237764e-001 1.465749e+000 2.815500e+000 3.269968e+000 1.721181e+000 2.791711e+000 3.334872e+000 2.078691e+000 1.761593e+000 1.915551e+000 7.331628e-001 1.847550e+000 1.674959e-001 6.728883e-001 9.124269e-001 1.838914e+000 2.213536e+000 1.679302e+000 9.006698e-001 4.024698e+000 2.201374e+000 8.341455e-001 2.971123e+000 1.334673e+000 5.971104e-001 3.610961e-001
<GCONST> 7.719950e+001
<MIXTURE> 15 7.993926e-003
<MEAN> 39
 1.391056e+000 -1.900552e+000 2.012279e+000 -1.489904e+000 6.296378e-001 -1.758201e+000 3.117108e-001 2.133126e+000 -1.909655e+000 -1.209208e+000 -2.363495e+000 8.026186e-001 2.358308e+000 -1.122171e+000 6.285303e-001 3.265245e+000 -4.877802e-001 2.764179e+000 -2.690823e+000 -1.464630e+000 -7.945114e-001 2.140056e-001 2.910470e+000 -4.823104e-001 9.952375e-001 -1.053863e+000 -1.828549e+000 -6.415465e-001 -1.185976e+000 -1.874674e-001 8.862723e-001 7.426322e-001 2.478853e+000 4.227960e-001 -7.378176e-001 1.318598e+000 6.236148e-001 4.296656e-001 -4.185666e-001
<VARIANCE> 39
 2.852414e-001 1.130233e-001 3.208132e-001 1.188445e-001 4.118107e-001 2.104541e+000 5.055727e+000 6.171845e-001 3.043398e-001 3.123602e-001 4.007137e-001 2.816556e-001 1.078693e-002 7.723316e-001 3.730931e-001 3.609548e-001 8.218684e-001 1.636344e-001 1.461249e-001 6.745162e+000 1.799587e+000 1.072274e+000 3.175707e-001 4.604789e-001 4.254338e-002 7.360170e-002 1.862836e-001 3.607975e-001 3.690948e+000 9.076681e-001 5.447204e-001 2.064051e+000 3.948894e+000 1.709766e+000 8.949086e-001 1.497555e+000 5.685160e-001 2.217017e-002 4.804670e-002
<GCONST> 3.901041e+001
<MIXTURE> 16 7.993931e-003
<MEAN> 39
 -2.705767e-001 -1.899497e+000 -4.900033e-001 -2.379610e+000 -1.368343e+000 -6.176700e-001 2.480177e+000 -3.271398e+000 -1.730320e+000 -3.196054e+000 -1.372817e+000 -1.453731e+000 1.856057e+000 -3.876120e-001 9.884039e-001 2.161427e+000 -5.521963e-001 -2.061644e+000 1.180904e+000 1.571253e+000 -1.197838e+000 4.888957e-001 -5.240817e-002 -6.172011e-001 -4.722887e+000 -9.978876e-001 -2.897697e-001 1.678092e+000 -4.390747e-001 9.864708e-001 1.414792e+000 -2.256567e+000 -1.950637e+000 1.495602e+000 1.294484e-001 3.504225e+000 2.995793e-001 8.910364e-001 -3.007644e-001
<VARIANCE> 39
 1.974288e-001 1.417295e+000 5.868329e-001 3.992655e-001 1.129367e+000 3.817274e-002 1.664067e+000 1.098716e-001 2.944773e-001 9.636011e-001 3.132136e-001 2.676576e+000 9.215344e-002 4.233037e-001 1.209700e+000 2.190988e-002 3.651400e-001 2.597262e+000 1.593911e+000 4.337294e-001 1.550630e+000 9.048710e-001 3.190009e+000 1.010643e+000 1.904899e+000 1.003248e-001 2.347802e-001 5.596341e+000 4.756795e-001 4.323194e-001 1.554902e+000 5.544609e-001 3.099931e+000 4.713745e-001 1.003072e+000 4.100839e-001 1.342390e+000 8.947045e+000 4.081377e-002
<GCONST> 5.255219e+001
<STATE> 5
<NUMMIXES> 16
<MIXTURE> 1 1.460796e-001
<MEAN> 39
 -1.748195e+000 -3.318598e-001 5.448237e-001 -1.740594e-001 5.702764e-002 2.136028e-001 1.232103e+000 -7.068425e-001 6.223193e-001 -1.322278e-002 8.299993e-001 6.126224e-002 1.369934e+000 -1.023933e-001 1.915879e-001 1.481216e-001 -1.097992e-002 1.886139e-001 1.965370e-001 -2.974062e-001 -7.401482e-002 -2.889791e-001 -1.821744e-001 1.209818e-001 5.686970e-002 -8.555583e-002 1.944808e-001 2.934757e-001 -3.872477e-001 -2.860521e-001 1.278827e-001 1.433775e-001 -2.119474e-001 2.562194e-001 -1.467413e-001 -1.744286e-001 -4.791718e-001 -3.078062e-001 -1.922098e-001
<VARIANCE> 39
 4.498276e-001 3.314250e+000 3.790643e+000 1.371650e+000 3.070028e+000 2.811127e+000 2.188803e+000 1.341488e+000 1.236992e+000 1.755383e+000 1.086268e+000 1.772684e+000 1.989223e-001 3.666463e-001 7.701440e-001 1.320831e+000 1.546023e+000 1.375346e+000 2.133421e+000 1.932809e+000 1.988482e+000 1.796021e+000 1.632881e+000 2.376451e+000 1.696591e+000 1.668560e-001 8.493943e-001 1.015205e+000 1.685230e+000 1.525210e+000 1.489937e+000 2.208321e+000 2.038172e+000 2.272016e+000 2.081196e+000 1.737930e+000 2.591579e+000 1.734271e+000 3.848876e-001
<GCONST> 8.467827e+001
<MIXTURE> 2 4.283079e-002
<MEAN> 39
 5.789685e-001 -7.344402e-001 -6.179997e-001 -7.178888e-001 1.077399e-001 1.000597e-002 -3.489197e-001 4.714802e-001 -1.013759e+000 9.078591e-001 -1.004547e+000 3.715529e-001 6.434999e-001 -2.822892e-002 -5.256347e-002 7.894249e-002 7.139476e-002 -1.084562e-001 -2.613968e-001 -1.826717e-002 2.145483e-001 -1.702020e-001 -1.372515e-002 -1.721800e-001 1.619934e-001 -2.688182e-002 -1.433624e-002 5.149244e-002 7.119378e-002 3.395166e-002 -4.931679e-002 -1.250655e-001 7.808516e-003 9.092611e-004 9.494672e-002 -7.173487e-002 -2.198690e-002 -6.472153e-002 3.156877e-002
<VARIANCE> 39
 4.602019e-002 2.844329e-002 4.686920e-002 1.890378e-001 2.368124e-001 2.776993e-001 3.369643e-001 5.223646e-001 1.560690e-001 2.748725e-001 1.295463e-001 3.616171e-001 2.454698e-002 3.228776e-002 2.149255e-001 2.449132e-001 2.625436e-001 1.461755e-001 4.301349e-001 1.564576e-001 2.744130e-001 6.036755e-001 5.402165e-001 7.757977e-001 4.103312e-001 2.631130e-002 2.621648e-002 2.507635e-001 3.427036e-001 3.017299e-001 1.734995e-001 2.817716e-001 1.707833e-001 2.885949e-001 7.137576e-001 5.053310e-001 1.324290e+000 4.894320e-001 2.575201e-002
<GCONST> 7.969643e+000
<MIXTURE> 3 1.466871e-001
<MEAN> 39
 -4.837447e-001 6.075286e-001 5.716233e-001 -3.197100e-001 5.950108e-001 4.406919e-002 -1.413739e-001 1.739910e-001 2.905592e-001 -1.883322e-001 1.777842e-001 -2.589746e-001 -8.819282e-002 6.055113e-001 -5.134662e-001 -1.075445e-001 1.944620e-001 6.792248e-002 -3.228254e-001 2.441380e-001 9.916547e-002 1.086731e-001 9.914210e-002 1.791598e-001 1.403306e-001 -5.157878e-001 -1.057877e+000 2.706321e-001 -1.265193e-001 -3.947147e-001 -5.060880e-002 -3.607132e-001 1.707902e-001 9.904981e-003 -2.407400e-001 2.797352e-001 -6.174623e-002 6.047086e-002 1.304188e+000
<VARIANCE> 39
 3.491389e-001 3.600995e-001 6.221650e-001 8.122720e-001 1.213369e+000 9.594264e-001 9.469660e-001 8.261633e-001 7.786956e-001 7.397733e-001 8.485186e-001 1.014453e+000 3.380502e-001 1.233562e+000 1.004110e+000 1.262851e+000 1.246184e+000 1.381790e+000 1.010708e+000 1.157602e+000 9.965915e-001 1.404748e+000 1.175004e+000 1.101567e+000 1.391557e+000 1.240118e+000 1.047259e+000 9.879315e-001 1.562958e+000 1.255387e+000 1.249955e+000 1.186283e+000 1.336824e+000 1.104467e+000 1.626311e+000 1.113348e+000 1.206363e+000 1.517894e+000 1.505707e+000
<GCONST> 7.242903e+001
<MIXTURE> 5 1.530674e-002
<MEAN> 39
 4.864028e-001 9.095964e-002 1.501684e+000 -9.069101e-001 -1.186862e+000 -1.285963e+000 5.087702e-001 4.806041e-001 -8.433803e-001 -3.929544e-001 -1.156059e+000 -1.437572e+000 1.032279e+000 -1.662668e+000 1.192016e+000 9.344284e-001 7.521005e-001 9.266745e-001 2.196713e-001 -2.757291e-002 -4.632114e-001 1.789659e+000 7.749430e-001 2.492156e+000 1.227390e-001 -1.322960e+000 -1.657090e+000 -5.070288e-001 -9.285916e-001 -3.138799e-001 -3.449154e-001 4.395859e-001 -2.945509e-001 -8.302525e-001 1.207503e+000 -6.783716e-002 3.667838e-001 6.341913e-001 -1.980011e-001
<VARIANCE> 39
 3.097951e-001 4.963804e-001 3.784308e-001 4.208085e-001 1.248793e+000 3.488239e+000 1.845977e+000 1.965636e+000 1.278528e+000 1.795009e+000 5.282975e-001 1.510040e+000 4.154882e-001 1.319184e+000 1.341773e+000 1.844996e+000 1.720255e+000 1.770373e+000 1.510197e+000 2.020969e+000 2.783108e+000 1.592228e+000 3.233233e+000 1.478482e+000 3.572591e+000 7.926513e-001 1.565152e+000 1.020399e+000 1.077124e+000 2.065249e+000 3.782135e+000 2.681407e+000 3.631545e+000 1.284580e+000 1.099099e+000 3.665590e+000 2.251314e+000 3.078056e+000 9.856865e-001
<GCONST> 8.640091e+001
<MIXTURE> 6 1.140672e-002
<MEAN> 39
 1.696505e+000 3.365300e-001 1.093567e+000 -2.626619e+000 -3.319085e+000 -1.673180e+000 -7.949716e-001 -1.391566e+000 -3.249095e-001 -2.051972e-001 -1.183763e+000 -1.554802e+000 1.411512e+000 -5.831153e-001 1.713933e+000 6.483857e-001 8.223990e-001 6.878193e-001 -5.268471e-001 -1.189541e+000 -4.174667e-001 8.351861e-001 7.659081e-001 2.549169e-001 7.349983e-001 -1.080408e+000 -2.297190e+000 -4.087461e-002 -1.768391e+000 1.489339e+000 2.569221e+000 1.413955e+000 1.322334e+000 2.472671e-001 -9.788336e-001 -5.120636e-001 1.476745e-002 4.253332e-001 -1.234567e+000
<VARIANCE> 39
 1.242256e+000 4.263872e-001 7.152520e-001 8.074242e-001 2.234439e-001 6.657479e-001 1.035277e+000 1.466373e-001 4.595095e-001 8.471817e-001 1.229029e+000 2.898746e-001 1.651584e-001 2.378927e+000 1.862730e+000 2.991583e+000 9.329724e-001 1.464456e+000 2.806701e+000 2.005237e+000 3.933624e-001 1.540421e+000 1.682865e+000 1.493183e+000 1.890657e-001 6.512637e-001 1.202146e+000 1.835349e+000 5.017284e-001 5.341256e-001 8.893285e-001 1.896675e+000 2.040377e+000 2.892075e-001 1.407099e+000 2.359300e+000 1.410537e+000 5.818976e-001 3.238089e-001
<GCONST> 6.522075e+001
<MIXTURE> 7 2.732725e-001
<MEAN> 39
 -1.923541e+000 1.303846e+000 7.505830e-001 -1.258474e+000 6.416070e-001 -1.387957e-003 -2.088221e-001 3.399601e-001 -1.797464e-001 3.424428e-001 1.545321e-001 -3.120103e-001 8.325982e-001 4.646874e-001 6.490734e-002 -3.102136e-001 3.661139e-001 3.703006e-001 2.722929e-002 -1.543471e-001 2.563629e-001 1.495530e-001 7.873286e-002 -8.386900e-002 1.234864e-001 -6.665224e-001 8.031921e-001 -4.635340e-001 9.015819e-002 2.134281e-001 -3.685243e-001 -6.387507e-002 -6.689981e-002 -1.455799e-001 9.845913e-003 -2.205901e-001 7.130937e-002 -1.482832e-002 -4.671552e-001
<VARIANCE> 39
 4.728183e-001 2.700174e-001 1.322819e+000 5.457163e-001 9.536973e-001 1.069753e+000 1.112590e+000 1.034306e+000 8.814326e-001 4.884134e-001 1.076156e+000 6.635026e-001 1.943087e-001 1.495569e+000 8.801445e-001 1.693038e+000 1.007791e+000 1.115788e+000 1.122883e+000 1.283254e+000 1.198632e+000 1.260884e+000 1.007879e+000 1.209485e+000 1.070767e+000 1.039498e+000 1.067000e+000 9.616928e-001 1.202212e+000 1.086568e+000 1.141430e+000 1.035872e+000 1.067385e+000 1.296187e+000 1.204780e+000 1.020659e+000 1.107567e+000 9.791625e-001 8.367095e-001
<GCONST> 6.953233e+001
<MIXTURE> 8 1.912006e-001
<MEAN> 39
 -1.400088e+000 -2.869196e-002 6.190565e-001 -1.069665e+000 8.456525e-001 -3.961636e-002 -1.249156e-001 3.509967e-001 -2.429035e-001 1.360768e-001 2.151119e-001 -1.092646e-001 1.013628e+000 3.893605e-002 -2.017419e-001 -8.418376e-001 1.457098e-001 -1.261832e-001 -3.129153e-001 7.184312e-002 2.870578e-002 1.084837e-001 2.853950e-001 -1.899425e-002 1.724437e-001 -5.355643e-001 3.061346e-001 -7.741141e-002 2.270719e-001 3.473903e-001 -2.680293e-001 -3.561785e-002 3.117476e-001 -2.888008e-002 3.021938e-001 2.516604e-002 1.525792e-001 9.089371e-002 -3.716194e-001
<VARIANCE> 39
 1.559569e+000 2.584198e+000 3.326579e+000 2.536668e+000 3.410028e+000 3.837359e+000 3.106932e+000 2.230617e+000 2.060141e+000 2.711006e+000 2.244649e+000 2.933578e+000 5.044182e-001 3.162657e+000 3.260085e+000 3.874771e+000 3.412992e+000 3.128788e+000 3.979593e+000 2.815103e+000 3.081975e+000 2.608753e+000 2.599406e+000 2.605878e+000 3.332192e+000 3.405428e+000 2.674378e+000 3.714909e+000 4.055658e+000 3.486205e+000 3.907978e+000 4.199831e+000 2.527413e+000 3.228927e+000 3.037127e+000 2.843759e+000 2.923592e+000 3.565022e+000 3.715247e+000
<GCONST> 1.131852e+002
<MIXTURE> 9 1.117846e-001
<MEAN> 39
 -2.201938e+000 2.667824e-001 1.735763e+000 -1.825741e+000 -1.267143e+000 -4.962159e-002 6.998344e-002 -1.295718e-001 1.140969e+000 -6.198116e-001 -3.384151e-002 -6.989542e-001 1.289108e+000 -9.241545e-001 1.454387e-001 3.157857e-001 -4.302817e-002 9.507130e-002 2.067186e-001 2.437397e-001 -3.214395e-001 -1.320844e-001 2.432121e-001 6.198478e-001 2.773144e-001 1.283043e-002 9.869926e-001 2.078195e-001 7.418887e-003 4.876325e-001 5.818422e-001 -3.560370e-001 2.784396e-002 1.127644e-001 -3.186628e-001 2.026386e-001 -6.111114e-002 2.038485e-001 -1.114423e-002
<VARIANCE> 39
 8.789632e-001 7.378248e-001 7.120036e-001 3.137299e-001 1.497189e+000 1.241353e+000 1.701363e+000 1.159533e+000 1.276544e+000 1.462686e+000 1.445494e+000 9.782752e-001 1.985302e-001 1.094807e+000 5.709592e-001 7.209634e-001 1.087773e+000 1.415195e+000 1.128885e+000 9.850641e-001 1.421339e+000 1.175985e+000 8.379841e-001 8.096952e-001 9.600551e-001 1.928139e-001 1.205656e+000 7.981805e-001 8.960198e-001 1.118674e+000 1.408707e+000 1.185383e+000 1.287118e+000 1.372041e+000 1.119155e+000 9.190029e-001 1.097470e+000 9.473485e-001 3.023424e-001
<GCONST> 6.849445e+001
<MIXTURE> 10 3.812373e-003
<MEAN> 39
 -5.909264e-001 -1.647128e+000 2.649506e+000 -2.713962e+000 1.018930e+000 1.404156e-001 -7.918691e-001 1.348341e+000 -2.502282e+000 5.580497e-001 -5.387236e-001 -6.119547e-001 2.061363e+000 -3.555663e+000 1.257844e+000 7.663244e-001 -2.414086e+000 1.025254e+000 -7.910893e-001 -2.882552e+000 3.965163e-001 -1.009034e+000 -1.163642e-001 1.526195e+000 5.535914e-001 -1.865510e+000 3.343194e-001 -6.185474e-001 -2.916648e+000 -1.836403e-003 -1.765073e+000 -8.736982e-001 -3.240944e-001 8.356932e-002 -1.722938e+000 -3.008759e+000 -3.320858e-001 -1.411716e+000 1.557612e+000
<VARIANCE> 39
 1.049675e+000 6.231336e-002 9.999958e-003 3.541874e-001 2.480464e-001 5.784560e-001 7.718328e-001 1.435833e-001 1.629502e-001 2.197987e-001 1.856773e-001 6.647069e-001 3.332414e-002 5.404066e-001 1.247064e-002 1.605642e+000 9.208797e-002 1.643778e+000 2.285199e+000 6.554734e-001 1.861966e-001 3.347082e+000 3.609335e+000 7.391778e-001 2.786747e+000 5.800340e-001 2.138454e+000 2.518021e-001 1.917744e+000 2.111505e+000 4.048070e-001 4.164125e-001 5.828708e+000 3.995205e-001 3.145124e+000 1.115568e+000 2.060638e-001 1.018483e+000 3.287304e+000
<GCONST> 4.604950e+001
<MIXTURE> 11 2.704754e-002
<MEAN> 39
 -1.066543e+000 6.911322e-001 1.981252e-002 -1.845274e+000 -9.617928e-001 -9.841645e-001 2.405095e-002 -1.020467e+000 -9.719470e-001 -7.310876e-002 -5.174208e-001 -1.006402e+000 6.828948e-001 -3.286560e+000 8.587750e-001 -1.188037e+000 8.760667e-001 2.076730e+000 8.722803e-001 1.138929e+000 1.169749e+000 1.182581e+000 1.474860e+000 1.245966e+000 6.121327e-001 -6.996835e-001 8.282012e-001 -1.285979e+000 2.537859e-001 -2.778570e-001 -6.124209e-001 1.911581e-001 -8.530424e-002 1.296543e-001 5.500650e-001 -6.867493e-001 -3.147636e-001 -9.705441e-002 1.372337e+000
<VARIANCE> 39
 8.237813e-001 3.080050e-001 1.906232e+000 7.006191e-001 1.214032e+000 4.895110e-001 1.610906e+000 5.943789e-001 8.052292e-001 9.227058e-001 1.085303e+000 6.574448e-001 2.108238e-001 8.788508e-001 1.501281e+000 1.252110e+000 2.246817e+000 1.489668e+000 1.381389e+000 1.798961e+000 8.125830e-001 2.354818e+000 2.741069e+000 1.532120e+000 9.690228e-001 1.017284e+000 2.146569e+000 1.405405e+000 2.686484e+000 8.674243e-001 2.147672e+000 1.595335e+000 3.038298e+000 1.072843e+000 2.642007e+000 2.015767e+000 1.457114e+000 6.126947e-001 7.245362e-001
<GCONST> 7.813000e+001
<MIXTURE> 12 2.859277e-003
<MEAN> 39
 9.918159e-001 7.929318e-001 2.621596e+000 -5.339557e-001 7.141451e-001 -1.887081e+000 -5.384780e-001 4.277195e-001 1.706959e-001 -1.355051e+000 -1.309503e+000 -1.656649e+000 1.725358e+000 -5.534770e+000 -2.506447e-001 -5.032960e-002 -3.794391e+000 -6.068091e-001 -8.249322e-001 7.211922e-001 6.796547e-001 -2.126779e+000 3.167097e-002 -6.648778e-001 -7.136146e-001 -1.499980e+000 2.124752e-001 -8.305591e-001 -2.734176e-001 -5.188364e-001 -2.342483e+000 2.095119e-001 5.456648e-001 1.349921e+000 6.850315e-001 8.889073e-001 1.789496e+000 1.160302e+000 1.622459e+000
<VARIANCE> 39
 9.826794e-001 7.243102e-002 3.609438e-001 1.014966e+000 9.170023e-001 3.151770e-001 3.970246e+000 1.474068e-001 1.084086e+000 3.373119e-001 4.629260e-001 3.106851e-002 1.556367e-002 1.125768e-001 6.335513e-001 4.839054e-001 7.821226e-001 4.800724e-001 2.190906e+000 9.262369e-001 4.484179e-001 2.486584e+000 5.588741e-001 1.630784e+000 1.354385e+000 2.246906e-001 3.087638e+000 1.180590e+000 2.097129e+000 2.126531e+000 1.348838e+000 2.935317e-001 1.140071e+000 1.346022e-001 9.629709e-001 1.728181e-002 1.902740e-001 4.519123e-001 1.045489e+000
<GCONST> 4.551375e+001
<MIXTURE> 13 7.614481e-003
<MEAN> 39
 1.578521e-001 -8.854830e-001 -3.369131e-001 -1.975262e+000 -1.601856e+000 2.011713e-002 4.142015e-001 -1.481393e+000 -1.146082e+000 -2.874147e+000 -2.092421e+000 -1.789029e+000 1.259657e+000 7.690434e-001 1.437881e+000 5.260583e-001 -4.899038e-002 -7.204093e-001 -1.319427e+000 -6.956763e-001 -3.440955e-001 5.429145e-001 9.433261e-001 2.952916e-002 3.245626e-001 -8.956534e-001 -6.415242e-001 1.293469e+000 1.895863e-001 4.615454e-001 1.878177e+000 -3.711166e-001 -1.025092e+000 -2.589694e-001 8.752122e-001 2.717471e+000 2.696325e+000 5.656030e-001 6.689646e-001
<VARIANCE> 39
 9.889867e-001 8.134676e-001 1.814182e+000 1.233493e+000 6.729090e-001 4.472317e-001 9.525705e-001 1.008659e+000 9.594919e-001 4.504017e-001 1.871173e+000 4.998708e-001 6.514462e-001 3.009022e-001 3.082520e+000 8.586830e-001 1.807268e+000 4.636415e+000 8.952377e-001 8.458744e-001 8.435602e-001 3.663396e-001 3.948888e+000 1.474615e+000 8.003260e-001 1.997126e-001 7.351977e-001 7.192380e-001 9.410586e-001 1.746333e+000 5.269349e-001 1.433648e+000 1.353485e+000 9.367384e-001 1.962117e-001 1.179154e+000 1.330433e-001 1.452949e+000 6.045130e-001
<GCONST> 6.626991e+001
<MIXTURE> 14 5.718388e-003
<MEAN> 39
 9.408016e-001 1.589662e-001 -8.998782e-002 -6.259402e-001 -2.074281e+000 -9.887659e-001 -1.365713e+000 -1.918608e+000 4.001185e-001 -1.973788e+000 -1.018306e+000 -5.575340e-001 1.273206e+000 -1.991270e+000 2.605991e+000 7.996731e-001 -1.401245e-001 3.738184e+000 -1.331612e+000 1.457303e+000 5.956522e-001 -5.983247e-001 1.298573e+000 -2.067714e-001 1.132120e+000 -1.666191e+000 -2.263411e+000 -7.058437e-001 4.380478e-001 -1.630737e+000 1.058691e+000 2.004675e-001 6.870074e-001 1.669123e+000 -2.093604e-001 1.386798e+000 -9.815805e-002 -4.160396e-001 2.235912e-001
<VARIANCE> 39
 1.450749e-001 2.247114e-001 1.347171e+000 6.492753e-002 1.168932e+000 3.093949e-001 8.028499e-001 6.033452e-001 1.477130e+000 5.806056e-001 4.699436e-001 1.202220e+000 2.365046e-001 1.519136e+000 4.414620e-001 1.999115e+000 8.449405e-001 4.856775e-001 9.340824e-001 2.339400e-001 2.311625e+000 2.567601e+000 2.345502e+000 3.962155e-001 1.708301e+000 4.807661e-002 8.222222e-001 7.727551e-001 2.393471e+000 1.325171e+000 1.799599e+000 1.068929e+000 1.442714e+000 1.506456e+000 1.076895e+000 5.260066e-001 4.229939e-001 1.640370e+000 4.307953e-001
<GCONST> 5.935412e+001
<MIXTURE> 15 5.720052e-003
<MEAN> 39
 7.278610e-001 -3.257981e-001 1.779528e+000 5.371940e-002 2.983594e-002 -8.274038e-001 1.429667e+000 4.591881e-001 2.183132e+000 -1.609754e+000 1.897984e-001 -1.164744e+000 1.494862e+000 -3.078578e+000 2.028928e-001 5.948164e-001 -1.572177e+000 -8.178555e-001 1.357816e+000 -1.385656e+000 -3.255573e-001 8.867841e-001 -1.084526e+000 -8.726333e-001 -3.586394e-001 -1.010183e+000 -2.175463e+000 -1.035708e+000 -1.025064e+000 -2.158596e+000 -1.379324e+000 -7.755008e-001 -4.334911e-001 -6.867448e-001 -8.771828e-001 8.914607e-001 -3.004581e-001 4.600600e-001 7.496172e-002
<VARIANCE> 39
 1.027843e+000 2.264806e-001 1.866485e-001 9.490885e-001 2.484024e+000 7.566575e-001 4.547091e-001 7.052867e-001 1.356545e+000 7.581536e-001 3.409734e+000 4.959323e-001 6.879192e-002 2.890418e-001 2.118214e-001 1.259357e+000 9.742436e-001 8.418496e+000 1.506415e+000 8.770740e-001 1.452101e+000 6.937387e+000 1.763517e+000 2.194800e+000 1.568347e+000 4.753064e-001 1.176390e+000 3.526957e-001 6.439806e-001 1.786677e+000 3.876795e+000 7.598268e-001 1.774309e+000 1.334952e+000 2.242421e+000 1.181478e+000 2.833603e+000 1.582153e+000 1.808939e-001
<GCONST> 7.101722e+001
<MIXTURE> 16 8.659236e-003
<MEAN> 39
 -1.449075e-002 5.733333e-001 1.049787e+000 -2.382638e+000 -1.829172e+000 -2.580392e-001 -1.315037e+000 -8.577611e-001 -2.406978e+000 -1.283173e+000 -1.900091e+000 -1.815927e+000 1.182827e+000 -1.331854e+000 9.931462e-001 7.557305e-001 2.000969e-001 2.318843e+000 5.265298e-001 -1.148954e+000 3.608014e-001 -7.712339e-001 8.152137e-001 4.343793e-001 6.095036e-001 -1.319694e+000 -1.303696e+000 -1.572668e+000 -1.830125e+000 1.112663e+000 1.488984e+000 9.234907e-001 1.701793e+000 7.105632e-001 2.016753e+000 1.197860e+000 1.881944e+000 5.143099e-001 -1.179334e+000
<VARIANCE> 39
 6.174721e-001 3.023827e-001 1.935168e+000 2.671005e+000 1.693275e+000 1.871798e+000 1.108903e+000 1.399313e+000 6.596741e-001 9.524931e-001 7.557490e-001 8.874243e-002 1.474744e-001 6.568784e-001 1.682891e+000 1.408294e+000 8.707513e-001 1.608561e+000 7.165593e-001 1.107077e+000 7.373030e-001 7.307776e-001 3.105094e+000 1.981497e+000 8.189129e-001 4.576392e-001 4.039214e-001 1.109711e+000 2.552922e+000 2.431271e+000 2.396469e+000 9.491718e-001 9.057397e-001 3.333332e+000 5.483009e-001 2.653254e+000 1.752272e+000 5.906433e-001 1.372559e+000
<GCONST> 7.259470e+001
<STATE> 6
<NUMMIXES> 16
<MIXTURE> 5 1.000000e+000
<MEAN> 39
 -1.015305e+000 4.854957e-001 -3.357796e-002 -5.710836e-001 4.437276e-001 -1.068018e+000 4.104694e-001 3.966137e-001 5.054996e-001 3.030392e-001 4.886347e-001 3.382768e-001 3.797066e-001 6.965835e-001 -4.749458e-001 1.181780e-001 4.199174e-001 -9.479211e-002 -2.319355e-002 -1.748610e-001 9.390390e-002 4.267402e-002 7.188232e-002 5.766002e-002 3.745594e-003 -9.158551e-001 8.761095e-001 -1.157951e-001 8.276816e-002 3.192210e-001 -1.287055e-001 7.677525e-001 -1.688630e-001 -9.740385e-002 -9.673435e-002 -2.882392e-001 -1.386508e-001 -1.317492e-002 -1.084067e+000
<VARIANCE> 39
 5.538637e-001 7.899206e-001 1.225595e+000 1.369045e+000 1.214217e+000 1.657610e+000 1.857274e+000 1.825104e+000 9.817427e-001 9.581077e-001 1.098924e+000 1.628247e+000 2.056014e-001 2.223773e+000 1.709381e+000 2.368837e+000 2.226371e+000 2.332513e+000 2.376594e+000 2.446007e+000 2.530981e+000 1.864242e+000 1.753859e+000 1.896415e+000 2.073305e+000 2.721121e+000 2.762800e+000 2.399480e+000 2.528493e+000 2.260998e+000 2.194208e+000 2.379734e+000 2.558176e+000 2.740092e+000 2.034156e+000 1.447737e+000 1.767931e+000 2.241694e+000 2.302374e+000
<GCONST> 9.284178e+001
<STATE> 7
<NUMMIXES> 16
<MIXTURE> 11 1.000000e+000
<MEAN> 39
 -5.817919e-001 3.601632e-002 8.846108e-002 -3.674526e-001 3.515396e-001 -8.118435e-001 -2.864054e-001 3.317162e-001 1.021883e-001 1.587518e-001 2.031580e-001 1.834070e-001 -6.602649e-002 2.190038e+000 -2.883409e-002 -1.464578e-001 1.317691e+000 -6.146351e-001 1.321489e+000 6.721497e-002 -1.714323e-001 1.254415e-001 -7.762432e-002 3.191761e-003 1.917201e-001 -2.749727e+000 2.041227e-001 5.690706e-001 -8.699325e-002 -1.976548e-001 9.182110e-002 7.562498e-001 4.811867e-001 8.910621e-003 3.650106e-001 1.202811e-001 9.086913e-002 1.038141e-002 3.358687e-001
<VARIANCE> 39
 5.299544e-001 5.421183e-001 1.572146e+000 1.020691e+000 1.453326e+000 1.765647e+000 2.478108e+000 1.186054e+000 9.782484e-001 2.096615e+000 9.290216e-001 1.375801e+000 2.331230e-001 4.129228e+000 3.951327e+000 2.943564e+000 3.421737e+000 4.534135e+000 3.754008e+000 2.159883e+000 3.413309e+000 2.130782e+000 1.747772e+000 3.127378e+000 1.772729e+000 3.249021e+000 1.760806e+000 2.053640e+000 1.848962e+000 1.658863e+000 1.826917e+000 2.197664e+000 2.326930e+000 1.050127e+000 1.863316e+000 2.698072e+000 1.223593e+000 1.539153e+000 1.828890e+000
<GCONST> 9.411221e+001
<TRANSP> 8
 0.000000e+000 1.000000e+000 0.000000e+000 0.000000e+000 0.000000e+000 0.000000e+000 0.000000e+000 0.000000e+000
 0.000000e+000 9.218706e-001 7.812940e-002 0.000000e+000 0.000000e+000 0.000000e+000 0.000000e+000 0.000000e+000
 0.000000e+000 0.000000e+000 9.252445e-001 7.475556e-002 0.000000e+000 0.000000e+000 0.000000e+000 0.000000e+000
 0.000000e+000 0.000000e+000 0.000000e+000 9.120675e-001 8.793249e-002 0.000000e+000 0.000000e+000 0.000000e+000
 0.000000e+000 0.000000e+000 0.000000e+000 0.000000e+000 9.580646e-001 4.193541e-002 0.000000e+000 0.000000e+000
 0.000000e+000 0.000000e+000 0.000000e+000 0.000000e+000 0.000000e+000 7.857152e-001 2.142848e-001 0.000000e+000
 0.000000e+000 0.000000e+000 0.000000e+000 0.000000e+000 0.000000e+000 0.000000e+000 0.000000e+000 1.000000e+000
 0.000000e+000 0.000000e+000 0.000000e+000 0.000000e+000 0.000000e+000 0.000000e+000 0.000000e+000 0.000000e+000
<ENDHMM>
~h "one"
<BEGINHMM>
<NUMSTATES> 8
<STATE> 2
<NUMMIXES> 15
<MIXTURE> 1 8.257201e-002
<MEAN> 39
 2.151727e-001 3.239176e-001 3.220486e+000 -2.444842e+000 -1.580873e+000 -1.812866e+000 -1.171749e+000 -8.837983e-001 -1.410732e+000 1.158736e+000 -1.456663e+000 -7.219796e-001 2.381565e+000 -2.995751e-001 -1.410269e+000 1.060312e-001 -6.366780e-001 -1.681272e+000 -1.017281e+000 1.022012e-001 2.417724e-001 6.194251e-003 1.934821e+000 7.238289e-001 5.476097e-001 8.768657e-001 5.679525e-001 -1.329758e-001 -1.880897e+000 9.131107e-001 3.815378e-001 7.093331e-001 -3.848631e-001 -6.201383e-002 2.450348e-001 -8.751285e-001 5.013817e-001 5.492007e-001 -3.357920e-001
<VARIANCE> 39
 7.359985e-001 1.770574e+000 5.100285e-001 6.271685e-001 1.189723e+000 2.012114e+000 1.277748e+000 1.806197e+000 1.585397e+000 2.879797e+000 2.697366e+000 2.913840e+000 4.801141e-001 4.681301e-001 1.409348e+000 1.658842e+000 7.761434e-001 2.230534e+000 1.299105e+000 2.601235e+000 2.370164e+000 9.018977e-001 1.033673e+000 1.747927e+000 1.953154e+000 1.821768e-001 4.317150e-001 1.858196e+000 1.563091e+000 9.720328e-001 2.579057e+000 2.691180e+000 2.212212e+000 2.137918e+000 1.310678e+000 1.743635e+000 1.700521e+000 2.712151e+000 2.256190e-001
<GCONST> 8.208805e+001
<MIXTURE> 2 4.109342e-002
<MEAN> 39
 -3.024220e-001 1.092635e+000 -9.585845e-001 4.154817e-001 6.173875e-001 1.064452e-001 1.082697e+000 -1.077779e+000 1.464888e+000 -1.374857e+000 -3.862770e-001 -1.540037e+000 9.646130e-001 4.546047e-001 1.226734e+000 1.676518e+000 3.575298e-002 2.713624e-001 1.886627e-001 -4.899584e-001 -3.724470e-001 6.782084e-002 -5.044035e-001 -3.782036e-001 -7.543702e-001 1.929236e+000 4.065800e-001 8.119188e-004 5.684064e-001 -1.066562e+000 -1.138778e+000 -5.473987e-001 -1.834685e+000 -3.091846e-001 -1.465810e+000 5.068195e-001 -1.502951e-001 3.945586e-001 -4.237752e-001
<VARIANCE> 39
 4.439101e-001 4.359709e-001 4.087080e+000 6.662359e-001 2.795237e-001 3.597486e+000 1.272296e+000 1.563007e+000 2.642709e+000 1.567938e+000 1.133017e+000 1.775274e+000 2.449796e-001 8.814875e-001 1.074372e+000 1.562680e+000 1.962480e+000 2.313174e+000 2.560500e+000 3.883944e+000 1.629515e+000 3.943821e+000 1.592231e+000 1.288234e+000 2.573019e+000 3.504485e+000 1.084043e+000 1.526220e+000 2.414224e+000 1.735848e+000 7.804052e-001 3.718180e+000 2.315085e+000 1.429695e+000 1.537181e+000 9.655688e-001 2.038443e+000 2.358091e+000 2.858737e+000
<GCONST> 8.863717e+001
<MIXTURE> 3 7.227551e-002
<MEAN> 39
 7.952383e-001 3.690398e-001 2.844785e+000 -3.221653e-001 -2.006870e+000 -8.362657e-001 -5.872396e-001 -1.572280e+000 -1.004629e+000 -2.551495e+000 7.883660e-001 7.413404e-002 2.507631e+000 -1.082291e-001 -6.450760e-001 -6.556507e-001 2.457440e-001 -2.177942e-001 -6.267301e-001 1.905616e-001 -1.415748e-001 1.154839e-001 2.561473e-001 1.539517e-001 -3.244548e-001 5.115073e-001 6.699123e-002 2.652403e-002 -9.520792e-001 4.505818e-003 7.345608e-001 1.246662e-001 -1.803869e-002 1.305599e-001 -6.261579e-002 5.956907e-001 -1.428659e-001 -3.382991e-002 -6.798103e-001
<VARIANCE> 39
 4.714034e-001 2.040614e+000 2.842585e-001 1.502471e+000 9.077498e-001 9.139591e-001 1.414555e+000 1.453019e+000 5.007851e-001 2.732101e-001 6.236660e-001 3.100439e+000 9.214482e-002 4.854873e-001 8.810781e-001 1.218661e+000 8.472873e-001 1.352722e+000 4.915209e-001 1.001106e+000 1.130194e+000 2.882060e-001 9.695448e-001 4.955513e-001 5.107957e-001 1.190873e-001 7.181222e-001 3.691544e-001 8.600175e-001 1.541939e+000 1.529379e+000 7.276882e-001 1.002652e+000 1.682846e+000 5.458302e-001 1.104779e+000 4.926676e-001 7.869746e-001 5.716821e-001
<GCONST> 5.930092e+001
<MIXTURE> 4 8.140583e-002
<MEAN> 39
 -7.478786e-001 1.093642e+000 4.160293e-001 2.012399e-001 6.546686e-001 2.847928e-001 -5.002281e-001 -6.169568e-001 -7.342086e-001 -1.101243e+000 -6.586674e-001 -6.464895e-001 6.542937e-001 6.429188e-001 2.967548e+000 3.063692e+000 -1.425192e+000 -1.139453e+000 -2.076008e+000 -2.609544e+000 -2.283271e+000 -3.140911e+000 -2.081359e+000 -1.332268e+000 -1.794168e+000 4.152750e+000 2.066007e+000 -6.111771e-002 6.339157e-001 -9.482225e-001 -1.033310e+000 -3.389792e-001 -3.216540e-001 2.468045e-001 2.121763e-001 5.292342e-001 2.669877e-001 3.964035e-001 -1.355268e+000
<VARIANCE> 39
 9.716677e-001 1.225780e+000 1.179239e+000 3.521997e-001 8.020234e-001 9.670385e-001 1.514912e+000 1.170163e+000 1.375241e+000 2.729347e+000 1.443706e+000 2.757473e+000 2.816185e-001 4.512473e+000 1.446928e+000 2.155493e+000 2.564494e+000 3.336699e+000 2.636252e+000 3.870815e+000 4.187421e+000 2.798126e+000 3.364531e+000 6.395663e+000 2.797662e+000 1.877954e+000 2.365498e+000 3.147879e+000 4.152888e+000 1.731012e+000 2.345838e+000 2.811468e+000 3.758455e+000 2.865678e+000 3.539123e+000 3.048402e+000 2.510704e+000 3.648783e+000 4.382585e+000
<GCONST> 1.013460e+002
<MIXTURE> 5 1.096924e-001
<MEAN> 39
 1.006122e+000 2.297827e+000 1.317743e+000 -4.067630e-001 -1.187656e-001 -2.398952e-001 -1.731579e+000 -1.118684e+000 -1.217618e+000 -1.448956e+000 2.914215e-002 -5.470362e-001 1.138983e+000 1.223534e+000 1.799544e+000 2.485254e+000 -1.898514e+000 -1.444969e+000 -5.164418e-001 -1.852476e+000 -6.592450e-001 -6.412843e-001 -1.109542e+000 3.917819e-001 -2.582359e-001 2.673649e+000 -1.417576e+000 -2.043083e+000 -9.060390e-001 2.267115e-001 -2.337615e-001 5.850025e-001 1.130343e+000 5.670159e-001 1.058312e+000 1.018314e+000 -5.269029e-002 8.550221e-002 -2.382396e+000
<VARIANCE> 39
 1.452965e+000 4.980513e-001 6.809448e-001 1.371344e+000 8.405305e-001 1.890837e+000 1.037500e+000 1.217878e+000 1.042691e+000 9.944903e-001 1.660241e+000 1.320123e+000 2.401928e-001 1.648093e+000 1.105859e+000 1.967191e+000 2.842096e+000 2.606119e+000 1.462249e+000 2.023287e+000 1.688866e+000 1.357915e+000 1.571400e+000 2.547987e+000 2.621727e+000 1.957301e+000 2.670394e+000 1.544155e+000 1.669034e+000 2.834490e+000 2.661204e+000 2.130859e+000 2.180078e+000 1.517103e+000 2.760282e+000 1.601008e+000 2.477426e+000 1.428653e+000 1.253803e+000
<GCONST> 8.847216e+001
<MIXTURE> 6 4.544660e-002
<MEAN> 39
 -4.619777e-001 3.283918e+000 1.915655e+000 -1.403872e+000 8.001037e-001 -2.195376e+000 -2.856413e+000 -2.530671e+000 -1.339402e+000 -3.005904e+000 -1.512124e+000 -1.893852e+000 1.736417e+000 -9.458765e-001 3.798199e-001 2.198466e+000 -1.809523e+000 4.438398e-001 -4.996739e-001 -4.818361e-001 9.314986e-002 3.812859e-001 -3.795720e-001 -8.032761e-001 -1.169066e+000 1.067163e+000 -9.212036e-002 -2.877181e+000 -1.695242e+000 2.086383e+000 1.770452e-001 2.283850e+000 2.253982e+000 1.961869e+000 1.005330e+000 2.249586e+000 1.325350e+000 1.959555e+000 -2.001211e+000
<VARIANCE> 39
 1.334274e+000 4.393210e-001 1.064799e+000 1.143530e+000 3.869160e+000 4.639836e-001 1.053556e+000 8.782175e-001 1.523693e+000 2.504596e-001 2.321547e+000 7.864674e-001 5.885479e-002 1.234640e+000 1.833280e+000 2.692008e+000 1.695925e+000 5.836402e+000 3.805979e+000 4.723282e+000 1.904191e+000 1.939296e+000 2.634533e+000 3.774721e+000 3.489409e+000 7.616635e-001 1.787284e+000 1.152076e+000 1.686044e+000 4.822930e+000 6.612023e+000 4.131026e+000 3.340904e+000 3.684941e+000 2.740935e+000 8.184784e-001 1.817566e+000 2.165774e+000 1.430656e+000
<GCONST> 9.139526e+001
<MIXTURE> 7 9.999127e-003
<MEAN> 39
 -7.993020e-001 3.208309e+000 1.239286e+000 -8.699619e-001 -5.362842e-001 -2.158901e+000 -3.338564e+000 -3.091121e+000 -1.818441e+000 -1.750144e+000 8.548400e-001 -5.596157e-002 1.682315e+000 -1.372355e+000 2.834906e+000 3.299653e+000 -4.714537e+000 1.268562e+000 -4.915577e+000 -4.028285e+000 -3.958403e+000 -1.557658e+000 -4.154731e+000 -2.136812e+000 -3.582169e+000 2.909136e+000 8.383286e-001 -2.222889e+000 6.702505e-001 5.321307e-001 2.499763e+000 3.217184e+000 2.808585e+000 3.685970e+000 2.261627e+000 1.222420e+000 -2.007534e+000 -1.248472e+000 -3.370451e+000
<VARIANCE> 39
 3.905577e-001 4.414982e-001 5.508681e-001 3.072702e-001 1.352415e+000 1.515978e-001 3.595631e+000 6.711518e-001 1.871420e-001 5.163341e-001 4.975368e+000 8.262117e-001 1.334634e-001 5.307324e+000 5.561001e-001 2.556266e-001 2.318189e-001 5.853452e+000 7.477737e-001 2.221478e+000 3.613658e+000 5.679294e-001 1.201893e+000 1.293863e+000 3.364315e-001 2.408037e+000 7.988313e-001 1.337021e+000 9.248145e-001 2.356425e+000 2.133784e+000 1.237026e+000 5.172747e+000 2.341280e+000 3.961179e-001 3.292010e+000 8.857373e+000 2.537795e+000 1.213820e+000
<GCONST> 7.386450e+001
<MIXTURE> 8 1.749829e-002
<MEAN> 39
 -4.558199e-001 1.740737e+000 3.484845e+000 -1.580056e+000 -1.492403e+000 -1.354217e+000 -2.985764e+000 -3.687327e+000 5.571178e-002 -7.749035e-001 -2.952074e+000 1.912077e+000 1.478131e+000 -4.126324e-001 -1.080226e+000 2.276174e+000 -3.141818e+000 -1.823172e+000 -1.702746e+000 2.182848e-001 -1.208568e+000 -1.178534e-001 1.609237e+000 -1.817893e+000 2.002009e+000 1.717091e+000 -1.373336e-001 -2.586687e+000 -3.972210e+000 1.438203e+000 2.011345e+000 1.371890e+000 2.211209e+000 3.770945e+000 -1.272418e+000 3.164177e+000 2.597702e+000 -1.158181e+000 -2.172148e+000
<VARIANCE> 39
 1.071153e-001 1.309613e+000 1.705681e-001 5.364832e-001 2.931173e-001 1.051432e+000 1.121239e+000 7.214165e-001 1.640685e+000 1.566250e+000 3.779199e-001 2.005334e+000 8.751545e-002 4.227369e-001 4.580589e+000 3.665350e+000 1.896275e+000 3.886827e+000 5.709067e+000 2.167037e+000 5.855599e+000 4.056540e+000 5.986418e+000 4.106438e+000 1.725877e+000 9.374131e-001 8.685820e-001 4.615424e+000 4.982011e-001 1.615546e+000 2.690133e+000 3.049024e+000 2.848937e+000 1.461284e+000 1.197319e+000 1.776758e+000 1.216803e+000 1.246458e+000 9.134201e-001
<GCONST> 8.326971e+001
<MIXTURE> 9 1.027107e-001
<MEAN> 39
 -8.349940e-001 2.489250e+000 1.354838e+000 -1.024867e+000 1.077326e-001 -9.272103e-001 -1.994104e+000 -1.822635e+000 -2.064157e+000 -2.645103e+000 -1.817340e+000 -1.431418e+000 1.505509e+000 -5.907153e-001 -2.405097e-001 9.180378e-001 -8.203901e-001 -8.015221e-001 -5.897790e-001 2.142754e-001 -5.232815e-001 2.759147e-001 4.690264e-001 2.772181e-001 1.858077e-001 3.102385e-001 1.362420e-001 -9.785462e-001 8.792069e-002 -1.141981e-001 -1.214470e+000 -6.225845e-001 4.603870e-001 2.057204e-003 8.832800e-001 8.032315e-001 5.283977e-001 -1.816759e-001 -7.335196e-002
<VARIANCE> 39
 7.391755e-002 5.908406e-001 1.005237e+000 4.664987e-001 4.664062e-001 7.171904e-001 1.153443e+000 9.162231e-001 1.723046e+000 6.556978e-001 1.800493e+000 1.448394e+000 9.489129e-002 3.721111e-001 2.024056e+000 2.569312e+000 3.926293e+000 2.857579e+000 2.558444e+000 2.167537e+000 9.566739e-001 4.119272e+000 1.940740e+000 2.337756e+000 1.660034e+000 7.423002e-002 7.080778e-001 1.857940e+000 2.065711e+000 3.356290e+000 1.848711e+000 2.859674e+000 2.848981e+000 1.916517e+000 3.147722e+000 2.166202e+000 2.527849e+000 2.520769e+000 2.378684e-001
<GCONST> 7.896412e+001
<MIXTURE> 10 9.752941e-002
<MEAN> 39
 2.365637e-001 2.325309e+000 2.348561e+000 1.422398e-002 -4.176201e-001 -7.665815e-001 -9.136561e-001 -1.551604e+000 -4.709027e-001 -1.216081e+000 -7.880350e-001 -1.107715e+000 1.226702e+000 -2.165776e-001 -4.301296e-001 1.432193e-001 -5.887209e-001 -1.056597e+000 -6.529764e-001 7.251963e-002 -4.317770e-001 -2.134909e-001 1.292173e-001 7.619843e-002 -1.006008e-002 8.399222e-001 3.985251e-001 -1.000622e+000 -8.789634e-001 -2.036999e-001 -4.248711e-001 1.554948e-002 -3.414125e-001 7.487808e-002 -8.247172e-002 6.454059e-001 9.298226e-001 2.385732e-001 6.639298e-002
<VARIANCE> 39
 1.832055e+000 3.727818e-001 6.453921e-001 1.405383e+000 7.811366e-001 4.225726e-001 1.082310e+000 1.029734e+000 1.204126e+000 2.051778e+000 7.993563e-001 7.121836e-001 1.059303e-001 6.191147e-001 6.907050e-001 1.398912e+000 1.140900e+000 1.615142e+000 5.888811e-001 4.019400e-001 1.255104e+000 1.328018e+000 2.028551e+000 1.878247e+000 1.703008e+000 1.806578e-001 4.360007e-001 5.685233e-001 7.075270e-001 1.325940e+000 1.795172e+000 7.275323e-001 4.383829e-001 2.474805e+000 1.436306e+000 2.127858e+000 7.685418e-001 1.027653e+000 6.082805e-001
<GCONST> 6.689458e+001
<MIXTURE> 11 3.497785e-002
<MEAN> 39
 2.885734e-001 -8.431485e-001 2.813436e+000 -2.356826e+000 -1.929126e+000 -2.913899e+000 -3.478341e+000 -6.156563e-001 -3.372639e+000 1.353141e+000 -1.823863e+000 -4.346171e-001 2.338756e+000 1.663857e-001 -1.905243e+000 2.045163e-001 -9.122334e-001 -3.979284e-001 7.755234e-002 -4.401264e-001 1.659912e-001 -1.044654e+000 2.271642e-001 -9.087791e-001 -2.574613e-001 1.801623e+000 3.087388e-001 1.265797e-001 -1.119335e+000 9.497681e-001 6.476998e-002 9.744558e-001 1.158961e+000 9.049389e-002 1.769899e+000 -1.665452e+000 1.994058e-001 -2.547107e-001 -5.447089e-001
<VARIANCE> 39
 9.919993e-001 3.177969e-001 2.673830e-001 1.988141e-001 2.673324e-001 1.603426e+000 4.764651e-001 1.115201e+000 6.994335e-001 3.760074e+000 1.652107e+000 4.505198e+000 3.047856e-001 7.219815e-001 2.650385e+000 2.917132e+000 1.943641e+000 5.135194e-001 1.340751e+000 2.930496e+000 2.086198e+000 3.129750e+000 8.200409e+000 3.464870e+000 1.106991e+000 5.912539e-001 8.043618e-001 1.163058e+000 1.067856e+000 3.361713e+000 1.886926e+000 1.815935e+000 1.573051e+000 8.003855e-001 1.368407e+000 5.098288e+000 2.473634e+000 1.062779e+000 7.231590e-001
<GCONST> 8.103873e+001
<MIXTURE> 12 1.231333e-001
<MEAN> 39
 6.705533e-001 1.803138e+000 -6.075234e-002 -2.605572e-001 -4.469107e-001 -1.211975e+000 -1.310637e+000 -1.462996e+000 -1.236304e+000 -1.222769e+000 -9.330867e-001 -4.362662e-001 9.200687e-001 6.954331e-002 1.531612e-001 7.928941e-002 -1.380977e-001 -1.318902e-001 -5.340365e-002 3.476083e-002 4.539173e-002 2.502763e-001 3.989502e-002 -9.379884e-002 -4.222980e-002 2.534645e-001 -1.140547e-001 -1.104992e-001 6.236470e-002 -1.357869e-001 -2.703380e-001 3.588951e-002 1.385259e-001 1.239265e-001 -9.858868e-002 -6.315615e-002 1.492018e-002 1.699507e-001 7.435872e-002
<VARIANCE> 39
 4.607196e-001 3.563932e-001 1.769148e+000 1.389830e-001 2.067577e-001 1.815476e-001 5.599824e-001 2.876526e-001 3.968465e-001 1.125544e+000 2.283108e-001 2.492141e-001 3.589549e-002 3.739730e-001 7.279642e-001 1.148748e+000 3.807174e-001 1.199390e+000 5.609877e-001 6.365969e-001 9.844816e-001 4.240372e-001 7.337904e-001 5.433565e-001 6.361433e-001 1.606818e-001 6.133932e-001 8.217186e-001 1.034801e+000 5.117204e-001 1.201204e+000 6.671938e-001 5.931660e-001 1.210213e+000 6.793172e-001 8.606702e-001 7.270908e-001 5.352626e-001 3.019496e-001
<GCONST> 4.475841e+001
<MIXTURE> 13 7.792410e-002
<MEAN> 39
 1.156999e+000 1.494250e+000 2.952227e+000 -9.785769e-001 -1.407000e+000 -4.432656e-001 -1.264986e+000 -7.713476e-001 -1.173479e+000 -1.393372e+000 4.741211e-001 -9.015294e-001 2.018503e+000 7.447083e-001 -1.629695e+000 2.414108e+000 -1.020739e+000 -2.532144e+000 -1.040520e+000 -1.153799e+000 -4.582072e-002 -1.204052e+000 1.419568e-001 1.288863e-001 -6.502690e-001 2.309260e+000 -1.405620e+000 -1.845034e+000 -3.213947e+000 6.060912e-001 1.929300e+000 8.350797e-001 6.487507e-001 8.938232e-001 5.919714e-001 1.169631e+000 -3.332434e-001 8.953864e-001 -2.811924e+000
<VARIANCE> 39
 9.201813e-001 1.810393e+000 4.733685e-001 1.205430e+000 5.452937e-001 1.151438e+000 3.387859e+000 1.844641e+000 9.006569e-001 2.246286e+000 1.194870e+000 1.689748e+000 1.707787e-001 1.781229e+000 2.386134e+000 3.258968e+000 3.268717e+000 2.428289e+000 2.566457e+000 3.158742e+000 2.524377e+000 1.942499e+000 2.276864e+000 1.412434e+000 1.336444e+000 1.254456e+000 2.677167e+000 2.510680e+000 2.391163e+000 2.206925e+000 1.172064e+000 1.570171e+000 3.314556e+000 2.194394e+000 5.520506e-001 1.630013e+000 7.318698e-001 1.496094e+000 1.558299e+000
<GCONST> 8.929259e+001
<MIXTURE> 14 9.124587e-002
<MEAN> 39
 9.184679e-001 2.014120e+000 1.552050e+000 -5.675161e-001 -9.268435e-001 -3.957881e-001 -2.445481e+000 -1.739109e+000 -9.494092e-001 -5.587146e-001 -1.207705e-001 -3.527814e-001 1.523670e+000 -4.176228e-002 -1.031454e+000 2.872909e-001 -1.188156e+000 -9.070125e-001 2.625197e-001 1.046369e-001 5.738901e-001 -2.075424e-001 5.711217e-001 4.265947e-001 2.284213e-001 7.026550e-001 -1.133710e+000 -1.149620e+000 -6.992035e-001 4.314932e-001 6.429020e-001 4.141988e-002 1.857370e+000 1.190604e+000 -8.282997e-003 -1.813101e-002 -3.837321e-001 -1.115092e-001 -9.974102e-001
<VARIANCE> 39
 1.027225e+000 9.244789e-001 3.683879e-001 6.308686e-001 5.935841e-001 2.364409e+000 1.134887e+000 1.133616e+000 5.040150e-001 5.411612e-001 1.923493e+000 2.300147e+000 2.795340e-001 5.236505e-001 1.610909e+000 2.425696e+000 1.674119e+000 8.696248e-001 7.519623e-001 1.205193e+000 1.374546e+000 1.901614e+000 1.183104e+000 1.739801e+000 1.106319e+000 3.623315e-001 7.523547e-001 1.152324e+000 1.165064e+000 1.736423e+000 1.527408e+000 1.283127e+000 9.340867e-001 1.134570e+000 1.336462e+000 8.315352e-001 2.226812e+000 1.601994e+000 7.723125e-001
<GCONST> 7.384396e+001
<MIXTURE> 15 1.249560e-002
<MEAN> 39
 1.180498e+000 3.295211e-001 2.502361e+000 -1.087052e+000 2.136870e-001 -1.922861e+000 -2.411250e+000 -1.518813e+000 -3.309023e+000 -4.659020e-001 -3.617897e+000 -1.924662e+000 2.193066e+000 5.123146e-001 -3.738742e-001 4.178414e+000 -3.228228e+000 -1.356103e+000 -2.791138e+000 -2.424354e-001 3.627880e-001 -1.196080e+000 3.448247e+000 -3.415644e+000 -1.875093e+000 2.376407e+000 -2.093117e+000 -3.556795e-001 -3.279338e+000 1.139763e+000 -5.782007e-001 1.056545e+000 3.431460e+000 1.868119e+000 3.769818e+000 1.896389e+000 3.122577e+000 1.270736e+000 -3.763336e+000
<VARIANCE> 39
 9.528255e-001 9.694588e-001 6.206667e-001 2.956012e-001 3.234365e+000 1.222128e+000 4.348138e-001 1.207850e+000 8.639403e-001 2.434568e+000 1.032294e+000 1.489040e+000 1.642672e-001 6.733174e+000 1.441556e+000 2.191765e+000 1.603956e+000 5.955025e-001 3.947575e+000 4.525863e+000 6.655957e+000 6.250488e+000 4.228614e+000 4.528157e+000 1.313704e+000 1.819655e+000 3.266526e+000 2.214063e+000 1.333888e+000 1.883355e+000 5.299219e+000 9.783856e-001 3.597404e+000 2.019511e+000 6.178095e+000 2.179204e+000 1.676404e+000 1.948686e+000 1.387225e+000
<GCONST> 9.408570e+001
<STATE> 3
<NUMMIXES> 15
<MIXTURE> 1 8.143993e-002
<MEAN> 39
 -7.570381e-002 4.217973e-001 1.079057e+000 1.797919e-001 8.463424e-001 1.510491e+000 1.716246e+000 1.777688e+000 5.427399e-001 -3.166195e-003 -1.662982e+000 -2.036224e+000 1.241962e+000 -2.428195e-001 -2.275460e-001 -1.247681e-001 -1.032835e-001 1.970447e-001 -1.749068e-002 -1.196563e-001 1.609083e-001 -3.511133e-001 1.631435e-001 7.535909e-002 1.084999e-001 -1.730912e-001 -1.362446e-001 1.046965e-001 -7.223286e-002 -3.155673e-001 -1.610554e-001 4.959280e-002 -1.322706e-001 2.209057e-002 4.368644e-002 6.533973e-002 2.436979e-001 3.156024e-001 -1.105360e-001
<VARIANCE> 39
 7.234658e-002 2.417673e-001 5.652772e-001 2.543158e+000 7.104490e-001 1.906358e-001 2.743008e-001 1.017288e+000 2.296442e+000 5.192346e-001 6.187801e-001 6.525782e-001 3.584769e-002 5.613515e-001 8.582504e-001 1.202394e+000 2.868638e+000 1.230406e+000 5.216243e-001 2.067788e+000 1.439409e+000 1.659564e+000 1.219438e+000 1.765678e+000 2.409762e+000 2.314431e-001 2.449308e-001 2.128572e+000 1.626697e+000 2.210222e+000 1.514964e+000 6.840285e-001 2.554284e+000 1.072006e+000 1.965379e+000 1.524515e+000 1.999112e+000 2.579194e+000 1.285607e-001
<GCONST> 6.486129e+001
<MIXTURE> 2 5.960005e-002
<MEAN> 39
 1.667246e+000 3.231255e-001 2.187087e+000 -3.709795e-001 -2.836423e+000 -1.198122e+000 -1.030150e+000 6.562063e-001 -1.520630e+000 -7.991090e-001 2.009316e+000 -9.635122e-001 2.386053e+000 2.342402e-001 -9.227507e-001 -6.865382e-001 -2.537226e-002 -8.160842e-003 -1.193782e+000 5.989429e-001 7.948669e-001 -1.627324e-002 3.025676e-001 1.352678e-001 -2.840289e-001 7.310778e-002 -3.268383e-001 4.618213e-001 -6.648481e-002 -2.857428e-001 1.252528e+000 4.526079e-001 -2.854595e-002 -4.108876e-001 6.259751e-001 -2.131742e-002 -4.125862e-001 -1.581156e-001 -4.758886e-001
<VARIANCE> 39
 8.890733e-001 3.666837e-001 1.955506e-001 1.171338e+000 9.746999e-002 5.513096e-001 7.906875e-001 1.264665e+000 1.615106e+000 2.668282e+000 1.776378e-001 6.944121e-001 6.509292e-002 2.523994e-001 7.174726e-001 2.065173e-001 7.570826e-001 1.098948e+000 1.352556e+000 6.616535e-001 8.630707e-001 1.022872e+000 8.114977e-001 7.565367e-001 6.647857e-001 1.142807e-001 2.998944e-001 3.622550e-001 6.658638e-001 7.892201e-001 2.546764e-001 1.142542e+000 7.828367e-001 1.179295e+000 5.936830e-001 1.011931e+000 3.339328e-001 3.955511e-001 1.059003e-001
<GCONST> 4.706744e+001
<MIXTURE> 3 8.006918e-002
<MEAN> 39
 1.338398e+000 -2.744527e+000 2.101326e+000 -2.522205e+000 -1.914154e+000 -2.191565e+000 -4.212141e-001 2.083286e+000 -1.666871e+000 2.276574e+000 2.628738e-001 2.853966e-001 2.637017e+000 3.342472e-001 -1.075522e-001 -2.010791e-001 1.290292e-001 2.282974e-001 -3.379966e-001 6.580175e-001 1.031824e-001 3.758681e-002 1.270074e-001 -4.074682e-001 8.523509e-002 -2.752831e-001 -9.359388e-002 1.055982e+000 4.415855e-001 6.075971e-001 -4.378268e-003 4.884141e-001 -4.581344e-001 -6.898538e-001 -1.616949e-001 -2.915922e-001 3.454572e-002 -3.813803e-001 -3.807020e-001
<VARIANCE> 39
 6.754867e-001 5.696499e-001 1.053907e-001 3.550042e-001 2.860752e-001 1.748439e-001 2.000996e+000 5.744080e-001 6.119419e-001 1.000455e+000 9.379392e-001 2.812212e+000 1.323384e-001 2.380307e-001 2.061517e+000 7.263011e-001 6.208771e-001 3.758340e-001 3.741198e-001 9.477965e-001 4.645340e-001 5.274866e-001 5.730043e-001 4.340445e-001 3.987489e-001 2.337913e-001 5.110787e-001 2.072627e+000 4.130892e-001 8.704124e-001 7.821764e-001 1.744662e-001 5.856034e-001 4.343972e-001 3.579685e-001 6.384302e-001 5.687558e-001 5.140537e-001 9.409909e-002
<GCONST> 4.494776e+001
<MIXTURE> 4 8.972225e-002
<MEAN> 39
 6.311942e-001 1.119229e+000 2.178391e+000 -6.800138e-001 -1.229533e+000 -1.793991e-001 -1.755950e+000 -8.698206e-001 -1.804125e+000 -1.723427e+000 3.671576e-001 -6.090518e-001 1.852383e+000 3.214262e-001 -1.603765e+000 -1.737757e-001 -1.742850e-001 -1.228426e+000 -1.185921e+000 4.092694e-001 7.609101e-001 -6.493205e-001 6.738199e-001 3.935461e-001 9.721144e-001 5.921950e-001 5.243403e-001 -5.438825e-001 -6.577736e-001 3.239620e-001 -1.302027e-001 -4.054495e-001 1.984917e-001 1.815089e-001 4.186850e-001 8.126118e-001 5.159935e-001 2.115926e-001 -1.207725e-001
<VARIANCE> 39
 7.931451e-001 1.360275e+000 1.222473e-001 9.791672e-001 3.051893e-001 9.465013e-001 1.241048e+000 7.340512e-001 2.862745e-001 6.797199e-001 1.617207e+000 1.216254e+000 2.597125e-001 3.319097e-001 8.121296e-001 9.023098e-001 1.040143e+000 7.823210e-001 1.562013e+000 7.534456e-001 9.404098e-001 8.619362e-001 2.162302e+000 1.202384e+000 6.940737e-001 1.252229e-001 1.865617e-001 8.873252e-001 8.865829e-001 8.624325e-001 1.214154e+000 7.006508e-001 8.730452e-001 9.164580e-001 9.787448e-001 8.664728e-001 7.926802e-001 1.234901e+000 1.217947e-001
<GCONST> 5.808918e+001
<MIXTURE> 5 7.088951e-002
<MEAN> 39
 -7.012535e-001 7.934316e-001 2.164580e+000 -2.509995e+000 1.371599e-002 -2.666403e+000 -1.023461e+000 -2.329298e+000 6.652604e-001 -1.959306e+000 -1.250610e+000 -1.523609e+000 2.065487e+000 -1.169185e-001 -2.283618e+000 -1.317700e+000 -7.777729e-001 -1.741648e+000 2.094273e-001 1.985793e+000 1.167869e+000 1.569401e+000 8.679041e-001 -3.306836e-001 -9.062037e-001 6.707989e-001 6.322114e-001 4.641901e-002 -1.009878e+000 1.147156e+000 -7.973434e-002 6.774153e-001 3.817783e-001 6.567100e-001 -3.149688e-001 4.228914e-001 1.503346e-001 -6.122226e-001 2.498056e-001
<VARIANCE> 39
 1.881180e+000 1.699703e+000 5.791487e-001 1.022900e-001 3.744402e+000 3.180788e-001 2.809423e+000 4.443545e-001 9.218704e-001 7.985675e-001 1.062817e+000 5.425600e-001 5.557906e-002 2.166048e-001 3.541617e-001 3.715065e-001 1.025943e+000 1.770994e+000 9.764727e-001 1.647504e+000 1.485911e+000 2.095402e+000 1.271081e+000 1.733564e+000 2.257183e+000 2.710716e-001 1.917687e-001 9.614027e-001 9.193460e-001 6.648108e-001 2.170262e+000 1.100569e+000 1.824755e+000 1.449921e+000 2.280525e+000 2.036853e+000 1.372483e+000 1.270724e+000 4.283286e-001
<GCONST> 6.651720e+001
<MIXTURE> 6 8.944436e-002
<MEAN> 39
 -5.689105e-001 -7.885776e-001 1.227242e+000 -1.588282e+000 -2.442680e+000 -2.431362e+000 8.000433e-001 -1.228025e+000 5.206441e-001 3.401432e-001 -2.475893e-001 -9.129933e-001 1.924803e+000 2.539909e-002 -7.688336e-001 -5.863537e-001 1.734664e-001 8.782100e-002 4.014680e-001 7.493494e-001 3.100626e-001 1.555375e-001 1.647052e-001 7.544343e-002 6.447085e-001 1.428506e-001 -1.483502e-001 1.050846e+000 7.236627e-001 5.853791e-001 9.949446e-001 8.972544e-001 -7.942214e-001 -3.750172e-001 -9.207912e-001 -9.715680e-001 -6.973701e-001 1.229734e-001 -3.704775e-001
<VARIANCE> 39
 7.148716e-001 4.778101e-001 1.019122e+000 3.048078e+000 3.856677e-001 1.594763e-001 1.540644e+000 3.261069e-001 2.198984e+000 2.072392e+000 2.181011e+000 3.171594e+000 1.026632e-001 1.554545e-001 1.200375e+000 1.093955e+000 7.422818e-001 8.768356e-001 1.273670e+000 3.134087e+000 1.653944e+000 2.145123e+000 2.254694e+000 2.512636e+000 2.437970e+000 2.452007e-001 1.932939e-001 6.881761e-001 5.311310e-001 1.419260e+000 1.280561e+000 7.074950e-001 1.776217e+000 7.225228e-001 1.508084e+000 2.013215e+000 2.072203e+000 2.899806e+000 4.010696e-001
<GCONST> 7.112702e+001
<MIXTURE> 7 1.332958e-001
<MEAN> 39
