~o
<STREAMINFO> 1 39
<VECSIZE> 39<NULLD><MFCC_E_D_A_Z><DIAGC>
~h "sil"
<BEGINHMM>
<NUMSTATES> 8
<STATE> 2
<NUMMIXES> 14
<MIXTURE> 1 3.736754e-002
<MEAN> 39
 3.030346e-001 -1.313963e-001 8.195077e-002 4.512839e-001 3.881297e-001 2.627719e-001 1.984999e-001 4.101453e-001 2.332004e-001 7.255198e-002 4.063056e-002 1.429811e-001 -5.398497e-001 2.387619e+000 -1.711633e-001 1.330599e+000 1.236904e+000 1.640276e+000 7.708375e-001 7.173215e-001 9.752393e-001 1.157462e-001 3.250795e-001 2.612602e-002 2.662618e-001 -2.387371e+000 -1.669988e+000 6.017267e-001 -7.731764e-001 -1.962897e+000 -1.498412e+000 -9.037234e-001 -4.418891e-001 -1.421663e+000 -4.071707e-001 -4.774317e-001 2.730685e-002 -1.006154e-001 2.994730e+000
<VARIANCE> 39
 8.494990e-002 9.840657e-002 1.399863e-001 1.000000e-002 5.751413e-002 7.467503e-002 6.561981e-002 1.000000e-002 5.309521e-002 8.719125e-002 8.453542e-002 8.937750e-002 1.000000e-002 2.567626e+000 2.300107e+000 3.196944e+000 3.139647e+000 2.174430e+000 2.393462e+000 2.547583e+000 2.591984e+000 2.518447e+000 2.019891e+000 2.455915e+000 2.809195e+000 2.481252e+000 2.898958e+000 2.313956e+000 3.109769e+000 2.203344e+000 1.587940e+000 1.697406e+000 1.345932e+000 1.434475e+000 1.834504e+000 2.086589e+000 2.132426e+000 1.862204e+000 1.222708e+000
<GCONST> 5.316196e+001
<MIXTURE> 2 8.365867e-002
<MEAN> 39
 -5.229053e-001 -3.037376e-001 1.240736e-001 -4.691925e-001 -4.854592e-001 9.859742e-002 6.620499e-001 5.337761e-001 6.436790e-001 -7.613539e-002 -6.065673e-001 -3.879383e-001 -2.364783e-001 3.101781e-001 2.541829e-001 -2.005194e-001 3.547616e-001 2.863326e-001 1.962336e-001 2.926997e-002 7.147709e-002 8.503925e-002 7.225462e-002 4.893479e-002 2.972770e-003 -1.635783e-001 -1.711189e-001 1.504543e-001 -4.403493e-002 2.292699e-002 -1.224134e-001 -4.085634e-001 -7.188416e-001 -6.733915e-001 -4.248360e-001 1.705457e-001 4.603216e-001 4.188043e-001 3.810358e-002
<VARIANCE> 39
 5.841424e-001 7.360227e-001 7.841094e-001 6.614977e-001 1.362254e+000 1.012233e+000 7.639132e-001 1.288525e+000 7.261305e-001 5.784951e-001 9.623205e-001 8.711418e-001 1.048428e-001 5.260456e-001 1.383420e+000 1.141748e+000 1.016680e+000 1.209661e+000 1.123446e+000 1.300760e+000 1.084272e+000 1.192217e+000 1.003023e+000 1.221604e+000 8.941906e-001 4.358291e-001 4.835282e-001 9.982879e-001 5.970342e-001 7.985188e-001 1.338344e+000 1.188428e+000 9.740063e-001 1.007018e+000 8.794593e-001 7.522447e-001 9.911591e-001 6.935758e-001 3.721779e-001
<GCONST> 6.430098e+001
<MIXTURE> 3 1.020636e-001
<MEAN> 39
 -5.529031e-001 -1.175339e-001 1.761665e-001 1.155568e-001 -3.908962e-002 -4.829850e-001 8.101476e-003 3.114138e-001 6.599780e-001 5.704566e-001 5.182029e-001 5.702114e-001 -5.321257e-001 -1.103964e-001 1.001230e-001 7.068574e-002 3.409873e-001 3.891912e-001 2.314780e-001 -1.337250e-001 -1.598254e-001 -1.669226e-001 -1.475692e-001 9.895761e-002 5.034617e-002 7.656485e-001 4.766500e-002 1.068066e-001 -6.945742e-002 -3.385994e-002 2.783582e-002 1.731160e-001 -7.278570e-003 -7.113323e-002 -5.529085e-001 -5.907594e-001 -5.483868e-001 -6.385949e-001 -4.866276e-001
<VARIANCE> 39
 4.898715e-001 6.066651e-001 6.581821e-001 5.892829e-001 9.269021e-001 4.682603e-001 6.378288e-001 8.103216e-001 9.874938e-001 6.539353e-001 8.163597e-001 9.513788e-001 5.132723e-001 1.082279e+000 9.613734e-001 9.239421e-001 1.167903e+000 1.757503e+000 1.009334e+000 9.669056e-001 1.465951e+000 1.081237e+000 1.154873e+000 1.162516e+000 1.649932e+000 2.477199e+000 7.234403e-001 7.565049e-001 7.266610e-001 7.490872e-001 1.040687e+000 8.122978e-001 7.912445e-001 8.278747e-001 1.045640e+000 1.008821e+000 7.029305e-001 1.050411e+000 1.211181e+000
<GCONST> 6.762305e+001
<MIXTURE> 4 6.358059e-002
<MEAN> 39
 -5.599414e-001 -1.286805e-001 -3.879483e-001 2.687472e-001 -8.747105e-002 4.006884e-001 3.630620e-002 -1.463556e-001 -2.181499e-001 1.350416e-001 1.612149e-001 3.053468e-001 -3.625203e-001 -6.783682e-001 1.086756e+000 -6.092948e-001 1.334556e+000 -2.170489e-003 2.253366e-001 6.007543e-001 -4.415876e-002 2.104065e-004 1.764295e-001 4.782843e-001 1.013429e+000 -2.238488e+000 1.243579e+000 -1.007608e-001 1.317834e+000 -8.202051e-001 4.009799e-001 -3.354405e-001 -2.532343e-001 5.377688e-001 3.322628e-001 1.416215e-001 -4.132727e-001 -7.354732e-001 1.789001e+000
<VARIANCE> 39
 1.045662e+000 4.916463e-001 6.349035e-001 4.791509e-001 1.282078e+000 1.271810e+000 7.487272e-001 9.947777e-001 9.891254e-001 5.760948e-001 8.050610e-001 1.441673e+000 1.075729e-001 9.003341e+000 4.896483e+000 6.738587e+000 2.855169e+000 5.143377e+000 3.709636e+000 3.084557e+000 3.303715e+000 3.829775e+000 2.343775e+000 2.701316e+000 2.538944e+000 3.661217e+000 4.974700e+000 4.567912e+000 3.571414e+000 3.047621e+000 3.240008e+000 2.666881e+000 3.040858e+000 2.320069e+000 3.122797e+000 1.911443e+000 2.198209e+000 2.682927e+000 4.213027e+000
<GCONST> 9.942444e+001
<MIXTURE> 5 8.421639e-002
<MEAN> 39
 -5.980489e-001 -2.354730e-001 3.394368e-001 -1.087197e-001 -2.819419e-001 -5.250767e-001 -3.256125e-001 -5.331178e-001 -5.004670e-001 -5.221206e-001 -2.402890e-001 -3.002492e-002 -3.193612e-001 1.189437e-001 -4.379268e-001 -3.822584e-001 2.144753e-001 2.227535e-001 8.217540e-002 2.928628e-001 2.143567e-001 -3.502825e-002 -1.865860e-001 -1.321477e-001 -1.345863e-001 -5.958531e-001 1.740220e-001 2.403063e-001 -2.538756e-001 -2.891409e-002 2.544803e-001 6.267442e-001 4.805564e-001 6.765029e-001 8.978037e-001 6.640893e-001 3.210942e-001 1.427668e-001 2.517234e-001
<VARIANCE> 39
 8.296766e-001 1.088272e+000 8.099374e-001 9.478524e-001 6.741335e-001 6.722850e-001 7.530568e-001 8.148633e-001 7.954749e-001 8.592335e-001 6.591848e-001 9.982418e-001 1.873750e-001 1.777184e+000 7.707590e-001 1.086532e+000 1.080648e+000 9.954156e-001 1.282924e+000 1.275022e+000 1.175170e+000 1.413000e+000 1.099168e+000 8.274428e-001 9.296477e-001 9.831159e-001 1.094893e+000 1.343664e+000 1.162963e+000 1.029643e+000 8.309983e-001 7.348580e-001 7.174809e-001 6.259676e-001 6.937343e-001 5.627444e-001 9.299685e-001 1.061548e+000 1.091692e+000
<GCONST> 6.724914e+001
<MIXTURE> 6 9.648634e-002
<MEAN> 39
 -9.981063e-001 -8.770767e-002 2.944119e-001 -9.584523e-001 -8.273734e-001 -4.582860e-001 -2.770611e-001 -3.286048e-001 2.101917e-001 -2.251748e-001 -1.000520e-001 7.858617e-002 3.694656e-001 5.725727e-001 -1.862158e-001 6.529108e-002 5.157564e-001 2.614190e-001 4.235493e-001 5.740668e-002 2.092130e-001 -4.144718e-002 1.781746e-001 3.381964e-002 -4.447214e-002 -1.304081e+000 5.844427e-001 2.151531e-001 2.543133e-001 4.564758e-001 5.976051e-001 1.748701e-001 1.637786e-001 1.094043e-001 2.628757e-002 6.426192e-002 6.623638e-002 1.728056e-001 -4.055935e-001
<VARIANCE> 39
 2.688434e+000 1.851263e+000 2.501225e+000 1.793894e+000 2.027285e+000 2.181226e+000 2.639827e+000 1.798075e+000 1.912139e+000 2.197604e+000 1.518462e+000 1.822354e+000 4.614603e-001 6.749607e+000 3.098560e+000 2.508516e+000 3.564567e+000 2.935752e+000 2.152428e+000 1.927644e+000 2.184419e+000 1.711581e+000 1.950113e+000 2.135997e+000 2.380088e+000 4.228654e+000 4.017447e+000 2.321450e+000 2.384705e+000 3.145820e+000 2.470422e+000 2.062624e+000 2.352920e+000 1.942891e+000 2.563449e+000 1.804784e+000 1.727204e+000 2.357560e+000 1.405647e+000
<GCONST> 1.029655e+002
<MIXTURE> 7 4.796430e-002
<MEAN> 39
 4.846502e-001 2.514734e-001 -6.400409e-002 5.073225e-001 1.885287e-001 3.405185e-001 1.029204e-001 3.402911e-001 1.683247e-001 3.905230e-001 9.275306e-002 2.810210e-001 -7.423989e-001 2.425684e+000 7.990362e-001 1.735072e-001 5.990628e-001 4.924980e-001 7.682527e-001 2.553579e-001 3.656369e-001 2.812734e-001 3.539727e-001 1.385628e-001 1.301625e-001 -2.037749e+000 -1.870408e+000 -7.360175e-001 3.653530e-001 -7.450331e-001 -1.197266e-001 -5.503701e-001 -1.398232e-002 -3.041461e-001 -1.543196e-001 -4.618120e-001 -1.508057e-001 -2.652555e-002 2.645643e+000
<VARIANCE> 39
 1.013916e-001 1.891866e-001 2.646909e-001 8.677737e-002 2.176026e-001 1.631958e-001 1.835785e-001 1.018397e-001 2.017617e-001 4.564252e-002 1.642223e-001 9.148595e-002 2.859556e-002 1.071562e+000 1.914589e+000 2.211201e+000 1.984662e+000 2.071806e+000 2.561350e+000 1.546525e+000 1.053416e+000 1.813202e+000 1.168825e+000 1.528349e+000 1.000165e+000 2.192390e+000 1.743013e+000 2.551273e+000 2.487134e+000 1.623044e+000 2.110972e+000 1.544131e+000 1.249516e+000 1.195822e+000 1.268030e+000 9.275498e-001 1.066554e+000 8.190644e-001 1.732236e+000
<GCONST> 5.555465e+001
<MIXTURE> 8 4.127161e-002
<MEAN> 39
 -1.640866e-001 6.273273e-001 4.320278e-001 5.875983e-001 4.132109e-001 3.917985e-001 1.894561e-001 2.338750e-001 1.976184e-001 -4.796919e-002 -1.917376e-001 2.293631e-001 -4.939231e-001 5.671288e-002 -3.595301e-002 5.699679e-002 8.324555e-002 4.755781e-001 1.336200e+000 3.453781e-001 2.310070e-001 6.792276e-001 4.965257e-001 4.081775e-001 1.315970e-001 -2.591511e-001 1.267959e-001 -7.393482e-001 -9.060957e-001 -1.043991e+000 -1.007017e+000 -1.155492e+000 -1.204755e-001 -4.792107e-001 -1.245764e-001 2.304341e-001 1.892255e-001 4.782495e-002 4.431538e-001
<VARIANCE> 39
 9.546219e-001 5.008023e-001 6.680309e-001 4.514014e-001 4.213114e-001 9.647547e-001 6.063467e-001 3.665630e-001 4.489859e-001 7.072541e-001 8.985080e-001 8.646662e-001 5.727072e-001 2.481640e+000 3.468167e+000 3.102328e+000 2.049444e+000 2.775068e+000 2.140818e+000 1.509452e+000 1.944055e+000 1.199619e+000 1.302529e+000 1.345041e+000 2.717332e+000 4.599428e+000 2.449165e+000 2.169304e+000 1.961934e+000 1.061282e+000 1.536972e+000 1.360761e+000 1.518417e+000 1.286912e+000 9.797810e-001 1.471689e+000 1.827582e+000 2.108640e+000 3.993310e+000
<GCONST> 8.241927e+001
<MIXTURE> 9 1.081986e-001
<MEAN> 39
 2.116976e-002 4.237554e-001 -3.377659e-002 4.924969e-001 -7.593101e-002 -2.148076e-001 5.218821e-002 -7.675202e-002 -9.820263e-003 1.917361e-001 3.046715e-001 1.590838e-001 -6.913935e-001 -1.990448e-002 -3.031747e-002 9.591063e-002 1.475377e-001 3.067945e-002 8.763365e-002 -5.990009e-002 7.824837e-002 -1.695758e-003 -1.336210e-001 -1.020675e-001 -5.059852e-002 -6.085300e-003 -1.212916e-001 -7.373583e-002 9.101089e-002 3.163566e-002 6.630139e-002 -1.345986e-003 -6.448501e-002 1.213184e-002 -2.466217e-002 2.917122e-002 -2.670482e-002 -4.154058e-004 2.113898e-002
<VARIANCE> 39
 2.167232e-001 3.512945e-001 3.949376e-001 2.495000e-001 3.318471e-001 5.344983e-001 6.320177e-001 4.631884e-001 5.475160e-001 6.012633e-001 4.966390e-001 4.948165e-001 1.460291e-001 1.504879e-001 2.654073e-001 4.150786e-001 4.410189e-001 5.037810e-001 6.540786e-001 5.450865e-001 4.546585e-001 5.238484e-001 8.382055e-001 4.862790e-001 6.250374e-001 1.770916e-001 1.194063e-001 2.125860e-001 4.049933e-001 3.387438e-001 4.758061e-001 4.447956e-001 4.437470e-001 4.372171e-001 3.722219e-001 4.601582e-001 3.776914e-001 4.872304e-001 3.142504e-001
<GCONST> 3.475219e+001
<MIXTURE> 10 8.644730e-002
<MEAN> 39
 9.773461e-001 9.166359e-001 -6.065286e-001 -7.128350e-001 -8.332875e-001 -1.065628e+000 -7.782258e-001 -5.641121e-001 -3.233446e-001 3.664117e-001 6.070876e-001 4.900894e-001 1.352596e-001 -6.866305e-001 -1.349436e-001 1.964024e-001 5.671882e-001 2.493957e-001 -1.334831e-002 1.180258e-001 -4.340827e-002 -6.782732e-002 -1.003484e-002 8.958457e-002 1.349020e-001 -6.321020e-001 -9.362375e-004 -1.505659e-001 1.423438e-001 1.603632e-001 1.316032e-001 1.698310e-001 1.383175e-001 7.660719e-003 4.012162e-003 -1.440181e-001 -1.774352e-001 -1.349958e-001 2.240460e-001
<VARIANCE> 39
 4.114223e-001 4.947707e-001 9.200496e-001 5.049855e-001 7.716492e-001 7.810252e-001 5.629328e-001 5.960856e-001 6.803187e-001 8.591869e-001 6.104681e-001 9.202324e-001 2.325162e-001 5.689736e-001 7.136147e-001 8.022379e-001 6.690495e-001 8.803195e-001 9.274614e-001 8.163968e-001 9.050139e-001 8.456087e-001 9.551170e-001 5.795593e-001 8.255500e-001 3.799574e-001 5.795018e-001 8.355142e-001 9.343058e-001 8.110659e-001 7.869664e-001 7.679181e-001 6.043666e-001 9.407960e-001 6.890331e-001 8.167498e-001 5.206681e-001 8.509052e-001 4.488423e-001
<GCONST> 5.693962e+001
<MIXTURE> 11 1.645287e-001
<MEAN> 39
 3.666674e-002 -1.088052e-001 -2.107415e-001 2.118591e-001 4.161466e-001 1.795096e-002 4.008180e-001 4.261151e-001 2.617868e-001 3.589072e-001 -2.611414e-001 2.522463e-001 -6.792835e-001 4.264904e-004 -1.087589e-005 7.397596e-006 -7.663004e-005 1.106110e-004 5.634404e-005 3.361353e-005 2.015345e-005 -4.796325e-005 1.466218e-005 -6.313006e-005 2.102015e-005 2.104938e-009 1.814117e-004 -8.432093e-005 -5.308396e-005 -1.170736e-004 8.531742e-005 1.324678e-005 4.021926e-005 2.899681e-005 -2.491175e-005 -1.055184e-005 -1.003575e-005 3.601730e-005 2.642239e-005
<VARIANCE> 39
 1.401259e-001 1.353855e-001 1.539712e-001 1.628176e-001 9.851213e-002 1.124202e-001 8.924360e-002 5.190428e-002 1.708194e-001 4.086762e-002 1.057744e-001 3.800809e-002 1.995029e-002 1.000000e-002 1.000000e-002 1.000000e-002 1.000000e-002 1.000000e-002 1.000000e-002 1.000000e-002 1.000000e-002 1.000000e-002 1.000000e-002 1.000000e-002 1.000000e-002 1.000000e-002 1.000000e-002 1.000000e-002 1.000000e-002 1.000000e-002 1.000000e-002 1.000000e-002 1.000000e-002 1.000000e-002 1.000000e-002 1.000000e-002 1.000000e-002 1.000000e-002 1.000000e-002
<GCONST> -7.998150e+001
<MIXTURE> 12 7.306191e-002
<MEAN> 39
 -1.231892e+000 2.384770e-002 -4.092984e-001 -5.667610e-001 -2.036729e-001 2.428645e-001 1.254237e-001 -5.108840e-002 3.727124e-001 4.673109e-001 1.724393e-002 9.271603e-002 -5.400013e-001 2.707795e-002 3.976296e-002 -1.393745e-001 -1.561426e-001 -3.326383e-001 -2.338921e-001 -4.019392e-004 1.212515e-002 9.811229e-002 7.573806e-002 -5.325958e-002 -1.502611e-001 -2.405690e-002 7.651690e-001 2.961958e-001 4.487950e-001 1.475541e-001 1.174697e-001 -1.238971e-001 -4.293815e-002 1.077569e-002 2.740568e-002 -2.959990e-001 -3.076207e-001 -1.899009e-001 6.718135e-001
<VARIANCE> 39
 1.159478e+000 6.005773e-001 1.610997e-001 1.130999e+000 5.977538e-001 3.800276e-001 4.725700e-001 5.822335e-001 5.149862e-001 9.306536e-001 5.311344e-001 7.652605e-001 1.058872e-002 2.006131e-001 4.796282e-001 7.625831e-001 1.236805e+000 8.466746e-001 7.656186e-001 1.023019e+000 1.435417e+000 1.199378e+000 9.821036e-001 9.622318e-001 1.339976e+000 5.815487e-002 1.491547e+000 9.477938e-001 1.669159e+000 1.833899e+000 1.406090e+000 1.199577e+000 1.224618e+000 1.569383e+000 1.314707e+000 1.228963e+000 9.048181e-001 1.272288e+000 1.040486e+000
<GCONST> 5.908205e+001
<MIXTURE> 13 8.923592e-003
<MEAN> 39
 5.384309e-001 6.640331e-002 -2.520068e-001 -3.244007e-002 -3.017906e-001 -2.110560e-001 -4.514347e-001 -2.696207e-001 1.928419e-001 6.771231e-002 -5.229111e-001 -1.156540e-001 -5.210259e-001 1.472337e+000 1.474885e-001 2.852244e-001 4.811780e-002 3.276933e-001 -4.486410e-001 -4.358603e-001 -2.207646e-001 6.403113e-001 -2.517588e-001 -1.035148e-001 -7.515571e-001 -2.044592e+000 -3.730215e+000 -1.162189e+000 -1.330706e+000 9.466377e-001 1.510931e+000 1.037840e+000 1.421392e+000 -6.132683e-001 -3.919296e-001 3.853757e-001 1.136269e+000 7.575278e-001 3.854862e+000
<VARIANCE> 39
 4.667141e-002 2.962264e-002 1.000000e-002 1.000000e-002 1.000000e-002 1.000000e-002 1.314048e-002 2.023468e-002 1.000000e-002 1.000000e-002 1.156535e-002 1.000000e-002 1.000000e-002 1.495210e+001 4.121693e+000 3.982286e+000 2.800106e+000 1.808977e+000 1.826748e+000 2.458289e+000 1.915277e+000 1.378445e+000 1.296714e+000 2.027231e+000 1.244373e+000 8.301214e+000 3.355498e+000 1.317972e+001 5.112027e+000 3.074164e+000 4.286046e+000 7.367791e-001 9.374107e-001 1.635525e+000 1.475326e+000 2.999950e-001 6.310537e-001 7.329197e-001 1.124642e+001
<GCONST> 3.741459e+001
<MIXTURE> 14 2.230898e-003
<MEAN> 39
 -1.852954e+000 -5.396777e-002 -5.035255e-001 -2.957656e-001 -5.947443e-001 -1.270373e+000 -6.459905e-001 5.141500e-002 -5.293723e-001 9.166545e-001 -6.706223e-001 8.963929e-001 8.537159e-001 3.961062e+000 1.639210e+000 -1.593824e+000 -3.588844e-001 -4.574020e+000 -8.965054e-001 -3.697668e+000 -1.620766e+000 7.795661e-001 -1.314643e+000 1.156198e+000 -2.160808e+000 -7.303761e+000 1.778429e+000 -1.087546e+000 2.253641e+000 3.421957e-001 3.910949e+000 1.717615e+000 9.352268e-001 -5.444421e-001 -6.918216e-001 -1.803134e+000 3.293059e-001 -1.779847e-001 -1.964440e-001
<VARIANCE> 39
 1.243111e+000 7.082372e-001 3.863383e-001 1.900501e+000 1.368779e+000 2.269041e+000 1.020479e+000 1.345562e+000 1.680382e-001 2.728848e-001 1.040977e+000 7.122169e-001 5.381086e-001 5.775370e+000 2.452754e+001 6.886746e+000 1.861533e+001 3.126762e+000 3.631625e+000 1.410383e+000 7.765365e+000 3.140532e+000 8.036368e+000 7.153105e+000 6.884882e-001 4.288370e+000 4.822144e+000 1.530270e+001 9.027891e+000 2.840172e+000 3.408457e+000 1.858651e+000 2.534471e+000 1.975185e+000 3.155362e+000 3.323925e+000 5.828351e+000 8.120378e-001 2.913823e+000
<GCONST> 1.055753e+002
<STATE> 3
<NUMMIXES> 14
<MIXTURE> 1 1.897019e-002
<MEAN> 39
 4.162219e-001 1.705893e-001 -1.177371e-002 4.814369e-001 2.247784e-001 3.263100e-001 1.350621e-001 3.370638e-001 2.009947e-001 2.674132e-001 6.517103e-002 1.659595e-001 -6.493779e-001 -5.350037e-003 -6.250773e-003 -4.178667e-004 -2.807243e-003 2.421382e-004 -9.104233e-004 2.440565e-003 -2.058420e-004 -6.344636e-004 -1.104579e-003 -4.166837e-003 -1.154127e-005 5.495695e-010 -1.861097e+000 -3.361249e-001 -3.696508e-001 -6.875796e-001 -5.574923e-001 -4.046659e-001 -2.917877e-001 -3.229645e-001 -2.648401e-001 -2.024247e-001 -1.823551e-002 -1.976479e-001 1.781133e+000
<VARIANCE> 39
 1.074177e-001 1.886038e-001 2.318135e-001 6.106161e-002 1.622785e-001 1.123049e-001 1.528733e-001 9.302299e-002 1.349429e-001 9.360550e-002 1.385117e-001 1.165025e-001 3.027716e-002 1.000000e-002 1.000000e-002 1.000000e-002 1.000000e-002 1.000000e-002 1.000000e-002 1.000000e-002 1.000000e-002 1.000000e-002 1.000000e-002 1.000000e-002 1.000000e-002 1.000000e-002 9.591292e-001 1.337581e+000 1.710891e+000 1.245060e+000 1.182282e+000 1.269841e+000 8.338584e-001 8.751141e-001 9.262880e-001 6.190287e-001 8.175132e-001 8.450891e-001 1.718844e+000
<GCONST> -1.588820e+001
<MIXTURE> 2 2.971996e-001
<MEAN> 39
 5.814770e-001 -3.938085e-002 -1.347853e-001 5.303674e-001 4.124030e-001 5.260804e-001 1.857827e-001 4.948835e-001 2.720559e-001 2.562554e-001 9.810635e-002 6.301627e-002 -6.551947e-001 -1.583776e-003 -5.137775e-003 -6.602516e-004 -1.148608e-003 -1.863125e-003 -1.130279e-003 1.499599e-003 -1.045655e-003 -2.752977e-004 -4.272138e-005 -2.513057e-003 -1.610220e-004 7.475133e-010 -2.240463e-004 1.486509e-003 1.263401e-004 -1.208709e-003 8.157095e-004 3.910433e-004 -1.364745e-003 1.623880e-005 -7.287692e-004 1.593011e-005 1.699861e-003 -7.844641e-004 -6.583032e-010
<VARIANCE> 39
 1.126325e-002 1.681816e-001 2.403764e-001 3.792180e-002 7.006982e-002 1.690536e-002 9.643526e-002 1.000000e-002 6.243031e-002 9.671947e-002 1.219071e-001 1.327215e-001 1.342501e-002 1.000000e-002 1.000000e-002 1.000000e-002 1.000000e-002 1.000000e-002 1.000000e-002 1.000000e-002 1.000000e-002 1.000000e-002 1.000000e-002 1.000000e-002 1.000000e-002 1.000000e-002 1.000000e-002 1.000000e-002 1.000000e-002 1.000000e-002 1.000000e-002 1.000000e-002 1.000000e-002 1.000000e-002 1.000000e-002 1.000000e-002 1.000000e-002 1.000000e-002 1.000000e-002
<GCONST> -8.625066e+001
<MIXTURE> 3 7.573020e-002
<MEAN> 39
 -3.839376e-001 2.782894e-001 -4.007663e-001 -9.489931e-002 -4.213576e-001 3.173297e-001 -3.911204e-002 -1.604608e-001 1.841155e-001 5.332331e-001 -7.005456e-002 2.609319e-001 -5.779448e-001 -3.591963e-002 -2.446288e-003 -2.987477e-002 -4.003179e-002 5.250713e-002 7.623598e-002 1.550504e-001 1.151300e-001 2.143415e-001 -3.577792e-002 -1.491880e-001 -1.263564e-001 3.711549e-004 -1.797173e-001 -2.643406e-001 1.676627e-001 6.850144e-001 4.648498e-001 -7.602681e-002 7.665134e-002 1.741782e-001 -3.278041e-001 -4.469289e-001 3.248821e-002 1.453882e-001 7.230966e-004
<VARIANCE> 39
 3.775474e-002 7.871986e-002 1.429065e-001 2.531693e-001 3.444506e-001 2.928513e-001 4.229565e-001 3.597431e-001 5.418035e-001 3.072470e-001 3.995144e-001 3.764126e-001 1.000000e-002 5.783965e-002 1.680412e-001 2.997621e-001 5.388908e-001 5.041056e-001 6.394639e-001 6.280974e-001 6.802113e-001 7.473117e-001 7.512540e-001 7.077968e-001 6.276745e-001 1.000000e-002 7.603446e-002 1.936083e-001 3.048137e-001 3.004488e-001 5.459644e-001 5.039639e-001 5.515471e-001 4.824383e-001 7.920704e-001 4.996775e-001 5.060828e-001 6.472208e-001 1.000000e-002
<GCONST> 1.976547e+001
<MIXTURE> 4 7.678410e-002
<MEAN> 39
 -5.241286e-001 -6.759466e-002 -2.830464e-001 4.746956e-001 5.174564e-001 6.780089e-001 4.175224e-001 2.347120e-002 -2.746991e-001 -2.171987e-001 -5.663521e-001 1.923053e-002 -5.422997e-001 -1.550357e-002 -9.872355e-002 -1.195544e-001 -6.910255e-002 7.130410e-002 1.468359e-001 9.859603e-002 1.151482e-001 2.544356e-002 -3.784591e-002 4.435097e-002 9.642819e-002 -2.413364e-004 1.669647e-001 2.517993e-001 2.251885e-002 -2.773113e-001 -7.449561e-001 -7.262478e-001 -3.959459e-001 1.042856e-001 3.774363e-001 6.045768e-001 5.909520e-001 2.726276e-001 1.389585e-003
<VARIANCE> 39
 2.575018e-002 1.403362e-001 1.746681e-001 2.035422e-001 2.632665e-001 2.577544e-001 3.786319e-001 4.739711e-001 5.344579e-001 4.967124e-001 4.647904e-001 5.469064e-001 1.000000e-002 7.217917e-002 2.028075e-001 3.335765e-001 3.927514e-001 5.281734e-001 5.509349e-001 6.585543e-001 8.062210e-001 7.493818e-001 8.142449e-001 8.537177e-001 8.261493e-001 1.000000e-002 1.091424e-001 2.494777e-001 4.211109e-001 4.476577e-001 3.962255e-001 5.409339e-001 5.779101e-001 6.724474e-001 5.899965e-001 6.845436e-001 5.320726e-001 8.173621e-001 1.000000e-002
<GCONST> 2.333385e+001
<MIXTURE> 5 8.130081e-002
<MEAN> 39
 -4.805789e-001 4.231454e-002 -3.156186e-001 3.830214e-001 5.659566e-002 2.191149e-001 -2.354669e-001 -2.304593e-001 -2.292322e-001 5.070313e-001 7.170010e-001 7.581564e-001 -5.625615e-001 2.127582e-002 4.257688e-002 5.177435e-002 -9.536703e-002 -5.412635e-002 -1.727686e-001 -1.248757e-001 -6.652734e-002 4.046842e-002 9.307671e-002 7.596575e-002 7.474602e-002 -7.994113e-004 6.212292e-002 1.474123e-001 1.073559e-001 -1.487863e-001 -2.173364e-001 4.266091e-002 4.101169e-001 4.215110e-001 1.743364e-001 -4.634675e-001 -1.046478e+000 -6.426278e-001 8.176832e-004
<VARIANCE> 39
 2.572835e-002 1.285271e-001 1.969429e-001 2.453581e-001 3.098126e-001 2.985761e-001 4.117087e-001 4.758176e-001 4.298432e-001 3.654309e-001 3.701212e-001 3.258847e-001 1.000000e-002 6.585622e-002 2.145929e-001 3.247679e-001 5.315372e-001 5.306432e-001 5.785657e-001 7.115491e-001 7.512068e-001 7.170727e-001 8.299013e-001 8.346639e-001 7.054958e-001 1.000000e-002 7.708845e-002 2.425843e-001 3.461914e-001 4.503294e-001 4.156648e-001 5.257738e-001 6.599066e-001 6.066928e-001 5.909997e-001 6.177769e-001 3.676101e-001 4.659491e-001 1.000000e-002
<GCONST> 2.122556e+001
<MIXTURE> 6 6.760012e-002
<MEAN> 39
 -4.850807e-001 -9.823139e-002 -4.471260e-001 1.748247e-001 5.643389e-002 3.976998e-001 5.018910e-001 6.972302e-001 6.329243e-001 5.627890e-001 -1.053050e-001 -4.791068e-002 -5.362669e-001 -6.706473e-003 -3.693051e-003 8.295498e-002 1.580086e-001 2.360017e-002 -7.985976e-002 -2.166282e-001 -2.280689e-001 -2.118887e-001 7.648118e-002 1.354853e-001 -2.940176e-002 -2.463168e-003 9.563353e-002 3.367633e-001 4.074286e-001 2.413284e-001 -1.419696e-001 -3.243012e-001 -4.961926e-001 -7.624861e-001 -7.953548e-001 -5.057069e-001 -3.649651e-002 4.117147e-001 1.214118e-003
<VARIANCE> 39
 2.282510e-002 1.463290e-001 2.083286e-001 3.160764e-001 3.001227e-001 2.496033e-001 4.351086e-001 3.523735e-001 3.535832e-001 3.420415e-001 4.029407e-001 4.440713e-001 1.000000e-002 9.189676e-002 2.276300e-001 3.178191e-001 4.945177e-001 4.762231e-001 5.844665e-001 5.879314e-001 6.964560e-001 7.600029e-001 8.043554e-001 6.235464e-001 6.485315e-001 1.000000e-002 1.199731e-001 2.230451e-001 3.772041e-001 5.155794e-001 4.404547e-001 3.846517e-001 4.611932e-001 5.063881e-001 4.901180e-001 6.439769e-001 6.006135e-001 5.929726e-001 1.000000e-002
<GCONST> 2.117904e+001
<MIXTURE> 7 6.880458e-002
<MEAN> 39
 -4.176073e-001 3.294952e-001 3.337114e-002 5.774777e-001 -2.900913e-002 1.209085e-002 -3.163482e-001 -5.192931e-001 -6.087169e-001 -2.281480e-001 -2.075955e-001 4.941333e-001 -5.381207e-001 9.613699e-003 2.967881e-002 2.479075e-002 5.650607e-002 -2.905784e-002 -7.689238e-002 -4.489186e-002 -6.661219e-002 -8.322156e-002 -4.161187e-002 -1.048202e-001 -1.724105e-003 -3.547651e-004 -4.404620e-002 -3.096419e-001 -4.507378e-001 -4.984160e-001 -1.944639e-001 2.520764e-001 5.388796e-001 7.438726e-001 7.639086e-001 5.881856e-001 1.322713e-001 -3.197484e-001 8.691251e-004
<VARIANCE> 39
 2.742990e-002 1.060766e-001 2.344290e-001 1.664303e-001 3.472646e-001 3.764506e-001 4.160457e-001 4.557916e-001 4.336805e-001 4.083871e-001 4.329766e-001 4.145413e-001 1.000000e-002 8.522423e-002 2.526511e-001 3.736560e-001 5.013212e-001 5.558141e-001 5.844610e-001 5.791857e-001 6.273476e-001 6.932870e-001 7.999912e-001 7.979946e-001 7.221941e-001 1.000000e-002 1.138115e-001 2.279425e-001 3.964103e-001 3.958616e-001 5.368420e-001 5.754597e-001 4.684177e-001 6.074051e-001 6.079455e-001 5.499080e-001 5.103840e-001 6.034245e-001 1.000000e-002
<GCONST> 2.263289e+001
<MIXTURE> 8 6.684733e-002
<MEAN> 39
 -4.436008e-001 2.346727e-001 6.697910e-002 4.736004e-001 -3.793502e-001 -4.016635e-001 -1.053464e-001 2.999831e-001 3.774285e-001 5.624152e-001 -3.656073e-002 7.331809e-002 -5.272993e-001 -1.498224e-002 4.445112e-003 5.749897e-002 4.566124e-002 -2.897991e-002 1.041199e-001 1.404104e-001 7.043229e-002 -4.828482e-002 -1.433509e-001 -1.864614e-001 -6.540937e-002 -2.111287e-004 7.602171e-003 -1.854859e-001 -4.294423e-001 -1.975098e-001 4.628569e-001 8.498272e-001 3.989989e-001 -2.319107e-001 -5.110772e-001 -4.723756e-001 -4.276738e-002 2.377790e-001 -3.187145e-004
<VARIANCE> 39
 2.919370e-002 1.534700e-001 1.907827e-001 9.216655e-002 3.173669e-001 3.332242e-001 3.606042e-001 2.973388e-001 4.183180e-001 4.118240e-001 6.514195e-001 4.704399e-001 1.000000e-002 6.884836e-002 2.502306e-001 3.721663e-001 3.105458e-001 7.009495e-001 5.784736e-001 6.041396e-001 7.366041e-001 9.603263e-001 7.100168e-001 7.587654e-001 6.629800e-001 1.000000e-002 8.772191e-002 3.034596e-001 3.129326e-001 3.092361e-001 4.073486e-001 3.577027e-001 3.984246e-001 4.332990e-001 5.462824e-001 5.886022e-001 7.705531e-001 5.688336e-001 1.000000e-002
<GCONST> 2.038694e+001
<MIXTURE> 9 1.490515e-002
<MEAN> 39
 -3.303962e-001 -7.544307e-002 -4.090948e-001 -2.773189e-002 -1.726432e-001 -3.262157e-001 3.500027e-002 7.502749e-002 -5.077122e-001 -4.875948e-001 -3.184704e-002 4.017465e-001 -5.628936e-001 -3.193375e-002 7.607310e-002 1.902061e-001 2.287008e-001 1.919098e-001 9.091657e-002 -2.057823e-001 -3.229590e-001 -7.185137e-002 -1.170850e-001 -4.285392e-001 -2.156639e-001 -3.065899e-002 1.005064e-001 1.970122e-001 4.172248e-001 3.607513e-001 4.996628e-001 5.278144e-001 1.773305e-001 2.066797e-002 6.149526e-001 7.246577e-001 4.970912e-003 -3.487976e-001 2.336151e-001
<VARIANCE> 39
 1.089439e-001 1.848215e-001 3.859662e-001 3.658860e-001 3.008029e-001 2.970840e-001 4.159330e-001 5.045607e-001 3.526806e-001 5.266092e-001 6.934329e-001 1.128847e+000 1.799099e-002 1.054533e-001 2.762762e-001 4.628834e-001 4.300906e-001 6.401408e-001 5.778136e-001 5.569758e-001 9.237303e-001 1.002244e+000 1.294849e+000 7.417883e-001 1.011892e+000 4.591940e-002 4.863286e-001 2.080916e-001 4.469738e-001 6.497951e-001 4.767412e-001 3.927629e-001 5.104762e-001 7.575347e-001 5.464131e-001 5.327839e-001 8.367222e-001 1.621148e+000 1.603754e-001
<GCONST> 3.706394e+001
<MIXTURE> 10 1.716351e-002
<MEAN> 39
 -1.563496e-002 8.614685e-002 2.056013e-001 6.608396e-001 5.984504e-001 3.594772e-001 2.091581e-001 2.346038e-001 3.608039e-001 2.085953e-001 1.122609e-001 -1.339262e-001 -5.432153e-001 8.029976e-003 9.424181e-002 1.108257e-001 5.681765e-001 4.425610e-001 4.319950e-001 2.116790e-001 3.398530e-001 9.809925e-002 -1.157035e-001 -1.629786e-001 -1.515187e-001 -5.440560e-002 -3.031109e-001 -1.174125e-001 -2.348867e-001 -5.703124e-001 -6.099774e-001 -6.033159e-001 -1.552531e-002 -9.631929e-002 -7.077315e-002 7.976949e-002 2.704967e-001 3.617495e-001 -9.773429e-002
<VARIANCE> 39
 2.741513e-001 4.001452e-001 5.441579e-001 2.579608e-001 3.868502e-001 6.591313e-001 6.079246e-001 6.398263e-001 6.319443e-001 6.761481e-001 3.580650e-001 6.570091e-001 1.848497e-001 5.420389e-001 6.533177e-001 4.742039e-001 5.073516e-001 5.876357e-001 8.963546e-001 7.451066e-001 7.708712e-001 1.246114e+000 7.971160e-001 8.764635e-001 9.746519e-001 5.369635e-001 4.776765e-001 6.056380e-001 8.356445e-001 5.942391e-001 7.098525e-001 6.880127e-001 7.996950e-001 1.034310e+000 9.853768e-001 7.654793e-001 6.684213e-001 7.149358e-001 1.371109e+000
<GCONST> 5.321141e+001
<MIXTURE> 11 4.516712e-004
<MEAN> 39
 -1.214261e+000 -2.433137e+000 1.069301e+000 2.857950e+000 -2.016755e+000 -1.522030e+000 1.452523e+000 -2.543547e+000 1.094554e+000 1.469476e+000 7.233666e-002 -1.471796e+000 1.101717e+000 -1.330591e-001 -2.240983e-001 7.565710e-001 5.861710e-001 1.214680e-001 3.616111e-001 -1.125028e+000 -1.087581e+000 -2.586679e-001 -1.550934e-001 2.945241e-001 -1.310868e-001 -2.437385e-002 2.181850e+000 3.899089e+000 -9.281371e-001 -2.873919e+000 3.211515e+000 1.786298e+000 -2.246161e+000 3.303239e+000 -9.286729e-001 -1.892273e+000 -3.501226e-001 1.777427e+000 -5.132234e+000
<VARIANCE> 39
 8.483925e-002 3.498331e-001 4.653064e-002 2.575823e-001 3.470507e-001 4.058512e-001 4.048919e-002 1.159534e-001 1.180423e+000 1.000000e-002 8.553053e-002 4.694047e-001 1.000000e-002 1.025632e+000 6.064207e+000 4.644510e-001 4.698145e+000 2.994308e+000 9.188817e-001 3.085772e+000 4.450041e+000 6.419994e-001 1.979378e+000 2.543598e-001 2.108256e+000 9.379785e+000 2.770513e-001 7.434025e-001 3.084561e-002 2.865002e-001 4.255270e-001 1.236039e+000 4.490415e-001 1.007265e+000 8.618498e-001 2.960696e-001 7.709869e-002 3.723587e-001 6.924587e-001
<GCONST> 3.922105e+001
<MIXTURE> 12 7.166516e-002
<MEAN> 39
 -4.222824e-001 1.888076e-001 -2.106015e-001 3.350845e-001 -3.634240e-001 1.858819e-001 5.440993e-001 4.152711e-001 -1.709923e-001 -3.340406e-001 -4.088031e-001 3.893656e-001 -5.475319e-001 1.788831e-002 2.042779e-003 -5.574704e-002 -4.014842e-002 -7.575499e-002 -2.844276e-002 -2.487543e-002 7.981670e-002 8.386898e-002 5.977462e-002 1.830078e-001 3.139841e-002 1.562359e-004 -7.298567e-002 -4.840623e-002 8.567288e-002 1.442968e-001 3.282209e-001 -1.694031e-002 -5.534592e-001 -4.831165e-001 1.904991e-001 6.576088e-001 4.661863e-001 1.781905e-002 1.840594e-003
<VARIANCE> 39
 3.319026e-002 1.172559e-001 1.968495e-001 8.322024e-002 2.273547e-001 2.843613e-001 3.196928e-001 3.926214e-001 3.065307e-001 3.519951e-001 4.955977e-001 2.967501e-001 1.000000e-002 5.463639e-002 1.823721e-001 2.819343e-001 3.756932e-001 5.205808e-001 6.238091e-001 5.561866e-001 5.653702e-001 6.636823e-001 6.185442e-001 6.161063e-001 7.183929e-001 1.000000e-002 6.229136e-002 2.292905e-001 3.555171e-001 3.351603e-001 4.289396e-001 4.642526e-001 4.004090e-001 4.718770e-001 3.840839e-001 4.077092e-001 5.676214e-001 6.540155e-001 1.000000e-002
<GCONST> 1.590173e+001
<MIXTURE> 13 1.367058e-001
<MEAN> 39
 4.390707e-001 5.025368e-001 1.376550e-001 4.132057e-001 -2.111618e-002 3.890564e-001 -1.095744e-001 4.750494e-001 -3.781345e-001 4.400921e-001 8.909988e-002 3.396851e-001 -6.672600e-001 -1.015129e-002 -2.771722e-003 4.818583e-003 -1.566100e-003 9.146810e-003 -1.104441e-003 2.168455e-003 3.404924e-003 -1.088218e-003 -1.317241e-003 -4.349116e-003 1.136578e-003 1.254248e-009 7.194660e-003 1.888244e-003 -3.140141e-003 9.958216e-005 -6.108240e-003 9.999128e-005 -1.277914e-003 -1.913473e-003 -4.823354e-004 8.626105e-004 3.038500e-003 -2.268630e-003 1.683626e-010
<VARIANCE> 39
 5.235074e-002 3.266363e-002 1.757976e-001 3.154016e-002 1.317157e-001 5.117548e-002 1.636571e-001 3.235651e-002 4.662174e-002 3.303594e-002 7.648723e-002 2.430028e-002 1.786367e-002 1.000000e-002 1.000000e-002 1.000000e-002 1.000000e-002 1.000000e-002 1.000000e-002 1.000000e-002 1.000000e-002 1.000000e-002 1.000000e-002 1.000000e-002 1.000000e-002 1.000000e-002 1.000000e-002 1.000000e-002 1.000000e-002 1.000000e-002 1.000000e-002 1.000000e-002 1.000000e-002 1.000000e-002 1.000000e-002 1.000000e-002 1.000000e-002 1.000000e-002 1.000000e-002
<GCONST> -8.665269e+001
<MIXTURE> 14 5.871725e-003
<MEAN> 39
 -4.088013e-001 -2.252646e-001 -5.200470e-002 3.048205e-001 2.357245e-001 1.605615e-001 4.283791e-003 -2.755035e-001 -2.275765e-001 1.562901e-001 4.817389e-001 3.551226e-001 -4.856417e-001 -5.723409e-002 -1.737712e-001 8.008866e-002 -2.637762e-001 1.147290e-001 -2.206465e-001 1.602064e-001 1.061423e-001 -2.546496e-001 -1.858886e-001 2.521965e-001 2.272610e-001 1.717006e-001 2.198238e-001 3.011101e-002 3.352882e-001 2.117312e-002 -5.887158e-001 -2.913578e-001 2.414361e-001 1.202470e-001 4.136405e-001 2.398497e-001 -4.152448e-001 -7.095361e-001 6.813873e-002
<VARIANCE> 39
 4.764755e-001 6.259379e-001 3.481642e-001 6.618981e-001 4.039458e-001 5.649505e-001 4.703057e-001 9.862323e-001 1.122234e+000 6.415925e-001 7.326515e-001 2.324402e+000 1.062078e-002 1.525940e+000 2.536974e+000 1.259272e+000 2.219645e+000 2.240220e+000 1.252492e+000 8.297991e-001 2.993878e+000 2.668157e+000 2.564816e+000 1.754031e+000 2.722097e+000 1.677086e+000 1.948573e+000 2.592281e+000 1.813686e+000 1.890613e+000 1.264130e+000 9.839601e-001 7.617085e-001 2.362985e+000 3.003844e+000 3.188135e+000 1.287900e+000 3.100003e+000 1.987707e+000
<GCONST> 7.872826e+001
<STATE> 4
<NUMMIXES> 14
<MIXTURE> 1 1.607595e-001
<MEAN> 39
 6.985411e-001 8.004848e-002 -1.976809e-001 3.487940e-002 -3.623506e-001 -2.414655e-001 -5.541674e-001 -3.198776e-001 8.053429e-002 7.275308e-002 -4.592960e-001 -9.177257e-002 -5.911224e-001 7.693804e-010 -2.979457e-010 -3.537536e-010 3.787244e-010 -4.177227e-010 -4.987193e-011 1.133498e-009 -1.916758e-010 4.747797e-010 -2.350705e-010 -6.823762e-010 -3.381667e-010 2.313231e-009 -9.448067e-010 -2.743144e-010 -9.690004e-011 -1.578521e-009 1.021293e-009 -1.928443e-010 -8.338832e-010 -3.647419e-010 -2.545937e-009 -1.530042e-009 2.281490e-009 -9.516237e-010 5.455449e-010
<VARIANCE> 39
 4.790811e-002 3.465568e-002 2.004827e-002 1.000000e-002 2.288530e-002 1.000000e-002 1.064413e-002 1.420772e-002 5.353159e-002 1.000000e-002 8.908877e-002 2.955879e-002 1.000000e-002 1.000000e-002 1.000000e-002 1.000000e-002 1.000000e-002 1.000000e-002 1.000000e-002 1.000000e-002 1.000000e-002 1.000000e-002 1.000000e-002 1.000000e-002 1.000000e-002 1.000000e-002 1.000000e-002 1.000000e-002 1.000000e-002 1.000000e-002 1.000000e-002 1.000000e-002 1.000000e-002 1.000000e-002 1.000000e-002 1.000000e-002 1.000000e-002 1.000000e-002 1.000000e-002
<GCONST> -9.822926e+001
<MIXTURE> 2 8.333334e-002
<MEAN> 39
 -5.597120e-001 -9.770086e-002 -2.181029e-002 3.128326e-001 -1.088459e-001 -3.706556e-001 2.023610e-001 1.938269e-001 2.500017e-001 6.961212e-001 9.847342e-001 6.666148e-001 -6.118733e-001 -7.252631e-002 -1.655292e-001 -1.708733e-001 -2.427032e-001 -2.167131e-001 4.195436e-002 1.527631e-001 1.796520e-001 1.052910e-001 1.253563e-001 1.130867e-001 -7.288810e-003 -1.099338e-001 2.273150e-002 5.034244e-002 1.742255e-001 3.985777e-001 5.619800e-001 4.577585e-001 1.894019e-001 -4.387162e-002 -1.680680e-001 -6.702913e-001 -1.025651e+000 -6.290032e-001 1.199051e-001
<VARIANCE> 39
 1.691116e-001 3.044356e-001 3.545974e-001 1.613577e-001 3.235624e-001 4.608914e-001 4.012602e-001 4.268475e-001 5.327206e-001 4.948312e-001 3.255360e-001 4.168331e-001 8.398852e-002 1.088379e-001 3.375070e-001 4.233984e-001 5.461273e-001 5.369198e-001 6.084611e-001 8.143678e-001 7.269439e-001 8.643308e-001 9.480647e-001 9.109246e-001 7.216431e-001 1.780448e-001 1.857331e-001 3.907251e-001 4.094647e-001 4.284085e-001 5.215034e-001 6.470415e-001 7.334713e-001 6.581346e-001 6.452616e-001 6.846787e-001 5.381545e-001 6.708933e-001 2.944512e-001
<GCONST> 3.838211e+001
<MIXTURE> 3 3.607595e-002
<MEAN> 39
 4.113006e-001 1.198043e-001 2.609611e-002 4.790247e-001 2.324069e-001 2.383737e-001 1.666951e-001 2.976509e-001 2.135850e-001 2.356441e-001 8.556166e-002 2.222597e-001 -6.840937e-001 -1.910241e-003 -1.975795e-003 -6.138662e-004 -1.149044e-003 5.657559e-004 2.827795e-005 1.115476e-003 1.024531e-004 -2.287087e-004 -1.318570e-003 -1.680675e-003 -4.005960e-004 7.805522e-004 -4.522174e-001 -2.688917e-002 -1.412312e-001 -1.306123e-001 -9.843274e-002 -2.260807e-002 -6.011033e-002 -5.815944e-002 -4.805205e-002 -3.427884e-002 -2.905506e-002 -6.411429e-002 3.531035e-001
<VARIANCE> 39
 1.285473e-001 1.926112e-001 2.201479e-001 7.616121e-002 1.706372e-001 1.303842e-001 1.621497e-001 1.003428e-001 1.365898e-001 1.034639e-001 1.612813e-001 1.197865e-001 5.384545e-002 1.000000e-002 1.000000e-002 1.000000e-002 1.000000e-002 1.000000e-002 1.000000e-002 1.000000e-002 1.000000e-002 1.000000e-002 1.000000e-002 1.000000e-002 1.000000e-002 1.000000e-002 5.990073e-001 1.254178e-001 1.704261e-001 1.562052e-001 1.367204e-001 1.599928e-001 1.651238e-001 1.196323e-001 1.162697e-001 9.414801e-002 7.769886e-002 7.744435e-002 3.874515e-001
<GCONST> -3.956585e+001
<MIXTURE> 4 7.215190e-002
<MEAN> 39
 -6.005312e-001 -3.920079e-002 -9.758429e-002 4.070619e-001 5.204707e-001 1.091355e-001 -1.923327e-001 -8.251742e-001 -4.960375e-001 -8.831305e-002 1.950630e-001 3.910507e-001 -6.399333e-001 -4.835810e-002 -2.868799e-002 -1.059303e-001 -8.596151e-002 -3.567766e-002 -3.763000e-002 4.398569e-002 -2.580584e-003 -9.194275e-002 3.307541e-003 9.578931e-002 1.612826e-001 -7.404666e-002 1.525709e-002 -6.622224e-002 -9.870432e-002 -3.121789e-001 -5.109438e-001 -1.470031e-001 5.364995e-001 1.080895e+000 9.811451e-001 3.111332e-001 -2.195366e-001 -4.500169e-001 1.535019e-001
<VARIANCE> 39
 1.812107e-001 3.248383e-001 3.533246e-001 3.530655e-001 3.093115e-001 4.439383e-001 4.267538e-001 5.450208e-001 5.263252e-001 5.238609e-001 4.413034e-001 5.465675e-001 5.936087e-002 1.843120e-001 3.590931e-001 4.683791e-001 6.217363e-001 6.715583e-001 6.261194e-001 9.123672e-001 6.889729e-001 8.820840e-001 7.276019e-001 9.191745e-001 8.550655e-001 1.859561e-001 2.175138e-001 3.293533e-001 4.146134e-001 5.145054e-001 5.126972e-001 5.103216e-001 7.206984e-001 4.118827e-001 6.159071e-001 7.709795e-001 7.325304e-001 8.140149e-001 2.357618e-001
<GCONST> 4.069531e+001
<MIXTURE> 5 6.814346e-002
<MEAN> 39
 -5.579242e-001 -2.317245e-001 -1.090980e-002 6.036251e-001 5.580269e-001 5.316545e-001 8.137240e-001 3.070326e-001 -1.994950e-001 -5.336602e-001 -3.494161e-001 -1.011368e-001 -5.665188e-001 7.938385e-003 -3.735932e-003 7.796055e-002 1.517894e-001 1.620945e-001 9.956997e-002 1.217877e-001 1.433130e-001 1.052003e-001 7.676717e-002 -1.979789e-001 -2.256027e-001 3.948133e-002 7.350449e-002 6.923687e-002 -1.342398e-001 -3.167253e-001 -4.871297e-001 -7.653252e-001 -8.468179e-001 -2.190351e-001 5.593833e-001 7.633251e-001 5.111093e-001 2.370467e-001 4.499961e-002
<VARIANCE> 39
 2.087282e-001 3.670168e-001 3.583517e-001 1.785231e-001 2.159185e-001 3.841905e-001 2.596315e-001 4.632165e-001 4.116923e-001 6.204706e-001 6.155657e-001 6.792832e-001 6.691592e-002 1.489712e-001 4.153295e-001 4.231405e-001 4.694863e-001 5.285218e-001 6.412604e-001 5.477509e-001 5.969800e-001 7.159526e-001 1.057112e+000 7.805368e-001 7.525452e-001 1.425565e-001 2.812975e-001 4.802796e-001 3.932149e-001 5.819907e-001 5.531313e-001 5.181949e-001 4.760688e-001 6.455971e-001 5.063921e-001 7.039847e-001 7.026789e-001 9.482563e-001 2.979711e-001
<GCONST> 3.889905e+001
<MIXTURE> 6 7.278481e-002
<MEAN> 39
 -7.587515e-001 -3.143194e-002 8.257802e-003 2.960994e-001 3.615840e-001 6.187747e-001 9.881977e-001 9.278815e-001 9.706057e-001 6.500168e-001 2.780133e-001 7.874038e-002 -3.807020e-001 -2.221813e-003 -2.780065e-002 4.752075e-002 9.200705e-002 3.515046e-002 1.349257e-002 1.903097e-002 9.510248e-002 4.628186e-002 -9.444933e-002 -1.070681e-001 -5.771136e-002 2.680517e-003 3.487184e-002 -8.414872e-002 -1.501964e-001 -1.918626e-001 -3.286528e-001 -7.283677e-001 -1.060939e+000 -9.504137e-001 -9.029565e-001 -6.980159e-001 -3.509032e-001 -8.314770e-002 -5.657020e-001
<VARIANCE> 39
 1.843679e-001 3.447983e-001 3.409820e-001 3.746547e-001 4.222654e-001 5.832065e-001 4.066211e-001 4.932947e-001 3.100361e-001 4.665003e-001 4.362708e-001 6.870197e-001 5.522030e-002 2.020235e-001 3.947775e-001 5.704597e-001 7.148714e-001 6.818345e-001 7.085065e-001 6.963252e-001 8.914988e-001 9.772018e-001 9.304671e-001 9.796690e-001 9.617511e-001 2.718991e-001 2.944698e-001 4.020881e-001 6.367999e-001 7.173600e-001 7.019873e-001 5.831290e-001 7.100883e-001 4.685331e-001 5.081746e-001 6.739386e-001 7.541159e-001 9.715279e-001 4.216529e-001
<GCONST> 4.457701e+001
<MIXTURE> 7 7.489452e-002
<MEAN> 39
 -8.018134e-001 -3.050532e-001 -2.866560e-001 -6.068173e-002 -3.612493e-001 -6.313772e-001 -2.877766e-001 -3.942302e-001 -2.448216e-001 -4.587823e-001 -4.620846e-001 -4.080829e-001 -7.110085e-001 1.730146e-002 1.002369e-001 1.299568e-001 1.305301e-001 3.460907e-002 -6.274391e-002 -9.258509e-002 -8.590703e-002 -5.644814e-002 -3.696153e-002 -2.043581e-001 -9.719665e-002 -3.113772e-002 1.378321e-001 2.821687e-001 3.356974e-001 5.045536e-001 7.740677e-001 8.420628e-001 7.808694e-001 4.577558e-001 4.702455e-001 5.880857e-001 6.066507e-001 5.287127e-001 5.561975e-001
<VARIANCE> 39
 1.753395e-001 4.240268e-001 3.347563e-001 3.425294e-001 4.420723e-001 3.963362e-001 3.883636e-001 4.590447e-001 4.830403e-001 6.437470e-001 5.175232e-001 6.961940e-001 5.050189e-002 1.337342e-001 3.915094e-001 5.082475e-001 6.192855e-001 8.426511e-001 7.667006e-001 8.719935e-001 7.923865e-001 8.072293e-001 8.085265e-001 8.539352e-001 8.409981e-001 2.336716e-001 2.359296e-001 4.409692e-001 6.015759e-001 5.865282e-001 5.972098e-001 5.169477e-001 5.497552e-001 6.232073e-001 7.156037e-001 7.149004e-001 7.900132e-001 8.885745e-001 3.397433e-001
<GCONST> 4.349300e+001
<MIXTURE> 8 5.654008e-002
<MEAN> 39
 -6.560395e-001 -7.116599e-002 1.430979e-001 5.346482e-001 3.930236e-001 2.265867e-001 5.613866e-001 3.109680e-001 9.992141e-002 -1.773409e-001 -1.818433e-001 -1.835193e-001 -4.729462e-001 6.836190e-003 -1.454111e-002 -1.113619e-001 -1.931534e-001 -3.509509e-001 -7.114621e-001 -9.541800e-001 -9.205624e-001 -7.292038e-001 -4.693192e-001 -2.178725e-001 7.062543e-002 -4.151374e-001 -7.887964e-002 -1.014592e-001 -2.918953e-001 -3.936009e-001 -3.126369e-001 -2.502647e-001 -3.459738e-001 -1.341849e-001 1.244030e-001 2.587083e-001 3.184995e-001 3.763523e-001 -2.183410e-001
<VARIANCE> 39
 1.519519e-001 2.821287e-001 3.157401e-001 2.305240e-001 3.847021e-001 4.268081e-001 2.341483e-001 4.508848e-001 5.612679e-001 5.472358e-001 4.682617e-001 7.602183e-001 6.501286e-002 2.070410e-001 5.109434e-001 4.837053e-001 6.008481e-001 5.586587e-001 5.382453e-001 5.126197e-001 4.221747e-001 7.430317e-001 6.774463e-001 8.331374e-001 9.373816e-001 2.991379e-001 2.039326e-001 4.560236e-001 4.215280e-001 5.252768e-001 4.770469e-001 5.359780e-001 5.942212e-001 6.269177e-001 6.641539e-001 7.664636e-001 8.079039e-001 8.767738e-001 3.010600e-001
<GCONST> 4.009651e+001
<MIXTURE> 9 4.725738e-002
<MEAN> 39
 -7.602048e-001 -2.218410e-001 8.777799e-002 4.903814e-001 4.851635e-001 4.659012e-001 4.087245e-001 -4.897327e-003 -6.656308e-002 1.874469e-001 5.411444e-001 4.446009e-001 -4.447137e-001 2.814252e-001 5.908053e-001 4.722463e-001 4.311911e-001 5.057218e-001 3.919345e-001 2.947826e-001 1.061814e-001 1.542008e-001 7.896826e-002 2.788818e-002 8.339080e-002 5.755717e-001 7.064012e-002 1.585298e-001 -2.013362e-002 -1.751450e-001 -3.256867e-001 -4.855706e-001 -1.802633e-001 1.578000e-001 3.302132e-001 -2.771238e-001 -7.324597e-001 -4.592085e-001 -2.555899e-001
<VARIANCE> 39
 3.163799e-001 7.262711e-001 7.435001e-001 2.863852e-001 3.736254e-001 4.494794e-001 3.561793e-001 4.448902e-001 5.266099e-001 5.749364e-001 6.198123e-001 5.289042e-001 1.347081e-001 6.748492e-001 5.802706e-001 7.351131e-001 7.125681e-001 6.193396e-001 7.044038e-001 9.381698e-001 5.703529e-001 7.100815e-001 7.283301e-001 9.617347e-001 9.202708e-001 3.484480e-001 1.051804e+000 1.387480e+000 1.293302e+000 1.040646e+000 6.198719e-001 6.149128e-001 7.615427e-001 5.104355e-001 7.223771e-001 6.639661e-001 7.403985e-001 6.750785e-001 9.886563e-001
<GCONST> 5.316988e+001
<MIXTURE> 10 6.687764e-002
<MEAN> 39
 -8.829360e-001 -1.291787e-001 -5.791546e-001 -6.391498e-001 -2.516986e-001 3.180138e-001 3.671182e-001 6.865377e-002 3.521736e-001 3.381405e-001 9.573164e-003 -8.699811e-002 -6.010460e-001 2.924949e-002 -3.279550e-002 -4.118087e-002 7.623564e-002 7.449741e-002 1.247110e-001 1.203127e-001 1.031350e-002 6.765745e-002 5.227143e-002 8.332884e-002 -2.550886e-002 4.330689e-002 2.383232e-001 3.563882e-001 7.171596e-001 1.032230e+000 5.344341e-001 -1.053290e-001 -1.948149e-001 -1.466625e-001 -1.951730e-001 -2.636862e-001 -1.796024e-001 -1.847113e-002 4.183469e-001
<VARIANCE> 39
 1.510898e-001 4.640976e-001 1.555120e-001 3.984562e-001 5.311249e-001 5.058036e-001 4.213050e-001 5.507832e-001 4.654329e-001 7.038460e-001 5.017322e-001 9.535702e-001 3.389966e-002 1.726543e-001 2.867368e-001 5.414523e-001 8.327620e-001 8.451097e-001 8.308076e-001 8.957694e-001 8.215591e-001 9.754466e-001 1.279962e+000 1.090920e+000 1.220600e+000 2.293673e-001 2.242710e-001 4.267280e-001 5.877805e-001 5.667678e-001 7.010424e-001 5.766462e-001 7.848397e-001 6.796660e-001 9.377184e-001 9.260607e-001 9.124862e-001 1.313172e+000 3.345608e-001
<GCONST> 4.676415e+001
<MIXTURE> 11 8.691983e-002
<MEAN> 39
 -5.300098e-001 -4.309146e-001 -2.903783e-001 5.283446e-001 3.451350e-001 -4.335579e-002 3.381896e-001 4.930682e-001 6.659662e-001 2.702890e-001 3.740788e-002 3.245467e-002 -6.959098e-001 1.279043e-001 2.365024e-001 2.181611e-001 2.791332e-001 1.737081e-001 3.098400e-002 -8.578059e-002 -6.044712e-002 2.990887e-002 2.736439e-002 -1.423872e-002 -7.517710e-002 1.402380e-001 6.791052e-002 2.921107e-001 2.844141e-001 6.229021e-002 1.625477e-002 9.621204e-002 7.385170e-002 -3.643664e-001 -5.913762e-001 -2.107218e-001 1.209338e-001 1.509342e-001 2.081550e-001
<VARIANCE> 39
 1.548118e-001 2.824885e-001 3.512181e-001 9.482864e-002 2.623939e-001 3.613285e-001 2.347452e-001 4.210560e-001 3.489472e-001 4.513186e-001 3.820074e-001 5.082492e-001 3.581864e-002 1.520556e-001 3.166264e-001 2.923785e-001 3.881065e-001 4.841475e-001 5.096579e-001 5.207546e-001 5.769246e-001 7.997447e-001 7.326822e-001 7.954002e-001 9.292693e-001 8.065122e-002 1.868118e-001 3.572485e-001 2.944900e-001 3.440430e-001 5.260066e-001 4.656040e-001 5.441806e-001 5.192860e-001 6.448027e-001 5.830722e-001 5.513106e-001 7.126999e-001 1.340287e-001
<GCONST> 3.090335e+001
<MIXTURE> 12 7.721519e-002
<MEAN> 39
 -4.649784e-001 2.821004e-001 4.533945e-001 8.114669e-001 4.424514e-001 -1.061371e-001 3.349242e-006 8.245651e-002 4.811518e-001 4.414411e-001 1.670604e-001 1.685550e-001 -4.887402e-001 3.605880e-003 9.232842e-002 4.481628e-002 -4.451621e-002 -7.464094e-002 -5.970215e-002 -4.337777e-003 3.047344e-002 9.226639e-002 -2.099267e-002 -1.114353e-001 -1.197538e-001 -2.058489e-002 -2.347637e-001 -5.417825e-001 -6.377076e-001 -7.240980e-001 -3.054102e-001 2.427000e-001 4.352497e-001 1.695343e-001 -3.783549e-001 -3.304072e-001 2.696226e-002 2.402171e-002 -3.550109e-001
<VARIANCE> 39
 1.714578e-001 2.495993e-001 3.171217e-001 1.283323e-001 3.753979e-001 5.076907e-001 3.281747e-001 3.191765e-001 3.619083e-001 4.370425e-001 5.225884e-001 4.305981e-001 1.165018e-001 1.354130e-001 2.847426e-001 3.956958e-001 5.142037e-001 6.388538e-001 6.935833e-001 7.096142e-001 6.338225e-001 7.172186e-001 6.679653e-001 7.827427e-001 8.639805e-001 1.752253e-001 2.425850e-001 3.129138e-001 3.927699e-001 4.145288e-001 5.712295e-001 5.614611e-001 4.650303e-001 4.568263e-001 5.485777e-001 5.786420e-001 6.528157e-001 7.402148e-001 2.490584e-001
<GCONST> 3.625090e+001
<MIXTURE> 13 3.797468e-002
<MEAN> 39
 -6.543335e-001 -4.085635e-002 -9.906111e-002 2.398712e-001 3.185097e-001 1.589570e-001 2.907037e-001 3.370219e-001 3.987405e-001 -1.624013e-001 -4.576950e-001 -2.659354e-001 -4.864231e-001 -1.008897e-001 -1.468314e-001 -2.770348e-001 -3.438801e-001 -1.289882e-001 1.153245e-001 1.773017e-001 -6.294447e-002 -2.313583e-001 3.289429e-002 1.527912e-001 1.784969e-001 -2.886665e-001 1.876787e-001 -2.556598e-002 3.698920e-002 4.308005e-002 1.023365e-001 1.556831e-001 -1.437065e-001 -3.869056e-001 -2.061609e-001 2.495054e-001 3.898965e-001 2.348801e-001 1.543928e-001
<VARIANCE> 39
 5.286692e-001 6.016046e-001 3.392672e-001 3.106943e-001 3.683121e-001 8.416817e-001 7.960491e-001 8.311820e-001 4.376557e-001 5.985882e-001 6.054730e-001 6.139564e-001 5.296443e-002 3.504272e+000 1.540649e+000 1.118167e+000 9.587554e-001 6.013886e-001 1.249575e+000 1.258628e+000 1.026292e+000 1.071425e+000 9.325056e-001 1.026465e+000 8.370921e-001 7.053565e-001 2.564794e+000 1.132035e+000 8.054062e-001 7.059199e-001 9.380401e-001 1.354502e+000 1.189327e+000 9.212161e-001 6.988910e-001 7.180705e-001 7.227240e-001 7.013659e-001 7.738832e-001
<GCONST> 6.186152e+001
<MIXTURE> 14 5.907173e-002
<MEAN> 39
 -5.937704e-001 6.096929e-002 1.750753e-001 5.609245e-001 2.674309e-001 -3.537028e-001 -6.149528e-003 -5.572306e-002 -2.201397e-001 -5.069763e-001 -6.789542e-001 -3.245456e-001 -5.370721e-001 -8.804352e-002 -1.435130e-001 -2.443118e-001 -2.005759e-001 -1.255740e-001 9.989990e-002 2.861792e-001 3.889765e-001 3.649110e-001 4.230274e-001 5.764484e-001 4.450862e-001 -3.760736e-002 -8.239302e-002 -3.463300e-001 -3.316986e-001 -2.670891e-001 1.040072e-002 4.266063e-001 3.049502e-001 2.229279e-001 3.387240e-001 6.112166e-001 9.009350e-001 3.600126e-001 5.287811e-002
<VARIANCE> 39
 1.738941e-001 3.341323e-001 4.756400e-001 1.559924e-001 2.730227e-001 3.485020e-001 3.522498e-001 4.288969e-001 5.362201e-001 4.039443e-001 5.062388e-001 6.281121e-001 4.559341e-002 1.882983e-001 5.079827e-001 4.058082e-001 5.268075e-001 6.596097e-001 5.631620e-001 6.103532e-001 5.564111e-001 6.701261e-001 7.274536e-001 8.773785e-001 7.963669e-001 2.856333e-001 1.878267e-001 4.466576e-001 5.144023e-001 4.960301e-001 3.816735e-001 3.926522e-001 5.032662e-001 4.823113e-001 6.421231e-001 5.257373e-001 6.578978e-001 7.571806e-001 2.373432e-001
<GCONST> 3.755584e+001
<STATE> 5
<NUMMIXES> 14
<MIXTURE> 1 9.014107e-001
<MEAN> 39
 1.767549e-001 6.499406e-002 -2.983034e-002 2.879027e-001 7.803807e-002 8.478263e-002 1.232522e-001 1.075323e-001 2.606818e-001 8.910485e-002 8.100411e-002 1.249074e-001 -4.566347e-001 -3.639283e-004 -2.283281e-003 -1.828092e-003 -2.264925e-003 -5.970420e-004 3.593810e-004 1.109401e-003 -4.077319e-004 -5.586084e-004 -1.307898e-003 -1.524990e-003 -4.294193e-005 1.173489e-005 1.541598e-003 -4.599534e-004 -6.490049e-004 -8.267073e-004 8.540383e-004 7.713833e-005 -7.837215e-004 -6.217363e-004 -1.363216e-003 -2.902937e-004 5.418854e-004 -3.832718e-004 8.774877e-006
<VARIANCE> 39
 7.103577e-002 1.207449e-001 1.229452e-001 7.027308e-002 9.930031e-002 5.568352e-002 7.689093e-002 9.747064e-002 3.114682e-002 7.677227e-002 8.085310e-002 7.142052e-002 1.677596e-002 1.000000e-002 1.000000e-002 1.000000e-002 1.000000e-002 1.000000e-002 1.000000e-002 1.000000e-002 1.000000e-002 1.000000e-002 1.000000e-002 1.000000e-002 1.000000e-002 1.000000e-002 1.000000e-002 1.000000e-002 1.000000e-002 1.000000e-002 1.000000e-002 1.000000e-002 1.000000e-002 1.000000e-002 1.000000e-002 1.000000e-002 1.000000e-002 1.000000e-002 1.000000e-002
<GCONST> -8.293657e+001
<MIXTURE> 2 8.242194e-003
<MEAN> 39
 -3.695488e-002 3.910474e-001 -3.784043e-002 3.714621e-001 -2.088231e-001 -3.066569e-001 -8.794662e-001 -6.189995e-001 1.617897e-001 6.309040e-001 5.253466e-001 4.983369e-001 -6.602595e-001 5.506613e-002 2.065237e-001 1.253239e-001 1.050788e-001 -1.586304e-002 2.673973e-002 -1.765736e-001 -1.554415e-001 -1.382424e-001 1.518174e-001 -3.510850e-003 -3.366712e-001 2.719414e-002 5.433182e-002 -8.963430e-002 -1.928377e-001 1.151470e-001 4.138485e-001 5.448012e-001 9.129357e-001 5.866397e-001 -2.011949e-001 -9.355393e-001 -5.997353e-001 -3.488959e-001 1.105986e-001
<VARIANCE> 39
 8.642472e-002 1.065015e-001 5.431646e-001 1.967319e-001 3.455566e-001 3.566246e-001 3.830040e-001 2.540027e-001 2.106889e-001 5.887338e-001 3.305839e-001 5.428503e-001 6.157175e-002 7.240911e-002 2.570387e-001 5.511982e-001 3.743202e-001 5.154517e-001 6.587245e-001 8.635970e-001 7.397725e-001 3.368335e-001 6.788598e-001 6.212031e-001 7.911877e-001 8.781233e-002 1.005353e-001 4.528002e-001 6.793484e-001 4.192672e-001 6.775417e-001 7.738378e-001 6.711903e-001 3.838500e-001 4.289607e-001 5.288419e-001 2.874680e-001 8.098807e-001 1.425176e-001
<GCONST> 3.079115e+001
<MIXTURE> 3 5.389126e-003
<MEAN> 39
 -2.092656e-001 9.333203e-002 -1.968884e-001 2.826416e-001 -1.629215e-001 -2.117286e-001 -7.305892e-002 7.543214e-001 1.568046e-001 8.966231e-002 -4.778172e-001 1.526195e-001 -5.606988e-001 3.527545e-002 3.208460e-002 -1.588041e-001 -8.143684e-002 3.212300e-001 3.371809e-001 9.361669e-002 -2.605793e-001 -3.311530e-001 1.868430e-001 3.411257e-001 -1.723912e-001 -5.960651e-003 -1.022874e-001 -1.052206e-002 -2.138656e-002 -4.161341e-002 3.458164e-001 5.376020e-001 4.454313e-002 -9.114792e-001 -3.999085e-001 2.369568e-002 6.275644e-001 1.080358e-001 2.342110e-002
<VARIANCE> 39
 1.249822e-001 2.182993e-001 2.341383e-001 5.948823e-002 4.871452e-001 1.690149e-001 3.456905e-001 1.675732e-001 3.616259e-001 8.587667e-001 4.674113e-001 3.610303e-001 1.000000e-002 7.007213e-002 2.640571e-001 4.067452e-001 2.318613e-001 3.653198e-001 3.293253e-001 5.754634e-001 7.561061e-001 4.499042e-001 6.957045e-001 4.115392e-001 7.053422e-001 1.000000e-002 2.139292e-001 2.972670e-001 3.553655e-001 2.101233e-001 3.641013e-001 4.732733e-001 6.310226e-001 4.127365e-001 3.770178e-001 1.059401e+000 5.566662e-001 3.334716e-001 1.000000e-002
<GCONST> 1.893742e+001
<MIXTURE> 4 6.815660e-003
<MEAN> 39
 -1.845822e-001 9.651379e-002 -1.693490e-001 3.811031e-001 1.658683e-001 -8.480486e-002 -8.648261e-002 -5.306603e-001 -2.312830e-001 5.265212e-001 2.191011e-001 -2.071745e-001 -8.854878e-001 1.370918e-001 1.611987e-001 2.153866e-001 5.090005e-001 2.738810e-001 1.428580e-001 2.208618e-001 9.172314e-002 2.026393e-001 2.128232e-002 2.587431e-002 -1.352601e-001 3.125758e-001 1.809715e-001 3.852951e-001 6.296403e-001 3.780077e-001 1.089184e-001 3.065210e-002 3.152624e-001 5.502573e-001 3.172614e-001 -3.722990e-001 4.466027e-002 5.237002e-001 9.001197e-001
<VARIANCE> 39
 9.996762e-002 2.547399e-001 1.872481e-001 1.458363e-001 2.986688e-001 6.362577e-001 7.263340e-001 3.671985e-001 4.222160e-001 4.160315e-001 3.298307e-001 5.058572e-001 1.055231e-001 6.507380e-002 1.117307e-001 2.557177e-001 2.250461e-001 3.874213e-001 3.593453e-001 2.125859e-001 5.259107e-001 5.773929e-001 1.001249e+000 6.725236e-001 7.642539e-001 1.896411e-001 4.167994e-001 4.301675e-001 2.878201e-001 3.602272e-001 5.904998e-001 8.242658e-001 7.206919e-001 5.135562e-001 7.477898e-001 4.513812e-001 1.055175e+000 7.846274e-001 5.490369e-001
<GCONST> 3.325366e+001
<MIXTURE> 5 6.340149e-003
<MEAN> 39
 -1.536382e-001 8.044381e-002 -2.411332e-001 3.059494e-001 2.893579e-001 2.532890e-001 4.677674e-001 1.054464e+000 8.918323e-001 7.319878e-001 2.835701e-001 -2.982697e-001 -5.981115e-001 -7.847389e-002 -1.976416e-001 -1.733663e-001 -9.089226e-002 -1.152985e-002 1.080585e-001 -3.312769e-002 3.736826e-003 -1.510153e-001 -6.114636e-002 -1.844785e-001 -1.585899e-001 -1.264299e-001 8.132742e-002 1.591359e-002 2.569683e-001 2.164879e-002 -2.184147e-001 -4.342729e-001 -7.830081e-001 -1.255515e+000 -8.606790e-001 -5.511695e-001 -4.371212e-002 6.965936e-001 2.095669e-002
<VARIANCE> 39
 1.249749e-001 1.972785e-001 2.128400e-001 1.918810e-001 2.561180e-001 2.537608e-001 4.383236e-001 5.403358e-001 2.735492e-001 6.175669e-001 4.490272e-001 5.218323e-001 1.524808e-002 9.387407e-002 2.531257e-001 2.935324e-001 5.712030e-001 5.083583e-001 6.261590e-001 9.087824e-001 6.683851e-001 6.509799e-001 6.248637e-001 9.439229e-001 6.542495e-001 5.137051e-002 6.608742e-002 1.775076e-001 4.048102e-001 1.610011e-001 4.462509e-001 3.597310e-001 4.978665e-001 5.597767e-001 2.647149e-001 7.696353e-001 8.155981e-001 6.672085e-001 1.063933e-001
<GCONST> 2.694783e+001
<MIXTURE> 6 6.023142e-003
<MEAN> 39
 -7.421191e-002 7.382092e-003 -2.038298e-001 6.352481e-001 5.487854e-001 3.796979e-001 1.960887e-002 -6.687214e-002 -1.127666e-001 -9.764780e-001 -1.164782e+000 -4.319331e-001 -5.091891e-001 2.177999e-001 1.928172e-001 -3.333817e-001 -3.538100e-001 7.595997e-002 -1.766236e-001 -3.376548e-001 -1.271472e-001 -5.039005e-002 -1.401146e-001 3.069959e-003 1.269450e-002 1.152378e-002 -1.234819e-001 1.830727e-002 -1.112853e-002 -4.726669e-001 -4.990391e-001 -5.090048e-001 5.272740e-002 -8.974243e-002 2.371306e-001 1.185104e+000 1.334169e+000 5.993441e-001 -5.274230e-002
<VARIANCE> 39
 2.595635e-001 3.016537e-001 1.491424e-001 3.216848e-001 3.518897e-001 1.931350e-001 3.846825e-001 4.405240e-001 6.393113e-001 5.444657e-001 6.051447e-001 5.149744e-001 4.591732e-002 1.261049e-001 4.114826e-001 4.668772e-001 3.678568e-001 6.264358e-001 9.267768e-001 3.961399e-001 7.316421e-001 7.640471e-001 7.780930e-001 5.324399e-001 1.196325e+000 1.653955e-001 5.853472e-001 8.342947e-001 3.556894e-001 5.591391e-001 9.443457e-001 7.194057e-001 6.578996e-001 6.214831e-001 1.356009e+000 8.995248e-001 5.100322e-001 9.915025e-001 3.320744e-001
<GCONST> 4.185550e+001
<MIXTURE> 7 7.925186e-003
<MEAN> 39
 8.662889e-002 3.873730e-001 1.477871e-001 8.059936e-001 5.818436e-001 3.940089e-001 2.513109e-001 1.985615e-001 5.023011e-001 5.615667e-001 7.848220e-001 5.525082e-001 -6.795437e-001 7.094559e-002 8.783086e-002 -2.746517e-001 -1.479713e-001 -6.512114e-002 1.781565e-002 -6.167367e-002 1.628270e-001 7.042074e-002 1.075477e-001 -1.280447e-001 2.550732e-002 4.731141e-002 -2.299143e-001 -1.823771e-001 -3.410713e-001 -6.528153e-001 -6.976335e-001 -5.973637e-001 -4.391327e-001 -2.313447e-001 -3.453061e-001 -5.706768e-001 -6.172565e-001 -3.530180e-001 -3.423976e-001
<VARIANCE> 39
 1.844469e-001 1.922132e-001 3.938386e-001 1.534759e-001 3.506920e-001 3.281673e-001 4.916566e-001 2.835835e-001 4.247429e-001 4.867491e-001 3.638681e-001 7.837293e-001 2.463353e-001 7.402492e-002 3.824687e-001 4.720834e-001 6.698326e-001 3.872102e-001 2.627937e-001 5.604672e-001 5.558491e-001 5.391692e-001 9.559309e-001 7.027233e-001 8.024924e-001 9.359013e-002 2.961539e-001 2.758383e-001 5.811095e-001 3.795879e-001 6.122339e-001 3.047667e-001 3.662337e-001 2.148573e-001 3.771743e-001 7.907837e-001 5.751366e-001 9.359627e-001 3.688686e-001
<GCONST> 3.433186e+001
<MIXTURE> 8 6.498653e-003
<MEAN> 39
 -1.821943e-001 3.898879e-001 9.621330e-002 5.998195e-001 -1.190815e-001 -5.756107e-003 -2.114881e-001 -6.066323e-001 -5.126625e-001 -7.928681e-001 7.024565e-002 9.956612e-001 -6.098658e-001 1.142423e-001 1.699323e-001 -2.338715e-002 -1.811014e-001 -1.599253e-001 -9.609003e-002 -1.024556e-001 2.505014e-001 3.439262e-001 1.559203e-001 3.239031e-001 -1.151395e-002 9.620961e-002 -5.851441e-002 -1.936688e-001 -4.320513e-001 -3.637190e-001 2.100758e-002 5.779644e-002 6.452923e-002 5.454095e-001 8.789388e-001 9.287158e-001 -7.712957e-002 -1.058048e+000 -1.448292e-001
<VARIANCE> 39
 1.341152e-001 1.472083e-001 3.521913e-001 1.359967e-001 5.242894e-001 3.443318e-001 2.375663e-001 2.948558e-001 3.927468e-001 3.682744e-001 6.076315e-001 1.868888e-001 1.551522e-002 7.998370e-002 1.229910e-001 2.967034e-001 2.043799e-001 5.907808e-001 2.909724e-001 6.858795e-001 4.588286e-001 6.684867e-001 4.617583e-001 5.471494e-001 5.218196e-001 3.756622e-002 6.946072e-002 1.765835e-001 4.305680e-001 3.710421e-001 6.738296e-001 5.809166e-001 6.016061e-001 8.007144e-001 7.303077e-001 4.281822e-001 6.899193e-001 2.788139e-001 5.896565e-002
<GCONST> 2.247124e+001
<MIXTURE> 9 1.030274e-002
<MEAN> 39
 1.673227e-001 3.151018e-001 -5.944355e-002 6.774121e-001 3.452179e-001 2.316981e-001 -5.505978e-001 -4.727990e-001 2.139042e-001 2.080153e-001 3.925507e-002 -5.119854e-001 -5.835159e-001 2.127040e-001 7.841948e-002 1.442717e-001 4.075526e-001 3.035990e-001 1.081676e-001 6.162013e-002 -1.802070e-001 -4.157148e-001 -6.355926e-001 -3.875277e-001 4.003839e-001 1.630853e-001 -1.531003e-001 -3.029127e-001 -3.975771e-001 -4.826910e-001 -3.637439e-001 -1.517300e-001 3.231127e-001 2.787799e-001 -3.987782e-002 -9.712903e-002 3.252579e-001 7.871757e-001 -1.747887e-001
<VARIANCE> 39
 6.598648e-002 1.731063e-001 1.923511e-001 1.462740e-001 2.625391e-001 2.727177e-001 3.169602e-001 2.420258e-001 2.706918e-001 4.964086e-001 2.647583e-001 6.456072e-001 2.428714e-002 9.703851e-002 2.828992e-001 6.882933e-001 5.503512e-001 7.116843e-001 6.531309e-001 5.766748e-001 3.957919e-001 4.469825e-001 6.005632e-001 7.376527e-001 1.088001e+000 1.650433e-001 8.107378e-002 2.527719e-001 3.390085e-001 4.045943e-001 5.549732e-001 4.828703e-001 4.369374e-001 4.198088e-001 5.749577e-001 4.355276e-001 3.994552e-001 7.952542e-001 8.376854e-002
<GCONST> 2.689431e+001
<MIXTURE> 10 9.985735e-003
<MEAN> 39
 -3.262447e-003 3.731427e-002 -4.521959e-001 -7.813387e-003 -5.223824e-001 -5.539452e-002 4.576168e-003 3.608071e-002 1.193916e-001 2.188223e-001 6.690881e-001 9.761410e-001 -6.681132e-001 -6.712802e-002 1.437947e-001 9.096205e-002 -2.317175e-001 -2.269603e-001 4.941597e-002 4.139845e-002 -2.082636e-001 -2.425298e-001 -2.609954e-001 -1.114996e-001 -3.990012e-002 -7.247709e-002 -2.215823e-002 1.357321e-001 3.348469e-001 6.755943e-001 7.668873e-001 2.841566e-001 -3.760043e-001 -3.691174e-001 7.291893e-002 -1.846173e-002 -6.042210e-001 -7.771510e-001 6.766032e-002
<VARIANCE> 39
 7.425317e-002 1.422957e-001 1.984934e-001 1.298242e-001 3.582212e-001 3.843971e-001 3.392838e-001 3.457044e-001 6.849283e-001 5.201923e-001 3.449797e-001 4.025745e-001 1.721272e-002 7.105301e-002 1.638703e-001 2.505525e-001 5.140014e-001 9.309174e-001 5.640298e-001 4.918554e-001 5.365072e-001 4.549511e-001 7.892048e-001 7.526771e-001 7.538846e-001 9.235901e-002 1.462464e-001 2.227256e-001 1.904718e-001 4.975567e-001 4.365152e-001 5.360721e-001 4.896131e-001 5.445376e-001 5.501751e-001 4.464681e-001 3.237319e-001 4.144785e-001 8.040050e-002
<GCONST> 2.533422e+001
<MIXTURE> 11 6.498653e-003
<MEAN> 39
 -1.122460e-001 2.830805e-001 -4.451777e-002 9.422959e-002 1.811708e-001 6.614354e-001 6.451899e-001 -1.917695e-002 8.030855e-002 3.373897e-002 2.959221e-001 -4.530137e-002 -6.508227e-001 -1.190676e-001 -6.798079e-002 -2.248661e-001 -1.322671e-002 2.529047e-001 -6.932282e-002 -2.672237e-001 6.052499e-002 2.087287e-001 1.501264e-001 -1.242578e-001 -1.788096e-001 -1.109639e-001 6.214858e-002 -2.005994e-001 4.916301e-002 3.789279e-001 -1.432741e-001 -5.143131e-001 -7.714764e-001 3.277220e-002 3.122584e-001 3.050474e-002 -3.279631e-001 -3.539655e-003 6.046201e-002
<VARIANCE> 39
 1.593856e-001 1.250878e-001 1.403236e-001 4.293410e-001 2.834538e-001 1.728085e-001 3.372517e-001 3.042784e-001 2.364058e-001 3.735365e-001 4.245692e-001 4.185723e-001 2.260124e-002 8.385834e-002 2.588734e-001 3.459089e-001 5.317176e-001 8.515074e-001 2.966206e-001 8.099295e-001 9.541116e-001 6.173939e-001 6.482313e-001 6.291538e-001 5.776418e-001 5.775592e-002 8.661027e-002 1.990892e-001 2.328202e-001 3.912814e-001 3.459795e-001 4.222887e-001 4.244066e-001 4.594505e-001 1.981550e-001 8.433842e-001 4.857816e-001 7.661414e-001 9.418365e-002
<GCONST> 2.462455e+001
<MIXTURE> 12 9.668727e-003
<MEAN> 39
 -3.359288e-002 5.552933e-002 -5.401958e-001 2.599728e-001 -4.998561e-001 -3.766519e-001 -6.652166e-001 -5.332905e-001 -2.207622e-001 -4.049563e-001 -9.072060e-002 -7.085993e-002 -7.529099e-001 -6.849390e-002 -2.238417e-001 -1.538838e-001 -1.222774e-001 -1.554088e-001 -4.092134e-001 -3.617983e-001 -3.972651e-001 -3.629977e-001 -2.447433e-001 -3.808051e-001 -3.524420e-001 -8.313735e-002 6.696418e-002 1.532364e-001 4.432948e-001 4.081876e-001 6.421595e-001 5.560290e-001 7.374458e-001 4.421401e-001 2.765173e-001 4.656347e-001 6.235551e-001 3.031454e-001 2.395450e-001
<VARIANCE> 39
 7.666204e-002 8.955568e-002 2.931716e-001 1.305057e-001 4.388618e-001 3.350706e-001 2.578853e-001 4.350622e-001 3.477997e-001 3.223434e-001 3.711373e-001 4.688385e-001 4.007309e-002 8.207312e-002 1.839246e-001 3.837120e-001 4.175323e-001 4.606250e-001 4.245296e-001 6.290258e-001 6.604531e-001 4.342652e-001 8.631524e-001 5.205737e-001 8.529621e-001 8.917886e-002 8.908690e-002 9.778143e-002 3.021570e-001 3.612590e-001 4.843591e-001 5.547346e-001 3.492315e-001 6.547603e-001 4.114795e-001 7.056458e-001 5.130517e-001 5.237667e-001 1.517667e-001
<GCONST> 2.524494e+001
<MIXTURE> 13 6.657157e-003
<MEAN> 39
 -1.850933e-001 -1.326192e-001 -4.538243e-001 2.672691e-001 5.436450e-001 3.858447e-001 -4.502122e-001 -4.803638e-001 3.761830e-001 5.365995e-001 2.183127e-001 3.092107e-002 -6.272584e-001 -2.902165e-002 -1.141210e-001 1.138128e-001 -2.534917e-001 -4.515894e-001 -3.154643e-001 -2.459030e-001 -1.437392e-002 -1.216379e-002 5.292943e-001 6.246453e-001 4.567912e-001 2.555949e-002 2.837152e-001 2.238443e-001 3.022035e-001 -1.887983e-001 -6.360685e-001 -1.290740e-001 3.353473e-001 5.598327e-001 -8.197958e-002 -4.441645e-001 4.021493e-003 2.542435e-001 8.546463e-002
<VARIANCE> 39
 1.218103e-001 1.276686e-001 1.435908e-001 3.771434e-001 2.704064e-001 2.958031e-001 3.454615e-001 2.928633e-001 4.376178e-001 5.130016e-001 2.944563e-001 7.327006e-001 1.000000e-002 1.499272e-001 1.837375e-001 2.723998e-001 6.557912e-001 5.574896e-001 6.628638e-001 3.645638e-001 5.950938e-001 4.201350e-001 8.226035e-001 4.667718e-001 7.675015e-001 2.690696e-002 4.094321e-001 3.487411e-001 3.165250e-001 8.782167e-001 5.857572e-001 7.568460e-001 4.512339e-001 6.292883e-001 4.416203e-001 8.951577e-001 6.641541e-001 6.193253e-001 7.442597e-002
<GCONST> 2.889258e+001
<MIXTURE> 14 8.242194e-003
<MEAN> 39
 -8.374526e-002 3.781236e-001 1.553259e-001 6.211314e-001 -1.941734e-001 -5.696896e-001 -5.912362e-002 7.083554e-001 4.592455e-001 -2.032091e-001 2.984018e-001 1.930631e-001 -6.552263e-001 8.638114e-003 1.049079e-001 8.890038e-002 1.251364e-001 -6.690302e-002 1.192256e-001 5.102120e-001 8.962407e-001 8.781368e-001 5.159402e-001 3.063087e-001 -3.103597e-002 1.116466e-001 -3.665258e-002 2.266225e-002 -1.171798e-001 -1.272549e-001 4.940259e-001 8.027458e-001 1.897887e-001 -7.429077e-001 -5.566785e-001 3.148745e-001 -3.152503e-001 -1.100942e-001 2.495942e-001
<VARIANCE> 39
 1.853074e-001 2.037475e-001 3.671605e-001 2.198659e-001 3.111899e-001 2.353975e-001 5.987691e-001 4.952307e-001 4.731585e-001 3.745357e-001 3.157081e-001 5.572520e-001 7.782532e-002 1.034780e-001 2.447525e-001 4.256666e-001 3.888411e-001 3.653872e-001 7.323764e-001 6.744835e-001 3.629037e-001 6.230352e-001 6.893325e-001 6.957471e-001 6.983042e-001 1.988303e-001 1.618116e-001 4.499213e-001 3.752445e-001 3.696908e-001 3.343060e-001 3.816999e-001 7.978515e-001 3.445108e-001 7.848302e-001 5.334017e-001 4.700740e-001 6.028199e-001 2.237558e-001
<GCONST> 3.307596e+001
<STATE> 6
<NUMMIXES> 14
<MIXTURE> 1 1.876044e-001
<MEAN> 39
 4.238079e-001 2.025502e-001 3.246094e-001 7.270722e-001 3.201649e-001 9.714309e-002 4.469778e-001 3.124941e-001 3.968269e-001 3.735114e-001 2.455716e-001 5.136304e-001 -8.770645e-001 -2.458865e-003 -7.759678e-004 -1.030244e-003 -1.012057e-003 8.033181e-005 4.298034e-004 1.891152e-004 -2.641360e-004 6.927818e-005 2.369219e-004 -5.070601e-004 -2.777779e-004 1.101396e-004 4.063934e-004 -1.516155e-004 -5.659236e-005 -7.280265e-004 -5.991727e-004 -3.783782e-004 1.656231e-004 -2.711533e-004 -1.030780e-003 -3.939969e-004 8.455715e-004 6.415614e-004 3.313237e-004
<VARIANCE> 39
 1.722175e-001 3.032324e-001 2.094757e-001 4.585703e-002 2.812890e-001 2.279627e-001 1.087993e-001 7.571103e-002 1.513902e-001 9.368715e-002 2.162653e-001 8.946887e-002 5.115265e-002 1.000000e-002 1.000000e-002 1.000000e-002 1.000000e-002 1.000000e-002 1.000000e-002 1.000000e-002 1.000000e-002 1.000000e-002 1.000000e-002 1.000000e-002 1.000000e-002 1.000000e-002 1.000000e-002 1.000000e-002 1.000000e-002 1.000000e-002 1.000000e-002 1.000000e-002 1.000000e-002 1.000000e-002 1.000000e-002 1.000000e-002 1.000000e-002 1.000000e-002 1.000000e-002
<GCONST> -7.437463e+001
<MIXTURE> 2 7.236964e-002
<MEAN> 39
 2.551318e-001 6.346784e-001 2.442362e-001 4.735068e-001 3.153567e-001 1.450067e-001 2.705381e-001 3.475554e-001 2.410850e-001 1.218178e-001 1.384690e-001 2.381721e-001 -2.338197e-001 2.432526e-001 3.751242e-001 4.273109e-001 3.935025e-001 5.840625e-001 5.908982e-001 4.146180e-001 4.624629e-001 3.514538e-001 3.459282e-001 2.806831e-001 1.970402e-001 8.372921e-001 -2.025705e-001 -4.508798e-001 -4.097323e-001 -1.293719e-001 1.064118e-001 1.043455e-001 -2.092373e-001 -3.979283e-001 -2.413609e-001 6.192669e-003 5.013976e-003 -8.915132e-002 -3.100733e-001
<VARIANCE> 39
 9.980223e-002 1.715043e-001 3.953618e-001 2.103490e-001 3.086132e-001 3.703125e-001 3.992785e-001 5.393864e-001 4.440964e-001 4.233633e-001 5.222780e-001 5.044201e-001 1.204694e-001 1.539132e-001 3.288083e-001 4.009817e-001 5.443324e-001 6.598674e-001 5.467749e-001 6.469568e-001 8.369462e-001 6.950631e-001 6.421120e-001 7.113587e-001 7.891419e-001 2.536419e-001 2.127784e-001 3.813812e-001 5.392674e-001 5.845801e-001 6.487241e-001 4.554684e-001 5.615429e-001 5.499122e-001 6.391711e-001 6.158686e-001 6.603026e-001 7.333620e-001 3.357198e-001
<GCONST> 3.859294e+001
<MIXTURE> 3 5.418445e-002
<MEAN> 39
 8.975907e-002 3.631334e-001 -2.330886e-001 5.107808e-001 3.507299e-001 2.243415e-001 2.164972e-001 3.659817e-001 1.890703e-001 -1.212396e-001 1.680282e-001 2.239269e-001 -5.393436e-001 8.960219e-003 6.963407e-002 -3.043181e-002 4.487886e-002 2.042764e-001 1.374077e-001 -5.198237e-002 -9.962487e-002 2.409503e-002 4.033586e-002 -4.451445e-002 -3.485576e-002 -6.304597e-003 1.206602e-001 1.962370e-001 1.784794e-001 -6.783641e-002 1.358838e-002 4.141528e-002 -1.197416e-001 -3.020474e-001 -1.078643e-002 2.586395e-001 2.439554e-002 -1.863964e-001 3.083740e-001
<VARIANCE> 39
 1.049991e-001 1.605556e-001 2.317556e-001 1.436436e-001 1.848183e-001 2.137017e-001 3.864742e-001 3.089955e-001 2.660126e-001 3.039407e-001 2.471019e-001 5.137946e-001 5.908880e-002 9.068196e-002 2.013232e-001 2.586405e-001 2.751544e-001 4.667784e-001 4.694355e-001 6.740518e-001 5.208465e-001 4.388182e-001 5.811723e-001 6.278296e-001 6.556415e-001 1.514754e-001 1.284677e-001 3.204032e-001 3.795446e-001 2.651298e-001 4.465771e-001 3.404860e-001 4.632950e-001 4.509232e-001 3.740377e-001 4.536676e-001 3.658048e-001 6.341495e-001 2.293247e-001
<GCONST> 2.443171e+001
<MIXTURE> 4 7.181295e-002
<MEAN> 39
 1.401399e-001 4.231964e-001 1.902021e-001 7.345162e-001 9.612464e-001 9.391121e-001 3.627842e-001 -4.381443e-001 -6.376878e-001 -4.111834e-001 -1.259882e-001 5.206697e-002 -2.435518e-001 -1.258349e-002 -4.872705e-002 1.223728e-002 1.149321e-001 6.611308e-002 5.204331e-002 1.059144e-001 3.702581e-002 -5.315085e-003 1.014706e-001 7.887076e-002 -3.907995e-002 9.695265e-002 4.229937e-002 -5.635428e-002 -3.082691e-001 -5.262564e-001 -8.361190e-001 -8.502831e-001 -2.183046e-001 5.016420e-001 7.653140e-001 5.000008e-001 2.683962e-001 3.700558e-002 -2.190909e-001
<VARIANCE> 39
 1.071615e-001 1.790507e-001 3.080191e-001 2.121928e-001 2.673000e-001 2.338431e-001 3.731083e-001 4.205287e-001 4.720103e-001 6.298089e-001 6.957129e-001 6.257000e-001 1.009599e-001 1.534091e-001 4.731655e-001 5.107094e-001 5.782725e-001 5.741364e-001 7.257339e-001 6.420825e-001 8.605481e-001 8.898534e-001 8.944686e-001 7.326085e-001 6.943579e-001 2.535324e-001 2.302121e-001 4.745900e-001 4.375858e-001 6.016457e-001 5.334260e-001 4.513736e-001 6.284467e-001 5.222486e-001 5.848496e-001 7.098156e-001 8.611508e-001 8.195103e-001 4.188683e-001
<GCONST> 4.026117e+001
<MIXTURE> 5 5.437001e-002
<MEAN> 39
 -3.123926e-003 1.917791e-001 -1.229912e-001 4.342801e-001 6.569238e-001 8.414342e-001 8.354805e-001 8.068866e-001 4.620266e-001 -2.822345e-001 -6.563491e-001 -3.643705e-001 -2.857751e-001 5.661214e-002 2.185357e-001 9.739955e-002 -4.737341e-002 -2.447266e-001 -2.188016e-001 -4.697767e-002 8.495177e-002 1.607069e-001 1.447569e-002 2.136651e-002 -9.596372e-002 7.037414e-003 1.009246e-001 1.521432e-001 9.534000e-002 -1.318398e-001 -4.256164e-001 -6.574569e-001 -8.237612e-001 -8.788378e-001 -3.665082e-001 4.253769e-001 8.266863e-001 5.243192e-001 -6.526914e-002
<VARIANCE> 39
 1.218915e-001 3.296576e-001 5.163337e-001 2.494202e-001 3.243638e-001 5.949111e-001 3.929947e-001 4.133103e-001 3.551485e-001 6.175554e-001 5.580068e-001 5.870646e-001 1.284442e-001 2.604832e-001 5.423285e-001 8.142936e-001 7.727810e-001 5.087678e-001 8.093714e-001 8.550133e-001 8.666533e-001 8.239725e-001 7.272799e-001 9.145461e-001 7.569600e-001 4.255586e-001 3.793100e-001 4.897146e-001 7.827895e-001 7.136989e-001 6.463470e-001 6.876203e-001 6.754067e-001 6.466343e-001 5.938470e-001 7.102497e-001 6.144003e-001 6.627029e-001 5.104108e-001
<GCONST> 4.658431e+001
<MIXTURE> 6 6.086472e-002
<MEAN> 39
 6.764527e-002 2.724328e-001 1.711509e-001 6.817315e-001 5.123175e-001 6.716317e-002 -2.622304e-001 -2.854080e-001 1.104380e-001 3.937544e-001 8.638484e-001 1.037346e+000 -2.591359e-001 5.515254e-002 -4.974038e-002 -1.416872e-001 -1.201012e-001 -6.378444e-002 1.925133e-003 -8.594207e-002 -1.803526e-001 -9.011234e-002 -5.942096e-002 -6.379635e-002 -5.030962e-003 -9.508180e-002 9.375206e-002 -4.420622e-002 -3.082590e-001 -6.265267e-001 -2.762383e-001 2.626166e-001 5.996203e-001 4.415807e-001 -4.402427e-002 -4.278610e-001 -9.800134e-001 -1.083928e+000 -2.003593e-001
<VARIANCE> 39
 1.491194e-001 4.050860e-001 4.423859e-001 2.913909e-001 3.501873e-001 4.582649e-001 4.846913e-001 5.781090e-001 4.644059e-001 5.933054e-001 4.235886e-001 5.157431e-001 1.467308e-001 2.377827e-001 5.501247e-001 5.382391e-001 6.846211e-001 6.563746e-001 7.622992e-001 6.609916e-001 8.135130e-001 9.039679e-001 7.933720e-001 8.768607e-001 9.657645e-001 3.364836e-001 3.347580e-001 8.395811e-001 6.664839e-001 6.959836e-001 5.949063e-001 6.948553e-001 5.782008e-001 6.472464e-001 6.569678e-001 8.163927e-001 6.495900e-001 6.633403e-001 4.839507e-001
<GCONST> 4.696336e+001
<MIXTURE> 7 4.249397e-002
<MEAN> 39
 -1.221387e-001 -1.758695e-001 -5.382628e-001 -3.320611e-002 -2.993387e-001 -5.639760e-001 -4.663603e-001 -5.639975e-001 -2.839549e-001 -1.912324e-001 -2.333009e-001 -3.143870e-001 -8.564655e-001 6.226927e-002 1.960276e-001 1.057940e-001 -8.432560e-004 -5.162719e-002 -6.271844e-002 -1.965619e-002 -1.939322e-002 -5.566026e-002 6.896859e-002 8.066156e-002 5.115119e-002 3.762986e-002 3.951991e-001 6.240712e-001 8.831793e-001 8.190840e-001 1.022951e+000 9.839600e-001 7.957051e-001 6.765135e-001 5.389082e-001 4.724922e-001 5.172922e-001 4.617492e-001 1.412915e+000
<VARIANCE> 39
 1.544304e-001 5.111541e-001 3.840513e-001 4.079484e-001 4.389285e-001 5.484934e-001 5.662789e-001 8.192159e-001 7.050240e-001 6.229818e-001 6.064597e-001 6.756291e-001 2.024277e-001 3.272837e-001 8.034562e-001 7.906685e-001 7.963920e-001 7.854379e-001 8.918211e-001 9.077455e-001 9.171833e-001 8.634023e-001 8.938374e-001 1.043081e+000 9.355389e-001 6.025683e-001 3.703560e-001 9.326664e-001 6.798677e-001 7.964792e-001 7.861720e-001 6.153423e-001 8.026737e-001 9.616765e-001 8.290589e-001 8.894761e-001 7.658384e-001 1.043903e+000 8.638042e-001
<GCONST> 5.531616e+001
<MIXTURE> 8 6.476155e-002
<MEAN> 39
 6.544846e-002 1.031198e-002 -4.757589e-001 -1.985510e-002 2.822366e-001 6.429299e-001 5.932904e-001 4.121339e-001 5.775320e-001 8.052275e-001 7.935750e-001 5.890186e-001 -3.245858e-001 -1.874083e-002 -3.346910e-002 1.246609e-001 7.159425e-002 3.902002e-002 8.069313e-003 2.357284e-002 9.398337e-002 4.985374e-002 1.805385e-002 5.209399e-002 9.298685e-002 6.160985e-002 2.018919e-001 4.355448e-001 5.896437e-001 6.716421e-001 2.978090e-001 -3.019207e-001 -3.791834e-001 -4.176032e-001 -6.407341e-001 -8.683416e-001 -7.918456e-001 -4.936776e-001 1.323814e-001
<VARIANCE> 39
 1.362803e-001 3.653146e-001 3.579482e-001 2.631611e-001 2.318358e-001 4.693400e-001 3.047755e-001 5.411737e-001 5.454038e-001 4.659832e-001 4.398878e-001 6.096465e-001 1.272343e-001 1.885458e-001 4.346487e-001 5.570837e-001 7.422748e-001 6.711486e-001 6.332183e-001 6.406274e-001 6.615179e-001 8.574434e-001 9.521056e-001 9.504837e-001 9.344554e-001 3.551159e-001 4.424903e-001 6.109467e-001 5.333799e-001 5.881531e-001 5.132625e-001 6.457453e-001 5.922861e-001 7.623761e-001 6.839472e-001 6.315781e-001 6.653146e-001 7.612582e-001 4.830581e-001
<GCONST> 4.447700e+001
<MIXTURE> 9 6.494711e-002
<MEAN> 39
 1.824404e-001 5.306556e-001 1.476887e-001 6.233478e-001 7.537401e-001 7.030592e-001 6.971924e-001 7.770815e-001 7.094801e-001 5.840831e-001 4.598177e-001 3.493574e-001 1.318854e-001 -9.336188e-003 -1.395637e-001 -1.903808e-001 -1.710661e-001 3.800066e-002 1.932390e-002 -1.577677e-002 -3.199106e-002 9.837091e-003 3.558521e-002 8.358154e-002 1.020344e-002 -4.650768e-002 -2.314675e-001 -4.505030e-001 -4.637640e-001 -5.138343e-001 -6.893263e-001 -6.010279e-001 -5.789856e-001 -8.082435e-001 -7.573139e-001 -6.726997e-001 -4.951780e-001 -2.562909e-001 -1.194776e+000
<VARIANCE> 39
 1.737294e-001 4.237124e-001 4.156400e-001 4.136029e-001 3.369482e-001 5.284859e-001 3.395237e-001 5.303717e-001 5.062279e-001 5.819634e-001 4.843332e-001 4.886004e-001 2.037908e-001 2.211951e-001 5.762395e-001 5.127882e-001 6.853974e-001 7.534172e-001 8.217502e-001 7.477553e-001 9.252050e-001 9.611627e-001 9.417808e-001 8.765448e-001 8.241563e-001 5.821661e-001 3.268489e-001 6.654417e-001 6.324330e-001 7.861251e-001 8.210037e-001 7.838876e-001 5.732077e-001 8.069090e-001 7.623121e-001 7.112653e-001 6.295209e-001 5.887814e-001 4.259521e-001
<GCONST> 4.880013e+001
<MIXTURE> 10 7.645203e-002
<MEAN> 39
 2.880494e-001 5.811842e-001 8.254830e-002 5.977147e-001 5.370941e-001 3.481413e-001 1.056353e-001 8.341295e-002 2.574605e-001 2.067999e-001 -8.478643e-002 -1.956002e-001 -1.880196e-001 -5.989306e-002 -1.313967e-001 -1.393377e-001 -1.322694e-001 -1.540670e-001 -2.130774e-001 -2.169122e-001 -3.264248e-001 -3.984275e-001 -3.890859e-001 -3.395805e-001 -2.017354e-001 -3.388556e-001 -1.905677e-001 -3.126658e-001 -1.961219e-001 -3.166007e-001 -2.578473e-001 -2.080399e-001 -3.043754e-002 -1.064545e-001 -3.258704e-001 -2.658001e-001 1.386204e-001 3.473340e-001 -4.165430e-001
<VARIANCE> 39
 1.159403e-001 1.467358e-001 2.936365e-001 1.672038e-001 1.628986e-001 3.012356e-001 3.589765e-001 4.328616e-001 3.346438e-001 4.235558e-001 3.991262e-001 5.259452e-001 7.116996e-002 1.234653e-001 3.117062e-001 5.128438e-001 5.491320e-001 5.245618e-001 6.015362e-001 4.997930e-001 7.298603e-001 6.305073e-001 6.732157e-001 7.445316e-001 6.441845e-001 2.992495e-001 1.558936e-001 3.214291e-001 5.228822e-001 5.110675e-001 4.255496e-001 4.436743e-001 4.747113e-001 5.956093e-001 4.411443e-001 5.866290e-001 4.904654e-001 6.335733e-001 2.069000e-001
<GCONST> 3.273135e+001
<MIXTURE> 11 6.865838e-002
<MEAN> 39
 3.199644e-001 6.504385e-001 1.106054e-001 3.764201e-001 2.687189e-001 -2.481301e-001 -6.017900e-001 -8.269362e-001 -7.709923e-001 -2.665651e-001 1.081655e-001 7.349994e-002 -2.906379e-001 3.054871e-002 4.269520e-002 -7.865408e-002 -9.565935e-002 -1.140781e-001 -3.746045e-002 8.203080e-002 8.581530e-002 -1.710751e-002 2.004219e-002 7.377589e-002 6.882947e-002 -4.984621e-002 -2.780448e-001 -3.822902e-001 -1.846890e-001 1.556700e-002 1.896971e-001 4.832157e-001 6.623414e-001 7.390455e-001 6.178482e-001 2.052580e-001 -1.813079e-002 8.331714e-002 3.644387e-002
<VARIANCE> 39
 1.215582e-001 1.279906e-001 3.891346e-001 1.714031e-001 2.539263e-001 3.804832e-001 5.168926e-001 3.574758e-001 3.925150e-001 4.704714e-001 5.353621e-001 5.983467e-001 7.249998e-002 2.091314e-001 4.611878e-001 5.485141e-001 7.155087e-001 7.116377e-001 7.257535e-001 7.130613e-001 7.306100e-001 7.378631e-001 7.788553e-001 9.136468e-001 1.108573e+000 2.719696e-001 2.408195e-001 4.375634e-001 4.329299e-001 5.233997e-001 5.633777e-001 4.849738e-001 6.838766e-001 4.970634e-001 4.775892e-001 5.691114e-001 5.880679e-001 6.751912e-001 2.941654e-001
<GCONST> 3.933770e+001
<MIXTURE> 12 6.327704e-002
<MEAN> 39
 7.164524e-002 1.260712e-001 -5.557001e-001 1.022617e-002 3.269359e-001 3.665308e-001 3.579250e-001 -2.834218e-001 -5.296528e-001 -2.431429e-001 -8.768712e-002 -3.908312e-002 -6.000541e-001 -1.347574e-001 -2.620210e-001 -1.565063e-001 -2.255451e-001 -2.279562e-001 -1.484688e-001 -2.216709e-001 -1.626190e-001 -2.681283e-001 -1.958837e-001 -1.530405e-001 -1.696272e-001 -4.197290e-001 1.657581e-001 3.756927e-001 7.286280e-001 7.197300e-001 2.038323e-001 -4.227537e-002 -1.876664e-001 4.231239e-001 7.363929e-001 3.999303e-001 1.033659e-001 9.771407e-002 7.767850e-001
<VARIANCE> 39
 1.159797e-001 1.991907e-001 2.745158e-001 2.509553e-001 2.582418e-001 3.344541e-001 4.075554e-001 5.000306e-001 4.753190e-001 5.518058e-001 5.366820e-001 6.030811e-001 6.775351e-002 2.341384e-001 4.093122e-001 4.926217e-001 7.019821e-001 7.287219e-001 9.408253e-001 8.122914e-001 9.914908e-001 7.875655e-001 7.684074e-001 5.922676e-001 7.401812e-001 3.832791e-001 3.062365e-001 5.297043e-001 3.728032e-001 5.489381e-001 5.997300e-001 5.140609e-001 7.767301e-001 5.741075e-001 5.779430e-001 8.426539e-001 7.602568e-001 6.907400e-001 3.037910e-001
<GCONST> 4.180474e+001
<MIXTURE> 13 5.938022e-002
<MEAN> 39
 8.712485e-002 3.646568e-001 -6.071408e-002 2.721959e-001 -1.246903e-001 -4.731576e-001 -1.136955e-001 3.336646e-001 5.663945e-001 3.597739e-001 2.499756e-002 -6.945074e-002 -4.874757e-001 -1.292731e-002 -1.426752e-001 -2.203894e-001 -2.214319e-001 -3.045236e-001 -2.096615e-001 -1.757273e-001 -2.537951e-001 -8.544132e-002 -1.550792e-001 -1.228320e-001 3.101957e-002 -3.028478e-001 1.046975e-001 5.838415e-002 1.742471e-002 2.199796e-001 7.470504e-001 9.222305e-001 3.721570e-001 -4.349577e-001 -6.844450e-001 -3.941778e-001 1.274965e-001 2.436851e-001 3.152931e-001
<VARIANCE> 39
 1.247216e-001 1.599524e-001 3.601044e-001 1.645165e-001 2.561049e-001 2.626489e-001 3.512323e-001 4.965953e-001 5.359746e-001 5.660577e-001 4.119364e-001 3.912763e-001 8.292526e-002 1.359146e-001 4.287853e-001 4.048173e-001 6.196184e-001 7.807705e-001 7.172882e-001 7.713725e-001 9.452105e-001 8.415504e-001 8.323360e-001 7.970796e-001 7.303038e-001 3.828885e-001 1.511162e-001 4.041227e-001 3.904217e-001 4.584984e-001 5.588355e-001 4.560716e-001 4.837767e-001 6.111293e-001 6.194509e-001 8.726212e-001 7.853600e-001 5.707279e-001 3.108103e-001
<GCONST> 3.831723e+001
<MIXTURE> 14 5.882353e-002
<MEAN> 39
 3.171186e-002 2.477724e-001 -7.329678e-002 3.914406e-001 1.915676e-001 -9.962171e-002 -1.031124e-001 -2.644151e-001 -2.125599e-001 -2.527556e-001 -3.248598e-001 -1.654432e-001 -6.861039e-001 1.177655e-001 2.835588e-001 4.490810e-001 4.400736e-001 3.991888e-001 3.889266e-001 4.431611e-001 4.190848e-001 2.942089e-001 2.648016e-001 2.559090e-001 3.680855e-001 5.095555e-001 1.964685e-001 2.108706e-001 1.934689e-001 1.599090e-001 3.247039e-001 4.021851e-001 3.627378e-001 5.438437e-001 4.418483e-001 4.222500e-001 5.401024e-001 3.518544e-001 8.285156e-001
<VARIANCE> 39
 1.117900e-001 1.685672e-001 2.450970e-001 2.153790e-001 2.626026e-001 3.742980e-001 3.442791e-001 4.412212e-001 5.072962e-001 6.588045e-001 4.524356e-001 5.738170e-001 7.076583e-002 8.359154e-002 4.215766e-001 4.244081e-001 5.694071e-001 5.842370e-001 6.564598e-001 6.277521e-001 7.397063e-001 8.641130e-001 1.091678e+000 8.433453e-001 8.961998e-001 3.062802e-001 1.612225e-001 4.800988e-001 3.408079e-001 5.789176e-001 6.198804e-001 6.434190e-001 5.626628e-001 5.292428e-001 5.662610e-001 7.680315e-001 7.175695e-001 9.358152e-001 2.721695e-001
<GCONST> 3.860963e+001
<STATE> 7
<NUMMIXES> 14
<MIXTURE> 1 8.656036e-002
<MEAN> 39
 3.854989e-001 1.364827e-001 4.190423e-002 4.816218e-001 2.324121e-001 2.577382e-001 1.593448e-001 3.120219e-001 1.676558e-001 2.241028e-001 1.011112e-001 2.251073e-001 -6.355873e-001 -2.817912e+000 -8.344929e-001 1.489757e-003 -4.117678e-001 -6.700529e-001 -4.704331e-001 -2.406451e-001 -3.368628e-001 4.226755e-002 -2.629983e-001 7.072052e-002 -1.123630e-001 2.464760e+000 -2.099854e+000 -6.023755e-001 6.884376e-001 -1.010437e+000 -5.853253e-001 -9.736521e-001 -8.399842e-001 -7.049868e-001 -4.290849e-001 -5.634165e-001 -1.871831e-001 -4.660375e-001 3.485275e+000
<VARIANCE> 39
 8.859499e-002 1.673219e-001 1.992418e-001 3.979646e-002 1.493824e-001 1.096849e-001 1.348991e-001 9.394573e-002 1.196678e-001 8.894809e-002 1.210736e-001 1.073639e-001 2.494071e-002 1.821130e+000 3.955810e+000 2.525445e+000 1.923776e+000 2.626359e+000 1.846676e+000 2.649933e+000 2.656408e+000 2.701745e+000 1.868670e+000 1.745384e+000 1.808706e+000 2.800734e+000 2.328291e+000 4.617347e+000 3.208137e+000 2.416528e+000 2.715877e+000 2.084098e+000 2.868405e+000 3.233419e+000 2.908559e+000 1.406531e+000 1.771852e+000 1.204544e+000 1.962676e+000
<GCONST> 6.368133e+001
<MIXTURE> 2 9.453303e-002
<MEAN> 39
 -6.507405e-002 3.499520e-001 2.949036e-001 4.755168e-001 4.814784e-001 4.162208e-001 4.643052e-001 3.143032e-001 1.705087e-001 4.537768e-001 4.769031e-001 3.423757e-001 -2.669023e-001 -1.656945e-001 -7.330725e-001 -4.091795e-001 -2.011156e-001 -4.390471e-001 -3.914899e-001 -8.314509e-002 -2.619770e-001 -7.663199e-002 -4.382856e-002 -8.829983e-002 -9.026930e-002 -4.701033e-001 -1.005348e+000 -1.171445e+000 -6.957149e-001 -5.424501e-001 -7.973140e-001 -6.744715e-001 -5.058368e-001 -3.196713e-001 6.567648e-002 -3.255359e-001 -4.995898e-001 2.811855e-002 -1.037405e+000
<VARIANCE> 39
 2.453920e-001 4.438920e-001 5.021159e-001 4.010788e-001 4.760010e-001 4.131761e-001 7.996871e-001 1.065304e+000 6.950016e-001 5.576383e-001 5.555841e-001 6.062950e-001 1.863371e-001 1.541333e+000 1.533051e+000 1.503692e+000 1.146039e+000 9.863278e-001 1.309223e+000 1.134584e+000 1.193707e+000 1.066945e+000 1.213039e+000 1.520533e+000 8.654081e-001 1.943095e+000 3.379347e+000 1.788643e+000 1.545237e+000 1.629075e+000 1.186942e+000 9.483756e-001 1.181617e+000 1.328491e+000 1.110255e+000 1.020674e+000 9.661975e-001 1.011148e+000 4.069168e+000
<GCONST> 7.031161e+001
<MIXTURE> 3 1.150342e-001
<MEAN> 39
 -1.166825e+000 -7.614486e-001 3.943168e-001 -2.229679e-001 -4.222194e-001 -1.294195e-001 -1.230522e-001 -1.240553e-001 6.008958e-001 -1.909882e-001 1.743073e-001 1.348753e-001 3.187246e-001 -1.757921e+000 -5.671136e-001 3.499922e-001 -9.247584e-001 -5.670992e-002 -2.446931e-001 5.607993e-002 -4.546139e-001 4.558624e-001 -4.792990e-001 1.642348e-001 1.594696e-002 2.760578e+000 9.374515e-001 9.835330e-001 -5.606835e-002 5.799699e-001 4.769073e-001 -4.759486e-002 4.095229e-001 1.773101e-001 -4.863186e-001 1.379980e-001 5.424280e-003 -8.139000e-002 -6.010991e-001
<VARIANCE> 39
 1.956598e+000 2.351841e+000 3.094194e+000 1.193386e+000 1.648333e+000 1.929837e+000 2.474376e+000 1.854906e+000 1.443082e+000 1.395231e+000 1.395994e+000 1.367748e+000 3.065846e-001 4.878242e+000 5.156750e+000 3.419206e+000 3.217509e+000 2.929060e+000 2.478203e+000 2.682662e+000 2.801831e+000 2.734829e+000 2.451291e+000 2.097302e+000 2.001712e+000 4.522462e+000 4.945754e+000 4.860768e+000 3.791941e+000 2.860186e+000 2.152452e+000 2.747738e+000 2.648817e+000 2.937935e+000 2.003190e+000 2.271992e+000 2.304667e+000 2.305091e+000 4.484738e+000
<GCONST> 1.059029e+002
<MIXTURE> 4 5.182232e-002
<MEAN> 39
 8.359513e-001 8.540230e-001 9.032904e-001 -5.137695e-002 -3.443904e-001 -4.772018e-001 -8.292436e-001 -1.005763e+000 -8.888545e-001 -1.318777e+000 -5.631037e-001 -7.035835e-001 9.341874e-001 1.399714e+000 6.482807e-001 2.443748e+000 -1.780011e+000 -1.557626e+000 -1.682851e+000 -1.450283e+000 -1.355227e+000 -1.041756e+000 -1.140375e+000 -6.797212e-001 -1.174559e+000 3.895015e+000 -1.081041e+000 -1.284992e+000 -4.062134e-001 -3.851887e-001 1.077120e-001 3.525230e-001 2.797541e-001 7.813816e-001 5.743383e-001 9.539712e-001 2.890556e-001 4.666680e-001 -1.038011e+000
<VARIANCE> 39
 1.153010e+000 2.343745e+000 2.091602e+000 1.216822e+000 1.306176e+000 1.399368e+000 2.859985e+000 1.573939e+000 1.472829e+000 1.250601e+000 1.129872e+000 1.321575e+000 5.038898e-001 4.062656e+000 5.087011e+000 7.319983e+000 3.486987e+000 4.307006e+000 2.371795e+000 4.034080e+000 3.318403e+000 2.549320e+000 3.037355e+000 2.997281e+000 3.248568e+000 2.061278e+000 4.756166e+000 2.994307e+000 3.623956e+000 2.445465e+000 2.710215e+000 2.421513e+000 3.670607e+000 2.136802e+000 1.539655e+000 1.415428e+000 1.593483e+000 1.763645e+000 3.322650e+000
<GCONST> 1.040639e+002
<MIXTURE> 5 1.178816e-001
<MEAN> 39
 -2.494288e-001 9.202923e-002 -1.207202e-001 4.679855e-001 1.861618e-001 3.093026e-001 2.102097e-001 4.559591e-002 1.452355e-001 1.828104e-002 -9.457319e-002 1.669387e-001 -5.919387e-001 5.738962e-001 -1.469244e-001 1.223197e+000 -5.747294e-001 -1.886154e-001 1.156736e-001 -5.428355e-001 -1.642221e-001 -2.336013e-001 -4.116243e-001 1.006913e-003 -9.054149e-002 1.880290e+000 6.317216e-001 -2.263275e-002 1.402246e+000 -9.632512e-001 -4.275161e-001 -4.451250e-001 -6.540803e-001 -1.523472e-001 -3.791499e-001 -4.223589e-001 1.780830e-001 -2.783864e-001 3.248279e+000
<VARIANCE> 39
 2.924834e-001 5.474064e-001 4.171264e-001 4.326290e-001 3.931975e-001 4.589166e-001 6.119147e-001 5.915877e-001 6.316724e-001 5.894512e-001 5.832031e-001 6.898452e-001 1.008683e-001 4.694305e+000 4.080353e+000 2.301757e+000 2.522531e+000 1.556027e+000 2.013052e+000 1.914142e+000 1.884362e+000 1.345327e+000 1.422530e+000 1.097603e+000 1.291026e+000 2.511504e+000 4.675079e+000 3.325531e+000 2.602756e+000 2.319970e+000 1.444276e+000 1.752729e+000 1.863403e+000 1.683878e+000 1.467993e+000 1.380665e+000 1.135485e+000 1.376579e+000 2.229624e+000
<GCONST> 7.883612e+001
<MIXTURE> 6 3.758542e-002
<MEAN> 39
 -1.805716e+000 -1.881869e+000 2.013371e+000 -8.764326e-001 -5.791051e-001 -7.986657e-001 -1.331118e+000 7.118933e-001 -4.385913e-001 -6.011012e-001 1.093463e-002 -1.964595e-001 9.662597e-001 1.655617e+000 -6.469516e-001 2.041949e+000 -1.549520e+000 -1.735207e+000 -2.404644e+000 -3.455285e+000 -7.762948e-001 -6.797303e-001 -4.113763e-001 -3.660476e-001 -1.340143e+000 4.937062e+000 3.237368e+000 2.302911e+000 -1.775109e+000 1.167213e+000 1.300753e-001 -5.840277e-002 4.828575e-002 -1.398300e+000 6.373278e-001 1.127245e+000 8.343239e-003 -3.317479e-001 -6.591046e-001
<VARIANCE> 39
 4.025646e+000 3.740564e+000 2.152904e+000 1.269224e+000 3.398695e+000 5.233550e+000 1.782395e+000 2.446919e+000 1.947955e+000 2.428277e+000 2.085469e+000 2.731839e+000 6.388546e-001 9.692717e+000 7.340759e+000 4.733619e+000 5.341628e+000 5.356679e+000 6.256716e+000 2.908222e+000 6.081641e+000 4.104585e+000 5.995394e+000 4.512568e+000 4.383387e+000 1.259874e+000 5.956947e+000 7.188618e+000 4.768264e+000 6.413208e+000 7.551553e+000 8.064404e+000 4.137047e+000 3.917642e+000 5.084822e+000 4.662201e+000 4.650630e+000 5.566610e+000 5.745323e+000
<GCONST> 1.251301e+002
<MIXTURE> 7 5.410023e-002
<MEAN> 39
 -1.902694e+000 3.752211e-001 -4.477743e-001 1.437883e-001 4.349895e-001 9.584427e-001 8.798261e-001 4.461403e-001 4.978619e-001 5.082417e-001 4.014908e-001 4.171959e-001 1.579581e-002 -1.096871e+000 6.533018e-001 1.341908e+000 -1.063570e+000 -9.236503e-001 -9.297937e-001 -7.494183e-001 -1.126957e+000 -8.926775e-001 -9.029286e-001 2.200852e-002 -4.447068e-001 3.598752e+000 1.198469e+000 -1.112635e-001 1.215075e+000 -1.021817e+000 -8.811175e-001 -1.351925e+000 -1.168746e+000 -9.360096e-001 -7.154033e-001 -9.824803e-001 -4.431387e-001 -6.274858e-001 1.184054e+000
<VARIANCE> 39
 6.682570e+000 2.143474e+000 1.034491e+000 9.152898e-001 1.014914e+000 2.477530e+000 2.217802e+000 7.444324e-001 1.437836e+000 1.765916e+000 1.627406e+000 1.285756e+000 5.614064e-001 1.762968e+001 6.737151e+000 9.162987e+000 4.240721e+000 7.867074e+000 4.716841e+000 7.902556e+000 6.791983e+000 3.852341e+000 4.340953e+000 4.358963e+000 3.769337e+000 5.596772e+000 1.053435e+001 4.611039e+000 4.771109e+000 3.321934e+000 6.145919e+000 3.223937e+000 5.110183e+000 2.890204e+000 3.211737e+000 4.814778e+000 3.516586e+000 3.483720e+000 8.322605e+000
<GCONST> 1.198610e+002
<MIXTURE> 8 5.410023e-002
<MEAN> 39
 -1.275346e+000 -8.430787e-001 -1.176270e+000 -1.149285e-001 -3.196154e-001 -6.410578e-001 -1.367281e-002 3.216470e-001 6.179259e-002 4.316669e-002 5.432514e-002 3.733906e-001 -1.950532e+000 -2.988672e+000 -1.790217e+000 -1.458317e+000 -5.459033e-001 -1.047113e+000 -8.554980e-001 -2.759222e-001 4.202504e-001 9.020881e-002 6.897916e-002 -2.709421e-001 1.825014e-001 -2.996779e+000 -5.767319e-001 1.728776e-001 3.638195e-001 2.959056e-001 2.439712e-001 5.329022e-001 2.159330e-001 1.288753e-001 1.342367e-002 2.203490e-001 -8.461922e-003 5.386052e-002 5.953780e-001
<VARIANCE> 39
 2.271612e+000 9.226608e-001 7.039254e-001 3.248976e-001 5.706208e-001 7.387981e-001 4.492918e-001 1.276907e+000 9.872698e-001 7.748731e-001 7.662120e-001 4.293495e-001 1.369458e+000 3.063990e+000 1.424679e+000 1.177656e+000 1.251245e+000 1.130482e+000 1.329692e+000 8.543915e-001 1.749913e+000 1.631511e+000 8.888591e-001 9.826695e-001 9.018366e-001 3.993485e+000 5.645129e+000 1.627310e+000 1.128740e+000 7.869060e-001 1.122918e+000 1.262610e+000 6.776613e-001 1.359436e+000 1.065004e+000 7.064338e-001 7.595472e-001 6.831464e-001 4.425669e+000
<GCONST> 7.567697e+001
<MIXTURE> 9 1.138952e-002
<MEAN> 39
 -3.114536e+000 -2.025392e-001 5.397139e-001 1.190715e-001 2.131167e-001 -2.774525e-001 6.347315e-001 3.828700e-001 -6.450611e-001 1.197240e-001 1.723947e-001 3.562161e-001 1.809639e-002 -1.336691e+000 -3.901676e+000 3.333743e+000 -2.872787e+000 1.217185e+000 -3.501314e-001 -2.082376e+000 2.867045e+000 -3.365834e+000 4.182338e-001 -1.546131e+000 -1.620297e+000 3.752605e+000 4.366991e+000 -5.726184e-001 1.351216e+000 -1.680424e+000 7.969186e-001 -2.826235e-001 -2.361942e+000 8.400679e-001 -3.552909e-001 2.337586e-001 -1.223186e+000 -1.385483e+000 2.824155e+000
<VARIANCE> 39
 2.175555e+000 6.618412e-001 1.095647e+000 4.985565e-001 3.220294e+000 1.782821e+000 1.543259e+000 2.695091e+000 1.269736e+000 1.522715e+000 7.437695e-001 3.287692e+000 2.075470e-001 5.614257e+000 3.794378e+000 3.029916e+000 2.809935e+000 4.307943e+000 2.454084e+000 3.690621e+000 2.503767e+000 4.604970e+000 2.390431e+000 4.402438e+000 4.323490e+000 3.797599e+000 4.931087e+000 6.751161e+000 4.421526e+000 6.650018e+000 6.724403e+000 3.195839e+000 6.821021e+000 5.278405e+000 4.801840e+000 4.599247e+000 5.434749e+000 9.654520e+000 3.657950e+000
<GCONST> 1.129423e+002
<MIXTURE> 10 1.002278e-001
<MEAN> 39
 1.573525e-001 -1.361251e-001 -4.471404e-001 2.080387e-001 6.802191e-002 3.294027e-002 3.252151e-002 -1.982304e-003 -1.070189e-001 -4.602479e-001 -4.505922e-001 7.906625e-002 -1.947481e-001 1.719545e-001 -2.667156e-001 -2.272629e-002 9.265549e-002 2.674695e-002 1.223924e-001 5.914820e-002 -2.012602e-002 -2.715169e-003 -2.071422e-001 -1.365482e-001 -1.123320e-001 1.717329e-001 -3.401454e-001 8.370119e-002 1.974960e-001 6.092409e-002 4.121567e-002 3.031834e-002 9.305400e-002 -3.044170e-002 1.086942e-001 3.675774e-001 3.791143e-001 1.468563e-001 1.402785e-001
<VARIANCE> 39
 1.454712e-001 1.210135e+000 1.036361e+000 4.374762e-001 7.886024e-001 1.331191e+000 1.191117e+000 9.592708e-001 1.265801e+000 8.549901e-001 5.875705e-001 6.262027e-001 2.464514e-001 5.958356e-001 1.543248e+000 9.961369e-001 1.040932e+000 1.014387e+000 1.287800e+000 9.727885e-001 8.910946e-001 1.069262e+000 1.027479e+000 8.490847e-001 8.450067e-001 5.950437e-001 6.775889e-001 9.430466e-001 8.784847e-001 9.093422e-001 7.712521e-001 1.114034e+000 9.017556e-001 9.065306e-001 9.487620e-001 9.888908e-001 9.335811e-001 6.146765e-001 4.980648e-001
<GCONST> 6.398735e+001
<MIXTURE> 11 1.013667e-001
<MEAN> 39
 -2.902310e-001 1.964843e-001 -1.360964e-001 4.061441e-001 2.143344e-001 2.312827e-002 1.826985e-001 1.906494e-002 1.322791e-002 1.701425e-001 1.493283e-001 1.450858e-001 -6.312816e-001 -3.911765e-002 -1.530153e-002 -1.442003e-001 9.838965e-003 -4.379748e-002 6.037039e-002 -2.334118e-003 -1.827668e-001 -4.535127e-002 4.669710e-002 9.338703e-002 -4.724120e-002 -6.982182e-002 1.029357e-003 9.586757e-002 1.345876e-001 1.101503e-002 5.474043e-002 1.327457e-001 -2.341763e-002 2.339319e-002 -1.488611e-002 -1.052482e-001 -9.888789e-002 -4.407886e-002 2.207084e-001
<VARIANCE> 39
 1.061354e-001 2.553618e-001 4.567828e-001 2.097865e-001 5.485786e-001 4.022791e-001 5.108630e-001 5.827041e-001 8.402861e-001 5.805228e-001 5.699238e-001 6.387518e-001 1.063244e-001 1.782921e-001 4.035806e-001 4.488726e-001 4.357052e-001 6.518502e-001 5.528525e-001 6.929631e-001 9.540980e-001 1.004991e+000 7.045732e-001 6.085241e-001 6.515505e-001 1.786056e-001 1.753483e-001 3.008064e-001 2.434554e-001 3.011999e-001 5.696145e-001 4.773549e-001 5.294815e-001 5.656924e-001 7.629272e-001 4.860941e-001 3.792414e-001 5.357554e-001 2.692684e-001
<GCONST> 3.838018e+001
<MIXTURE> 12 9.339408e-002
<MEAN> 39
 3.803731e-001 1.107555e-001 6.147576e-002 5.044112e-001 2.501540e-001 2.452112e-001 1.880837e-001 3.182170e-001 2.134785e-001 2.304878e-001 1.217602e-001 2.202317e-001 -6.616402e-001 3.029063e-004 -1.411733e-003 -3.569191e-004 -1.518062e-003 1.014871e-003 2.588267e-004 8.698927e-004 2.218650e-004 -5.449604e-004 -7.140659e-004 -1.397230e-003 1.696141e-004 2.696619e-010 -1.918062e+000 -4.821684e-001 -6.159654e-003 -2.719007e-001 -4.098816e-001 -2.513090e-001 -1.602548e-001 -1.837116e-001 -1.375256e-002 -1.911183e-001 1.286249e-002 -5.348213e-002 1.705406e+000
<VARIANCE> 39
 1.115267e-001 1.871209e-001 2.172097e-001 6.255039e-002 1.517437e-001 1.166304e-001 1.448703e-001 8.957613e-002 1.322213e-001 1.021962e-001 1.420769e-001 1.204850e-001 4.831624e-002 1.000000e-002 1.000000e-002 1.000000e-002 1.000000e-002 1.000000e-002 1.000000e-002 1.000000e-002 1.000000e-002 1.000000e-002 1.000000e-002 1.000000e-002 1.000000e-002 1.000000e-002 1.594220e+000 1.558046e+000 1.002140e+000 8.326743e-001 1.150493e+000 7.461173e-001 1.033507e+000 1.033370e+000 9.313033e-001 7.133318e-001 5.710052e-001 5.439467e-001 1.742068e+000
<GCONST> -1.652003e+001
<MIXTURE> 13 5.125285e-003
<MEAN> 39
 -5.229525e+000 -8.115929e-001 1.291954e-001 -7.280238e-001 -2.758982e+000 -6.523679e-001 -2.391548e-001 -3.196445e+000 -1.866341e+000 -1.606499e-001 5.409636e-001 8.828434e-001 1.328962e+000 -3.010727e+000 -3.304149e+000 -8.104714e-001 -4.387591e+000 -2.330307e+000 -5.250704e+000 -3.708504e+000 -2.234374e+000 -2.519464e+000 -4.700802e-001 -5.096555e-001 -1.217137e+000 6.437733e+000 5.068759e+000 -1.284879e+000 -4.596727e-001 4.780433e-001 3.581619e+000 -6.731005e-001 -1.922694e+000 4.526466e+000 2.500532e+000 -1.791587e-001 -4.238993e-001 -3.014778e+000 4.976616e-001
<VARIANCE> 39
 9.667637e-001 2.997908e+000 1.181818e+000 1.358015e+000 9.961437e+000 4.961834e+000 2.723832e+000 2.178585e+000 1.856477e+000 1.886786e+000 2.464220e+000 4.043243e+000 1.124881e+000 1.317899e+001 4.177574e+000 1.077689e+001 6.958156e+000 1.520452e+001 4.085501e+000 8.185278e+000 4.217394e+000 6.726501e+000 6.473701e+000 1.787508e+000 8.148313e+000 2.539404e+000 5.899819e+000 9.762678e+000 1.465953e+001 1.940445e+001 5.516288e+000 5.168841e+000 5.717936e+000 1.903218e+000 3.425581e+000 1.157764e+000 6.945879e+000 4.236252e+000 2.151292e+001
<GCONST> 1.292162e+002
<MIXTURE> 14 7.687927e-002
<MEAN> 39
 5.151829e-001 3.835357e-001 2.170114e-001 5.765706e-001 3.849350e-001 1.232346e-001 5.364693e-002 3.252014e-001 3.711022e-002 2.742307e-002 -7.553813e-002 4.067577e-001 -8.254404e-001 9.832145e-003 -4.359402e-003 4.175520e-003 1.441026e-003 -9.822717e-004 -4.857841e-004 -2.503647e-004 7.508869e-004 -4.818963e-004 -8.322458e-003 -8.381644e-003 -3.439065e-003 8.573289e-003 2.923305e-003 -4.260496e-003 6.912036e-003 -1.940065e-003 -2.938338e-003 -2.482016e-003 7.460887e-003 1.845674e-004 4.946741e-003 3.144660e-003 1.336801e-003 1.785577e-003 5.686199e-003
<VARIANCE> 39
 1.533342e-001 2.368284e-001 2.405315e-001 8.062726e-002 2.127634e-001 2.042077e-001 1.648712e-001 7.120726e-002 2.453116e-001 1.549119e-001 2.589069e-001 1.230899e-001 1.804929e-001 1.000000e-002 1.000000e-002 1.000000e-002 1.000000e-002 1.000000e-002 1.000000e-002 1.000000e-002 1.000000e-002 1.000000e-002 1.000000e-002 1.000000e-002 1.000000e-002 1.000000e-002 1.000000e-002 1.000000e-002 1.000000e-002 1.000000e-002 1.000000e-002 1.000000e-002 1.000000e-002 1.000000e-002 1.000000e-002 1.000000e-002 1.000000e-002 1.000000e-002 1.000000e-002
<GCONST> -7.132487e+001
<TRANSP> 8
