~o
<STREAMINFO> 1 39
<VECSIZE> 39<NULLD><MFCC_E_D_A_Z><DIAGC>
~h "eight"
<BEGINHMM>
<NUMSTATES> 8
<STATE> 2
<NUMMIXES> 16
<MIXTURE> 1 8.432378e-002
<MEAN> 39
 1.638804e-001 -1.795644e+000 -8.417890e-001 6.993035e-001 7.891961e-001 -1.653372e-001 1.193036e+000 -2.069309e-001 -1.911797e-001 -1.432059e+000 -9.543352e-001 1.516714e-001 8.250460e-001 1.789166e+000 1.393558e+000 1.249814e+000 3.069642e-001 5.343479e-001 1.458787e-001 3.857323e-001 2.484591e-001 7.945136e-001 2.923487e-001 -2.644413e-001 -7.827896e-001 2.262473e+000 1.399819e+000 2.090328e-001 4.310904e-001 -1.193028e+000 -7.221055e-001 -4.944728e-001 -9.081289e-001 7.004267e-002 7.197753e-002 5.238753e-001 -7.270408e-002 -8.122362e-001 1.407359e+000
<VARIANCE> 39
 4.618666e-001 3.851153e-001 8.549007e-001 1.130676e+000 1.301760e+000 2.120151e+000 1.910126e+000 2.151785e+000 2.223351e+000 1.210898e+000 1.293363e+000 2.040583e+000 3.570388e-001 9.092764e-001 1.242921e+000 1.800488e+000 2.234874e+000 2.110849e+000 2.111258e+000 3.248680e+000 1.842448e+000 1.818127e+000 8.697217e-001 1.440822e+000 2.360965e+000 2.157785e+000 1.113514e+000 2.253119e+000 2.459463e+000 9.751258e-001 2.747269e+000 2.548298e+000 1.826495e+000 2.308375e+000 2.647664e+000 1.148639e+000 1.916788e+000 1.742110e+000 1.612151e+000
<GCONST> 8.850123e+001
<MIXTURE> 2 1.069677e-001
<MEAN> 39
 5.745377e-001 -1.441225e+000 -8.986000e-001 -1.622201e-001 1.810678e-001 -1.191930e+000 -8.311371e-001 -1.679671e+000 -1.188345e+000 -1.527446e+000 -1.495221e+000 -1.179935e+000 1.437251e+000 1.934856e+000 -8.862415e-001 -1.883450e+000 -1.239591e+000 -9.896208e-001 -1.084476e+000 -3.129520e-001 -7.006576e-001 -1.190335e+000 -6.834374e-001 -1.114415e+000 -8.490111e-001 2.253664e+000 -1.322123e+000 -1.310927e+000 -1.436011e-001 1.801627e-001 5.528653e-001 8.562625e-001 1.303055e+000 1.461935e+000 7.535152e-001 1.275627e+000 1.089963e+000 1.021466e+000 -9.122779e-001
<VARIANCE> 39
 1.132480e+000 4.918422e-001 1.397230e+000 1.709172e+000 2.624530e+000 1.267856e+000 2.622553e+000 1.416675e+000 1.972605e+000 1.351313e+000 8.862858e-001 9.523762e-001 3.475471e-001 1.669983e+000 2.367712e+000 2.783661e+000 3.050678e+000 3.163767e+000 2.529612e+000 2.611931e+000 2.284176e+000 3.161440e+000 3.061879e+000 2.946194e+000 2.489078e+000 1.461993e+000 1.711155e+000 1.998323e+000 2.605210e+000 2.192030e+000 3.126855e+000 1.833497e+000 1.693513e+000 1.564626e+000 1.924021e+000 1.773293e+000 1.933815e+000 1.331508e+000 2.162071e+000
<GCONST> 9.488999e+001
<MIXTURE> 3 1.044030e-001
<MEAN> 39
 -3.549109e-001 -2.419629e+000 -1.159820e+000 -9.581935e-001 5.187322e-001 -3.535404e-001 1.157977e-001 1.046690e-001 -1.048380e+000 -8.247759e-001 -8.086288e-001 4.866862e-001 6.302574e-001 -1.915814e-001 -6.316211e-001 -1.500660e-001 -2.202155e-001 4.689174e-001 -6.278639e-002 3.815265e-001 -3.739506e-001 -9.383578e-001 -7.169011e-001 -6.430039e-001 -5.914636e-002 1.587588e+000 1.049548e+000 2.143266e+000 9.583265e-001 1.467767e+000 7.928818e-002 9.692061e-002 -4.818084e-002 -3.830777e-002 6.603011e-001 2.021978e-001 1.440165e-001 -7.435538e-001 -2.799648e-001
<VARIANCE> 39
 4.644566e-001 2.797148e-001 8.854504e-001 5.080159e-001 2.189009e+000 1.905944e+000 1.885652e+000 2.148216e+000 3.586972e+000 1.720139e+000 3.052745e+000 1.814926e+000 1.179720e-001 4.545218e-001 2.132092e+000 1.672688e+000 1.930400e+000 1.644322e+000 2.766315e+000 2.294240e+000 1.738539e+000 2.168437e+000 1.734518e+000 2.823727e+000 2.656506e+000 1.053189e+000 1.521055e+000 1.219462e+000 2.807454e+000 1.581253e+000 2.269826e+000 2.638405e+000 1.862383e+000 1.719169e+000 3.023713e+000 2.342138e+000 4.460771e+000 2.718748e+000 2.804321e+000
<GCONST> 9.103603e+001
<MIXTURE> 4 6.575138e-002
<MEAN> 39
 1.117552e+000 -2.025836e+000 -1.496089e+000 1.350900e+000 1.240053e+000 -1.760614e+000 2.451120e+000 -5.070054e-001 -5.193777e-001 -1.092088e+000 -5.116451e-001 -2.197800e+000 2.026975e+000 1.612047e-001 5.184569e-002 -1.604117e-001 9.531163e-002 -4.372530e-001 -8.352971e-002 5.021704e-002 3.090953e-001 2.564168e-001 -3.347927e-002 -1.834844e-001 -1.331217e-003 3.293208e-001 -4.551759e-001 4.935198e-001 4.412713e-001 -6.877515e-002 1.613173e-001 1.323564e-001 -3.858773e-001 1.102215e-001 1.396020e-002 -9.034847e-002 7.343432e-002 5.569789e-001 -7.771791e-001
<VARIANCE> 39
 9.113600e-001 7.105982e-001 7.782999e-001 1.834431e+000 1.577939e+000 1.005511e-001 3.904677e-001 2.550099e+000 1.412045e+000 8.869658e-001 1.691827e+000 8.456792e-001 5.510130e-002 1.571155e-001 1.969997e+000 2.184563e+000 2.151064e+000 1.033093e+000 3.192228e-001 1.126276e+000 1.874509e+000 2.046856e+000 2.740134e+000 2.351594e+000 2.430737e+000 3.372419e-001 1.497651e+000 2.483148e+000 2.440388e+000 3.385466e+000 8.750153e-001 9.503328e-001 9.380325e-001 1.980258e+000 2.933221e+000 3.361754e+000 2.323032e+000 1.741060e+000 1.882555e+000
<GCONST> 7.800997e+001
<MIXTURE> 5 9.001499e-002
<MEAN> 39
 -5.657781e-001 -1.931432e+000 3.706582e-001 4.526226e-001 1.299837e+000 3.175776e-001 -3.716592e-002 2.498563e-002 -2.284716e-001 -2.786177e-001 4.526636e-001 4.233927e-001 7.613396e-001 1.836936e+000 7.538152e-001 -5.899843e-001 -4.467343e-001 -6.663516e-001 -8.082995e-001 -1.157482e+000 -1.824244e+000 -1.583306e+000 -1.937593e+000 -1.813060e+000 -1.337686e+000 1.705207e+000 2.017042e+000 3.839509e-001 -1.314282e+000 -1.369935e+000 -1.541196e+000 -1.143424e+000 -4.775632e-001 -6.680462e-001 -7.461256e-001 -8.077160e-001 -1.453652e+000 -1.197619e+000 1.352859e+000
<VARIANCE> 39
 8.041328e-001 6.320376e-001 2.269599e+000 1.428452e+000 1.688752e+000 1.186620e+000 1.598109e+000 1.179287e+000 1.293379e+000 1.384255e+000 1.691330e+000 1.689495e+000 3.303418e-001 1.474794e+000 1.205159e+000 1.813948e+000 2.421634e+000 2.976222e+000 2.096732e+000 2.324415e+000 1.549071e+000 1.865446e+000 2.071140e+000 2.440229e+000 2.276297e+000 1.905616e+000 1.965919e+000 2.644224e+000 2.055599e+000 2.584114e+000 1.157580e+000 1.900999e+000 2.044402e+000 2.004523e+000 1.604315e+000 2.168810e+000 2.261497e+000 2.492415e+000 1.517540e+000
<GCONST> 9.181918e+001
<MIXTURE> 6 8.644872e-002
<MEAN> 39
 -1.070392e+000 -1.047516e-002 1.106073e+000 -1.040269e+000 -1.471445e+000 -1.478619e+000 -3.129734e-001 1.520535e+000 -2.988397e-001 -1.052642e+000 1.036543e+000 3.765827e-001 1.038232e+000 -4.978844e-001 3.020329e-001 9.622759e-001 -2.471361e-001 4.304175e-001 6.540598e-001 -1.791541e-001 2.020217e-001 -2.919947e-002 2.378127e-001 6.453418e-001 1.249853e-001 5.705029e-001 3.224049e-001 -3.084963e-001 -2.800170e-001 3.072394e-001 7.355120e-001 5.643737e-001 3.275348e-001 -4.642467e-001 -2.973060e-001 1.288680e-001 -1.808640e-001 -3.718374e-001 -1.438009e-001
<VARIANCE> 39
 8.644375e-001 2.023485e+000 1.734073e+000 3.099575e+000 2.068357e+000 1.646049e+000 2.007731e+000 1.927309e+000 1.437358e+000 2.061160e+000 1.248504e+000 2.841258e+000 3.261783e-001 3.455687e+000 3.245073e+000 1.926591e+000 4.679674e+000 3.800057e+000 5.352178e+000 3.425944e+000 3.062755e+000 1.861362e+000 1.970443e+000 2.351906e+000 3.474869e+000 1.996064e+000 3.775508e+000 2.292915e+000 1.461452e+000 3.460917e+000 4.204626e+000 6.224772e+000 3.643738e+000 2.812958e+000 2.855304e+000 3.969308e+000 2.616454e+000 3.782610e+000 2.679150e+000
<GCONST> 1.068760e+002
<MIXTURE> 8 5.498745e-002
<MEAN> 39
 1.566996e+000 -3.289743e+000 -2.462695e+000 -7.636616e-002 -1.922772e+000 -1.244211e-001 -1.589763e+000 -6.196862e-001 -2.273707e+000 -2.214058e+000 -1.434313e+000 -1.252800e+000 2.853545e+000 -9.839814e-002 -1.934376e-001 1.961689e-001 -2.520101e-001 -2.440727e-001 4.334218e-001 2.076190e-001 -8.116273e-002 1.342896e-001 -5.643732e-001 5.762633e-002 3.034643e-001 1.682729e-001 -2.359331e-001 8.935759e-001 8.198019e-001 -2.165860e-001 3.688731e-001 -4.847699e-001 3.183063e-002 2.010722e-001 -1.536849e-001 6.779853e-002 6.893075e-002 1.384037e-001 -3.828495e-001
<VARIANCE> 39
 2.180140e-001 2.657907e-001 1.810008e+000 1.657276e+000 1.223473e+000 2.130007e+000 2.340426e+000 2.530814e+000 3.319285e-001 3.154114e-001 4.651836e-001 1.309533e+000 4.586015e-002 2.898966e-001 2.154225e+000 1.729021e+000 1.111152e+000 5.870634e-001 1.177583e+000 9.066218e-001 1.214001e+000 1.296797e+000 8.141454e-001 7.271149e-001 8.172009e-001 2.920382e-001 5.920296e-001 1.018874e+000 1.282107e+000 1.039911e+000 6.625166e-001 1.388964e+000 6.342447e-001 1.130354e+000 1.503066e+000 1.208103e+000 5.045081e-001 6.679301e-001 2.144894e-001
<GCONST> 6.237690e+001
<MIXTURE> 9 5.850979e-002
<MEAN> 39
 -1.915269e-001 -1.264297e+000 2.466442e-001 2.495127e-001 8.808045e-001 3.929374e-001 8.555904e-001 1.348822e+000 8.654802e-002 -6.993406e-001 4.059474e-001 9.336020e-001 3.457038e-002 -7.732179e-001 -2.741392e+000 -3.340540e-001 -1.350440e+000 4.341287e-001 4.190740e-001 5.744669e-001 3.413621e-001 -2.351086e-001 -5.233092e-001 3.307685e-003 -2.503248e-001 1.512438e+000 1.899443e-001 1.089465e+000 -9.118173e-001 -1.287818e-001 -6.406366e-001 2.579383e-002 -5.694418e-001 -1.153662e+000 3.596518e-001 9.648219e-001 2.286795e-002 -6.280583e-001 2.766077e-001
<VARIANCE> 39
 2.097689e-001 3.868143e-001 1.004818e+000 7.468915e-001 6.055720e-001 1.555161e+000 1.955702e+000 8.735204e-001 4.349146e-001 4.794891e-001 1.339718e+000 8.263064e-001 1.359185e-001 4.362341e-001 2.253787e+000 1.423805e+000 1.192569e+000 1.246512e+000 1.192829e+000 1.458721e+000 1.521638e+000 2.164865e+000 2.341239e+000 1.825092e+000 1.178627e+000 1.597487e+000 1.476079e+000 2.229873e+000 1.089348e+000 1.654378e+000 1.001844e+000 1.766932e+000 2.304444e+000 1.436973e+000 1.126024e+000 1.973570e+000 1.544163e+000 1.385354e+000 2.687291e+000
<GCONST> 7.655274e+001
<MIXTURE> 10 3.972562e-002
<MEAN> 39
 1.805181e+000 -1.991973e+000 1.500013e+000 2.312093e-001 5.670613e-001 -4.021420e-001 -1.026625e-001 1.362471e+000 -1.130000e+000 -5.230687e-001 2.496126e-001 -7.818188e-001 9.422601e-001 1.322100e-001 -2.810581e+000 2.279475e-001 -2.745195e-001 7.903053e-001 3.452134e-001 3.256542e-001 1.467831e-001 -9.117466e-001 -1.216355e-001 -2.060949e-001 9.518636e-002 2.600679e+000 -2.330621e+000 1.306222e+000 -2.292619e+000 1.966664e-001 -1.005917e+000 8.963845e-001 1.385579e-001 -1.480761e+000 4.679641e-001 1.418540e-001 1.208273e-001 3.865389e-001 -1.326970e+000
<VARIANCE> 39
 1.039507e+000 9.569350e-001 2.740718e-001 1.908856e+000 5.279715e-001 1.049703e+000 1.905651e+000 1.980454e+000 2.177837e+000 1.698737e+000 2.625654e+000 1.881309e+000 6.315597e-001 4.990750e+000 2.390897e+000 3.504867e+000 4.293990e+000 1.922512e+000 1.613922e+000 5.352150e+000 2.907182e+000 3.976458e+000 2.846281e+000 4.306900e+000 3.840690e+000 1.496092e+000 3.011016e+000 3.946497e+000 2.131626e+000 3.571806e+000 1.269084e+000 7.268084e-001 3.216160e+000 3.879552e+000 7.328114e+000 3.402232e+000 3.386647e+000 2.666955e+000 2.647889e+000
<GCONST> 1.022496e+002
<MIXTURE> 11 8.579754e-002
<MEAN> 39
 8.165436e-001 -1.741765e+000 -1.025600e+000 -7.840521e-001 2.041753e-001 -7.756729e-001 -3.618250e-001 -7.603731e-001 -7.006204e-001 -6.518682e-001 -1.406969e+000 -6.635587e-001 1.446386e+000 8.796320e-002 -1.032637e+000 -5.100102e-001 -7.629636e-001 -1.795874e-001 -1.157811e-001 -1.053598e-001 4.932010e-001 -4.830711e-001 8.738519e-002 -2.298296e-001 2.139425e-001 7.638502e-001 -8.039011e-001 7.816852e-001 5.866311e-001 1.032202e+000 1.360264e-001 5.128967e-001 4.327987e-001 -6.637523e-002 5.105968e-001 2.970556e-003 7.130607e-001 2.723550e-001 -1.192799e+000
<VARIANCE> 39
 3.110202e-001 4.559936e-001 7.365541e-001 9.069251e-001 9.950364e-001 1.000224e+000 1.685440e+000 1.464885e+000 1.896813e+000 1.009599e+000 6.160970e-001 1.603744e+000 1.891588e-001 2.900516e-001 9.023712e-001 5.611717e-001 1.238761e+000 8.286001e-001 7.015074e-001 1.587784e+000 8.720814e-001 5.277589e-001 6.661168e-001 7.492971e-001 1.141666e+000 1.986051e-001 8.163300e-001 2.296541e+000 7.497280e-001 7.479087e-001 1.217475e+000 9.481886e-001 1.403672e+000 8.452336e-001 8.488786e-001 4.834795e-001 7.194009e-001 9.389848e-001 3.908446e-001
<GCONST> 6.259522e+001
<MIXTURE> 12 1.487323e-001
<MEAN> 39
 -7.429116e-001 -1.287229e+000 -1.642396e-001 4.557433e-001 8.271401e-001 3.885410e-001 1.140503e+000 3.293563e-001 3.120876e-001 4.094334e-001 4.491493e-001 4.284289e-002 4.261494e-001 -3.802490e-001 -6.970253e-001 -3.616475e-001 1.914727e-001 1.247704e-001 -3.353200e-001 -2.984522e-001 -2.913668e-001 -1.881454e-001 2.435830e-002 2.450811e-001 8.585307e-002 6.542091e-001 6.805519e-001 5.796733e-001 1.151074e-001 1.176621e-001 -1.236591e-001 -4.130315e-001 -4.320256e-001 -7.851334e-002 -3.341226e-001 -3.509216e-001 -1.350378e-001 2.070325e-001 -1.717262e-001
<VARIANCE> 39
 6.274977e-001 6.164034e-001 1.268181e+000 8.510156e-001 6.356408e-001 1.052729e+000 1.087631e+000 8.151627e-001 1.027438e+000 1.373819e+000 1.170361e+000 1.174058e+000 1.681459e-001 4.576690e-001 5.194057e-001 1.147695e+000 1.155309e+000 8.644519e-001 9.432601e-001 7.845042e-001 1.306862e+000 1.414478e+000 1.092262e+000 2.025794e+000 2.353837e+000 6.237298e-001 7.576866e-001 1.515200e+000 9.957507e-001 1.698025e+000 1.328702e+000 1.095998e+000 6.915078e-001 1.366088e+000 1.492279e+000 8.305297e-001 1.934377e+000 2.550064e+000 8.865260e-001
<GCONST> 7.202458e+001
<MIXTURE> 13 1.071682e-002
<MEAN> 39
 -9.184188e-002 -2.676614e+000 5.938029e-001 -8.926434e-001 1.056940e+000 -4.398254e-001 -1.012450e+000 8.851969e-001 -8.726362e-001 2.160329e+000 2.454620e+000 -1.108478e+000 9.624846e-001 9.814610e-001 -3.709439e+000 2.513678e+000 -8.966521e-001 3.322484e+000 -5.968973e-001 -1.642826e-001 1.953016e+000 -6.518184e-001 1.107071e+000 5.525722e-001 6.763012e-001 4.057675e+000 9.991670e-001 4.639409e+000 2.547981e-001 1.460678e+000 -1.871947e-001 -1.365551e-001 1.032800e+000 -1.375414e+000 4.491604e-001 -2.361112e+000 -3.055147e+000 1.183818e+000 -2.664682e+000
<VARIANCE> 39
 1.301318e+000 9.254735e-001 1.335079e+000 3.135759e-001 2.163082e+000 7.467362e-001 2.511949e+000 2.268672e+000 7.137240e-001 6.271698e-001 1.246196e+000 1.016125e+000 1.507157e-001 1.544296e+001 3.352372e+000 2.827634e+000 5.875854e-001 1.956068e+000 1.290624e+000 2.811944e+000 1.021369e+001 1.316281e+000 1.152690e+000 7.199764e-001 1.098131e+000 9.309592e-001 4.325159e+000 1.110442e+000 2.269482e+000 2.115442e+000 5.829173e+000 1.518635e+000 4.760626e+000 4.154914e+000 9.729711e-001 1.858276e+000 4.685089e-001 4.281229e+000 7.620685e-001
<GCONST> 8.892068e+001
<MIXTURE> 14 5.335905e-003
<MEAN> 39
 3.702337e-001 -1.224193e+000 -3.125832e-001 4.861160e-002 9.691314e-001 3.842065e-001 2.171261e-001 9.982787e-001 -2.213912e-001 3.545668e-001 -2.039906e-001 8.548847e-001 5.358877e-001 -7.496232e-001 -4.779576e+000 -3.079911e-001 -2.319928e-001 1.783386e-001 -2.405227e-001 -8.336037e-001 -1.546616e+000 -4.194917e+000 -2.571916e+000 -2.134341e-001 1.163908e-001 5.065190e-002 -2.185566e+000 -9.425400e-001 1.088128e+000 -1.000977e+000 -4.991539e-001 -1.096397e-002 -5.690578e-001 -2.603942e-001 7.968003e-002 8.462611e-001 6.839349e-001 -1.353604e+000 8.088002e-001
<VARIANCE> 39
 1.376401e-001 6.948146e-001 1.253048e+000 2.686053e-001 5.405661e-002 4.051493e-001 1.292355e+000 8.310228e-001 8.376947e-002 7.100985e-002 6.765519e-001 1.848094e-001 8.355945e-002 2.970325e-001 3.713065e+000 6.912705e-001 1.144562e-001 1.953511e-001 1.654031e+000 3.758867e-001 8.449453e-001 1.964220e+000 9.999961e-003 8.570572e-001 7.575915e-001 2.030936e+000 6.650473e-002 3.584641e+000 2.707250e+000 1.756415e+000 2.328577e-001 4.799652e-001 1.757549e-001 5.971640e-001 1.326723e+000 5.053690e-001 1.462447e+000 5.034596e-001 5.005341e-001
<GCONST> 4.071801e+001
<MIXTURE> 15 5.294901e-002
<MEAN> 39
 1.483688e+000 -9.116336e-001 1.461714e-001 3.642454e-001 7.087259e-001 1.051994e-001 1.016856e+000 3.157753e-001 4.292843e-002 -1.010756e+000 -7.671022e-001 -8.939196e-001 1.584820e+000 1.575981e+000 -6.744061e-002 6.588024e-002 -1.300684e+000 -6.256871e-001 -3.758467e-001 -6.988215e-001 -3.814210e-001 5.633028e-001 5.175923e-001 -2.907366e-001 -8.536851e-001 2.018458e+000 -1.385697e+000 -1.982667e+000 -1.294566e+000 -9.455821e-001 -3.209799e-001 -5.139408e-001 -5.701459e-001 -7.871348e-002 -7.726971e-001 1.983479e-001 -1.545165e-001 4.641115e-001 -1.481375e+000
<VARIANCE> 39
 6.210920e-001 8.035516e-001 1.221243e+000 1.339929e+000 8.175895e-001 1.095942e+000 1.291622e+000 2.357338e+000 1.563719e+000 5.957296e-001 9.690261e-001 1.346764e+000 2.422245e-001 8.308569e-001 2.288722e+000 1.786524e+000 1.697772e+000 1.528539e+000 1.512756e+000 1.307295e+000 2.101220e+000 1.906767e+000 5.971389e-001 1.207048e+000 9.485494e-001 8.252558e-001 5.602818e-001 9.035670e-001 1.722831e+000 1.627259e+000 1.877023e+000 6.856120e-001 8.919252e-001 1.615317e+000 7.227633e-001 6.325157e-001 7.683115e-001 7.500314e-001 9.417095e-001
<GCONST> 7.450349e+001
<MIXTURE> 16 5.335906e-003
<MEAN> 39
 -1.242691e+000 -6.480030e-001 4.409396e-001 -7.354332e-001 -6.393745e-001 -1.651195e+000 8.661295e-001 1.439736e+000 -4.283620e-001 -4.340379e-001 9.096280e-001 5.658520e-001 7.213963e-001 5.049992e-001 -2.855388e+000 4.642657e+000 -1.985196e+000 -4.057440e+000 -1.864674e+000 -3.802705e-001 2.928162e+000 -5.411374e+000 -5.629496e+000 -2.474448e+000 -2.206778e+000 3.485789e+000 3.222490e+000 5.497222e-001 -1.089626e-001 -6.792809e-001 4.328897e-002 2.370737e+000 -2.300280e+000 -1.253507e+000 -5.103776e-001 1.424152e-001 -2.567642e+000 -6.527181e-001 -4.260173e+000
<VARIANCE> 39
 2.580935e-001 8.640232e-002 5.468845e-001 1.391617e+000 2.756808e+000 8.031405e-001 1.612795e+000 1.107027e+000 2.544029e+000 6.076076e+000 2.786409e-001 5.668010e-001 8.976361e-002 5.569866e+000 6.539896e+000 2.222633e-001 1.191360e+000 1.602796e+001 2.408258e+000 2.531997e+000 2.431607e+000 1.113592e+000 4.750017e+000 4.649591e+000 2.051862e+000 7.059997e+000 3.191315e+000 1.129540e+000 3.261132e+000 4.284266e+000 7.972228e+000 2.183303e-001 6.922435e-001 2.665928e+000 3.637858e+000 1.196989e+001 5.736762e-001 3.559774e-001 3.879575e+000
<GCONST> 8.969761e+001
<STATE> 3
<NUMMIXES> 16
<MIXTURE> 1 1.324797e-001
<MEAN> 39
 1.063019e-001 6.829945e-001 2.140552e+000 7.588822e-001 4.378831e-001 -4.397638e-001 6.003408e-001 1.712137e+000 -1.988890e+000 -6.519487e-001 2.088408e+000 -2.481044e-001 1.988574e+000 5.126745e-002 6.910035e-002 -2.491566e-002 -2.304933e-002 -2.171112e-003 -5.766912e-002 1.638507e-001 -5.861275e-002 4.090277e-002 -5.034061e-003 -1.156491e-001 -3.001639e-002 7.649820e-002 -2.680830e-002 3.180469e-002 5.118434e-003 -3.348328e-002 9.138526e-003 8.509754e-002 -5.581617e-003 3.166762e-002 1.348802e-001 -5.684746e-002 -2.355905e-002 -7.674120e-003 -1.460856e-002
<VARIANCE> 39
 5.139620e-002 9.680505e-002 1.849467e-001 1.873217e+000 6.794255e-001 1.059077e+000 5.922275e-001 7.410297e-001 1.120504e+000 2.983445e+000 6.501400e-001 2.816032e+000 1.000004e-002 2.190487e-001 3.180783e-001 1.730613e+000 2.301364e+000 1.086431e+000 2.417747e+000 3.316023e+000 2.895828e+000 3.115862e+000 2.794276e+000 2.876651e+000 2.835221e+000 9.999961e-003 2.562294e-001 4.613562e-001 2.142860e+000 2.331527e+000 8.781309e-001 2.722563e+000 3.694513e+000 3.165684e+000 3.170430e+000 2.742278e+000 2.968698e+000 2.967800e+000 9.999896e-003
<GCONST> 6.550883e+001
<MIXTURE> 2 1.250047e-001
<MEAN> 39
 7.310852e-002 -2.588504e+000 -1.061265e+000 -1.089419e+000 2.302581e-001 -1.344640e+000 -8.429641e-002 -1.887732e+000 -1.564521e+000 -1.847562e+000 -8.324434e-001 -1.255278e+000 2.321856e+000 5.577890e-002 3.198291e-001 2.435466e-001 -4.267112e-001 -7.874423e-001 1.639025e-001 6.777478e-001 -3.890706e-002 5.928311e-002 -3.063675e-002 -2.986046e-002 -1.683958e-001 -1.699785e-001 2.666818e-001 6.199394e-001 7.090162e-002 -3.314700e-001 -6.573019e-001 7.487534e-002 -1.502642e-001 9.132044e-002 -3.221087e-001 -4.333318e-001 -3.062181e-001 2.286313e-002 -5.206115e-001
<VARIANCE> 39
 8.049011e-001 8.816382e-002 2.142529e+000 1.310635e+000 2.174341e+000 1.898582e+000 2.636234e+000 7.955565e-001 6.324283e-001 5.685238e-001 3.001981e+000 2.119329e+000 7.092214e-002 2.770870e-001 4.859077e-001 7.327458e-001 1.923501e+000 1.435797e+000 1.814248e+000 1.564579e+000 1.255462e+000 1.464791e+000 1.679833e+000 1.754352e+000 1.818508e+000 2.261221e-001 4.634103e-001 8.505972e-001 9.653190e-001 2.048630e+000 1.136724e+000 1.313413e+000 1.335275e+000 1.221598e+000 1.463856e+000 1.178233e+000 1.377104e+000 1.850242e+000 2.096900e-001
<GCONST> 7.150751e+001
<MIXTURE> 3 1.923466e-001
<MEAN> 39
 9.926631e-001 -9.982202e-001 -8.902944e-001 -3.559908e-002 -7.742181e-001 3.173738e-001 -3.367096e-001 -5.179368e-001 -1.439451e-001 -9.191595e-001 -9.761620e-001 -5.015609e-001 1.094245e+000 -1.621860e-002 1.441820e-001 1.643028e-002 -9.955522e-002 -1.590181e-001 1.184479e-001 -3.385182e-002 1.461798e-002 -2.052321e-002 -1.480983e-001 3.908429e-002 -3.933871e-002 4.182893e-002 -6.651998e-002 5.005486e-002 9.365812e-003 -8.067492e-002 -1.429533e-002 -4.812267e-002 9.960916e-002 -1.986079e-002 -3.336671e-002 -2.938400e-002 -1.863546e-002 2.632570e-002 -1.354473e-003
<VARIANCE> 39
 1.243056e-001 1.837249e-001 5.209180e-001 2.866273e-001 2.548077e-001 6.199982e-001 1.083004e+000 5.387186e-001 8.254821e-001 3.469428e-001 2.508082e-001 7.003005e-001 2.606469e-002 4.983474e-002 4.382045e-001 3.545358e-001 4.102847e-001 2.766611e-001 3.143215e-001 4.718541e-001 3.841410e-001 6.267705e-001 4.439693e-001 3.732351e-001 4.219346e-001 4.563630e-002 8.521429e-002 3.384075e-001 3.734682e-001 4.023874e-001 3.087554e-001 3.486087e-001 3.855509e-001 3.624023e-001 6.164219e-001 4.512012e-001 3.825134e-001 4.025486e-001 7.842993e-002
<GCONST> 2.552382e+001
<MIXTURE> 5 3.397336e-003
<MEAN> 39
 -1.954011e+000 1.018774e+000 -5.336835e-001 -2.605696e+000 2.179419e-001 -1.250902e+000 2.994059e-001 2.048996e+000 -8.733987e-001 -2.207100e+000 -2.118423e+000 -1.854429e+000 1.546349e+000 -2.205662e+000 6.934006e-001 4.983272e-001 -1.090120e+000 -7.356686e-001 4.650563e-001 -3.581262e-001 -4.920943e-001 -3.874941e-001 -4.394479e-001 -3.841233e-001 -1.561305e+000 2.973102e-001 2.876659e+000 -1.611640e+000 4.984089e-001 2.497410e+000 -1.177295e+000 -6.202851e-001 -4.200005e-001 -1.924755e+000 -4.389496e-001 8.932964e-001 9.278171e-002 6.550059e-002 3.189581e-001
<VARIANCE> 39
 1.000004e-002 1.147697e-002 8.564967e-002 3.552270e-002 8.033732e-002 3.682483e-001 1.000001e-002 2.530122e-002 5.049827e-002 9.999962e-003 9.999943e-003 2.375754e-002 1.000004e-002 2.973612e-001 2.918530e-002 8.124910e-002 6.989834e-001 1.000000e-002 9.999997e-003 4.610277e-002 8.747169e-001 4.410058e-001 7.033008e-002 1.472832e-002 3.402540e-001 9.999961e-003 1.532378e-001 5.049945e-001 9.999952e-003 5.639412e-001 2.033985e-001 7.269512e-001 9.999976e-003 1.550090e-002 2.817040e-001 3.157348e-001 2.506381e-001 6.110891e-002 4.807037e-002
<GCONST> -3.699917e+001
<MIXTURE> 6 1.189160e-002
<MEAN> 39
 8.133966e-001 -1.397289e+000 1.144557e+000 -2.120399e+000 -1.896846e+000 -8.012326e-001 1.226254e+000 7.452931e-001 -1.372771e+000 1.177812e-001 -2.472130e+000 3.701515e-002 1.657518e+000 -3.782588e-001 1.465143e+000 9.330481e-001 1.013536e+000 1.361142e+000 -1.382415e+000 -7.010020e-001 -1.337423e-002 1.880726e+000 -5.120010e-001 1.463164e+000 3.650202e-001 -6.380345e-001 -2.137021e+000 1.329073e+000 -2.031836e+000 1.772529e+000 1.254256e+000 9.943165e-001 -6.237928e-001 -1.135094e+000 9.011240e-001 6.665365e-002 1.551813e+000 1.327950e+000 -6.618346e-001
<VARIANCE> 39
 1.491253e+000 9.623352e-001 1.992484e+000 4.188400e-001 1.094151e+000 2.779178e-001 1.571372e-001 1.900190e+000 5.798721e-001 4.087568e+000 6.328497e-001 4.738096e-001 6.657043e-002 1.676281e+000 2.088901e+000 1.800007e+000 3.169238e+000 4.084666e+000 7.693936e-001 1.354361e+000 1.323925e+000 3.452979e-001 3.387437e+000 3.022291e+000 2.372487e+000 2.496887e-001 1.826552e+000 3.754319e+000 8.804582e-001 1.024418e+000 2.957624e+000 6.663389e-001 8.843198e-001 1.125028e+000 4.529814e-001 4.264861e+000 2.245807e+000 3.017544e+000 4.878272e-001
<GCONST> 7.621979e+001
<MIXTURE> 8 1.019219e-002
<MEAN> 39
 3.698604e-001 1.522274e-002 1.119723e+000 -1.565354e+000 -1.421442e+000 -1.708033e+000 5.226018e-001 -1.362174e+000 2.019300e+000 -3.292327e+000 -9.757232e-001 8.027697e-001 1.662951e+000 -7.366999e-001 3.668513e-001 2.251799e+000 1.613378e+000 -1.073629e+000 -6.002418e-002 -1.358028e+000 1.676663e+000 -3.919415e-001 -1.014591e+000 7.415679e-001 7.686030e-001 -5.847650e-001 -1.064330e+000 -7.872257e-001 -2.902966e-001 2.931498e-001 1.341029e-001 2.253032e-001 -4.084781e-002 4.868894e-001 -4.485693e-001 1.500476e+000 -4.839337e-001 -2.886415e-001 -1.556951e-002
<VARIANCE> 39
 1.000004e-002 3.207000e-002 8.209578e-001 4.087669e-001 2.192408e-001 1.412161e-002 8.564287e-001 8.263010e-001 3.173953e-001 3.623408e+000 2.847706e-001 2.791258e+000 1.084575e-002 4.069977e-001 2.319647e-001 5.304930e-001 2.301219e-001 6.573370e-001 1.407907e-001 8.976711e-001 9.918779e-001 1.441820e+000 4.311783e+000 1.149828e+000 3.912522e+000 2.959825e-002 1.426588e+000 3.785220e-001 2.809751e+000 1.168039e-001 1.290051e+000 3.964944e-002 2.943658e+000 2.287707e+000 2.504805e+000 9.348833e+000 8.153867e-001 6.882051e+000 1.800350e-001
<GCONST> 4.502232e+001
<MIXTURE> 9 6.794549e-003
<MEAN> 39
 8.432539e-001 -8.493586e-001 -9.202681e-001 1.143904e+000 -1.388545e+000 1.814089e-001 -3.085527e-001 -5.818493e-002 -2.733618e+000 -2.308068e+000 -2.183574e+000 1.363617e-001 1.714526e+000 -3.152593e+000 2.754214e+000 3.622409e-001 -2.083243e+000 4.012026e+000 7.486338e-004 2.460672e+000 -6.051505e-001 3.846043e-001 3.218187e-002 -1.208592e-001 6.316097e-001 -9.596159e-001 -3.669309e+000 1.788874e+000 -6.480892e-001 -3.348027e+000 9.431024e-003 -5.225673e-001 2.200633e-001 8.906149e-001 9.151781e-001 1.782134e+000 1.399036e+000 -1.059721e+000 9.132147e-002
<VARIANCE> 39
 7.852238e-001 1.001864e+000 2.706581e-001 2.940884e-001 6.249357e-001 2.445916e-001 4.790538e-001 1.932347e-001 6.558433e-002 2.484811e-001 9.904703e-001 2.061688e+000 2.473477e-001 9.936183e-001 1.063211e+000 1.244336e-001 1.458080e+000 6.859669e-001 8.137797e-001 1.650755e-001 9.383763e-002 3.191200e-001 1.598070e+000 7.997578e-001 3.671954e-001 3.544993e-001 3.696485e-001 6.394934e-001 1.652993e-001 3.074516e-001 2.230955e+000 5.509461e-001 1.524880e+000 2.678556e-001 5.903969e-001 9.383726e-001 1.432375e-001 9.186792e-001 1.593872e-001
<GCONST> 4.094452e+001
<MIXTURE> 10 6.794611e-003
<MEAN> 39
 -6.049572e-001 4.724151e-001 -9.460347e-001 -1.256772e+000 -8.434511e-003 -2.015527e+000 6.777349e-001 5.445071e-001 -7.300628e-001 -1.948239e+000 -2.044435e+000 2.809992e-001 1.389553e+000 -4.846305e+000 3.311563e+000 3.408855e-001 -4.430684e+000 2.069707e+000 -9.384598e-001 2.854738e-001 1.538751e+000 1.177776e+000 1.271153e+000 8.048335e-001 -2.940968e-001 -4.158872e-001 7.415183e-001 -1.619017e+000 1.264210e-001 4.031163e-001 -2.574863e+000 6.922561e-001 -1.614590e+000 7.578716e-001 -1.031429e+000 -1.058264e-001 -4.055715e-001 -1.626950e+000 1.218422e+000
<VARIANCE> 39
 5.908836e-001 1.983324e-001 5.062743e-002 3.966748e-001 3.056309e-001 2.933523e-001 1.638567e-001 1.056754e+000 3.246259e-001 1.722839e-001 2.247420e-001 3.267627e+000 2.879725e-002 2.496574e-001 1.223049e+000 6.843273e-002 1.379793e+000 7.456285e-001 1.412629e+000 1.971768e-001 3.387351e-002 2.269516e+000 1.081838e+000 6.653766e-001 8.455876e-001 2.984865e-001 2.728324e+000 2.274511e+000 4.803007e-002 3.852067e+000 4.470472e-001 1.270594e+000 5.172759e-001 2.090159e+000 8.035318e-001 3.041472e+000 7.969984e-001 8.432604e-001 4.297026e-002
<GCONST> 4.233063e+001
<MIXTURE> 11 2.569912e-001
<MEAN> 39
 1.675460e+000 -2.214567e+000 -4.527032e-001 -1.280645e+000 2.224347e-001 -6.267342e-001 -1.125357e-001 6.955746e-001 -2.576158e-001 -1.044057e+000 -7.372158e-001 -1.700731e+000 2.118861e+000 -8.527634e-002 7.150831e-002 2.567606e-001 -8.449723e-002 -5.166786e-001 -4.082826e-001 -4.129018e-002 2.999682e-001 2.283824e-001 4.813923e-002 -1.556664e-001 1.488409e-002 9.359536e-002 -2.221198e-002 3.577915e-001 2.285077e-001 2.240110e-001 -3.026818e-001 -6.120383e-002 -9.788265e-003 3.199160e-002 2.175941e-001 5.366088e-002 2.675342e-002 2.507468e-001 -1.998741e-001
<VARIANCE> 39
 7.996117e-001 1.754113e-001 1.071013e+000 6.297969e-001 2.409015e+000 2.278579e+000 2.238696e+000 1.873275e+000 2.142914e+000 1.520514e+000 1.381324e+000 1.240272e+000 1.768862e-001 1.382722e-001 1.945582e-001 8.140243e-001 6.579319e-001 6.612644e-001 6.346551e-001 7.074804e-001 6.740224e-001 8.057159e-001 5.249937e-001 7.482590e-001 7.506658e-001 5.657773e-002 2.181801e-001 3.344132e-001 8.414540e-001 5.237034e-001 5.633580e-001 5.608710e-001 7.232122e-001 6.408025e-001 5.614365e-001 4.717511e-001 6.229197e-001 8.777849e-001 9.285636e-002
<GCONST> 5.261736e+001
<MIXTURE> 12 2.039043e-002
<MEAN> 39
 2.322984e-001 -8.561499e-001 2.867489e-001 -7.195591e-001 -2.568017e+000 -1.603654e+000 -1.264327e+000 1.440488e+000 -1.399318e+000 -3.452533e-001 -4.172707e-001 9.408160e-002 1.619311e+000 -8.091487e-001 1.512961e+000 2.574205e-001 1.006871e+000 1.179353e+000 -5.261629e-001 5.256565e-001 -1.268067e+000 2.893063e-001 -1.353318e-001 -3.892880e-001 2.636051e-001 -4.489639e-001 -1.603204e+000 1.707865e+000 -1.433594e+000 -8.002266e-001 1.894113e+000 1.184048e+000 2.167213e+000 -1.137810e+000 7.667834e-001 -9.380471e-001 -7.502438e-001 -5.968422e-001 -2.689759e-001
<VARIANCE> 39
 1.337630e+000 1.559441e+000 1.284703e+000 7.832909e-001 1.158976e+000 3.769765e-001 8.493851e-001 3.275024e+000 1.017062e+000 1.534222e+000 2.363516e+000 1.398676e+000 1.713430e-001 1.515714e+000 1.982857e+000 1.816682e+000 1.222981e+000 3.155241e+000 3.061951e+000 2.160541e+000 1.782390e+000 1.706172e+000 2.023989e+000 1.856838e+000 1.456139e+000 3.370669e-001 1.488535e+000 1.324992e+000 8.451399e-001 3.121525e+000 2.954382e+000 1.083117e+000 2.117166e+000 3.098680e+000 1.375054e+000 1.592082e+000 3.251474e+000 1.539717e+000 8.244908e-001
<GCONST> 8.604666e+001
<MIXTURE> 13 3.563864e-002
<MEAN> 39
 2.233956e+000 -2.769091e+000 -5.369924e-001 -1.127837e+000 -8.684770e-001 4.198574e-001 -2.741215e-001 7.875704e-001 1.192734e+000 -1.153185e+000 -9.147946e-001 -1.540839e+000 2.934319e+000 9.320251e-001 -1.329499e+000 1.710877e-001 -1.199595e+000 -6.335470e-001 -2.580091e-001 -4.981538e-001 5.100570e-001 -1.725297e-001 -3.557754e-001 2.031822e-001 -1.308204e+000 1.951066e+000 -1.937948e+000 6.530091e-001 3.743739e-001 5.219518e-001 4.900434e-001 4.536858e-002 4.803937e-001 1.203389e-001 -1.769335e-001 -4.295167e-001 6.015453e-002 7.516460e-001 -2.295925e+000
<VARIANCE> 39
 3.706224e-001 8.745775e-001 1.555366e+000 1.265582e+000 2.584119e-001 1.746699e+000 3.965482e+000 1.883524e+000 3.837622e-001 3.608660e-001 1.346095e+000 1.354442e+000 7.852144e-001 2.777001e+000 1.010211e+000 1.897673e+000 6.674346e-001 8.598616e-001 7.769053e-001 7.341695e-001 1.303524e+000 3.395389e-001 4.872000e-001 8.269129e-001 1.810918e+000 3.856428e+000 1.583178e+000 1.655466e+000 1.796839e+000 9.549977e-001 4.252674e-001 6.216470e-001 5.747333e-001 1.480972e+000 7.985728e-001 1.381473e-001 8.011395e-001 7.306533e-001 1.541780e+000
<GCONST> 6.930470e+001
<MIXTURE> 14 3.060060e-002
<MEAN> 39
 6.454679e-001 -2.786334e+000 -6.815696e-001 -8.422080e-001 -6.558564e-001 -8.249238e-001 -1.116786e+000 -2.031783e+000 -2.294025e+000 -3.158614e+000 -1.330949e+000 -9.104430e-001 2.360197e+000 1.688362e-001 -1.378503e+000 -2.030109e-001 -4.948885e-001 -3.497981e-001 -3.299827e-001 8.788555e-001 -9.139007e-001 -2.439484e-001 -2.920120e-001 -1.280216e+000 -9.619702e-001 2.093570e+000 -1.434128e+000 9.596561e-001 1.613054e+000 6.088275e-001 1.334494e+000 4.820458e-001 6.136186e-001 2.220714e+000 1.780263e+000 2.065310e+000 1.482053e+000 6.874157e-001 -2.304935e+000
<VARIANCE> 39
 1.241106e+000 2.676247e-001 1.600618e+000 5.754913e-001 1.314695e+000 5.600203e+000 1.751152e+000 1.672540e+000 3.784903e-001 8.652999e-001 4.959191e+000 2.169072e+000 1.574920e-001 2.008625e+000 2.602062e+000 2.994551e+000 1.591825e+000 2.630251e+000 1.710947e+000 2.353789e+000 3.037430e+000 1.469563e+000 2.445446e+000 3.274445e+000 3.616333e+000 1.355679e+000 6.753002e-001 3.478315e+000 8.963161e-001 9.855688e-001 1.468884e+000 3.448250e+000 3.874962e+000 2.669595e+000 9.174332e-001 9.572974e-001 2.147933e+000 2.669528e+000 1.286795e+000
<GCONST> 9.027409e+001
<MIXTURE> 15 1.189012e-002
<MEAN> 39
 -6.411648e-001 -1.333404e+000 -6.307051e-001 1.882296e-001 8.380766e-002 -9.635692e-001 -1.266491e+000 -1.411240e+000 -1.324579e+000 -1.808959e+000 6.926358e-001 5.519216e-002 1.377260e+000 1.760643e+000 -1.139363e+000 -9.564348e-001 -1.640289e+000 -2.497886e+000 -2.806578e+000 -2.503096e+000 -4.080253e+000 -2.395050e+000 -2.635895e+000 -1.515112e+000 -1.564960e-002 2.446426e+000 -4.631967e-001 -2.810762e+000 -1.979530e-001 4.871630e-001 -7.203367e-002 -4.584522e-001 4.724164e-001 4.477417e-001 6.442295e-001 1.449286e+000 9.569163e-002 5.806528e-001 6.402109e-001
<VARIANCE> 39
 4.230984e-001 1.543040e-001 4.629218e+000 1.160912e+000 1.746359e+000 1.702736e+000 2.383884e+000 2.223345e-001 3.310492e-001 1.700993e-001 2.288425e+000 1.022479e+000 5.260715e-002 4.015204e-001 1.447013e+000 9.843211e-001 6.918646e-001 1.934866e+000 3.214513e+000 4.918480e-001 7.935037e-001 8.550640e-001 7.337547e-001 1.493831e+000 5.930632e+000 7.945901e-001 2.170335e+000 1.368737e+000 4.326141e+000 2.841830e+000 6.041501e+000 4.765679e+000 4.452662e+000 3.021603e+000 1.539307e+000 7.247634e-001 1.947761e+000 2.194852e+000 8.836362e-001
<GCONST> 7.855392e+001
<MIXTURE> 16 1.555878e-001
<MEAN> 39
 8.227223e-001 -1.556054e+000 -1.708161e+000 -2.007107e-001 -1.495074e+000 -7.230268e-001 4.220027e-001 -1.282355e+000 -1.053424e+000 -1.108574e+000 -1.534660e+000 5.727913e-001 1.751631e+000 -8.012252e-002 3.295326e-001 3.899679e-001 -3.187967e-001 -4.842229e-001 -2.298637e-001 2.704726e-001 2.251419e-002 1.622081e-001 -2.430659e-002 1.387572e-001 -3.254850e-002 -4.626401e-002 5.687145e-002 3.634969e-001 3.758899e-001 -6.274597e-002 2.799971e-001 -2.783016e-001 -3.643800e-002 6.301057e-002 4.872284e-002 -7.626891e-002 1.753234e-001 -4.767419e-001 -1.861856e-001
<VARIANCE> 39
 6.120988e-001 2.048674e-001 4.458546e-001 1.599280e+000 1.116338e+000 1.384650e+000 2.365644e+000 8.466992e-001 1.952852e+000 8.782288e-001 1.643639e+000 1.355537e+000 1.342559e-001 2.410977e-001 8.623070e-001 5.828024e-001 7.756758e-001 1.206304e+000 1.301325e+000 1.400160e+000 8.777950e-001 1.091573e+000 1.129510e+000 8.634483e-001 1.152588e+000 7.091030e-002 3.575418e-001 8.796926e-001 7.065708e-001 7.912340e-001 1.596385e+000 1.458818e+000 1.166758e+000 8.780588e-001 1.125094e+000 1.544356e+000 1.050522e+000 8.547016e-001 7.740652e-002
<GCONST> 6.259370e+001
<STATE> 4
<NUMMIXES> 16
<MIXTURE> 1 7.984587e-003
<MEAN> 39
 -1.764557e+000 -3.448581e-002 2.217884e-001 -6.689148e-001 -4.146403e-001 -9.838133e-001 2.370182e-001 1.699376e-001 -7.566538e-001 7.024159e-001 -3.870108e-002 -1.913545e+000 1.433880e+000 -1.351914e+000 -1.616692e+000 -1.573593e+000 -1.194678e-001 1.169158e+000 1.130762e-001 2.690416e-001 -2.902741e-001 -1.365836e-002 8.433869e-001 1.193300e-001 -4.185325e-001 4.512737e-001 1.039556e+000 1.588961e+000 9.890757e-001 -1.172826e+000 -4.745982e-001 5.508960e-001 -8.016774e-001 7.316105e-001 2.244205e+000 -2.018637e+000 8.636887e-001 1.972625e+000 3.573838e-001
<VARIANCE> 39
 8.457032e-002 2.052473e+000 1.729214e+000 1.929114e+000 1.309718e+000 5.069105e-001 3.603362e-002 2.716514e-001 2.136871e+000 1.245742e+000 5.719544e-001 1.517483e+000 1.172655e-002 2.297699e+000 4.693809e-001 5.955902e-001 1.389433e-001 3.549363e-001 1.840816e-001 5.791396e-001 6.348537e-002 1.745108e+000 5.698981e-001 5.175327e+000 6.104608e-001 1.062738e-001 2.455048e+000 4.425317e-001 6.969594e-001 3.837107e-001 4.551290e-001 7.326891e-002 1.533409e-001 5.106495e-001 2.993858e-001 3.503425e+000 1.796834e+000 8.971422e-002 6.719837e-002
<GCONST> 4.128024e+001
<MIXTURE> 2 1.516889e-001
<MEAN> 39
 6.691127e-001 -1.462117e+000 -8.237717e-001 -9.762427e-001 -1.006133e+000 -9.373854e-001 -1.977786e-001 -1.231022e+000 -1.621364e+000 -5.037348e-001 -8.149062e-001 -1.113876e+000 1.540675e+000 1.285378e-002 4.936352e-001 4.795673e-001 -4.851679e-001 -2.708886e-001 6.662156e-002 1.627837e-001 2.335196e-001 -1.614615e-001 1.020588e-001 -1.362566e-001 -1.975535e-001 -1.549705e-001 6.989083e-002 2.197306e-001 1.878864e-001 -4.759374e-002 -1.351318e-001 1.286584e-002 -1.253327e-001 1.018318e-001 1.782447e-001 -4.947190e-002 -1.562760e-001 4.783364e-002 -6.127487e-002
<VARIANCE> 39
 1.050578e-001 6.207930e-001 1.346025e+000 2.851997e-001 4.649794e-001 4.585188e-001 6.099911e-001 4.301309e-001 3.387855e-001 1.370052e+000 4.999096e-001 1.153068e+000 7.783616e-002 6.002127e-002 3.096682e-001 7.669641e-001 6.158994e-001 3.976774e-001 4.111370e-001 9.258907e-001 8.272023e-001 1.076417e+000 5.231755e-001 7.004443e-001 1.188697e+000 5.563484e-002 1.072450e-001 4.476027e-001 7.353730e-001 6.235552e-001 3.828675e-001 4.739501e-001 1.019804e+000 6.751686e-001 1.195321e+000 4.951819e-001 7.015510e-001 9.368510e-001 5.779903e-002
<GCONST> 4.108446e+001
<MIXTURE> 3 2.835617e-001
<MEAN> 39
 -2.262746e+000 1.565248e+000 8.612036e-001 -1.951287e+000 -2.628703e-001 1.130849e-001 7.682278e-002 1.188218e-001 -7.157791e-001 -1.028304e+000 -2.712448e-001 -2.999680e-001 1.547362e+000 -4.533536e-001 1.075190e-001 5.169150e-001 3.053941e-001 2.907427e-001 4.162028e-001 -5.264093e-002 -5.885841e-002 2.760274e-001 2.818666e-001 2.707812e-001 1.166222e-001 -2.417122e-002 3.662329e-001 -5.169251e-002 -3.074957e-001 1.568910e-001 1.208105e-001 -2.293139e-001 4.406351e-003 -5.431620e-002 8.173506e-002 2.318406e-001 -1.682609e-002 1.305610e-002 -1.646707e-001
<VARIANCE> 39
 3.847668e-001 3.158454e-001 2.087015e+000 4.104200e-001 1.392757e+000 1.435900e+000 1.798509e+000 1.236702e+000 1.066071e+000 1.122513e+000 1.782292e+000 1.389168e+000 3.602879e-002 2.707790e-001 5.250407e-001 1.211575e+000 8.551303e-001 8.763229e-001 1.237598e+000 1.572864e+000 1.291157e+000 1.459402e+000 1.735014e+000 1.440696e+000 1.300950e+000 7.187346e-002 3.321491e-001 7.605801e-001 1.327991e+000 1.080471e+000 1.030740e+000 1.240479e+000 1.756448e+000 1.269460e+000 1.126494e+000 1.666135e+000 1.661519e+000 1.233136e+000 1.584518e-001
<GCONST> 6.600613e+001
<MIXTURE> 4 1.320775e-001
<MEAN> 39
 1.605154e+000 -2.021178e+000 4.309213e-001 -1.197105e+000 -1.226462e+000 -1.206845e+000 2.556588e-001 1.421595e+000 1.101319e+000 -1.163725e+000 -1.158149e+000 -1.097248e+000 2.354895e+000 -2.760628e-001 1.471318e+000 9.459387e-001 4.432371e-001 -7.937896e-001 -6.018791e-001 -9.028117e-002 -1.467217e-001 1.721644e-001 4.653233e-001 5.138869e-001 9.715112e-001 -6.571113e-001 -1.551554e-001 1.000126e+000 1.678340e-001 1.677586e-001 4.563895e-001 3.504937e-001 -1.097174e-001 -6.496877e-001 -3.910363e-001 2.704746e-001 3.217475e-001 1.884387e-001 -5.469327e-001
<VARIANCE> 39
 5.791770e-001 8.991290e-001 1.126712e+000 6.086324e-001 1.824487e+000 2.182393e+000 3.269694e+000 2.252518e+000 1.472270e+000 9.259089e-001 9.942413e-001 1.715774e+000 6.997322e-001 2.257932e-001 9.755039e-001 1.787580e+000 8.244464e-001 1.493549e+000 9.223793e-001 1.821650e+000 1.451955e+000 5.535578e-001 1.533410e+000 9.310870e-001 1.409256e+000 2.014363e-001 5.070003e-001 8.300976e-001 1.491557e+000 6.213868e-001 1.285131e+000 1.100442e+000 1.600059e+000 1.343360e+000 6.339325e-001 1.520359e+000 7.568033e-001 1.753807e+000 1.831408e-001
<GCONST> 7.190529e+001
<MIXTURE> 5 1.809216e-002
<MEAN> 39
 1.139763e+000 -3.883353e-001 2.363660e+000 -8.482957e-001 -1.965521e+000 -1.956425e+000 -1.176392e+000 7.992522e-001 -8.096299e-001 1.682099e+000 -1.352301e+000 1.208250e-001 1.691138e+000 -2.825436e+000 3.502548e+000 6.491320e-002 1.378623e+000 1.255097e+000 4.695073e-001 2.330424e+000 -2.670683e+000 1.646205e+000 -8.128930e-001 1.498304e+000 1.371903e-001 -1.032222e+000 -3.228659e+000 7.126809e-001 -2.400288e+000 -9.701763e-001 1.778830e+000 1.544706e+000 1.476317e+000 6.061311e-001 8.707265e-001 -1.936203e+000 7.379341e-001 -1.089107e+000 -1.407835e-001
<VARIANCE> 39
 6.832379e-001 4.111262e-001 8.608641e-001 5.250490e-001 1.173231e+000 4.289471e-001 1.207240e+000 7.026575e-001 1.255951e+000 3.570825e+000 9.004112e-001 4.709992e-001 1.269455e-001 8.969644e-001 1.121868e+000 2.781818e+000 2.751490e+000 2.132104e+000 7.670024e-001 8.634312e-001 8.583322e-001 2.157278e+000 2.079337e+000 1.969121e+000 8.092334e-001 1.893102e-001 8.937562e-001 1.360496e+000 8.809910e-001 1.470076e+000 1.301572e+000 7.396545e-001 1.717825e+000 1.438930e+000 7.261251e-001 1.493814e+000 3.882795e-001 1.054794e+000 4.590984e-001
<GCONST> 6.960844e+001
<MIXTURE> 6 9.429003e-002
<MEAN> 39
 7.530515e-001 -1.196304e+000 -4.919831e-001 -2.227455e+000 -2.046352e+000 -1.591105e+000 5.377912e-001 -1.893029e+000 -1.600084e+000 -1.889190e+000 -1.696651e+000 -1.319880e+000 1.590762e+000 1.195225e-001 2.545410e+000 9.278942e-001 -7.322987e-001 -8.888829e-001 -4.463783e-001 -4.688501e-001 1.570308e-002 1.311575e-001 4.381568e-002 -5.374164e-001 -2.256629e-001 -7.700733e-001 -9.972643e-001 7.302392e-001 4.242065e-002 7.728220e-001 1.068113e+000 7.128518e-001 -7.116674e-001 -4.466372e-002 -2.641861e-001 7.185284e-001 5.823483e-001 3.392848e-001 -1.650896e-001
<VARIANCE> 39
 8.429564e-001 5.845568e-001 7.347829e-001 7.121545e-001 1.452709e+000 1.040688e+000 1.662082e+000 5.493780e-001 8.648837e-001 1.162586e+000 1.104010e+000 9.407412e-001 9.584857e-002 5.036823e-001 1.319362e+000 1.275141e+000 2.401572e+000 1.676274e+000 1.669248e+000 2.258938e+000 1.162427e+000 2.551214e+000 1.627309e+000 2.707343e+000 9.781524e-001 3.581048e-001 1.161579e+000 1.921006e+000 1.118707e+000 1.108035e+000 1.707086e+000 2.611588e+000 1.680793e+000 1.205665e+000 2.119137e+000 1.719390e+000 2.220942e+000 1.823709e+000 3.526720e-001
<GCONST> 7.728592e+001
<MIXTURE> 7 7.984753e-003
<MEAN> 39
 9.070629e-001 -1.159303e+000 1.388024e+000 -1.996770e+000 -1.704458e+000 1.045815e+000 1.057351e+000 -1.373600e+000 -2.076648e+000 -2.318353e+000 -2.048035e+000 -2.654468e+000 1.903937e+000 -8.821238e-001 6.944845e-001 2.968709e+000 -4.263129e-001 1.279622e+000 -3.958311e-001 2.794360e+000 -2.132342e-002 -1.000583e-001 3.678531e+000 -3.893338e-001 -9.384087e-001 -6.876958e-001 -1.117242e+000 -2.858161e-001 7.746480e-001 1.073018e+000 6.703004e-001 -1.991996e+000 -2.230001e+000 1.290282e+000 2.144996e+000 1.497073e+000 2.134097e+000 1.189553e+000 -1.217230e+000
<VARIANCE> 39
 5.631296e-001 1.090308e+000 1.225548e-001 1.047147e-001 1.002532e+000 3.364065e-001 1.913130e+000 4.326964e+000 7.004939e-001 7.618531e-001 2.660776e-001 2.363415e+000 3.823814e-001 1.587358e-001 1.656037e+000 1.175047e+000 3.750980e-001 2.585348e-001 1.283184e-001 1.281745e+000 7.275782e-001 1.425259e+000 5.593966e-001 8.818764e-001 1.596163e+000 3.439471e-002 5.952095e-001 4.131573e-001 2.510086e+000 1.975229e+000 1.188245e-001 2.247604e-001 1.582820e+000 1.656952e+000 8.161978e-002 2.465016e+000 1.782609e+000 3.598999e+000 2.982049e-001
<GCONST> 5.350648e+001
<MIXTURE> 8 8.374083e-002
<MEAN> 39
 -1.600784e+000 1.222498e+000 -4.454322e-001 -1.736511e+000 2.870655e-002 -5.702371e-001 1.086397e+000 -1.665185e-001 -3.194878e-001 -7.225759e-001 -1.116184e+000 -4.977443e-001 1.381517e+000 -2.346293e+000 1.306446e+000 -5.469913e-001 -1.657581e+000 4.790613e-001 3.293813e-001 -4.750312e-001 6.500393e-001 4.153309e-001 3.342394e-001 4.369388e-001 5.005420e-002 3.054990e-001 2.038657e+000 -1.997537e+000 1.482741e+000 5.444931e-001 -1.025093e+000 -5.814118e-001 -8.836234e-001 4.386010e-002 -7.886143e-001 -1.150766e-001 1.111149e-001 2.103036e-001 5.735654e-001
<VARIANCE> 39
 2.740428e-001 5.429703e-001 2.586715e+000 8.606622e-001 1.137808e+000 1.307062e+000 1.343981e+000 1.605926e+000 2.760262e+000 8.264255e-001 8.672930e-001 2.539857e+000 6.145814e-002 1.567484e+000 1.660011e+000 1.996496e+000 1.643138e+000 1.771610e+000 1.332365e+000 1.923424e+000 1.828924e+000 1.646455e+000 2.696125e+000 1.220566e+000 2.410018e+000 2.880930e-001 8.552833e-001 1.372670e+000 1.383025e+000 3.410294e+000 1.327568e+000 1.572081e+000 2.135843e+000 3.194480e+000 2.750914e+000 1.894141e+000 2.070004e+000 2.636348e+000 7.571309e-001
<GCONST> 8.358646e+001
<MIXTURE> 9 4.772772e-002
<MEAN> 39
 2.452541e-001 5.877119e-002 2.459942e-001 -1.730492e+000 -1.352612e+000 -1.314741e+000 -1.076246e-001 -1.724636e+000 -2.127613e+000 -1.281338e+000 -1.310076e+000 -1.009695e+000 1.212234e+000 -3.011553e+000 2.756890e+000 -9.016053e-002 6.888492e-001 1.176952e+000 2.015092e+000 -2.600899e-001 1.791115e+000 -5.325639e-002 8.602920e-001 7.826573e-001 -2.734893e-001 -9.473855e-001 -1.291633e+000 -7.563560e-001 -8.896769e-001 -4.714672e-001 9.554315e-002 2.502541e-001 6.433807e-001 7.274964e-001 9.038155e-001 7.891535e-002 -3.398383e-001 2.004791e-001 6.391430e-001
<VARIANCE> 39
 7.930570e-001 5.347846e-001 1.352710e+000 1.196628e+000 8.919964e-001 8.017728e-001 2.441488e+000 1.287866e+000 8.735731e-001 8.303503e-001 6.918170e-001 1.591731e+000 3.856109e-001 6.608983e-001 1.205755e+000 4.848017e+000 3.284832e+000 1.741008e+000 1.139663e+000 3.407603e+000 1.081481e+000 2.481394e+000 1.736684e+000 2.010224e+000 9.973317e-001 5.074281e-001 1.786698e+000 1.574326e+000 3.854124e+000 2.731847e+000 1.059531e+000 2.483677e+000 3.637424e+000 1.490661e+000 1.461007e+000 1.134662e+000 1.390406e+000 9.542782e-001 5.828534e-001
<GCONST> 8.323698e+001
<MIXTURE> 10 1.996128e-002
<MEAN> 39
 6.645173e-001 8.088362e-001 1.561496e+000 -1.196120e+000 -6.559922e-001 -9.151744e-001 3.910780e-002 9.182518e-001 1.714389e+000 2.906772e-001 -1.250022e+000 -9.582292e-001 1.760955e+000 -4.088585e+000 1.363955e+000 1.692454e+000 -9.729590e-001 -9.499620e-001 2.788806e+000 -2.661802e-001 5.399053e-001 2.120656e-001 8.412906e-001 -4.357584e-001 -3.505810e-001 -6.857884e-001 -1.133851e+000 -1.774602e+000 -6.171342e-001 -1.493757e-001 -4.030595e-002 -4.108661e-001 1.312120e+000 -1.315481e+000 -4.130195e-002 -4.026737e-001 1.128587e+000 -6.625560e-001 1.132670e+000
<VARIANCE> 39
 1.404364e+000 1.250417e-001 5.314168e-001 2.070225e-001 4.073569e-001 2.171400e+000 7.915043e-001 5.171914e-001 7.647843e-001 5.138097e-001 4.309454e-001 1.413944e+000 3.923170e-002 1.987857e+000 1.450109e+000 6.798025e-001 2.786519e-001 2.934921e+000 7.573406e-001 3.140647e+000 2.021463e+000 7.847946e-001 8.776805e-001 2.184681e+000 2.002006e+000 7.833070e-001 5.745828e+000 3.037716e-001 1.521191e+000 1.000802e+000 1.431834e+000 2.119141e+000 1.554711e+000 1.867356e+000 9.381518e-001 7.170731e-001 1.000109e+000 2.929481e+000 5.294986e-001
<GCONST> 6.814326e+001
<MIXTURE> 11 3.244751e-002
<MEAN> 39
 -1.022717e-001 -1.333400e-001 1.171821e+000 -1.019170e+000 -2.420823e-001 -1.251100e+000 1.128329e+000 4.125209e-001 6.355232e-002 -9.452540e-001 -9.391036e-001 3.103012e-001 1.447900e+000 -4.103713e+000 2.567647e+000 -1.257286e+000 -1.189447e+000 1.920817e+000 5.581070e-001 1.762402e+000 -1.863984e+000 1.279568e+000 -4.935569e-001 4.509138e-001 -2.223124e-001 -1.035198e+000 -7.522038e-001 -8.220214e-001 -6.591304e-001 -1.297824e+000 -1.134869e+000 5.907062e-001 -9.729987e-001 6.345595e-001 -3.720161e-001 3.416436e-001 -2.411209e-001 -4.997292e-001 1.021563e+000
<VARIANCE> 39
 6.043265e-001 1.236773e+000 1.299966e+000 9.791164e-001 1.592420e+000 1.567680e+000 1.573421e+000 2.276219e+000 2.042926e+000 1.260626e+000 1.489692e+000 9.328799e-001 1.384364e-001 9.268491e-001 1.637768e+000 1.220868e+000 9.599413e-001 1.559668e+000 1.521757e+000 1.284040e+000 1.640169e+000 2.174584e+000 3.113947e+000 3.247280e+000 1.851160e+000 4.141219e-001 1.578101e+000 1.776228e+000 1.502519e+000 2.827797e+000 9.742526e-001 7.330386e-001 1.299505e+000 1.892052e+000 1.533845e+000 1.409227e+000 9.547449e-001 4.576416e-001 5.516621e-001
<GCONST> 8.051403e+001
<MIXTURE> 12 5.043132e-002
<MEAN> 39
 2.135612e+000 -6.225320e-001 9.447488e-001 -5.220712e-001 -1.544034e+000 -2.088150e+000 4.821197e-001 1.725931e-001 8.997177e-001 -7.694812e-001 6.079528e-001 -5.736426e-001 1.974219e+000 -4.805774e-001 1.674063e+000 1.578407e+000 5.648236e-001 6.320952e-001 9.180571e-001 -1.236521e+000 -3.354790e-001 -4.185650e-001 4.703007e-001 4.198088e-001 7.178224e-001 -1.230387e+000 -2.207899e+000 -3.929284e-001 -4.633838e-002 -7.516542e-001 8.120138e-001 7.756167e-001 -1.087587e-001 5.494580e-001 -3.900680e-001 -2.342295e-001 -1.381703e+000 -5.323043e-001 -1.824902e-001
<VARIANCE> 39
 4.983007e-001 6.059828e-001 1.543227e+000 1.152040e+000 1.813695e+000 8.966261e-001 2.694744e+000 1.976529e+000 1.680565e+000 4.755107e-001 2.033606e+000 1.062934e+000 1.904626e-001 6.856031e-001 2.065605e+000 2.283480e+000 1.069469e+000 2.783016e+000 1.148275e+000 1.083495e+000 2.242652e+000 4.849535e-001 1.233609e+000 1.799697e+000 2.067011e+000 4.663867e-001 1.803475e+000 6.737273e-001 1.589692e+000 3.820263e+000 2.467118e+000 1.489676e+000 1.639430e+000 1.707326e+000 7.883632e-001 9.212356e-001 1.223492e+000 1.601940e+000 7.168957e-001
<GCONST> 7.977987e+001
<MIXTURE> 13 1.397439e-002
<MEAN> 39
 8.787496e-001 -6.664710e-001 1.903180e+000 -2.828996e-001 -1.931273e+000 -2.520742e-001 -1.616064e+000 6.039305e-001 1.081553e+000 -1.057014e+000 -1.532324e+000 -1.605664e-001 2.152397e+000 -3.713576e+000 7.848331e-001 2.546594e-001 -1.378362e-001 1.616390e+000 2.288065e-001 3.246667e-001 -4.716517e-001 -6.287782e-001 3.057818e-001 -5.835025e-002 -1.662936e+000 -1.215729e+000 -2.223228e+000 -1.589008e+000 -1.311520e+000 -1.779792e+000 4.873224e-001 -6.205909e-001 1.399830e+000 2.513670e-001 5.383038e-003 -5.437711e-001 5.221142e-001 -1.069903e+000 3.754060e-001
<VARIANCE> 39
 9.959752e-001 9.781739e-001 7.451255e-001 6.207986e-001 3.431235e-001 1.516545e+000 2.452127e+000 1.301972e+000 7.000269e-001 1.547863e+000 2.508714e+000 7.391321e-001 2.671564e-001 2.404486e+000 3.915298e+000 2.316011e+000 2.165897e+000 9.328993e-001 1.412984e+000 6.645235e-001 7.332232e-001 2.161076e+000 1.306195e+001 1.085334e+000 2.271555e+000 7.735290e-001 1.656399e+000 3.968997e-001 1.213855e+000 1.512027e-001 3.507289e+000 2.085404e-001 1.061738e+000 2.276967e+000 4.746016e-001 2.639384e+000 1.438815e+000 2.703498e+000 4.088167e-001
<GCONST> 7.730797e+001
<MIXTURE> 14 4.006793e-002
<MEAN> 39
 1.697006e+000 -2.545401e+000 -3.983180e-001 -1.124684e+000 -2.520925e+000 -1.179440e+000 -8.995640e-001 1.049122e+000 -2.937293e+000 -2.270134e+000 -2.515436e+000 -2.279467e+000 2.722943e+000 1.244551e-001 1.270805e+000 4.291958e-001 -7.399603e-001 -1.792203e-001 -3.452902e-001 3.463223e-001 1.026518e+000 -2.556500e-002 -1.899729e-001 5.466003e-001 4.572617e-001 -4.135780e-001 -6.463443e-001 9.246769e-001 7.097045e-001 5.713276e-001 8.916354e-001 2.798383e-001 5.335906e-001 -1.003408e+000 8.958592e-001 3.645035e-001 8.346286e-002 4.048867e-001 -4.780506e-001
<VARIANCE> 39
 3.122589e-001 8.761771e-001 2.295391e+000 5.118761e-001 1.202125e+000 4.814897e-001 4.172977e+000 1.260933e+000 4.681466e-001 6.067848e-001 4.637412e-001 1.411288e+000 2.663083e-001 6.239783e-001 1.466111e+000 2.816633e+000 3.272328e+000 1.721925e+000 2.786806e+000 3.336168e+000 2.077023e+000 1.762562e+000 1.916956e+000 7.330161e-001 1.849147e+000 1.676379e-001 6.732033e-001 9.123618e-001 1.839403e+000 2.215740e+000 1.679568e+000 9.008846e-001 4.019374e+000 2.201398e+000 8.346230e-001 2.970746e+000 1.335872e+000 5.984187e-001 3.613524e-001
<GCONST> 7.720050e+001
<MIXTURE> 15 7.984756e-003
<MEAN> 39
 1.391056e+000 -1.900552e+000 2.012279e+000 -1.489904e+000 6.296378e-001 -1.758201e+000 3.117109e-001 2.133126e+000 -1.909655e+000 -1.209208e+000 -2.363495e+000 8.026186e-001 2.358308e+000 -1.122171e+000 6.285303e-001 3.265245e+000 -4.877802e-001 2.764179e+000 -2.690823e+000 -1.464630e+000 -7.945114e-001 2.140056e-001 2.910470e+000 -4.823104e-001 9.952375e-001 -1.053863e+000 -1.828549e+000 -6.415465e-001 -1.185976e+000 -1.874674e-001 8.862723e-001 7.426322e-001 2.478853e+000 4.227960e-001 -7.378176e-001 1.318598e+000 6.236148e-001 4.296656e-001 -4.185666e-001
<VARIANCE> 39
 2.852414e-001 1.130233e-001 3.208132e-001 1.188445e-001 4.118107e-001 2.104542e+000 5.055727e+000 6.171845e-001 3.043398e-001 3.123602e-001 4.007137e-001 2.816556e-001 1.078693e-002 7.723317e-001 3.730931e-001 3.609548e-001 8.218684e-001 1.636344e-001 1.461249e-001 6.745162e+000 1.799587e+000 1.072274e+000 3.175707e-001 4.604789e-001 4.254339e-002 7.360170e-002 1.862836e-001 3.607975e-001 3.690949e+000 9.076681e-001 5.447204e-001 2.064051e+000 3.948894e+000 1.709766e+000 8.949087e-001 1.497554e+000 5.685160e-001 2.217017e-002 4.804670e-002
<GCONST> 3.901041e+001
<MIXTURE> 16 7.984733e-003
<MEAN> 39
 -2.705771e-001 -1.899498e+000 -4.900039e-001 -2.379611e+000 -1.368342e+000 -6.176699e-001 2.480178e+000 -3.271398e+000 -1.730320e+000 -3.196055e+000 -1.372817e+000 -1.453731e+000 1.856058e+000 -3.876114e-001 9.884045e-001 2.161427e+000 -5.521957e-001 -2.061645e+000 1.180904e+000 1.571253e+000 -1.197838e+000 4.888965e-001 -5.240886e-002 -6.172009e-001 -4.722888e+000 -9.978878e-001 -2.897696e-001 1.678095e+000 -4.390750e-001 9.864710e-001 1.414792e+000 -2.256567e+000 -1.950639e+000 1.495602e+000 1.294480e-001 3.504225e+000 2.995797e-001 8.910379e-001 -3.007643e-001
<VARIANCE> 39
 1.974285e-001 1.417294e+000 5.868326e-001 3.992651e-001 1.129368e+000 3.817275e-002 1.664065e+000 1.098716e-001 2.944773e-001 9.636005e-001 3.132138e-001 2.676577e+000 9.215334e-002 4.233032e-001 1.209700e+000 2.190989e-002 3.651398e-001 2.597260e+000 1.593911e+000 4.337297e-001 1.550630e+000 9.048703e-001 3.190010e+000 1.010643e+000 1.904899e+000 1.003247e-001 2.347803e-001 5.596336e+000 4.756795e-001 4.323196e-001 1.554903e+000 5.544604e-001 3.099927e+000 4.713748e-001 1.003072e+000 4.100842e-001 1.342391e+000 8.947046e+000 4.081379e-002
<GCONST> 5.255219e+001
<STATE> 5
<NUMMIXES> 16
<MIXTURE> 1 1.413454e-001
<MEAN> 39
 -1.779413e+000 -3.856287e-001 5.819238e-001 -1.877601e-001 4.323693e-002 2.170988e-001 1.278310e+000 -7.264127e-001 6.521851e-001 -8.973366e-003 8.471216e-001 3.227846e-002 1.391203e+000 -1.262366e-001 2.333057e-001 1.518609e-001 -1.941100e-002 2.170075e-001 1.866069e-001 -3.095922e-001 -6.830221e-002 -2.885582e-001 -1.637121e-001 1.124646e-001 4.985845e-002 -9.066023e-002 2.191943e-001 2.759221e-001 -3.902965e-001 -2.708431e-001 1.472967e-001 1.878981e-001 -2.270200e-001 2.792617e-001 -1.443900e-001 -1.830789e-001 -4.772932e-001 -3.200644e-001 -2.109389e-001
<VARIANCE> 39
 4.388026e-001 3.387055e+000 3.918673e+000 1.389807e+000 3.115949e+000 2.891805e+000 2.145834e+000 1.299476e+000 1.215028e+000 1.757164e+000 1.101933e+000 1.765767e+000 1.957482e-001 3.570281e-001 7.454332e-001 1.319708e+000 1.587487e+000 1.378268e+000 2.195196e+000 1.921309e+000 1.924739e+000 1.777192e+000 1.642730e+000 2.375465e+000 1.705190e+000 1.739029e-001 8.527030e-001 1.005300e+000 1.693849e+000 1.525321e+000 1.456314e+000 2.247472e+000 2.026064e+000 2.211674e+000 2.096426e+000 1.766984e+000 2.587300e+000 1.710499e+000 3.942765e-001
<GCONST> 8.468412e+001
<MIXTURE> 2 4.368317e-002
<MEAN> 39
 5.789812e-001 -7.343446e-001 -6.179466e-001 -7.177552e-001 1.077904e-001 9.396913e-003 -3.485870e-001 4.716930e-001 -1.013753e+000 9.076608e-001 -1.004421e+000 3.719586e-001 6.435260e-001 -2.839541e-002 -5.211641e-002 7.937393e-002 7.144462e-002 -1.080280e-001 -2.618911e-001 -1.848707e-002 2.147239e-001 -1.695972e-001 -1.444749e-002 -1.715275e-001 1.619572e-001 -2.692871e-002 -1.433354e-002 5.158783e-002 7.157257e-002 3.383188e-002 -4.977049e-002 -1.248273e-001 7.700746e-003 6.737996e-004 9.507579e-002 -7.173107e-002 -2.242013e-002 -6.480508e-002 3.155135e-002
<VARIANCE> 39
 4.600097e-002 2.847003e-002 4.692300e-002 1.890807e-001 2.367627e-001 2.785646e-001 3.371468e-001 5.230952e-001 1.560818e-001 2.748593e-001 1.295504e-001 3.622629e-001 2.455214e-002 3.233109e-002 2.152734e-001 2.451601e-001 2.624125e-001 1.464590e-001 4.313042e-001 1.565910e-001 2.743351e-001 6.041940e-001 5.419446e-001 7.762121e-001 4.101440e-001 2.630191e-002 2.620639e-002 2.507650e-001 3.428366e-001 3.016483e-001 1.738911e-001 2.818505e-001 1.707371e-001 2.885611e-001 7.135864e-001 5.051259e-001 1.324030e+000 4.893664e-001 2.574014e-002
<GCONST> 7.991347e+000
<MIXTURE> 3 1.627690e-001
<MEAN> 39
 -5.191088e-001 6.590663e-001 5.827032e-001 -3.392660e-001 5.976369e-001 9.698381e-002 -2.146686e-001 1.747026e-001 2.790318e-001 -2.401586e-001 1.850420e-001 -3.160827e-001 -6.863289e-002 6.870356e-001 -6.082606e-001 -1.387791e-001 1.955117e-001 4.751519e-002 -3.128261e-001 2.514451e-001 1.042463e-001 1.527687e-001 4.687157e-002 2.101794e-001 1.258210e-001 -5.916739e-001 -1.104451e+000 2.354839e-001 -1.068188e-001 -4.347985e-001 -7.165918e-002 -4.006979e-001 2.424793e-001 1.103738e-003 -2.094741e-001 3.145515e-001 -6.038783e-002 9.627349e-002 1.377453e+000
<VARIANCE> 39
 3.736246e-001 3.830191e-001 6.829641e-001 8.997269e-001 1.179641e+000 9.452821e-001 9.943961e-001 8.501192e-001 8.660828e-001 8.240941e-001 9.104322e-001 1.028239e+000 3.292496e-001 1.345005e+000 1.063434e+000 1.352759e+000 1.358578e+000 1.476221e+000 1.136011e+000 1.257922e+000 1.012069e+000 1.486162e+000 1.311665e+000 1.175932e+000 1.425927e+000 1.423220e+000 9.852664e-001 1.032406e+000 1.655955e+000 1.283301e+000 1.334884e+000 1.296888e+000 1.375251e+000 1.235619e+000 1.824349e+000 1.221758e+000 1.231240e+000 1.677406e+000 1.413362e+000
<GCONST> 7.465770e+001
<MIXTURE> 5 1.559416e-002
<MEAN> 39
 4.929201e-001 8.952034e-002 1.483150e+000 -8.941388e-001 -1.194949e+000 -1.335821e+000 5.150364e-001 4.986312e-001 -8.352841e-001 -3.813008e-001 -1.166463e+000 -1.417146e+000 1.038439e+000 -1.655359e+000 1.215961e+000 9.553884e-001 7.558723e-001 9.231666e-001 2.318980e-001 -3.003486e-002 -4.768780e-001 1.763336e+000 7.693419e-001 2.465774e+000 8.808014e-002 -1.298204e+000 -1.648293e+000 -5.139219e-001 -9.073087e-001 -3.092521e-001 -3.294196e-001 4.801883e-001 -3.072902e-001 -8.324213e-001 1.210185e+000 -8.042952e-002 3.820679e-001 6.382460e-001 -2.202191e-001
<VARIANCE> 39
 3.015021e-001 4.960763e-001 3.936735e-001 4.216936e-001 1.229201e+000 3.336009e+000 1.829464e+000 1.956906e+000 1.269247e+000 1.770330e+000 5.198023e-001 1.599188e+000 4.077405e-001 1.339835e+000 1.324763e+000 1.823661e+000 1.711396e+000 1.801014e+000 1.519292e+000 1.996655e+000 2.770319e+000 1.577190e+000 3.232883e+000 1.533146e+000 3.541132e+000 7.721252e-001 1.590723e+000 1.010919e+000 1.105824e+000 2.055272e+000 3.733948e+000 2.592736e+000 3.601533e+000 1.290542e+000 1.095420e+000 3.628788e+000 2.245045e+000 3.082070e+000 9.620494e-001
<GCONST> 8.626516e+001
<MIXTURE> 6 1.164894e-002
<MEAN> 39
 1.695767e+000 3.367720e-001 1.092743e+000 -2.624762e+000 -3.318460e+000 -1.672328e+000 -7.940257e-001 -1.391770e+000 -3.254238e-001 -2.083383e-001 -1.183849e+000 -1.554771e+000 1.411264e+000 -5.849860e-001 1.715168e+000 6.481892e-001 8.225555e-001 6.896228e-001 -5.228223e-001 -1.187078e+000 -4.177423e-001 8.334863e-001 7.630069e-001 2.550515e-001 7.347216e-001 -1.080583e+000 -2.296297e+000 -4.192642e-002 -1.767170e+000 1.487325e+000 2.568435e+000 1.411239e+000 1.321783e+000 2.472141e-001 -9.764746e-001 -5.073157e-001 1.637934e-002 4.265074e-001 -1.233624e+000
<VARIANCE> 39
 1.240474e+000 4.266540e-001 7.145281e-001 8.084812e-001 2.237034e-001 6.651515e-001 1.034405e+000 1.464957e-001 4.598308e-001 8.513952e-001 1.227498e+000 2.893558e-001 1.649652e-001 2.389121e+000 1.861962e+000 2.997339e+000 9.354003e-001 1.467633e+000 2.810672e+000 2.009612e+000 3.942032e-001 1.544012e+000 1.684733e+000 1.495784e+000 1.887685e-001 6.509632e-001 1.200565e+000 1.837088e+000 5.019273e-001 5.357289e-001 8.897210e-001 1.897404e+000 2.036889e+000 2.887410e-001 1.407654e+000 2.367589e+000 1.410218e+000 5.824972e-001 3.272123e-001
<GCONST> 6.525526e+001
<MIXTURE> 7 2.686052e-001
<MEAN> 39
 -1.931430e+000 1.311307e+000 7.699267e-001 -1.254002e+000 6.415780e-001 6.444252e-003 -1.975684e-001 3.472361e-001 -1.580722e-001 3.435644e-001 1.501023e-001 -3.194313e-001 8.410536e-001 4.364675e-001 1.071642e-001 -3.279656e-001 3.558358e-001 3.717583e-001 2.446692e-002 -1.450154e-001 2.537685e-001 1.565977e-001 8.854583e-002 -1.090002e-001 1.261662e-001 -6.476967e-001 8.040372e-001 -4.567424e-001 7.968250e-002 1.992558e-001 -3.531761e-001 -7.517843e-002 -8.733752e-002 -1.473357e-001 -1.463630e-002 -2.203462e-001 6.844116e-002 -1.461108e-002 -4.883240e-001
<VARIANCE> 39
 4.787186e-001 2.602141e-001 1.287196e+000 5.168935e-001 9.591083e-001 1.047743e+000 1.108029e+000 1.015238e+000 8.253886e-001 4.845420e-001 1.066072e+000 6.527450e-001 1.897133e-001 1.418419e+000 7.969899e-001 1.590259e+000 9.675692e-001 1.046194e+000 1.102606e+000 1.226619e+000 1.190409e+000 1.235431e+000 9.840438e-001 1.164290e+000 1.036651e+000 9.549867e-001 1.043405e+000 9.338985e-001 1.159701e+000 1.062197e+000 1.115564e+000 1.002324e+000 1.016213e+000 1.226382e+000 1.079619e+000 1.045200e+000 1.080492e+000 9.783946e-001 7.730345e-001
<GCONST> 6.821391e+001
<MIXTURE> 8 1.776030e-001
<MEAN> 39
 -1.439758e+000 -8.001108e-002 7.220125e-001 -1.111365e+000 9.345500e-001 -1.469652e-002 -1.767182e-001 4.385349e-001 -2.430498e-001 1.805458e-001 1.972127e-001 -1.245781e-001 1.087208e+000 5.084121e-002 -1.565327e-001 -8.656963e-001 1.706032e-001 -1.472401e-001 -2.863536e-001 4.384588e-002 3.684320e-002 6.728154e-002 3.109165e-001 -7.491878e-002 1.249679e-001 -5.757108e-001 3.527135e-001 -7.356416e-002 1.748643e-001 4.015200e-001 -3.329568e-001 -5.347183e-002 3.509766e-001 -1.031690e-001 2.929893e-001 3.167866e-003 1.597323e-001 1.066933e-001 -5.233390e-001
<VARIANCE> 39
 1.658960e+000 2.753811e+000 3.336589e+000 2.609379e+000 3.521251e+000 4.039309e+000 3.211045e+000 2.247187e+000 2.121882e+000 2.691924e+000 2.344069e+000 3.037159e+000 4.682597e-001 3.241249e+000 3.429251e+000 3.934896e+000 3.493802e+000 3.123507e+000 4.087939e+000 2.860795e+000 3.118182e+000 2.563789e+000 2.652489e+000 2.601693e+000 3.539444e+000 3.517970e+000 2.653105e+000 3.912009e+000 4.010529e+000 3.634403e+000 4.011720e+000 4.239413e+000 2.474039e+000 3.198575e+000 2.975833e+000 2.808304e+000 3.002460e+000 3.595478e+000 3.611567e+000
<GCONST> 1.138055e+002
<MIXTURE> 9 1.139213e-001
<MEAN> 39
 -2.221334e+000 2.389237e-001 1.739417e+000 -1.838400e+000 -1.286775e+000 -1.181784e-002 6.040426e-002 -1.319849e-001 1.127882e+000 -6.583253e-001 -2.720830e-002 -6.910256e-001 1.297087e+000 -9.179812e-001 1.596805e-001 3.569018e-001 -3.187711e-002 5.727951e-002 2.064937e-001 2.149329e-001 -3.386452e-001 -1.360116e-001 2.254350e-001 6.094554e-001 2.752780e-001 2.263593e-002 9.840383e-001 2.155809e-001 1.803087e-002 5.026338e-001 5.827845e-001 -3.631912e-001 4.863663e-002 1.198737e-001 -3.071901e-001 2.115182e-001 -3.774061e-002 1.913285e-001 -2.475918e-002
<VARIANCE> 39
 8.919004e-001 7.623438e-001 7.013820e-001 3.366299e-001 1.510115e+000 1.303107e+000 1.652389e+000 1.185956e+000 1.312858e+000 1.397600e+000 1.415181e+000 1.000955e+000 1.990368e-001 1.071378e+000 5.942196e-001 7.058358e-001 1.103186e+000 1.365188e+000 1.097323e+000 9.810732e-001 1.449235e+000 1.165922e+000 8.245121e-001 8.205556e-001 9.628109e-001 1.868716e-001 1.182233e+000 7.951520e-001 8.878635e-001 1.108153e+000 1.397680e+000 1.157599e+000 1.287387e+000 1.427369e+000 1.124141e+000 8.426979e-001 1.068174e+000 9.647462e-001 2.873201e-001
<GCONST> 6.838081e+001
<MIXTURE> 10 3.886258e-003
<MEAN> 39
 -5.909264e-001 -1.647128e+000 2.649506e+000 -2.713962e+000 1.018930e+000 1.404156e-001 -7.918691e-001 1.348341e+000 -2.502282e+000 5.580497e-001 -5.387236e-001 -6.119547e-001 2.061363e+000 -3.555663e+000 1.257844e+000 7.663244e-001 -2.414086e+000 1.025254e+000 -7.910892e-001 -2.882552e+000 3.965163e-001 -1.009034e+000 -1.163642e-001 1.526195e+000 5.535914e-001 -1.865510e+000 3.343194e-001 -6.185474e-001 -2.916648e+000 -1.836433e-003 -1.765073e+000 -8.736982e-001 -3.240943e-001 8.356930e-002 -1.722938e+000 -3.008759e+000 -3.320858e-001 -1.411716e+000 1.557612e+000
<VARIANCE> 39
 1.049675e+000 6.231336e-002 9.999958e-003 3.541874e-001 2.480464e-001 5.784559e-001 7.718328e-001 1.435833e-001 1.629502e-001 2.197987e-001 1.856773e-001 6.647069e-001 3.332414e-002 5.404066e-001 1.247064e-002 1.605642e+000 9.208797e-002 1.643778e+000 2.285199e+000 6.554735e-001 1.861966e-001 3.347082e+000 3.609335e+000 7.391778e-001 2.786746e+000 5.800340e-001 2.138454e+000 2.518021e-001 1.917744e+000 2.111505e+000 4.048070e-001 4.164124e-001 5.828708e+000 3.995205e-001 3.145124e+000 1.115568e+000 2.060638e-001 1.018483e+000 3.287304e+000
<GCONST> 4.604950e+001
<MIXTURE> 11 2.903147e-002
<MEAN> 39
 -1.115947e+000 6.889406e-001 2.248936e-002 -1.813761e+000 -9.273649e-001 -9.742716e-001 2.101268e-001 -9.598070e-001 -8.944532e-001 5.522202e-004 -4.352362e-001 -9.293789e-001 6.551169e-001 -3.283296e+000 8.145521e-001 -1.070317e+000 8.915820e-001 2.101803e+000 7.485989e-001 9.788220e-001 1.147038e+000 1.184820e+000 1.389573e+000 1.160352e+000 6.031139e-001 -6.088816e-001 9.607695e-001 -1.189135e+000 3.837568e-001 -2.231053e-001 -5.695087e-001 1.742687e-001 -3.099223e-001 1.587095e-004 3.369445e-001 -7.124414e-001 -4.148459e-001 -1.851970e-001 1.419530e+000
<VARIANCE> 39
 7.663437e-001 3.104108e-001 1.987943e+000 7.078139e-001 1.246209e+000 4.938510e-001 1.704111e+000 5.160277e-001 7.811736e-001 1.125363e+000 1.001036e+000 6.617975e-001 1.888959e-001 7.771817e-001 1.362136e+000 1.230447e+000 2.204370e+000 1.489194e+000 1.803162e+000 1.933033e+000 8.292817e-001 2.397511e+000 2.681095e+000 1.448173e+000 9.306566e-001 1.079236e+000 1.858058e+000 1.495747e+000 2.605920e+000 9.123266e-001 2.206892e+000 1.559497e+000 3.136225e+000 9.755309e-001 2.857688e+000 2.085880e+000 1.427132e+000 6.327079e-001 5.775808e-001
<GCONST> 7.788802e+001
<MIXTURE> 12 2.914610e-003
<MEAN> 39
 9.917983e-001 7.929360e-001 2.621598e+000 -5.339689e-001 7.141291e-001 -1.887071e+000 -5.385171e-001 4.277124e-001 1.707016e-001 -1.355061e+000 -1.309511e+000 -1.656645e+000 1.725360e+000 -5.534777e+000 -2.506295e-001 -5.031690e-002 -3.794373e+000 -6.067992e-001 -8.249029e-001 7.212114e-001 6.796501e-001 -2.126748e+000 3.165819e-002 -6.649032e-001 -7.136374e-001 -1.499975e+000 2.124995e-001 -8.305767e-001 -2.734412e-001 -5.188273e-001 -2.342496e+000 2.095068e-001 5.456859e-001 1.349915e+000 6.850237e-001 8.889092e-001 1.789491e+000 1.160290e+000 1.622444e+000
<VARIANCE> 39
 9.826875e-001 7.243126e-002 3.609389e-001 1.014964e+000 9.170078e-001 3.151793e-001 3.970299e+000 1.474084e-001 1.084073e+000 3.373147e-001 4.629233e-001 3.106895e-002 1.556357e-002 1.125783e-001 6.335589e-001 4.839100e-001 7.821335e-001 4.800727e-001 2.190936e+000 9.262499e-001 4.484132e-001 2.486619e+000 5.588778e-001 1.630806e+000 1.354403e+000 2.246894e-001 3.087637e+000 1.180595e+000 2.097139e+000 2.126506e+000 1.348833e+000 2.935294e-001 1.140087e+000 1.346033e-001 9.629616e-001 1.728185e-002 1.902734e-001 4.519154e-001 1.045490e+000
<GCONST> 4.551387e+001
<MIXTURE> 13 7.766020e-003
<MEAN> 39
 1.585684e-001 -8.860884e-001 -3.360683e-001 -1.976281e+000 -1.602420e+000 1.992546e-002 4.144042e-001 -1.481661e+000 -1.146488e+000 -2.873927e+000 -2.092243e+000 -1.789762e+000 1.260282e+000 7.692217e-001 1.438147e+000 5.265858e-001 -5.064834e-002 -7.223433e-001 -1.320114e+000 -6.952783e-001 -3.432585e-001 5.428152e-001 9.433299e-001 2.827643e-002 3.243111e-001 -8.957950e-001 -6.405963e-001 1.293176e+000 1.895029e-001 4.622260e-001 1.877516e+000 -3.720546e-001 -1.025766e+000 -2.593056e-001 8.751974e-001 2.716908e+000 2.696410e+000 5.665081e-001 6.689485e-001
<VARIANCE> 39
 9.890026e-001 8.132727e-001 1.814347e+000 1.233992e+000 6.727805e-001 4.470135e-001 9.521189e-001 1.008183e+000 9.589931e-001 4.501794e-001 1.869985e+000 5.003981e-001 6.514239e-001 3.007510e-001 3.080731e+000 8.587520e-001 1.810478e+000 4.637368e+000 8.951355e-001 8.457220e-001 8.443495e-001 3.661638e-001 3.946182e+000 1.475827e+000 7.998970e-001 1.996241e-001 7.360528e-001 7.190169e-001 9.404915e-001 1.745626e+000 5.275008e-001 1.434319e+000 1.353297e+000 9.362411e-001 1.960569e-001 1.179054e+000 1.328990e-001 1.453640e+000 6.041550e-001
<GCONST> 6.626688e+001
<MIXTURE> 14 5.829272e-003
<MEAN> 39
 9.408021e-001 1.589736e-001 -8.997686e-002 -6.259463e-001 -2.074263e+000 -9.887632e-001 -1.365703e+000 -1.918608e+000 4.001065e-001 -1.973775e+000 -1.018298e+000 -5.575285e-001 1.273198e+000 -1.991282e+000 2.605990e+000 7.996722e-001 -1.401187e-001 3.738191e+000 -1.331604e+000 1.457313e+000 5.956566e-001 -5.983204e-001 1.298585e+000 -2.067634e-001 1.132132e+000 -1.666194e+000 -2.263420e+000 -7.058422e-001 4.380365e-001 -1.630721e+000 1.058680e+000 2.004662e-001 6.870100e-001 1.669129e+000 -2.093576e-001 1.386782e+000 -9.815585e-002 -4.160501e-001 2.236047e-001
<VARIANCE> 39
 1.450730e-001 2.247144e-001 1.347171e+000 6.492981e-002 1.168951e+000 3.093915e-001 8.028533e-001 6.033375e-001 1.477130e+000 5.806155e-001 4.699435e-001 1.202206e+000 2.365084e-001 1.519132e+000 4.414574e-001 1.999091e+000 8.449329e-001 4.856782e-001 9.340797e-001 2.339448e-001 2.311597e+000 2.567573e+000 2.345493e+000 3.962163e-001 1.708293e+000 4.807661e-002 8.222223e-001 7.727455e-001 2.393462e+000 1.325178e+000 1.799590e+000 1.068915e+000 1.442696e+000 1.506439e+000 1.076882e+000 5.260224e-001 4.229886e-001 1.640356e+000 4.308058e-001
<GCONST> 5.935408e+001
<MIXTURE> 15 5.830711e-003
<MEAN> 39
 7.279055e-001 -3.257993e-001 1.779512e+000 5.376191e-002 2.982212e-002 -8.274053e-001 1.429691e+000 4.592147e-001 2.183135e+000 -1.609734e+000 1.898266e-001 -1.164735e+000 1.494879e+000 -3.078557e+000 2.029050e-001 5.948164e-001 -1.572140e+000 -8.179073e-001 1.357859e+000 -1.385668e+000 -3.255359e-001 8.868160e-001 -1.084553e+000 -8.726612e-001 -3.586792e-001 -1.010218e+000 -2.175515e+000 -1.035715e+000 -1.025063e+000 -2.158710e+000 -1.379339e+000 -7.755108e-001 -4.335546e-001 -6.867694e-001 -8.771883e-001 8.914612e-001 -3.005293e-001 4.600561e-001 7.495850e-002
<VARIANCE> 39
 1.027733e+000 2.264846e-001 1.866464e-001 9.489934e-001 2.484103e+000 7.566634e-001 4.547059e-001 7.052697e-001 1.356589e+000 7.581716e-001 3.409844e+000 4.959489e-001 6.877068e-002 2.890281e-001 2.118104e-001 1.259336e+000 9.742423e-001 8.418694e+000 1.506402e+000 8.770948e-001 1.452159e+000 6.937500e+000 1.763547e+000 2.194857e+000 1.568319e+000 4.752519e-001 1.176226e+000 3.526988e-001 6.439920e-001 1.786205e+000 3.876879e+000 7.598393e-001 1.774206e+000 1.334962e+000 2.242478e+000 1.181517e+000 2.833544e+000 1.582203e+000 1.808901e-001
<GCONST> 7.101639e+001
<MIXTURE> 16 9.571476e-003
<MEAN> 39
 -1.641396e-002 5.107268e-001 8.922650e-001 -2.309576e+000 -1.701274e+000 -2.933159e-001 -1.381277e+000 -1.010441e+000 -2.381593e+000 -1.231834e+000 -1.913162e+000 -1.803520e+000 1.209528e+000 -1.339115e+000 1.122285e+000 4.953092e-001 2.131506e-001 2.235173e+000 6.192306e-001 -8.726315e-001 4.516119e-001 -5.938772e-001 8.975286e-001 6.475917e-001 6.823774e-001 -1.331139e+000 -1.371170e+000 -1.596225e+000 -1.806700e+000 9.337643e-001 1.349121e+000 8.946000e-001 1.783597e+000 8.599278e-001 2.041548e+000 9.329146e-001 1.804999e+000 5.808038e-001 -1.144210e+000
<VARIANCE> 39
 5.687518e-001 3.240665e-001 2.069665e+000 2.526558e+000 1.755276e+000 1.739401e+000 1.073310e+000 1.565171e+000 6.152109e-001 9.098453e-001 6.989039e-001 8.367421e-002 1.444726e-001 6.067830e-001 1.750136e+000 2.101489e+000 8.046201e-001 1.567027e+000 7.615266e-001 1.924451e+000 7.776628e-001 1.044019e+000 2.941929e+000 2.358526e+000 8.171810e-001 4.235227e-001 4.257430e-001 1.029912e+000 2.358714e+000 2.623001e+000 2.441639e+000 8.853336e-001 9.140719e-001 3.338961e+000 5.127791e-001 3.276246e+000 1.685642e+000 5.976803e-001 1.280975e+000
<GCONST> 7.366422e+001
<STATE> 6
<NUMMIXES> 16
<MIXTURE> 5 1.000000e+000
<MEAN> 39
 -1.057988e+000 5.006844e-001 -1.213998e-001 -5.891762e-001 4.197117e-001 -1.056068e+000 4.480865e-001 3.120480e-001 4.158418e-001 3.189791e-001 4.806265e-001 3.729472e-001 4.143471e-001 6.149656e-001 -4.845601e-001 9.145331e-002 3.727413e-001 -5.827585e-002 -4.810137e-002 -1.567584e-001 7.650346e-002 1.711045e-003 7.108243e-002 9.969036e-002 6.639218e-002 -8.063465e-001 9.047653e-001 -1.277288e-001 1.277074e-001 3.469264e-001 -1.124198e-001 7.414162e-001 -1.845310e-001 -3.847351e-002 -3.998112e-002 -2.758498e-001 -1.123583e-001 -3.207040e-002 -1.039221e+000
<VARIANCE> 39
 5.021055e-001 7.162756e-001 1.216264e+000 1.381445e+000 1.238945e+000 1.597979e+000 1.779101e+000 1.854177e+000 1.116027e+000 1.020980e+000 1.109784e+000 1.594063e+000 2.029901e-001 2.178223e+000 1.583491e+000 2.531255e+000 2.202265e+000 2.399277e+000 2.225281e+000 2.478510e+000 2.563087e+000 1.948304e+000 1.740334e+000 1.976207e+000 2.038992e+000 2.635462e+000 2.567217e+000 2.347793e+000 2.634846e+000 2.169724e+000 2.234942e+000 2.412711e+000 2.507080e+000 2.809588e+000 2.156433e+000 1.444964e+000 1.871284e+000 2.187380e+000 2.185224e+000
<GCONST> 9.272487e+001
<STATE> 7
<NUMMIXES> 16
<MIXTURE> 11 1.000000e+000
<MEAN> 39
 -5.931786e-001 3.017275e-002 1.727360e-001 -3.638766e-001 3.380548e-001 -8.635434e-001 -2.841686e-001 3.032179e-001 7.039351e-002 1.187496e-001 2.155889e-001 2.233236e-001 -5.523873e-002 2.213565e+000 -4.992468e-002 -1.274630e-001 1.346877e+000 -6.161565e-001 1.323011e+000 8.775326e-002 -1.540316e-001 1.388707e-001 -4.789864e-002 5.374968e-002 1.839424e-001 -2.785587e+000 2.930986e-001 6.126521e-001 -1.460522e-001 -2.270976e-001 8.596820e-002 8.604456e-001 4.847368e-001 1.618052e-002 4.358996e-001 1.442887e-001 7.418297e-002 -1.356379e-002 3.010736e-001
<VARIANCE> 39
 4.892852e-001 6.050849e-001 1.869710e+000 9.487364e-001 1.574002e+000 1.782686e+000 2.526104e+000 1.265058e+000 1.002361e+000 2.063836e+000 8.846980e-001 1.452822e+000 2.140601e-001 4.113060e+000 3.861350e+000 2.853956e+000 3.424187e+000 4.621404e+000 4.031690e+000 2.176714e+000 3.471237e+000 2.068594e+000 1.817199e+000 3.151991e+000 1.760495e+000 3.186831e+000 1.747670e+000 2.261372e+000 2.033195e+000 1.575580e+000 1.805645e+000 2.023104e+000 2.350376e+000 1.120440e+000 1.870821e+000 2.723120e+000 1.177820e+000 1.580826e+000 1.823036e+000
<GCONST> 9.450453e+001
<TRANSP> 8
 0.000000e+000 1.000000e+000 0.000000e+000 0.000000e+000 0.000000e+000 0.000000e+000 0.000000e+000 0.000000e+000
 0.000000e+000 9.217415e-001 7.825851e-002 0.000000e+000 0.000000e+000 0.000000e+000 0.000000e+000 0.000000e+000
 0.000000e+000 0.000000e+000 9.252595e-001 7.474051e-002 0.000000e+000 0.000000e+000 0.000000e+000 0.000000e+000
 0.000000e+000 0.000000e+000 0.000000e+000 9.121689e-001 8.783116e-002 0.000000e+000 0.000000e+000 0.000000e+000
 0.000000e+000 0.000000e+000 0.000000e+000 0.000000e+000 9.572519e-001 4.274814e-002 0.000000e+000 0.000000e+000
 0.000000e+000 0.000000e+000 0.000000e+000 0.000000e+000 0.000000e+000 8.036805e-001 1.963195e-001 0.000000e+000
 0.000000e+000 0.000000e+000 0.000000e+000 0.000000e+000 0.000000e+000 0.000000e+000 0.000000e+000 1.000000e+000
 0.000000e+000 0.000000e+000 0.000000e+000 0.000000e+000 0.000000e+000 0.000000e+000 0.000000e+000 0.000000e+000
<ENDHMM>
~h "one"
<BEGINHMM>
<NUMSTATES> 8
<STATE> 2
<NUMMIXES> 15
<MIXTURE> 1 8.141948e-002
<MEAN> 39
 1.968716e-001 3.482867e-001 3.224701e+000 -2.448265e+000 -1.574907e+000 -1.840459e+000 -1.192270e+000 -9.322124e-001 -1.382216e+000 1.146988e+000 -1.465930e+000 -7.507174e-001 2.377866e+000 -3.138851e-001 -1.397838e+000 1.193158e-001 -6.185088e-001 -1.695603e+000 -9.968972e-001 1.150345e-001 2.358620e-001 2.850373e-002 1.935229e+000 7.196100e-001 5.140445e-001 8.734863e-001 5.881540e-001 -1.600211e-001 -1.910654e+000 9.025360e-001 3.593019e-001 7.464666e-001 -3.682756e-001 -9.641728e-003 2.237180e-001 -8.725472e-001 5.288069e-001 5.582060e-001 -3.350420e-001
<VARIANCE> 39
 7.618456e-001 1.823239e+000 5.029093e-001 6.147996e-001 1.192287e+000 1.960634e+000 1.226865e+000 1.815432e+000 1.621373e+000 2.887183e+000 2.681562e+000 2.984383e+000 4.798817e-001 4.557699e-001 1.392330e+000 1.676472e+000 7.765910e-001 2.229405e+000 1.332713e+000 2.500191e+000 2.350078e+000 8.868958e-001 1.028471e+000 1.741991e+000 1.929975e+000 1.839422e-001 3.771553e-001 1.853203e+000 1.563132e+000 9.829424e-001 2.619164e+000 2.707905e+000 2.202232e+000 2.296443e+000 1.322999e+000 1.735538e+000 1.781988e+000 2.717743e+000 2.251340e-001
<GCONST> 8.203621e+001
<MIXTURE> 2 3.793365e-002
<MEAN> 39
 -3.017900e-001 1.128714e+000 -9.970976e-001 3.825248e-001 6.097305e-001 3.640575e-002 1.058354e+000 -1.105094e+000 1.549004e+000 -1.456054e+000 -3.875976e-001 -1.654657e+000 1.019436e+000 4.300950e-001 1.127715e+000 1.598063e+000 3.940190e-002 3.164425e-001 2.502482e-001 -4.186066e-001 -3.326145e-001 1.110412e-001 -4.419742e-001 -4.054617e-001 -7.882772e-001 1.803481e+000 4.069525e-001 -3.968238e-002 4.915939e-001 -1.023402e+000 -1.157347e+000 -5.659606e-001 -1.808837e+000 -2.922913e-001 -1.540483e+000 5.340896e-001 -2.230790e-001 4.654301e-001 -4.564725e-001
<VARIANCE> 39
 4.429584e-001 4.168181e-001 4.306816e+000 6.499805e-001 2.972476e-001 3.724111e+000 1.300544e+000 1.610908e+000 2.670068e+000 1.459053e+000 1.186930e+000 1.685070e+000 1.952753e-001 8.980104e-001 9.440134e-001 1.533945e+000 1.983186e+000 2.236891e+000 2.564240e+000 4.041810e+000 1.659586e+000 3.853307e+000 1.608163e+000 1.217256e+000 2.648770e+000 3.475110e+000 1.004340e+000 1.586863e+000 2.499222e+000 1.716477e+000 7.622259e-001 3.936241e+000 2.333695e+000 1.511890e+000 1.502998e+000 9.626590e-001 1.979714e+000 2.440519e+000 2.927669e+000
<GCONST> 8.841650e+001
<MIXTURE> 3 7.086848e-002
<MEAN> 39
 7.949744e-001 3.682361e-001 2.844728e+000 -3.215738e-001 -2.006876e+000 -8.367519e-001 -5.871697e-001 -1.572865e+000 -1.004180e+000 -2.551373e+000 7.880409e-001 7.481243e-002 2.507744e+000 -1.082027e-001 -6.452795e-001 -6.558701e-001 2.454950e-001 -2.175965e-001 -6.265304e-001 1.908456e-001 -1.412492e-001 1.154208e-001 2.562456e-001 1.541860e-001 -3.246333e-001 5.113534e-001 6.729870e-002 2.638154e-002 -9.514215e-001 4.123027e-003 7.342153e-001 1.244610e-001 -1.813452e-002 1.309782e-001 -6.297480e-002 5.954443e-001 -1.423828e-001 -3.405168e-002 -6.792662e-001
<VARIANCE> 39
 4.713819e-001 2.039622e+000 2.843298e-001 1.502155e+000 9.079823e-001 9.134740e-001 1.414740e+000 1.451345e+000 5.007694e-001 2.731484e-001 6.234279e-001 3.100190e+000 9.209712e-002 4.855506e-001 8.813971e-001 1.218876e+000 8.474512e-001 1.352065e+000 4.915105e-001 1.001137e+000 1.130360e+000 2.883491e-001 9.698291e-001 4.955848e-001 5.108716e-001 1.189988e-001 7.178887e-001 3.691780e-001 8.591238e-001 1.541295e+000 1.529249e+000 7.277451e-001 1.002921e+000 1.682039e+000 5.457929e-001 1.104939e+000 4.922424e-001 7.871389e-001 5.708041e-001
<GCONST> 5.929465e+001
<MIXTURE> 4 9.451943e-002
<MEAN> 39
 -6.175249e-001 1.008991e+000 3.308526e-001 2.978168e-001 5.918124e-001 2.299423e-001 -5.386699e-001 -5.763090e-001 -7.855775e-001 -1.099811e+000 -5.846854e-001 -5.269039e-001 6.425474e-001 5.696663e-001 2.930479e+000 3.032851e+000 -1.439329e+000 -1.331447e+000 -2.289517e+000 -2.574352e+000 -2.436437e+000 -2.884087e+000 -2.014771e+000 -1.340917e+000 -1.562183e+000 4.169005e+000 1.852007e+000 2.757557e-002 7.919652e-001 -1.149283e+000 -1.042604e+000 -3.284147e-001 -3.061096e-001 1.220352e-001 2.546345e-001 5.400341e-001 8.581823e-002 3.145458e-001 -1.142602e+000
<VARIANCE> 39
 9.315479e-001 1.089926e+000 1.084094e+000 3.570932e-001 7.982659e-001 9.281228e-001 1.526120e+000 1.139736e+000 1.407829e+000 2.304507e+000 1.368637e+000 2.661469e+000 2.755595e-001 4.593229e+000 1.243892e+000 2.436234e+000 2.607893e+000 3.704698e+000 2.445644e+000 3.820478e+000 4.419689e+000 3.037221e+000 3.656266e+000 5.999157e+000 3.741201e+000 1.650809e+000 2.164513e+000 2.893909e+000 3.673912e+000 2.033881e+000 2.556998e+000 2.399892e+000 3.567095e+000 2.930895e+000 3.134580e+000 2.784965e+000 2.622649e+000 4.046179e+000 4.341009e+000
<GCONST> 1.008237e+002
<MIXTURE> 5 1.099563e-001
<MEAN> 39
 9.911881e-001 2.260705e+000 1.275628e+000 -4.084133e-001 -1.350154e-001 -2.662062e-001 -1.753619e+000 -1.113386e+000 -1.232486e+000 -1.431905e+000 2.674430e-002 -5.168210e-001 1.116714e+000 1.234821e+000 1.766971e+000 2.438166e+000 -1.895670e+000 -1.444923e+000 -5.296677e-001 -1.787973e+000 -6.620636e-001 -6.641976e-001 -1.128174e+000 3.056811e-001 -3.128788e-001 2.651569e+000 -1.464799e+000 -2.060362e+000 -8.746881e-001 2.798041e-001 -1.634457e-001 6.312082e-001 1.190979e+000 5.930352e-001 1.092253e+000 1.018219e+000 -6.733453e-002 7.726842e-002 -2.395001e+000
<VARIANCE> 39
 1.432468e+000 5.538207e-001 7.735572e-001 1.326430e+000 8.201025e-001 1.894261e+000 1.011177e+000 1.205241e+000 1.018210e+000 9.958395e-001 1.626595e+000 1.332223e+000 2.521375e-001 1.626708e+000 1.159538e+000 2.122025e+000 2.840926e+000 2.577394e+000 1.435215e+000 2.165176e+000 1.682747e+000 1.337326e+000 1.536665e+000 2.687790e+000 2.664712e+000 1.913813e+000 2.570012e+000 1.426127e+000 1.691576e+000 2.863197e+000 2.623857e+000 2.168828e+000 2.104949e+000 1.505584e+000 2.684721e+000 1.578010e+000 2.453935e+000 1.424148e+000 1.128686e+000
<GCONST> 8.847430e+001
<MIXTURE> 6 4.512251e-002
<MEAN> 39
 -4.459005e-001 3.287445e+000 1.924210e+000 -1.414682e+000 8.186239e-001 -2.204270e+000 -2.850020e+000 -2.538510e+000 -1.327687e+000 -3.006006e+000 -1.490350e+000 -1.877803e+000 1.739169e+000 -9.373907e-001 3.600694e-001 2.171331e+000 -1.796425e+000 4.375518e-001 -5.134211e-001 -4.758075e-001 7.554732e-002 3.632265e-001 -3.673615e-001 -7.883425e-001 -1.135732e+000 1.066549e+000 -8.406576e-002 -2.875769e+000 -1.694608e+000 2.071498e+000 1.530390e-001 2.269394e+000 2.225802e+000 1.946661e+000 9.912148e-001 2.233166e+000 1.309516e+000 1.926189e+000 -1.987782e+000
<VARIANCE> 39
 1.339746e+000 4.346803e-001 1.057708e+000 1.139376e+000 3.843457e+000 4.624862e-001 1.042901e+000 8.704012e-001 1.516524e+000 2.469077e-001 2.334631e+000 7.978393e-001 5.858136e-002 1.225049e+000 1.843173e+000 2.714709e+000 1.689522e+000 5.769286e+000 3.774047e+000 4.670185e+000 1.904987e+000 1.944467e+000 2.614192e+000 3.748442e+000 3.530426e+000 7.525565e-001 1.771112e+000 1.138829e+000 1.666212e+000 4.780906e+000 6.572833e+000 4.098789e+000 3.367137e+000 3.660060e+000 2.724250e+000 8.288270e-001 1.816268e+000 2.228856e+000 1.428449e+000
<GCONST> 9.128358e+001
<MIXTURE> 7 9.809269e-003
<MEAN> 39
 -7.993009e-001 3.208320e+000 1.239306e+000 -8.699801e-001 -5.363246e-001 -2.158919e+000 -3.338626e+000 -3.091137e+000 -1.818443e+000 -1.750120e+000 8.549011e-001 -5.598285e-002 1.682325e+000 -1.372381e+000 2.834895e+000 3.299669e+000 -4.714532e+000 1.268590e+000 -4.915580e+000 -4.028313e+000 -3.958374e+000 -1.557633e+000 -4.154742e+000 -2.136777e+000 -3.582175e+000 2.909141e+000 8.383207e-001 -2.222903e+000 6.702203e-001 5.321713e-001 2.499813e+000 3.217228e+000 2.808664e+000 3.685992e+000 2.261650e+000 1.222424e+000 -2.007584e+000 -1.248450e+000 -3.370472e+000
<VARIANCE> 39
 3.905640e-001 4.414977e-001 5.508537e-001 3.072549e-001 1.352337e+000 1.515794e-001 3.595452e+000 6.711467e-001 1.871447e-001 5.163065e-001 4.975218e+000 8.261972e-001 1.334590e-001 5.307368e+000 5.561020e-001 2.556148e-001 2.318211e-001 5.853497e+000 7.477854e-001 2.221466e+000 3.613668e+000 5.679021e-001 1.201905e+000 1.293807e+000 3.364344e-001 2.408075e+000 7.988405e-001 1.337030e+000 9.247736e-001 2.356360e+000 2.133664e+000 1.236927e+000 5.172449e+000 2.341289e+000 3.960913e-001 3.292063e+000 8.857368e+000 2.537806e+000 1.213812e+000
<GCONST> 7.386374e+001
<MIXTURE> 8 1.716630e-002
<MEAN> 39
 -4.558188e-001 1.740736e+000 3.484845e+000 -1.580054e+000 -1.492403e+000 -1.354215e+000 -2.985762e+000 -3.687325e+000 5.571074e-002 -7.749041e-001 -2.952073e+000 1.912074e+000 1.478132e+000 -4.126319e-001 -1.080222e+000 2.276175e+000 -3.141818e+000 -1.823171e+000 -1.702742e+000 2.182834e-001 -1.208568e+000 -1.178512e-001 1.609236e+000 -1.817895e+000 2.002008e+000 1.717089e+000 -1.373358e-001 -2.586682e+000 -3.972210e+000 1.438203e+000 2.011347e+000 1.371889e+000 2.211209e+000 3.770946e+000 -1.272416e+000 3.164173e+000 2.597702e+000 -1.158180e+000 -2.172149e+000
<VARIANCE> 39
 1.071159e-001 1.309614e+000 1.705678e-001 5.364837e-001 2.931173e-001 1.051434e+000 1.121238e+000 7.214190e-001 1.640687e+000 1.566252e+000 3.779197e-001 2.005337e+000 8.751535e-002 4.227371e-001 4.580596e+000 3.665346e+000 1.896275e+000 3.886828e+000 5.709065e+000 2.167033e+000 5.855603e+000 4.056549e+000 5.986409e+000 4.106433e+000 1.725876e+000 9.374136e-001 8.685825e-001 4.615442e+000 4.982006e-001 1.615547e+000 2.690129e+000 3.049022e+000 2.848933e+000 1.461281e+000 1.197319e+000 1.776760e+000 1.216804e+000 1.246457e+000 9.134215e-001
<GCONST> 8.326971e+001
<MIXTURE> 9 1.002611e-001
<MEAN> 39
 -8.364539e-001 2.489026e+000 1.356562e+000 -1.026888e+000 1.044795e-001 -9.294992e-001 -2.001160e+000 -1.825653e+000 -2.062564e+000 -2.645813e+000 -1.821264e+000 -1.434809e+000 1.507585e+000 -5.915953e-001 -2.448388e-001 9.213905e-001 -8.258955e-001 -8.019831e-001 -5.906041e-001 2.150207e-001 -5.269608e-001 2.778881e-001 4.722216e-001 2.823866e-001 1.881665e-001 3.093542e-001 1.423459e-001 -9.775721e-001 9.302372e-002 -1.218491e-001 -1.219293e+000 -6.238136e-001 4.609018e-001 6.180517e-003 8.807253e-001 7.979273e-001 5.289319e-001 -1.818052e-001 -7.078801e-002
<VARIANCE> 39
 7.377560e-002 5.935162e-001 1.008429e+000 4.620392e-001 4.651963e-001 7.154440e-001 1.143448e+000 9.150919e-001 1.729559e+000 6.564943e-001 1.797188e+000 1.451126e+000 9.417937e-002 3.734034e-001 2.029387e+000 2.577848e+000 3.936268e+000 2.870292e+000 2.569864e+000 2.176202e+000 9.565598e-001 4.133506e+000 1.940219e+000 2.341985e+000 1.665475e+000 7.442091e-002 7.020234e-001 1.865604e+000 2.067948e+000 3.340423e+000 1.848335e+000 2.858185e+000 2.836784e+000 1.905723e+000 3.149638e+000 2.161909e+000 2.538329e+000 2.531217e+000 2.363883e-001
<GCONST> 7.896022e+001
<MIXTURE> 10 9.807698e-002
<MEAN> 39
 1.970573e-001 2.351488e+000 2.323535e+000 -6.830741e-004 -4.003242e-001 -7.658288e-001 -9.031705e-001 -1.551288e+000 -4.811771e-001 -1.168377e+000 -7.988808e-001 -1.104364e+000 1.225485e+000 -2.174009e-001 -4.138238e-001 1.477876e-001 -5.949745e-001 -1.043820e+000 -6.393924e-001 8.219645e-002 -4.235303e-001 -2.040388e-001 1.198735e-001 5.677646e-002 -2.562858e-002 8.266965e-001 3.994077e-001 -9.845399e-001 -8.367273e-001 -2.103816e-001 -4.579870e-001 1.206214e-002 -3.417041e-001 6.422696e-002 -1.183149e-001 5.922393e-001 9.152434e-001 2.428439e-001 8.134647e-002
<VARIANCE> 39
 1.858797e+000 3.951175e-001 6.620392e-001 1.387003e+000 7.841837e-001 4.238482e-001 1.074552e+000 1.012798e+000 1.188816e+000 2.160661e+000 7.924696e-001 6.975986e-001 1.044805e-001 6.046034e-001 6.924515e-001 1.376572e+000 1.118141e+000 1.587606e+000 5.872406e-001 4.008549e-001 1.237734e+000 1.309405e+000 1.992587e+000 1.857183e+000 1.689003e+000 1.845975e-001 4.295062e-001 5.799552e-001 8.021357e-001 1.305097e+000 1.802528e+000 7.222689e-001 4.342645e-001 2.441584e+000 1.471938e+000 2.242814e+000 7.634453e-001 1.007044e+000 6.139399e-001
<GCONST> 6.698237e+001
<MIXTURE> 11 3.431217e-002
<MEAN> 39
 2.884602e-001 -8.431485e-001 2.813429e+000 -2.356897e+000 -1.929083e+000 -2.914020e+000 -3.478385e+000 -6.156970e-001 -3.372706e+000 1.353307e+000 -1.824061e+000 -4.345185e-001 2.338761e+000 1.663753e-001 -1.904965e+000 2.043077e-001 -9.121858e-001 -3.978914e-001 7.757699e-002 -4.400478e-001 1.657947e-001 -1.044547e+000 2.270222e-001 -9.087678e-001 -2.575210e-001 1.801562e+000 3.087852e-001 1.265561e-001 -1.119295e+000 9.497001e-001 6.471048e-002 9.745251e-001 1.158923e+000 9.052118e-002 1.770016e+000 -1.665569e+000 1.993398e-001 -2.547039e-001 -5.446153e-001
<VARIANCE> 39
 9.918839e-001 3.178161e-001 2.674025e-001 1.987432e-001 2.673150e-001 1.603396e+000 4.764567e-001 1.115240e+000 6.994884e-001 3.759983e+000 1.651753e+000 4.505337e+000 3.048158e-001 7.220239e-001 2.649853e+000 2.917138e+000 1.943693e+000 5.135792e-001 1.340811e+000 2.930558e+000 2.085745e+000 3.129875e+000 8.200470e+000 3.465075e+000 1.107042e+000 5.913311e-001 8.043905e-001 1.163133e+000 1.067904e+000 3.361951e+000 1.887010e+000 1.816118e+000 1.573212e+000 8.004143e-001 1.368319e+000 5.098408e+000 2.473900e+000 1.062836e+000 7.231081e-001
<GCONST> 8.103898e+001
<MIXTURE> 12 1.213355e-001
<MEAN> 39
 7.258090e-001 1.754809e+000 -7.669529e-002 -2.508684e-001 -4.545785e-001 -1.216759e+000 -1.332350e+000 -1.465506e+000 -1.248901e+000 -1.279441e+000 -9.337929e-001 -4.284091e-001 9.118590e-001 7.995448e-002 1.576157e-001 8.743449e-002 -1.290933e-001 -1.233123e-001 -4.897690e-002 2.805055e-002 3.363176e-002 2.253742e-001 4.970441e-002 -9.718392e-002 -1.805190e-002 2.617549e-001 -1.539677e-001 -1.259754e-001 3.286809e-002 -1.147012e-001 -2.268380e-001 4.812493e-002 1.492959e-001 1.592356e-001 -4.173041e-002 -1.079539e-003 3.408102e-002 1.674358e-001 3.244641e-002
<VARIANCE> 39
 3.646933e-001 3.123001e-001 1.729410e+000 1.377035e-001 2.076701e-001 1.821978e-001 5.435520e-001 2.953350e-001 3.953084e-001 1.004270e+000 2.273599e-001 2.486767e-001 3.709194e-002 3.728542e-001 7.320864e-001 1.140854e+000 3.659781e-001 1.204168e+000 5.675313e-001 6.372026e-001 9.932800e-001 4.342510e-001 7.401080e-001 5.325499e-001 6.319446e-001 1.608789e-001 6.506986e-001 8.342087e-001 9.991460e-001 5.218949e-001 1.200085e+000 6.645976e-001 6.138400e-001 1.249000e+000 6.556022e-001 8.215284e-001 7.298239e-001 5.391454e-001 3.292417e-001
<GCONST> 4.439751e+001
<MIXTURE> 13 7.844949e-002
<MEAN> 39
 1.153710e+000 1.493549e+000 2.932261e+000 -9.778125e-001 -1.393288e+000 -4.268276e-001 -1.242108e+000 -7.630804e-001 -1.184210e+000 -1.381526e+000 4.549444e-001 -8.927292e-001 2.016823e+000 7.352554e-001 -1.618916e+000 2.457742e+000 -1.043049e+000 -2.522472e+000 -1.055040e+000 -1.162304e+000 -4.474951e-002 -1.204791e+000 1.509447e-001 1.122183e-001 -6.465346e-001 2.318808e+000 -1.419658e+000 -1.825676e+000 -3.143308e+000 5.929227e-001 1.878624e+000 8.035622e-001 6.341058e-001 8.708057e-001 5.945887e-001 1.163781e+000 -3.295686e-001 8.829358e-001 -2.775964e+000
<VARIANCE> 39
 9.074956e-001 1.774565e+000 4.789572e-001 1.207616e+000 5.491776e-001 1.138966e+000 3.376768e+000 1.876416e+000 8.857655e-001 2.280062e+000 1.187030e+000 1.679376e+000 1.669060e-001 1.750205e+000 2.400028e+000 3.387387e+000 3.412027e+000 2.427000e+000 2.511351e+000 3.197589e+000 2.536168e+000 1.905042e+000 2.289794e+000 1.411409e+000 1.452398e+000 1.268617e+000 2.639645e+000 2.540794e+000 2.567662e+000 2.200558e+000 1.260059e+000 1.585713e+000 3.307546e+000 2.233844e+000 5.407953e-001 1.606455e+000 7.692079e-001 1.495994e+000 1.600755e+000
<GCONST> 8.959467e+001
<MIXTURE> 14 8.850984e-002
<MEAN> 39
 9.030976e-001 2.034377e+000 1.563440e+000 -5.709321e-001 -9.256430e-001 -3.994988e-001 -2.453393e+000 -1.739860e+000 -9.492022e-001 -5.439758e-001 -1.082322e-001 -3.472328e-001 1.535843e+000 -4.796402e-002 -1.046068e+000 2.813470e-001 -1.190907e+000 -9.052849e-001 2.686556e-001 1.083956e-001 5.917696e-001 -1.810601e-001 5.667276e-001 4.441565e-001 2.175759e-001 6.983740e-001 -1.120928e+000 -1.154512e+000 -6.950220e-001 4.321700e-001 6.323305e-001 4.172744e-002 1.866408e+000 1.176784e+000 -2.936893e-002 -3.483191e-002 -3.966454e-001 -1.139837e-001 -9.896238e-001
<VARIANCE> 39
 1.056971e+000 9.242349e-001 3.610095e-001 6.382437e-001 6.006941e-001 2.388885e+000 1.142141e+000 1.145495e+000 5.088574e-001 5.383418e-001 1.934047e+000 2.323391e+000 2.707368e-001 5.282542e-001 1.603439e+000 2.455528e+000 1.694413e+000 8.777654e-001 7.543452e-001 1.218765e+000 1.354213e+000 1.932197e+000 1.190846e+000 1.743572e+000 1.121337e+000 3.727226e-001 7.516481e-001 1.160286e+000 1.179209e+000 1.764027e+000 1.526080e+000 1.296219e+000 9.348243e-001 1.138553e+000 1.323290e+000 8.207617e-001 2.265591e+000 1.624390e+000 7.809591e-001
<GCONST> 7.406077e+001
<MIXTURE> 15 1.225943e-002
<MEAN> 39
 1.180434e+000 3.295732e-001 2.502313e+000 -1.087057e+000 2.136193e-001 -1.922855e+000 -2.411314e+000 -1.518802e+000 -3.308927e+000 -4.658458e-001 -3.617705e+000 -1.924544e+000 2.192978e+000 5.123989e-001 -3.737647e-001 4.178389e+000 -3.228272e+000 -1.356170e+000 -2.791084e+000 -2.426239e-001 3.623912e-001 -1.196026e+000 3.448112e+000 -3.415535e+000 -1.875020e+000 2.376411e+000 -2.093062e+000 -3.557160e-001 -3.279190e+000 1.139745e+000 -5.779783e-001 1.056585e+000 3.431528e+000 1.868168e+000 3.769631e+000 1.896197e+000 3.122376e+000 1.270713e+000 -3.763341e+000
<VARIANCE> 39
 9.528153e-001 9.693686e-001 6.206170e-001 2.955923e-001 3.234142e+000 1.222244e+000 4.348141e-001 1.208028e+000 8.640047e-001 2.434726e+000 1.032678e+000 1.488998e+000 1.643181e-001 6.732620e+000 1.441462e+000 2.191631e+000 1.603899e+000 5.955393e-001 3.947597e+000 4.525864e+000 6.657095e+000 6.250241e+000 4.228693e+000 4.528156e+000 1.313698e+000 1.819502e+000 3.266507e+000 2.213978e+000 1.334096e+000 1.883165e+000 5.299510e+000 9.783763e-001 3.597016e+000 2.019714e+000 6.178219e+000 2.179924e+000 1.676859e+000 1.948564e+000 1.387150e+000
<GCONST> 9.408689e+001
<STATE> 3
<NUMMIXES> 15
<MIXTURE> 1 8.162353e-002
<MEAN> 39
 -7.570238e-002 4.217988e-001 1.079061e+000 1.797837e-001 8.463344e-001 1.510488e+000 1.716245e+000 1.777687e+000 5.427322e-001 -3.164353e-003 -1.662978e+000 -2.036221e+000 1.241964e+000 -2.428157e-001 -2.275526e-001 -1.247646e-001 -1.032878e-001 1.970387e-001 -1.749467e-002 -1.196662e-001 1.609147e-001 -3.511156e-001 1.631451e-001 7.536024e-002 1.085074e-001 -1.730881e-001 -1.362502e-001 1.046991e-001 -7.223220e-002 -3.155611e-001 -1.610536e-001 4.958892e-002 -1.322773e-001 2.208665e-002 4.368875e-002 6.534173e-002 2.437018e-001 3.156065e-001 -1.105374e-001
<VARIANCE> 39
 7.234684e-002 2.417668e-001 5.652788e-001 2.543159e+000 7.104618e-001 1.906368e-001 2.743005e-001 1.017283e+000 2.296458e+000 5.192325e-001 6.187820e-001 6.525781e-001 3.584925e-002 5.613534e-001 8.582634e-001 1.202392e+000 2.868631e+000 1.230412e+000 5.216267e-001 2.067816e+000 1.439414e+000 1.659563e+000 1.219436e+000 1.765669e+000 2.409775e+000 2.314445e-001 2.449411e-001 2.128569e+000 1.626685e+000 2.210221e+000 1.514960e+000 6.840287e-001 2.554281e+000 1.072005e+000 1.965375e+000 1.524511e+000 1.999108e+000 2.579188e+000 1.285621e-001
<GCONST> 6.486143e+001
<MIXTURE> 2 5.928469e-002
<MEAN> 39
 1.663243e+000 3.336214e-001 2.189752e+000 -3.833465e-001 -2.835801e+000 -1.198025e+000 -1.033560e+000 6.620721e-001 -1.539598e+000 -7.847763e-001 2.003825e+000 -9.557410e-001 2.385046e+000 2.334713e-001 -9.208155e-001 -6.881304e-001 -2.422446e-002 -1.480637e-002 -1.204760e+000 5.870704e-001 7.930535e-001 -1.714683e-002 3.034877e-001 1.406717e-001 -2.760688e-001 7.810118e-002 -3.300173e-001 4.590918e-001 -7.202354e-002 -2.855469e-001 1.254928e+000 4.585428e-001 -2.728073e-002 -4.157965e-001 6.364393e-001 -2.739562e-002 -4.091816e-001 -1.611567e-001 -4.776054e-001
<VARIANCE> 39
 8.937150e-001 3.546595e-001 1.960694e-001 1.158754e+000 9.812015e-002 5.554185e-001 7.938859e-001 1.269219e+000 1.578108e+000 2.660636e+000 1.748993e-001 6.904073e-001 6.543611e-002 2.539603e-001 7.224123e-001 2.077497e-001 7.620221e-001 1.101074e+000 1.346575e+000 6.453345e-001 8.690847e-001 1.029628e+000 8.175138e-001 7.581077e-001 6.603320e-001 1.117111e-001 3.007163e-001 3.639058e-001 6.666811e-001 7.950468e-001 2.557239e-001 1.146351e+000 7.882569e-001 1.185206e+000 5.833881e-001 1.014204e+000 3.348116e-001 3.971506e-001 1.062944e-001
<GCONST> 4.703262e+001
<MIXTURE> 3 8.018871e-002
<MEAN> 39
 1.338039e+000 -2.744903e+000 2.101233e+000 -2.522578e+000 -1.913924e+000 -2.191760e+000 -4.199411e-001 2.084114e+000 -1.666523e+000 2.277565e+000 2.615547e-001 2.862462e-001 2.637034e+000 3.342527e-001 -1.063893e-001 -2.004250e-001 1.301581e-001 2.281041e-001 -3.373359e-001 6.568188e-001 1.026701e-001 3.656971e-002 1.271547e-001 -4.075773e-001 8.527862e-002 -2.755142e-001 -9.389687e-002 1.056599e+000 4.414523e-001 6.078509e-001 -4.750929e-003 4.883270e-001 -4.583996e-001 -6.901110e-001 -1.622407e-001 -2.908371e-001 3.499657e-002 -3.803811e-001 -3.807735e-001
<VARIANCE> 39
 6.755863e-001 5.698507e-001 1.054517e-001 3.550410e-001 2.862087e-001 1.749156e-001 2.000148e+000 5.738280e-001 6.122108e-001 9.999439e-001 9.363123e-001 2.812689e+000 1.324018e-001 2.381910e-001 2.061180e+000 7.262718e-001 6.194151e-001 3.759173e-001 3.737319e-001 9.462090e-001 4.644971e-001 5.263988e-001 5.732402e-001 4.343672e-001 3.987441e-001 2.338954e-001 5.112960e-001 2.073380e+000 4.132964e-001 8.709081e-001 7.825525e-001 1.745838e-001 5.859390e-001 4.346400e-001 3.577651e-001 6.380009e-001 5.687807e-001 5.128860e-001 9.414609e-002
<GCONST> 4.494347e+001
<MIXTURE> 4 8.996236e-002
<MEAN> 39
 6.317672e-001 1.119720e+000 2.178462e+000 -6.800104e-001 -1.229578e+000 -1.789893e-001 -1.756227e+000 -8.699834e-001 -1.803375e+000 -1.723212e+000 3.669207e-001 -6.076927e-001 1.852380e+000 3.211376e-001 -1.603448e+000 -1.739133e-001 -1.746563e-001 -1.228915e+000 -1.185102e+000 4.093718e-001 7.614820e-001 -6.493270e-001 6.736839e-001 3.932141e-001 9.721945e-001 5.921373e-001 5.240471e-001 -5.443943e-001 -6.567987e-001 3.235174e-001 -1.305523e-001 -4.053560e-001 1.986031e-001 1.815454e-001 4.181963e-001 8.124046e-001 5.152438e-001 2.113540e-001 -1.205795e-001
<VARIANCE> 39
 7.930622e-001 1.361206e+000 1.221629e-001 9.785893e-001 3.051648e-001 9.476049e-001 1.241286e+000 7.338528e-001 2.873955e-001 6.793794e-001 1.616821e+000 1.218567e+000 2.596800e-001 3.320693e-001 8.120208e-001 9.022012e-001 1.040302e+000 7.822010e-001 1.562801e+000 7.535264e-001 9.410037e-001 8.617133e-001 2.162115e+000 1.202159e+000 6.938983e-001 1.250432e-001 1.866886e-001 8.873115e-001 8.866120e-001 8.606911e-001 1.213115e+000 7.005247e-001 8.727580e-001 9.157991e-001 9.790480e-001 8.663478e-001 7.921924e-001 1.234063e+000 1.218492e-001
<GCONST> 5.808958e+001
<MIXTURE> 5 7.025918e-002
<MEAN> 39
 -7.193854e-001 7.622195e-001 2.158961e+000 -2.512547e+000 -9.311451e-003 -2.664241e+000 -1.009697e+000 -2.320650e+000 6.766678e-001 -1.948147e+000 -1.269006e+000 -1.534049e+000 2.066859e+000 -1.147241e-001 -2.294250e+000 -1.333365e+000 -7.780942e-001 -1.759850e+000 2.299183e-001 2.007565e+000 1.196759e+000 1.599168e+000 8.695604e-001 -3.385009e-001 -9.328594e-001 6.660687e-001 6.329395e-001 7.932652e-002 -1.002393e+000 1.149058e+000 -6.316751e-002 6.725058e-001 3.872775e-001 6.557230e-001 -3.170088e-001 4.180656e-001 1.517857e-001 -6.111751e-001 2.630488e-001
<VARIANCE> 39
 1.873681e+000 1.634230e+000 5.824156e-001 1.028462e-001 3.733591e+000 3.212563e-001 2.824198e+000 4.429027e-001 9.207258e-001 7.965167e-001 1.044584e+000 5.392500e-001 5.602985e-002 2.186295e-001 3.477053e-001 3.540391e-001 1.037737e+000 1.761365e+000 9.501290e-001 1.624505e+000 1.427798e+000 2.037803e+000 1.285012e+000 1.748053e+000 2.219431e+000 2.720163e-001 1.939145e-001 8.776893e-001 9.253417e-001 6.720372e-001 2.167783e+000 1.110045e+000 1.840107e+000 1.466122e+000 2.306119e+000 2.053552e+000 1.387886e+000 1.284403e+000 4.178200e-001
<GCONST> 6.630084e+001
<MIXTURE> 6 8.966585e-002
<MEAN> 39
 -5.684896e-001 -7.884201e-001 1.227337e+000 -1.587263e+000 -2.442702e+000 -2.431132e+000 8.004724e-001 -1.228072e+000 5.198390e-001 3.402391e-001 -2.471749e-001 -9.121326e-001 1.924878e+000 2.539142e-002 -7.687933e-001 -5.861034e-001 1.733918e-001 8.813103e-002 4.015335e-001 7.489352e-001 3.102019e-001 1.554706e-001 1.641570e-001 7.508121e-002 6.445356e-001 1.427042e-001 -1.484320e-001 1.050543e+000 7.236781e-001 5.850704e-001 9.948061e-001 8.972069e-001 -7.948667e-001 -3.743859e-001 -9.206522e-001 -9.718819e-001 -6.974242e-001 1.225889e-001 -3.706130e-001
<VARIANCE> 39
 7.148147e-001 4.777141e-001 1.018904e+000 3.049424e+000 3.855512e-001 1.595948e-001 1.540179e+000 3.261423e-001 2.199346e+000 2.072437e+000 2.180279e+000 3.171510e+000 1.026711e-001 1.554405e-001 1.200015e+000 1.094179e+000 7.423518e-001 8.762778e-001 1.273256e+000 3.133958e+000 1.653341e+000 2.144050e+000 2.253478e+000 2.511431e+000 2.437192e+000 2.451104e-001 1.932414e-001 6.882770e-001 5.311974e-001 1.419319e+000 1.280170e+000 7.071193e-001 1.776039e+000 7.232841e-001 1.508199e+000 2.012528e+000 2.071538e+000 2.899828e+000 4.008316e-001
<GCONST> 7.112244e+001
<MIXTURE> 7 1.336360e-001
<MEAN> 39
