~o
<STREAMINFO> 1 39
<VECSIZE> 39<NULLD><MFCC_E_D_A_Z><DIAGC>
~h "eight"
<BEGINHMM>
<NUMSTATES> 8
<STATE> 2
<NUMMIXES> 16
<MIXTURE> 1 7.696295e-002
<MEAN> 39
 1.451671e-001 -1.832044e+000 -8.831968e-001 7.104980e-001 7.703038e-001 -9.913150e-002 1.282920e+000 -9.017131e-002 -1.753643e-001 -1.393954e+000 -8.792394e-001 2.913443e-001 7.667678e-001 1.771613e+000 1.382113e+000 1.315221e+000 2.697586e-001 6.879026e-001 1.578645e-001 4.946679e-001 2.445946e-001 6.499313e-001 3.285844e-001 -3.967763e-001 -7.573317e-001 2.289806e+000 1.528473e+000 2.249494e-001 5.081496e-001 -1.133757e+000 -7.624972e-001 -4.278063e-001 -9.882545e-001 -9.830383e-004 6.868161e-002 5.039330e-001 -5.047271e-002 -9.262138e-001 1.556237e+000
<VARIANCE> 39
 4.527580e-001 3.653505e-001 7.377142e-001 1.206609e+000 1.336255e+000 2.196954e+000 1.973124e+000 1.528876e+000 1.991993e+000 1.173723e+000 1.306881e+000 2.041471e+000 3.591029e-001 8.083969e-001 1.248057e+000 1.589607e+000 2.224032e+000 1.921521e+000 1.766591e+000 2.596076e+000 1.839624e+000 1.656432e+000 8.479592e-001 1.429988e+000 2.032028e+000 2.161340e+000 1.017580e+000 2.177143e+000 1.966595e+000 9.650699e-001 2.182688e+000 2.645290e+000 1.816166e+000 2.046664e+000 2.804940e+000 1.198421e+000 1.891642e+000 1.762053e+000 1.516345e+000
<GCONST> 8.631878e+001
<MIXTURE> 2 9.764497e-002
<MEAN> 39
 5.084893e-001 -1.492474e+000 -9.660032e-001 -2.246309e-001 1.460449e-001 -1.267885e+000 -9.848437e-001 -1.671470e+000 -1.353874e+000 -1.549542e+000 -1.523300e+000 -1.264454e+000 1.439041e+000 1.854082e+000 -9.950671e-001 -1.970640e+000 -1.204408e+000 -1.013015e+000 -1.052708e+000 -2.768669e-001 -7.765982e-001 -1.244145e+000 -9.054251e-001 -1.182359e+000 -8.276492e-001 2.124399e+000 -1.312934e+000 -1.221736e+000 -2.036454e-002 2.853990e-001 7.079083e-001 1.011722e+000 1.392589e+000 1.489768e+000 9.792426e-001 1.394965e+000 1.254968e+000 1.161695e+000 -9.714245e-001
<VARIANCE> 39
 1.149873e+000 4.960971e-001 1.301667e+000 1.708467e+000 2.852473e+000 1.065936e+000 2.515861e+000 1.478179e+000 1.746796e+000 1.378652e+000 9.681710e-001 8.338303e-001 3.253090e-001 1.565597e+000 2.359945e+000 2.620292e+000 3.108187e+000 2.950447e+000 2.380035e+000 2.675520e+000 2.343810e+000 3.010026e+000 3.260142e+000 3.083514e+000 2.256366e+000 1.230520e+000 1.990661e+000 2.001541e+000 2.680597e+000 2.273874e+000 3.118800e+000 1.791188e+000 1.503652e+000 1.491946e+000 1.678122e+000 1.787362e+000 1.838640e+000 1.258038e+000 2.282956e+000
<GCONST> 9.398331e+001
<MIXTURE> 3 9.381685e-002
<MEAN> 39
 -2.664262e-001 -2.429964e+000 -1.305209e+000 -9.054235e-001 3.721832e-001 -3.643325e-001 2.331435e-002 7.014536e-002 -1.201392e+000 -1.171499e+000 -9.417326e-001 5.623394e-001 6.203955e-001 -8.391790e-002 -5.561072e-001 -1.850953e-001 -1.225334e-001 4.029345e-001 -5.518684e-002 5.646188e-001 -2.524488e-001 -8.971906e-001 -7.732127e-001 -6.240061e-001 -4.419232e-002 1.536422e+000 9.962730e-001 2.175842e+000 1.185308e+000 1.434469e+000 2.532830e-001 8.468815e-002 3.718102e-002 -5.318696e-003 7.762513e-001 5.208114e-001 1.717035e-001 -9.495665e-001 -2.244223e-001
<VARIANCE> 39
 4.576736e-001 2.977883e-001 6.998158e-001 6.129284e-001 2.089231e+000 1.977309e+000 1.949215e+000 2.272135e+000 3.578425e+000 1.274150e+000 2.666664e+000 1.747024e+000 1.074076e-001 4.105747e-001 2.218622e+000 1.708926e+000 2.039823e+000 1.603476e+000 2.926448e+000 2.487718e+000 1.762856e+000 2.340117e+000 1.701298e+000 2.774286e+000 2.799579e+000 1.123998e+000 1.585779e+000 1.189742e+000 2.661258e+000 1.845077e+000 2.623870e+000 2.702959e+000 1.741232e+000 1.671251e+000 2.253101e+000 1.727240e+000 4.129829e+000 2.388359e+000 3.058581e+000
<GCONST> 9.031624e+001
<MIXTURE> 4 6.693111e-002
<MEAN> 39
 1.114417e+000 -2.024920e+000 -1.497979e+000 1.356377e+000 1.240414e+000 -1.761245e+000 2.450559e+000 -5.049261e-001 -5.197098e-001 -1.092411e+000 -5.083355e-001 -2.200801e+000 2.026441e+000 1.613567e-001 5.572727e-002 -1.634662e-001 9.775443e-002 -4.380098e-001 -8.314940e-002 4.943357e-002 3.088170e-001 2.548730e-001 -3.127485e-002 -1.839472e-001 7.120137e-004 3.288455e-001 -4.520230e-001 4.928045e-001 4.425070e-001 -7.077683e-002 1.613819e-001 1.322651e-001 -3.847797e-001 1.084662e-001 1.432101e-002 -8.920263e-002 7.221361e-002 5.560830e-001 -7.751523e-001
<VARIANCE> 39
 9.077865e-001 7.114998e-001 7.773835e-001 1.824495e+000 1.579967e+000 1.004123e-001 3.902919e-001 2.550985e+000 1.414798e+000 8.881919e-001 1.689409e+000 8.409096e-001 5.511332e-002 1.572542e-001 1.966234e+000 2.188592e+000 2.149411e+000 1.033476e+000 3.179057e-001 1.128975e+000 1.877199e+000 2.049437e+000 2.743021e+000 2.355620e+000 2.433920e+000 3.377497e-001 1.494220e+000 2.487095e+000 2.443541e+000 3.391547e+000 8.774201e-001 9.524915e-001 9.381766e-001 1.982444e+000 2.939192e+000 3.367045e+000 2.325634e+000 1.744625e+000 1.881693e+000
<GCONST> 7.801885e+001
<MIXTURE> 5 9.534574e-002
<MEAN> 39
 -6.052815e-001 -1.914269e+000 2.897541e-001 4.265969e-001 1.245429e+000 2.372970e-001 -1.353858e-002 -5.930569e-002 -1.920090e-001 -2.377858e-001 5.066661e-001 4.607360e-001 7.265706e-001 1.753791e+000 6.327264e-001 -5.871018e-001 -4.572414e-001 -5.223044e-001 -9.025059e-001 -1.149669e+000 -1.822273e+000 -1.652867e+000 -1.939099e+000 -1.784418e+000 -1.292583e+000 1.750655e+000 2.002082e+000 3.758999e-001 -1.288466e+000 -1.322595e+000 -1.490849e+000 -1.066277e+000 -4.842438e-001 -6.420942e-001 -8.494942e-001 -8.374169e-001 -1.500394e+000 -1.211277e+000 1.396013e+000
<VARIANCE> 39
 7.908917e-001 6.278330e-001 2.311356e+000 1.378519e+000 1.653552e+000 1.251757e+000 1.569540e+000 1.233276e+000 1.334400e+000 1.469061e+000 1.926595e+000 1.646144e+000 3.324129e-001 1.533067e+000 1.450217e+000 2.090370e+000 2.331241e+000 3.307468e+000 2.212889e+000 2.240823e+000 1.554474e+000 1.896120e+000 2.046474e+000 2.359264e+000 2.234645e+000 1.888653e+000 1.915671e+000 2.736109e+000 2.096999e+000 2.556859e+000 1.143329e+000 2.064749e+000 2.023138e+000 1.936978e+000 1.704611e+000 2.326948e+000 2.359132e+000 2.360081e+000 1.445455e+000
<GCONST> 9.254916e+001
<MIXTURE> 6 8.590754e-002
<MEAN> 39
 -1.024929e+000 -6.020235e-003 1.150095e+000 -1.113312e+000 -1.502635e+000 -1.582008e+000 -3.198038e-001 1.489633e+000 -3.959936e-001 -1.075975e+000 1.025770e+000 2.954346e-001 1.108528e+000 -4.742233e-001 5.495852e-001 9.341109e-001 -2.371887e-001 2.791213e-001 6.286411e-001 -3.317868e-001 8.850379e-002 4.200551e-002 3.976451e-001 7.207770e-001 1.946470e-001 6.250167e-001 1.934914e-001 -2.432097e-001 -3.350700e-001 3.520634e-001 6.376989e-001 5.996214e-001 3.318539e-001 -4.046625e-001 -2.636600e-001 2.493868e-002 -1.597620e-001 -3.382184e-001 -3.534786e-002
<VARIANCE> 39
 9.859222e-001 2.065571e+000 1.729623e+000 2.968394e+000 1.976540e+000 1.506093e+000 2.035633e+000 1.947491e+000 1.089758e+000 2.099668e+000 1.325954e+000 2.611225e+000 3.363121e-001 3.481287e+000 3.003413e+000 1.911023e+000 4.919156e+000 4.416379e+000 5.433074e+000 3.496556e+000 3.002766e+000 1.910352e+000 1.705693e+000 2.166938e+000 3.522555e+000 1.956382e+000 3.619637e+000 2.289925e+000 1.368584e+000 3.355347e+000 4.645086e+000 6.197772e+000 3.606639e+000 2.697106e+000 2.704310e+000 3.792610e+000 2.690549e+000 3.700311e+000 2.503416e+000
<GCONST> 1.062924e+002
<MIXTURE> 8 5.773566e-002
<MEAN> 39
 1.549592e+000 -3.286848e+000 -2.463289e+000 -1.314984e-001 -1.905766e+000 -1.285871e-001 -1.624671e+000 -6.875739e-001 -2.285228e+000 -2.233885e+000 -1.361328e+000 -1.215657e+000 2.850307e+000 -9.808914e-002 -1.555649e-001 2.132196e-001 -2.691347e-001 -1.875200e-001 4.301845e-001 1.966392e-001 -7.879684e-002 1.345557e-001 -5.698004e-001 1.142013e-001 2.792965e-001 1.692744e-001 -2.223985e-001 8.631775e-001 8.014690e-001 -1.802333e-001 3.558744e-001 -4.991690e-001 5.089818e-002 2.499516e-001 -1.391550e-001 7.937233e-002 3.242481e-002 1.223685e-001 -3.803541e-001
<VARIANCE> 39
 2.218028e-001 2.598251e-001 1.757470e+000 1.711487e+000 1.197766e+000 2.072871e+000 2.313507e+000 2.613642e+000 3.267889e-001 3.214641e-001 6.368677e-001 1.319256e+000 4.490102e-002 2.816417e-001 2.149214e+000 1.698668e+000 1.089722e+000 6.819888e-001 1.144890e+000 8.848878e-001 1.180789e+000 1.259231e+000 7.921248e-001 8.144720e-001 8.131613e-001 2.841297e-001 5.845695e-001 1.024131e+000 1.257941e+000 1.054219e+000 6.491387e-001 1.357117e+000 6.280767e-001 1.181971e+000 1.467426e+000 1.180634e+000 5.403160e-001 6.585817e-001 2.085374e-001
<GCONST> 6.263344e+001
<MIXTURE> 9 5.214934e-002
<MEAN> 39
 -2.391790e-001 -1.195120e+000 2.433556e-001 3.168114e-001 8.627378e-001 3.588244e-001 6.941379e-001 1.454244e+000 9.358333e-002 -8.389297e-001 4.771086e-001 1.177800e+000 8.595097e-003 -7.195954e-001 -2.608395e+000 -2.701204e-001 -1.411108e+000 3.347473e-001 2.761145e-001 4.108311e-001 3.977901e-001 -1.396799e-001 -5.792519e-001 3.050509e-002 -3.022007e-001 1.254964e+000 4.314018e-001 1.062972e+000 -9.157014e-001 -2.316287e-001 -7.490407e-001 1.267457e-001 -3.259718e-001 -1.335988e+000 4.423697e-001 1.138787e+000 8.448903e-004 -7.424201e-001 3.514125e-001
<VARIANCE> 39
 2.261575e-001 4.315421e-001 1.019010e+000 6.965221e-001 7.961355e-001 1.527936e+000 1.638635e+000 7.827641e-001 4.231771e-001 4.415051e-001 1.435871e+000 8.781535e-001 8.614685e-002 5.726869e-001 2.090502e+000 1.719208e+000 1.228092e+000 1.131864e+000 1.420692e+000 1.477176e+000 8.362756e-001 1.986018e+000 2.899527e+000 2.108866e+000 1.226546e+000 1.619290e+000 1.878610e+000 2.291997e+000 1.038512e+000 1.619034e+000 1.072452e+000 1.761746e+000 2.367956e+000 1.325870e+000 9.872050e-001 1.996898e+000 1.560487e+000 1.228062e+000 2.870236e+000
<GCONST> 7.649507e+001
<MIXTURE> 10 4.193353e-002
<MEAN> 39
 1.620515e+000 -2.123143e+000 1.513124e+000 9.387939e-002 6.321688e-001 -4.176817e-001 -1.928790e-001 1.398928e+000 -1.204525e+000 -5.031242e-001 2.090570e-001 -7.298762e-001 1.013350e+000 3.259473e-002 -2.718638e+000 2.095228e-001 -4.404435e-001 7.422743e-001 3.925668e-001 4.809573e-001 2.959556e-002 -1.086004e+000 -6.961407e-002 -2.704318e-001 9.801717e-002 2.657228e+000 -2.091819e+000 1.397882e+000 -2.242761e+000 2.094845e-001 -9.794210e-001 7.492188e-001 6.596398e-002 -1.374236e+000 6.899433e-001 1.453840e-001 1.332731e-001 3.739554e-001 -1.282950e+000
<VARIANCE> 39
 1.408146e+000 7.293644e-001 2.654296e-001 1.925334e+000 5.570566e-001 1.015502e+000 1.883448e+000 1.974203e+000 2.059872e+000 1.617187e+000 2.609774e+000 1.903933e+000 5.576274e-001 4.958399e+000 2.234019e+000 3.347050e+000 4.345020e+000 1.803380e+000 1.514171e+000 5.078008e+000 2.863885e+000 4.249920e+000 2.780332e+000 4.148703e+000 3.756314e+000 1.453288e+000 3.334840e+000 3.359148e+000 2.091899e+000 3.475953e+000 1.242502e+000 9.796739e-001 3.261762e+000 3.986927e+000 7.424526e+000 3.266059e+000 3.327868e+000 2.599856e+000 2.623386e+000
<GCONST> 1.018243e+002
<MIXTURE> 11 8.696875e-002
<MEAN> 39
 8.374968e-001 -1.720733e+000 -1.011376e+000 -7.546924e-001 1.966200e-001 -7.399904e-001 -3.173299e-001 -7.558706e-001 -6.738135e-001 -6.474435e-001 -1.412331e+000 -6.393150e-001 1.441043e+000 9.273592e-002 -1.054791e+000 -5.248722e-001 -7.575653e-001 -2.047728e-001 -1.219249e-001 -1.222850e-001 4.948912e-001 -4.837782e-001 1.082811e-001 -2.467887e-001 2.353204e-001 7.775738e-001 -8.335365e-001 7.392303e-001 5.890318e-001 1.027687e+000 1.747769e-001 4.983940e-001 3.947520e-001 -5.055796e-002 5.082124e-001 5.745645e-003 7.068765e-001 2.829728e-001 -1.199866e+000
<VARIANCE> 39
 3.098525e-001 4.509222e-001 7.507645e-001 9.561687e-001 1.000715e+000 1.015920e+000 1.672000e+000 1.471568e+000 1.879128e+000 9.649938e-001 6.193830e-001 1.578483e+000 1.884182e-001 2.995728e-001 8.833360e-001 5.854591e-001 1.255242e+000 8.754770e-001 7.003795e-001 1.566209e+000 8.745421e-001 5.381927e-001 6.731140e-001 7.371692e-001 1.193147e+000 2.041961e-001 8.251268e-001 2.308475e+000 7.567493e-001 7.524952e-001 1.234871e+000 9.511447e-001 1.372408e+000 8.489067e-001 8.553889e-001 4.817816e-001 7.302083e-001 9.391281e-001 3.884037e-001
<GCONST> 6.283910e+001
<MIXTURE> 12 1.521639e-001
<MEAN> 39
 -6.857313e-001 -1.497404e+000 -2.370521e-001 3.526300e-001 8.365989e-001 1.725792e-001 1.224331e+000 3.117605e-001 1.567041e-001 2.726091e-001 2.806338e-001 -9.709851e-003 4.091518e-001 -3.734126e-001 -7.716659e-001 -3.479501e-001 2.330375e-001 1.469295e-001 -2.191512e-001 -3.002873e-001 -2.791468e-001 -2.503783e-001 4.635684e-002 2.221948e-001 5.596718e-002 8.483738e-001 5.945230e-001 7.472422e-001 1.689333e-001 2.150189e-001 -1.199311e-001 -3.465957e-001 -4.564628e-001 -1.106116e-001 -2.324266e-001 -3.175618e-001 -2.531339e-002 1.446962e-001 -1.116926e-001
<VARIANCE> 39
 6.767921e-001 3.867173e-001 1.159291e+000 9.128478e-001 7.678829e-001 1.015677e+000 1.071874e+000 9.384035e-001 1.044319e+000 1.328431e+000 1.114393e+000 1.173489e+000 1.666964e-001 3.826679e-001 6.749309e-001 9.755110e-001 1.146748e+000 8.965138e-001 1.093561e+000 9.001103e-001 1.452873e+000 1.425962e+000 1.071275e+000 1.880436e+000 2.247227e+000 3.421781e-001 7.687684e-001 1.410282e+000 7.898183e-001 1.531525e+000 1.368728e+000 1.056617e+000 7.121762e-001 1.481268e+000 1.611007e+000 9.304687e-001 1.712857e+000 2.223002e+000 5.774960e-001
<GCONST> 7.064042e+001
<MIXTURE> 13 1.275125e-002
<MEAN> 39
 -2.353815e-001 -2.702384e+000 7.707391e-001 -9.933241e-001 1.328107e+000 -1.485660e-001 -8.866275e-001 1.071311e+000 -8.978187e-001 2.235348e+000 2.024378e+000 -7.879201e-001 1.044536e+000 6.850146e-001 -3.294741e+000 1.916775e+000 -9.703209e-001 2.951229e+000 -4.190904e-001 -2.710037e-001 1.401527e+000 -6.581408e-001 1.083849e+000 5.040187e-001 1.043024e+000 3.777325e+000 1.160892e+000 4.352329e+000 -1.562648e-001 1.572062e+000 -4.608150e-001 -1.592866e-001 4.284874e-001 -1.501341e+000 4.403622e-001 -2.561036e+000 -2.990473e+000 8.537561e-001 -2.404841e+000
<VARIANCE> 39
 1.238743e+000 7.979079e-001 1.351731e+000 3.295140e-001 2.297116e+000 1.156459e+000 2.267720e+000 2.182258e+000 6.203966e-001 5.715513e-001 2.186135e+000 1.508285e+000 1.734956e-001 1.376024e+001 3.903397e+000 4.562844e+000 5.360795e-001 2.508631e+000 1.296149e+000 2.486088e+000 1.057675e+001 1.148937e+000 9.957989e-001 6.311058e-001 1.820003e+000 1.268528e+000 3.865716e+000 1.445240e+000 2.999793e+000 1.898586e+000 5.454459e+000 1.305577e+000 6.318972e+000 3.691348e+000 8.389725e-001 1.833544e+000 4.289821e-001 4.334143e+000 1.057686e+000
<GCONST> 9.135496e+001
<MIXTURE> 14 5.440518e-003
<MEAN> 39
 3.702347e-001 -1.224192e+000 -3.125858e-001 4.861313e-002 9.691307e-001 3.842052e-001 2.171288e-001 9.982759e-001 -2.213908e-001 3.545676e-001 -2.039881e-001 8.548841e-001 5.358868e-001 -7.496232e-001 -4.779582e+000 -3.079910e-001 -2.319922e-001 1.783397e-001 -2.405258e-001 -8.336052e-001 -1.546613e+000 -4.194913e+000 -2.571915e+000 -2.134321e-001 1.163896e-001 5.064848e-002 -2.185567e+000 -9.425362e-001 1.088133e+000 -1.000974e+000 -4.991525e-001 -1.096188e-002 -5.690569e-001 -2.603931e-001 7.968337e-002 8.462615e-001 6.839313e-001 -1.353602e+000 8.087994e-001
<VARIANCE> 39
 1.376398e-001 6.948137e-001 1.253045e+000 2.686049e-001 5.405656e-002 4.051502e-001 1.292352e+000 8.310230e-001 8.376931e-002 7.100996e-002 6.765529e-001 1.848091e-001 8.355950e-002 2.970324e-001 3.713058e+000 6.912705e-001 1.144564e-001 1.953515e-001 1.654027e+000 3.758859e-001 8.449442e-001 1.964216e+000 9.999961e-003 8.570552e-001 7.575929e-001 2.030932e+000 6.650461e-002 3.584648e+000 2.707244e+000 1.756411e+000 2.328574e-001 4.799651e-001 1.757552e-001 5.971651e-001 1.326725e+000 5.053694e-001 1.462445e+000 5.034584e-001 5.005334e-001
<GCONST> 4.071802e+001
<MIXTURE> 15 6.880736e-002
<MEAN> 39
 1.328975e+000 -9.326444e-001 1.339707e-001 3.793211e-001 8.111458e-001 5.726882e-002 8.498146e-001 -4.464805e-002 6.574517e-002 -1.053800e+000 -8.937525e-001 -9.481577e-001 1.514249e+000 1.882214e+000 5.986171e-002 4.367962e-003 -1.117474e+000 -6.947857e-001 -4.926328e-001 -7.549676e-001 -3.860758e-001 4.610962e-001 4.231309e-001 -2.582215e-001 -1.203992e+000 2.361603e+000 -1.178522e+000 -1.935445e+000 -1.379069e+000 -1.032910e+000 -4.568411e-001 -5.710924e-001 -4.113982e-001 1.317418e-001 -7.162283e-001 2.242059e-001 -1.068424e-001 4.559476e-001 -1.272147e+000
<VARIANCE> 39
 6.469244e-001 6.575373e-001 1.284099e+000 1.198736e+000 7.910247e-001 1.211286e+000 1.289108e+000 3.186852e+000 1.792490e+000 6.650253e-001 9.178707e-001 1.328879e+000 2.225793e-001 1.209427e+000 2.184462e+000 2.271411e+000 2.211582e+000 1.600029e+000 2.151390e+000 1.686069e+000 2.005452e+000 2.526676e+000 8.304285e-001 1.426569e+000 1.542958e+000 1.264321e+000 7.835904e-001 9.693528e-001 1.603421e+000 1.571365e+000 1.791792e+000 8.387398e-001 1.343873e+000 2.227267e+000 8.112037e-001 6.381728e-001 9.112685e-001 7.231143e-001 9.397652e-001
<GCONST> 7.931562e+001
<MIXTURE> 16 5.440523e-003
<MEAN> 39
 -1.242692e+000 -6.480034e-001 4.409388e-001 -7.354311e-001 -6.393742e-001 -1.651193e+000 8.661311e-001 1.439735e+000 -4.283630e-001 -4.340400e-001 9.096274e-001 5.658516e-001 7.213969e-001 5.050030e-001 -2.855392e+000 4.642656e+000 -1.985198e+000 -4.057432e+000 -1.864672e+000 -3.802726e-001 2.928164e+000 -5.411376e+000 -5.629493e+000 -2.474452e+000 -2.206780e+000 3.485793e+000 3.222493e+000 5.497202e-001 -1.089611e-001 -6.792848e-001 4.329157e-002 2.370737e+000 -2.300282e+000 -1.253504e+000 -5.103773e-001 1.424194e-001 -2.567642e+000 -6.527184e-001 -4.260169e+000
<VARIANCE> 39
 2.580938e-001 8.640231e-002 5.468842e-001 1.391618e+000 2.756804e+000 8.031412e-001 1.612795e+000 1.107026e+000 2.544027e+000 6.076072e+000 2.786408e-001 5.668004e-001 8.976373e-002 5.569870e+000 6.539904e+000 2.222636e-001 1.191361e+000 1.602798e+001 2.408259e+000 2.531996e+000 2.431609e+000 1.113593e+000 4.750021e+000 4.649595e+000 2.051864e+000 7.059998e+000 3.191318e+000 1.129542e+000 3.261129e+000 4.284272e+000 7.972222e+000 2.183300e-001 6.922437e-001 2.665930e+000 3.637853e+000 1.196989e+001 5.736755e-001 3.559770e-001 3.879580e+000
<GCONST> 8.969759e+001
<STATE> 3
<NUMMIXES> 16
<MIXTURE> 1 1.326813e-001
<MEAN> 39
 1.065800e-001 6.833443e-001 2.140418e+000 7.573930e-001 4.382007e-001 -4.392867e-001 6.012384e-001 1.712401e+000 -1.987904e+000 -6.516806e-001 2.087079e+000 -2.486447e-001 1.988647e+000 5.119962e-002 6.971584e-002 -2.536107e-002 -2.255008e-002 -2.001158e-003 -5.626459e-002 1.631608e-001 -5.851530e-002 4.303331e-002 -6.099132e-003 -1.149498e-001 -3.091866e-002 7.644127e-002 -2.703428e-002 3.136329e-002 3.619104e-003 -3.309173e-002 1.019907e-002 8.492891e-002 -5.716444e-003 3.245342e-002 1.342063e-001 -5.664568e-002 -2.182606e-002 -8.229485e-003 -1.477411e-002
<VARIANCE> 39
 5.152511e-002 9.700604e-002 1.848859e-001 1.876487e+000 6.792631e-001 1.058964e+000 5.934628e-001 7.408084e-001 1.121780e+000 2.982040e+000 6.531815e-001 2.815204e+000 1.000004e-002 2.189471e-001 3.186540e-001 1.730190e+000 2.300829e+000 1.085976e+000 2.420254e+000 3.315250e+000 2.894343e+000 3.122937e+000 2.794985e+000 2.876317e+000 2.835318e+000 9.999961e-003 2.562026e-001 4.615727e-001 2.146035e+000 2.330599e+000 8.799131e-001 2.721313e+000 3.692702e+000 3.165216e+000 3.169797e+000 2.740965e+000 2.972925e+000 2.966901e+000 9.999896e-003
<GCONST> 6.552728e+001
<MIXTURE> 2 1.251542e-001
<MEAN> 39
 6.113057e-002 -2.578722e+000 -1.053711e+000 -1.081125e+000 2.428338e-001 -1.360404e+000 -6.564159e-002 -1.868758e+000 -1.557641e+000 -1.840675e+000 -8.735059e-001 -1.275100e+000 2.307641e+000 5.727474e-002 3.004602e-001 2.289337e-001 -4.307080e-001 -8.227779e-001 1.618466e-001 6.834575e-001 -4.237732e-002 5.423296e-002 -2.518098e-002 -5.139578e-002 -1.631984e-001 -1.677657e-001 2.599750e-001 6.461020e-001 7.061698e-002 -3.348483e-001 -6.609856e-001 9.102020e-002 -1.415876e-001 5.711821e-002 -3.198869e-001 -4.347208e-001 -2.911024e-001 3.269828e-002 -5.240456e-001
<VARIANCE> 39
 7.895534e-001 8.437818e-002 2.121027e+000 1.295237e+000 2.151335e+000 1.886337e+000 2.602807e+000 7.819191e-001 6.209183e-001 5.541649e-001 2.960947e+000 2.099261e+000 7.401001e-002 2.770278e-001 4.883673e-001 7.260965e-001 1.932615e+000 1.362362e+000 1.814597e+000 1.562245e+000 1.260361e+000 1.468368e+000 1.679263e+000 1.706731e+000 1.822448e+000 2.245161e-001 4.657236e-001 8.737292e-001 9.665656e-001 2.037202e+000 1.155904e+000 1.303566e+000 1.373362e+000 1.190495e+000 1.480126e+000 1.172556e+000 1.381597e+000 1.851163e+000 2.116405e-001
<GCONST> 7.132915e+001
<MIXTURE> 3 1.937109e-001
<MEAN> 39
 9.926880e-001 -9.955817e-001 -8.919223e-001 -3.799381e-002 -7.776242e-001 3.177160e-001 -3.344962e-001 -5.209363e-001 -1.438229e-001 -9.194679e-001 -9.786020e-001 -4.986835e-001 1.094081e+000 -1.806290e-002 1.456653e-001 1.932545e-002 -1.015546e-001 -1.597952e-001 1.150352e-001 -3.326467e-002 1.521863e-002 -2.053768e-002 -1.436902e-001 3.701404e-002 -4.684229e-002 4.189683e-002 -6.714778e-002 4.818649e-002 1.537073e-002 -7.674636e-002 -1.078062e-002 -4.689486e-002 1.017837e-001 -1.617602e-002 -3.210627e-002 -2.656272e-002 -1.718589e-002 2.064990e-002 -2.415217e-003
<VARIANCE> 39
 1.237011e-001 1.852216e-001 5.255888e-001 2.874160e-001 2.587063e-001 6.198766e-001 1.083323e+000 5.394942e-001 8.210350e-001 3.459098e-001 2.511455e-001 6.978220e-001 2.602499e-002 5.182408e-002 4.390119e-001 3.550774e-001 4.114454e-001 2.752602e-001 3.170086e-001 4.716009e-001 3.835370e-001 6.255093e-001 4.455865e-001 3.727915e-001 4.337063e-001 4.592586e-002 8.572682e-002 3.404889e-001 3.849199e-001 4.038216e-001 3.109357e-001 3.475789e-001 3.879225e-001 3.642336e-001 6.134576e-001 4.503940e-001 3.815053e-001 4.073822e-001 7.971902e-002
<GCONST> 2.570440e+001
<MIXTURE> 5 3.400726e-003
<MEAN> 39
 -1.954011e+000 1.018774e+000 -5.336835e-001 -2.605696e+000 2.179419e-001 -1.250902e+000 2.994059e-001 2.048996e+000 -8.733987e-001 -2.207101e+000 -2.118423e+000 -1.854429e+000 1.546349e+000 -2.205662e+000 6.934006e-001 4.983272e-001 -1.090120e+000 -7.356687e-001 4.650563e-001 -3.581262e-001 -4.920943e-001 -3.874941e-001 -4.394479e-001 -3.841233e-001 -1.561305e+000 2.973102e-001 2.876659e+000 -1.611640e+000 4.984089e-001 2.497410e+000 -1.177295e+000 -6.202851e-001 -4.200005e-001 -1.924755e+000 -4.389496e-001 8.932963e-001 9.278168e-002 6.550059e-002 3.189581e-001
<VARIANCE> 39
 1.000004e-002 1.147697e-002 8.564967e-002 3.552270e-002 8.033732e-002 3.682484e-001 1.000001e-002 2.530122e-002 5.049826e-002 9.999962e-003 9.999943e-003 2.375754e-002 1.000004e-002 2.973612e-001 2.918530e-002 8.124910e-002 6.989835e-001 1.000000e-002 9.999997e-003 4.610277e-002 8.747170e-001 4.410058e-001 7.033008e-002 1.472832e-002 3.402540e-001 9.999961e-003 1.532378e-001 5.049945e-001 9.999952e-003 5.639412e-001 2.033985e-001 7.269512e-001 9.999976e-003 1.550090e-002 2.817041e-001 3.157347e-001 2.506381e-001 6.110891e-002 4.807037e-002
<GCONST> -3.699917e+001
<MIXTURE> 6 1.190379e-002
<MEAN> 39
 8.134230e-001 -1.397312e+000 1.144586e+000 -2.120385e+000 -1.896828e+000 -8.012250e-001 1.226251e+000 7.453245e-001 -1.372775e+000 1.178189e-001 -2.472135e+000 3.701669e-002 1.657524e+000 -3.782323e-001 1.465147e+000 9.330484e-001 1.013523e+000 1.361102e+000 -1.382412e+000 -7.009736e-001 -1.337892e-002 1.880731e+000 -5.119813e-001 1.463138e+000 3.649985e-001 -6.380289e-001 -2.137018e+000 1.329102e+000 -2.031836e+000 1.772520e+000 1.254245e+000 9.943207e-001 -6.237866e-001 -1.135103e+000 9.011304e-001 6.663504e-002 1.551813e+000 1.327948e+000 -6.618389e-001
<VARIANCE> 39
 1.491259e+000 9.623432e-001 1.992486e+000 4.188446e-001 1.094158e+000 2.779193e-001 1.571369e-001 1.900194e+000 5.798618e-001 4.087574e+000 6.328393e-001 4.738030e-001 6.657051e-002 1.676290e+000 2.088935e+000 1.800020e+000 3.169215e+000 4.084674e+000 7.693795e-001 1.354386e+000 1.323922e+000 3.453009e-001 3.387418e+000 3.022295e+000 2.372479e+000 2.496865e-001 1.826617e+000 3.754305e+000 8.804529e-001 1.024419e+000 2.957577e+000 6.663343e-001 8.843117e-001 1.125008e+000 4.529780e-001 4.264863e+000 2.245776e+000 3.017481e+000 4.878195e-001
<GCONST> 7.621970e+001
<MIXTURE> 8 1.020236e-002
<MEAN> 39
 3.698601e-001 1.522374e-002 1.119726e+000 -1.565352e+000 -1.421442e+000 -1.708034e+000 5.226002e-001 -1.362172e+000 2.019300e+000 -3.292331e+000 -9.757218e-001 8.027727e-001 1.662950e+000 -7.367011e-001 3.668503e-001 2.251800e+000 1.613379e+000 -1.073629e+000 -6.002336e-002 -1.358030e+000 1.676666e+000 -3.919433e-001 -1.014589e+000 7.415667e-001 7.686034e-001 -5.847653e-001 -1.064333e+000 -7.872276e-001 -2.902987e-001 2.931493e-001 1.341016e-001 2.253039e-001 -4.084539e-002 4.868878e-001 -4.485693e-001 1.500481e+000 -4.839357e-001 -2.886432e-001 -1.556873e-002
<VARIANCE> 39
 1.000004e-002 3.206965e-002 8.209580e-001 4.087662e-001 2.192413e-001 1.412158e-002 8.564297e-001 8.263024e-001 3.173957e-001 3.623412e+000 2.847691e-001 2.791261e+000 1.084574e-002 4.069990e-001 2.319650e-001 5.304922e-001 2.301224e-001 6.573373e-001 1.407911e-001 8.976668e-001 9.918692e-001 1.441819e+000 4.311795e+000 1.149830e+000 3.912524e+000 2.959822e-002 1.426590e+000 3.785222e-001 2.809758e+000 1.168041e-001 1.290050e+000 3.964895e-002 2.943664e+000 2.287713e+000 2.504808e+000 9.348847e+000 8.153825e-001 6.882065e+000 1.800355e-001
<GCONST> 4.502230e+001
<MIXTURE> 9 6.801452e-003
<MEAN> 39
 8.432370e-001 -8.493406e-001 -9.202580e-001 1.143896e+000 -1.388533e+000 1.814174e-001 -3.085499e-001 -5.819234e-002 -2.733613e+000 -2.308059e+000 -2.183556e+000 1.363894e-001 1.714517e+000 -3.152596e+000 2.754196e+000 3.622476e-001 -2.083246e+000 4.012038e+000 7.642804e-004 2.460668e+000 -6.051461e-001 3.845970e-001 3.216278e-002 -1.208729e-001 6.316137e-001 -9.596045e-001 -3.669303e+000 1.788860e+000 -6.480864e-001 -3.348019e+000 9.410878e-003 -5.225588e-001 2.200641e-001 8.906136e-001 9.151648e-001 1.782148e+000 1.399030e+000 -1.059735e+000 9.132523e-002
<VARIANCE> 39
 7.852236e-001 1.001864e+000 2.706581e-001 2.940901e-001 6.249366e-001 2.445925e-001 4.790601e-001 1.932353e-001 6.558445e-002 2.484805e-001 9.904687e-001 2.061687e+000 2.473473e-001 9.936208e-001 1.063207e+000 1.244336e-001 1.458091e+000 6.859633e-001 8.137821e-001 1.650748e-001 9.383722e-002 3.191173e-001 1.598075e+000 7.997532e-001 3.671941e-001 3.544991e-001 3.696535e-001 6.394900e-001 1.652964e-001 3.074493e-001 2.230965e+000 5.509531e-001 1.524889e+000 2.678554e-001 5.903990e-001 9.383777e-001 1.432381e-001 9.186847e-001 1.593861e-001
<GCONST> 4.094454e+001
<MIXTURE> 10 6.801451e-003
<MEAN> 39
 -6.049642e-001 4.724183e-001 -9.460320e-001 -1.256767e+000 -8.432593e-003 -2.015521e+000 6.777381e-001 5.444909e-001 -7.300695e-001 -1.948243e+000 -2.044440e+000 2.810292e-001 1.389550e+000 -4.846303e+000 3.311558e+000 3.408812e-001 -4.430682e+000 2.069710e+000 -9.384646e-001 2.854760e-001 1.538752e+000 1.177758e+000 1.271166e+000 8.048251e-001 -2.941064e-001 -4.158829e-001 7.415167e-001 -1.618996e+000 1.264173e-001 4.030981e-001 -2.574870e+000 6.922370e-001 -1.614601e+000 7.578877e-001 -1.031424e+000 -1.057964e-001 -4.055597e-001 -1.626965e+000 1.218420e+000
<VARIANCE> 39
 5.908819e-001 1.983311e-001 5.062757e-002 3.966720e-001 3.056279e-001 2.933524e-001 1.638566e-001 1.056768e+000 3.246261e-001 1.722837e-001 2.247428e-001 3.267685e+000 2.879765e-002 2.496558e-001 1.223038e+000 6.843377e-002 1.379779e+000 7.456210e-001 1.412615e+000 1.971751e-001 3.387329e-002 2.269520e+000 1.081843e+000 6.653773e-001 8.455862e-001 2.984848e-001 2.728293e+000 2.274530e+000 4.803086e-002 3.852055e+000 4.470463e-001 1.270616e+000 5.172802e-001 2.090159e+000 8.035247e-001 3.041531e+000 7.970044e-001 8.432748e-001 4.297052e-002
<GCONST> 4.233068e+001
<MIXTURE> 11 2.559288e-001
<MEAN> 39
 1.682409e+000 -2.213028e+000 -4.530974e-001 -1.280737e+000 2.239223e-001 -6.231785e-001 -1.058616e-001 6.963046e-001 -2.546879e-001 -1.041982e+000 -7.288303e-001 -1.704767e+000 2.121400e+000 -8.578562e-002 6.716686e-002 2.579386e-001 -7.980046e-002 -5.133638e-001 -4.066845e-001 -4.100043e-002 2.987150e-001 2.247587e-001 4.975028e-002 -1.602004e-001 1.868813e-002 9.444183e-002 -2.124798e-002 3.531028e-001 2.319669e-001 2.211516e-001 -3.027805e-001 -6.188364e-002 -1.445776e-002 3.892734e-002 2.212287e-001 5.052393e-002 2.681397e-002 2.479186e-001 -1.997600e-001
<VARIANCE> 39
 7.930590e-001 1.769913e-001 1.076835e+000 6.326571e-001 2.426653e+000 2.289904e+000 2.234802e+000 1.869567e+000 2.149514e+000 1.529891e+000 1.383399e+000 1.240700e+000 1.766711e-001 1.386447e-001 1.914843e-001 8.155993e-001 6.554636e-001 6.597718e-001 6.352821e-001 7.073112e-001 6.753607e-001 7.998056e-001 5.255964e-001 7.468316e-001 7.502852e-001 5.733985e-002 2.198137e-001 3.329853e-001 8.435282e-001 5.251875e-001 5.627463e-001 5.632490e-001 7.111478e-001 6.373742e-001 5.622109e-001 4.701060e-001 6.280935e-001 8.742778e-001 9.384251e-002
<GCONST> 5.263876e+001
<MIXTURE> 12 2.039848e-002
<MEAN> 39
 2.323643e-001 -8.559110e-001 2.867518e-001 -7.198342e-001 -2.567474e+000 -1.603381e+000 -1.265310e+000 1.439896e+000 -1.399486e+000 -3.446868e-001 -4.182461e-001 9.479740e-002 1.619497e+000 -8.088248e-001 1.512089e+000 2.585814e-001 1.007968e+000 1.178137e+000 -5.276368e-001 5.241574e-001 -1.266286e+000 2.877129e-001 -1.334791e-001 -3.883755e-001 2.633790e-001 -4.480850e-001 -1.603033e+000 1.708813e+000 -1.432967e+000 -7.990860e-001 1.893942e+000 1.183705e+000 2.168995e+000 -1.137508e+000 7.659342e-001 -9.388418e-001 -7.489988e-001 -5.962941e-001 -2.693258e-001
<VARIANCE> 39
 1.338540e+000 1.560261e+000 1.285598e+000 7.839073e-001 1.159634e+000 3.772140e-001 8.483927e-001 3.276634e+000 1.017686e+000 1.535308e+000 2.363891e+000 1.398927e+000 1.714218e-001 1.516598e+000 1.983086e+000 1.816549e+000 1.221805e+000 3.156459e+000 3.060888e+000 2.159445e+000 1.779462e+000 1.704096e+000 2.020316e+000 1.857266e+000 1.457038e+000 3.363264e-001 1.489494e+000 1.324458e+000 8.454915e-001 3.122574e+000 2.956324e+000 1.084150e+000 2.113387e+000 3.100556e+000 1.375106e+000 1.592020e+000 3.251311e+000 1.540282e+000 8.248189e-001
<GCONST> 8.604729e+001
<MIXTURE> 13 3.569768e-002
<MEAN> 39
 2.236833e+000 -2.688030e+000 -5.669583e-001 -1.111741e+000 -8.382095e-001 3.153827e-001 -7.318746e-002 6.561044e-001 1.260986e+000 -1.157764e+000 -9.197288e-001 -1.433204e+000 2.885816e+000 1.052294e+000 -1.372686e+000 1.948531e-001 -1.265803e+000 -6.774319e-001 -2.326234e-001 -5.415229e-001 5.417413e-001 -1.728733e-001 -2.819904e-001 1.059891e-001 -1.306179e+000 2.112352e+000 -2.005527e+000 5.141165e-001 4.507704e-001 4.847137e-001 4.208264e-001 8.323249e-002 4.025158e-001 1.698440e-001 -2.419592e-001 -4.380345e-001 8.008552e-002 6.988686e-001 -2.344262e+000
<VARIANCE> 39
 3.698927e-001 7.918686e-001 1.587275e+000 1.238897e+000 2.480691e-001 1.886762e+000 4.160289e+000 1.866544e+000 4.147144e-001 3.634529e-001 1.351922e+000 1.416274e+000 7.150940e-001 2.851119e+000 9.168304e-001 1.893043e+000 5.853353e-001 8.185260e-001 7.536518e-001 6.734225e-001 1.276862e+000 3.374419e-001 5.559555e-001 1.163190e+000 1.815908e+000 3.926075e+000 1.510918e+000 1.866443e+000 1.854740e+000 9.705585e-001 5.157738e-001 6.654094e-001 6.692784e-001 1.533879e+000 7.642916e-001 1.335911e-001 7.928744e-001 7.314650e-001 1.481706e+000
<GCONST> 6.985742e+001
<MIXTURE> 14 3.064255e-002
<MEAN> 39
 6.460603e-001 -2.786210e+000 -6.815459e-001 -8.415590e-001 -6.564884e-001 -8.252078e-001 -1.115984e+000 -2.031775e+000 -2.293976e+000 -3.158930e+000 -1.330586e+000 -9.110996e-001 2.360229e+000 1.700097e-001 -1.378634e+000 -2.033805e-001 -4.956307e-001 -3.503008e-001 -3.306102e-001 8.780906e-001 -9.138639e-001 -2.452259e-001 -2.923386e-001 -1.281078e+000 -9.630723e-001 2.094504e+000 -1.434164e+000 9.581025e-001 1.613167e+000 6.083428e-001 1.334394e+000 4.819170e-001 6.127321e-001 2.220684e+000 1.779407e+000 2.065139e+000 1.481074e+000 6.879252e-001 -2.304113e+000
<VARIANCE> 39
 1.241076e+000 2.675282e-001 1.599728e+000 5.756674e-001 1.314395e+000 5.597806e+000 1.751248e+000 1.671738e+000 3.782033e-001 8.649257e-001 4.956856e+000 2.168027e+000 1.573706e-001 2.010360e+000 2.600754e+000 2.993755e+000 1.592074e+000 2.629232e+000 1.710679e+000 2.353892e+000 3.035618e+000 1.472463e+000 2.443698e+000 3.273577e+000 3.616450e+000 1.356236e+000 6.749660e-001 3.480942e+000 8.957841e-001 9.854200e-001 1.467860e+000 3.446665e+000 3.874115e+000 2.668245e+000 9.182310e-001 9.568078e-001 2.148759e+000 2.668214e+000 1.288074e+000
<GCONST> 9.026890e+001
<MIXTURE> 15 1.190212e-002
<MEAN> 39
 -6.411822e-001 -1.333410e+000 -6.307199e-001 1.882670e-001 8.380811e-002 -9.635252e-001 -1.266457e+000 -1.411240e+000 -1.324594e+000 -1.808964e+000 6.926295e-001 5.516806e-002 1.377261e+000 1.760633e+000 -1.139325e+000 -9.564202e-001 -1.640291e+000 -2.497886e+000 -2.806580e+000 -2.503085e+000 -4.080228e+000 -2.395022e+000 -2.635905e+000 -1.515093e+000 -1.560119e-002 2.446397e+000 -4.631520e-001 -2.810751e+000 -1.979699e-001 4.871203e-001 -7.210229e-002 -4.585399e-001 4.723414e-001 4.476970e-001 6.442242e-001 1.449288e+000 9.570046e-002 5.806831e-001 6.402371e-001
<VARIANCE> 39
 4.230974e-001 1.543028e-001 4.629141e+000 1.160939e+000 1.746330e+000 1.702799e+000 2.383882e+000 2.223312e-001 3.310580e-001 1.700961e-001 2.288375e+000 1.022470e+000 5.260628e-002 4.015198e-001 1.447060e+000 9.843259e-001 6.918508e-001 1.934826e+000 3.214462e+000 4.918402e-001 7.935218e-001 8.550791e-001 7.337433e-001 1.493809e+000 5.930547e+000 7.946260e-001 2.170367e+000 1.368725e+000 4.326034e+000 2.841836e+000 6.041541e+000 4.765955e+000 4.452851e+000 3.021594e+000 1.539287e+000 7.247497e-001 1.947720e+000 2.194848e+000 8.836489e-001
<GCONST> 7.855394e+001
<MIXTURE> 16 1.547743e-001
<MEAN> 39
 8.236322e-001 -1.552491e+000 -1.707037e+000 -1.928682e-001 -1.506016e+000 -7.231129e-001 4.256443e-001 -1.280654e+000 -1.051298e+000 -1.103677e+000 -1.533795e+000 5.777741e-001 1.751612e+000 -7.959025e-002 3.378714e-001 3.934087e-001 -3.187174e-001 -4.798535e-001 -2.333675e-001 2.696954e-001 2.552881e-002 1.683081e-001 -2.491032e-002 1.418304e-001 -3.952698e-002 -4.831779e-002 6.101709e-002 3.579137e-001 3.755775e-001 -6.811444e-002 2.821954e-001 -2.797366e-001 -3.660669e-002 6.491270e-002 4.770018e-002 -7.987086e-002 1.828932e-001 -4.820749e-001 -1.840773e-001
<VARIANCE> 39
 6.139870e-001 2.052457e-001 4.491400e-001 1.598451e+000 1.105577e+000 1.391092e+000 2.365832e+000 8.505710e-001 1.959931e+000 8.767665e-001 1.646726e+000 1.341893e+000 1.353329e-001 2.432164e-001 8.604586e-001 5.841615e-001 7.731856e-001 1.203452e+000 1.307631e+000 1.401693e+000 8.766292e-001 1.087344e+000 1.129171e+000 8.669326e-001 1.158423e+000 7.059979e-002 3.591772e-001 8.847418e-001 7.098629e-001 7.964913e-001 1.595825e+000 1.460445e+000 1.169881e+000 8.785276e-001 1.120701e+000 1.559888e+000 1.038038e+000 8.540119e-001 7.814482e-002
<GCONST> 6.264355e+001
<STATE> 4
<NUMMIXES> 16
<MIXTURE> 1 8.188493e-003
<MEAN> 39
 -1.764561e+000 -3.445881e-002 2.217636e-001 -6.689403e-001 -4.146184e-001 -9.838012e-001 2.370217e-001 1.699447e-001 -7.566813e-001 7.024034e-001 -3.869245e-002 -1.913566e+000 1.433878e+000 -1.351887e+000 -1.616691e+000 -1.573599e+000 -1.194644e-001 1.169157e+000 1.130800e-001 2.690471e-001 -2.902731e-001 -1.364631e-002 8.433848e-001 1.192888e-001 -4.185280e-001 4.512675e-001 1.039527e+000 1.588962e+000 9.890655e-001 -1.172834e+000 -4.745867e-001 5.509003e-001 -8.016713e-001 7.316234e-001 2.244215e+000 -2.018603e+000 8.636707e-001 1.972628e+000 3.573822e-001
<VARIANCE> 39
 8.456964e-002 2.052473e+000 1.729215e+000 1.929113e+000 1.309717e+000 5.069125e-001 3.603367e-002 2.716536e-001 2.136871e+000 1.245728e+000 5.719595e-001 1.517489e+000 1.172654e-002 2.297695e+000 4.693854e-001 5.955825e-001 1.389452e-001 3.549296e-001 1.840839e-001 5.791310e-001 6.348611e-002 1.745134e+000 5.698921e-001 5.175319e+000 6.104608e-001 1.062737e-001 2.455045e+000 4.425355e-001 6.969603e-001 3.837076e-001 4.551280e-001 7.326917e-002 1.533418e-001 5.106483e-001 2.993854e-001 3.503428e+000 1.796851e+000 8.971377e-002 6.719723e-002
<GCONST> 4.128022e+001
<MIXTURE> 2 1.544368e-001
<MEAN> 39
 6.692731e-001 -1.493306e+000 -8.285832e-001 -9.662520e-001 -9.806722e-001 -9.593853e-001 -2.195983e-001 -1.246417e+000 -1.629470e+000 -4.985251e-001 -8.047360e-001 -1.103189e+000 1.550440e+000 1.818412e-002 4.789858e-001 4.667800e-001 -4.788747e-001 -2.594112e-001 7.392368e-002 1.775763e-001 2.230083e-001 -1.673601e-001 8.027416e-002 -1.254289e-001 -1.863164e-001 -1.536228e-001 7.144132e-002 2.299740e-001 1.606326e-001 -6.527769e-002 -1.455728e-001 1.893626e-002 -1.098487e-001 9.373131e-002 1.725783e-001 -4.577253e-002 -1.708154e-001 5.243076e-002 -6.518075e-002
<VARIANCE> 39
 1.063480e-001 5.948790e-001 1.326250e+000 2.736601e-001 4.613310e-001 4.497930e-001 6.229969e-001 3.980927e-001 3.286822e-001 1.383767e+000 4.992830e-001 1.169194e+000 7.462040e-002 5.588812e-002 3.024955e-001 7.554491e-001 6.212769e-001 3.993736e-001 4.110130e-001 8.981373e-001 8.208744e-001 1.085067e+000 4.873759e-001 7.133164e-001 1.176899e+000 5.616956e-002 1.038334e-001 4.445483e-001 6.870897e-001 5.962113e-001 3.844908e-001 4.783962e-001 1.026273e+000 6.847496e-001 1.201669e+000 4.849788e-001 6.928830e-001 9.097729e-001 5.927452e-002
<GCONST> 4.053419e+001
<MIXTURE> 3 2.554511e-001
<MEAN> 39
 -2.326329e+000 1.635808e+000 6.879256e-001 -1.901749e+000 -3.271530e-001 2.225340e-001 7.501891e-002 7.598852e-002 -6.949596e-001 -1.132367e+000 -3.778223e-001 -2.172866e-001 1.559590e+000 -4.837132e-001 1.629962e-001 5.799878e-001 3.082545e-001 2.533072e-001 4.322287e-001 -6.022421e-002 -3.463338e-002 3.193465e-001 2.886974e-001 2.423986e-001 1.176108e-001 -2.140017e-002 3.789048e-001 -1.288248e-001 -2.906779e-001 1.148273e-001 1.083457e-001 -2.596185e-001 -2.570818e-002 -5.192551e-002 5.432310e-002 2.279605e-001 -1.010945e-003 3.513016e-004 -1.540479e-001
<VARIANCE> 39
 3.548118e-001 3.047521e-001 2.100427e+000 4.193660e-001 1.487120e+000 1.514181e+000 2.029559e+000 1.341224e+000 1.088254e+000 1.131553e+000 1.809656e+000 1.503436e+000 3.419329e-002 2.832440e-001 4.978569e-001 1.232652e+000 9.033231e-001 9.194478e-001 1.327191e+000 1.722986e+000 1.336887e+000 1.533614e+000 1.841129e+000 1.532741e+000 1.420326e+000 5.628798e-002 3.179107e-001 6.962584e-001 1.417184e+000 1.084964e+000 1.110192e+000 1.314969e+000 1.925199e+000 1.341653e+000 1.189306e+000 1.740313e+000 1.712060e+000 1.368914e+000 1.179612e-001
<GCONST> 6.678433e+001
<MIXTURE> 4 1.355337e-001
<MEAN> 39
 1.609315e+000 -2.088646e+000 4.134388e-001 -1.239923e+000 -1.157277e+000 -1.148916e+000 2.928774e-001 1.479936e+000 1.046454e+000 -1.180691e+000 -1.282170e+000 -1.138048e+000 2.398987e+000 -2.621607e-001 1.477150e+000 9.458669e-001 4.273678e-001 -8.251187e-001 -7.097542e-001 -6.829161e-002 -9.531254e-002 1.920858e-001 4.121736e-001 4.542287e-001 9.115543e-001 -6.402731e-001 -1.349350e-001 9.908407e-001 1.523519e-001 1.884262e-001 4.556149e-001 3.645993e-001 -1.475416e-001 -6.518748e-001 -3.705073e-001 2.660438e-001 3.628604e-001 2.298335e-001 -5.401556e-001
<VARIANCE> 39
 5.925148e-001 9.657627e-001 1.121055e+000 6.066189e-001 1.758651e+000 2.249400e+000 3.495696e+000 2.149583e+000 1.714174e+000 9.029778e-001 8.094712e-001 1.722331e+000 7.301790e-001 2.084665e-001 9.421722e-001 1.798777e+000 8.316454e-001 1.384493e+000 9.989172e-001 1.798014e+000 1.561955e+000 5.788088e-001 1.566573e+000 9.182803e-001 1.450492e+000 2.098416e-001 3.772573e-001 8.240403e-001 1.485688e+000 6.481404e-001 1.297671e+000 1.081901e+000 1.684361e+000 1.309484e+000 6.703820e-001 1.547220e+000 7.397586e-001 1.752344e+000 1.780927e-001
<GCONST> 7.183438e+001
<MIXTURE> 5 1.849787e-002
<MEAN> 39
 1.137766e+000 -3.862937e-001 2.371840e+000 -8.469890e-001 -1.960752e+000 -1.956623e+000 -1.178447e+000 7.996030e-001 -8.030874e-001 1.691550e+000 -1.350322e+000 1.231710e-001 1.688397e+000 -2.830790e+000 3.507219e+000 5.264434e-002 1.383192e+000 1.252743e+000 4.708193e-001 2.333791e+000 -2.676481e+000 1.644678e+000 -8.185654e-001 1.498129e+000 1.343170e-001 -1.033803e+000 -3.229149e+000 7.148081e-001 -2.404089e+000 -9.742797e-001 1.775058e+000 1.547045e+000 1.478939e+000 6.139238e-001 8.693710e-001 -1.937578e+000 7.401705e-001 -1.089691e+000 -1.369826e-001
<VARIANCE> 39
 6.844115e-001 4.111050e-001 8.421979e-001 5.261810e-001 1.170085e+000 4.302588e-001 1.209725e+000 7.048944e-001 1.246556e+000 3.552336e+000 9.018352e-001 4.706261e-001 1.249548e-001 8.937610e-001 1.118096e+000 2.744843e+000 2.753133e+000 2.136921e+000 7.688926e-001 8.622956e-001 8.507803e-001 2.163307e+000 2.075514e+000 1.975310e+000 8.089673e-001 1.898013e-001 8.967221e-001 1.363108e+000 8.795202e-001 1.469968e+000 1.303134e+000 7.401229e-001 1.721564e+000 1.423944e+000 7.290560e-001 1.498420e+000 3.878169e-001 1.058416e+000 4.564505e-001
<GCONST> 6.955000e+001
<MIXTURE> 6 9.773515e-002
<MEAN> 39
 7.515927e-001 -1.181907e+000 -4.952961e-001 -2.229366e+000 -2.045879e+000 -1.573943e+000 5.354866e-001 -1.880863e+000 -1.597531e+000 -1.876957e+000 -1.689829e+000 -1.329661e+000 1.585990e+000 1.165249e-001 2.529172e+000 9.401200e-001 -7.330341e-001 -8.860731e-001 -4.364660e-001 -4.846103e-001 2.115686e-002 1.376875e-001 6.474680e-002 -5.298946e-001 -2.213864e-001 -7.659004e-001 -9.967633e-001 7.219511e-001 6.336383e-002 7.827892e-001 1.059944e+000 6.972941e-001 -7.143679e-001 -4.437562e-002 -2.568077e-001 7.089760e-001 5.782698e-001 3.469807e-001 -1.716407e-001
<VARIANCE> 39
 8.377647e-001 6.084656e-001 7.291750e-001 7.008728e-001 1.440876e+000 1.058312e+000 1.651083e+000 5.680821e-001 8.598249e-001 1.165670e+000 1.098117e+000 9.372235e-001 9.863632e-002 4.983160e-001 1.327526e+000 1.274882e+000 2.378931e+000 1.657713e+000 1.655952e+000 2.256719e+000 1.156401e+000 2.528426e+000 1.661243e+000 2.688061e+000 9.619851e-001 3.584853e-001 1.144080e+000 1.911142e+000 1.161992e+000 1.094575e+000 1.705333e+000 2.604326e+000 1.675851e+000 1.197183e+000 2.103047e+000 1.717680e+000 2.202510e+000 1.814820e+000 3.494331e-001
<GCONST> 7.725792e+001
<MIXTURE> 7 8.188501e-003
<MEAN> 39
 9.070629e-001 -1.159303e+000 1.388024e+000 -1.996770e+000 -1.704458e+000 1.045815e+000 1.057351e+000 -1.373600e+000 -2.076648e+000 -2.318353e+000 -2.048035e+000 -2.654468e+000 1.903937e+000 -8.821238e-001 6.944845e-001 2.968709e+000 -4.263129e-001 1.279622e+000 -3.958311e-001 2.794360e+000 -2.132344e-002 -1.000583e-001 3.678531e+000 -3.893338e-001 -9.384087e-001 -6.876958e-001 -1.117242e+000 -2.858161e-001 7.746480e-001 1.073018e+000 6.703005e-001 -1.991996e+000 -2.230001e+000 1.290282e+000 2.144996e+000 1.497073e+000 2.134097e+000 1.189553e+000 -1.217230e+000
<VARIANCE> 39
 5.631296e-001 1.090308e+000 1.225548e-001 1.047147e-001 1.002532e+000 3.364065e-001 1.913130e+000 4.326964e+000 7.004939e-001 7.618532e-001 2.660776e-001 2.363415e+000 3.823814e-001 1.587358e-001 1.656037e+000 1.175047e+000 3.750980e-001 2.585348e-001 1.283184e-001 1.281745e+000 7.275782e-001 1.425259e+000 5.593966e-001 8.818763e-001 1.596164e+000 3.439471e-002 5.952095e-001 4.131573e-001 2.510086e+000 1.975228e+000 1.188245e-001 2.247604e-001 1.582820e+000 1.656952e+000 8.161978e-002 2.465016e+000 1.782609e+000 3.598999e+000 2.982049e-001
<GCONST> 5.350648e+001
<MIXTURE> 8 8.706886e-002
<MEAN> 39
 -1.566978e+000 1.209329e+000 -4.555282e-001 -1.726529e+000 -2.697214e-003 -5.943432e-001 1.086643e+000 -1.572881e-001 -3.547011e-001 -7.322027e-001 -1.124470e+000 -5.261238e-001 1.384966e+000 -2.359738e+000 1.324524e+000 -5.322531e-001 -1.640176e+000 4.722042e-001 3.542873e-001 -4.546150e-001 6.819786e-001 4.286974e-001 3.297139e-001 4.289126e-001 2.744736e-002 2.870264e-001 2.032043e+000 -1.983305e+000 1.491135e+000 5.614931e-001 -1.011168e+000 -5.646908e-001 -8.680947e-001 1.778555e-002 -7.553645e-001 -1.468002e-001 7.736633e-002 2.401283e-001 5.942937e-001
<VARIANCE> 39
 3.217480e-001 5.353978e-001 2.541863e+000 8.390130e-001 1.146018e+000 1.335165e+000 1.319999e+000 1.583964e+000 2.785486e+000 8.109828e-001 8.625799e-001 2.498237e+000 6.197732e-002 1.531048e+000 1.593140e+000 2.002594e+000 1.624406e+000 1.746605e+000 1.347386e+000 1.889151e+000 1.859852e+000 1.611899e+000 2.637279e+000 1.201380e+000 2.383131e+000 3.031153e-001 8.431463e-001 1.363128e+000 1.364142e+000 3.369530e+000 1.304713e+000 1.563381e+000 2.104606e+000 3.193889e+000 2.740378e+000 1.907065e+000 2.095726e+000 2.596032e+000 7.380714e-001
<GCONST> 8.345606e+001
<MIXTURE> 9 4.802336e-002
<MEAN> 39
 2.532322e-001 6.736062e-002 3.104689e-001 -1.749766e+000 -1.355465e+000 -1.278994e+000 -1.748257e-001 -1.782885e+000 -2.126057e+000 -1.275057e+000 -1.255075e+000 -9.810765e-001 1.195915e+000 -3.030470e+000 2.792701e+000 -6.057607e-002 6.941087e-001 1.255171e+000 2.018023e+000 -2.396627e-001 1.777067e+000 -9.415881e-002 8.580188e-001 7.799444e-001 -2.515883e-001 -9.211385e-001 -1.370519e+000 -7.648016e-001 -9.644448e-001 -5.012800e-001 8.992386e-002 2.561389e-001 6.758478e-001 8.098991e-001 9.251202e-001 1.298758e-001 -2.897705e-001 1.624459e-001 6.336901e-001
<VARIANCE> 39
 8.068195e-001 5.710129e-001 1.421026e+000 1.230988e+000 9.093222e-001 7.905207e-001 2.484649e+000 1.141788e+000 8.832970e-001 8.652786e-001 8.169877e-001 1.622970e+000 3.866900e-001 6.704647e-001 1.177039e+000 4.993135e+000 3.553900e+000 1.744309e+000 1.162840e+000 3.511294e+000 1.088445e+000 2.486663e+000 1.818972e+000 2.096817e+000 1.009968e+000 6.026064e-001 1.563427e+000 1.604395e+000 3.681548e+000 2.734512e+000 1.085378e+000 2.545692e+000 3.690531e+000 1.296614e+000 1.503565e+000 1.066595e+000 1.357815e+000 9.462823e-001 5.923892e-001
<GCONST> 8.368769e+001
<MIXTURE> 10 2.047040e-002
<MEAN> 39
 6.644934e-001 8.088413e-001 1.561497e+000 -1.196120e+000 -6.559849e-001 -9.151559e-001 3.911814e-002 9.182562e-001 1.714395e+000 2.906959e-001 -1.250025e+000 -9.582175e-001 1.760951e+000 -4.088599e+000 1.363940e+000 1.692470e+000 -9.729609e-001 -9.499701e-001 2.788805e+000 -2.661699e-001 5.398900e-001 2.120758e-001 8.412905e-001 -4.357496e-001 -3.505718e-001 -6.857664e-001 -1.133814e+000 -1.774611e+000 -6.171590e-001 -1.493639e-001 -4.032459e-002 -4.108836e-001 1.312106e+000 -1.315508e+000 -4.132332e-002 -4.026914e-001 1.128594e+000 -6.625425e-001 1.132676e+000
<VARIANCE> 39
 1.404333e+000 1.250411e-001 5.314236e-001 2.070252e-001 4.073581e-001 2.171399e+000 7.915062e-001 5.171962e-001 7.647910e-001 5.137890e-001 4.309497e-001 1.413951e+000 3.923117e-002 1.987867e+000 1.450106e+000 6.797916e-001 2.786548e-001 2.934952e+000 7.573487e-001 3.140679e+000 2.021469e+000 7.847964e-001 8.776914e-001 2.184702e+000 2.002024e+000 7.832766e-001 5.745781e+000 3.037687e-001 1.521160e+000 1.000802e+000 1.431825e+000 2.119144e+000 1.554715e+000 1.867325e+000 9.381287e-001 7.170580e-001 1.000117e+000 2.929504e+000 5.295021e-001
<GCONST> 6.814320e+001
<MIXTURE> 11 3.908407e-002
<MEAN> 39
 3.671721e-002 -3.753104e-001 1.064912e+000 -1.020174e+000 -4.035617e-001 -1.044154e+000 1.083101e+000 6.743502e-001 1.080548e-001 -9.749230e-001 -8.503332e-001 4.071522e-001 1.449705e+000 -3.910342e+000 2.443799e+000 -1.038152e+000 -1.176849e+000 1.662078e+000 6.815531e-001 1.432137e+000 -1.564089e+000 1.174953e+000 -5.409068e-001 4.351423e-001 -1.273962e-001 -9.798104e-001 -1.001055e+000 -4.660115e-001 -4.161392e-001 -1.276773e+000 -8.843986e-001 4.091895e-001 -8.062343e-001 3.343853e-001 -2.312252e-001 1.644113e-001 -2.327840e-001 -4.581777e-001 1.016448e+000
<VARIANCE> 39
 6.626797e-001 1.467440e+000 1.405735e+000 8.434012e-001 1.533944e+000 1.637218e+000 1.379626e+000 2.432503e+000 1.809036e+000 1.140287e+000 1.374646e+000 9.482850e-001 1.215361e-001 1.177742e+000 1.563905e+000 1.447807e+000 8.726697e-001 2.097399e+000 1.733726e+000 2.043898e+000 1.986338e+000 1.920961e+000 3.061642e+000 2.832285e+000 1.710348e+000 3.936344e-001 1.844596e+000 2.299005e+000 1.842811e+000 2.612731e+000 1.224312e+000 8.515452e-001 1.300400e+000 2.204525e+000 1.462288e+000 1.465544e+000 9.019260e-001 4.419143e-001 6.313995e-001
<GCONST> 8.228053e+001
<MIXTURE> 12 5.781377e-002
<MEAN> 39
 2.078305e+000 -7.087952e-001 9.362651e-001 -5.026537e-001 -1.650570e+000 -2.036563e+000 2.372695e-001 1.274218e-001 8.358961e-001 -6.825774e-001 7.935241e-001 -5.428618e-001 1.924340e+000 -5.508720e-001 1.555972e+000 1.486627e+000 3.282384e-001 6.527972e-001 8.872153e-001 -1.233480e+000 -3.175362e-001 -4.330814e-001 4.686113e-001 3.903571e-001 7.225309e-001 -1.151934e+000 -2.022044e+000 -2.058431e-001 3.610005e-002 -7.633466e-001 7.944888e-001 7.472012e-001 3.452894e-002 5.269446e-001 -3.427817e-001 -2.552860e-001 -1.316262e+000 -5.214465e-001 -7.100655e-002
<VARIANCE> 39
 4.814635e-001 6.104083e-001 1.453783e+000 1.039529e+000 1.761332e+000 8.374960e-001 3.107329e+000 1.818781e+000 1.545879e+000 6.464779e-001 2.173909e+000 1.002735e+000 2.113160e-001 8.903067e-001 1.998388e+000 2.154808e+000 2.014138e+000 2.801131e+000 1.111933e+000 9.852535e-001 2.008000e+000 5.005792e-001 1.133965e+000 1.859954e+000 1.948417e+000 4.921068e-001 2.024151e+000 9.184318e-001 1.519782e+000 3.684768e+000 2.220701e+000 1.366955e+000 1.751484e+000 1.542998e+000 7.431485e-001 8.931007e-001 1.203633e+000 1.521966e+000 1.145070e+000
<GCONST> 8.086350e+001
<MIXTURE> 13 1.433170e-002
<MEAN> 39
 8.787801e-001 -6.665601e-001 1.903145e+000 -2.829412e-001 -1.931271e+000 -2.520155e-001 -1.615995e+000 6.039914e-001 1.081594e+000 -1.056953e+000 -1.532380e+000 -1.605053e-001 2.152443e+000 -3.713426e+000 7.849697e-001 2.546736e-001 -1.377727e-001 1.616277e+000 2.287977e-001 3.246070e-001 -4.716858e-001 -6.287278e-001 3.057143e-001 -5.835242e-002 -1.662911e+000 -1.215771e+000 -2.223191e+000 -1.588972e+000 -1.311522e+000 -1.779746e+000 4.873817e-001 -6.205862e-001 1.399738e+000 2.513896e-001 5.385265e-003 -5.438771e-001 5.221108e-001 -1.069978e+000 3.753746e-001
<VARIANCE> 39
 9.959446e-001 9.782795e-001 7.451156e-001 6.208042e-001 3.431111e-001 1.516541e+000 2.452092e+000 1.301974e+000 7.000231e-001 1.547905e+000 2.508645e+000 7.392020e-001 2.671876e-001 2.404849e+000 3.915536e+000 2.315901e+000 2.165943e+000 9.331496e-001 1.412928e+000 6.645726e-001 7.332337e-001 2.161016e+000 1.306142e+001 1.085288e+000 2.271457e+000 7.735226e-001 1.656347e+000 3.969333e-001 1.213807e+000 1.512660e-001 3.507206e+000 2.085357e-001 1.061878e+000 2.276870e+000 4.745789e-001 2.639559e+000 1.438741e+000 2.703591e+000 4.088173e-001
<GCONST> 7.730903e+001
<MIXTURE> 14 3.879941e-002
<MEAN> 39
 1.688258e+000 -2.511679e+000 -4.883906e-001 -1.099785e+000 -2.659633e+000 -1.287741e+000 -1.142621e+000 9.558952e-001 -2.959728e+000 -2.325261e+000 -2.518425e+000 -2.433447e+000 2.726917e+000 1.143677e-001 1.225382e+000 4.329339e-001 -7.530780e-001 -1.481769e-001 -1.456892e-001 3.287593e-001 9.831665e-001 -4.956983e-002 -1.590677e-001 6.059942e-001 4.740239e-001 -4.104913e-001 -6.751448e-001 9.290324e-001 7.119186e-001 5.578523e-001 8.997401e-001 2.681266e-001 6.951889e-001 -9.856334e-001 8.936554e-001 4.144280e-001 2.649985e-002 4.350921e-001 -4.765396e-001
<VARIANCE> 39
 3.221672e-001 8.982702e-001 2.284455e+000 5.306681e-001 9.283677e-001 2.875541e-001 3.355235e+000 1.180833e+000 4.770367e-001 5.804574e-001 4.900251e-001 1.060878e+000 2.775001e-001 6.586249e-001 1.514460e+000 2.990404e+000 3.458414e+000 1.807786e+000 2.166797e+000 3.493810e+000 2.087775e+000 1.859928e+000 2.010863e+000 6.973149e-001 1.939980e+000 1.760640e-001 7.047490e-001 9.507816e-001 1.928695e+000 2.336582e+000 1.751700e+000 9.429913e-001 3.789798e+000 2.298281e+000 8.798847e-001 3.018768e+000 1.348160e+000 6.119118e-001 3.825868e-001
<GCONST> 7.663122e+001
<MIXTURE> 15 8.188489e-003
<MEAN> 39
 1.391056e+000 -1.900552e+000 2.012279e+000 -1.489904e+000 6.296378e-001 -1.758201e+000 3.117109e-001 2.133126e+000 -1.909655e+000 -1.209208e+000 -2.363495e+000 8.026187e-001 2.358308e+000 -1.122171e+000 6.285303e-001 3.265245e+000 -4.877802e-001 2.764179e+000 -2.690823e+000 -1.464630e+000 -7.945114e-001 2.140056e-001 2.910469e+000 -4.823105e-001 9.952375e-001 -1.053863e+000 -1.828549e+000 -6.415465e-001 -1.185976e+000 -1.874674e-001 8.862724e-001 7.426322e-001 2.478853e+000 4.227960e-001 -7.378176e-001 1.318598e+000 6.236148e-001 4.296656e-001 -4.185666e-001
<VARIANCE> 39
 2.852415e-001 1.130233e-001 3.208132e-001 1.188445e-001 4.118108e-001 2.104541e+000 5.055728e+000 6.171846e-001 3.043398e-001 3.123602e-001 4.007137e-001 2.816556e-001 1.078693e-002 7.723317e-001 3.730931e-001 3.609548e-001 8.218684e-001 1.636344e-001 1.461249e-001 6.745162e+000 1.799587e+000 1.072274e+000 3.175707e-001 4.604788e-001 4.254338e-002 7.360170e-002 1.862836e-001 3.607975e-001 3.690948e+000 9.076681e-001 5.447204e-001 2.064051e+000 3.948894e+000 1.709766e+000 8.949087e-001 1.497554e+000 5.685161e-001 2.217017e-002 4.804670e-002
<GCONST> 3.901041e+001
<MIXTURE> 16 8.188478e-003
<MEAN> 39
 -2.705764e-001 -1.899496e+000 -4.900030e-001 -2.379610e+000 -1.368343e+000 -6.176701e-001 2.480176e+000 -3.271398e+000 -1.730320e+000 -3.196054e+000 -1.372817e+000 -1.453730e+000 1.856057e+000 -3.876124e-001 9.884035e-001 2.161427e+000 -5.521966e-001 -2.061643e+000 1.180904e+000 1.571253e+000 -1.197839e+000 4.888953e-001 -5.240779e-002 -6.172013e-001 -4.722887e+000 -9.978874e-001 -2.897697e-001 1.678091e+000 -4.390745e-001 9.864708e-001 1.414792e+000 -2.256566e+000 -1.950636e+000 1.495602e+000 1.294485e-001 3.504225e+000 2.995790e-001 8.910359e-001 -3.007644e-001
<VARIANCE> 39
 1.974289e-001 1.417296e+000 5.868331e-001 3.992657e-001 1.129367e+000 3.817274e-002 1.664067e+000 1.098715e-001 2.944772e-001 9.636015e-001 3.132136e-001 2.676576e+000 9.215350e-002 4.233039e-001 1.209700e+000 2.190987e-002 3.651402e-001 2.597264e+000 1.593910e+000 4.337293e-001 1.550630e+000 9.048713e-001 3.190009e+000 1.010642e+000 1.904899e+000 1.003249e-001 2.347801e-001 5.596344e+000 4.756793e-001 4.323193e-001 1.554901e+000 5.544611e-001 3.099933e+000 4.713743e-001 1.003072e+000 4.100838e-001 1.342390e+000 8.947043e+000 4.081376e-002
<GCONST> 5.255220e+001
<STATE> 5
<NUMMIXES> 16
<MIXTURE> 1 1.151822e-001
<MEAN> 39
 -1.931552e+000 -7.954805e-001 8.827229e-001 -1.408434e-001 8.573037e-002 5.444326e-001 1.451688e+000 -7.109037e-001 9.560736e-001 9.098919e-002 9.363660e-001 -1.602260e-001 1.533254e+000 -1.371857e-001 3.712080e-001 4.486477e-002 -6.840637e-002 3.103918e-001 1.710190e-001 -4.051748e-001 -1.277689e-001 -4.590018e-001 -2.566075e-001 5.365657e-002 2.916696e-003 -1.052336e-001 2.917292e-001 2.515948e-001 -5.802965e-001 -3.290749e-001 1.112059e-001 3.503273e-001 -2.372543e-001 3.437106e-001 -2.445864e-001 -3.123572e-001 -3.839198e-001 -2.281641e-001 -2.996525e-001
<VARIANCE> 39
 3.515577e-001 3.562021e+000 3.933678e+000 1.499389e+000 3.563131e+000 2.892041e+000 2.059576e+000 1.231392e+000 9.768910e-001 1.854997e+000 1.130263e+000 1.698970e+000 1.502901e-001 3.347910e-001 6.728551e-001 1.417835e+000 1.794959e+000 1.404713e+000 2.267232e+000 1.931418e+000 1.744766e+000 1.652358e+000 1.633857e+000 2.577631e+000 1.717773e+000 2.084013e-001 7.243664e-001 9.389837e-001 1.506590e+000 1.660176e+000 1.338893e+000 2.144015e+000 2.163827e+000 2.240683e+000 2.089115e+000 1.868810e+000 2.766159e+000 1.612761e+000 4.682117e-001
<GCONST> 8.428467e+001
<MIXTURE> 2 4.594419e-002
<MEAN> 39
 5.772136e-001 -7.404769e-001 -6.246479e-001 -7.287507e-001 1.110655e-001 4.146929e-002 -3.677884e-001 4.463668e-001 -1.007875e+000 9.104097e-001 -1.004896e+000 3.439463e-001 6.450145e-001 -2.089049e-002 -7.327705e-002 6.203564e-002 6.896785e-002 -1.220594e-001 -2.261056e-001 -4.012521e-003 2.094392e-001 -1.975024e-001 3.003247e-002 -1.943345e-001 1.657999e-001 -2.497986e-002 -1.492478e-002 4.176004e-002 5.440728e-002 3.423065e-002 -2.964150e-002 -1.390545e-001 1.411151e-002 1.004033e-002 8.231639e-002 -7.429898e-002 -4.790497e-003 -5.396470e-002 3.282987e-002
<VARIANCE> 39
 4.669457e-002 2.691086e-002 4.534691e-002 1.861329e-001 2.404318e-001 2.281965e-001 3.235603e-001 4.985222e-001 1.569790e-001 2.793926e-001 1.318653e-001 3.268083e-001 2.490243e-002 2.988768e-002 1.950606e-001 2.331560e-001 2.669966e-001 1.385157e-001 3.704985e-001 1.482284e-001 2.777521e-001 5.727349e-001 4.452312e-001 7.625297e-001 4.169434e-001 2.659023e-002 2.663502e-002 2.502917e-001 3.333145e-001 3.072973e-001 1.543526e-001 2.758317e-001 1.713993e-001 2.890567e-001 7.177919e-001 5.120903e-001 1.330997e+000 4.922889e-001 2.613194e-002
<GCONST> 6.792404e+000
<MIXTURE> 3 1.993801e-001
<MEAN> 39
 -6.267295e-001 8.313671e-001 6.319607e-001 -4.089625e-001 5.245562e-001 2.016881e-001 -3.390337e-001 1.478366e-001 2.520466e-001 -2.245352e-001 2.708883e-001 -3.981530e-001 -1.846775e-004 7.864155e-001 -7.388638e-001 -1.929182e-001 3.153311e-001 -2.562154e-002 -3.659086e-001 2.698466e-001 -3.268326e-002 1.421505e-001 7.636000e-003 2.196594e-001 1.373654e-001 -7.378861e-001 -1.064224e+000 1.198760e-002 -4.384608e-002 -4.762513e-001 -1.717975e-001 -5.031602e-001 3.497305e-001 -1.791998e-002 -1.950882e-001 2.713723e-001 -7.035369e-002 1.727127e-001 1.472661e+000
<VARIANCE> 39
 4.920391e-001 4.773295e-001 7.816658e-001 1.072086e+000 1.123615e+000 1.004634e+000 1.114540e+000 9.116154e-001 1.021559e+000 8.847256e-001 1.242542e+000 9.564759e-001 3.260374e-001 1.844402e+000 1.018635e+000 1.808189e+000 1.462589e+000 1.635411e+000 1.595548e+000 1.721141e+000 1.439726e+000 1.969391e+000 1.518110e+000 1.407914e+000 1.607891e+000 2.086125e+000 9.795063e-001 1.398484e+000 1.805474e+000 1.327766e+000 1.660140e+000 1.587956e+000 1.536330e+000 1.530892e+000 1.961135e+000 1.448673e+000 1.389661e+000 1.739745e+000 1.242356e+000
<GCONST> 8.041441e+001
<MIXTURE> 5 1.733350e-002
<MEAN> 39
 6.210063e-001 4.703448e-003 1.064582e+000 -6.551033e-001 -1.176245e+000 -2.142704e+000 6.192578e-001 9.460918e-001 -7.152410e-001 -1.837522e-001 -1.193663e+000 -7.500888e-001 1.011036e+000 -1.314797e+000 1.568470e+000 1.243703e+000 7.800413e-001 6.547703e-001 -5.991189e-002 -1.163916e-001 -5.265539e-001 1.384601e+000 1.953058e-001 1.962738e+000 -3.655162e-001 -8.078542e-001 -1.514345e+000 -4.160515e-001 -3.628183e-001 -2.335770e-001 -2.319817e-001 1.139546e+000 -4.179613e-001 -8.027178e-001 9.767038e-001 6.249320e-003 5.013032e-001 4.363310e-001 -2.899505e-001
<VARIANCE> 39
 1.943361e-001 4.954062e-001 6.001165e-001 4.839943e-001 9.288870e-001 7.047232e-001 1.362810e+000 1.582104e+000 8.629039e-001 1.581439e+000 4.133585e-001 3.274435e+000 3.893197e-001 1.360634e+000 6.770874e-001 1.427566e+000 1.535084e+000 2.119577e+000 1.856494e+000 1.654248e+000 2.387895e+000 1.126918e+000 3.194829e+000 2.227668e+000 2.754208e+000 3.200245e-001 1.769997e+000 1.095148e+000 1.497505e+000 1.767095e+000 2.748657e+000 1.090271e+000 3.129508e+000 1.221549e+000 1.256642e+000 3.587434e+000 2.015901e+000 3.361893e+000 6.143320e-001
<GCONST> 8.052290e+001
<MIXTURE> 6 1.347097e-002
<MEAN> 39
 1.697752e+000 4.245417e-001 1.093798e+000 -2.609084e+000 -3.344895e+000 -1.671187e+000 -8.111685e-001 -1.375238e+000 -2.683711e-001 -2.988925e-001 -1.250094e+000 -1.557875e+000 1.422077e+000 -9.368606e-001 1.868250e+000 3.804959e-001 9.865250e-001 9.194360e-001 -3.762881e-001 -9.187839e-001 -3.332642e-001 5.940515e-001 6.076853e-001 8.147019e-002 7.233716e-001 -1.159374e+000 -2.290233e+000 -2.480709e-001 -1.676994e+000 1.361504e+000 2.436689e+000 1.305416e+000 1.286360e+000 2.635322e-001 -8.845839e-001 -3.235706e-001 1.512126e-001 4.012084e-001 -1.049528e+000
<VARIANCE> 39
 1.148002e+000 4.845836e-001 6.605387e-001 7.475281e-001 2.125080e-001 6.147106e-001 9.581401e-001 1.383111e-001 4.591238e-001 8.903418e-001 1.187506e+000 2.681821e-001 1.537323e-001 3.675667e+000 2.006655e+000 3.590913e+000 1.173470e+000 1.992798e+000 2.874622e+000 2.732404e+000 4.431634e-001 2.116351e+000 1.863601e+000 1.723867e+000 1.765449e-001 6.746160e-001 1.111675e+000 2.203203e+000 5.656468e-001 6.936394e-001 1.030158e+000 1.899365e+000 1.902967e+000 2.703999e-001 1.410802e+000 2.619177e+000 1.529651e+000 5.406740e-001 7.030448e-001
<GCONST> 6.831148e+001
<MIXTURE> 7 2.739655e-001
<MEAN> 39
 -1.980483e+000 1.230178e+000 9.943219e-001 -1.337555e+000 5.928748e-001 1.596795e-002 -1.947274e-001 3.540824e-001 -1.766411e-001 3.443956e-001 2.316717e-001 -3.706994e-001 8.971609e-001 2.142019e-001 1.940833e-001 -2.690263e-001 2.594606e-001 4.270574e-001 1.793889e-002 2.524006e-003 2.556148e-001 1.719822e-001 1.742617e-001 -8.488259e-002 1.701742e-001 -4.504284e-001 7.180794e-001 -2.646127e-001 -1.159483e-001 1.992957e-001 -2.048815e-001 -1.130578e-001 -3.477205e-002 -1.376802e-001 -8.270654e-003 -1.528320e-001 1.079168e-002 -9.329319e-003 -5.074223e-001
<VARIANCE> 39
 5.490590e-001 2.405711e-001 1.253300e+000 4.790923e-001 9.166781e-001 1.008463e+000 1.072586e+000 8.604972e-001 8.340147e-001 4.648114e-001 1.014809e+000 6.303361e-001 1.892940e-001 8.237308e-001 5.964348e-001 1.241813e+000 8.432166e-001 9.835107e-001 1.005076e+000 1.036928e+000 1.077008e+000 1.104952e+000 9.302253e-001 1.081634e+000 8.638772e-001 6.114008e-001 9.021285e-001 7.604195e-001 9.801300e-001 9.429708e-001 8.892655e-001 9.441010e-001 8.384935e-001 1.036679e+000 9.949887e-001 1.003854e+000 1.024383e+000 9.792538e-001 5.284707e-001
<GCONST> 6.342058e+001
<MIXTURE> 8 1.368724e-001
<MEAN> 39
 -1.923599e+000 -2.294570e-001 1.259210e+000 -1.413245e+000 1.355481e+000 4.015800e-001 -1.517222e-001 7.991641e-001 -3.733586e-001 2.093203e-001 -1.705747e-002 -1.865914e-001 1.367650e+000 3.863753e-001 -1.389893e-001 -8.805081e-001 5.059309e-001 3.086725e-001 1.303158e-001 -2.972407e-001 2.193728e-001 1.062312e-001 4.467335e-001 -2.098978e-001 2.125375e-002 -1.237956e+000 9.919423e-001 -4.463582e-001 -1.558709e-001 6.455098e-001 -6.391347e-001 -2.850755e-001 2.874169e-001 -2.852200e-001 5.041118e-001 -8.120421e-003 1.418573e-001 6.216428e-002 -9.882049e-001
<VARIANCE> 39
 1.406481e+000 3.163816e+000 2.976063e+000 2.731577e+000 3.543997e+000 4.097413e+000 3.648267e+000 2.367628e+000 2.374305e+000 3.151504e+000 2.064725e+000 3.278656e+000 2.764338e-001 3.090165e+000 3.480791e+000 3.509901e+000 3.166667e+000 2.801899e+000 3.690974e+000 2.554605e+000 2.992743e+000 2.452985e+000 2.667300e+000 2.254913e+000 3.217171e+000 2.409800e+000 1.847063e+000 3.696230e+000 3.098849e+000 3.342733e+000 3.862704e+000 4.147380e+000 2.448684e+000 3.415231e+000 3.223463e+000 2.863470e+000 2.832581e+000 3.526883e+000 2.707358e+000
<GCONST> 1.113065e+002
<MIXTURE> 9 1.168576e-001
<MEAN> 39
 -2.155670e+000 1.857373e-001 1.734609e+000 -1.788143e+000 -1.453536e+000 -8.799270e-002 1.470897e-001 -1.329128e-001 1.108748e+000 -7.640938e-001 -5.403871e-002 -7.341164e-001 1.326982e+000 -9.478156e-001 1.001905e-001 4.354181e-001 -2.564386e-002 -1.628481e-002 2.034572e-001 1.583682e-001 -3.596449e-001 -1.881520e-001 1.382207e-001 6.540900e-001 3.104005e-001 5.321670e-002 1.018452e+000 3.287734e-001 1.639502e-001 6.802260e-001 6.969261e-001 -3.034697e-001 3.996423e-002 1.247422e-001 -2.942100e-001 2.765734e-001 1.903506e-002 1.781220e-001 -4.011697e-002
<VARIANCE> 39
 8.189570e-001 8.784676e-001 6.833864e-001 6.730242e-001 1.391926e+000 1.289398e+000 1.575546e+000 1.327694e+000 1.427290e+000 1.354641e+000 1.374447e+000 9.934216e-001 1.940012e-001 1.035789e+000 6.164879e-001 6.811368e-001 1.177728e+000 1.299105e+000 1.054799e+000 1.004925e+000 1.470351e+000 1.006052e+000 8.209606e-001 8.476171e-001 9.744688e-001 1.790646e-001 1.128832e+000 8.197457e-001 8.334063e-001 1.172962e+000 1.319440e+000 1.185385e+000 1.299582e+000 1.529517e+000 1.115808e+000 8.941299e-001 9.858749e-001 1.012763e+000 2.808536e-001
<GCONST> 6.891924e+001
<MIXTURE> 10 4.164145e-003
<MEAN> 39
 -5.909264e-001 -1.647128e+000 2.649506e+000 -2.713962e+000 1.018930e+000 1.404156e-001 -7.918691e-001 1.348341e+000 -2.502282e+000 5.580497e-001 -5.387236e-001 -6.119547e-001 2.061363e+000 -3.555663e+000 1.257844e+000 7.663245e-001 -2.414087e+000 1.025254e+000 -7.910893e-001 -2.882552e+000 3.965163e-001 -1.009034e+000 -1.163642e-001 1.526195e+000 5.535914e-001 -1.865510e+000 3.343194e-001 -6.185474e-001 -2.916648e+000 -1.836492e-003 -1.765073e+000 -8.736982e-001 -3.240943e-001 8.356932e-002 -1.722938e+000 -3.008759e+000 -3.320858e-001 -1.411716e+000 1.557612e+000
<VARIANCE> 39
 1.049675e+000 6.231336e-002 9.999958e-003 3.541874e-001 2.480464e-001 5.784559e-001 7.718328e-001 1.435833e-001 1.629502e-001 2.197987e-001 1.856773e-001 6.647069e-001 3.332414e-002 5.404066e-001 1.247064e-002 1.605642e+000 9.208798e-002 1.643778e+000 2.285199e+000 6.554734e-001 1.861966e-001 3.347082e+000 3.609335e+000 7.391778e-001 2.786747e+000 5.800340e-001 2.138454e+000 2.518021e-001 1.917744e+000 2.111505e+000 4.048070e-001 4.164125e-001 5.828708e+000 3.995205e-001 3.145124e+000 1.115568e+000 2.060638e-001 1.018483e+000 3.287304e+000
<GCONST> 4.604950e+001
<MIXTURE> 11 4.248161e-002
<MEAN> 39
 -1.353580e+000 6.808933e-001 1.825505e-001 -1.505294e+000 -6.090911e-001 -8.208607e-001 3.434709e-001 -8.084106e-001 -6.323839e-001 1.592017e-001 -1.969858e-001 -8.367494e-001 6.249306e-001 -2.815179e+000 5.950202e-001 -6.005021e-001 5.655552e-001 1.624615e+000 6.629320e-001 4.029131e-001 8.165867e-001 1.256501e+000 1.079046e+000 1.065363e+000 7.134306e-001 -2.841501e-001 1.382855e+000 -8.639386e-001 5.083473e-001 -4.245469e-001 -7.759850e-001 1.204620e-001 -5.578151e-001 -1.079070e-001 -8.698773e-002 -9.447905e-001 -5.628449e-001 -1.667592e-001 1.188643e+000
<VARIANCE> 39
 5.335982e-001 3.187500e-001 1.991869e+000 9.204122e-001 1.142057e+000 7.291887e-001 1.723583e+000 5.932891e-001 7.992049e-001 8.793367e-001 9.287859e-001 6.070640e-001 1.643917e-001 1.032044e+000 1.066454e+000 1.346111e+000 2.031140e+000 1.594818e+000 1.798372e+000 2.798696e+000 1.426267e+000 1.997695e+000 2.285270e+000 1.056819e+000 8.778646e-001 1.055198e+000 1.505959e+000 1.506435e+000 2.307916e+000 1.196373e+000 2.319526e+000 1.491228e+000 2.445582e+000 9.975515e-001 2.718049e+000 1.514264e+000 1.282429e+000 7.034770e-001 6.012923e-001
<GCONST> 7.742754e+001
<MIXTURE> 12 3.123109e-003
<MEAN> 39
 9.918150e-001 7.929320e-001 2.621596e+000 -5.339564e-001 7.141442e-001 -1.887081e+000 -5.384803e-001 4.277191e-001 1.706962e-001 -1.355051e+000 -1.309504e+000 -1.656648e+000 1.725359e+000 -5.534770e+000 -2.506439e-001 -5.032884e-002 -3.794390e+000 -6.068085e-001 -8.249305e-001 7.211934e-001 6.796544e-001 -2.126777e+000 3.167020e-002 -6.648794e-001 -7.136158e-001 -1.499980e+000 2.124766e-001 -8.305600e-001 -2.734189e-001 -5.188359e-001 -2.342483e+000 2.095116e-001 5.456660e-001 1.349921e+000 6.850311e-001 8.889074e-001 1.789496e+000 1.160301e+000 1.622458e+000
<VARIANCE> 39
 9.826800e-001 7.243104e-002 3.609435e-001 1.014966e+000 9.170027e-001 3.151771e-001 3.970249e+000 1.474069e-001 1.084086e+000 3.373121e-001 4.629259e-001 3.106854e-002 1.556366e-002 1.125768e-001 6.335517e-001 4.839057e-001 7.821233e-001 4.800724e-001 2.190908e+000 9.262378e-001 4.484177e-001 2.486586e+000 5.588743e-001 1.630785e+000 1.354386e+000 2.246905e-001 3.087638e+000 1.180590e+000 2.097130e+000 2.126529e+000 1.348837e+000 2.935316e-001 1.140072e+000 1.346023e-001 9.629702e-001 1.728182e-002 1.902740e-001 4.519125e-001 1.045490e+000
<GCONST> 4.551375e+001
<MIXTURE> 13 8.320247e-003
<MEAN> 39
 1.590309e-001 -8.865763e-001 -3.360302e-001 -1.976837e+000 -1.602740e+000 1.968399e-002 4.146215e-001 -1.481684e+000 -1.146905e+000 -2.873793e+000 -2.092856e+000 -1.790030e+000 1.260709e+000 7.693452e-001 1.438509e+000 5.265844e-001 -5.121880e-002 -7.237542e-001 -1.320583e+000 -6.951361e-001 -3.432097e-001 5.427023e-001 9.440933e-001 2.783718e-002 3.240955e-001 -8.958808e-001 -6.403001e-001 1.293294e+000 1.897610e-001 4.628617e-001 1.877537e+000 -3.722040e-001 -1.026111e+000 -2.596199e-001 8.749907e-001 2.716641e+000 2.696332e+000 5.663292e-001 6.687781e-001
<VARIANCE> 39
 9.888456e-001 8.128612e-001 1.814709e+000 1.233926e+000 6.727540e-001 4.468842e-001 9.521248e-001 1.008280e+000 9.586480e-001 4.502880e-001 1.868254e+000 5.005868e-001 6.512073e-001 3.007661e-001 3.080641e+000 8.589068e-001 1.811444e+000 4.634398e+000 8.948801e-001 8.458793e-001 8.446047e-001 3.661709e-001 3.944252e+000 1.476345e+000 7.997993e-001 1.996403e-001 7.363740e-001 7.189512e-001 9.402426e-001 1.744874e+000 5.276205e-001 1.434769e+000 1.353404e+000 9.361007e-001 1.958833e-001 1.179378e+000 1.329185e-001 1.453416e+000 6.040897e-001
<GCONST> 6.626467e+001
<MIXTURE> 14 6.246354e-003
<MEAN> 39
 9.407993e-001 1.589823e-001 -8.992635e-002 -6.259539e-001 -2.074255e+000 -9.887661e-001 -1.365669e+000 -1.918553e+000 4.000733e-001 -1.973747e+000 -1.018301e+000 -5.575856e-001 1.273186e+000 -1.991302e+000 2.605980e+000 7.996480e-001 -1.400769e-001 3.738208e+000 -1.331568e+000 1.457283e+000 5.955946e-001 -5.982158e-001 1.298634e+000 -2.067104e-001 1.132141e+000 -1.666192e+000 -2.263470e+000 -7.058519e-001 4.379849e-001 -1.630724e+000 1.058703e+000 2.004592e-001 6.870478e-001 1.669112e+000 -2.093649e-001 1.386784e+000 -9.817106e-002 -4.159764e-001 2.236042e-001
<VARIANCE> 39
 1.450683e-001 2.247130e-001 1.347175e+000 6.493124e-002 1.168963e+000 3.093841e-001 8.028477e-001 6.034663e-001 1.477099e+000 5.806168e-001 4.699500e-001 1.202328e+000 2.365081e-001 1.519091e+000 4.414414e-001 1.999034e+000 8.449567e-001 4.856665e-001 9.340715e-001 2.340240e-001 2.311700e+000 2.567891e+000 2.345453e+000 3.962811e-001 1.708254e+000 4.807816e-002 8.222520e-001 7.727295e-001 2.393425e+000 1.325206e+000 1.799603e+000 1.068878e+000 1.442686e+000 1.506411e+000 1.076846e+000 5.260544e-001 4.229833e-001 1.640604e+000 4.308236e-001
<GCONST> 5.935511e+001
<MIXTURE> 15 6.248395e-003
<MEAN> 39
 7.276773e-001 -3.258270e-001 1.779559e+000 5.361353e-002 2.986824e-002 -8.274792e-001 1.429597e+000 4.590568e-001 2.183154e+000 -1.609815e+000 1.897990e-001 -1.164746e+000 1.494850e+000 -3.078683e+000 2.029328e-001 5.947381e-001 -1.572276e+000 -8.176684e-001 1.357701e+000 -1.385612e+000 -3.256263e-001 8.866819e-001 -1.084487e+000 -8.725939e-001 -3.585351e-001 -1.010080e+000 -2.175194e+000 -1.035640e+000 -1.025106e+000 -2.158316e+000 -1.379259e+000 -7.754254e-001 -4.332183e-001 -6.867684e-001 -8.771061e-001 8.914102e-001 -3.002087e-001 4.599963e-001 7.501855e-002
<VARIANCE> 39
 1.028140e+000 2.264698e-001 1.866437e-001 9.491270e-001 2.483832e+000 7.566327e-001 4.547296e-001 7.053927e-001 1.356425e+000 7.581361e-001 3.409451e+000 4.958908e-001 6.877296e-002 2.891238e-001 2.117915e-001 1.259223e+000 9.742745e-001 8.418154e+000 1.506425e+000 8.770137e-001 1.452036e+000 6.936862e+000 1.763369e+000 2.194643e+000 1.568325e+000 4.753824e-001 1.177061e+000 3.527097e-001 6.439318e-001 1.787447e+000 3.876501e+000 7.598199e-001 1.774932e+000 1.334839e+000 2.242290e+000 1.181397e+000 2.834025e+000 1.582061e+000 1.809063e-001
<GCONST> 7.101799e+001
<MIXTURE> 16 1.040968e-002
<MEAN> 39
 4.406120e-002 3.738957e-001 4.010716e-001 -2.546338e+000 -1.701602e+000 -5.421369e-001 -1.514197e+000 -1.152911e+000 -2.606615e+000 -1.285323e+000 -1.945147e+000 -1.882330e+000 1.095931e+000 -1.614829e+000 1.045675e+000 2.665400e-001 4.558044e-001 2.401556e+000 7.713847e-001 -7.600249e-001 5.844591e-001 -3.027240e-001 1.505779e+000 1.144121e+000 7.189351e-001 -1.371493e+000 -1.412978e+000 -1.680317e+000 -1.566904e+000 1.117714e+000 1.235051e+000 9.485350e-001 1.962924e+000 7.840409e-001 2.228051e+000 8.460171e-001 1.682917e+000 3.751098e-001 -6.906906e-001
<VARIANCE> 39
 3.921411e-001 1.613343e-001 1.011734e+000 2.100927e+000 1.773848e+000 1.426643e+000 8.980545e-001 1.580773e+000 2.219387e-001 9.494926e-001 6.737937e-001 6.550507e-002 8.787481e-002 8.190903e-001 1.805568e+000 2.880764e+000 7.374820e-001 1.454320e+000 7.289391e-001 2.145542e+000 1.006384e+000 1.295458e+000 3.480035e+000 2.291452e+000 7.541790e-001 4.056540e-001 3.727081e-001 1.055538e+000 1.803911e+000 2.399996e+000 2.624542e+000 8.786635e-001 1.070790e+000 3.157819e+000 5.766208e-001 3.317464e+000 1.704486e+000 5.066926e-001 1.941903e+000
<GCONST> 7.071597e+001
<STATE> 6
<NUMMIXES> 16
<MIXTURE> 5 1.000000e+000
<MEAN> 39
 -1.048377e+000 5.744298e-001 -3.598371e-001 -6.239370e-001 3.891547e-001 -1.078761e+000 4.581418e-001 7.396838e-002 2.559589e-001 2.451176e-001 4.469283e-001 4.092085e-001 5.200973e-001 4.613799e-001 -3.686861e-001 -8.083948e-002 2.754812e-001 -2.295893e-001 -1.671488e-001 -5.891325e-002 5.335210e-002 -4.799790e-003 7.820518e-002 1.278720e-001 7.209698e-002 -5.317330e-001 6.431844e-001 1.280825e-002 2.923649e-001 3.308624e-001 -2.182824e-002 6.418753e-001 -2.005408e-001 4.375631e-002 -1.865463e-002 -2.136375e-001 -8.300656e-002 -8.211704e-002 -9.427296e-001
<VARIANCE> 39
 4.861922e-001 8.192927e-001 1.359616e+000 1.289795e+000 1.381873e+000 1.638634e+000 1.780832e+000 1.904914e+000 1.203065e+000 1.142098e+000 1.290550e+000 1.712215e+000 2.248430e-001 2.231304e+000 1.813379e+000 3.011919e+000 2.157210e+000 2.444307e+000 2.405046e+000 2.466229e+000 2.609737e+000 1.969754e+000 1.774119e+000 2.206494e+000 2.458168e+000 2.791948e+000 2.774499e+000 2.606066e+000 3.139000e+000 1.996787e+000 2.528395e+000 2.544909e+000 2.443200e+000 2.749677e+000 2.007268e+000 1.541260e+000 2.273212e+000 2.364312e+000 2.287765e+000
<GCONST> 9.506558e+001
<STATE> 7
<NUMMIXES> 16
<MIXTURE> 11 1.000000e+000
<MEAN> 39
 -6.583853e-001 1.005953e-001 2.065685e-001 -3.099940e-001 2.395848e-001 -9.919743e-001 -3.861512e-001 1.868046e-001 1.052120e-001 1.230489e-001 3.150222e-001 2.259767e-001 -3.634099e-002 2.346098e+000 -8.549140e-002 -1.728719e-001 1.296746e+000 -5.858431e-001 1.039573e+000 -1.097660e-001 -1.467766e-001 7.989004e-002 -1.626391e-001 -1.281876e-002 2.661442e-001 -2.817518e+000 3.128798e-001 5.227789e-001 -1.301307e-001 -3.910456e-001 9.373841e-002 9.726980e-001 4.567403e-001 1.611713e-001 4.521235e-001 1.155387e-001 4.532807e-003 1.495303e-002 2.549697e-001
<VARIANCE> 39
 4.828921e-001 7.435852e-001 2.089666e+000 8.110173e-001 1.796297e+000 1.636158e+000 2.465261e+000 1.323690e+000 1.105935e+000 2.145120e+000 1.020666e+000 1.391165e+000 2.141275e-001 3.814308e+000 4.135828e+000 2.459743e+000 3.495520e+000 4.503313e+000 4.208148e+000 1.641819e+000 3.240105e+000 2.046260e+000 1.790497e+000 3.022501e+000 1.502473e+000 3.000201e+000 1.732194e+000 2.422014e+000 2.291113e+000 1.359717e+000 1.896087e+000 1.728064e+000 2.366792e+000 1.310787e+000 2.002208e+000 2.743850e+000 1.381009e+000 1.629464e+000 1.838086e+000
<GCONST> 9.456090e+001
<TRANSP> 8
 0.000000e+000 1.000000e+000 0.000000e+000 0.000000e+000 0.000000e+000 0.000000e+000 0.000000e+000 0.000000e+000
 0.000000e+000 9.202065e-001 7.979344e-002 0.000000e+000 0.000000e+000 0.000000e+000 0.000000e+000 0.000000e+000
 0.000000e+000 0.000000e+000 9.251846e-001 7.481544e-002 0.000000e+000 0.000000e+000 0.000000e+000 0.000000e+000
 0.000000e+000 0.000000e+000 0.000000e+000 9.099272e-001 9.007279e-002 0.000000e+000 0.000000e+000 0.000000e+000
 0.000000e+000 0.000000e+000 0.000000e+000 0.000000e+000 9.541950e-001 4.580502e-002 0.000000e+000 0.000000e+000
 0.000000e+000 0.000000e+000 0.000000e+000 0.000000e+000 0.000000e+000 8.475463e-001 1.524537e-001 0.000000e+000
 0.000000e+000 0.000000e+000 0.000000e+000 0.000000e+000 0.000000e+000 0.000000e+000 0.000000e+000 1.000000e+000
 0.000000e+000 0.000000e+000 0.000000e+000 0.000000e+000 0.000000e+000 0.000000e+000 0.000000e+000 0.000000e+000
<ENDHMM>
~h "one"
<BEGINHMM>
<NUMSTATES> 8
<STATE> 2
<NUMMIXES> 15
<MIXTURE> 1 8.074404e-002
<MEAN> 39
 1.811422e-001 3.601542e-001 3.235126e+000 -2.462202e+000 -1.574732e+000 -1.884769e+000 -1.225397e+000 -9.901195e-001 -1.355204e+000 1.143488e+000 -1.484092e+000 -7.690166e-001 2.378806e+000 -3.349655e-001 -1.378893e+000 1.228358e-001 -5.962038e-001 -1.710585e+000 -9.809999e-001 1.570763e-001 2.180223e-001 6.044712e-002 1.938083e+000 7.194639e-001 4.691237e-001 8.726106e-001 6.257771e-001 -1.929542e-001 -1.946751e+000 8.996253e-001 3.463489e-001 7.898398e-001 -3.504339e-001 3.793910e-002 2.019169e-001 -8.833212e-001 5.467343e-001 5.523676e-001 -3.353086e-001
<VARIANCE> 39
 7.861038e-001 1.868987e+000 4.956856e-001 5.968971e-001 1.198904e+000 1.875777e+000 1.139720e+000 1.774337e+000 1.659734e+000 2.911171e+000 2.674648e+000 3.060830e+000 4.822976e-001 4.360236e-001 1.378911e+000 1.698120e+000 7.743832e-001 2.246477e+000 1.366805e+000 2.325454e+000 2.327143e+000 8.557008e-001 1.032039e+000 1.751436e+000 1.881125e+000 1.862176e-001 2.781575e-001 1.840093e+000 1.551380e+000 9.964700e-001 2.666210e+000 2.712600e+000 2.196721e+000 2.423849e+000 1.339200e+000 1.727979e+000 1.851385e+000 2.727485e+000 2.269669e-001
<GCONST> 8.166203e+001
<MIXTURE> 2 2.842242e-002
<MEAN> 39
 -6.939474e-001 1.526017e+000 -1.510337e+000 -1.607568e-002 7.308537e-001 -1.155960e+000 6.483626e-001 -1.421654e+000 1.698514e+000 -2.315199e+000 -1.681867e-001 -1.922159e+000 1.270261e+000 -4.077098e-003 9.691382e-001 9.964634e-001 2.288141e-001 3.836601e-001 -6.400520e-001 -8.269332e-002 -7.286756e-001 1.989827e-002 -5.126367e-001 -4.897607e-001 -1.183321e+000 5.086359e-001 1.629668e-001 -5.959576e-001 7.101461e-001 -8.033561e-001 -1.326970e+000 6.232886e-001 -1.393592e+000 3.942687e-001 -1.734152e+000 1.299366e+000 -7.123415e-001 6.852311e-001 -8.634244e-001
<VARIANCE> 39
 1.439379e-001 3.811324e-001 3.965647e+000 2.418350e-001 1.476732e-001 1.808308e+000 7.892562e-001 1.641363e+000 3.454700e+000 8.961039e-001 1.464432e+000 1.244035e+000 2.411151e-002 3.510218e-001 9.354772e-001 8.572002e-001 1.714470e+000 1.365987e+000 6.177449e-001 4.466182e+000 2.103862e+000 3.844807e+000 2.546693e+000 1.564461e+000 3.116695e+000 2.872119e-001 5.778338e-001 1.849904e+000 1.992071e+000 1.599698e+000 9.647468e-001 2.724860e+000 2.497132e+000 2.116493e+000 1.570638e+000 1.682507e+000 1.460415e+000 2.458537e+000 2.612956e+000
<GCONST> 7.670358e+001
<MIXTURE> 3 6.843124e-002
<MEAN> 39
 8.277302e-001 3.737687e-001 2.869878e+000 -3.422975e-001 -1.996916e+000 -7.862138e-001 -6.116041e-001 -1.609062e+000 -9.917737e-001 -2.591142e+000 8.136229e-001 -1.434976e-003 2.512421e+000 -1.110114e-001 -6.736839e-001 -6.455984e-001 2.534674e-001 -2.672118e-001 -6.539161e-001 2.103999e-001 -9.872960e-002 1.095396e-001 2.316742e-001 1.891011e-001 -3.028059e-001 5.329011e-001 6.933933e-002 7.610246e-003 -9.620017e-001 -4.093821e-002 7.950451e-001 1.300538e-001 -5.495538e-002 1.668912e-001 -7.715598e-002 6.391706e-001 -1.604916e-001 -3.967156e-002 -6.977986e-001
<VARIANCE> 39
 4.606391e-001 2.107579e+000 2.742476e-001 1.537798e+000 9.297929e-001 8.797299e-001 1.441986e+000 1.459870e+000 5.213787e-001 2.361397e-001 6.290889e-001 3.040339e+000 9.435654e-002 5.015728e-001 8.947434e-001 1.256041e+000 8.734188e-001 1.341415e+000 4.889045e-001 1.017365e+000 1.111460e+000 2.976815e-001 9.858161e-001 4.815498e-001 5.113406e-001 1.103236e-001 7.420422e-001 3.733662e-001 8.882895e-001 1.536708e+000 1.476515e+000 7.538251e-001 9.843279e-001 1.705559e+000 5.578178e-001 1.089417e+000 4.998670e-001 8.118922e-001 5.855708e-001
<GCONST> 5.939926e+001
<MIXTURE> 4 1.008703e-001
<MEAN> 39
 -3.942815e-001 7.042321e-001 2.175194e-001 3.992041e-001 4.176551e-001 2.770306e-001 -6.172475e-001 -4.499043e-001 -7.206407e-001 -1.008588e+000 -5.013664e-001 -3.884427e-001 5.086781e-001 6.695598e-001 2.671574e+000 2.898143e+000 -1.658858e+000 -1.788778e+000 -2.516300e+000 -3.369508e+000 -2.622367e+000 -2.672260e+000 -1.984777e+000 -1.133755e+000 -1.299078e+000 4.168562e+000 1.538681e+000 3.642337e-001 1.167345e+000 -1.371752e+000 -8.554575e-001 -7.317240e-001 -3.643796e-001 -1.806702e-001 7.783443e-002 1.752544e-001 -1.099426e-001 -7.506714e-002 -2.918005e-001
<VARIANCE> 39
 9.288073e-001 6.514043e-001 8.573909e-001 2.408770e-001 5.714519e-001 9.052890e-001 1.299746e+000 1.233607e+000 1.162171e+000 2.099877e+000 9.383942e-001 2.724866e+000 3.698827e-001 5.901381e+000 1.422378e+000 3.074772e+000 2.997256e+000 3.009455e+000 2.809577e+000 2.096033e+000 4.436922e+000 2.749883e+000 3.627977e+000 5.353452e+000 3.545018e+000 1.240078e+000 2.780961e+000 1.771251e+000 2.701437e+000 1.937650e+000 2.739364e+000 2.744702e+000 3.420693e+000 2.925175e+000 1.592610e+000 3.343587e+000 2.430593e+000 4.500547e+000 4.509492e+000
<GCONST> 9.756009e+001
<MIXTURE> 5 1.091909e-001
<MEAN> 39
 6.791868e-001 2.029598e+000 1.138891e+000 -3.004204e-001 -2.275899e-001 -4.439396e-001 -1.820861e+000 -1.211798e+000 -1.391355e+000 -1.323057e+000 -2.135443e-001 -4.279258e-001 9.645394e-001 1.154198e+000 1.850160e+000 1.953516e+000 -1.899625e+000 -1.263419e+000 -6.571586e-001 -1.459827e+000 -9.206347e-001 -8.185213e-001 -1.072315e+000 -2.576537e-001 -3.345260e-001 2.312376e+000 -1.157696e+000 -1.819248e+000 -8.889545e-001 2.656805e-001 2.367028e-001 7.915551e-001 1.457722e+000 6.820616e-001 1.519975e+000 1.022898e+000 -4.724203e-002 1.129781e-001 -2.302728e+000
<VARIANCE> 39
 1.712332e+000 6.033573e-001 8.389630e-001 1.319259e+000 7.807164e-001 1.814253e+000 9.584030e-001 1.098495e+000 1.016798e+000 1.224542e+000 1.983366e+000 1.513370e+000 2.092798e-001 1.676889e+000 1.267285e+000 1.424966e+000 2.454805e+000 2.473549e+000 1.642434e+000 2.391387e+000 1.892827e+000 1.665017e+000 2.036653e+000 2.563564e+000 2.692411e+000 1.297094e+000 3.166616e+000 1.218046e+000 1.562429e+000 2.445832e+000 1.747355e+000 2.239745e+000 1.810841e+000 1.648590e+000 2.453955e+000 1.679041e+000 2.714200e+000 1.533597e+000 9.915298e-001
<GCONST> 8.827831e+001
<MIXTURE> 6 4.694192e-002
<MEAN> 39
 -4.057831e-001 3.292400e+000 1.949368e+000 -1.448199e+000 8.451225e-001 -2.214207e+000 -2.811783e+000 -2.544671e+000 -1.287537e+000 -2.993931e+000 -1.410313e+000 -1.842318e+000 1.743802e+000 -9.217833e-001 2.837621e-001 2.114942e+000 -1.753323e+000 4.042280e-001 -5.399760e-001 -4.465207e-001 4.090441e-002 3.122744e-001 -3.100166e-001 -7.397361e-001 -1.066229e+000 1.068221e+000 -5.603756e-002 -2.874822e+000 -1.700552e+000 2.042294e+000 1.067675e-001 2.212571e+000 2.119682e+000 1.899652e+000 9.519761e-001 2.193645e+000 1.259900e+000 1.841883e+000 -1.939974e+000
<VARIANCE> 39
 1.336920e+000 4.196892e-001 1.027401e+000 1.117589e+000 3.775798e+000 4.692948e-001 1.049665e+000 8.594197e-001 1.486350e+000 2.476218e-001 2.401392e+000 8.183759e-001 5.775398e-002 1.188441e+000 1.901718e+000 2.752600e+000 1.660935e+000 5.562393e+000 3.655912e+000 4.503204e+000 1.891240e+000 1.937900e+000 2.591090e+000 3.649410e+000 3.600402e+000 7.238200e-001 1.714317e+000 1.098575e+000 1.602159e+000 4.634688e+000 6.433712e+000 4.006051e+000 3.504678e+000 3.560608e+000 2.650948e+000 8.487139e-001 1.798602e+000 2.352214e+000 1.419546e+000
<GCONST> 9.090186e+001
<MIXTURE> 7 9.779104e-003
<MEAN> 39
 -7.993036e-001 3.208292e+000 1.239257e+000 -8.699347e-001 -5.362235e-001 -2.158874e+000 -3.338471e+000 -3.091097e+000 -1.818437e+000 -1.750180e+000 8.547480e-001 -5.592955e-002 1.682299e+000 -1.372315e+000 2.834922e+000 3.299628e+000 -4.714545e+000 1.268519e+000 -4.915574e+000 -4.028242e+000 -3.958445e+000 -1.557694e+000 -4.154715e+000 -2.136865e+000 -3.582159e+000 2.909129e+000 8.383406e-001 -2.222868e+000 6.702957e-001 5.320692e-001 2.499688e+000 3.217118e+000 2.808467e+000 3.685937e+000 2.261592e+000 1.222413e+000 -2.007460e+000 -1.248505e+000 -3.370419e+000
<VARIANCE> 39
 3.905483e-001 4.414993e-001 5.508896e-001 3.072931e-001 1.352533e+000 1.516252e-001 3.595898e+000 6.711595e-001 1.871380e-001 5.163757e-001 4.975593e+000 8.262334e-001 1.334700e-001 5.307260e+000 5.560973e-001 2.556446e-001 2.318157e-001 5.853384e+000 7.477559e-001 2.221498e+000 3.613644e+000 5.679702e-001 1.201875e+000 1.293947e+000 3.364272e-001 2.407980e+000 7.988178e-001 1.337006e+000 9.248758e-001 2.356521e+000 2.133965e+000 1.237174e+000 5.173194e+000 2.341269e+000 3.961579e-001 3.291932e+000 8.857381e+000 2.537778e+000 1.213832e+000
<GCONST> 7.386566e+001
<MIXTURE> 8 1.711275e-002
<MEAN> 39
 -4.558166e-001 1.740740e+000 3.484841e+000 -1.580051e+000 -1.492404e+000 -1.354213e+000 -2.985759e+000 -3.687324e+000 5.571506e-002 -7.748986e-001 -2.952074e+000 1.912070e+000 1.478134e+000 -4.126372e-001 -1.080207e+000 2.276167e+000 -3.141820e+000 -1.823171e+000 -1.702725e+000 2.182783e-001 -1.208561e+000 -1.178508e-001 1.609242e+000 -1.817903e+000 2.002004e+000 1.717083e+000 -1.373444e-001 -2.586677e+000 -3.972203e+000 1.438205e+000 2.011356e+000 1.371888e+000 2.211198e+000 3.770949e+000 -1.272425e+000 3.164157e+000 2.597702e+000 -1.158181e+000 -2.172144e+000
<VARIANCE> 39
 1.071166e-001 1.309610e+000 1.705692e-001 5.364813e-001 2.931191e-001 1.051442e+000 1.121234e+000 7.214205e-001 1.640687e+000 1.566251e+000 3.779190e-001 2.005351e+000 8.751503e-002 4.227384e-001 4.580621e+000 3.665352e+000 1.896285e+000 3.886850e+000 5.709061e+000 2.167017e+000 5.855622e+000 4.056562e+000 5.986379e+000 4.106428e+000 1.725909e+000 9.374146e-001 8.685864e-001 4.615477e+000 4.982015e-001 1.615552e+000 2.690112e+000 3.049023e+000 2.848919e+000 1.461285e+000 1.197321e+000 1.776786e+000 1.216808e+000 1.246462e+000 9.134247e-001
<GCONST> 8.326981e+001
<MIXTURE> 9 9.295539e-002
<MEAN> 39
 -8.497359e-001 2.493606e+000 1.386741e+000 -1.075167e+000 4.880355e-002 -9.313755e-001 -2.123932e+000 -1.895747e+000 -2.058228e+000 -2.644860e+000 -1.887723e+000 -1.463381e+000 1.540022e+000 -5.886242e-001 -3.060116e-001 9.742703e-001 -9.181312e-001 -8.177752e-001 -5.887514e-001 2.500582e-001 -5.514860e-001 2.893939e-001 4.412506e-001 3.265701e-001 2.407101e-001 2.979909e-001 2.077275e-001 -9.856682e-001 1.196224e-001 -1.287705e-001 -1.250456e+000 -7.364013e-001 5.224159e-001 6.849626e-002 9.214928e-001 7.968953e-001 5.463509e-001 -1.674473e-001 -7.740510e-002
<VARIANCE> 39
 7.354461e-002 6.329405e-001 1.057554e+000 4.024355e-001 4.458193e-001 7.069290e-001 9.548913e-001 8.996815e-001 1.834046e+000 6.697289e-001 1.597816e+000 1.507133e+000 8.246434e-002 4.024372e-001 2.128556e+000 2.714452e+000 4.061502e+000 3.057250e+000 2.735157e+000 2.296176e+000 9.874911e-001 4.405303e+000 1.918779e+000 2.465167e+000 1.726697e+000 7.791834e-002 6.457105e-001 1.978821e+000 2.136774e+000 3.152334e+000 1.843991e+000 2.620336e+000 2.711421e+000 1.778876e+000 3.119993e+000 2.206841e+000 2.694522e+000 2.697363e+000 2.022180e-001
<GCONST> 7.887258e+001
<MIXTURE> 10 1.208519e-001
<MEAN> 39
 8.877451e-002 2.318679e+000 2.240272e+000 -1.194408e-001 -4.074986e-001 -8.806189e-001 -1.074398e+000 -1.462586e+000 -5.513507e-001 -9.211270e-001 -8.497473e-001 -1.004387e+000 1.189907e+000 -1.898085e-001 -3.578447e-001 4.236462e-003 -4.740879e-001 -8.832000e-001 -5.259060e-001 7.510016e-002 -2.589943e-001 -7.398907e-002 2.239073e-001 1.041725e-001 -9.531799e-004 7.109580e-001 3.020632e-001 -8.507319e-001 -7.175853e-001 -2.724312e-001 -4.715726e-001 1.073542e-001 -1.705462e-001 -3.138556e-002 -2.094505e-001 3.211739e-001 6.825914e-001 2.498837e-001 1.177761e-001
<VARIANCE> 39
 1.605444e+000 3.556607e-001 6.675014e-001 1.196938e+000 6.477249e-001 4.121293e-001 1.083179e+000 9.544346e-001 1.111651e+000 2.223129e+000 7.588959e-001 6.962373e-001 9.304414e-002 5.523593e-001 6.450536e-001 1.380132e+000 1.009236e+000 1.614499e+000 5.405037e-001 4.330190e-001 1.446234e+000 1.239048e+000 1.727764e+000 1.631775e+000 1.601671e+000 2.196724e-001 4.255215e-001 5.502693e-001 8.968157e-001 1.177431e+000 1.530362e+000 7.446926e-001 5.394717e-001 2.471252e+000 1.416938e+000 1.897500e+000 1.099924e+000 8.989493e-001 4.846187e-001
<GCONST> 6.567274e+001
<MIXTURE> 11 3.421276e-002
<MEAN> 39
 2.887503e-001 -8.431376e-001 2.813506e+000 -2.356701e+000 -1.929212e+000 -2.913800e+000 -3.478159e+000 -6.155639e-001 -3.372642e+000 1.352939e+000 -1.823623e+000 -4.348466e-001 2.338820e+000 1.664600e-001 -1.905525e+000 2.046387e-001 -9.123890e-001 -3.978795e-001 7.748381e-002 -4.404879e-001 1.663222e-001 -1.044738e+000 2.274917e-001 -9.087806e-001 -2.574283e-001 1.801598e+000 3.087076e-001 1.265570e-001 -1.119354e+000 9.497378e-001 6.480514e-002 9.745304e-001 1.158864e+000 9.042381e-002 1.769732e+000 -1.665299e+000 1.993396e-001 -2.547626e-001 -5.448179e-001
<VARIANCE> 39
 9.920885e-001 3.177395e-001 2.673780e-001 1.989024e-001 2.673371e-001 1.603390e+000 4.765825e-001 1.115066e+000 6.994174e-001 3.759892e+000 1.652439e+000 4.504861e+000 3.047769e-001 7.218893e-001 2.651293e+000 2.917385e+000 1.943454e+000 5.135077e-001 1.340559e+000 2.930870e+000 2.086730e+000 3.129464e+000 8.199826e+000 3.464288e+000 1.106886e+000 5.912707e-001 8.042642e-001 1.162874e+000 1.067699e+000 3.361342e+000 1.886690e+000 1.815773e+000 1.572952e+000 8.002858e-001 1.368443e+000 5.097686e+000 2.473514e+000 1.062607e+000 7.231948e-001
<GCONST> 8.103803e+001
<MIXTURE> 12 1.007805e-001
<MEAN> 39
 9.528350e-001 1.670202e+000 -4.931372e-001 -1.545250e-001 -4.548457e-001 -1.185229e+000 -1.217832e+000 -1.544660e+000 -1.391653e+000 -1.619385e+000 -9.556603e-001 -4.216672e-001 8.865127e-001 8.824529e-002 2.170353e-001 2.459396e-001 -1.525059e-001 -1.275122e-001 -4.238601e-002 -2.725788e-002 -5.972430e-002 1.310298e-001 1.583966e-002 -1.676326e-001 -4.912123e-002 2.647943e-001 -1.997095e-001 -7.114738e-002 9.280582e-002 -5.071297e-002 -1.220289e-001 -8.330198e-003 6.001247e-002 2.338535e-001 9.664231e-002 1.265336e-001 1.139850e-001 1.036434e-001 1.634618e-003
<VARIANCE> 39
 8.634631e-002 3.146717e-001 9.318089e-001 9.573878e-002 2.405297e-001 2.049301e-001 5.292627e-001 2.175245e-001 3.249642e-001 4.047381e-001 2.435780e-001 2.288832e-001 4.068346e-002 4.038400e-001 7.745448e-001 1.016768e+000 3.802908e-001 1.223680e+000 6.544899e-001 6.185863e-001 7.800015e-001 4.149354e-001 7.282372e-001 4.197333e-001 4.674011e-001 1.701203e-001 7.839339e-001 9.279914e-001 9.495940e-001 5.248752e-001 1.342730e+000 6.927975e-001 6.418483e-001 9.305553e-001 5.092664e-001 8.417504e-001 5.645705e-001 5.031252e-001 3.825890e-001
<GCONST> 4.003722e+001
<MIXTURE> 13 9.385028e-002
<MEAN> 39
 1.209905e+000 1.606194e+000 2.772872e+000 -9.554086e-001 -1.203990e+000 -2.707716e-001 -1.273828e+000 -7.486019e-001 -1.141579e+000 -1.369071e+000 4.110115e-001 -8.763297e-001 1.937655e+000 8.485186e-001 -1.266206e+000 2.913734e+000 -1.166758e+000 -2.834896e+000 -1.213233e+000 -1.383895e+000 -2.165986e-001 -1.273748e+000 -1.507546e-001 2.999228e-001 -7.910370e-001 2.599427e+000 -1.517022e+000 -1.908177e+000 -2.720150e+000 6.717560e-001 1.392677e+000 5.008901e-001 7.096155e-001 6.805770e-001 4.146153e-001 1.006925e+000 -2.757015e-001 8.149202e-001 -2.675434e+000
<VARIANCE> 39
 7.874030e-001 1.833246e+000 5.108360e-001 1.069663e+000 6.824967e-001 1.312396e+000 3.171867e+000 1.757568e+000 8.455290e-001 2.112235e+000 1.036740e+000 1.561048e+000 1.628141e-001 1.674869e+000 2.910598e+000 3.807112e+000 4.011250e+000 2.875164e+000 2.718002e+000 3.258373e+000 2.990868e+000 1.718404e+000 2.972909e+000 1.712651e+000 1.792105e+000 1.542945e+000 2.480725e+000 2.575218e+000 3.108525e+000 2.155309e+000 2.100949e+000 1.813140e+000 3.438178e+000 2.243600e+000 7.086806e-001 1.579699e+000 7.891697e-001 1.609262e+000 2.029752e+000
<GCONST> 9.232005e+001
<MIXTURE> 14 8.365059e-002
<MEAN> 39
 8.914502e-001 2.034061e+000 1.586801e+000 -5.578046e-001 -9.242325e-001 -3.785260e-001 -2.468763e+000 -1.743646e+000 -9.448166e-001 -4.888504e-001 -4.587352e-002 -3.497267e-001 1.572694e+000 -4.684989e-002 -1.064530e+000 2.419909e-001 -1.146361e+000 -8.840621e-001 2.551818e-001 1.322095e-001 5.807103e-001 -1.561897e-001 5.651959e-001 5.318905e-001 2.121081e-001 6.970696e-001 -1.087804e+000 -1.124573e+000 -6.740007e-001 3.949856e-001 6.057708e-001 -7.769423e-003 1.856803e+000 1.166932e+000 -7.361329e-002 -1.144497e-001 -4.656212e-001 -1.162445e-001 -9.594225e-001
<VARIANCE> 39
 1.101048e+000 9.391004e-001 3.543008e-001 6.503628e-001 6.296569e-001 2.467961e+000 1.178518e+000 1.178177e+000 5.244498e-001 4.883626e-001 1.933682e+000 2.404477e+000 2.522485e-001 5.477220e-001 1.653513e+000 2.543199e+000 1.657270e+000 8.671963e-001 7.749007e-001 1.232370e+000 1.342042e+000 1.999195e+000 1.222262e+000 1.638410e+000 1.159508e+000 3.878937e-001 7.307581e-001 1.162549e+000 1.208723e+000 1.744840e+000 1.547084e+000 1.233826e+000 9.016608e-001 1.140946e+000 1.324710e+000 7.064263e-001 2.215963e+000 1.690549e+000 7.536743e-001
<GCONST> 7.407204e+001
<MIXTURE> 15 1.220596e-002
<MEAN> 39
 1.181784e+000 3.284070e-001 2.502284e+000 -1.087579e+000 2.145721e-001 -1.924648e+000 -2.410990e+000 -1.517009e+000 -3.310056e+000 -4.643209e-001 -3.619966e+000 -1.926524e+000 2.194044e+000 5.111402e-001 -3.754283e-001 4.178259e+000 -3.228562e+000 -1.355915e+000 -2.793901e+000 -2.409056e-001 3.690796e-001 -1.198345e+000 3.451635e+000 -3.415642e+000 -1.876793e+000 2.376809e+000 -2.095639e+000 -3.568416e-001 -3.280191e+000 1.140340e+000 -5.807517e-001 1.056926e+000 3.431111e+000 1.865476e+000 3.771430e+000 1.896647e+000 3.124414e+000 1.271863e+000 -3.762539e+000
<VARIANCE> 39
 9.525781e-001 9.702891e-001 6.215734e-001 2.957196e-001 3.237873e+000 1.220856e+000 4.353864e-001 1.206504e+000 8.640422e-001 2.435314e+000 1.029989e+000 1.488723e+000 1.638194e-001 6.740698e+000 1.442158e+000 2.194423e+000 1.605755e+000 5.961865e-001 3.945746e+000 4.529715e+000 6.633602e+000 6.254007e+000 4.223975e+000 4.533473e+000 1.312781e+000 1.821706e+000 3.264937e+000 2.215657e+000 1.334973e+000 1.885540e+000 5.299931e+000 9.794154e-001 3.602360e+000 2.016192e+000 6.183484e+000 2.181704e+000 1.675518e+000 1.950861e+000 1.388943e+000
<GCONST> 9.409372e+001
<STATE> 3
<NUMMIXES> 15
<MIXTURE> 1 8.161692e-002
<MEAN> 39
 -7.570204e-002 4.218042e-001 1.079066e+000 1.797357e-001 8.463154e-001 1.510481e+000 1.716249e+000 1.777663e+000 5.427083e-001 -3.169337e-003 -1.662985e+000 -2.036225e+000 1.241965e+000 -2.428119e-001 -2.275386e-001 -1.247637e-001 -1.032795e-001 1.969975e-001 -1.749161e-002 -1.196366e-001 1.609321e-001 -3.510966e-001 1.631272e-001 7.536444e-002 1.085052e-001 -1.730870e-001 -1.362431e-001 1.046710e-001 -7.222886e-002 -3.155091e-001 -1.610317e-001 4.960841e-002 -1.323075e-001 2.209616e-002 4.370136e-002 6.533674e-002 2.437390e-001 3.156022e-001 -1.105347e-001
<VARIANCE> 39
 7.234521e-002 2.417643e-001 5.652699e-001 2.543252e+000 7.104688e-001 1.906374e-001 2.742934e-001 1.017303e+000 2.296422e+000 5.192232e-001 6.187660e-001 6.525638e-001 3.584727e-002 5.613413e-001 8.582366e-001 1.202371e+000 2.868579e+000 1.230487e+000 5.216106e-001 2.067769e+000 1.439405e+000 1.659549e+000 1.219429e+000 1.765639e+000 2.409704e+000 2.314389e-001 2.449261e-001 2.128556e+000 1.626661e+000 2.210338e+000 1.514942e+000 6.840226e-001 2.554304e+000 1.071983e+000 1.965341e+000 1.524473e+000 1.999160e+000 2.579146e+000 1.285533e-001
<GCONST> 6.486098e+001
<MIXTURE> 2 5.858006e-002
<MEAN> 39
 1.657901e+000 3.492569e-001 2.192811e+000 -4.005043e-001 -2.835843e+000 -1.200568e+000 -1.033821e+000 6.712520e-001 -1.568967e+000 -7.639741e-001 1.996986e+000 -9.486285e-001 2.384018e+000 2.347588e-001 -9.169751e-001 -6.907622e-001 -2.143390e-002 -2.403027e-002 -1.219133e+000 5.760604e-001 7.929424e-001 -2.158812e-002 3.053988e-001 1.460202e-001 -2.688309e-001 8.357490e-002 -3.365451e-001 4.558327e-001 -7.815528e-002 -2.859322e-001 1.259064e+000 4.689418e-001 -2.629089e-002 -4.255183e-001 6.526548e-001 -3.485915e-002 -4.060456e-001 -1.648621e-001 -4.801806e-001
<VARIANCE> 39
 9.020550e-001 3.387007e-001 1.970935e-001 1.140849e+000 9.886357e-002 5.576076e-001 7.942530e-001 1.268980e+000 1.525012e+000 2.650474e+000 1.716169e-001 6.848205e-001 6.610528e-002 2.559520e-001 7.290270e-001 2.095881e-001 7.642865e-001 1.101913e+000 1.340572e+000 6.230859e-001 8.804901e-001 1.034557e+000 8.275681e-001 7.600927e-001 6.548069e-001 1.084782e-001 3.025940e-001 3.662141e-001 6.691666e-001 8.032039e-001 2.569604e-001 1.150779e+000 7.971131e-001 1.190225e+000 5.703133e-001 1.017941e+000 3.354410e-001 3.989523e-001 1.066356e-001
<GCONST> 4.696827e+001
<MIXTURE> 3 8.031748e-002
<MEAN> 39
 1.338474e+000 -2.744073e+000 2.101554e+000 -2.521456e+000 -1.914555e+000 -2.191320e+000 -4.231861e-001 2.082547e+000 -1.667277e+000 2.275313e+000 2.648525e-001 2.850895e-001 2.637176e+000 3.341478e-001 -1.095371e-001 -2.019506e-001 1.277640e-001 2.281940e-001 -3.387102e-001 6.592379e-001 1.041865e-001 3.871055e-002 1.273980e-001 -4.072973e-001 8.587261e-002 -2.750008e-001 -9.290312e-002 1.055520e+000 4.415920e-001 6.070721e-001 -3.685787e-003 4.884451e-001 -4.576344e-001 -6.895123e-001 -1.612996e-001 -2.924538e-001 3.349112e-002 -3.822021e-001 -3.807563e-001
<VARIANCE> 39
 6.753566e-001 5.692487e-001 1.053634e-001 3.552366e-001 2.859790e-001 1.747414e-001 2.000963e+000 5.746602e-001 6.114960e-001 1.001310e+000 9.403334e-001 2.811479e+000 1.323528e-001 2.378746e-001 2.063456e+000 7.263532e-001 6.217234e-001 3.758925e-001 3.743605e-001 9.488437e-001 4.650277e-001 5.283833e-001 5.729051e-001 4.337319e-001 3.994418e-001 2.336857e-001 5.111032e-001 2.071297e+000 4.127887e-001 8.693920e-001 7.816469e-001 1.743133e-001 5.852681e-001 4.342286e-001 3.579937e-001 6.388577e-001 5.692471e-001 5.148679e-001 9.406161e-002
<GCONST> 4.495383e+001
<MIXTURE> 4 9.027942e-002
<MEAN> 39
 6.376698e-001 1.124836e+000 2.178056e+000 -6.821957e-001 -1.230386e+000 -1.714955e-001 -1.758429e+000 -8.667543e-001 -1.794915e+000 -1.719569e+000 3.594849e-001 -5.935348e-001 1.850020e+000 3.185769e-001 -1.602461e+000 -1.738643e-001 -1.790791e-001 -1.231628e+000 -1.175004e+000 4.117659e-001 7.613528e-001 -6.492136e-001 6.740533e-001 3.922837e-001 9.703080e-001 5.925932e-001 5.217336e-001 -5.462517e-001 -6.516408e-001 3.246855e-001 -1.257506e-001 -4.082296e-001 1.991603e-001 1.773580e-001 4.148371e-001 8.091265e-001 5.130343e-001 2.085982e-001 -1.201605e-001
<VARIANCE> 39
 7.925758e-001 1.362859e+000 1.220310e-001 9.768103e-001 3.048459e-001 9.498590e-001 1.240338e+000 7.287792e-001 2.978451e-001 6.769154e-001 1.623582e+000 1.235479e+000 2.604393e-001 3.325246e-001 8.106102e-001 9.002020e-001 1.044189e+000 7.846238e-001 1.577848e+000 7.527649e-001 9.430373e-001 8.589187e-001 2.155526e+000 1.198683e+000 6.935191e-001 1.237006e-001 1.878783e-001 8.863910e-001 8.880737e-001 8.589538e-001 1.202202e+000 6.983882e-001 8.692799e-001 9.174662e-001 9.797508e-001 8.636382e-001 7.923050e-001 1.228657e+000 1.220046e-001
<GCONST> 5.811358e+001
<MIXTURE> 5 6.908248e-002
<MEAN> 39
 -7.482522e-001 7.132148e-001 2.150321e+000 -2.516433e+000 -4.685858e-002 -2.659874e+000 -9.882281e-001 -2.306159e+000 6.946994e-001 -1.929334e+000 -1.298097e+000 -1.550879e+000 2.068879e+000 -1.111412e-001 -2.310305e+000 -1.357649e+000 -7.780678e-001 -1.789096e+000 2.605203e-001 2.041223e+000 1.240462e+000 1.646655e+000 8.744456e-001 -3.493330e-001 -9.736846e-001 6.590365e-001 6.337513e-001 1.311147e-001 -9.898672e-001 1.151587e+000 -3.534216e-002 6.639578e-001 3.958495e-001 6.521645e-001 -3.206739e-001 4.108038e-001 1.545332e-001 -6.078907e-001 2.844127e-001
<VARIANCE> 39
 1.859965e+000 1.527924e+000 5.884442e-001 1.037397e-001 3.712435e+000 3.254690e-001 2.845238e+000 4.397105e-001 9.178153e-001 7.944342e-001 1.013874e+000 5.330708e-001 5.670590e-002 2.220180e-001 3.370585e-001 3.258003e-001 1.056698e+000 1.740008e+000 9.103928e-001 1.587863e+000 1.340250e+000 1.942456e+000 1.310237e+000 1.774543e+000 2.158747e+000 2.739244e-001 1.973964e-001 7.441739e-001 9.354165e-001 6.833797e-001 2.164390e+000 1.124366e+000 1.862118e+000 1.489291e+000 2.345129e+000 2.078382e+000 1.412202e+000 1.307461e+000 3.999113e-001
<GCONST> 6.590098e+001
<MIXTURE> 6 9.168623e-002
<MEAN> 39
 -5.526541e-001 -7.673025e-001 1.234458e+000 -1.518430e+000 -2.443563e+000 -2.423445e+000 8.277332e-001 -1.244958e+000 4.802243e-001 3.153842e-001 -2.292765e-001 -8.628003e-001 1.933209e+000 2.221383e-002 -7.677924e-001 -5.586287e-001 1.578621e-001 9.843564e-002 4.003873e-001 7.123948e-001 3.184252e-001 1.629425e-001 1.622000e-001 6.935854e-002 6.236531e-001 1.360773e-001 -1.514920e-001 1.036996e+000 7.287650e-001 5.589361e-001 9.864612e-001 8.865853e-001 -8.300316e-001 -3.328421e-001 -8.951023e-001 -9.631310e-001 -6.810455e-001 1.270679e-001 -3.654540e-001
<VARIANCE> 39
 7.067725e-001 4.841075e-001 9.985235e-001 3.164321e+000 3.774704e-001 1.588916e-001 1.543203e+000 3.339074e-001 2.216962e+000 2.068779e+000 2.134736e+000 3.189588e+000 1.034402e-001 1.529174e-001 1.172206e+000 1.110333e+000 7.397406e-001 8.612153e-001 1.244086e+000 3.133278e+000 1.619242e+000 2.093256e+000 2.203230e+000 2.453634e+000 2.403409e+000 2.412036e-001 1.889434e-001 6.812443e-001 5.302746e-001 1.420471e+000 1.253886e+000 6.963887e-001 1.788052e+000 7.826869e-001 1.511676e+000 1.974065e+000 2.039774e+000 2.846973e+000 3.933581e-001
<GCONST> 7.089552e+001
<MIXTURE> 7 1.382107e-001
<MEAN> 39
