~o
<STREAMINFO> 1 39
<VECSIZE> 39<NULLD><MFCC_E_D_A_Z><DIAGC>
~h "eight"
<BEGINHMM>
<NUMSTATES> 8
<STATE> 2
<NUMMIXES> 14
<MIXTURE> 1 9.206740e-002
<MEAN> 39
 -3.269376e-001 -2.078175e+000 -1.361925e+000 -6.052669e-002 9.981211e-001 -3.317460e-001 7.360052e-001 -1.611580e-001 -5.831343e-001 -1.327615e+000 -1.335351e+000 5.075158e-001 6.219410e-001 5.161532e-001 2.281060e-001 6.191125e-001 5.999441e-001 1.200741e+000 7.764718e-001 8.258806e-001 1.984324e-001 2.642155e-001 -9.133385e-002 -4.915085e-001 -8.504620e-001 1.743790e+000 1.637513e+000 1.312759e+000 1.465253e+000 2.259838e-001 -3.729821e-001 1.852920e-001 -6.226474e-001 1.192877e-001 4.021189e-002 5.280768e-001 7.903209e-001 -1.296783e+000 8.682736e-001
<VARIANCE> 39
 4.055725e-001 4.571697e-001 5.922661e-001 1.214653e+000 1.423645e+000 1.948550e+000 1.166340e+000 2.093649e+000 4.634312e+000 1.372387e+000 2.147831e+000 1.747701e+000 1.517586e-001 1.981844e+000 2.708663e+000 1.641754e+000 1.860217e+000 1.853282e+000 2.463166e+000 2.466263e+000 1.884831e+000 2.229835e+000 1.593891e+000 2.582272e+000 2.743200e+000 2.051535e+000 1.081725e+000 2.438356e+000 1.799884e+000 2.131886e+000 2.387484e+000 2.731978e+000 1.375017e+000 1.949568e+000 4.657393e+000 1.226237e+000 3.749620e+000 1.787466e+000 4.332135e+000
<GCONST> 9.294636e+001
<MIXTURE> 2 1.179033e-001
<MEAN> 39
 1.715298e+000 -1.780762e+000 -7.230743e-001 -4.849202e-001 2.255840e-001 -6.008722e-001 7.660022e-001 -2.351065e-001 3.106758e-001 -1.043091e+000 -9.475741e-001 -1.142587e+000 1.798167e+000 5.028570e-001 -1.050263e+000 -6.031353e-001 -9.456624e-001 -6.087640e-001 -2.352173e-001 -4.076934e-001 1.962677e-001 -1.406275e-001 2.228967e-001 -3.908552e-001 -5.197288e-001 1.131125e+000 -1.599146e+000 1.087321e-002 4.833108e-001 4.845546e-001 3.426483e-001 2.121818e-001 -7.897712e-002 3.610244e-001 -3.054505e-001 5.071397e-002 1.514856e-001 4.847060e-001 -1.634790e+000
<VARIANCE> 39
 8.182646e-001 6.792430e-001 1.003490e+000 1.600528e+000 1.319945e+000 1.210347e+000 2.235189e+000 1.848624e+000 1.451792e+000 5.535756e-001 9.767150e-001 1.270095e+000 4.033429e-001 8.323034e-001 1.195700e+000 1.347418e+000 1.400871e+000 7.963021e-001 9.796918e-001 9.146049e-001 1.150813e+000 8.556573e-001 9.088122e-001 8.323065e-001 1.248260e+000 7.708458e-001 1.312779e+000 1.907669e+000 1.552177e+000 1.278367e+000 1.057566e+000 1.187860e+000 8.985829e-001 1.185061e+000 9.253814e-001 5.749487e-001 8.925883e-001 7.671601e-001 9.200304e-001
<GCONST> 7.330093e+001
<MIXTURE> 3 7.525867e-002
<MEAN> 39
 -7.848035e-001 -4.816073e-001 9.982517e-001 -1.928162e-001 2.421027e-001 9.317523e-003 4.349338e-001 1.246651e+000 3.929478e-001 -6.025706e-001 8.845726e-001 3.681425e-002 5.473355e-001 5.656860e-001 4.032448e-001 3.480499e-001 -1.202543e-001 3.333955e-001 1.080898e-001 2.719416e-001 5.576130e-001 -8.519606e-002 2.101141e-001 3.015878e-001 4.870997e-001 1.181263e+000 1.749891e-001 -2.509374e-001 -4.486078e-001 -3.490814e-001 -2.405459e-001 -5.424784e-001 -2.512563e-001 -2.514181e-001 -7.769929e-001 -1.465360e-002 1.726312e-001 4.950301e-001 5.541538e-002
<VARIANCE> 39
 5.942687e-001 6.071532e-001 1.496496e+000 2.242802e+000 1.370143e+000 1.654258e+000 2.303033e-001 2.249441e+000 8.574471e-001 1.860495e+000 6.178296e-001 2.186036e+000 3.249498e-001 8.963469e-001 9.483169e-001 1.573138e+000 3.207052e+000 1.925990e+000 2.037450e+000 1.280296e+000 9.321712e-001 1.574014e+000 7.521225e-001 2.133426e+000 3.327593e+000 1.292379e+000 1.246156e+000 1.477488e+000 1.023347e+000 2.527758e+000 1.596360e+000 2.452969e+000 9.253737e-001 1.300957e+000 8.087043e-001 9.668781e-001 1.245335e+000 3.051741e+000 1.333264e+000
<GCONST> 8.154604e+001
<MIXTURE> 4 8.471633e-002
<MEAN> 39
 1.313790e+000 -1.351803e+000 4.578999e-001 7.954255e-001 1.118327e+000 -2.739902e-001 1.194774e+000 5.453909e-001 -5.962790e-001 -1.156871e+000 -5.981089e-001 -6.302740e-001 1.299552e+000 2.079374e+000 -3.196860e-003 5.487478e-001 -4.510466e-001 1.588059e-001 -3.686187e-001 1.027590e-001 1.779979e-002 4.570333e-001 1.083718e-002 -1.940170e-001 -1.441241e+000 3.064847e+000 -8.899742e-001 -1.119729e+000 -1.538950e+000 -1.118206e+000 -1.139936e+000 -1.923366e-001 -7.325660e-001 -4.585615e-001 7.733243e-002 3.982176e-001 2.382338e-001 2.267313e-001 -8.772470e-001
<VARIANCE> 39
 7.645259e-001 1.227548e+000 1.303052e+000 1.831225e+000 7.711766e-001 1.368031e+000 1.667158e+000 2.713092e+000 1.883669e+000 8.026631e-001 1.118570e+000 1.376176e+000 3.848463e-001 2.061800e+000 4.782064e+000 3.092087e+000 2.884917e+000 1.768007e+000 2.261281e+000 3.224630e+000 2.217432e+000 3.120605e+000 1.826486e+000 1.680695e+000 1.529014e+000 1.192970e+000 1.902509e+000 2.921829e+000 1.731156e+000 1.478322e+000 8.404866e-001 1.762656e+000 1.816543e+000 1.541940e+000 1.637328e+000 1.095583e+000 8.675355e-001 1.252987e+000 2.641333e+000
<GCONST> 9.034364e+001
<MIXTURE> 5 7.415668e-002
<MEAN> 39
 -6.960355e-001 -1.749161e+000 3.293124e-001 5.278157e-001 1.422228e+000 3.656719e-001 2.448310e-001 -1.031540e-001 -2.225805e-001 -3.427808e-001 1.140501e-001 1.724205e-001 8.076766e-001 1.530513e+000 9.891151e-001 -3.248082e-001 -1.788423e-001 -5.055940e-001 -7.707062e-001 -1.098095e+000 -1.643644e+000 -1.284068e+000 -1.670355e+000 -1.583728e+000 -1.094096e+000 1.263031e+000 1.693824e+000 7.241045e-002 -1.203286e+000 -1.808943e+000 -1.695406e+000 -1.404124e+000 -8.306078e-001 -5.801718e-001 -4.275964e-001 -6.253327e-001 -1.097815e+000 -1.052226e+000 1.031103e+000
<VARIANCE> 39
 6.594309e-001 3.828720e-001 2.192143e+000 1.160873e+000 1.798378e+000 9.021600e-001 2.932725e+000 1.082837e+000 1.294667e+000 1.779132e+000 2.121427e+000 1.411531e+000 2.332922e-001 1.358472e+000 1.391874e+000 2.050839e+000 2.235523e+000 1.996039e+000 2.796816e+000 2.236709e+000 1.157544e+000 2.933404e+000 1.686135e+000 3.041781e+000 2.259087e+000 9.912085e-001 2.042653e+000 2.305339e+000 1.833463e+000 2.305809e+000 9.365098e-001 1.874844e+000 2.631612e+000 1.453187e+000 1.707322e+000 2.502104e+000 2.537179e+000 2.556932e+000 1.521265e+000
<GCONST> 9.033466e+001
<MIXTURE> 6 5.676684e-003
<MEAN> 39
 -1.545339e+000 -1.851120e+000 -9.477700e-002 2.715376e-001 1.027642e+000 -1.513500e+000 2.269418e+000 -6.781377e-001 8.597042e-001 1.302276e-001 2.076577e+000 1.377333e+000 7.481874e-001 1.189288e+000 -1.858437e+000 2.781942e+000 -1.892127e+000 1.728328e+000 -1.111990e+000 -7.982823e-001 -1.175516e-001 -4.241204e+000 -3.219628e+000 -4.014035e+000 -2.183651e+000 3.590985e+000 3.349779e+000 8.150014e-001 -6.924319e-001 -8.296846e-001 -1.091472e+000 2.333894e+000 -2.414389e+000 -1.857790e-001 -1.896493e+000 -6.589170e-001 -2.491896e+000 -9.814498e-001 7.139195e-001
<VARIANCE> 39
 9.508444e-002 4.183076e-001 7.331125e-001 2.418889e-001 1.550102e+000 5.372135e-001 4.058438e-001 8.699673e-001 2.161399e+000 3.483258e+000 2.788198e+000 6.568721e-001 8.158887e-002 3.083069e+000 1.124461e+001 8.418615e-001 1.074575e+000 1.209102e+000 1.139545e+000 6.935077e-001 1.232204e+001 3.964868e+000 8.249069e-001 9.326192e-001 2.313633e+000 3.668723e+000 2.845956e+000 2.360375e+000 2.274963e+000 3.989344e+000 6.475007e+000 2.335974e-002 3.440551e-001 6.353955e-001 1.682132e+000 9.355315e+000 1.967305e+000 4.721933e-002 2.427431e+000
<GCONST> 7.674963e+001
<MIXTURE> 7 5.992053e-002
<MEAN> 39
 9.120702e-001 -2.481155e+000 4.809395e-001 -8.016623e-001 6.139539e-001 2.152544e-001 -1.014635e+000 1.505877e+000 -6.550201e-001 5.326083e-001 5.827444e-001 -5.975354e-001 1.235330e+000 5.063683e-001 -2.515858e+000 5.842026e-001 -1.277048e+000 1.019267e+000 2.526452e-001 -3.032644e-001 7.790638e-001 -1.229597e+000 -1.393805e-001 -2.367681e-001 3.808056e-001 2.872584e+000 -7.509297e-001 2.315219e+000 -1.145051e+000 1.147631e+000 -5.403673e-001 9.024664e-002 8.899723e-001 -1.455089e+000 -6.597792e-002 -9.838525e-001 -1.001813e+000 4.181572e-001 -1.854358e+000
<VARIANCE> 39
 2.230316e+000 1.170001e+000 2.163064e+000 4.839073e-001 1.473869e+000 1.425548e+000 1.693530e+000 2.131464e+000 1.979990e+000 1.878096e+000 3.697966e+000 2.377450e+000 1.339794e+000 7.430167e+000 3.493389e+000 3.966804e+000 2.786813e+000 3.993238e+000 1.812575e+000 3.462750e+000 5.346767e+000 2.157373e+000 2.803315e+000 3.470881e+000 4.247427e+000 3.097103e+000 5.895682e+000 4.795496e+000 4.212994e+000 2.164424e+000 2.686889e+000 1.355323e+000 3.147077e+000 3.740944e+000 5.233225e+000 3.298136e+000 4.406303e+000 3.287587e+000 3.164246e+000
<GCONST> 1.106498e+002
<MIXTURE> 8 7.180081e-002
<MEAN> 39
 2.890746e-001 -1.217874e+000 -5.067165e-001 2.234699e-002 -3.387982e-002 -1.150042e+000 -9.784971e-001 -2.022131e+000 -1.318128e+000 -1.381756e+000 -1.601082e+000 -1.113339e+000 1.254243e+000 1.931186e+000 -6.085818e-001 -2.227524e+000 -1.398100e+000 -1.792070e+000 -1.174837e+000 -6.745790e-001 -1.293228e+000 -1.507223e+000 -1.370649e+000 -1.174432e+000 -9.666524e-001 2.084019e+000 -1.139645e+000 -1.893134e+000 -5.697522e-001 -2.529287e-001 6.543918e-001 1.021738e+000 1.420662e+000 1.617891e+000 9.444544e-001 1.117468e+000 1.217451e+000 1.421855e+000 -6.764972e-001
<VARIANCE> 39
 8.892651e-001 4.838917e-001 1.880286e+000 9.296671e-001 1.648897e+000 1.225975e+000 1.687273e+000 1.036321e+000 2.636348e+000 1.473506e+000 7.538980e-001 1.019719e+000 2.767136e-001 1.261550e+000 2.039338e+000 1.993741e+000 3.477048e+000 2.079632e+000 2.660464e+000 3.116503e+000 2.382620e+000 3.128737e+000 2.462907e+000 3.445792e+000 2.451944e+000 9.646001e-001 1.843086e+000 1.654833e+000 2.692943e+000 1.467895e+000 2.939899e+000 1.874496e+000 1.446164e+000 1.516808e+000 2.288490e+000 1.626474e+000 2.304259e+000 1.317976e+000 1.918514e+000
<GCONST> 9.125966e+001
<MIXTURE> 9 5.681532e-002
<MEAN> 39
 8.803564e-001 -2.347494e+000 -1.125880e+000 -1.429831e+000 5.681311e-002 1.578031e+000 -1.433658e+000 7.593423e-001 -5.463020e-001 -9.824042e-001 2.428175e-001 -1.879492e+000 1.770526e+000 -1.818430e-001 1.458851e-001 9.517585e-002 -2.128653e-001 -3.584645e-001 -3.904661e-001 8.474580e-002 3.064324e-001 5.011725e-001 -1.537379e-002 -8.900583e-001 1.126645e-001 2.143514e-001 1.019984e-001 1.760683e-001 1.278017e-002 -4.055575e-002 -2.991259e-001 -3.746404e-001 2.375708e-003 7.901832e-002 3.740929e-001 5.207769e-002 -2.203398e-001 1.335087e-001 -1.359175e-001
<VARIANCE> 39
 6.168083e-001 2.387424e-002 2.841898e-001 2.082776e-001 1.762254e+000 6.311386e-001 1.912525e-001 4.549507e-001 2.523312e+000 1.049369e+000 1.245488e+000 1.414268e+000 2.368548e-001 1.954066e-001 1.174839e-001 6.120080e-001 3.327324e-001 3.789152e-001 6.131784e-001 5.125178e-001 4.090402e-001 3.412363e-001 2.219144e-001 1.050945e+000 1.241610e+000 3.782157e-002 1.675530e-001 2.017137e-001 5.560953e-001 2.466918e-001 4.350765e-001 3.767081e-001 4.574082e-001 2.872327e-001 5.228848e-001 2.140406e-001 1.164019e+000 1.491532e+000 9.337982e-002
<GCONST> 3.519808e+001
<MIXTURE> 10 1.125841e-001
<MEAN> 39
 -4.948046e-001 -1.592022e+000 -4.515868e-001 5.706271e-001 7.921028e-001 2.589450e-001 1.299712e+000 1.028583e-001 8.368025e-002 6.006324e-002 1.652586e-001 -2.065431e-001 2.401166e-001 -4.669238e-001 -9.257197e-001 -7.496523e-001 4.255793e-002 1.127158e-001 -7.917706e-002 -2.906856e-001 -6.624578e-001 -1.240939e-001 -4.417397e-002 -7.734051e-002 -2.746092e-001 1.143918e+000 4.955373e-001 9.602733e-001 1.416710e-002 -1.380292e-002 -1.466970e-001 -3.581961e-001 -7.206165e-001 -2.909109e-001 -2.524092e-001 -2.864657e-001 -7.131362e-002 1.840262e-001 -3.844200e-001
<VARIANCE> 39
 7.531139e-001 2.906811e-001 5.223289e-001 8.709054e-001 6.334885e-001 1.097681e+000 1.075919e+000 1.138248e+000 7.781968e-001 1.317663e+000 5.795813e-001 8.442626e-001 3.069793e-001 2.954915e-001 8.949640e-001 6.743785e-001 1.041956e+000 8.759640e-001 7.787795e-001 1.230165e+000 1.615897e+000 1.463135e+000 1.241387e+000 8.273908e-001 1.733186e+000 4.489681e-001 6.782678e-001 1.080900e+000 1.120652e+000 8.617231e-001 1.052013e+000 7.804590e-001 1.370980e+000 1.810682e+000 1.412070e+000 1.151093e+000 1.152304e+000 1.701572e+000 4.934072e-001
<GCONST> 6.693671e+001
<MIXTURE> 11 1.109334e-001
<MEAN> 39
 -4.156923e-001 -1.718463e+000 -1.996989e-001 -9.340608e-001 -4.968914e-001 -7.705089e-001 -3.812901e-001 1.241669e-001 -9.105686e-001 -1.071839e+000 6.226846e-003 4.542602e-001 6.873797e-001 -4.757720e-001 -9.050290e-001 -4.104983e-002 -2.998899e-001 1.890431e-001 -8.420732e-002 2.586897e-001 -8.557183e-002 -5.713902e-001 -5.005937e-001 -5.539629e-001 1.082392e-001 8.408284e-001 7.573215e-001 1.199157e+000 2.587883e-001 9.965415e-001 7.845118e-001 4.671394e-001 5.003814e-001 4.134532e-001 1.130397e+000 1.159247e+000 1.512464e-001 -4.126537e-001 -4.539951e-001
<VARIANCE> 39
 7.413126e-001 9.079949e-001 2.064528e+000 1.997295e+000 2.435047e+000 2.040838e+000 9.008715e-001 2.239431e+000 1.445802e+000 1.407135e+000 1.505763e+000 2.790866e+000 2.179399e-001 5.333174e-001 2.109122e+000 1.321387e+000 1.629103e+000 1.424105e+000 1.902518e+000 2.390462e+000 1.300297e+000 2.558110e+000 2.249683e+000 2.178174e+000 1.878706e+000 1.118371e+000 1.146979e+000 2.347739e+000 2.609765e+000 2.662232e+000 2.620562e+000 2.358158e+000 1.408144e+000 1.703746e+000 1.814929e+000 2.627295e+000 1.362688e+000 2.505746e+000 2.162211e+000
<GCONST> 9.109826e+001
<MIXTURE> 12 9.463410e-002
<MEAN> 39
 -5.013254e-001 -3.892073e-001 -5.813562e-001 6.806507e-001 6.391497e-001 2.029155e-001 6.419020e-001 5.213539e-001 6.536576e-001 5.493680e-001 1.228430e+000 4.625450e-001 6.409243e-001 -5.124027e-001 -1.288865e+000 2.214015e-002 -2.103336e-002 5.103086e-001 -2.800847e-001 1.103782e-001 -6.434973e-004 -3.778719e-001 -4.854805e-001 2.759243e-001 3.886507e-001 1.764526e-001 5.689133e-001 -8.014904e-001 1.640091e-001 -2.977836e-002 1.160500e-001 -3.043243e-002 -1.125589e-001 -6.413509e-001 -5.797457e-001 -9.576146e-001 -1.279178e+000 -3.518713e-001 -2.320838e-001
<VARIANCE> 39
 4.918647e-001 5.604424e-001 1.566045e+000 5.373924e-001 1.554696e+000 1.635616e+000 2.450832e+000 5.618458e-001 5.057895e-001 8.411165e-001 8.747634e-001 2.189453e+000 3.371809e-001 8.972701e-001 2.344009e+000 1.814917e+000 1.833092e+000 9.282424e-001 2.118716e+000 8.714727e-001 1.731896e+000 2.020126e+000 1.991106e+000 2.334912e+000 1.599487e+000 8.252416e-001 1.500071e+000 3.033442e+000 1.738978e+000 2.631303e+000 1.418494e+000 2.195333e+000 1.752100e+000 2.074543e+000 1.800205e+000 1.950713e+000 2.013511e+000 2.363548e+000 2.513434e+000
<GCONST> 8.492860e+001
<MIXTURE> 13 3.785710e-002
<MEAN> 39
 6.255146e-001 -1.866109e+000 -1.652130e+000 1.904683e+000 1.194398e+000 -1.827223e+000 2.378036e+000 -1.250076e+000 -7.622212e-001 -1.434297e+000 -1.091398e+000 -2.717157e+000 2.041019e+000 1.785893e-001 1.848246e-002 2.286416e-001 2.785912e-001 -6.485115e-001 -7.843371e-002 -1.384682e-001 5.370084e-001 2.151617e-001 8.906347e-002 -4.781053e-002 5.385202e-001 1.771302e-001 -2.872291e-001 9.334293e-001 -2.845413e-003 -7.111610e-001 1.723526e-001 -4.852761e-002 -2.256059e-001 5.652792e-001 3.379239e-001 3.247413e-001 7.166252e-001 8.142825e-001 -7.078165e-001
<VARIANCE> 39
 1.970995e-002 2.212885e-001 2.632384e-001 2.726081e-001 1.134739e+000 2.284166e-002 1.696777e-001 1.990036e+000 1.537109e+000 4.331553e-001 3.413887e-001 5.548075e-001 1.918831e-003 6.062739e-002 2.370732e+000 2.042807e+000 2.610304e+000 1.030300e+000 1.179022e-001 1.313787e+000 2.779959e+000 2.682876e+000 3.230016e+000 2.830054e+000 2.860000e+000 3.344695e-001 1.960863e-001 1.615816e+000 2.834577e+000 3.629743e+000 7.665344e-001 5.038713e-001 1.068850e+000 2.145829e+000 3.533733e+000 3.451439e+000 1.010214e+000 1.862644e+000 1.089082e+000
<GCONST> 5.689845e+001
<MIXTURE> 14 5.675605e-003
<MEAN> 39
 -1.049022e+000 -1.235408e+000 7.636327e-001 -1.524842e+000 2.283458e-001 -1.215631e+000 -5.888883e-001 1.419346e+000 -4.902775e-001 4.292927e-001 7.082971e-001 1.655904e+000 9.108641e-001 7.251225e-002 -3.560734e-001 2.681983e+000 -4.458532e-001 -5.380952e+000 -1.824987e+000 -1.116569e+000 -4.994936e-002 -4.272201e+000 -6.752417e+000 -2.202941e+000 -1.848630e+000 2.246301e+000 2.247097e+000 1.476990e+000 -4.562453e-001 8.520538e-001 -1.711289e+000 1.897935e+000 -9.153666e-001 -1.521567e+000 -4.212703e-001 -2.127448e+000 -3.526751e+000 -2.221795e+000 -3.041467e+000
<VARIANCE> 39
 6.007681e-002 1.121278e+000 3.538898e-001 9.073917e-002 4.669951e+000 2.204822e+000 2.255199e+000 1.141695e+000 2.648445e+000 4.710295e+000 5.637745e-001 2.213680e+000 3.218347e-001 3.353833e+000 1.206668e+000 1.048655e+001 1.817035e+000 4.701486e+000 2.560152e+000 5.926270e+000 8.786536e+000 4.014400e-001 1.061772e+000 3.319481e+000 8.678690e-001 3.310045e+000 2.721788e-001 8.397321e-002 2.699565e+000 1.808572e-002 7.327399e+000 5.992630e-001 1.998693e+000 1.634048e+000 3.707719e+000 7.234041e+000 1.905742e+000 5.852893e+000 1.360649e+001
<GCONST> 8.679484e+001
<STATE> 3
<NUMMIXES> 14
<MIXTURE> 1 1.270609e-002
<MEAN> 39
 -2.600543e+000 2.582452e+000 2.322736e+000 -2.666365e+000 -2.508691e+000 -5.279206e-001 -1.962120e+000 9.553149e-001 -7.146224e-001 -2.941006e-001 3.420537e+000 5.765208e-001 1.632113e+000 -9.167160e-001 -1.295765e+000 1.006168e-001 1.414078e-001 7.014843e-001 1.794757e+000 -7.820651e-002 -1.043957e+000 6.972837e-001 8.695087e-002 -2.587059e-001 -1.354771e-001 1.572283e-002 1.024729e+000 -4.058607e-001 -7.269225e-001 1.158742e+000 4.368574e-001 -2.829411e-001 1.472303e+000 2.635939e-001 1.383590e-001 -2.463079e-001 -1.797857e+000 -4.185217e-001 -5.396483e-002
<VARIANCE> 39
 5.647467e-002 2.970791e-001 4.152580e-002 2.252309e-001 3.878676e-001 4.175395e-001 7.328392e-001 8.722177e-001 7.129609e-001 3.051822e-001 4.046952e-001 3.958365e-001 1.508352e-003 2.323659e-001 2.946790e-001 7.450364e-001 9.848201e-001 1.062292e+000 1.468382e+000 5.332098e+000 3.209849e+000 7.818151e-001 1.594000e-001 3.734681e+000 1.758593e+000 1.009054e-001 2.257288e+000 1.946683e+000 4.303854e-001 3.987090e+000 8.562157e-001 1.361289e+000 5.105283e+000 3.090889e+000 1.370155e+000 5.681962e-001 2.404321e+000 2.669272e+000 3.897843e-001
<GCONST> 5.419463e+001
<MIXTURE> 2 1.215007e-001
<MEAN> 39
 2.136574e+000 -2.277099e+000 -6.206429e-001 -1.225015e+000 5.400267e-001 -1.407994e+000 7.948985e-001 6.157082e-001 3.923514e-001 -1.739382e+000 -9.208511e-001 -1.921778e+000 2.318525e+000 -1.290933e-001 2.984513e-002 2.500437e-001 1.480883e-002 -4.052814e-001 -3.561724e-001 -2.432668e-001 3.282547e-001 1.747970e-001 1.948537e-002 -8.405379e-004 3.682617e-002 7.322758e-002 -2.948347e-002 3.375805e-001 2.764736e-001 3.662927e-001 -3.075969e-001 1.535964e-001 -1.394473e-001 1.017032e-001 9.868670e-002 1.321713e-001 1.198847e-001 1.752049e-001 -1.496413e-001
<VARIANCE> 39
 6.939760e-001 2.068949e-001 1.141995e+000 9.740305e-001 2.788709e+000 7.896799e-001 1.933586e+000 1.962894e+000 1.358236e+000 4.032675e-001 9.276959e-001 3.242387e-001 1.198583e-001 1.237160e-001 1.988739e-001 6.649064e-001 6.608610e-001 6.831386e-001 5.693041e-001 6.175363e-001 5.908692e-001 8.250748e-001 3.461861e-001 4.153366e-001 3.543928e-001 3.860049e-002 1.925895e-001 3.899740e-001 8.800247e-001 5.092590e-001 5.745345e-001 5.628943e-001 6.950299e-001 5.008776e-001 6.064915e-001 2.676506e-001 4.364205e-001 2.679386e-001 7.647875e-002
<GCONST> 4.302746e+001
<MIXTURE> 3 5.203869e-002
<MEAN> 39
 7.629671e-001 -2.308470e+000 -1.279019e+000 -1.179652e+000 1.588554e-001 -1.141292e+000 -1.614076e+000 -1.150622e+000 -2.028688e+000 -1.990769e+000 -1.737731e+000 -1.675020e+000 2.105643e+000 4.589627e-001 -1.706764e+000 -7.034161e-001 -4.437664e-001 3.298991e-001 -1.202918e-001 3.960088e-001 -3.757525e-003 -3.889649e-001 1.208687e-001 -3.375984e-001 -5.864702e-001 1.606393e+000 -1.512446e+000 3.175347e-001 1.496381e+000 1.320406e+000 6.492546e-001 4.732270e-001 6.677741e-001 7.563650e-001 1.359663e+000 1.157232e+000 1.556497e+000 1.021292e+000 -1.821215e+000
<VARIANCE> 39
 7.681659e-001 3.111844e-001 1.767837e+000 8.761878e-001 2.620467e+000 3.142813e+000 1.197984e+000 6.800601e-001 4.401400e-001 2.103499e+000 2.632411e+000 6.043738e-001 2.845315e-001 8.308212e-001 9.864354e-001 2.967971e+000 1.327498e+000 1.795850e+000 1.907015e+000 1.250283e+000 1.646784e+000 1.083364e+000 2.009057e+000 1.527427e+000 1.571111e+000 9.934663e-001 5.084286e-001 2.602494e+000 1.141585e+000 1.202779e+000 1.603944e+000 2.019808e+000 2.173713e+000 1.703560e+000 7.561422e-001 2.493835e+000 1.787261e+000 1.097148e+000 1.372483e+000
<GCONST> 8.119553e+001
<MIXTURE> 4 1.478571e-001
<MEAN> 39
 3.040993e-001 -2.688311e+000 -1.283626e+000 -9.947461e-001 2.169475e-003 -1.407861e+000 -6.429678e-001 -1.969804e+000 -1.725413e+000 -1.795195e+000 -8.343804e-001 -1.216104e+000 2.384072e+000 3.802185e-002 7.794998e-002 2.370863e-001 -5.455445e-001 -5.009122e-001 2.638539e-001 5.790953e-001 -5.150200e-003 -5.349605e-002 -8.257649e-002 1.725977e-001 3.097751e-002 -5.983081e-002 1.484670e-001 7.365123e-001 1.073333e-001 -3.190045e-001 -4.230678e-001 1.984022e-001 -2.925740e-002 1.313633e-001 -1.849139e-001 -3.354723e-001 -1.780002e-001 5.552354e-002 -5.063952e-001
<VARIANCE> 39
 9.144300e-001 1.747339e-001 2.089456e+000 1.100945e+000 2.695374e+000 1.175433e+000 2.817633e+000 5.776027e-001 5.916071e-001 6.290345e-001 2.275545e+000 2.003220e+000 1.329544e-001 3.018386e-001 6.313078e-001 7.332225e-001 1.970814e+000 1.316224e+000 1.032520e+000 1.385449e+000 1.424384e+000 1.167320e+000 1.190986e+000 1.424413e+000 1.492863e+000 2.097540e-001 4.452899e-001 1.029291e+000 8.944223e-001 1.712383e+000 1.349903e+000 7.946990e-001 1.203636e+000 1.446859e+000 1.347546e+000 1.091707e+000 1.236609e+000 1.384309e+000 2.595965e-001
<GCONST> 6.989238e+001
<MIXTURE> 5 6.350646e-003
<MEAN> 39
 -4.499845e-001 -2.837696e+000 -2.138434e+000 -1.160598e-001 -1.523251e+000 -2.463944e+000 -1.575153e+000 -3.744950e+000 -1.898681e+000 -3.184212e+000 -1.796189e-001 9.576986e-001 2.101705e+000 6.528164e-002 -3.117836e+000 -1.230628e+000 -1.293707e+000 -8.188682e-001 -1.205536e+000 1.281616e+000 -2.448824e+000 -8.727092e-001 -3.700170e-001 -9.582498e-001 1.197643e+000 2.262805e+000 -2.197058e+000 1.434909e+000 1.797308e+000 4.026838e-001 2.986327e+000 1.404859e+000 3.083995e+000 4.149269e+000 2.234825e+000 2.785311e+000 5.729365e-001 -9.104486e-001 -1.694153e+000
<VARIANCE> 39
 2.058640e-002 1.310631e-001 3.052382e-001 3.575182e-001 4.145632e-001 1.858767e-001 1.650155e+000 5.543480e-002 9.317095e-001 7.763250e-002 5.580041e-001 1.985981e-001 2.692805e-002 1.240085e+000 2.575949e+000 2.139676e+000 3.597900e+000 2.050919e+000 4.533341e-001 2.918103e+000 1.602890e+000 1.420422e+000 1.811935e-001 6.023762e-001 1.610544e+000 3.270054e-001 1.851445e-001 2.475385e+000 4.919266e-001 9.217896e-001 3.438972e-001 3.238909e+000 5.634670e-001 2.169641e-001 4.912979e-001 1.764927e-001 7.762079e-001 2.806621e+000 1.977917e-001
<GCONST> 4.546592e+001
<MIXTURE> 6 1.428577e-002
<MEAN> 39
 -7.206925e-001 -1.625919e+000 -1.699049e+000 9.693661e-001 -6.285818e-003 -1.357952e-001 -5.621628e-001 -7.690486e-001 -8.251051e-001 -1.414360e+000 1.398385e+000 2.888595e-001 1.106345e+000 1.670099e+000 -3.146205e-001 -4.031191e-001 -2.386441e+000 -2.296692e+000 -2.436908e+000 -2.235420e+000 -3.496968e+000 -1.807709e+000 -1.947506e+000 -8.739790e-001 -1.187871e-001 1.404103e+000 5.880486e-001 -1.356443e+000 3.960573e-001 -3.101318e-001 1.026145e-001 -1.513188e+000 -1.166128e-002 -4.166868e-001 -1.798278e-001 6.980600e-001 -1.443005e+000 -3.924381e-001 1.312625e+000
<VARIANCE> 39
 2.265016e-001 8.641791e-002 1.221146e-001 1.683942e+000 2.583230e+000 1.072352e+000 2.490642e+000 1.640902e+000 4.959584e-001 4.487745e-001 1.265127e+000 2.234092e+000 1.175769e-001 2.398592e-001 1.284291e+000 6.807289e-001 6.781963e-001 3.675534e-001 2.462505e+000 7.714527e-001 2.143888e+000 2.169211e-001 3.318922e-001 1.136679e+000 3.910684e+000 6.983122e-001 1.271625e+000 3.114636e+000 5.084574e-001 3.238420e+000 4.469124e+000 2.951769e+000 3.913802e+000 4.492169e+000 2.581656e-001 1.064126e+000 1.282446e+000 1.681471e+000 2.989745e-001
<GCONST> 6.852972e+001
<MIXTURE> 7 1.024769e-001
<MEAN> 39
 1.705105e+000 -3.023224e+000 -6.266521e-001 -6.751807e-001 -1.303234e+000 2.432331e-001 -3.444236e-001 1.304296e+000 -1.580756e+000 -9.330550e-001 -2.268416e+000 -1.063584e+000 2.796876e+000 -1.668325e-001 4.860575e-001 2.375143e-001 -4.924489e-002 -4.174533e-001 -3.929935e-001 4.772740e-001 2.995639e-001 1.748594e-001 3.846087e-002 -3.103434e-001 3.843140e-001 -6.386193e-002 -2.231137e-001 1.188392e+000 5.519925e-001 1.033530e-001 1.175190e-001 -4.241505e-001 2.211482e-001 -1.369873e-001 3.391139e-001 -2.677225e-002 2.876332e-001 3.068700e-001 -6.273594e-001
<VARIANCE> 39
 2.268340e-001 5.963157e-001 2.653051e+000 1.669900e+000 1.829762e+000 1.525831e+000 3.343669e+000 1.270923e+000 3.046453e+000 2.874271e+000 3.715316e-001 2.660620e+000 5.840162e-001 3.730171e-001 1.380211e+000 1.549692e+000 1.091703e+000 8.039909e-001 1.670036e+000 1.558751e+000 8.292524e-001 1.498845e+000 1.307069e+000 3.167359e-001 1.173469e+000 3.363078e-001 1.033671e+000 8.799144e-001 1.634922e+000 1.690919e+000 8.400518e-001 1.332861e+000 1.536701e+000 8.844116e-001 1.132499e+000 1.677839e+000 6.017947e-001 9.388133e-001 3.014805e-001
<GCONST> 7.447916e+001
<MIXTURE> 8 2.383880e-001
<MEAN> 39
 8.725641e-001 -9.325234e-001 -8.290103e-001 -2.332650e-001 -5.094045e-001 2.802013e-001 -3.881887e-001 -3.196634e-001 -3.529194e-001 -4.796309e-001 -9.593471e-001 -3.226117e-001 9.863090e-001 -1.573192e-002 8.041452e-002 1.186749e-002 -6.509545e-002 -1.487796e-001 8.598506e-002 -1.445674e-002 4.779467e-002 -4.047981e-002 -1.121097e-001 -5.744682e-004 -1.239771e-002 2.404051e-002 -4.011522e-002 4.109820e-002 -5.368164e-003 -4.861007e-002 -2.613568e-002 -4.700528e-002 9.619971e-002 -1.718924e-002 -1.142123e-002 -1.292317e-002 -2.571067e-002 2.019898e-002 8.844999e-003
<VARIANCE> 39
 1.428951e-001 1.573096e-001 4.078304e-001 3.779999e-001 4.295729e-001 4.940816e-001 8.365483e-001 6.616912e-001 7.797841e-001 9.186127e-001 2.166177e-001 6.739287e-001 6.292439e-002 4.228340e-002 3.734413e-001 3.117556e-001 3.835440e-001 2.383089e-001 2.820414e-001 3.690772e-001 3.587445e-001 5.613429e-001 4.060363e-001 4.583706e-001 3.624710e-001 4.026410e-002 6.828970e-002 3.090166e-001 3.425327e-001 3.860564e-001 2.617990e-001 3.133912e-001 3.232431e-001 3.398290e-001 5.891975e-001 4.003942e-001 5.835046e-001 4.098277e-001 6.541603e-002
<GCONST> 2.517452e+001
<MIXTURE> 9 4.762683e-003
<MEAN> 39
 2.366215e-001 -2.345409e+000 -7.938359e-002 -1.074838e+000 9.334259e-001 -4.243140e-001 -3.099609e+000 -8.174208e-001 -2.265203e+000 -2.698489e+000 -1.563617e+000 2.417814e-002 1.854814e+000 2.289640e+000 2.467114e-001 -9.870875e-001 3.239653e-002 -2.343781e+000 1.172910e-001 -1.110790e+000 -2.886976e+000 -1.549316e+000 -3.858274e+000 -4.942178e+000 -4.560100e+000 3.277448e+000 -7.383918e-001 -7.647887e-001 8.482321e-001 1.635207e-001 6.239875e-001 1.483859e+000 3.187860e+000 2.886742e+000 1.609929e+000 1.435500e+000 2.217618e-001 -3.519970e-001 3.074413e-001
<VARIANCE> 39
 6.807244e-002 1.883446e-001 3.196130e+000 7.840774e-002 7.810675e-001 3.253002e+000 7.956634e-002 4.869992e-002 1.465380e-001 1.529060e+000 5.433201e+000 1.334458e+000 1.063172e-001 1.469122e+000 3.323748e+000 4.864645e-001 1.971319e+000 3.128058e+000 6.711785e+000 1.738193e+000 6.570020e-001 6.217616e-001 1.414341e+000 2.858301e+000 1.081620e+000 4.767633e-001 2.037111e+000 1.218823e+000 2.496492e+000 2.883342e+000 3.918989e+000 2.434848e-001 1.246804e-001 3.015911e-001 4.922882e-002 1.764541e+000 3.845496e+000 2.841929e+000 9.754534e-001
<GCONST> 6.401900e+001
<MIXTURE> 10 1.223615e-001
<MEAN> 39
 1.037847e-001 6.806866e-001 2.141892e+000 7.875827e-001 4.306053e-001 -4.473632e-001 5.772582e-001 1.713898e+000 -2.007381e+000 -6.522153e-001 2.116634e+000 -2.481874e-001 1.986183e+000 5.002254e-002 4.968091e-002 -2.837008e-002 -1.591139e-002 4.134734e-003 -8.962365e-002 1.696071e-001 -5.645709e-002 -2.321922e-005 2.120462e-002 -1.109687e-001 -1.632683e-002 7.753769e-002 -2.585068e-002 2.950888e-002 3.951215e-002 -4.062887e-002 -1.996850e-003 7.435713e-002 9.870698e-003 1.698089e-002 1.333841e-001 -5.258914e-002 -7.058218e-002 1.541599e-002 -1.201170e-002
<VARIANCE> 39
 5.145316e-002 9.748171e-002 1.869649e-001 1.824302e+000 6.828476e-001 1.066549e+000 5.533035e-001 7.494560e-001 1.104225e+000 3.018486e+000 5.891748e-001 2.849111e+000 5.490513e-003 2.214870e-001 2.893368e-001 1.749904e+000 2.323987e+000 1.095766e+000 2.358225e+000 3.352125e+000 2.929450e+000 3.008185e+000 2.767817e+000 2.908534e+000 2.852396e+000 6.986270e-003 2.591600e-001 4.663126e-001 2.066175e+000 2.354523e+000 8.777604e-001 2.744606e+000 3.717345e+000 3.184278e+000 3.207469e+000 2.772930e+000 2.813169e+000 2.956755e+000 7.597690e-003
<GCONST> 6.402987e+001
<MIXTURE> 11 4.764774e-003
<MEAN> 39
 8.863686e-001 1.576956e+000 4.063453e-001 2.975515e-001 -3.790593e+000 -3.631187e+000 -5.354433e-001 6.206170e-001 -6.972156e-001 -9.859992e-001 3.199816e-001 1.084695e+000 2.069453e+000 -2.091038e+000 3.980159e+000 3.349027e+000 -2.770877e+000 -1.116258e-002 9.416012e-001 1.086759e+000 3.039780e+000 -7.799062e-001 -3.097898e-001 2.145226e+000 -6.786518e-001 -1.044668e+000 -4.568118e+000 -1.652802e-001 7.547688e-001 -8.822336e-001 4.155461e+000 6.124094e+000 9.687874e-001 1.127199e+000 -4.943516e-002 -5.286132e-001 -4.930407e-001 -1.973085e+000 -2.914692e+000
<VARIANCE> 39
 5.141117e-003 5.781986e-001 2.066089e-001 1.110076e-001 1.056429e-001 1.335666e-002 6.573513e-001 1.224554e+000 3.324116e-001 4.360259e-002 4.422584e-001 3.024484e-002 5.298327e-004 2.838828e+000 8.267690e-002 2.085157e-001 2.803470e-001 5.627435e+000 9.323287e+000 5.352842e-001 7.616386e-001 5.042638e-001 1.594468e+000 5.754631e-001 2.769948e+000 1.264078e+000 6.888821e-001 4.983451e-001 4.454328e-001 5.383513e-001 2.620828e+000 7.354462e-001 2.615615e+000 2.108602e+000 3.823873e-001 1.473066e+000 2.401514e-001 1.212499e+000 3.467054e-001
<GCONST> 3.546825e+001
<MIXTURE> 12 4.764776e-003
<MEAN> 39
 -1.162030e+000 3.222540e+000 1.666976e+000 -1.470873e+000 -2.115921e+000 -1.587627e+000 1.159058e-001 3.052697e+000 -5.308967e-001 -1.127423e+000 8.298776e-001 -2.800093e-001 1.606827e+000 -5.303351e+000 2.101905e+000 2.683010e+000 -4.153136e+000 3.262722e-001 4.283273e+000 -1.939172e+000 4.522980e-001 -8.335111e-001 1.924296e+000 2.896150e+000 6.409020e-001 -1.597813e+000 1.492789e+000 -3.450138e+000 -1.517235e+000 8.035126e-001 -1.892104e+000 -2.377828e+000 -3.372065e+000 -3.267172e+000 -8.895465e-002 8.255598e-001 1.549143e+000 2.150262e+000 2.693276e+000
<VARIANCE> 39
 4.546489e-001 2.124567e-001 1.602394e-001 1.385973e-001 4.525421e-002 4.262429e-001 5.129277e-003 2.002776e-001 3.599081e-001 1.685835e+000 1.377345e-001 1.706065e-001 1.486844e-002 8.686240e-001 8.118398e-001 2.689097e-001 4.457152e-001 2.903440e+000 5.278154e+000 3.927401e+000 2.724779e+000 4.481184e-001 4.712353e-001 3.559881e+000 3.049820e+000 1.513477e+000 6.584708e+000 7.852040e-001 1.432368e-001 2.773189e+000 3.734105e-001 3.585152e+000 7.654430e-001 6.378824e-002 5.078443e-001 2.211012e+000 8.361525e-001 7.219279e-001 1.440248e+000
<GCONST> 4.808570e+001
<MIXTURE> 13 1.598032e-001
<MEAN> 39
 8.483545e-001 -1.412039e+000 -1.578618e+000 -1.303505e-001 -1.414909e+000 -8.272058e-001 2.816258e-001 -1.084053e+000 -9.234983e-001 -1.071789e+000 -1.502389e+000 5.194525e-001 1.707155e+000 -5.450130e-002 5.026473e-001 4.851744e-001 -3.896185e-001 -5.048393e-001 -3.992312e-001 8.267412e-002 3.939703e-002 1.511672e-001 -9.549751e-003 1.528611e-001 2.522702e-002 -4.230445e-002 -6.439789e-002 3.710154e-001 4.066458e-001 -7.728617e-002 1.772581e-001 -1.693452e-001 1.381203e-001 -2.467886e-002 5.293535e-002 -1.449263e-001 2.350423e-001 -4.203074e-001 -1.729469e-001
<VARIANCE> 39
 5.134426e-001 3.243276e-001 4.982517e-001 1.668286e+000 1.169576e+000 1.395990e+000 2.233784e+000 8.261561e-001 2.036549e+000 7.558657e-001 1.401542e+000 1.353880e+000 1.515226e-001 3.109150e-001 1.183716e+000 6.941603e-001 9.546089e-001 2.243059e+000 1.483326e+000 1.721578e+000 8.357245e-001 1.001338e+000 1.191972e+000 9.911925e-001 1.416005e+000 7.434356e-002 6.981813e-001 8.815823e-001 7.429813e-001 9.990203e-001 1.999584e+000 1.478228e+000 1.421011e+000 8.028425e-001 1.061452e+000 1.450804e+000 9.734809e-001 8.372484e-001 1.113661e-001
<GCONST> 6.652379e+001
<MIXTURE> 14 7.939043e-003
<MEAN> 39
 4.701781e-002 2.158170e-002 -8.740801e-001 -1.344178e-001 -3.869887e-001 -1.067571e+000 5.399390e-001 1.092134e-001 -1.683658e+000 -2.169854e+000 -2.226891e+000 3.136612e-001 1.447458e+000 -4.695428e+000 3.556280e+000 2.523593e-001 -4.317787e+000 3.161385e+000 -8.856937e-001 1.254561e+000 7.521450e-001 1.155601e+000 1.367037e+000 7.916519e-001 -4.201704e-002 -7.810197e-001 -1.296871e+000 -6.367966e-002 -8.024633e-002 -1.785226e+000 -1.947297e+000 -1.770021e-001 -1.559902e+000 1.467047e+000 -5.832473e-002 9.682325e-001 4.377388e-001 -1.626652e+000 9.192705e-001
<VARIANCE> 39
 8.383532e-001 6.072410e-001 1.626045e-001 1.109638e+000 6.452104e-001 8.376194e-001 2.283524e-001 5.234691e-001 6.929259e-001 8.812558e-002 8.069069e-001 3.308559e+000 9.518574e-002 3.060867e-001 1.011062e+000 7.948630e-002 1.070885e+000 9.341506e-001 1.413508e+000 9.593967e-001 9.325870e-001 1.945726e+000 8.271394e-001 8.309599e-001 6.302535e-001 3.670847e-001 3.483083e+000 2.659986e+000 1.032408e-001 3.227437e+000 1.570450e+000 1.147482e+000 3.887176e-001 3.220916e-001 9.687603e-001 3.475149e+000 8.948832e-001 1.040004e+000 1.965224e-001
<GCONST> 5.689481e+001
<STATE> 4
<NUMMIXES> 14
<MIXTURE> 1 1.452005e-002
<MEAN> 39
 -1.790985e+000 -1.486136e+000 1.764745e+000 6.386460e-001 -1.530789e+000 -1.269885e+000 -7.047226e-002 -1.990846e-001 6.013805e-001 5.922731e-001 1.103165e+000 -1.040576e+000 1.670224e+000 -1.163073e+000 -6.470306e-001 -3.050646e-001 -2.740723e-001 -1.962235e-001 1.640700e-001 5.751676e-001 -2.040844e-001 -5.232082e-001 -3.833801e-001 1.203492e+000 -3.972745e-001 3.905641e-001 1.320159e+000 5.001853e-001 3.421890e-001 -6.399372e-002 -1.013539e+000 4.610774e-002 2.766031e-001 -1.396705e-001 4.310289e-001 -1.031697e+000 -9.092979e-001 6.158367e-001 -1.502972e-001
<VARIANCE> 39
 4.973138e-002 3.554123e-002 6.513613e-002 5.875219e-002 1.270742e-001 1.516513e-001 1.035905e-001 7.214756e-002 2.533101e-001 1.153388e+000 1.425590e+000 1.783633e-001 7.867714e-003 1.235034e+000 6.087604e-001 9.615176e-001 2.331730e-001 1.441403e+000 2.681132e-001 9.862907e-001 8.315929e-002 3.440686e-001 1.274138e+000 4.316921e+000 5.229461e-001 1.190614e-001 1.255978e+000 9.107507e-001 1.256952e+000 6.210061e-001 1.010481e-001 1.954112e-001 1.094498e+000 1.127001e-001 9.618890e-001 4.134177e+000 4.049148e+000 6.057652e-001 2.597448e-001
<GCONST> 3.091135e+001
<MIXTURE> 2 1.630260e-001
<MEAN> 39
 6.868116e-001 -1.513107e+000 -8.748921e-001 -9.168233e-001 -9.579969e-001 -9.789369e-001 -2.164413e-001 -1.241833e+000 -1.607550e+000 -4.691609e-001 -7.936233e-001 -1.086701e+000 1.560277e+000 5.329685e-003 4.334498e-001 4.484804e-001 -4.479579e-001 -2.362884e-001 6.413976e-002 2.269107e-001 1.912044e-001 -1.961988e-001 4.557547e-002 -9.924743e-002 -1.945961e-001 -1.354304e-001 5.363526e-002 2.438936e-001 1.646790e-001 -9.011544e-002 -1.498268e-001 1.795829e-002 -1.406602e-001 1.064112e-001 1.680601e-001 -2.235919e-002 -2.104667e-001 6.342556e-002 -9.279858e-002
<VARIANCE> 39
 1.056077e-001 5.884916e-001 1.235057e+000 2.639001e-001 4.155274e-001 4.499827e-001 6.140478e-001 3.845520e-001 3.173299e-001 1.466008e+000 4.703219e-001 1.209310e+000 8.454988e-002 6.279553e-002 3.024775e-001 7.319188e-001 6.202642e-001 3.824188e-001 4.275730e-001 9.095376e-001 7.602372e-001 1.075128e+000 4.600881e-001 7.120227e-001 1.166639e+000 6.532119e-002 1.075353e-001 4.612126e-001 6.483690e-001 5.573574e-001 3.792326e-001 4.683080e-001 9.912093e-001 6.792498e-001 1.236170e+000 5.270633e-001 6.395801e-001 8.984481e-001 7.647812e-002
<GCONST> 4.060817e+001
<MIXTURE> 3 1.826982e-001
<MEAN> 39
 -2.250606e+000 1.571813e+000 4.458583e-001 -2.080282e+000 -2.900127e-001 -1.936034e-001 4.459845e-001 3.125284e-002 -8.034973e-001 -1.218770e+000 -6.621767e-001 -2.461834e-001 1.569801e+000 -5.318825e-001 2.902037e-001 8.068933e-001 1.428383e-001 1.282243e-001 5.463722e-001 -1.458230e-001 -6.152838e-002 2.052533e-001 3.361637e-001 2.558635e-001 9.629558e-002 3.640348e-002 4.156006e-001 -1.680854e-001 -7.598560e-002 2.992241e-001 7.776125e-002 -2.511543e-001 -5.552489e-003 -8.791682e-002 2.800269e-002 2.508696e-001 1.802027e-002 -1.652552e-002 -8.206085e-002
<VARIANCE> 39
 2.661287e-001 3.497050e-001 1.973287e+000 3.190257e-001 1.269395e+000 1.203549e+000 1.287128e+000 1.387921e+000 1.204261e+000 1.120726e+000 1.145298e+000 2.052377e+000 3.075289e-002 2.882007e-001 5.246919e-001 1.255953e+000 8.610747e-001 7.729567e-001 1.174842e+000 1.492535e+000 1.341615e+000 1.660246e+000 1.957985e+000 1.614756e+000 1.429888e+000 4.407011e-002 4.329309e-001 7.655447e-001 1.305001e+000 1.091583e+000 9.420171e-001 1.474477e+000 1.660888e+000 1.247236e+000 1.637183e+000 1.936409e+000 1.392878e+000 1.487146e+000 7.318607e-002
<GCONST> 6.477133e+001
<MIXTURE> 4 1.373846e-001
<MEAN> 39
 1.656265e+000 -1.705170e+000 4.381806e-001 -1.108975e+000 -1.101187e+000 -1.520551e+000 -1.652749e-001 1.231616e+000 6.638154e-001 -1.048809e+000 -7.132576e-001 -1.515075e+000 2.021729e+000 -2.271928e-001 1.055992e+000 9.311822e-001 2.270007e-001 -1.082965e+000 -6.047752e-001 -3.072183e-001 1.075712e-001 1.568567e-001 4.274732e-001 4.769687e-001 7.877752e-001 -4.304554e-001 -1.425397e-001 9.142416e-001 1.165157e-001 2.490260e-001 1.854450e-001 3.116009e-001 1.057695e-001 -6.532775e-001 -3.661413e-001 3.326464e-001 2.165781e-001 5.591686e-001 -4.739771e-001
<VARIANCE> 39
 5.755346e-001 1.669156e-001 9.304403e-001 5.761213e-001 2.050721e+000 1.955171e+000 2.135862e+000 2.597027e+000 1.863789e+000 1.073135e+000 1.027729e+000 1.036130e+000 1.434937e-001 1.561003e-001 1.049191e+000 1.546260e+000 1.012570e+000 1.051847e+000 9.841242e-001 1.545458e+000 1.310997e+000 7.314646e-001 1.115652e+000 7.112864e-001 1.491554e+000 1.723842e-001 2.855849e-001 6.203361e-001 1.231085e+000 6.227258e-001 1.102063e+000 8.243608e-001 1.216177e+000 1.357920e+000 6.992226e-001 1.192560e+000 6.360593e-001 1.428150e+000 1.716134e-001
<GCONST> 6.447397e+001
<MIXTURE> 5 1.036949e-002
<MEAN> 39
 7.025834e-003 1.485425e-001 1.498751e+000 -8.268285e-001 -1.141366e+000 -1.913635e+000 -1.040315e-001 6.649709e-002 2.485319e-002 7.884058e-001 -2.425573e-001 3.241349e-001 1.496752e+000 -3.608969e+000 3.720649e+000 -1.625747e+000 -2.870507e-001 2.298180e+000 1.508494e+000 3.199005e+000 -2.814078e+000 2.439214e+000 -2.674385e+000 1.545320e+000 -9.654156e-001 -8.264672e-001 -1.595271e+000 -1.296649e+000 -1.187269e+000 -1.726227e+000 -5.499549e-001 1.009762e+000 -6.862308e-001 1.497743e+000 -1.776790e-001 -4.755988e-001 -6.249554e-001 -5.821220e-001 6.243168e-001
<VARIANCE> 39
 2.730363e-001 3.890011e-001 5.852476e-001 1.030772e-001 6.734719e-001 2.094659e-001 7.628032e-001 1.917781e+000 5.532051e-001 2.818755e+000 1.415274e+000 8.691453e-001 1.599327e-001 9.911945e-001 9.825877e-001 3.464212e-001 1.721636e+000 8.530240e-001 1.435848e+000 3.849949e-001 9.770874e-001 4.586258e-001 1.035454e+000 4.392678e+000 1.164438e-002 4.596695e-002 1.292084e+000 2.231127e+000 2.223922e+000 4.390923e-001 1.080022e+000 6.849013e-001 1.395431e+000 4.821414e-001 1.707032e+000 3.822950e+000 1.244916e+000 4.971515e-001 4.804219e-001
<GCONST> 5.675154e+001
<MIXTURE> 6 8.587304e-002
<MEAN> 39
 -1.458346e+000 1.164345e+000 -2.132962e-001 -1.733875e+000 -1.812949e-001 -6.735322e-001 1.183605e+000 9.541411e-003 -4.978340e-001 -8.656871e-001 -1.118548e+000 -6.146947e-001 1.404223e+000 -2.760413e+000 1.407919e+000 -5.852268e-001 -1.685229e+000 4.598194e-001 5.441971e-001 -1.955523e-001 5.314714e-001 3.963710e-001 1.760040e-001 4.063430e-001 -1.199683e-001 1.204570e-001 2.189969e+000 -2.047519e+000 1.231878e+000 6.273323e-001 -1.108263e+000 -4.941174e-001 -9.767392e-001 -1.177398e-001 -5.689775e-001 -1.475185e-001 3.345184e-002 3.486102e-001 8.068290e-001
<VARIANCE> 39
 4.876685e-001 5.100598e-001 2.711287e+000 7.281603e-001 9.927162e-001 1.505015e+000 1.225668e+000 1.607753e+000 2.928418e+000 7.471170e-001 8.377517e-001 2.675421e+000 6.966294e-002 1.410616e+000 1.513694e+000 1.824073e+000 1.628542e+000 1.776030e+000 1.474020e+000 1.757429e+000 2.268577e+000 1.229158e+000 2.115882e+000 1.208299e+000 2.481668e+000 3.265982e-001 7.522526e-001 1.265209e+000 1.706906e+000 3.453026e+000 1.295487e+000 1.549791e+000 1.935553e+000 3.438882e+000 2.650421e+000 1.905993e+000 2.290138e+000 2.533430e+000 5.754927e-001
<GCONST> 8.324183e+001
<MIXTURE> 7 5.007312e-002
<MEAN> 39
 8.507941e-001 -5.194960e-001 -8.012900e-002 -2.046121e+000 -1.844494e+000 -2.137464e+000 -6.800617e-002 -1.886061e+000 -1.695660e+000 -1.222867e+000 -1.661433e+000 -1.135049e+000 1.383297e+000 -1.821203e+000 2.670786e+000 1.031478e+000 8.581223e-001 8.285861e-001 1.175791e+000 -7.151279e-001 6.975286e-001 -1.477136e-001 8.086436e-001 1.128455e+000 -8.680657e-002 -1.158908e+000 -2.266466e+000 7.348207e-002 -8.296564e-001 2.227073e-001 6.099877e-001 1.569317e+000 6.373275e-001 1.189579e+000 3.351141e-002 8.415017e-002 1.365312e-001 1.371228e-001 -4.179224e-002
<VARIANCE> 39
 1.058686e+000 2.912521e-001 2.049904e+000 1.545396e+000 1.100456e+000 4.366589e-001 1.933439e+000 6.386726e-001 8.426538e-001 8.730639e-001 9.330128e-001 1.788788e+000 4.541386e-001 1.846264e+000 1.549042e+000 2.895154e+000 3.136035e+000 1.060544e+000 1.673993e+000 3.365782e+000 2.365635e+000 2.617597e+000 1.766832e+000 1.395205e+000 1.126007e+000 2.665413e-001 6.315559e-001 1.170614e+000 3.976886e+000 2.533229e+000 1.841460e+000 1.655471e+000 3.480073e+000 9.166561e-001 2.151407e+000 1.418229e+000 2.070853e+000 1.276501e+000 7.615199e-001
<GCONST> 8.321196e+001
<MIXTURE> 8 6.036610e-002
<MEAN> 39
 1.376783e+000 -1.255527e+000 1.636957e+000 -1.297504e+000 -1.523822e+000 -1.685914e+000 -3.310195e-001 1.914742e+000 -6.299672e-001 5.181673e-001 -1.485705e+000 -7.342459e-002 2.076659e+000 -9.708259e-001 2.506813e+000 1.073516e+000 5.581642e-001 6.185064e-001 -3.056504e-001 5.707481e-001 -1.659525e+000 6.747252e-001 2.916070e-001 9.964364e-001 6.660915e-001 -8.848208e-001 -2.296922e+000 6.998988e-001 -1.361410e+000 9.724215e-002 1.252021e+000 1.337008e+000 7.591464e-001 -9.144841e-001 8.485066e-001 -1.441543e+000 5.920209e-001 -6.432133e-001 -6.526670e-001
<VARIANCE> 39
 5.230675e-001 9.191623e-001 6.791217e-001 2.657580e-001 2.068325e+000 1.709815e+000 3.551671e+000 6.515399e-001 1.731647e+000 2.451182e+000 1.384696e+000 8.693509e-001 3.631298e-001 1.380382e+000 1.445991e+000 2.183245e+000 9.332549e-001 2.639373e+000 2.174812e+000 1.948996e+000 1.750473e+000 2.037803e+000 2.566232e+000 1.532187e+000 1.202066e+000 3.000506e-001 2.063009e+000 2.239311e+000 1.602493e+000 1.861943e+000 2.022605e+000 1.186152e+000 3.984367e+000 1.575465e+000 1.348147e+000 1.467612e+000 1.838795e+000 1.650283e+000 1.477945e-001
<GCONST> 8.260783e+001
<MIXTURE> 9 7.226013e-002
<MEAN> 39
 8.001387e-001 -6.357732e-001 1.980581e-001 -1.729001e+000 -2.188656e+000 -7.184212e-001 7.045075e-001 -3.034333e-001 -1.663626e+000 -1.827130e+000 -1.904134e+000 -1.456852e+000 1.584667e+000 -3.964596e-001 1.544724e+000 2.102710e+000 -3.573968e-001 4.817367e-001 -4.815484e-001 -4.097891e-001 -4.773758e-001 4.755941e-001 4.526052e-001 1.141164e-001 -2.800947e-002 -6.010233e-001 -1.300720e+000 -3.469874e-001 3.977801e-001 8.353423e-001 1.790571e+000 1.732749e-001 -5.552698e-001 -5.474373e-001 3.834127e-001 1.353857e+000 1.019639e+000 7.602683e-001 -7.489995e-001
<VARIANCE> 39
 3.807263e-001 1.023803e+000 9.293548e-001 5.261755e-001 1.294420e+000 1.193730e+000 1.662591e+000 3.160970e+000 6.997139e-001 9.182434e-001 5.159882e-001 1.463158e+000 3.130589e-001 4.752921e-001 1.381376e+000 1.492692e+000 1.543397e+000 2.539573e+000 2.247871e+000 4.122494e+000 1.407545e+000 1.686583e+000 3.650044e+000 1.456728e+000 1.937744e+000 1.515136e-001 4.463698e-001 1.624668e+000 1.768408e+000 1.212873e+000 1.380208e+000 1.656798e+000 2.171148e+000 2.196332e+000 2.194754e+000 2.330380e+000 1.749757e+000 1.948773e+000 3.618093e-001
<GCONST> 7.978453e+001
<MIXTURE> 10 5.216420e-002
<MEAN> 39
 1.688592e+000 -4.707448e-001 1.063848e+000 -4.679168e-001 -1.254881e+000 -1.947022e+000 1.044663e+000 -2.562067e-001 1.517982e+000 -9.520898e-001 7.693780e-001 -6.276806e-001 1.834523e+000 -6.541083e-001 1.303423e+000 1.730657e+000 6.789278e-001 1.903972e-001 1.025542e+000 -1.205345e+000 2.777826e-001 -5.608641e-002 2.569394e-002 3.948045e-001 4.672480e-001 -1.072817e+000 -1.917942e+000 -6.650020e-001 -1.278756e-001 -1.100587e+000 4.436410e-001 6.556926e-001 -6.980174e-001 7.491440e-001 -1.864637e-001 -1.715795e-001 -1.519341e+000 -3.754372e-001 -5.539044e-002
<VARIANCE> 39
 9.669542e-001 5.694334e-001 6.664822e-001 8.867997e-001 1.592904e+000 9.301490e-001 1.135552e+000 1.419350e+000 9.199094e-001 1.085709e+000 1.804793e+000 1.087037e+000 1.789762e-001 1.388613e+000 1.556173e+000 1.655988e+000 8.231603e-001 2.982152e+000 1.400671e+000 1.270873e+000 1.888726e+000 1.598247e+000 2.888035e+000 2.897867e+000 2.132762e+000 5.307779e-001 2.003345e+000 6.224011e-001 1.636387e+000 2.199900e+000 3.476553e+000 1.616806e+000 7.532951e-001 1.390662e+000 8.596083e-001 1.164957e+000 1.049810e+000 2.884490e+000 5.814638e-001
<GCONST> 8.032192e+001
<MIXTURE> 11 1.452288e-002
<MEAN> 39
 5.286781e-001 9.222784e-001 1.605103e+000 -1.188171e+000 -5.865213e-001 -5.838721e-001 -4.640874e-001 1.137408e+000 1.630623e+000 1.499395e-001 -1.408550e+000 -1.024539e+000 1.768731e+000 -4.419807e+000 1.182767e+000 1.532269e+000 -1.123932e+000 -1.546508e+000 2.462811e+000 -1.959460e-001 8.058324e-001 2.435395e-001 6.221697e-001 -5.493206e-001 -8.283132e-001 -7.928494e-001 -1.038247e+000 -1.960145e+000 -4.389295e-001 -1.262681e-001 2.304418e-001 -6.643820e-001 2.067219e+000 -1.577497e+000 2.261156e-001 -3.393890e-002 1.519768e+000 -6.296529e-001 1.185251e+000
<VARIANCE> 39
 1.590343e+000 1.205907e-001 2.661657e-001 5.919350e-002 5.285081e-001 2.292038e+000 2.483189e-001 5.165758e-001 9.553586e-001 6.546572e-001 4.596232e-001 1.387987e+000 4.343907e-002 1.860533e+000 8.024888e-001 7.277753e-001 2.378841e-001 2.569194e+000 6.984785e-001 2.370841e+000 9.157868e-001 1.108625e+000 1.065607e+000 1.264563e+000 1.941710e+000 1.076348e+000 3.705716e+000 2.567472e-001 1.523648e+000 4.467264e-001 1.471573e+000 1.767058e+000 2.814397e-001 1.605339e+000 8.018807e-001 5.301285e-001 6.675064e-001 1.670907e+000 5.015261e-001
<GCONST> 5.939413e+001
<MIXTURE> 12 4.159307e-002
<MEAN> 39
 -1.426851e-001 -1.040069e-001 8.073575e-001 -7.178395e-001 -8.129947e-001 -1.400047e+000 1.167815e+000 -6.623497e-001 -1.022378e+000 -1.302128e+000 -1.030693e+000 2.037843e-001 1.395625e+000 -3.488597e+000 2.847642e+000 -1.561005e+000 3.223382e-001 2.377733e+000 1.139845e+000 1.158102e+000 -6.955304e-001 8.321064e-001 4.065553e-001 -1.409892e-001 1.001306e-001 -9.037559e-001 -1.324448e+000 -1.909163e-001 -1.338835e+000 -2.019077e+000 -2.469576e-001 6.824839e-002 -3.454247e-001 6.332042e-001 2.605661e-001 3.137560e-001 -5.232065e-001 -7.944949e-001 1.118506e+000
<VARIANCE> 39
 5.601311e-001 8.364184e-001 1.947655e+000 9.413485e-001 1.949341e+000 1.126832e+000 1.908471e+000 3.696224e+000 2.759937e+000 1.026273e+000 1.395477e+000 1.753396e+000 1.153861e-001 1.240628e+000 1.363516e+000 1.391222e+000 4.086515e+000 7.147247e-001 1.813507e+000 2.955186e+000 3.613126e+000 2.607924e+000 2.430997e+000 3.192733e+000 1.772839e+000 4.601194e-001 1.072505e+000 2.992642e+000 1.675342e+000 2.652486e+000 1.713898e+000 2.093682e+000 3.720644e+000 2.423951e+000 2.386202e+000 1.143240e+000 2.211291e+000 1.355481e+000 4.332416e-001
<GCONST> 8.913680e+001
<MIXTURE> 13 9.242674e-002
<MEAN> 39
 5.438985e-001 -1.823849e+000 -3.503416e-001 -2.402510e+000 -1.537219e+000 -9.885505e-001 6.908225e-001 -1.817620e+000 -1.975176e+000 -2.196528e+000 -1.601832e+000 -1.333578e+000 1.839126e+000 3.833000e-001 2.103960e+000 6.360589e-001 -9.767708e-001 -1.344069e+000 -5.755858e-001 2.033508e-001 3.336514e-001 1.241675e-001 -1.154191e-001 -8.598076e-001 -6.047438e-001 -7.014984e-001 -3.678728e-001 1.396028e+000 2.055775e-002 8.731290e-001 6.832138e-001 -4.363702e-001 -8.746295e-001 -1.875929e-001 2.092270e-001 9.307038e-001 4.340450e-001 8.853781e-002 -1.275924e-001
<VARIANCE> 39
 9.506996e-001 4.419073e-001 1.305103e+000 2.438900e-001 1.572624e+000 1.243132e+000 2.922905e+000 1.654917e+000 5.192454e-001 1.285709e+000 1.438628e+000 1.355275e+000 9.830522e-002 1.802833e-001 1.401175e+000 9.083425e-001 1.781631e+000 2.170274e+000 1.740063e+000 2.148283e+000 1.717139e+000 2.220957e+000 1.987729e+000 2.477590e+000 2.806729e+000 3.455516e-001 5.469437e-001 1.202768e+000 7.271217e-001 1.185103e+000 2.029739e+000 2.644166e+000 2.152964e+000 1.517637e+000 1.622856e+000 2.225517e+000 2.461180e+000 2.968621e+000 2.142202e-001
<GCONST> 7.798592e+001
<MIXTURE> 14 2.272238e-002
<MEAN> 39
 6.309708e-001 -4.487379e-001 1.895994e+000 -4.595012e-001 -1.840322e+000 -5.591929e-001 -8.411317e-001 4.664197e-001 1.701714e+000 -1.948950e+000 -1.123203e+000 8.370024e-002 1.896559e+000 -3.252147e+000 4.227714e-001 5.426423e-001 -7.785144e-002 -8.440047e-002 5.877072e-001 -3.945758e-001 -9.020630e-002 1.005153e-001 9.225436e-002 -1.754499e-001 -9.436796e-001 -1.148160e+000 -2.128671e+000 -1.431862e+000 -1.355364e+000 -1.248098e+000 4.795620e-001 -5.157177e-001 1.187900e+000 -2.724144e-001 -8.034958e-001 1.074909e+000 1.672769e-001 -1.064719e+000 3.983999e-001
<VARIANCE> 39
 7.650701e-001 7.321262e-001 5.329948e-001 4.689403e-001 4.429331e-001 1.259265e+000 3.121121e+000 9.992766e-001 1.255023e+000 4.383633e+000 1.957349e+000 2.535073e+000 2.858520e-001 2.305799e+000 2.769367e+000 2.450579e+000 3.253028e+000 6.317695e+000 1.439375e+000 1.608867e+000 1.687046e+000 3.353268e+000 1.016592e+001 7.516767e-001 3.502367e+000 5.243752e-001 1.314401e+000 4.019577e-001 1.309802e+000 8.230910e-001 3.204402e+000 3.130986e-001 1.676158e+000 2.054914e+000 1.687971e+000 7.238316e+000 1.221963e+000 4.474166e+000 3.006095e-001
<GCONST> 8.698372e+001
<STATE> 5
<NUMMIXES> 14
<MIXTURE> 1 1.655155e-001
<MEAN> 39
 -2.100698e+000 6.054624e-002 2.182311e+000 -5.309061e-001 -7.968313e-001 -6.215692e-002 1.074166e+000 -1.062778e+000 1.008253e+000 -1.775036e-002 1.003450e+000 -6.417725e-001 1.581926e+000 -1.053891e-001 5.812009e-001 2.896885e-001 6.854343e-002 5.309331e-001 3.742571e-001 -4.684849e-001 -3.083717e-001 -4.236372e-001 -1.243462e-001 7.108127e-002 6.780006e-002 -6.762010e-002 3.676403e-001 3.809332e-001 -8.647541e-001 -7.021357e-001 1.889065e-002 4.231065e-001 -4.049347e-001 6.026150e-001 -2.620121e-001 -5.638481e-001 -5.979257e-001 -3.151063e-001 -4.266831e-001
<VARIANCE> 39
 4.011635e-001 1.126285e+000 1.172483e+000 9.633308e-001 1.900109e+000 1.137681e+000 7.531822e-001 1.370821e+000 1.021686e+000 1.852487e+000 1.466569e+000 1.526077e+000 5.464892e-002 4.190029e-001 4.955972e-001 1.698518e+000 2.032566e+000 1.077953e+000 1.857244e+000 1.339346e+000 1.822629e+000 1.904245e+000 2.040662e+000 1.958138e+000 2.033046e+000 1.874432e-001 8.433459e-001 7.613302e-001 1.298842e+000 1.427354e+000 1.067081e+000 1.580955e+000 1.232353e+000 2.255239e+000 2.164477e+000 1.863468e+000 2.046736e+000 1.549777e+000 3.009427e-001
<GCONST> 7.573009e+001
<MIXTURE> 2 2.860107e-002
<MEAN> 39
 7.179258e-001 -5.046168e-001 -1.527903e-001 -1.268814e-001 -6.011928e-001 -1.592674e+000 4.206438e-001 1.438496e+000 -1.146599e+000 7.222856e-001 -1.299055e+000 1.422725e+000 5.544283e-001 -2.088613e-001 8.080142e-001 8.318275e-001 1.421330e-001 -2.661104e-001 -9.208149e-001 -2.481983e-001 2.990394e-001 -8.953963e-002 -2.154826e-001 8.980189e-002 1.561574e-001 -5.568008e-002 -9.802865e-002 5.220434e-001 5.557883e-001 -9.689598e-003 -1.997068e-001 3.813467e-001 8.545904e-002 -4.475495e-001 4.293832e-001 -2.388134e-001 7.564922e-001 -8.684327e-001 -9.713074e-002
<VARIANCE> 39
 1.486013e-002 1.745107e-001 1.454917e-001 6.955884e-002 1.214576e-001 1.102987e+000 1.926669e-001 1.028883e-001 1.756805e-001 6.221817e-001 6.487560e-002 2.499684e-001 2.644118e-003 2.895663e-002 9.870204e-001 6.482762e-001 7.848602e-002 5.846435e-001 1.166419e+000 2.651766e-001 2.974554e-001 1.325886e+000 1.542828e+000 1.341086e+000 1.502917e+000 2.303319e-002 5.122791e-002 2.371578e-001 2.601725e-001 9.285823e-002 6.867339e-001 1.954715e+000 5.356246e-001 3.440056e-001 7.981431e-001 1.587236e+000 1.720214e+000 4.508447e-001 1.368029e-002
<GCONST> 1.727713e+001
<MIXTURE> 3 5.227785e-002
<MEAN> 39
 -2.109127e+000 1.873439e+000 7.298722e-001 -1.356741e+000 7.056831e-001 3.594398e-001 -1.302531e+000 -3.888552e-001 -1.363967e+000 -9.088879e-001 -1.544950e+000 -6.540403e-001 1.332143e+000 1.350970e-001 -1.440838e-001 1.131768e-001 1.171587e+000 6.060138e-001 -8.529245e-001 -3.575337e-001 -2.321635e-001 2.775227e-001 1.429703e+000 7.398413e-001 5.992353e-001 -6.034571e-001 9.396914e-001 -5.795767e-001 -1.158282e+000 -6.662641e-001 -1.145756e+000 2.114356e-001 1.014039e+000 1.029864e+000 9.986902e-001 3.778055e-001 1.248918e+000 3.123152e-001 -6.100351e-001
<VARIANCE> 39
 8.597487e-001 4.674825e-001 1.675874e+000 3.774517e-001 1.386364e+000 3.640885e+000 1.964038e+000 1.450111e+000 6.201986e-001 1.093555e+000 7.573745e-001 6.569231e-001 6.607531e-002 1.374068e+000 1.135669e+000 1.649636e+000 1.942644e+000 1.136478e+000 2.372209e+000 2.451883e+000 6.311447e-001 1.478894e+000 1.112179e+000 1.882219e+000 1.251664e+000 8.950742e-001 9.910433e-001 8.051547e-001 1.000136e+000 1.492564e+000 8.796211e-001 2.830828e+000 2.797913e+000 1.389119e+000 6.223509e-001 1.475799e+000 2.191253e+000 9.534298e-001 5.107840e-001
<GCONST> 7.587635e+001
<MIXTURE> 4 1.189761e-001
<MEAN> 39
 -1.697016e+000 8.411191e-001 -3.057617e-002 -1.560355e+000 -1.296119e-001 -6.983092e-001 2.081450e-001 -5.607690e-001 -2.458470e-001 2.448375e-001 -2.823713e-001 -6.773872e-001 7.311651e-001 -1.837930e+000 2.408998e-001 -1.350985e-001 1.888967e-001 1.137459e+000 5.458141e-001 8.222698e-002 9.416111e-001 1.299561e+000 8.218073e-001 1.018154e+000 5.726756e-001 4.294609e-002 1.526666e+000 -9.732141e-001 9.335583e-001 -3.518901e-001 -9.118516e-001 1.237177e-001 -4.610709e-001 -2.147269e-001 -6.337771e-001 -8.117603e-001 -4.518567e-001 -2.692124e-001 8.422977e-001
<VARIANCE> 39
 3.298650e-001 3.723134e-001 1.828610e+000 5.820800e-001 1.429481e+000 9.525091e-001 1.495910e+000 7.273038e-001 9.875110e-001 6.844609e-001 1.364249e+000 6.154853e-001 1.626239e-001 2.174093e+000 8.406931e-001 1.481194e+000 1.348131e+000 1.074806e+000 1.531247e+000 2.405963e+000 9.638160e-001 1.703984e+000 2.255203e+000 7.971007e-001 8.680981e-001 6.281374e-001 1.158561e+000 1.240565e+000 2.173886e+000 1.344366e+000 2.013110e+000 1.638152e+000 1.783378e+000 8.898812e-001 2.030302e+000 1.238395e+000 1.091804e+000 8.054177e-001 8.315175e-001
<GCONST> 7.449893e+001
<MIXTURE> 5 1.660518e-001
<MEAN> 39
 -2.260064e+000 2.845506e-001 1.772391e+000 -1.821090e+000 -1.817261e+000 -2.386201e-001 2.079003e-001 -6.797356e-002 1.355202e+000 -8.600251e-001 -2.607734e-001 -9.842958e-001 1.453940e+000 -1.112884e+000 -2.402284e-001 3.488216e-001 1.069047e-002 -1.164405e-001 1.890973e-001 4.689817e-001 -3.417349e-001 -2.175957e-001 7.215080e-002 7.588830e-001 2.108135e-001 3.661172e-002 1.091977e+000 3.130635e-001 2.400330e-001 7.486484e-001 8.614297e-001 -2.985867e-001 -1.303570e-001 -8.500931e-002 -2.619098e-001 2.423608e-001 2.455908e-001 3.819350e-001 8.633515e-002
<VARIANCE> 39
 8.171150e-001 1.001209e+000 5.473836e-001 3.423753e-001 9.452332e-001 7.548392e-001 1.404506e+000 1.186157e+000 1.404776e+000 1.449558e+000 1.686732e+000 9.437264e-001 9.760907e-002 9.101658e-001 5.905607e-001 5.627882e-001 1.170015e+000 1.244914e+000 1.062894e+000 1.122181e+000 1.638861e+000 7.454764e-001 8.080462e-001 8.701574e-001 9.096977e-001 1.494273e-001 1.143994e+000 7.585399e-001 9.324875e-001 1.573584e+000 1.211241e+000 1.353904e+000 1.496509e+000 1.638244e+000 1.308215e+000 9.390054e-001 1.207661e+000 9.036836e-001 2.944801e-001
<GCONST> 6.673679e+001
<MIXTURE> 6 2.347996e-002
<MEAN> 39
 8.575338e-001 7.791553e-002 2.375404e-001 -8.177398e-001 -2.563600e+000 -7.647777e-001 -1.173909e+000 -1.628181e+000 1.098667e-001 -1.682161e+000 -9.260796e-001 -1.249581e+000 1.254998e+000 -1.716396e+000 2.343367e+000 2.039538e-001 5.533887e-001 3.270112e+000 -9.386722e-001 7.556861e-001 -4.195554e-001 1.414448e-001 1.179309e+000 2.787781e-001 1.475292e+000 -1.525215e+000 -2.210291e+000 -2.012473e-001 -1.206145e-001 -1.226878e+000 2.202862e+000 -1.569823e-001 1.418337e+000 1.825382e+000 -3.154774e-001 1.393680e+000 -3.355907e-001 1.349222e-001 -2.956337e-001
<VARIANCE> 39
 2.353837e-001 3.469463e-001 1.608985e+000 1.392262e-001 1.279566e+000 2.674543e-001 8.420376e-001 9.323786e-001 2.142271e+000 6.628549e-001 4.914869e-001 1.669230e+000 2.572923e-001 1.586163e+000 8.026383e-001 1.549775e+000 8.205990e-001 1.637078e+000 9.913562e-001 7.627831e-001 1.720387e+000 3.336565e+000 2.809737e+000 9.032106e-001 7.695006e-001 6.621978e-002 1.164754e+000 9.487453e-001 3.610603e+000 2.028524e+000 1.621917e+000 1.289826e+000 5.189736e-001 4.440768e-001 1.149689e+000 5.599545e-001 2.455969e-001 2.900228e+000 6.272072e-001
<GCONST> 6.566962e+001
<MIXTURE> 7 1.823345e-002
<MEAN> 39
 9.003335e-001 -9.208198e-001 2.363552e+000 -2.204602e+000 -1.684837e+000 -9.249324e-001 1.459874e+000 -1.001286e+000 -1.483058e+000 1.248510e-001 -1.002377e+000 -2.150909e+000 1.685804e+000 -1.360546e+000 1.054321e+000 1.335163e+000 -8.065409e-002 5.484968e-001 -1.404006e+000 -1.807163e+000 1.229318e+000 2.231238e+000 1.893662e+000 2.515332e+000 1.738010e+000 -1.474230e+000 -1.311930e+000 5.316648e-001 -2.101197e+000 -2.373726e-001 4.594322e-001 3.662183e-001 -2.306465e+000 -9.676289e-002 6.992565e-001 -1.160195e+000 9.476013e-001 8.652266e-001 -4.151501e-001
<VARIANCE> 39
 1.059377e+000 4.359050e-001 3.370683e-002 1.074584e+000 1.859944e+000 6.820197e-001 6.965604e-001 2.162104e+000 5.997950e-001 1.865490e+000 5.281377e-001 2.693390e-001 3.896803e-001 4.211587e+000 8.217335e-001 2.076990e+000 1.860653e+000 3.060468e+000 1.164010e+000 1.622555e+000 5.284936e-001 4.127828e-001 2.181693e+000 2.027989e+000 6.060510e-001 4.564056e-001 1.000887e+000 4.781726e-001 7.116635e-001 3.251022e+000 1.213556e+000 5.202512e-001 2.954113e+000 7.170537e-001 1.959534e+000 2.855233e+000 2.906382e+000 1.399887e+000 1.372143e+000
<GCONST> 7.231488e+001
<MIXTURE> 8 2.338877e-002
<MEAN> 39
 1.661816e+000 3.945434e-001 9.464688e-001 -3.132302e+000 -3.572009e+000 -1.948505e+000 -1.043362e+000 -1.491659e+000 -3.120100e-001 -7.756481e-002 -1.586932e+000 -1.310052e+000 1.481178e+000 -1.143376e+000 1.839525e+000 1.806493e-001 8.984548e-001 1.065397e+000 -4.426022e-001 -1.196289e+000 -2.725400e-001 4.558302e-001 7.834992e-001 -2.303226e-001 5.441253e-001 -1.364559e+000 -2.575425e+000 -6.462285e-001 -1.996333e+000 1.899497e+000 2.610754e+000 1.995762e+000 1.552850e+000 5.197936e-001 -1.228098e+000 -6.997479e-001 4.548906e-001 5.682543e-002 -1.202026e+000
<VARIANCE> 39
 1.925133e+000 3.300910e-001 8.948918e-001 7.508121e-001 1.794021e-001 5.074205e-001 1.058989e+000 4.424362e-002 1.161251e+000 1.194177e+000 1.885364e+000 1.352627e-001 1.248747e-001 2.241865e+000 2.314332e+000 2.703500e+000 1.288759e+000 8.284630e-001 2.256716e+000 2.354948e+000 3.315007e-001 2.039320e+000 1.661857e+000 1.151070e+000 3.660187e-001 8.047859e-001 1.005554e+000 2.898050e+000 7.045335e-001 6.735127e-001 1.346076e+000 8.949500e-001 1.995325e+000 3.604932e-001 1.675223e+000 2.814124e+000 3.603277e+000 1.945909e-001 3.501676e-001
<GCONST> 6.598785e+001
<MIXTURE> 9 3.646461e-002
<MEAN> 39
 -1.388512e-001 8.351286e-001 1.168780e-001 -2.312463e+000 -1.283465e+000 -1.065761e+000 -1.589463e+000 -1.567495e+000 -1.695046e+000 -7.458928e-001 -1.149294e+000 -1.174340e+000 1.070748e+000 -3.423442e+000 1.917184e+000 -1.886245e+000 1.839676e+000 2.212186e+000 1.707102e+000 5.300528e-001 1.794102e+000 2.729548e-001 1.345040e+000 1.642528e+000 1.735618e-001 -1.272231e+000 -4.592473e-001 -1.947891e+000 -7.443575e-001 2.531510e-001 -7.355201e-002 4.063604e-001 1.589512e+000 8.567637e-001 1.818012e+000 -9.425946e-002 3.343284e-001 2.947330e-002 9.605799e-001
<VARIANCE> 39
 6.600668e-001 2.886244e-001 1.321777e+000 1.300551e+000 1.563522e+000 6.853876e-001 6.193431e-001 5.305287e-001 9.694190e-001 9.330074e-001 1.257139e+000 3.598465e-001 9.286886e-002 1.119577e+000 1.534958e+000 7.285420e-001 1.111396e+000 2.647652e+000 6.730691e-001 3.850544e+000 6.206510e-001 2.477225e+000 5.385289e+000 2.040850e+000 1.134876e+000 8.980771e-001 1.369365e+000 1.065187e+000 1.785639e+000 1.900614e+000 7.908821e-001 1.405676e+000 1.907252e+000 1.245109e+000 8.667182e-001 2.561433e+000 2.234859e+000 6.559451e-001 7.186257e-001
<GCONST> 7.476931e+001
<MIXTURE> 10 2.603819e-002
<MEAN> 39
 6.972577e-001 -1.175873e-001 1.402220e+000 -1.460879e+000 -9.873893e-001 -1.662288e+000 -7.561758e-001 3.099656e-001 -4.177478e-001 -7.050816e-001 4.978217e-001 -1.173561e-001 1.293155e+000 -2.963836e+000 1.212153e+000 1.235444e+000 -2.093876e+000 1.960266e+000 5.291064e-001 1.260272e-001 1.400925e+000 -5.074056e-001 3.815044e-001 -3.388483e-001 4.351203e-002 -1.689223e-001 -5.395734e-001 2.628199e-001 2.189852e-001 5.539404e-001 -3.171734e-001 1.477142e+000 3.728836e-002 -1.725782e-001 1.378843e+000 -8.782976e-002 -9.666574e-002 -1.731488e-002 1.692395e+000
<VARIANCE> 39
 3.453631e-001 1.528407e+000 1.221952e+000 1.138880e+000 1.082806e+000 4.605615e-001 4.111125e+000 9.877686e-001 9.402239e-001 1.396739e+000 2.829415e+000 7.161430e-001 1.732139e-001 8.916678e-001 9.274788e-001 1.952966e+000 3.246162e+000 2.934144e+000 1.286672e+000 1.999516e+000 9.012578e-001 6.270738e-001 1.163960e+000 9.478271e-001 3.073513e-001 1.669128e+000 4.559340e+000 2.249326e+000 7.206494e-001 5.245290e+000 1.708216e+000 4.005952e-001 2.156337e+000 1.808000e+000 4.644839e-001 1.236500e+000 7.794135e-001 5.048814e-001 1.097600e+000
<GCONST> 7.708300e+001
<MIXTURE> 11 3.676727e-002
<MEAN> 39
 -2.551914e+000 -1.423478e+000 2.736737e+000 -3.034942e+000 1.853638e+000 -1.688570e+000 -1.012094e+000 1.744799e+000 -2.236896e+000 7.542899e-001 -1.105557e+000 5.706701e-001 1.852664e+000 -1.126510e+000 -1.311979e-001 3.683657e-001 -2.392022e-001 -3.705359e-001 6.783783e-002 -1.224271e+000 3.284082e-001 6.213933e-001 5.243110e-001 5.276411e-001 -5.787911e-001 -1.073125e-001 8.793299e-001 -3.886633e-001 1.099401e-001 1.029227e+000 1.348133e-001 -1.590421e-001 3.573484e-001 2.093539e-001 7.328380e-001 1.529542e-001 -2.971331e-001 -2.381355e-001 3.277282e-001
<VARIANCE> 39
 3.185869e-001 3.499061e-002 1.030123e-001 1.931383e-001 9.641537e-001 9.502373e-001 2.589598e+000 3.518536e-001 4.432941e-001 3.983257e+000 1.149251e+000 6.310427e+000 1.859432e-002 6.707768e-001 3.603335e-001 6.828635e-001 1.482974e+000 5.238742e-001 2.416274e+000 1.437016e+000 8.241045e-001 1.539098e+000 3.791540e+000 2.349757e+000 3.929492e+000 3.144065e-001 3.773188e-001 7.753803e-001 1.468531e+000 5.569330e-001 2.327808e+000 2.399450e+000 1.592407e+000 5.022759e-001 1.698700e+000 4.041969e+000 3.694286e+000 4.626710e+000 1.651262e+000
<GCONST> 6.880836e+001
<MIXTURE> 12 7.814451e-003
<MEAN> 39
 2.028912e+000 5.820222e-001 2.611376e+000 6.501781e-001 1.444127e+000 -1.497047e+000 1.147896e+000 3.137630e-001 7.752696e-001 -1.430864e+000 -1.221790e+000 -1.659125e+000 1.793329e+000 -4.614311e+000 -4.161566e-001 -4.479322e-001 -3.559944e+000 -1.448111e-002 -1.545034e+000 -1.236414e-001 4.068082e-001 -3.238986e+000 3.820872e-003 -5.087336e-001 -3.594614e-001 -1.797617e+000 -1.792279e+000 -6.418101e-001 -2.707990e-001 -2.046623e+000 -2.349754e+000 -1.739968e-001 -6.989476e-002 1.610720e+000 -9.595877e-002 7.232763e-001 1.872879e+000 1.588482e+000 1.238019e+000
<VARIANCE> 39
 5.412599e-001 3.506726e-002 3.584047e-001 1.596955e+000 3.100270e-001 1.161580e+000 3.060980e-001 2.883199e-001 2.305914e+000 4.598350e-001 3.865874e-001 2.984830e-002 3.752226e-002 9.402954e-001 3.296678e-001 8.417853e-002 1.477300e+000 2.017194e+000 2.230070e-001 5.952230e-002 7.775807e-001 1.325119e-004 6.108691e-001 1.119078e+000 4.577970e-001 1.777946e-001 4.193138e+000 7.784985e-001 2.088354e+000 4.819897e+000 1.363392e+000 8.672522e-001 5.082299e-002 2.969406e-002 3.051689e+000 2.573476e-002 1.404453e-001 1.156212e-001 2.148146e+000
<GCONST> 2.833801e+001
<MIXTURE> 13 2.703890e-001
<MEAN> 39
 -2.053232e+000 1.093623e+000 1.820569e+000 -1.931358e+000 3.987722e-001 1.249628e-001 -6.646775e-002 4.460467e-001 -8.935508e-002 -1.228620e-001 5.635584e-001 -4.881291e-001 1.270002e+000 -8.297513e-002 3.695906e-001 -2.307745e-001 4.083516e-001 6.037247e-001 2.109687e-001 -9.058371e-002 1.331531e-001 2.196178e-001 1.787971e-001 -1.682886e-001 1.746807e-001 -1.619879e-001 6.821678e-001 7.938095e-002 -4.474402e-001 3.694520e-001 -4.593988e-002 -3.209694e-001 -5.622942e-002 -4.173759e-002 -1.823841e-001 1.726493e-002 -2.553639e-001 -8.544894e-002 -4.907136e-001
<VARIANCE> 39
 1.272340e+000 3.624313e-001 1.371850e+000 4.282421e-001 1.469238e+000 1.194737e+000 1.424919e+000 1.481433e+000 1.012851e+000 5.226408e-001 9.849412e-001 4.959724e-001 2.921586e-001 6.952390e-001 7.850186e-001 9.905404e-001 6.137297e-001 1.173610e+000 7.996370e-001 7.426926e-001 1.166099e+000 1.372459e+000 6.437357e-001 1.046415e+000 8.723620e-001 3.484029e-001 1.130068e+000 1.160515e+000 9.737074e-001 8.817493e-001 1.000419e+000 6.056179e-001 7.177429e-001 1.355420e+000 9.248383e-001 7.102350e-001 1.046519e+000 8.342835e-001 4.513846e-001
<GCONST> 6.475668e+001
<MIXTURE> 14 2.600192e-002
<MEAN> 39
 -7.346631e-001 -3.159828e-001 1.727569e+000 -1.721483e+000 1.986054e-002 -4.500875e-001 -1.099157e+000 4.109626e-001 6.978449e-001 -1.409555e+000 -1.481856e+000 -6.937121e-001 1.597913e+000 -4.100405e+000 9.677469e-001 3.741838e-001 -2.034299e+000 3.853298e-001 3.396237e-001 -3.738815e-001 -5.782077e-001 -1.052810e-001 -4.366456e-002 1.111626e-001 7.139623e-002 -1.123895e+000 1.048732e+000 -8.563941e-001 -1.675214e+000 4.627687e-001 -2.005490e+000 -2.679678e-001 6.845549e-001 -6.230272e-001 -4.794536e-001 -1.893632e-001 5.714141e-001 -1.410975e-001 1.012564e+000
<VARIANCE> 39
 2.719702e-001 1.179088e+000 7.744742e-001 6.250818e-001 1.392385e+000 7.082179e-001 1.615165e+000 1.042310e+000 2.948571e+000 1.454748e+000 6.730620e-001 6.725231e-001 1.051331e-001 6.869936e-001 1.379036e-001 3.222427e-001 5.163754e-001 1.279189e+000 1.318416e+000 5.277332e+000 1.132480e+000 1.120282e+000 1.652195e+000 2.319062e+000 1.921098e+000 6.709254e-001 1.900608e+000 3.412654e-001 1.313861e+000 1.149285e+000 5.840726e-001 8.244294e-001 1.387378e+000 9.137653e-001 1.720074e+000 3.729324e+000 1.977305e+000 1.937848e+000 4.758237e-001
<GCONST> 7.054830e+001
<STATE> 6
<NUMMIXES> 14
<MIXTURE> 2 6.378415e-002
<MEAN> 39
 -1.005168e+000 7.145039e-001 -9.834785e-001 -9.059300e-001 -2.072949e-001 -1.444778e+000 -8.494850e-001 -1.026276e+000 -5.463158e-001 -3.569879e-001 2.782743e-001 4.205860e-001 5.331918e-001 3.773873e-001 2.717706e-002 2.091737e-001 8.777308e-001 -1.782317e-001 1.331946e-001 2.856627e-001 -1.107213e-001 -4.728746e-001 -5.246238e-001 -7.513341e-002 4.210038e-001 -6.479589e-001 -2.310629e-001 4.608291e-001 1.075403e+000 6.625199e-001 7.071469e-001 1.333089e+000 1.289400e+000 1.055582e+000 6.735563e-001 3.581829e-001 6.206005e-002 -3.817751e-001 3.453324e-001
<VARIANCE> 39
 3.527353e-001 5.139060e-001 1.547952e+000 6.263728e-001 1.121267e+000 1.931467e+000 1.520604e+000 1.283238e+000 1.292544e+000 2.095409e+000 1.420948e+000 1.612763e+000 2.325621e-001 2.370747e+000 1.963503e+000 2.145609e+000 1.943341e+000 1.437683e+000 2.204376e+000 2.122938e+000 2.430437e+000 2.622637e+000 1.322360e+000 1.766010e+000 2.149985e+000 1.953889e+000 1.181689e+000 1.236325e+000 3.797871e+000 2.692667e+000 2.277046e+000 2.659066e+000 1.541003e+000 1.869463e+000 1.979548e+000 1.803783e+000 2.389711e+000 2.892485e+000 1.163313e+000
<GCONST> 8.967488e+001
<MIXTURE> 3 7.377253e-002
<MEAN> 39
 -1.856454e+000 1.274995e+000 1.019880e+000 -1.102467e+000 7.465808e-001 5.365291e-001 -4.836189e-001 7.296216e-001 -8.006479e-001 5.952502e-001 5.695977e-001 -4.156296e-001 7.361621e-001 -1.459440e-001 -6.233310e-002 -1.288804e-002 -1.748669e-001 4.087288e-002 1.101109e-001 -1.520342e-002 2.771293e-001 1.759212e-001 1.865340e-001 1.966949e-001 1.144476e-001 5.317560e-003 2.892736e-001 -6.162526e-002 -7.529078e-002 3.593910e-003 2.798345e-002 -2.086999e-001 6.918464e-002 -1.798649e-001 1.998732e-002 -7.237460e-002 -1.893332e-001 -7.944372e-002 -1.440046e-001
<VARIANCE> 39
 5.202661e-002 9.439616e-002 1.620703e-001 1.691725e-001 2.928665e-001 9.784645e-001 1.031477e+000 3.674895e-001 4.065742e-001 2.367980e-001 4.716037e-001 4.956761e-001 8.091866e-003 2.196574e-001 1.459974e-001 4.880758e-001 5.496644e-001 4.568117e-001 9.391602e-001 6.749308e-001 4.890939e-001 6.181481e-001 6.676824e-001 5.581672e-001 4.797422e-001 9.843800e-002 3.832423e-001 1.955607e-001 6.521692e-001 6.180691e-001 4.178365e-001 8.328832e-001 7.109591e-001 4.733200e-001 6.613758e-001 9.579758e-001 6.348292e-001 6.347999e-001 1.157600e-001
<GCONST> 3.153687e+001
<MIXTURE> 4 2.970985e-002
<MEAN> 39
 -2.034642e+000 1.051173e+000 1.883070e+000 -2.963955e-001 -1.580077e+000 -2.699614e-001 1.327422e+000 -3.242839e-001 9.529347e-001 4.886633e-002 7.438894e-001 -2.748559e-002 5.759504e-001 -4.087814e-001 1.152441e-001 -1.967954e-001 -3.405585e-001 2.486202e-003 -1.868362e-001 -3.168865e-001 2.692377e-002 -1.262430e-001 3.804175e-002 3.477388e-001 3.489020e-001 -2.309323e-001 6.264611e-001 8.419282e-002 -5.529307e-001 6.355908e-002 5.472113e-001 -8.849200e-002 -4.977297e-001 1.481912e-001 -3.840424e-001 1.293016e-001 -1.067695e-001 -1.556993e-001 -3.411480e-001
<VARIANCE> 39
 4.748888e-002 1.558177e-001 1.138354e-001 1.748762e+000 3.472115e-001 3.394765e-001 8.259781e-001 4.217116e-001 3.319617e-001 4.030091e-001 3.615717e-001 3.786027e-001 4.939358e-002 4.818591e-001 7.094429e-001 6.291681e-001 1.137468e+000 1.240773e+000 1.083625e+000 8.118076e-001 5.275767e-001 7.312570e-001 7.705848e-001 1.161382e+000 1.169572e+000 3.503740e-001 4.570431e-001 9.297041e-001 6.227909e-001 1.592321e+000 7.729973e-001 1.234367e+000 7.901116e-001 7.464207e-001 5.970672e-001 1.162856e+000 1.173001e+000 1.074505e+000 1.484466e-001
<GCONST> 4.819988e+001
<MIXTURE> 5 3.687414e-002
<MEAN> 39
 -2.944168e+000 -6.043589e-001 2.852369e+000 -1.973737e+000 9.197465e-001 -1.840909e-001 -1.074652e+000 9.700450e-001 -6.674533e-001 -1.896519e-001 -1.931149e-001 -7.496774e-001 1.527307e+000 8.509350e-002 5.577074e-001 -6.785442e-001 -6.166641e-002 1.320425e+000 8.290557e-002 -4.024095e-001 6.939606e-001 -2.217358e-001 5.143580e-001 -5.942039e-001 -7.668912e-002 -7.813091e-001 1.235621e+000 2.804906e-001 -1.338556e+000 3.231341e-001 -2.387166e-001 -5.947681e-001 2.278248e-001 -1.255438e-002 1.037272e-001 2.971598e-001 7.492060e-002 6.876161e-001 -1.514752e+000
<VARIANCE> 39
 2.911488e-001 1.525342e+000 4.863181e-001 1.020747e+000 4.550450e+000 3.798989e+000 2.500409e+000 3.292407e+000 2.639187e+000 5.573931e+000 2.235125e+000 1.621953e+000 1.858164e-001 9.532956e-001 7.155501e-001 2.140069e+000 2.296608e+000 1.387353e+000 2.773275e+000 2.899749e+000 2.765773e+000 3.238861e+000 2.919472e+000 1.862635e+000 4.379656e+000 7.327490e-001 2.164490e+000 1.372300e+000 2.219954e+000 2.759097e+000 3.245636e+000 4.336850e+000 2.171880e+000 1.874187e+000 3.650950e+000 3.593419e+000 2.424840e+000 3.449859e+000 1.163692e+000
<GCONST> 9.788952e+001
<MIXTURE> 6 1.289544e-001
<MEAN> 39
 -1.413809e+000 1.347969e+000 -5.630428e-001 4.783139e-002 7.370136e-001 -6.354881e-001 7.568715e-001 -2.834225e-001 -2.593269e-002 9.491099e-002 -4.760434e-002 5.976720e-001 7.754324e-001 1.101314e+000 -5.940157e-001 -9.387627e-003 4.778525e-001 -2.115079e-002 1.064129e-001 3.888778e-002 2.526349e-001 1.494308e-001 2.709742e-002 1.973534e-001 4.204317e-002 -9.848648e-001 7.905619e-001 -8.975533e-001 6.337430e-001 -4.501220e-001 -2.636845e-001 -3.701742e-002 -5.065242e-001 2.622547e-001 3.521358e-001 -1.517360e-003 3.622272e-001 -5.108176e-001 -5.238303e-001
<VARIANCE> 39
 2.870517e-001 5.998945e-001 1.089941e+000 1.308788e+000 6.833044e-001 1.646017e+000 1.542593e+000 1.057045e+000 9.769422e-001 7.903606e-001 1.439533e+000 1.143774e+000 1.672230e-001 2.309684e+000 1.611646e+000 2.406802e+000 1.239796e+000 1.489642e+000 1.746590e+000 2.137255e+000 1.967581e+000 1.348821e+000 8.842956e-001 1.553642e+000 1.819268e+000 1.820848e+000 1.773169e+000 2.515760e+000 2.187402e+000 1.009199e+000 1.279432e+000 1.928158e+000 1.327184e+000 2.094907e+000 1.363032e+000 1.113184e+000 1.845036e+000 1.231540e+000 1.412161e+000
<GCONST> 8.174178e+001
<MIXTURE> 7 1.453738e-001
<MEAN> 39
 -3.748103e-001 7.377988e-001 8.840563e-001 -2.608192e-001 4.358559e-001 4.105027e-001 -2.442775e-001 2.490275e-001 5.189078e-001 -8.346845e-002 4.075524e-001 -5.779595e-001 3.454331e-002 6.663056e-001 -1.022612e+000 -5.758277e-001 -2.883190e-002 -2.333378e-001 -4.572325e-001 1.005907e-001 -1.679316e-001 1.332510e-001 -3.465029e-002 2.141319e-001 4.223002e-002 -8.244678e-001 -1.407690e+000 3.912792e-002 -3.318521e-001 -5.394040e-001 -4.481939e-002 -6.213155e-001 3.191323e-001 6.428991e-003 -6.009324e-001 1.923496e-001 -3.306708e-001 4.448471e-001 1.585050e+000
<VARIANCE> 39
 5.704842e-001 6.185967e-001 9.253085e-001 1.325086e+000 1.143933e+000 1.047095e+000 1.224208e+000 8.727033e-001 1.106754e+000 7.039919e-001 1.226847e+000 9.629778e-001 4.610996e-001 3.092646e+000 2.398480e+000 2.786493e+000 2.448959e+000 2.377701e+000 2.472294e+000 1.617337e+000 1.710627e+000 1.757622e+000 1.529020e+000 2.008983e+000 1.433546e+000 2.468494e+000 1.053031e+000 2.027216e+000 2.466120e+000 2.072759e+000 1.643592e+000 1.676915e+000 1.582435e+000 1.289726e+000 1.751327e+000 1.202929e+000 1.376778e+000 1.420602e+000 1.775537e+000
<GCONST> 8.599951e+001
<MIXTURE> 8 1.753199e-002
<MEAN> 39
 -1.359110e+000 -3.633199e+000 -1.750581e+000 3.135597e-001 2.488007e+000 2.110681e+000 2.747661e+000 -5.845243e-001 7.873394e-001 6.240044e-001 8.672761e-001 9.802775e-001 1.827754e+000 -6.401213e-001 -3.735333e-001 -2.643816e-001 7.693213e-002 -1.271686e-001 -2.435950e-001 -5.613944e-001 2.094681e-002 1.057998e-001 -5.096117e-001 -4.397950e-001 -4.577526e-001 -3.690678e-001 4.850188e-001 5.412113e-001 7.879004e-001 5.926049e-001 6.796152e-001 1.145546e+000 8.366715e-001 6.984807e-001 -3.185422e-002 -3.042697e-001 1.756390e-001 3.302848e-001 2.354410e-002
<VARIANCE> 39
 7.438468e-002 3.438727e-002 3.439720e-002 1.550498e+000 2.215225e-001 3.780625e-001 3.401197e-001 5.615243e-001 1.008059e+000 2.264757e+000 8.008400e-001 1.160281e+000 1.251991e-002 4.729860e-001 5.432716e-001 1.325139e+000 1.365778e+000 1.343696e+000 2.992959e+000 3.395571e+000 2.541004e+000 1.532067e+000 2.903424e+000 5.881617e+000 2.722212e+000 4.269017e-001 6.891099e-001 1.113844e+000 9.221846e-001 1.568722e+000 7.670713e-001 1.757589e+000 2.224872e+000 2.222323e+000 1.972274e+000 2.337533e+000 5.839638e+000 2.466572e+000 1.030077e+000
<GCONST> 6.743644e+001
<MIXTURE> 9 2.901764e-001
<MEAN> 39
 7.956898e-002 3.047569e-001 2.151580e-001 -1.511942e-001 2.996620e-001 -2.067934e-002 1.944025e-001 3.067378e-001 2.462018e-001 2.434001e-001 1.749305e-001 2.011018e-002 -2.570928e-001 2.343737e-001 -2.030641e-002 -6.072539e-002 2.152641e-001 4.439587e-002 -3.313129e-002 2.840775e-002 7.013101e-003 1.180758e-001 1.136952e-001 7.272762e-003 -2.176330e-004 -2.354182e-001 -2.820266e-001 9.680758e-002 -3.432493e-002 -7.141451e-002 6.972315e-002 -6.669675e-002 -1.503999e-001 -8.983330e-002 -9.965518e-003 -6.832052e-002 -8.064730e-002 8.433279e-002 2.084181e-001
<VARIANCE> 39
 2.275520e-001 1.359412e-001 3.684882e-001 2.439032e-001 7.406917e-001 7.750218e-001 5.300503e-001 4.557160e-001 3.100846e-001 5.829091e-001 5.621329e-001 7.016194e-001 2.643995e-001 2.951590e-001 2.778530e-001 4.859201e-001 3.801072e-001 5.195128e-001 5.962619e-001 5.465430e-001 7.414249e-001 6.912240e-001 7.960326e-001 7.668444e-001 1.093529e+000 2.843409e-001 6.245213e-001 4.290510e-001 5.326300e-001 5.019423e-001 5.107837e-001 6.779297e-001 6.431957e-001 7.980387e-001 8.350967e-001 7.971979e-001 8.416191e-001 9.548869e-001 5.000021e-001
<GCONST> 4.586657e+001
<MIXTURE> 10 1.121018e-001
<MEAN> 39
 -1.997022e+000 1.399229e+000 1.113822e+000 -1.518782e+000 6.573468e-001 2.739485e-001 -3.075003e-001 6.658456e-001 9.576270e-002 2.027486e-001 2.942386e-002 -4.573480e-001 9.378249e-001 1.446239e+000 2.433600e-002 -1.463820e+000 9.302294e-001 3.201446e-001 -1.493674e-001 -3.251720e-001 -9.588906e-002 2.746386e-001 2.106619e-001 -1.658345e-001 1.270857e-002 -1.796845e+000 1.476230e+000 -1.299549e+000 -1.953978e-002 9.193385e-001 -9.516501e-001 -6.807063e-002 3.214874e-001 -6.323393e-001 2.587975e-001 -1.738423e-001 4.666616e-001 1.153498e-001 -1.363600e+000
<VARIANCE> 39
 6.456160e-001 4.940140e-001 8.098941e-001 5.855128e-001 1.822379e+000 1.359034e+000 1.504243e+000 1.534308e+000 1.079047e+000 9.052939e-001 8.913732e-001 1.294362e+000 3.115151e-001 1.380861e+000 1.739441e+000 2.332020e+000 1.737167e+000 2.329409e+000 1.667664e+000 1.761362e+000 2.700712e+000 1.329829e+000 1.277805e+000 1.410383e+000 8.964091e-001 1.696869e+000 7.172980e-001 1.576648e+000 1.315915e+000 9.567267e-001 2.198068e+000 1.471806e+000 1.576080e+000 2.596378e+000 1.720915e+000 1.339506e+000 1.211417e+000 1.651345e+000 1.338515e+000
<GCONST> 8.172684e+001
<MIXTURE> 11 3.765162e-003
<MEAN> 39
 1.530509e-001 -2.504918e+000 -1.005685e+000 3.060487e-001 2.054289e+000 2.471600e+000 2.468003e+000 1.734152e+000 2.091650e+000 2.603100e+000 1.872140e+000 -7.354968e-001 1.714972e+000 -1.080189e+000 -4.192125e+000 9.160245e-001 1.170369e+000 1.870216e+000 2.090384e+000 5.572720e-001 -2.237359e+000 -1.592697e+000 1.339950e+000 4.717031e-001 3.419624e+000 1.127065e+000 -1.048327e+000 4.268591e+000 1.529570e+000 6.390556e-001 2.569120e+000 8.188210e-001 1.147848e+000 -2.933306e+000 -2.114064e+000 -3.277057e+000 -1.828217e+000 1.527128e+000 2.186849e+000
<VARIANCE> 39
 3.848096e-002 1.294773e-001 6.596349e-002 8.807806e-001 5.854532e-001 1.278584e-001 1.237520e-001 1.425077e+000 4.012895e-001 2.562212e-001 1.493568e-001 2.165691e+000 1.048941e-002 1.403149e-001 3.172634e+000 9.734216e-001 2.614232e+000 2.697247e+000 4.042579e-001 1.664973e+000 2.847180e+000 3.197597e+000 5.080376e+000 2.189003e+000 1.073023e+000 6.911921e-001 2.811873e-001 2.746603e-001 5.208603e+000 8.017631e-001 2.727417e+000 1.005703e+000 9.535768e-002 1.360930e+000 1.114351e-001 7.395433e-001 3.802920e-001 1.706472e+000 1.170813e+000
<GCONST> 5.134601e+001
<MIXTURE> 12 9.168070e-002
<MEAN> 39
 -2.218154e+000 9.127578e-001 1.003558e-002 -1.278522e+000 6.050637e-001 8.158100e-002 -3.507863e-001 1.392440e-001 3.012876e-001 5.381722e-001 1.137023e-001 -3.339426e-001 8.699347e-001 -1.424536e-002 1.268327e-001 1.699323e-001 6.191653e-002 1.825101e-001 1.164730e-002 1.791191e-001 2.319783e-001 4.637028e-002 1.388415e-001 -1.692973e-001 3.443657e-001 -2.690120e-001 4.290157e-001 1.856143e-001 1.480870e-002 3.438300e-001 1.590429e-001 -1.341058e-001 1.400505e-001 -2.505235e-001 4.654606e-002 -2.421702e-001 -1.595218e-001 6.672462e-002 -2.889442e-001
<VARIANCE> 39
 1.132786e-001 1.348414e-001 9.570203e-001 3.840148e-001 5.419349e-001 1.050108e+000 1.568708e+000 5.694876e-001 8.603556e-001 9.097118e-001 9.797915e-001 7.418761e-001 1.151911e-001 1.714851e-001 2.592787e-001 1.234491e+000 6.745564e-001 1.040248e+000 1.042941e+000 1.496036e+000 8.109897e-001 1.388407e+000 1.230427e+000 1.538383e+000 1.394768e+000 1.693469e-001 2.192526e-001 3.039351e-001 9.759874e-001 1.023617e+000 9.971613e-001 8.730066e-001 1.683139e+000 8.559756e-001 1.641960e+000 1.703027e+000 1.065890e+000 1.448695e+000 2.341925e-001
<GCONST> 5.712303e+001
<MIXTURE> 14 6.275265e-003
<MEAN> 39
 -6.196895e-001 -3.239201e+000 -8.877624e-001 1.166054e+000 3.335601e+000 3.713839e+000 3.727467e+000 6.517134e-002 3.597438e-001 7.499191e-001 1.539653e+000 2.011903e+000 1.918202e+000 -7.885528e-001 -3.687085e-001 -1.231742e+000 -6.619658e-001 1.525587e-001 -1.951293e-001 8.352003e-001 -1.464365e+000 -6.879743e-001 -8.593027e-001 5.439635e-002 1.500755e+000 5.616462e-001 -5.020027e-001 1.226167e-001 -2.011885e+000 -1.620656e+000 -1.984557e+000 -2.972334e+000 -2.662018e+000 2.621950e-001 1.473879e+000 1.382588e+000 -4.887991e-001 -2.141652e+000 -8.368174e-001
<VARIANCE> 39
 2.250975e-001 2.751561e-002 4.761448e-002 1.577888e+000 2.694517e-001 1.380493e-001 1.227149e-001 9.997935e-001 6.783687e-001 4.367604e-001 2.701573e-001 3.845597e+000 5.750612e-003 1.007534e+000 1.218091e+000 1.594320e+000 4.316027e+000 1.640222e+000 4.098082e+000 2.453062e+000 6.319395e+000 3.068527e+000 1.976969e+000 7.459795e-001 2.282331e+000 7.314358e-001 6.502366e-002 1.173017e+000 8.557653e-001 2.304409e+000 8.558740e-001 1.516380e-001 6.512515e-001 6.043433e+000 1.541191e+000 2.830092e+000 1.711820e+000 4.501719e+000 5.049299e-001
<GCONST> 6.134558e+001
<STATE> 7
<NUMMIXES> 14
<TRANSP> 8
 0.000000e+000 1.000000e+000 0.000000e+000 0.000000e+000 0.000000e+000 0.000000e+000 0.000000e+000 0.000000e+000
 0.000000e+000 9.167363e-001 8.326373e-002 0.000000e+000 0.000000e+000 0.000000e+000 0.000000e+000 0.000000e+000
 0.000000e+000 0.000000e+000 9.301358e-001 6.986418e-002 0.000000e+000 0.000000e+000 0.000000e+000 0.000000e+000
 0.000000e+000 0.000000e+000 0.000000e+000 9.087119e-001 9.128816e-002 0.000000e+000 0.000000e+000 0.000000e+000
 0.000000e+000 0.000000e+000 0.000000e+000 0.000000e+000 8.853883e-001 1.146118e-001 0.000000e+000 0.000000e+000
 0.000000e+000 0.000000e+000 0.000000e+000 0.000000e+000 0.000000e+000 9.447617e-001 5.523829e-002 0.000000e+000
 0.000000e+000 0.000000e+000 0.000000e+000 0.000000e+000 0.000000e+000 0.000000e+000 8.161660e-001 1.838341e-001
 0.000000e+000 0.000000e+000 0.000000e+000 0.000000e+000 0.000000e+000 0.000000e+000 0.000000e+000 0.000000e+000
<ENDHMM>
