~o
<STREAMINFO> 1 39
<VECSIZE> 39<NULLD><MFCC_E_D_A_Z><DIAGC>
~h "sil"
<BEGINHMM>
<NUMSTATES> 8
<STATE> 2
<NUMMIXES> 14
<MIXTURE> 1 4.856584e-002
<MEAN> 39
 2.208363e-001 -1.351006e-001 1.037749e-001 4.356949e-001 3.561154e-001 2.428738e-001 1.875719e-001 3.965671e-001 2.411724e-001 1.545499e-002 4.324663e-002 1.129632e-001 -5.083354e-001 1.798723e+000 -3.003919e-001 1.104530e+000 1.050450e+000 1.328419e+000 7.944481e-001 6.458002e-001 9.525263e-001 2.071951e-001 2.509622e-001 3.732016e-002 8.829007e-002 -1.792930e+000 -1.633072e+000 7.365938e-001 -1.192293e+000 -2.082630e+000 -1.584730e+000 -8.852301e-001 -6.271504e-001 -1.476821e+000 -5.290146e-001 -4.961519e-001 -5.442867e-002 -1.444542e-001 2.954348e+000
<VARIANCE> 39
 7.974425e-002 9.166684e-002 1.304450e-001 5.659149e-003 5.937789e-002 7.240947e-002 6.358891e-002 5.924319e-003 4.142321e-002 8.802903e-002 7.935006e-002 8.658206e-002 6.910259e-003 3.210841e+000 1.943901e+000 2.741957e+000 3.110470e+000 2.412339e+000 1.934795e+000 2.427894e+000 2.249943e+000 1.862328e+000 1.781688e+000 2.157902e+000 2.421337e+000 2.911286e+000 2.553879e+000 2.319595e+000 2.646539e+000 2.007973e+000 1.559394e+000 1.678385e+000 1.324074e+000 1.635830e+000 1.696067e+000 2.194786e+000 2.266878e+000 1.843512e+000 1.370423e+000
<GCONST> 5.002345e+001
<MIXTURE> 2 1.888893e-001
<MEAN> 39
 2.652803e-002 2.293307e-001 6.683525e-002 4.114457e-001 1.454679e-001 2.186019e-002 3.036407e-001 2.145910e-001 1.079142e-001 1.957844e-001 1.268324e-001 1.854213e-001 -5.906570e-001 -2.392390e-002 -4.797675e-002 -5.750751e-003 1.622082e-001 3.498947e-002 7.663093e-002 1.062453e-001 5.339457e-002 -5.886944e-003 -6.359643e-003 -5.995447e-003 1.529291e-002 -1.647659e-002 -4.718999e-002 -5.083481e-002 4.333345e-004 -2.103890e-002 -3.674283e-002 5.153696e-003 -1.215516e-001 -2.547400e-002 5.851945e-002 7.626693e-002 2.004098e-002 2.335438e-002 4.792457e-002
<VARIANCE> 39
 2.581236e-001 3.066086e-001 3.933828e-001 3.118583e-001 4.293360e-001 4.729353e-001 3.656449e-001 4.116995e-001 4.637849e-001 4.187307e-001 4.619626e-001 3.748156e-001 7.518898e-002 1.345383e-001 2.427455e-001 3.844518e-001 3.909435e-001 4.654799e-001 5.799367e-001 4.885582e-001 4.299878e-001 5.298956e-001 6.049970e-001 4.798666e-001 5.398250e-001 8.980978e-002 1.100201e-001 1.600907e-001 2.891480e-001 2.222322e-001 3.837575e-001 3.398573e-001 3.276499e-001 3.668441e-001 4.183316e-001 3.409266e-001 3.528835e-001 3.683151e-001 1.454131e-001
<GCONST> 2.763370e+001
<MIXTURE> 3 1.551607e-001
<MEAN> 39
 -4.976737e-001 -1.048996e-001 5.427019e-002 -1.994898e-002 -1.962000e-001 -4.125744e-001 1.524447e-001 3.987386e-001 5.076262e-001 5.081587e-001 3.550792e-001 2.752167e-001 -5.575372e-001 -1.812660e-001 -5.684239e-002 1.002602e-001 1.325517e-001 1.422778e-001 1.834299e-001 1.074773e-001 -1.261380e-001 -3.035064e-002 -7.614832e-002 9.083968e-003 3.162637e-002 7.679780e-001 3.844361e-002 1.514585e-001 6.131117e-002 1.422245e-001 9.262842e-002 2.684287e-002 -1.317117e-001 -1.147819e-001 -3.552998e-001 -4.452896e-001 -3.545914e-001 -2.559608e-001 -2.778510e-001
<VARIANCE> 39
 3.874775e-001 4.367903e-001 7.525487e-001 5.942184e-001 1.069272e+000 6.124759e-001 7.503663e-001 9.534333e-001 9.553298e-001 6.603946e-001 9.338230e-001 1.083110e+000 4.929374e-001 8.657777e-001 1.218548e+000 1.171118e+000 1.307682e+000 1.815922e+000 1.129421e+000 1.175063e+000 1.326446e+000 1.064388e+000 1.160860e+000 1.277486e+000 1.474850e+000 2.267616e+000 4.601371e-001 5.347299e-001 6.905346e-001 7.675210e-001 1.042640e+000 7.118359e-001 7.596242e-001 1.015285e+000 9.439382e-001 9.024675e-001 8.585299e-001 1.278735e+000 1.082655e+000
<GCONST> 6.790429e+001
<MIXTURE> 4 7.129532e-002
<MEAN> 39
 -2.856328e-001 1.475622e-001 -3.094921e-001 3.668291e-001 -6.032285e-002 2.349978e-001 2.508541e-001 2.408637e-002 -3.841456e-004 1.435166e-001 3.098708e-002 3.632617e-001 -5.402143e-001 -6.731457e-001 2.440266e-001 -4.054295e-001 8.255553e-001 1.726502e-003 2.690980e-001 6.575727e-001 1.123577e-001 8.685840e-002 1.423334e-001 2.125661e-001 4.880158e-001 -1.681067e+000 1.091070e+000 -5.861273e-001 1.191391e+000 -1.179094e+000 5.039732e-001 -2.050400e-001 -6.113641e-001 2.014942e-001 -9.401654e-002 1.349639e-001 -1.484946e-001 -7.053524e-001 2.988408e+000
<VARIANCE> 39
 1.004022e-001 2.005688e-001 1.644116e-001 1.273766e-001 4.550461e-001 3.459551e-001 3.883554e-001 4.288112e-001 3.652242e-001 3.600277e-001 4.797959e-001 2.974057e-001 1.074244e-002 6.338620e+000 2.753812e+000 3.467134e+000 1.624689e+000 2.458286e+000 3.439469e+000 1.128226e+000 2.230837e+000 1.837060e+000 1.342567e+000 1.568218e+000 1.990518e+000 2.459627e+000 4.195051e+000 3.755036e+000 3.201798e+000 2.328591e+000 2.331049e+000 2.148746e+000 1.871158e+000 1.988205e+000 2.313515e+000 1.921039e+000 1.668517e+000 1.343647e+000 1.446588e+000
<GCONST> 7.270157e+001
<MIXTURE> 5 1.573792e-001
<MEAN> 39
 -7.454231e-001 -1.526777e-001 7.106276e-001 -7.884100e-001 -7.454395e-001 -4.930550e-001 -2.339747e-001 -3.678854e-001 9.776893e-002 -2.968978e-001 -3.568269e-001 2.829942e-002 1.510683e-001 3.966967e-001 -1.602460e-001 -8.189367e-002 2.830957e-001 3.154082e-002 1.488504e-001 1.561022e-001 1.696075e-001 -3.027991e-002 -1.219364e-001 1.807778e-002 -1.158356e-001 -5.078514e-001 3.597701e-001 2.707810e-001 -2.593438e-001 2.021071e-001 2.578198e-001 1.575200e-001 1.820778e-001 1.721320e-001 4.737067e-002 2.518363e-001 2.938459e-001 1.902748e-001 1.884644e-002
<VARIANCE> 39
 1.614857e+000 1.455833e+000 9.716547e-001 1.152429e+000 1.054377e+000 1.362221e+000 9.987258e-001 1.330054e+000 1.402463e+000 1.288663e+000 1.062808e+000 1.017114e+000 3.242272e-001 1.972866e+000 1.388264e+000 1.174171e+000 1.369925e+000 1.265059e+000 1.023192e+000 1.190650e+000 1.092560e+000 1.504263e+000 9.747392e-001 1.083647e+000 1.076088e+000 5.833135e-001 1.979313e+000 1.705283e+000 1.321710e+000 1.490450e+000 1.495576e+000 1.267498e+000 1.244910e+000 1.103645e+000 1.554467e+000 9.704054e-001 1.108971e+000 1.123203e+000 7.701485e-001
<GCONST> 7.805709e+001
<MIXTURE> 6 1.045816e-001
<MEAN> 39
 -9.063513e-001 -3.022492e-001 -2.386704e-001 -2.356765e-001 -4.250574e-001 3.913567e-002 -1.360938e-001 -5.289495e-002 2.830723e-002 -8.519057e-002 -8.656207e-002 -9.025518e-003 9.460775e-002 7.577080e-001 6.699769e-001 -1.971682e-001 1.149675e+000 6.383832e-001 6.879858e-001 2.689331e-001 3.578982e-001 2.093333e-002 3.942936e-001 2.991007e-001 3.779012e-001 -2.419995e+000 6.730067e-001 2.094215e-001 6.753911e-001 5.391007e-002 4.463229e-001 -1.974486e-002 1.723806e-001 1.165756e-001 3.596215e-001 -3.559499e-002 -1.000526e-001 -1.619550e-002 -1.156164e-001
<VARIANCE> 39
 2.225220e+000 1.313047e+000 2.393313e+000 1.651709e+000 2.547116e+000 2.479789e+000 2.848378e+000 1.730412e+000 1.926236e+000 1.854119e+000 1.666019e+000 2.477189e+000 3.542867e-001 8.970456e+000 5.283121e+000 5.869428e+000 4.167147e+000 5.197041e+000 3.448628e+000 2.968649e+000 3.675715e+000 3.178230e+000 2.746228e+000 3.122787e+000 3.779804e+000 5.250210e+000 5.466518e+000 3.199601e+000 3.504767e+000 3.427885e+000 3.549926e+000 3.245309e+000 3.330050e+000 2.560269e+000 3.150044e+000 2.145132e+000 2.528638e+000 4.030789e+000 3.027630e+000
<GCONST> 1.131146e+002
<MIXTURE> 7 8.140027e-002
<MEAN> 39
 5.698161e-001 1.198053e-001 -8.161292e-003 4.944360e-001 2.271256e-001 3.725265e-001 8.778036e-002 3.994197e-001 1.258018e-001 3.603730e-001 6.668592e-002 2.178073e-001 -7.222055e-001 1.779479e+000 4.238282e-001 1.941980e-001 4.631964e-001 4.649245e-001 6.871402e-001 1.140910e-001 1.381487e-001 -4.953176e-002 2.758452e-001 9.750819e-002 1.895079e-001 -1.544555e+000 -2.354531e+000 -3.203707e-001 1.691131e-001 -6.888857e-001 -5.084558e-001 -8.322871e-001 -1.167326e-003 -4.662620e-001 -7.761669e-003 -4.492025e-001 -8.715228e-002 -6.037534e-002 2.707170e+000
<VARIANCE> 39
 2.542683e-002 1.668640e-001 2.368208e-001 5.099531e-002 1.780989e-001 1.046389e-001 1.465976e-001 5.510303e-002 1.665871e-001 4.214441e-002 1.338665e-001 9.497488e-002 1.407899e-002 2.205237e+000 1.291451e+000 1.684459e+000 1.763901e+000 1.442748e+000 1.788119e+000 1.110425e+000 6.365449e-001 1.246538e+000 8.703440e-001 1.075907e+000 8.828589e-001 2.516960e+000 1.024716e+000 1.981795e+000 2.225707e+000 1.747424e+000 1.695337e+000 1.458633e+000 9.064885e-001 8.371061e-001 1.185756e+000 8.420998e-001 9.677131e-001 8.242087e-001 1.013699e+000
<GCONST> 4.558141e+001
<MIXTURE> 8 6.675906e-002
<MEAN> 39
 -5.360654e-003 6.747756e-001 4.831617e-001 4.678403e-001 6.820715e-001 4.422393e-001 3.325873e-001 3.428166e-001 4.020348e-001 -9.009954e-002 -6.115719e-002 3.086911e-001 -3.942386e-001 1.627279e-001 1.257600e-001 -1.950318e-001 1.269990e-001 3.332658e-001 4.634959e-001 8.178391e-002 1.841221e-001 5.801654e-001 2.052290e-001 2.581362e-001 4.703301e-001 -3.184174e-001 -4.834669e-001 -7.243616e-001 -7.997812e-001 -8.539634e-001 -8.984762e-001 -7.403278e-001 -1.779528e-001 -3.803702e-001 -1.976878e-001 2.804759e-001 1.228775e-001 -1.602014e-001 1.713654e-001
<VARIANCE> 39
 1.132007e+000 6.447225e-001 6.438337e-001 5.481614e-001 4.649171e-001 8.469979e-001 4.950514e-001 5.707834e-001 3.469555e-001 9.121304e-001 5.620072e-001 5.722700e-001 5.156508e-001 2.352790e+000 2.479552e+000 2.309418e+000 1.247121e+000 1.954647e+000 1.775250e+000 1.643900e+000 1.307598e+000 1.148509e+000 1.344254e+000 8.310237e-001 1.395909e+000 3.587723e+000 1.849706e+000 1.614199e+000 1.727865e+000 8.144124e-001 1.223419e+000 1.077583e+000 1.256180e+000 1.263560e+000 9.340308e-001 1.525763e+000 1.173607e+000 1.171066e+000 3.978784e+000
<GCONST> 7.609599e+001
<MIXTURE> 10 1.135458e-001
<MEAN> 39
 9.264662e-001 9.732254e-001 -5.670370e-001 -6.661167e-001 -8.277166e-001 -1.112160e+000 -8.342820e-001 -6.717601e-001 -3.722992e-001 3.693135e-001 6.623125e-001 5.577531e-001 1.082621e-001 -7.186890e-001 -1.521955e-001 2.187863e-001 5.774229e-001 2.732061e-001 -6.563843e-003 1.466595e-001 6.438072e-003 -7.976015e-003 6.716747e-002 9.913915e-002 9.957673e-002 -5.975148e-001 1.580525e-003 -1.580854e-001 1.122662e-001 9.678791e-002 1.451216e-001 2.412492e-001 2.224276e-001 9.859795e-002 5.262688e-002 -1.144485e-001 -1.960563e-001 -1.335136e-001 2.291781e-001
<VARIANCE> 39
 4.594238e-001 4.704977e-001 9.870157e-001 6.079367e-001 8.410184e-001 7.460502e-001 5.538402e-001 5.499876e-001 7.349218e-001 8.514097e-001 5.759089e-001 8.731939e-001 2.502222e-001 5.377536e-001 6.831730e-001 7.934064e-001 6.929377e-001 8.304167e-001 8.670934e-001 7.825762e-001 8.610234e-001 8.044292e-001 8.096294e-001 6.126645e-001 8.350099e-001 4.329140e-001 5.949526e-001 8.290976e-001 9.608920e-001 8.324362e-001 7.962680e-001 7.765282e-001 6.241361e-001 9.502689e-001 7.291000e-001 7.239040e-001 5.147983e-001 8.689411e-001 4.704468e-001
<GCONST> 5.704842e+001
<MIXTURE> 13 9.495941e-003
<MEAN> 39
 5.536586e-001 -1.746481e-002 -2.498594e-001 -5.733475e-002 -2.910906e-001 -1.971404e-001 -4.367290e-001 -2.067945e-001 1.831834e-001 7.569496e-002 -5.040311e-001 -1.578838e-001 -4.966030e-001 1.681960e+000 3.456873e-001 3.658839e-001 -3.917175e-001 2.784216e-001 -4.643303e-001 -8.523747e-001 -1.099209e-001 4.566599e-001 -2.097293e-001 9.259256e-003 -9.885951e-001 -2.517005e+000 -3.776515e+000 -1.985176e+000 -1.764593e+000 1.405280e+000 1.809348e+000 1.182587e+000 1.608749e+000 -3.496511e-001 -4.959208e-001 3.744876e-001 1.280616e+000 8.394716e-001 5.467533e+000
<VARIANCE> 39
 8.591130e-002 3.940769e-002 1.816952e-004 8.924169e-003 6.540564e-004 1.376866e-003 2.376851e-002 2.868484e-002 9.963530e-004 6.004380e-003 2.054117e-002 1.053003e-002 1.484472e-002 1.124649e+001 4.010452e+000 4.057905e+000 1.843700e+000 2.181237e+000 1.906952e+000 1.957551e+000 2.194408e+000 1.555795e+000 1.280178e+000 2.201622e+000 1.078890e+000 9.026915e+000 3.842561e+000 1.334927e+001 5.692254e+000 2.824952e+000 4.931729e+000 1.018978e+000 1.078057e+000 2.216308e+000 1.842143e+000 5.101991e-001 6.351637e-001 9.072294e-001 5.042551e+000
<GCONST> 2.943419e+001
<MIXTURE> 14 2.926984e-003
<MEAN> 39
 -1.852227e+000 -5.165477e-002 -5.031747e-001 -2.996334e-001 -5.929953e-001 -1.274676e+000 -6.492776e-001 5.127069e-002 -5.293075e-001 9.175160e-001 -6.696729e-001 8.974952e-001 8.553551e-001 3.953836e+000 1.640787e+000 -1.596857e+000 -3.443061e-001 -4.572023e+000 -8.915175e-001 -3.694274e+000 -1.625674e+000 7.839585e-001 -1.313801e+000 1.165198e+000 -2.158628e+000 -7.297987e+000 1.779960e+000 -1.098586e+000 2.251630e+000 3.383414e-001 3.905932e+000 1.720702e+000 9.400210e-001 -5.399034e-001 -6.911079e-001 -1.801873e+000 3.259620e-001 -1.802142e-001 -2.006593e-001
<VARIANCE> 39
 1.240149e+000 7.082819e-001 3.875744e-001 1.899044e+000 1.373073e+000 2.273287e+000 1.020712e+000 1.349447e+000 1.678436e-001 2.722843e-001 1.041848e+000 7.135641e-001 5.385500e-001 5.777483e+000 2.443727e+001 6.888720e+000 1.863161e+001 3.136404e+000 3.639388e+000 1.413012e+000 7.773635e+000 3.147681e+000 8.061709e+000 7.157496e+000 6.893024e-001 4.288645e+000 4.815698e+000 1.527043e+001 8.994229e+000 2.834015e+000 3.405951e+000 1.859969e+000 2.531952e+000 1.975994e+000 3.147006e+000 3.329909e+000 5.820595e+000 8.131731e-001 2.912854e+000
<GCONST> 1.055859e+002
<STATE> 3
<NUMMIXES> 14
<MIXTURE> 4 4.532599e-004
<MEAN> 39
 -5.899730e-001 -6.799780e-001 -8.346806e-001 1.728543e-001 1.434731e+000 1.220166e+000 1.481885e+000 1.526084e+000 -5.029745e-002 -9.598110e-001 -1.967363e-001 -3.321053e-002 -5.011329e-001 1.144885e-001 -1.292432e-001 -4.999340e-001 -4.679429e-001 -1.558064e-001 7.133965e-001 -4.961724e-001 -8.456067e-001 -9.487259e-001 -7.400869e-001 -8.572757e-003 8.297285e-001 1.342745e-009 3.966192e-001 1.046149e+000 1.095354e+000 3.910345e-001 -2.867933e+000 -1.904122e+000 -1.710899e+000 -1.930505e+000 3.631373e-002 1.001860e+000 4.175400e-001 3.996020e-001 -2.060669e-009
<VARIANCE> 39
 6.858825e-004 2.466459e-002 3.734509e-002 1.563075e-002 1.600106e-002 2.368993e-001 1.175823e-002 4.326866e-002 3.771031e-003 6.578895e-002 7.761578e-003 1.167708e-002 1.624245e-003 8.931229e-005 2.997752e-004 3.592493e-002 7.721561e-003 4.169071e-003 2.075233e-003 1.550140e-003 4.543127e-002 4.150534e-003 4.342495e-003 4.989645e-002 4.986570e-003 2.877162e-019 1.306782e-004 3.422583e-002 9.519494e-002 3.452509e-003 8.953081e-002 1.217427e-001 1.347000e-002 3.216647e-002 8.795767e-002 2.092879e-002 4.361336e-003 1.234647e-002 4.395467e-018
<GCONST> -1.814015e+002
<MIXTURE> 5 3.981749e-001
<MEAN> 39
 -4.554009e-001 1.812228e-001 -1.547890e-001 4.333631e-001 -9.105364e-003 1.726333e-001 -1.463480e-001 -3.053948e-001 -3.114712e-001 1.183763e-001 7.040125e-002 4.944951e-001 -5.474555e-001 3.243515e-003 2.343734e-002 3.899413e-002 5.705063e-003 -2.950145e-002 -6.324834e-002 -2.322151e-002 9.673816e-003 1.557663e-002 -1.229236e-002 -4.496331e-002 3.416283e-002 2.234673e-011 5.361797e-003 -8.114875e-002 -1.417442e-001 -2.036207e-001 -1.201217e-001 7.277339e-002 3.047707e-001 4.716869e-001 3.616594e-001 8.723827e-002 -2.100575e-001 -2.859100e-001 -5.153552e-010
<VARIANCE> 39
 2.881015e-002 1.435407e-001 2.230604e-001 2.109039e-001 3.946801e-001 4.115588e-001 4.504299e-001 4.582760e-001 5.321268e-001 5.644478e-001 6.506332e-001 4.493922e-001 9.050143e-003 7.562788e-002 2.392370e-001 3.675681e-001 4.819729e-001 5.548450e-001 5.711500e-001 6.381388e-001 7.239402e-001 7.567986e-001 8.053985e-001 8.084738e-001 7.212262e-001 4.288027e-018 1.098331e-001 3.029220e-001 4.502535e-001 5.115014e-001 6.131967e-001 6.997144e-001 6.184703e-001 5.900379e-001 7.185907e-001 8.646528e-001 8.452181e-001 6.935841e-001 4.136858e-018
<GCONST> -4.385211e+001
<MIXTURE> 8 5.076405e-001
<MEAN> 39
 -3.228858e-001 1.391452e-001 -2.868963e-001 2.623715e-001 -4.361699e-002 2.575255e-001 2.425137e-001 4.228153e-001 2.652934e-001 2.443628e-001 -2.346272e-001 1.213708e-001 -5.438332e-001 -1.662497e-002 -2.564019e-002 -1.643907e-002 -8.228034e-003 2.300189e-002 3.971744e-002 1.827405e-002 -8.124342e-004 -2.130473e-004 2.406684e-003 2.917816e-002 -2.272605e-002 1.471204e-010 -5.181645e-003 5.246170e-002 1.026530e-001 1.520400e-001 8.723042e-002 -5.664237e-002 -2.377124e-001 -3.589948e-001 -2.850636e-001 -6.087453e-002 1.766030e-001 2.230645e-001 -9.568801e-010
<VARIANCE> 39
 1.579855e-001 2.131234e-001 2.098137e-001 2.833109e-001 3.779787e-001 3.129883e-001 4.165562e-001 3.283394e-001 3.845147e-001 4.256571e-001 4.359789e-001 3.899673e-001 1.185249e-002 6.034960e-002 1.669940e-001 2.506805e-001 3.609557e-001 4.219300e-001 4.923747e-001 5.166520e-001 5.678455e-001 6.294427e-001 5.651497e-001 5.878680e-001 5.489150e-001 4.142914e-018 1.103551e-001 2.444069e-001 3.385914e-001 4.079439e-001 4.946594e-001 5.260934e-001 4.935878e-001 4.659416e-001 5.650033e-001 6.282405e-001 5.764253e-001 5.210271e-001 5.585966e-018
<GCONST> -4.903843e+001
<MIXTURE> 9 5.840011e-002
<MEAN> 39
 -5.181218e-002 -1.160553e-001 -2.208749e-001 2.283054e-001 2.304969e-001 1.464832e-001 2.550333e-001 2.367825e-001 7.670810e-002 -3.520548e-003 -3.257861e-002 6.380154e-002 -5.684328e-001 -3.951943e-002 -5.697725e-002 -9.225675e-002 7.752273e-002 -3.613701e-002 -4.920957e-002 -1.798923e-001 -2.030721e-001 -5.066115e-002 1.098388e-002 -6.987251e-002 -8.913045e-002 -1.011460e-001 -2.593725e-001 6.547453e-002 9.296876e-002 -4.821921e-002 -1.216878e-001 -2.721882e-001 -2.698238e-001 -9.089831e-002 1.126797e-001 6.578705e-002 3.787959e-002 1.634696e-002 5.980895e-001
<VARIANCE> 39
 2.227952e-001 3.098350e-001 3.178078e-001 4.289156e-001 2.934654e-001 3.087281e-001 4.036239e-001 5.018059e-001 4.878466e-001 5.740758e-001 4.774269e-001 5.923008e-001 4.177820e-002 1.757808e-001 3.155023e-001 3.392166e-001 5.849591e-001 5.691107e-001 4.571155e-001 3.973613e-001 5.867525e-001 7.339157e-001 6.884833e-001 7.730563e-001 7.074426e-001 1.208701e-001 1.104870e+000 6.070504e-001 7.777423e-001 9.980736e-001 8.746251e-001 8.723737e-001 7.345103e-001 8.286781e-001 8.278404e-001 7.809513e-001 6.916046e-001 8.719990e-001 4.429941e-001
<GCONST> 4.341496e+001
<MIXTURE> 11 6.798948e-004
<MEAN> 39
 -1.214261e+000 -2.433138e+000 1.069301e+000 2.857951e+000 -2.016755e+000 -1.522031e+000 1.452523e+000 -2.543548e+000 1.094555e+000 1.469476e+000 7.233662e-002 -1.471796e+000 1.101717e+000 -1.330592e-001 -2.240986e-001 7.565710e-001 5.861710e-001 1.214680e-001 3.616111e-001 -1.125028e+000 -1.087581e+000 -2.586679e-001 -1.550933e-001 2.945244e-001 -1.310864e-001 -2.437385e-002 2.181851e+000 3.899090e+000 -9.281371e-001 -2.873919e+000 3.211515e+000 1.786299e+000 -2.246161e+000 3.303240e+000 -9.286731e-001 -1.892274e+000 -3.501228e-001 1.777428e+000 -5.132235e+000
<VARIANCE> 39
 8.483925e-002 3.498331e-001 4.653062e-002 2.575822e-001 3.470508e-001 4.058514e-001 4.048921e-002 1.159534e-001 1.180423e+000 4.756334e-004 8.553047e-002 4.694048e-001 2.144418e-004 1.025632e+000 6.064203e+000 4.644506e-001 4.698142e+000 2.994305e+000 9.188811e-001 3.085770e+000 4.450038e+000 6.419990e-001 1.979377e+000 2.543598e-001 2.108255e+000 9.379779e+000 2.770514e-001 7.434029e-001 3.084559e-002 2.865004e-001 4.255272e-001 1.236039e+000 4.490413e-001 1.007264e+000 8.618494e-001 2.960696e-001 7.709870e-002 3.723589e-001 6.924591e-001
<GCONST> 3.233304e+001
<MIXTURE> 14 3.465122e-002
<MEAN> 39
 -3.156688e-001 -5.231399e-001 -2.347064e-001 4.508292e-001 1.119369e-001 -1.228852e-001 -1.643569e-001 3.290838e-001 4.981613e-001 -9.681261e-002 1.262547e-001 4.095120e-001 -3.961739e-001 4.214909e-002 1.517625e-001 -1.590461e-001 1.986971e-001 2.442122e-001 8.152191e-002 1.162108e-001 1.369497e-001 5.042937e-002 -6.585259e-002 4.844207e-002 -9.646793e-002 -8.563094e-002 5.208955e-002 1.600888e-001 -7.872131e-002 -3.662836e-001 -2.727370e-001 -1.528752e-001 -1.106672e-002 -2.498301e-001 -9.850577e-002 1.445015e-001 -9.217383e-002 -3.119196e-001 -2.529269e-002
<VARIANCE> 39
 4.473525e-001 1.029182e+000 1.137021e+000 5.821574e-001 6.415440e-001 1.068858e+000 1.381752e+000 7.489045e-001 1.175203e+000 8.557922e-001 7.899644e-001 1.214668e+000 2.216633e-001 1.464056e+000 2.218907e+000 1.263454e+000 1.296185e+000 1.230002e+000 1.327080e+000 1.399104e+000 1.178400e+000 1.522964e+000 1.475855e+000 1.169364e+000 1.296276e+000 1.220740e+000 1.648647e+000 2.048364e+000 1.127528e+000 1.040068e+000 1.128320e+000 1.424053e+000 1.034957e+000 1.220718e+000 1.556918e+000 1.265553e+000 1.215552e+000 1.377932e+000 2.059237e+000
<GCONST> 7.669116e+001
<STATE> 4
<NUMMIXES> 14
<MIXTURE> 1 8.073902e-001
<MEAN> 39
 3.396119e-001 6.893054e-002 -2.262934e-002 3.514343e-001 1.170084e-001 1.634711e-001 1.096826e-001 1.948367e-001 2.051720e-001 1.777754e-001 5.081345e-002 1.540615e-001 -5.647795e-001 -9.627269e-011 -3.231499e-010 -4.389492e-010 -2.238600e-010 5.068976e-011 6.747418e-011 3.944979e-010 -1.797706e-011 -1.195256e-010 2.898580e-010 2.189698e-010 1.871754e-010 3.618300e-010 5.054586e-011 5.045480e-011 -3.337600e-010 3.784808e-010 2.549292e-010 3.809553e-010 7.873767e-011 4.957687e-010 9.182268e-011 2.632495e-010 7.799509e-010 1.998902e-010 -3.146612e-010
<VARIANCE> 39
 9.619291e-002 1.439169e-001 1.630058e-001 8.588897e-002 1.515063e-001 1.070394e-001 1.354604e-001 1.171346e-001 8.988998e-002 8.710960e-002 1.261494e-001 9.989025e-002 3.604594e-002 5.860217e-018 4.187808e-018 6.527185e-018 4.466011e-018 5.525113e-018 5.513270e-018 5.292409e-018 5.073544e-018 6.824149e-018 4.131906e-018 4.474351e-018 6.854978e-018 5.032980e-018 8.230633e-018 7.610933e-018 5.859396e-018 6.672551e-018 5.945561e-018 5.245897e-018 6.930184e-018 7.220508e-018 6.996038e-018 5.986351e-018 7.242081e-018 5.326551e-018 6.513319e-018
<GCONST> -9.892171e+002
<MIXTURE> 2 2.268103e-002
<MEAN> 39
 -8.753822e-001 -2.219331e-001 -9.228704e-002 6.874300e-002 -2.833945e-001 -4.837882e-001 1.054932e-001 1.539680e-001 4.012922e-001 5.488003e-001 6.277424e-001 4.989274e-001 -5.534845e-001 -9.511255e-002 -1.724493e-001 -7.258508e-002 -8.650053e-002 -2.885333e-002 1.530278e-001 1.950531e-001 1.161750e-001 -1.328387e-002 -8.362984e-003 1.109880e-001 4.062982e-002 -7.808983e-002 8.812791e-002 3.543136e-002 2.305925e-001 5.592530e-001 6.981137e-001 5.329632e-001 2.076796e-001 -7.339664e-002 -2.992773e-001 -5.382639e-001 -8.497938e-001 -6.246054e-001 1.885531e-001
<VARIANCE> 39
 1.278774e-001 3.042364e-001 3.773797e-001 3.059997e-001 3.411372e-001 5.193873e-001 4.895619e-001 5.724393e-001 5.339902e-001 5.847183e-001 4.891303e-001 5.490736e-001 4.596607e-002 1.093454e-001 3.421394e-001 4.719765e-001 6.800062e-001 6.602528e-001 6.690896e-001 9.121991e-001 6.522973e-001 8.014839e-001 9.758105e-001 1.083503e+000 8.353325e-001 2.253952e-001 1.943083e-001 3.975453e-001 6.217722e-001 6.907193e-001 4.605987e-001 6.860362e-001 9.852402e-001 7.058079e-001 6.752725e-001 7.826062e-001 5.899813e-001 6.703933e-001 2.846873e-001
<GCONST> 4.237397e+001
<MIXTURE> 4 1.624248e-002
<MEAN> 39
 -7.549555e-001 -7.932790e-002 1.242596e-001 4.721560e-001 5.809496e-001 -6.958040e-002 -2.068206e-001 -8.553259e-001 -5.016907e-001 -1.301213e-001 1.252820e-001 4.457993e-001 -5.828965e-001 -9.027261e-002 3.246956e-002 -9.903474e-002 -1.226875e-001 -5.261607e-002 -9.461989e-002 3.762450e-003 5.045620e-002 -8.077928e-002 1.440015e-001 2.007394e-001 1.415035e-001 -1.023616e-001 6.551379e-003 -2.201869e-001 -3.156770e-001 -4.419148e-001 -5.653951e-001 -6.908643e-002 6.259531e-001 1.069304e+000 9.645873e-001 3.790584e-001 -1.459666e-001 -4.149075e-001 6.401761e-002
<VARIANCE> 39
 1.434502e-001 3.230312e-001 2.924800e-001 3.121127e-001 3.446991e-001 4.789064e-001 4.914462e-001 6.556401e-001 5.202703e-001 5.706325e-001 4.934093e-001 5.042045e-001 8.483244e-002 1.883393e-001 3.723227e-001 5.356165e-001 5.596731e-001 5.628668e-001 6.111248e-001 9.592844e-001 7.781656e-001 1.161968e+000 7.352644e-001 9.100342e-001 9.207494e-001 1.887943e-001 2.843529e-001 4.700119e-001 4.414281e-001 5.563480e-001 4.867177e-001 6.871822e-001 8.077999e-001 4.872714e-001 7.582681e-001 8.856955e-001 8.624185e-001 8.167310e-001 4.786369e-001
<GCONST> 4.405236e+001
<MIXTURE> 5 1.654988e-002
<MEAN> 39
 -9.008926e-001 -2.370055e-001 3.151605e-002 3.990514e-001 5.622837e-001 6.212130e-001 1.010357e+000 4.688843e-001 6.028369e-004 -5.122873e-001 -4.539302e-001 -2.304586e-001 -4.864936e-001 3.496009e-002 6.329848e-002 8.732644e-002 1.079101e-001 1.322258e-001 4.940138e-002 2.111381e-002 -1.848963e-002 -1.412723e-002 3.268632e-002 -9.154379e-002 -8.675866e-002 6.415849e-002 1.994381e-001 8.764806e-002 -1.478193e-001 -2.171192e-001 -4.712931e-001 -8.399825e-001 -9.904511e-001 -4.872488e-001 2.249370e-001 6.916178e-001 5.606612e-001 3.754770e-001 -3.173574e-002
<VARIANCE> 39
 9.891176e-002 3.480460e-001 3.435136e-001 2.596499e-001 2.279826e-001 3.620637e-001 3.261276e-001 5.067791e-001 4.466375e-001 4.514639e-001 4.794279e-001 7.039336e-001 7.132230e-002 1.708825e-001 4.327687e-001 4.993829e-001 5.867959e-001 5.246427e-001 7.467452e-001 9.164221e-001 8.534032e-001 8.758371e-001 1.163535e+000 9.877625e-001 9.541297e-001 2.129713e-001 3.201798e-001 6.074302e-001 5.863660e-001 6.756929e-001 6.139262e-001 5.409703e-001 6.377270e-001 6.660087e-001 5.212205e-001 6.551034e-001 6.493134e-001 9.547787e-001 4.573324e-001
<GCONST> 4.281027e+001
<MIXTURE> 6 1.844153e-002
<MEAN> 39
 -9.670641e-001 -2.024507e-001 -8.752616e-002 2.489844e-001 3.486972e-001 5.401287e-001 8.437228e-001 9.122399e-001 1.069331e+000 7.295480e-001 2.357310e-001 6.613080e-002 -3.583454e-001 3.584206e-002 8.183876e-002 3.758601e-002 9.040447e-002 2.240329e-001 2.258166e-001 9.513617e-002 3.514426e-002 1.808765e-002 -2.522366e-002 -7.577502e-003 -4.163314e-004 1.016144e-001 5.875262e-002 1.320045e-002 4.056525e-002 -4.463197e-002 -2.308934e-001 -6.637798e-001 -8.999817e-001 -9.344285e-001 -9.921898e-001 -8.165717e-001 -4.072727e-001 -1.377520e-001 -5.459749e-001
<VARIANCE> 39
 9.874401e-002 3.342866e-001 2.605541e-001 3.435531e-001 3.724516e-001 5.627587e-001 4.778358e-001 4.248474e-001 3.690411e-001 3.948464e-001 4.052838e-001 7.587568e-001 6.629020e-002 2.406110e-001 4.129544e-001 6.670575e-001 8.313104e-001 7.601892e-001 7.160796e-001 8.118497e-001 8.498527e-001 1.019115e+000 9.938571e-001 9.975579e-001 1.023749e+000 3.757402e-001 3.379307e-001 4.313105e-001 5.507395e-001 8.004445e-001 6.740339e-001 6.251987e-001 9.411216e-001 3.890571e-001 5.497897e-001 6.017210e-001 8.861600e-001 1.067074e+000 5.504674e-001
<GCONST> 4.568086e+001
<MIXTURE> 7 2.395109e-002
<MEAN> 39
 -9.633550e-001 -4.840928e-001 -3.032091e-001 -3.959261e-002 -2.605589e-001 -5.107312e-001 -4.798201e-002 -3.289147e-001 -1.813375e-001 -4.617347e-001 -5.704646e-001 -3.969723e-001 -7.164613e-001 2.086743e-002 9.536278e-002 1.015385e-001 1.589479e-001 7.485285e-002 4.845405e-002 -1.858028e-002 2.438829e-003 2.097687e-002 2.818279e-002 -1.211359e-001 -1.831233e-001 -6.065231e-003 2.557687e-001 4.414278e-001 4.934909e-001 5.260211e-001 6.521729e-001 5.423858e-001 4.575727e-001 3.409415e-001 4.004654e-001 5.095953e-001 5.269239e-001 4.178316e-001 6.706414e-001
<VARIANCE> 39
 1.336630e-001 4.158907e-001 2.772955e-001 2.993818e-001 4.324978e-001 4.527636e-001 3.762287e-001 4.724910e-001 5.905707e-001 5.244876e-001 5.146735e-001 5.960599e-001 4.884843e-002 1.895123e-001 4.105539e-001 5.583376e-001 6.662386e-001 7.892694e-001 8.139945e-001 9.051298e-001 7.768705e-001 9.749361e-001 1.002136e+000 8.402783e-001 9.356446e-001 2.752614e-001 2.717276e-001 3.625162e-001 4.482897e-001 5.361225e-001 6.858780e-001 6.276471e-001 6.131393e-001 6.076483e-001 8.982357e-001 7.326292e-001 8.421870e-001 8.789332e-001 3.687056e-001
<GCONST> 4.438681e+001
<MIXTURE> 8 1.355611e-002
<MEAN> 39
 -8.593035e-001 -7.927751e-002 3.140224e-001 5.282946e-001 3.867760e-001 7.863577e-002 3.609257e-001 2.057766e-001 3.118580e-001 -5.916449e-002 -1.694153e-001 -1.948220e-001 -3.443217e-001 1.857041e-002 1.391578e-001 -5.288387e-002 -1.752568e-001 -4.151187e-001 -8.747748e-001 -1.029705e+000 -8.137953e-001 -6.385067e-001 -4.493250e-001 -2.341850e-001 -1.260068e-002 -4.712109e-001 -1.797976e-001 -1.923788e-001 -4.738804e-001 -5.382153e-001 -4.503188e-001 -2.726350e-001 -1.177345e-001 2.805962e-003 -1.407815e-001 3.766939e-002 1.593353e-001 2.660432e-001 -4.351346e-001
<VARIANCE> 39
 8.931748e-002 2.636275e-001 3.588164e-001 2.070954e-001 3.783323e-001 4.545310e-001 3.558407e-001 5.245734e-001 4.922962e-001 5.449033e-001 4.355043e-001 8.675793e-001 8.100684e-002 4.412441e-001 5.405237e-001 5.788360e-001 6.716136e-001 6.535897e-001 6.860119e-001 5.728378e-001 4.881535e-001 8.026705e-001 6.965228e-001 9.139835e-001 8.720523e-001 4.623936e-001 3.190142e-001 4.413786e-001 6.458910e-001 5.870091e-001 5.551135e-001 5.984467e-001 6.705552e-001 5.363571e-001 6.243433e-001 6.826448e-001 6.164519e-001 9.611101e-001 4.551599e-001
<GCONST> 4.383520e+001
<MIXTURE> 9 1.103692e-002
<MEAN> 39
 -9.517034e-001 -7.939516e-001 -3.708453e-001 4.269880e-001 4.256424e-001 4.263425e-001 5.879569e-001 8.881545e-002 1.646817e-001 3.656391e-001 7.019131e-001 3.456590e-001 -6.227930e-001 1.310564e-001 3.157986e-001 3.464356e-001 2.623937e-001 1.002621e-001 1.743383e-001 3.707283e-002 1.253433e-001 1.932746e-001 1.431742e-001 -7.550798e-002 2.885188e-002 2.476190e-001 5.121314e-001 8.507787e-001 7.381011e-001 1.794976e-001 -1.956777e-001 -4.751815e-001 -3.282421e-001 1.106954e-001 1.586176e-001 -4.148247e-001 -8.584288e-001 -3.406179e-001 3.994132e-001
<VARIANCE> 39
 1.609031e-001 4.250985e-001 6.402792e-001 1.639426e-001 1.982283e-001 5.603610e-001 3.732388e-001 3.981303e-001 4.118388e-001 4.985072e-001 6.994692e-001 6.547787e-001 1.111743e-001 4.766162e-001 6.925920e-001 7.396409e-001 6.616496e-001 7.430056e-001 7.650049e-001 5.815533e-001 6.218032e-001 8.542541e-001 8.344967e-001 8.445117e-001 6.837991e-001 3.932865e-001 8.070152e-001 6.053697e-001 9.946641e-001 8.373535e-001 4.019084e-001 7.383558e-001 9.005361e-001 5.203555e-001 7.223249e-001 6.861523e-001 6.243883e-001 8.546736e-001 8.413977e-001
<GCONST> 4.847538e+001
<MIXTURE> 10 1.577450e-002
<MEAN> 39
 -1.505445e+000 5.808812e-001 -4.537088e-001 -9.105728e-001 -3.837873e-001 7.187628e-001 1.845360e-001 -2.909000e-001 4.428783e-001 5.537870e-001 -2.191009e-001 -2.945083e-001 -5.811980e-001 -7.375775e-003 -3.714569e-002 -4.636679e-003 1.025995e-003 -3.770524e-002 -5.594242e-002 -2.885104e-002 -6.085404e-002 7.204190e-002 -3.189102e-002 4.746124e-002 -1.405561e-002 -1.274043e-002 3.740365e-002 1.651480e-002 2.829775e-002 1.342708e-001 7.527857e-002 2.547816e-002 4.958853e-003 1.024476e-002 3.655848e-002 -1.707773e-002 1.149197e-001 1.324765e-001 5.531999e-002
<VARIANCE> 39
 4.486868e-001 6.676240e-002 6.456649e-002 4.949662e-001 7.096757e-001 3.659209e-001 5.299413e-001 8.387222e-001 4.668398e-001 8.801359e-001 2.819830e-001 1.007431e+000 3.343835e-004 1.914072e-001 3.172011e-001 8.503631e-001 1.395003e+000 1.288190e+000 8.320779e-001 1.338980e+000 1.249421e+000 1.362450e+000 1.380901e+000 1.236443e+000 1.479695e+000 8.619641e-003 2.215398e-001 3.867281e-001 1.047929e+000 1.436896e+000 1.347730e+000 7.715579e-001 1.270308e+000 1.214119e+000 1.507286e+000 1.428308e+000 1.010533e+000 1.488970e+000 1.828902e-002
<GCONST> 4.244951e+001
<MIXTURE> 11 1.938916e-002
<MEAN> 39
 -6.399437e-001 -5.072243e-001 -2.151454e-001 6.606172e-001 5.727686e-001 -6.187379e-002 5.711246e-001 3.157643e-001 5.223669e-001 4.381097e-001 2.487739e-001 1.351141e-001 -7.769681e-001 3.027650e-002 3.457892e-002 6.450922e-003 4.296450e-002 3.433744e-002 -7.946924e-002 -1.245367e-001 -9.116236e-002 3.848010e-002 1.107111e-001 1.227690e-002 -1.034842e-001 1.835839e-002 3.103027e-002 8.044714e-002 9.558214e-002 -9.671287e-002 -1.072519e-001 -1.112366e-002 -1.437074e-002 -9.185467e-002 -2.302967e-001 -1.936251e-001 1.377288e-002 1.044558e-001 7.806840e-002
<VARIANCE> 39
 4.536756e-002 1.660178e-001 4.631817e-001 5.451044e-002 1.251466e-001 3.096713e-001 2.027978e-001 5.060975e-001 3.890037e-001 5.158138e-001 4.488404e-001 5.612437e-001 1.239888e-002 1.057281e-001 3.071297e-001 3.238308e-001 2.905373e-001 4.644606e-001 5.958418e-001 5.228952e-001 7.639418e-001 8.900366e-001 7.467722e-001 6.309112e-001 8.280496e-001 3.063761e-002 1.408485e-001 2.842115e-001 4.023173e-001 3.382348e-001 4.476334e-001 5.759087e-001 5.220274e-001 7.047527e-001 9.854861e-001 8.072235e-001 5.721107e-001 8.337374e-001 4.766705e-002
<GCONST> 2.609026e+001
<MIXTURE> 12 1.415255e-002
<MEAN> 39
 -3.702635e-001 7.547569e-002 2.744937e-001 5.953292e-001 2.574600e-001 -1.305910e-001 8.838296e-002 2.275206e-001 5.827556e-001 4.092190e-001 1.435213e-001 1.676083e-001 -5.123470e-001 3.389385e-002 1.219643e-001 2.693981e-002 4.381818e-002 -4.229085e-002 -2.574851e-002 1.384520e-001 2.460356e-001 2.374031e-001 6.247745e-002 -1.203832e-001 -1.281424e-001 5.206557e-002 -5.006080e-001 -4.660179e-001 -4.868882e-001 -4.893952e-001 -1.671197e-001 2.824276e-001 2.626563e-001 -5.289210e-002 -4.155122e-001 -3.125912e-001 -1.449624e-002 -9.517682e-002 -1.760718e-001
<VARIANCE> 39
 4.724342e-001 2.821724e-001 3.322117e-001 1.387092e-001 3.048591e-001 3.715940e-001 3.796871e-001 2.601070e-001 2.796425e-001 3.088370e-001 4.819560e-001 3.826252e-001 1.542084e-001 1.548150e-001 3.648383e-001 3.727027e-001 4.082326e-001 4.559841e-001 5.139636e-001 4.216355e-001 4.185643e-001 6.344968e-001 5.651016e-001 5.447458e-001 5.952196e-001 1.767007e-001 9.556877e-001 5.956092e-001 4.852141e-001 3.965331e-001 5.919441e-001 5.359268e-001 4.453818e-001 3.717776e-001 4.938150e-001 5.318843e-001 5.548708e-001 5.391922e-001 6.436279e-001
<GCONST> 3.611292e+001
<MIXTURE> 13 5.711436e-003
<MEAN> 39
 -6.497970e-001 4.927447e-001 -2.324763e-001 -2.581728e-001 -6.834645e-002 4.463519e-001 7.065999e-002 -2.309753e-001 1.868384e-001 4.383792e-001 -6.929033e-002 -1.654439e-001 -4.918396e-001 -2.395446e-001 2.614993e-002 -1.776142e-001 6.119038e-003 1.817881e-001 3.770579e-001 2.923656e-001 2.710603e-001 4.706589e-002 7.963271e-002 -1.254566e-002 -1.492163e-001 4.330577e-003 3.037738e-001 -2.850734e-001 4.568537e-001 -2.009531e-002 -4.039844e-002 -4.204321e-002 1.082872e-001 2.998765e-001 2.967983e-001 8.520283e-002 4.392883e-002 1.316790e-001 3.502692e-001
<VARIANCE> 39
 1.125488e+000 1.989853e-001 2.163031e-001 7.390457e-001 7.049088e-001 6.239679e-001 5.672991e-001 1.175693e+000 6.618977e-001 8.677568e-001 4.087086e-001 1.077992e+000 1.828229e-002 9.484248e+000 1.471543e+000 1.398527e+000 1.991032e+000 1.217921e+000 1.384002e+000 1.567698e+000 2.292709e+000 1.729880e+000 1.423864e+000 1.069228e+000 1.778928e+000 8.201482e-001 6.397318e+000 1.255363e+000 2.124547e+000 2.235018e+000 1.386730e+000 9.608747e-001 1.143894e+000 2.137744e+000 1.842474e+000 1.506217e+000 1.120904e+000 1.651884e+000 1.044370e+000
<GCONST> 7.505521e+001
<MIXTURE> 14 1.512313e-002
<MEAN> 39
 -8.131939e-001 1.119926e-003 3.511083e-001 5.725064e-001 1.174077e-001 -5.303911e-001 1.200170e-002 -1.559924e-002 -1.450654e-001 -6.128744e-001 -8.280539e-001 -4.987919e-001 -4.591998e-001 -5.246019e-002 -2.284340e-002 -1.288623e-001 -3.449013e-002 8.358021e-002 2.214361e-001 2.839321e-001 2.065495e-001 2.006554e-001 1.113645e-001 2.329103e-001 3.540055e-001 9.115176e-003 -1.198104e-001 -4.797376e-001 -5.317722e-001 -4.116537e-001 5.686856e-002 5.255610e-001 3.433060e-001 1.121628e-001 3.173211e-001 6.730266e-001 8.907642e-001 4.504907e-001 -8.631961e-002
<VARIANCE> 39
 9.736036e-002 2.611379e-001 4.358800e-001 1.713286e-001 3.247167e-001 3.363506e-001 3.824795e-001 5.707652e-001 6.360908e-001 4.674063e-001 4.365822e-001 6.449227e-001 6.432794e-002 2.123593e-001 5.560657e-001 5.486059e-001 6.489921e-001 7.369344e-001 5.997311e-001 7.328186e-001 7.087473e-001 7.111478e-001 8.095567e-001 1.016308e+000 8.896912e-001 3.344316e-001 2.206915e-001 4.157808e-001 5.088316e-001 5.813041e-001 5.663736e-001 5.498455e-001 7.565770e-001 6.926379e-001 7.119329e-001 6.247917e-001 7.381461e-001 7.632365e-001 3.169992e-001
<GCONST> 4.210905e+001
<STATE> 5
<NUMMIXES> 14
<MIXTURE> 2 6.896004e-002
<MEAN> 39
 2.836529e-002 1.924436e-001 -3.242633e-001 4.838107e-001 -3.039555e-002 -3.338335e-001 -9.781293e-001 -5.932741e-001 2.042312e-001 6.158963e-001 6.617122e-001 2.461206e-001 -6.688967e-001 1.968149e-001 1.637366e-001 1.341100e-001 3.380748e-001 6.452680e-002 2.069499e-001 7.950287e-002 3.144582e-002 -5.544424e-002 8.476990e-003 4.987435e-002 5.361756e-002 1.270839e-001 -9.504710e-002 -1.736948e-001 2.635969e-002 -5.611733e-002 2.169177e-001 5.141688e-001 1.016024e+000 5.517465e-001 -1.206637e-001 -5.051789e-001 -6.452140e-001 -2.681927e-001 2.177046e-002
<VARIANCE> 39
 1.606926e-001 1.602790e-001 4.766161e-001 3.108301e-001 4.003941e-001 5.383579e-001 3.241145e-001 3.082130e-001 4.032984e-001 6.862861e-001 2.491407e-001 5.223105e-001 3.623876e-002 9.746905e-002 2.269557e-001 4.097682e-001 5.408862e-001 7.488195e-001 7.036726e-001 9.339525e-001 7.629662e-001 5.683156e-001 1.225849e+000 8.159444e-001 7.319221e-001 1.497081e-001 1.688118e-001 4.091780e-001 5.759625e-001 4.008964e-001 7.477352e-001 6.787461e-001 5.573696e-001 4.133253e-001 4.608040e-001 8.030092e-001 3.882987e-001 5.962892e-001 2.425880e-001
<GCONST> 3.639732e+001
<MIXTURE> 5 1.094507e-001
<MEAN> 39
 -1.795074e-001 1.496827e-001 -1.320700e-001 5.062600e-001 3.146002e-001 3.242860e-001 5.300838e-001 6.831526e-001 6.271961e-001 6.248542e-001 3.357482e-001 -1.608892e-002 -5.875702e-001 1.130265e-002 -4.816982e-003 -4.749008e-002 1.278449e-001 8.561029e-002 7.343143e-002 3.851671e-002 1.271842e-001 2.138645e-002 -5.145990e-002 -1.790889e-001 -2.456347e-001 -5.082839e-003 2.481246e-002 7.718199e-002 8.134194e-002 -1.479502e-001 -2.662213e-001 -4.277850e-001 -6.711398e-001 -7.475441e-001 -5.294599e-001 -5.027645e-001 -2.318265e-001 1.467903e-001 -8.366631e-002
<VARIANCE> 39
 1.606151e-001 2.289762e-001 2.751773e-001 1.650188e-001 2.763725e-001 5.050808e-001 3.975374e-001 6.109445e-001 3.178853e-001 5.959540e-001 4.600800e-001 6.779969e-001 2.173575e-002 7.626189e-002 2.716551e-001 3.042760e-001 3.411364e-001 4.884224e-001 4.801809e-001 5.513145e-001 7.190564e-001 5.352536e-001 8.219429e-001 7.320735e-001 7.765047e-001 8.003572e-002 1.540437e-001 3.748106e-001 3.223798e-001 3.410694e-001 3.624077e-001 4.267717e-001 4.930564e-001 5.587890e-001 4.345996e-001 7.883601e-001 7.429813e-001 8.959376e-001 1.728529e-001
<GCONST> 3.136331e+001
<MIXTURE> 6 8.848155e-002
<MEAN> 39
 -5.605258e-001 1.049462e-001 -2.335038e-001 1.088654e-001 3.544203e-001 2.458451e-001 1.999145e-001 -1.093980e-001 1.409437e-001 -1.386140e-001 -1.686194e-001 -3.114162e-002 -4.921732e-001 7.389148e-001 3.684832e-001 -6.364333e-002 -7.762528e-002 2.193877e-001 1.313200e-001 -6.017039e-002 -1.114838e-001 -2.456000e-001 4.035345e-002 -8.518789e-003 -8.204268e-002 6.987622e-002 5.184648e-001 -1.849787e-001 5.703776e-001 1.142396e-001 -1.006442e-002 -3.704523e-002 1.969861e-002 3.655497e-002 -4.446872e-003 -7.974771e-002 -2.495507e-003 -2.038367e-001 1.044760e+000
<VARIANCE> 39
 5.508475e-001 3.043458e-001 2.110744e-001 2.939465e-001 3.070647e-001 5.410341e-001 5.769193e-001 6.298779e-001 6.419161e-001 6.704223e-001 6.813203e-001 6.790304e-001 3.791699e-002 2.089528e+000 9.275951e-001 8.387414e-001 6.571230e-001 8.771986e-001 1.214040e+000 9.793424e-001 8.518695e-001 9.545303e-001 7.245696e-001 9.374133e-001 9.297112e-001 3.290128e-001 3.234764e+000 1.718132e+000 1.260954e+000 1.288697e+000 1.034140e+000 1.454265e+000 1.370015e+000 9.133347e-001 1.055663e+000 1.059126e+000 9.466910e-001 1.102621e+000 2.511364e+000
<GCONST> 6.165602e+001
<MIXTURE> 8 9.580345e-002
<MEAN> 39
 -3.154407e-001 4.866049e-001 2.355091e-001 4.586409e-001 -3.652670e-002 -2.850274e-002 5.759377e-002 -1.075526e-001 -2.543895e-001 -1.702482e-001 1.285882e-001 5.792615e-001 -6.302495e-001 1.162635e-001 7.211693e-002 1.865986e-002 1.855213e-002 5.630913e-002 7.774405e-002 1.588074e-001 2.752848e-001 3.308804e-001 2.259889e-001 2.004526e-001 2.196313e-003 1.052623e-001 -1.777551e-002 -2.640373e-001 -2.374931e-001 -3.420710e-002 1.017202e-002 -6.682964e-002 3.556276e-002 2.405235e-001 3.752591e-001 2.977860e-001 -1.099050e-002 -6.006334e-001 -7.300443e-003
<VARIANCE> 39
 9.534154e-002 1.949346e-001 2.042259e-001 9.094363e-002 2.581115e-001 3.275996e-001 2.278928e-001 3.891682e-001 4.421799e-001 6.324767e-001 4.275936e-001 4.204078e-001 2.011811e-002 1.068351e-001 3.188024e-001 3.145446e-001 1.988826e-001 5.266373e-001 5.262689e-001 5.723678e-001 6.082024e-001 6.038814e-001 7.795646e-001 5.697798e-001 7.052931e-001 6.030833e-002 1.089146e-001 2.537318e-001 2.662140e-001 1.993690e-001 3.918007e-001 4.846816e-001 4.499950e-001 4.644345e-001 5.196970e-001 9.187436e-001 5.455562e-001 8.164279e-001 8.374810e-002
<GCONST> 2.517397e+001
<MIXTURE> 9 1.202561e-001
<MEAN> 39
 -3.867270e-002 1.608635e-001 -1.506486e-001 9.614033e-001 7.217264e-001 3.483859e-001 -1.046145e-001 -3.282348e-001 -9.548216e-002 -1.244217e-001 -1.132023e-001 -3.048762e-001 -6.987703e-001 5.082844e-002 5.844615e-002 -9.081644e-003 2.355643e-002 1.886726e-001 1.835381e-001 -5.985350e-002 -1.171970e-001 -1.121256e-001 -1.824033e-001 -2.044926e-001 1.211649e-001 4.170874e-002 -1.251611e-001 -1.699585e-001 -3.660316e-001 -7.568839e-001 -8.638421e-001 -4.829550e-001 3.990789e-002 2.946114e-001 3.607121e-001 2.347804e-001 4.870540e-001 4.866820e-001 -1.257510e-001
<VARIANCE> 39
 1.543128e-001 1.778876e-001 3.781990e-001 2.018331e-001 3.340210e-001 3.927391e-001 3.595290e-001 3.244813e-001 4.781395e-001 5.010401e-001 4.377373e-001 6.996942e-001 6.187217e-002 1.047793e-001 3.025742e-001 3.719399e-001 5.739061e-001 6.346903e-001 5.751474e-001 5.668738e-001 6.100563e-001 6.111657e-001 5.956531e-001 9.361069e-001 1.051499e+000 1.198242e-001 1.826123e-001 2.781187e-001 4.591180e-001 4.691908e-001 5.962908e-001 4.644979e-001 4.663489e-001 6.674613e-001 7.516498e-001 6.146507e-001 6.628824e-001 1.161211e+000 2.528737e-001
<GCONST> 3.634650e+001
<MIXTURE> 10 9.894031e-002
<MEAN> 39
 -9.751520e-002 -2.647297e-002 -5.557734e-001 1.598480e-001 -3.269866e-001 -4.048447e-002 4.572921e-002 -6.212877e-002 1.669914e-001 2.622921e-001 6.710344e-001 6.786762e-001 -7.747744e-001 -1.557706e-002 6.940818e-002 9.001174e-002 5.100197e-002 -2.219874e-002 9.665043e-003 1.069724e-001 -1.069365e-001 -8.532067e-002 -1.206177e-001 -1.008215e-001 -1.201696e-001 -5.242549e-002 1.322681e-001 1.609215e-001 4.446955e-001 6.239313e-001 5.636880e-001 1.662020e-001 -2.042062e-001 -1.889992e-001 -7.367343e-002 -3.078284e-001 -6.705053e-001 -6.960067e-001 3.084378e-001
<VARIANCE> 39
 1.082648e-001 1.563749e-001 2.426472e-001 1.896370e-001 4.539229e-001 4.600404e-001 3.210170e-001 3.754092e-001 6.153497e-001 3.615585e-001 4.407017e-001 5.030767e-001 4.771927e-002 1.105234e-001 2.419767e-001 3.335925e-001 6.264898e-001 9.117728e-001 5.543673e-001 5.998249e-001 5.025642e-001 5.676510e-001 7.624439e-001 6.486713e-001 8.743790e-001 1.656278e-001 1.549714e-001 2.147279e-001 2.533287e-001 4.223504e-001 7.825017e-001 5.272108e-001 4.544095e-001 4.828829e-001 6.524310e-001 4.895571e-001 5.559692e-001 6.161532e-001 2.796205e-001
<GCONST> 3.298790e+001
<MIXTURE> 11 1.697972e-001
<MEAN> 39
 2.190546e-001 -3.079894e-002 1.621072e-001 5.683477e-001 3.009047e-001 2.653332e-001 3.124380e-001 3.286073e-001 3.299165e-001 1.833495e-001 2.389300e-001 1.519562e-001 -7.415918e-001 3.113010e-011 -1.709735e-009 -1.733765e-009 4.656259e-010 6.211632e-010 1.330840e-009 5.270995e-010 -6.046135e-010 -3.073884e-010 6.217656e-010 1.058454e-011 -2.142549e-010 7.257417e-010 -1.079799e+000 -2.803880e-001 -7.700367e-003 -1.626058e-001 -1.958920e-001 -1.255194e-001 -1.265702e-001 -8.924116e-002 -2.541680e-002 -9.697082e-002 1.458450e-003 -1.275484e-002 9.976798e-001
<VARIANCE> 39
 2.982144e-001 2.695722e-001 3.118944e-001 1.067147e-001 1.763377e-001 1.077615e-001 1.971678e-001 9.163322e-002 1.874803e-001 1.151372e-001 2.150383e-001 1.439489e-001 6.896249e-002 3.623935e-013 3.174245e-013 3.873547e-013 0.000000e+000 1.938553e-013 0.000000e+000 0.000000e+000 0.000000e+000 0.000000e+000 0.000000e+000 0.000000e+000 7.416278e-014 3.205308e-012 1.492172e+000 9.075476e-001 5.174617e-001 4.419354e-001 6.040189e-001 3.872554e-001 5.522537e-001 5.571191e-001 5.117992e-001 4.186678e-001 3.263638e-001 3.202823e-001 1.622693e+000
<GCONST> -7.000000e+010
<MIXTURE> 12 6.848682e-002
<MEAN> 39
 -1.588744e-001 -2.904603e-002 -5.314791e-001 2.410472e-001 -4.036417e-001 -4.914810e-001 -5.202560e-001 -4.183050e-001 -2.563387e-001 -3.833279e-001 -4.342921e-001 -2.869377e-001 -6.776345e-001 4.556806e-002 1.156694e-001 1.237877e-001 1.247209e-001 -5.626991e-003 -1.066076e-001 -1.160051e-001 -2.107318e-001 -2.197361e-001 -1.039838e-001 1.731289e-002 4.033360e-002 2.595731e-002 6.818812e-002 2.570973e-001 3.286046e-001 2.814103e-001 6.520264e-001 6.700382e-001 5.319941e-001 3.624901e-001 1.955068e-001 5.156426e-001 7.944328e-001 4.220675e-001 1.270418e-001
<VARIANCE> 39
 1.085909e-001 1.135813e-001 2.433117e-001 1.735391e-001 4.118143e-001 3.334945e-001 3.670325e-001 4.848974e-001 4.837711e-001 6.380357e-001 5.923457e-001 7.226592e-001 7.577018e-003 1.040675e-001 1.980291e-001 2.861139e-001 3.504274e-001 4.635292e-001 4.115481e-001 7.006033e-001 8.132014e-001 5.885752e-001 9.394188e-001 1.038317e+000 1.338852e+000 3.585364e-002 8.795580e-002 2.189430e-001 3.855636e-001 3.691037e-001 3.402865e-001 3.489738e-001 5.296798e-001 7.051494e-001 6.550063e-001 9.062070e-001 5.724669e-001 9.243724e-001 1.030717e-001
<GCONST> 2.906069e+001
<MIXTURE> 13 6.783640e-002
<MEAN> 39
 -1.480271e-003 -8.050192e-002 -4.651094e-001 3.347238e-001 2.897008e-001 2.609124e-001 -2.474415e-001 -9.581697e-002 2.034922e-001 -2.434811e-001 1.015415e-003 -8.522466e-002 -6.743631e-001 -1.693837e-001 -2.175908e-001 -4.367689e-001 -6.641864e-001 -5.789266e-001 -4.442295e-001 -1.240098e-001 4.782588e-002 4.252680e-002 8.214901e-002 6.812809e-002 1.862636e-001 -2.474596e-001 -7.604211e-002 1.092145e-001 2.428610e-001 1.236898e-001 -2.382726e-001 -2.539907e-001 1.576618e-001 -2.850443e-002 3.744553e-002 3.361512e-001 2.238346e-001 1.865638e-001 6.491256e-002
<VARIANCE> 39
 1.663296e-001 2.523884e-001 1.805804e-001 2.665781e-001 2.163763e-001 3.819866e-001 5.182864e-001 4.796102e-001 2.503083e-001 3.164800e-001 3.210030e-001 4.512979e-001 8.515478e-003 1.083132e-001 1.719452e-001 3.290105e-001 5.074550e-001 4.616660e-001 5.384987e-001 5.797706e-001 5.655442e-001 6.928173e-001 6.311666e-001 7.284975e-001 8.866895e-001 1.112091e-001 1.395424e-001 2.946049e-001 2.909494e-001 5.836944e-001 5.016035e-001 4.956583e-001 6.012561e-001 6.336799e-001 5.532655e-001 6.144575e-001 8.346553e-001 5.961742e-001 2.038584e-001
<GCONST> 2.992518e+001
<MIXTURE> 14 1.119875e-001
<MEAN> 39
 -2.809674e-001 5.277161e-001 4.749255e-001 7.446191e-001 1.396610e-002 -3.103332e-001 2.436220e-001 1.868483e-001 3.488179e-001 5.401427e-001 4.499806e-001 1.987046e-001 -8.843229e-001 -2.431631e-002 -1.740612e-002 -1.073130e-001 -9.295931e-003 -7.079566e-002 7.241416e-002 2.983737e-002 -2.836741e-002 2.243303e-002 -8.694201e-002 -2.699518e-002 -7.881044e-003 -1.121943e-001 6.265792e-002 -5.519987e-002 -1.952281e-001 -1.637454e-001 1.706785e-001 3.789590e-001 1.079326e-001 -1.085285e-001 -2.260547e-001 -2.227698e-001 4.781422e-002 1.838197e-001 1.294316e-001
<VARIANCE> 39
 1.907366e-001 2.488853e-001 2.144136e-001 1.392597e-001 5.165840e-001 6.018918e-001 4.050260e-001 4.120597e-001 4.567584e-001 4.204917e-001 2.722820e-001 3.894727e-001 2.059171e-001 8.050108e-002 2.117278e-001 3.371685e-001 4.626791e-001 5.621735e-001 7.379407e-001 4.838218e-001 5.998812e-001 5.349472e-001 4.980716e-001 3.338496e-001 6.334363e-001 2.245176e-001 1.555403e-001 3.989238e-001 3.502682e-001 3.972765e-001 5.017079e-001 6.560057e-001 4.729760e-001 5.909376e-001 4.215251e-001 4.907685e-001 3.820113e-001 5.677947e-001 3.230843e-001
<GCONST> 3.289696e+001
<STATE> 6
<NUMMIXES> 14
<MIXTURE> 2 8.274693e-002
<MEAN> 39
 1.109488e-001 5.114350e-001 1.744988e-001 4.933416e-001 3.757327e-001 2.528917e-001 4.318278e-001 3.215222e-001 6.480218e-002 3.575204e-002 1.664240e-001 2.905923e-001 -3.189053e-001 2.673024e-001 4.664206e-001 5.433298e-001 5.263042e-001 6.073681e-001 5.502428e-001 4.540101e-001 4.886560e-001 4.253922e-001 4.581802e-001 4.104411e-001 3.056062e-001 8.969169e-001 -1.536946e-001 -3.025166e-001 -2.261553e-001 -1.044745e-001 -1.309460e-002 -2.307858e-002 -2.824638e-001 -2.117910e-001 7.157835e-002 8.688843e-002 -5.401199e-002 -1.361271e-001 -1.365410e-001
<VARIANCE> 39
 1.383141e-001 2.312037e-001 3.850704e-001 2.041946e-001 2.723880e-001 3.405205e-001 3.241808e-001 5.051817e-001 5.680583e-001 5.058458e-001 5.401301e-001 5.150968e-001 1.269848e-001 1.652246e-001 3.551831e-001 3.799750e-001 5.653208e-001 6.200169e-001 6.402041e-001 6.503614e-001 7.390010e-001 7.172729e-001 7.578441e-001 8.159033e-001 8.717787e-001 2.365716e-001 2.511604e-001 4.614500e-001 5.005608e-001 5.925728e-001 6.469728e-001 5.385859e-001 5.249096e-001 5.992717e-001 7.729985e-001 6.758429e-001 7.493417e-001 7.613029e-001 3.960279e-001
<GCONST> 4.077432e+001
<MIXTURE> 4 8.492748e-002
<MEAN> 39
 9.306169e-002 3.579302e-001 1.677718e-001 7.377596e-001 9.319059e-001 8.730798e-001 3.502409e-001 -3.855971e-001 -5.606262e-001 -3.952079e-001 -1.108062e-001 8.891208e-002 -2.704717e-001 -2.844411e-003 -2.396025e-002 3.775776e-002 1.342528e-001 6.305966e-002 2.010223e-002 -2.842024e-003 -4.685091e-002 -2.543649e-002 2.607589e-004 -6.101431e-002 -9.594746e-002 3.951028e-002 3.561410e-002 -3.543498e-002 -2.267465e-001 -5.361590e-001 -8.152417e-001 -7.704104e-001 -1.976651e-001 4.868545e-001 6.799530e-001 4.998347e-001 2.578317e-001 2.226059e-002 -1.467808e-001
<VARIANCE> 39
 1.180054e-001 2.080954e-001 3.205504e-001 1.819401e-001 2.491148e-001 2.967555e-001 4.244117e-001 4.527361e-001 4.931496e-001 6.780532e-001 6.192937e-001 5.819942e-001 1.008020e-001 1.458285e-001 4.097322e-001 4.844430e-001 5.636454e-001 5.432594e-001 6.801069e-001 6.772391e-001 8.177836e-001 8.426624e-001 8.797207e-001 7.355530e-001 6.921435e-001 2.459569e-001 2.100115e-001 4.151960e-001 4.590932e-001 5.761297e-001 5.066196e-001 4.780434e-001 6.895468e-001 5.310844e-001 5.888373e-001 7.561053e-001 8.246720e-001 7.629969e-001 3.745645e-001
<GCONST> 3.993808e+001
<MIXTURE> 5 7.303866e-002
<MEAN> 39
 -7.257805e-002 1.010626e-001 -4.648139e-002 5.211378e-001 5.916179e-001 5.724367e-001 5.657713e-001 6.449782e-001 3.565146e-001 -4.525211e-001 -7.624247e-001 -4.457716e-001 -4.178333e-001 2.919014e-002 1.471877e-001 7.921354e-002 -4.187899e-002 -1.902205e-001 -2.310598e-001 -7.826505e-002 -4.230743e-002 2.065811e-002 -3.800829e-002 -1.302112e-002 -5.225728e-002 -9.480728e-002 1.046144e-001 1.406952e-001 -2.625669e-002 -2.953965e-001 -3.349350e-001 -3.264186e-001 -4.277595e-001 -6.410033e-001 -2.619284e-001 5.825126e-001 8.911408e-001 5.638869e-001 9.050348e-002
<VARIANCE> 39
 1.225914e-001 3.764870e-001 4.157146e-001 2.318173e-001 2.604340e-001 5.086323e-001 4.142197e-001 3.355587e-001 4.098121e-001 5.311120e-001 5.586457e-001 5.932757e-001 9.193034e-002 3.027679e-001 6.145377e-001 5.683444e-001 6.278163e-001 6.032411e-001 8.078390e-001 8.118606e-001 9.079037e-001 8.760836e-001 8.663059e-001 9.059056e-001 8.760502e-001 4.018125e-001 3.736797e-001 5.828592e-001 5.668573e-001 5.265095e-001 5.596872e-001 7.440848e-001 7.882098e-001 7.293419e-001 6.194888e-001 7.496998e-001 6.491078e-001 7.146556e-001 3.827797e-001
<GCONST> 4.543817e+001
<MIXTURE> 6 7.075317e-002
<MEAN> 39
 1.348190e-002 3.962015e-001 2.957071e-001 7.014964e-001 5.826696e-001 1.193435e-001 -1.670384e-001 -1.727654e-001 1.539478e-001 4.433815e-001 8.468152e-001 8.763826e-001 -2.355782e-001 -8.371259e-003 -1.132471e-001 -1.691314e-001 -2.005005e-001 -1.432608e-001 -1.061213e-001 -1.748973e-001 -2.247853e-001 -1.439412e-001 -6.794176e-002 -8.711874e-002 -3.853232e-002 -1.997575e-001 -3.838864e-003 -1.746556e-001 -3.835666e-001 -5.660924e-001 -3.990795e-001 1.203576e-001 5.501883e-001 3.463180e-001 -1.323427e-001 -5.098773e-001 -9.545839e-001 -8.576058e-001 -3.994709e-001
<VARIANCE> 39
 1.627916e-001 2.621863e-001 3.576748e-001 2.134712e-001 2.484092e-001 3.532197e-001 3.665579e-001 5.006781e-001 5.357733e-001 5.377579e-001 4.012102e-001 5.128443e-001 1.497432e-001 1.877059e-001 4.852903e-001 5.311744e-001 6.030711e-001 6.766440e-001 7.315985e-001 6.292335e-001 7.462333e-001 8.989876e-001 8.482428e-001 8.332296e-001 8.911095e-001 3.730924e-001 2.944148e-001 6.303234e-001 5.171818e-001 6.220986e-001 5.272597e-001 5.678338e-001 5.195165e-001 5.606561e-001 6.710812e-001 8.035178e-001 6.533282e-001 7.657013e-001 4.103222e-001
<GCONST> 4.309086e+001
<MIXTURE> 7 4.750967e-002
<MEAN> 39
 -7.152818e-002 1.300762e-001 1.099547e-001 4.271257e-001 1.414551e-001 2.394835e-001 2.355592e-001 2.481859e-001 2.031862e-001 1.619436e-001 1.332321e-001 2.011549e-001 -5.440785e-001 -4.622610e-001 -4.611691e-001 1.455542e-001 -3.283816e-001 -2.230547e-001 6.490683e-002 9.734967e-002 7.363371e-002 -4.456430e-002 -1.167922e-001 2.180616e-002 -5.371646e-002 9.958842e-001 -5.960610e-001 -3.421682e-001 5.158498e-001 -4.949496e-001 -1.301778e-001 -2.098728e-001 -3.128315e-001 -2.648977e-001 -1.456976e-001 -3.325505e-001 1.585959e-002 -1.054440e-001 2.087499e+000
<VARIANCE> 39
 4.781709e-001 5.632769e-001 6.488771e-001 4.134004e-001 4.946924e-001 7.818303e-001 4.456452e-001 5.310132e-001 4.864870e-001 4.361601e-001 5.135376e-001 3.785450e-001 1.559609e-001 3.743855e+000 2.306998e+000 1.750234e+000 1.542437e+000 1.331338e+000 1.584401e+000 1.570733e+000 1.291866e+000 1.094729e+000 1.284547e+000 1.062832e+000 1.156045e+000 1.936424e+000 5.261087e+000 4.100588e+000 2.902651e+000 2.602332e+000 2.002405e+000 2.143530e+000 2.153322e+000 1.960886e+000 1.720296e+000 1.340317e+000 1.205503e+000 1.084859e+000 5.321337e+000
<GCONST> 7.818925e+001
<MIXTURE> 8 9.466491e-002
<MEAN> 39
 -3.727259e-002 -3.899542e-002 -5.086261e-001 1.045454e-003 3.185387e-001 6.021315e-001 5.741980e-001 3.977607e-001 4.575346e-001 6.304045e-001 6.919668e-001 5.505449e-001 -3.972982e-001 -3.379266e-003 -5.944155e-003 9.740168e-002 5.209812e-002 1.303161e-003 2.776248e-002 5.273156e-002 1.129171e-001 6.667012e-002 -2.451720e-002 -2.450009e-002 -3.472844e-002 2.990996e-002 1.190070e-001 3.503084e-001 6.040561e-001 5.820429e-001 1.373591e-001 -3.898875e-001 -3.653196e-001 -3.902119e-001 -4.656146e-001 -6.283270e-001 -6.585265e-001 -4.583130e-001 1.536571e-001
<VARIANCE> 39
 1.501547e-001 3.333063e-001 2.865209e-001 3.018891e-001 2.479661e-001 3.376528e-001 2.923828e-001 4.881014e-001 5.293443e-001 4.805208e-001 4.724547e-001 6.279297e-001 1.102164e-001 1.808504e-001 4.119314e-001 4.565257e-001 6.143632e-001 5.807604e-001 6.250326e-001 6.357894e-001 6.743391e-001 7.572123e-001 8.906516e-001 9.252086e-001 9.372740e-001 2.770370e-001 3.622604e-001 5.480901e-001 4.265134e-001 5.231450e-001 5.294273e-001 4.782688e-001 5.920008e-001 6.666247e-001 7.205101e-001 6.977822e-001 6.843605e-001 7.965471e-001 4.034889e-001
<GCONST> 4.184761e+001
<MIXTURE> 9 8.049680e-002
<MEAN> 39
 1.299608e-001 5.111712e-001 1.440617e-001 6.041536e-001 7.469372e-001 7.916796e-001 8.170152e-001 7.913425e-001 6.618505e-001 5.422558e-001 3.639320e-001 2.831309e-001 3.799029e-002 -8.381098e-003 -9.137858e-002 -1.233174e-001 -1.101204e-001 -1.052607e-002 -7.249302e-002 -7.957850e-002 -7.593226e-002 1.531099e-002 5.751930e-002 5.905326e-002 1.659063e-002 -6.712191e-002 -1.929408e-001 -4.153439e-001 -4.128937e-001 -4.213789e-001 -6.225873e-001 -7.184429e-001 -7.652763e-001 -7.985164e-001 -6.502856e-001 -5.894009e-001 -3.370950e-001 -1.195323e-001 -1.077856e+000
<VARIANCE> 39
 1.955468e-001 3.188324e-001 3.996751e-001 3.079946e-001 3.188575e-001 5.078530e-001 3.195404e-001 5.269326e-001 5.124635e-001 5.697132e-001 4.944125e-001 5.323494e-001 2.165104e-001 2.006313e-001 5.223182e-001 5.723529e-001 6.544435e-001 7.131782e-001 7.523063e-001 7.115806e-001 8.798326e-001 9.241605e-001 9.133154e-001 8.865008e-001 7.718629e-001 4.962745e-001 3.298710e-001 5.607118e-001 6.091571e-001 7.054436e-001 7.019252e-001 6.647211e-001 5.900383e-001 7.115614e-001 8.334299e-001 7.257202e-001 6.774905e-001 6.942568e-001 4.361506e-001
<GCONST> 4.728167e+001
<MIXTURE> 10 1.134225e-001
<MEAN> 39
 2.302513e-001 5.087599e-001 1.049462e-001 5.732509e-001 3.761297e-001 1.792553e-001 1.295261e-001 2.529497e-001 2.615391e-001 9.389676e-002 -5.472074e-002 -4.046289e-002 -3.346280e-001 -3.754750e-002 -9.938321e-002 -1.055975e-001 -5.236628e-002 9.962154e-003 -3.271972e-002 -5.583218e-002 -8.627418e-002 -1.120985e-001 -1.621660e-001 -1.157929e-001 -5.936261e-002 -1.020717e-001 -1.469427e-001 -2.718877e-001 -2.374988e-001 -2.511638e-001 -9.811275e-002 4.010634e-003 -4.329772e-002 -2.175232e-001 -2.660707e-001 -8.621646e-002 1.549375e-001 1.814718e-001 -2.651956e-001
<VARIANCE> 39
 1.399118e-001 1.764624e-001 2.851290e-001 1.294683e-001 1.897479e-001 2.641766e-001 3.014835e-001 3.593198e-001 2.842420e-001 3.119019e-001 3.391238e-001 4.678097e-001 9.883367e-002 9.240947e-002 2.078080e-001 3.291196e-001 3.326230e-001 4.029084e-001 4.734884e-001 5.162830e-001 5.933480e-001 5.693038e-001 5.773199e-001 5.236101e-001 4.961005e-001 1.941252e-001 1.501802e-001 2.696705e-001 4.269853e-001 3.621736e-001 3.682888e-001 3.349099e-001 3.979626e-001 4.213891e-001 3.435450e-001 4.359045e-001 3.890885e-001 5.190969e-001 2.582426e-001
<GCONST> 2.597434e+001
<MIXTURE> 11 9.253094e-002
<MEAN> 39
 2.933878e-001 5.707173e-001 2.478520e-002 3.289432e-001 2.191529e-001 -2.036331e-001 -5.763043e-001 -7.310387e-001 -5.518283e-001 -2.050802e-001 3.308833e-004 -2.870034e-002 -3.195160e-001 3.885945e-002 6.870023e-002 8.428656e-003 -1.357681e-002 -2.241837e-002 5.262549e-002 8.200742e-002 4.728942e-002 3.969703e-003 3.017042e-002 7.715295e-002 5.357541e-002 1.254238e-002 -2.623143e-001 -3.632951e-001 -1.302932e-001 5.852795e-002 1.826760e-001 4.256877e-001 6.493540e-001 6.949898e-001 4.737849e-001 1.319707e-001 9.596296e-002 1.515122e-001 4.785759e-002
<VARIANCE> 39
 1.385184e-001 1.575275e-001 3.246681e-001 1.649436e-001 2.863242e-001 4.121441e-001 4.764629e-001 3.773589e-001 4.415995e-001 5.046940e-001 5.670977e-001 6.427163e-001 7.034973e-002 2.417979e-001 4.469690e-001 5.511929e-001 6.787767e-001 7.024164e-001 7.728580e-001 7.230136e-001 7.600595e-001 7.207069e-001 8.184816e-001 8.955291e-001 9.966283e-001 2.823214e-001 2.377564e-001 4.521454e-001 4.117091e-001 5.422025e-001 5.770203e-001 5.613180e-001 6.115878e-001 5.079632e-001 5.005629e-001 6.163073e-001 6.370098e-001 7.244066e-001 2.692443e-001
<GCONST> 4.029593e+001
<MIXTURE> 12 7.957304e-002
<MEAN> 39
 -4.394087e-002 5.681472e-002 -3.969158e-001 1.442075e-001 2.296016e-001 1.324082e-001 1.950644e-001 -1.913999e-001 -3.994899e-001 -3.374097e-001 -1.325666e-001 -4.672488e-002 -6.268258e-001 -1.827624e-001 -3.850894e-001 -4.082704e-001 -4.098115e-001 -4.296012e-001 -3.443432e-001 -2.868147e-001 -2.451303e-001 -3.204204e-001 -2.249506e-001 -2.138567e-001 -1.920433e-001 -6.492658e-001 1.785654e-001 3.554883e-001 5.498173e-001 5.148286e-001 3.308290e-001 1.660229e-001 5.375203e-002 4.096671e-001 6.143618e-001 5.033861e-001 2.964052e-001 1.864107e-001 7.221163e-001
<VARIANCE> 39
 1.504890e-001 2.857837e-001 3.619837e-001 2.874519e-001 2.683551e-001 3.807910e-001 3.807265e-001 4.588420e-001 5.459644e-001 7.095637e-001 5.200873e-001 5.969436e-001 8.863103e-002 1.881195e-001 4.028524e-001 4.715033e-001 6.029402e-001 6.298966e-001 7.900814e-001 7.948229e-001 9.037232e-001 8.163406e-001 7.639146e-001 8.778455e-001 8.335656e-001 2.519194e-001 3.019288e-001 5.519606e-001 4.821364e-001 6.295610e-001 6.214119e-001 6.256570e-001 7.480007e-001 6.352046e-001 6.812056e-001 9.430822e-001 7.337029e-001 6.762142e-001 3.532311e-001
<GCONST> 4.381451e+001
<MIXTURE> 13 8.101404e-002
<MEAN> 39
 -2.951524e-002 3.271344e-001 8.189403e-002 3.288729e-001 -2.261021e-001 -4.613073e-001 4.455771e-002 5.086924e-001 6.123526e-001 3.814027e-001 2.679073e-001 1.739229e-001 -5.158196e-001 -3.075268e-003 -6.205909e-002 -5.804079e-002 -6.727526e-002 -1.068677e-001 -6.543681e-002 -1.147569e-001 -1.081556e-001 -3.081532e-002 -8.040620e-002 -1.029568e-001 3.002213e-002 -1.049721e-001 7.756840e-002 5.725211e-002 -3.329321e-002 2.157135e-001 8.277240e-001 8.631901e-001 1.978593e-001 -5.138001e-001 -7.157434e-001 -4.259889e-001 -1.233426e-001 2.097379e-003 2.726461e-001
<VARIANCE> 39
 1.377046e-001 2.030712e-001 3.089476e-001 1.697134e-001 2.855847e-001 3.316011e-001 4.095218e-001 5.159919e-001 4.698189e-001 5.680912e-001 4.394496e-001 4.402995e-001 9.036793e-002 1.305740e-001 3.890595e-001 4.328107e-001 6.165493e-001 7.590829e-001 6.656412e-001 8.220338e-001 1.039088e+000 8.839774e-001 8.502558e-001 8.459623e-001 7.635873e-001 3.491389e-001 1.605101e-001 4.064270e-001 3.695121e-001 4.328128e-001 4.878063e-001 4.604646e-001 7.134008e-001 8.135082e-001 6.440593e-001 8.144165e-001 7.104681e-001 7.005370e-001 3.013269e-001
<GCONST> 3.981458e+001
<MIXTURE> 14 9.932190e-002
<MEAN> 39
 -7.691540e-002 -4.884382e-003 -4.029215e-001 1.119857e-001 3.533528e-003 -2.093976e-001 -1.889654e-001 -3.610036e-001 -2.899190e-001 -1.659645e-001 -1.056556e-001 -1.100946e-001 -7.850651e-001 1.419859e-001 2.823199e-001 2.997707e-001 2.816890e-001 2.783969e-001 2.208096e-001 1.797941e-001 1.523316e-001 6.785654e-002 1.100277e-001 1.523608e-001 2.022220e-001 3.288983e-001 2.669610e-001 4.642019e-001 5.859628e-001 5.222028e-001 5.586719e-001 5.388744e-001 5.332361e-001 5.889627e-001 4.952245e-001 3.554747e-001 3.532085e-001 2.978390e-001 1.029055e+000
<VARIANCE> 39
 1.376420e-001 3.076628e-001 3.276640e-001 3.519598e-001 3.434651e-001 4.656177e-001 4.151122e-001 5.810633e-001 6.397957e-001 5.778064e-001 5.110562e-001 7.680262e-001 1.109693e-001 1.228052e-001 3.948489e-001 4.362993e-001 5.629099e-001 5.370973e-001 5.923475e-001 6.950560e-001 7.655867e-001 8.161622e-001 9.692265e-001 7.717679e-001 8.011079e-001 2.533172e-001 1.781071e-001 5.487725e-001 4.517418e-001 7.153264e-001 6.368598e-001 6.621897e-001 6.750146e-001 6.954823e-001 7.424183e-001 7.895280e-001 8.392724e-001 1.087445e+000 4.077152e-001
<GCONST> 4.407901e+001
<STATE> 7
<NUMMIXES> 14
<MIXTURE> 1 5.155190e-002
<MEAN> 39
 3.714860e-001 1.125640e-001 4.862675e-002 4.635487e-001 2.354159e-001 2.550963e-001 1.697829e-001 3.099713e-001 1.569376e-001 2.170196e-001 1.318922e-001 1.935750e-001 -6.151383e-001 -3.479402e+000 -9.624395e-001 1.496169e-001 -6.306224e-001 -9.022528e-001 -7.192561e-001 -4.669499e-001 -7.001891e-001 -1.050442e-001 -3.692195e-001 8.554779e-002 -2.502998e-001 3.401548e+000 -1.621816e+000 -3.758489e-001 8.844823e-001 -1.066882e+000 -6.639982e-001 -1.198985e+000 -1.133754e+000 -8.145806e-001 -7.002516e-001 -6.049934e-001 -3.744332e-001 -6.675650e-001 3.550913e+000
<VARIANCE> 39
 8.435933e-002 1.543432e-001 1.996404e-001 3.568555e-002 1.213126e-001 1.006085e-001 1.117305e-001 9.285258e-002 1.108482e-001 8.420837e-002 1.127267e-001 9.912339e-002 2.307852e-002 2.651178e+000 5.651296e+000 3.779330e+000 2.819994e+000 4.168325e+000 2.303852e+000 3.280911e+000 4.407856e+000 4.238286e+000 2.537795e+000 2.444937e+000 2.328075e+000 2.977278e+000 2.519672e+000 5.171775e+000 3.739808e+000 3.313389e+000 3.473945e+000 2.735809e+000 3.905500e+000 3.448738e+000 3.216670e+000 1.569929e+000 2.129708e+000 1.581293e+000 1.734792e+000
<GCONST> 6.901359e+001
<MIXTURE> 2 7.851926e-002
<MEAN> 39
 1.508657e-001 3.271585e-001 -2.170446e-002 3.265195e-001 3.760085e-001 2.278201e-001 2.205558e-001 9.836904e-002 -8.868098e-002 1.372353e-001 1.791455e-001 1.103310e-001 -4.362271e-001 -8.875156e-001 -1.058825e+000 -1.027572e+000 -5.523817e-001 -7.483397e-001 -8.267555e-001 -4.369063e-001 -3.434774e-001 -1.734856e-001 -5.050903e-002 -2.321576e-001 -2.352474e-002 -1.694093e+000 -2.199402e+000 -1.314018e+000 -8.410708e-001 -4.141409e-001 -7.929419e-001 -6.934023e-001 -2.877090e-001 -7.822033e-002 2.182933e-001 -2.659623e-002 -2.078571e-001 2.753151e-001 -1.907272e+000
<VARIANCE> 39
 2.056243e-001 3.297866e-001 4.860312e-001 3.163189e-001 2.944061e-001 4.628497e-001 4.148313e-001 9.663985e-001 7.460564e-001 5.215937e-001 6.232354e-001 5.144380e-001 1.818122e-001 3.718510e+000 1.934042e+000 1.756732e+000 1.236503e+000 1.124759e+000 1.401651e+000 1.033190e+000 1.627545e+000 1.244326e+000 1.083263e+000 1.381250e+000 9.880307e-001 3.993595e+000 2.502712e+000 1.147820e+000 1.215797e+000 1.181947e+000 8.538979e-001 9.818644e-001 7.437626e-001 1.748840e+000 1.188836e+000 8.782941e-001 1.032657e+000 8.005370e-001 3.447349e+000
<GCONST> 6.873315e+001
<MIXTURE> 3 1.465234e-001
<MEAN> 39
 -1.114198e+000 -6.092713e-001 4.713935e-001 -1.700706e-001 -2.904429e-001 2.856624e-002 -1.751743e-002 -7.595517e-002 5.680771e-001 -1.828219e-001 1.957541e-001 7.594057e-002 3.139791e-001 -1.823442e+000 -5.710828e-001 4.992604e-001 -1.035911e+000 -1.191859e-001 -3.388903e-001 6.804806e-002 -4.819603e-001 4.392680e-001 -5.206378e-001 1.372237e-001 -2.004797e-001 3.068469e+000 8.195682e-001 7.619074e-001 -1.627927e-002 4.163679e-001 2.456906e-001 -3.282673e-001 3.222010e-001 1.356308e-001 -5.046253e-001 5.794805e-002 -4.632441e-002 -1.950631e-002 -5.348008e-001
<VARIANCE> 39
 1.747876e+000 2.574490e+000 2.867133e+000 1.245005e+000 1.670142e+000 1.768984e+000 2.387425e+000 1.875688e+000 1.643775e+000 1.554605e+000 1.381257e+000 1.318472e+000 3.952448e-001 5.190102e+000 5.644016e+000 4.081271e+000 3.230392e+000 3.160597e+000 2.809250e+000 3.198785e+000 3.097090e+000 2.896401e+000 2.417516e+000 2.359876e+000 2.091315e+000 4.525048e+000 4.696110e+000 5.166075e+000 3.855768e+000 3.322721e+000 2.562160e+000 2.860704e+000 2.884264e+000 2.934779e+000 2.128774e+000 2.432668e+000 2.047588e+000 2.294677e+000 5.266577e+000
<GCONST> 1.078514e+002
<MIXTURE> 4 5.778411e-002
<MEAN> 39
 8.504167e-001 7.579994e-001 8.108068e-001 -3.758743e-002 -3.667431e-001 -5.087317e-001 -1.020869e+000 -1.134139e+000 -9.655790e-001 -1.305686e+000 -5.830892e-001 -6.230932e-001 9.792348e-001 1.630517e+000 7.124919e-001 2.471899e+000 -1.747193e+000 -1.861105e+000 -1.852445e+000 -1.731113e+000 -1.599639e+000 -1.267148e+000 -1.295631e+000 -6.520612e-001 -1.189071e+000 3.953754e+000 -9.187201e-001 -1.182571e+000 -2.223039e-001 -2.986414e-001 1.832010e-001 3.862092e-001 3.759685e-001 9.162939e-001 5.534558e-001 8.706022e-001 3.569701e-001 3.692873e-001 -1.180202e+000
<VARIANCE> 39
 1.291991e+000 2.063748e+000 2.138455e+000 1.245391e+000 1.448705e+000 1.468103e+000 2.413724e+000 1.448879e+000 1.363564e+000 1.493059e+000 1.132354e+000 1.520163e+000 4.511384e-001 4.107411e+000 4.930083e+000 7.736073e+000 3.596851e+000 3.753195e+000 2.230211e+000 3.818661e+000 3.250504e+000 2.421714e+000 3.209694e+000 3.347002e+000 3.439611e+000 1.938244e+000 5.284072e+000 3.044272e+000 3.505126e+000 2.327354e+000 2.913391e+000 2.504299e+000 3.637232e+000 2.075253e+000 1.585657e+000 1.782124e+000 1.483170e+000 2.087527e+000 3.212745e+000
<GCONST> 1.044571e+002
<MIXTURE> 5 9.903113e-002
<MEAN> 39
 -1.995625e-001 3.177047e-002 -5.635210e-002 5.632380e-001 3.692443e-001 4.342391e-001 3.343665e-001 1.633169e-001 1.326400e-001 3.217757e-002 6.514551e-002 3.192825e-001 -3.270919e-001 1.578548e-001 6.295013e-002 1.920421e+000 -1.098696e+000 -7.954693e-001 -2.590939e-001 -9.652107e-001 -6.270529e-001 -4.444883e-001 -7.874554e-001 -1.830263e-001 -2.682646e-001 3.079296e+000 5.460086e-001 4.573207e-001 1.469637e+000 -1.181146e+000 -9.933242e-001 -9.438768e-001 -1.150097e+000 -5.513875e-001 -5.449525e-001 -5.615162e-001 -2.352265e-001 -4.604029e-001 2.742674e+000
<VARIANCE> 39
 5.032613e-001 8.750346e-001 4.957397e-001 5.363609e-001 3.419904e-001 5.607169e-001 9.101705e-001 8.028493e-001 7.499936e-001 8.001125e-001 8.606454e-001 8.910584e-001 2.744915e-001 5.810094e+000 6.350947e+000 3.432967e+000 3.867225e+000 2.958594e+000 3.335837e+000 3.245436e+000 3.537002e+000 2.141491e+000 1.962041e+000 1.682948e+000 1.809315e+000 2.520892e+000 4.577192e+000 2.558197e+000 3.220718e+000 2.636657e+000 1.711851e+000 1.693016e+000 1.857345e+000 1.854322e+000 1.843307e+000 1.755035e+000 1.680744e+000 1.921301e+000 2.652721e+000
<GCONST> 9.011812e+001
<MIXTURE> 6 4.486039e-002
<MEAN> 39
 -1.838325e+000 -1.914024e+000 1.915758e+000 -7.644342e-001 -5.635560e-001 -8.064455e-001 -1.253799e+000 7.504946e-001 -3.666882e-001 -5.047614e-001 2.054619e-002 -2.125303e-001 1.011324e+000 1.595544e+000 -6.284196e-001 2.034354e+000 -1.481560e+000 -1.701339e+000 -2.488327e+000 -3.562079e+000 -9.643060e-001 -7.885491e-001 -4.949359e-001 -2.961240e-001 -1.465217e+000 4.961248e+000 3.204855e+000 2.364988e+000 -1.656676e+000 9.362732e-001 2.421256e-001 -7.760950e-002 -1.225406e-001 -1.563371e+000 5.182632e-001 9.419725e-001 8.164873e-003 -3.882127e-001 -7.490339e-001
<VARIANCE> 39
 4.191229e+000 3.779275e+000 2.314247e+000 1.323631e+000 3.460540e+000 5.196107e+000 1.861788e+000 2.287489e+000 1.918649e+000 2.436515e+000 2.118718e+000 2.689137e+000 6.346096e-001 1.023027e+001 8.028491e+000 4.729477e+000 5.509859e+000 5.423710e+000 6.130608e+000 2.699602e+000 6.525152e+000 4.379227e+000 6.032594e+000 4.816106e+000 4.609581e+000 1.286184e+000 6.029618e+000 7.159149e+000 5.539427e+000 6.983337e+000 7.701098e+000 8.181396e+000 4.207185e+000 3.641112e+000 5.243241e+000 5.457398e+000 5.165211e+000 5.568348e+000 5.565410e+000
<GCONST> 1.261147e+002
<MIXTURE> 7 2.377711e-002
<MEAN> 39
 -4.449096e+000 1.097856e+000 -9.808655e-001 -7.826510e-001 1.897918e-001 1.654725e+000 1.685628e+000 1.502562e-001 1.090705e+000 8.306516e-001 5.012805e-001 2.210514e-001 -3.129632e-001 -1.116579e+000 1.250985e-001 1.605176e-001 -5.798109e-001 -5.323515e-002 -1.733147e-001 -6.720243e-002 -1.975917e-001 -6.428810e-001 -5.000178e-001 4.847768e-001 2.590221e-001 2.264356e+000 1.420620e+000 -6.601097e-001 4.296780e-001 -5.637653e-001 -1.307722e-001 -6.418783e-001 -6.782402e-001 -3.795370e-001 -4.271552e-001 -6.315254e-001 -1.574437e-001 -2.517450e-001 1.199834e+000
<VARIANCE> 39
 7.776344e+000 2.548046e+000 8.764854e-001 6.856858e-001 2.016664e+000 4.447796e+000 3.529471e+000 1.265719e+000 9.112073e-001 2.324177e+000 2.756611e+000 2.643968e+000 5.635871e-001 2.811640e+001 6.367644e+000 1.107235e+001 4.498839e+000 1.188851e+001 3.952241e+000 9.887837e+000 6.251108e+000 4.459574e+000 6.844977e+000 6.212260e+000 4.914042e+000 9.604354e+000 1.935518e+001 5.784833e+000 6.506535e+000 4.940892e+000 1.138657e+001 4.395534e+000 8.700165e+000 5.897159e+000 4.804055e+000 8.604413e+000 7.479784e+000 6.384969e+000 1.149552e+001
<GCONST> 1.322467e+002
<MIXTURE> 8 4.676758e-002
<MEAN> 39
 -1.893773e+000 -1.167588e+000 -1.469920e+000 -1.652514e-001 -4.961212e-001 -8.655226e-001 -5.065630e-002 6.080792e-001 2.537168e-001 1.357742e-001 -6.046419e-004 4.590327e-001 -2.387998e+000 -2.983306e+000 -1.678771e+000 -1.216053e+000 -4.343985e-001 -9.034125e-001 -6.676066e-001 -1.649682e-001 6.084625e-001 1.915853e-001 2.604557e-001 -1.236629e-001 1.695910e-001 -2.551338e+000 3.851863e-001 6.039066e-001 6.614018e-001 2.953205e-001 5.154977e-001 8.666128e-001 3.305510e-001 -6.166375e-002 -1.585556e-001 2.722836e-001 1.456357e-001 -3.542917e-002 1.494960e+000
<VARIANCE> 39
 1.839505e+000 8.147083e-001 6.393630e-001 2.935150e-001 5.424127e-001 6.523796e-001 5.348305e-001 9.665999e-001 8.076965e-001 6.714652e-001 8.029004e-001 4.208596e-001 1.148496e+000 3.352322e+000 1.255060e+000 1.028680e+000 1.008504e+000 1.136384e+000 1.504735e+000 7.570046e-001 1.367870e+000 1.631133e+000 8.127702e-001 9.414177e-001 1.082285e+000 3.663995e+000 3.736714e+000 1.256340e+000 1.003782e+000 6.911974e-001 8.764481e-001 1.011602e+000 7.237794e-001 1.117548e+000 6.742761e-001 6.910856e-001 5.994475e-001 6.788073e-001 2.471573e+000
<GCONST> 7.088623e+001
<MIXTURE> 9 1.165597e-002
<MEAN> 39
 -3.109768e+000 -3.802004e-001 6.485420e-001 1.428189e-001 3.744160e-001 -4.501009e-001 6.770455e-001 6.845331e-001 -8.091891e-001 2.571966e-001 1.993173e-001 6.787145e-001 3.801465e-002 -1.327029e+000 -3.972367e+000 3.817467e+000 -3.036632e+000 1.666221e+000 -4.504180e-001 -2.603768e+000 3.115510e+000 -3.782146e+000 3.948139e-001 -1.603875e+000 -1.621273e+000 4.080212e+000 4.738377e+000 -5.502111e-001 1.556639e+000 -1.748609e+000 5.714312e-001 -2.056286e-001 -2.804771e+000 5.739859e-001 -3.270142e-001 1.179906e-001 -1.449929e+000 -1.934610e+000 2.886277e+000
<VARIANCE> 39
 9.375660e-001 5.445451e-001 1.044097e+000 4.856478e-001 3.504851e+000 1.859613e+000 1.771951e+000 2.295608e+000 1.274603e+000 1.519385e+000 8.096613e-001 2.760102e+000 2.207323e-001 6.354431e+000 3.983126e+000 1.260889e+000 2.673959e+000 3.104870e+000 2.314540e+000 2.474731e+000 2.487471e+000 3.851685e+000 2.475157e+000 3.660146e+000 4.811737e+000 3.242927e+000 3.857963e+000 7.660458e+000 3.519325e+000 7.543159e+000 6.366989e+000 2.984186e+000 5.767210e+000 5.287755e+000 3.930315e+000 4.741683e+000 3.806785e+000 5.987668e+000 3.164744e+000
<GCONST> 1.083245e+002
<MIXTURE> 10 1.524812e-001
<MEAN> 39
 -1.182443e-002 -2.954774e-001 -2.424513e-001 3.510187e-001 2.352438e-001 6.227172e-002 1.386271e-001 -2.616901e-001 -3.375298e-001 2.002212e-002 -6.022174e-002 -4.086404e-002 -2.595779e-001 9.264604e-004 -2.071524e-001 -7.574786e-002 9.316184e-002 -2.279629e-002 5.241095e-002 4.926552e-002 -7.575905e-002 -1.229433e-002 -7.801094e-002 -7.778379e-002 5.140320e-002 2.236281e-001 -1.182277e-001 1.671945e-001 1.262280e-001 -3.451905e-002 -3.970075e-002 8.930063e-002 -7.079084e-002 -2.882125e-002 1.896842e-001 6.572083e-002 -1.157067e-003 4.671174e-002 1.769288e-001
<VARIANCE> 39
 2.488243e-001 1.308328e+000 1.000572e+000 6.632879e-001 8.865002e-001 1.061594e+000 1.228228e+000 8.752093e-001 8.626141e-001 1.027495e+000 6.614105e-001 6.658545e-001 2.330293e-001 4.540693e-001 1.551328e+000 1.147997e+000 1.001295e+000 9.542842e-001 9.538031e-001 7.066188e-001 9.983119e-001 1.020781e+000 7.626892e-001 8.563076e-001 6.961671e-001 6.050085e-001 8.831162e-001 1.171381e+000 1.471643e+000 1.122787e+000 1.105085e+000 1.143118e+000 8.686993e-001 9.174064e-001 9.808747e-001 8.386077e-001 9.196621e-001 8.165182e-001 7.801273e-001
<GCONST> 6.564770e+001
<MIXTURE> 11 1.031162e-001
<MEAN> 39
 -2.835238e-001 3.174281e-001 -8.270979e-002 4.658650e-001 3.370099e-001 -8.538591e-002 1.050884e-001 1.573851e-002 -1.837220e-001 1.705200e-001 4.254592e-003 1.348093e-001 -7.950372e-001 -3.466333e-002 -6.013458e-003 7.241449e-003 3.597957e-002 7.705809e-002 1.642096e-001 8.828467e-002 1.096717e-002 -4.376690e-002 6.070518e-003 6.481370e-002 -6.508130e-002 -2.715764e-002 -3.843860e-002 -1.679359e-002 6.747545e-002 6.618394e-002 4.063489e-002 5.685904e-002 -3.553625e-003 3.492551e-002 2.757294e-002 -2.039936e-003 5.567502e-002 -2.458066e-002 4.881312e-002
<VARIANCE> 39
 1.247142e-001 3.591996e-001 5.100614e-001 1.614643e-001 5.113106e-001 3.742560e-001 6.294168e-001 4.411207e-001 6.171097e-001 5.847820e-001 7.031229e-001 4.911946e-001 1.140879e-001 8.067808e-002 4.043215e-001 3.252279e-001 3.421934e-001 4.926186e-001 4.223159e-001 4.728053e-001 4.420604e-001 6.385690e-001 6.064451e-001 6.711743e-001 5.420954e-001 4.435826e-002 9.031442e-002 2.712376e-001 1.904300e-001 2.558616e-001 2.944602e-001 2.697288e-001 3.789407e-001 2.394011e-001 3.919497e-001 3.852210e-001 3.940037e-001 4.126762e-001 3.160782e-002
<GCONST> 2.623261e+001
<MIXTURE> 12 1.777501e-001
<MEAN> 39
 5.257654e-001 3.151745e-001 3.989640e-001 4.561972e-001 3.873868e-001 5.961172e-002 1.431825e-001 3.212532e-001 5.649314e-002 2.322498e-001 2.173469e-001 1.590827e-001 -6.115405e-001 3.861797e-002 -6.624671e-003 -1.411210e-002 -1.333626e-002 2.107973e-002 6.899150e-003 4.265506e-003 -2.008744e-003 -1.035897e-002 3.055406e-003 -2.482614e-003 4.602039e-003 8.062889e-010 3.042630e-002 -9.732563e-003 -1.501229e-002 -1.353628e-002 1.931274e-002 4.890331e-003 5.112238e-003 -1.123484e-003 -6.689795e-003 1.749117e-003 -6.013804e-004 3.765362e-003 -2.400695e-009
<VARIANCE> 39
 5.139006e-002 8.556240e-002 1.309881e-001 4.406520e-002 7.300714e-002 6.085483e-002 8.736212e-002 3.146103e-002 8.811714e-002 8.905115e-002 1.510667e-001 1.046982e-001 1.933210e-002 7.030833e-004 8.295890e-005 5.536268e-004 1.391550e-004 3.895523e-004 2.303086e-005 9.197246e-006 3.703825e-005 1.082473e-004 9.063755e-006 3.690589e-005 2.166732e-005 1.985690e-018 7.596329e-004 4.367314e-005 3.008638e-004 1.333782e-004 2.790790e-004 4.188158e-005 1.140645e-005 4.493618e-005 1.153254e-004 1.932942e-005 1.399024e-006 1.513764e-005 7.929441e-018
<GCONST> -2.767576e+002
<MIXTURE> 13 6.181550e-003
<MEAN> 39
 -5.229633e+000 -8.110894e-001 1.284092e-001 -7.284753e-001 -2.755605e+000 -6.507622e-001 -2.398352e-001 -3.195394e+000 -1.866267e+000 -1.610491e-001 5.411457e-001 8.825899e-001 1.327615e+000 -3.007087e+000 -3.303012e+000 -8.100933e-001 -4.390640e+000 -2.327432e+000 -5.250237e+000 -3.705528e+000 -2.234368e+000 -2.517395e+000 -4.727213e-001 -5.100895e-001 -1.216134e+000 6.438443e+000 5.067586e+000 -1.283015e+000 -4.541001e-001 4.789120e-001 3.579836e+000 -6.724269e-001 -1.921105e+000 4.525476e+000 2.501828e+000 -1.789947e-001 -4.223835e-001 -3.015142e+000 5.035216e-001
<VARIANCE> 39
 9.671180e-001 2.997316e+000 1.182161e+000 1.357754e+000 9.963737e+000 4.966126e+000 2.723769e+000 2.176687e+000 1.856104e+000 1.884912e+000 2.463621e+000 4.039208e+000 1.125553e+000 1.319600e+001 4.183840e+000 1.077908e+001 6.960602e+000 1.520300e+001 4.091091e+000 8.197081e+000 4.218013e+000 6.731565e+000 6.473053e+000 1.788589e+000 8.142444e+000 2.541168e+000 5.909093e+000 9.764907e+000 1.467585e+001 1.939726e+001 5.519502e+000 5.164414e+000 5.716801e+000 1.902381e+000 3.425660e+000 1.156983e+000 6.948147e+000 4.234688e+000 2.153047e+001
<GCONST> 1.292240e+002
<TRANSP> 8
 0.000000e+000 1.000000e+000 0.000000e+000 0.000000e+000 0.000000e+000 0.000000e+000 0.000000e+000 0.000000e+000
 0.000000e+000 7.445097e-001 2.554903e-001 0.000000e+000 0.000000e+000 0.000000e+000 0.000000e+000 0.000000e+000
 0.000000e+000 0.000000e+000 9.211331e-001 7.886691e-002 0.000000e+000 0.000000e+000 0.000000e+000 0.000000e+000
 0.000000e+000 0.000000e+000 0.000000e+000 9.714140e-001 2.858603e-002 0.000000e+000 0.000000e+000 0.000000e+000
 0.000000e+000 0.000000e+000 0.000000e+000 0.000000e+000 7.772315e-001 2.227685e-001 0.000000e+000 0.000000e+000
 0.000000e+000 0.000000e+000 0.000000e+000 0.000000e+000 0.000000e+000 9.385078e-001 6.149226e-002 0.000000e+000
 0.000000e+000 0.000000e+000 0.000000e+000 0.000000e+000 0.000000e+000 0.000000e+000 7.611333e-001 2.388668e-001
 0.000000e+000 0.000000e+000 0.000000e+000 0.000000e+000 0.000000e+000 0.000000e+000 0.000000e+000 0.000000e+000
<ENDHMM>
