~o
<STREAMINFO> 1 39
<VECSIZE> 39<NULLD><MFCC_E_D_A_Z><DIAGC>
~h "two"
<BEGINHMM>
<NUMSTATES> 8
<STATE> 2
<NUMMIXES> 14
<MIXTURE> 1 1.212204e-001
<MEAN> 39
 -4.215816e-001 1.655836e+000 1.783090e+000 6.944511e-001 1.020656e+000 -6.802209e-002 1.456982e+000 1.628777e-001 -5.045229e-002 1.391928e-001 1.785427e-001 1.544932e-001 1.841990e+000 -1.887424e-002 6.176938e-001 2.478131e+000 2.692048e-001 -3.529146e-001 -1.377328e+000 -3.801604e-001 1.629528e-001 -1.446033e+000 -1.687599e+000 -1.621705e-001 4.371297e-001 2.862111e+000 -4.323166e-001 -2.652185e+000 -7.847954e-001 -1.306487e+000 -1.230937e+000 -1.275452e+000 -1.591307e+000 -4.293061e-002 -1.026216e-001 -5.978289e-001 8.330946e-001 3.929037e-001 -2.201965e+000
<VARIANCE> 39
 3.437973e+000 2.993807e+000 2.032537e+000 9.276832e-001 4.308879e+000 1.151312e+000 8.636529e+000 1.670120e+000 2.293314e+000 9.648086e-001 1.576687e+000 8.394238e+000 1.411873e+000 8.779498e+000 1.474372e+001 5.471535e+000 6.940913e+000 9.814523e+000 3.606939e+000 5.725903e+000 3.632380e+000 5.682192e+000 2.379549e+000 5.373292e+000 8.054299e+000 6.567618e+000 8.216952e+000 1.027162e+001 7.949127e+000 5.113441e+000 1.229595e+001 4.036498e+000 5.548879e+000 4.724921e+000 5.740653e+000 1.263066e+000 4.820112e+000 9.291283e+000 1.291487e+001
<GCONST> 1.296441e+002
<MIXTURE> 2 1.182831e-001
<MEAN> 39
 8.106501e-001 -8.342819e-001 9.038030e-001 -1.345668e-001 -1.228860e+000 -4.260486e-001 -3.285250e+000 -2.246915e+000 -4.368325e-001 5.747670e-001 2.396077e+000 -1.709853e+000 2.299598e+000 1.790485e+000 1.023281e+000 -2.078986e+000 -2.488626e+000 -9.195713e-001 2.816133e+000 8.830894e-001 -1.761532e+000 -1.407497e+000 -3.651371e-001 2.223187e+000 1.812991e+000 1.085852e+000 -2.356905e+000 1.253620e-001 -5.074843e-001 -1.085784e+000 1.113260e-002 8.444575e-001 2.929065e+000 2.254896e+000 -2.859022e-002 -1.545471e+000 -1.794630e+000 1.937588e+000 -2.500585e+000
<VARIANCE> 39
 1.950671e+000 1.432967e+000 2.990882e+000 1.636723e+000 8.490860e-001 1.937417e+000 6.322160e-001 1.415912e+000 2.673005e+000 3.126063e+000 9.442948e-001 2.311732e+000 2.275481e-001 1.813463e+000 2.258940e+000 3.400529e+000 2.335581e+000 2.040951e+000 2.232415e+000 3.316998e+000 1.979131e+000 3.124066e+000 5.159225e+000 3.657068e+000 4.072782e+000 8.615037e-001 1.054481e+000 2.915404e+000 4.462900e+000 2.840230e+000 2.068949e+000 4.521506e+000 1.291111e+000 1.897527e+000 4.382105e+000 5.123985e+000 3.027750e+000 3.188276e+000 1.139658e+000
<GCONST> 1.006202e+002
<MIXTURE> 3 1.462368e-002
<MEAN> 39
 -2.808602e+000 -2.127312e+000 -1.726823e+000 -9.444829e-001 4.282962e+000 1.297935e+000 3.803699e+000 -1.268859e+000 2.142518e+000 2.384910e+000 4.753898e+000 1.611858e+000 2.450134e+000 5.413694e+000 3.017446e+000 4.273556e+000 6.183827e+000 5.815913e-001 -3.917678e-001 7.922062e-001 2.829352e+000 1.357574e-001 3.380468e+000 -1.789826e+000 3.372540e+000 8.123506e+000 6.185735e-001 8.263865e+000 4.934608e+000 -1.075379e+000 -3.183466e+000 -2.715352e+000 1.632143e+000 -1.115637e+000 -3.861432e+000 -3.925815e+000 -5.216744e+000 -4.263030e-001 2.125477e+000
<VARIANCE> 39
 1.269751e+000 9.127184e-001 2.965191e-001 7.963971e-001 3.066987e+000 3.492377e+000 2.081311e+000 2.251433e+000 1.591976e-001 1.134885e+000 9.169992e-001 1.324748e+000 1.633319e-001 2.417975e-001 3.733654e+001 3.586071e+001 9.406846e+000 2.154544e+001 1.077210e+001 2.365674e+000 3.872793e+000 5.641744e+000 2.141635e+001 3.009761e+001 7.647809e+000 4.276505e+000 6.676275e+000 7.348586e+000 1.047618e+001 1.321468e+001 1.105768e+001 5.464069e+000 2.599531e+000 5.216205e+000 3.660216e+000 1.667862e+001 4.821352e+000 6.047753e+000 5.475900e+000
<GCONST> 1.230553e+002
<MIXTURE> 4 1.114491e-001
<MEAN> 39
 -3.601572e-001 -1.980086e+000 7.551830e-001 -8.182202e-001 -2.312990e+000 -3.760467e+000 -2.778793e+000 7.102811e-001 -2.301280e-001 -2.153306e-001 -1.867757e+000 -4.919555e-001 2.222214e+000 2.035893e+000 -3.295403e-002 -3.466602e+000 -1.252219e+000 1.281702e+000 1.912487e-001 -1.565261e+000 -7.859280e-001 2.325000e+000 2.410217e+000 -1.711853e+000 -2.050186e+000 9.929654e-001 -1.166810e+000 1.148160e+000 -7.818438e-001 -2.740970e-001 2.224989e+000 3.609441e+000 2.845234e+000 -1.628983e+000 -5.835123e-002 7.759864e-001 1.700046e+000 -7.911108e-001 -2.158742e+000
<VARIANCE> 39
 3.681554e+000 3.281125e+000 2.275075e+000 1.125571e+000 1.484396e+000 1.807577e+000 1.060124e+000 2.482185e+000 2.377672e+000 3.882749e+000 2.943502e+000 3.805578e+000 5.316666e-001 1.348921e+000 4.451381e+000 1.463471e+000 1.955064e+000 4.883934e+000 2.999600e+000 1.829323e+000 3.258595e+000 1.728759e+000 4.577944e+000 3.447719e+000 3.377396e+000 6.181696e-001 3.356251e+000 3.338949e+000 3.280432e+000 4.114325e+000 3.155102e+000 3.615292e+000 2.657066e+000 2.650709e+000 1.734149e+000 4.010002e+000 3.803574e+000 3.395343e+000 1.704865e+000
<GCONST> 1.068628e+002
<MIXTURE> 5 1.360417e-001
<MEAN> 39
 -4.053020e-001 -8.249107e-001 2.367707e+000 4.279314e-001 -5.034443e-001 -2.243759e+000 -2.539686e+000 -5.692129e-001 6.297807e-002 -3.589763e-001 5.035031e-001 -1.316320e+000 1.914239e+000 3.629948e+000 1.133776e+000 -6.130664e-001 5.718739e-001 -1.370412e+000 -4.863660e-001 -3.146517e+000 -2.879244e+000 -1.091380e+000 9.434157e-001 2.515692e+000 -2.369131e+000 3.299215e+000 5.557523e-001 1.137491e+000 -2.541748e+000 -1.552936e+000 3.157485e-001 3.193280e+000 2.502474e+000 -7.772388e-001 -6.627144e-001 7.147085e-001 8.992284e-001 1.492031e+000 -2.824921e+000
<VARIANCE> 39
 3.845256e+000 2.722362e+000 2.782532e+000 1.477479e+000 2.129746e+000 2.564113e+000 5.391428e+000 1.811821e+000 1.862880e+000 1.846997e+000 3.010288e+000 6.899540e+000 5.346022e-001 4.834006e+000 8.301429e+000 6.859800e+000 5.903404e+000 3.938859e+000 4.936015e+000 3.394354e+000 2.982693e+000 5.146101e+000 5.340571e+000 4.862724e+000 4.158587e+000 2.098252e+000 9.006203e+000 6.331515e+000 4.721869e+000 4.101928e+000 4.027549e+000 3.050466e+000 5.743313e+000 3.970263e+000 4.104897e+000 2.939550e+000 5.700941e+000 4.805738e+000 5.561512e+000
<GCONST> 1.229553e+002
<MIXTURE> 6 1.096773e-002
<MEAN> 39
 -4.546508e+000 1.966640e+000 -2.794030e+000 -2.434268e+000 3.110899e+000 -2.052770e+000 2.852504e+000 -3.075301e+000 4.074200e-001 3.061268e-001 2.914911e+000 2.419221e-001 7.127612e-001 3.226767e+000 -2.801933e+000 4.221503e-001 -5.742981e+000 1.875819e+000 -4.029295e+000 3.257779e+000 -1.921211e+000 3.192190e+000 -3.082432e+000 2.726308e+000 -2.864588e+000 1.023125e+001 -1.384612e+000 -3.742870e+000 6.076461e+000 5.239903e+000 -1.292921e+000 5.104206e+000 -1.000042e+000 4.378881e+000 1.819340e+000 2.712336e+000 9.664088e-001 6.454331e-001 2.023527e+000
<VARIANCE> 39
 2.007811e+000 1.453203e+000 9.162437e-001 1.254430e+000 3.645216e-001 1.839676e+001 2.538742e+000 5.184979e-001 5.120385e+000 7.231796e-001 3.322500e+000 4.445905e-002 5.129931e-001 2.981061e+000 8.051329e+000 1.184603e+001 4.085411e+000 5.155862e+000 1.178174e+001 1.781406e-001 3.199745e+000 1.461703e+000 4.034191e+000 1.789015e+000 2.029289e+000 4.238510e-001 1.793942e+000 1.187460e+000 4.432347e+000 3.015709e+001 1.055530e+000 1.302938e+001 2.727814e+000 1.094465e+000 5.177418e+000 7.954976e+000 1.562975e+000 8.434664e+000 2.996379e+001
<GCONST> 1.056654e+002
<MIXTURE> 7 8.428101e-002
<MEAN> 39
 2.254050e-002 -7.522694e-001 2.571541e+000 -2.945294e-001 -2.637843e+000 -3.797650e+000 -2.116250e+000 6.965805e-001 -1.495485e+000 -1.753562e+000 -7.351606e-001 4.946340e-002 1.907986e+000 3.903610e+000 1.649087e-001 -1.224347e+000 6.743686e-001 -1.944777e+000 -2.024087e+000 -3.767879e+000 -1.221090e-001 8.407828e-001 3.662494e-001 -2.198925e+000 -4.186255e-001 2.412659e+000 -6.740397e-001 2.476313e-001 -3.772609e+000 3.586666e-001 2.704695e+000 3.440300e+000 1.336237e+000 -1.248136e+000 2.440879e+000 2.744393e+000 -2.172838e-002 -1.089823e+000 -2.751251e+000
<VARIANCE> 39
 2.571878e+000 3.778509e+000 1.472646e+000 2.112642e+000 1.510168e+000 1.097187e+000 1.299736e+000 1.311355e+000 8.217795e-001 2.841667e+000 2.279829e+000 1.332531e+000 5.083581e-001 2.621629e+000 4.120134e+000 4.030355e+000 3.684205e+000 5.484339e+000 6.224817e+000 1.962197e+000 3.419601e+000 3.737840e+000 6.464195e+000 2.778626e+000 4.730204e+000 1.256627e+000 4.042688e+000 8.911665e+000 1.976337e+000 3.391401e+000 2.111652e+000 1.136232e+000 3.414733e+000 2.398311e+000 1.407238e+000 1.690169e+000 2.964232e+000 2.534257e+000 1.461439e+000
<GCONST> 1.056351e+002
<MIXTURE> 8 2.924678e-002
<MEAN> 39
 -4.288161e+000 -2.516753e+000 7.038988e-001 -5.337905e-001 -4.004792e+000 -3.440613e+000 -2.522386e+000 -1.717606e+000 -2.874302e+000 -9.278370e-001 2.698771e-001 -2.135660e+000 2.303407e+000 -8.149804e-001 -2.923092e+000 -2.758581e+000 -1.937827e-001 4.028862e-001 -3.821304e+000 -4.143098e+000 2.234075e+000 3.550398e-001 -1.248752e+000 -2.371255e+000 -1.826619e+000 1.950574e+000 3.845987e+000 1.730153e+000 -2.950513e+000 4.338503e-001 4.400855e+000 1.977559e+000 2.114013e+000 1.928269e+000 3.347061e+000 2.334898e-001 -2.374486e+000 7.278208e-001 -3.154281e+000
<VARIANCE> 39
 5.036049e-001 1.966435e+000 1.035587e+000 4.772503e-001 5.047327e+000 2.931012e+000 4.848758e-001 4.130486e+000 2.445082e+000 1.588766e+000 1.992259e+000 4.244088e+000 2.573574e-001 4.839727e+000 5.323116e+000 4.881244e+000 5.689989e+000 1.027629e+001 3.112940e+000 1.525070e+000 7.131997e+000 6.661238e+000 4.584961e+000 5.790594e+000 1.097030e+001 5.079399e+000 3.826211e+000 7.560341e+000 6.263938e+000 7.434674e+000 2.973995e+000 2.696175e+000 1.442368e+000 1.031871e+001 1.246333e+000 6.945242e+000 2.777648e+000 1.368810e+001 5.359375e+000
<GCONST> 1.175698e+002
<MIXTURE> 9 1.096806e-002
<MEAN> 39
 -4.240893e+000 -1.328608e+000 -2.138873e-001 -5.585651e-001 -6.613707e+000 -3.674020e+000 -1.059809e+000 -1.987023e+000 -3.986620e+000 -2.403801e-001 -3.084090e-002 3.650366e+000 2.613312e+000 1.345073e+000 -4.863413e+000 -3.558015e+000 -5.838417e+000 6.749836e-001 -6.882418e+000 -5.822555e+000 -2.125778e-001 3.171111e-002 9.891444e-001 -1.865251e+000 -2.469191e-001 4.489806e+000 4.265294e+000 3.152268e-001 -3.015233e+000 -7.207618e-001 6.157077e+000 3.238411e+000 -8.452386e-001 1.432105e+000 4.553647e+000 1.160566e+000 -2.342793e+000 -4.525453e+000 -3.237041e+000
<VARIANCE> 39
 3.348743e+000 2.488921e+000 3.253122e+000 5.326452e-001 4.402068e+000 2.251083e+000 4.636222e+000 4.481648e+000 5.508322e-001 9.839660e+000 3.389816e-001 2.228332e+000 3.045792e-001 6.389337e+000 4.121863e-001 6.264305e+000 1.421368e+000 4.048769e+000 2.703400e-001 1.499074e+000 3.841219e+000 7.898370e+000 7.706034e+000 1.357240e+000 3.248429e+000 3.590630e+000 5.585595e+000 2.111768e+000 6.423204e+000 6.282550e+000 1.466901e+000 6.061819e+000 5.181134e+000 1.181433e+001 1.522099e+000 3.970007e+000 2.295642e-001 3.721822e-002 3.208221e+000
<GCONST> 1.024288e+002
<MIXTURE> 10 6.181298e-002
<MEAN> 39
 -1.741371e+000 -1.740974e+000 4.426120e+000 -8.690183e-001 -4.980215e-001 -1.636983e-001 -1.445871e+000 1.808926e+000 -9.413093e-001 -1.597993e+000 -3.167457e-002 -1.420369e+000 1.815871e+000 1.018144e+000 -3.032011e+000 1.573223e+000 -3.246591e+000 -4.595885e+000 -4.375355e+000 -2.528218e+000 8.215626e-001 -1.413449e+000 -3.665052e-001 -5.131329e-001 9.295499e-001 3.096374e+000 3.307660e+000 1.020517e+000 -4.703558e+000 6.205059e-001 -2.729145e-001 -1.838668e+000 -8.732507e-001 -1.709452e+000 1.375437e-001 2.986154e+000 -1.111201e+000 -3.840372e-002 -2.809528e-001
<VARIANCE> 39
 5.398569e+000 4.933416e+000 2.698554e+000 3.608779e-001 3.723436e+000 5.744155e+000 2.395399e+000 4.291233e+000 2.966319e+000 2.047363e+000 3.406018e+000 2.776550e+000 5.720428e-001 4.803981e+000 1.024624e+001 4.222735e+000 2.664152e+000 1.429044e+000 5.043511e+000 2.799815e+000 5.057989e+000 2.036737e+000 3.150764e+000 1.373574e+000 1.657534e+000 1.898533e+000 4.353099e+000 1.111214e+001 2.630001e+000 4.448470e+000 1.078389e+001 7.794545e+000 3.569251e+000 4.975076e+000 6.174143e+000 3.735989e+000 3.588356e+000 2.544074e+000 2.215906e+000
<GCONST> 1.178753e+002
<MIXTURE> 11 4.210218e-002
<MEAN> 39
 9.090890e-001 -1.372592e-001 1.313047e+000 -4.812928e-001 -9.820040e-001 -9.595047e-001 4.148251e-002 -2.304824e+000 -1.469612e+000 7.999235e-002 6.756628e-001 -2.227092e-001 1.231891e+000 5.446332e-001 -2.928065e+000 1.883035e-001 -3.080446e+000 -1.562779e+000 -2.661833e+000 -5.103608e-001 -9.927243e-002 1.116627e-001 -1.622020e-001 1.151679e+000 5.964653e-001 3.247842e+000 -5.312461e-001 -9.431226e-001 -1.613518e+000 -8.575670e-002 7.501416e-001 -3.774135e-001 4.010632e-001 2.208674e+000 1.434754e+000 -1.174020e+000 -9.269096e-001 1.329314e+000 -1.380873e+000
<VARIANCE> 39
 2.315236e+000 6.951197e-001 4.180479e-001 5.787388e-001 2.196220e+000 3.111279e+000 1.558840e+000 8.670762e-001 1.236169e+000 9.344062e-001 2.614266e+000 1.252839e+000 4.306944e-001 4.857541e+000 3.278856e+000 7.474266e-001 1.605623e+000 2.879321e+000 2.216293e+000 3.593981e+000 2.205175e+000 1.438242e+000 2.860575e+000 3.367838e+000 4.992976e+000 8.045513e-001 1.313317e+001 3.061701e+000 1.118114e+000 4.690279e+000 3.736968e+000 6.774829e+000 2.771749e+000 1.004540e+000 1.188150e+000 1.746416e+000 5.668360e+000 2.602773e+000 1.783019e+000
<GCONST> 9.794492e+001
<MIXTURE> 12 7.715394e-002
<MEAN> 39
 -1.699258e+000 -2.202694e+000 1.582320e+000 -1.242262e+000 -2.014542e-001 -2.658697e-001 -4.558973e-001 6.016611e-001 -5.866053e-001 -6.797112e-001 -4.898308e-003 -6.809458e-001 8.284444e-001 3.728376e+000 2.029018e-001 1.795439e+000 3.488652e-001 -6.279855e-001 -2.158788e+000 -3.300637e+000 -3.038313e-003 -1.206176e+000 -8.333079e-001 -5.456422e-001 -1.576142e+000 4.974512e+000 3.851652e+000 3.267101e+000 -2.144896e+000 2.535483e+000 3.717375e-001 1.012273e-001 -1.073706e+000 -7.396830e-001 9.530223e-001 8.687837e-001 5.962659e-001 1.478588e-001 -1.009862e+000
<VARIANCE> 39
 2.720097e+000 1.326479e+000 1.239640e+000 1.232487e+000 5.689870e+000 4.089990e+000 2.470373e+000 2.053650e+000 2.228161e+000 1.972878e+000 2.164141e+000 2.291774e+000 2.724668e-001 2.738575e+000 5.620990e+000 5.143972e+000 4.564673e+000 7.363379e+000 6.753438e+000 2.285342e+000 4.873465e+000 3.930463e+000 3.541997e+000 4.253025e+000 5.538922e+000 1.462074e+000 3.342421e+000 3.794572e+000 1.720694e+000 9.948480e+000 6.632622e+000 3.752024e+000 3.394720e+000 3.437716e+000 3.915531e+000 6.715594e+000 6.900851e+000 7.829664e+000 4.057664e+000
<GCONST> 1.180283e+002
<MIXTURE> 13 1.197013e-001
<MEAN> 39
 8.528633e-001 -1.141289e+000 4.464526e-002 -5.688127e-001 -1.544166e+000 -2.251758e+000 -2.623415e+000 -3.093078e-001 9.499750e-001 8.656729e-001 -1.694263e+000 -1.482830e+000 2.152557e+000 1.028254e+000 9.882962e-001 -2.508865e+000 -1.490546e+000 1.149266e+000 1.767886e+000 9.467740e-003 -1.986867e+000 3.404823e-001 1.923471e+000 8.142622e-001 -5.204277e-001 4.313966e-001 -1.392857e+000 1.375081e-001 1.026791e+000 -9.760898e-001 2.727347e-001 9.354317e-001 1.538016e+000 3.181382e-004 -2.354619e+000 -1.058746e+000 1.675615e+000 1.594833e+000 -1.215861e+000
<VARIANCE> 39
 1.323749e+000 1.529312e+000 2.460274e+000 1.117379e+000 1.119456e+000 8.183018e-001 5.395122e-001 1.866144e+000 1.482120e+000 3.589470e+000 1.906373e+000 2.058128e+000 7.749169e-001 8.342567e-001 2.267973e+000 1.845263e+000 7.361694e-001 1.189329e+000 5.104441e-001 6.584846e-001 8.560173e-001 1.669117e+000 1.213136e+000 1.499321e+000 3.676924e+000 1.820451e-001 1.405765e+000 1.839573e+000 3.182348e+000 9.051109e-001 2.004569e+000 1.331270e+000 1.992321e+000 2.278184e+000 1.267230e+000 2.066201e+000 1.775089e+000 2.907360e+000 8.731527e-001
<GCONST> 8.364733e+001
<MIXTURE> 14 6.214803e-002
<MEAN> 39
 1.077664e+000 -6.084346e-001 -6.462466e-001 -1.057292e+000 -1.146925e+000 1.411421e-001 -1.419546e+000 -1.953058e+000 -6.501909e-001 1.214942e+000 1.032345e+000 -9.177302e-001 1.274653e+000 3.470612e-001 1.515947e+000 -1.533461e+000 -1.497316e+000 -1.176703e+000 1.701923e-001 1.048938e+000 -7.990445e-002 -5.262690e-001 -3.292490e-002 -6.402611e-001 2.509569e-001 4.987469e-001 -3.929069e-001 1.159970e+000 1.642652e+000 9.803161e-001 2.099770e-001 -1.833371e+000 6.729569e-002 1.489713e+000 -7.275822e-001 -1.208994e+000 -8.925530e-001 -3.048693e-001 8.222400e-001
<VARIANCE> 39
 1.936711e+000 1.140363e+000 1.190150e+000 5.816102e-001 7.203959e-001 7.139013e-001 1.977369e+000 3.265315e+000 1.156936e+000 1.472036e+000 2.007912e+000 2.631110e+000 8.358309e-001 1.167196e-001 2.917348e+000 3.228814e+000 1.511614e+000 1.920274e+000 2.204761e+000 8.954276e-001 3.994133e+000 4.089264e+000 1.313326e+000 1.753239e+000 2.035985e+000 4.808825e-001 1.637908e+000 2.850579e+000 2.698995e+000 1.835293e+000 1.937055e+000 2.423901e+000 2.122031e+000 4.242302e+000 2.869352e+000 1.990533e+000 1.059883e+000 2.361481e+000 2.367481e+000
<GCONST> 9.117293e+001
<STATE> 3
<NUMMIXES> 14
<MIXTURE> 1 1.721133e-001
<MEAN> 39
 1.046145e+000 8.281383e-003 -1.880928e+000 -2.252004e+000 -1.985303e+000 2.268493e-001 -1.922614e+000 -1.372229e+000 -1.455241e+000 -5.040683e-002 1.428686e+000 -1.098195e+000 2.196384e+000 3.377666e-001 5.041261e-001 -2.561646e-001 -4.241565e-001 -4.906766e-001 3.281089e-001 7.988296e-001 3.615852e-001 -2.147628e-001 -7.074971e-001 -4.945193e-001 3.681729e-001 -1.250994e-001 -1.478770e-001 1.672634e-003 3.288745e-001 5.418673e-001 3.380143e-001 -3.808099e-001 -2.019757e-001 5.888959e-002 4.349660e-001 8.732943e-002 -3.961896e-001 -1.009382e-001 -9.278764e-002
<VARIANCE> 39
 1.545574e+000 2.405263e+000 4.112198e-001 1.165727e-001 3.464019e-001 7.200682e-001 2.842332e-001 8.920829e-001 7.361589e-001 1.610876e+000 9.609905e-001 9.047851e-001 1.051142e-001 1.498205e-001 2.022548e-001 6.569676e-001 4.618838e-001 3.567222e-001 8.161982e-001 6.566201e-001 1.449433e+000 1.184409e+000 7.488346e-001 5.471472e-001 7.497629e-001 2.303730e-002 1.561573e-001 2.488530e-001 7.995761e-001 2.860694e-001 5.113400e-001 8.027809e-001 8.868363e-001 1.571511e+000 9.173919e-001 8.603075e-001 7.609027e-001 5.105995e-001 8.156204e-002
<GCONST> 4.524551e+001
<MIXTURE> 2 6.648952e-002
<MEAN> 39
 1.681144e+000 1.974148e+000 1.773413e+000 2.936095e-001 6.114749e-002 -5.572715e-002 -3.243434e-002 9.615241e-001 -5.293580e-001 -8.203678e-001 4.410825e-001 -8.556945e-001 1.260285e+000 4.538696e-001 3.274944e-001 1.326420e-001 1.133759e-001 5.376077e-001 -4.516501e-001 -6.352589e-002 -6.754679e-001 8.040809e-002 -2.861671e-001 7.177712e-002 1.972163e-001 4.335726e-001 -6.372954e-001 -7.324123e-001 -5.599918e-001 -5.475750e-001 -2.947548e-001 -1.974340e-001 -3.561710e-001 -2.689177e-001 -1.806967e-001 5.886286e-001 1.141877e-001 2.020053e-001 -2.049170e-001
<VARIANCE> 39
 1.886852e-001 2.547703e+000 8.037865e-001 2.291833e+000 3.937596e-001 5.727863e-001 7.775709e-001 1.123700e+000 6.654965e-001 1.170511e+000 1.084275e+000 7.509332e-001 7.297414e-002 2.069273e+000 3.298881e+000 1.450373e+000 1.022067e+000 1.402014e+000 1.499873e+000 1.016029e+000 2.952694e+000 1.240621e+000 1.289449e+000 1.098486e+000 1.645802e+000 9.787261e-001 2.330770e+000 3.041584e+000 2.681689e+000 1.139246e+000 1.486224e+000 1.845392e+000 6.816238e-001 3.114771e+000 1.683687e+000 1.157615e+000 1.252931e+000 1.686582e+000 2.293446e+000
<GCONST> 7.913810e+001
<MIXTURE> 3 1.329655e-002
<MEAN> 39
 1.248250e+000 -3.188310e+000 4.483533e+000 -9.548541e-001 -3.749161e+000 -5.280841e+000 -2.562506e+000 2.262815e+000 -1.693435e+000 -3.793299e-001 -1.059124e+000 2.034553e-001 3.407717e+000 2.917691e+000 1.930753e-001 -3.788743e+000 -5.766289e-001 -1.177487e-001 -1.095791e+000 -1.037567e+000 -3.447396e+000 4.479297e-001 4.675130e+000 -1.255211e+000 -2.146558e-002 1.586200e+000 9.436600e-001 3.464678e+000 -2.675480e+000 -2.538063e-001 3.923389e+000 5.577865e+000 6.094258e-001 -1.705811e+000 3.985882e-001 2.333669e+000 8.586307e-001 -1.695799e+000 -2.660616e+000
<VARIANCE> 39
 3.953263e-001 2.060247e-002 4.490211e-001 7.696632e-001 9.395829e-001 1.204646e+000 2.881373e-001 1.103263e+000 1.361492e+000 1.099589e+000 3.890698e+000 1.116501e+000 1.377394e-001 1.653718e+000 2.900059e-001 1.675133e+000 2.954550e-001 1.618199e+000 9.178493e+000 6.696871e+000 8.963938e+000 3.789074e-001 6.389574e+000 2.369126e+000 1.928748e+000 7.000735e-001 1.446833e+000 8.098251e-001 2.543656e+000 3.459411e+000 5.409119e-001 8.347219e-001 5.530576e-001 4.728220e+000 9.635949e-001 3.160609e+000 1.291969e+000 5.987810e-001 8.963074e-002
<GCONST> 7.301810e+001
<MIXTURE> 4 2.402332e-001
<MEAN> 39
 7.640857e-001 -8.602750e-001 -6.527601e-001 -1.655890e+000 -1.079856e+000 -8.606480e-001 -2.837553e+000 -1.332240e+000 -3.168228e-001 1.602072e+000 -1.014735e-001 -1.743985e+000 2.498697e+000 7.519191e-001 6.907360e-001 -1.237057e+000 -1.843150e+000 2.082399e-001 1.776351e+000 1.255963e+000 -9.686674e-001 -1.325347e+000 1.700740e-002 1.326398e+000 1.222711e+000 4.811278e-002 -3.573568e-001 -2.433963e-001 9.159002e-001 2.062247e-001 -3.841767e-001 -7.595591e-001 6.815445e-001 9.299530e-001 -4.454242e-001 -1.085356e+000 -5.860046e-001 6.381910e-001 -3.445920e-001
<VARIANCE> 39
 2.636131e+000 2.681654e+000 2.693330e+000 1.572495e+000 1.380915e+000 1.442544e+000 4.319395e-001 2.204246e+000 2.334554e+000 2.408312e+000 4.605103e+000 2.161326e+000 5.470691e-001 5.670146e-001 9.203283e-001 8.116379e-001 8.231624e-001 1.398433e+000 9.695590e-001 1.337034e+000 1.629737e+000 1.675959e+000 2.498879e+000 1.424538e+000 1.604434e+000 1.765280e-001 5.886471e-001 1.011669e+000 9.460556e-001 7.655670e-001 1.284723e+000 8.192935e-001 1.421156e+000 1.312965e+000 1.486175e+000 1.273444e+000 1.824503e+000 1.444055e+000 1.443021e-001
<GCONST> 7.919703e+001
<MIXTURE> 5 1.983904e-002
<MEAN> 39
 -4.539382e-003 -2.406440e+000 7.457845e-001 -2.019855e+000 6.607042e-002 -4.344054e+000 -1.412579e-001 -8.096138e-001 1.147168e+000 -4.365570e+000 6.352392e-002 8.591951e-001 2.557250e+000 6.319742e-001 -2.408255e+000 -3.790042e+000 -1.690848e+000 4.072675e+000 -3.758563e-001 -1.890029e+000 6.171625e-001 2.953007e+000 -5.999050e-001 -2.314023e+000 -2.146592e+000 1.161147e+000 6.289394e-001 3.054456e+000 -2.325319e+000 1.656243e+000 1.286226e+000 3.596692e+000 -9.992515e-001 -3.652437e-001 -6.060670e-001 4.092045e+000 1.583108e-001 -3.170616e+000 -1.097314e+000
<VARIANCE> 39
 3.440012e+000 5.712630e-001 1.386032e+000 4.278351e-001 9.255260e-001 5.014148e-001 1.322314e+000 8.541779e-001 1.254286e+000 4.895306e-001 4.831212e+000 8.346121e-001 1.179975e-001 8.847580e-003 2.351719e+000 1.388227e+000 7.089469e-001 8.895548e-001 4.908895e+000 1.576168e+000 6.206741e+000 5.700848e+000 9.428335e+000 2.967012e+000 3.759235e+000 1.291249e-002 2.857152e-001 1.088704e+000 9.805820e+000 1.203212e+000 3.744737e+000 3.416429e+000 2.243387e+000 9.606876e-001 2.061163e+000 2.129567e+000 2.481302e+000 1.645213e+000 2.197535e-001
<GCONST> 7.785415e+001
<MIXTURE> 6 8.066133e-002
<MEAN> 39
 -1.231124e+000 -2.259297e+000 -7.649225e-001 -2.110091e+000 5.683249e-001 -3.874495e+000 -3.829486e+000 -9.537825e-001 4.612385e-001 1.406900e+000 -2.473752e+000 -3.705374e+000 2.728213e+000 9.304182e-001 1.243760e+000 -2.879996e+000 -1.818496e+000 1.676997e+000 2.523510e+000 1.853966e-002 -2.736474e+000 -2.763208e-001 1.801189e+000 -2.282527e-002 -9.282793e-001 3.911658e-001 -7.894523e-001 1.311049e+000 2.055185e+000 5.622262e-001 -1.697891e+000 1.978963e+000 2.652105e+000 3.764936e-001 -2.205135e+000 -2.329131e+000 1.830483e+000 2.750256e+000 -7.273952e-001
<VARIANCE> 39
 4.588188e+000 4.349917e+000 4.528869e+000 5.527163e-001 5.171388e+000 1.115222e+000 7.184628e-001 2.541660e+000 5.987645e+000 7.890657e+000 2.952374e+000 1.454003e+000 2.843532e-001 3.900190e-001 2.521101e+000 1.586267e+000 8.671246e-001 2.852929e+000 1.637940e+000 4.184711e+000 1.751984e+000 3.148611e+000 6.155213e+000 5.547921e+000 4.107621e+000 1.816979e-001 1.686735e+000 4.667770e+000 1.642424e+000 1.798050e+000 4.198073e+000 3.858896e+000 2.981863e+000 3.748660e+000 2.998451e+000 6.983562e+000 2.620829e+000 1.375835e+000 5.952342e-001
<GCONST> 1.023693e+002
<MIXTURE> 7 2.659466e-002
<MEAN> 39
 7.251946e-001 9.323847e-001 2.372949e+000 1.076071e+000 2.003661e+000 -2.068824e+000 1.166419e+000 -2.066003e+000 -2.207242e+000 -3.019044e+000 3.178369e+000 6.672363e-001 3.436781e+000 -5.860292e-001 -1.901489e+000 5.436908e-001 -4.889287e-001 3.898769e-003 -3.654621e+000 -1.112506e+000 1.694369e+000 -1.636238e+000 -5.738040e-001 4.002862e-002 1.896934e+000 1.310609e+000 1.126182e+000 -4.952371e-001 -3.058774e+000 1.009921e+000 -8.338128e-001 2.450327e+000 1.446812e-001 -1.816792e+000 1.197901e+000 1.923520e+000 -1.597322e+000 3.242535e-001 -9.599457e-001
<VARIANCE> 39
 1.293029e-001 4.622439e+000 5.231978e-001 9.034367e+000 5.510866e+000 5.670093e+000 7.240548e+000 2.384152e+000 1.318370e+000 2.671612e+000 4.494076e+000 3.438535e+000 9.179295e-001 2.604577e+000 3.079907e+000 6.613773e+000 2.304846e+000 5.807227e+000 4.421561e+000 4.221552e+000 6.287338e+000 4.833638e+000 1.021091e+000 3.413371e+000 2.237535e+000 3.263248e+000 5.214066e+000 4.995555e+000 5.367666e+000 1.201021e+000 5.541495e+000 4.725604e+000 4.423780e+000 8.812509e+000 4.739061e+000 1.016371e+000 2.911646e+000 1.926841e+000 2.000882e+000
<GCONST> 1.151026e+002
<MIXTURE> 8 1.662030e-002
<MEAN> 39
 1.262756e+000 1.319568e+000 4.936467e-001 6.523412e-001 -5.062099e-001 -3.694210e+000 -1.233254e+000 -1.581252e+000 1.285322e+000 -4.920617e-001 -1.310268e+000 1.422738e+000 1.769182e+000 5.131173e-001 -1.290239e+000 -3.301664e+000 -1.957932e+000 -2.334770e+000 -9.195092e-001 -1.891662e+000 -7.491229e-001 2.551212e+000 2.650390e+000 -1.539725e+000 6.951862e-001 1.050055e+000 9.941002e-001 1.830099e-001 6.277146e-001 -3.526074e-001 1.167114e+000 2.654868e+000 5.942009e-001 6.298232e-001 -7.814824e-001 9.674324e-001 -3.538494e-001 -1.497734e+000 -8.600234e-001
<VARIANCE> 39
 3.445172e-002 2.872030e-001 5.131809e-001 2.645799e-001 2.022743e+000 4.411938e-001 2.577532e+000 4.455585e-002 9.701194e-001 1.575561e+000 3.420208e-001 3.955038e-001 2.491446e-002 6.369199e-001 3.690065e-001 3.927966e-001 5.177262e-001 3.202910e+000 6.927111e+000 2.779125e+000 6.086199e-001 7.202724e-001 1.081437e+000 2.385328e-001 1.542354e+000 2.688863e-001 1.938170e+000 3.492637e-001 1.695383e+000 1.012509e+000 8.519988e+000 1.735750e+000 5.934504e+000 6.686381e-001 2.338113e+000 1.699326e+000 1.608433e-001 7.224618e-001 8.382674e-001
<GCONST> 5.881224e+001
<MIXTURE> 9 1.021127e-001
<MEAN> 39
 1.416912e+000 2.891182e-001 1.532079e-001 -1.627941e+000 -1.829204e+000 1.706785e+000 -1.163790e+000 -2.741735e+000 -2.621360e+000 -1.168875e+000 1.920828e+000 1.882319e-001 2.438237e+000 3.389039e-001 1.310291e+000 -5.598064e-001 -1.872522e+000 -7.323867e-001 8.793585e-001 1.837829e+000 1.020863e+000 -7.087709e-001 -1.628519e+000 -7.671538e-001 1.029258e+000 -6.398536e-003 -6.097996e-001 -4.359752e-001 4.519113e-001 8.802871e-001 9.922725e-001 -1.381478e+000 -7.717054e-001 1.043921e+000 2.103142e+000 1.210769e+000 -1.786291e+000 -1.081831e+000 -6.807684e-001
<VARIANCE> 39
 1.566688e+000 3.216423e+000 2.829173e+000 9.068346e-001 1.036422e+000 8.063541e-001 1.372762e+000 6.955886e-001 1.337930e+000 2.626906e+000 4.959884e+000 3.463041e+000 4.191047e-001 7.056059e-001 1.226808e+000 1.488487e+000 8.693196e-001 1.404264e+000 2.468805e+000 1.483557e+000 1.629514e+000 2.465861e+000 2.901102e+000 2.481803e+000 3.261348e+000 9.595031e-002 9.296681e-001 1.692616e+000 1.057719e+000 1.576678e+000 1.660515e+000 1.411868e+000 1.911011e+000 2.440857e+000 1.550125e+000 1.885190e+000 1.920309e+000 4.010210e+000 6.948940e-001
<GCONST> 8.730256e+001
<MIXTURE> 10 2.657500e-002
<MEAN> 39
 4.124495e-001 2.689705e+000 2.178408e+000 3.958299e+000 2.927188e+000 4.270359e+000 3.476181e+000 -7.019809e+000 -1.994966e+000 -2.703108e+000 4.230317e+000 2.922103e+000 4.219250e+000 -3.006651e-001 -1.810438e-001 -5.795082e-001 8.030755e-001 1.340543e-001 -1.148187e-001 -6.748331e-001 1.708605e+000 -1.771984e-001 3.885756e-001 9.951094e-001 -3.143060e+000 4.993565e-002 2.156180e-001 1.441094e-001 3.525516e-001 -2.102887e-001 4.669953e-001 -2.395583e+000 2.376199e-001 3.578730e+000 -2.508425e-001 -9.263234e-001 -1.312503e+000 1.001670e+000 -1.344406e-001
<VARIANCE> 39
 2.342526e-001 9.378083e-001 2.198651e-001 1.894954e-001 6.807588e-001 1.072621e+001 1.870104e-001 3.887250e+000 1.435631e+000 1.067027e+000 5.591601e-001 4.857490e+000 1.510467e-003 1.493153e+000 2.936554e+000 3.088288e+000 2.288998e+000 1.153019e+000 1.058190e+001 8.024046e+000 1.415993e+001 1.183194e+000 6.905712e+000 1.906684e+001 1.480409e+001 1.216425e-001 2.467060e+000 4.495406e+000 4.333643e+000 4.046061e+000 1.170728e+000 4.745432e+000 8.537350e+000 5.439682e+000 1.831846e+000 2.752241e+000 6.367921e+000 1.323347e+001 9.196083e-002
<GCONST> 9.437670e+001
<MIXTURE> 11 2.659158e-002
<MEAN> 39
 2.251960e+000 -1.695006e+000 1.317879e+000 -2.740667e+000 8.137727e-001 -1.870930e-001 -1.506979e+000 -1.038419e+000 -1.832740e+000 3.072829e+000 8.606222e-001 4.726234e-001 3.177258e+000 1.255233e-001 6.933121e-001 -3.647680e-001 -1.500038e+000 2.186196e-001 6.129110e-001 1.371690e+000 4.591780e-001 -1.259731e+000 9.194499e-002 -3.470478e-002 9.619801e-001 8.444884e-002 -7.205817e-001 3.073330e-001 4.553695e-001 1.039785e+000 -6.665785e-001 -4.081506e-001 -7.380068e-001 6.751581e-001 1.240494e+000 -5.942820e-001 -8.751004e-001 -3.465078e-001 -1.538169e-001
<VARIANCE> 39
 3.623780e-002 5.705615e-002 4.967600e-001 9.678608e-001 2.387855e-001 2.940073e-001 6.386856e-001 1.917117e+000 6.569528e-001 1.615943e-001 1.418800e+000 3.959346e+000 4.400550e-001 2.441114e-001 2.773841e-001 2.231016e-002 6.746219e-001 4.596591e-001 5.177366e-002 3.776469e-001 6.423861e-001 1.192299e+000 5.808012e-001 6.770587e-001 4.856408e-001 3.523843e-002 1.853146e-001 2.392020e-001 2.512011e-001 1.320383e-001 2.155780e-001 8.321528e-003 1.876101e-001 3.409173e-002 4.354886e-001 6.176116e-001 7.611130e-001 1.397264e-001 2.115960e-002
<GCONST> 1.879560e+001
<MIXTURE> 12 1.490300e-001
<MEAN> 39
 1.211443e+000 -5.325459e-001 -1.232304e+000 -1.218435e+000 -4.211825e-001 -9.175326e-001 -8.949761e-001 -2.170005e-001 -6.902359e-001 5.754925e-001 -1.402014e+000 1.701551e-001 1.430165e+000 3.024844e-001 5.091069e-001 -4.877103e-001 -2.724401e-001 2.108016e-001 3.988087e-001 5.466089e-002 -1.585327e-001 -4.343516e-001 -2.747867e-001 5.188380e-001 -1.058667e-002 -1.654056e-001 1.581355e-002 6.664835e-002 2.563654e-001 1.582015e-002 -1.389069e-001 7.647213e-002 2.710779e-002 -5.836804e-002 5.975410e-002 7.064664e-002 4.991707e-001 -1.966540e-001 4.321481e-002
<VARIANCE> 39
 6.903252e-002 9.374900e-001 1.595977e-001 9.093946e-002 6.214396e-001 4.133224e-001 6.584520e-001 9.930168e-001 3.528416e-001 7.545956e-001 5.229645e-001 2.149900e+000 9.657748e-002 2.711574e-001 4.887965e-001 5.935133e-001 1.664157e-001 6.118163e-001 9.626874e-001 8.753787e-001 1.028875e+000 4.052923e-001 1.104859e+000 1.292206e+000 8.842813e-001 5.271371e-002 2.427934e-001 6.995072e-001 2.732647e-001 2.059944e-001 6.720297e-001 4.376709e-001 7.945473e-001 9.923163e-001 3.950942e-001 9.307494e-001 8.418067e-001 8.669395e-001 4.162906e-002
<GCONST> 4.019051e+001
<MIXTURE> 13 4.654599e-002
<MEAN> 39
 1.210210e+000 -6.177790e-001 4.050620e-001 -1.702865e+000 -2.376828e+000 2.199291e+000 -1.794020e+000 1.900263e+000 -1.899673e+000 1.544693e+000 1.573571e+000 -1.536005e+000 2.026654e+000 3.852644e-001 4.886287e-002 3.056977e-001 -7.487674e-001 4.971980e-001 -1.820152e-002 3.861668e-001 4.708247e-001 -4.624180e-001 -1.343048e-001 -2.917035e-001 7.675704e-002 -4.642154e-001 1.785814e-001 -1.805284e-002 2.672838e-001 6.480642e-001 5.527964e-001 -3.204116e-001 3.286555e-002 -7.844726e-002 4.459537e-001 -1.887954e-001 -1.505210e-001 -1.564371e-002 -4.676341e-001
<VARIANCE> 39
 1.098042e-002 1.111284e-001 9.725409e-002 8.662254e-002 1.856395e-001 1.080026e-001 6.969243e-002 2.253838e-001 2.218315e-001 1.550928e-001 1.027423e-001 7.288685e-002 1.763400e-002 3.907933e-001 2.980252e-001 1.708123e-001 1.002764e+000 1.206189e+000 3.753943e-001 5.517334e-001 7.311892e-001 5.644074e-001 7.429054e-001 5.467738e-001 1.877531e-001 2.902213e-001 4.116035e-001 3.566316e-001 2.873443e-001 6.335464e-001 1.287575e+000 2.214145e-001 4.608213e-001 5.654385e-001 1.187295e-001 5.752852e-001 6.985475e-001 5.047052e-001 6.804856e-001
<GCONST> 1.949617e+001
<MIXTURE> 14 1.329690e-002
<MEAN> 39
 1.932792e-001 3.173977e+000 1.388565e+000 4.117011e+000 2.836497e+000 1.185356e+000 6.319656e+000 -5.473047e+000 -1.846300e+000 -2.270321e+000 1.070762e+000 6.665221e+000 4.165249e+000 1.579914e+000 -1.350498e+000 -1.430211e-001 -3.759633e-001 5.459341e-001 5.779779e+000 2.061964e+000 -9.248951e+000 2.243088e+000 -2.368486e+000 -2.344468e-001 9.926008e-001 5.833946e-001 -8.146974e-001 2.812723e-001 2.486748e+000 -3.343413e+000 2.161253e+000 -5.853979e-002 -3.181705e+000 1.443513e+000 -3.263181e-001 1.665424e+000 3.632592e+000 -1.614701e+000 -6.709869e-001
<VARIANCE> 39
 8.569728e-002 1.670592e+000 3.286968e-001 2.567385e-001 3.746166e+000 8.170111e+000 8.349386e+000 1.344532e+001 3.167074e+000 6.696209e-001 1.575079e+000 1.830743e+000 6.124779e-003 2.462629e-001 2.413791e+000 8.308445e+000 4.656928e+000 4.878607e+000 2.040103e+000 2.976076e+001 2.492023e+000 3.525144e+000 6.023883e-001 2.318957e+001 4.498060e+000 3.297101e-001 6.576406e-001 4.732124e+000 2.621660e+000 7.571395e+000 3.430288e+000 4.539579e+000 2.599620e+001 3.484182e+001 6.054080e+000 1.091091e+000 2.325115e+001 2.584061e+001 3.224349e-001
<GCONST> 1.069811e+002
<STATE> 4
<NUMMIXES> 14
<MIXTURE> 1 1.717626e-002
<MEAN> 39
 4.371157e-001 3.180727e+000 2.920477e+000 4.619458e+000 2.414831e+000 -1.154327e+000 3.748629e-001 -2.597284e+000 -3.806465e+000 -3.157131e+000 2.403365e+000 2.800409e+000 4.175446e+000 3.058083e-001 1.200999e+000 3.562111e-001 8.227110e-001 5.636320e-001 -7.733077e-001 -3.177761e+000 1.651273e+000 -1.270835e+000 -7.613516e-001 -7.114690e-001 -3.880392e-001 9.121761e-002 1.554386e+000 -6.766444e-001 5.213337e-001 -2.887617e+000 9.211963e-002 2.743122e+000 4.579249e-001 -9.949909e-001 -3.240988e+000 -3.073880e-001 2.816694e+000 -1.522085e+000 2.127090e-001
<VARIANCE> 39
 2.290823e-001 2.070744e+000 4.066084e-001 3.388428e-001 7.936620e-001 7.214252e+000 1.681301e+000 1.786437e+000 5.425141e-001 4.502526e-001 5.670586e-001 9.350456e-001 3.043257e-003 1.258922e+000 1.762859e+000 2.111773e+000 1.095975e+001 1.995048e+000 1.771467e+001 4.624811e-001 1.663430e+000 7.733841e+000 2.012312e+000 3.119465e+000 7.346860e-001 2.125783e-001 5.307423e-001 1.277743e+000 4.660625e+000 6.067504e+000 1.232745e+000 1.305432e+001 3.881247e+000 2.990392e+000 3.159889e+000 3.286052e+000 2.599168e+000 8.219016e-001 3.972462e-001
<GCONST> 8.358257e+001
<MIXTURE> 2 6.958614e-002
<MEAN> 39
 2.091051e+000 -2.188345e+000 -8.794870e-001 -3.245639e+000 -1.105428e+000 -4.033323e-001 -2.109072e+000 -1.018259e+000 -1.579628e+000 3.218175e+000 -1.587958e+000 6.852707e-001 3.221416e+000 6.442111e-001 5.278854e-001 -3.580321e-001 -4.697615e-001 5.541913e-001 1.000295e+000 8.788473e-001 2.155806e-001 -5.191319e-001 -7.512830e-001 -3.775376e-002 6.391271e-001 -5.248635e-001 -1.762771e-001 3.092605e-001 3.967127e-001 1.356669e+000 -5.645274e-001 -5.792980e-001 2.584937e-001 -1.120634e-001 7.535060e-001 -1.365584e+000 6.243435e-001 -3.623113e-001 -1.767303e-001
<VARIANCE> 39
 1.216322e+000 1.634590e+000 3.414941e+000 9.210142e-001 1.276506e+000 3.357304e+000 1.636927e+000 2.139344e+000 3.377879e+000 8.823141e-001 3.047587e+000 1.777656e+000 5.110713e-001 9.070354e-001 1.503183e+000 6.362580e-001 1.361751e+000 2.402664e+000 9.827136e-001 5.507370e-001 1.124553e+000 1.810629e+000 1.948155e+000 3.389660e+000 4.123894e+000 1.302950e-001 8.509472e-001 1.108373e+000 6.965711e-001 9.883186e-001 1.722680e+000 9.503177e-001 1.338381e+000 5.917762e-001 2.513933e+000 1.057969e+000 2.080613e+000 2.848155e+000 1.871524e-001
<GCONST> 8.164572e+001
<MIXTURE> 3 1.059237e-001
<MEAN> 39
 2.086744e+000 1.975675e+000 -5.749380e-001 -1.570561e+000 -2.123557e+000 2.258213e+000 -4.720766e-001 -2.500943e+000 -7.612867e-001 -1.636122e+000 1.361757e+000 1.077655e+000 2.376067e+000 1.262391e-001 5.154129e-001 5.120831e-002 -4.191488e-001 2.981301e-001 2.321936e-001 5.265019e-001 2.007224e-001 6.141154e-001 -3.723327e-001 -5.524551e-001 4.855937e-001 -3.490582e-001 -5.638423e-002 -4.979087e-001 4.247451e-001 5.113144e-001 4.002395e-001 -4.983297e-001 -3.360524e-001 3.359646e-001 -2.515606e-001 2.668214e-001 3.405499e-001 -8.517836e-001 -9.918761e-002
<VARIANCE> 39
 7.491854e-001 5.966825e-001 5.129430e-001 1.927119e+000 1.467634e+000 6.423822e-001 9.491643e-001 1.919950e-001 1.679696e+000 1.043903e+000 1.409214e+000 2.985584e+000 2.887466e-001 2.766861e-001 4.571189e-001 1.201105e+000 1.233502e+000 1.279856e+000 1.567115e+000 1.313349e+000 9.115012e-001 2.063781e+000 6.769471e-001 1.278743e+000 2.152557e+000 5.526699e-002 3.724745e-001 5.748140e-001 1.477848e+000 1.079453e+000 2.059661e+000 1.583189e+000 1.289212e+000 7.718126e-001 1.625170e+000 4.271817e-001 1.273227e+000 1.064548e+000 6.699475e-002
<GCONST> 6.484678e+001
<MIXTURE> 4 1.115668e-001
<MEAN> 39
 -1.108240e-001 9.858963e-001 -2.219486e+000 -2.264582e+000 -1.191485e-002 -1.424749e+000 -1.310625e+000 -2.357418e+000 -4.885002e-001 1.229522e+000 -7.731317e-002 7.316267e-001 2.098526e+000 1.784572e-001 3.252551e-001 -5.134737e-001 -8.003759e-001 -3.638322e-002 7.735146e-001 5.020137e-001 -1.723269e-001 -5.225353e-001 -8.225849e-001 6.615115e-001 2.826677e-001 -7.810844e-002 3.587669e-002 9.265569e-002 3.131125e-001 7.365749e-001 1.192907e-001 1.597447e-001 -6.355810e-001 6.361083e-001 3.799251e-001 -5.192721e-002 -5.881946e-001 -2.825117e-001 -3.524978e-001
<VARIANCE> 39
 2.059620e+000 5.670714e-001 1.803893e-001 6.865033e-001 2.849749e+000 3.568091e-001 3.299343e-001 1.993625e-001 2.645794e+000 1.458015e+000 2.917669e+000 3.344548e+000 6.068742e-002 2.466277e-001 1.565927e+000 6.169094e-001 7.703502e-001 1.173184e+000 5.713127e-001 9.672862e-001 1.005978e+000 2.055680e+000 4.260363e-001 1.221015e+000 1.607749e+000 2.676550e-001 2.875251e-001 1.896404e+000 8.390965e-001 1.681340e+000 1.274503e+000 3.091813e-001 1.419894e+000 1.377402e+000 1.441462e+000 6.075955e-001 1.261978e+000 1.417673e+000 2.292424e-001
<GCONST> 6.341942e+001
<MIXTURE> 5 3.146441e-002
<MEAN> 39
 -1.367040e+000 -2.370982e-002 -2.902143e+000 -3.359154e+000 -4.629007e-001 -3.146611e+000 -2.115938e+000 -3.713503e+000 -2.994777e+000 1.663275e+000 -4.338066e+000 -4.238485e-001 3.148944e+000 3.866977e-001 2.551660e+000 1.317569e+000 -1.232856e+000 6.297925e-001 -4.370139e-002 -5.385268e-002 -3.131090e-001 -1.634012e+000 -6.258129e-001 1.200198e-001 8.505458e-001 -3.314194e-001 6.042076e-001 -5.602237e-001 5.690794e-001 1.501468e+000 -1.376202e+000 7.876502e-001 1.628202e-001 1.917554e+000 2.401468e-001 -1.703151e+000 1.839352e+000 -3.253512e-001 -4.459666e-001
<VARIANCE> 39
 4.999152e+000 5.278499e+000 1.149253e+000 2.023109e-001 2.914543e+000 4.666337e-001 1.018395e+000 2.713630e-001 3.906223e+000 6.055434e+000 1.056995e+000 5.648051e+000 2.199488e-001 3.592046e+000 2.018083e+000 6.550024e-001 1.656062e+000 3.003153e+000 1.939602e+000 4.482389e+000 2.253322e+000 6.180204e+000 7.634288e+000 3.070642e+000 4.078542e+000 4.085598e-001 3.027454e+000 1.792734e+000 2.793576e+000 1.232615e+000 4.399473e+000 3.119519e+000 3.849428e+000 1.468626e+000 7.618207e+000 6.750703e+000 2.845540e+000 5.886711e+000 1.709582e-001
<GCONST> 9.984367e+001
<MIXTURE> 6 8.580028e-003
<MEAN> 39
 1.062370e+000 2.902933e+000 3.032960e+000 4.450985e+000 2.840637e+000 2.302715e+000 -1.583916e+000 -2.615961e+000 -5.355717e+000 -2.732167e+000 3.161297e+000 1.305563e+000 4.172035e+000 1.315420e+000 -8.657565e-001 1.284722e+000 -2.447879e+000 -6.538655e-001 4.512387e+000 2.943501e-001 9.139472e-002 -3.014042e+000 1.061696e+000 3.236241e+000 -2.541034e+000 -8.245904e-002 -5.060877e-001 1.666018e-001 2.221025e+000 -4.816154e-001 -2.393650e+000 -1.395821e+000 2.574649e+000 1.825813e+000 2.332196e+000 -2.036853e+000 -1.184784e-001 2.176187e+000 -6.734940e-002
<VARIANCE> 39
 2.560429e-002 4.182471e-001 4.659083e-002 1.130756e-001 5.800695e-001 6.334785e+000 4.232231e-001 6.803110e-001 4.843443e-001 4.115772e-001 8.336015e-002 4.419611e-001 5.607776e-004 2.607715e-001 8.107447e-001 1.763649e+000 1.737252e+000 1.272853e+000 1.765071e+000 1.979364e-001 2.253735e+000 2.375767e+000 3.508223e-001 5.381088e-001 1.449929e+000 5.679400e-003 1.869551e+000 1.268693e-001 1.425438e+000 9.134295e+000 3.402288e+000 9.143950e+000 1.467442e+000 3.031842e-001 2.168507e+000 2.192161e+000 9.240448e-001 2.851565e+000 6.283456e-002
<GCONST> 4.703342e+001
<MIXTURE> 7 2.002006e-002
<MEAN> 39
 1.228007e+000 2.551500e+000 3.636490e+000 3.707969e+000 1.681583e+000 1.586776e+000 6.916760e-001 -1.858902e+000 -6.039392e+000 -4.125027e+000 3.732985e+000 2.546255e+000 4.187054e+000 3.201843e-002 8.715490e-001 1.868972e+000 -1.570677e+000 -1.041212e+000 -5.454867e-001 2.035371e+000 1.267484e+000 -1.708039e-001 -2.149952e+000 9.227760e-001 1.203348e+000 -2.061976e-001 -1.284607e+000 2.812895e-001 -7.700106e-001 2.464262e+000 1.258390e+000 -2.676752e+000 -4.544088e-001 4.295341e-001 2.195102e+000 1.035587e-001 -1.445307e+000 8.326377e-001 -2.575881e-001
<VARIANCE> 39
 2.141963e-002 9.207811e-001 4.374388e-001 3.359409e-001 1.002499e+000 4.929924e+000 1.219688e+000 2.863627e+000 3.908327e-001 1.626630e+000 5.232346e-001 1.964418e+000 3.823164e-003 1.286736e+000 1.397467e+000 1.637716e+000 4.200182e+000 3.527471e+000 5.691673e+000 2.075573e+000 3.472430e+000 4.496983e+000 5.629405e+000 2.140415e+000 7.612700e+000 1.921981e-001 3.599481e-001 6.282002e-001 1.594630e+000 4.518294e+000 1.917681e+000 5.481721e+000 3.691801e+000 4.285367e+000 2.127978e+000 5.793490e+000 2.449750e+000 5.891016e+000 2.775144e-001
<GCONST> 8.405418e+001
<MIXTURE> 8 7.116912e-002
<MEAN> 39
 1.685569e+000 2.449457e+000 -2.124389e+000 -2.396389e+000 -1.971569e+000 -2.261117e-001 -9.305438e-001 -2.038743e+000 -2.553969e+000 -2.157607e+000 -1.374204e+000 -8.414146e-001 2.238347e+000 2.364945e-001 6.559068e-001 3.912522e-002 1.467774e-001 9.966846e-001 -7.632157e-001 5.611829e-001 -5.571779e-001 5.724456e-001 -1.410372e+000 -6.547028e-001 6.641102e-001 -3.018981e-001 -2.868330e-001 -4.957654e-001 5.251078e-001 2.386543e-002 1.571958e-001 5.700347e-002 2.014387e-001 -7.326732e-001 9.205719e-001 5.377308e-001 8.187208e-001 2.170338e-001 -1.114266e-001
<VARIANCE> 39
 1.300237e+000 3.552419e-001 3.493125e-001 6.347027e-002 5.806167e-001 3.246559e+000 8.788159e-001 5.567278e-001 8.742543e-001 2.380907e+000 3.023546e+000 4.421092e+000 1.665245e-001 1.681554e-001 1.091786e+000 9.696205e-001 5.657973e-001 1.058527e+000 1.996110e+000 1.852812e+000 3.968771e+000 3.476341e+000 1.776986e+000 4.888445e+000 1.570722e+000 9.196599e-002 2.113736e-001 5.525439e-001 9.683501e-001 8.773975e-001 1.416976e+000 2.163535e+000 2.516060e+000 3.296695e+000 3.384592e+000 2.611705e+000 2.752922e+000 8.003507e-001 1.029616e-001
<GCONST> 7.209037e+001
<MIXTURE> 9 8.865648e-002
<MEAN> 39
 1.432515e+000 -7.573314e-001 -1.424463e+000 -1.531668e+000 8.023315e-001 -7.963346e-001 -1.259253e+000 -7.017296e-001 -1.703102e+000 9.860287e-001 1.073382e+000 -9.436643e-001 1.244127e+000 2.874731e-002 1.227614e-001 -1.022549e-002 -1.044121e-001 6.107017e-002 9.458177e-002 -1.498329e-001 -7.132801e-002 -9.669964e-002 1.365945e-001 1.027292e-001 -5.959411e-003 -1.771167e-001 -9.399772e-002 9.002077e-002 5.517565e-003 1.496739e-001 -2.690670e-002 1.397679e-001 2.795659e-002 -6.870854e-003 1.944975e-001 9.515884e-003 -1.330153e-001 1.865728e-003 -2.186191e-002
<VARIANCE> 39
 2.032191e-002 1.409484e-001 2.632661e-002 2.409647e-002 9.106232e-002 1.589663e-001 8.634046e-002 1.653147e-001 1.316019e-001 2.996514e-001 1.683217e-001 8.916723e-002 6.310177e-003 2.592652e-001 1.712983e-001 1.880171e-001 2.358919e-001 2.517815e-001 2.583211e-001 2.252372e-001 2.681558e-001 4.121203e-001 5.906797e-001 3.315434e-001 2.983706e-001 3.839530e-002 3.653021e-001 1.739966e-001 2.085004e-001 3.737562e-001 3.500076e-001 3.851510e-001 2.806373e-001 2.532538e-001 3.597436e-001 5.328631e-001 1.985387e-001 2.744246e-001 1.328014e-001
<GCONST> 2.184637e+000
<MIXTURE> 10 2.016148e-001
<MEAN> 39
 1.790899e+000 9.832402e-001 5.294647e-001 -1.483776e+000 -5.326442e-001 4.940127e-001 -7.877502e-001 4.680448e-001 -1.231071e+000 -4.511138e-001 1.362607e+000 7.778443e-001 1.767565e+000 1.514433e-001 2.979268e-001 -1.867277e-001 -9.398787e-002 -2.019892e-001 -9.452678e-002 1.430070e-001 1.711785e-001 8.346261e-003 -8.923478e-002 -4.210500e-001 1.314856e-001 -6.116832e-002 -8.941774e-002 2.039148e-002 9.062959e-002 2.300942e-001 -5.550605e-002 -1.979979e-001 -3.106873e-002 -6.639936e-002 2.721125e-001 2.866791e-002 -7.170388e-002 -6.996419e-002 -3.932040e-002
<VARIANCE> 39
 9.400789e-002 3.584224e-001 2.315145e-001 2.542184e-001 4.821258e-001 4.913289e-001 3.773764e-001 5.025190e-001 7.392038e-001 1.897768e+000 4.865791e-001 1.124841e+000 1.842997e-001 1.965436e-001 4.293360e-001 5.508523e-001 5.623351e-001 5.832771e-001 5.070180e-001 5.273333e-001 4.200213e-001 8.361606e-001 4.089089e-001 4.454147e-001 5.797188e-001 7.902201e-002 2.219944e-001 4.599706e-001 9.010518e-001 5.124130e-001 8.176528e-001 4.487048e-001 6.435693e-001 4.217989e-001 5.577905e-001 3.476219e-001 4.940129e-001 4.574720e-001 1.191204e-001
<GCONST> 3.844424e+001
<MIXTURE> 11 4.298270e-002
<MEAN> 39
 2.265073e+000 -2.572920e+000 -9.745949e-001 -3.228449e+000 2.176543e+000 -2.050600e+000 -2.087140e+000 5.878105e-001 -6.253748e-001 -2.771384e+000 -5.241004e-001 -8.273621e-001 3.294065e+000 1.011081e+000 1.362749e-002 -1.492302e+000 -3.568193e-001 1.421473e+000 9.490614e-001 2.151131e-002 1.195190e+000 5.907445e-001 9.836771e-001 -7.310786e-001 -1.879149e+000 -1.644463e-002 -5.462219e-002 5.125389e-001 4.371205e-001 4.361225e-001 -1.412540e+000 5.362359e-001 8.247855e-001 -3.091228e-001 9.201325e-002 5.112159e-001 8.773906e-001 -1.008706e+000 -8.246727e-001
<VARIANCE> 39
 2.614372e-001 3.219106e-001 2.793658e+000 3.632469e-001 1.590839e+000 3.844795e+000 4.617067e-001 9.348251e-001 3.887668e+000 6.410576e-001 4.153265e+000 9.097785e-001 5.213497e-002 2.256866e-001 1.052800e+000 3.320315e+000 9.420620e-001 3.892180e+000 2.089090e+000 2.003526e+000 3.886622e+000 1.346424e+000 1.525642e+000 1.455411e+000 9.662308e-001 2.441087e-001 5.691085e-001 2.035726e+000 1.144590e+000 2.254684e+000 1.182238e+000 2.246344e+000 7.556654e-001 1.902367e+000 2.043524e+000 8.927713e-001 2.332137e+000 1.865745e+000 9.632758e-001
<GCONST> 7.744740e+001
<MIXTURE> 12 3.714069e-002
<MEAN> 39
 -1.956811e-001 1.515190e+000 -2.630956e+000 -2.843062e+000 -2.378991e+000 -1.515716e-002 -1.519005e+000 -1.581498e+000 -9.480243e-001 1.561527e+000 2.163973e+000 -9.643671e-003 2.092810e+000 2.652781e-001 9.905206e-001 3.137433e-001 1.000438e+000 1.618124e-001 -2.970871e-001 3.436841e-001 1.781211e-001 -1.736493e-001 -9.597567e-001 -1.726018e+000 -8.616342e-001 -3.821096e-001 8.622058e-002 3.875788e-001 2.332879e-001 5.022292e-001 2.469639e-001 -8.766748e-001 -1.917367e-001 -1.137995e+000 -8.291680e-001 -1.020410e+000 -8.586146e-001 -1.271569e-001 -5.266504e-002
<VARIANCE> 39
 6.934912e-001 6.688528e-001 5.460412e-001 1.847146e-001 1.987791e-001 1.754662e+000 4.287052e-001 4.274471e-001 1.009782e+000 9.840504e-001 1.297643e+000 1.983948e+000 2.222345e-002 3.667694e-001 2.687036e+000 9.688593e-001 1.764436e-001 6.958382e-001 2.007986e+000 1.431195e+000 1.037034e+000 1.716056e+000 3.319370e+000 1.850660e+000 5.419577e-001 1.098956e-001 5.165159e-001 2.597250e+000 1.055816e+000 5.498270e-001 5.122719e-001 1.806998e+000 1.589888e+000 2.342323e+000 1.277093e+000 1.746996e+000 1.789124e+000 1.545845e+000 7.620521e-002
<GCONST> 6.171345e+001
<MIXTURE> 13 1.284190e-001
<MEAN> 39
 1.469190e+000 9.600003e-001 -1.466074e+000 -1.645048e+000 -1.022739e+000 1.328678e+000 -1.459604e+000 -3.493330e-001 -4.983675e-001 2.559001e-001 -2.448842e-002 2.741595e-001 1.390647e+000 1.303615e-002 3.888012e-001 -5.011713e-002 2.749193e-002 3.077506e-002 3.307490e-001 2.205527e-001 -1.624315e-002 -1.503483e-001 -9.244063e-002 4.497571e-001 -4.944188e-002 -1.070126e-001 -7.474352e-002 -6.810647e-002 2.033417e-001 2.313128e-001 4.108668e-002 -3.474061e-001 1.063371e-001 5.378531e-002 -5.107822e-002 -2.319516e-001 -2.334865e-001 9.168800e-002 -8.163591e-002
<VARIANCE> 39
 9.485851e-002 6.053061e-001 3.321254e-001 7.079548e-002 3.521540e-001 2.010714e-001 1.358553e-001 2.513286e-001 2.849883e-001 3.795328e-001 5.858582e-001 4.402678e-001 6.625316e-002 2.286950e-001 2.784659e-001 3.731172e-001 2.412896e-001 3.472015e-001 3.727227e-001 4.359971e-001 3.568134e-001 4.678366e-001 7.273245e-001 4.790711e-001 6.038173e-001 3.174285e-002 3.133157e-001 4.452431e-001 4.555551e-001 2.295002e-001 3.307610e-001 3.536440e-001 5.959046e-001 5.736098e-001 2.841259e-001 6.527469e-001 4.411605e-001 5.471815e-001 6.205489e-002
<GCONST> 2.458283e+001
<MIXTURE> 14 6.570000e-002
<MEAN> 39
 2.040983e+000 -1.046677e+000 9.920033e-001 -2.579300e+000 4.800870e-001 4.096009e-001 -1.285488e+000 -1.218440e+000 -2.189986e+000 1.585869e+000 1.625539e-001 -1.728832e+000 2.377716e+000 1.042351e-001 6.643993e-002 2.794999e-001 -4.945163e-001 1.162361e-001 -1.864133e-001 2.876916e-001 9.694242e-002 -2.096128e-003 -2.335574e-001 -1.325316e-001 2.182082e-001 -1.088376e-001 1.865300e-002 -1.936869e-001 1.220916e-001 8.481797e-002 1.205840e-001 -1.972544e-001 -1.225196e-001 -9.721675e-002 -7.161071e-002 -4.089882e-002 -1.518587e-001 1.869655e-001 -7.138468e-002
<VARIANCE> 39
 1.501097e-002 6.998333e-002 2.423574e+000 7.644001e-002 3.179363e+000 2.167719e-001 2.359787e-001 3.645208e-001 3.395163e-001 4.387508e-001 3.787714e-001 1.043281e-001 1.458330e-002 1.064930e-001 2.772425e-001 2.955977e-001 1.600551e-001 4.373402e-001 4.672951e-001 1.979282e-001 3.167028e-001 1.606091e-001 1.288088e-001 2.924230e-001 3.056839e-001 2.036303e-002 1.296479e-001 2.047185e-001 2.113981e-001 3.879527e-001 3.745988e-001 4.619131e-001 1.810723e-001 2.575961e-001 1.554290e-001 1.118033e-001 9.352097e-002 1.430700e-001 2.602775e-002
<GCONST> 6.861725e+000
<STATE> 5
<NUMMIXES> 14
<MIXTURE> 1 1.281585e-002
<MEAN> 39
 5.519357e-001 2.028640e+000 5.341391e+000 4.567701e+000 2.155412e+000 6.617845e-001 -1.201081e+000 -1.693340e+000 -3.984787e+000 -3.302208e+000 4.178215e+000 1.908094e+000 3.706780e+000 3.469596e-002 1.433341e+000 -1.033233e-001 -1.008695e+000 -1.523035e+000 2.354991e+000 2.551605e+000 -8.754151e-001 1.768193e+000 2.000822e+000 8.027934e-001 -2.589900e-002 -2.503110e-001 9.036666e-001 -2.948017e-001 -2.433892e+000 -2.212918e+000 -1.110112e+000 -2.182121e-001 1.811303e+000 4.228926e+000 3.171067e+000 -6.364210e-001 -2.904464e-001 1.224950e+000 1.417912e+000
<VARIANCE> 39
 1.240003e-001 1.192190e+000 2.861313e-001 1.559772e-001 1.899205e+000 7.776872e-001 2.759634e+000 4.163174e-001 1.934766e-001 2.168179e-001 1.907216e+000 1.401724e+000 7.188995e-002 8.234751e-001 3.538310e+000 4.277698e+000 1.544398e+000 5.840478e+000 1.938682e+000 4.646636e+000 3.221808e+000 5.833196e+000 1.761153e+001 7.554673e+000 2.001844e+000 6.130585e-001 9.679986e-001 2.362736e+000 1.113320e+000 5.025098e-001 1.787086e+000 1.768418e+000 4.730746e+000 1.185034e+000 2.649575e+000 1.042021e+001 1.251851e+001 5.764521e+000 1.341938e+000
<GCONST> 8.832606e+001
<MIXTURE> 2 4.782369e-002
<MEAN> 39
 1.098422e+000 -8.489721e-001 -3.217101e+000 -2.952705e+000 2.641287e+000 -1.379077e+000 -1.771507e+000 -5.457410e-001 6.823308e-001 4.702888e-001 9.343144e-001 -2.605099e+000 2.646012e+000 4.916675e-001 5.346379e-001 8.337227e-002 9.423295e-001 -6.737306e-001 3.757233e-001 4.397913e-001 5.890551e-002 2.933646e-001 5.549621e-001 -5.566584e-001 -8.729021e-001 -1.493601e+000 1.477962e-003 3.566050e-001 1.541027e+000 1.641023e+000 -1.041578e+000 -9.564608e-002 3.823547e-001 -1.570338e-001 -3.235333e-001 -1.331508e+000 -1.194149e+000 1.561481e+000 -1.203148e+000
<VARIANCE> 39
 2.443519e+000 5.682528e+000 5.530197e-001 3.291178e-001 1.567354e+000 4.620939e-001 9.820072e-001 3.473353e+000 2.846901e+000 2.108429e+000 4.014765e+000 2.805722e+000 4.954033e-001 4.699364e-001 1.458705e+000 1.870217e+000 1.858403e+000 3.662041e+000 5.139178e-001 1.494316e+000 2.313859e+000 3.020549e+000 2.996929e+000 3.102292e+000 3.284451e+000 1.156781e+000 9.157007e-001 2.078583e+000 8.756182e-001 9.979964e-001 7.670628e-001 1.152638e+000 4.789019e-001 1.627441e+000 1.543022e+000 2.246433e+000 1.893318e+000 2.267261e+000 1.268663e+000
<GCONST> 8.750555e+001
<MIXTURE> 3 2.883546e-002
<MEAN> 39
 2.799829e+000 1.081702e+000 -5.258792e-002 -2.303988e+000 -4.131988e-001 7.451109e-001 -3.155454e-002 1.229020e+000 -4.325274e-002 1.450670e+000 2.070932e-001 1.915992e+000 3.174066e+000 9.175078e-001 6.708751e-001 -6.231802e-002 1.331833e+000 1.184608e+000 -2.032699e-001 4.025920e-001 6.204824e-001 -6.950777e-001 4.902316e-002 -1.020748e+000 -6.149268e-001 -6.465235e-001 -6.017613e-001 4.737327e-001 -2.804402e-002 2.642715e-002 -2.675896e-001 -1.761539e-001 6.610132e-001 -1.518496e+000 -1.157082e+000 -7.268296e-001 6.022511e-001 -8.721478e-001 -8.289285e-001
<VARIANCE> 39
 2.600103e-001 4.119674e-001 9.533621e-001 2.417259e+000 1.225517e+000 1.043977e+000 1.294923e-001 2.163227e+000 2.328471e+000 3.139740e+000 8.250188e-001 2.777906e+000 3.545625e-001 9.636481e-001 2.702747e+000 2.117860e-001 1.173538e+000 3.825869e+000 3.153151e-001 5.322624e-001 2.996978e+000 9.353806e-001 1.271403e+000 9.370185e-001 2.784414e+000 3.094253e-001 3.399088e+000 1.366635e+000 4.120368e-001 1.432250e+000 3.299548e+000 3.077469e-001 4.319045e-001 5.286435e-001 8.157345e-001 3.722440e-001 4.743490e-001 7.999778e-001 4.580408e-001
<GCONST> 6.781801e+001
<MIXTURE> 4 1.281583e-002
<MEAN> 39
 8.780389e-001 3.233124e+000 4.546957e+000 3.866170e+000 1.407248e+000 -6.450519e-001 1.328758e+000 3.353299e-001 -5.513807e+000 -6.133151e+000 4.064243e+000 3.919776e+000 4.087721e+000 -4.811654e-001 -2.303694e+000 3.112755e-001 3.313647e+000 -9.295722e-003 -1.950291e+000 -1.803834e+000 6.404194e-001 3.861221e+000 -3.641745e-001 -2.366784e+000 4.683497e-001 -2.407873e-001 2.166035e-001 -1.348950e+000 4.637239e-001 1.292417e+000 -1.203913e-002 8.166212e-001 -2.277305e+000 -1.642961e+000 8.457142e-001 3.368463e+000 1.578855e-001 -2.788444e+000 -2.376531e-001
<VARIANCE> 39
 2.645125e-002 4.366096e+000 8.555579e-002 7.589925e-001 1.040082e+000 3.765884e+000 1.651464e+000 3.168202e-001 3.002429e+000 9.069509e-001 1.689253e+000 1.001838e+000 1.418595e-003 1.301369e-001 2.637681e+000 5.832747e-001 1.239778e+000 3.171931e+000 2.157363e+000 3.915850e+000 1.827395e+000 6.527072e+000 6.319328e+000 2.345267e+000 2.582609e+000 7.966763e-002 2.548007e-001 4.795284e+000 2.696438e+000 1.205715e+001 1.722797e+000 4.504681e+000 2.431059e+000 3.273363e+000 1.329156e+001 4.194218e+000 1.299348e+001 1.140736e+000 7.938401e-001
<GCONST> 8.225142e+001
<MIXTURE> 5 1.030304e-001
<MEAN> 39
 2.942115e+000 -1.475500e+000 1.625084e+000 -3.411091e+000 -1.420915e+000 1.010313e+000 -9.554493e-002 4.394181e-001 -2.369823e+000 4.534094e-001 -7.217849e-001 -3.298175e-001 2.717854e+000 3.573155e-001 7.349746e-001 -3.240340e-001 9.793978e-001 2.377723e-001 1.979373e-001 7.891171e-001 2.758570e-001 1.319211e+000 -6.302477e-001 9.152542e-001 -3.383792e-001 -7.085308e-001 -4.693362e-001 6.042169e-002 -1.987501e-001 1.269154e+000 6.824111e-001 2.141857e-001 -7.628811e-001 -3.531537e-001 2.883187e-001 6.909632e-002 1.235770e+000 2.387352e-001 -3.977617e-001
<VARIANCE> 39
 2.476375e-001 5.203885e-001 5.971563e-001 3.195931e-001 3.372370e+000 1.256069e+000 4.147156e+000 3.909540e+000 5.012292e-001 3.876833e+000 4.075660e+000 2.015126e+000 9.768128e-002 5.012314e-001 1.780392e+000 1.424016e+000 2.536142e+000 2.267179e+000 1.859413e+000 2.336867e+000 1.041654e+000 2.142703e+000 2.751227e+000 3.830841e+000 2.295310e+000 1.509858e-001 9.894607e-001 2.448027e+000 1.367223e+000 1.647544e+000 1.573012e+000 1.209018e+000 1.651892e+000 2.234184e+000 2.062441e+000 2.199738e+000 2.766530e+000 1.514462e+000 4.235831e-001
<GCONST> 8.393281e+001
<MIXTURE> 6 9.611870e-003
<MEAN> 39
 9.634057e-001 1.161957e+000 4.814985e+000 3.967234e+000 1.548054e+000 1.352373e+000 2.473664e-001 -1.675045e-002 -2.136502e+000 -3.365187e+000 3.872723e+000 1.297125e+000 3.785769e+000 -1.437736e-001 -4.277569e-001 -2.438295e+000 -1.665750e+000 2.225233e+000 -2.679645e+000 -3.978624e+000 -5.074028e-002 -7.901707e-001 -1.846519e+000 -2.689359e+000 -1.458016e+000 -3.569335e+000 -1.005705e+000 1.669210e+000 3.273678e-001 1.031976e+000 -5.456861e-002 -2.070997e-001 -1.231281e+000 -3.748981e+000 -2.601326e+000 8.177673e-001 8.592630e-002 9.038150e-001 -2.450972e+000
<VARIANCE> 39
 2.025461e-001 2.181619e-001 1.049517e-001 8.100329e-002 1.639266e+000 3.766837e+000 2.179425e+000 1.423393e-001 9.982851e-001 1.675022e+000 7.197680e-001 1.733471e+000 6.126922e-002 3.498039e-001 3.283635e+000 1.276681e+000 1.182181e+000 4.692675e-002 3.071541e-001 1.562576e+000 3.824131e+000 1.249896e+001 2.407832e+000 2.032351e+000 1.730463e+000 1.496613e+000 3.025232e-001 2.537697e-001 2.000600e-001 1.706247e-001 8.775515e+000 5.456094e+000 1.460706e+001 1.272225e+000 6.477293e+000 1.114189e+001 4.369272e+000 2.960570e+000 7.133316e+000
<GCONST> 7.519716e+001
<MIXTURE> 7 6.093669e-002
<MEAN> 39
 1.282681e+000 2.382836e+000 5.538718e-001 -2.769054e+000 -2.301037e+000 1.865420e+000 1.406907e+000 -2.017401e+000 -1.572770e+000 -2.593304e+000 1.684031e+000 1.270526e+000 2.304309e+000 -6.970631e-002 -1.980243e-001 5.512456e-001 1.414288e-001 3.527070e-001 -4.588894e-002 9.297246e-002 1.152210e+000 3.005013e-001 1.011573e+000 8.463988e-002 -8.166372e-001 -4.444667e-001 -3.252804e-003 -5.096014e-001 -8.077205e-003 1.136229e+000 5.979161e-001 1.497632e-001 -3.284426e-001 5.558121e-001 2.962354e-001 9.543686e-001 -6.416218e-001 1.516484e-001 -2.912720e-001
<VARIANCE> 39
 8.042226e-001 1.368729e-001 6.026602e-001 1.540926e-001 6.216792e-002 2.608024e-001 1.104246e+000 5.303174e-001 5.468542e-001 4.528549e-001 1.043602e+000 2.661100e+000 2.483989e-002 1.931580e-001 5.936772e-001 1.712170e+000 1.445320e+000 1.058343e+000 5.857027e-001 1.841823e+000 1.107362e+000 1.513292e+000 2.030241e+000 1.000108e+000 3.625448e+000 2.089811e-001 4.802008e-001 9.768404e-001 1.088064e+000 6.389585e-001 9.604186e-001 9.153863e-001 3.119503e+000 3.210306e+000 1.670273e+000 3.351866e+000 2.117953e+000 4.930591e+000 3.147461e-001
<GCONST> 6.215447e+001
<MIXTURE> 8 8.344686e-002
<MEAN> 39
 4.880797e-001 1.103120e+000 -2.430984e+000 -3.017480e+000 -1.320131e-001 -1.451488e+000 -1.662599e+000 -2.836421e+000 -1.855987e+000 -1.743663e+000 -1.420918e+000 -1.288971e+000 2.565649e+000 7.918776e-001 1.398695e-001 -4.837480e-001 1.105117e+000 -9.515752e-001 1.431013e+000 8.692236e-001 5.623215e-001 3.810080e-001 -1.343107e-001 4.545178e-001 7.889280e-001 -5.964168e-001 -4.101115e-001 -1.074392e+000 -4.359647e-001 6.071952e-001 -1.365772e-001 -1.086730e-002 7.559585e-002 1.061645e+000 1.557782e+000 2.301915e+000 1.461247e+000 5.309811e-001 -2.692417e-001
<VARIANCE> 39
 4.172507e+000 3.424126e+000 3.413095e-001 4.183981e-001 5.571971e+000 9.917823e-001 1.538630e+000 1.042216e+000 3.119479e+000 4.242246e+000 3.984018e+000 3.201201e+000 8.621798e-002 6.807497e-001 2.952500e+000 2.145957e+000 1.103418e+000 2.218941e+000 9.518518e-001 1.839462e+000 2.761578e+000 4.827245e+000 8.195821e+000 4.095249e+000 3.141691e+000 2.860899e-001 1.076695e+000 3.218512e+000 2.626914e+000 3.055903e+000 3.694951e+000 1.880494e+000 3.722322e+000 2.355321e+000 1.398720e+000 3.800139e+000 2.890743e+000 4.364633e+000 3.334958e-001
<GCONST> 9.670657e+001
<MIXTURE> 9 1.178373e-001
<MEAN> 39
 1.349264e+000 7.571591e-001 -2.701243e+000 -2.812501e+000 -1.451438e+000 2.382018e-001 -9.762563e-001 -1.938128e+000 -1.032123e+000 -3.439830e-001 2.905345e-001 1.011356e+000 2.215128e+000 1.526340e-001 5.248719e-001 1.930772e-001 5.282840e-001 1.928822e-001 6.898486e-002 4.869077e-001 1.119670e+000 2.036325e-001 -3.585947e-001 4.266923e-001 2.688585e-001 -7.459265e-001 -5.627168e-001 4.073451e-001 9.942633e-001 3.430669e-001 3.371453e-001 -8.468778e-001 -3.473338e-001 3.310141e-002 -7.550412e-001 -2.076808e-001 -1.462405e+000 -1.369743e+000 -9.488749e-002
<VARIANCE> 39
 2.950904e+000 3.474438e+000 1.076032e+000 4.860443e-001 1.219179e+000 1.570252e+000 1.463944e+000 4.697718e-001 2.753719e+000 4.207229e+000 1.441942e+000 2.533232e+000 2.959288e-001 9.771340e-001 3.012770e+000 6.699331e-001 1.045574e+000 1.933578e+000 1.296961e+000 2.390082e+000 1.456526e+000 2.839682e+000 3.921280e+000 4.719745e+000 4.103307e+000 3.535677e-001 1.091664e+000 3.109788e+000 1.462267e+000 2.021326e+000 2.284463e+000 1.064369e+000 2.661289e+000 2.755028e+000 4.016706e+000 4.332923e+000 2.478359e+000 1.988123e+000 5.671717e-001
<GCONST> 9.245485e+001
<MIXTURE> 10 2.474965e-001
<MEAN> 39
 3.547851e-001 1.184352e+000 -1.392385e+000 -1.637064e+000 -1.054040e+000 5.641639e-001 -1.049207e+000 -8.898687e-001 -1.319139e+000 -1.595015e+000 4.553707e-001 -1.197204e+000 1.424032e+000 -2.726031e-002 2.366334e-001 1.458510e-001 -8.108985e-002 -3.731263e-002 -2.591454e-001 1.163874e-002 2.346534e-001 -1.172627e-001 3.286063e-002 -5.354080e-001 -3.140367e-001 -1.553454e-001 -4.216854e-002 -2.810206e-002 2.274151e-002 5.365778e-002 -1.357001e-001 -5.409257e-002 -4.972544e-002 2.416327e-002 2.108732e-002 2.261300e-001 2.725672e-002 4.217231e-002 2.087226e-002
<VARIANCE> 39
 1.554471e+000 5.518399e-001 5.854917e-001 6.780996e-002 2.556723e-001 1.186499e+000 1.693824e-001 6.483043e-001 2.178991e-001 2.565659e-001 1.397982e+000 5.887860e-001 4.470934e-002 3.570513e-001 1.188391e+000 7.882590e-001 6.134824e-001 9.131221e-001 7.741148e-001 5.813146e-001 6.772705e-001 8.454945e-001 8.119064e-001 1.039294e+000 4.522011e-001 3.535752e-002 4.190016e-001 1.121329e+000 9.449028e-001 8.091191e-001 1.204948e+000 6.968621e-001 6.015511e-001 8.352935e-001 9.031661e-001 9.259096e-001 1.338075e+000 4.219854e-001 5.130546e-002
<GCONST> 4.576577e+001
<MIXTURE> 11 1.021402e-001
<MEAN> 39
 1.668213e+000 1.365641e+000 -5.437049e-001 -1.161247e+000 -8.448981e-001 2.724643e-001 -4.702587e-001 2.496695e-001 -1.028639e-001 -5.374417e-001 5.751550e-001 7.753054e-001 1.088632e+000 -3.558540e-001 4.413671e-001 4.039673e-001 8.591777e-001 1.177127e-001 -3.808234e-001 6.487505e-001 -5.216419e-001 2.178010e-001 -9.374326e-002 -6.724668e-001 -2.431164e-001 -5.120518e-001 -7.867402e-001 -3.704741e-001 2.865880e-001 2.243614e-001 1.745408e-001 -1.772838e-001 -1.826983e-001 -3.418724e-001 -3.696661e-001 2.063615e-001 2.659331e-002 -3.086982e-001 -1.612241e-001
<VARIANCE> 39
 1.284775e-001 2.685284e-001 4.755470e-001 3.172993e-001 2.807049e-001 9.742516e-001 3.134636e-001 9.822628e-001 4.350219e-001 1.004729e+000 7.790306e-001 3.983006e-001 2.037883e-001 4.380907e-001 4.381078e-001 7.619710e-001 9.029975e-001 5.221311e-001 6.057380e-001 6.435089e-001 5.387019e-001 2.800567e-001 6.431952e-001 4.562030e-001 6.155444e-001 2.470773e-001 4.211454e-001 6.314434e-001 5.188962e-001 1.526709e+000 2.638346e-001 7.231110e-001 6.859568e-001 7.281836e-001 3.352265e-001 7.592379e-001 7.303094e-001 2.845287e-001 4.301639e-001
<GCONST> 4.404748e+001
<MIXTURE> 12 1.218847e-001
<MEAN> 39
 1.520985e+000 -1.878043e-005 -3.898142e-001 -2.255005e+000 -2.328001e+000 8.801426e-001 -6.725498e-001 -1.486042e+000 -3.748964e-001 -1.258072e+000 -1.695213e-001 -1.519409e+000 2.124145e+000 5.529654e-001 9.418123e-001 -1.259129e-001 1.534796e-001 3.101895e-001 -2.155711e-001 3.179210e-002 1.280493e-001 -2.552530e-001 6.112151e-002 -1.221567e-001 -1.258856e-002 -1.714494e-001 6.548786e-002 5.831741e-001 -1.460183e-001 1.140552e-001 3.651040e-001 6.683233e-002 -1.609097e-001 1.047709e-001 -7.265242e-002 2.190801e-001 3.179452e-001 7.080071e-002 -9.938487e-002
<VARIANCE> 39
 8.547648e-001 4.712163e-001 2.311879e+000 6.387658e-002 1.120922e-001 1.175348e+000 3.023705e-001 3.496681e-001 2.084197e+000 1.317025e+000 1.901380e+000 8.222394e-001 6.948865e-002 3.790361e-001 1.500100e+000 5.590488e-001 3.768496e-001 8.891660e-001 5.806279e-001 5.167327e-001 6.337432e-001 9.597147e-001 1.238229e+000 8.450494e-001 1.599365e+000 1.362748e-001 4.362632e-001 5.890375e-001 6.288661e-001 4.289079e-001 8.497877e-001 5.950587e-001 4.169572e-001 5.069867e-001 1.030715e+000 1.041406e+000 4.657796e-001 1.531395e+000 8.885676e-002
<GCONST> 5.035982e+001
<MIXTURE> 13 3.850882e-002
<MEAN> 39
 1.343418e+000 1.203736e+000 -2.611548e-001 -1.221243e+000 -1.006038e+000 -1.794162e-001 -6.798006e-001 6.060914e-001 -1.803062e-001 -1.815889e-001 -1.361680e-002 1.480969e-001 1.059420e+000 -4.946985e-001 -2.882994e-001 4.503364e-002 1.923431e-001 -2.721430e-001 -7.407839e-001 6.339780e-001 1.251872e+000 5.874780e-001 -1.038402e+000 -6.140686e-001 -2.852261e-001 -5.296889e-001 3.141817e-001 4.123800e-001 -3.034562e-001 -1.918376e-001 3.005664e-001 5.869269e-001 1.413689e-001 -1.107269e-001 -5.303180e-001 1.648292e-001 3.711776e-001 -6.094410e-002 1.421652e-001
<VARIANCE> 39
 2.419270e-001 2.793919e-001 6.863794e-002 7.945112e-002 6.679488e-001 5.181748e-001 4.929575e-001 1.152061e+000 1.206991e-001 1.041941e+000 6.481774e-001 5.059474e-001 8.518542e-002 4.444101e-001 5.460584e-001 1.970924e-001 3.298973e-001 3.987702e-001 1.399089e+000 3.877259e-001 2.001152e-001 4.162471e-001 3.992597e-001 4.905910e-001 3.490209e-001 4.716206e-001 3.192925e-001 4.824261e-001 3.083514e-001 5.426365e-001 6.304823e-001 9.728863e-001 6.584755e-001 1.475438e+000 1.035847e-001 8.207052e-001 3.926848e-001 4.700709e-001 4.215122e-001
<GCONST> 3.569899e+001
<MIXTURE> 14 1.281580e-002
<MEAN> 39
 5.864553e-001 1.943997e+000 4.929124e+000 4.550140e+000 1.832033e+000 1.240617e+000 -4.224868e-001 -8.202142e-001 -4.590541e+000 -5.057521e+000 2.600896e+000 2.105431e+000 3.780100e+000 9.319572e-003 -8.326741e-001 2.132213e-001 4.622805e-002 -1.914038e-001 1.482296e+000 -3.744155e-001 -1.318824e+000 5.830662e-001 3.963089e+000 1.197732e+000 -1.173077e+000 -1.251006e+000 -2.709455e-001 1.345569e+000 -3.740253e-001 -1.534663e+000 7.550583e-002 5.007161e-001 9.115473e-001 -2.215155e-001 -3.879137e-001 1.245457e+000 2.227945e+000 -4.542058e-001 -4.166889e-001
<VARIANCE> 39
 2.959527e-002 2.564194e+000 8.936350e-001 1.555929e-001 2.916658e+000 5.662079e+000 5.535667e+000 2.887783e-001 1.136813e+000 8.306490e-001 4.775698e-001 2.835913e-001 1.180052e-001 8.447084e-001 4.243393e+000 6.130326e+000 9.776086e-001 4.933311e+000 6.055714e-001 4.896755e+000 1.093504e+001 4.647549e+000 4.155839e+000 2.355524e+000 9.293971e+000 1.189726e+000 2.644138e-002 7.083508e+000 2.912550e+000 2.810589e-001 3.553284e+000 8.842122e+000 1.136904e+001 2.073107e+000 1.178426e+001 1.492865e+001 6.366957e+000 1.504260e+000 5.589523e+000
<GCONST> 9.445086e+001
<STATE> 6
<NUMMIXES> 14
<MIXTURE> 1 1.014139e-001
<MEAN> 39
 3.620953e-001 2.026858e+000 1.118271e-001 -9.089609e-001 -1.308744e+000 -1.965613e-001 -2.839179e-001 -1.298160e+000 -1.185954e+000 -8.855200e-001 2.545101e-001 -6.772716e-001 1.272257e+000 -4.656614e-001 -4.897116e-001 1.684185e-001 5.626491e-001 2.788551e-001 -3.142684e-001 5.314211e-001 3.316572e-001 7.429832e-001 4.266846e-001 2.673990e-001 7.994624e-001 -5.516512e-001 1.360921e-001 -5.065397e-001 -1.068964e+000 -1.059270e+000 5.111100e-001 7.576742e-001 2.797432e-001 7.812031e-001 7.028683e-001 5.353139e-003 3.950220e-001 1.303985e+000 -7.381628e-002
<VARIANCE> 39
 2.157863e+000 3.882564e-001 1.108178e+000 2.475602e-001 6.215551e-001 1.137876e+000 1.331120e+000 1.778428e+000 1.462023e+000 1.042071e+000 1.395415e+000 2.215562e+000 1.097297e-001 4.059458e-001 1.582337e+000 1.412128e+000 8.363986e-001 1.201623e+000 8.573709e-001 1.570304e+000 1.491411e+000 3.251262e+000 2.267121e+000 2.046884e+000 2.458524e+000 1.689182e-001 3.978623e-001 9.786859e-001 6.403363e-001 1.419258e+000 9.364029e-001 8.490675e-001 2.545200e+000 2.793402e+000 1.661859e+000 1.882135e+000 1.145172e+000 3.357583e+000 2.404211e-001
<GCONST> 7.425698e+001
<MIXTURE> 2 1.140304e-001
<MEAN> 39
 1.966722e+000 -9.608738e-001 -1.738217e+000 -1.970853e+000 1.891738e+000 -9.916781e-002 -3.805392e-001 -3.644559e-001 9.716219e-001 4.398669e-001 -8.805016e-001 -1.853531e+000 1.589660e+000 -2.754337e-001 5.835670e-001 5.219874e-001 2.647612e-001 -4.243014e-001 4.422844e-001 3.906483e-001 3.208281e-001 2.509196e-002 2.904128e-001 -3.646755e-001 2.726357e-001 -9.485450e-001 -2.240313e-001 3.046288e-001 1.694278e-001 1.869465e-001 -1.720518e-001 1.064118e-001 1.400164e-001 5.400004e-002 2.792037e-001 7.229941e-002 6.176366e-001 1.852239e-001 3.658469e-001
<VARIANCE> 39
 4.779158e-001 1.354028e+000 1.482044e+000 3.159281e-001 8.234653e-001 9.784356e-001 2.445744e+000 2.112717e+000 1.477752e+000 4.690026e-001 1.357148e+000 1.450640e+000 1.281780e-001 9.932030e-001 2.081090e+000 1.425643e+000 1.499441e+000 9.440082e-001 1.302338e+000 1.592134e+000 9.081165e-001 6.776607e-001 9.740136e-001 2.070579e+000 1.302859e+000 7.605081e-001 6.830226e-001 1.950925e+000 2.139254e+000 2.486299e+000 5.847964e-001 1.065986e+000 2.530663e+000 1.132481e+000 8.084088e-001 5.535536e-001 1.995874e+000 2.042505e+000 1.600909e+000
<GCONST> 7.614048e+001
<MIXTURE> 3 1.251575e-001
<MEAN> 39
 2.306371e+000 2.388034e+000 -1.245581e-001 -1.326844e+000 8.375393e-002 7.566256e-001 3.887728e-001 -7.132825e-001 -6.315293e-001 4.542625e-001 4.446601e-001 -8.850434e-002 1.714647e+000 -8.170211e-001 3.500213e-001 4.891184e-001 6.162698e-001 -2.849298e-001 -8.504749e-001 -2.554525e-001 -4.562280e-001 -1.333632e-001 -4.830979e-001 2.050761e-001 7.829958e-002 -1.252637e+000 -5.772412e-001 -7.943333e-001 -6.231850e-002 -3.901236e-001 -7.006928e-001 -6.571438e-001 -7.411508e-001 1.085069e-002 -6.376053e-002 -4.803632e-001 -1.134119e-001 2.205191e-001 -2.614982e-001
<VARIANCE> 39
 1.749383e-001 5.142903e-001 2.476571e+000 5.525993e-001 2.420819e+000 1.336652e+000 7.169834e-001 8.256851e-001 1.819094e+000 1.750715e+000 2.529304e+000 1.208748e+000 3.228433e-001 8.347995e-001 1.001777e+000 1.499732e+000 1.425868e+000 2.062199e+000 1.587709e+000 1.044132e+000 1.146778e+000 1.477062e+000 1.462183e+000 1.320574e+000 1.628317e+000 4.821497e-001 8.927008e-001 4.947805e-001 1.091988e+000 1.448048e+000 2.059895e+000 1.112590e+000 9.065344e-001 1.373059e+000 1.425586e+000 1.451934e+000 1.469729e+000 1.095433e+000 3.558154e-001
<GCONST> 7.499126e+001
<MIXTURE> 4 9.337389e-003
<MEAN> 39
 -1.291277e+000 2.850738e+000 4.966787e+000 2.890647e+000 4.240680e+000 -1.184731e+000 -7.279230e-001 4.573714e+000 -4.358347e+000 -4.881367e+000 3.490953e+000 1.381392e+000 2.112725e+000 -1.779297e+000 2.184326e+000 3.888988e+000 -5.861097e-001 -8.377168e-001 -2.636043e+000 1.014921e+000 -1.015722e+000 -3.892792e+000 -2.863277e+000 -1.107508e+000 3.401433e+000 -1.745719e+000 9.311482e-001 -2.365845e-001 -2.865924e+000 8.149958e-001 -2.217048e-002 5.487877e+000 2.094437e+000 -1.709777e-001 3.965337e+000 2.962030e+000 -3.187486e+000 3.190387e+000 4.876248e+000
<VARIANCE> 39
 1.105106e-001 5.836604e-001 1.511910e-001 7.131344e-002 1.956473e-001 5.493638e+000 2.192696e+000 1.249815e+000 3.474149e+000 3.662987e+000 9.651858e-001 9.457368e-001 1.675900e-002 1.338480e+000 4.943676e-001 3.133107e+000 4.997081e-001 6.072401e-001 8.329367e+000 8.920834e+000 6.239205e-001 4.476381e+000 1.437667e+000 6.426776e+000 4.020062e+000 6.322949e+000 1.260453e-001 7.154012e-001 6.366199e+000 2.096160e+000 6.343061e-001 6.051560e+000 4.414754e+000 1.746345e+000 1.966249e+001 7.873928e+000 2.531998e-001 4.899903e+000 2.346490e+000
<GCONST> 8.386436e+001
<MIXTURE> 5 1.556235e-002
<MEAN> 39
 5.544382e-002 2.325193e+000 3.369198e+000 3.288709e+000 2.628524e+000 2.512350e+000 2.493859e-001 9.910300e-001 -1.928078e+000 -2.875613e+000 3.579519e+000 1.283031e+000 2.941665e+000 -1.018322e+000 1.677762e+000 -3.788579e-002 -3.735175e+000 4.304065e-001 -1.512208e+000 -1.704357e+000 2.557640e+000 1.465691e+000 1.616268e+000 3.028467e+000 -2.095596e+000 -2.252929e+000 3.265688e-001 -4.562547e-001 2.018810e+000 -3.783613e-001 -2.153691e-001 -9.996809e-001 -1.192772e+000 6.423050e-001 -3.513052e+000 -2.425678e+000 -1.998289e+000 5.336793e-001 -3.155155e-001
<VARIANCE> 39
 2.060030e-001 4.903328e-001 3.439741e-001 6.483370e-001 4.558375e+000 6.881370e+000 3.775311e+000 8.143231e+000 1.518393e+000 3.444777e+000 2.248429e+000 1.353422e+000 5.528794e-002 8.419349e-001 1.237704e+000 5.333806e+000 1.243518e+000 2.166487e+000 3.214025e+000 4.391175e+000 5.908393e+000 5.943136e+000 9.486872e+000 3.781662e+000 2.324224e+000 1.971893e+000 1.432336e+000 2.033624e+000 1.156798e+000 7.590287e+000 6.771416e+000 3.984288e+000 4.177859e+000 2.073298e+001 2.563110e+000 9.940166e+000 1.292619e+001 5.243436e+000 6.208389e+000
<GCONST> 1.089205e+002
<MIXTURE> 6 5.602397e-002
<MEAN> 39
 2.205533e+000 -1.890079e+000 1.663684e+000 -1.787353e+000 2.733980e-001 2.067832e+000 -8.067198e-001 1.141325e+000 -1.543116e+000 -5.354167e-001 2.406785e+000 -1.012582e+000 1.971258e+000 -1.522888e+000 -1.255553e+000 -5.888460e-001 9.894339e-001 1.098008e+000 -6.383221e-001 -2.297958e+000 4.266522e-001 4.703663e-001 -1.750821e-001 1.537963e+000 -1.582238e+000 -1.992956e+000 -4.261558e-001 4.911326e-001 -1.081259e+000 -1.449499e+000 -9.524283e-001 -9.413772e-001 -8.239729e-002 -6.176818e-001 -2.315468e-001 7.244792e-001 -2.787982e+000 -1.101189e-002 -4.174193e-001
<VARIANCE> 39
 1.072941e+000 2.099949e+000 3.123294e-001 5.029304e-001 4.737089e+000 3.216312e+000 6.692321e+000 4.158013e+000 4.196498e-001 2.573012e+000 2.128300e+000 7.345742e+000 1.686175e-001 9.601912e-001 3.049130e+000 9.742837e-001 4.519209e+000 3.854758e+000 4.480778e+000 1.676617e+000 1.703702e+000 2.755829e+000 2.454427e+000 1.174174e+001 2.196108e+000 4.259154e-001 1.210911e+000 4.669481e+000 2.402734e+000 4.764701e+000 3.531415e+000 4.582350e+000 4.623181e+000 1.435908e+000 4.549426e+000 1.383077e+000 6.106220e+000 6.726588e+000 1.031809e+000
<GCONST> 1.029304e+002
<MIXTURE> 7 3.731292e-002
<MEAN> 39
 1.776852e-001 2.289938e+000 -1.275688e+000 -2.135636e+000 1.467155e+000 -6.729988e-001 -6.350707e-001 -1.497543e+000 -3.004842e-002 -1.090984e-001 -2.694691e-001 -1.042565e+000 1.693062e+000 -3.582479e-001 4.617374e-001 1.008773e+000 2.607349e+000 -9.079574e-001 3.708651e-001 -3.161553e-001 1.518893e+000 9.270548e-001 -5.867506e-001 1.070706e+000 5.172191e-001 -1.489965e+000 -8.436260e-001 -1.081467e+000 3.608456e-001 1.475784e+000 -7.966951e-001 3.799903e-001 -7.278544e-002 -1.997460e-001 -8.257535e-001 6.109416e-002 1.384909e+000 6.223105e-001 -3.846154e-001
<VARIANCE> 39
 1.881206e+000 8.341444e-001 1.199928e+000 1.394995e-001 1.453042e+000 1.787523e+000 1.347819e+000 2.971909e-001 4.763997e-001 3.477704e+000 1.817486e+000 1.415947e+000 1.156134e-001 8.744982e-001 2.482803e+000 1.120452e+000 4.940550e-001 9.947947e-001 6.306499e-001 8.339768e-001 1.510635e+000 4.625880e+000 2.513528e+000 9.725679e-001 2.305163e+000 3.565198e-001 1.187896e+000 1.287744e+000 1.175177e+000 7.700788e-001 7.655199e-001 1.421191e+000 1.579911e+000 1.988511e+000 1.356280e+000 1.466072e+000 1.758451e+000 1.413969e+000 6.463917e-001
<GCONST> 7.456663e+001
<MIXTURE> 8 5.604483e-002
<MEAN> 39
 -9.842553e-001 1.692898e+000 -1.588864e+000 -1.386587e+000 -1.159420e+000 -3.134431e-001 6.056925e-001 -1.364084e+000 3.959919e-001 9.345517e-002 1.650511e+000 1.364939e+000 1.393993e+000 -1.008151e+000 -6.003658e-001 2.786351e-001 8.543429e-001 -3.868536e-001 -5.713515e-001 5.454904e-001 5.390781e-001 9.712228e-001 6.150600e-001 1.776196e-001 6.997600e-004 -6.797063e-001 1.117994e-001 6.220927e-001 7.362944e-001 8.781909e-001 2.013084e-001 -3.788548e-001 -6.887963e-001 -7.567761e-001 -1.872355e+000 -1.444556e+000 -1.268444e+000 -1.172093e+000 2.712956e-001
<VARIANCE> 39
 6.280804e-001 5.477918e-001 4.459190e-001 1.703691e-001 1.315155e+000 2.036893e+000 1.041763e+000 8.695992e-001 3.104157e+000 1.604652e+000 1.016168e+000 2.511065e+000 8.309334e-002 3.327323e-001 2.037238e+000 1.093208e+000 2.143902e+000 1.519082e+000 1.203648e+000 2.721244e+000 2.902236e+000 3.004241e+000 2.618884e+000 1.848946e+000 5.095560e+000 3.195358e-001 4.522169e-001 1.603805e+000 2.062805e+000 1.306966e+000 1.168291e+000 1.500602e+000 3.562491e+000 1.429682e+000 1.791226e+000 2.200673e+000 9.559564e-001 3.241995e+000 1.579391e-001
<GCONST> 7.878901e+001
<MIXTURE> 9 9.093176e-002
<MEAN> 39
 1.138459e+000 1.584191e+000 5.405293e-001 1.765303e-001 -2.256720e-001 -7.287401e-003 8.916340e-003 -2.408844e-001 -4.344596e-001 -4.191124e-001 1.255249e-001 1.452079e-001 9.086290e-001 -1.213671e+000 -6.322692e-001 5.961084e-001 1.595821e+000 1.390327e+000 3.671224e-001 2.719845e-001 -2.250787e-001 -1.157195e-001 3.404244e-001 1.667414e-001 -4.734552e-001 -7.601370e-001 2.094784e-001 -5.148000e-001 -3.662895e-001 -3.050422e-001 3.331931e-001 2.528802e-001 -4.921427e-002 -1.460230e-001 -8.325892e-002 -2.112623e-001 3.192404e-002 1.957386e-001 1.732091e-001
<VARIANCE> 39
 1.818071e-001 5.157762e-001 3.176605e-001 4.513019e-001 9.450625e-001 7.391828e-001 2.748495e-001 7.244782e-001 5.123419e-001 9.266354e-001 1.039640e+000 3.893814e-001 1.585635e-001 2.309407e-001 8.788303e-001 3.222025e-001 1.000931e+000 7.232716e-001 6.874731e-001 5.913985e-001 2.069845e+000 9.910018e-001 1.064187e+000 6.763232e-001 4.818112e-001 1.972893e-001 4.734689e-001 6.436393e-001 2.909919e-001 8.153354e-001 6.523841e-001 4.089251e-001 1.041806e+000 1.383129e+000 5.973449e-001 6.771086e-001 5.749705e-001 4.075165e-001 3.602522e-001
<GCONST> 4.903022e+001
<MIXTURE> 10 1.486510e-001
<MEAN> 39
 1.045942e+000 1.404815e+000 -1.364189e+000 -1.084358e+000 -1.116320e+000 -4.443403e-001 -7.471404e-001 -1.216680e+000 -1.511621e+000 -1.223969e+000 -1.065282e+000 -1.224138e+000 1.146574e+000 -6.979220e-001 1.939856e-001 7.651895e-001 1.037138e+000 4.762996e-001 -6.939294e-002 2.178749e-001 -4.081635e-001 -3.039516e-001 -2.405283e-001 -2.741735e-001 -1.307031e-001 -3.987449e-001 -2.426515e-001 -1.602931e-001 5.459258e-001 5.021359e-001 4.639087e-001 1.140335e-001 1.066485e-001 4.910280e-002 1.113177e-001 -7.865227e-002 2.312118e-001 4.530156e-001 -1.666331e-001
<VARIANCE> 39
 9.096826e-001 6.593829e-001 3.940497e-001 5.688148e-001 5.672462e-001 1.192042e+000 6.498564e-002 3.097842e-001 3.503474e-001 7.916922e-001 8.204410e-001 1.828627e+000 1.584105e-001 4.571385e-001 1.183463e+000 1.702145e+000 6.342223e-001 8.971282e-001 7.165137e-001 3.032719e-001 7.678592e-001 5.904301e-001 1.638342e+000 8.408424e-001 2.091493e+000 1.557164e-001 4.483833e-001 1.317651e+000 7.067570e-001 6.948186e-001 6.398202e-001 6.628650e-001 2.526104e-001 7.692234e-001 4.312052e-001 1.334934e+000 9.653257e-001 1.989689e+000 2.521260e-001
<GCONST> 5.387824e+001
<MIXTURE> 11 6.328956e-002
<MEAN> 39
 2.577670e-001 2.465387e+000 -1.881791e+000 -1.876930e+000 -1.487209e+000 -3.524060e-001 -4.899045e-001 -2.369775e+000 -2.966223e+000 -2.545244e+000 -1.033197e+000 2.284762e-001 1.799426e+000 -7.157902e-001 7.142025e-001 8.598908e-001 1.006924e+000 -3.933461e-001 -7.634212e-001 -2.988235e-002 4.841200e-001 3.350747e-001 -7.710915e-001 -7.268254e-002 -9.804440e-001 -8.112697e-001 -6.525889e-001 -1.877871e+000 3.559583e-001 9.694452e-001 -4.078341e-001 5.297366e-001 7.170702e-001 1.204200e+000 2.512521e+000 1.927128e+000 1.878774e+000 1.382729e-001 -8.105637e-001
<VARIANCE> 39
 2.244877e+000 1.600716e+000 1.175011e+000 7.424268e-001 6.079884e-001 1.300135e+000 1.785422e+000 7.431784e-001 4.078786e-001 1.352917e+000 3.748533e+000 2.716431e+000 1.933662e-001 7.301616e-001 4.601755e+000 1.580825e+000 1.436350e+000 1.753685e+000 2.911266e+000 1.688966e+000 1.700724e+000 2.444557e+000 3.170397e+000 3.339822e+000 2.772722e+000 1.027414e+000 3.810223e-001 5.020259e+000 2.225673e+000 2.449456e+000 3.107473e+000 2.806262e+000 2.429221e+000 2.211133e+000 1.582260e+000 4.195185e+000 3.743715e+000 2.568477e+000 4.312645e-001
<GCONST> 9.147484e+001
<MIXTURE> 12 8.372992e-002
<MEAN> 39
 5.763153e-001 8.112425e-001 5.587981e-001 8.192371e-001 1.197614e+000 9.842302e-001 1.430324e-001 -5.354453e-001 -5.199372e-001 -4.961020e-001 4.754017e-002 -1.163276e-001 5.776764e-001 -6.550242e-001 -1.047273e+000 -4.364749e-001 -5.176112e-002 3.682118e-001 1.882658e-001 -4.245488e-002 -6.054896e-002 2.212380e-001 3.288279e-001 -1.231028e-001 -2.445029e-001 -7.693461e-001 5.559901e-002 -1.972389e-001 -6.877888e-001 -1.138073e+000 -1.130209e+000 -6.535525e-001 -5.425503e-001 -1.422632e-001 1.460330e-001 1.357382e-002 -2.206406e-001 -1.568241e-001 -4.402530e-001
<VARIANCE> 39
 1.378823e-001 2.377048e-001 7.434119e-001 7.916114e-001 5.775183e-001 5.855394e-001 3.236070e-001 6.440929e-001 3.940298e-001 5.680723e-001 6.388946e-001 5.615010e-001 1.111023e-001 2.791324e-001 2.425114e-001 4.351332e-001 1.890298e+000 1.030539e+000 6.686555e-001 9.397458e-001 8.697792e-001 1.120142e+000 5.015823e-001 7.533727e-001 8.885344e-001 4.600764e-001 4.272611e-001 1.847047e-001 5.642144e-001 1.292125e+000 4.452135e-001 5.213563e-001 6.560870e-001 1.589542e+000 1.395490e+000 6.226875e-001 1.148309e+000 1.139351e+000 4.695742e-001
<GCONST> 5.023920e+001
<MIXTURE> 13 7.361497e-002
<MEAN> 39
 2.141618e+000 2.095599e+000 -7.449434e-001 -1.885598e+000 -1.405082e+000 3.361988e-001 -7.943569e-001 -6.352907e-001 -1.002746e+000 -1.363942e+000 6.515740e-001 3.019483e-001 1.700654e+000 -6.267676e-001 2.978962e-002 4.243178e-001 1.646336e+000 7.266558e-001 -2.464914e-001 9.514190e-001 4.829206e-001 4.219356e-001 1.232441e+000 -7.058491e-001 6.247608e-003 -1.140715e+000 -7.514892e-001 -1.055364e+000 1.121794e-001 1.084181e+000 5.470300e-001 -1.499139e-001 5.884634e-001 2.427211e-001 -1.115623e-001 6.411387e-001 -8.629478e-001 -9.264003e-001 -4.674539e-001
<VARIANCE> 39
 4.812432e-001 4.260436e-001 1.139781e+000 2.196457e-001 5.832363e-001 1.214491e+000 4.514091e-001 2.186448e+000 7.070006e-001 1.283015e+000 1.213112e+000 7.195826e-001 5.212720e-002 3.761519e-001 2.378546e+000 1.203208e+000 1.950510e+000 2.820215e+000 1.085088e+000 6.522044e-001 9.483910e-001 1.267584e+000 1.633752e+000 1.849348e+000 9.231411e-001 1.036816e-001 1.815874e-001 4.047915e-001 1.838254e+000 2.039999e+000 3.582161e+000 1.297128e+000 8.212501e-001 2.024349e+000 1.288800e+000 1.407861e+000 1.865533e+000 7.728048e-001 2.185634e-001
<GCONST> 6.573535e+001
<MIXTURE> 14 2.489963e-002
<MEAN> 39
 3.192895e-002 2.739650e+000 3.778675e+000 2.915673e+000 2.881676e+000 2.139541e+000 2.573651e-001 2.705808e+000 -2.683728e+000 -2.398401e+000 3.049529e+000 2.053493e+000 2.835881e+000 -8.623483e-001 -6.242759e-001 -5.511631e-001 6.866986e-001 1.938331e+000 2.713288e+000 8.778875e-001 2.586995e+000 8.423544e-001 -7.386417e-001 -2.767760e+000 1.256747e+000 -2.975909e-001 -5.780452e-001 -4.200537e-001 -6.444839e-001 4.541171e-001 6.596587e-001 -6.845672e-001 -8.285204e-001 -2.247324e-001 1.464856e+000 -7.427806e-001 7.413240e-001 -6.503045e-001 -1.502342e+000
<VARIANCE> 39
 6.856912e-001 2.554914e+000 7.150240e-001 6.931430e-001 2.760144e+000 4.065646e+000 1.952861e+000 3.065069e+000 9.447054e-001 2.120284e+000 1.757261e+000 1.546644e+000 7.266613e-002 1.404451e+000 2.081663e+000 2.010419e+000 8.338157e+000 8.093822e+000 6.789790e+000 5.816730e+000 5.461942e+000 1.419736e+001 1.424819e+001 2.743264e+000 1.777893e+000 1.511535e+000 1.537060e+000 5.340336e+000 8.210450e+000 1.388295e+001 7.225671e+000 4.120865e+000 4.848701e+000 6.031857e+000 7.642414e+000 3.803184e+000 6.397070e+000 3.317917e+000 2.943533e+000
<GCONST> 1.145953e+002
<STATE> 7
<NUMMIXES> 14
<MIXTURE> 1 7.779414e-002
<MEAN> 39
 -1.593077e+000 1.725600e-001 -9.682369e-001 -2.321477e-001 -9.932579e-001 -2.317327e-001 -4.887297e-001 -7.607719e-001 -8.144997e-001 -6.997042e-001 -3.596238e-001 -1.479493e-001 4.049923e-001 6.650057e-001 -1.776220e+000 3.044609e+000 3.337104e+000 2.334408e+000 1.810403e+000 2.364786e+000 3.181249e+000 2.694345e+000 2.232240e+000 1.746557e+000 1.090165e+000 -3.722256e+000 2.113234e+000 8.696340e-001 3.108393e-001 -9.594116e-001 4.882198e-001 -5.801398e-001 2.100265e-001 -1.636079e-001 9.560281e-002 2.522025e-001 -4.244339e-001 1.490624e-001 1.814425e-001
<VARIANCE> 39
 2.088993e+000 1.410721e+000 1.746148e+000 7.048372e-001 3.026272e+000 1.250753e+000 6.252383e-001 1.577722e+000 1.889706e+000 2.007800e+000 8.385670e-001 1.358905e+000 8.545132e-001 2.885508e+000 2.190293e+000 3.149309e+000 2.697841e+000 3.244895e+000 3.307219e+000 5.244594e-001 1.536298e+000 1.833799e+000 2.334962e+000 1.743906e+000 2.689666e+000 7.160774e-001 2.133212e+000 3.505268e+000 6.623814e+000 7.039493e+000 4.605821e+000 2.405995e+000 1.587406e+000 4.329352e+000 3.647780e+000 4.650605e+000 1.718995e+000 1.679843e+000 4.155842e+000
<GCONST> 9.989939e+001
<MIXTURE> 2 2.793038e-002
<MEAN> 39
 1.677253e+000 -2.297049e+000 1.157783e+000 -1.392475e+000 -3.755684e-002 -6.028283e-001 -2.914221e+000 3.000216e+000 -1.457847e+000 1.867736e+000 1.888575e+000 -1.873764e+000 1.221549e+000 -2.524808e+000 2.727715e+000 -2.352233e+000 3.059318e+000 1.268120e-002 -3.265919e-001 3.886261e+000 -1.180580e+000 2.442686e+000 -3.265398e-001 9.346416e-002 3.340462e+000 -5.168299e-001 -2.501744e+000 1.829466e+000 -1.843586e+000 1.759554e+000 -7.677512e-001 3.064893e-001 2.694214e+000 -2.339523e+000 1.636905e+000 -1.718148e+000 -2.053808e+000 1.913879e-001 -1.931323e+000
<VARIANCE> 39
 2.013166e-001 7.298717e-001 1.233017e+000 1.704476e-001 5.154328e+000 2.712612e+000 1.653128e+000 1.222235e+000 2.182448e-001 5.520835e-001 9.749318e-001 2.779076e+000 1.157776e-002 6.994394e+000 2.716349e+000 2.737273e+000 1.805321e+000 2.367223e+000 2.544790e+000 2.579167e+000 3.320155e+000 2.472954e+000 1.315421e+000 3.892526e+000 2.173157e+000 6.967118e-001 1.610459e+000 8.637406e-001 6.861450e+000 2.567255e+000 2.679548e+000 2.318522e+000 4.121542e+000 1.320462e+000 1.925488e+000 4.368466e-001 1.240863e+000 6.980559e+000 5.510007e+000
<GCONST> 8.781341e+001
<MIXTURE> 3 8.896654e-002
<MEAN> 39
 -1.916503e+000 1.259776e+000 -1.901404e+000 -7.449781e-001 -1.408227e+000 -1.638474e+000 -6.356929e-001 -4.873238e-001 5.349708e-001 5.394048e-001 1.917797e+000 1.259520e+000 8.900511e-001 -3.123219e-001 -1.308527e+000 4.570973e-001 2.302035e+000 1.406916e+000 1.872412e-001 6.268449e-001 1.260749e+000 4.950002e-001 -3.743188e-002 -1.106986e+000 -1.721652e-001 -3.019085e+000 2.735274e+000 -1.277722e+000 2.001816e+000 5.029081e-001 1.654746e+000 2.128441e+000 1.641505e-001 6.324823e-001 -6.341081e-001 -6.178545e-001 -1.890359e+000 -1.651371e+000 -1.961432e+000
<VARIANCE> 39
 3.414713e-001 1.217338e+000 3.195031e+000 6.836458e-001 9.579226e-001 2.178391e+000 2.763344e+000 4.650649e-001 2.262244e+000 1.107723e+000 2.546364e+000 1.770308e+000 1.944486e-001 3.739883e+000 7.931466e+000 4.435269e+000 5.130949e+000 3.212306e+000 5.277712e+000 3.927798e+000 7.698672e+000 6.408601e+000 3.752464e+000 3.272864e+000 4.022359e+000 2.368256e+000 2.576613e+000 2.997512e+000 4.575880e+000 7.153746e+000 4.896929e-001 2.862019e+000 6.001400e+000 3.101929e+000 3.454585e+000 1.988620e+000 5.160949e+000 1.700890e+000 2.673360e+000
<GCONST> 1.066052e+002
<MIXTURE> 4 1.995014e-002
<MEAN> 39
 -1.833135e+000 3.236676e+000 3.238084e+000 2.660253e+000 4.381816e+000 1.099055e+000 -7.717818e-002 4.054040e+000 5.492882e-001 -4.035654e+000 5.377312e-001 3.723164e+000 1.883332e+000 -1.012364e+000 1.374336e+000 -2.193409e+000 4.705705e-001 5.931613e-002 -2.128318e+000 1.716087e+000 -1.922011e+000 2.530788e+000 2.036141e+000 -1.501849e+000 -1.414042e+000 -1.352652e+000 -9.652459e-001 2.914168e+000 2.076296e+000 -1.434373e+000 -1.109400e-001 3.786793e-001 6.157821e-001 -1.833455e+000 -4.782053e+000 2.011312e+000 7.225370e-001 -1.141966e+000 2.904665e-001
<VARIANCE> 39
 5.289628e-002 1.552122e+000 6.990884e-002 1.328777e-001 1.156597e+000 5.476947e+000 2.628063e+000 1.996036e-001 1.971828e+000 9.118854e-001 1.060819e+000 3.747206e+000 7.371760e-003 1.491978e+000 9.842441e+000 2.025824e+000 4.136832e+000 2.094774e+000 6.504973e+000 3.289215e+000 3.228120e+000 1.763991e+001 1.272920e+001 2.506932e+000 9.114585e+000 1.198220e+000 8.597187e-001 2.795719e+000 2.784351e-001 4.132611e+000 5.444909e-001 1.091367e+001 7.036443e+000 1.235527e+000 6.160177e+000 8.600968e+000 1.578729e+000 1.182359e+001 4.194813e+000
<GCONST> 9.455971e+001
<MIXTURE> 5 1.197010e-002
<MEAN> 39
 -3.105159e+000 1.723004e+000 2.323777e-001 6.173971e-001 1.045048e+000 1.523334e+000 1.964891e+000 1.359661e+000 4.898686e-001 5.393427e-001 8.218469e-002 9.962762e-001 6.249319e-001 3.591847e+000 -7.465958e+000 -6.310168e+000 -4.770291e+000 -7.827357e+000 -1.429040e+000 -1.003538e+000 -1.657784e-001 2.283441e+000 2.024364e+000 3.672776e-001 -2.427509e+000 -5.835148e+000 4.198104e+000 2.750997e+000 4.207618e+000 -3.695491e-001 2.546154e+000 -1.561066e+000 -3.171217e+000 -1.554559e+000 -2.874060e+000 -3.661926e+000 -1.816332e+000 -1.386382e+000 -1.977817e+000
<VARIANCE> 39
 3.882182e-002 3.246836e+000 8.847159e-001 5.497053e-001 4.746095e+000 1.885080e+000 2.568494e+000 6.482661e-001 5.333197e-001 1.907185e-001 2.249970e-001 7.877470e-001 1.920168e-001 8.183784e+000 2.314824e+000 5.214447e+000 7.667534e-001 3.234380e+000 1.238160e+000 1.043379e+001 2.592817e+000 5.021388e+000 7.824065e+000 8.409400e-001 1.068920e+000 2.323236e+000 2.469530e-001 6.700049e+000 6.560571e+000 8.111300e+000 1.417194e+001 1.239855e+000 1.424642e+000 1.095126e+000 5.390509e-001 6.221582e-001 3.536665e-001 3.533861e+000 8.843579e+000
<GCONST> 8.843941e+001
<MIXTURE> 6 1.197084e-002
<MEAN> 39
 -2.491628e+000 7.195589e-001 -1.276542e+000 -8.615479e-001 -2.390688e+000 -6.592581e-001 1.740219e+000 1.636762e+000 2.710074e+000 -7.294619e-001 6.817617e-001 6.376338e-001 6.132575e-001 4.421040e+000 -3.446632e+000 1.323363e+000 1.224423e+000 2.869817e+000 1.422411e-001 -1.725418e+000 9.027472e-001 7.227607e-003 -4.320297e-001 -3.959180e+000 -1.293211e+000 -5.163286e+000 3.236857e+000 -2.316906e-001 2.044598e+000 3.280600e+000 1.161429e+000 -2.679490e-002 -1.591272e+000 -4.199582e+000 -3.363304e+000 3.513832e-001 -8.653847e-001 -1.070759e+000 -7.229094e-001
<VARIANCE> 39
 1.971992e-001 8.649486e-001 2.328161e-002 1.095651e+000 2.440457e+000 1.405384e+000 8.040166e+000 1.827472e+000 6.793257e+000 1.211937e+000 1.741462e+000 5.815240e-001 4.235178e-001 1.739678e+000 2.867487e-001 4.651335e-001 4.121999e+000 1.097226e+000 1.032319e+000 2.134419e-001 2.424873e+000 2.600994e+000 5.099404e-002 6.165040e-002 1.311590e-002 3.048991e-001 1.232543e+000 6.516502e-001 2.809606e-001 1.698092e+001 6.015944e-001 2.241815e+000 5.898550e+000 1.008640e+000 2.603384e+000 5.058779e-001 1.795002e+000 2.104960e+000 4.922155e+000
<GCONST> 6.713885e+001
<MIXTURE> 7 2.793031e-002
<MEAN> 39
 -3.026435e+000 5.995193e+000 3.238914e+000 1.674978e+000 4.296888e+000 1.722254e+000 -5.688751e-001 1.532711e+000 -1.497658e+000 -1.863315e+000 -9.795499e-002 2.163024e+000 1.465336e+000 -6.460735e-001 -7.186393e-001 -2.174449e+000 -1.695687e+000 -4.008398e-001 9.738645e-001 -3.031103e-001 -1.202629e+000 -3.913029e-001 1.480437e+000 -6.595088e-001 -6.581866e-001 -3.042632e+000 1.511475e+000 -4.155597e+000 -2.704705e+000 5.275017e-001 -2.174519e+000 -1.185045e+000 9.347478e-001 1.184628e+000 2.552552e+000 -6.431000e-001 7.500337e-001 -2.959622e-001 -1.224505e+000
<VARIANCE> 39
 1.764575e-001 1.073476e+000 4.834245e-001 2.673539e-001 1.048235e+000 6.200174e+000 3.439900e+000 1.754875e+000 9.695034e-001 6.929322e-001 1.014102e+000 2.945571e+000 2.300148e-001 1.506155e+000 1.551260e+001 1.081611e+001 2.335761e+000 6.401103e+000 1.272568e+000 5.176891e+000 1.894661e+000 1.492871e+001 6.037097e+000 5.732882e+000 1.125182e+001 6.151181e-001 4.454915e-001 2.708848e+000 8.444344e+000 6.033827e+000 1.117712e+001 8.756775e+000 4.091348e+000 1.553480e+000 4.785055e+000 1.438632e+001 5.863992e+000 1.000307e+001 1.684605e+000
<GCONST> 1.091841e+002
<MIXTURE> 8 6.785049e-002
<MEAN> 39
 8.140250e-001 -4.636955e-001 -1.362491e+000 -1.042033e+000 5.796790e-001 1.050924e+000 3.250382e-001 3.574250e-001 8.084182e-001 2.507403e-001 -5.092520e-001 -1.290256e+000 7.740883e-001 -3.060776e+000 7.939484e-001 9.287617e-001 2.802822e+000 -2.246678e+000 -1.373867e-001 5.812076e-001 -1.255160e-001 -4.734599e-001 -3.614922e-001 5.211188e-001 1.761421e+000 -3.109511e+000 -5.686442e-001 6.399534e-001 1.701335e+000 9.654797e-001 1.230364e-001 -1.171804e+000 -4.816643e-001 -4.398183e-001 -7.337621e-001 -9.181914e-002 9.838036e-001 1.100552e+000 -1.469288e+000
<VARIANCE> 39
 2.692526e+000 1.554529e+000 1.688818e+000 1.119416e+000 1.038958e+000 1.344222e+000 6.073071e-001 1.662437e+000 1.632717e+000 6.361205e-001 1.827048e+000 2.294596e+000 2.643208e-001 2.564263e+000 3.014763e+000 8.195320e+000 3.527858e+000 1.025257e+000 5.520550e-001 2.090708e+000 2.665918e+000 5.328425e+000 3.366705e+000 3.408438e+000 2.932759e+000 1.779659e+000 6.181377e+000 3.118125e+000 3.459576e+000 6.311485e+000 2.053562e+000 7.436986e-001 2.009215e+000 3.904088e+000 1.869525e+000 1.033903e+000 1.927329e+000 3.857368e+000 5.188313e+000
<GCONST> 9.939084e+001
<MIXTURE> 9 1.209122e-001
<MEAN> 39
 -1.998344e-001 3.040905e-001 -3.385623e-004 -1.906632e-002 4.916441e-001 -3.409986e-001 2.448741e-001 -4.539351e-001 -8.327401e-002 -3.899229e-001 -5.098617e-001 -2.746682e-001 -2.579293e-001 -6.685045e-001 -8.077434e-001 -4.750530e-001 6.830706e-002 8.292456e-002 3.314973e-001 4.503593e-001 3.104282e-001 1.555656e-001 -3.420952e-002 -3.658479e-001 3.307471e-001 -1.110562e+000 1.473994e-001 3.056857e-001 4.582469e-001 5.671515e-001 -8.174152e-002 -5.816010e-002 -4.237923e-001 -3.240151e-001 1.004938e-001 7.684626e-002 2.323467e-001 2.683932e-001 4.974518e-001
<VARIANCE> 39
 1.207699e-001 8.542576e-001 3.226821e-001 3.364078e-001 8.478746e-001 6.352736e-001 3.899242e-001 3.466139e-001 7.914279e-001 6.266316e-001 6.138516e-001 5.144913e-001 5.481036e-002 6.300049e-001 3.432567e-001 1.048897e+000 1.036861e+000 1.102295e+000 3.886437e-001 6.969623e-001 1.193535e+000 1.382527e+000 1.071341e+000 7.391251e-001 1.255376e+000 4.285825e-001 4.242800e-001 8.356149e-001 9.310207e-001 1.220634e+000 1.088878e+000 4.964596e-001 1.206706e+000 7.426900e-001 7.347763e-001 9.998015e-001 5.579044e-001 5.223247e-001 7.681407e-001
<GCONST> 5.336004e+001
<MIXTURE> 10 1.407166e-001
<MEAN> 39
 -5.444022e-001 5.123979e-001 -7.642356e-001 -3.305747e-001 -4.370471e-001 -9.847298e-001 -4.846784e-001 -1.458802e+000 -1.520195e+000 -1.349241e+000 -1.388153e+000 -9.261935e-001 7.234538e-001 -1.475354e+000 -1.335631e+000 7.768247e-001 1.908278e+000 2.086729e-001 8.579437e-002 2.069623e-002 1.279948e+000 7.797000e-001 3.076672e-001 6.575664e-001 6.884483e-002 -1.674781e+000 7.211725e-001 -1.532401e-001 4.905070e-001 1.854378e-002 6.108220e-001 1.088658e+000 7.734855e-001 1.540129e+000 1.725157e+000 1.252144e+000 1.423775e+000 9.336576e-001 -1.525433e+000
<VARIANCE> 39
 1.305855e+000 1.300343e+000 9.927045e-001 7.326632e-001 2.376252e+000 9.839578e-001 9.544054e-001 6.090919e-001 6.924842e-001 1.485601e+000 8.381721e-001 1.560525e+000 3.209343e-001 1.863373e+000 3.782285e+000 2.591093e+000 3.520472e+000 4.406330e+000 2.076282e+000 1.489572e+000 2.911694e+000 2.523270e+000 2.391827e+000 3.504728e+000 3.432178e+000 1.063264e+000 3.189139e+000 3.338905e+000 2.639930e+000 3.217530e+000 4.941994e+000 1.616623e+000 1.708217e+000 2.592522e+000 6.935156e-001 1.620768e+000 2.015045e+000 2.074887e+000 1.259917e+000
<GCONST> 9.339548e+001
<MIXTURE> 11 4.782842e-002
<MEAN> 39
 4.556908e-001 2.900383e-001 6.029784e-001 -4.257158e-001 2.711106e-001 1.271946e+000 -2.298381e-002 -9.815434e-001 -4.763792e-001 -5.394611e-001 7.147954e-001 6.820608e-001 1.050067e+000 -1.593039e+000 -1.479483e+000 -2.347006e+000 -7.783808e-001 -9.753520e-001 -1.434129e+000 -6.528272e-001 1.850784e-001 5.777253e-001 6.669462e-001 -2.109659e+000 -1.024605e+000 -1.585937e+000 -1.027282e+000 9.743690e-001 -7.542187e-001 -2.002581e-001 -6.057140e-001 -1.273561e+000 4.175263e-001 9.697819e-001 -1.128523e-001 4.408892e-001 -1.301478e-001 -3.225115e-001 -1.299061e+000
<VARIANCE> 39
 9.998266e-001 2.223499e+000 2.276558e+000 2.258723e+000 1.524419e+000 2.584351e+000 2.310786e+000 4.594552e-001 7.065535e-001 1.824132e+000 1.294424e+000 2.052264e+000 1.954577e-001 8.090517e-001 1.266741e+000 2.218622e+000 1.868016e+000 1.585531e+000 3.952016e+000 1.166592e+000 1.150777e+000 1.268691e+000 2.124950e+000 2.898338e+000 1.813499e+000 1.827175e-001 2.083928e+000 3.631498e+000 2.604142e+000 3.872240e+000 2.001267e+000 4.157719e+000 1.953799e+000 1.456480e+000 1.382093e+000 4.000893e+000 2.288674e+000 3.093476e+000 1.017465e+000
<GCONST> 9.085426e+001
<MIXTURE> 12 1.659264e-001
<MEAN> 39
 6.781492e-001 1.537225e+000 4.206469e-002 -8.305465e-001 -1.157788e+000 -1.243632e+000 -3.026037e-001 -5.988382e-001 -1.237987e-001 7.488880e-002 3.955190e-002 8.466155e-001 5.364762e-001 -8.228125e-001 -2.942359e-001 -1.010683e-001 7.303791e-002 3.040379e-001 -4.100609e-001 -2.387744e-002 -3.010093e-001 1.415757e-001 -3.224884e-002 3.268874e-002 2.976586e-001 -8.511536e-001 7.708099e-002 -2.173997e-001 -6.208284e-002 2.219064e-001 2.705861e-001 2.116331e-001 2.383323e-001 2.548873e-002 -4.737118e-001 -1.906289e-001 -1.596807e-001 -5.296174e-001 6.379700e-002
<VARIANCE> 39
 9.665912e-001 1.894146e-001 4.757476e-001 1.391889e-001 6.211923e-001 4.808441e-001 2.209072e-001 2.636257e-001 7.826157e-001 5.643858e-001 6.287755e-001 8.865765e-001 1.048946e-001 3.604095e-001 3.506855e-001 3.123859e-001 6.153839e-001 8.567174e-001 8.498084e-001 1.100161e+000 8.851222e-001 9.157564e-001 1.335384e+000 8.347991e-001 8.658547e-001 2.281385e-001 2.220780e-001 4.866967e-001 3.515848e-001 1.013593e+000 8.451123e-001 6.678162e-001 5.441242e-001 4.576494e-001 1.008036e+000 1.382106e+000 4.951383e-001 8.562102e-001 2.343257e-001
<GCONST> 4.669770e+001
<MIXTURE> 13 9.808251e-002
<MEAN> 39
 1.547750e+000 1.843034e+000 -9.248551e-001 -1.300570e+000 -1.293173e+000 -8.663495e-001 -5.803775e-001 -4.762382e-001 -3.748862e-002 -1.723391e-001 4.841269e-001 -2.401354e-001 9.778507e-001 -2.365574e+000 -8.159384e-001 1.490032e-001 1.417048e+000 3.448968e-001 -4.741494e-001 3.826904e-001 8.192736e-001 6.309782e-001 6.946129e-001 3.824048e-001 3.484966e-001 -2.031468e+000 -9.318609e-001 -1.176400e+000 -1.119467e-001 2.775056e-001 9.327925e-001 1.543726e-001 -3.131801e-001 -8.673557e-001 -4.565634e-001 3.204102e-004 3.712287e-002 1.548417e-001 -1.424151e-001
<VARIANCE> 39
 9.194431e-001 2.007049e+000 1.208155e+000 1.883473e-001 6.962557e-001 1.578034e+000 7.291651e-001 9.031354e-001 1.419271e+000 1.730637e+000 1.049135e+000 1.346253e+000 1.337662e-001 2.181488e+000 3.314474e+000 3.459511e+000 1.646298e+000 2.388324e+000 1.414636e+000 1.414436e+000 1.463532e+000 6.393546e-001 1.301813e+000 2.006374e+000 2.385236e+000 1.024959e+000 3.311102e+000 1.913746e+000 1.136109e+000 1.736280e+000 1.937659e+000 7.501680e-001 8.691956e-001 7.544340e-001 7.620972e-001 5.927737e-001 2.405363e+000 2.119956e+000 9.377124e-001
<GCONST> 8.003583e+001
<MIXTURE> 14 9.217087e-002
<MEAN> 39
 7.509026e-001 3.657273e-001 5.826097e-002 4.125536e-001 3.241517e-001 -8.812152e-001 -6.780936e-001 -1.492789e+000 -6.743470e-001 3.683569e-001 6.174910e-002 -5.844375e-001 2.726922e-001 -2.623640e-001 -7.141712e-002 -2.080896e-002 2.971847e-001 9.859558e-003 -2.494357e-001 -2.242624e-001 -1.496475e-001 3.252420e-001 2.599918e-001 -1.332543e-002 2.553690e-001 -4.855247e-001 4.381591e-002 2.772526e-001 -4.930835e-002 -6.399794e-001 -2.454631e-001 3.689518e-001 6.440017e-001 9.567751e-001 2.764426e-002 -3.813800e-001 -7.641446e-002 6.541079e-001 7.039078e-002
<VARIANCE> 39
 8.583472e-001 4.417627e-001 8.663743e-001 1.106452e+000 7.525256e-001 4.641834e-001 3.215218e-001 3.105771e-001 1.946978e+000 6.870770e-001 4.362159e-001 2.646794e-001 1.536399e-001 5.429900e-001 5.301910e-001 1.269397e-001 6.090689e-001 1.083894e+000 9.693707e-001 5.506076e-001 8.618321e-001 6.525009e-001 7.589987e-001 7.235932e-001 5.967950e-001 2.026933e-001 2.851513e-001 3.572267e-001 1.327444e-001 1.295572e+000 6.685820e-001 7.817469e-001 2.199192e-001 6.349010e-001 9.338135e-001 1.147178e+000 7.838774e-001 4.773056e-001 4.332711e-001
<GCONST> 4.751610e+001
<TRANSP> 8
